GenomeStart 116486
Genome Fitness: 8525.000000 
Neuron 1 1 0.00000000 1 0.00000000 0.00000000 0.00000000 0.00000000
Neuron 2 1 0.00000000 1 0.00000000 0.00000000 0.00000000 0.00000000
Neuron 3 1 0.00000000 1 0.00000000 0.00000000 0.00000000 0.00000000
Neuron 4 1 0.00000000 1 0.00000000 0.00000000 0.00000000 0.00000000
Neuron 5 1 0.00000000 1 0.00000000 0.00000000 0.00000000 0.00000000
Neuron 6 1 0.00000000 1 0.00000000 0.00000000 0.00000000 0.00000000
Neuron 7 1 0.00000000 1 0.00000000 0.00000000 0.00000000 0.00000000
Neuron 8 1 0.00000000 1 0.00000000 0.00000000 0.00000000 0.00000000
Neuron 9 1 0.00000000 1 0.00000000 0.00000000 0.00000000 0.00000000
Neuron 10 1 0.00000000 1 0.00000000 0.00000000 0.00000000 0.00000000
Neuron 11 1 0.00000000 1 0.00000000 0.00000000 0.00000000 0.00000000
Neuron 12 1 0.00000000 1 0.00000000 0.00000000 0.00000000 0.00000000
Neuron 13 1 0.00000000 1 0.00000000 0.00000000 0.00000000 0.00000000
Neuron 14 2 0.00000000 1 0.00000000 0.00000000 0.00000000 0.00000000
Neuron 15 4 1.00000000 1 4.90000000 0.00000000 0.00000000 0.00000000
Neuron 16 4 1.00000000 1 4.90000000 0.00000000 0.00000000 0.00000000
Neuron 17 4 1.00000000 1 4.90000000 0.00000000 0.00000000 0.00000000
Neuron 42 3 0.50000000 1 4.90000000 0.00000000 0.00000000 0.00000000
Neuron 44 3 0.50000000 1 4.90000000 0.00000000 0.00000000 0.00000000
Neuron 54 3 0.50000000 1 4.90000000 0.00000000 0.00000000 0.00000000
Neuron 101 3 0.25000000 1 4.90000000 0.00000000 0.00000000 0.00000000
Neuron 108 3 0.75000000 1 4.90000000 0.00000000 0.00000000 0.00000000
Neuron 112 3 0.25000000 1 4.90000000 0.00000000 0.00000000 0.00000000
Link 1 15 1 0 2.68490145
Link 2 15 2 0 4.40012815
Link 3 15 3 0 -0.00173951
Link 4 15 4 0 -1.37706523
Link 5 15 5 0 3.53434253
Link 6 15 6 0 1.18424008
Link 7 15 7 0 -1.14740929
Link 8 15 8 0 1.45864196
Link 10 15 10 0 -3.78877527
Link 11 15 11 0 0.49583012
Link 12 15 12 0 0.15230530
Link 13 15 13 0 -1.56003391
Link 14 15 14 0 -1.78275785
Link 1 16 15 0 -3.22116849
Link 2 16 16 0 3.65354877
Link 3 16 17 0 3.35215038
Link 6 16 20 0 -3.39238883
Link 7 16 21 0 -1.89156372
Link 8 16 22 0 -1.55321557
Link 9 16 23 0 -1.65919911
Link 10 16 24 0 3.50125422
Link 11 16 25 0 1.65863570
Link 12 16 26 0 0.20695542
Link 13 16 27 0 -2.05481578
Link 14 16 28 0 1.40192773
Link 1 17 29 0 0.02720527
Link 2 17 30 0 0.57366606
Link 3 17 31 0 1.22640350
Link 4 17 32 0 -1.62795570
Link 5 17 33 0 -1.15456039
Link 6 17 34 0 -0.93234932
Link 7 17 35 0 0.97830225
Link 8 17 36 0 -7.40358929
Link 9 17 37 0 -0.92232628
Link 10 17 38 0 -1.61493101
Link 11 17 39 0 5.17607108
Link 12 17 40 0 -3.05609670
Link 13 17 41 0 -2.71596419
Link 14 17 42 0 -0.04435479
Link 9 42 138 0 1.05353207
Link 44 16 152 0 -0.53588705
Link 5 54 205 0 -3.92914404
Link 54 16 206 0 -1.07903624
Link 12 54 323 0 0.74999616
Link 9 54 361 0 -0.13435844
Link 8 44 577 0 0.36989016
Link 4 101 593 0 -3.16047045
Link 101 44 594 0 2.89464126
Link 101 15 647 0 0.98985321
Link 7 101 651 0 1.18621929
Link 42 108 662 0 0.43448658
Link 108 15 663 0 2.50417252
Link 101 42 673 0 -1.31584106
Link 10 101 674 0 3.09766929
Link 9 112 689 0 -0.14766398
Link 112 42 690 0 0.10081071
GenomeEnd

