GenomeStart 72993
Genome Fitness: 5090.000000 
Neuron 1 1 0.00000000 1 0.00000000 0.00000000 0.00000000 0.00000000
Neuron 2 1 0.00000000 1 0.00000000 0.00000000 0.00000000 0.00000000
Neuron 3 1 0.00000000 1 0.00000000 0.00000000 0.00000000 0.00000000
Neuron 4 1 0.00000000 1 0.00000000 0.00000000 0.00000000 0.00000000
Neuron 5 1 0.00000000 1 0.00000000 0.00000000 0.00000000 0.00000000
Neuron 6 1 0.00000000 1 0.00000000 0.00000000 0.00000000 0.00000000
Neuron 7 1 0.00000000 1 0.00000000 0.00000000 0.00000000 0.00000000
Neuron 8 1 0.00000000 1 0.00000000 0.00000000 0.00000000 0.00000000
Neuron 9 1 0.00000000 1 0.00000000 0.00000000 0.00000000 0.00000000
Neuron 10 1 0.00000000 1 0.00000000 0.00000000 0.00000000 0.00000000
Neuron 11 1 0.00000000 1 0.00000000 0.00000000 0.00000000 0.00000000
Neuron 12 1 0.00000000 1 0.00000000 0.00000000 0.00000000 0.00000000
Neuron 13 1 0.00000000 1 0.00000000 0.00000000 0.00000000 0.00000000
Neuron 14 2 0.00000000 1 0.00000000 0.00000000 0.00000000 0.00000000
Neuron 15 4 1.00000000 1 4.90000000 0.00000000 0.00000000 0.00000000
Neuron 16 4 1.00000000 1 4.90000000 0.00000000 0.00000000 0.00000000
Neuron 17 4 1.00000000 1 4.90000000 0.00000000 0.00000000 0.00000000
Neuron 42 3 0.50000000 1 4.90000000 0.00000000 0.00000000 0.00000000
Neuron 44 3 0.50000000 1 4.90000000 0.00000000 0.00000000 0.00000000
Neuron 54 3 0.50000000 1 4.90000000 0.00000000 0.00000000 0.00000000
Neuron 101 3 0.25000000 1 4.90000000 0.00000000 0.00000000 0.00000000
Neuron 108 3 0.75000000 1 4.90000000 0.00000000 0.00000000 0.00000000
Neuron 112 3 0.25000000 1 4.90000000 0.00000000 0.00000000 0.00000000
Link 1 15 1 0 2.69246140
Link 2 15 2 0 5.59489426
Link 3 15 3 0 0.39167717
Link 4 15 4 0 -1.75144211
Link 5 15 5 0 2.83937356
Link 6 15 6 0 1.18423732
Link 7 15 7 0 -0.63030242
Link 8 15 8 0 -1.35140471
Link 10 15 10 0 -4.40517088
Link 11 15 11 0 -0.78691334
Link 12 15 12 0 0.11514235
Link 13 15 13 0 -0.68418098
Link 14 15 14 0 2.51484435
Link 1 16 15 0 -3.20664052
Link 2 16 16 0 3.24321452
Link 3 16 17 0 4.60123647
Link 6 16 20 0 -3.09916941
Link 7 16 21 0 -1.90802615
Link 8 16 22 0 -1.78384801
Link 9 16 23 0 -1.65919911
Link 10 16 24 0 2.59673389
Link 11 16 25 0 1.65863570
Link 12 16 26 0 1.74668703
Link 13 16 27 0 -1.94318158
Link 14 16 28 0 0.78614662
Link 1 17 29 0 0.02720527
Link 2 17 30 0 0.57366606
Link 3 17 31 0 1.22640350
Link 4 17 32 0 -1.62795570
Link 5 17 33 0 -1.15456039
Link 6 17 34 0 -0.93234932
Link 7 17 35 0 0.97830225
Link 8 17 36 0 -7.40358929
Link 9 17 37 0 -0.92232628
Link 10 17 38 0 -1.61493101
Link 11 17 39 0 5.17607108
Link 12 17 40 0 -3.05609670
Link 13 17 41 0 -0.54924327
Link 14 17 42 0 -1.29811995
Link 44 16 152 0 -0.86054565
Link 5 54 205 0 -4.10258136
Link 54 16 206 0 -1.33599059
Link 9 54 361 0 -0.23534880
Link 8 44 577 0 -0.67246052
Link 4 101 593 0 -3.26843688
Link 101 44 594 0 2.75083023
Link 101 15 647 0 1.26043049
Link 7 101 651 0 1.45123496
Link 42 108 662 0 0.04461799
Link 108 15 663 0 2.44165098
Link 10 101 674 0 2.42948872
Link 9 112 689 0 0.10338932
Link 112 42 690 0 0.53116666
GenomeEnd

