GenomeStart 8350
Genome Fitness: 1043.000000 
Neuron 1 1 0.00000000 1 0.00000000 0.00000000 0.00000000 0.00000000
Neuron 2 1 0.00000000 1 0.00000000 0.00000000 0.00000000 0.00000000
Neuron 3 1 0.00000000 1 0.00000000 0.00000000 0.00000000 0.00000000
Neuron 4 1 0.00000000 1 0.00000000 0.00000000 0.00000000 0.00000000
Neuron 5 1 0.00000000 1 0.00000000 0.00000000 0.00000000 0.00000000
Neuron 6 1 0.00000000 1 0.00000000 0.00000000 0.00000000 0.00000000
Neuron 7 1 0.00000000 1 0.00000000 0.00000000 0.00000000 0.00000000
Neuron 8 1 0.00000000 1 0.00000000 0.00000000 0.00000000 0.00000000
Neuron 9 1 0.00000000 1 0.00000000 0.00000000 0.00000000 0.00000000
Neuron 10 1 0.00000000 1 0.00000000 0.00000000 0.00000000 0.00000000
Neuron 11 1 0.00000000 1 0.00000000 0.00000000 0.00000000 0.00000000
Neuron 12 1 0.00000000 1 0.00000000 0.00000000 0.00000000 0.00000000
Neuron 13 1 0.00000000 1 0.00000000 0.00000000 0.00000000 0.00000000
Neuron 14 2 0.00000000 1 0.00000000 0.00000000 0.00000000 0.00000000
Neuron 15 4 1.00000000 1 4.90000000 0.00000000 0.00000000 0.00000000
Neuron 16 4 1.00000000 1 4.90000000 0.00000000 0.00000000 0.00000000
Neuron 17 4 1.00000000 1 4.90000000 0.00000000 0.00000000 0.00000000
Neuron 21 3 0.50000000 1 4.90000000 0.00000000 0.00000000 0.00000000
Link 1 15 1 0 1.29063715
Link 2 15 2 0 3.30667144
Link 3 15 3 0 -0.64077276
Link 4 15 4 0 0.65346098
Link 5 15 5 0 0.23224701
Link 6 15 6 0 1.43234110
Link 7 15 7 0 -3.80640301
Link 8 15 8 0 2.80475463
Link 9 15 9 0 3.43448987
Link 10 15 10 0 -0.05507013
Link 11 15 11 0 -4.10261000
Link 12 15 12 0 -0.30975010
Link 13 15 13 0 1.54670193
Link 14 15 14 0 0.68599545
Link 1 16 15 0 -3.74988300
Link 2 16 16 0 2.34323728
Link 4 16 18 0 -0.67973401
Link 5 16 19 0 2.12180016
Link 6 16 20 0 3.18070018
Link 7 16 21 0 -1.28497713
Link 8 16 22 0 -0.30685572
Link 9 16 23 0 -2.63791098
Link 10 16 24 0 0.46445762
Link 11 16 25 0 -0.17130174
Link 12 16 26 0 0.33748887
Link 13 16 27 0 0.66181363
Link 14 16 28 0 2.78971432
Link 1 17 29 0 -3.14734290
Link 2 17 30 0 -2.54271469
Link 3 17 31 0 1.31809809
Link 4 17 32 0 1.67593728
Link 5 17 33 0 3.51538544
Link 6 17 34 0 1.15975750
Link 7 17 35 0 -2.52952554
Link 8 17 36 0 -1.28220138
Link 9 17 37 0 -0.65749469
Link 10 17 38 0 1.44328038
Link 11 17 39 0 -1.11180018
Link 12 17 40 0 3.48803850
Link 13 17 41 0 4.00132186
Link 14 17 42 0 -0.85099405
Link 3 21 53 0 -2.58024054
Link 21 16 54 0 -2.31288640
GenomeEnd

