GenomeStart 145875
Genome Fitness: 8525.000000 
Neuron 1 1 0.00000000 1 0.00000000 0.00000000 0.00000000 0.00000000
Neuron 2 1 0.00000000 1 0.00000000 0.00000000 0.00000000 0.00000000
Neuron 3 1 0.00000000 1 0.00000000 0.00000000 0.00000000 0.00000000
Neuron 4 1 0.00000000 1 0.00000000 0.00000000 0.00000000 0.00000000
Neuron 5 1 0.00000000 1 0.00000000 0.00000000 0.00000000 0.00000000
Neuron 6 1 0.00000000 1 0.00000000 0.00000000 0.00000000 0.00000000
Neuron 7 1 0.00000000 1 0.00000000 0.00000000 0.00000000 0.00000000
Neuron 8 1 0.00000000 1 0.00000000 0.00000000 0.00000000 0.00000000
Neuron 9 1 0.00000000 1 0.00000000 0.00000000 0.00000000 0.00000000
Neuron 10 1 0.00000000 1 0.00000000 0.00000000 0.00000000 0.00000000
Neuron 11 1 0.00000000 1 0.00000000 0.00000000 0.00000000 0.00000000
Neuron 12 1 0.00000000 1 0.00000000 0.00000000 0.00000000 0.00000000
Neuron 13 1 0.00000000 1 0.00000000 0.00000000 0.00000000 0.00000000
Neuron 14 2 0.00000000 1 0.00000000 0.00000000 0.00000000 0.00000000
Neuron 15 4 1.00000000 1 4.90000000 0.00000000 0.00000000 0.00000000
Neuron 16 4 1.00000000 1 4.90000000 0.00000000 0.00000000 0.00000000
Neuron 17 4 1.00000000 1 4.90000000 0.00000000 0.00000000 0.00000000
Neuron 38 3 0.50000000 1 4.90000000 0.00000000 0.00000000 0.00000000
Neuron 42 3 0.50000000 1 4.90000000 0.00000000 0.00000000 0.00000000
Neuron 44 3 0.50000000 1 4.90000000 0.00000000 0.00000000 0.00000000
Neuron 54 3 0.50000000 1 4.90000000 0.00000000 0.00000000 0.00000000
Neuron 101 3 0.25000000 1 4.90000000 0.00000000 0.00000000 0.00000000
Neuron 108 3 0.75000000 1 4.90000000 0.00000000 0.00000000 0.00000000
Neuron 112 3 0.25000000 1 4.90000000 0.00000000 0.00000000 0.00000000
Link 1 15 1 0 3.05728628
Link 2 15 2 0 4.40986046
Link 4 15 4 0 -1.44740955
Link 5 15 5 0 4.16336784
Link 6 15 6 0 1.56879073
Link 7 15 7 0 -0.84388539
Link 8 15 8 0 1.38961157
Link 10 15 10 0 -4.32374529
Link 11 15 11 0 0.22870899
Link 12 15 12 0 -0.52057780
Link 13 15 13 0 -0.98603332
Link 14 15 14 0 -0.35624044
Link 1 16 15 0 -3.14565640
Link 2 16 16 0 3.54296992
Link 3 16 17 0 3.73867362
Link 6 16 20 0 -3.62414630
Link 7 16 21 0 -1.89958018
Link 8 16 22 0 -1.85663199
Link 9 16 23 0 -1.40472777
Link 10 16 24 0 3.53260655
Link 11 16 25 0 1.80086613
Link 12 16 26 0 0.33155097
Link 13 16 27 0 -2.02207444
Link 14 16 28 0 0.89596345
Link 1 17 29 0 0.02720527
Link 2 17 30 0 0.57366606
Link 3 17 31 0 1.22640350
Link 4 17 32 0 -1.62795570
Link 5 17 33 0 -1.15456039
Link 6 17 34 0 -0.93234932
Link 7 17 35 0 0.97830225
Link 8 17 36 0 -7.40358929
Link 9 17 37 0 -0.92232628
Link 10 17 38 0 -1.61493101
Link 11 17 39 0 5.17607108
Link 12 17 40 0 -3.05776974
Link 13 17 41 0 -2.76865821
Link 14 17 42 0 0.03584352
Link 3 38 115 0 1.00000000
Link 38 15 116 0 0.03233157
Link 9 42 138 0 1.11998059
Link 44 16 152 0 -0.50066361
Link 5 54 205 0 -3.45171954
Link 54 16 206 0 -1.17085425
Link 12 54 323 0 0.25780727
Link 9 54 361 0 -0.49956326
Link 8 44 577 0 -0.29568180
Link 4 101 593 0 -2.85186978
Link 101 44 594 0 2.73796875
Link 101 15 647 0 1.18483243
Link 7 101 651 0 1.30386544
Link 42 108 662 0 0.74971109
Link 108 15 663 0 2.29487285
Link 101 42 673 0 -1.01087353
Link 10 101 674 0 3.47491642
Link 9 112 689 0 0.80249521
Link 112 42 690 0 0.47698389
GenomeEnd

