GenomeStart 146025
Genome Fitness: 8525.000000 
Neuron 1 1 0.00000000 1 0.00000000 0.00000000 0.00000000 0.00000000
Neuron 2 1 0.00000000 1 0.00000000 0.00000000 0.00000000 0.00000000
Neuron 3 1 0.00000000 1 0.00000000 0.00000000 0.00000000 0.00000000
Neuron 4 1 0.00000000 1 0.00000000 0.00000000 0.00000000 0.00000000
Neuron 5 1 0.00000000 1 0.00000000 0.00000000 0.00000000 0.00000000
Neuron 6 1 0.00000000 1 0.00000000 0.00000000 0.00000000 0.00000000
Neuron 7 1 0.00000000 1 0.00000000 0.00000000 0.00000000 0.00000000
Neuron 8 1 0.00000000 1 0.00000000 0.00000000 0.00000000 0.00000000
Neuron 9 1 0.00000000 1 0.00000000 0.00000000 0.00000000 0.00000000
Neuron 10 1 0.00000000 1 0.00000000 0.00000000 0.00000000 0.00000000
Neuron 11 1 0.00000000 1 0.00000000 0.00000000 0.00000000 0.00000000
Neuron 12 1 0.00000000 1 0.00000000 0.00000000 0.00000000 0.00000000
Neuron 13 1 0.00000000 1 0.00000000 0.00000000 0.00000000 0.00000000
Neuron 14 2 0.00000000 1 0.00000000 0.00000000 0.00000000 0.00000000
Neuron 15 4 1.00000000 1 4.90000000 0.00000000 0.00000000 0.00000000
Neuron 16 4 1.00000000 1 4.90000000 0.00000000 0.00000000 0.00000000
Neuron 17 4 1.00000000 1 4.90000000 0.00000000 0.00000000 0.00000000
Neuron 42 3 0.50000000 1 4.90000000 0.00000000 0.00000000 0.00000000
Neuron 44 3 0.50000000 1 4.90000000 0.00000000 0.00000000 0.00000000
Neuron 54 3 0.50000000 1 4.90000000 0.00000000 0.00000000 0.00000000
Neuron 101 3 0.25000000 1 4.90000000 0.00000000 0.00000000 0.00000000
Neuron 108 3 0.75000000 1 4.90000000 0.00000000 0.00000000 0.00000000
Neuron 112 3 0.25000000 1 4.90000000 0.00000000 0.00000000 0.00000000
Link 1 15 1 0 3.10915672
Link 2 15 2 0 4.40986076
Link 3 15 3 0 -0.07942419
Link 4 15 4 0 -1.44760290
Link 5 15 5 0 4.16229553
Link 6 15 6 0 1.56879060
Link 7 15 7 0 -0.84396028
Link 8 15 8 0 1.38961161
Link 10 15 10 0 -4.32374531
Link 11 15 11 0 0.16937982
Link 12 15 12 0 -0.55522635
Link 13 15 13 0 -0.98607603
Link 14 15 14 0 -0.35624043
Link 1 16 15 0 -3.14565308
Link 2 16 16 0 3.50826716
Link 3 16 17 0 3.73867381
Link 6 16 20 0 -3.61772952
Link 7 16 21 0 -1.89958156
Link 8 16 22 0 -1.85663199
Link 9 16 23 0 -1.40606483
Link 10 16 24 0 3.49287522
Link 11 16 25 0 1.80084240
Link 12 16 26 0 0.33124185
Link 13 16 27 0 -2.02207438
Link 14 16 28 0 1.05142450
Link 1 17 29 0 0.02720527
Link 2 17 30 0 0.57366606
Link 3 17 31 0 1.22640350
Link 4 17 32 0 -1.62795570
Link 5 17 33 0 -1.15456039
Link 6 17 34 0 -0.93234932
Link 7 17 35 0 0.97830225
Link 8 17 36 0 -7.40358929
Link 9 17 37 0 -0.92232628
Link 10 17 38 0 -1.61493101
Link 11 17 39 0 5.17607108
Link 12 17 40 0 -3.05776974
Link 13 17 41 0 -2.76865821
Link 14 17 42 0 0.03584260
Link 9 42 138 0 1.11993161
Link 44 16 152 0 -0.50073841
Link 5 54 205 0 -3.45172062
Link 54 16 206 0 -1.17082517
Link 12 54 323 0 0.25779577
Link 9 54 361 0 -0.58413880
Link 8 44 577 0 -0.29568180
Link 4 101 593 0 -2.76344936
Link 101 44 594 0 2.70247549
Link 101 15 647 0 1.18117794
Link 7 101 651 0 1.30376742
Link 42 108 662 0 0.74970943
Link 108 15 663 0 2.29552157
Link 101 42 673 0 -1.01086599
Link 10 101 674 0 3.47491681
Link 9 112 689 0 0.85537390
Link 112 42 690 0 0.46132752
GenomeEnd

