GenomeStart 1692
Genome Fitness: 390.000000 
Neuron 1 1 0.00000000 1 0.00000000 0.00000000 0.00000000 0.00000000
Neuron 2 1 0.00000000 1 0.00000000 0.00000000 0.00000000 0.00000000
Neuron 3 1 0.00000000 1 0.00000000 0.00000000 0.00000000 0.00000000
Neuron 4 1 0.00000000 1 0.00000000 0.00000000 0.00000000 0.00000000
Neuron 5 1 0.00000000 1 0.00000000 0.00000000 0.00000000 0.00000000
Neuron 6 1 0.00000000 1 0.00000000 0.00000000 0.00000000 0.00000000
Neuron 7 1 0.00000000 1 0.00000000 0.00000000 0.00000000 0.00000000
Neuron 8 1 0.00000000 1 0.00000000 0.00000000 0.00000000 0.00000000
Neuron 9 1 0.00000000 1 0.00000000 0.00000000 0.00000000 0.00000000
Neuron 10 1 0.00000000 1 0.00000000 0.00000000 0.00000000 0.00000000
Neuron 11 1 0.00000000 1 0.00000000 0.00000000 0.00000000 0.00000000
Neuron 12 1 0.00000000 1 0.00000000 0.00000000 0.00000000 0.00000000
Neuron 13 1 0.00000000 1 0.00000000 0.00000000 0.00000000 0.00000000
Neuron 14 2 0.00000000 1 0.00000000 0.00000000 0.00000000 0.00000000
Neuron 15 4 1.00000000 1 4.90000000 0.00000000 0.00000000 0.00000000
Neuron 16 4 1.00000000 1 4.90000000 0.00000000 0.00000000 0.00000000
Neuron 17 4 1.00000000 1 4.90000000 0.00000000 0.00000000 0.00000000
Link 1 15 1 0 -0.59126906
Link 2 15 2 0 0.28106852
Link 3 15 3 0 -1.69328483
Link 4 15 4 0 -0.02532953
Link 5 15 5 0 0.19290762
Link 6 15 6 0 0.09172195
Link 7 15 7 0 0.24359498
Link 8 15 8 0 0.72029609
Link 9 15 9 0 3.82114238
Link 10 15 10 0 -2.54711135
Link 11 15 11 0 0.12045962
Link 12 15 12 0 -0.48833736
Link 13 15 13 0 -2.75027360
Link 14 15 14 0 0.26697619
Link 1 16 15 0 -1.58260473
Link 2 16 16 0 -0.30557440
Link 3 16 17 0 -0.28116357
Link 4 16 18 0 -0.65638580
Link 5 16 19 0 0.56016267
Link 6 16 20 0 -0.32885807
Link 7 16 21 0 -0.45392391
Link 8 16 22 0 2.07149258
Link 9 16 23 0 -0.68841717
Link 10 16 24 0 2.86977524
Link 11 16 25 0 -1.34307230
Link 12 16 26 0 0.41492562
Link 13 16 27 0 -1.68673385
Link 14 16 28 0 0.46945593
Link 1 17 29 0 0.11322401
Link 2 17 30 0 0.67059110
Link 3 17 31 0 0.67916884
Link 4 17 32 0 -1.56020741
Link 5 17 33 0 0.25152813
Link 6 17 34 0 -0.45229880
Link 7 17 35 0 -0.42146287
Link 8 17 36 0 -1.23457617
Link 9 17 37 0 -0.65604973
Link 10 17 38 0 -0.15591235
Link 11 17 39 0 0.80120594
Link 12 17 40 0 -0.00236696
Link 13 17 41 0 -0.93565820
Link 14 17 42 0 1.76726192
GenomeEnd

