GenomeStart 269
Genome Fitness: 336.000000 
Neuron 1 1 0.00000000 1 0.00000000 0.00000000 0.00000000 0.00000000
Neuron 2 1 0.00000000 1 0.00000000 0.00000000 0.00000000 0.00000000
Neuron 3 1 0.00000000 1 0.00000000 0.00000000 0.00000000 0.00000000
Neuron 4 1 0.00000000 1 0.00000000 0.00000000 0.00000000 0.00000000
Neuron 5 1 0.00000000 1 0.00000000 0.00000000 0.00000000 0.00000000
Neuron 6 1 0.00000000 1 0.00000000 0.00000000 0.00000000 0.00000000
Neuron 7 1 0.00000000 1 0.00000000 0.00000000 0.00000000 0.00000000
Neuron 8 1 0.00000000 1 0.00000000 0.00000000 0.00000000 0.00000000
Neuron 9 1 0.00000000 1 0.00000000 0.00000000 0.00000000 0.00000000
Neuron 10 1 0.00000000 1 0.00000000 0.00000000 0.00000000 0.00000000
Neuron 11 1 0.00000000 1 0.00000000 0.00000000 0.00000000 0.00000000
Neuron 12 1 0.00000000 1 0.00000000 0.00000000 0.00000000 0.00000000
Neuron 13 1 0.00000000 1 0.00000000 0.00000000 0.00000000 0.00000000
Neuron 14 2 0.00000000 1 0.00000000 0.00000000 0.00000000 0.00000000
Neuron 15 4 1.00000000 1 4.90000000 0.00000000 0.00000000 0.00000000
Neuron 16 4 1.00000000 1 4.90000000 0.00000000 0.00000000 0.00000000
Neuron 17 4 1.00000000 1 4.90000000 0.00000000 0.00000000 0.00000000
Link 1 15 1 0 -1.85602516
Link 2 15 2 0 0.25264019
Link 3 15 3 0 -0.05495766
Link 4 15 4 0 1.35861837
Link 5 15 5 0 -2.35861600
Link 6 15 6 0 4.01641308
Link 7 15 7 0 2.56585925
Link 8 15 8 0 -1.01026729
Link 9 15 9 0 0.39558685
Link 10 15 10 0 -0.15303483
Link 11 15 11 0 1.41800866
Link 12 15 12 0 0.59894786
Link 13 15 13 0 0.64748903
Link 14 15 14 0 -4.73800806
Link 1 16 15 0 0.27314947
Link 2 16 16 0 1.69577912
Link 3 16 17 0 -0.33372920
Link 4 16 18 0 -2.46296306
Link 5 16 19 0 -1.21246846
Link 6 16 20 0 -1.86469635
Link 7 16 21 0 0.21433190
Link 8 16 22 0 0.72452650
Link 9 16 23 0 -0.08242228
Link 10 16 24 0 1.68525132
Link 11 16 25 0 0.03279074
Link 12 16 26 0 1.91257099
Link 13 16 27 0 0.28229276
Link 14 16 28 0 0.04643795
Link 1 17 29 0 -1.01302209
Link 2 17 30 0 1.35422063
Link 3 17 31 0 -0.88316469
Link 4 17 32 0 0.43306542
Link 5 17 33 0 1.27546819
Link 6 17 34 0 -2.58811314
Link 7 17 35 0 0.64575502
Link 8 17 36 0 -2.13757932
Link 9 17 37 0 1.85319693
Link 10 17 38 0 -0.03985181
Link 11 17 39 0 -0.71041652
Link 12 17 40 0 0.70694357
Link 13 17 41 0 0.21218763
Link 14 17 42 0 1.38290930
GenomeEnd

