GenomeStart 137771
Genome Fitness: 8525.000000 
Neuron 1 1 0.00000000 1 0.00000000 0.00000000 0.00000000 0.00000000
Neuron 2 1 0.00000000 1 0.00000000 0.00000000 0.00000000 0.00000000
Neuron 3 1 0.00000000 1 0.00000000 0.00000000 0.00000000 0.00000000
Neuron 4 1 0.00000000 1 0.00000000 0.00000000 0.00000000 0.00000000
Neuron 5 1 0.00000000 1 0.00000000 0.00000000 0.00000000 0.00000000
Neuron 6 1 0.00000000 1 0.00000000 0.00000000 0.00000000 0.00000000
Neuron 7 1 0.00000000 1 0.00000000 0.00000000 0.00000000 0.00000000
Neuron 8 1 0.00000000 1 0.00000000 0.00000000 0.00000000 0.00000000
Neuron 9 1 0.00000000 1 0.00000000 0.00000000 0.00000000 0.00000000
Neuron 10 1 0.00000000 1 0.00000000 0.00000000 0.00000000 0.00000000
Neuron 11 1 0.00000000 1 0.00000000 0.00000000 0.00000000 0.00000000
Neuron 12 1 0.00000000 1 0.00000000 0.00000000 0.00000000 0.00000000
Neuron 13 1 0.00000000 1 0.00000000 0.00000000 0.00000000 0.00000000
Neuron 14 2 0.00000000 1 0.00000000 0.00000000 0.00000000 0.00000000
Neuron 15 4 1.00000000 1 4.90000000 0.00000000 0.00000000 0.00000000
Neuron 16 4 1.00000000 1 4.90000000 0.00000000 0.00000000 0.00000000
Neuron 17 4 1.00000000 1 4.90000000 0.00000000 0.00000000 0.00000000
Neuron 42 3 0.50000000 1 4.90000000 0.00000000 0.00000000 0.00000000
Neuron 44 3 0.50000000 1 4.90000000 0.00000000 0.00000000 0.00000000
Neuron 54 3 0.50000000 1 4.90000000 0.00000000 0.00000000 0.00000000
Neuron 101 3 0.25000000 1 4.90000000 0.00000000 0.00000000 0.00000000
Neuron 108 3 0.75000000 1 4.90000000 0.00000000 0.00000000 0.00000000
Neuron 112 3 0.25000000 1 4.90000000 0.00000000 0.00000000 0.00000000
Link 1 15 1 0 2.97884560
Link 2 15 2 0 4.41239899
Link 3 15 3 0 0.03296839
Link 4 15 4 0 -1.42698594
Link 5 15 5 0 4.17936087
Link 6 15 6 0 1.56879482
Link 7 15 7 0 -0.83573642
Link 8 15 8 0 1.38965276
Link 10 15 10 0 -4.32214301
Link 11 15 11 0 0.22870899
Link 12 15 12 0 -0.51515198
Link 13 15 13 0 -0.97486017
Link 14 15 14 0 -0.35627193
Link 1 16 15 0 -3.18615656
Link 2 16 16 0 3.38600119
Link 3 16 17 0 3.71722556
Link 6 16 20 0 -3.75653153
Link 7 16 21 0 -1.91233385
Link 8 16 22 0 -1.85663199
Link 9 16 23 0 -1.42315653
Link 10 16 24 0 3.66756000
Link 11 16 25 0 1.74131939
Link 12 16 26 0 0.20664650
Link 13 16 27 0 -2.02220913
Link 14 16 28 0 0.57561158
Link 1 17 29 0 0.02720527
Link 2 17 30 0 0.57366606
Link 3 17 31 0 1.22640350
Link 4 17 32 0 -1.62795570
Link 5 17 33 0 -1.15456039
Link 6 17 34 0 -0.93234932
Link 7 17 35 0 0.97830225
Link 8 17 36 0 -7.40358929
Link 9 17 37 0 -0.92232628
Link 10 17 38 0 -1.61493101
Link 11 17 39 0 5.17607108
Link 12 17 40 0 -3.05774333
Link 13 17 41 0 -2.76865825
Link 14 17 42 0 0.03527547
Link 9 42 138 0 1.13490043
Link 44 16 152 0 -0.56840942
Link 5 54 205 0 -3.46013100
Link 54 16 206 0 -1.10508863
Link 12 54 323 0 0.21291959
Link 9 54 361 0 -0.27652760
Link 8 44 577 0 -0.29568180
Link 4 101 593 0 -3.30203950
Link 101 44 594 0 2.71130900
Link 101 15 647 0 1.21979137
Link 7 101 651 0 1.56342252
Link 42 108 662 0 0.74121337
Link 108 15 663 0 2.40162742
Link 101 42 673 0 -1.01319908
Link 10 101 674 0 3.47013392
Link 9 112 689 0 0.48066534
Link 112 42 690 0 0.67092098
GenomeEnd

