GenomeStart 89
Genome Fitness: 331.000000 
Neuron 1 1 0.00000000 1 0.00000000 0.00000000 0.00000000 0.00000000
Neuron 2 1 0.00000000 1 0.00000000 0.00000000 0.00000000 0.00000000
Neuron 3 1 0.00000000 1 0.00000000 0.00000000 0.00000000 0.00000000
Neuron 4 1 0.00000000 1 0.00000000 0.00000000 0.00000000 0.00000000
Neuron 5 1 0.00000000 1 0.00000000 0.00000000 0.00000000 0.00000000
Neuron 6 1 0.00000000 1 0.00000000 0.00000000 0.00000000 0.00000000
Neuron 7 1 0.00000000 1 0.00000000 0.00000000 0.00000000 0.00000000
Neuron 8 1 0.00000000 1 0.00000000 0.00000000 0.00000000 0.00000000
Neuron 9 1 0.00000000 1 0.00000000 0.00000000 0.00000000 0.00000000
Neuron 10 1 0.00000000 1 0.00000000 0.00000000 0.00000000 0.00000000
Neuron 11 1 0.00000000 1 0.00000000 0.00000000 0.00000000 0.00000000
Neuron 12 1 0.00000000 1 0.00000000 0.00000000 0.00000000 0.00000000
Neuron 13 1 0.00000000 1 0.00000000 0.00000000 0.00000000 0.00000000
Neuron 14 2 0.00000000 1 0.00000000 0.00000000 0.00000000 0.00000000
Neuron 15 4 1.00000000 1 4.90000000 0.00000000 0.00000000 0.00000000
Neuron 16 4 1.00000000 1 4.90000000 0.00000000 0.00000000 0.00000000
Neuron 17 4 1.00000000 1 4.90000000 0.00000000 0.00000000 0.00000000
Link 1 15 1 0 0.63495172
Link 2 15 2 0 0.42299363
Link 3 15 3 0 -0.04133158
Link 4 15 4 0 0.20081922
Link 5 15 5 0 0.38986721
Link 6 15 6 0 -0.19832011
Link 7 15 7 0 -0.27604704
Link 8 15 8 0 -0.49743210
Link 9 15 9 0 -0.42455499
Link 10 15 10 0 -0.43207573
Link 11 15 11 0 -0.35581734
Link 12 15 12 0 0.15303872
Link 13 15 13 0 0.23171410
Link 14 15 14 0 -0.27643377
Link 1 16 15 0 -0.02603077
Link 2 16 16 0 0.79391697
Link 3 16 17 0 0.24693715
Link 4 16 18 0 0.20845671
Link 5 16 19 0 -0.05916943
Link 6 16 20 0 -0.53078378
Link 7 16 21 0 -0.53397457
Link 8 16 22 0 -0.13428022
Link 9 16 23 0 -0.42661799
Link 10 16 24 0 0.36005697
Link 11 16 25 0 0.75330322
Link 12 16 26 0 0.38083989
Link 13 16 27 0 0.72068067
Link 14 16 28 0 -0.23681428
Link 1 17 29 0 -0.01226823
Link 2 17 30 0 -0.45895614
Link 3 17 31 0 0.18438163
Link 4 17 32 0 0.26199437
Link 5 17 33 0 0.03224909
Link 6 17 34 0 0.03550662
Link 7 17 35 0 -0.44371792
Link 8 17 36 0 0.01047487
Link 9 17 37 0 0.17344225
Link 10 17 38 0 -0.28809014
Link 11 17 39 0 0.59599386
Link 12 17 40 0 0.16078451
Link 13 17 41 0 0.12446983
Link 14 17 42 0 0.24327591
GenomeEnd

