GenomeStart 149019
Genome Fitness: 8525.000000 
Neuron 1 1 0.00000000 1 0.00000000 0.00000000 0.00000000 0.00000000
Neuron 2 1 0.00000000 1 0.00000000 0.00000000 0.00000000 0.00000000
Neuron 3 1 0.00000000 1 0.00000000 0.00000000 0.00000000 0.00000000
Neuron 4 1 0.00000000 1 0.00000000 0.00000000 0.00000000 0.00000000
Neuron 5 1 0.00000000 1 0.00000000 0.00000000 0.00000000 0.00000000
Neuron 6 1 0.00000000 1 0.00000000 0.00000000 0.00000000 0.00000000
Neuron 7 1 0.00000000 1 0.00000000 0.00000000 0.00000000 0.00000000
Neuron 8 1 0.00000000 1 0.00000000 0.00000000 0.00000000 0.00000000
Neuron 9 1 0.00000000 1 0.00000000 0.00000000 0.00000000 0.00000000
Neuron 10 1 0.00000000 1 0.00000000 0.00000000 0.00000000 0.00000000
Neuron 11 1 0.00000000 1 0.00000000 0.00000000 0.00000000 0.00000000
Neuron 12 1 0.00000000 1 0.00000000 0.00000000 0.00000000 0.00000000
Neuron 13 1 0.00000000 1 0.00000000 0.00000000 0.00000000 0.00000000
Neuron 14 2 0.00000000 1 0.00000000 0.00000000 0.00000000 0.00000000
Neuron 15 4 1.00000000 1 4.90000000 0.00000000 0.00000000 0.00000000
Neuron 16 4 1.00000000 1 4.90000000 0.00000000 0.00000000 0.00000000
Neuron 17 4 1.00000000 1 4.90000000 0.00000000 0.00000000 0.00000000
Neuron 42 3 0.50000000 1 4.90000000 0.00000000 0.00000000 0.00000000
Neuron 44 3 0.50000000 1 4.90000000 0.00000000 0.00000000 0.00000000
Neuron 54 3 0.50000000 1 4.90000000 0.00000000 0.00000000 0.00000000
Neuron 101 3 0.25000000 1 4.90000000 0.00000000 0.00000000 0.00000000
Neuron 108 3 0.75000000 1 4.90000000 0.00000000 0.00000000 0.00000000
Neuron 112 3 0.25000000 1 4.90000000 0.00000000 0.00000000 0.00000000
Link 1 15 1 0 3.10792256
Link 2 15 2 0 4.40985925
Link 3 15 3 0 -0.03260991
Link 4 15 4 0 -1.44753433
Link 5 15 5 0 3.78655545
Link 6 15 6 0 1.56879064
Link 7 15 7 0 -0.39487674
Link 8 15 8 0 1.56113613
Link 9 15 9 0 1.84498676
Link 10 15 10 0 -4.32374536
Link 11 15 11 0 0.21772962
Link 12 15 12 0 -0.54498105
Link 13 15 13 0 -0.98597644
Link 14 15 14 0 0.15773071
Link 1 16 15 0 -3.14565410
Link 2 16 16 0 3.56934338
Link 3 16 17 0 3.73867332
Link 6 16 20 0 -3.62099120
Link 7 16 21 0 -1.89958331
Link 8 16 22 0 -1.53260976
Link 9 16 23 0 -1.67208020
Link 10 16 24 0 3.53464583
Link 11 16 25 0 1.80083355
Link 12 16 26 0 0.33145879
Link 13 16 27 0 -2.01803378
Link 14 16 28 0 0.98192690
Link 1 17 29 0 0.02720527
Link 2 17 30 0 0.57366606
Link 3 17 31 0 1.22640350
Link 4 17 32 0 -1.62795570
Link 5 17 33 0 -1.15456039
Link 6 17 34 0 -0.93234932
Link 7 17 35 0 0.97830225
Link 8 17 36 0 -7.40358929
Link 9 17 37 0 -0.92232628
Link 10 17 38 0 -1.61493101
Link 11 17 39 0 5.17607108
Link 12 17 40 0 -3.05776974
Link 13 17 41 0 -2.76865821
Link 14 17 42 0 0.03584345
Link 9 42 138 0 0.66873538
Link 44 16 152 0 -0.50260097
Link 5 54 205 0 -3.45172007
Link 54 16 206 0 -1.17081582
Link 12 54 323 0 0.25780614
Link 9 54 361 0 -0.37795559
Link 8 44 577 0 -0.29568180
Link 4 101 593 0 -2.82841721
Link 101 44 594 0 2.72334136
Link 101 15 647 0 1.17998171
Link 7 101 651 0 1.30369232
Link 42 108 662 0 0.74970850
Link 108 15 663 0 2.29511846
Link 101 42 673 0 -1.01086375
Link 10 101 674 0 3.47491728
Link 9 112 689 0 2.03607753
Link 112 42 690 0 -0.20921638
GenomeEnd

