GenomeStart 90278
Genome Fitness: 8525.000000 
Neuron 1 1 0.00000000 1 0.00000000 0.00000000 0.00000000 0.00000000
Neuron 2 1 0.00000000 1 0.00000000 0.00000000 0.00000000 0.00000000
Neuron 3 1 0.00000000 1 0.00000000 0.00000000 0.00000000 0.00000000
Neuron 4 1 0.00000000 1 0.00000000 0.00000000 0.00000000 0.00000000
Neuron 5 1 0.00000000 1 0.00000000 0.00000000 0.00000000 0.00000000
Neuron 6 1 0.00000000 1 0.00000000 0.00000000 0.00000000 0.00000000
Neuron 7 1 0.00000000 1 0.00000000 0.00000000 0.00000000 0.00000000
Neuron 8 1 0.00000000 1 0.00000000 0.00000000 0.00000000 0.00000000
Neuron 9 1 0.00000000 1 0.00000000 0.00000000 0.00000000 0.00000000
Neuron 10 1 0.00000000 1 0.00000000 0.00000000 0.00000000 0.00000000
Neuron 11 1 0.00000000 1 0.00000000 0.00000000 0.00000000 0.00000000
Neuron 12 1 0.00000000 1 0.00000000 0.00000000 0.00000000 0.00000000
Neuron 13 1 0.00000000 1 0.00000000 0.00000000 0.00000000 0.00000000
Neuron 14 2 0.00000000 1 0.00000000 0.00000000 0.00000000 0.00000000
Neuron 15 4 1.00000000 1 4.90000000 0.00000000 0.00000000 0.00000000
Neuron 16 4 1.00000000 1 4.90000000 0.00000000 0.00000000 0.00000000
Neuron 17 4 1.00000000 1 4.90000000 0.00000000 0.00000000 0.00000000
Neuron 42 3 0.50000000 1 4.90000000 0.00000000 0.00000000 0.00000000
Neuron 44 3 0.50000000 1 4.90000000 0.00000000 0.00000000 0.00000000
Neuron 54 3 0.50000000 1 4.90000000 0.00000000 0.00000000 0.00000000
Neuron 101 3 0.25000000 1 4.90000000 0.00000000 0.00000000 0.00000000
Neuron 108 3 0.75000000 1 4.90000000 0.00000000 0.00000000 0.00000000
Neuron 112 3 0.25000000 1 4.90000000 0.00000000 0.00000000 0.00000000
Neuron 125 3 0.37500000 1 4.90000000 0.00000000 0.00000000 0.00000000
Neuron 135 3 0.12500000 1 4.90000000 0.00000000 0.00000000 0.00000000
Link 1 15 1 0 2.68490145
Link 2 15 2 0 4.75543594
Link 3 15 3 0 0.16860741
Link 4 15 4 0 -1.41281294
Link 5 15 5 0 2.83952079
Link 6 15 6 0 1.18424008
Link 7 15 7 0 -0.63076371
Link 8 15 8 0 0.11316301
Link 10 15 10 0 -3.56239786
Link 11 15 11 0 0.26595226
Link 12 15 12 0 0.24736097
Link 13 15 13 0 -0.82099724
Link 14 15 14 0 -0.79708708
Link 1 16 15 0 -3.22116849
Link 2 16 16 0 3.46859975
Link 3 16 17 0 4.07794846
Link 6 16 20 0 -3.43259006
Link 7 16 21 0 -1.90802615
Link 8 16 22 0 -2.04692558
Link 9 16 23 0 -1.65919911
Link 10 16 24 0 2.59673389
Link 11 16 25 0 1.65863570
Link 12 16 26 0 0.89421932
Link 13 16 27 0 -1.84470846
Link 14 16 28 0 1.55765719
Link 1 17 29 0 0.02720527
Link 2 17 30 0 0.57366606
Link 3 17 31 0 1.22640350
Link 4 17 32 0 -1.62795570
Link 5 17 33 0 -1.15456039
Link 6 17 34 0 -0.93234932
Link 7 17 35 0 0.97830225
Link 8 17 36 0 -7.40358929
Link 9 17 37 0 -0.92232628
Link 10 17 38 0 -1.61493101
Link 11 17 39 0 5.17607108
Link 12 17 40 0 -3.05609670
Link 13 17 41 0 -2.71596419
Link 14 17 42 0 -0.04435479
Link 44 16 152 0 -0.86041833
Link 5 54 205 0 -4.61764459
Link 54 16 206 0 -1.25820516
Link 9 54 361 0 -0.22149690
Link 8 44 577 0 -0.56726256
Link 4 101 593 0 -3.26843688
Link 101 15 647 0 1.26043049
Link 42 108 662 0 0.06681050
Link 108 15 663 0 2.44202670
Link 10 101 674 0 1.84781013
Link 9 112 689 0 1.84281504
Link 112 42 690 0 1.35236914
Link 54 42 765 0 0.17282198
Link 6 108 792 0 2.38251400
Link 101 125 834 0 1.42201759
Link 125 44 835 0 2.61461150
Link 7 135 895 0 0.94880743
Link 135 101 896 0 1.65125793
GenomeEnd

