GenomeStart 124283
Genome Fitness: 8525.000000 
Neuron 1 1 0.00000000 1 0.00000000 0.00000000 0.00000000 0.00000000
Neuron 2 1 0.00000000 1 0.00000000 0.00000000 0.00000000 0.00000000
Neuron 3 1 0.00000000 1 0.00000000 0.00000000 0.00000000 0.00000000
Neuron 4 1 0.00000000 1 0.00000000 0.00000000 0.00000000 0.00000000
Neuron 5 1 0.00000000 1 0.00000000 0.00000000 0.00000000 0.00000000
Neuron 6 1 0.00000000 1 0.00000000 0.00000000 0.00000000 0.00000000
Neuron 7 1 0.00000000 1 0.00000000 0.00000000 0.00000000 0.00000000
Neuron 8 1 0.00000000 1 0.00000000 0.00000000 0.00000000 0.00000000
Neuron 9 1 0.00000000 1 0.00000000 0.00000000 0.00000000 0.00000000
Neuron 10 1 0.00000000 1 0.00000000 0.00000000 0.00000000 0.00000000
Neuron 11 1 0.00000000 1 0.00000000 0.00000000 0.00000000 0.00000000
Neuron 12 1 0.00000000 1 0.00000000 0.00000000 0.00000000 0.00000000
Neuron 13 1 0.00000000 1 0.00000000 0.00000000 0.00000000 0.00000000
Neuron 14 2 0.00000000 1 0.00000000 0.00000000 0.00000000 0.00000000
Neuron 15 4 1.00000000 1 4.90000000 0.00000000 0.00000000 0.00000000
Neuron 16 4 1.00000000 1 4.90000000 0.00000000 0.00000000 0.00000000
Neuron 17 4 1.00000000 1 4.90000000 0.00000000 0.00000000 0.00000000
Neuron 42 3 0.50000000 1 4.90000000 0.00000000 0.00000000 0.00000000
Neuron 44 3 0.50000000 1 4.90000000 0.00000000 0.00000000 0.00000000
Neuron 54 3 0.50000000 1 4.90000000 0.00000000 0.00000000 0.00000000
Neuron 101 3 0.25000000 1 4.90000000 0.00000000 0.00000000 0.00000000
Neuron 108 3 0.75000000 1 4.90000000 0.00000000 0.00000000 0.00000000
Neuron 112 3 0.25000000 1 4.90000000 0.00000000 0.00000000 0.00000000
Link 1 15 1 0 2.90386754
Link 2 15 2 0 4.46460344
Link 3 15 3 0 0.03149311
Link 4 15 4 0 -1.37770720
Link 5 15 5 0 3.58055962
Link 6 15 6 0 1.15540416
Link 7 15 7 0 -0.82575154
Link 8 15 8 0 1.46522630
Link 10 15 10 0 -4.12047852
Link 11 15 11 0 0.22867691
Link 12 15 12 0 0.11416926
Link 13 15 13 0 -1.56003405
Link 14 15 14 0 -0.81905283
Link 1 16 15 0 -3.14684932
Link 2 16 16 0 3.34752334
Link 3 16 17 0 3.81303353
Link 6 16 20 0 -3.64195460
Link 7 16 21 0 -1.89156373
Link 8 16 22 0 -1.85663426
Link 9 16 23 0 -1.65919911
Link 10 16 24 0 3.50124561
Link 11 16 25 0 1.65524812
Link 12 16 26 0 0.26044973
Link 13 16 27 0 -2.02540306
Link 14 16 28 0 0.80494226
Link 1 17 29 0 0.02720527
Link 2 17 30 0 0.57366606
Link 3 17 31 0 1.22640350
Link 4 17 32 0 -1.62795570
Link 5 17 33 0 -1.15456039
Link 6 17 34 0 -0.93234932
Link 7 17 35 0 0.97830225
Link 8 17 36 0 -7.40358929
Link 9 17 37 0 -0.92232628
Link 10 17 38 0 -1.61493101
Link 11 17 39 0 5.17607108
Link 12 17 40 0 -3.05609670
Link 13 17 41 0 -2.71596419
Link 14 17 42 0 -0.04435479
Link 9 42 138 0 1.05353207
Link 44 16 152 0 -0.55314323
Link 5 54 205 0 -3.36225603
Link 54 16 206 0 -1.07903623
Link 12 54 323 0 0.50581542
Link 9 54 361 0 -0.21429336
Link 8 44 577 0 -0.29567383
Link 4 101 593 0 -3.17178699
Link 101 44 594 0 2.71366885
Link 101 15 647 0 1.01104886
Link 7 101 651 0 1.16820954
Link 42 108 662 0 0.40353690
Link 108 15 663 0 2.57509840
Link 101 42 673 0 -0.92477263
Link 10 101 674 0 3.44339869
Link 9 112 689 0 0.61822987
Link 112 42 690 0 0.09951279
GenomeEnd

