GenomeStart 34610
Genome Fitness: 2346.000000 
Neuron 1 1 0.00000000 1 0.00000000 0.00000000 0.00000000 0.00000000
Neuron 2 1 0.00000000 1 0.00000000 0.00000000 0.00000000 0.00000000
Neuron 3 1 0.00000000 1 0.00000000 0.00000000 0.00000000 0.00000000
Neuron 4 1 0.00000000 1 0.00000000 0.00000000 0.00000000 0.00000000
Neuron 5 1 0.00000000 1 0.00000000 0.00000000 0.00000000 0.00000000
Neuron 6 1 0.00000000 1 0.00000000 0.00000000 0.00000000 0.00000000
Neuron 7 1 0.00000000 1 0.00000000 0.00000000 0.00000000 0.00000000
Neuron 8 1 0.00000000 1 0.00000000 0.00000000 0.00000000 0.00000000
Neuron 9 1 0.00000000 1 0.00000000 0.00000000 0.00000000 0.00000000
Neuron 10 1 0.00000000 1 0.00000000 0.00000000 0.00000000 0.00000000
Neuron 11 1 0.00000000 1 0.00000000 0.00000000 0.00000000 0.00000000
Neuron 12 1 0.00000000 1 0.00000000 0.00000000 0.00000000 0.00000000
Neuron 13 1 0.00000000 1 0.00000000 0.00000000 0.00000000 0.00000000
Neuron 14 2 0.00000000 1 0.00000000 0.00000000 0.00000000 0.00000000
Neuron 15 4 1.00000000 1 4.90000000 0.00000000 0.00000000 0.00000000
Neuron 16 4 1.00000000 1 4.90000000 0.00000000 0.00000000 0.00000000
Neuron 17 4 1.00000000 1 4.90000000 0.00000000 0.00000000 0.00000000
Neuron 23 3 0.50000000 1 4.90000000 0.00000000 0.00000000 0.00000000
Neuron 28 3 0.50000000 1 4.90000000 0.00000000 0.00000000 0.00000000
Neuron 29 3 0.50000000 1 4.90000000 0.00000000 0.00000000 0.00000000
Link 1 15 1 0 0.84613145
Link 2 15 2 0 0.50694531
Link 3 15 3 0 -0.00972562
Link 4 15 4 0 -1.00383704
Link 5 15 5 0 -1.28232502
Link 6 15 6 0 1.15514908
Link 7 15 7 0 -1.92021506
Link 8 15 8 0 2.89302327
Link 9 15 9 0 1.13510737
Link 10 15 10 0 0.55224492
Link 11 15 11 0 -0.84426464
Link 12 15 12 0 -2.53692504
Link 14 15 14 0 -0.16690385
Link 1 16 15 0 -3.29026158
Link 2 16 16 0 -2.70384043
Link 3 16 17 0 -4.13420628
Link 4 16 18 0 -0.62379577
Link 5 16 19 0 0.02005633
Link 7 16 21 0 2.62632784
Link 8 16 22 0 -0.53894937
Link 9 16 23 0 3.55427709
Link 10 16 24 0 1.64746705
Link 11 16 25 0 1.46878669
Link 12 16 26 0 2.10173561
Link 13 16 27 0 -1.18232785
Link 14 16 28 0 3.57613766
Link 1 17 29 0 -3.13506720
Link 3 17 31 0 0.46934204
Link 4 17 32 0 -1.36114822
Link 5 17 33 0 -3.06370835
Link 6 17 34 0 -1.20094844
Link 7 17 35 0 -3.52537227
Link 8 17 36 0 -0.77171992
Link 9 17 37 0 3.24391334
Link 10 17 38 0 0.95541864
Link 11 17 39 0 2.42439759
Link 12 17 40 0 -0.06941275
Link 13 17 41 0 -2.08225512
Link 14 17 42 0 1.09152416
Link 6 23 60 0 2.99490587
Link 23 16 61 0 2.37840602
Link 13 28 79 0 0.54766419
Link 28 15 80 0 5.46215258
Link 2 29 83 0 2.05844869
Link 29 17 84 0 -1.84879012
Link 7 29 207 0 -0.83874284
Link 28 29 387 0 2.28943900
GenomeEnd

