GenomeStart 143920
Genome Fitness: 8525.000000 
Neuron 1 1 0.00000000 1 0.00000000 0.00000000 0.00000000 0.00000000
Neuron 2 1 0.00000000 1 0.00000000 0.00000000 0.00000000 0.00000000
Neuron 3 1 0.00000000 1 0.00000000 0.00000000 0.00000000 0.00000000
Neuron 4 1 0.00000000 1 0.00000000 0.00000000 0.00000000 0.00000000
Neuron 5 1 0.00000000 1 0.00000000 0.00000000 0.00000000 0.00000000
Neuron 6 1 0.00000000 1 0.00000000 0.00000000 0.00000000 0.00000000
Neuron 7 1 0.00000000 1 0.00000000 0.00000000 0.00000000 0.00000000
Neuron 8 1 0.00000000 1 0.00000000 0.00000000 0.00000000 0.00000000
Neuron 9 1 0.00000000 1 0.00000000 0.00000000 0.00000000 0.00000000
Neuron 10 1 0.00000000 1 0.00000000 0.00000000 0.00000000 0.00000000
Neuron 11 1 0.00000000 1 0.00000000 0.00000000 0.00000000 0.00000000
Neuron 12 1 0.00000000 1 0.00000000 0.00000000 0.00000000 0.00000000
Neuron 13 1 0.00000000 1 0.00000000 0.00000000 0.00000000 0.00000000
Neuron 14 2 0.00000000 1 0.00000000 0.00000000 0.00000000 0.00000000
Neuron 15 4 1.00000000 1 4.90000000 0.00000000 0.00000000 0.00000000
Neuron 16 4 1.00000000 1 4.90000000 0.00000000 0.00000000 0.00000000
Neuron 17 4 1.00000000 1 4.90000000 0.00000000 0.00000000 0.00000000
Neuron 42 3 0.50000000 1 4.90000000 0.00000000 0.00000000 0.00000000
Neuron 44 3 0.50000000 1 4.90000000 0.00000000 0.00000000 0.00000000
Neuron 54 3 0.50000000 1 4.90000000 0.00000000 0.00000000 0.00000000
Neuron 101 3 0.25000000 1 4.90000000 0.00000000 0.00000000 0.00000000
Neuron 108 3 0.75000000 1 4.90000000 0.00000000 0.00000000 0.00000000
Neuron 112 3 0.25000000 1 4.90000000 0.00000000 0.00000000 0.00000000
Link 1 15 1 0 2.97885418
Link 2 15 2 0 4.40986274
Link 3 15 3 0 0.03233353
Link 4 15 4 0 -1.44863072
Link 5 15 5 0 4.16090039
Link 6 15 6 0 1.56878837
Link 7 15 7 0 -0.84354592
Link 8 15 8 0 1.38961165
Link 10 15 10 0 -4.32373759
Link 11 15 11 0 0.22870899
Link 12 15 12 0 -0.47144704
Link 13 15 13 0 -0.98597257
Link 14 15 14 0 -0.35624077
Link 1 16 15 0 -3.14559663
Link 2 16 16 0 3.36945436
Link 3 16 17 0 3.73867658
Link 6 16 20 0 -3.63484233
Link 7 16 21 0 -1.89967178
Link 8 16 22 0 -1.85663199
Link 9 16 23 0 -1.41764891
Link 10 16 24 0 3.62995235
Link 11 16 25 0 1.80175199
Link 12 16 26 0 0.33214644
Link 13 16 27 0 -2.02207489
Link 14 16 28 0 0.68111675
Link 1 17 29 0 0.02720527
Link 2 17 30 0 0.57366606
Link 3 17 31 0 1.22640350
Link 4 17 32 0 -1.62795570
Link 5 17 33 0 -1.15456039
Link 6 17 34 0 -0.93234932
Link 7 17 35 0 0.97830225
Link 8 17 36 0 -7.40358929
Link 9 17 37 0 -0.92232628
Link 10 17 38 0 -1.61493101
Link 11 17 39 0 5.17607108
Link 12 17 40 0 -3.05776980
Link 13 17 41 0 -2.76865821
Link 14 17 42 0 0.03584825
Link 9 42 138 0 1.12003011
Link 44 16 152 0 -0.50106055
Link 5 54 205 0 -3.45171937
Link 54 16 206 0 -1.17012439
Link 12 54 323 0 0.25799565
Link 9 54 361 0 -0.21765002
Link 8 44 577 0 -0.29568180
Link 4 101 593 0 -2.85149604
Link 101 44 594 0 2.73808446
Link 101 15 647 0 1.20321371
Link 7 101 651 0 1.30388320
Link 12 42 659 0 0.47079784
Link 42 108 662 0 0.74962647
Link 108 15 663 0 2.29485582
Link 101 42 673 0 -1.01072055
Link 10 101 674 0 3.47491947
Link 9 112 689 0 0.53871399
Link 112 42 690 0 0.55528143
GenomeEnd

