GenomeStart 32349
Genome Fitness: 1453.000000 
Neuron 1 1 0.00000000 1 0.00000000 0.00000000 0.00000000 0.00000000
Neuron 2 1 0.00000000 1 0.00000000 0.00000000 0.00000000 0.00000000
Neuron 3 1 0.00000000 1 0.00000000 0.00000000 0.00000000 0.00000000
Neuron 4 1 0.00000000 1 0.00000000 0.00000000 0.00000000 0.00000000
Neuron 5 1 0.00000000 1 0.00000000 0.00000000 0.00000000 0.00000000
Neuron 6 1 0.00000000 1 0.00000000 0.00000000 0.00000000 0.00000000
Neuron 7 1 0.00000000 1 0.00000000 0.00000000 0.00000000 0.00000000
Neuron 8 1 0.00000000 1 0.00000000 0.00000000 0.00000000 0.00000000
Neuron 9 1 0.00000000 1 0.00000000 0.00000000 0.00000000 0.00000000
Neuron 10 1 0.00000000 1 0.00000000 0.00000000 0.00000000 0.00000000
Neuron 11 1 0.00000000 1 0.00000000 0.00000000 0.00000000 0.00000000
Neuron 12 1 0.00000000 1 0.00000000 0.00000000 0.00000000 0.00000000
Neuron 13 1 0.00000000 1 0.00000000 0.00000000 0.00000000 0.00000000
Neuron 14 2 0.00000000 1 0.00000000 0.00000000 0.00000000 0.00000000
Neuron 15 4 1.00000000 1 4.90000000 0.00000000 0.00000000 0.00000000
Neuron 16 4 1.00000000 1 4.90000000 0.00000000 0.00000000 0.00000000
Neuron 17 4 1.00000000 1 4.90000000 0.00000000 0.00000000 0.00000000
Neuron 21 3 0.50000000 1 4.90000000 0.00000000 0.00000000 0.00000000
Neuron 22 3 0.50000000 1 4.90000000 0.00000000 0.00000000 0.00000000
Neuron 26 3 0.50000000 1 4.90000000 0.00000000 0.00000000 0.00000000
Neuron 68 3 0.25000000 1 4.90000000 0.00000000 0.00000000 0.00000000
Link 1 15 1 0 4.87077984
Link 2 15 2 0 -3.35830751
Link 3 15 3 0 -1.30820179
Link 4 15 4 0 1.47814155
Link 5 15 5 0 1.07979431
Link 6 15 6 0 -4.34556773
Link 7 15 7 0 -1.34773847
Link 8 15 8 0 7.21652574
Link 9 15 9 0 0.10736200
Link 10 15 10 0 -0.92981854
Link 11 15 11 0 -2.96140733
Link 12 15 12 0 -3.27540937
Link 13 15 13 0 -1.53169113
Link 14 15 14 0 -0.09051802
Link 1 16 15 0 -8.00000000
Link 2 16 16 0 -3.62998380
Link 3 16 17 0 0.88681793
Link 4 16 18 0 -4.60429051
Link 5 16 19 0 1.26990670
Link 6 16 20 0 0.18466766
Link 7 16 21 0 2.94732832
Link 8 16 22 0 1.55564468
Link 9 16 23 0 -0.46306664
Link 10 16 24 0 2.90522097
Link 11 16 25 0 2.86570694
Link 12 16 26 0 -0.96431330
Link 13 16 27 0 -1.42058617
Link 14 16 28 0 0.13370581
Link 1 17 29 0 1.86818704
Link 2 17 30 0 -4.75217480
Link 3 17 31 0 -0.86297625
Link 4 17 32 0 2.84327789
Link 5 17 33 0 -0.40723025
Link 6 17 34 0 -0.02289950
Link 7 17 35 0 -2.21027369
Link 8 17 36 0 1.14709559
Link 9 17 37 0 -4.40517773
Link 10 17 38 0 2.77085323
Link 12 17 40 0 -1.06019036
Link 14 17 42 0 1.59644823
Link 3 21 53 0 -0.51406600
Link 21 16 54 0 -0.82887435
Link 22 17 57 0 3.88288642
Link 11 26 70 0 0.20897420
Link 26 17 71 0 -4.88192761
Link 13 68 328 0 0.75168530
Link 68 22 329 0 0.01771745
Link 21 22 379 0 2.49068295
GenomeEnd

