GenomeStart 143169
Genome Fitness: 8525.000000 
Neuron 1 1 0.00000000 1 0.00000000 0.00000000 0.00000000 0.00000000
Neuron 2 1 0.00000000 1 0.00000000 0.00000000 0.00000000 0.00000000
Neuron 3 1 0.00000000 1 0.00000000 0.00000000 0.00000000 0.00000000
Neuron 4 1 0.00000000 1 0.00000000 0.00000000 0.00000000 0.00000000
Neuron 5 1 0.00000000 1 0.00000000 0.00000000 0.00000000 0.00000000
Neuron 6 1 0.00000000 1 0.00000000 0.00000000 0.00000000 0.00000000
Neuron 7 1 0.00000000 1 0.00000000 0.00000000 0.00000000 0.00000000
Neuron 8 1 0.00000000 1 0.00000000 0.00000000 0.00000000 0.00000000
Neuron 9 1 0.00000000 1 0.00000000 0.00000000 0.00000000 0.00000000
Neuron 10 1 0.00000000 1 0.00000000 0.00000000 0.00000000 0.00000000
Neuron 11 1 0.00000000 1 0.00000000 0.00000000 0.00000000 0.00000000
Neuron 12 1 0.00000000 1 0.00000000 0.00000000 0.00000000 0.00000000
Neuron 13 1 0.00000000 1 0.00000000 0.00000000 0.00000000 0.00000000
Neuron 14 2 0.00000000 1 0.00000000 0.00000000 0.00000000 0.00000000
Neuron 15 4 1.00000000 1 4.90000000 0.00000000 0.00000000 0.00000000
Neuron 16 4 1.00000000 1 4.90000000 0.00000000 0.00000000 0.00000000
Neuron 17 4 1.00000000 1 4.90000000 0.00000000 0.00000000 0.00000000
Neuron 42 3 0.50000000 1 4.90000000 0.00000000 0.00000000 0.00000000
Neuron 44 3 0.50000000 1 4.90000000 0.00000000 0.00000000 0.00000000
Neuron 54 3 0.50000000 1 4.90000000 0.00000000 0.00000000 0.00000000
Neuron 101 3 0.25000000 1 4.90000000 0.00000000 0.00000000 0.00000000
Neuron 108 3 0.75000000 1 4.90000000 0.00000000 0.00000000 0.00000000
Neuron 112 3 0.25000000 1 4.90000000 0.00000000 0.00000000 0.00000000
Link 1 15 1 0 2.97885421
Link 2 15 2 0 4.40984972
Link 3 15 3 0 0.03233172
Link 4 15 4 0 -1.44499748
Link 5 15 5 0 4.15835631
Link 6 15 6 0 1.56879523
Link 7 15 7 0 -0.84396429
Link 8 15 8 0 1.38961270
Link 10 15 10 0 -4.32375847
Link 11 15 11 0 0.22870899
Link 12 15 12 0 -0.46961135
Link 13 15 13 0 -0.98542448
Link 14 15 14 0 -0.35624035
Link 1 16 15 0 -3.14577251
Link 2 16 16 0 3.36944356
Link 3 16 17 0 3.73866806
Link 6 16 20 0 -3.63484262
Link 7 16 21 0 -1.89962489
Link 8 16 22 0 -1.85663199
Link 9 16 23 0 -1.41713506
Link 10 16 24 0 3.63155898
Link 11 16 25 0 1.80038552
Link 12 16 26 0 0.31327771
Link 13 16 27 0 -2.02207400
Link 14 16 28 0 0.68122093
Link 1 17 29 0 0.02720527
Link 2 17 30 0 0.57366606
Link 3 17 31 0 1.22640350
Link 4 17 32 0 -1.62795570
Link 5 17 33 0 -1.15456039
Link 6 17 34 0 -0.93234932
Link 7 17 35 0 0.97830225
Link 8 17 36 0 -7.40358929
Link 9 17 37 0 -0.92232628
Link 10 17 38 0 -1.61493101
Link 11 17 39 0 5.17607108
Link 12 17 40 0 -3.05776962
Link 13 17 41 0 -2.76865821
Link 14 17 42 0 0.03587808
Link 9 42 138 0 1.12082054
Link 44 16 152 0 -0.49841624
Link 5 54 205 0 -3.45172316
Link 54 16 206 0 -1.17326829
Link 12 54 323 0 0.25742690
Link 9 54 361 0 -0.21764571
Link 8 44 577 0 -0.29568180
Link 4 101 593 0 -2.84954308
Link 101 44 594 0 2.73783887
Link 8 101 619 0 -2.76296706
Link 101 15 647 0 1.20307663
Link 7 101 651 0 1.30647723
Link 42 108 662 0 0.74994851
Link 108 15 663 0 2.29525843
Link 101 42 673 0 -1.01130574
Link 10 101 674 0 3.47495625
Link 9 112 689 0 0.53807059
Link 112 42 690 0 0.55501268
Link 3 108 790 0 0.04822934
GenomeEnd

