GenomeStart 4554
Genome Fitness: 407.000000 
Neuron 1 1 0.00000000 1 0.00000000 0.00000000 0.00000000 0.00000000
Neuron 2 1 0.00000000 1 0.00000000 0.00000000 0.00000000 0.00000000
Neuron 3 1 0.00000000 1 0.00000000 0.00000000 0.00000000 0.00000000
Neuron 4 1 0.00000000 1 0.00000000 0.00000000 0.00000000 0.00000000
Neuron 5 1 0.00000000 1 0.00000000 0.00000000 0.00000000 0.00000000
Neuron 6 1 0.00000000 1 0.00000000 0.00000000 0.00000000 0.00000000
Neuron 7 1 0.00000000 1 0.00000000 0.00000000 0.00000000 0.00000000
Neuron 8 1 0.00000000 1 0.00000000 0.00000000 0.00000000 0.00000000
Neuron 9 1 0.00000000 1 0.00000000 0.00000000 0.00000000 0.00000000
Neuron 10 1 0.00000000 1 0.00000000 0.00000000 0.00000000 0.00000000
Neuron 11 1 0.00000000 1 0.00000000 0.00000000 0.00000000 0.00000000
Neuron 12 1 0.00000000 1 0.00000000 0.00000000 0.00000000 0.00000000
Neuron 13 1 0.00000000 1 0.00000000 0.00000000 0.00000000 0.00000000
Neuron 14 2 0.00000000 1 0.00000000 0.00000000 0.00000000 0.00000000
Neuron 15 4 1.00000000 1 4.90000000 0.00000000 0.00000000 0.00000000
Neuron 16 4 1.00000000 1 4.90000000 0.00000000 0.00000000 0.00000000
Neuron 17 4 1.00000000 1 4.90000000 0.00000000 0.00000000 0.00000000
Neuron 21 3 0.50000000 1 4.90000000 0.00000000 0.00000000 0.00000000
Link 1 15 1 0 0.07542902
Link 2 15 2 0 3.39608711
Link 3 15 3 0 -1.32844332
Link 4 15 4 0 0.65832018
Link 5 15 5 0 1.42578441
Link 6 15 6 0 0.84592986
Link 7 15 7 0 -2.45316002
Link 8 15 8 0 2.44475242
Link 9 15 9 0 3.11210826
Link 10 15 10 0 0.54108858
Link 11 15 11 0 -3.88541005
Link 12 15 12 0 -0.68353439
Link 13 15 13 0 2.41189992
Link 14 15 14 0 0.76870513
Link 1 16 15 0 -3.95864776
Link 2 16 16 0 2.60464259
Link 4 16 18 0 -1.00093245
Link 5 16 19 0 2.12180016
Link 6 16 20 0 2.45354950
Link 7 16 21 0 -0.87029991
Link 8 16 22 0 -0.18308538
Link 9 16 23 0 -0.46430114
Link 10 16 24 0 -0.91428815
Link 11 16 25 0 -0.14359312
Link 12 16 26 0 -0.98536878
Link 13 16 27 0 -0.40431063
Link 14 16 28 0 2.09804948
Link 1 17 29 0 -4.63244639
Link 2 17 30 0 -0.95423011
Link 3 17 31 0 0.91668265
Link 4 17 32 0 0.22488404
Link 5 17 33 0 3.16197605
Link 6 17 34 0 -0.06884561
Link 7 17 35 0 -2.67171671
Link 8 17 36 0 -0.93541922
Link 9 17 37 0 -0.38728835
Link 10 17 38 0 1.82078800
Link 11 17 39 0 -0.02645921
Link 12 17 40 0 3.60763772
Link 13 17 41 0 3.15692980
Link 14 17 42 0 -2.43778985
Link 3 21 53 0 -0.23346766
Link 21 16 54 0 -0.63376190
GenomeEnd

