GenomeStart 146174
Genome Fitness: 8525.000000 
Neuron 1 1 0.00000000 1 0.00000000 0.00000000 0.00000000 0.00000000
Neuron 2 1 0.00000000 1 0.00000000 0.00000000 0.00000000 0.00000000
Neuron 3 1 0.00000000 1 0.00000000 0.00000000 0.00000000 0.00000000
Neuron 4 1 0.00000000 1 0.00000000 0.00000000 0.00000000 0.00000000
Neuron 5 1 0.00000000 1 0.00000000 0.00000000 0.00000000 0.00000000
Neuron 6 1 0.00000000 1 0.00000000 0.00000000 0.00000000 0.00000000
Neuron 7 1 0.00000000 1 0.00000000 0.00000000 0.00000000 0.00000000
Neuron 8 1 0.00000000 1 0.00000000 0.00000000 0.00000000 0.00000000
Neuron 9 1 0.00000000 1 0.00000000 0.00000000 0.00000000 0.00000000
Neuron 10 1 0.00000000 1 0.00000000 0.00000000 0.00000000 0.00000000
Neuron 11 1 0.00000000 1 0.00000000 0.00000000 0.00000000 0.00000000
Neuron 12 1 0.00000000 1 0.00000000 0.00000000 0.00000000 0.00000000
Neuron 13 1 0.00000000 1 0.00000000 0.00000000 0.00000000 0.00000000
Neuron 14 2 0.00000000 1 0.00000000 0.00000000 0.00000000 0.00000000
Neuron 15 4 1.00000000 1 4.90000000 0.00000000 0.00000000 0.00000000
Neuron 16 4 1.00000000 1 4.90000000 0.00000000 0.00000000 0.00000000
Neuron 17 4 1.00000000 1 4.90000000 0.00000000 0.00000000 0.00000000
Neuron 42 3 0.50000000 1 4.90000000 0.00000000 0.00000000 0.00000000
Neuron 44 3 0.50000000 1 4.90000000 0.00000000 0.00000000 0.00000000
Neuron 54 3 0.50000000 1 4.90000000 0.00000000 0.00000000 0.00000000
Neuron 101 3 0.25000000 1 4.90000000 0.00000000 0.00000000 0.00000000
Neuron 108 3 0.75000000 1 4.90000000 0.00000000 0.00000000 0.00000000
Neuron 112 3 0.25000000 1 4.90000000 0.00000000 0.00000000 0.00000000
Link 1 15 1 0 2.97885419
Link 2 15 2 0 4.40986120
Link 3 15 3 0 0.03233081
Link 4 15 4 0 -1.44742452
Link 5 15 5 0 4.16284567
Link 6 15 6 0 1.56879070
Link 7 15 7 0 -0.84402329
Link 8 15 8 0 1.38961156
Link 10 15 10 0 -4.32374529
Link 11 15 11 0 0.22870899
Link 12 15 12 0 -0.55027756
Link 13 15 13 0 -0.98605401
Link 14 15 14 0 -0.35624050
Link 1 16 15 0 -3.14565980
Link 2 16 16 0 3.59502473
Link 3 16 17 0 3.73867386
Link 6 16 20 0 -3.61772950
Link 7 16 21 0 -1.89958042
Link 8 16 22 0 -1.85663199
Link 9 16 23 0 -1.41790273
Link 10 16 24 0 3.52135159
Link 11 16 25 0 1.80088010
Link 12 16 26 0 0.33140831
Link 13 16 27 0 -2.02207426
Link 14 16 28 0 0.96040825
Link 1 17 29 0 0.02720527
Link 2 17 30 0 0.57366606
Link 3 17 31 0 1.22640350
Link 4 17 32 0 -1.62795570
Link 5 17 33 0 -1.15456039
Link 6 17 34 0 -0.93234932
Link 7 17 35 0 0.97830225
Link 8 17 36 0 -7.40358929
Link 9 17 37 0 -0.92232628
Link 10 17 38 0 -1.61493101
Link 11 17 39 0 5.17607108
Link 12 17 40 0 -3.05776973
Link 13 17 41 0 -2.76865821
Link 14 17 42 0 0.03584359
Link 9 42 138 0 1.11993138
Link 44 16 152 0 -0.50079983
Link 5 54 205 0 -3.45171947
Link 54 16 206 0 -1.17083580
Link 12 54 323 0 0.25780668
Link 9 54 361 0 -0.80967457
Link 8 44 577 0 -0.29568180
Link 4 101 593 0 -2.85185120
Link 101 44 594 0 2.73796126
Link 101 15 647 0 1.16470201
Link 7 101 651 0 1.30367370
Link 42 108 662 0 0.74971165
Link 108 15 663 0 2.29487900
Link 101 42 673 0 -1.01086875
Link 10 101 674 0 3.47491705
Link 9 112 689 0 0.53819857
Link 112 42 690 0 0.55525623
Link 7 112 751 0 -2.20652616
GenomeEnd

