GenomeStart 149468
Genome Fitness: 8525.000000 
Neuron 1 1 0.00000000 1 0.00000000 0.00000000 0.00000000 0.00000000
Neuron 2 1 0.00000000 1 0.00000000 0.00000000 0.00000000 0.00000000
Neuron 3 1 0.00000000 1 0.00000000 0.00000000 0.00000000 0.00000000
Neuron 4 1 0.00000000 1 0.00000000 0.00000000 0.00000000 0.00000000
Neuron 5 1 0.00000000 1 0.00000000 0.00000000 0.00000000 0.00000000
Neuron 6 1 0.00000000 1 0.00000000 0.00000000 0.00000000 0.00000000
Neuron 7 1 0.00000000 1 0.00000000 0.00000000 0.00000000 0.00000000
Neuron 8 1 0.00000000 1 0.00000000 0.00000000 0.00000000 0.00000000
Neuron 9 1 0.00000000 1 0.00000000 0.00000000 0.00000000 0.00000000
Neuron 10 1 0.00000000 1 0.00000000 0.00000000 0.00000000 0.00000000
Neuron 11 1 0.00000000 1 0.00000000 0.00000000 0.00000000 0.00000000
Neuron 12 1 0.00000000 1 0.00000000 0.00000000 0.00000000 0.00000000
Neuron 13 1 0.00000000 1 0.00000000 0.00000000 0.00000000 0.00000000
Neuron 14 2 0.00000000 1 0.00000000 0.00000000 0.00000000 0.00000000
Neuron 15 4 1.00000000 1 4.90000000 0.00000000 0.00000000 0.00000000
Neuron 16 4 1.00000000 1 4.90000000 0.00000000 0.00000000 0.00000000
Neuron 17 4 1.00000000 1 4.90000000 0.00000000 0.00000000 0.00000000
Neuron 42 3 0.50000000 1 4.90000000 0.00000000 0.00000000 0.00000000
Neuron 44 3 0.50000000 1 4.90000000 0.00000000 0.00000000 0.00000000
Neuron 54 3 0.50000000 1 4.90000000 0.00000000 0.00000000 0.00000000
Neuron 101 3 0.25000000 1 4.90000000 0.00000000 0.00000000 0.00000000
Neuron 108 3 0.75000000 1 4.90000000 0.00000000 0.00000000 0.00000000
Neuron 112 3 0.25000000 1 4.90000000 0.00000000 0.00000000 0.00000000
Neuron 143 3 0.25000000 1 4.90000000 0.00000000 0.00000000 0.00000000
Link 1 15 1 0 2.78275588
Link 2 15 2 0 4.40985925
Link 3 15 3 0 -0.03407344
Link 4 15 4 0 -1.44753623
Link 5 15 5 0 3.50547314
Link 6 15 6 0 -0.21261043
Link 7 15 7 0 -0.33855271
Link 8 15 8 0 1.70945423
Link 10 15 10 0 -4.32374537
Link 11 15 11 0 0.76945484
Link 12 15 12 0 -0.54520251
Link 13 15 13 0 -0.98597716
Link 14 15 14 0 0.15426079
Link 1 16 15 0 -3.14565414
Link 2 16 16 0 3.56895967
Link 3 16 17 0 3.73867332
Link 6 16 20 0 -3.62099488
Link 7 16 21 0 -1.89958318
Link 8 16 22 0 0.05560748
Link 9 16 23 0 -1.68659962
Link 10 16 24 0 3.53445825
Link 11 16 25 0 1.80083345
Link 12 16 26 0 -0.07224063
Link 13 16 27 0 -2.01949698
Link 14 16 28 0 0.98123802
Link 1 17 29 0 0.02720527
Link 2 17 30 0 0.57366606
Link 3 17 31 0 1.22640350
Link 4 17 32 0 -1.62795570
Link 5 17 33 0 -1.15456039
Link 6 17 34 0 -0.93234932
Link 7 17 35 0 0.97830225
Link 8 17 36 0 -7.40358929
Link 9 17 37 0 -0.92232628
Link 10 17 38 0 -1.61493101
Link 11 17 39 0 5.17607108
Link 12 17 40 0 -3.07184060
Link 13 17 41 0 -2.63118301
Link 14 17 42 0 0.03584345
Link 44 16 152 0 -0.59336715
Link 5 54 205 0 -3.92934975
Link 54 16 206 0 -1.17081626
Link 12 54 323 0 -0.17135311
Link 9 54 361 0 -0.28932387
Link 8 44 577 0 -0.14605186
Link 4 101 593 0 -2.82828900
Link 101 44 594 0 2.26572063
Link 101 15 647 0 1.18003242
Link 7 101 651 0 1.30369170
Link 42 108 662 0 0.74970853
Link 108 15 663 0 2.29511341
Link 101 42 673 0 -1.01086317
Link 10 101 674 0 3.47491729
Link 9 112 689 0 0.19629890
Link 112 42 690 0 -1.45307879
Link 9 143 968 0 1.00000000
Link 143 42 969 0 0.07319151
GenomeEnd

