GenomeStart 3658
Neuron 1 1 0.00000000 1 0.00000000 0.00000000 0.00000000 0.00000000
Neuron 2 1 0.00000000 1 0.00000000 0.00000000 0.00000000 0.00000000
Neuron 3 1 0.00000000 1 0.00000000 0.00000000 0.00000000 0.00000000
Neuron 4 1 0.00000000 1 0.00000000 0.00000000 0.00000000 0.00000000
Neuron 5 1 0.00000000 1 0.00000000 0.00000000 0.00000000 0.00000000
Neuron 6 2 0.00000000 1 0.00000000 0.00000000 0.00000000 0.00000000
Neuron 7 4 1.00000000 4 3.02500000 0.00000000 0.00000000 0.00000000
Neuron 8 4 1.00000000 1 3.02500000 0.00000000 0.00000000 0.00000000
Neuron 9 4 1.00000000 5 3.02500000 0.00000000 0.00000000 0.00000000
Neuron 15 3 0.50000000 11 1.64473542 0.00000000 0.00000000 0.00000000
Neuron 17 3 0.50000000 4 1.89986857 0.00000000 0.00000000 0.00000000
Neuron 20 3 0.50000000 9 4.31954354 0.00000000 0.00000000 0.00000000
Link 1 7 1 0 1.48254264
Link 2 7 2 0 0.65566461
Link 3 7 3 0 -3.54517252
Link 6 7 6 0 0.20135199
Link 1 8 7 0 0.59759175
Link 2 8 8 0 -1.29223319
Link 3 8 9 0 0.59246474
Link 4 8 10 0 0.14675540
Link 6 8 12 0 0.27846046
Link 1 9 13 0 -1.86345160
Link 2 9 14 0 1.58735133
Link 3 9 15 0 0.64740924
Link 4 9 16 0 4.23411663
Link 5 9 17 0 -2.95541361
Link 6 9 18 0 0.30573496
Link 4 15 39 0 1.92672871
Link 15 7 40 0 1.21766738
Link 5 17 51 0 0.27750227
Link 17 7 52 0 1.44882825
Link 5 20 64 0 2.37912209
Link 20 8 65 0 0.06382823
GenomeEnd

