GenomeStart 6980
Neuron 1 1 0.00000000 1 0.00000000 0.00000000 0.00000000 0.00000000
Neuron 2 1 0.00000000 1 0.00000000 0.00000000 0.00000000 0.00000000
Neuron 3 1 0.00000000 1 0.00000000 0.00000000 0.00000000 0.00000000
Neuron 4 1 0.00000000 1 0.00000000 0.00000000 0.00000000 0.00000000
Neuron 5 1 0.00000000 1 0.00000000 0.00000000 0.00000000 0.00000000
Neuron 6 2 0.00000000 1 0.00000000 0.00000000 0.00000000 0.00000000
Neuron 7 4 1.00000000 1 3.02500000 0.00000000 0.00000000 0.00000000
Neuron 8 4 1.00000000 1 3.02500000 0.00000000 0.00000000 0.00000000
Neuron 9 4 1.00000000 8 3.02500000 0.00000000 0.00000000 0.00000000
Neuron 15 3 0.50000000 11 1.64473542 0.00000000 0.00000000 0.00000000
Neuron 17 3 0.50000000 4 1.89986857 0.00000000 0.00000000 0.00000000
Neuron 21 3 0.50000000 4 5.39525004 0.00000000 0.00000000 0.00000000
Neuron 28 3 0.75000000 9 2.56632170 0.00000000 0.00000000 0.00000000
Link 1 7 1 0 1.39444447
Link 2 7 2 0 -0.68729530
Link 3 7 3 0 -0.27524918
Link 6 7 6 0 0.20760554
Link 1 8 7 0 -1.77713605
Link 2 8 8 0 -0.88387777
Link 3 8 9 0 1.78815406
Link 5 8 11 0 2.76283116
Link 6 8 12 0 1.22096562
Link 1 9 13 0 -1.39366588
Link 2 9 14 0 -0.23096102
Link 3 9 15 0 1.30285820
Link 4 9 16 0 3.24351256
Link 5 9 17 0 3.85207284
Link 6 9 18 0 -1.96756147
Link 4 15 39 0 -0.76029115
Link 15 7 40 0 1.94196920
Link 5 17 51 0 -2.45347743
Link 4 21 74 0 0.81444557
Link 21 8 75 0 1.40278298
Link 17 28 100 0 1.00000000
Link 28 7 101 0 0.30597558
GenomeEnd

