GenomeStart 8627
Neuron 1 1 0.00000000 1 0.00000000 0.00000000 0.00000000 0.00000000
Neuron 2 1 0.00000000 1 0.00000000 0.00000000 0.00000000 0.00000000
Neuron 3 1 0.00000000 1 0.00000000 0.00000000 0.00000000 0.00000000
Neuron 4 1 0.00000000 1 0.00000000 0.00000000 0.00000000 0.00000000
Neuron 5 1 0.00000000 1 0.00000000 0.00000000 0.00000000 0.00000000
Neuron 6 2 0.00000000 1 0.00000000 0.00000000 0.00000000 0.00000000
Neuron 7 4 1.00000000 1 3.02500000 0.00000000 0.00000000 0.00000000
Neuron 8 4 1.00000000 1 3.02500000 0.00000000 0.00000000 0.00000000
Neuron 9 4 1.00000000 5 3.02500000 0.00000000 0.00000000 0.00000000
Neuron 12 3 0.50000000 2 0.59996514 0.00000000 0.00000000 0.00000000
Neuron 16 3 0.50000000 2 3.72031895 0.00000000 0.00000000 0.00000000
Neuron 26 3 0.50000000 6 3.53637145 0.00000000 0.00000000 0.00000000
Link 1 7 1 0 0.39407143
Link 2 7 2 0 -1.29991436
Link 3 7 3 0 -0.48478455
Link 4 7 4 0 -1.98765076
Link 5 7 5 0 -0.85248175
Link 6 7 6 0 3.34904432
Link 2 8 8 0 3.28481488
Link 4 8 10 0 1.77398735
Link 5 8 11 0 -0.76721463
Link 6 8 12 0 -1.33450913
Link 1 9 13 0 1.04109765
Link 2 9 14 0 3.72861569
Link 3 9 15 0 3.51435782
Link 4 9 16 0 -2.98256603
Link 6 9 18 0 1.67512409
Link 3 12 26 0 2.07570573
Link 12 8 27 0 2.74223251
Link 1 16 45 0 0.49862163
Link 16 8 46 0 0.29981973
Link 5 26 93 0 0.64206666
Link 26 9 94 0 -3.63088359
GenomeEnd

