GenomeStart 13858
Neuron 1 1 0.00000000 1 0.00000000 0.00000000 0.00000000 0.00000000
Neuron 2 1 0.00000000 1 0.00000000 0.00000000 0.00000000 0.00000000
Neuron 3 1 0.00000000 1 0.00000000 0.00000000 0.00000000 0.00000000
Neuron 4 1 0.00000000 1 0.00000000 0.00000000 0.00000000 0.00000000
Neuron 5 1 0.00000000 1 0.00000000 0.00000000 0.00000000 0.00000000
Neuron 6 2 0.00000000 1 0.00000000 0.00000000 0.00000000 0.00000000
Neuron 7 4 1.00000000 1 3.02500000 0.00000000 0.00000000 0.00000000
Neuron 8 4 1.00000000 1 3.02500000 0.00000000 0.00000000 0.00000000
Neuron 9 4 1.00000000 5 3.02500000 0.00000000 0.00000000 0.00000000
Neuron 12 3 0.50000000 4 0.59996514 0.00000000 0.00000000 0.00000000
Neuron 14 3 0.50000000 6 2.62223523 0.00000000 0.00000000 0.00000000
Neuron 15 3 0.50000000 4 5.16609545 0.00000000 0.00000000 0.00000000
Neuron 17 3 0.50000000 4 0.86722526 0.00000000 0.00000000 0.00000000
Neuron 25 3 0.50000000 1 1.86426148 0.00000000 0.00000000 0.00000000
Link 1 7 1 0 -1.47322205
Link 2 7 2 0 0.37380589
Link 3 7 3 0 0.62321610
Link 6 7 6 0 -0.03305109
Link 1 8 7 0 -0.67123531
Link 2 8 8 0 1.05319038
Link 4 8 10 0 -0.60560901
Link 5 8 11 0 -3.49181609
Link 6 8 12 0 -2.63249820
Link 3 9 15 0 -1.57967445
Link 4 9 16 0 -1.06597437
Link 5 9 17 0 -1.78067387
Link 6 9 18 0 0.56714791
Link 3 12 26 0 0.68665331
Link 12 8 27 0 0.69470934
Link 2 14 34 0 1.79087048
Link 14 9 35 0 -0.54941668
Link 4 15 39 0 0.75321656
Link 15 7 40 0 -1.52090162
Link 5 17 51 0 -0.57828894
Link 17 7 52 0 1.82064302
Link 1 25 90 0 -1.61218187
Link 25 9 91 0 -0.81432154
Link 6 17 125 0 0.62158723
GenomeEnd

