GenomeStart 10591
Neuron 1 1 0.00000000 1 0.00000000 0.00000000 0.00000000 0.00000000
Neuron 2 1 0.00000000 1 0.00000000 0.00000000 0.00000000 0.00000000
Neuron 3 1 0.00000000 1 0.00000000 0.00000000 0.00000000 0.00000000
Neuron 4 1 0.00000000 1 0.00000000 0.00000000 0.00000000 0.00000000
Neuron 5 1 0.00000000 1 0.00000000 0.00000000 0.00000000 0.00000000
Neuron 6 2 0.00000000 1 0.00000000 0.00000000 0.00000000 0.00000000
Neuron 7 4 1.00000000 1 3.02500000 0.00000000 0.00000000 0.00000000
Neuron 8 4 1.00000000 1 3.02500000 0.00000000 0.00000000 0.00000000
Neuron 9 4 1.00000000 5 3.02500000 0.00000000 0.00000000 0.00000000
Neuron 12 3 0.50000000 4 0.59996514 0.00000000 0.00000000 0.00000000
Neuron 14 3 0.50000000 6 2.62223523 0.00000000 0.00000000 0.00000000
Neuron 15 3 0.50000000 4 5.16609545 0.00000000 0.00000000 0.00000000
Neuron 17 3 0.50000000 4 0.86722526 0.00000000 0.00000000 0.00000000
Neuron 25 3 0.50000000 1 1.86426148 0.00000000 0.00000000 0.00000000
Link 1 7 1 0 -2.10876458
Link 2 7 2 0 0.16361043
Link 3 7 3 0 0.13193187
Link 6 7 6 0 -0.14657636
Link 1 8 7 0 2.80208210
Link 2 8 8 0 1.43628332
Link 4 8 10 0 0.41853598
Link 5 8 11 0 -3.81336325
Link 6 8 12 0 -0.56985928
Link 3 9 15 0 -1.04284498
Link 4 9 16 0 0.82118931
Link 5 9 17 0 -1.56352409
Link 6 9 18 0 0.19702648
Link 3 12 26 0 -0.32644535
Link 12 8 27 0 1.09612624
Link 2 14 34 0 1.11807385
Link 14 9 35 0 -1.31715338
Link 4 15 39 0 -0.16370055
Link 15 7 40 0 0.59885311
Link 5 17 51 0 -1.09417216
Link 17 7 52 0 -1.37635406
Link 1 25 90 0 -0.50401409
Link 25 9 91 0 -1.10996028
Link 6 17 125 0 0.21814369
GenomeEnd

