GenomeStart 14006
Neuron 1 1 0.00000000 1 0.00000000 0.00000000 0.00000000 0.00000000
Neuron 2 1 0.00000000 1 0.00000000 0.00000000 0.00000000 0.00000000
Neuron 3 1 0.00000000 1 0.00000000 0.00000000 0.00000000 0.00000000
Neuron 4 1 0.00000000 1 0.00000000 0.00000000 0.00000000 0.00000000
Neuron 5 1 0.00000000 1 0.00000000 0.00000000 0.00000000 0.00000000
Neuron 6 2 0.00000000 1 0.00000000 0.00000000 0.00000000 0.00000000
Neuron 7 4 1.00000000 1 3.02500000 0.00000000 0.00000000 0.00000000
Neuron 8 4 1.00000000 1 3.02500000 0.00000000 0.00000000 0.00000000
Neuron 9 4 1.00000000 5 3.02500000 0.00000000 0.00000000 0.00000000
Neuron 12 3 0.50000000 4 0.59996514 0.00000000 0.00000000 0.00000000
Neuron 14 3 0.50000000 6 2.62223523 0.00000000 0.00000000 0.00000000
Neuron 15 3 0.50000000 4 5.16609545 0.00000000 0.00000000 0.00000000
Neuron 17 3 0.50000000 4 0.86722526 0.00000000 0.00000000 0.00000000
Neuron 25 3 0.50000000 1 1.86426148 0.00000000 0.00000000 0.00000000
Link 1 7 1 0 -1.11830957
Link 2 7 2 0 0.37345297
Link 3 7 3 0 -0.67823808
Link 6 7 6 0 -1.04732331
Link 1 8 7 0 -0.61842115
Link 2 8 8 0 1.66940897
Link 4 8 10 0 0.43559167
Link 5 8 11 0 -3.36309182
Link 6 8 12 0 -0.75964839
Link 3 9 15 0 -1.36450813
Link 4 9 16 0 -2.38325255
Link 5 9 17 0 -1.97242764
Link 6 9 18 0 0.41110834
Link 3 12 26 0 0.59452423
Link 12 8 27 0 -0.92620832
Link 2 14 34 0 -0.83179032
Link 14 9 35 0 -0.86786200
Link 4 15 39 0 0.40837100
Link 15 7 40 0 -2.25779871
Link 5 17 51 0 -0.43714070
Link 17 7 52 0 0.23997594
Link 1 25 90 0 -0.77895887
Link 25 9 91 0 0.06538989
Link 6 17 125 0 2.03825647
GenomeEnd

