GenomeStart 10291
Neuron 1 1 0.00000000 1 0.00000000 0.00000000 0.00000000 0.00000000
Neuron 2 1 0.00000000 1 0.00000000 0.00000000 0.00000000 0.00000000
Neuron 3 1 0.00000000 1 0.00000000 0.00000000 0.00000000 0.00000000
Neuron 4 1 0.00000000 1 0.00000000 0.00000000 0.00000000 0.00000000
Neuron 5 1 0.00000000 1 0.00000000 0.00000000 0.00000000 0.00000000
Neuron 6 2 0.00000000 1 0.00000000 0.00000000 0.00000000 0.00000000
Neuron 7 4 1.00000000 1 3.02500000 0.00000000 0.00000000 0.00000000
Neuron 8 4 1.00000000 1 3.02500000 0.00000000 0.00000000 0.00000000
Neuron 9 4 1.00000000 5 3.02500000 0.00000000 0.00000000 0.00000000
Neuron 12 3 0.50000000 4 0.59996514 0.00000000 0.00000000 0.00000000
Neuron 14 3 0.50000000 6 2.62223523 0.00000000 0.00000000 0.00000000
Neuron 15 3 0.50000000 4 5.16609545 0.00000000 0.00000000 0.00000000
Neuron 17 3 0.50000000 4 0.86722526 0.00000000 0.00000000 0.00000000
Neuron 25 3 0.50000000 1 1.86426148 0.00000000 0.00000000 0.00000000
Link 1 7 1 0 -1.21713933
Link 2 7 2 0 0.25467828
Link 3 7 3 0 -0.11655425
Link 6 7 6 0 -1.37484148
Link 1 8 7 0 2.64686069
Link 2 8 8 0 2.84849692
Link 4 8 10 0 -0.09790047
Link 5 8 11 0 -4.17230951
Link 6 8 12 0 -0.73212053
Link 3 9 15 0 -1.41296258
Link 4 9 16 0 0.28598473
Link 5 9 17 0 -1.39713654
Link 6 9 18 0 -0.17575921
Link 3 12 26 0 -0.60302509
Link 12 8 27 0 0.31769955
Link 2 14 34 0 0.16569348
Link 14 9 35 0 -0.93174203
Link 4 15 39 0 0.22559743
Link 15 7 40 0 -2.37573545
Link 5 17 51 0 -0.04004553
Link 17 7 52 0 -0.78843836
Link 1 25 90 0 -0.79465588
Link 25 9 91 0 -0.00801945
Link 6 17 125 0 2.65162230
GenomeEnd

