GenomeStart 8178
Neuron 1 1 0.00000000 1 0.00000000 0.00000000 0.00000000 0.00000000
Neuron 2 1 0.00000000 1 0.00000000 0.00000000 0.00000000 0.00000000
Neuron 3 1 0.00000000 1 0.00000000 0.00000000 0.00000000 0.00000000
Neuron 4 1 0.00000000 1 0.00000000 0.00000000 0.00000000 0.00000000
Neuron 5 1 0.00000000 1 0.00000000 0.00000000 0.00000000 0.00000000
Neuron 6 2 0.00000000 1 0.00000000 0.00000000 0.00000000 0.00000000
Neuron 7 4 1.00000000 1 3.02500000 0.00000000 0.00000000 0.00000000
Neuron 8 4 1.00000000 1 3.02500000 0.00000000 0.00000000 0.00000000
Neuron 9 4 1.00000000 5 3.02500000 0.00000000 0.00000000 0.00000000
Neuron 12 3 0.50000000 2 0.59996514 0.00000000 0.00000000 0.00000000
Neuron 16 3 0.50000000 2 3.72031895 0.00000000 0.00000000 0.00000000
Neuron 26 3 0.50000000 6 3.53637145 0.00000000 0.00000000 0.00000000
Link 1 7 1 0 0.18897734
Link 2 7 2 0 -2.11324528
Link 3 7 3 0 -0.12522937
Link 4 7 4 0 -1.75708862
Link 5 7 5 0 -1.16820397
Link 6 7 6 0 3.24495323
Link 2 8 8 0 3.03842773
Link 4 8 10 0 1.38604817
Link 5 8 11 0 -0.31516021
Link 6 8 12 0 -0.73846282
Link 1 9 13 0 2.08250387
Link 2 9 14 0 3.67299186
Link 3 9 15 0 2.92068724
Link 4 9 16 0 -2.41127220
Link 6 9 18 0 1.39417038
Link 3 12 26 0 1.95250086
Link 12 8 27 0 2.69487663
Link 1 16 45 0 3.75783798
Link 16 8 46 0 1.08836738
Link 5 26 93 0 0.51530536
Link 26 9 94 0 0.10862252
GenomeEnd

