GenomeStart 1980
Neuron 1 1 0.00000000 1 0.00000000 0.00000000 0.00000000 0.00000000
Neuron 2 1 0.00000000 1 0.00000000 0.00000000 0.00000000 0.00000000
Neuron 3 1 0.00000000 1 0.00000000 0.00000000 0.00000000 0.00000000
Neuron 4 1 0.00000000 1 0.00000000 0.00000000 0.00000000 0.00000000
Neuron 5 1 0.00000000 1 0.00000000 0.00000000 0.00000000 0.00000000
Neuron 6 2 0.00000000 1 0.00000000 0.00000000 0.00000000 0.00000000
Neuron 7 4 1.00000000 1 3.02500000 0.00000000 0.00000000 0.00000000
Neuron 8 4 1.00000000 1 3.02500000 0.00000000 0.00000000 0.00000000
Neuron 9 4 1.00000000 5 3.02500000 0.00000000 0.00000000 0.00000000
Neuron 12 3 0.50000000 2 0.59996514 0.00000000 0.00000000 0.00000000
Neuron 16 3 0.50000000 2 3.72031895 0.00000000 0.00000000 0.00000000
Link 1 7 1 0 -0.38753893
Link 2 7 2 0 -0.86338718
Link 3 7 3 0 -0.82856040
Link 4 7 4 0 2.45032212
Link 5 7 5 0 0.09514394
Link 6 7 6 0 -0.32671614
Link 2 8 8 0 0.30797878
Link 4 8 10 0 -2.70411849
Link 5 8 11 0 -0.43037133
Link 6 8 12 0 -0.78703401
Link 1 9 13 0 3.08451498
Link 2 9 14 0 3.23065733
Link 3 9 15 0 0.40467269
Link 4 9 16 0 -0.17595787
Link 5 9 17 0 0.58488045
Link 6 9 18 0 0.06655796
Link 3 12 26 0 0.04663569
Link 12 8 27 0 0.33813281
Link 1 16 45 0 1.00000000
Link 16 8 46 0 1.06508558
GenomeEnd

