GenomeStart 3770
Neuron 1 1 0.00000000 1 0.00000000 0.00000000 0.00000000 0.00000000
Neuron 2 1 0.00000000 1 0.00000000 0.00000000 0.00000000 0.00000000
Neuron 3 1 0.00000000 1 0.00000000 0.00000000 0.00000000 0.00000000
Neuron 4 1 0.00000000 1 0.00000000 0.00000000 0.00000000 0.00000000
Neuron 5 1 0.00000000 1 0.00000000 0.00000000 0.00000000 0.00000000
Neuron 6 2 0.00000000 1 0.00000000 0.00000000 0.00000000 0.00000000
Neuron 7 4 1.00000000 1 3.02500000 0.00000000 0.00000000 0.00000000
Neuron 8 4 1.00000000 1 3.02500000 0.00000000 0.00000000 0.00000000
Neuron 9 4 1.00000000 5 3.02500000 0.00000000 0.00000000 0.00000000
Neuron 12 3 0.50000000 2 0.59996514 0.00000000 0.00000000 0.00000000
Link 1 7 1 0 -0.82001756
Link 2 7 2 0 1.71353169
Link 3 7 3 0 0.17051608
Link 4 7 4 0 0.54942299
Link 5 7 5 0 -0.37178194
Link 6 7 6 0 0.33028111
Link 1 8 7 0 2.53193867
Link 2 8 8 0 1.55602998
Link 4 8 10 0 -2.97214099
Link 5 8 11 0 -0.74304176
Link 6 8 12 0 -1.62306041
Link 1 9 13 0 1.04577764
Link 2 9 14 0 -1.34690367
Link 3 9 15 0 0.66690472
Link 4 9 16 0 0.75882595
Link 5 9 17 0 -0.34592421
Link 6 9 18 0 -1.98915314
Link 3 12 26 0 1.61121757
Link 12 8 27 0 0.32690327
GenomeEnd

