GenomeStart 4232
Neuron 1 1 0.00000000 1 0.00000000 0.00000000 0.00000000 0.00000000
Neuron 2 1 0.00000000 1 0.00000000 0.00000000 0.00000000 0.00000000
Neuron 3 1 0.00000000 1 0.00000000 0.00000000 0.00000000 0.00000000
Neuron 4 1 0.00000000 1 0.00000000 0.00000000 0.00000000 0.00000000
Neuron 5 1 0.00000000 1 0.00000000 0.00000000 0.00000000 0.00000000
Neuron 6 2 0.00000000 1 0.00000000 0.00000000 0.00000000 0.00000000
Neuron 7 4 1.00000000 1 3.02500000 0.00000000 0.00000000 0.00000000
Neuron 8 4 1.00000000 1 3.02500000 0.00000000 0.00000000 0.00000000
Neuron 9 4 1.00000000 5 3.02500000 0.00000000 0.00000000 0.00000000
Neuron 15 3 0.50000000 11 1.64473542 0.00000000 0.00000000 0.00000000
Link 1 7 1 0 0.45103960
Link 2 7 2 0 0.52801912
Link 3 7 3 0 -3.22436692
Link 5 7 5 0 -0.69446159
Link 6 7 6 0 1.27650108
Link 1 8 7 0 -0.65489554
Link 2 8 8 0 -0.87060509
Link 3 8 9 0 -0.82357764
Link 4 8 10 0 1.02224744
Link 5 8 11 0 0.07797812
Link 6 8 12 0 0.77212990
Link 1 9 13 0 -0.65137730
Link 2 9 14 0 0.11657707
Link 3 9 15 0 -0.14848467
Link 4 9 16 0 4.93629694
Link 5 9 17 0 -2.57939123
Link 6 9 18 0 -0.56861472
Link 4 15 39 0 1.31297771
Link 15 7 40 0 1.85743175
Link 6 15 72 0 -0.17538758
GenomeEnd

