GenomeStart 8037
Neuron 1 1 0.00000000 1 0.00000000 0.00000000 0.00000000 0.00000000
Neuron 2 1 0.00000000 1 0.00000000 0.00000000 0.00000000 0.00000000
Neuron 3 1 0.00000000 1 0.00000000 0.00000000 0.00000000 0.00000000
Neuron 4 1 0.00000000 1 0.00000000 0.00000000 0.00000000 0.00000000
Neuron 5 1 0.00000000 1 0.00000000 0.00000000 0.00000000 0.00000000
Neuron 6 2 0.00000000 1 0.00000000 0.00000000 0.00000000 0.00000000
Neuron 7 4 1.00000000 1 3.02500000 0.00000000 0.00000000 0.00000000
Neuron 8 4 1.00000000 1 3.02500000 0.00000000 0.00000000 0.00000000
Neuron 9 4 1.00000000 5 3.02500000 0.00000000 0.00000000 0.00000000
Neuron 12 3 0.50000000 2 0.59996514 0.00000000 0.00000000 0.00000000
Neuron 14 3 0.50000000 8 2.73611657 0.00000000 0.00000000 0.00000000
Neuron 16 3 0.50000000 2 3.72031895 0.00000000 0.00000000 0.00000000
Link 1 7 1 0 -0.07291657
Link 2 7 2 0 1.80828559
Link 3 7 3 0 2.04389353
Link 4 7 4 0 3.53228033
Link 5 7 5 0 2.26644203
Link 6 7 6 0 0.37237337
Link 2 8 8 0 0.17876483
Link 4 8 10 0 -0.66836196
Link 5 8 11 0 0.23578816
Link 6 8 12 0 -0.44639580
Link 1 9 13 0 2.17437101
Link 3 9 15 0 0.07798730
Link 4 9 16 0 0.75067578
Link 5 9 17 0 0.03267635
Link 6 9 18 0 -0.41451790
Link 3 12 26 0 0.55989707
Link 12 8 27 0 -2.66799980
Link 2 14 34 0 1.13334679
Link 14 9 35 0 2.46705517
Link 1 12 37 0 -0.30996484
Link 1 16 45 0 -0.57156010
Link 16 8 46 0 -0.35989617
GenomeEnd

