GenomeStart 9743
Neuron 1 1 0.00000000 1 0.00000000 0.00000000 0.00000000 0.00000000
Neuron 2 1 0.00000000 1 0.00000000 0.00000000 0.00000000 0.00000000
Neuron 3 1 0.00000000 1 0.00000000 0.00000000 0.00000000 0.00000000
Neuron 4 1 0.00000000 1 0.00000000 0.00000000 0.00000000 0.00000000
Neuron 5 1 0.00000000 1 0.00000000 0.00000000 0.00000000 0.00000000
Neuron 6 2 0.00000000 1 0.00000000 0.00000000 0.00000000 0.00000000
Neuron 7 4 1.00000000 1 3.02500000 0.00000000 0.00000000 0.00000000
Neuron 8 4 1.00000000 1 3.02500000 0.00000000 0.00000000 0.00000000
Neuron 9 4 1.00000000 5 3.02500000 0.00000000 0.00000000 0.00000000
Neuron 12 3 0.50000000 4 0.59996514 0.00000000 0.00000000 0.00000000
Neuron 13 3 0.50000000 6 3.83234529 0.00000000 0.00000000 0.00000000
Neuron 14 3 0.50000000 6 2.62223523 0.00000000 0.00000000 0.00000000
Neuron 15 3 0.50000000 4 5.16609545 0.00000000 0.00000000 0.00000000
Neuron 17 3 0.50000000 4 0.86722526 0.00000000 0.00000000 0.00000000
Neuron 25 3 0.50000000 1 1.86426148 0.00000000 0.00000000 0.00000000
Link 1 7 1 0 -2.15923788
Link 2 7 2 0 -0.40277277
Link 3 7 3 0 0.48907682
Link 6 7 6 0 -0.85745747
Link 1 8 7 0 2.83275943
Link 4 8 10 0 0.20762938
Link 5 8 11 0 -3.60912847
Link 6 8 12 0 -0.38853161
Link 3 9 15 0 -1.36866780
Link 4 9 16 0 0.28598473
Link 5 9 17 0 -1.41609489
Link 6 9 18 0 0.03937689
Link 3 12 26 0 1.46186015
Link 12 8 27 0 0.65377140
Link 2 13 29 0 1.00000000
Link 13 8 30 0 1.44349329
Link 2 14 34 0 1.47881960
Link 14 9 35 0 -0.92829119
Link 4 15 39 0 -0.75367036
Link 15 7 40 0 -1.31659490
Link 5 17 51 0 -0.77894356
Link 17 7 52 0 -1.10749202
Link 1 25 90 0 -0.55675333
Link 25 9 91 0 -1.29428953
Link 6 17 125 0 0.54621362
GenomeEnd

