GenomeStart 12822
Neuron 1 1 0.00000000 1 0.00000000 0.00000000 0.00000000 0.00000000
Neuron 2 1 0.00000000 1 0.00000000 0.00000000 0.00000000 0.00000000
Neuron 3 1 0.00000000 1 0.00000000 0.00000000 0.00000000 0.00000000
Neuron 4 1 0.00000000 1 0.00000000 0.00000000 0.00000000 0.00000000
Neuron 5 1 0.00000000 1 0.00000000 0.00000000 0.00000000 0.00000000
Neuron 6 2 0.00000000 1 0.00000000 0.00000000 0.00000000 0.00000000
Neuron 7 4 1.00000000 1 3.02500000 0.00000000 0.00000000 0.00000000
Neuron 8 4 1.00000000 1 3.02500000 0.00000000 0.00000000 0.00000000
Neuron 9 4 1.00000000 5 3.02500000 0.00000000 0.00000000 0.00000000
Neuron 12 3 0.50000000 4 0.59996514 0.00000000 0.00000000 0.00000000
Neuron 14 3 0.50000000 6 2.62223523 0.00000000 0.00000000 0.00000000
Neuron 15 3 0.50000000 4 5.16609545 0.00000000 0.00000000 0.00000000
Neuron 17 3 0.50000000 4 0.86722526 0.00000000 0.00000000 0.00000000
Neuron 25 3 0.50000000 1 1.86426148 0.00000000 0.00000000 0.00000000
Link 1 7 1 0 -2.49078816
Link 2 7 2 0 0.19716817
Link 3 7 3 0 1.05347189
Link 6 7 6 0 -0.94585629
Link 1 8 7 0 1.36723876
Link 2 8 8 0 -0.78128225
Link 4 8 10 0 1.00099604
Link 5 8 11 0 -3.61763443
Link 6 8 12 0 -0.25758605
Link 3 9 15 0 -2.24438777
Link 4 9 16 0 -1.72270815
Link 5 9 17 0 -0.28856839
Link 6 9 18 0 0.19360751
Link 3 12 26 0 0.61132294
Link 12 8 27 0 1.24375948
Link 2 14 34 0 1.97101013
Link 14 9 35 0 -1.39522412
Link 4 15 39 0 -1.53041916
Link 15 7 40 0 -1.85723823
Link 5 17 51 0 0.23432126
Link 17 7 52 0 1.85846130
Link 1 25 90 0 -1.49918252
Link 25 9 91 0 -1.12488250
Link 6 17 125 0 1.58561640
GenomeEnd

