GenomeStart 7147
Neuron 1 1 0.00000000 1 0.00000000 0.00000000 0.00000000 0.00000000
Neuron 2 1 0.00000000 1 0.00000000 0.00000000 0.00000000 0.00000000
Neuron 3 1 0.00000000 1 0.00000000 0.00000000 0.00000000 0.00000000
Neuron 4 1 0.00000000 1 0.00000000 0.00000000 0.00000000 0.00000000
Neuron 5 1 0.00000000 1 0.00000000 0.00000000 0.00000000 0.00000000
Neuron 6 2 0.00000000 1 0.00000000 0.00000000 0.00000000 0.00000000
Neuron 7 4 1.00000000 1 3.02500000 0.00000000 0.00000000 0.00000000
Neuron 8 4 1.00000000 1 3.02500000 0.00000000 0.00000000 0.00000000
Neuron 9 4 1.00000000 5 3.02500000 0.00000000 0.00000000 0.00000000
Neuron 12 3 0.50000000 4 0.59996514 0.00000000 0.00000000 0.00000000
Neuron 13 3 0.50000000 1 3.58972395 0.00000000 0.00000000 0.00000000
Neuron 14 3 0.50000000 6 2.62223523 0.00000000 0.00000000 0.00000000
Neuron 15 3 0.50000000 4 5.16609545 0.00000000 0.00000000 0.00000000
Neuron 17 3 0.50000000 4 0.86722526 0.00000000 0.00000000 0.00000000
Link 1 7 1 0 -3.36766487
Link 2 7 2 0 -0.51047775
Link 3 7 3 0 2.51594145
Link 6 7 6 0 0.86249810
Link 1 8 7 0 2.10790860
Link 4 8 10 0 0.55503584
Link 5 8 11 0 -2.89395921
Link 6 8 12 0 -0.76881102
Link 1 9 13 0 -3.02680875
Link 3 9 15 0 -0.99909385
Link 4 9 16 0 -1.70091147
Link 5 9 17 0 -0.84948033
Link 6 9 18 0 1.62752341
Link 3 12 26 0 1.93914779
Link 12 8 27 0 0.53725454
Link 2 13 29 0 1.00000000
Link 13 8 30 0 1.62757926
Link 2 14 34 0 1.82780951
Link 14 9 35 0 3.37071592
Link 4 15 39 0 1.00597248
Link 15 7 40 0 -0.64765295
Link 5 17 51 0 -1.56825820
Link 17 7 52 0 -1.41808460
GenomeEnd

