GenomeStart 14441
Neuron 1 1 0.00000000 1 0.00000000 0.00000000 0.00000000 0.00000000
Neuron 2 1 0.00000000 1 0.00000000 0.00000000 0.00000000 0.00000000
Neuron 3 1 0.00000000 1 0.00000000 0.00000000 0.00000000 0.00000000
Neuron 4 1 0.00000000 1 0.00000000 0.00000000 0.00000000 0.00000000
Neuron 5 1 0.00000000 1 0.00000000 0.00000000 0.00000000 0.00000000
Neuron 6 2 0.00000000 1 0.00000000 0.00000000 0.00000000 0.00000000
Neuron 7 4 1.00000000 1 3.02500000 0.00000000 0.00000000 0.00000000
Neuron 8 4 1.00000000 1 3.02500000 0.00000000 0.00000000 0.00000000
Neuron 9 4 1.00000000 5 3.02500000 0.00000000 0.00000000 0.00000000
Neuron 12 3 0.50000000 4 0.59996514 0.00000000 0.00000000 0.00000000
Neuron 14 3 0.50000000 6 2.62223523 0.00000000 0.00000000 0.00000000
Neuron 15 3 0.50000000 4 5.16609545 0.00000000 0.00000000 0.00000000
Neuron 17 3 0.50000000 4 0.86722526 0.00000000 0.00000000 0.00000000
Neuron 25 3 0.50000000 1 1.86426148 0.00000000 0.00000000 0.00000000
Link 1 7 1 0 -0.35648220
Link 2 7 2 0 0.14333714
Link 3 7 3 0 -0.51806021
Link 6 7 6 0 -0.51344089
Link 1 8 7 0 -1.40200858
Link 2 8 8 0 0.63890872
Link 4 8 10 0 -2.08366420
Link 5 8 11 0 -2.95316886
Link 6 8 12 0 0.11048862
Link 3 9 15 0 -4.16211685
Link 4 9 16 0 -1.57883400
Link 5 9 17 0 -2.34407603
Link 6 9 18 0 -2.22715871
Link 3 12 26 0 1.34148957
Link 12 8 27 0 -0.35776561
Link 2 14 34 0 1.96068663
Link 14 9 35 0 -6.05286269
Link 4 15 39 0 0.22905245
Link 15 7 40 0 -2.36175896
Link 5 17 51 0 -0.59756775
Link 17 7 52 0 -0.23175798
Link 1 25 90 0 -1.28504470
Link 25 9 91 0 -1.70081468
Link 6 17 125 0 -2.44072805
GenomeEnd

