GenomeStart 976
Neuron 1 1 0.00000000 1 0.00000000 0.00000000 0.00000000 0.00000000
Neuron 2 1 0.00000000 1 0.00000000 0.00000000 0.00000000 0.00000000
Neuron 3 1 0.00000000 1 0.00000000 0.00000000 0.00000000 0.00000000
Neuron 4 1 0.00000000 1 0.00000000 0.00000000 0.00000000 0.00000000
Neuron 5 1 0.00000000 1 0.00000000 0.00000000 0.00000000 0.00000000
Neuron 6 2 0.00000000 1 0.00000000 0.00000000 0.00000000 0.00000000
Neuron 7 4 1.00000000 1 3.02500000 0.00000000 0.00000000 0.00000000
Neuron 8 4 1.00000000 1 3.02500000 0.00000000 0.00000000 0.00000000
Neuron 9 4 1.00000000 5 3.02500000 0.00000000 0.00000000 0.00000000
Neuron 12 3 0.50000000 2 0.59996514 0.00000000 0.00000000 0.00000000
Link 1 7 1 0 -1.30732487
Link 2 7 2 0 -0.36675396
Link 3 7 3 0 -0.91656782
Link 4 7 4 0 1.31079744
Link 5 7 5 0 -0.60678816
Link 6 7 6 0 0.95035985
Link 1 8 7 0 0.02542232
Link 2 8 8 0 0.66024834
Link 4 8 10 0 0.48161891
Link 5 8 11 0 -0.60078710
Link 6 8 12 0 -0.81053720
Link 1 9 13 0 -0.87879800
Link 2 9 14 0 2.58701459
Link 3 9 15 0 0.92731685
Link 4 9 16 0 -0.28336645
Link 5 9 17 0 -0.79727864
Link 6 9 18 0 0.08417373
Link 3 12 26 0 1.00000000
Link 12 8 27 0 0.33076266
GenomeEnd

