GenomeStart 2680
Neuron 1 1 0.00000000 1 0.00000000 0.00000000 0.00000000 0.00000000
Neuron 2 1 0.00000000 1 0.00000000 0.00000000 0.00000000 0.00000000
Neuron 3 1 0.00000000 1 0.00000000 0.00000000 0.00000000 0.00000000
Neuron 4 1 0.00000000 1 0.00000000 0.00000000 0.00000000 0.00000000
Neuron 5 1 0.00000000 1 0.00000000 0.00000000 0.00000000 0.00000000
Neuron 6 2 0.00000000 1 0.00000000 0.00000000 0.00000000 0.00000000
Neuron 7 4 1.00000000 1 3.02500000 0.00000000 0.00000000 0.00000000
Neuron 8 4 1.00000000 1 3.02500000 0.00000000 0.00000000 0.00000000
Neuron 9 4 1.00000000 5 3.02500000 0.00000000 0.00000000 0.00000000
Neuron 15 3 0.50000000 11 1.64473542 0.00000000 0.00000000 0.00000000
Neuron 17 3 0.50000000 4 1.89986857 0.00000000 0.00000000 0.00000000
Neuron 20 3 0.50000000 9 4.31954354 0.00000000 0.00000000 0.00000000
Link 1 7 1 0 0.60322010
Link 2 7 2 0 0.80449657
Link 3 7 3 0 -3.34567193
Link 6 7 6 0 0.83742018
Link 1 8 7 0 -0.03625193
Link 2 8 8 0 1.01392411
Link 3 8 9 0 -0.04270824
Link 4 8 10 0 1.74440972
Link 6 8 12 0 0.67659847
Link 1 9 13 0 -1.05629224
Link 2 9 14 0 0.63865727
Link 3 9 15 0 0.36399986
Link 4 9 16 0 3.64472221
Link 5 9 17 0 -1.72116741
Link 6 9 18 0 0.01301433
Link 4 15 39 0 2.09061459
Link 15 7 40 0 0.36497885
Link 5 17 51 0 0.82576760
Link 17 7 52 0 0.00526765
Link 5 20 64 0 1.00000000
Link 20 8 65 0 -0.17754926
GenomeEnd

