GenomeStart 10141
Neuron 1 1 0.00000000 1 0.00000000 0.00000000 0.00000000 0.00000000
Neuron 2 1 0.00000000 1 0.00000000 0.00000000 0.00000000 0.00000000
Neuron 3 1 0.00000000 1 0.00000000 0.00000000 0.00000000 0.00000000
Neuron 4 1 0.00000000 1 0.00000000 0.00000000 0.00000000 0.00000000
Neuron 5 1 0.00000000 1 0.00000000 0.00000000 0.00000000 0.00000000
Neuron 6 2 0.00000000 1 0.00000000 0.00000000 0.00000000 0.00000000
Neuron 7 4 1.00000000 1 3.02500000 0.00000000 0.00000000 0.00000000
Neuron 8 4 1.00000000 1 3.02500000 0.00000000 0.00000000 0.00000000
Neuron 9 4 1.00000000 5 3.02500000 0.00000000 0.00000000 0.00000000
Neuron 12 3 0.50000000 4 0.59996514 0.00000000 0.00000000 0.00000000
Neuron 14 3 0.50000000 6 2.62223523 0.00000000 0.00000000 0.00000000
Neuron 15 3 0.50000000 4 5.16609545 0.00000000 0.00000000 0.00000000
Neuron 17 3 0.50000000 4 0.86722526 0.00000000 0.00000000 0.00000000
Neuron 25 3 0.50000000 1 1.86426148 0.00000000 0.00000000 0.00000000
Link 1 7 1 0 -2.76514762
Link 2 7 2 0 -0.93711842
Link 3 7 3 0 1.52049598
Link 6 7 6 0 1.20568792
Link 1 8 7 0 1.06046951
Link 2 8 8 0 -0.88610473
Link 4 8 10 0 0.26118391
Link 5 8 11 0 -3.21480566
Link 6 8 12 0 -2.65288059
Link 3 9 15 0 -0.19492220
Link 4 9 16 0 -0.47688576
Link 5 9 17 0 -2.60637480
Link 6 9 18 0 -0.19887687
Link 3 12 26 0 -1.90087900
Link 12 8 27 0 2.12616973
Link 2 14 34 0 1.26535053
Link 14 9 35 0 -1.46324264
Link 4 15 39 0 -0.04161011
Link 15 7 40 0 -0.15451447
Link 5 17 51 0 -1.13563453
Link 17 7 52 0 -1.32937656
Link 1 25 90 0 -0.42100823
Link 25 9 91 0 -1.01697068
Link 6 17 125 0 -1.55566273
GenomeEnd

