GenomeStart 11341
Neuron 1 1 0.00000000 1 0.00000000 0.00000000 0.00000000 0.00000000
Neuron 2 1 0.00000000 1 0.00000000 0.00000000 0.00000000 0.00000000
Neuron 3 1 0.00000000 1 0.00000000 0.00000000 0.00000000 0.00000000
Neuron 4 1 0.00000000 1 0.00000000 0.00000000 0.00000000 0.00000000
Neuron 5 1 0.00000000 1 0.00000000 0.00000000 0.00000000 0.00000000
Neuron 6 2 0.00000000 1 0.00000000 0.00000000 0.00000000 0.00000000
Neuron 7 4 1.00000000 1 3.02500000 0.00000000 0.00000000 0.00000000
Neuron 8 4 1.00000000 1 3.02500000 0.00000000 0.00000000 0.00000000
Neuron 9 4 1.00000000 5 3.02500000 0.00000000 0.00000000 0.00000000
Neuron 12 3 0.50000000 4 0.59996514 0.00000000 0.00000000 0.00000000
Neuron 14 3 0.50000000 6 2.62223523 0.00000000 0.00000000 0.00000000
Neuron 15 3 0.50000000 4 5.16609545 0.00000000 0.00000000 0.00000000
Neuron 17 3 0.50000000 4 0.86722526 0.00000000 0.00000000 0.00000000
Neuron 25 3 0.50000000 1 1.86426148 0.00000000 0.00000000 0.00000000
Link 1 7 1 0 -2.36968250
Link 2 7 2 0 -0.55512420
Link 3 7 3 0 1.54736625
Link 6 7 6 0 -0.59325753
Link 1 8 7 0 2.54820864
Link 2 8 8 0 0.18425115
Link 4 8 10 0 -0.86101063
Link 5 8 11 0 -4.11382405
Link 6 8 12 0 -0.94902108
Link 3 9 15 0 -3.23629501
Link 4 9 16 0 -0.34786517
Link 5 9 17 0 -1.36657131
Link 6 9 18 0 0.13715136
Link 3 12 26 0 -1.60382556
Link 12 8 27 0 0.17531728
Link 2 14 34 0 0.23270628
Link 14 9 35 0 -0.71168600
Link 4 15 39 0 -1.10830203
Link 15 7 40 0 -0.67182909
Link 5 17 51 0 -1.50425117
Link 17 7 52 0 -1.12753955
Link 1 25 90 0 -0.73102886
Link 25 9 91 0 0.44449039
Link 6 17 125 0 -0.15133432
GenomeEnd

