GenomeStart 14891
Neuron 1 1 0.00000000 1 0.00000000 0.00000000 0.00000000 0.00000000
Neuron 2 1 0.00000000 1 0.00000000 0.00000000 0.00000000 0.00000000
Neuron 3 1 0.00000000 1 0.00000000 0.00000000 0.00000000 0.00000000
Neuron 4 1 0.00000000 1 0.00000000 0.00000000 0.00000000 0.00000000
Neuron 5 1 0.00000000 1 0.00000000 0.00000000 0.00000000 0.00000000
Neuron 6 2 0.00000000 1 0.00000000 0.00000000 0.00000000 0.00000000
Neuron 7 4 1.00000000 1 3.02500000 0.00000000 0.00000000 0.00000000
Neuron 8 4 1.00000000 1 3.02500000 0.00000000 0.00000000 0.00000000
Neuron 9 4 1.00000000 5 3.02500000 0.00000000 0.00000000 0.00000000
Neuron 12 3 0.50000000 4 0.59996514 0.00000000 0.00000000 0.00000000
Neuron 14 3 0.50000000 6 2.62223523 0.00000000 0.00000000 0.00000000
Neuron 15 3 0.50000000 4 5.16609545 0.00000000 0.00000000 0.00000000
Neuron 17 3 0.50000000 4 0.86722526 0.00000000 0.00000000 0.00000000
Neuron 25 3 0.50000000 1 1.86426148 0.00000000 0.00000000 0.00000000
Link 1 7 1 0 -1.08589891
Link 2 7 2 0 -0.89134304
Link 3 7 3 0 -0.64770420
Link 6 7 6 0 0.38548633
Link 1 8 7 0 0.28300982
Link 2 8 8 0 1.83333509
Link 4 8 10 0 2.18058640
Link 5 8 11 0 -3.53405650
Link 6 8 12 0 -1.58937852
Link 3 9 15 0 -0.68478996
Link 4 9 16 0 -3.10855256
Link 5 9 17 0 -0.97151680
Link 6 9 18 0 -1.65591153
Link 3 12 26 0 -0.11184455
Link 12 8 27 0 1.62248365
Link 2 14 34 0 0.52726418
Link 14 9 35 0 0.34520602
Link 4 15 39 0 0.64765743
Link 15 7 40 0 -1.90034666
Link 5 17 51 0 1.25588069
Link 17 7 52 0 1.11146967
Link 1 25 90 0 -2.69771676
Link 25 9 91 0 -3.54765669
Link 6 17 125 0 0.93020412
GenomeEnd

