GenomeStart 4511
Neuron 1 1 0.00000000 1 0.00000000 0.00000000 0.00000000 0.00000000
Neuron 2 1 0.00000000 1 0.00000000 0.00000000 0.00000000 0.00000000
Neuron 3 1 0.00000000 1 0.00000000 0.00000000 0.00000000 0.00000000
Neuron 4 1 0.00000000 1 0.00000000 0.00000000 0.00000000 0.00000000
Neuron 5 1 0.00000000 1 0.00000000 0.00000000 0.00000000 0.00000000
Neuron 6 2 0.00000000 1 0.00000000 0.00000000 0.00000000 0.00000000
Neuron 7 4 1.00000000 1 3.02500000 0.00000000 0.00000000 0.00000000
Neuron 8 4 1.00000000 1 3.02500000 0.00000000 0.00000000 0.00000000
Neuron 9 4 1.00000000 5 3.02500000 0.00000000 0.00000000 0.00000000
Neuron 12 3 0.50000000 4 0.59996514 0.00000000 0.00000000 0.00000000
Neuron 14 3 0.50000000 6 2.62223523 0.00000000 0.00000000 0.00000000
Link 1 7 1 0 -3.39443446
Link 2 7 2 0 -0.73538278
Link 3 7 3 0 1.33126938
Link 4 7 4 0 1.97931043
Link 5 7 5 0 -0.91520229
Link 6 7 6 0 1.40674575
Link 1 8 7 0 2.66182575
Link 2 8 8 0 0.98708149
Link 4 8 10 0 -0.63433246
Link 5 8 11 0 -0.73674792
Link 6 8 12 0 2.92633546
Link 1 9 13 0 3.21839299
Link 3 9 15 0 -1.72304350
Link 4 9 16 0 -0.54107158
Link 5 9 17 0 -0.29623508
Link 6 9 18 0 1.15695497
Link 3 12 26 0 2.31051246
Link 12 8 27 0 0.61836128
Link 2 14 34 0 3.32585541
Link 14 9 35 0 2.86742152
GenomeEnd

