GenomeStart 14741
Neuron 1 1 0.00000000 1 0.00000000 0.00000000 0.00000000 0.00000000
Neuron 2 1 0.00000000 1 0.00000000 0.00000000 0.00000000 0.00000000
Neuron 3 1 0.00000000 1 0.00000000 0.00000000 0.00000000 0.00000000
Neuron 4 1 0.00000000 1 0.00000000 0.00000000 0.00000000 0.00000000
Neuron 5 1 0.00000000 1 0.00000000 0.00000000 0.00000000 0.00000000
Neuron 6 2 0.00000000 1 0.00000000 0.00000000 0.00000000 0.00000000
Neuron 7 4 1.00000000 1 3.02500000 0.00000000 0.00000000 0.00000000
Neuron 8 4 1.00000000 1 3.02500000 0.00000000 0.00000000 0.00000000
Neuron 9 4 1.00000000 5 3.02500000 0.00000000 0.00000000 0.00000000
Neuron 12 3 0.50000000 4 0.59996514 0.00000000 0.00000000 0.00000000
Neuron 14 3 0.50000000 6 2.62223523 0.00000000 0.00000000 0.00000000
Neuron 15 3 0.50000000 4 5.16609545 0.00000000 0.00000000 0.00000000
Neuron 17 3 0.50000000 4 0.86722526 0.00000000 0.00000000 0.00000000
Neuron 25 3 0.50000000 1 1.86426148 0.00000000 0.00000000 0.00000000
Link 1 7 1 0 -0.83214816
Link 2 7 2 0 -0.98445518
Link 3 7 3 0 0.19509207
Link 6 7 6 0 -0.57499059
Link 1 8 7 0 1.85283052
Link 2 8 8 0 -1.09774118
Link 4 8 10 0 -0.17840035
Link 5 8 11 0 -3.64142699
Link 6 8 12 0 0.00989051
Link 3 9 15 0 -0.85628887
Link 4 9 16 0 0.87921502
Link 5 9 17 0 -0.87597997
Link 6 9 18 0 0.05954960
Link 3 12 26 0 1.05737944
Link 12 8 27 0 1.64626181
Link 2 14 34 0 2.22044269
Link 14 9 35 0 -0.86786200
Link 4 15 39 0 1.73224047
Link 15 7 40 0 -0.19980572
Link 5 17 51 0 -0.45037487
Link 17 7 52 0 -0.53614487
Link 1 25 90 0 -3.42810630
Link 25 9 91 0 -0.84896199
Link 6 17 125 0 -3.03452854
GenomeEnd

