GenomeStart 14154
Neuron 1 1 0.00000000 1 0.00000000 0.00000000 0.00000000 0.00000000
Neuron 2 1 0.00000000 1 0.00000000 0.00000000 0.00000000 0.00000000
Neuron 3 1 0.00000000 1 0.00000000 0.00000000 0.00000000 0.00000000
Neuron 4 1 0.00000000 1 0.00000000 0.00000000 0.00000000 0.00000000
Neuron 5 1 0.00000000 1 0.00000000 0.00000000 0.00000000 0.00000000
Neuron 6 2 0.00000000 1 0.00000000 0.00000000 0.00000000 0.00000000
Neuron 7 4 1.00000000 1 3.02500000 0.00000000 0.00000000 0.00000000
Neuron 8 4 1.00000000 1 3.02500000 0.00000000 0.00000000 0.00000000
Neuron 9 4 1.00000000 5 3.02500000 0.00000000 0.00000000 0.00000000
Neuron 12 3 0.50000000 4 0.59996514 0.00000000 0.00000000 0.00000000
Neuron 14 3 0.50000000 6 2.62223523 0.00000000 0.00000000 0.00000000
Neuron 15 3 0.50000000 4 5.16609545 0.00000000 0.00000000 0.00000000
Neuron 17 3 0.50000000 4 0.86722526 0.00000000 0.00000000 0.00000000
Neuron 25 3 0.50000000 1 1.86426148 0.00000000 0.00000000 0.00000000
Link 1 7 1 0 -1.65968607
Link 2 7 2 0 0.51193357
Link 3 7 3 0 1.48069038
Link 6 7 6 0 -0.03305109
Link 1 8 7 0 -0.21754907
Link 2 8 8 0 1.86986372
Link 4 8 10 0 0.02059906
Link 5 8 11 0 -3.04931026
Link 6 8 12 0 -1.43785719
Link 3 9 15 0 -3.11910790
Link 4 9 16 0 0.38480018
Link 5 9 17 0 -1.71376596
Link 6 9 18 0 1.29376831
Link 3 12 26 0 -0.51779206
Link 12 8 27 0 1.00097238
Link 2 14 34 0 1.66037894
Link 14 9 35 0 -0.54829527
Link 4 15 39 0 0.51069714
Link 15 7 40 0 -2.09315227
Link 5 17 51 0 -0.57312364
Link 17 7 52 0 -0.63463096
Link 1 25 90 0 -2.17346621
Link 25 9 91 0 -0.43508271
Link 6 17 125 0 -2.08876873
GenomeEnd

