GenomeStart 12526
Neuron 1 1 0.00000000 1 0.00000000 0.00000000 0.00000000 0.00000000
Neuron 2 1 0.00000000 1 0.00000000 0.00000000 0.00000000 0.00000000
Neuron 3 1 0.00000000 1 0.00000000 0.00000000 0.00000000 0.00000000
Neuron 4 1 0.00000000 1 0.00000000 0.00000000 0.00000000 0.00000000
Neuron 5 1 0.00000000 1 0.00000000 0.00000000 0.00000000 0.00000000
Neuron 6 2 0.00000000 1 0.00000000 0.00000000 0.00000000 0.00000000
Neuron 7 4 1.00000000 1 3.02500000 0.00000000 0.00000000 0.00000000
Neuron 8 4 1.00000000 1 3.02500000 0.00000000 0.00000000 0.00000000
Neuron 9 4 1.00000000 5 3.02500000 0.00000000 0.00000000 0.00000000
Neuron 12 3 0.50000000 4 0.59996514 0.00000000 0.00000000 0.00000000
Neuron 14 3 0.50000000 6 2.62223523 0.00000000 0.00000000 0.00000000
Neuron 15 3 0.50000000 4 5.16609545 0.00000000 0.00000000 0.00000000
Neuron 17 3 0.50000000 4 0.86722526 0.00000000 0.00000000 0.00000000
Neuron 25 3 0.50000000 1 1.86426148 0.00000000 0.00000000 0.00000000
Link 1 7 1 0 0.57431478
Link 2 7 2 0 -0.55847535
Link 3 7 3 0 1.57833969
Link 6 7 6 0 -0.21272697
Link 1 8 7 0 1.06126077
Link 2 8 8 0 1.48509873
Link 4 8 10 0 2.52570280
Link 5 8 11 0 -3.06197765
Link 6 8 12 0 -1.03765298
Link 3 9 15 0 -3.38521503
Link 4 9 16 0 -0.80202770
Link 5 9 17 0 -0.85132309
Link 6 9 18 0 1.55351514
Link 3 12 26 0 -0.56060385
Link 12 8 27 0 0.93318155
Link 2 14 34 0 0.50510324
Link 14 9 35 0 0.15690757
Link 4 15 39 0 -0.38450303
Link 15 7 40 0 -0.43228301
Link 5 17 51 0 -1.30256600
Link 17 7 52 0 -0.53780456
Link 1 25 90 0 -2.02020348
Link 25 9 91 0 -0.81111336
Link 6 17 125 0 -0.90847690
GenomeEnd

