GenomeStart 750
Neuron 1 1 0.00000000 1 0.00000000 0.00000000 0.00000000 0.00000000
Neuron 2 1 0.00000000 1 0.00000000 0.00000000 0.00000000 0.00000000
Neuron 3 1 0.00000000 1 0.00000000 0.00000000 0.00000000 0.00000000
Neuron 4 1 0.00000000 1 0.00000000 0.00000000 0.00000000 0.00000000
Neuron 5 1 0.00000000 1 0.00000000 0.00000000 0.00000000 0.00000000
Neuron 6 2 0.00000000 1 0.00000000 0.00000000 0.00000000 0.00000000
Neuron 7 4 1.00000000 1 3.02500000 0.00000000 0.00000000 0.00000000
Neuron 8 4 1.00000000 1 3.02500000 0.00000000 0.00000000 0.00000000
Neuron 9 4 1.00000000 5 3.02500000 0.00000000 0.00000000 0.00000000
Link 1 7 1 0 0.58424343
Link 2 7 2 0 0.35714283
Link 3 7 3 0 -0.16859011
Link 4 7 4 0 0.24153991
Link 5 7 5 0 2.01252942
Link 6 7 6 0 0.28087594
Link 1 8 7 0 -0.46241278
Link 2 8 8 0 -0.33786098
Link 3 8 9 0 0.19646479
Link 4 8 10 0 -0.88300549
Link 5 8 11 0 -0.23153200
Link 6 8 12 0 -0.08712177
Link 1 9 13 0 0.01076009
Link 2 9 14 0 -0.55130969
Link 3 9 15 0 0.68256916
Link 4 9 16 0 -0.44239626
Link 5 9 17 0 -0.30745150
Link 6 9 18 0 -0.93940501
GenomeEnd

