GenomeStart 10741
Neuron 1 1 0.00000000 1 0.00000000 0.00000000 0.00000000 0.00000000
Neuron 2 1 0.00000000 1 0.00000000 0.00000000 0.00000000 0.00000000
Neuron 3 1 0.00000000 1 0.00000000 0.00000000 0.00000000 0.00000000
Neuron 4 1 0.00000000 1 0.00000000 0.00000000 0.00000000 0.00000000
Neuron 5 1 0.00000000 1 0.00000000 0.00000000 0.00000000 0.00000000
Neuron 6 2 0.00000000 1 0.00000000 0.00000000 0.00000000 0.00000000
Neuron 7 4 1.00000000 1 3.02500000 0.00000000 0.00000000 0.00000000
Neuron 8 4 1.00000000 1 3.02500000 0.00000000 0.00000000 0.00000000
Neuron 9 4 1.00000000 5 3.02500000 0.00000000 0.00000000 0.00000000
Neuron 12 3 0.50000000 4 0.59996514 0.00000000 0.00000000 0.00000000
Neuron 14 3 0.50000000 6 2.62223523 0.00000000 0.00000000 0.00000000
Neuron 15 3 0.50000000 4 5.16609545 0.00000000 0.00000000 0.00000000
Neuron 17 3 0.50000000 4 0.86722526 0.00000000 0.00000000 0.00000000
Neuron 25 3 0.50000000 1 1.86426148 0.00000000 0.00000000 0.00000000
Link 1 7 1 0 -2.78523760
Link 2 7 2 0 1.17053370
Link 3 7 3 0 3.29051720
Link 6 7 6 0 -0.10761622
Link 1 8 7 0 2.52459024
Link 2 8 8 0 -0.08982347
Link 4 8 10 0 0.82306006
Link 5 8 11 0 -3.82932141
Link 6 8 12 0 -0.76583860
Link 3 9 15 0 -1.40617043
Link 4 9 16 0 -0.79189120
Link 5 9 17 0 -1.54239222
Link 6 9 18 0 -0.45074399
Link 3 12 26 0 0.90324434
Link 12 8 27 0 -0.00609987
Link 2 14 34 0 -0.83093345
Link 14 9 35 0 -0.46511255
Link 4 15 39 0 -1.97912602
Link 15 7 40 0 -0.11841672
Link 5 17 51 0 -0.08249479
Link 17 7 52 0 -2.49007596
Link 1 25 90 0 0.00392485
Link 25 9 91 0 -0.55757858
Link 6 17 125 0 2.43162298
GenomeEnd

