GenomeStart 6360
Neuron 1 1 0.00000000 1 0.00000000 0.00000000 0.00000000 0.00000000
Neuron 2 1 0.00000000 1 0.00000000 0.00000000 0.00000000 0.00000000
Neuron 3 1 0.00000000 1 0.00000000 0.00000000 0.00000000 0.00000000
Neuron 4 1 0.00000000 1 0.00000000 0.00000000 0.00000000 0.00000000
Neuron 5 1 0.00000000 1 0.00000000 0.00000000 0.00000000 0.00000000
Neuron 6 2 0.00000000 1 0.00000000 0.00000000 0.00000000 0.00000000
Neuron 7 4 1.00000000 1 3.02500000 0.00000000 0.00000000 0.00000000
Neuron 8 4 1.00000000 1 3.02500000 0.00000000 0.00000000 0.00000000
Neuron 9 4 1.00000000 5 3.02500000 0.00000000 0.00000000 0.00000000
Neuron 12 3 0.50000000 2 0.59996514 0.00000000 0.00000000 0.00000000
Neuron 16 3 0.50000000 2 3.72031895 0.00000000 0.00000000 0.00000000
Neuron 25 3 0.50000000 6 5.76166947 0.00000000 0.00000000 0.00000000
Link 1 7 1 0 -1.22019591
Link 2 7 2 0 -0.55728542
Link 3 7 3 0 -2.23130043
Link 4 7 4 0 3.65623427
Link 5 7 5 0 1.15623716
Link 6 7 6 0 -0.09005937
Link 2 8 8 0 -0.32282225
Link 4 8 10 0 0.75349653
Link 5 8 11 0 0.68785450
Link 6 8 12 0 -0.50333966
Link 2 9 14 0 3.36732905
Link 3 9 15 0 1.89358010
Link 4 9 16 0 -0.48768116
Link 5 9 17 0 0.68906123
Link 6 9 18 0 0.19354916
Link 3 12 26 0 -1.44522101
Link 12 8 27 0 -3.58316955
Link 1 16 45 0 1.35021053
Link 16 8 46 0 -0.08742577
Link 1 25 90 0 1.00000000
Link 25 9 91 0 2.13127022
GenomeEnd

