GenomeStart 6100
Neuron 1 1 0.00000000 1 0.00000000 0.00000000 0.00000000 0.00000000
Neuron 2 1 0.00000000 1 0.00000000 0.00000000 0.00000000 0.00000000
Neuron 3 1 0.00000000 1 0.00000000 0.00000000 0.00000000 0.00000000
Neuron 4 1 0.00000000 1 0.00000000 0.00000000 0.00000000 0.00000000
Neuron 5 1 0.00000000 1 0.00000000 0.00000000 0.00000000 0.00000000
Neuron 6 2 0.00000000 1 0.00000000 0.00000000 0.00000000 0.00000000
Neuron 7 4 1.00000000 1 3.02500000 0.00000000 0.00000000 0.00000000
Neuron 8 4 1.00000000 9 3.02500000 0.00000000 0.00000000 0.00000000
Neuron 9 4 1.00000000 6 3.02500000 0.00000000 0.00000000 0.00000000
Neuron 15 3 0.50000000 11 1.64473542 0.00000000 0.00000000 0.00000000
Link 1 7 1 0 0.69286958
Link 2 7 2 0 -3.89156052
Link 3 7 3 0 -3.87311288
Link 5 7 5 0 -0.53650493
Link 6 7 6 0 1.72709390
Link 1 8 7 0 1.81601824
Link 2 8 8 0 0.15481320
Link 3 8 9 0 -0.33951820
Link 4 8 10 0 -0.49364661
Link 5 8 11 0 0.58694072
Link 6 8 12 0 2.32689029
Link 1 9 13 0 0.20283643
Link 2 9 14 0 0.12925672
Link 3 9 15 0 -0.32518714
Link 4 9 16 0 4.63424687
Link 5 9 17 0 1.08708040
Link 6 9 18 0 -0.68812657
Link 4 15 39 0 1.42564838
Link 15 7 40 0 1.85743175
Link 6 15 72 0 -0.30261737
GenomeEnd

