GenomeStart 10891
Neuron 1 1 0.00000000 1 0.00000000 0.00000000 0.00000000 0.00000000
Neuron 2 1 0.00000000 1 0.00000000 0.00000000 0.00000000 0.00000000
Neuron 3 1 0.00000000 1 0.00000000 0.00000000 0.00000000 0.00000000
Neuron 4 1 0.00000000 1 0.00000000 0.00000000 0.00000000 0.00000000
Neuron 5 1 0.00000000 1 0.00000000 0.00000000 0.00000000 0.00000000
Neuron 6 2 0.00000000 1 0.00000000 0.00000000 0.00000000 0.00000000
Neuron 7 4 1.00000000 1 3.02500000 0.00000000 0.00000000 0.00000000
Neuron 8 4 1.00000000 1 3.02500000 0.00000000 0.00000000 0.00000000
Neuron 9 4 1.00000000 5 3.02500000 0.00000000 0.00000000 0.00000000
Neuron 12 3 0.50000000 4 0.59996514 0.00000000 0.00000000 0.00000000
Neuron 14 3 0.50000000 6 2.62223523 0.00000000 0.00000000 0.00000000
Neuron 15 3 0.50000000 4 5.16609545 0.00000000 0.00000000 0.00000000
Neuron 17 3 0.50000000 4 0.86722526 0.00000000 0.00000000 0.00000000
Neuron 25 3 0.50000000 1 1.86426148 0.00000000 0.00000000 0.00000000
Link 1 7 1 0 -1.94887648
Link 2 7 2 0 -0.06366482
Link 3 7 3 0 0.57255555
Link 6 7 6 0 -0.40256490
Link 1 8 7 0 3.77096140
Link 2 8 8 0 0.70607160
Link 4 8 10 0 0.20762938
Link 5 8 11 0 -3.26610772
Link 6 8 12 0 -0.40896168
Link 3 9 15 0 -2.92562781
Link 4 9 16 0 0.38714874
Link 5 9 17 0 -1.50936098
Link 6 9 18 0 0.03937689
Link 3 12 26 0 1.26634754
Link 12 8 27 0 0.75871547
Link 2 14 34 0 1.73611804
Link 14 9 35 0 0.01740416
Link 4 15 39 0 -0.56923537
Link 15 7 40 0 -0.99831371
Link 5 17 51 0 -0.38086950
Link 17 7 52 0 -2.22094831
Link 1 25 90 0 0.00045580
Link 25 9 91 0 -1.34349738
Link 6 17 125 0 1.97590626
GenomeEnd

