GenomeStart 4097
Neuron 1 1 0.00000000 1 0.00000000 0.00000000 0.00000000 0.00000000
Neuron 2 1 0.00000000 1 0.00000000 0.00000000 0.00000000 0.00000000
Neuron 3 1 0.00000000 1 0.00000000 0.00000000 0.00000000 0.00000000
Neuron 4 1 0.00000000 1 0.00000000 0.00000000 0.00000000 0.00000000
Neuron 5 1 0.00000000 1 0.00000000 0.00000000 0.00000000 0.00000000
Neuron 6 2 0.00000000 1 0.00000000 0.00000000 0.00000000 0.00000000
Neuron 7 4 1.00000000 1 3.02500000 0.00000000 0.00000000 0.00000000
Neuron 8 4 1.00000000 1 3.02500000 0.00000000 0.00000000 0.00000000
Neuron 9 4 1.00000000 8 3.02500000 0.00000000 0.00000000 0.00000000
Neuron 15 3 0.50000000 11 1.64473542 0.00000000 0.00000000 0.00000000
Neuron 17 3 0.50000000 4 1.89986857 0.00000000 0.00000000 0.00000000
Neuron 21 3 0.50000000 4 5.39525004 0.00000000 0.00000000 0.00000000
Link 1 7 1 0 0.99011653
Link 2 7 2 0 0.33569009
Link 3 7 3 0 -1.39145806
Link 6 7 6 0 -0.34573333
Link 1 8 7 0 -0.22822992
Link 2 8 8 0 -0.61728555
Link 3 8 9 0 -0.09018102
Link 5 8 11 0 0.93039158
Link 6 8 12 0 0.60844916
Link 1 9 13 0 -0.29970860
Link 2 9 14 0 0.52617569
Link 3 9 15 0 0.56363340
Link 4 9 16 0 4.18060318
Link 5 9 17 0 4.28335019
Link 6 9 18 0 -0.71681307
Link 4 15 39 0 2.60802036
Link 15 7 40 0 1.58999009
Link 5 17 51 0 1.73579812
Link 17 7 52 0 -1.32666263
Link 4 21 74 0 1.00000000
Link 21 8 75 0 1.97364081
GenomeEnd

