GenomeStart 13118
Neuron 1 1 0.00000000 1 0.00000000 0.00000000 0.00000000 0.00000000
Neuron 2 1 0.00000000 1 0.00000000 0.00000000 0.00000000 0.00000000
Neuron 3 1 0.00000000 1 0.00000000 0.00000000 0.00000000 0.00000000
Neuron 4 1 0.00000000 1 0.00000000 0.00000000 0.00000000 0.00000000
Neuron 5 1 0.00000000 1 0.00000000 0.00000000 0.00000000 0.00000000
Neuron 6 2 0.00000000 1 0.00000000 0.00000000 0.00000000 0.00000000
Neuron 7 4 1.00000000 1 3.02500000 0.00000000 0.00000000 0.00000000
Neuron 8 4 1.00000000 1 3.02500000 0.00000000 0.00000000 0.00000000
Neuron 9 4 1.00000000 5 3.02500000 0.00000000 0.00000000 0.00000000
Neuron 12 3 0.50000000 4 0.59996514 0.00000000 0.00000000 0.00000000
Neuron 14 3 0.50000000 6 2.62223523 0.00000000 0.00000000 0.00000000
Neuron 15 3 0.50000000 4 5.16609545 0.00000000 0.00000000 0.00000000
Neuron 17 3 0.50000000 4 0.86722526 0.00000000 0.00000000 0.00000000
Neuron 25 3 0.50000000 1 1.86426148 0.00000000 0.00000000 0.00000000
Link 1 7 1 0 -1.40470630
Link 2 7 2 0 0.89546714
Link 3 7 3 0 1.52365797
Link 6 7 6 0 -2.77380315
Link 1 8 7 0 2.23053850
Link 2 8 8 0 1.24566644
Link 4 8 10 0 -2.26512859
Link 5 8 11 0 -2.42370697
Link 6 8 12 0 -0.58620863
Link 3 9 15 0 -2.95166133
Link 4 9 16 0 3.14884885
Link 5 9 17 0 2.42529028
Link 6 9 18 0 -0.17131916
Link 3 12 26 0 0.36198087
Link 12 8 27 0 0.42510764
Link 2 14 34 0 1.99769223
Link 14 9 35 0 -1.30246893
Link 4 15 39 0 -0.53617651
Link 15 7 40 0 -1.98684726
Link 5 17 51 0 -0.84707386
Link 17 7 52 0 -1.17246893
Link 1 25 90 0 -1.21933064
Link 25 9 91 0 0.20237934
Link 6 17 125 0 -2.50489027
GenomeEnd

