GenomeStart 3145
Neuron 1 1 0.00000000 1 0.00000000 0.00000000 0.00000000 0.00000000
Neuron 2 1 0.00000000 1 0.00000000 0.00000000 0.00000000 0.00000000
Neuron 3 1 0.00000000 1 0.00000000 0.00000000 0.00000000 0.00000000
Neuron 4 1 0.00000000 1 0.00000000 0.00000000 0.00000000 0.00000000
Neuron 5 1 0.00000000 1 0.00000000 0.00000000 0.00000000 0.00000000
Neuron 6 2 0.00000000 1 0.00000000 0.00000000 0.00000000 0.00000000
Neuron 7 4 1.00000000 1 3.02500000 0.00000000 0.00000000 0.00000000
Neuron 8 4 1.00000000 1 3.02500000 0.00000000 0.00000000 0.00000000
Neuron 9 4 1.00000000 5 3.02500000 0.00000000 0.00000000 0.00000000
Neuron 15 3 0.50000000 11 1.64473542 0.00000000 0.00000000 0.00000000
Neuron 17 3 0.50000000 4 1.89986857 0.00000000 0.00000000 0.00000000
Neuron 20 3 0.50000000 9 4.31954354 0.00000000 0.00000000 0.00000000
Link 1 7 1 0 1.03462182
Link 2 7 2 0 0.89695498
Link 3 7 3 0 -3.45578081
Link 6 7 6 0 0.20135199
Link 1 8 7 0 -0.07459657
Link 2 8 8 0 -0.48992561
Link 3 8 9 0 -0.04270824
Link 4 8 10 0 1.20440916
Link 6 8 12 0 0.57166365
Link 1 9 13 0 -1.78772493
Link 2 9 14 0 1.05733643
Link 3 9 15 0 0.93081861
Link 4 9 16 0 3.27386003
Link 5 9 17 0 -2.24207072
Link 6 9 18 0 0.60796651
Link 4 15 39 0 1.31297771
Link 15 7 40 0 0.81915915
Link 5 17 51 0 0.71379387
Link 17 7 52 0 2.77078507
Link 5 20 64 0 1.64942972
Link 20 8 65 0 2.52142973
Link 3 17 67 0 3.00024230
GenomeEnd

