GenomeStart 7548
Neuron 1 1 0.00000000 1 0.00000000 0.00000000 0.00000000 0.00000000
Neuron 2 1 0.00000000 1 0.00000000 0.00000000 0.00000000 0.00000000
Neuron 3 1 0.00000000 1 0.00000000 0.00000000 0.00000000 0.00000000
Neuron 4 1 0.00000000 1 0.00000000 0.00000000 0.00000000 0.00000000
Neuron 5 1 0.00000000 1 0.00000000 0.00000000 0.00000000 0.00000000
Neuron 6 2 0.00000000 1 0.00000000 0.00000000 0.00000000 0.00000000
Neuron 7 4 1.00000000 1 3.02500000 0.00000000 0.00000000 0.00000000
Neuron 8 4 1.00000000 1 3.02500000 0.00000000 0.00000000 0.00000000
Neuron 9 4 1.00000000 5 3.02500000 0.00000000 0.00000000 0.00000000
Neuron 12 3 0.50000000 4 0.59996514 0.00000000 0.00000000 0.00000000
Neuron 14 3 0.50000000 6 2.62223523 0.00000000 0.00000000 0.00000000
Neuron 15 3 0.50000000 4 5.16609545 0.00000000 0.00000000 0.00000000
Neuron 17 3 0.50000000 4 0.86722526 0.00000000 0.00000000 0.00000000
Neuron 25 3 0.50000000 1 1.86426148 0.00000000 0.00000000 0.00000000
Link 1 7 1 0 -1.30272045
Link 2 7 2 0 -1.91058481
Link 3 7 3 0 2.51339076
Link 6 7 6 0 0.35575467
Link 1 8 7 0 -2.72284519
Link 2 8 8 0 1.99370783
Link 4 8 10 0 0.00534239
Link 5 8 11 0 -3.12295827
Link 6 8 12 0 -1.43922557
Link 3 9 15 0 -0.26923035
Link 4 9 16 0 -2.27744475
Link 5 9 17 0 0.69089858
Link 6 9 18 0 1.97523079
Link 3 12 26 0 1.86579750
Link 12 8 27 0 -0.70104232
Link 2 14 34 0 0.09516938
Link 14 9 35 0 2.67362930
Link 4 15 39 0 0.21841435
Link 15 7 40 0 -2.07441225
Link 5 17 51 0 -1.57117194
Link 17 7 52 0 3.07501080
Link 1 25 90 0 1.00000000
Link 25 9 91 0 -0.62869204
GenomeEnd

