GenomeStart 11788
Neuron 1 1 0.00000000 1 0.00000000 0.00000000 0.00000000 0.00000000
Neuron 2 1 0.00000000 1 0.00000000 0.00000000 0.00000000 0.00000000
Neuron 3 1 0.00000000 1 0.00000000 0.00000000 0.00000000 0.00000000
Neuron 4 1 0.00000000 1 0.00000000 0.00000000 0.00000000 0.00000000
Neuron 5 1 0.00000000 1 0.00000000 0.00000000 0.00000000 0.00000000
Neuron 6 2 0.00000000 1 0.00000000 0.00000000 0.00000000 0.00000000
Neuron 7 4 1.00000000 1 3.02500000 0.00000000 0.00000000 0.00000000
Neuron 8 4 1.00000000 1 3.02500000 0.00000000 0.00000000 0.00000000
Neuron 9 4 1.00000000 5 3.02500000 0.00000000 0.00000000 0.00000000
Neuron 12 3 0.50000000 4 0.59996514 0.00000000 0.00000000 0.00000000
Neuron 14 3 0.50000000 6 2.62223523 0.00000000 0.00000000 0.00000000
Neuron 15 3 0.50000000 4 5.16609545 0.00000000 0.00000000 0.00000000
Neuron 17 3 0.50000000 4 0.86722526 0.00000000 0.00000000 0.00000000
Neuron 25 3 0.50000000 1 1.86426148 0.00000000 0.00000000 0.00000000
Link 1 7 1 0 -0.96912110
Link 2 7 2 0 0.24920878
Link 3 7 3 0 0.90881461
Link 6 7 6 0 -0.76500956
Link 1 8 7 0 1.85621533
Link 2 8 8 0 1.30832014
Link 4 8 10 0 0.60089409
Link 5 8 11 0 -3.25791923
Link 6 8 12 0 -0.53353123
Link 3 9 15 0 -0.18383089
Link 4 9 16 0 -0.28124874
Link 5 9 17 0 -0.19966578
Link 6 9 18 0 1.00005142
Link 3 12 26 0 2.75635650
Link 12 8 27 0 0.01391383
Link 2 14 34 0 0.90424144
Link 14 9 35 0 -2.08718288
Link 4 15 39 0 -0.22020014
Link 15 7 40 0 -1.77552809
Link 5 17 51 0 0.48890219
Link 17 7 52 0 -0.71354154
Link 1 25 90 0 -1.95664753
Link 25 9 91 0 2.40327837
Link 6 17 125 0 -2.25261978
GenomeEnd

