GenomeStart 13266
Neuron 1 1 0.00000000 1 0.00000000 0.00000000 0.00000000 0.00000000
Neuron 2 1 0.00000000 1 0.00000000 0.00000000 0.00000000 0.00000000
Neuron 3 1 0.00000000 1 0.00000000 0.00000000 0.00000000 0.00000000
Neuron 4 1 0.00000000 1 0.00000000 0.00000000 0.00000000 0.00000000
Neuron 5 1 0.00000000 1 0.00000000 0.00000000 0.00000000 0.00000000
Neuron 6 2 0.00000000 1 0.00000000 0.00000000 0.00000000 0.00000000
Neuron 7 4 1.00000000 1 3.02500000 0.00000000 0.00000000 0.00000000
Neuron 8 4 1.00000000 1 3.02500000 0.00000000 0.00000000 0.00000000
Neuron 9 4 1.00000000 5 3.02500000 0.00000000 0.00000000 0.00000000
Neuron 12 3 0.50000000 4 0.59996514 0.00000000 0.00000000 0.00000000
Neuron 14 3 0.50000000 6 2.62223523 0.00000000 0.00000000 0.00000000
Neuron 15 3 0.50000000 4 5.16609545 0.00000000 0.00000000 0.00000000
Neuron 17 3 0.50000000 4 0.86722526 0.00000000 0.00000000 0.00000000
Neuron 25 3 0.50000000 1 1.86426148 0.00000000 0.00000000 0.00000000
Link 1 7 1 0 -1.38211300
Link 2 7 2 0 -0.36667158
Link 3 7 3 0 0.82328731
Link 6 7 6 0 0.50928023
Link 1 8 7 0 1.92350269
Link 2 8 8 0 1.95630805
Link 4 8 10 0 1.41975687
Link 5 8 11 0 -2.66390765
Link 6 8 12 0 -1.01784976
Link 3 9 15 0 -0.82017822
Link 4 9 16 0 -1.81017542
Link 5 9 17 0 -0.51969685
Link 6 9 18 0 0.40702913
Link 3 12 26 0 0.75675118
Link 12 8 27 0 0.87899115
Link 2 14 34 0 1.77527268
Link 14 9 35 0 -1.02475118
Link 4 15 39 0 1.04580440
Link 15 7 40 0 -1.60105216
Link 5 17 51 0 1.58930569
Link 17 7 52 0 -1.03865920
Link 1 25 90 0 -0.93139668
Link 25 9 91 0 -0.18184341
Link 6 17 125 0 1.77684333
GenomeEnd

