GenomeStart 3917
Neuron 1 1 0.00000000 1 0.00000000 0.00000000 0.00000000 0.00000000
Neuron 2 1 0.00000000 1 0.00000000 0.00000000 0.00000000 0.00000000
Neuron 3 1 0.00000000 1 0.00000000 0.00000000 0.00000000 0.00000000
Neuron 4 1 0.00000000 1 0.00000000 0.00000000 0.00000000 0.00000000
Neuron 5 1 0.00000000 1 0.00000000 0.00000000 0.00000000 0.00000000
Neuron 6 2 0.00000000 1 0.00000000 0.00000000 0.00000000 0.00000000
Neuron 7 4 1.00000000 1 3.02500000 0.00000000 0.00000000 0.00000000
Neuron 8 4 1.00000000 1 3.02500000 0.00000000 0.00000000 0.00000000
Neuron 9 4 1.00000000 5 3.02500000 0.00000000 0.00000000 0.00000000
Neuron 12 3 0.50000000 2 0.59996514 0.00000000 0.00000000 0.00000000
Neuron 14 3 0.50000000 6 2.62223523 0.00000000 0.00000000 0.00000000
Neuron 15 3 0.50000000 4 5.16609545 0.00000000 0.00000000 0.00000000
Neuron 17 3 0.50000000 4 0.86722526 0.00000000 0.00000000 0.00000000
Link 1 7 1 0 -3.30336752
Link 2 7 2 0 -0.76753641
Link 3 7 3 0 3.80636689
Link 6 7 6 0 -0.77838622
Link 1 8 7 0 0.82690010
Link 2 8 8 0 1.10305854
Link 4 8 10 0 0.94656378
Link 5 8 11 0 -0.48089824
Link 6 8 12 0 -0.86356393
Link 1 9 13 0 -1.85117747
Link 3 9 15 0 -0.03539663
Link 4 9 16 0 3.56515683
Link 5 9 17 0 3.42354451
Link 6 9 18 0 0.75939944
Link 3 12 26 0 2.08052638
Link 12 8 27 0 1.38052271
Link 2 14 34 0 2.26518345
Link 14 9 35 0 3.84726180
Link 4 15 39 0 1.38956229
Link 15 7 40 0 1.26228724
Link 5 17 51 0 1.61805782
Link 17 7 52 0 0.13292416
GenomeEnd

