GenomeStart 9316
Neuron 1 1 0.00000000 1 0.00000000 0.00000000 0.00000000 0.00000000
Neuron 2 1 0.00000000 1 0.00000000 0.00000000 0.00000000 0.00000000
Neuron 3 1 0.00000000 1 0.00000000 0.00000000 0.00000000 0.00000000
Neuron 4 1 0.00000000 1 0.00000000 0.00000000 0.00000000 0.00000000
Neuron 5 1 0.00000000 1 0.00000000 0.00000000 0.00000000 0.00000000
Neuron 6 2 0.00000000 1 0.00000000 0.00000000 0.00000000 0.00000000
Neuron 7 4 1.00000000 1 3.02500000 0.00000000 0.00000000 0.00000000
Neuron 8 4 1.00000000 1 3.02500000 0.00000000 0.00000000 0.00000000
Neuron 9 4 1.00000000 5 3.02500000 0.00000000 0.00000000 0.00000000
Neuron 12 3 0.50000000 4 0.59996514 0.00000000 0.00000000 0.00000000
Neuron 13 3 0.50000000 1 3.58972395 0.00000000 0.00000000 0.00000000
Neuron 14 3 0.50000000 2 2.62223523 0.00000000 0.00000000 0.00000000
Neuron 15 3 0.50000000 4 5.16609545 0.00000000 0.00000000 0.00000000
Neuron 17 3 0.50000000 4 0.86722526 0.00000000 0.00000000 0.00000000
Neuron 32 3 0.25000000 9 2.53624077 0.00000000 0.00000000 0.00000000
Link 1 7 1 0 -2.04278809
Link 2 7 2 0 0.02688889
Link 3 7 3 0 0.03412324
Link 6 7 6 0 0.30959672
Link 1 8 7 0 3.83722081
Link 4 8 10 0 1.16348937
Link 5 8 11 0 -1.76102600
Link 6 8 12 0 0.09625401
Link 1 9 13 0 -2.15587888
Link 3 9 15 0 -3.25319616
Link 4 9 16 0 -0.29380096
Link 5 9 17 0 -2.67850718
Link 6 9 18 0 -2.34197958
Link 3 12 26 0 2.01741241
Link 12 8 27 0 0.40528147
Link 2 13 29 0 1.54834526
Link 13 8 30 0 2.48038670
Link 2 14 34 0 1.68731022
Link 14 9 35 0 -1.59508417
Link 4 15 39 0 -2.38697298
Link 15 7 40 0 -2.01946283
Link 17 7 52 0 0.24587153
Link 5 32 115 0 1.18719569
Link 32 17 116 0 -1.19294925
GenomeEnd

