GenomeStart 12674
Neuron 1 1 0.00000000 1 0.00000000 0.00000000 0.00000000 0.00000000
Neuron 2 1 0.00000000 1 0.00000000 0.00000000 0.00000000 0.00000000
Neuron 3 1 0.00000000 1 0.00000000 0.00000000 0.00000000 0.00000000
Neuron 4 1 0.00000000 1 0.00000000 0.00000000 0.00000000 0.00000000
Neuron 5 1 0.00000000 1 0.00000000 0.00000000 0.00000000 0.00000000
Neuron 6 2 0.00000000 1 0.00000000 0.00000000 0.00000000 0.00000000
Neuron 7 4 1.00000000 1 3.02500000 0.00000000 0.00000000 0.00000000
Neuron 8 4 1.00000000 1 3.02500000 0.00000000 0.00000000 0.00000000
Neuron 9 4 1.00000000 5 3.02500000 0.00000000 0.00000000 0.00000000
Neuron 12 3 0.50000000 4 0.59996514 0.00000000 0.00000000 0.00000000
Neuron 14 3 0.50000000 6 2.62223523 0.00000000 0.00000000 0.00000000
Neuron 15 3 0.50000000 4 5.16609545 0.00000000 0.00000000 0.00000000
Neuron 17 3 0.50000000 4 0.86722526 0.00000000 0.00000000 0.00000000
Neuron 25 3 0.50000000 1 1.86426148 0.00000000 0.00000000 0.00000000
Link 1 7 1 0 -1.47992002
Link 2 7 2 0 -0.09384676
Link 3 7 3 0 0.33054628
Link 6 7 6 0 -0.92364070
Link 1 8 7 0 -2.27146954
Link 2 8 8 0 1.29673902
Link 4 8 10 0 1.07424400
Link 5 8 11 0 -4.66077650
Link 6 8 12 0 -1.38490863
Link 3 9 15 0 0.08984978
Link 4 9 16 0 -0.67744383
Link 5 9 17 0 0.87888880
Link 6 9 18 0 0.26245878
Link 3 12 26 0 1.30888613
Link 12 8 27 0 0.25959081
Link 2 14 34 0 0.90424144
Link 14 9 35 0 -0.91151007
Link 4 15 39 0 -1.26875505
Link 15 7 40 0 -1.36148013
Link 5 17 51 0 1.58930569
Link 17 7 52 0 -1.55448448
Link 1 25 90 0 -0.74464220
Link 25 9 91 0 -2.31772970
Link 6 17 125 0 -0.08679779
GenomeEnd

