GenomeStart 2388
Neuron 1 1 0.00000000 1 0.00000000 0.00000000 0.00000000 0.00000000
Neuron 2 1 0.00000000 1 0.00000000 0.00000000 0.00000000 0.00000000
Neuron 3 1 0.00000000 1 0.00000000 0.00000000 0.00000000 0.00000000
Neuron 4 1 0.00000000 1 0.00000000 0.00000000 0.00000000 0.00000000
Neuron 5 1 0.00000000 1 0.00000000 0.00000000 0.00000000 0.00000000
Neuron 6 2 0.00000000 1 0.00000000 0.00000000 0.00000000 0.00000000
Neuron 7 4 1.00000000 1 3.02500000 0.00000000 0.00000000 0.00000000
Neuron 8 4 1.00000000 1 3.02500000 0.00000000 0.00000000 0.00000000
Neuron 9 4 1.00000000 5 3.02500000 0.00000000 0.00000000 0.00000000
Neuron 12 3 0.50000000 2 0.59996514 0.00000000 0.00000000 0.00000000
Neuron 14 3 0.50000000 6 2.62223523 0.00000000 0.00000000 0.00000000
Neuron 15 3 0.50000000 4 5.16609545 0.00000000 0.00000000 0.00000000
Neuron 17 3 0.50000000 4 0.86722526 0.00000000 0.00000000 0.00000000
Link 1 7 1 0 -2.38092666
Link 2 7 2 0 -1.47210868
Link 3 7 3 0 -1.17503302
Link 6 7 6 0 0.28792504
Link 1 8 7 0 1.49081796
Link 2 8 8 0 0.89494751
Link 4 8 10 0 -3.55513661
Link 5 8 11 0 -1.07127373
Link 6 8 12 0 -2.05426750
Link 1 9 13 0 -0.91151269
Link 3 9 15 0 0.35546756
Link 4 9 16 0 1.12682684
Link 5 9 17 0 -0.22470356
Link 6 9 18 0 0.86003117
Link 3 12 26 0 2.24267375
Link 12 8 27 0 1.59500153
Link 2 14 34 0 1.42154743
Link 14 9 35 0 2.37255390
Link 4 15 39 0 1.00000000
Link 15 7 40 0 0.15866873
Link 5 17 51 0 1.00000000
Link 17 7 52 0 -1.46522938
GenomeEnd

