GenomeStart 13414
Neuron 1 1 0.00000000 1 0.00000000 0.00000000 0.00000000 0.00000000
Neuron 2 1 0.00000000 1 0.00000000 0.00000000 0.00000000 0.00000000
Neuron 3 1 0.00000000 1 0.00000000 0.00000000 0.00000000 0.00000000
Neuron 4 1 0.00000000 1 0.00000000 0.00000000 0.00000000 0.00000000
Neuron 5 1 0.00000000 1 0.00000000 0.00000000 0.00000000 0.00000000
Neuron 6 2 0.00000000 1 0.00000000 0.00000000 0.00000000 0.00000000
Neuron 7 4 1.00000000 1 3.02500000 0.00000000 0.00000000 0.00000000
Neuron 8 4 1.00000000 1 3.02500000 0.00000000 0.00000000 0.00000000
Neuron 9 4 1.00000000 5 3.02500000 0.00000000 0.00000000 0.00000000
Neuron 12 3 0.50000000 4 0.59996514 0.00000000 0.00000000 0.00000000
Neuron 14 3 0.50000000 6 2.62223523 0.00000000 0.00000000 0.00000000
Neuron 15 3 0.50000000 4 5.16609545 0.00000000 0.00000000 0.00000000
Neuron 17 3 0.50000000 4 0.86722526 0.00000000 0.00000000 0.00000000
Neuron 25 3 0.50000000 1 1.86426148 0.00000000 0.00000000 0.00000000
Link 1 7 1 0 -1.53946455
Link 2 7 2 0 -0.15486469
Link 3 7 3 0 0.14669293
Link 6 7 6 0 -0.78998936
Link 1 8 7 0 -0.63287969
Link 2 8 8 0 0.69019380
Link 4 8 10 0 1.34417188
Link 5 8 11 0 -3.39586777
Link 6 8 12 0 -0.56754319
Link 3 9 15 0 -1.00112041
Link 4 9 16 0 0.20107034
Link 5 9 17 0 0.27125306
Link 6 9 18 0 0.22094194
Link 3 12 26 0 0.47876902
Link 12 8 27 0 1.56147454
Link 2 14 34 0 0.66526652
Link 14 9 35 0 -0.87165980
Link 4 15 39 0 0.68372911
Link 15 7 40 0 -1.35759413
Link 5 17 51 0 0.55676845
Link 17 7 52 0 -0.70351900
Link 2 12 66 0 1.75087291
Link 1 25 90 0 -1.00497726
Link 25 9 91 0 1.09775466
Link 6 17 125 0 1.50759474
GenomeEnd

