GenomeStart 9260
Neuron 1 1 0.00000000 1 0.00000000 0.00000000 0.00000000 0.00000000
Neuron 2 1 0.00000000 1 0.00000000 0.00000000 0.00000000 0.00000000
Neuron 3 1 0.00000000 1 0.00000000 0.00000000 0.00000000 0.00000000
Neuron 4 1 0.00000000 1 0.00000000 0.00000000 0.00000000 0.00000000
Neuron 5 1 0.00000000 1 0.00000000 0.00000000 0.00000000 0.00000000
Neuron 6 2 0.00000000 1 0.00000000 0.00000000 0.00000000 0.00000000
Neuron 7 4 1.00000000 1 3.02500000 0.00000000 0.00000000 0.00000000
Neuron 8 4 1.00000000 1 3.02500000 0.00000000 0.00000000 0.00000000
Neuron 9 4 1.00000000 5 3.02500000 0.00000000 0.00000000 0.00000000
Neuron 12 3 0.50000000 4 0.59996514 0.00000000 0.00000000 0.00000000
Neuron 13 3 0.50000000 1 3.58972395 0.00000000 0.00000000 0.00000000
Neuron 14 3 0.50000000 6 2.62223523 0.00000000 0.00000000 0.00000000
Neuron 15 3 0.50000000 4 5.16609545 0.00000000 0.00000000 0.00000000
Neuron 16 3 0.50000000 9 0.62535280 0.00000000 0.00000000 0.00000000
Neuron 17 3 0.50000000 4 0.86722526 0.00000000 0.00000000 0.00000000
Neuron 24 3 0.50000000 4 5.95627656 0.00000000 0.00000000 0.00000000
Link 2 7 2 0 0.42467832
Link 3 7 3 0 0.14847169
Link 6 7 6 0 -0.02372211
Link 4 8 10 0 0.82865940
Link 5 8 11 0 -2.96891758
Link 6 8 12 0 -0.14967462
Link 1 9 13 0 -2.01174449
Link 3 9 15 0 -2.62250053
Link 4 9 16 0 -0.02912704
Link 5 9 17 0 -1.96533863
Link 6 9 18 0 -2.75337971
Link 3 12 26 0 2.70482609
Link 12 8 27 0 -0.48024079
Link 2 13 29 0 1.00000000
Link 13 8 30 0 3.06952167
Link 2 14 34 0 1.43306608
Link 14 9 35 0 2.87545628
Link 4 15 39 0 -1.76811679
Link 15 7 40 0 -0.87962407
Link 1 16 45 0 1.00000000
Link 16 8 46 0 3.09174153
Link 5 17 51 0 0.83364847
Link 17 7 52 0 -1.28539461
Link 1 24 84 0 1.00000000
Link 24 7 85 0 -2.76097922
Link 4 14 124 0 0.58723166
GenomeEnd

