GenomeStart 12227
Neuron 1 1 0.00000000 1 0.00000000 0.00000000 0.00000000 0.00000000
Neuron 2 1 0.00000000 1 0.00000000 0.00000000 0.00000000 0.00000000
Neuron 3 1 0.00000000 1 0.00000000 0.00000000 0.00000000 0.00000000
Neuron 4 1 0.00000000 1 0.00000000 0.00000000 0.00000000 0.00000000
Neuron 5 1 0.00000000 1 0.00000000 0.00000000 0.00000000 0.00000000
Neuron 6 2 0.00000000 1 0.00000000 0.00000000 0.00000000 0.00000000
Neuron 7 4 1.00000000 1 3.02500000 0.00000000 0.00000000 0.00000000
Neuron 8 4 1.00000000 1 3.02500000 0.00000000 0.00000000 0.00000000
Neuron 9 4 1.00000000 5 3.02500000 0.00000000 0.00000000 0.00000000
Neuron 12 3 0.50000000 4 0.59996514 0.00000000 0.00000000 0.00000000
Neuron 14 3 0.50000000 6 2.62223523 0.00000000 0.00000000 0.00000000
Neuron 15 3 0.50000000 4 5.16609545 0.00000000 0.00000000 0.00000000
Neuron 17 3 0.50000000 4 0.86722526 0.00000000 0.00000000 0.00000000
Neuron 25 3 0.50000000 1 1.86426148 0.00000000 0.00000000 0.00000000
Link 1 7 1 0 -1.13046218
Link 2 7 2 0 2.17527819
Link 3 7 3 0 1.40290180
Link 6 7 6 0 -1.10701719
Link 1 8 7 0 1.76946316
Link 2 8 8 0 2.17985709
Link 4 8 10 0 0.86949023
Link 5 8 11 0 -3.09144111
Link 6 8 12 0 -0.52150589
Link 3 9 15 0 -2.78352769
Link 4 9 16 0 -0.33936040
Link 5 9 17 0 1.78003442
Link 6 9 18 0 3.18050000
Link 3 12 26 0 0.44776497
Link 12 8 27 0 0.09827803
Link 2 14 34 0 0.61542414
Link 14 9 35 0 -1.70156347
Link 4 15 39 0 0.28892867
Link 15 7 40 0 0.49697014
Link 5 17 51 0 -1.18485181
Link 17 7 52 0 -1.07173704
Link 1 25 90 0 -0.97095391
Link 25 9 91 0 -2.35850531
Link 6 17 125 0 4.46462435
GenomeEnd

