GenomeStart 12970
Neuron 1 1 0.00000000 1 0.00000000 0.00000000 0.00000000 0.00000000
Neuron 2 1 0.00000000 1 0.00000000 0.00000000 0.00000000 0.00000000
Neuron 3 1 0.00000000 1 0.00000000 0.00000000 0.00000000 0.00000000
Neuron 4 1 0.00000000 1 0.00000000 0.00000000 0.00000000 0.00000000
Neuron 5 1 0.00000000 1 0.00000000 0.00000000 0.00000000 0.00000000
Neuron 6 2 0.00000000 1 0.00000000 0.00000000 0.00000000 0.00000000
Neuron 7 4 1.00000000 1 3.02500000 0.00000000 0.00000000 0.00000000
Neuron 8 4 1.00000000 1 3.02500000 0.00000000 0.00000000 0.00000000
Neuron 9 4 1.00000000 5 3.02500000 0.00000000 0.00000000 0.00000000
Neuron 12 3 0.50000000 4 0.59996514 0.00000000 0.00000000 0.00000000
Neuron 14 3 0.50000000 6 2.62223523 0.00000000 0.00000000 0.00000000
Neuron 15 3 0.50000000 4 5.16609545 0.00000000 0.00000000 0.00000000
Neuron 17 3 0.50000000 4 0.86722526 0.00000000 0.00000000 0.00000000
Neuron 25 3 0.50000000 1 1.86426148 0.00000000 0.00000000 0.00000000
Link 1 7 1 0 -1.97186880
Link 2 7 2 0 -0.11355734
Link 3 7 3 0 -0.11140287
Link 6 7 6 0 -0.20509277
Link 1 8 7 0 2.31472343
Link 2 8 8 0 0.53310553
Link 4 8 10 0 1.05333435
Link 5 8 11 0 -4.54756573
Link 6 8 12 0 -0.21999869
Link 3 9 15 0 -4.57545400
Link 4 9 16 0 -1.87209694
Link 5 9 17 0 -0.77497956
Link 6 9 18 0 0.61646087
Link 3 12 26 0 0.61242286
Link 12 8 27 0 1.30328378
Link 2 14 34 0 1.06882012
Link 14 9 35 0 -1.01053004
Link 4 15 39 0 -0.52567472
Link 15 7 40 0 -0.86185219
Link 5 17 51 0 0.86600674
Link 17 7 52 0 -1.78590252
Link 1 25 90 0 -1.17923688
Link 25 9 91 0 -2.89413445
Link 6 17 125 0 -2.44559537
GenomeEnd

