GenomeStart 11493
Neuron 1 1 0.00000000 1 0.00000000 0.00000000 0.00000000 0.00000000
Neuron 2 1 0.00000000 1 0.00000000 0.00000000 0.00000000 0.00000000
Neuron 3 1 0.00000000 1 0.00000000 0.00000000 0.00000000 0.00000000
Neuron 4 1 0.00000000 1 0.00000000 0.00000000 0.00000000 0.00000000
Neuron 5 1 0.00000000 1 0.00000000 0.00000000 0.00000000 0.00000000
Neuron 6 2 0.00000000 1 0.00000000 0.00000000 0.00000000 0.00000000
Neuron 7 4 1.00000000 1 3.02500000 0.00000000 0.00000000 0.00000000
Neuron 8 4 1.00000000 1 3.02500000 0.00000000 0.00000000 0.00000000
Neuron 9 4 1.00000000 5 3.02500000 0.00000000 0.00000000 0.00000000
Neuron 12 3 0.50000000 4 0.59996514 0.00000000 0.00000000 0.00000000
Neuron 14 3 0.50000000 6 2.62223523 0.00000000 0.00000000 0.00000000
Neuron 15 3 0.50000000 4 5.16609545 0.00000000 0.00000000 0.00000000
Neuron 17 3 0.50000000 4 0.86722526 0.00000000 0.00000000 0.00000000
Neuron 25 3 0.50000000 1 1.86426148 0.00000000 0.00000000 0.00000000
Link 1 7 1 0 -0.46429339
Link 2 7 2 0 0.12676501
Link 3 7 3 0 0.87457593
Link 6 7 6 0 -0.60070045
Link 1 8 7 0 2.97447799
Link 2 8 8 0 0.08711161
Link 4 8 10 0 0.99344604
Link 5 8 11 0 -3.55431319
Link 6 8 12 0 6.08375483
Link 3 9 15 0 -0.94596871
Link 4 9 16 0 0.64438236
Link 5 9 17 0 -0.59040189
Link 6 9 18 0 0.07085641
Link 3 12 26 0 0.32517332
Link 12 8 27 0 1.55349518
Link 2 14 34 0 1.51371475
Link 14 9 35 0 -2.06487290
Link 4 15 39 0 -1.43358051
Link 15 7 40 0 1.26129205
Link 5 17 51 0 -0.63743150
Link 17 7 52 0 -0.99921796
Link 1 25 90 0 -1.13406735
Link 25 9 91 0 -1.86270115
Link 6 17 125 0 -0.22429965
GenomeEnd

