GenomeStart 7229
Neuron 1 1 0.00000000 1 0.00000000 0.00000000 0.00000000 0.00000000
Neuron 2 1 0.00000000 1 0.00000000 0.00000000 0.00000000 0.00000000
Neuron 3 1 0.00000000 1 0.00000000 0.00000000 0.00000000 0.00000000
Neuron 4 1 0.00000000 1 0.00000000 0.00000000 0.00000000 0.00000000
Neuron 5 1 0.00000000 1 0.00000000 0.00000000 0.00000000 0.00000000
Neuron 6 2 0.00000000 1 0.00000000 0.00000000 0.00000000 0.00000000
Neuron 7 4 1.00000000 1 3.02500000 0.00000000 0.00000000 0.00000000
Neuron 8 4 1.00000000 1 3.02500000 0.00000000 0.00000000 0.00000000
Neuron 9 4 1.00000000 5 3.02500000 0.00000000 0.00000000 0.00000000
Neuron 12 3 0.50000000 2 0.59996514 0.00000000 0.00000000 0.00000000
Neuron 14 3 0.50000000 8 2.73611657 0.00000000 0.00000000 0.00000000
Neuron 16 3 0.50000000 2 3.72031895 0.00000000 0.00000000 0.00000000
Link 1 7 1 0 0.33885541
Link 2 7 2 0 1.45722807
Link 3 7 3 0 2.04235516
Link 4 7 4 0 3.32760121
Link 5 7 5 0 1.83993691
Link 6 7 6 0 0.59529192
Link 2 8 8 0 -0.41145137
Link 4 8 10 0 -0.58197893
Link 5 8 11 0 0.04265301
Link 6 8 12 0 0.11370472
Link 1 9 13 0 2.04008894
Link 3 9 15 0 -0.13954040
Link 4 9 16 0 0.03652429
Link 5 9 17 0 0.08499420
Link 6 9 18 0 -0.59165205
Link 3 12 26 0 -0.13382033
Link 12 8 27 0 -3.12411786
Link 2 14 34 0 1.00000000
Link 14 9 35 0 2.58342475
Link 1 16 45 0 -0.08513735
Link 16 8 46 0 1.26100118
GenomeEnd

