GenomeStart 11041
Neuron 1 1 0.00000000 1 0.00000000 0.00000000 0.00000000 0.00000000
Neuron 2 1 0.00000000 1 0.00000000 0.00000000 0.00000000 0.00000000
Neuron 3 1 0.00000000 1 0.00000000 0.00000000 0.00000000 0.00000000
Neuron 4 1 0.00000000 1 0.00000000 0.00000000 0.00000000 0.00000000
Neuron 5 1 0.00000000 1 0.00000000 0.00000000 0.00000000 0.00000000
Neuron 6 2 0.00000000 1 0.00000000 0.00000000 0.00000000 0.00000000
Neuron 7 4 1.00000000 1 3.02500000 0.00000000 0.00000000 0.00000000
Neuron 8 4 1.00000000 1 3.02500000 0.00000000 0.00000000 0.00000000
Neuron 9 4 1.00000000 5 3.02500000 0.00000000 0.00000000 0.00000000
Neuron 12 3 0.50000000 4 0.59996514 0.00000000 0.00000000 0.00000000
Neuron 14 3 0.50000000 6 2.62223523 0.00000000 0.00000000 0.00000000
Neuron 15 3 0.50000000 4 5.16609545 0.00000000 0.00000000 0.00000000
Neuron 17 3 0.50000000 4 0.86722526 0.00000000 0.00000000 0.00000000
Neuron 25 3 0.50000000 1 1.86426148 0.00000000 0.00000000 0.00000000
Link 1 7 1 0 -1.59533314
Link 2 7 2 0 3.96248257
Link 3 7 3 0 0.64041493
Link 6 7 6 0 0.87436557
Link 1 8 7 0 3.46617934
Link 2 8 8 0 0.45214608
Link 4 8 10 0 -1.21599221
Link 5 8 11 0 -3.50324907
Link 6 8 12 0 0.27609767
Link 3 9 15 0 -2.20130518
Link 4 9 16 0 0.97671017
Link 5 9 17 0 -1.41609489
Link 6 9 18 0 0.72438051
Link 3 12 26 0 0.09881551
Link 12 8 27 0 0.66908921
Link 2 14 34 0 2.00981254
Link 14 9 35 0 -0.86062184
Link 4 15 39 0 1.51514588
Link 15 7 40 0 -1.24192363
Link 5 17 51 0 1.24315831
Link 17 7 52 0 -1.01162238
Link 1 25 90 0 -0.93761019
Link 25 9 91 0 0.44049133
Link 6 17 125 0 3.89391693
GenomeEnd

