GenomeStart 11931
Neuron 1 1 0.00000000 1 0.00000000 0.00000000 0.00000000 0.00000000
Neuron 2 1 0.00000000 1 0.00000000 0.00000000 0.00000000 0.00000000
Neuron 3 1 0.00000000 1 0.00000000 0.00000000 0.00000000 0.00000000
Neuron 4 1 0.00000000 1 0.00000000 0.00000000 0.00000000 0.00000000
Neuron 5 1 0.00000000 1 0.00000000 0.00000000 0.00000000 0.00000000
Neuron 6 2 0.00000000 1 0.00000000 0.00000000 0.00000000 0.00000000
Neuron 7 4 1.00000000 1 3.02500000 0.00000000 0.00000000 0.00000000
Neuron 8 4 1.00000000 1 3.02500000 0.00000000 0.00000000 0.00000000
Neuron 9 4 1.00000000 5 3.02500000 0.00000000 0.00000000 0.00000000
Neuron 12 3 0.50000000 4 0.59996514 0.00000000 0.00000000 0.00000000
Neuron 14 3 0.50000000 6 2.62223523 0.00000000 0.00000000 0.00000000
Neuron 15 3 0.50000000 4 5.16609545 0.00000000 0.00000000 0.00000000
Neuron 17 3 0.50000000 4 0.86722526 0.00000000 0.00000000 0.00000000
Neuron 25 3 0.50000000 1 1.86426148 0.00000000 0.00000000 0.00000000
Link 1 7 1 0 -0.46429339
Link 2 7 2 0 0.14415756
Link 3 7 3 0 2.26131812
Link 6 7 6 0 -1.26208929
Link 1 8 7 0 -2.28385283
Link 2 8 8 0 0.34068310
Link 4 8 10 0 1.12750327
Link 5 8 11 0 -3.67248503
Link 6 8 12 0 -0.51065045
Link 3 9 15 0 -0.34781814
Link 4 9 16 0 -2.28804587
Link 5 9 17 0 2.68792416
Link 6 9 18 0 0.32268696
Link 3 12 26 0 0.59141415
Link 12 8 27 0 1.73179819
Link 2 14 34 0 0.33818278
Link 14 9 35 0 -1.99516527
Link 4 15 39 0 -2.02596026
Link 15 7 40 0 -1.42353999
Link 5 17 51 0 3.12733998
Link 17 7 52 0 0.26077802
Link 1 25 90 0 0.43473731
Link 25 9 91 0 -1.93647204
Link 6 17 125 0 0.64828241
GenomeEnd

