GenomeStart 5877
Neuron 1 1 0.00000000 1 0.00000000 0.00000000 0.00000000 0.00000000
Neuron 2 1 0.00000000 1 0.00000000 0.00000000 0.00000000 0.00000000
Neuron 3 1 0.00000000 1 0.00000000 0.00000000 0.00000000 0.00000000
Neuron 4 1 0.00000000 1 0.00000000 0.00000000 0.00000000 0.00000000
Neuron 5 1 0.00000000 1 0.00000000 0.00000000 0.00000000 0.00000000
Neuron 6 2 0.00000000 1 0.00000000 0.00000000 0.00000000 0.00000000
Neuron 7 4 1.00000000 1 3.02500000 0.00000000 0.00000000 0.00000000
Neuron 8 4 1.00000000 1 3.02500000 0.00000000 0.00000000 0.00000000
Neuron 9 4 1.00000000 5 3.02500000 0.00000000 0.00000000 0.00000000
Neuron 15 3 0.50000000 11 1.64473542 0.00000000 0.00000000 0.00000000
Neuron 17 3 0.50000000 4 1.89986857 0.00000000 0.00000000 0.00000000
Neuron 20 3 0.50000000 9 4.31954354 0.00000000 0.00000000 0.00000000
Neuron 21 3 0.50000000 6 0.30488070 0.00000000 0.00000000 0.00000000
Link 1 7 1 0 1.13177509
Link 2 7 2 0 -3.59901999
Link 3 7 3 0 -3.25250109
Link 6 7 6 0 -0.80817412
Link 1 8 7 0 1.16684285
Link 2 8 8 0 1.16873637
Link 3 8 9 0 -1.05473022
Link 6 8 12 0 1.80961267
Link 1 9 13 0 -1.69320249
Link 2 9 14 0 0.54214928
Link 3 9 15 0 1.97903522
Link 4 9 16 0 1.38990597
Link 5 9 17 0 -3.42916015
Link 6 9 18 0 0.08267376
Link 4 15 39 0 0.82475374
Link 15 7 40 0 0.90306576
Link 5 17 51 0 -0.43435661
Link 17 7 52 0 0.69510936
Link 5 20 64 0 1.68973854
Link 20 8 65 0 -0.10830939
Link 4 21 74 0 1.00000000
Link 21 8 75 0 2.47129238
GenomeEnd

