GenomeStart 5493
Neuron 1 1 0.00000000 1 0.00000000 0.00000000 0.00000000 0.00000000
Neuron 2 1 0.00000000 1 0.00000000 0.00000000 0.00000000 0.00000000
Neuron 3 1 0.00000000 1 0.00000000 0.00000000 0.00000000 0.00000000
Neuron 4 1 0.00000000 1 0.00000000 0.00000000 0.00000000 0.00000000
Neuron 5 1 0.00000000 1 0.00000000 0.00000000 0.00000000 0.00000000
Neuron 6 2 0.00000000 1 0.00000000 0.00000000 0.00000000 0.00000000
Neuron 7 4 1.00000000 1 3.02500000 0.00000000 0.00000000 0.00000000
Neuron 8 4 1.00000000 1 3.02500000 0.00000000 0.00000000 0.00000000
Neuron 9 4 1.00000000 8 3.02500000 0.00000000 0.00000000 0.00000000
Neuron 15 3 0.50000000 11 1.64473542 0.00000000 0.00000000 0.00000000
Neuron 17 3 0.50000000 4 1.89986857 0.00000000 0.00000000 0.00000000
Neuron 20 3 0.50000000 11 4.92170409 0.00000000 0.00000000 0.00000000
Neuron 21 3 0.50000000 4 5.39525004 0.00000000 0.00000000 0.00000000
Link 1 7 1 0 0.99011653
Link 2 7 2 0 -0.38782542
Link 3 7 3 0 -1.29453334
Link 6 7 6 0 -0.59050998
Link 1 8 7 0 -0.73914647
Link 2 8 8 0 -0.68367788
Link 3 8 9 0 0.45896407
Link 6 8 12 0 0.30983023
Link 1 9 13 0 0.20461811
Link 2 9 14 0 -0.29444888
Link 3 9 15 0 1.25340293
Link 4 9 16 0 3.81226192
Link 5 9 17 0 4.15636094
Link 6 9 18 0 -0.06345391
Link 4 15 39 0 2.84120045
Link 15 7 40 0 0.84202218
Link 5 17 51 0 1.17185898
Link 17 7 52 0 -0.51777365
Link 5 20 64 0 0.82874037
Link 20 8 65 0 -0.10561294
Link 4 21 74 0 1.40473020
Link 21 8 75 0 -2.00603721
GenomeEnd

