GenomeStart 13562
Neuron 1 1 0.00000000 1 0.00000000 0.00000000 0.00000000 0.00000000
Neuron 2 1 0.00000000 1 0.00000000 0.00000000 0.00000000 0.00000000
Neuron 3 1 0.00000000 1 0.00000000 0.00000000 0.00000000 0.00000000
Neuron 4 1 0.00000000 1 0.00000000 0.00000000 0.00000000 0.00000000
Neuron 5 1 0.00000000 1 0.00000000 0.00000000 0.00000000 0.00000000
Neuron 6 2 0.00000000 1 0.00000000 0.00000000 0.00000000 0.00000000
Neuron 7 4 1.00000000 1 3.02500000 0.00000000 0.00000000 0.00000000
Neuron 8 4 1.00000000 1 3.02500000 0.00000000 0.00000000 0.00000000
Neuron 9 4 1.00000000 5 3.02500000 0.00000000 0.00000000 0.00000000
Neuron 12 3 0.50000000 4 0.59996514 0.00000000 0.00000000 0.00000000
Neuron 14 3 0.50000000 6 2.62223523 0.00000000 0.00000000 0.00000000
Neuron 15 3 0.50000000 4 5.16609545 0.00000000 0.00000000 0.00000000
Neuron 17 3 0.50000000 4 0.86722526 0.00000000 0.00000000 0.00000000
Neuron 25 3 0.50000000 1 1.86426148 0.00000000 0.00000000 0.00000000
Link 1 7 1 0 -1.23209330
Link 2 7 2 0 -0.09384676
Link 3 7 3 0 0.51968576
Link 6 7 6 0 -0.44561618
Link 1 8 7 0 1.31010266
Link 2 8 8 0 1.83788260
Link 4 8 10 0 -3.80909653
Link 5 8 11 0 -3.34623356
Link 6 8 12 0 -2.05201298
Link 3 9 15 0 -3.64604301
Link 4 9 16 0 -2.19025749
Link 5 9 17 0 -2.04828357
Link 6 9 18 0 0.68294620
Link 3 12 26 0 0.72804591
Link 12 8 27 0 0.06620798
Link 2 14 34 0 2.12718339
Link 14 9 35 0 -0.13289252
Link 4 15 39 0 0.84583820
Link 15 7 40 0 -2.40030857
Link 5 17 51 0 -1.01130926
Link 17 7 52 0 -1.44944254
Link 15 12 69 0 1.98946037
Link 1 25 90 0 -0.51512638
Link 25 9 91 0 0.12361138
Link 6 17 125 0 0.44766382
GenomeEnd

