GenomeStart 8773
Neuron 1 1 0.00000000 1 0.00000000 0.00000000 0.00000000 0.00000000
Neuron 2 1 0.00000000 1 0.00000000 0.00000000 0.00000000 0.00000000
Neuron 3 1 0.00000000 1 0.00000000 0.00000000 0.00000000 0.00000000
Neuron 4 1 0.00000000 1 0.00000000 0.00000000 0.00000000 0.00000000
Neuron 5 1 0.00000000 1 0.00000000 0.00000000 0.00000000 0.00000000
Neuron 6 2 0.00000000 1 0.00000000 0.00000000 0.00000000 0.00000000
Neuron 7 4 1.00000000 1 3.02500000 0.00000000 0.00000000 0.00000000
Neuron 8 4 1.00000000 1 3.02500000 0.00000000 0.00000000 0.00000000
Neuron 9 4 1.00000000 5 3.02500000 0.00000000 0.00000000 0.00000000
Neuron 15 3 0.50000000 11 1.64473542 0.00000000 0.00000000 0.00000000
Neuron 17 3 0.50000000 4 1.89986857 0.00000000 0.00000000 0.00000000
Neuron 18 3 0.25000000 2 0.19487776 0.00000000 0.00000000 0.00000000
Neuron 20 3 0.50000000 9 4.31954354 0.00000000 0.00000000 0.00000000
Neuron 25 3 0.50000000 6 4.62992290 0.00000000 0.00000000 0.00000000
Link 1 7 1 0 0.21973007
Link 2 7 2 0 0.15811965
Link 3 7 3 0 3.82957233
Link 6 7 6 0 -0.19652000
Link 1 8 7 0 -0.04742523
Link 2 8 8 0 -1.22692436
Link 3 8 9 0 -1.08327009
Link 4 8 10 0 1.33515022
Link 6 8 12 0 0.86910742
Link 2 9 14 0 0.22780948
Link 3 9 15 0 0.28031832
Link 4 9 16 0 2.70107723
Link 5 9 17 0 -2.02251185
Link 6 9 18 0 0.57208840
Link 15 7 40 0 2.28825468
Link 5 17 51 0 -0.91322370
Link 17 7 52 0 2.48116340
Link 4 18 55 0 1.04122000
Link 18 15 56 0 2.77974216
Link 5 20 64 0 -1.01942292
Link 20 8 65 0 0.10167407
Link 1 25 90 0 1.00000000
Link 25 9 91 0 -0.80365257
GenomeEnd

