GenomeStart 1102
Neuron 1 1 0.00000000 1 0.00000000 0.00000000 0.00000000 0.00000000
Neuron 2 1 0.00000000 1 0.00000000 0.00000000 0.00000000 0.00000000
Neuron 3 1 0.00000000 1 0.00000000 0.00000000 0.00000000 0.00000000
Neuron 4 1 0.00000000 1 0.00000000 0.00000000 0.00000000 0.00000000
Neuron 5 1 0.00000000 1 0.00000000 0.00000000 0.00000000 0.00000000
Neuron 6 2 0.00000000 1 0.00000000 0.00000000 0.00000000 0.00000000
Neuron 7 4 1.00000000 1 3.02500000 0.00000000 0.00000000 0.00000000
Neuron 8 4 1.00000000 1 3.02500000 0.00000000 0.00000000 0.00000000
Neuron 9 4 1.00000000 5 3.02500000 0.00000000 0.00000000 0.00000000
Neuron 13 3 0.50000000 4 4.21256114 0.00000000 0.00000000 0.00000000
Link 1 7 1 0 0.03562042
Link 2 7 2 0 -0.48457453
Link 3 7 3 0 -0.01248854
Link 4 7 4 0 -0.35612771
Link 5 7 5 0 0.48583088
Link 6 7 6 0 0.73081593
Link 1 8 7 0 0.69435456
Link 3 8 9 0 0.21937362
Link 4 8 10 0 -0.85530724
Link 5 8 11 0 0.18523782
Link 6 8 12 0 -0.63194734
Link 1 9 13 0 -2.17285005
Link 2 9 14 0 1.07286656
Link 3 9 15 0 0.70195818
Link 4 9 16 0 0.23916722
Link 5 9 17 0 0.87700610
Link 6 9 18 0 0.82563750
Link 2 13 29 0 1.00000000
Link 13 8 30 0 -0.06436361
GenomeEnd

