GenomeStart 5672
Neuron 1 1 0.00000000 1 0.00000000 0.00000000 0.00000000 0.00000000
Neuron 2 1 0.00000000 1 0.00000000 0.00000000 0.00000000 0.00000000
Neuron 3 1 0.00000000 1 0.00000000 0.00000000 0.00000000 0.00000000
Neuron 4 1 0.00000000 1 0.00000000 0.00000000 0.00000000 0.00000000
Neuron 5 1 0.00000000 1 0.00000000 0.00000000 0.00000000 0.00000000
Neuron 6 2 0.00000000 1 0.00000000 0.00000000 0.00000000 0.00000000
Neuron 7 4 1.00000000 1 3.02500000 0.00000000 0.00000000 0.00000000
Neuron 8 4 1.00000000 1 3.02500000 0.00000000 0.00000000 0.00000000
Neuron 9 4 1.00000000 8 3.02500000 0.00000000 0.00000000 0.00000000
Neuron 15 3 0.50000000 11 1.64473542 0.00000000 0.00000000 0.00000000
Neuron 17 3 0.50000000 4 1.89986857 0.00000000 0.00000000 0.00000000
Neuron 20 3 0.50000000 9 4.31954354 0.00000000 0.00000000 0.00000000
Neuron 21 3 0.50000000 4 5.39525004 0.00000000 0.00000000 0.00000000
Link 1 7 1 0 1.53224853
Link 2 7 2 0 0.33569009
Link 3 7 3 0 -1.38887236
Link 6 7 6 0 1.64659286
Link 1 8 7 0 -0.28708505
Link 2 8 8 0 -0.50975983
Link 3 8 9 0 0.96145465
Link 6 8 12 0 1.67957247
Link 1 9 13 0 -0.91952720
Link 2 9 14 0 -0.18159988
Link 3 9 15 0 1.61748665
Link 4 9 16 0 3.94570392
Link 5 9 17 0 0.60627069
Link 6 9 18 0 -1.04753788
Link 4 15 39 0 2.96194308
Link 15 7 40 0 1.28074146
Link 5 17 51 0 1.25858241
Link 17 7 52 0 -0.46879648
Link 5 20 64 0 1.82090609
Link 20 8 65 0 1.90517937
Link 4 21 74 0 -1.61310047
Link 21 8 75 0 2.61322362
GenomeEnd

