GenomeStart 12377
Neuron 1 1 0.00000000 1 0.00000000 0.00000000 0.00000000 0.00000000
Neuron 2 1 0.00000000 1 0.00000000 0.00000000 0.00000000 0.00000000
Neuron 3 1 0.00000000 1 0.00000000 0.00000000 0.00000000 0.00000000
Neuron 4 1 0.00000000 1 0.00000000 0.00000000 0.00000000 0.00000000
Neuron 5 1 0.00000000 1 0.00000000 0.00000000 0.00000000 0.00000000
Neuron 6 2 0.00000000 1 0.00000000 0.00000000 0.00000000 0.00000000
Neuron 7 4 1.00000000 1 3.02500000 0.00000000 0.00000000 0.00000000
Neuron 8 4 1.00000000 1 3.02500000 0.00000000 0.00000000 0.00000000
Neuron 9 4 1.00000000 5 3.02500000 0.00000000 0.00000000 0.00000000
Neuron 12 3 0.50000000 4 0.59996514 0.00000000 0.00000000 0.00000000
Neuron 14 3 0.50000000 6 2.62223523 0.00000000 0.00000000 0.00000000
Neuron 15 3 0.50000000 4 5.16609545 0.00000000 0.00000000 0.00000000
Neuron 17 3 0.50000000 4 0.86722526 0.00000000 0.00000000 0.00000000
Neuron 25 3 0.50000000 1 1.86426148 0.00000000 0.00000000 0.00000000
Link 1 7 1 0 -1.42688063
Link 2 7 2 0 0.04042062
Link 3 7 3 0 1.31602833
Link 6 7 6 0 0.06970469
Link 1 8 7 0 1.48306375
Link 2 8 8 0 1.83788260
Link 4 8 10 0 1.41622645
Link 5 8 11 0 -4.71819206
Link 6 8 12 0 -1.01784976
Link 3 9 15 0 -3.84980019
Link 4 9 16 0 -0.41251071
Link 5 9 17 0 -1.26292258
Link 6 9 18 0 0.75563931
Link 3 12 26 0 -0.88842076
Link 12 8 27 0 0.66975827
Link 2 14 34 0 0.58911983
Link 14 9 35 0 0.24518423
Link 4 15 39 0 1.07464327
Link 15 7 40 0 -0.68530781
Link 5 17 51 0 -1.89814725
Link 17 7 52 0 -0.52283391
Link 1 25 90 0 -0.75845793
Link 25 9 91 0 0.23177721
Link 6 17 125 0 -0.35682349
GenomeEnd

