GenomeStart 2979
Neuron 1 1 0.00000000 1 0.00000000 0.00000000 0.00000000 0.00000000
Neuron 2 1 0.00000000 1 0.00000000 0.00000000 0.00000000 0.00000000
Neuron 3 1 0.00000000 1 0.00000000 0.00000000 0.00000000 0.00000000
Neuron 4 1 0.00000000 1 0.00000000 0.00000000 0.00000000 0.00000000
Neuron 5 1 0.00000000 1 0.00000000 0.00000000 0.00000000 0.00000000
Neuron 6 2 0.00000000 1 0.00000000 0.00000000 0.00000000 0.00000000
Neuron 7 4 1.00000000 1 3.02500000 0.00000000 0.00000000 0.00000000
Neuron 8 4 1.00000000 1 3.02500000 0.00000000 0.00000000 0.00000000
Neuron 9 4 1.00000000 5 3.02500000 0.00000000 0.00000000 0.00000000
Neuron 15 3 0.50000000 11 1.64473542 0.00000000 0.00000000 0.00000000
Neuron 17 3 0.50000000 4 1.89986857 0.00000000 0.00000000 0.00000000
Neuron 20 3 0.50000000 9 4.31954354 0.00000000 0.00000000 0.00000000
Link 1 7 1 0 1.15552834
Link 2 7 2 0 0.81605219
Link 3 7 3 0 -3.63456422
Link 6 7 6 0 0.48956396
Link 1 8 7 0 -0.21606169
Link 2 8 8 0 1.58953296
Link 3 8 9 0 0.96840888
Link 4 8 10 0 2.33529868
Link 6 8 12 0 0.10623522
Link 1 9 13 0 -1.13371220
Link 2 9 14 0 1.37269678
Link 3 9 15 0 0.36399986
Link 4 9 16 0 4.67501954
Link 5 9 17 0 -0.86675315
Link 6 9 18 0 0.14448796
Link 4 15 39 0 2.54047970
Link 15 7 40 0 1.47125275
Link 5 17 51 0 1.31837350
Link 17 7 52 0 -0.42275484
Link 5 20 64 0 1.00000000
Link 20 8 65 0 -2.74863575
GenomeEnd

