GenomeStart 10441
Neuron 1 1 0.00000000 1 0.00000000 0.00000000 0.00000000 0.00000000
Neuron 2 1 0.00000000 1 0.00000000 0.00000000 0.00000000 0.00000000
Neuron 3 1 0.00000000 1 0.00000000 0.00000000 0.00000000 0.00000000
Neuron 4 1 0.00000000 1 0.00000000 0.00000000 0.00000000 0.00000000
Neuron 5 1 0.00000000 1 0.00000000 0.00000000 0.00000000 0.00000000
Neuron 6 2 0.00000000 1 0.00000000 0.00000000 0.00000000 0.00000000
Neuron 7 4 1.00000000 1 3.02500000 0.00000000 0.00000000 0.00000000
Neuron 8 4 1.00000000 1 3.02500000 0.00000000 0.00000000 0.00000000
Neuron 9 4 1.00000000 5 3.02500000 0.00000000 0.00000000 0.00000000
Neuron 12 3 0.50000000 4 0.59996514 0.00000000 0.00000000 0.00000000
Neuron 14 3 0.50000000 6 2.62223523 0.00000000 0.00000000 0.00000000
Neuron 15 3 0.50000000 4 5.16609545 0.00000000 0.00000000 0.00000000
Neuron 17 3 0.50000000 4 0.86722526 0.00000000 0.00000000 0.00000000
Neuron 25 3 0.50000000 1 1.86426148 0.00000000 0.00000000 0.00000000
Link 1 7 1 0 -1.21713933
Link 2 7 2 0 0.35229511
Link 3 7 3 0 -0.11655425
Link 6 7 6 0 -0.65306630
Link 1 8 7 0 2.46915810
Link 2 8 8 0 2.36989133
Link 4 8 10 0 0.47326475
Link 5 8 11 0 -3.37477586
Link 6 8 12 0 -0.81575309
Link 3 9 15 0 0.13948362
Link 4 9 16 0 0.28598473
Link 5 9 17 0 -1.96714161
Link 6 9 18 0 -0.07951448
Link 3 12 26 0 1.48007782
Link 12 8 27 0 0.78102016
Link 2 14 34 0 1.41176932
Link 14 9 35 0 -1.04563429
Link 4 15 39 0 0.11520319
Link 15 7 40 0 -2.21355585
Link 5 17 51 0 -1.19399250
Link 17 7 52 0 -0.40363989
Link 1 25 90 0 -0.64468877
Link 25 9 91 0 -1.34725172
Link 6 17 125 0 0.35700615
GenomeEnd

