GenomeStart 6489
Neuron 1 1 0.00000000 1 0.00000000 0.00000000 0.00000000 0.00000000
Neuron 2 1 0.00000000 1 0.00000000 0.00000000 0.00000000 0.00000000
Neuron 3 1 0.00000000 1 0.00000000 0.00000000 0.00000000 0.00000000
Neuron 4 1 0.00000000 1 0.00000000 0.00000000 0.00000000 0.00000000
Neuron 5 1 0.00000000 1 0.00000000 0.00000000 0.00000000 0.00000000
Neuron 6 2 0.00000000 1 0.00000000 0.00000000 0.00000000 0.00000000
Neuron 7 4 1.00000000 1 3.02500000 0.00000000 0.00000000 0.00000000
Neuron 8 4 1.00000000 1 3.02500000 0.00000000 0.00000000 0.00000000
Neuron 9 4 1.00000000 5 3.02500000 0.00000000 0.00000000 0.00000000
Neuron 12 3 0.50000000 2 0.59996514 0.00000000 0.00000000 0.00000000
Neuron 16 3 0.50000000 2 3.72031895 0.00000000 0.00000000 0.00000000
Neuron 26 3 0.50000000 6 3.53637145 0.00000000 0.00000000 0.00000000
Link 1 7 1 0 1.03490188
Link 2 7 2 0 -1.93516506
Link 3 7 3 0 1.99455898
Link 4 7 4 0 -1.18480006
Link 5 7 5 0 1.89470728
Link 6 7 6 0 3.61513183
Link 2 8 8 0 -0.17339720
Link 4 8 10 0 0.50179945
Link 5 8 11 0 -0.64019649
Link 6 8 12 0 -1.27931490
Link 1 9 13 0 2.43762340
Link 2 9 14 0 2.63199687
Link 3 9 15 0 0.42721676
Link 4 9 16 0 -2.14626537
Link 6 9 18 0 1.28999191
Link 3 12 26 0 1.77770004
Link 12 8 27 0 -4.85539315
Link 1 16 45 0 1.45255791
Link 16 8 46 0 0.47146733
Link 5 26 93 0 1.00000000
Link 26 9 94 0 0.92123157
GenomeEnd

