GenomeStart 5062
Neuron 1 1 0.00000000 1 0.00000000 0.00000000 0.00000000 0.00000000
Neuron 2 1 0.00000000 1 0.00000000 0.00000000 0.00000000 0.00000000
Neuron 3 1 0.00000000 1 0.00000000 0.00000000 0.00000000 0.00000000
Neuron 4 1 0.00000000 1 0.00000000 0.00000000 0.00000000 0.00000000
Neuron 5 1 0.00000000 1 0.00000000 0.00000000 0.00000000 0.00000000
Neuron 6 2 0.00000000 1 0.00000000 0.00000000 0.00000000 0.00000000
Neuron 7 4 1.00000000 1 3.02500000 0.00000000 0.00000000 0.00000000
Neuron 8 4 1.00000000 1 3.02500000 0.00000000 0.00000000 0.00000000
Neuron 9 4 1.00000000 8 3.02500000 0.00000000 0.00000000 0.00000000
Neuron 15 3 0.50000000 11 1.64473542 0.00000000 0.00000000 0.00000000
Neuron 17 3 0.50000000 4 1.89986857 0.00000000 0.00000000 0.00000000
Neuron 21 3 0.50000000 4 5.39525004 0.00000000 0.00000000 0.00000000
Link 1 7 1 0 0.99011653
Link 2 7 2 0 -0.05080257
Link 3 7 3 0 -1.47721273
Link 6 7 6 0 -0.00655583
Link 1 8 7 0 -0.17960054
Link 2 8 8 0 -0.14339425
Link 3 8 9 0 0.85372382
Link 5 8 11 0 1.05949913
Link 6 8 12 0 0.75528492
Link 1 9 13 0 -0.65657262
Link 2 9 14 0 0.53459443
Link 3 9 15 0 1.02334283
Link 4 9 16 0 3.75309248
Link 5 9 17 0 1.28046322
Link 6 9 18 0 -1.05478504
Link 4 15 39 0 2.72466014
Link 15 7 40 0 1.87917176
Link 5 17 51 0 -2.93660678
Link 17 7 52 0 -1.07184995
Link 4 21 74 0 1.00000000
Link 21 8 75 0 2.37415886
Link 17 8 79 0 2.52295847
GenomeEnd

