GenomeStart 15085
Genome Fitness: 0.000000 
Neuron 1 1 0.00000000 1 0.00000000 0.00000000 0.00000000 0.00000000
Neuron 2 1 0.00000000 1 0.00000000 0.00000000 0.00000000 0.00000000
Neuron 3 1 0.00000000 1 0.00000000 0.00000000 0.00000000 0.00000000
Neuron 4 1 0.00000000 1 0.00000000 0.00000000 0.00000000 0.00000000
Neuron 5 1 0.00000000 1 0.00000000 0.00000000 0.00000000 0.00000000
Neuron 6 2 0.00000000 1 0.00000000 0.00000000 0.00000000 0.00000000
Neuron 7 4 1.00000000 2 3.02500000 0.00000000 0.00000000 0.00000000
Neuron 8 4 1.00000000 2 3.02500000 0.00000000 0.00000000 0.00000000
Neuron 10 3 0.50000000 5 4.56721659 0.00000000 0.00000000 0.00000000
Neuron 11 3 0.50000000 2 5.92556491 0.00000000 0.00000000 0.00000000
Neuron 16 3 0.50000000 9 4.53928403 0.00000000 0.00000000 0.00000000
Neuron 18 3 0.50000000 8 0.87846565 0.00000000 0.00000000 0.00000000
Neuron 28 3 0.75000000 9 0.99435367 0.00000000 0.00000000 0.00000000
Link 5 7 5 0 0.16483228
Link 6 7 6 0 -0.18740625
Link 1 8 7 0 0.51353513
Link 2 8 8 0 -0.24066113
Link 5 8 11 0 -0.41876579
Link 6 8 12 0 0.00033495
Link 10 7 18 0 0.28126635
Link 3 11 20 0 0.91413568
Link 11 7 21 0 0.08885546
Link 3 16 35 0 -0.12560029
Link 4 18 45 0 -0.28646318
Link 18 8 46 0 -0.29777777
Link 5 10 86 0 -0.24131075
Link 16 28 112 0 1.19639051
Link 28 8 113 0 -0.21851540
Link 2 16 118 0 -0.61021624
GenomeEnd

