GenomeStart 15005
Neuron 1 1 0.00000000 1 0.00000000 0.00000000 0.00000000 0.00000000
Neuron 2 1 0.00000000 1 0.00000000 0.00000000 0.00000000 0.00000000
Neuron 3 1 0.00000000 1 0.00000000 0.00000000 0.00000000 0.00000000
Neuron 4 1 0.00000000 1 0.00000000 0.00000000 0.00000000 0.00000000
Neuron 5 1 0.00000000 1 0.00000000 0.00000000 0.00000000 0.00000000
Neuron 6 1 0.00000000 1 0.00000000 0.00000000 0.00000000 0.00000000
Neuron 7 1 0.00000000 1 0.00000000 0.00000000 0.00000000 0.00000000
Neuron 8 1 0.00000000 1 0.00000000 0.00000000 0.00000000 0.00000000
Neuron 9 1 0.00000000 1 0.00000000 0.00000000 0.00000000 0.00000000
Neuron 10 1 0.00000000 1 0.00000000 0.00000000 0.00000000 0.00000000
Neuron 11 1 0.00000000 1 0.00000000 0.00000000 0.00000000 0.00000000
Neuron 12 1 0.00000000 1 0.00000000 0.00000000 0.00000000 0.00000000
Neuron 13 1 0.00000000 1 0.00000000 0.00000000 0.00000000 0.00000000
Neuron 14 2 0.00000000 1 0.00000000 0.00000000 0.00000000 0.00000000
Neuron 15 4 1.00000000 1 4.90000000 0.00000000 0.00000000 0.00000000
Neuron 16 4 1.00000000 1 4.90000000 0.00000000 0.00000000 0.00000000
Neuron 17 4 1.00000000 1 4.90000000 0.00000000 0.00000000 0.00000000
Neuron 39 3 0.50000000 1 4.90000000 0.00000000 0.00000000 0.00000000
Neuron 43 3 0.50000000 1 4.90000000 0.00000000 0.00000000 0.00000000
Link 1 15 1 0 3.31805692
Link 2 15 2 0 0.59266501
Link 3 15 3 0 0.11812289
Link 4 15 4 0 -4.67148882
Link 5 15 5 0 -0.39799731
Link 6 15 6 0 2.47159697
Link 7 15 7 0 -2.43219694
Link 9 15 9 0 0.88173343
Link 10 15 10 0 1.98774510
Link 11 15 11 0 -1.29089772
Link 12 15 12 0 0.96566682
Link 13 15 13 0 2.72777252
Link 14 15 14 0 0.94787248
Link 1 16 15 0 0.87510636
Link 2 16 16 0 3.10261538
Link 3 16 17 0 2.89514924
Link 4 16 18 0 -0.73457772
Link 5 16 19 0 -6.05006832
Link 6 16 20 0 1.60475763
Link 7 16 21 0 -1.14266138
Link 8 16 22 0 -7.85828545
Link 9 16 23 0 -2.39875793
Link 10 16 24 0 1.88883498
Link 11 16 25 0 -0.68159428
Link 13 16 27 0 1.15638390
Link 14 16 28 0 -1.06147682
Link 1 17 29 0 1.78802279
Link 2 17 30 0 -0.45445472
Link 3 17 31 0 -1.73470854
Link 4 17 32 0 -3.21306712
Link 5 17 33 0 -3.25322627
Link 6 17 34 0 -1.10097293
Link 7 17 35 0 -1.48498800
Link 8 17 36 0 -2.85549751
Link 9 17 37 0 -0.44319434
Link 10 17 38 0 -3.99915894
Link 11 17 39 0 -6.14764359
Link 12 17 40 0 -3.60558207
Link 13 17 41 0 0.75591149
Link 14 17 42 0 0.12058790
Link 12 39 113 0 -2.74867577
Link 39 16 114 0 4.26283065
Link 8 43 128 0 1.00000000
Link 43 15 129 0 0.19493025
Link 5 39 192 0 3.18047878
Link 6 39 203 0 -0.42304770
Link 39 17 333 0 -3.12572726
GenomeEnd

