GenomeStart 150
Neuron 1 1 0.00000000 1 0.00000000 0.00000000 0.00000000 0.00000000
Neuron 2 1 0.00000000 1 0.00000000 0.00000000 0.00000000 0.00000000
Neuron 3 1 0.00000000 1 0.00000000 0.00000000 0.00000000 0.00000000
Neuron 4 1 0.00000000 1 0.00000000 0.00000000 0.00000000 0.00000000
Neuron 5 1 0.00000000 1 0.00000000 0.00000000 0.00000000 0.00000000
Neuron 6 1 0.00000000 1 0.00000000 0.00000000 0.00000000 0.00000000
Neuron 7 1 0.00000000 1 0.00000000 0.00000000 0.00000000 0.00000000
Neuron 8 1 0.00000000 1 0.00000000 0.00000000 0.00000000 0.00000000
Neuron 9 1 0.00000000 1 0.00000000 0.00000000 0.00000000 0.00000000
Neuron 10 1 0.00000000 1 0.00000000 0.00000000 0.00000000 0.00000000
Neuron 11 1 0.00000000 1 0.00000000 0.00000000 0.00000000 0.00000000
Neuron 12 1 0.00000000 1 0.00000000 0.00000000 0.00000000 0.00000000
Neuron 13 1 0.00000000 1 0.00000000 0.00000000 0.00000000 0.00000000
Neuron 14 2 0.00000000 1 0.00000000 0.00000000 0.00000000 0.00000000
Neuron 15 4 1.00000000 1 4.90000000 0.00000000 0.00000000 0.00000000
Neuron 16 4 1.00000000 1 4.90000000 0.00000000 0.00000000 0.00000000
Neuron 17 4 1.00000000 1 4.90000000 0.00000000 0.00000000 0.00000000
Link 1 15 1 0 -0.90818571
Link 2 15 2 0 0.56737316
Link 3 15 3 0 -0.10979135
Link 4 15 4 0 -1.02203725
Link 5 15 5 0 -1.31054701
Link 6 15 6 0 0.71089505
Link 7 15 7 0 0.61762979
Link 8 15 8 0 1.82787368
Link 9 15 9 0 0.42245769
Link 10 15 10 0 4.33339660
Link 11 15 11 0 0.61165269
Link 12 15 12 0 -3.29716386
Link 13 15 13 0 1.54837797
Link 14 15 14 0 0.67881522
Link 1 16 15 0 -2.25485198
Link 2 16 16 0 0.21501905
Link 3 16 17 0 -1.19604633
Link 4 16 18 0 0.26237242
Link 5 16 19 0 2.43204772
Link 6 16 20 0 0.99937326
Link 7 16 21 0 -0.55901821
Link 8 16 22 0 1.17394726
Link 9 16 23 0 -0.18259249
Link 10 16 24 0 0.96765962
Link 11 16 25 0 0.67778230
Link 12 16 26 0 0.41006267
Link 13 16 27 0 -1.42539755
Link 14 16 28 0 1.15858043
Link 1 17 29 0 -0.24729699
Link 2 17 30 0 -1.90251926
Link 3 17 31 0 0.15164755
Link 4 17 32 0 -0.89724918
Link 5 17 33 0 -0.80796857
Link 6 17 34 0 0.93309614
Link 7 17 35 0 -1.79582238
Link 8 17 36 0 0.78017839
Link 9 17 37 0 1.74077342
Link 10 17 38 0 -1.53297318
Link 11 17 39 0 1.36874380
Link 12 17 40 0 -0.78831083
Link 13 17 41 0 0.35273088
Link 14 17 42 0 0.17826211
GenomeEnd

