GenomeStart 302
Genome Fitness: 147.000000 
Neuron 1 1 0.00000000 1 0.00000000 0.00000000 0.00000000 0.00000000
Neuron 2 1 0.00000000 1 0.00000000 0.00000000 0.00000000 0.00000000
Neuron 3 1 0.00000000 1 0.00000000 0.00000000 0.00000000 0.00000000
Neuron 4 1 0.00000000 1 0.00000000 0.00000000 0.00000000 0.00000000
Neuron 5 1 0.00000000 1 0.00000000 0.00000000 0.00000000 0.00000000
Neuron 6 1 0.00000000 1 0.00000000 0.00000000 0.00000000 0.00000000
Neuron 7 1 0.00000000 1 0.00000000 0.00000000 0.00000000 0.00000000
Neuron 8 1 0.00000000 1 0.00000000 0.00000000 0.00000000 0.00000000
Neuron 9 1 0.00000000 1 0.00000000 0.00000000 0.00000000 0.00000000
Neuron 10 1 0.00000000 1 0.00000000 0.00000000 0.00000000 0.00000000
Neuron 11 1 0.00000000 1 0.00000000 0.00000000 0.00000000 0.00000000
Neuron 12 1 0.00000000 1 0.00000000 0.00000000 0.00000000 0.00000000
Neuron 13 1 0.00000000 1 0.00000000 0.00000000 0.00000000 0.00000000
Neuron 14 2 0.00000000 1 0.00000000 0.00000000 0.00000000 0.00000000
Neuron 15 4 1.00000000 1 4.90000000 0.00000000 0.00000000 0.00000000
Neuron 16 4 1.00000000 1 4.90000000 0.00000000 0.00000000 0.00000000
Neuron 17 4 1.00000000 1 4.90000000 0.00000000 0.00000000 0.00000000
Link 1 15 1 0 0.42698091
Link 2 15 2 0 -0.40209836
Link 3 15 3 0 -0.66865635
Link 4 15 4 0 0.02775225
Link 5 15 5 0 0.35050117
Link 6 15 6 0 0.15167041
Link 7 15 7 0 -0.04150790
Link 8 15 8 0 0.29682016
Link 9 15 9 0 0.20759025
Link 10 15 10 0 0.07556795
Link 11 15 11 0 0.27406409
Link 12 15 12 0 0.04210626
Link 13 15 13 0 0.55766898
Link 14 15 14 0 0.00122060
Link 1 16 15 0 0.07081096
Link 2 16 16 0 0.04050263
Link 3 16 17 0 0.13389855
Link 4 16 18 0 0.22204772
Link 5 16 19 0 -0.13452702
Link 6 16 20 0 0.44671688
Link 7 16 21 0 0.04247893
Link 8 16 22 0 -0.26800281
Link 9 16 23 0 -0.90582365
Link 10 16 24 0 -0.03676127
Link 11 16 25 0 -0.24788811
Link 12 16 26 0 -0.48450613
Link 13 16 27 0 0.58529637
Link 14 16 28 0 0.33749827
Link 1 17 29 0 -0.18345791
Link 2 17 30 0 -0.05523555
Link 3 17 31 0 0.14710205
Link 4 17 32 0 0.02531161
Link 5 17 33 0 -0.46217430
Link 6 17 34 0 -0.23542084
Link 7 17 35 0 -0.89993813
Link 8 17 36 0 -0.05492011
Link 9 17 37 0 -0.35172660
Link 10 17 38 0 0.14957303
Link 11 17 39 0 -0.52963311
Link 12 17 40 0 0.28829320
Link 13 17 41 0 0.29327147
Link 14 17 42 0 -0.30581133
GenomeEnd

