GenomeStart 11415
Genome Fitness: 220.000000 
Neuron 1 1 0.00000000 1 0.00000000 0.00000000 0.00000000 0.00000000
Neuron 2 1 0.00000000 1 0.00000000 0.00000000 0.00000000 0.00000000
Neuron 3 1 0.00000000 1 0.00000000 0.00000000 0.00000000 0.00000000
Neuron 4 1 0.00000000 1 0.00000000 0.00000000 0.00000000 0.00000000
Neuron 5 1 0.00000000 1 0.00000000 0.00000000 0.00000000 0.00000000
Neuron 6 1 0.00000000 1 0.00000000 0.00000000 0.00000000 0.00000000
Neuron 7 1 0.00000000 1 0.00000000 0.00000000 0.00000000 0.00000000
Neuron 8 1 0.00000000 1 0.00000000 0.00000000 0.00000000 0.00000000
Neuron 9 1 0.00000000 1 0.00000000 0.00000000 0.00000000 0.00000000
Neuron 10 1 0.00000000 1 0.00000000 0.00000000 0.00000000 0.00000000
Neuron 11 1 0.00000000 1 0.00000000 0.00000000 0.00000000 0.00000000
Neuron 12 1 0.00000000 1 0.00000000 0.00000000 0.00000000 0.00000000
Neuron 13 1 0.00000000 1 0.00000000 0.00000000 0.00000000 0.00000000
Neuron 14 2 0.00000000 1 0.00000000 0.00000000 0.00000000 0.00000000
Neuron 15 4 1.00000000 1 4.90000000 0.00000000 0.00000000 0.00000000
Neuron 16 4 1.00000000 1 4.90000000 0.00000000 0.00000000 0.00000000
Neuron 17 4 1.00000000 1 4.90000000 0.00000000 0.00000000 0.00000000
Neuron 19 3 0.50000000 1 4.90000000 0.00000000 0.00000000 0.00000000
Neuron 26 3 0.50000000 1 4.90000000 0.00000000 0.00000000 0.00000000
Neuron 31 3 0.50000000 1 4.90000000 0.00000000 0.00000000 0.00000000
Neuron 32 3 0.50000000 1 4.90000000 0.00000000 0.00000000 0.00000000
Link 1 15 1 0 3.26439024
Link 2 15 2 0 -0.45196865
Link 3 15 3 0 -3.67725501
Link 4 15 4 0 -1.95422167
Link 5 15 5 0 0.28427720
Link 6 15 6 0 -2.26276515
Link 7 15 7 0 2.26900608
Link 8 15 8 0 3.65506120
Link 9 15 9 0 -0.54370437
Link 10 15 10 0 3.16851068
Link 11 15 11 0 1.24864842
Link 12 15 12 0 -3.72487031
Link 14 15 14 0 1.65313003
Link 1 16 15 0 -3.39689367
Link 2 16 16 0 6.21334269
Link 3 16 17 0 -2.46050807
Link 4 16 18 0 -1.56239568
Link 5 16 19 0 -0.28064479
Link 7 16 21 0 1.47173606
Link 8 16 22 0 1.49461383
Link 9 16 23 0 -3.63396733
Link 11 16 25 0 1.89678373
Link 13 16 27 0 -0.22174324
Link 14 16 28 0 -0.15487629
Link 1 17 29 0 1.39751604
Link 2 17 30 0 -0.91562638
Link 3 17 31 0 0.84586199
Link 4 17 32 0 1.63282649
Link 5 17 33 0 -2.10284594
Link 6 17 34 0 2.36344386
Link 7 17 35 0 -0.33463735
Link 8 17 36 0 -3.41575530
Link 9 17 37 0 -0.84193986
Link 10 17 38 0 -0.78549129
Link 11 17 39 0 -2.02401526
Link 12 17 40 0 -0.76220939
Link 13 17 41 0 0.15559181
Link 14 17 42 0 3.06168249
Link 6 19 47 0 -0.21787005
Link 19 16 48 0 4.60318889
Link 12 26 68 0 0.24019592
Link 26 16 69 0 2.29562236
Link 13 31 87 0 2.72657587
Link 31 15 88 0 -0.10410709
Link 10 32 90 0 0.72629058
Link 32 16 91 0 -0.51404493
GenomeEnd

