GenomeStart 8524
Genome Fitness: 203.000000 
Neuron 1 1 0.00000000 1 0.00000000 0.00000000 0.00000000 0.00000000
Neuron 2 1 0.00000000 1 0.00000000 0.00000000 0.00000000 0.00000000
Neuron 3 1 0.00000000 1 0.00000000 0.00000000 0.00000000 0.00000000
Neuron 4 1 0.00000000 1 0.00000000 0.00000000 0.00000000 0.00000000
Neuron 5 1 0.00000000 1 0.00000000 0.00000000 0.00000000 0.00000000
Neuron 6 1 0.00000000 1 0.00000000 0.00000000 0.00000000 0.00000000
Neuron 7 1 0.00000000 1 0.00000000 0.00000000 0.00000000 0.00000000
Neuron 8 1 0.00000000 1 0.00000000 0.00000000 0.00000000 0.00000000
Neuron 9 1 0.00000000 1 0.00000000 0.00000000 0.00000000 0.00000000
Neuron 10 1 0.00000000 1 0.00000000 0.00000000 0.00000000 0.00000000
Neuron 11 1 0.00000000 1 0.00000000 0.00000000 0.00000000 0.00000000
Neuron 12 1 0.00000000 1 0.00000000 0.00000000 0.00000000 0.00000000
Neuron 13 1 0.00000000 1 0.00000000 0.00000000 0.00000000 0.00000000
Neuron 14 2 0.00000000 1 0.00000000 0.00000000 0.00000000 0.00000000
Neuron 15 4 1.00000000 1 4.90000000 0.00000000 0.00000000 0.00000000
Neuron 16 4 1.00000000 1 4.90000000 0.00000000 0.00000000 0.00000000
Neuron 17 4 1.00000000 1 4.90000000 0.00000000 0.00000000 0.00000000
Link 1 15 1 0 2.38403873
Link 2 15 2 0 -0.94401693
Link 3 15 3 0 -1.18795825
Link 4 15 4 0 -2.31262848
Link 5 15 5 0 1.12424577
Link 6 15 6 0 -1.64939877
Link 7 15 7 0 0.19643859
Link 8 15 8 0 -1.25023025
Link 9 15 9 0 1.43603653
Link 10 15 10 0 0.87144290
Link 11 15 11 0 -0.15066698
Link 12 15 12 0 0.59024187
Link 13 15 13 0 -3.56524878
Link 14 15 14 0 -0.43706949
Link 1 16 15 0 -2.91932257
Link 2 16 16 0 -0.13775026
Link 3 16 17 0 0.34811538
Link 4 16 18 0 0.81302303
Link 5 16 19 0 -0.28458898
Link 6 16 20 0 0.94489437
Link 7 16 21 0 -0.22986701
Link 8 16 22 0 -2.64182796
Link 9 16 23 0 -0.35825244
Link 10 16 24 0 0.71205564
Link 11 16 25 0 2.20087288
Link 12 16 26 0 1.05380026
Link 13 16 27 0 1.47005665
Link 14 16 28 0 -1.58262888
Link 1 17 29 0 -2.73431278
Link 2 17 30 0 -0.87956542
Link 3 17 31 0 -0.54034563
Link 4 17 32 0 1.14127868
Link 5 17 33 0 -1.29084427
Link 6 17 34 0 -1.27125851
Link 7 17 35 0 1.68945623
Link 8 17 36 0 -0.26238137
Link 9 17 37 0 0.65122045
Link 10 17 38 0 0.58492939
Link 11 17 39 0 -0.41906871
Link 12 17 40 0 1.58488922
Link 13 17 41 0 0.81796619
Link 14 17 42 0 1.86598414
GenomeEnd

