NEAT_ParametersStart
PopulationSize 150
DynamicCompatibility true
MinSpecies 5
MaxSpecies 25
InnovationsForever true
AllowClones true
YoungAgeTreshold 15
YoungAgeFitnessBoost 1.10000000000000008882
SpeciesDropoffAge 50
StagnationDelta 0.00000000000000000000
OldAgeTreshold 35
OldAgePenalty 1.00000000000000000000
DetectCompetetiveCoevolutionStagnation false
KillWorstSpeciesEach 15
KillWorstAge 10
SurvivalRate 0.20000000000000001110
CrossoverRate 0.69999999999999995559
OverallMutationRate 0.14999999999999999445
InterspeciesCrossoverRate 0.00010000000000000000
MultipointCrossoverRate 0.75000000000000000000
RouletteWheelSelection true
PhasedSearching false
DeltaCoding false
SimplifyingPhaseMPCTreshold 20
SimplifyingPhaseStagnationTreshold 30
ComplexityFloorGenerations 40
NoveltySearch_K 15
NoveltySearch_P_min 0.50000000000000000000
NoveltySearch_Dynamic_Pmin true
NoveltySearch_No_Archiving_Stagnation_Treshold 150
NoveltySearch_Pmin_lowering_multiplier 0.90000000000000002220
NoveltySearch_Pmin_min 0.05000000000000000278
NoveltySearch_Quick_Archiving_Min_Evaluations 8
NoveltySearch_Pmin_raising_multiplier 1.10000000000000008882
NoveltySearch_Recompute_Sparseness_Each 25
MutateAddNeuronProb 0.05000000000000000278
SplitRecurrent true
SplitLoopedRecurrent true
NeuronTries 32545
MutateAddLinkProb 0.08000000000000000167
MutateAddLinkFromBiasProb 0.00000000000000000000
MutateRemLinkProb 0.02000000000000000042
MutateRemSimpleNeuronProb 0.00000000000000000000
LinkTries 32
RecurrentProb 0.00000000000000000000
RecurrentLoopProb 0.25000000000000000000
MutateWeightsProb 0.90000000000000002220
MutateWeightsSevereProb 0.25000000000000000000
WeightMutationRate 1.00000000000000000000
WeightMutationMaxPower 0.20000000000000001110
WeightReplacementMaxPower 1.00000000000000000000
MaxWeight 8.00000000000000000000
MutateActivationAProb 0.00000000000000000000
MutateActivationBProb 0.00000000000000000000
ActivationAMutationMaxPower 0.50000000000000000000
ActivationBMutationMaxPower 0.00000000000000000000
TimeConstantMutationMaxPower 0.00000000000000000000
BiasMutationMaxPower 1.00000000000000000000
MinActivationA 0.05000000000000000278
MaxActivationA 6.00000000000000000000
MinActivationB 0.00000000000000000000
MaxActivationB 0.00000000000000000000
MutateNeuronActivationTypeProb 0.05000000000000000278
ActivationFunction_SignedSigmoid_Prob 0.00000000000000000000
ActivationFunction_UnsignedSigmoid_Prob 1.00000000000000000000
ActivationFunction_Tanh_Prob 1.00000000000000000000
ActivationFunction_TanhCubic_Prob 0.00000000000000000000
ActivationFunction_SignedStep_Prob 1.00000000000000000000
ActivationFunction_UnsignedStep_Prob 0.00000000000000000000
ActivationFunction_SignedGauss_Prob 1.00000000000000000000
ActivationFunction_UnsignedGauss_Prob 0.00000000000000000000
ActivationFunction_Abs_Prob 1.00000000000000000000
ActivationFunction_SignedSine_Prob 1.00000000000000000000
ActivationFunction_UnsignedSine_Prob 0.00000000000000000000
ActivationFunction_Linear_Prob 1.00000000000000000000
ActivationFunction_Relu_Prob 0.00000000000000000000
ActivationFunction_Softplus_Prob 0.00000000000000000000
MutateNeuronTimeConstantsProb 0.00000000000000000000
MutateNeuronBiasesProb 0.00000000000000000000
MinNeuronTimeConstant 0.00000000000000000000
MaxNeuronTimeConstant 0.00000000000000000000
MinNeuronBias 0.00000000000000000000
MaxNeuronBias 0.00000000000000000000
DisjointCoeff 1.00000000000000000000
ExcessCoeff 1.00000000000000000000
ActivationADiffCoeff 0.00000000000000000000
ActivationBDiffCoeff 0.00000000000000000000
WeightDiffCoeff 0.50000000000000000000
TimeConstantDiffCoeff 0.00000000000000000000
BiasDiffCoeff 0.00000000000000000000
ActivationFunctionDiffCoeff 0.00000000000000000000
CompatTreshold 4.09999999999999875655
MinCompatTreshold 0.20000000000000001110
CompatTresholdModifier 0.29999999999999998890
CompatTreshChangeInterval_Generations 1
CompatTreshChangeInterval_Evaluations 10
DivisionThreshold 0.02999999999999999889
VarianceThreshold 0.02999999999999999889
BandThreshold 0.29999999999999998890
InitialDepth 3
MaxDepth 3
IterationLevel 1
TournamentSize 2
CPPN_Bias 1.00000000000000000000
Width 2.00000000000000000000
Height 2.00000000000000000000
Qtree_X 0.00000000000000000000
Qtree_Y 0.00000000000000000000
Leo false
LeoThreshold 0.10000000000000000555
LeoSeed false
GeometrySeed false
Elitism 0.10000000000000000555
NEAT_ParametersEnd
InnovationDatabaseStart
NextInnovNum: 158
NextNeuronID: 38
Innovation 1 1 1 7 0 -1
Innovation 2 1 2 7 0 -1
Innovation 3 1 3 7 0 -1
Innovation 4 1 4 7 0 -1
Innovation 5 1 5 7 0 -1
Innovation 6 1 6 7 0 -1
Innovation 7 1 1 8 0 -1
Innovation 8 1 2 8 0 -1
Innovation 9 1 3 8 0 -1
Innovation 10 1 4 8 0 -1
Innovation 11 1 5 8 0 -1
Innovation 12 1 6 8 0 -1
Innovation 13 0 2 7 3 9
Innovation 14 1 2 9 0 -1
Innovation 15 1 9 7 0 -1
Innovation 16 0 4 7 3 10
Innovation 17 1 4 10 0 -1
Innovation 18 1 10 7 0 -1
Innovation 19 1 1 9 0 -1
Innovation 20 1 4 9 0 -1
Innovation 21 1 3 9 0 -1
Innovation 22 1 5 9 0 -1
Innovation 23 0 3 8 3 11
Innovation 24 1 3 11 0 -1
Innovation 25 1 11 8 0 -1
Innovation 26 1 6 10 0 -1
Innovation 27 0 5 7 3 12
Innovation 28 1 5 12 0 -1
Innovation 29 1 12 7 0 -1
Innovation 30 0 3 7 3 13
Innovation 31 1 3 13 0 -1
Innovation 32 1 13 7 0 -1
Innovation 33 0 2 8 3 14
Innovation 34 1 2 14 0 -1
Innovation 35 1 14 8 0 -1
Innovation 36 1 11 9 0 -1
Innovation 37 0 5 8 3 15
Innovation 38 1 5 15 0 -1
Innovation 39 1 15 8 0 -1
Innovation 40 1 6 9 0 -1
Innovation 41 1 5 10 0 -1
Innovation 42 0 2 14 3 16
Innovation 43 1 2 16 0 -1
Innovation 44 1 16 14 0 -1
Innovation 45 0 1 7 3 17
Innovation 46 1 1 17 0 -1
Innovation 47 1 17 7 0 -1
Innovation 48 1 6 11 0 -1
Innovation 49 0 1 17 3 18
Innovation 50 1 1 18 0 -1
Innovation 51 1 18 17 0 -1
Innovation 52 1 1 16 0 -1
Innovation 53 1 10 8 0 -1
Innovation 54 1 3 15 0 -1
Innovation 55 1 12 8 0 -1
Innovation 56 1 15 10 0 -1
Innovation 57 0 1 8 3 19
Innovation 58 1 1 19 0 -1
Innovation 59 1 19 8 0 -1
Innovation 60 1 18 8 0 -1
Innovation 61 1 5 14 0 -1
Innovation 62 0 4 10 3 20
Innovation 63 1 4 20 0 -1
Innovation 64 1 20 10 0 -1
Innovation 65 1 1 12 0 -1
Innovation 66 1 1 10 0 -1
Innovation 67 0 10 7 3 21
Innovation 68 1 10 21 0 -1
Innovation 69 1 21 7 0 -1
Innovation 70 1 10 13 0 -1
Innovation 71 1 16 10 0 -1
Innovation 72 0 15 8 3 22
Innovation 73 1 15 22 0 -1
Innovation 74 1 22 8 0 -1
Innovation 75 1 14 7 0 -1
Innovation 76 1 20 14 0 -1
Innovation 77 0 9 7 3 23
Innovation 78 1 9 23 0 -1
Innovation 79 1 23 7 0 -1
Innovation 80 1 20 17 0 -1
Innovation 81 1 2 23 0 -1
Innovation 82 1 12 10 0 -1
Innovation 83 0 2 9 3 24
Innovation 84 1 2 24 0 -1
Innovation 85 1 24 9 0 -1
Innovation 86 1 21 8 0 -1
Innovation 87 0 12 7 3 25
Innovation 88 1 12 25 0 -1
Innovation 89 1 25 7 0 -1
Innovation 90 1 9 8 0 -1
Innovation 91 0 5 12 3 26
Innovation 92 1 5 26 0 -1
Innovation 93 1 26 12 0 -1
Innovation 94 1 6 15 0 -1
Innovation 95 0 14 8 3 27
Innovation 96 1 14 27 0 -1
Innovation 97 1 27 8 0 -1
Innovation 98 0 3 11 3 28
Innovation 99 1 3 28 0 -1
Innovation 100 1 28 11 0 -1
Innovation 101 0 17 7 3 29
Innovation 102 1 17 29 0 -1
Innovation 103 1 29 7 0 -1
Innovation 104 1 15 23 0 -1
Innovation 105 1 6 16 0 -1
Innovation 106 1 16 8 0 -1
Innovation 107 0 4 8 3 30
Innovation 108 1 4 30 0 -1
Innovation 109 1 30 8 0 -1
Innovation 110 0 2 24 3 31
Innovation 111 1 2 31 0 -1
Innovation 112 1 31 24 0 -1
Innovation 113 0 11 8 3 32
Innovation 114 1 11 32 0 -1
Innovation 115 1 32 8 0 -1
Innovation 116 0 5 15 3 33
Innovation 117 1 5 33 0 -1
Innovation 118 1 33 15 0 -1
Innovation 119 1 5 21 0 -1
Innovation 120 1 6 22 0 -1
Innovation 121 1 5 17 0 -1
Innovation 122 0 2 16 3 34
Innovation 123 1 2 34 0 -1
Innovation 124 1 34 16 0 -1
Innovation 125 1 3 10 0 -1
Innovation 126 0 10 21 3 35
Innovation 127 1 10 35 0 -1
Innovation 128 1 35 21 0 -1
Innovation 129 1 2 21 0 -1
Innovation 130 1 4 21 0 -1
Innovation 131 1 2 13 0 -1
Innovation 132 0 23 7 3 36
Innovation 133 1 23 36 0 -1
Innovation 134 1 36 7 0 -1
Innovation 135 1 5 16 0 -1
Innovation 136 1 9 11 0 -1
Innovation 137 1 16 7 0 -1
Innovation 138 1 3 21 0 -1
Innovation 139 1 15 7 0 -1
Innovation 140 1 30 32 0 -1
Innovation 141 1 2 17 0 -1
Innovation 142 1 10 15 0 -1
Innovation 143 1 4 13 0 -1
Innovation 144 1 4 11 0 -1
Innovation 145 1 15 9 0 -1
Innovation 146 1 5 13 0 -1
Innovation 147 1 2 15 0 -1
Innovation 148 1 14 17 0 -1
Innovation 149 1 13 8 0 -1
Innovation 150 1 3 16 0 -1
Innovation 151 0 26 12 3 37
Innovation 152 1 26 37 0 -1
Innovation 153 1 37 12 0 -1
Innovation 154 1 28 9 0 -1
Innovation 155 1 5 20 0 -1
Innovation 156 1 1 13 0 -1
Innovation 157 1 5 11 0 -1
InnovationDatabaseEnd

GenomeStart 5114
Genome Fitness: 168.000000 
Neuron 1 1 0.00000000 1 0.00000000 0.00000000 0.00000000 0.00000000
Neuron 2 1 0.00000000 1 0.00000000 0.00000000 0.00000000 0.00000000
Neuron 3 1 0.00000000 1 0.00000000 0.00000000 0.00000000 0.00000000
Neuron 4 1 0.00000000 1 0.00000000 0.00000000 0.00000000 0.00000000
Neuron 5 1 0.00000000 1 0.00000000 0.00000000 0.00000000 0.00000000
Neuron 6 2 0.00000000 1 0.00000000 0.00000000 0.00000000 0.00000000
Neuron 7 4 1.00000000 1 3.02500000 0.00000000 0.00000000 0.00000000
Neuron 8 4 1.00000000 1 3.02500000 0.00000000 0.00000000 0.00000000
Neuron 10 3 0.50000000 4 4.46394765 0.00000000 0.00000000 0.00000000
Neuron 14 3 0.50000000 6 3.56554023 0.00000000 0.00000000 0.00000000
Neuron 16 3 0.25000000 1 3.85227799 0.00000000 0.00000000 0.00000000
Neuron 20 3 0.25000000 4 5.52111298 0.00000000 0.00000000 0.00000000
Link 1 7 1 0 0.10663717
Link 2 7 2 0 0.12820606
Link 3 7 3 0 -0.13364206
Link 5 7 5 0 0.06513141
Link 6 7 6 0 -0.18004716
Link 1 8 7 0 -0.78222174
Link 3 8 9 0 0.40773622
Link 4 8 10 0 0.15136827
Link 5 8 11 0 0.44488055
Link 6 8 12 0 -0.19900096
Link 10 7 18 0 -0.29019754
Link 14 8 35 0 -0.08443406
Link 2 16 43 0 0.79949507
Link 16 14 44 0 1.03867087
Link 4 20 63 0 0.92296175
Link 20 10 64 0 0.66408604
Link 5 20 155 0 0.69149563
GenomeEnd

GenomeStart 5115
Genome Fitness: 165.000000 
Neuron 1 1 0.00000000 1 0.00000000 0.00000000 0.00000000 0.00000000
Neuron 2 1 0.00000000 1 0.00000000 0.00000000 0.00000000 0.00000000
Neuron 3 1 0.00000000 1 0.00000000 0.00000000 0.00000000 0.00000000
Neuron 4 1 0.00000000 1 0.00000000 0.00000000 0.00000000 0.00000000
Neuron 5 1 0.00000000 1 0.00000000 0.00000000 0.00000000 0.00000000
Neuron 6 2 0.00000000 1 0.00000000 0.00000000 0.00000000 0.00000000
Neuron 7 4 1.00000000 1 3.02500000 0.00000000 0.00000000 0.00000000
Neuron 8 4 1.00000000 1 3.02500000 0.00000000 0.00000000 0.00000000
Neuron 10 3 0.50000000 4 4.46394765 0.00000000 0.00000000 0.00000000
Neuron 14 3 0.50000000 6 3.56554023 0.00000000 0.00000000 0.00000000
Neuron 16 3 0.25000000 1 3.85227799 0.00000000 0.00000000 0.00000000
Neuron 20 3 0.25000000 6 5.52111298 0.00000000 0.00000000 0.00000000
Link 1 7 1 0 0.10663717
Link 2 7 2 0 0.06237312
Link 3 7 3 0 0.06601982
Link 5 7 5 0 0.06513141
Link 6 7 6 0 -0.18004716
Link 1 8 7 0 -0.78222174
Link 3 8 9 0 0.40773622
Link 4 8 10 0 0.15136827
Link 5 8 11 0 0.55677744
Link 6 8 12 0 -0.19746222
Link 10 7 18 0 -0.89948744
Link 14 8 35 0 -0.08443406
Link 2 16 43 0 0.72154404
Link 16 14 44 0 1.03867087
Link 4 20 63 0 0.93566910
Link 20 10 64 0 0.86413584
GenomeEnd

GenomeStart 5116
Genome Fitness: 157.000000 
Neuron 1 1 0.00000000 1 0.00000000 0.00000000 0.00000000 0.00000000
Neuron 2 1 0.00000000 1 0.00000000 0.00000000 0.00000000 0.00000000
Neuron 3 1 0.00000000 1 0.00000000 0.00000000 0.00000000 0.00000000
Neuron 4 1 0.00000000 1 0.00000000 0.00000000 0.00000000 0.00000000
Neuron 5 1 0.00000000 1 0.00000000 0.00000000 0.00000000 0.00000000
Neuron 6 2 0.00000000 1 0.00000000 0.00000000 0.00000000 0.00000000
Neuron 7 4 1.00000000 1 3.02500000 0.00000000 0.00000000 0.00000000
Neuron 8 4 1.00000000 1 3.02500000 0.00000000 0.00000000 0.00000000
Neuron 10 3 0.50000000 4 4.46394765 0.00000000 0.00000000 0.00000000
Neuron 14 3 0.50000000 6 3.56554023 0.00000000 0.00000000 0.00000000
Neuron 16 3 0.25000000 1 3.85227799 0.00000000 0.00000000 0.00000000
Neuron 20 3 0.25000000 6 5.52111298 0.00000000 0.00000000 0.00000000
Link 1 7 1 0 0.23180582
Link 2 7 2 0 0.01394569
Link 3 7 3 0 0.17866219
Link 5 7 5 0 0.00169972
Link 6 7 6 0 -0.13100812
Link 1 8 7 0 -0.78568821
Link 3 8 9 0 0.56767681
Link 4 8 10 0 0.18712110
Link 5 8 11 0 0.58058680
Link 6 8 12 0 -0.22002050
Link 10 7 18 0 -0.84176762
Link 14 8 35 0 -0.22207005
Link 2 16 43 0 0.66194767
Link 16 14 44 0 1.12152198
Link 4 20 63 0 0.81173896
Link 20 10 64 0 0.90754592
GenomeEnd

GenomeStart 5117
Genome Fitness: 165.000000 
Neuron 1 1 0.00000000 1 0.00000000 0.00000000 0.00000000 0.00000000
Neuron 2 1 0.00000000 1 0.00000000 0.00000000 0.00000000 0.00000000
Neuron 3 1 0.00000000 1 0.00000000 0.00000000 0.00000000 0.00000000
Neuron 4 1 0.00000000 1 0.00000000 0.00000000 0.00000000 0.00000000
Neuron 5 1 0.00000000 1 0.00000000 0.00000000 0.00000000 0.00000000
Neuron 6 2 0.00000000 1 0.00000000 0.00000000 0.00000000 0.00000000
Neuron 7 4 1.00000000 1 3.02500000 0.00000000 0.00000000 0.00000000
Neuron 8 4 1.00000000 1 3.02500000 0.00000000 0.00000000 0.00000000
Neuron 10 3 0.50000000 4 4.46394765 0.00000000 0.00000000 0.00000000
Neuron 14 3 0.50000000 6 3.56554023 0.00000000 0.00000000 0.00000000
Neuron 16 3 0.25000000 1 3.85227799 0.00000000 0.00000000 0.00000000
Neuron 20 3 0.25000000 6 5.52111298 0.00000000 0.00000000 0.00000000
Link 1 7 1 0 0.10663717
Link 2 7 2 0 0.06237312
Link 3 7 3 0 0.06601982
Link 5 7 5 0 0.06513141
Link 6 7 6 0 -0.18004716
Link 1 8 7 0 -0.78222174
Link 3 8 9 0 0.40773622
Link 4 8 10 0 0.15136827
Link 5 8 11 0 0.55677744
Link 6 8 12 0 -0.19746222
Link 10 7 18 0 -0.89948744
Link 14 8 35 0 -0.08443406
Link 2 16 43 0 0.72154404
Link 16 14 44 0 1.03867087
Link 4 20 63 0 0.93566910
Link 20 10 64 0 0.86413584
GenomeEnd

GenomeStart 5118
Genome Fitness: 165.000000 
Neuron 1 1 0.00000000 1 0.00000000 0.00000000 0.00000000 0.00000000
Neuron 2 1 0.00000000 1 0.00000000 0.00000000 0.00000000 0.00000000
Neuron 3 1 0.00000000 1 0.00000000 0.00000000 0.00000000 0.00000000
Neuron 4 1 0.00000000 1 0.00000000 0.00000000 0.00000000 0.00000000
Neuron 5 1 0.00000000 1 0.00000000 0.00000000 0.00000000 0.00000000
Neuron 6 2 0.00000000 1 0.00000000 0.00000000 0.00000000 0.00000000
Neuron 7 4 1.00000000 1 3.02500000 0.00000000 0.00000000 0.00000000
Neuron 8 4 1.00000000 1 3.02500000 0.00000000 0.00000000 0.00000000
Neuron 10 3 0.50000000 4 4.46394765 0.00000000 0.00000000 0.00000000
Neuron 14 3 0.50000000 6 3.56554023 0.00000000 0.00000000 0.00000000
Neuron 16 3 0.25000000 1 3.85227799 0.00000000 0.00000000 0.00000000
Neuron 20 3 0.25000000 6 5.52111298 0.00000000 0.00000000 0.00000000
Link 1 7 1 0 0.10663717
Link 2 7 2 0 0.06237312
Link 3 7 3 0 0.06601982
Link 5 7 5 0 0.06513141
Link 6 7 6 0 -0.18004716
Link 1 8 7 0 -0.78222174
Link 3 8 9 0 0.40773622
Link 4 8 10 0 0.15136827
Link 5 8 11 0 0.55677744
Link 6 8 12 0 -0.19746222
Link 10 7 18 0 -0.89948744
Link 14 8 35 0 -0.08443406
Link 2 16 43 0 0.72154404
Link 16 14 44 0 1.03867087
Link 4 20 63 0 0.93566910
Link 20 10 64 0 0.86413584
GenomeEnd

GenomeStart 5119
Genome Fitness: 157.000000 
Neuron 1 1 0.00000000 1 0.00000000 0.00000000 0.00000000 0.00000000
Neuron 2 1 0.00000000 1 0.00000000 0.00000000 0.00000000 0.00000000
Neuron 3 1 0.00000000 1 0.00000000 0.00000000 0.00000000 0.00000000
Neuron 4 1 0.00000000 1 0.00000000 0.00000000 0.00000000 0.00000000
Neuron 5 1 0.00000000 1 0.00000000 0.00000000 0.00000000 0.00000000
Neuron 6 2 0.00000000 1 0.00000000 0.00000000 0.00000000 0.00000000
Neuron 7 4 1.00000000 1 3.02500000 0.00000000 0.00000000 0.00000000
Neuron 8 4 1.00000000 1 3.02500000 0.00000000 0.00000000 0.00000000
Neuron 10 3 0.50000000 4 4.46394765 0.00000000 0.00000000 0.00000000
Neuron 14 3 0.50000000 6 3.56554023 0.00000000 0.00000000 0.00000000
Neuron 16 3 0.25000000 1 3.85227799 0.00000000 0.00000000 0.00000000
Neuron 20 3 0.25000000 4 5.52111298 0.00000000 0.00000000 0.00000000
Link 1 7 1 0 0.04240744
Link 2 7 2 0 0.09162537
Link 3 7 3 0 -0.07914002
Link 5 7 5 0 0.16193671
Link 6 7 6 0 -0.22184762
Link 1 8 7 0 -0.83451267
Link 3 8 9 0 0.55142072
Link 4 8 10 0 0.30334344
Link 5 8 11 0 0.53540117
Link 6 8 12 0 -0.30927065
Link 10 7 18 0 -0.73298941
Link 14 8 35 0 -0.14227420
Link 2 16 43 0 0.83783867
Link 16 14 44 0 0.96914712
Link 4 20 63 0 0.92608176
Link 20 10 64 0 0.96882678
Link 5 20 155 0 0.78658353
GenomeEnd

GenomeStart 5120
Genome Fitness: 167.000000 
Neuron 1 1 0.00000000 1 0.00000000 0.00000000 0.00000000 0.00000000
Neuron 2 1 0.00000000 1 0.00000000 0.00000000 0.00000000 0.00000000
Neuron 3 1 0.00000000 1 0.00000000 0.00000000 0.00000000 0.00000000
Neuron 4 1 0.00000000 1 0.00000000 0.00000000 0.00000000 0.00000000
Neuron 5 1 0.00000000 1 0.00000000 0.00000000 0.00000000 0.00000000
Neuron 6 2 0.00000000 1 0.00000000 0.00000000 0.00000000 0.00000000
Neuron 7 4 1.00000000 1 3.02500000 0.00000000 0.00000000 0.00000000
Neuron 8 4 1.00000000 1 3.02500000 0.00000000 0.00000000 0.00000000
Neuron 10 3 0.50000000 4 4.46394765 0.00000000 0.00000000 0.00000000
Neuron 14 3 0.50000000 6 3.56554023 0.00000000 0.00000000 0.00000000
Neuron 16 3 0.25000000 1 3.85227799 0.00000000 0.00000000 0.00000000
Neuron 20 3 0.25000000 6 5.52111298 0.00000000 0.00000000 0.00000000
Link 1 7 1 0 0.10663717
Link 2 7 2 0 0.12820606
Link 3 7 3 0 -0.13364206
Link 5 7 5 0 0.06513141
Link 6 7 6 0 -0.18004716
Link 1 8 7 0 -0.78222174
Link 3 8 9 0 0.40773622
Link 4 8 10 0 0.15136827
Link 5 8 11 0 0.44488055
Link 6 8 12 0 -0.19900096
Link 10 7 18 0 -0.89948744
Link 14 8 35 0 -0.08443406
Link 2 16 43 0 0.79949507
Link 16 14 44 0 1.03867087
Link 4 20 63 0 0.92296175
Link 20 10 64 0 0.86413584
Link 5 20 155 0 0.69149563
GenomeEnd

GenomeStart 5121
Genome Fitness: 165.000000 
Neuron 1 1 0.00000000 1 0.00000000 0.00000000 0.00000000 0.00000000
Neuron 2 1 0.00000000 1 0.00000000 0.00000000 0.00000000 0.00000000
Neuron 3 1 0.00000000 1 0.00000000 0.00000000 0.00000000 0.00000000
Neuron 4 1 0.00000000 1 0.00000000 0.00000000 0.00000000 0.00000000
Neuron 5 1 0.00000000 1 0.00000000 0.00000000 0.00000000 0.00000000
Neuron 6 2 0.00000000 1 0.00000000 0.00000000 0.00000000 0.00000000
Neuron 7 4 1.00000000 1 3.02500000 0.00000000 0.00000000 0.00000000
Neuron 8 4 1.00000000 1 3.02500000 0.00000000 0.00000000 0.00000000
Neuron 10 3 0.50000000 4 4.46394765 0.00000000 0.00000000 0.00000000
Neuron 14 3 0.50000000 6 3.56554023 0.00000000 0.00000000 0.00000000
Neuron 16 3 0.25000000 1 3.85227799 0.00000000 0.00000000 0.00000000
Neuron 20 3 0.25000000 6 5.52111298 0.00000000 0.00000000 0.00000000
Link 1 7 1 0 0.10663717
Link 2 7 2 0 0.06237312
Link 3 7 3 0 0.06601982
Link 5 7 5 0 0.06513141
Link 6 7 6 0 -0.18004716
Link 1 8 7 0 -0.78222174
Link 3 8 9 0 0.40773622
Link 4 8 10 0 0.15136827
Link 5 8 11 0 0.55677744
Link 6 8 12 0 -0.19746222
Link 10 7 18 0 -0.89948744
Link 14 8 35 0 -0.08443406
Link 2 16 43 0 0.72154404
Link 16 14 44 0 1.03867087
Link 4 20 63 0 0.93566910
Link 20 10 64 0 0.86413584
GenomeEnd

GenomeStart 5122
Genome Fitness: 165.000000 
Neuron 1 1 0.00000000 1 0.00000000 0.00000000 0.00000000 0.00000000
Neuron 2 1 0.00000000 1 0.00000000 0.00000000 0.00000000 0.00000000
Neuron 3 1 0.00000000 1 0.00000000 0.00000000 0.00000000 0.00000000
Neuron 4 1 0.00000000 1 0.00000000 0.00000000 0.00000000 0.00000000
Neuron 5 1 0.00000000 1 0.00000000 0.00000000 0.00000000 0.00000000
Neuron 6 2 0.00000000 1 0.00000000 0.00000000 0.00000000 0.00000000
Neuron 7 4 1.00000000 1 3.02500000 0.00000000 0.00000000 0.00000000
Neuron 8 4 1.00000000 1 3.02500000 0.00000000 0.00000000 0.00000000
Neuron 10 3 0.50000000 4 4.46394765 0.00000000 0.00000000 0.00000000
Neuron 14 3 0.50000000 6 3.56554023 0.00000000 0.00000000 0.00000000
Neuron 16 3 0.25000000 1 3.85227799 0.00000000 0.00000000 0.00000000
Neuron 27 3 0.75000000 8 5.31798550 0.00000000 0.00000000 0.00000000
Link 1 7 1 0 -0.37571552
Link 2 7 2 0 0.25930908
Link 3 7 3 0 -0.55717421
Link 5 7 5 0 0.45247080
Link 6 7 6 0 0.24872699
Link 1 8 7 0 -0.72329929
Link 3 8 9 0 0.41596603
Link 4 8 10 0 0.14034916
Link 5 8 11 0 0.43830590
Link 6 8 12 0 0.42940584
Link 4 10 17 0 0.79164158
Link 10 7 18 0 -0.04117921
Link 2 16 43 0 1.02742081
Link 16 14 44 0 1.07948279
Link 14 27 96 0 0.88508436
Link 27 8 97 0 -0.19478940
GenomeEnd

GenomeStart 5123
Genome Fitness: 165.000000 
Neuron 1 1 0.00000000 1 0.00000000 0.00000000 0.00000000 0.00000000
Neuron 2 1 0.00000000 1 0.00000000 0.00000000 0.00000000 0.00000000
Neuron 3 1 0.00000000 1 0.00000000 0.00000000 0.00000000 0.00000000
Neuron 4 1 0.00000000 1 0.00000000 0.00000000 0.00000000 0.00000000
Neuron 5 1 0.00000000 1 0.00000000 0.00000000 0.00000000 0.00000000
Neuron 6 2 0.00000000 1 0.00000000 0.00000000 0.00000000 0.00000000
Neuron 7 4 1.00000000 1 3.02500000 0.00000000 0.00000000 0.00000000
Neuron 8 4 1.00000000 1 3.02500000 0.00000000 0.00000000 0.00000000
Neuron 10 3 0.50000000 4 4.46394765 0.00000000 0.00000000 0.00000000
Neuron 14 3 0.50000000 6 3.56554023 0.00000000 0.00000000 0.00000000
Neuron 16 3 0.25000000 1 3.85227799 0.00000000 0.00000000 0.00000000
Neuron 27 3 0.75000000 8 5.31798550 0.00000000 0.00000000 0.00000000
Link 1 7 1 0 -0.37571552
Link 2 7 2 0 0.25930908
Link 3 7 3 0 -0.55717421
Link 5 7 5 0 0.45247080
Link 6 7 6 0 0.24872699
Link 1 8 7 0 -0.72329929
Link 3 8 9 0 0.41596603
Link 4 8 10 0 0.14034916
Link 5 8 11 0 0.43830590
Link 6 8 12 0 0.42940584
Link 4 10 17 0 0.79164158
Link 10 7 18 0 -0.04117921
Link 2 16 43 0 1.02742081
Link 16 14 44 0 1.07948279
Link 14 27 96 0 0.88508436
Link 27 8 97 0 -0.19478940
GenomeEnd

GenomeStart 5124
Genome Fitness: 156.000000 
Neuron 1 1 0.00000000 1 0.00000000 0.00000000 0.00000000 0.00000000
Neuron 2 1 0.00000000 1 0.00000000 0.00000000 0.00000000 0.00000000
Neuron 3 1 0.00000000 1 0.00000000 0.00000000 0.00000000 0.00000000
Neuron 4 1 0.00000000 1 0.00000000 0.00000000 0.00000000 0.00000000
Neuron 5 1 0.00000000 1 0.00000000 0.00000000 0.00000000 0.00000000
Neuron 6 2 0.00000000 1 0.00000000 0.00000000 0.00000000 0.00000000
Neuron 7 4 1.00000000 1 3.02500000 0.00000000 0.00000000 0.00000000
Neuron 8 4 1.00000000 1 3.02500000 0.00000000 0.00000000 0.00000000
Neuron 10 3 0.50000000 4 4.46394765 0.00000000 0.00000000 0.00000000
Neuron 14 3 0.50000000 6 3.56554023 0.00000000 0.00000000 0.00000000
Neuron 16 3 0.25000000 1 3.85227799 0.00000000 0.00000000 0.00000000
Neuron 27 3 0.75000000 8 5.31798550 0.00000000 0.00000000 0.00000000
Link 1 7 1 0 -0.49072770
Link 2 7 2 0 0.39885096
Link 3 7 3 0 -0.55717421
Link 5 7 5 0 0.49860298
Link 6 7 6 0 0.06568191
Link 1 8 7 0 -0.50343961
Link 3 8 9 0 0.31264158
Link 4 8 10 0 0.26096119
Link 5 8 11 0 0.43830590
Link 6 8 12 0 0.42940584
Link 4 10 17 0 0.79164158
Link 10 7 18 0 0.10442100
Link 2 16 43 0 1.02742081
Link 16 14 44 0 0.93090195
Link 14 27 96 0 0.99961115
Link 27 8 97 0 -0.19478940
GenomeEnd

GenomeStart 5125
Genome Fitness: 101.000000 
Neuron 1 1 0.00000000 1 0.00000000 0.00000000 0.00000000 0.00000000
Neuron 2 1 0.00000000 1 0.00000000 0.00000000 0.00000000 0.00000000
Neuron 3 1 0.00000000 1 0.00000000 0.00000000 0.00000000 0.00000000
Neuron 4 1 0.00000000 1 0.00000000 0.00000000 0.00000000 0.00000000
Neuron 5 1 0.00000000 1 0.00000000 0.00000000 0.00000000 0.00000000
Neuron 6 2 0.00000000 1 0.00000000 0.00000000 0.00000000 0.00000000
Neuron 7 4 1.00000000 4 3.02500000 0.00000000 0.00000000 0.00000000
Neuron 8 4 1.00000000 1 3.02500000 0.00000000 0.00000000 0.00000000
Neuron 10 3 0.50000000 4 4.46394765 0.00000000 0.00000000 0.00000000
Neuron 14 3 0.50000000 6 3.56554023 0.00000000 0.00000000 0.00000000
Neuron 16 3 0.25000000 1 3.85227799 0.00000000 0.00000000 0.00000000
Neuron 27 3 0.75000000 8 5.31798550 0.00000000 0.00000000 0.00000000
Link 1 7 1 0 -0.32791097
Link 2 7 2 0 0.09108137
Link 3 7 3 0 -0.45128169
Link 5 7 5 0 0.52534686
Link 6 7 6 0 0.24872699
Link 1 8 7 0 -0.50584892
Link 3 8 9 0 0.40374072
Link 4 8 10 0 0.26096119
Link 5 8 11 0 0.43830590
Link 6 8 12 0 -0.29033657
Link 4 10 17 0 0.65815958
Link 10 7 18 0 0.00338675
Link 2 16 43 0 1.04763639
Link 16 14 44 0 -0.32178428
Link 14 27 96 0 0.91540813
Link 27 8 97 0 0.65838082
GenomeEnd

GenomeStart 5126
Genome Fitness: 157.000000 
Neuron 1 1 0.00000000 1 0.00000000 0.00000000 0.00000000 0.00000000
Neuron 2 1 0.00000000 1 0.00000000 0.00000000 0.00000000 0.00000000
Neuron 3 1 0.00000000 1 0.00000000 0.00000000 0.00000000 0.00000000
Neuron 4 1 0.00000000 1 0.00000000 0.00000000 0.00000000 0.00000000
Neuron 5 1 0.00000000 1 0.00000000 0.00000000 0.00000000 0.00000000
Neuron 6 2 0.00000000 1 0.00000000 0.00000000 0.00000000 0.00000000
Neuron 7 4 1.00000000 1 3.02500000 0.00000000 0.00000000 0.00000000
Neuron 8 4 1.00000000 1 3.02500000 0.00000000 0.00000000 0.00000000
Neuron 10 3 0.50000000 4 4.46394765 0.00000000 0.00000000 0.00000000
Neuron 14 3 0.50000000 6 3.56554023 0.00000000 0.00000000 0.00000000
Neuron 16 3 0.25000000 1 3.85227799 0.00000000 0.00000000 0.00000000
Neuron 27 3 0.75000000 8 5.31798550 0.00000000 0.00000000 0.00000000
Link 1 7 1 0 -0.37571552
Link 2 7 2 0 0.27951831
Link 3 7 3 0 -0.55717421
Link 5 7 5 0 0.45247080
Link 6 7 6 0 0.24872699
Link 1 8 7 0 -0.72329929
Link 3 8 9 0 0.40374072
Link 4 8 10 0 0.26096119
Link 5 8 11 0 0.43830590
Link 6 8 12 0 0.42940584
Link 4 10 17 0 0.79164158
Link 10 7 18 0 0.00338675
Link 2 16 43 0 1.02742081
Link 16 14 44 0 1.07948279
Link 14 27 96 0 0.88508436
Link 27 8 97 0 -0.19478940
GenomeEnd

GenomeStart 5127
Genome Fitness: 144.000000 
Neuron 1 1 0.00000000 1 0.00000000 0.00000000 0.00000000 0.00000000
Neuron 2 1 0.00000000 1 0.00000000 0.00000000 0.00000000 0.00000000
Neuron 3 1 0.00000000 1 0.00000000 0.00000000 0.00000000 0.00000000
Neuron 4 1 0.00000000 1 0.00000000 0.00000000 0.00000000 0.00000000
Neuron 5 1 0.00000000 1 0.00000000 0.00000000 0.00000000 0.00000000
Neuron 6 2 0.00000000 1 0.00000000 0.00000000 0.00000000 0.00000000
Neuron 7 4 1.00000000 1 3.02500000 0.00000000 0.00000000 0.00000000
Neuron 8 4 1.00000000 1 3.02500000 0.00000000 0.00000000 0.00000000
Neuron 10 3 0.50000000 4 4.46394765 0.00000000 0.00000000 0.00000000
Neuron 14 3 0.50000000 6 3.56554023 0.00000000 0.00000000 0.00000000
Neuron 16 3 0.25000000 1 3.85227799 0.00000000 0.00000000 0.00000000
Neuron 27 3 0.75000000 8 5.31798550 0.00000000 0.00000000 0.00000000
Link 1 7 1 0 -0.32791097
Link 2 7 2 0 0.09108137
Link 3 7 3 0 -0.45128169
Link 5 7 5 0 0.45247080
Link 6 7 6 0 0.24872699
Link 1 8 7 0 -0.50584892
Link 3 8 9 0 0.41596603
Link 4 8 10 0 0.26096119
Link 5 8 11 0 0.43830590
Link 6 8 12 0 0.42940584
Link 4 10 17 0 0.65815958
Link 10 7 18 0 -0.04117921
Link 2 16 43 0 1.02742081
Link 16 14 44 0 -0.32178428
Link 14 27 96 0 0.88508436
Link 27 8 97 0 -0.19478940
GenomeEnd

GenomeStart 5128
Genome Fitness: 166.000000 
Neuron 1 1 0.00000000 1 0.00000000 0.00000000 0.00000000 0.00000000
Neuron 2 1 0.00000000 1 0.00000000 0.00000000 0.00000000 0.00000000
Neuron 3 1 0.00000000 1 0.00000000 0.00000000 0.00000000 0.00000000
Neuron 4 1 0.00000000 1 0.00000000 0.00000000 0.00000000 0.00000000
Neuron 5 1 0.00000000 1 0.00000000 0.00000000 0.00000000 0.00000000
Neuron 6 2 0.00000000 1 0.00000000 0.00000000 0.00000000 0.00000000
Neuron 7 4 1.00000000 1 3.02500000 0.00000000 0.00000000 0.00000000
Neuron 8 4 1.00000000 1 3.02500000 0.00000000 0.00000000 0.00000000
Neuron 10 3 0.50000000 4 4.46394765 0.00000000 0.00000000 0.00000000
Neuron 14 3 0.50000000 6 3.56554023 0.00000000 0.00000000 0.00000000
Neuron 16 3 0.25000000 1 3.85227799 0.00000000 0.00000000 0.00000000
Neuron 27 3 0.75000000 8 5.31798550 0.00000000 0.00000000 0.00000000
Link 1 7 1 0 -0.37571552
Link 2 7 2 0 0.25930908
Link 3 7 3 0 -0.55717421
Link 5 7 5 0 0.45247080
Link 6 7 6 0 0.24872699
Link 1 8 7 0 -0.72329929
Link 3 8 9 0 0.41596603
Link 4 8 10 0 0.14034916
Link 5 8 11 0 0.43830590
Link 6 8 12 0 0.42940584
Link 4 10 17 0 0.79164158
Link 10 7 18 0 -0.04117921
Link 2 16 43 0 1.02742081
Link 16 14 44 0 1.07948279
Link 14 27 96 0 0.88508436
Link 27 8 97 0 -0.19478940
GenomeEnd

GenomeStart 5129
Genome Fitness: 160.000000 
Neuron 1 1 0.00000000 1 0.00000000 0.00000000 0.00000000 0.00000000
Neuron 2 1 0.00000000 1 0.00000000 0.00000000 0.00000000 0.00000000
Neuron 3 1 0.00000000 1 0.00000000 0.00000000 0.00000000 0.00000000
Neuron 4 1 0.00000000 1 0.00000000 0.00000000 0.00000000 0.00000000
Neuron 5 1 0.00000000 1 0.00000000 0.00000000 0.00000000 0.00000000
Neuron 6 2 0.00000000 1 0.00000000 0.00000000 0.00000000 0.00000000
Neuron 7 4 1.00000000 1 3.02500000 0.00000000 0.00000000 0.00000000
Neuron 8 4 1.00000000 1 3.02500000 0.00000000 0.00000000 0.00000000
Neuron 10 3 0.50000000 4 4.46394765 0.00000000 0.00000000 0.00000000
Link 1 7 1 0 0.05835593
Link 2 7 2 0 0.31485792
Link 3 7 3 0 -0.75361677
Link 5 7 5 0 0.18724586
Link 6 7 6 0 0.32431415
Link 1 8 7 0 -0.44477485
Link 2 8 8 0 -0.30566209
Link 3 8 9 0 0.57146336
Link 4 8 10 0 0.23972057
Link 5 8 11 0 0.41175159
Link 6 8 12 0 0.23049158
Link 4 10 17 0 0.89027250
Link 10 7 18 0 -0.17137236
GenomeEnd

GenomeStart 5130
Genome Fitness: 160.000000 
Neuron 1 1 0.00000000 1 0.00000000 0.00000000 0.00000000 0.00000000
Neuron 2 1 0.00000000 1 0.00000000 0.00000000 0.00000000 0.00000000
Neuron 3 1 0.00000000 1 0.00000000 0.00000000 0.00000000 0.00000000
Neuron 4 1 0.00000000 1 0.00000000 0.00000000 0.00000000 0.00000000
Neuron 5 1 0.00000000 1 0.00000000 0.00000000 0.00000000 0.00000000
Neuron 6 2 0.00000000 1 0.00000000 0.00000000 0.00000000 0.00000000
Neuron 7 4 1.00000000 1 3.02500000 0.00000000 0.00000000 0.00000000
Neuron 8 4 1.00000000 1 3.02500000 0.00000000 0.00000000 0.00000000
Neuron 10 3 0.50000000 4 4.46394765 0.00000000 0.00000000 0.00000000
Link 1 7 1 0 0.05835593
Link 2 7 2 0 0.31485792
Link 3 7 3 0 -0.75361677
Link 5 7 5 0 0.18724586
Link 6 7 6 0 0.32431415
Link 1 8 7 0 -0.44477485
Link 2 8 8 0 -0.30566209
Link 3 8 9 0 0.57146336
Link 4 8 10 0 0.23972057
Link 5 8 11 0 0.41175159
Link 6 8 12 0 0.23049158
Link 4 10 17 0 0.89027250
Link 10 7 18 0 -0.17137236
GenomeEnd

GenomeStart 5131
Genome Fitness: 101.000000 
Neuron 1 1 0.00000000 1 0.00000000 0.00000000 0.00000000 0.00000000
Neuron 2 1 0.00000000 1 0.00000000 0.00000000 0.00000000 0.00000000
Neuron 3 1 0.00000000 1 0.00000000 0.00000000 0.00000000 0.00000000
Neuron 4 1 0.00000000 1 0.00000000 0.00000000 0.00000000 0.00000000
Neuron 5 1 0.00000000 1 0.00000000 0.00000000 0.00000000 0.00000000
Neuron 6 2 0.00000000 1 0.00000000 0.00000000 0.00000000 0.00000000
Neuron 7 4 1.00000000 1 3.02500000 0.00000000 0.00000000 0.00000000
Neuron 8 4 1.00000000 1 3.02500000 0.00000000 0.00000000 0.00000000
Neuron 10 3 0.50000000 4 4.46394765 0.00000000 0.00000000 0.00000000
Link 1 7 1 0 -0.03960013
Link 2 7 2 0 0.33188218
Link 3 7 3 0 -0.70308322
Link 5 7 5 0 0.05051139
Link 6 7 6 0 0.31271059
Link 1 8 7 0 -0.39657256
Link 2 8 8 0 -0.25877350
Link 3 8 9 0 0.79687641
Link 4 8 10 0 0.39565630
Link 5 8 11 0 0.35865572
Link 6 8 12 0 0.13494704
Link 4 10 17 0 0.87731477
Link 10 7 18 0 -0.18350652
GenomeEnd

GenomeStart 5132
Genome Fitness: 160.000000 
Neuron 1 1 0.00000000 1 0.00000000 0.00000000 0.00000000 0.00000000
Neuron 2 1 0.00000000 1 0.00000000 0.00000000 0.00000000 0.00000000
Neuron 3 1 0.00000000 1 0.00000000 0.00000000 0.00000000 0.00000000
Neuron 4 1 0.00000000 1 0.00000000 0.00000000 0.00000000 0.00000000
Neuron 5 1 0.00000000 1 0.00000000 0.00000000 0.00000000 0.00000000
Neuron 6 2 0.00000000 1 0.00000000 0.00000000 0.00000000 0.00000000
Neuron 7 4 1.00000000 1 3.02500000 0.00000000 0.00000000 0.00000000
Neuron 8 4 1.00000000 1 3.02500000 0.00000000 0.00000000 0.00000000
Neuron 10 3 0.50000000 4 4.46394765 0.00000000 0.00000000 0.00000000
Neuron 20 3 0.25000000 8 0.67034171 0.00000000 0.00000000 0.00000000
Link 1 7 1 0 0.05835593
Link 2 7 2 0 0.31485792
Link 3 7 3 0 -0.75361677
Link 5 7 5 0 0.18724586
Link 6 7 6 0 0.32431415
Link 1 8 7 0 -0.44477485
Link 2 8 8 0 -0.30566209
Link 3 8 9 0 0.57146336
Link 4 8 10 0 0.23972057
Link 5 8 11 0 0.41175159
Link 6 8 12 0 0.23049158
Link 10 7 18 0 -0.17137236
Link 4 20 63 0 1.00000000
Link 20 10 64 0 0.89027250
GenomeEnd

GenomeStart 5133
Genome Fitness: 159.000000 
Neuron 1 1 0.00000000 1 0.00000000 0.00000000 0.00000000 0.00000000
Neuron 2 1 0.00000000 1 0.00000000 0.00000000 0.00000000 0.00000000
Neuron 3 1 0.00000000 1 0.00000000 0.00000000 0.00000000 0.00000000
Neuron 4 1 0.00000000 1 0.00000000 0.00000000 0.00000000 0.00000000
Neuron 5 1 0.00000000 1 0.00000000 0.00000000 0.00000000 0.00000000
Neuron 6 2 0.00000000 1 0.00000000 0.00000000 0.00000000 0.00000000
Neuron 7 4 1.00000000 1 3.02500000 0.00000000 0.00000000 0.00000000
Neuron 8 4 1.00000000 1 3.02500000 0.00000000 0.00000000 0.00000000
Neuron 10 3 0.50000000 4 4.46394765 0.00000000 0.00000000 0.00000000
Link 1 7 1 0 0.05835593
Link 2 7 2 0 0.31485792
Link 3 7 3 0 -0.75361677
Link 5 7 5 0 0.18724586
Link 6 7 6 0 0.32431415
Link 1 8 7 0 -0.44477485
Link 2 8 8 0 -0.30566209
Link 3 8 9 0 0.57146336
Link 4 8 10 0 0.23972057
Link 5 8 11 0 0.41175159
Link 6 8 12 0 0.23049158
Link 4 10 17 0 0.89027250
Link 10 7 18 0 -0.17137236
GenomeEnd

GenomeStart 5134
Genome Fitness: 157.000000 
Neuron 1 1 0.00000000 1 0.00000000 0.00000000 0.00000000 0.00000000
Neuron 2 1 0.00000000 1 0.00000000 0.00000000 0.00000000 0.00000000
Neuron 3 1 0.00000000 1 0.00000000 0.00000000 0.00000000 0.00000000
Neuron 4 1 0.00000000 1 0.00000000 0.00000000 0.00000000 0.00000000
Neuron 5 1 0.00000000 1 0.00000000 0.00000000 0.00000000 0.00000000
Neuron 6 2 0.00000000 1 0.00000000 0.00000000 0.00000000 0.00000000
Neuron 7 4 1.00000000 1 3.02500000 0.00000000 0.00000000 0.00000000
Neuron 8 4 1.00000000 1 3.02500000 0.00000000 0.00000000 0.00000000
Neuron 10 3 0.50000000 4 4.46394765 0.00000000 0.00000000 0.00000000
Link 1 7 1 0 0.23091232
Link 2 7 2 0 0.25583578
Link 3 7 3 0 -0.57744861
Link 5 7 5 0 0.06991318
Link 6 7 6 0 0.30378047
Link 1 8 7 0 -0.58704544
Link 2 8 8 0 -0.26697539
Link 3 8 9 0 0.56060681
Link 4 8 10 0 0.31028563
Link 5 8 11 0 0.43304830
Link 6 8 12 0 0.23090432
Link 4 10 17 0 0.85376436
Link 10 7 18 0 -0.07430553
GenomeEnd

GenomeStart 5135
Genome Fitness: 160.000000 
Neuron 1 1 0.00000000 1 0.00000000 0.00000000 0.00000000 0.00000000
Neuron 2 1 0.00000000 1 0.00000000 0.00000000 0.00000000 0.00000000
Neuron 3 1 0.00000000 1 0.00000000 0.00000000 0.00000000 0.00000000
Neuron 4 1 0.00000000 1 0.00000000 0.00000000 0.00000000 0.00000000
Neuron 5 1 0.00000000 1 0.00000000 0.00000000 0.00000000 0.00000000
Neuron 6 2 0.00000000 1 0.00000000 0.00000000 0.00000000 0.00000000
Neuron 7 4 1.00000000 1 3.02500000 0.00000000 0.00000000 0.00000000
Neuron 8 4 1.00000000 1 3.02500000 0.00000000 0.00000000 0.00000000
Neuron 10 3 0.50000000 4 4.46394765 0.00000000 0.00000000 0.00000000
Link 1 7 1 0 0.05835593
Link 2 7 2 0 0.31485792
Link 3 7 3 0 -0.75361677
Link 5 7 5 0 0.18724586
Link 6 7 6 0 0.32431415
Link 1 8 7 0 -0.44477485
Link 2 8 8 0 -0.30566209
Link 3 8 9 0 0.57146336
Link 4 8 10 0 0.23972057
Link 5 8 11 0 0.41175159
Link 6 8 12 0 0.23049158
Link 4 10 17 0 0.89027250
Link 10 7 18 0 -0.17137236
GenomeEnd

GenomeStart 5169
Genome Fitness: 158.000000 
Neuron 1 1 0.00000000 1 0.00000000 0.00000000 0.00000000 0.00000000
Neuron 2 1 0.00000000 1 0.00000000 0.00000000 0.00000000 0.00000000
Neuron 3 1 0.00000000 1 0.00000000 0.00000000 0.00000000 0.00000000
Neuron 4 1 0.00000000 1 0.00000000 0.00000000 0.00000000 0.00000000
Neuron 5 1 0.00000000 1 0.00000000 0.00000000 0.00000000 0.00000000
Neuron 6 2 0.00000000 1 0.00000000 0.00000000 0.00000000 0.00000000
Neuron 7 4 1.00000000 1 3.02500000 0.00000000 0.00000000 0.00000000
Neuron 8 4 1.00000000 1 3.02500000 0.00000000 0.00000000 0.00000000
Neuron 10 3 0.50000000 4 4.46394765 0.00000000 0.00000000 0.00000000
Neuron 15 3 0.50000000 11 2.74372697 0.00000000 0.00000000 0.00000000
Link 1 7 1 0 -0.01984820
Link 2 7 2 0 0.11452993
Link 3 7 3 0 -1.00261104
Link 5 7 5 0 0.00071272
Link 6 7 6 0 0.20694731
Link 1 8 7 0 -0.56172355
Link 2 8 8 0 -0.12865815
Link 3 8 9 0 0.44866919
Link 4 8 10 0 0.41892858
Link 6 8 12 0 0.35091112
Link 4 10 17 0 0.98413674
Link 10 7 18 0 -0.32810321
Link 5 15 38 0 1.11116523
Link 15 8 39 0 0.31589166
Link 10 8 53 0 -0.28220738
GenomeEnd

GenomeStart 5170
Genome Fitness: 158.000000 
Neuron 1 1 0.00000000 1 0.00000000 0.00000000 0.00000000 0.00000000
Neuron 2 1 0.00000000 1 0.00000000 0.00000000 0.00000000 0.00000000
Neuron 3 1 0.00000000 1 0.00000000 0.00000000 0.00000000 0.00000000
Neuron 4 1 0.00000000 1 0.00000000 0.00000000 0.00000000 0.00000000
Neuron 5 1 0.00000000 1 0.00000000 0.00000000 0.00000000 0.00000000
Neuron 6 2 0.00000000 1 0.00000000 0.00000000 0.00000000 0.00000000
Neuron 7 4 1.00000000 1 3.02500000 0.00000000 0.00000000 0.00000000
Neuron 8 4 1.00000000 1 3.02500000 0.00000000 0.00000000 0.00000000
Neuron 10 3 0.50000000 4 4.46394765 0.00000000 0.00000000 0.00000000
Neuron 15 3 0.50000000 11 2.74372697 0.00000000 0.00000000 0.00000000
Link 1 7 1 0 -0.10802441
Link 2 7 2 0 -0.03358259
Link 3 7 3 0 -1.01261026
Link 5 7 5 0 0.01205778
Link 6 7 6 0 0.21015934
Link 1 8 7 0 -0.58998681
Link 2 8 8 0 -0.13805212
Link 3 8 9 0 0.46370068
Link 4 8 10 0 0.41892858
Link 6 8 12 0 0.31547555
Link 4 10 17 0 0.88357525
Link 10 7 18 0 -0.23262834
Link 5 15 38 0 1.00000000
Link 15 8 39 0 0.34979701
Link 10 8 53 0 -0.12194765
GenomeEnd

GenomeStart 5172
Genome Fitness: 158.000000 
Neuron 1 1 0.00000000 1 0.00000000 0.00000000 0.00000000 0.00000000
Neuron 2 1 0.00000000 1 0.00000000 0.00000000 0.00000000 0.00000000
Neuron 3 1 0.00000000 1 0.00000000 0.00000000 0.00000000 0.00000000
Neuron 4 1 0.00000000 1 0.00000000 0.00000000 0.00000000 0.00000000
Neuron 5 1 0.00000000 1 0.00000000 0.00000000 0.00000000 0.00000000
Neuron 6 2 0.00000000 1 0.00000000 0.00000000 0.00000000 0.00000000
Neuron 7 4 1.00000000 1 3.02500000 0.00000000 0.00000000 0.00000000
Neuron 8 4 1.00000000 1 3.02500000 0.00000000 0.00000000 0.00000000
Neuron 10 3 0.50000000 4 4.46394765 0.00000000 0.00000000 0.00000000
Neuron 15 3 0.50000000 11 2.74372697 0.00000000 0.00000000 0.00000000
Link 1 7 1 0 -0.03205500
Link 2 7 2 0 0.22495418
Link 3 7 3 0 -0.99891977
Link 5 7 5 0 -0.00005814
Link 6 7 6 0 0.36919330
Link 1 8 7 0 -0.53683347
Link 2 8 8 0 -0.10736784
Link 3 8 9 0 0.48432481
Link 4 8 10 0 0.44669983
Link 6 8 12 0 0.67825392
Link 4 10 17 0 1.03754679
Link 10 7 18 0 -0.37168315
Link 5 15 38 0 1.00183299
Link 15 8 39 0 0.26043113
Link 10 8 53 0 -0.17619305
GenomeEnd

GenomeStart 5173
Genome Fitness: 101.000000 
Neuron 1 1 0.00000000 1 0.00000000 0.00000000 0.00000000 0.00000000
Neuron 2 1 0.00000000 1 0.00000000 0.00000000 0.00000000 0.00000000
Neuron 3 1 0.00000000 1 0.00000000 0.00000000 0.00000000 0.00000000
Neuron 4 1 0.00000000 1 0.00000000 0.00000000 0.00000000 0.00000000
Neuron 5 1 0.00000000 1 0.00000000 0.00000000 0.00000000 0.00000000
Neuron 6 2 0.00000000 1 0.00000000 0.00000000 0.00000000 0.00000000
Neuron 7 4 1.00000000 1 3.02500000 0.00000000 0.00000000 0.00000000
Neuron 8 4 1.00000000 1 3.02500000 0.00000000 0.00000000 0.00000000
Neuron 10 3 0.50000000 4 4.46394765 0.00000000 0.00000000 0.00000000
Neuron 15 3 0.50000000 11 2.74372697 0.00000000 0.00000000 0.00000000
Link 1 7 1 0 -0.01722140
Link 2 7 2 0 0.12109972
Link 3 7 3 0 -0.87738313
Link 5 7 5 0 -0.02536267
Link 6 7 6 0 0.38639570
Link 1 8 7 0 -0.64586749
Link 2 8 8 0 0.08738623
Link 3 8 9 0 0.44600965
Link 4 8 10 0 0.63201599
Link 6 8 12 0 0.35846503
Link 4 10 17 0 0.95159435
Link 10 7 18 0 -0.17491453
Link 5 15 38 0 1.05900755
Link 15 8 39 0 0.32528876
Link 10 8 53 0 -0.16101419
GenomeEnd

GenomeStart 5174
Genome Fitness: 158.000000 
Neuron 1 1 0.00000000 1 0.00000000 0.00000000 0.00000000 0.00000000
Neuron 2 1 0.00000000 1 0.00000000 0.00000000 0.00000000 0.00000000
Neuron 3 1 0.00000000 1 0.00000000 0.00000000 0.00000000 0.00000000
Neuron 4 1 0.00000000 1 0.00000000 0.00000000 0.00000000 0.00000000
Neuron 5 1 0.00000000 1 0.00000000 0.00000000 0.00000000 0.00000000
Neuron 6 2 0.00000000 1 0.00000000 0.00000000 0.00000000 0.00000000
Neuron 7 4 1.00000000 1 3.02500000 0.00000000 0.00000000 0.00000000
Neuron 8 4 1.00000000 1 3.02500000 0.00000000 0.00000000 0.00000000
Neuron 10 3 0.50000000 4 4.46394765 0.00000000 0.00000000 0.00000000
Neuron 15 3 0.50000000 11 2.74372697 0.00000000 0.00000000 0.00000000
Link 1 7 1 0 -0.18600174
Link 2 7 2 0 0.10254719
Link 3 7 3 0 -0.91844439
Link 5 7 5 0 0.13420579
Link 6 7 6 0 0.26496766
Link 1 8 7 0 -0.56322660
Link 2 8 8 0 -0.11520352
Link 3 8 9 0 0.54528068
Link 4 8 10 0 0.33517978
Link 6 8 12 0 0.25596097
Link 4 10 17 0 0.94847579
Link 10 7 18 0 -0.39690878
Link 5 15 38 0 0.92480980
Link 15 8 39 0 0.30570441
Link 10 8 53 0 -0.22975347
GenomeEnd

GenomeStart 5186
Genome Fitness: 160.000000 
Neuron 1 1 0.00000000 1 0.00000000 0.00000000 0.00000000 0.00000000
Neuron 2 1 0.00000000 1 0.00000000 0.00000000 0.00000000 0.00000000
Neuron 3 1 0.00000000 1 0.00000000 0.00000000 0.00000000 0.00000000
Neuron 4 1 0.00000000 1 0.00000000 0.00000000 0.00000000 0.00000000
Neuron 5 1 0.00000000 1 0.00000000 0.00000000 0.00000000 0.00000000
Neuron 6 2 0.00000000 1 0.00000000 0.00000000 0.00000000 0.00000000
Neuron 7 4 1.00000000 1 3.02500000 0.00000000 0.00000000 0.00000000
Neuron 8 4 1.00000000 1 3.02500000 0.00000000 0.00000000 0.00000000
Neuron 10 3 0.50000000 4 4.46394765 0.00000000 0.00000000 0.00000000
Neuron 17 3 0.50000000 1 3.70651845 0.00000000 0.00000000 0.00000000
Link 2 7 2 0 0.31485792
Link 3 7 3 0 -0.75361677
Link 4 7 4 0 -0.01854156
Link 5 7 5 0 0.18724586
Link 6 7 6 0 0.32431415
Link 1 8 7 0 -0.44477485
Link 2 8 8 0 -0.30566209
Link 3 8 9 0 0.57146336
Link 4 8 10 0 0.23972057
Link 5 8 11 0 0.41175159
Link 6 8 12 0 0.23049158
Link 4 10 17 0 0.89027250
Link 10 7 18 0 -0.17137236
Link 1 17 46 0 1.00000000
Link 17 7 47 0 0.05835593
GenomeEnd

GenomeStart 5187
Genome Fitness: 101.000000 
Neuron 1 1 0.00000000 1 0.00000000 0.00000000 0.00000000 0.00000000
Neuron 2 1 0.00000000 1 0.00000000 0.00000000 0.00000000 0.00000000
Neuron 3 1 0.00000000 1 0.00000000 0.00000000 0.00000000 0.00000000
Neuron 4 1 0.00000000 1 0.00000000 0.00000000 0.00000000 0.00000000
Neuron 5 1 0.00000000 1 0.00000000 0.00000000 0.00000000 0.00000000
Neuron 6 2 0.00000000 1 0.00000000 0.00000000 0.00000000 0.00000000
Neuron 7 4 1.00000000 1 3.02500000 0.00000000 0.00000000 0.00000000
Neuron 8 4 1.00000000 1 3.02500000 0.00000000 0.00000000 0.00000000
Neuron 10 3 0.50000000 4 4.46394765 0.00000000 0.00000000 0.00000000
Neuron 17 3 0.50000000 1 3.70651845 0.00000000 0.00000000 0.00000000
Link 2 7 2 0 0.37429384
Link 3 7 3 0 -0.80206098
Link 4 7 4 0 0.11792863
Link 5 7 5 0 0.02623926
Link 6 7 6 0 0.36934801
Link 1 8 7 0 -0.48515351
Link 2 8 8 0 -0.13665078
Link 3 8 9 0 0.52665992
Link 4 8 10 0 0.16987025
Link 5 8 11 0 0.33220300
Link 6 8 12 0 0.21799994
Link 4 10 17 0 0.89157551
Link 10 7 18 0 -0.02525001
Link 1 17 46 0 1.17855095
Link 17 7 47 0 -0.08121000
GenomeEnd

GenomeStart 5188
Genome Fitness: 34.000000 
Neuron 1 1 0.00000000 1 0.00000000 0.00000000 0.00000000 0.00000000
Neuron 2 1 0.00000000 1 0.00000000 0.00000000 0.00000000 0.00000000
Neuron 3 1 0.00000000 1 0.00000000 0.00000000 0.00000000 0.00000000
Neuron 4 1 0.00000000 1 0.00000000 0.00000000 0.00000000 0.00000000
Neuron 5 1 0.00000000 1 0.00000000 0.00000000 0.00000000 0.00000000
Neuron 6 2 0.00000000 1 0.00000000 0.00000000 0.00000000 0.00000000
Neuron 7 4 1.00000000 1 3.02500000 0.00000000 0.00000000 0.00000000
Neuron 8 4 1.00000000 1 3.02500000 0.00000000 0.00000000 0.00000000
Neuron 10 3 0.50000000 4 4.46394765 0.00000000 0.00000000 0.00000000
Neuron 17 3 0.50000000 1 3.70651845 0.00000000 0.00000000 0.00000000
Link 2 7 2 0 0.42613105
Link 3 7 3 0 -0.63382351
Link 4 7 4 0 -0.04151126
Link 5 7 5 0 0.18297989
Link 6 7 6 0 0.31305214
Link 1 8 7 0 -0.33610536
Link 2 8 8 0 -0.25650280
Link 3 8 9 0 0.59365309
Link 4 8 10 0 0.23959768
Link 5 8 11 0 0.31401901
Link 6 8 12 0 0.27176745
Link 4 10 17 0 0.99224069
Link 10 7 18 0 -0.26389882
Link 1 17 46 0 0.96796605
Link 17 7 47 0 0.10760399
GenomeEnd

GenomeStart 5189
Genome Fitness: 147.000000 
Neuron 1 1 0.00000000 1 0.00000000 0.00000000 0.00000000 0.00000000
Neuron 2 1 0.00000000 1 0.00000000 0.00000000 0.00000000 0.00000000
Neuron 3 1 0.00000000 1 0.00000000 0.00000000 0.00000000 0.00000000
Neuron 4 1 0.00000000 1 0.00000000 0.00000000 0.00000000 0.00000000
Neuron 5 1 0.00000000 1 0.00000000 0.00000000 0.00000000 0.00000000
Neuron 6 2 0.00000000 1 0.00000000 0.00000000 0.00000000 0.00000000
Neuron 7 4 1.00000000 1 3.02500000 0.00000000 0.00000000 0.00000000
Neuron 8 4 1.00000000 1 3.02500000 0.00000000 0.00000000 0.00000000
Neuron 10 3 0.50000000 4 4.46394765 0.00000000 0.00000000 0.00000000
Neuron 17 3 0.50000000 1 3.70651845 0.00000000 0.00000000 0.00000000
Link 2 7 2 0 0.41565389
Link 3 7 3 0 -0.68336486
Link 4 7 4 0 -0.10716293
Link 5 7 5 0 0.16911804
Link 6 7 6 0 0.31169938
Link 1 8 7 0 -0.48514306
Link 2 8 8 0 -0.24427214
Link 3 8 9 0 0.54740002
Link 4 8 10 0 0.24660303
Link 5 8 11 0 0.39085498
Link 6 8 12 0 0.27050078
Link 4 10 17 0 0.95202881
Link 10 7 18 0 -0.19068573
Link 1 17 46 0 1.13839161
Link 17 7 47 0 0.12894478
GenomeEnd

GenomeStart 5190
Genome Fitness: 101.000000 
Neuron 1 1 0.00000000 1 0.00000000 0.00000000 0.00000000 0.00000000
Neuron 2 1 0.00000000 1 0.00000000 0.00000000 0.00000000 0.00000000
Neuron 3 1 0.00000000 1 0.00000000 0.00000000 0.00000000 0.00000000
Neuron 4 1 0.00000000 1 0.00000000 0.00000000 0.00000000 0.00000000
Neuron 5 1 0.00000000 1 0.00000000 0.00000000 0.00000000 0.00000000
Neuron 6 2 0.00000000 1 0.00000000 0.00000000 0.00000000 0.00000000
Neuron 7 4 1.00000000 1 3.02500000 0.00000000 0.00000000 0.00000000
Neuron 8 4 1.00000000 1 3.02500000 0.00000000 0.00000000 0.00000000
Neuron 10 3 0.50000000 4 4.46394765 0.00000000 0.00000000 0.00000000
Neuron 17 3 0.50000000 1 3.70651845 0.00000000 0.00000000 0.00000000
Link 2 7 2 0 0.31485792
Link 3 7 3 0 -0.90888088
Link 4 7 4 0 -0.01854156
Link 5 7 5 0 0.17395109
Link 6 7 6 0 0.12951933
Link 1 8 7 0 -0.44477485
Link 2 8 8 0 -0.43177650
Link 3 8 9 0 0.68378488
Link 4 8 10 0 0.32863074
Link 5 8 11 0 0.41175159
Link 6 8 12 0 0.23049158
Link 4 10 17 0 0.89027250
Link 10 7 18 0 -0.15484114
Link 1 17 46 0 0.90771781
Link 17 7 47 0 0.19589603
GenomeEnd

GenomeStart 5136
Genome Fitness: 159.000000 
Neuron 1 1 0.00000000 1 0.00000000 0.00000000 0.00000000 0.00000000
Neuron 2 1 0.00000000 1 0.00000000 0.00000000 0.00000000 0.00000000
Neuron 3 1 0.00000000 1 0.00000000 0.00000000 0.00000000 0.00000000
Neuron 4 1 0.00000000 1 0.00000000 0.00000000 0.00000000 0.00000000
Neuron 5 1 0.00000000 1 0.00000000 0.00000000 0.00000000 0.00000000
Neuron 6 2 0.00000000 1 0.00000000 0.00000000 0.00000000 0.00000000
Neuron 7 4 1.00000000 1 3.02500000 0.00000000 0.00000000 0.00000000
Neuron 8 4 1.00000000 1 3.02500000 0.00000000 0.00000000 0.00000000
Neuron 10 3 0.50000000 4 4.46394765 0.00000000 0.00000000 0.00000000
Neuron 12 3 0.50000000 6 1.76047634 0.00000000 0.00000000 0.00000000
Neuron 21 3 0.75000000 4 0.89827218 0.00000000 0.00000000 0.00000000
Link 1 7 1 0 0.05835593
Link 2 7 2 0 0.31485792
Link 3 7 3 0 -0.75361677
Link 5 7 5 0 0.18752684
Link 6 7 6 0 0.32431415
Link 1 8 7 0 -0.44477485
Link 2 8 8 0 -0.30566209
Link 3 8 9 0 0.57146336
Link 4 8 10 0 0.23972057
Link 5 8 11 0 0.41175159
Link 6 8 12 0 0.23049158
Link 4 10 17 0 0.89027250
Link 5 12 28 0 -0.00166394
Link 12 7 29 0 0.19017421
Link 10 21 68 0 1.00000000
Link 21 7 69 0 -0.17973934
GenomeEnd

GenomeStart 5137
Genome Fitness: 159.000000 
Neuron 1 1 0.00000000 1 0.00000000 0.00000000 0.00000000 0.00000000
Neuron 2 1 0.00000000 1 0.00000000 0.00000000 0.00000000 0.00000000
Neuron 3 1 0.00000000 1 0.00000000 0.00000000 0.00000000 0.00000000
Neuron 4 1 0.00000000 1 0.00000000 0.00000000 0.00000000 0.00000000
Neuron 5 1 0.00000000 1 0.00000000 0.00000000 0.00000000 0.00000000
Neuron 6 2 0.00000000 1 0.00000000 0.00000000 0.00000000 0.00000000
Neuron 7 4 1.00000000 1 3.02500000 0.00000000 0.00000000 0.00000000
Neuron 8 4 1.00000000 1 3.02500000 0.00000000 0.00000000 0.00000000
Neuron 10 3 0.50000000 4 4.46394765 0.00000000 0.00000000 0.00000000
Neuron 12 3 0.50000000 6 1.76047634 0.00000000 0.00000000 0.00000000
Neuron 21 3 0.75000000 4 0.89827218 0.00000000 0.00000000 0.00000000
Link 1 7 1 0 0.05835593
Link 2 7 2 0 0.31485792
Link 3 7 3 0 -0.75361677
Link 5 7 5 0 0.18752684
Link 6 7 6 0 0.32431415
Link 1 8 7 0 -0.44477485
Link 2 8 8 0 -0.30566209
Link 3 8 9 0 0.57146336
Link 4 8 10 0 0.23972057
Link 5 8 11 0 0.41175159
Link 6 8 12 0 0.23049158
Link 4 10 17 0 0.89027250
Link 5 12 28 0 -0.00166394
Link 12 7 29 0 0.19017421
Link 10 21 68 0 1.00000000
Link 21 7 69 0 -0.17973934
GenomeEnd

GenomeStart 5138
Genome Fitness: 101.000000 
Neuron 1 1 0.00000000 1 0.00000000 0.00000000 0.00000000 0.00000000
Neuron 2 1 0.00000000 1 0.00000000 0.00000000 0.00000000 0.00000000
Neuron 3 1 0.00000000 1 0.00000000 0.00000000 0.00000000 0.00000000
Neuron 4 1 0.00000000 1 0.00000000 0.00000000 0.00000000 0.00000000
Neuron 5 1 0.00000000 1 0.00000000 0.00000000 0.00000000 0.00000000
Neuron 6 2 0.00000000 1 0.00000000 0.00000000 0.00000000 0.00000000
Neuron 7 4 1.00000000 1 3.02500000 0.00000000 0.00000000 0.00000000
Neuron 8 4 1.00000000 1 3.02500000 0.00000000 0.00000000 0.00000000
Neuron 10 3 0.50000000 4 4.46394765 0.00000000 0.00000000 0.00000000
Neuron 12 3 0.50000000 6 1.76047634 0.00000000 0.00000000 0.00000000
Neuron 21 3 0.75000000 4 0.89827218 0.00000000 0.00000000 0.00000000
Link 1 7 1 0 -0.03359987
Link 2 7 2 0 0.32832515
Link 3 7 3 0 -0.66842742
Link 5 7 5 0 -0.08934376
Link 6 7 6 0 0.35283947
Link 1 8 7 0 -0.23596569
Link 2 8 8 0 -0.10924983
Link 3 8 9 0 0.70607721
Link 4 8 10 0 0.11483206
Link 5 8 11 0 0.40542940
Link 6 8 12 0 0.26043178
Link 4 10 17 0 1.05757519
Link 5 12 28 0 0.14857337
Link 12 7 29 0 0.17953448
Link 10 21 68 0 1.03382568
Link 21 7 69 0 -0.15311665
GenomeEnd

GenomeStart 5139
Genome Fitness: 136.000000 
Neuron 1 1 0.00000000 1 0.00000000 0.00000000 0.00000000 0.00000000
Neuron 2 1 0.00000000 1 0.00000000 0.00000000 0.00000000 0.00000000
Neuron 3 1 0.00000000 1 0.00000000 0.00000000 0.00000000 0.00000000
Neuron 4 1 0.00000000 1 0.00000000 0.00000000 0.00000000 0.00000000
Neuron 5 1 0.00000000 1 0.00000000 0.00000000 0.00000000 0.00000000
Neuron 6 2 0.00000000 1 0.00000000 0.00000000 0.00000000 0.00000000
Neuron 7 4 1.00000000 1 3.02500000 0.00000000 0.00000000 0.00000000
Neuron 8 4 1.00000000 1 3.02500000 0.00000000 0.00000000 0.00000000
Neuron 10 3 0.50000000 4 4.46394765 0.00000000 0.00000000 0.00000000
Neuron 12 3 0.50000000 6 1.76047634 0.00000000 0.00000000 0.00000000
Neuron 21 3 0.75000000 4 0.89827218 0.00000000 0.00000000 0.00000000
Link 1 7 1 0 -0.03768299
Link 2 7 2 0 0.27634278
Link 3 7 3 0 -0.65722761
Link 5 7 5 0 0.23184951
Link 6 7 6 0 0.19562587
Link 1 8 7 0 -0.37782893
Link 2 8 8 0 0.12801495
Link 3 8 9 0 -0.05172119
Link 4 8 10 0 0.09242453
Link 5 8 11 0 0.61180105
Link 6 8 12 0 0.18065864
Link 4 10 17 0 0.91012889
Link 5 12 28 0 -0.07640503
Link 12 7 29 0 0.07062286
Link 10 21 68 0 -0.00208232
Link 21 7 69 0 -0.26201202
GenomeEnd

GenomeStart 5140
Genome Fitness: 101.000000 
Neuron 1 1 0.00000000 1 0.00000000 0.00000000 0.00000000 0.00000000
Neuron 2 1 0.00000000 1 0.00000000 0.00000000 0.00000000 0.00000000
Neuron 3 1 0.00000000 1 0.00000000 0.00000000 0.00000000 0.00000000
Neuron 4 1 0.00000000 1 0.00000000 0.00000000 0.00000000 0.00000000
Neuron 5 1 0.00000000 1 0.00000000 0.00000000 0.00000000 0.00000000
Neuron 6 2 0.00000000 1 0.00000000 0.00000000 0.00000000 0.00000000
Neuron 7 4 1.00000000 1 3.02500000 0.00000000 0.00000000 0.00000000
Neuron 8 4 1.00000000 1 3.02500000 0.00000000 0.00000000 0.00000000
Neuron 10 3 0.50000000 4 4.46394765 0.00000000 0.00000000 0.00000000
Neuron 12 3 0.50000000 6 1.76047634 0.00000000 0.00000000 0.00000000
Neuron 21 3 0.75000000 4 0.89827218 0.00000000 0.00000000 0.00000000
Link 1 7 1 0 0.05835593
Link 2 7 2 0 0.31485792
Link 3 7 3 0 -0.62911643
Link 5 7 5 0 0.18752684
Link 6 7 6 0 0.40512060
Link 1 8 7 0 -0.36483419
Link 2 8 8 0 -0.15490416
Link 3 8 9 0 0.57146336
Link 4 8 10 0 0.23972057
Link 5 8 11 0 0.41175159
Link 6 8 12 0 0.23049158
Link 4 10 17 0 0.89027250
Link 5 12 28 0 0.13739372
Link 12 7 29 0 0.20303959
Link 10 21 68 0 1.07208854
Link 21 7 69 0 -0.13744980
GenomeEnd

GenomeStart 5141
Genome Fitness: 158.000000 
Neuron 1 1 0.00000000 1 0.00000000 0.00000000 0.00000000 0.00000000
Neuron 2 1 0.00000000 1 0.00000000 0.00000000 0.00000000 0.00000000
Neuron 3 1 0.00000000 1 0.00000000 0.00000000 0.00000000 0.00000000
Neuron 4 1 0.00000000 1 0.00000000 0.00000000 0.00000000 0.00000000
Neuron 5 1 0.00000000 1 0.00000000 0.00000000 0.00000000 0.00000000
Neuron 6 2 0.00000000 1 0.00000000 0.00000000 0.00000000 0.00000000
Neuron 7 4 1.00000000 1 3.02500000 0.00000000 0.00000000 0.00000000
Neuron 8 4 1.00000000 1 3.02500000 0.00000000 0.00000000 0.00000000
Neuron 10 3 0.50000000 4 4.46394765 0.00000000 0.00000000 0.00000000
Neuron 21 3 0.75000000 4 0.89827218 0.00000000 0.00000000 0.00000000
Link 1 7 1 0 0.02606565
Link 2 7 2 0 0.00775940
Link 3 7 3 0 -0.82872408
Link 5 7 5 0 0.21060393
Link 1 8 7 0 -0.32539738
Link 2 8 8 0 -0.27931459
Link 3 8 9 0 0.49986761
Link 4 8 10 0 0.19487749
Link 5 8 11 0 0.33236447
Link 6 8 12 0 0.25746162
Link 4 10 17 0 0.94483319
Link 10 21 68 0 0.75029195
Link 21 7 69 0 -0.33275804
Link 21 8 86 0 -0.56759475
GenomeEnd

GenomeStart 5142
Genome Fitness: 160.000000 
Neuron 1 1 0.00000000 1 0.00000000 0.00000000 0.00000000 0.00000000
Neuron 2 1 0.00000000 1 0.00000000 0.00000000 0.00000000 0.00000000
Neuron 3 1 0.00000000 1 0.00000000 0.00000000 0.00000000 0.00000000
Neuron 4 1 0.00000000 1 0.00000000 0.00000000 0.00000000 0.00000000
Neuron 5 1 0.00000000 1 0.00000000 0.00000000 0.00000000 0.00000000
Neuron 6 2 0.00000000 1 0.00000000 0.00000000 0.00000000 0.00000000
Neuron 7 4 1.00000000 1 3.02500000 0.00000000 0.00000000 0.00000000
Neuron 8 4 1.00000000 1 3.02500000 0.00000000 0.00000000 0.00000000
Neuron 10 3 0.50000000 4 4.46394765 0.00000000 0.00000000 0.00000000
Neuron 21 3 0.75000000 4 0.89827218 0.00000000 0.00000000 0.00000000
Link 1 7 1 0 0.02606565
Link 2 7 2 0 0.25927484
Link 3 7 3 0 -0.66203133
Link 5 7 5 0 0.21060393
Link 1 8 7 0 -0.32539738
Link 2 8 8 0 -0.27931459
Link 3 8 9 0 0.49986761
Link 4 8 10 0 0.19487749
Link 5 8 11 0 0.33236447
Link 6 8 12 0 0.25746162
Link 4 10 17 0 0.94483319
Link 10 21 68 0 0.90133202
Link 21 7 69 0 -0.18510062
Link 21 8 86 0 -0.56759475
GenomeEnd

GenomeStart 5143
Genome Fitness: 36.000000 
Neuron 1 1 0.00000000 1 0.00000000 0.00000000 0.00000000 0.00000000
Neuron 2 1 0.00000000 1 0.00000000 0.00000000 0.00000000 0.00000000
Neuron 3 1 0.00000000 1 0.00000000 0.00000000 0.00000000 0.00000000
Neuron 4 1 0.00000000 1 0.00000000 0.00000000 0.00000000 0.00000000
Neuron 5 1 0.00000000 1 0.00000000 0.00000000 0.00000000 0.00000000
Neuron 6 2 0.00000000 1 0.00000000 0.00000000 0.00000000 0.00000000
Neuron 7 4 1.00000000 1 3.02500000 0.00000000 0.00000000 0.00000000
Neuron 8 4 1.00000000 1 3.02500000 0.00000000 0.00000000 0.00000000
Neuron 10 3 0.50000000 4 4.46394765 0.00000000 0.00000000 0.00000000
Neuron 21 3 0.75000000 4 0.89827218 0.00000000 0.00000000 0.00000000
Link 1 7 1 0 0.02606565
Link 2 7 2 0 0.23849047
Link 3 7 3 0 -0.18075001
Link 5 7 5 0 0.21059733
Link 1 8 7 0 -0.36564370
Link 2 8 8 0 -0.28671322
Link 3 8 9 0 0.54391989
Link 4 8 10 0 0.14884935
Link 5 8 11 0 0.39589341
Link 6 8 12 0 0.26791734
Link 4 10 17 0 0.76955869
Link 10 21 68 0 0.85136234
Link 21 7 69 0 -0.23347280
Link 21 8 86 0 -0.64325191
GenomeEnd

GenomeStart 5144
Genome Fitness: 101.000000 
Neuron 1 1 0.00000000 1 0.00000000 0.00000000 0.00000000 0.00000000
Neuron 2 1 0.00000000 1 0.00000000 0.00000000 0.00000000 0.00000000
Neuron 3 1 0.00000000 1 0.00000000 0.00000000 0.00000000 0.00000000
Neuron 4 1 0.00000000 1 0.00000000 0.00000000 0.00000000 0.00000000
Neuron 5 1 0.00000000 1 0.00000000 0.00000000 0.00000000 0.00000000
Neuron 6 2 0.00000000 1 0.00000000 0.00000000 0.00000000 0.00000000
Neuron 7 4 1.00000000 1 3.02500000 0.00000000 0.00000000 0.00000000
Neuron 8 4 1.00000000 1 3.02500000 0.00000000 0.00000000 0.00000000
Neuron 10 3 0.50000000 4 4.46394765 0.00000000 0.00000000 0.00000000
Neuron 21 3 0.75000000 4 0.89827218 0.00000000 0.00000000 0.00000000
Link 1 7 1 0 0.02606565
Link 2 7 2 0 0.36128829
Link 3 7 3 0 0.46939213
Link 5 7 5 0 0.21060393
Link 1 8 7 0 -0.40589002
Link 2 8 8 0 -0.27931459
Link 3 8 9 0 0.49267511
Link 4 8 10 0 0.19487749
Link 5 8 11 0 0.33236447
Link 6 8 12 0 0.27837307
Link 4 10 17 0 0.94483319
Link 10 21 68 0 0.75029195
Link 21 7 69 0 -0.13418757
Link 21 8 86 0 -0.56759475
GenomeEnd

GenomeStart 5145
Genome Fitness: 159.000000 
Neuron 1 1 0.00000000 1 0.00000000 0.00000000 0.00000000 0.00000000
Neuron 2 1 0.00000000 1 0.00000000 0.00000000 0.00000000 0.00000000
Neuron 3 1 0.00000000 1 0.00000000 0.00000000 0.00000000 0.00000000
Neuron 4 1 0.00000000 1 0.00000000 0.00000000 0.00000000 0.00000000
Neuron 5 1 0.00000000 1 0.00000000 0.00000000 0.00000000 0.00000000
Neuron 6 2 0.00000000 1 0.00000000 0.00000000 0.00000000 0.00000000
Neuron 7 4 1.00000000 1 3.02500000 0.00000000 0.00000000 0.00000000
Neuron 8 4 1.00000000 1 3.02500000 0.00000000 0.00000000 0.00000000
Neuron 10 3 0.50000000 4 4.46394765 0.00000000 0.00000000 0.00000000
Neuron 21 3 0.75000000 4 0.89827218 0.00000000 0.00000000 0.00000000
Link 1 7 1 0 0.02606565
Link 2 7 2 0 0.13351712
Link 3 7 3 0 -0.74537770
Link 5 7 5 0 0.21060393
Link 1 8 7 0 -0.32539738
Link 2 8 8 0 -0.27931459
Link 3 8 9 0 0.49986761
Link 4 8 10 0 0.19487749
Link 5 8 11 0 0.33236447
Link 6 8 12 0 0.25746162
Link 4 10 17 0 0.94483319
Link 10 21 68 0 0.82581199
Link 21 7 69 0 -0.25892933
Link 21 8 86 0 -0.56759475
GenomeEnd

GenomeStart 5146
Genome Fitness: 158.000000 
Neuron 1 1 0.00000000 1 0.00000000 0.00000000 0.00000000 0.00000000
Neuron 2 1 0.00000000 1 0.00000000 0.00000000 0.00000000 0.00000000
Neuron 3 1 0.00000000 1 0.00000000 0.00000000 0.00000000 0.00000000
Neuron 4 1 0.00000000 1 0.00000000 0.00000000 0.00000000 0.00000000
Neuron 5 1 0.00000000 1 0.00000000 0.00000000 0.00000000 0.00000000
Neuron 6 2 0.00000000 1 0.00000000 0.00000000 0.00000000 0.00000000
Neuron 7 4 1.00000000 1 3.02500000 0.00000000 0.00000000 0.00000000
Neuron 8 4 1.00000000 1 3.02500000 0.00000000 0.00000000 0.00000000
Neuron 10 3 0.50000000 4 4.46394765 0.00000000 0.00000000 0.00000000
Neuron 13 3 0.50000000 9 1.09020310 0.00000000 0.00000000 0.00000000
Neuron 15 3 0.50000000 2 0.75910845 0.00000000 0.00000000 0.00000000
Link 1 7 1 0 -0.13253609
Link 2 7 2 0 -0.24297050
Link 5 7 5 0 0.01452838
Link 6 7 6 0 0.40102020
Link 1 8 7 0 -0.32863953
Link 2 8 8 0 -0.15616225
Link 3 8 9 0 0.75758483
Link 4 8 10 0 0.59156031
Link 6 8 12 0 0.27870374
Link 4 10 17 0 1.00235715
Link 10 7 18 0 -0.47812262
Link 3 13 31 0 0.95392611
Link 13 7 32 0 -0.72893657
Link 5 15 38 0 0.20405639
Link 15 8 39 0 0.35151240
GenomeEnd

GenomeStart 5147
Genome Fitness: 158.000000 
Neuron 1 1 0.00000000 1 0.00000000 0.00000000 0.00000000 0.00000000
Neuron 2 1 0.00000000 1 0.00000000 0.00000000 0.00000000 0.00000000
Neuron 3 1 0.00000000 1 0.00000000 0.00000000 0.00000000 0.00000000
Neuron 4 1 0.00000000 1 0.00000000 0.00000000 0.00000000 0.00000000
Neuron 5 1 0.00000000 1 0.00000000 0.00000000 0.00000000 0.00000000
Neuron 6 2 0.00000000 1 0.00000000 0.00000000 0.00000000 0.00000000
Neuron 7 4 1.00000000 1 3.02500000 0.00000000 0.00000000 0.00000000
Neuron 8 4 1.00000000 1 3.02500000 0.00000000 0.00000000 0.00000000
Neuron 10 3 0.50000000 4 4.46394765 0.00000000 0.00000000 0.00000000
Neuron 13 3 0.50000000 9 1.09020310 0.00000000 0.00000000 0.00000000
Neuron 15 3 0.50000000 2 0.75910845 0.00000000 0.00000000 0.00000000
Link 1 7 1 0 -0.09651749
Link 2 7 2 0 -0.24297050
Link 5 7 5 0 0.01452838
Link 6 7 6 0 0.40102020
Link 1 8 7 0 -0.35673322
Link 2 8 8 0 -0.15616225
Link 3 8 9 0 0.75758483
Link 4 8 10 0 0.60936010
Link 6 8 12 0 0.27870374
Link 4 10 17 0 1.06776674
Link 10 7 18 0 -0.47812262
Link 3 13 31 0 0.95392611
Link 13 7 32 0 -0.73673958
Link 5 15 38 0 0.19280805
Link 15 8 39 0 0.36949547
Link 13 8 149 0 -0.03540046
GenomeEnd

GenomeStart 5148
Genome Fitness: 101.000000 
Neuron 1 1 0.00000000 1 0.00000000 0.00000000 0.00000000 0.00000000
Neuron 2 1 0.00000000 1 0.00000000 0.00000000 0.00000000 0.00000000
Neuron 3 1 0.00000000 1 0.00000000 0.00000000 0.00000000 0.00000000
Neuron 4 1 0.00000000 1 0.00000000 0.00000000 0.00000000 0.00000000
Neuron 5 1 0.00000000 1 0.00000000 0.00000000 0.00000000 0.00000000
Neuron 6 2 0.00000000 1 0.00000000 0.00000000 0.00000000 0.00000000
Neuron 7 4 1.00000000 1 3.02500000 0.00000000 0.00000000 0.00000000
Neuron 8 4 1.00000000 1 3.02500000 0.00000000 0.00000000 0.00000000
Neuron 10 3 0.50000000 4 4.46394765 0.00000000 0.00000000 0.00000000
Neuron 12 3 0.50000000 1 5.88152597 0.00000000 0.00000000 0.00000000
Neuron 13 3 0.50000000 9 1.09020310 0.00000000 0.00000000 0.00000000
Neuron 15 3 0.50000000 2 0.75910845 0.00000000 0.00000000 0.00000000
Link 1 7 1 0 -0.20786790
Link 2 7 2 0 -0.26615256
Link 6 7 6 0 0.42384603
Link 1 8 7 0 -0.06666870
Link 2 8 8 0 -0.21372728
Link 3 8 9 0 0.85535458
Link 4 8 10 0 0.48777341
Link 6 8 12 0 0.20125693
Link 4 10 17 0 0.87547846
Link 10 7 18 0 -0.69358717
Link 5 12 28 0 1.10320409
Link 12 7 29 0 0.07395539
Link 3 13 31 0 0.94997025
Link 13 7 32 0 -0.72780270
Link 5 15 38 0 0.12310501
Link 15 8 39 0 0.20631499
GenomeEnd

GenomeStart 5149
Genome Fitness: 101.000000 
Neuron 1 1 0.00000000 1 0.00000000 0.00000000 0.00000000 0.00000000
Neuron 2 1 0.00000000 1 0.00000000 0.00000000 0.00000000 0.00000000
Neuron 3 1 0.00000000 1 0.00000000 0.00000000 0.00000000 0.00000000
Neuron 4 1 0.00000000 1 0.00000000 0.00000000 0.00000000 0.00000000
Neuron 5 1 0.00000000 1 0.00000000 0.00000000 0.00000000 0.00000000
Neuron 6 2 0.00000000 1 0.00000000 0.00000000 0.00000000 0.00000000
Neuron 7 4 1.00000000 1 3.02500000 0.00000000 0.00000000 0.00000000
Neuron 8 4 1.00000000 1 3.02500000 0.00000000 0.00000000 0.00000000
Neuron 10 3 0.50000000 4 4.46394765 0.00000000 0.00000000 0.00000000
Neuron 13 3 0.50000000 9 1.09020310 0.00000000 0.00000000 0.00000000
Neuron 15 3 0.50000000 2 0.75910845 0.00000000 0.00000000 0.00000000
Link 1 7 1 0 -0.19125725
Link 2 7 2 0 -0.24297050
Link 5 7 5 0 -0.06902503
Link 6 7 6 0 0.40102020
Link 1 8 7 0 -0.25838186
Link 2 8 8 0 -0.09443588
Link 3 8 9 0 0.75758483
Link 4 8 10 0 0.58801141
Link 6 8 12 0 0.27870374
Link 4 10 17 0 0.95970773
Link 10 7 18 0 -0.47812262
Link 3 13 31 0 1.09682920
Link 13 7 32 0 -0.62235895
Link 5 15 38 0 0.20405639
Link 15 8 39 0 0.35929812
GenomeEnd

GenomeStart 5150
Genome Fitness: 136.000000 
Neuron 1 1 0.00000000 1 0.00000000 0.00000000 0.00000000 0.00000000
Neuron 2 1 0.00000000 1 0.00000000 0.00000000 0.00000000 0.00000000
Neuron 3 1 0.00000000 1 0.00000000 0.00000000 0.00000000 0.00000000
Neuron 4 1 0.00000000 1 0.00000000 0.00000000 0.00000000 0.00000000
Neuron 5 1 0.00000000 1 0.00000000 0.00000000 0.00000000 0.00000000
Neuron 6 2 0.00000000 1 0.00000000 0.00000000 0.00000000 0.00000000
Neuron 7 4 1.00000000 1 3.02500000 0.00000000 0.00000000 0.00000000
Neuron 8 4 1.00000000 1 3.02500000 0.00000000 0.00000000 0.00000000
Neuron 10 3 0.50000000 4 4.46394765 0.00000000 0.00000000 0.00000000
Neuron 13 3 0.50000000 9 1.09020310 0.00000000 0.00000000 0.00000000
Neuron 15 3 0.50000000 2 0.75910845 0.00000000 0.00000000 0.00000000
Link 1 7 1 0 -0.17256156
Link 2 7 2 0 -0.20576432
Link 5 7 5 0 0.01452838
Link 6 7 6 0 0.40102020
Link 1 8 7 0 -0.21865184
Link 2 8 8 0 -0.15616225
Link 3 8 9 0 0.75758483
Link 4 8 10 0 0.59156031
Link 6 8 12 0 0.27870374
Link 4 10 17 0 1.00235715
Link 10 7 18 0 -0.57866233
Link 3 13 31 0 0.95392611
Link 13 7 32 0 -0.71392199
Link 5 15 38 0 0.06874696
Link 15 8 39 0 0.26230241
GenomeEnd

GenomeStart 5151
Genome Fitness: 142.000000 
Neuron 1 1 0.00000000 1 0.00000000 0.00000000 0.00000000 0.00000000
Neuron 2 1 0.00000000 1 0.00000000 0.00000000 0.00000000 0.00000000
Neuron 3 1 0.00000000 1 0.00000000 0.00000000 0.00000000 0.00000000
Neuron 4 1 0.00000000 1 0.00000000 0.00000000 0.00000000 0.00000000
Neuron 5 1 0.00000000 1 0.00000000 0.00000000 0.00000000 0.00000000
Neuron 6 2 0.00000000 1 0.00000000 0.00000000 0.00000000 0.00000000
Neuron 7 4 1.00000000 1 3.02500000 0.00000000 0.00000000 0.00000000
Neuron 8 4 1.00000000 1 3.02500000 0.00000000 0.00000000 0.00000000
Neuron 10 3 0.50000000 4 4.46394765 0.00000000 0.00000000 0.00000000
Neuron 13 3 0.50000000 9 1.09020310 0.00000000 0.00000000 0.00000000
Neuron 15 3 0.50000000 2 0.75910845 0.00000000 0.00000000 0.00000000
Link 1 7 1 0 -0.13253609
Link 2 7 2 0 -0.27642738
Link 5 7 5 0 0.01452838
Link 6 7 6 0 0.29447638
Link 1 8 7 0 -0.25838186
Link 2 8 8 0 -0.15616225
Link 3 8 9 0 0.68554327
Link 4 8 10 0 0.58801141
Link 6 8 12 0 0.17720960
Link 4 10 17 0 0.93694755
Link 10 7 18 0 -0.47812262
Link 3 13 31 0 1.09682920
Link 13 7 32 0 -0.62235895
Link 5 15 38 0 0.29377859
Link 15 8 39 0 0.35929812
Link 13 8 149 0 -0.03540046
GenomeEnd

GenomeStart 5152
Genome Fitness: 158.000000 
Neuron 1 1 0.00000000 1 0.00000000 0.00000000 0.00000000 0.00000000
Neuron 2 1 0.00000000 1 0.00000000 0.00000000 0.00000000 0.00000000
Neuron 3 1 0.00000000 1 0.00000000 0.00000000 0.00000000 0.00000000
Neuron 4 1 0.00000000 1 0.00000000 0.00000000 0.00000000 0.00000000
Neuron 5 1 0.00000000 1 0.00000000 0.00000000 0.00000000 0.00000000
Neuron 6 2 0.00000000 1 0.00000000 0.00000000 0.00000000 0.00000000
Neuron 7 4 1.00000000 1 3.02500000 0.00000000 0.00000000 0.00000000
Neuron 8 4 1.00000000 1 3.02500000 0.00000000 0.00000000 0.00000000
Neuron 9 3 0.50000000 9 5.37400745 0.00000000 0.00000000 0.00000000
Neuron 10 3 0.50000000 4 4.46394765 0.00000000 0.00000000 0.00000000
Neuron 12 3 0.50000000 6 4.68301117 0.00000000 0.00000000 0.00000000
Neuron 13 3 0.50000000 8 5.80422951 0.00000000 0.00000000 0.00000000
Neuron 23 3 0.75000000 2 1.58125521 0.00000000 0.00000000 0.00000000
Link 1 7 1 0 0.20240948
Link 6 7 6 0 0.11001351
Link 1 8 7 0 -0.14535820
Link 2 8 8 0 -0.50113892
Link 3 8 9 0 0.37832445
Link 4 8 10 0 0.45348378
Link 5 8 11 0 0.43037700
Link 6 8 12 0 0.24763267
Link 2 9 14 0 1.17343973
Link 4 10 17 0 1.04994977
Link 10 7 18 0 -0.23319694
Link 5 12 28 0 0.99379260
Link 12 7 29 0 -0.58793072
Link 3 13 31 0 0.95998778
Link 13 7 32 0 -0.70698047
Link 9 23 78 0 0.85064417
Link 23 7 79 0 -0.09870521
GenomeEnd

GenomeStart 5153
Genome Fitness: 159.000000 
Neuron 1 1 0.00000000 1 0.00000000 0.00000000 0.00000000 0.00000000
Neuron 2 1 0.00000000 1 0.00000000 0.00000000 0.00000000 0.00000000
Neuron 3 1 0.00000000 1 0.00000000 0.00000000 0.00000000 0.00000000
Neuron 4 1 0.00000000 1 0.00000000 0.00000000 0.00000000 0.00000000
Neuron 5 1 0.00000000 1 0.00000000 0.00000000 0.00000000 0.00000000
Neuron 6 2 0.00000000 1 0.00000000 0.00000000 0.00000000 0.00000000
Neuron 7 4 1.00000000 1 3.02500000 0.00000000 0.00000000 0.00000000
Neuron 8 4 1.00000000 1 3.02500000 0.00000000 0.00000000 0.00000000
Neuron 9 3 0.50000000 9 5.37400745 0.00000000 0.00000000 0.00000000
Neuron 10 3 0.50000000 4 4.46394765 0.00000000 0.00000000 0.00000000
Neuron 12 3 0.50000000 6 4.68301117 0.00000000 0.00000000 0.00000000
Neuron 13 3 0.50000000 8 5.80422951 0.00000000 0.00000000 0.00000000
Neuron 23 3 0.75000000 2 1.58125521 0.00000000 0.00000000 0.00000000
Link 1 7 1 0 0.20240948
Link 6 7 6 0 0.11001351
Link 1 8 7 0 -0.14535820
Link 2 8 8 0 -0.50113892
Link 3 8 9 0 0.37832445
Link 4 8 10 0 0.45348378
Link 5 8 11 0 0.43037700
Link 6 8 12 0 0.24763267
Link 2 9 14 0 1.17343973
Link 4 10 17 0 1.04994977
Link 10 7 18 0 -0.23319694
Link 5 12 28 0 0.99379260
Link 12 7 29 0 -0.58793072
Link 3 13 31 0 0.95998778
Link 13 7 32 0 -0.70698047
Link 9 23 78 0 0.85064417
Link 23 7 79 0 -0.09870521
GenomeEnd

GenomeStart 5154
Genome Fitness: 159.000000 
Neuron 1 1 0.00000000 1 0.00000000 0.00000000 0.00000000 0.00000000
Neuron 2 1 0.00000000 1 0.00000000 0.00000000 0.00000000 0.00000000
Neuron 3 1 0.00000000 1 0.00000000 0.00000000 0.00000000 0.00000000
Neuron 4 1 0.00000000 1 0.00000000 0.00000000 0.00000000 0.00000000
Neuron 5 1 0.00000000 1 0.00000000 0.00000000 0.00000000 0.00000000
Neuron 6 2 0.00000000 1 0.00000000 0.00000000 0.00000000 0.00000000
Neuron 7 4 1.00000000 1 3.02500000 0.00000000 0.00000000 0.00000000
Neuron 8 4 1.00000000 1 3.02500000 0.00000000 0.00000000 0.00000000
Neuron 9 3 0.50000000 9 5.37400745 0.00000000 0.00000000 0.00000000
Neuron 10 3 0.50000000 4 4.46394765 0.00000000 0.00000000 0.00000000
Neuron 12 3 0.50000000 6 4.68301117 0.00000000 0.00000000 0.00000000
Neuron 13 3 0.50000000 8 5.80422951 0.00000000 0.00000000 0.00000000
Neuron 23 3 0.75000000 2 1.58125521 0.00000000 0.00000000 0.00000000
Link 1 7 1 0 0.20240948
Link 6 7 6 0 0.11001351
Link 1 8 7 0 -0.14535820
Link 2 8 8 0 -0.50113892
Link 3 8 9 0 0.37832445
Link 4 8 10 0 0.45348378
Link 5 8 11 0 0.43037700
Link 6 8 12 0 0.24763267
Link 2 9 14 0 1.17343973
Link 4 10 17 0 1.04994977
Link 10 7 18 0 -0.23319694
Link 5 12 28 0 0.99379260
Link 12 7 29 0 -0.58793072
Link 3 13 31 0 0.95998778
Link 13 7 32 0 -0.70698047
Link 9 23 78 0 0.85064417
Link 23 7 79 0 -0.09870521
GenomeEnd

GenomeStart 5155
Genome Fitness: 156.000000 
Neuron 1 1 0.00000000 1 0.00000000 0.00000000 0.00000000 0.00000000
Neuron 2 1 0.00000000 1 0.00000000 0.00000000 0.00000000 0.00000000
Neuron 3 1 0.00000000 1 0.00000000 0.00000000 0.00000000 0.00000000
Neuron 4 1 0.00000000 1 0.00000000 0.00000000 0.00000000 0.00000000
Neuron 5 1 0.00000000 1 0.00000000 0.00000000 0.00000000 0.00000000
Neuron 6 2 0.00000000 1 0.00000000 0.00000000 0.00000000 0.00000000
Neuron 7 4 1.00000000 1 3.02500000 0.00000000 0.00000000 0.00000000
Neuron 8 4 1.00000000 1 3.02500000 0.00000000 0.00000000 0.00000000
Neuron 9 3 0.50000000 9 5.37400745 0.00000000 0.00000000 0.00000000
Neuron 10 3 0.50000000 4 4.46394765 0.00000000 0.00000000 0.00000000
Neuron 12 3 0.50000000 6 4.68301117 0.00000000 0.00000000 0.00000000
Neuron 13 3 0.50000000 2 5.80422951 0.00000000 0.00000000 0.00000000
Neuron 23 3 0.75000000 2 1.58125521 0.00000000 0.00000000 0.00000000
Link 1 7 1 0 0.22455548
Link 6 7 6 0 0.17046188
Link 1 8 7 0 -0.21480692
Link 2 8 8 0 -0.43497371
Link 3 8 9 0 0.21929270
Link 4 8 10 0 0.59427407
Link 5 8 11 0 0.32701790
Link 6 8 12 0 0.35249198
Link 2 9 14 0 1.14799713
Link 4 10 17 0 1.04547849
Link 10 7 18 0 -0.16109615
Link 5 12 28 0 0.94137046
Link 12 7 29 0 -0.59687873
Link 3 13 31 0 1.02598005
Link 13 7 32 0 -0.73157813
Link 9 23 78 0 0.86377809
Link 23 7 79 0 -0.05395606
GenomeEnd

GenomeStart 5156
Genome Fitness: 144.000000 
Neuron 1 1 0.00000000 1 0.00000000 0.00000000 0.00000000 0.00000000
Neuron 2 1 0.00000000 1 0.00000000 0.00000000 0.00000000 0.00000000
Neuron 3 1 0.00000000 1 0.00000000 0.00000000 0.00000000 0.00000000
Neuron 4 1 0.00000000 1 0.00000000 0.00000000 0.00000000 0.00000000
Neuron 5 1 0.00000000 1 0.00000000 0.00000000 0.00000000 0.00000000
Neuron 6 2 0.00000000 1 0.00000000 0.00000000 0.00000000 0.00000000
Neuron 7 4 1.00000000 1 3.02500000 0.00000000 0.00000000 0.00000000
Neuron 8 4 1.00000000 1 3.02500000 0.00000000 0.00000000 0.00000000
Neuron 9 3 0.50000000 9 5.37400745 0.00000000 0.00000000 0.00000000
Neuron 10 3 0.50000000 4 4.46394765 0.00000000 0.00000000 0.00000000
Neuron 12 3 0.50000000 6 4.68301117 0.00000000 0.00000000 0.00000000
Neuron 13 3 0.50000000 8 5.80422951 0.00000000 0.00000000 0.00000000
Neuron 23 3 0.75000000 2 1.58125521 0.00000000 0.00000000 0.00000000
Link 1 7 1 0 0.20240948
Link 6 7 6 0 0.17046188
Link 1 8 7 0 -0.21480692
Link 2 8 8 0 -0.50113892
Link 3 8 9 0 0.37832445
Link 4 8 10 0 0.59427407
Link 5 8 11 0 0.32701790
Link 6 8 12 0 0.35249198
Link 2 9 14 0 1.14799713
Link 4 10 17 0 1.04994977
Link 10 7 18 0 -0.16109615
Link 5 12 28 0 0.94137046
Link 12 7 29 0 -0.58793072
Link 3 13 31 0 0.95998778
Link 13 7 32 0 -0.73157813
Link 9 23 78 0 0.85064417
Link 23 7 79 0 -0.05395606
Link 1 13 156 0 -0.30138054
GenomeEnd

GenomeStart 5157
Genome Fitness: 159.000000 
Neuron 1 1 0.00000000 1 0.00000000 0.00000000 0.00000000 0.00000000
Neuron 2 1 0.00000000 1 0.00000000 0.00000000 0.00000000 0.00000000
Neuron 3 1 0.00000000 1 0.00000000 0.00000000 0.00000000 0.00000000
Neuron 4 1 0.00000000 1 0.00000000 0.00000000 0.00000000 0.00000000
Neuron 5 1 0.00000000 1 0.00000000 0.00000000 0.00000000 0.00000000
Neuron 6 2 0.00000000 1 0.00000000 0.00000000 0.00000000 0.00000000
Neuron 7 4 1.00000000 1 3.02500000 0.00000000 0.00000000 0.00000000
Neuron 8 4 1.00000000 1 3.02500000 0.00000000 0.00000000 0.00000000
Neuron 9 3 0.50000000 9 5.37400745 0.00000000 0.00000000 0.00000000
Neuron 10 3 0.50000000 4 4.46394765 0.00000000 0.00000000 0.00000000
Neuron 12 3 0.50000000 6 4.68301117 0.00000000 0.00000000 0.00000000
Neuron 13 3 0.50000000 8 5.80422951 0.00000000 0.00000000 0.00000000
Neuron 23 3 0.75000000 2 1.58125521 0.00000000 0.00000000 0.00000000
Link 1 7 1 0 0.20240948
Link 6 7 6 0 0.11001351
Link 1 8 7 0 -0.14535820
Link 2 8 8 0 -0.50113892
Link 3 8 9 0 0.37832445
Link 4 8 10 0 0.45348378
Link 5 8 11 0 0.43037700
Link 6 8 12 0 0.24763267
Link 2 9 14 0 1.17343973
Link 4 10 17 0 1.04994977
Link 10 7 18 0 -0.23319694
Link 5 12 28 0 0.99379260
Link 12 7 29 0 -0.58793072
Link 3 13 31 0 0.95998778
Link 13 7 32 0 -0.70698047
Link 9 23 78 0 0.85064417
Link 23 7 79 0 -0.09870521
GenomeEnd

GenomeStart 5158
Genome Fitness: 158.000000 
Neuron 1 1 0.00000000 1 0.00000000 0.00000000 0.00000000 0.00000000
Neuron 2 1 0.00000000 1 0.00000000 0.00000000 0.00000000 0.00000000
Neuron 3 1 0.00000000 1 0.00000000 0.00000000 0.00000000 0.00000000
Neuron 4 1 0.00000000 1 0.00000000 0.00000000 0.00000000 0.00000000
Neuron 5 1 0.00000000 1 0.00000000 0.00000000 0.00000000 0.00000000
Neuron 6 2 0.00000000 1 0.00000000 0.00000000 0.00000000 0.00000000
Neuron 7 4 1.00000000 1 3.02500000 0.00000000 0.00000000 0.00000000
Neuron 8 4 1.00000000 1 3.02500000 0.00000000 0.00000000 0.00000000
Link 1 7 1 0 0.12308727
Link 3 7 3 0 0.08511799
Link 4 7 4 0 -0.32318379
Link 5 7 5 0 0.11998308
Link 6 7 6 0 -0.10660705
Link 1 8 7 0 0.56574348
Link 2 8 8 0 -0.59827727
Link 3 8 9 0 0.54313118
Link 4 8 10 0 0.00547627
Link 5 8 11 0 -0.00836247
Link 6 8 12 0 -0.09013438
GenomeEnd

GenomeStart 5159
Genome Fitness: 114.000000 
Neuron 1 1 0.00000000 1 0.00000000 0.00000000 0.00000000 0.00000000
Neuron 2 1 0.00000000 1 0.00000000 0.00000000 0.00000000 0.00000000
Neuron 3 1 0.00000000 1 0.00000000 0.00000000 0.00000000 0.00000000
Neuron 4 1 0.00000000 1 0.00000000 0.00000000 0.00000000 0.00000000
Neuron 5 1 0.00000000 1 0.00000000 0.00000000 0.00000000 0.00000000
Neuron 6 2 0.00000000 1 0.00000000 0.00000000 0.00000000 0.00000000
Neuron 7 4 1.00000000 1 3.02500000 0.00000000 0.00000000 0.00000000
Neuron 8 4 1.00000000 1 3.02500000 0.00000000 0.00000000 0.00000000
Link 1 7 1 0 0.12308727
Link 3 7 3 0 0.07344824
Link 4 7 4 0 -0.32318379
Link 5 7 5 0 0.11998308
Link 6 7 6 0 -0.10660705
Link 1 8 7 0 0.56574348
Link 2 8 8 0 -0.59827727
Link 3 8 9 0 0.66243433
Link 4 8 10 0 0.04800727
Link 5 8 11 0 -0.00836247
Link 6 8 12 0 -0.09013438
GenomeEnd

GenomeStart 5160
Genome Fitness: 132.000000 
Neuron 1 1 0.00000000 1 0.00000000 0.00000000 0.00000000 0.00000000
Neuron 2 1 0.00000000 1 0.00000000 0.00000000 0.00000000 0.00000000
Neuron 3 1 0.00000000 1 0.00000000 0.00000000 0.00000000 0.00000000
Neuron 4 1 0.00000000 1 0.00000000 0.00000000 0.00000000 0.00000000
Neuron 5 1 0.00000000 1 0.00000000 0.00000000 0.00000000 0.00000000
Neuron 6 2 0.00000000 1 0.00000000 0.00000000 0.00000000 0.00000000
Neuron 7 4 1.00000000 1 3.02500000 0.00000000 0.00000000 0.00000000
Neuron 8 4 1.00000000 1 3.02500000 0.00000000 0.00000000 0.00000000
Link 1 7 1 0 0.12308727
Link 3 7 3 0 0.07928311
Link 4 7 4 0 -0.32318379
Link 5 7 5 0 0.01467795
Link 6 7 6 0 -0.10660705
Link 1 8 7 0 0.56753799
Link 2 8 8 0 -0.59827727
Link 3 8 9 0 0.61728484
Link 4 8 10 0 0.02674177
Link 5 8 11 0 -0.08884472
Link 6 8 12 0 -0.09013438
GenomeEnd

GenomeStart 5161
Genome Fitness: 158.000000 
Neuron 1 1 0.00000000 1 0.00000000 0.00000000 0.00000000 0.00000000
Neuron 2 1 0.00000000 1 0.00000000 0.00000000 0.00000000 0.00000000
Neuron 3 1 0.00000000 1 0.00000000 0.00000000 0.00000000 0.00000000
Neuron 4 1 0.00000000 1 0.00000000 0.00000000 0.00000000 0.00000000
Neuron 5 1 0.00000000 1 0.00000000 0.00000000 0.00000000 0.00000000
Neuron 6 2 0.00000000 1 0.00000000 0.00000000 0.00000000 0.00000000
Neuron 7 4 1.00000000 1 3.02500000 0.00000000 0.00000000 0.00000000
Neuron 8 4 1.00000000 1 3.02500000 0.00000000 0.00000000 0.00000000
Link 1 7 1 0 0.12308727
Link 3 7 3 0 0.07344824
Link 4 7 4 0 -0.32318379
Link 5 7 5 0 -0.09062718
Link 6 7 6 0 -0.10660705
Link 1 8 7 0 0.56574348
Link 2 8 8 0 -0.59827727
Link 3 8 9 0 0.57213535
Link 4 8 10 0 0.00547627
Link 5 8 11 0 -0.00836247
Link 6 8 12 0 -0.09013438
GenomeEnd

GenomeStart 5162
Genome Fitness: 104.000000 
Neuron 1 1 0.00000000 1 0.00000000 0.00000000 0.00000000 0.00000000
Neuron 2 1 0.00000000 1 0.00000000 0.00000000 0.00000000 0.00000000
Neuron 3 1 0.00000000 1 0.00000000 0.00000000 0.00000000 0.00000000
Neuron 4 1 0.00000000 1 0.00000000 0.00000000 0.00000000 0.00000000
Neuron 5 1 0.00000000 1 0.00000000 0.00000000 0.00000000 0.00000000
Neuron 6 2 0.00000000 1 0.00000000 0.00000000 0.00000000 0.00000000
Neuron 7 4 1.00000000 1 3.02500000 0.00000000 0.00000000 0.00000000
Neuron 8 4 1.00000000 1 3.02500000 0.00000000 0.00000000 0.00000000
Link 1 7 1 0 0.08227760
Link 3 7 3 0 -0.02613262
Link 4 7 4 0 -0.25989489
Link 5 7 5 0 0.07938510
Link 6 7 6 0 -0.02491669
Link 1 8 7 0 0.60117235
Link 2 8 8 0 -0.56282683
Link 3 8 9 0 0.56114318
Link 4 8 10 0 -0.06188226
Link 5 8 11 0 -0.16286850
Link 6 8 12 0 -0.09980596
GenomeEnd

GenomeStart 5163
Genome Fitness: 149.000000 
Neuron 1 1 0.00000000 1 0.00000000 0.00000000 0.00000000 0.00000000
Neuron 2 1 0.00000000 1 0.00000000 0.00000000 0.00000000 0.00000000
Neuron 3 1 0.00000000 1 0.00000000 0.00000000 0.00000000 0.00000000
Neuron 4 1 0.00000000 1 0.00000000 0.00000000 0.00000000 0.00000000
Neuron 5 1 0.00000000 1 0.00000000 0.00000000 0.00000000 0.00000000
Neuron 6 2 0.00000000 1 0.00000000 0.00000000 0.00000000 0.00000000
Neuron 7 4 1.00000000 1 3.02500000 0.00000000 0.00000000 0.00000000
Neuron 8 4 1.00000000 1 3.02500000 0.00000000 0.00000000 0.00000000
Link 1 7 1 0 0.03182970
Link 3 7 3 0 0.03516969
Link 4 7 4 0 -0.46293873
Link 5 7 5 0 -0.01371358
Link 6 7 6 0 -0.13849590
Link 1 8 7 0 0.55026745
Link 2 8 8 0 -0.65129127
Link 3 8 9 0 0.68587745
Link 4 8 10 0 0.03626979
Link 5 8 11 0 -0.14068011
Link 6 8 12 0 -0.21324363
GenomeEnd

GenomeStart 5164
Genome Fitness: 130.000000 
Neuron 1 1 0.00000000 1 0.00000000 0.00000000 0.00000000 0.00000000
Neuron 2 1 0.00000000 1 0.00000000 0.00000000 0.00000000 0.00000000
Neuron 3 1 0.00000000 1 0.00000000 0.00000000 0.00000000 0.00000000
Neuron 4 1 0.00000000 1 0.00000000 0.00000000 0.00000000 0.00000000
Neuron 5 1 0.00000000 1 0.00000000 0.00000000 0.00000000 0.00000000
Neuron 6 2 0.00000000 1 0.00000000 0.00000000 0.00000000 0.00000000
Neuron 7 4 1.00000000 1 3.02500000 0.00000000 0.00000000 0.00000000
Neuron 8 4 1.00000000 1 3.02500000 0.00000000 0.00000000 0.00000000
Neuron 9 3 0.50000000 9 5.37400745 0.00000000 0.00000000 0.00000000
Neuron 10 3 0.50000000 4 4.46394765 0.00000000 0.00000000 0.00000000
Neuron 15 3 0.50000000 6 2.75364096 0.00000000 0.00000000 0.00000000
Link 1 7 1 0 -0.15040445
Link 3 7 3 0 -0.93454669
Link 5 7 5 0 0.33225729
Link 6 7 6 0 0.15159228
Link 2 8 8 0 -0.71826453
Link 3 8 9 0 0.50653336
Link 4 8 10 0 -0.25114060
Link 6 8 12 0 0.46160316
Link 2 9 14 0 0.65322234
Link 9 7 15 0 -0.44818369
Link 4 10 17 0 0.74588956
Link 10 7 18 0 -0.12901676
Link 5 15 38 0 0.65335301
Link 15 8 39 0 0.02955724
GenomeEnd

GenomeStart 5165
Genome Fitness: 136.000000 
Neuron 1 1 0.00000000 1 0.00000000 0.00000000 0.00000000 0.00000000
Neuron 2 1 0.00000000 1 0.00000000 0.00000000 0.00000000 0.00000000
Neuron 3 1 0.00000000 1 0.00000000 0.00000000 0.00000000 0.00000000
Neuron 4 1 0.00000000 1 0.00000000 0.00000000 0.00000000 0.00000000
Neuron 5 1 0.00000000 1 0.00000000 0.00000000 0.00000000 0.00000000
Neuron 6 2 0.00000000 1 0.00000000 0.00000000 0.00000000 0.00000000
Neuron 7 4 1.00000000 1 3.02500000 0.00000000 0.00000000 0.00000000
Neuron 8 4 1.00000000 1 3.02500000 0.00000000 0.00000000 0.00000000
Neuron 9 3 0.50000000 9 5.37400745 0.00000000 0.00000000 0.00000000
Neuron 10 3 0.50000000 4 4.46394765 0.00000000 0.00000000 0.00000000
Neuron 15 3 0.50000000 6 2.75364096 0.00000000 0.00000000 0.00000000
Link 1 7 1 0 -0.00926717
Link 3 7 3 0 -0.93454669
Link 5 7 5 0 0.33225729
Link 6 7 6 0 0.15159228
Link 2 8 8 0 -0.45107141
Link 3 8 9 0 0.44160412
Link 4 8 10 0 -0.25114060
Link 6 8 12 0 0.29623738
Link 2 9 14 0 0.97961866
Link 9 7 15 0 -0.08869495
Link 4 10 17 0 0.86099116
Link 10 7 18 0 -0.43474576
Link 5 15 38 0 0.97466534
Link 15 8 39 0 0.02955724
GenomeEnd

GenomeStart 5166
Genome Fitness: 134.000000 
Neuron 1 1 0.00000000 1 0.00000000 0.00000000 0.00000000 0.00000000
Neuron 2 1 0.00000000 1 0.00000000 0.00000000 0.00000000 0.00000000
Neuron 3 1 0.00000000 1 0.00000000 0.00000000 0.00000000 0.00000000
Neuron 4 1 0.00000000 1 0.00000000 0.00000000 0.00000000 0.00000000
Neuron 5 1 0.00000000 1 0.00000000 0.00000000 0.00000000 0.00000000
Neuron 6 2 0.00000000 1 0.00000000 0.00000000 0.00000000 0.00000000
Neuron 7 4 1.00000000 1 3.02500000 0.00000000 0.00000000 0.00000000
Neuron 8 4 1.00000000 1 3.02500000 0.00000000 0.00000000 0.00000000
Neuron 9 3 0.50000000 9 5.37400745 0.00000000 0.00000000 0.00000000
Neuron 10 3 0.50000000 4 4.46394765 0.00000000 0.00000000 0.00000000
Neuron 15 3 0.50000000 6 2.75364096 0.00000000 0.00000000 0.00000000
Link 1 7 1 0 0.14747103
Link 3 7 3 0 -1.18753002
Link 5 7 5 0 0.38418501
Link 6 7 6 0 0.38909163
Link 2 8 8 0 -0.84007831
Link 3 8 9 0 0.44675593
Link 4 8 10 0 -0.09557117
Link 6 8 12 0 0.26700495
Link 2 9 14 0 0.64843431
Link 9 7 15 0 -0.34068025
Link 4 10 17 0 0.75839048
Link 10 7 18 0 -0.07549382
Link 5 15 38 0 0.93001856
Link 15 8 39 0 0.22551765
GenomeEnd

GenomeStart 5167
Genome Fitness: 101.000000 
Neuron 1 1 0.00000000 1 0.00000000 0.00000000 0.00000000 0.00000000
Neuron 2 1 0.00000000 1 0.00000000 0.00000000 0.00000000 0.00000000
Neuron 3 1 0.00000000 1 0.00000000 0.00000000 0.00000000 0.00000000
Neuron 4 1 0.00000000 1 0.00000000 0.00000000 0.00000000 0.00000000
Neuron 5 1 0.00000000 1 0.00000000 0.00000000 0.00000000 0.00000000
Neuron 6 2 0.00000000 1 0.00000000 0.00000000 0.00000000 0.00000000
Neuron 7 4 1.00000000 1 3.02500000 0.00000000 0.00000000 0.00000000
Neuron 8 4 1.00000000 1 3.02500000 0.00000000 0.00000000 0.00000000
Neuron 9 3 0.50000000 9 5.37400745 0.00000000 0.00000000 0.00000000
Neuron 10 3 0.50000000 4 4.46394765 0.00000000 0.00000000 0.00000000
Neuron 15 3 0.50000000 6 2.75364096 0.00000000 0.00000000 0.00000000
Link 1 7 1 0 0.03983449
Link 3 7 3 0 -1.09242838
Link 5 7 5 0 0.29742849
Link 6 7 6 0 0.40950606
Link 2 8 8 0 -0.74655476
Link 3 8 9 0 0.26113384
Link 4 8 10 0 -0.15716677
Link 6 8 12 0 0.24283844
Link 2 9 14 0 0.72815725
Link 9 7 15 0 -0.14271815
Link 4 10 17 0 0.90741794
Link 10 7 18 0 -0.41850909
Link 5 15 38 0 0.93196642
Link 15 8 39 0 0.11728108
GenomeEnd

GenomeStart 5168
Genome Fitness: 134.000000 
Neuron 1 1 0.00000000 1 0.00000000 0.00000000 0.00000000 0.00000000
Neuron 2 1 0.00000000 1 0.00000000 0.00000000 0.00000000 0.00000000
Neuron 3 1 0.00000000 1 0.00000000 0.00000000 0.00000000 0.00000000
Neuron 4 1 0.00000000 1 0.00000000 0.00000000 0.00000000 0.00000000
Neuron 5 1 0.00000000 1 0.00000000 0.00000000 0.00000000 0.00000000
Neuron 6 2 0.00000000 1 0.00000000 0.00000000 0.00000000 0.00000000
Neuron 7 4 1.00000000 1 3.02500000 0.00000000 0.00000000 0.00000000
Neuron 8 4 1.00000000 1 3.02500000 0.00000000 0.00000000 0.00000000
Neuron 9 3 0.50000000 9 5.37400745 0.00000000 0.00000000 0.00000000
Neuron 10 3 0.50000000 4 4.46394765 0.00000000 0.00000000 0.00000000
Neuron 15 3 0.50000000 6 2.75364096 0.00000000 0.00000000 0.00000000
Link 1 7 1 0 -0.00926717
Link 3 7 3 0 -0.93454669
Link 5 7 5 0 0.33225729
Link 6 7 6 0 0.15159228
Link 2 8 8 0 -0.45107141
Link 3 8 9 0 0.44160412
Link 4 8 10 0 -0.25114060
Link 6 8 12 0 0.29623738
Link 2 9 14 0 0.95398469
Link 9 7 15 0 -0.08869495
Link 4 10 17 0 0.86099116
Link 10 7 18 0 -0.43474576
Link 5 15 38 0 0.97378647
Link 15 8 39 0 0.02955724
GenomeEnd

GenomeStart 5171
Genome Fitness: 158.000000 
Neuron 1 1 0.00000000 1 0.00000000 0.00000000 0.00000000 0.00000000
Neuron 2 1 0.00000000 1 0.00000000 0.00000000 0.00000000 0.00000000
Neuron 3 1 0.00000000 1 0.00000000 0.00000000 0.00000000 0.00000000
Neuron 4 1 0.00000000 1 0.00000000 0.00000000 0.00000000 0.00000000
Neuron 5 1 0.00000000 1 0.00000000 0.00000000 0.00000000 0.00000000
Neuron 6 2 0.00000000 1 0.00000000 0.00000000 0.00000000 0.00000000
Neuron 7 4 1.00000000 1 3.02500000 0.00000000 0.00000000 0.00000000
Neuron 8 4 1.00000000 1 3.02500000 0.00000000 0.00000000 0.00000000
Neuron 10 3 0.50000000 4 4.46394765 0.00000000 0.00000000 0.00000000
Neuron 15 3 0.50000000 11 2.74372697 0.00000000 0.00000000 0.00000000
Link 1 7 1 0 -0.01984820
Link 2 7 2 0 0.12109972
Link 3 7 3 0 -1.00261104
Link 5 7 5 0 0.06872928
Link 6 7 6 0 0.33459262
Link 1 8 7 0 -0.58998681
Link 2 8 8 0 -0.07668357
Link 3 8 9 0 0.44866919
Link 4 8 10 0 0.41722798
Link 4 10 17 0 0.94692517
Link 10 7 18 0 -0.44252474
Link 5 15 38 0 1.00362763
Link 15 8 39 0 0.31589166
Link 10 8 53 0 -0.20033744
GenomeEnd

GenomeStart 5175
Genome Fitness: 158.000000 
Neuron 1 1 0.00000000 1 0.00000000 0.00000000 0.00000000 0.00000000
Neuron 2 1 0.00000000 1 0.00000000 0.00000000 0.00000000 0.00000000
Neuron 3 1 0.00000000 1 0.00000000 0.00000000 0.00000000 0.00000000
Neuron 4 1 0.00000000 1 0.00000000 0.00000000 0.00000000 0.00000000
Neuron 5 1 0.00000000 1 0.00000000 0.00000000 0.00000000 0.00000000
Neuron 6 2 0.00000000 1 0.00000000 0.00000000 0.00000000 0.00000000
Neuron 7 4 1.00000000 1 3.02500000 0.00000000 0.00000000 0.00000000
Neuron 8 4 1.00000000 1 3.02500000 0.00000000 0.00000000 0.00000000
Neuron 10 3 0.50000000 4 4.46394765 0.00000000 0.00000000 0.00000000
Neuron 14 3 0.50000000 6 3.56554023 0.00000000 0.00000000 0.00000000
Neuron 16 3 0.25000000 1 3.85227799 0.00000000 0.00000000 0.00000000
Neuron 17 3 0.50000000 1 5.01034854 0.00000000 0.00000000 0.00000000
Neuron 18 3 0.25000000 1 5.92086029 0.00000000 0.00000000 0.00000000
Link 2 7 2 0 0.10765392
Link 3 7 3 0 -0.09745759
Link 5 7 5 0 0.08892867
Link 6 7 6 0 -0.28580376
Link 1 8 7 0 -0.66456228
Link 3 8 9 0 0.40626472
Link 4 8 10 0 0.49809297
Link 5 8 11 0 0.27029024
Link 6 8 12 0 0.58881575
Link 4 10 17 0 0.79231499
Link 10 7 18 0 -0.39518436
Link 14 8 35 0 -0.21778796
Link 2 16 43 0 0.89194980
Link 16 14 44 0 0.93141831
Link 17 7 47 0 0.18421207
Link 1 18 50 0 1.06804649
Link 18 17 51 0 0.85857287
GenomeEnd

GenomeStart 5176
Genome Fitness: 158.000000 
Neuron 1 1 0.00000000 1 0.00000000 0.00000000 0.00000000 0.00000000
Neuron 2 1 0.00000000 1 0.00000000 0.00000000 0.00000000 0.00000000
Neuron 3 1 0.00000000 1 0.00000000 0.00000000 0.00000000 0.00000000
Neuron 4 1 0.00000000 1 0.00000000 0.00000000 0.00000000 0.00000000
Neuron 5 1 0.00000000 1 0.00000000 0.00000000 0.00000000 0.00000000
Neuron 6 2 0.00000000 1 0.00000000 0.00000000 0.00000000 0.00000000
Neuron 7 4 1.00000000 1 3.02500000 0.00000000 0.00000000 0.00000000
Neuron 8 4 1.00000000 1 3.02500000 0.00000000 0.00000000 0.00000000
Neuron 10 3 0.50000000 4 4.46394765 0.00000000 0.00000000 0.00000000
Neuron 14 3 0.50000000 6 3.56554023 0.00000000 0.00000000 0.00000000
Neuron 16 3 0.25000000 1 3.85227799 0.00000000 0.00000000 0.00000000
Neuron 17 3 0.50000000 1 5.01034854 0.00000000 0.00000000 0.00000000
Neuron 18 3 0.25000000 1 5.92086029 0.00000000 0.00000000 0.00000000
Link 2 7 2 0 0.10765392
Link 3 7 3 0 -0.09745759
Link 5 7 5 0 0.11062746
Link 6 7 6 0 -0.28580376
Link 1 8 7 0 -0.66456228
Link 3 8 9 0 0.40626472
Link 4 8 10 0 0.49809297
Link 5 8 11 0 0.27029024
Link 6 8 12 0 0.58881575
Link 4 10 17 0 0.79231499
Link 10 7 18 0 -0.39518436
Link 14 8 35 0 -0.24562430
Link 2 16 43 0 0.89194980
Link 16 14 44 0 0.93141831
Link 17 7 47 0 0.15402271
Link 1 18 50 0 1.06804649
Link 18 17 51 0 0.85857287
GenomeEnd

GenomeStart 5177
Genome Fitness: 101.000000 
Neuron 1 1 0.00000000 1 0.00000000 0.00000000 0.00000000 0.00000000
Neuron 2 1 0.00000000 1 0.00000000 0.00000000 0.00000000 0.00000000
Neuron 3 1 0.00000000 1 0.00000000 0.00000000 0.00000000 0.00000000
Neuron 4 1 0.00000000 1 0.00000000 0.00000000 0.00000000 0.00000000
Neuron 5 1 0.00000000 1 0.00000000 0.00000000 0.00000000 0.00000000
Neuron 6 2 0.00000000 1 0.00000000 0.00000000 0.00000000 0.00000000
Neuron 7 4 1.00000000 1 3.02500000 0.00000000 0.00000000 0.00000000
Neuron 8 4 1.00000000 1 3.02500000 0.00000000 0.00000000 0.00000000
Neuron 10 3 0.50000000 4 4.46394765 0.00000000 0.00000000 0.00000000
Neuron 14 3 0.50000000 6 3.56554023 0.00000000 0.00000000 0.00000000
Neuron 16 3 0.25000000 1 3.85227799 0.00000000 0.00000000 0.00000000
Neuron 17 3 0.50000000 1 5.01034854 0.00000000 0.00000000 0.00000000
Neuron 18 3 0.25000000 1 5.92086029 0.00000000 0.00000000 0.00000000
Link 2 7 2 0 0.05621689
Link 3 7 3 0 -0.04418987
Link 5 7 5 0 0.08892867
Link 6 7 6 0 -0.28580376
Link 1 8 7 0 -0.78742794
Link 3 8 9 0 0.40626472
Link 4 8 10 0 0.49809297
Link 5 8 11 0 0.21562000
Link 6 8 12 0 0.64792758
Link 4 10 17 0 0.79231499
Link 10 7 18 0 -0.40719017
Link 14 8 35 0 -0.21778796
Link 2 16 43 0 0.89194980
Link 16 14 44 0 0.97153575
Link 17 7 47 0 0.18421207
Link 1 18 50 0 1.24226239
Link 18 17 51 0 0.85338353
GenomeEnd

GenomeStart 5178
Genome Fitness: 157.000000 
Neuron 1 1 0.00000000 1 0.00000000 0.00000000 0.00000000 0.00000000
Neuron 2 1 0.00000000 1 0.00000000 0.00000000 0.00000000 0.00000000
Neuron 3 1 0.00000000 1 0.00000000 0.00000000 0.00000000 0.00000000
Neuron 4 1 0.00000000 1 0.00000000 0.00000000 0.00000000 0.00000000
Neuron 5 1 0.00000000 1 0.00000000 0.00000000 0.00000000 0.00000000
Neuron 6 2 0.00000000 1 0.00000000 0.00000000 0.00000000 0.00000000
Neuron 7 4 1.00000000 1 3.02500000 0.00000000 0.00000000 0.00000000
Neuron 8 4 1.00000000 1 3.02500000 0.00000000 0.00000000 0.00000000
Neuron 10 3 0.50000000 4 4.46394765 0.00000000 0.00000000 0.00000000
Neuron 14 3 0.50000000 6 3.56554023 0.00000000 0.00000000 0.00000000
Neuron 16 3 0.25000000 1 3.85227799 0.00000000 0.00000000 0.00000000
Neuron 17 3 0.50000000 1 5.01034854 0.00000000 0.00000000 0.00000000
Neuron 18 3 0.25000000 1 5.92086029 0.00000000 0.00000000 0.00000000
Link 2 7 2 0 0.06153886
Link 3 7 3 0 -0.10349333
Link 5 7 5 0 0.07921576
Link 6 7 6 0 -0.21446944
Link 1 8 7 0 -0.81842230
Link 3 8 9 0 0.58236863
Link 4 8 10 0 0.64316005
Link 5 8 11 0 0.25231666
Link 6 8 12 0 0.77349087
Link 4 10 17 0 0.75482308
Link 10 7 18 0 -0.24192911
Link 14 8 35 0 -0.12866499
Link 2 16 43 0 0.76127163
Link 16 14 44 0 0.83421001
Link 17 7 47 0 0.16052445
Link 1 18 50 0 1.08499346
Link 18 17 51 0 0.81507030
GenomeEnd

GenomeStart 5179
Genome Fitness: 157.000000 
Neuron 1 1 0.00000000 1 0.00000000 0.00000000 0.00000000 0.00000000
Neuron 2 1 0.00000000 1 0.00000000 0.00000000 0.00000000 0.00000000
Neuron 3 1 0.00000000 1 0.00000000 0.00000000 0.00000000 0.00000000
Neuron 4 1 0.00000000 1 0.00000000 0.00000000 0.00000000 0.00000000
Neuron 5 1 0.00000000 1 0.00000000 0.00000000 0.00000000 0.00000000
Neuron 6 2 0.00000000 1 0.00000000 0.00000000 0.00000000 0.00000000
Neuron 7 4 1.00000000 1 3.02500000 0.00000000 0.00000000 0.00000000
Neuron 8 4 1.00000000 1 3.02500000 0.00000000 0.00000000 0.00000000
Neuron 10 3 0.50000000 4 4.46394765 0.00000000 0.00000000 0.00000000
Neuron 14 3 0.50000000 6 3.56554023 0.00000000 0.00000000 0.00000000
Neuron 16 3 0.25000000 1 3.85227799 0.00000000 0.00000000 0.00000000
Neuron 17 3 0.50000000 1 5.01034854 0.00000000 0.00000000 0.00000000
Neuron 18 3 0.25000000 1 5.92086029 0.00000000 0.00000000 0.00000000
Link 2 7 2 0 0.10765392
Link 3 7 3 0 -0.01655355
Link 5 7 5 0 0.12308380
Link 6 7 6 0 -0.33898873
Link 1 8 7 0 -0.66456228
Link 3 8 9 0 0.41906194
Link 4 8 10 0 0.34990517
Link 5 8 11 0 0.20249982
Link 6 8 12 0 0.72264266
Link 4 10 17 0 0.97294593
Link 10 7 18 0 -0.52688979
Link 14 8 35 0 -0.26714040
Link 2 16 43 0 0.87359316
Link 16 14 44 0 -0.08953825
Link 17 7 47 0 0.15402271
Link 1 18 50 0 -0.46375166
Link 18 17 51 0 0.90788326
GenomeEnd

GenomeStart 5180
Genome Fitness: 135.000000 
Neuron 1 1 0.00000000 1 0.00000000 0.00000000 0.00000000 0.00000000
Neuron 2 1 0.00000000 1 0.00000000 0.00000000 0.00000000 0.00000000
Neuron 3 1 0.00000000 1 0.00000000 0.00000000 0.00000000 0.00000000
Neuron 4 1 0.00000000 1 0.00000000 0.00000000 0.00000000 0.00000000
Neuron 5 1 0.00000000 1 0.00000000 0.00000000 0.00000000 0.00000000
Neuron 6 2 0.00000000 1 0.00000000 0.00000000 0.00000000 0.00000000
Neuron 7 4 1.00000000 1 3.02500000 0.00000000 0.00000000 0.00000000
Neuron 8 4 1.00000000 1 3.02500000 0.00000000 0.00000000 0.00000000
Neuron 10 3 0.50000000 4 4.46394765 0.00000000 0.00000000 0.00000000
Neuron 14 3 0.50000000 6 3.56554023 0.00000000 0.00000000 0.00000000
Neuron 16 3 0.25000000 1 3.85227799 0.00000000 0.00000000 0.00000000
Neuron 17 3 0.50000000 1 5.01034854 0.00000000 0.00000000 0.00000000
Neuron 18 3 0.25000000 1 5.92086029 0.00000000 0.00000000 0.00000000
Link 2 7 2 0 0.10765392
Link 3 7 3 0 -0.24127658
Link 5 7 5 0 0.08466642
Link 6 7 6 0 -0.30841547
Link 1 8 7 0 -0.55659762
Link 3 8 9 0 0.40226396
Link 4 8 10 0 0.49809297
Link 5 8 11 0 0.24942554
Link 6 8 12 0 0.58881575
Link 4 10 17 0 0.76015404
Link 10 7 18 0 -0.39518436
Link 14 8 35 0 -0.24562430
Link 2 16 43 0 0.89194980
Link 16 14 44 0 0.93141831
Link 17 7 47 0 0.16911739
Link 1 18 50 0 1.06804649
Link 18 17 51 0 0.85857287
GenomeEnd

GenomeStart 5181
Genome Fitness: 158.000000 
Neuron 1 1 0.00000000 1 0.00000000 0.00000000 0.00000000 0.00000000
Neuron 2 1 0.00000000 1 0.00000000 0.00000000 0.00000000 0.00000000
Neuron 3 1 0.00000000 1 0.00000000 0.00000000 0.00000000 0.00000000
Neuron 4 1 0.00000000 1 0.00000000 0.00000000 0.00000000 0.00000000
Neuron 5 1 0.00000000 1 0.00000000 0.00000000 0.00000000 0.00000000
Neuron 6 2 0.00000000 1 0.00000000 0.00000000 0.00000000 0.00000000
Neuron 7 4 1.00000000 1 3.02500000 0.00000000 0.00000000 0.00000000
Neuron 8 4 1.00000000 1 3.02500000 0.00000000 0.00000000 0.00000000
Neuron 10 3 0.50000000 4 4.46394765 0.00000000 0.00000000 0.00000000
Neuron 11 3 0.50000000 4 2.33646242 0.00000000 0.00000000 0.00000000
Neuron 14 3 0.50000000 6 3.56554023 0.00000000 0.00000000 0.00000000
Neuron 16 3 0.25000000 1 3.85227799 0.00000000 0.00000000 0.00000000
Link 1 7 1 0 0.56696093
Link 2 7 2 0 -0.05220762
Link 3 7 3 0 0.02493603
Link 5 7 5 0 -0.03142743
Link 6 7 6 0 0.23602590
Link 1 8 7 0 -0.17367832
Link 4 8 10 0 0.62504962
Link 5 8 11 0 0.05671141
Link 6 8 12 0 0.04057763
Link 4 10 17 0 0.99274921
Link 10 7 18 0 -0.18049887
Link 3 11 24 0 -0.72016268
Link 11 8 25 0 0.25474748
Link 14 8 35 0 -0.51685694
Link 2 16 43 0 0.03690172
Link 16 14 44 0 1.13994736
GenomeEnd

GenomeStart 5182
Genome Fitness: 158.000000 
Neuron 1 1 0.00000000 1 0.00000000 0.00000000 0.00000000 0.00000000
Neuron 2 1 0.00000000 1 0.00000000 0.00000000 0.00000000 0.00000000
Neuron 3 1 0.00000000 1 0.00000000 0.00000000 0.00000000 0.00000000
Neuron 4 1 0.00000000 1 0.00000000 0.00000000 0.00000000 0.00000000
Neuron 5 1 0.00000000 1 0.00000000 0.00000000 0.00000000 0.00000000
Neuron 6 2 0.00000000 1 0.00000000 0.00000000 0.00000000 0.00000000
Neuron 7 4 1.00000000 1 3.02500000 0.00000000 0.00000000 0.00000000
Neuron 8 4 1.00000000 1 3.02500000 0.00000000 0.00000000 0.00000000
Neuron 10 3 0.50000000 4 4.46394765 0.00000000 0.00000000 0.00000000
Neuron 11 3 0.50000000 4 2.33646242 0.00000000 0.00000000 0.00000000
Neuron 14 3 0.50000000 6 3.56554023 0.00000000 0.00000000 0.00000000
Neuron 16 3 0.25000000 1 3.85227799 0.00000000 0.00000000 0.00000000
Link 1 7 1 0 0.43682310
Link 2 7 2 0 -0.33100001
Link 3 7 3 0 -0.19976812
Link 5 7 5 0 -0.01560350
Link 6 7 6 0 0.28627823
Link 1 8 7 0 -0.31568796
Link 4 8 10 0 0.88963385
Link 5 8 11 0 0.16282142
Link 6 8 12 0 0.01269028
Link 4 10 17 0 1.03779706
Link 10 7 18 0 -0.12663504
Link 3 11 24 0 -0.68929187
Link 11 8 25 0 0.27790568
Link 14 8 35 0 -0.67304412
Link 2 16 43 0 0.34639939
Link 16 14 44 0 1.23196496
GenomeEnd

GenomeStart 5183
Genome Fitness: 158.000000 
Neuron 1 1 0.00000000 1 0.00000000 0.00000000 0.00000000 0.00000000
Neuron 2 1 0.00000000 1 0.00000000 0.00000000 0.00000000 0.00000000
Neuron 3 1 0.00000000 1 0.00000000 0.00000000 0.00000000 0.00000000
Neuron 4 1 0.00000000 1 0.00000000 0.00000000 0.00000000 0.00000000
Neuron 5 1 0.00000000 1 0.00000000 0.00000000 0.00000000 0.00000000
Neuron 6 2 0.00000000 1 0.00000000 0.00000000 0.00000000 0.00000000
Neuron 7 4 1.00000000 1 3.02500000 0.00000000 0.00000000 0.00000000
Neuron 8 4 1.00000000 1 3.02500000 0.00000000 0.00000000 0.00000000
Neuron 10 3 0.50000000 4 4.46394765 0.00000000 0.00000000 0.00000000
Neuron 11 3 0.50000000 4 2.33646242 0.00000000 0.00000000 0.00000000
Neuron 14 3 0.50000000 6 3.56554023 0.00000000 0.00000000 0.00000000
Neuron 16 3 0.25000000 1 3.85227799 0.00000000 0.00000000 0.00000000
Neuron 28 3 0.25000000 4 3.35343660 0.00000000 0.00000000 0.00000000
Link 1 7 1 0 0.56696093
Link 2 7 2 0 -0.05220762
Link 3 7 3 0 0.02493603
Link 5 7 5 0 -0.03142743
Link 6 7 6 0 0.23602590
Link 1 8 7 0 -0.17367832
Link 4 8 10 0 0.62504962
Link 5 8 11 0 0.05671141
Link 6 8 12 0 0.04057763
Link 4 10 17 0 0.99274921
Link 10 7 18 0 -0.18049887
Link 11 8 25 0 0.25474748
Link 14 8 35 0 -0.51685694
Link 2 16 43 0 0.03690172
Link 16 14 44 0 1.13994736
Link 3 28 99 0 1.00000000
Link 28 11 100 0 -0.72016268
GenomeEnd

GenomeStart 5184
Genome Fitness: 123.000000 
Neuron 1 1 0.00000000 1 0.00000000 0.00000000 0.00000000 0.00000000
Neuron 2 1 0.00000000 1 0.00000000 0.00000000 0.00000000 0.00000000
Neuron 3 1 0.00000000 1 0.00000000 0.00000000 0.00000000 0.00000000
Neuron 4 1 0.00000000 1 0.00000000 0.00000000 0.00000000 0.00000000
Neuron 5 1 0.00000000 1 0.00000000 0.00000000 0.00000000 0.00000000
Neuron 6 2 0.00000000 1 0.00000000 0.00000000 0.00000000 0.00000000
Neuron 7 4 1.00000000 1 3.02500000 0.00000000 0.00000000 0.00000000
Neuron 8 4 1.00000000 1 3.02500000 0.00000000 0.00000000 0.00000000
Neuron 10 3 0.50000000 4 4.46394765 0.00000000 0.00000000 0.00000000
Neuron 11 3 0.50000000 4 2.33646242 0.00000000 0.00000000 0.00000000
Neuron 14 3 0.50000000 6 3.56554023 0.00000000 0.00000000 0.00000000
Neuron 16 3 0.25000000 1 3.85227799 0.00000000 0.00000000 0.00000000
Link 1 7 1 0 0.45943536
Link 2 7 2 0 -0.05220762
Link 3 7 3 0 0.12027166
Link 5 7 5 0 -0.16292236
Link 6 7 6 0 0.23602590
Link 1 8 7 0 -0.17367832
Link 4 8 10 0 0.62504962
Link 5 8 11 0 0.06893301
Link 6 8 12 0 0.04057763
Link 4 10 17 0 0.87688342
Link 10 7 18 0 -0.12995095
Link 3 11 24 0 -0.77720794
Link 11 8 25 0 0.25474748
Link 14 8 35 0 -0.51685694
Link 2 16 43 0 0.03690172
Link 16 14 44 0 1.02294286
GenomeEnd

GenomeStart 5185
Genome Fitness: 158.000000 
Neuron 1 1 0.00000000 1 0.00000000 0.00000000 0.00000000 0.00000000
Neuron 2 1 0.00000000 1 0.00000000 0.00000000 0.00000000 0.00000000
Neuron 3 1 0.00000000 1 0.00000000 0.00000000 0.00000000 0.00000000
Neuron 4 1 0.00000000 1 0.00000000 0.00000000 0.00000000 0.00000000
Neuron 5 1 0.00000000 1 0.00000000 0.00000000 0.00000000 0.00000000
Neuron 6 2 0.00000000 1 0.00000000 0.00000000 0.00000000 0.00000000
Neuron 7 4 1.00000000 1 3.02500000 0.00000000 0.00000000 0.00000000
Neuron 8 4 1.00000000 1 3.02500000 0.00000000 0.00000000 0.00000000
Neuron 10 3 0.50000000 4 4.46394765 0.00000000 0.00000000 0.00000000
Neuron 11 3 0.50000000 4 2.33646242 0.00000000 0.00000000 0.00000000
Neuron 14 3 0.50000000 6 3.56554023 0.00000000 0.00000000 0.00000000
Neuron 16 3 0.25000000 1 3.85227799 0.00000000 0.00000000 0.00000000
Link 1 7 1 0 0.50189201
Link 2 7 2 0 -0.19160381
Link 3 7 3 0 -0.08741605
Link 5 7 5 0 -0.02351547
Link 6 7 6 0 0.26115206
Link 1 8 7 0 -0.24468314
Link 4 8 10 0 0.75734174
Link 5 8 11 0 0.10976642
Link 6 8 12 0 0.02663396
Link 4 10 17 0 1.01527313
Link 10 7 18 0 -0.15356695
Link 3 11 24 0 -0.70472728
