NEAT_ParametersStart
PopulationSize 150
DynamicCompatibility true
MinSpecies 5
MaxSpecies 25
InnovationsForever true
AllowClones true
YoungAgeTreshold 15
YoungAgeFitnessBoost 1.10000000000000008882
SpeciesDropoffAge 50
StagnationDelta 0.00000000000000000000
OldAgeTreshold 35
OldAgePenalty 1.00000000000000000000
DetectCompetetiveCoevolutionStagnation false
KillWorstSpeciesEach 15
KillWorstAge 10
SurvivalRate 0.20000000000000001110
CrossoverRate 0.69999999999999995559
OverallMutationRate 0.14999999999999999445
InterspeciesCrossoverRate 0.00010000000000000000
MultipointCrossoverRate 0.75000000000000000000
RouletteWheelSelection true
PhasedSearching false
DeltaCoding false
SimplifyingPhaseMPCTreshold 20
SimplifyingPhaseStagnationTreshold 30
ComplexityFloorGenerations 40
NoveltySearch_K 15
NoveltySearch_P_min 0.50000000000000000000
NoveltySearch_Dynamic_Pmin true
NoveltySearch_No_Archiving_Stagnation_Treshold 150
NoveltySearch_Pmin_lowering_multiplier 0.90000000000000002220
NoveltySearch_Pmin_min 0.05000000000000000278
NoveltySearch_Quick_Archiving_Min_Evaluations 8
NoveltySearch_Pmin_raising_multiplier 1.10000000000000008882
NoveltySearch_Recompute_Sparseness_Each 25
MutateAddNeuronProb 0.05000000000000000278
SplitRecurrent true
SplitLoopedRecurrent true
NeuronTries 32545
MutateAddLinkProb 0.08000000000000000167
MutateAddLinkFromBiasProb 0.00000000000000000000
MutateRemLinkProb 0.02000000000000000042
MutateRemSimpleNeuronProb 0.00000000000000000000
LinkTries 32
RecurrentProb 0.00000000000000000000
RecurrentLoopProb 0.25000000000000000000
MutateWeightsProb 0.90000000000000002220
MutateWeightsSevereProb 0.25000000000000000000
WeightMutationRate 1.00000000000000000000
WeightMutationMaxPower 0.20000000000000001110
WeightReplacementMaxPower 1.00000000000000000000
MaxWeight 8.00000000000000000000
MutateActivationAProb 0.00000000000000000000
MutateActivationBProb 0.00000000000000000000
ActivationAMutationMaxPower 0.50000000000000000000
ActivationBMutationMaxPower 0.00000000000000000000
TimeConstantMutationMaxPower 0.00000000000000000000
BiasMutationMaxPower 1.00000000000000000000
MinActivationA 0.05000000000000000278
MaxActivationA 6.00000000000000000000
MinActivationB 0.00000000000000000000
MaxActivationB 0.00000000000000000000
MutateNeuronActivationTypeProb 0.05000000000000000278
ActivationFunction_SignedSigmoid_Prob 0.00000000000000000000
ActivationFunction_UnsignedSigmoid_Prob 1.00000000000000000000
ActivationFunction_Tanh_Prob 1.00000000000000000000
ActivationFunction_TanhCubic_Prob 0.00000000000000000000
ActivationFunction_SignedStep_Prob 1.00000000000000000000
ActivationFunction_UnsignedStep_Prob 0.00000000000000000000
ActivationFunction_SignedGauss_Prob 1.00000000000000000000
ActivationFunction_UnsignedGauss_Prob 0.00000000000000000000
ActivationFunction_Abs_Prob 1.00000000000000000000
ActivationFunction_SignedSine_Prob 1.00000000000000000000
ActivationFunction_UnsignedSine_Prob 0.00000000000000000000
ActivationFunction_Linear_Prob 1.00000000000000000000
ActivationFunction_Relu_Prob 0.00000000000000000000
ActivationFunction_Softplus_Prob 0.00000000000000000000
MutateNeuronTimeConstantsProb 0.00000000000000000000
MutateNeuronBiasesProb 0.00000000000000000000
MinNeuronTimeConstant 0.00000000000000000000
MaxNeuronTimeConstant 0.00000000000000000000
MinNeuronBias 0.00000000000000000000
MaxNeuronBias 0.00000000000000000000
DisjointCoeff 1.00000000000000000000
ExcessCoeff 1.00000000000000000000
ActivationADiffCoeff 0.00000000000000000000
ActivationBDiffCoeff 0.00000000000000000000
WeightDiffCoeff 0.50000000000000000000
TimeConstantDiffCoeff 0.00000000000000000000
BiasDiffCoeff 0.00000000000000000000
ActivationFunctionDiffCoeff 0.00000000000000000000
CompatTreshold 2.89999999999999946709
MinCompatTreshold 0.20000000000000001110
CompatTresholdModifier 0.29999999999999998890
CompatTreshChangeInterval_Generations 1
CompatTreshChangeInterval_Evaluations 10
DivisionThreshold 0.02999999999999999889
VarianceThreshold 0.02999999999999999889
BandThreshold 0.29999999999999998890
InitialDepth 3
MaxDepth 3
IterationLevel 1
TournamentSize 2
CPPN_Bias 1.00000000000000000000
Width 2.00000000000000000000
Height 2.00000000000000000000
Qtree_X 0.00000000000000000000
Qtree_Y 0.00000000000000000000
Leo false
LeoThreshold 0.10000000000000000555
LeoSeed false
GeometrySeed false
Elitism 0.10000000000000000555
NEAT_ParametersEnd
InnovationDatabaseStart
NextInnovNum: 83
NextNeuronID: 24
Innovation 1 1 1 7 0 -1
Innovation 2 1 2 7 0 -1
Innovation 3 1 3 7 0 -1
Innovation 4 1 4 7 0 -1
Innovation 5 1 5 7 0 -1
Innovation 6 1 6 7 0 -1
Innovation 7 1 1 8 0 -1
Innovation 8 1 2 8 0 -1
Innovation 9 1 3 8 0 -1
Innovation 10 1 4 8 0 -1
Innovation 11 1 5 8 0 -1
Innovation 12 1 6 8 0 -1
Innovation 13 0 2 7 3 9
Innovation 14 1 2 9 0 -1
Innovation 15 1 9 7 0 -1
Innovation 16 0 4 7 3 10
Innovation 17 1 4 10 0 -1
Innovation 18 1 10 7 0 -1
Innovation 19 1 1 9 0 -1
Innovation 20 1 4 9 0 -1
Innovation 21 1 3 9 0 -1
Innovation 22 1 5 9 0 -1
Innovation 23 0 3 8 3 11
Innovation 24 1 3 11 0 -1
Innovation 25 1 11 8 0 -1
Innovation 26 1 6 10 0 -1
Innovation 27 0 5 7 3 12
Innovation 28 1 5 12 0 -1
Innovation 29 1 12 7 0 -1
Innovation 30 0 3 7 3 13
Innovation 31 1 3 13 0 -1
Innovation 32 1 13 7 0 -1
Innovation 33 0 2 8 3 14
Innovation 34 1 2 14 0 -1
Innovation 35 1 14 8 0 -1
Innovation 36 1 11 9 0 -1
Innovation 37 0 5 8 3 15
Innovation 38 1 5 15 0 -1
Innovation 39 1 15 8 0 -1
Innovation 40 1 6 9 0 -1
Innovation 41 1 5 10 0 -1
Innovation 42 0 2 14 3 16
Innovation 43 1 2 16 0 -1
Innovation 44 1 16 14 0 -1
Innovation 45 0 1 7 3 17
Innovation 46 1 1 17 0 -1
Innovation 47 1 17 7 0 -1
Innovation 48 1 6 11 0 -1
Innovation 49 0 1 17 3 18
Innovation 50 1 1 18 0 -1
Innovation 51 1 18 17 0 -1
Innovation 52 1 1 16 0 -1
Innovation 53 1 10 8 0 -1
Innovation 54 1 3 15 0 -1
Innovation 55 1 12 8 0 -1
Innovation 56 1 15 10 0 -1
Innovation 57 0 1 8 3 19
Innovation 58 1 1 19 0 -1
Innovation 59 1 19 8 0 -1
Innovation 60 1 18 8 0 -1
Innovation 61 1 5 14 0 -1
Innovation 62 0 4 10 3 20
Innovation 63 1 4 20 0 -1
Innovation 64 1 20 10 0 -1
Innovation 65 1 1 12 0 -1
Innovation 66 1 1 10 0 -1
Innovation 67 0 10 7 3 21
Innovation 68 1 10 21 0 -1
Innovation 69 1 21 7 0 -1
Innovation 70 1 10 13 0 -1
Innovation 71 1 16 10 0 -1
Innovation 72 0 15 8 3 22
Innovation 73 1 15 22 0 -1
Innovation 74 1 22 8 0 -1
Innovation 75 1 14 7 0 -1
Innovation 76 1 20 14 0 -1
Innovation 77 0 9 7 3 23
Innovation 78 1 9 23 0 -1
Innovation 79 1 23 7 0 -1
Innovation 80 1 20 17 0 -1
Innovation 81 1 2 23 0 -1
Innovation 82 1 12 10 0 -1
InnovationDatabaseEnd

GenomeStart 1810
Genome Fitness: 159.000000 
Neuron 1 1 0.00000000 1 0.00000000 0.00000000 0.00000000 0.00000000
Neuron 2 1 0.00000000 1 0.00000000 0.00000000 0.00000000 0.00000000
Neuron 3 1 0.00000000 1 0.00000000 0.00000000 0.00000000 0.00000000
Neuron 4 1 0.00000000 1 0.00000000 0.00000000 0.00000000 0.00000000
Neuron 5 1 0.00000000 1 0.00000000 0.00000000 0.00000000 0.00000000
Neuron 6 2 0.00000000 1 0.00000000 0.00000000 0.00000000 0.00000000
Neuron 7 4 1.00000000 1 3.02500000 0.00000000 0.00000000 0.00000000
Neuron 8 4 1.00000000 1 3.02500000 0.00000000 0.00000000 0.00000000
Neuron 10 3 0.50000000 4 4.46394765 0.00000000 0.00000000 0.00000000
Link 1 7 1 0 -0.06703242
Link 2 7 2 0 0.22933279
Link 3 7 3 0 -0.77451688
Link 5 7 5 0 0.17846080
Link 6 7 6 0 0.33219621
Link 1 8 7 0 -0.43958355
Link 2 8 8 0 -0.23993574
Link 3 8 9 0 0.51523274
Link 4 8 10 0 0.22298024
Link 5 8 11 0 0.36073923
Link 6 8 12 0 0.22049018
Link 4 10 17 0 0.89633670
Link 10 7 18 0 -0.14627141
GenomeEnd

GenomeStart 1811
Genome Fitness: 158.000000 
Neuron 1 1 0.00000000 1 0.00000000 0.00000000 0.00000000 0.00000000
Neuron 2 1 0.00000000 1 0.00000000 0.00000000 0.00000000 0.00000000
Neuron 3 1 0.00000000 1 0.00000000 0.00000000 0.00000000 0.00000000
Neuron 4 1 0.00000000 1 0.00000000 0.00000000 0.00000000 0.00000000
Neuron 5 1 0.00000000 1 0.00000000 0.00000000 0.00000000 0.00000000
Neuron 6 2 0.00000000 1 0.00000000 0.00000000 0.00000000 0.00000000
Neuron 7 4 1.00000000 1 3.02500000 0.00000000 0.00000000 0.00000000
Neuron 8 4 1.00000000 1 3.02500000 0.00000000 0.00000000 0.00000000
Neuron 10 3 0.50000000 4 4.46394765 0.00000000 0.00000000 0.00000000
Link 1 7 1 0 0.05835593
Link 2 7 2 0 0.31485792
Link 3 7 3 0 -0.75361677
Link 5 7 5 0 0.19017421
Link 6 7 6 0 0.32431415
Link 1 8 7 0 -0.44477485
Link 2 8 8 0 -0.30566209
Link 3 8 9 0 0.57146336
Link 4 8 10 0 0.23972057
Link 5 8 11 0 0.41175159
Link 6 8 12 0 0.23049158
Link 4 10 17 0 0.89027250
Link 10 7 18 0 -0.17973934
GenomeEnd

GenomeStart 1812
Genome Fitness: 147.000000 
Neuron 1 1 0.00000000 1 0.00000000 0.00000000 0.00000000 0.00000000
Neuron 2 1 0.00000000 1 0.00000000 0.00000000 0.00000000 0.00000000
Neuron 3 1 0.00000000 1 0.00000000 0.00000000 0.00000000 0.00000000
Neuron 4 1 0.00000000 1 0.00000000 0.00000000 0.00000000 0.00000000
Neuron 5 1 0.00000000 1 0.00000000 0.00000000 0.00000000 0.00000000
Neuron 6 2 0.00000000 1 0.00000000 0.00000000 0.00000000 0.00000000
Neuron 7 4 1.00000000 1 3.02500000 0.00000000 0.00000000 0.00000000
Neuron 8 4 1.00000000 1 3.02500000 0.00000000 0.00000000 0.00000000
Neuron 10 3 0.50000000 4 4.46394765 0.00000000 0.00000000 0.00000000
Link 1 7 1 0 -0.02035359
Link 2 7 2 0 0.19718486
Link 3 7 3 0 -0.86195012
Link 5 7 5 0 0.32671868
Link 6 7 6 0 0.33140740
Link 1 8 7 0 -0.50043360
Link 2 8 8 0 -0.25376551
Link 3 8 9 0 0.58093320
Link 4 8 10 0 0.33784308
Link 5 8 11 0 0.40593340
Link 6 8 12 0 0.30974785
Link 4 10 17 0 0.92198790
Link 10 7 18 0 -0.23937584
GenomeEnd

GenomeStart 1813
Genome Fitness: 157.000000 
Neuron 1 1 0.00000000 1 0.00000000 0.00000000 0.00000000 0.00000000
Neuron 2 1 0.00000000 1 0.00000000 0.00000000 0.00000000 0.00000000
Neuron 3 1 0.00000000 1 0.00000000 0.00000000 0.00000000 0.00000000
Neuron 4 1 0.00000000 1 0.00000000 0.00000000 0.00000000 0.00000000
Neuron 5 1 0.00000000 1 0.00000000 0.00000000 0.00000000 0.00000000
Neuron 6 2 0.00000000 1 0.00000000 0.00000000 0.00000000 0.00000000
Neuron 7 4 1.00000000 1 3.02500000 0.00000000 0.00000000 0.00000000
Neuron 8 4 1.00000000 1 3.02500000 0.00000000 0.00000000 0.00000000
Neuron 10 3 0.50000000 4 4.46394765 0.00000000 0.00000000 0.00000000
Link 1 7 1 0 -0.06703242
Link 2 7 2 0 0.22933279
Link 3 7 3 0 -0.77451688
Link 5 7 5 0 0.08993763
Link 6 7 6 0 0.33219621
Link 1 8 7 0 -0.43958355
Link 2 8 8 0 -0.15266291
Link 3 8 9 0 0.47638020
Link 4 8 10 0 0.22298024
Link 5 8 11 0 0.34644511
Link 6 8 12 0 0.21640434
Link 4 10 17 0 -0.07661077
Link 10 7 18 0 -0.14627141
GenomeEnd

GenomeStart 1814
Genome Fitness: 36.000000 
Neuron 1 1 0.00000000 1 0.00000000 0.00000000 0.00000000 0.00000000
Neuron 2 1 0.00000000 1 0.00000000 0.00000000 0.00000000 0.00000000
Neuron 3 1 0.00000000 1 0.00000000 0.00000000 0.00000000 0.00000000
Neuron 4 1 0.00000000 1 0.00000000 0.00000000 0.00000000 0.00000000
Neuron 5 1 0.00000000 1 0.00000000 0.00000000 0.00000000 0.00000000
Neuron 6 2 0.00000000 1 0.00000000 0.00000000 0.00000000 0.00000000
Neuron 7 4 1.00000000 1 3.02500000 0.00000000 0.00000000 0.00000000
Neuron 8 4 1.00000000 1 3.02500000 0.00000000 0.00000000 0.00000000
Neuron 10 3 0.50000000 4 4.46394765 0.00000000 0.00000000 0.00000000
Link 1 7 1 0 -0.10207550
Link 2 7 2 0 0.13530256
Link 3 7 3 0 -0.67075730
Link 5 7 5 0 0.23602301
Link 6 7 6 0 0.31287809
Link 1 8 7 0 -0.33371130
Link 2 8 8 0 -0.24021594
Link 3 8 9 0 0.53012246
Link 4 8 10 0 0.29255320
Link 5 8 11 0 0.32210528
Link 6 8 12 0 0.38513252
Link 4 10 17 0 0.95270128
Link 10 7 18 0 -0.16365586
GenomeEnd

GenomeStart 1815
Genome Fitness: 159.000000 
Neuron 1 1 0.00000000 1 0.00000000 0.00000000 0.00000000 0.00000000
Neuron 2 1 0.00000000 1 0.00000000 0.00000000 0.00000000 0.00000000
Neuron 3 1 0.00000000 1 0.00000000 0.00000000 0.00000000 0.00000000
Neuron 4 1 0.00000000 1 0.00000000 0.00000000 0.00000000 0.00000000
Neuron 5 1 0.00000000 1 0.00000000 0.00000000 0.00000000 0.00000000
Neuron 6 2 0.00000000 1 0.00000000 0.00000000 0.00000000 0.00000000
Neuron 7 4 1.00000000 1 3.02500000 0.00000000 0.00000000 0.00000000
Neuron 8 4 1.00000000 1 3.02500000 0.00000000 0.00000000 0.00000000
Neuron 10 3 0.50000000 4 4.46394765 0.00000000 0.00000000 0.00000000
Neuron 13 3 0.50000000 9 1.09020310 0.00000000 0.00000000 0.00000000
Link 1 7 1 0 0.03145473
Link 2 7 2 0 0.39578639
Link 5 7 5 0 -0.15258489
Link 6 7 6 0 0.21928844
Link 1 8 7 0 -0.40790582
Link 2 8 8 0 -0.40939948
Link 3 8 9 0 0.62909836
Link 4 8 10 0 0.32385354
Link 5 8 11 0 0.46831884
Link 6 8 12 0 0.26780929
Link 4 10 17 0 1.18759108
Link 10 7 18 0 -0.44376293
Link 3 13 31 0 1.19629036
Link 13 7 32 0 -0.76089505
GenomeEnd

GenomeStart 1816
Genome Fitness: 158.000000 
Neuron 1 1 0.00000000 1 0.00000000 0.00000000 0.00000000 0.00000000
Neuron 2 1 0.00000000 1 0.00000000 0.00000000 0.00000000 0.00000000
Neuron 3 1 0.00000000 1 0.00000000 0.00000000 0.00000000 0.00000000
Neuron 4 1 0.00000000 1 0.00000000 0.00000000 0.00000000 0.00000000
Neuron 5 1 0.00000000 1 0.00000000 0.00000000 0.00000000 0.00000000
Neuron 6 2 0.00000000 1 0.00000000 0.00000000 0.00000000 0.00000000
Neuron 7 4 1.00000000 1 3.02500000 0.00000000 0.00000000 0.00000000
Neuron 8 4 1.00000000 1 3.02500000 0.00000000 0.00000000 0.00000000
Neuron 10 3 0.50000000 4 4.46394765 0.00000000 0.00000000 0.00000000
Neuron 13 3 0.50000000 9 1.09020310 0.00000000 0.00000000 0.00000000
Link 1 7 1 0 0.05030621
Link 2 7 2 0 0.00505074
Link 5 7 5 0 0.05754687
Link 6 7 6 0 0.23062266
Link 1 8 7 0 -0.51772064
Link 2 8 8 0 -0.23705776
Link 3 8 9 0 0.41579690
Link 4 8 10 0 0.35776735
Link 5 8 11 0 0.42555312
Link 6 8 12 0 0.17339021
Link 4 10 17 0 0.99226784
Link 10 7 18 0 -0.13818181
Link 3 13 31 0 1.02114850
Link 13 7 32 0 -0.78956560
GenomeEnd

GenomeStart 1817
Genome Fitness: 101.000000 
Neuron 1 1 0.00000000 1 0.00000000 0.00000000 0.00000000 0.00000000
Neuron 2 1 0.00000000 1 0.00000000 0.00000000 0.00000000 0.00000000
Neuron 3 1 0.00000000 1 0.00000000 0.00000000 0.00000000 0.00000000
Neuron 4 1 0.00000000 1 0.00000000 0.00000000 0.00000000 0.00000000
Neuron 5 1 0.00000000 1 0.00000000 0.00000000 0.00000000 0.00000000
Neuron 6 2 0.00000000 1 0.00000000 0.00000000 0.00000000 0.00000000
Neuron 7 4 1.00000000 11 3.02500000 0.00000000 0.00000000 0.00000000
Neuron 8 4 1.00000000 1 3.02500000 0.00000000 0.00000000 0.00000000
Neuron 10 3 0.50000000 4 4.46394765 0.00000000 0.00000000 0.00000000
Neuron 13 3 0.50000000 9 1.09020310 0.00000000 0.00000000 0.00000000
Link 1 7 1 0 -0.07856747
Link 2 7 2 0 0.35372418
Link 5 7 5 0 0.03182700
Link 6 7 6 0 0.27191701
Link 1 8 7 0 -0.45744717
Link 2 8 8 0 -0.17919840
Link 3 8 9 0 0.47447516
Link 4 8 10 0 0.24580596
Link 5 8 11 0 0.59469332
Link 6 8 12 0 0.32577234
Link 4 10 17 0 0.95327118
Link 10 7 18 0 -0.23335109
Link 3 13 31 0 1.14934786
Link 13 7 32 0 -0.43976612
GenomeEnd

GenomeStart 1818
Genome Fitness: 101.000000 
Neuron 1 1 0.00000000 1 0.00000000 0.00000000 0.00000000 0.00000000
Neuron 2 1 0.00000000 1 0.00000000 0.00000000 0.00000000 0.00000000
Neuron 3 1 0.00000000 1 0.00000000 0.00000000 0.00000000 0.00000000
Neuron 4 1 0.00000000 1 0.00000000 0.00000000 0.00000000 0.00000000
Neuron 5 1 0.00000000 1 0.00000000 0.00000000 0.00000000 0.00000000
Neuron 6 2 0.00000000 1 0.00000000 0.00000000 0.00000000 0.00000000
Neuron 7 4 1.00000000 1 3.02500000 0.00000000 0.00000000 0.00000000
Neuron 8 4 1.00000000 1 3.02500000 0.00000000 0.00000000 0.00000000
Neuron 10 3 0.50000000 4 4.46394765 0.00000000 0.00000000 0.00000000
Neuron 13 3 0.50000000 9 1.09020310 0.00000000 0.00000000 0.00000000
Link 1 7 1 0 0.09542261
Link 2 7 2 0 0.20127852
Link 5 7 5 0 -0.05080239
Link 6 7 6 0 0.15390840
Link 1 8 7 0 -0.51094747
Link 2 8 8 0 -0.35107708
Link 3 8 9 0 0.51149672
Link 4 8 10 0 0.38712678
Link 5 8 11 0 0.34716915
Link 6 8 12 0 0.27517366
Link 4 10 17 0 1.13440212
Link 10 7 18 0 -0.27376049
Link 3 13 31 0 1.14123827
Link 13 7 32 0 -0.61342157
GenomeEnd

GenomeStart 1819
Genome Fitness: 101.000000 
Neuron 1 1 0.00000000 1 0.00000000 0.00000000 0.00000000 0.00000000
Neuron 2 1 0.00000000 1 0.00000000 0.00000000 0.00000000 0.00000000
Neuron 3 1 0.00000000 1 0.00000000 0.00000000 0.00000000 0.00000000
Neuron 4 1 0.00000000 1 0.00000000 0.00000000 0.00000000 0.00000000
Neuron 5 1 0.00000000 1 0.00000000 0.00000000 0.00000000 0.00000000
Neuron 6 2 0.00000000 1 0.00000000 0.00000000 0.00000000 0.00000000
Neuron 7 4 1.00000000 1 3.02500000 0.00000000 0.00000000 0.00000000
Neuron 8 4 1.00000000 1 3.02500000 0.00000000 0.00000000 0.00000000
Neuron 10 3 0.50000000 4 4.46394765 0.00000000 0.00000000 0.00000000
Neuron 13 3 0.50000000 9 1.09020310 0.00000000 0.00000000 0.00000000
Link 1 7 1 0 0.05030621
Link 2 7 2 0 0.00505074
Link 5 7 5 0 -0.10080949
Link 6 7 6 0 0.17244194
Link 1 8 7 0 -0.64541842
Link 2 8 8 0 -0.27747578
Link 3 8 9 0 0.44706969
Link 4 8 10 0 0.30800125
Link 5 8 11 0 0.44496926
Link 6 8 12 0 0.17339021
Link 4 10 17 0 0.99226784
Link 10 7 18 0 -0.08565995
Link 3 13 31 0 1.02114850
Link 13 7 32 0 -0.78956560
GenomeEnd

GenomeStart 1820
Genome Fitness: 159.000000 
Neuron 1 1 0.00000000 1 0.00000000 0.00000000 0.00000000 0.00000000
Neuron 2 1 0.00000000 1 0.00000000 0.00000000 0.00000000 0.00000000
Neuron 3 1 0.00000000 1 0.00000000 0.00000000 0.00000000 0.00000000
Neuron 4 1 0.00000000 1 0.00000000 0.00000000 0.00000000 0.00000000
Neuron 5 1 0.00000000 1 0.00000000 0.00000000 0.00000000 0.00000000
Neuron 6 2 0.00000000 1 0.00000000 0.00000000 0.00000000 0.00000000
Neuron 7 4 1.00000000 1 3.02500000 0.00000000 0.00000000 0.00000000
Neuron 8 4 1.00000000 1 3.02500000 0.00000000 0.00000000 0.00000000
Neuron 10 3 0.50000000 4 4.46394765 0.00000000 0.00000000 0.00000000
Neuron 12 3 0.50000000 6 1.76047634 0.00000000 0.00000000 0.00000000
Neuron 21 3 0.75000000 4 0.89827218 0.00000000 0.00000000 0.00000000
Link 1 7 1 0 0.05835593
Link 2 7 2 0 0.31485792
Link 3 7 3 0 -0.75361677
Link 6 7 6 0 0.32431415
Link 1 8 7 0 -0.44477485
Link 2 8 8 0 -0.30566209
Link 3 8 9 0 0.57146336
Link 4 8 10 0 0.23972057
Link 5 8 11 0 0.41175159
Link 6 8 12 0 0.23049158
Link 4 10 17 0 0.89027250
Link 5 12 28 0 1.00000000
Link 12 7 29 0 0.19017421
Link 10 21 68 0 1.00000000
Link 21 7 69 0 -0.17973934
Link 12 10 82 0 -0.31942535
GenomeEnd

GenomeStart 1821
Genome Fitness: 159.000000 
Neuron 1 1 0.00000000 1 0.00000000 0.00000000 0.00000000 0.00000000
Neuron 2 1 0.00000000 1 0.00000000 0.00000000 0.00000000 0.00000000
Neuron 3 1 0.00000000 1 0.00000000 0.00000000 0.00000000 0.00000000
Neuron 4 1 0.00000000 1 0.00000000 0.00000000 0.00000000 0.00000000
Neuron 5 1 0.00000000 1 0.00000000 0.00000000 0.00000000 0.00000000
Neuron 6 2 0.00000000 1 0.00000000 0.00000000 0.00000000 0.00000000
Neuron 7 4 1.00000000 1 3.02500000 0.00000000 0.00000000 0.00000000
Neuron 8 4 1.00000000 1 3.02500000 0.00000000 0.00000000 0.00000000
Neuron 10 3 0.50000000 4 4.46394765 0.00000000 0.00000000 0.00000000
Neuron 12 3 0.50000000 6 1.76047634 0.00000000 0.00000000 0.00000000
Neuron 21 3 0.75000000 4 0.89827218 0.00000000 0.00000000 0.00000000
Link 1 7 1 0 0.05835593
Link 2 7 2 0 0.31485792
Link 3 7 3 0 -0.75361677
Link 6 7 6 0 0.32431415
Link 1 8 7 0 -0.44477485
Link 2 8 8 0 -0.30566209
Link 3 8 9 0 0.57146336
Link 4 8 10 0 0.23972057
Link 5 8 11 0 0.41175159
Link 6 8 12 0 0.23049158
Link 4 10 17 0 0.89027250
Link 5 12 28 0 1.00000000
Link 12 7 29 0 0.19017421
Link 10 21 68 0 1.00000000
Link 21 7 69 0 -0.17973934
GenomeEnd

GenomeStart 1822
Genome Fitness: 101.000000 
Neuron 1 1 0.00000000 1 0.00000000 0.00000000 0.00000000 0.00000000
Neuron 2 1 0.00000000 1 0.00000000 0.00000000 0.00000000 0.00000000
Neuron 3 1 0.00000000 1 0.00000000 0.00000000 0.00000000 0.00000000
Neuron 4 1 0.00000000 1 0.00000000 0.00000000 0.00000000 0.00000000
Neuron 5 1 0.00000000 1 0.00000000 0.00000000 0.00000000 0.00000000
Neuron 6 2 0.00000000 1 0.00000000 0.00000000 0.00000000 0.00000000
Neuron 7 4 1.00000000 1 3.02500000 0.00000000 0.00000000 0.00000000
Neuron 8 4 1.00000000 1 3.02500000 0.00000000 0.00000000 0.00000000
Neuron 10 3 0.50000000 4 4.46394765 0.00000000 0.00000000 0.00000000
Neuron 12 3 0.50000000 6 1.76047634 0.00000000 0.00000000 0.00000000
Neuron 21 3 0.75000000 4 0.89827218 0.00000000 0.00000000 0.00000000
Link 1 7 1 0 0.00764312
Link 2 7 2 0 0.31485792
Link 3 7 3 0 -0.75361677
Link 6 7 6 0 0.32431415
Link 1 8 7 0 -0.55750807
Link 2 8 8 0 -0.33553258
Link 3 8 9 0 0.57146336
Link 4 8 10 0 0.23972057
Link 5 8 11 0 0.41175159
Link 6 8 12 0 0.14376522
Link 4 10 17 0 0.89297087
Link 5 12 28 0 1.00000000
Link 12 7 29 0 0.19017421
Link 10 21 68 0 0.89484991
Link 21 7 69 0 -0.17973934
Link 12 10 82 0 -0.31942535
GenomeEnd

GenomeStart 1823
Genome Fitness: 111.000000 
Neuron 1 1 0.00000000 1 0.00000000 0.00000000 0.00000000 0.00000000
Neuron 2 1 0.00000000 1 0.00000000 0.00000000 0.00000000 0.00000000
Neuron 3 1 0.00000000 1 0.00000000 0.00000000 0.00000000 0.00000000
Neuron 4 1 0.00000000 1 0.00000000 0.00000000 0.00000000 0.00000000
Neuron 5 1 0.00000000 1 0.00000000 0.00000000 0.00000000 0.00000000
Neuron 6 2 0.00000000 1 0.00000000 0.00000000 0.00000000 0.00000000
Neuron 7 4 1.00000000 1 3.02500000 0.00000000 0.00000000 0.00000000
Neuron 8 4 1.00000000 1 3.02500000 0.00000000 0.00000000 0.00000000
Neuron 10 3 0.50000000 4 4.46394765 0.00000000 0.00000000 0.00000000
Neuron 12 3 0.50000000 6 1.76047634 0.00000000 0.00000000 0.00000000
Neuron 21 3 0.75000000 4 0.89827218 0.00000000 0.00000000 0.00000000
Link 1 7 1 0 -0.06519702
Link 2 7 2 0 0.42178683
Link 3 7 3 0 -0.75019558
Link 6 7 6 0 0.32431415
Link 1 8 7 0 -0.44477485
Link 2 8 8 0 -0.30566209
Link 3 8 9 0 0.57146336
Link 4 8 10 0 0.23972057
Link 5 8 11 0 0.41175159
Link 6 8 12 0 -0.80549457
Link 4 10 17 0 0.89027250
Link 5 12 28 0 1.00000000
Link 12 7 29 0 0.19017421
Link 10 21 68 0 0.94019087
Link 21 7 69 0 -0.17973934
GenomeEnd

GenomeStart 1824
Genome Fitness: 160.000000 
Neuron 1 1 0.00000000 1 0.00000000 0.00000000 0.00000000 0.00000000
Neuron 2 1 0.00000000 1 0.00000000 0.00000000 0.00000000 0.00000000
Neuron 3 1 0.00000000 1 0.00000000 0.00000000 0.00000000 0.00000000
Neuron 4 1 0.00000000 1 0.00000000 0.00000000 0.00000000 0.00000000
Neuron 5 1 0.00000000 1 0.00000000 0.00000000 0.00000000 0.00000000
Neuron 6 2 0.00000000 1 0.00000000 0.00000000 0.00000000 0.00000000
Neuron 7 4 1.00000000 1 3.02500000 0.00000000 0.00000000 0.00000000
Neuron 8 4 1.00000000 1 3.02500000 0.00000000 0.00000000 0.00000000
Neuron 10 3 0.50000000 4 4.46394765 0.00000000 0.00000000 0.00000000
Neuron 12 3 0.50000000 6 1.76047634 0.00000000 0.00000000 0.00000000
Neuron 21 3 0.75000000 4 0.89827218 0.00000000 0.00000000 0.00000000
Link 1 7 1 0 0.05835593
Link 2 7 2 0 0.31485792
Link 3 7 3 0 -0.75361677
Link 6 7 6 0 0.32431415
Link 1 8 7 0 -0.44477485
Link 2 8 8 0 -0.30566209
Link 3 8 9 0 0.57146336
Link 4 8 10 0 0.23972057
Link 5 8 11 0 0.41175159
Link 6 8 12 0 0.23049158
Link 4 10 17 0 0.89027250
Link 5 12 28 0 1.00000000
Link 12 7 29 0 0.19017421
Link 10 21 68 0 1.00000000
Link 21 7 69 0 -0.17973934
Link 12 10 82 0 -0.31942535
GenomeEnd

GenomeStart 1843
Genome Fitness: 160.000000 
Neuron 1 1 0.00000000 1 0.00000000 0.00000000 0.00000000 0.00000000
Neuron 2 1 0.00000000 1 0.00000000 0.00000000 0.00000000 0.00000000
Neuron 3 1 0.00000000 1 0.00000000 0.00000000 0.00000000 0.00000000
Neuron 4 1 0.00000000 1 0.00000000 0.00000000 0.00000000 0.00000000
Neuron 5 1 0.00000000 1 0.00000000 0.00000000 0.00000000 0.00000000
Neuron 6 2 0.00000000 1 0.00000000 0.00000000 0.00000000 0.00000000
Neuron 7 4 1.00000000 1 3.02500000 0.00000000 0.00000000 0.00000000
Neuron 8 4 1.00000000 1 3.02500000 0.00000000 0.00000000 0.00000000
Neuron 10 3 0.50000000 4 4.46394765 0.00000000 0.00000000 0.00000000
Neuron 12 3 0.50000000 6 1.76047634 0.00000000 0.00000000 0.00000000
Neuron 21 3 0.75000000 4 0.89827218 0.00000000 0.00000000 0.00000000
Link 1 7 1 0 0.05835593
Link 2 7 2 0 0.31485792
Link 3 7 3 0 -0.75361677
Link 5 7 5 0 0.18752684
Link 6 7 6 0 0.32431415
Link 1 8 7 0 -0.44477485
Link 2 8 8 0 -0.30566209
Link 3 8 9 0 0.57146336
Link 4 8 10 0 0.23972057
Link 5 8 11 0 0.41175159
Link 6 8 12 0 0.23049158
Link 4 10 17 0 0.89027250
Link 5 12 28 0 1.00000000
Link 12 7 29 0 0.19017421
Link 10 21 68 0 1.00000000
Link 21 7 69 0 -0.17973934
GenomeEnd

GenomeStart 1825
Genome Fitness: 159.000000 
Neuron 1 1 0.00000000 1 0.00000000 0.00000000 0.00000000 0.00000000
Neuron 2 1 0.00000000 1 0.00000000 0.00000000 0.00000000 0.00000000
Neuron 3 1 0.00000000 1 0.00000000 0.00000000 0.00000000 0.00000000
Neuron 4 1 0.00000000 1 0.00000000 0.00000000 0.00000000 0.00000000
Neuron 5 1 0.00000000 1 0.00000000 0.00000000 0.00000000 0.00000000
Neuron 6 2 0.00000000 1 0.00000000 0.00000000 0.00000000 0.00000000
Neuron 7 4 1.00000000 1 3.02500000 0.00000000 0.00000000 0.00000000
Neuron 8 4 1.00000000 1 3.02500000 0.00000000 0.00000000 0.00000000
Link 1 7 1 0 0.04439890
Link 2 7 2 0 -0.14359512
Link 3 7 3 0 -0.09073467
Link 4 7 4 0 -0.32318379
Link 5 7 5 0 0.11998308
Link 6 7 6 0 0.19437641
Link 1 8 7 0 0.21083198
Link 2 8 8 0 -0.30121308
Link 3 8 9 0 0.66387240
Link 4 8 10 0 -0.11980866
Link 5 8 11 0 -0.00836247
Link 6 8 12 0 -0.10627224
GenomeEnd

GenomeStart 1826
Genome Fitness: 158.000000 
Neuron 1 1 0.00000000 1 0.00000000 0.00000000 0.00000000 0.00000000
Neuron 2 1 0.00000000 1 0.00000000 0.00000000 0.00000000 0.00000000
Neuron 3 1 0.00000000 1 0.00000000 0.00000000 0.00000000 0.00000000
Neuron 4 1 0.00000000 1 0.00000000 0.00000000 0.00000000 0.00000000
Neuron 5 1 0.00000000 1 0.00000000 0.00000000 0.00000000 0.00000000
Neuron 6 2 0.00000000 1 0.00000000 0.00000000 0.00000000 0.00000000
Neuron 7 4 1.00000000 1 3.02500000 0.00000000 0.00000000 0.00000000
Neuron 8 4 1.00000000 1 3.02500000 0.00000000 0.00000000 0.00000000
Link 1 7 1 0 0.12308727
Link 2 7 2 0 -0.72387969
Link 3 7 3 0 0.08511799
Link 4 7 4 0 -0.32318379
Link 5 7 5 0 0.11998308
Link 6 7 6 0 -0.10660705
Link 1 8 7 0 0.56574348
Link 2 8 8 0 -0.59827727
Link 3 8 9 0 0.54313118
Link 4 8 10 0 0.00547627
Link 5 8 11 0 -0.00836247
Link 6 8 12 0 -0.09013438
GenomeEnd

GenomeStart 1827
Genome Fitness: 101.000000 
Neuron 1 1 0.00000000 1 0.00000000 0.00000000 0.00000000 0.00000000
Neuron 2 1 0.00000000 1 0.00000000 0.00000000 0.00000000 0.00000000
Neuron 3 1 0.00000000 1 0.00000000 0.00000000 0.00000000 0.00000000
Neuron 4 1 0.00000000 1 0.00000000 0.00000000 0.00000000 0.00000000
Neuron 5 1 0.00000000 1 0.00000000 0.00000000 0.00000000 0.00000000
Neuron 6 2 0.00000000 1 0.00000000 0.00000000 0.00000000 0.00000000
Neuron 7 4 1.00000000 1 3.02500000 0.00000000 0.00000000 0.00000000
Neuron 8 4 1.00000000 1 3.02500000 0.00000000 0.00000000 0.00000000
Link 1 7 1 0 -0.16180265
Link 2 7 2 0 -0.07533532
Link 3 7 3 0 0.04337815
Link 4 7 4 0 -0.37418838
Link 5 7 5 0 -0.07680837
Link 6 7 6 0 0.34003934
Link 1 8 7 0 0.33526590
Link 2 8 8 0 -0.19556338
Link 3 8 9 0 0.64653888
Link 4 8 10 0 -0.28739779
Link 5 8 11 0 0.07479697
Link 6 8 12 0 -0.14630915
GenomeEnd

GenomeStart 1828
Genome Fitness: 101.000000 
Neuron 1 1 0.00000000 1 0.00000000 0.00000000 0.00000000 0.00000000
Neuron 2 1 0.00000000 1 0.00000000 0.00000000 0.00000000 0.00000000
Neuron 3 1 0.00000000 1 0.00000000 0.00000000 0.00000000 0.00000000
Neuron 4 1 0.00000000 1 0.00000000 0.00000000 0.00000000 0.00000000
Neuron 5 1 0.00000000 1 0.00000000 0.00000000 0.00000000 0.00000000
Neuron 6 2 0.00000000 1 0.00000000 0.00000000 0.00000000 0.00000000
Neuron 7 4 1.00000000 1 3.02500000 0.00000000 0.00000000 0.00000000
Neuron 8 4 1.00000000 1 3.02500000 0.00000000 0.00000000 0.00000000
Link 1 7 1 0 -0.11060755
Link 2 7 2 0 0.41159809
Link 3 7 3 0 0.11846422
Link 4 7 4 0 -0.34888904
Link 5 7 5 0 0.19847237
Link 6 7 6 0 0.22936529
Link 1 8 7 0 0.24498771
Link 2 8 8 0 -0.21427597
Link 3 8 9 0 0.25491348
Link 4 8 10 0 -0.10958982
Link 5 8 11 0 0.11146403
Link 6 8 12 0 -0.22083069
GenomeEnd

GenomeStart 1829
Genome Fitness: 102.000000 
Neuron 1 1 0.00000000 1 0.00000000 0.00000000 0.00000000 0.00000000
Neuron 2 1 0.00000000 1 0.00000000 0.00000000 0.00000000 0.00000000
Neuron 3 1 0.00000000 1 0.00000000 0.00000000 0.00000000 0.00000000
Neuron 4 1 0.00000000 1 0.00000000 0.00000000 0.00000000 0.00000000
Neuron 5 1 0.00000000 1 0.00000000 0.00000000 0.00000000 0.00000000
Neuron 6 2 0.00000000 1 0.00000000 0.00000000 0.00000000 0.00000000
Neuron 7 4 1.00000000 1 3.02500000 0.00000000 0.00000000 0.00000000
Neuron 8 4 1.00000000 1 3.02500000 0.00000000 0.00000000 0.00000000
Link 1 7 1 0 -0.03160889
Link 2 7 2 0 -0.16393172
Link 3 7 3 0 -0.04107957
Link 4 7 4 0 -0.40932999
Link 5 7 5 0 0.06594578
Link 6 7 6 0 0.24565244
Link 1 8 7 0 0.26679297
Link 2 8 8 0 -0.26794051
Link 3 8 9 0 0.68017747
Link 4 8 10 0 -0.18010618
Link 5 8 11 0 -0.07488763
Link 6 8 12 0 -0.12773280
GenomeEnd

GenomeStart 1830
Genome Fitness: 142.000000 
Neuron 1 1 0.00000000 1 0.00000000 0.00000000 0.00000000 0.00000000
Neuron 2 1 0.00000000 1 0.00000000 0.00000000 0.00000000 0.00000000
Neuron 3 1 0.00000000 1 0.00000000 0.00000000 0.00000000 0.00000000
Neuron 4 1 0.00000000 1 0.00000000 0.00000000 0.00000000 0.00000000
Neuron 5 1 0.00000000 1 0.00000000 0.00000000 0.00000000 0.00000000
Neuron 6 2 0.00000000 1 0.00000000 0.00000000 0.00000000 0.00000000
Neuron 7 4 1.00000000 1 3.02500000 0.00000000 0.00000000 0.00000000
Neuron 8 4 1.00000000 1 3.02500000 0.00000000 0.00000000 0.00000000
Link 1 7 1 0 0.08374308
Link 2 7 2 0 -0.43373740
Link 3 7 3 0 -0.00280834
Link 4 7 4 0 -0.30992191
Link 5 7 5 0 0.11998308
Link 6 7 6 0 0.24528875
Link 1 8 7 0 0.21923183
Link 2 8 8 0 -0.44974518
Link 3 8 9 0 0.69918505
Link 4 8 10 0 -0.05716619
Link 5 8 11 0 -0.05005106
Link 6 8 12 0 -0.10732154
GenomeEnd

GenomeStart 1831
Genome Fitness: 158.000000 
Neuron 1 1 0.00000000 1 0.00000000 0.00000000 0.00000000 0.00000000
Neuron 2 1 0.00000000 1 0.00000000 0.00000000 0.00000000 0.00000000
Neuron 3 1 0.00000000 1 0.00000000 0.00000000 0.00000000 0.00000000
Neuron 4 1 0.00000000 1 0.00000000 0.00000000 0.00000000 0.00000000
Neuron 5 1 0.00000000 1 0.00000000 0.00000000 0.00000000 0.00000000
Neuron 6 2 0.00000000 1 0.00000000 0.00000000 0.00000000 0.00000000
Neuron 7 4 1.00000000 1 3.02500000 0.00000000 0.00000000 0.00000000
Neuron 8 4 1.00000000 1 3.02500000 0.00000000 0.00000000 0.00000000
Neuron 9 3 0.50000000 9 5.37400745 0.00000000 0.00000000 0.00000000
Neuron 10 3 0.50000000 4 4.46394765 0.00000000 0.00000000 0.00000000
Link 1 7 1 0 0.01553931
Link 3 7 3 0 -0.78364142
Link 5 7 5 0 0.01205957
Link 6 7 6 0 0.22033952
Link 1 8 7 0 -0.57928850
Link 2 8 8 0 -0.12020553
Link 3 8 9 0 0.43424217
Link 4 8 10 0 0.32477366
Link 5 8 11 0 0.33759613
Link 6 8 12 0 0.11812098
Link 2 9 14 0 1.08739401
Link 9 7 15 0 0.11954985
Link 4 10 17 0 0.90672378
Link 10 7 18 0 -0.26281209
GenomeEnd

GenomeStart 1832
Genome Fitness: 158.000000 
Neuron 1 1 0.00000000 1 0.00000000 0.00000000 0.00000000 0.00000000
Neuron 2 1 0.00000000 1 0.00000000 0.00000000 0.00000000 0.00000000
Neuron 3 1 0.00000000 1 0.00000000 0.00000000 0.00000000 0.00000000
Neuron 4 1 0.00000000 1 0.00000000 0.00000000 0.00000000 0.00000000
Neuron 5 1 0.00000000 1 0.00000000 0.00000000 0.00000000 0.00000000
Neuron 6 2 0.00000000 1 0.00000000 0.00000000 0.00000000 0.00000000
Neuron 7 4 1.00000000 1 3.02500000 0.00000000 0.00000000 0.00000000
Neuron 8 4 1.00000000 1 3.02500000 0.00000000 0.00000000 0.00000000
Neuron 9 3 0.50000000 9 5.37400745 0.00000000 0.00000000 0.00000000
Neuron 10 3 0.50000000 4 4.46394765 0.00000000 0.00000000 0.00000000
Link 1 7 1 0 0.01553931
Link 3 7 3 0 -0.78364142
Link 5 7 5 0 0.28888744
Link 6 7 6 0 0.30392212
Link 1 8 7 0 -0.57928850
Link 2 8 8 0 -0.12020553
Link 3 8 9 0 0.43854048
Link 4 8 10 0 0.32477366
Link 5 8 11 0 0.33759613
Link 6 8 12 0 0.26250827
Link 2 9 14 0 1.02777997
Link 9 7 15 0 0.08743696
Link 4 10 17 0 0.90672378
Link 10 7 18 0 -0.26281209
GenomeEnd

GenomeStart 1833
Genome Fitness: 158.000000 
Neuron 1 1 0.00000000 1 0.00000000 0.00000000 0.00000000 0.00000000
Neuron 2 1 0.00000000 1 0.00000000 0.00000000 0.00000000 0.00000000
Neuron 3 1 0.00000000 1 0.00000000 0.00000000 0.00000000 0.00000000
Neuron 4 1 0.00000000 1 0.00000000 0.00000000 0.00000000 0.00000000
Neuron 5 1 0.00000000 1 0.00000000 0.00000000 0.00000000 0.00000000
Neuron 6 2 0.00000000 1 0.00000000 0.00000000 0.00000000 0.00000000
Neuron 7 4 1.00000000 1 3.02500000 0.00000000 0.00000000 0.00000000
Neuron 8 4 1.00000000 1 3.02500000 0.00000000 0.00000000 0.00000000
Neuron 9 3 0.50000000 9 5.37400745 0.00000000 0.00000000 0.00000000
Neuron 10 3 0.50000000 4 4.46394765 0.00000000 0.00000000 0.00000000
Link 1 7 1 0 0.01553931
Link 3 7 3 0 -0.78364142
Link 5 7 5 0 0.28888744
Link 6 7 6 0 0.30392212
Link 1 8 7 0 -0.57928850
Link 2 8 8 0 -0.12020553
Link 3 8 9 0 0.43854048
Link 4 8 10 0 0.32477366
Link 5 8 11 0 0.33759613
Link 6 8 12 0 0.26250827
Link 2 9 14 0 1.08739401
Link 9 7 15 0 0.11954985
Link 4 10 17 0 0.90672378
Link 10 7 18 0 -0.26281209
GenomeEnd

GenomeStart 1834
Genome Fitness: 158.000000 
Neuron 1 1 0.00000000 1 0.00000000 0.00000000 0.00000000 0.00000000
Neuron 2 1 0.00000000 1 0.00000000 0.00000000 0.00000000 0.00000000
Neuron 3 1 0.00000000 1 0.00000000 0.00000000 0.00000000 0.00000000
Neuron 4 1 0.00000000 1 0.00000000 0.00000000 0.00000000 0.00000000
Neuron 5 1 0.00000000 1 0.00000000 0.00000000 0.00000000 0.00000000
Neuron 6 2 0.00000000 1 0.00000000 0.00000000 0.00000000 0.00000000
Neuron 7 4 1.00000000 1 3.02500000 0.00000000 0.00000000 0.00000000
Neuron 8 4 1.00000000 1 3.02500000 0.00000000 0.00000000 0.00000000
Neuron 9 3 0.50000000 9 5.37400745 0.00000000 0.00000000 0.00000000
Neuron 10 3 0.50000000 4 4.46394765 0.00000000 0.00000000 0.00000000
Link 1 7 1 0 -0.01653341
Link 3 7 3 0 -0.78364142
Link 5 7 5 0 0.01205957
Link 6 7 6 0 0.22033952
Link 1 8 7 0 -0.57928850
Link 2 8 8 0 -0.12020553
Link 3 8 9 0 0.43639132
Link 4 8 10 0 0.32477366
Link 5 8 11 0 0.33759613
Link 6 8 12 0 0.30430796
Link 2 9 14 0 1.08739401
Link 9 7 15 0 0.11954985
Link 4 10 17 0 0.90672378
Link 10 7 18 0 -0.26281209
GenomeEnd

GenomeStart 1835
Genome Fitness: 158.000000 
Neuron 1 1 0.00000000 1 0.00000000 0.00000000 0.00000000 0.00000000
Neuron 2 1 0.00000000 1 0.00000000 0.00000000 0.00000000 0.00000000
Neuron 3 1 0.00000000 1 0.00000000 0.00000000 0.00000000 0.00000000
Neuron 4 1 0.00000000 1 0.00000000 0.00000000 0.00000000 0.00000000
Neuron 5 1 0.00000000 1 0.00000000 0.00000000 0.00000000 0.00000000
Neuron 6 2 0.00000000 1 0.00000000 0.00000000 0.00000000 0.00000000
Neuron 7 4 1.00000000 1 3.02500000 0.00000000 0.00000000 0.00000000
Neuron 8 4 1.00000000 1 3.02500000 0.00000000 0.00000000 0.00000000
Neuron 9 3 0.50000000 9 5.37400745 0.00000000 0.00000000 0.00000000
Neuron 10 3 0.50000000 4 4.46394765 0.00000000 0.00000000 0.00000000
Link 1 7 1 0 -0.01653341
Link 3 7 3 0 -0.82531027
Link 5 7 5 0 0.11643654
Link 6 7 6 0 0.30392212
Link 1 8 7 0 -0.57928850
Link 2 8 8 0 -0.12020553
Link 3 8 9 0 0.43424217
Link 4 8 10 0 0.35811744
Link 5 8 11 0 0.33759613
Link 6 8 12 0 0.30430796
Link 2 9 14 0 1.08739401
Link 9 7 15 0 0.11954985
Link 4 10 17 0 0.90672378
Link 10 7 18 0 -0.26281209
GenomeEnd

GenomeStart 1836
Genome Fitness: 158.000000 
Neuron 1 1 0.00000000 1 0.00000000 0.00000000 0.00000000 0.00000000
Neuron 2 1 0.00000000 1 0.00000000 0.00000000 0.00000000 0.00000000
Neuron 3 1 0.00000000 1 0.00000000 0.00000000 0.00000000 0.00000000
Neuron 4 1 0.00000000 1 0.00000000 0.00000000 0.00000000 0.00000000
Neuron 5 1 0.00000000 1 0.00000000 0.00000000 0.00000000 0.00000000
Neuron 6 2 0.00000000 1 0.00000000 0.00000000 0.00000000 0.00000000
Neuron 7 4 1.00000000 1 3.02500000 0.00000000 0.00000000 0.00000000
Neuron 8 4 1.00000000 1 3.02500000 0.00000000 0.00000000 0.00000000
Neuron 9 3 0.50000000 9 5.37400745 0.00000000 0.00000000 0.00000000
Neuron 10 3 0.50000000 4 4.46394765 0.00000000 0.00000000 0.00000000
Link 1 7 1 0 0.01553931
Link 3 7 3 0 -0.78364142
Link 5 7 5 0 0.28888744
Link 6 7 6 0 0.22033952
Link 1 8 7 0 -0.57928850
Link 2 8 8 0 -0.12020553
Link 3 8 9 0 0.43854048
Link 4 8 10 0 0.32477366
Link 5 8 11 0 0.33759613
Link 6 8 12 0 0.11812098
Link 2 9 14 0 1.08739401
Link 9 7 15 0 0.08743696
Link 4 10 17 0 0.90672378
Link 10 7 18 0 -0.26281209
GenomeEnd

GenomeStart 1837
Genome Fitness: 158.000000 
Neuron 1 1 0.00000000 1 0.00000000 0.00000000 0.00000000 0.00000000
Neuron 2 1 0.00000000 1 0.00000000 0.00000000 0.00000000 0.00000000
Neuron 3 1 0.00000000 1 0.00000000 0.00000000 0.00000000 0.00000000
Neuron 4 1 0.00000000 1 0.00000000 0.00000000 0.00000000 0.00000000
Neuron 5 1 0.00000000 1 0.00000000 0.00000000 0.00000000 0.00000000
Neuron 6 2 0.00000000 1 0.00000000 0.00000000 0.00000000 0.00000000
Neuron 7 4 1.00000000 1 3.02500000 0.00000000 0.00000000 0.00000000
Neuron 8 4 1.00000000 1 3.02500000 0.00000000 0.00000000 0.00000000
Neuron 10 3 0.50000000 4 4.46394765 0.00000000 0.00000000 0.00000000
Neuron 12 3 0.50000000 1 2.50364583 0.00000000 0.00000000 0.00000000
Link 1 7 1 0 0.03722731
Link 2 7 2 0 -0.03359777
Link 3 7 3 0 -0.74455916
Link 6 7 6 0 0.29646994
Link 1 8 7 0 -0.49471868
Link 2 8 8 0 -0.25054647
Link 3 8 9 0 0.54610165
Link 4 8 10 0 0.33561440
Link 5 8 11 0 0.37684698
Link 6 8 12 0 0.17339550
Link 4 10 17 0 0.89931125
Link 10 7 18 0 -0.17840999
Link 5 12 28 0 0.98224419
Link 12 7 29 0 0.11058723
GenomeEnd

GenomeStart 1838
Genome Fitness: 158.000000 
Neuron 1 1 0.00000000 1 0.00000000 0.00000000 0.00000000 0.00000000
Neuron 2 1 0.00000000 1 0.00000000 0.00000000 0.00000000 0.00000000
Neuron 3 1 0.00000000 1 0.00000000 0.00000000 0.00000000 0.00000000
Neuron 4 1 0.00000000 1 0.00000000 0.00000000 0.00000000 0.00000000
Neuron 5 1 0.00000000 1 0.00000000 0.00000000 0.00000000 0.00000000
Neuron 6 2 0.00000000 1 0.00000000 0.00000000 0.00000000 0.00000000
Neuron 7 4 1.00000000 1 3.02500000 0.00000000 0.00000000 0.00000000
Neuron 8 4 1.00000000 1 3.02500000 0.00000000 0.00000000 0.00000000
Neuron 10 3 0.50000000 4 4.46394765 0.00000000 0.00000000 0.00000000
Neuron 12 3 0.50000000 1 2.50364583 0.00000000 0.00000000 0.00000000
Link 1 7 1 0 -0.01623289
Link 2 7 2 0 0.02832143
Link 3 7 3 0 -0.64731826
Link 6 7 6 0 0.38645279
Link 1 8 7 0 -0.49728304
Link 2 8 8 0 -0.22224698
Link 3 8 9 0 0.53165977
Link 4 8 10 0 0.60213540
Link 5 8 11 0 0.30568926
Link 6 8 12 0 0.08756903
Link 4 10 17 0 0.86119753
Link 10 7 18 0 -0.25899970
Link 5 12 28 0 1.24993289
Link 12 7 29 0 -0.04272131
GenomeEnd

GenomeStart 1839
Genome Fitness: 101.000000 
Neuron 1 1 0.00000000 1 0.00000000 0.00000000 0.00000000 0.00000000
Neuron 2 1 0.00000000 1 0.00000000 0.00000000 0.00000000 0.00000000
Neuron 3 1 0.00000000 1 0.00000000 0.00000000 0.00000000 0.00000000
Neuron 4 1 0.00000000 1 0.00000000 0.00000000 0.00000000 0.00000000
Neuron 5 1 0.00000000 1 0.00000000 0.00000000 0.00000000 0.00000000
Neuron 6 2 0.00000000 1 0.00000000 0.00000000 0.00000000 0.00000000
Neuron 7 4 1.00000000 1 3.02500000 0.00000000 0.00000000 0.00000000
Neuron 8 4 1.00000000 1 3.02500000 0.00000000 0.00000000 0.00000000
Neuron 10 3 0.50000000 4 4.46394765 0.00000000 0.00000000 0.00000000
Neuron 12 3 0.50000000 1 2.50364583 0.00000000 0.00000000 0.00000000
Link 1 7 1 0 -0.01623289
Link 2 7 2 0 0.02832143
Link 3 7 3 0 -0.74455916
Link 6 7 6 0 0.38645279
Link 1 8 7 0 -0.54156520
Link 2 8 8 0 -0.25054647
Link 3 8 9 0 0.54610165
Link 4 8 10 0 0.33561440
Link 5 8 11 0 0.37684698
Link 6 8 12 0 0.08756903
Link 4 10 17 0 0.89931125
Link 10 7 18 0 -0.17840999
Link 5 12 28 0 0.98224419
Link 12 7 29 0 -0.04272131
GenomeEnd

GenomeStart 1840
Genome Fitness: 101.000000 
Neuron 1 1 0.00000000 1 0.00000000 0.00000000 0.00000000 0.00000000
Neuron 2 1 0.00000000 1 0.00000000 0.00000000 0.00000000 0.00000000
Neuron 3 1 0.00000000 1 0.00000000 0.00000000 0.00000000 0.00000000
Neuron 4 1 0.00000000 1 0.00000000 0.00000000 0.00000000 0.00000000
Neuron 5 1 0.00000000 1 0.00000000 0.00000000 0.00000000 0.00000000
Neuron 6 2 0.00000000 1 0.00000000 0.00000000 0.00000000 0.00000000
Neuron 7 4 1.00000000 1 3.02500000 0.00000000 0.00000000 0.00000000
Neuron 8 4 1.00000000 1 3.02500000 0.00000000 0.00000000 0.00000000
Neuron 10 3 0.50000000 4 4.46394765 0.00000000 0.00000000 0.00000000
Neuron 12 3 0.50000000 1 2.50364583 0.00000000 0.00000000 0.00000000
Link 1 7 1 0 0.03722731
Link 2 7 2 0 0.02832143
Link 3 7 3 0 -0.74455916
Link 6 7 6 0 0.29646994
Link 1 8 7 0 -0.49471868
Link 2 8 8 0 -0.25054647
Link 3 8 9 0 0.54610165
Link 4 8 10 0 0.33561440
Link 5 8 11 0 0.30568926
Link 6 8 12 0 0.08756903
Link 4 10 17 0 0.89931125
Link 10 7 18 0 -0.25899970
Link 5 12 28 0 0.98224419
Link 12 7 29 0 -0.04272131
GenomeEnd

GenomeStart 1841
Genome Fitness: 158.000000 
Neuron 1 1 0.00000000 1 0.00000000 0.00000000 0.00000000 0.00000000
Neuron 2 1 0.00000000 1 0.00000000 0.00000000 0.00000000 0.00000000
Neuron 3 1 0.00000000 1 0.00000000 0.00000000 0.00000000 0.00000000
Neuron 4 1 0.00000000 1 0.00000000 0.00000000 0.00000000 0.00000000
Neuron 5 1 0.00000000 1 0.00000000 0.00000000 0.00000000 0.00000000
Neuron 6 2 0.00000000 1 0.00000000 0.00000000 0.00000000 0.00000000
Neuron 7 4 1.00000000 1 3.02500000 0.00000000 0.00000000 0.00000000
Neuron 8 4 1.00000000 1 3.02500000 0.00000000 0.00000000 0.00000000
Neuron 10 3 0.50000000 4 4.46394765 0.00000000 0.00000000 0.00000000
Neuron 12 3 0.50000000 6 2.26113016 0.00000000 0.00000000 0.00000000
Link 1 7 1 0 -0.01623289
Link 2 7 2 0 0.02832143
Link 3 7 3 0 -0.64731826
Link 6 7 6 0 0.38645279
Link 1 8 7 0 -0.49728304
Link 2 8 8 0 -0.22224698
Link 3 8 9 0 0.53165977
Link 4 8 10 0 0.60213540
Link 5 8 11 0 0.30568926
Link 6 8 12 0 0.12034760
Link 4 10 17 0 0.86119753
Link 10 7 18 0 -0.25899970
Link 5 12 28 0 1.24993289
Link 12 7 29 0 -0.04272131
GenomeEnd

GenomeStart 1842
Genome Fitness: 159.000000 
Neuron 1 1 0.00000000 1 0.00000000 0.00000000 0.00000000 0.00000000
Neuron 2 1 0.00000000 1 0.00000000 0.00000000 0.00000000 0.00000000
Neuron 3 1 0.00000000 1 0.00000000 0.00000000 0.00000000 0.00000000
Neuron 4 1 0.00000000 1 0.00000000 0.00000000 0.00000000 0.00000000
Neuron 5 1 0.00000000 1 0.00000000 0.00000000 0.00000000 0.00000000
Neuron 6 2 0.00000000 1 0.00000000 0.00000000 0.00000000 0.00000000
Neuron 7 4 1.00000000 1 3.02500000 0.00000000 0.00000000 0.00000000
Neuron 8 4 1.00000000 1 3.02500000 0.00000000 0.00000000 0.00000000
Neuron 10 3 0.50000000 4 4.46394765 0.00000000 0.00000000 0.00000000
Neuron 21 3 0.75000000 4 0.89827218 0.00000000 0.00000000 0.00000000
Link 1 7 1 0 0.05835593
Link 2 7 2 0 0.31485792
Link 3 7 3 0 -0.75361677
Link 5 7 5 0 0.19017421
Link 6 7 6 0 0.32431415
Link 1 8 7 0 -0.44477485
Link 2 8 8 0 -0.30566209
Link 3 8 9 0 0.57146336
Link 4 8 10 0 0.23972057
Link 5 8 11 0 0.41175159
Link 6 8 12 0 0.23049158
Link 4 10 17 0 0.89027250
Link 10 21 68 0 1.00000000
Link 21 7 69 0 -0.17973934
GenomeEnd

GenomeStart 1844
Genome Fitness: 101.000000 
Neuron 1 1 0.00000000 1 0.00000000 0.00000000 0.00000000 0.00000000
Neuron 2 1 0.00000000 1 0.00000000 0.00000000 0.00000000 0.00000000
Neuron 3 1 0.00000000 1 0.00000000 0.00000000 0.00000000 0.00000000
Neuron 4 1 0.00000000 1 0.00000000 0.00000000 0.00000000 0.00000000
Neuron 5 1 0.00000000 1 0.00000000 0.00000000 0.00000000 0.00000000
Neuron 6 2 0.00000000 1 0.00000000 0.00000000 0.00000000 0.00000000
Neuron 7 4 1.00000000 1 3.02500000 0.00000000 0.00000000 0.00000000
Neuron 8 4 1.00000000 1 3.02500000 0.00000000 0.00000000 0.00000000
Neuron 10 3 0.50000000 4 4.46394765 0.00000000 0.00000000 0.00000000
Neuron 21 3 0.75000000 4 0.89827218 0.00000000 0.00000000 0.00000000
Link 1 7 1 0 0.07858955
Link 2 7 2 0 0.22475510
Link 3 7 3 0 -0.75361677
Link 5 7 5 0 0.19190354
Link 6 7 6 0 0.34228621
Link 1 8 7 0 -0.44477485
Link 2 8 8 0 -0.27122655
Link 3 8 9 0 0.52798990
Link 4 8 10 0 0.23972057
Link 5 8 11 0 0.41175159
Link 6 8 12 0 0.26471845
Link 4 10 17 0 0.90975078
Link 10 21 68 0 0.95235079
Link 21 7 69 0 -0.17973934
GenomeEnd

GenomeStart 1845
Genome Fitness: 144.000000 
Neuron 1 1 0.00000000 1 0.00000000 0.00000000 0.00000000 0.00000000
Neuron 2 1 0.00000000 1 0.00000000 0.00000000 0.00000000 0.00000000
Neuron 3 1 0.00000000 1 0.00000000 0.00000000 0.00000000 0.00000000
Neuron 4 1 0.00000000 1 0.00000000 0.00000000 0.00000000 0.00000000
Neuron 5 1 0.00000000 1 0.00000000 0.00000000 0.00000000 0.00000000
Neuron 6 2 0.00000000 1 0.00000000 0.00000000 0.00000000 0.00000000
Neuron 7 4 1.00000000 1 3.02500000 0.00000000 0.00000000 0.00000000
Neuron 8 4 1.00000000 1 3.02500000 0.00000000 0.00000000 0.00000000
Neuron 10 3 0.50000000 4 4.46394765 0.00000000 0.00000000 0.00000000
Neuron 21 3 0.75000000 4 0.89827218 0.00000000 0.00000000 0.00000000
Link 1 7 1 0 0.01684980
Link 2 7 2 0 0.31485792
Link 3 7 3 0 -0.89635918
Link 5 7 5 0 0.10030702
Link 6 7 6 0 0.33113598
Link 1 8 7 0 -0.53483421
Link 2 8 8 0 -0.23584429
Link 3 8 9 0 0.63127774
Link 4 8 10 0 0.89349581
Link 5 8 11 0 0.27026493
Link 6 8 12 0 0.12616093
Link 4 10 17 0 0.75896729
Link 10 21 68 0 0.91424293
Link 21 7 69 0 -0.17973934
GenomeEnd

GenomeStart 1846
Genome Fitness: 158.000000 
Neuron 1 1 0.00000000 1 0.00000000 0.00000000 0.00000000 0.00000000
Neuron 2 1 0.00000000 1 0.00000000 0.00000000 0.00000000 0.00000000
Neuron 3 1 0.00000000 1 0.00000000 0.00000000 0.00000000 0.00000000
Neuron 4 1 0.00000000 1 0.00000000 0.00000000 0.00000000 0.00000000
Neuron 5 1 0.00000000 1 0.00000000 0.00000000 0.00000000 0.00000000
Neuron 6 2 0.00000000 1 0.00000000 0.00000000 0.00000000 0.00000000
Neuron 7 4 1.00000000 1 3.02500000 0.00000000 0.00000000 0.00000000
Neuron 8 4 1.00000000 1 3.02500000 0.00000000 0.00000000 0.00000000
Neuron 10 3 0.50000000 4 4.46394765 0.00000000 0.00000000 0.00000000
Neuron 21 3 0.75000000 4 0.89827218 0.00000000 0.00000000 0.00000000
Link 1 7 1 0 0.02606565
Link 2 7 2 0 0.21319417
Link 3 7 3 0 -0.63735317
Link 5 7 5 0 0.16693681
Link 6 7 6 0 0.24357437
Link 1 8 7 0 -0.40740302
Link 2 8 8 0 -0.27931459
Link 3 8 9 0 0.55792906
Link 4 8 10 0 0.30297755
Link 5 8 11 0 0.33236447
Link 6 8 12 0 0.25746162
Link 4 10 17 0 0.94043685
Link 10 21 68 0 0.90133202
Link 21 7 69 0 -0.13575987
GenomeEnd

GenomeStart 1847
Genome Fitness: 158.000000 
Neuron 1 1 0.00000000 1 0.00000000 0.00000000 0.00000000 0.00000000
Neuron 2 1 0.00000000 1 0.00000000 0.00000000 0.00000000 0.00000000
Neuron 3 1 0.00000000 1 0.00000000 0.00000000 0.00000000 0.00000000
Neuron 4 1 0.00000000 1 0.00000000 0.00000000 0.00000000 0.00000000
Neuron 5 1 0.00000000 1 0.00000000 0.00000000 0.00000000 0.00000000
Neuron 6 2 0.00000000 1 0.00000000 0.00000000 0.00000000 0.00000000
Neuron 7 4 1.00000000 1 3.02500000 0.00000000 0.00000000 0.00000000
Neuron 8 4 1.00000000 1 3.02500000 0.00000000 0.00000000 0.00000000
Neuron 10 3 0.50000000 4 4.46394765 0.00000000 0.00000000 0.00000000
Neuron 14 3 0.50000000 6 3.56554023 0.00000000 0.00000000 0.00000000
Link 1 7 1 0 -0.01426275
Link 2 7 2 0 0.08668579
Link 3 7 3 0 -0.62256806
Link 5 7 5 0 0.14293096
Link 6 7 6 0 0.15664728
Link 1 8 7 0 -0.57664710
Link 3 8 9 0 0.48483559
Link 4 8 10 0 0.34992799
Link 5 8 11 0 0.27380060
Link 6 8 12 0 0.17516622
Link 4 10 17 0 0.90169733
Link 10 7 18 0 -0.25523629
Link 2 14 34 0 0.71756601
Link 14 8 35 0 -0.27707772
GenomeEnd

GenomeStart 1848
Genome Fitness: 158.000000 
Neuron 1 1 0.00000000 1 0.00000000 0.00000000 0.00000000 0.00000000
Neuron 2 1 0.00000000 1 0.00000000 0.00000000 0.00000000 0.00000000
Neuron 3 1 0.00000000 1 0.00000000 0.00000000 0.00000000 0.00000000
Neuron 4 1 0.00000000 1 0.00000000 0.00000000 0.00000000 0.00000000
Neuron 5 1 0.00000000 1 0.00000000 0.00000000 0.00000000 0.00000000
Neuron 6 2 0.00000000 1 0.00000000 0.00000000 0.00000000 0.00000000
Neuron 7 4 1.00000000 1 3.02500000 0.00000000 0.00000000 0.00000000
Neuron 8 4 1.00000000 1 3.02500000 0.00000000 0.00000000 0.00000000
Neuron 10 3 0.50000000 4 4.46394765 0.00000000 0.00000000 0.00000000
Neuron 14 3 0.50000000 6 3.56554023 0.00000000 0.00000000 0.00000000
Link 1 7 1 0 -0.01426275
Link 2 7 2 0 0.08668579
Link 3 7 3 0 -0.62256806
Link 5 7 5 0 0.17746104
Link 6 7 6 0 0.15222865
Link 1 8 7 0 -0.57664710
Link 3 8 9 0 0.52886722
Link 4 8 10 0 0.38003522
Link 5 8 11 0 0.17853568
Link 6 8 12 0 0.17516622
Link 4 10 17 0 0.90169733
Link 10 7 18 0 -0.25523629
Link 2 14 34 0 0.66253807
Link 14 8 35 0 -0.28413026
GenomeEnd

GenomeStart 1849
Genome Fitness: 148.000000 
Neuron 1 1 0.00000000 1 0.00000000 0.00000000 0.00000000 0.00000000
Neuron 2 1 0.00000000 1 0.00000000 0.00000000 0.00000000 0.00000000
Neuron 3 1 0.00000000 1 0.00000000 0.00000000 0.00000000 0.00000000
Neuron 4 1 0.00000000 1 0.00000000 0.00000000 0.00000000 0.00000000
Neuron 5 1 0.00000000 1 0.00000000 0.00000000 0.00000000 0.00000000
Neuron 6 2 0.00000000 1 0.00000000 0.00000000 0.00000000 0.00000000
Neuron 7 4 1.00000000 1 3.02500000 0.00000000 0.00000000 0.00000000
Neuron 8 4 1.00000000 1 3.02500000 0.00000000 0.00000000 0.00000000
Neuron 10 3 0.50000000 4 4.46394765 0.00000000 0.00000000 0.00000000
Neuron 14 3 0.50000000 6 3.56554023 0.00000000 0.00000000 0.00000000
Link 1 7 1 0 0.05993020
Link 2 7 2 0 0.02530807
Link 3 7 3 0 -0.40238271
Link 5 7 5 0 0.11061421
Link 6 7 6 0 -0.04841741
Link 1 8 7 0 -0.55829163
Link 3 8 9 0 0.37093245
Link 4 8 10 0 0.23574209
Link 5 8 11 0 0.38605218
Link 6 8 12 0 0.38555942
Link 4 10 17 0 1.02362220
Link 10 7 18 0 -0.26254938
Link 2 14 34 0 0.43866691
Link 14 8 35 0 -0.25022959
GenomeEnd

GenomeStart 1850
Genome Fitness: 157.000000 
Neuron 1 1 0.00000000 1 0.00000000 0.00000000 0.00000000 0.00000000
Neuron 2 1 0.00000000 1 0.00000000 0.00000000 0.00000000 0.00000000
Neuron 3 1 0.00000000 1 0.00000000 0.00000000 0.00000000 0.00000000
Neuron 4 1 0.00000000 1 0.00000000 0.00000000 0.00000000 0.00000000
Neuron 5 1 0.00000000 1 0.00000000 0.00000000 0.00000000 0.00000000
Neuron 6 2 0.00000000 1 0.00000000 0.00000000 0.00000000 0.00000000
Neuron 7 4 1.00000000 1 3.02500000 0.00000000 0.00000000 0.00000000
Neuron 8 4 1.00000000 1 3.02500000 0.00000000 0.00000000 0.00000000
Neuron 10 3 0.50000000 4 4.46394765 0.00000000 0.00000000 0.00000000
Neuron 14 3 0.50000000 6 3.56554023 0.00000000 0.00000000 0.00000000
Link 1 7 1 0 -0.01426275
Link 2 7 2 0 0.11611092
Link 3 7 3 0 -0.62256806
Link 5 7 5 0 0.06166143
Link 6 7 6 0 0.13442087
Link 1 8 7 0 -0.58245377
Link 3 8 9 0 0.45010289
Link 4 8 10 0 0.34992799
Link 5 8 11 0 0.30926437
Link 6 8 12 0 0.15832403
Link 4 10 17 0 0.95573618
Link 10 7 18 0 -0.20495129
Link 2 14 34 0 0.69589670
Link 14 8 35 0 -0.31466534
GenomeEnd

GenomeStart 1851
Genome Fitness: 156.000000 
Neuron 1 1 0.00000000 1 0.00000000 0.00000000 0.00000000 0.00000000
Neuron 2 1 0.00000000 1 0.00000000 0.00000000 0.00000000 0.00000000
Neuron 3 1 0.00000000 1 0.00000000 0.00000000 0.00000000 0.00000000
Neuron 4 1 0.00000000 1 0.00000000 0.00000000 0.00000000 0.00000000
Neuron 5 1 0.00000000 1 0.00000000 0.00000000 0.00000000 0.00000000
Neuron 6 2 0.00000000 1 0.00000000 0.00000000 0.00000000 0.00000000
Neuron 7 4 1.00000000 1 3.02500000 0.00000000 0.00000000 0.00000000
Neuron 8 4 1.00000000 1 3.02500000 0.00000000 0.00000000 0.00000000
Neuron 10 3 0.50000000 4 4.46394765 0.00000000 0.00000000 0.00000000
Neuron 14 3 0.50000000 6 3.56554023 0.00000000 0.00000000 0.00000000
Link 1 7 1 0 0.05833197
Link 2 7 2 0 0.14553606
Link 3 7 3 0 -0.56038280
Link 5 7 5 0 -0.01960810
Link 6 7 6 0 0.11219446
Link 1 8 7 0 -0.58826043
Link 3 8 9 0 0.41537019
Link 4 8 10 0 0.23796132
Link 5 8 11 0 0.41565566
Link 6 8 12 0 0.14148185
Link 4 10 17 0 1.00977504
Link 10 7 18 0 -0.15466630
Link 2 14 34 0 0.47511693
Link 14 8 35 0 -0.35225296
GenomeEnd

GenomeStart 1852
Genome Fitness: 158.000000 
Neuron 1 1 0.00000000 1 0.00000000 0.00000000 0.00000000 0.00000000
Neuron 2 1 0.00000000 1 0.00000000 0.00000000 0.00000000 0.00000000
Neuron 3 1 0.00000000 1 0.00000000 0.00000000 0.00000000 0.00000000
Neuron 4 1 0.00000000 1 0.00000000 0.00000000 0.00000000 0.00000000
Neuron 5 1 0.00000000 1 0.00000000 0.00000000 0.00000000 0.00000000
Neuron 6 2 0.00000000 1 0.00000000 0.00000000 0.00000000 0.00000000
Neuron 7 4 1.00000000 1 3.02500000 0.00000000 0.00000000 0.00000000
Neuron 8 4 1.00000000 1 3.02500000 0.00000000 0.00000000 0.00000000
Neuron 10 3 0.50000000 4 4.46394765 0.00000000 0.00000000 0.00000000
Neuron 14 3 0.50000000 6 3.56554023 0.00000000 0.00000000 0.00000000
Link 1 7 1 0 0.05833197
Link 2 7 2 0 0.14553606
Link 3 7 3 0 -0.62256806
Link 5 7 5 0 -0.01960810
Link 6 7 6 0 0.11219446
Link 1 8 7 0 -0.58826043
Link 3 8 9 0 0.41537019
Link 4 8 10 0 0.34992799
Link 5 8 11 0 0.41565566
Link 6 8 12 0 0.14148185
Link 4 10 17 0 1.00977504
Link 10 7 18 0 -0.15466630
Link 2 14 34 0 0.47511693
Link 14 8 35 0 -0.35225296
GenomeEnd

GenomeStart 1853
Genome Fitness: 158.000000 
Neuron 1 1 0.00000000 1 0.00000000 0.00000000 0.00000000 0.00000000
Neuron 2 1 0.00000000 1 0.00000000 0.00000000 0.00000000 0.00000000
Neuron 3 1 0.00000000 1 0.00000000 0.00000000 0.00000000 0.00000000
Neuron 4 1 0.00000000 1 0.00000000 0.00000000 0.00000000 0.00000000
Neuron 5 1 0.00000000 1 0.00000000 0.00000000 0.00000000 0.00000000
Neuron 6 2 0.00000000 1 0.00000000 0.00000000 0.00000000 0.00000000
Neuron 7 4 1.00000000 1 3.02500000 0.00000000 0.00000000 0.00000000
Neuron 8 4 1.00000000 1 3.02500000 0.00000000 0.00000000 0.00000000
Neuron 10 3 0.50000000 4 4.46394765 0.00000000 0.00000000 0.00000000
Neuron 14 3 0.50000000 6 3.56554023 0.00000000 0.00000000 0.00000000
Link 1 7 1 0 -0.01426275
Link 2 7 2 0 0.08668579
Link 3 7 3 0 -0.62256806
Link 5 7 5 0 0.17746104
Link 6 7 6 0 0.15222865
Link 1 8 7 0 -0.57664710
Link 3 8 9 0 0.52886722
Link 4 8 10 0 0.34992799
Link 5 8 11 0 0.27380060
Link 6 8 12 0 0.17516622
Link 4 10 17 0 0.90169733
Link 10 7 18 0 -0.25523629
Link 2 14 34 0 0.66253807
Link 14 8 35 0 -0.28413026
GenomeEnd

GenomeStart 1854
Genome Fitness: 158.000000 
Neuron 1 1 0.00000000 1 0.00000000 0.00000000 0.00000000 0.00000000
Neuron 2 1 0.00000000 1 0.00000000 0.00000000 0.00000000 0.00000000
Neuron 3 1 0.00000000 1 0.00000000 0.00000000 0.00000000 0.00000000
Neuron 4 1 0.00000000 1 0.00000000 0.00000000 0.00000000 0.00000000
Neuron 5 1 0.00000000 1 0.00000000 0.00000000 0.00000000 0.00000000
Neuron 6 2 0.00000000 1 0.00000000 0.00000000 0.00000000 0.00000000
Neuron 7 4 1.00000000 1 3.02500000 0.00000000 0.00000000 0.00000000
Neuron 8 4 1.00000000 1 3.02500000 0.00000000 0.00000000 0.00000000
Neuron 10 3 0.50000000 4 4.46394765 0.00000000 0.00000000 0.00000000
Neuron 15 3 0.50000000 11 2.74372697 0.00000000 0.00000000 0.00000000
Link 1 7 1 0 -0.10802441
Link 2 7 2 0 -0.03358259
Link 3 7 3 0 -1.01261026
Link 5 7 5 0 0.01205778
Link 6 7 6 0 0.21015934
Link 1 8 7 0 -0.58998681
Link 2 8 8 0 -0.13805212
Link 3 8 9 0 0.46370068
Link 4 8 10 0 0.41892858
Link 6 8 12 0 0.31547555
Link 4 10 17 0 0.88357525
Link 10 7 18 0 -0.23262834
Link 5 15 38 0 1.00000000
Link 15 8 39 0 0.34979701
Link 10 8 53 0 -0.12194765
GenomeEnd

GenomeStart 1855
Genome Fitness: 156.000000 
Neuron 1 1 0.00000000 1 0.00000000 0.00000000 0.00000000 0.00000000
Neuron 2 1 0.00000000 1 0.00000000 0.00000000 0.00000000 0.00000000
Neuron 3 1 0.00000000 1 0.00000000 0.00000000 0.00000000 0.00000000
Neuron 4 1 0.00000000 1 0.00000000 0.00000000 0.00000000 0.00000000
Neuron 5 1 0.00000000 1 0.00000000 0.00000000 0.00000000 0.00000000
Neuron 6 2 0.00000000 1 0.00000000 0.00000000 0.00000000 0.00000000
Neuron 7 4 1.00000000 1 3.02500000 0.00000000 0.00000000 0.00000000
Neuron 8 4 1.00000000 1 3.02500000 0.00000000 0.00000000 0.00000000
Neuron 10 3 0.50000000 4 4.46394765 0.00000000 0.00000000 0.00000000
Neuron 15 3 0.50000000 11 2.74372697 0.00000000 0.00000000 0.00000000
Link 1 7 1 0 -0.10802441
Link 2 7 2 0 -0.05148547
Link 3 7 3 0 -1.02081867
Link 5 7 5 0 0.01078694
Link 6 7 6 0 0.21015934
Link 1 8 7 0 -0.58998681
Link 2 8 8 0 -0.13805212
Link 3 8 9 0 0.46370068
Link 4 8 10 0 0.44182635
Link 6 8 12 0 0.38388563
Link 4 10 17 0 0.85976525
Link 10 7 18 0 -0.25477337
Link 5 15 38 0 1.00000000
Link 15 8 39 0 0.26646793
Link 10 8 53 0 -0.12194765
GenomeEnd

GenomeStart 1856
Genome Fitness: 157.000000 
Neuron 1 1 0.00000000 1 0.00000000 0.00000000 0.00000000 0.00000000
Neuron 2 1 0.00000000 1 0.00000000 0.00000000 0.00000000 0.00000000
Neuron 3 1 0.00000000 1 0.00000000 0.00000000 0.00000000 0.00000000
Neuron 4 1 0.00000000 1 0.00000000 0.00000000 0.00000000 0.00000000
Neuron 5 1 0.00000000 1 0.00000000 0.00000000 0.00000000 0.00000000
Neuron 6 2 0.00000000 1 0.00000000 0.00000000 0.00000000 0.00000000
Neuron 7 4 1.00000000 1 3.02500000 0.00000000 0.00000000 0.00000000
Neuron 8 4 1.00000000 1 3.02500000 0.00000000 0.00000000 0.00000000
Neuron 10 3 0.50000000 4 4.46394765 0.00000000 0.00000000 0.00000000
Neuron 15 3 0.50000000 11 2.74372697 0.00000000 0.00000000 0.00000000
Link 1 7 1 0 -0.10802441
Link 2 7 2 0 -0.05148547
Link 3 7 3 0 -1.02081867
Link 5 7 5 0 0.01078694
Link 6 7 6 0 0.21015934
Link 1 8 7 0 -0.58998681
Link 2 8 8 0 -0.13805212
Link 3 8 9 0 0.46370068
Link 4 8 10 0 0.44182635
Link 6 8 12 0 0.24706547
Link 4 10 17 0 0.85976525
Link 10 7 18 0 -0.25477337
Link 5 15 38 0 1.00000000
Link 15 8 39 0 0.26646793
Link 10 8 53 0 -0.12194765
GenomeEnd

GenomeStart 1857
Genome Fitness: 142.000000 
Neuron 1 1 0.00000000 1 0.00000000 0.00000000 0.00000000 0.00000000
Neuron 2 1 0.00000000 1 0.00000000 0.00000000 0.00000000 0.00000000
Neuron 3 1 0.00000000 1 0.00000000 0.00000000 0.00000000 0.00000000
Neuron 4 1 0.00000000 1 0.00000000 0.00000000 0.00000000 0.00000000
Neuron 5 1 0.00000000 1 0.00000000 0.00000000 0.00000000 0.00000000
Neuron 6 2 0.00000000 1 0.00000000 0.00000000 0.00000000 0.00000000
Neuron 7 4 1.00000000 1 3.02500000 0.00000000 0.00000000 0.00000000
Neuron 8 4 1.00000000 1 3.02500000 0.00000000 0.00000000 0.00000000
Neuron 10 3 0.50000000 4 4.46394765 0.00000000 0.00000000 0.00000000
Neuron 15 3 0.50000000 11 2.74372697 0.00000000 0.00000000 0.00000000
Link 1 7 1 0 -0.13847230
Link 2 7 2 0 -0.14245373
Link 3 7 3 0 -0.63150377
Link 5 7 5 0 0.83215538
Link 6 7 6 0 0.03461600
Link 1 8 7 0 -0.38271176
Link 2 8 8 0 -0.16297487
Link 3 8 9 0 0.45525722
Link 4 8 10 0 0.36678447
Link 6 8 12 0 0.34255911
Link 4 10 17 0 0.95551451
Link 10 7 18 0 -0.20272952
Link 5 15 38 0 1.06308358
Link 15 8 39 0 0.32593231
Link 10 8 53 0 -0.32076886
GenomeEnd

GenomeStart 1858
Genome Fitness: 157.000000 
Neuron 1 1 0.00000000 1 0.00000000 0.00000000 0.00000000 0.00000000
Neuron 2 1 0.00000000 1 0.00000000 0.00000000 0.00000000 0.00000000
Neuron 3 1 0.00000000 1 0.00000000 0.00000000 0.00000000 0.00000000
Neuron 4 1 0.00000000 1 0.00000000 0.00000000 0.00000000 0.00000000
Neuron 5 1 0.00000000 1 0.00000000 0.00000000 0.00000000 0.00000000
Neuron 6 2 0.00000000 1 0.00000000 0.00000000 0.00000000 0.00000000
Neuron 7 4 1.00000000 1 3.02500000 0.00000000 0.00000000 0.00000000
Neuron 8 4 1.00000000 1 3.02500000 0.00000000 0.00000000 0.00000000
Neuron 10 3 0.50000000 4 4.46394765 0.00000000 0.00000000 0.00000000
Neuron 15 3 0.50000000 11 2.74372697 0.00000000 0.00000000 0.00000000
Link 1 7 1 0 -0.10802441
Link 2 7 2 0 -0.03358259
Link 3 7 3 0 -1.02081867
Link 5 7 5 0 0.01332861
Link 6 7 6 0 0.21015934
Link 1 8 7 0 -0.58998681
Link 2 8 8 0 -0.13805212
Link 3 8 9 0 0.46370068
Link 4 8 10 0 0.41892858
Link 6 8 12 0 0.31547555
Link 4 10 17 0 0.81214525
Link 10 7 18 0 -0.25477337
Link 5 15 38 0 1.00000000
Link 15 8 39 0 0.26646793
Link 10 8 53 0 -0.12194765
GenomeEnd

GenomeStart 1859
Genome Fitness: 157.000000 
Neuron 1 1 0.00000000 1 0.00000000 0.00000000 0.00000000 0.00000000
Neuron 2 1 0.00000000 1 0.00000000 0.00000000 0.00000000 0.00000000
Neuron 3 1 0.00000000 1 0.00000000 0.00000000 0.00000000 0.00000000
Neuron 4 1 0.00000000 1 0.00000000 0.00000000 0.00000000 0.00000000
Neuron 5 1 0.00000000 1 0.00000000 0.00000000 0.00000000 0.00000000
Neuron 6 2 0.00000000 1 0.00000000 0.00000000 0.00000000 0.00000000
Neuron 7 4 1.00000000 1 3.02500000 0.00000000 0.00000000 0.00000000
Neuron 8 4 1.00000000 1 3.02500000 0.00000000 0.00000000 0.00000000
Neuron 10 3 0.50000000 4 4.46394765 0.00000000 0.00000000 0.00000000
Neuron 15 3 0.50000000 11 2.74372697 0.00000000 0.00000000 0.00000000
Link 1 7 1 0 -0.10802441
Link 2 7 2 0 -0.05148547
Link 3 7 3 0 -1.02081867
Link 5 7 5 0 0.01332861
Link 6 7 6 0 0.21015934
Link 1 8 7 0 -0.58998681
Link 2 8 8 0 -0.13805212
Link 3 8 9 0 0.46370068
Link 4 8 10 0 0.44182635
Link 6 8 12 0 0.24706547
Link 4 10 17 0 0.81214525
Link 10 7 18 0 -0.25477337
Link 5 15 38 0 1.00000000
Link 15 8 39 0 0.26646793
Link 10 8 53 0 -0.12194765
GenomeEnd

GenomeStart 1860
Genome Fitness: 157.000000 
Neuron 1 1 0.00000000 1 0.00000000 0.00000000 0.00000000 0.00000000
Neuron 2 1 0.00000000 1 0.00000000 0.00000000 0.00000000 0.00000000
Neuron 3 1 0.00000000 1 0.00000000 0.00000000 0.00000000 0.00000000
Neuron 4 1 0.00000000 1 0.00000000 0.00000000 0.00000000 0.00000000
Neuron 5 1 0.00000000 1 0.00000000 0.00000000 0.00000000 0.00000000
Neuron 6 2 0.00000000 1 0.00000000 0.00000000 0.00000000 0.00000000
Neuron 7 4 1.00000000 1 3.02500000 0.00000000 0.00000000 0.00000000
Neuron 8 4 1.00000000 1 3.02500000 0.00000000 0.00000000 0.00000000
Neuron 10 3 0.50000000 4 4.46394765 0.00000000 0.00000000 0.00000000
Neuron 14 3 0.50000000 6 3.56554023 0.00000000 0.00000000 0.00000000
Neuron 16 3 0.25000000 1 3.85227799 0.00000000 0.00000000 0.00000000
Neuron 17 3 0.50000000 1 5.01034854 0.00000000 0.00000000 0.00000000
Link 2 7 2 0 -0.44913673
Link 3 7 3 0 -0.65404960
Link 5 7 5 0 -0.68905548
Link 6 7 6 0 0.20816349
Link 1 8 7 0 -0.33665290
Link 3 8 9 0 0.35477618
Link 4 8 10 0 -0.22041083
Link 5 8 11 0 0.19546943
Link 6 8 12 0 0.58707510
Link 4 10 17 0 -0.29406919
Link 10 7 18 0 -0.09489867
Link 14 8 35 0 -0.17557003
Link 2 16 43 0 1.17156022
Link 16 14 44 0 1.03053424
Link 1 17 46 0 0.87895388
Link 17 7 47 0 0.02529475
GenomeEnd

GenomeStart 1861
Genome Fitness: 149.000000 
Neuron 1 1 0.00000000 1 0.00000000 0.00000000 0.00000000 0.00000000
Neuron 2 1 0.00000000 1 0.00000000 0.00000000 0.00000000 0.00000000
Neuron 3 1 0.00000000 1 0.00000000 0.00000000 0.00000000 0.00000000
Neuron 4 1 0.00000000 1 0.00000000 0.00000000 0.00000000 0.00000000
Neuron 5 1 0.00000000 1 0.00000000 0.00000000 0.00000000 0.00000000
Neuron 6 2 0.00000000 1 0.00000000 0.00000000 0.00000000 0.00000000
Neuron 7 4 1.00000000 1 3.02500000 0.00000000 0.00000000 0.00000000
Neuron 8 4 1.00000000 1 3.02500000 0.00000000 0.00000000 0.00000000
Neuron 10 3 0.50000000 4 4.46394765 0.00000000 0.00000000 0.00000000
Neuron 14 3 0.50000000 6 3.56554023 0.00000000 0.00000000 0.00000000
Neuron 16 3 0.25000000 1 3.85227799 0.00000000 0.00000000 0.00000000
Neuron 17 3 0.50000000 1 5.01034854 0.00000000 0.00000000 0.00000000
Link 2 7 2 0 0.02286966
Link 3 7 3 0 -0.49158508
Link 5 7 5 0 0.25766098
Link 6 7 6 0 0.33698379
Link 1 8 7 0 -0.40340006
Link 3 8 9 0 0.41919144
Link 4 8 10 0 0.42082571
Link 5 8 11 0 0.18656324
Link 6 8 12 0 0.15402392
Link 4 10 17 0 1.01269360
Link 10 7 18 0 -0.31142586
Link 14 8 35 0 -0.30871729
Link 2 16 43 0 0.87382875
Link 16 14 44 0 0.94091668
Link 1 17 46 0 0.91775052
Link 17 7 47 0 0.03275047
GenomeEnd

GenomeStart 1862
Genome Fitness: 133.000000 
Neuron 1 1 0.00000000 1 0.00000000 0.00000000 0.00000000 0.00000000
Neuron 2 1 0.00000000 1 0.00000000 0.00000000 0.00000000 0.00000000
Neuron 3 1 0.00000000 1 0.00000000 0.00000000 0.00000000 0.00000000
Neuron 4 1 0.00000000 1 0.00000000 0.00000000 0.00000000 0.00000000
Neuron 5 1 0.00000000 1 0.00000000 0.00000000 0.00000000 0.00000000
Neuron 6 2 0.00000000 1 0.00000000 0.00000000 0.00000000 0.00000000
Neuron 7 4 1.00000000 1 3.02500000 0.00000000 0.00000000 0.00000000
Neuron 8 4 1.00000000 1 3.02500000 0.00000000 0.00000000 0.00000000
Neuron 10 3 0.50000000 4 4.46394765 0.00000000 0.00000000 0.00000000
Neuron 14 3 0.50000000 6 3.56554023 0.00000000 0.00000000 0.00000000
Neuron 16 3 0.25000000 1 3.85227799 0.00000000 0.00000000 0.00000000
Neuron 17 3 0.50000000 1 5.01034854 0.00000000 0.00000000 0.00000000
Link 2 7 2 0 0.01322163
Link 3 7 3 0 -0.58099198
Link 5 7 5 0 0.03719578
Link 6 7 6 0 0.20816349
Link 1 8 7 0 -0.33665290
Link 3 8 9 0 0.35477618
Link 4 8 10 0 -0.18746454
Link 5 8 11 0 0.19552005
Link 6 8 12 0 0.58707510
Link 4 10 17 0 -0.28918558
Link 10 7 18 0 0.07266846
Link 14 8 35 0 -0.15725217
Link 2 16 43 0 0.94304338
Link 16 14 44 0 1.03053424
Link 1 17 46 0 0.87895388
Link 17 7 47 0 0.02529475
GenomeEnd

GenomeStart 1863
Genome Fitness: 101.000000 
Neuron 1 1 0.00000000 1 0.00000000 0.00000000 0.00000000 0.00000000
Neuron 2 1 0.00000000 1 0.00000000 0.00000000 0.00000000 0.00000000
Neuron 3 1 0.00000000 1 0.00000000 0.00000000 0.00000000 0.00000000
Neuron 4 1 0.00000000 1 0.00000000 0.00000000 0.00000000 0.00000000
Neuron 5 1 0.00000000 1 0.00000000 0.00000000 0.00000000 0.00000000
Neuron 6 2 0.00000000 1 0.00000000 0.00000000 0.00000000 0.00000000
Neuron 7 4 1.00000000 1 3.02500000 0.00000000 0.00000000 0.00000000
Neuron 8 4 1.00000000 1 3.02500000 0.00000000 0.00000000 0.00000000
Neuron 10 3 0.50000000 4 4.46394765 0.00000000 0.00000000 0.00000000
Neuron 14 3 0.50000000 6 3.56554023 0.00000000 0.00000000 0.00000000
Neuron 16 3 0.25000000 1 3.85227799 0.00000000 0.00000000 0.00000000
Neuron 17 3 0.50000000 1 5.01034854 0.00000000 0.00000000 0.00000000
Link 1 7 1 0 -0.31368969
Link 2 7 2 0 0.01322163
Link 3 7 3 0 -0.58099198
Link 5 7 5 0 0.03719578
Link 6 7 6 0 0.18065461
Link 1 8 7 0 -0.62882082
Link 3 8 9 0 0.41647738
Link 4 8 10 0 -0.18746454
Link 5 8 11 0 0.19552005
Link 6 8 12 0 0.64744893
Link 4 10 17 0 -0.28918558
Link 10 7 18 0 0.07266846
Link 14 8 35 0 -0.15725217
Link 2 16 43 0 0.94304338
Link 16 14 44 0 0.71412884
Link 1 17 46 0 1.23437698
Link 17 7 47 0 0.06444021
GenomeEnd

GenomeStart 1864
Genome Fitness: 17.000000 
Neuron 1 1 0.00000000 1 0.00000000 0.00000000 0.00000000 0.00000000
Neuron 2 1 0.00000000 1 0.00000000 0.00000000 0.00000000 0.00000000
Neuron 3 1 0.00000000 1 0.00000000 0.00000000 0.00000000 0.00000000
Neuron 4 1 0.00000000 1 0.00000000 0.00000000 0.00000000 0.00000000
Neuron 5 1 0.00000000 1 0.00000000 0.00000000 0.00000000 0.00000000
Neuron 6 2 0.00000000 1 0.00000000 0.00000000 0.00000000 0.00000000
Neuron 7 4 1.00000000 1 3.02500000 0.00000000 0.00000000 0.00000000
Neuron 8 4 1.00000000 1 3.02500000 0.00000000 0.00000000 0.00000000
Neuron 10 3 0.50000000 4 4.46394765 0.00000000 0.00000000 0.00000000
Neuron 14 3 0.50000000 6 3.56554023 0.00000000 0.00000000 0.00000000
Neuron 16 3 0.25000000 1 3.85227799 0.00000000 0.00000000 0.00000000
Neuron 17 3 0.50000000 1 5.01034854 0.00000000 0.00000000 0.00000000
Link 2 7 2 0 -0.44913673
Link 3 7 3 0 -0.70302581
Link 5 7 5 0 -0.68905548
Link 6 7 6 0 0.15845830
Link 1 8 7 0 -0.33665290
Link 3 8 9 0 0.65696840
Link 4 8 10 0 -0.22041083
Link 5 8 11 0 0.19546943
Link 6 8 12 0 0.37316059
Link 4 10 17 0 -0.24307933
Link 10 7 18 0 -0.06311871
Link 14 8 35 0 -0.17557003
Link 2 16 43 0 0.90287623
Link 16 14 44 0 1.03053424
Link 1 17 46 0 0.87895388
Link 17 7 47 0 0.11987489
GenomeEnd

GenomeStart 1865
Genome Fitness: 157.000000 
Neuron 1 1 0.00000000 1 0.00000000 0.00000000 0.00000000 0.00000000
Neuron 2 1 0.00000000 1 0.00000000 0.00000000 0.00000000 0.00000000
Neuron 3 1 0.00000000 1 0.00000000 0.00000000 0.00000000 0.00000000
Neuron 4 1 0.00000000 1 0.00000000 0.00000000 0.00000000 0.00000000
Neuron 5 1 0.00000000 1 0.00000000 0.00000000 0.00000000 0.00000000
Neuron 6 2 0.00000000 1 0.00000000 0.00000000 0.00000000 0.00000000
Neuron 7 4 1.00000000 1 3.02500000 0.00000000 0.00000000 0.00000000
Neuron 8 4 1.00000000 1 3.02500000 0.00000000 0.00000000 0.00000000
Neuron 10 3 0.50000000 4 4.46394765 0.00000000 0.00000000 0.00000000
Neuron 11 3 0.50000000 8 3.81805311 0.00000000 0.00000000 0.00000000
Neuron 14 3 0.50000000 6 3.56554023 0.00000000 0.00000000 0.00000000
Neuron 16 3 0.25000000 1 3.85227799 0.00000000 0.00000000 0.00000000
Neuron 17 3 0.50000000 1 5.01034854 0.00000000 0.00000000 0.00000000
Link 2 7 2 0 0.13389289
Link 3 7 3 0 -0.68921171
Link 5 7 5 0 0.03238479
Link 6 7 6 0 0.29153747
Link 1 8 7 0 -0.48887965
Link 4 8 10 0 0.30233267
Link 5 8 11 0 0.26028100
Link 6 8 12 0 0.15176365
Link 4 10 17 0 0.87164800
Link 10 7 18 0 -0.24171893
Link 3 11 24 0 1.00462768
Link 11 8 25 0 0.43652772
Link 14 8 35 0 -0.32825712
Link 2 16 43 0 1.05105877
Link 16 14 44 0 0.88556580
Link 1 17 46 0 1.05234435
Link 17 7 47 0 -0.09725278
GenomeEnd

GenomeStart 1866
Genome Fitness: 148.000000 
Neuron 1 1 0.00000000 1 0.00000000 0.00000000 0.00000000 0.00000000
Neuron 2 1 0.00000000 1 0.00000000 0.00000000 0.00000000 0.00000000
Neuron 3 1 0.00000000 1 0.00000000 0.00000000 0.00000000 0.00000000
Neuron 4 1 0.00000000 1 0.00000000 0.00000000 0.00000000 0.00000000
Neuron 5 1 0.00000000 1 0.00000000 0.00000000 0.00000000 0.00000000
Neuron 6 2 0.00000000 1 0.00000000 0.00000000 0.00000000 0.00000000
Neuron 7 4 1.00000000 1 3.02500000 0.00000000 0.00000000 0.00000000
Neuron 8 4 1.00000000 1 3.02500000 0.00000000 0.00000000 0.00000000
Neuron 10 3 0.50000000 4 4.46394765 0.00000000 0.00000000 0.00000000
Neuron 11 3 0.50000000 8 3.81805311 0.00000000 0.00000000 0.00000000
Neuron 14 3 0.50000000 6 3.56554023 0.00000000 0.00000000 0.00000000
Neuron 16 3 0.25000000 1 3.85227799 0.00000000 0.00000000 0.00000000
Neuron 17 3 0.50000000 1 5.01034854 0.00000000 0.00000000 0.00000000
Link 2 7 2 0 0.20057865
Link 3 7 3 0 -0.74771437
Link 5 7 5 0 0.03288873
Link 6 7 6 0 0.10418390
Link 1 8 7 0 -0.37582101
Link 4 8 10 0 0.27482129
Link 5 8 11 0 0.24639184
Link 6 8 12 0 0.21842825
Link 4 10 17 0 0.95393183
Link 10 7 18 0 -0.20425823
Link 3 11 24 0 1.03725405
Link 11 8 25 0 0.30705455
Link 14 8 35 0 -0.16777725
Link 2 16 43 0 0.99937325
Link 16 14 44 0 1.09067214
Link 1 17 46 0 0.93528817
Link 17 7 47 0 0.00123409
GenomeEnd

GenomeStart 1867
Genome Fitness: 152.000000 
Neuron 1 1 0.00000000 1 0.00000000 0.00000000 0.00000000 0.00000000
Neuron 2 1 0.00000000 1 0.00000000 0.00000000 0.00000000 0.00000000
Neuron 3 1 0.00000000 1 0.00000000 0.00000000 0.00000000 0.00000000
Neuron 4 1 0.00000000 1 0.00000000 0.00000000 0.00000000 0.00000000
Neuron 5 1 0.00000000 1 0.00000000 0.00000000 0.00000000 0.00000000
Neuron 6 2 0.00000000 1 0.00000000 0.00000000 0.00000000 0.00000000
Neuron 7 4 1.00000000 1 3.02500000 0.00000000 0.00000000 0.00000000
Neuron 8 4 1.00000000 1 3.02500000 0.00000000 0.00000000 0.00000000
Neuron 10 3 0.50000000 4 4.46394765 0.00000000 0.00000000 0.00000000
Neuron 11 3 0.50000000 8 3.81805311 0.00000000 0.00000000 0.00000000
Neuron 14 3 0.50000000 6 3.56554023 0.00000000 0.00000000 0.00000000
Neuron 16 3 0.25000000 1 3.85227799 0.00000000 0.00000000 0.00000000
Neuron 17 3 0.50000000 1 5.01034854 0.00000000 0.00000000 0.00000000
Link 2 7 2 0 0.14817239
Link 3 7 3 0 -0.67426563
Link 5 7 5 0 -0.08045017
Link 6 7 6 0 0.26430729
Link 1 8 7 0 -0.57314786
Link 4 8 10 0 0.31211669
Link 5 8 11 0 0.19131678
Link 6 8 12 0 0.15783844
Link 4 10 17 0 -0.22204182
Link 10 7 18 0 -0.25503438
Link 3 11 24 0 1.27228812
Link 11 8 25 0 0.89010543
Link 14 8 35 0 -0.13885143
Link 2 16 43 0 1.08578017
Link 16 14 44 0 1.00069853
Link 1 17 46 0 1.11052010
Link 17 7 47 0 -0.03393693
GenomeEnd

GenomeStart 1868
Genome Fitness: 101.000000 
Neuron 1 1 0.00000000 1 0.00000000 0.00000000 0.00000000 0.00000000
Neuron 2 1 0.00000000 1 0.00000000 0.00000000 0.00000000 0.00000000
Neuron 3 1 0.00000000 1 0.00000000 0.00000000 0.00000000 0.00000000
Neuron 4 1 0.00000000 1 0.00000000 0.00000000 0.00000000 0.00000000
Neuron 5 1 0.00000000 1 0.00000000 0.00000000 0.00000000 0.00000000
Neuron 6 2 0.00000000 1 0.00000000 0.00000000 0.00000000 0.00000000
Neuron 7 4 1.00000000 1 3.02500000 0.00000000 0.00000000 0.00000000
Neuron 8 4 1.00000000 1 3.02500000 0.00000000 0.00000000 0.00000000
Neuron 10 3 0.50000000 4 4.46394765 0.00000000 0.00000000 0.00000000
Neuron 11 3 0.50000000 8 3.81805311 0.00000000 0.00000000 0.00000000
Neuron 14 3 0.50000000 6 3.56554023 0.00000000 0.00000000 0.00000000
Neuron 16 3 0.25000000 1 3.85227799 0.00000000 0.00000000 0.00000000
Neuron 17 3 0.50000000 1 5.01034854 0.00000000 0.00000000 0.00000000
Link 2 7 2 0 0.13389289
Link 3 7 3 0 -0.68921171
Link 5 7 5 0 0.03238479
Link 6 7 6 0 0.29153747
Link 1 8 7 0 -0.58227097
Link 4 8 10 0 -0.55801120
Link 5 8 11 0 0.26028100
Link 6 8 12 0 0.14999702
Link 4 10 17 0 -0.16099781
Link 10 7 18 0 -0.13570617
Link 3 11 24 0 1.15393742
Link 11 8 25 0 0.43652772
Link 14 8 35 0 -0.24949375
Link 2 16 43 0 1.11769400
Link 16 14 44 0 0.88556580
Link 1 17 46 0 1.05234435
Link 17 7 47 0 -0.09725278
GenomeEnd

GenomeStart 1869
Genome Fitness: 101.000000 
Neuron 1 1 0.00000000 1 0.00000000 0.00000000 0.00000000 0.00000000
Neuron 2 1 0.00000000 1 0.00000000 0.00000000 0.00000000 0.00000000
Neuron 3 1 0.00000000 1 0.00000000 0.00000000 0.00000000 0.00000000
Neuron 4 1 0.00000000 1 0.00000000 0.00000000 0.00000000 0.00000000
Neuron 5 1 0.00000000 1 0.00000000 0.00000000 0.00000000 0.00000000
Neuron 6 2 0.00000000 1 0.00000000 0.00000000 0.00000000 0.00000000
Neuron 7 4 1.00000000 1 3.02500000 0.00000000 0.00000000 0.00000000
Neuron 8 4 1.00000000 1 3.02500000 0.00000000 0.00000000 0.00000000
Neuron 10 3 0.50000000 4 4.46394765 0.00000000 0.00000000 0.00000000
Neuron 11 3 0.50000000 8 3.81805311 0.00000000 0.00000000 0.00000000
Neuron 14 3 0.50000000 6 3.56554023 0.00000000 0.00000000 0.00000000
Neuron 16 3 0.25000000 1 3.85227799 0.00000000 0.00000000 0.00000000
Neuron 17 3 0.50000000 1 5.01034854 0.00000000 0.00000000 0.00000000
Link 2 7 2 0 0.09118054
Link 3 7 3 0 -0.64684623
Link 5 7 5 0 0.14670309
Link 6 7 6 0 0.18339374
Link 1 8 7 0 -0.52154999
Link 4 8 10 0 -0.55801120
Link 5 8 11 0 0.04268828
Link 6 8 12 0 0.14999702
Link 4 10 17 0 0.30884603
Link 10 7 18 0 -0.27062175
Link 3 11 24 0 1.07282684
Link 11 8 25 0 0.93844692
Link 14 8 35 0 -0.24949375
Link 2 16 43 0 1.11769400
Link 16 14 44 0 0.98409577
Link 1 17 46 0 1.01057436
Link 17 7 47 0 -0.04421400
GenomeEnd

GenomeStart 1870
Genome Fitness: 157.000000 
Neuron 1 1 0.00000000 1 0.00000000 0.00000000 0.00000000 0.00000000
Neuron 2 1 0.00000000 1 0.00000000 0.00000000 0.00000000 0.00000000
Neuron 3 1 0.00000000 1 0.00000000 0.00000000 0.00000000 0.00000000
Neuron 4 1 0.00000000 1 0.00000000 0.00000000 0.00000000 0.00000000
Neuron 5 1 0.00000000 1 0.00000000 0.00000000 0.00000000 0.00000000
Neuron 6 2 0.00000000 1 0.00000000 0.00000000 0.00000000 0.00000000
Neuron 7 4 1.00000000 1 3.02500000 0.00000000 0.00000000 0.00000000
Neuron 8 4 1.00000000 1 3.02500000 0.00000000 0.00000000 0.00000000
Neuron 10 3 0.50000000 4 4.46394765 0.00000000 0.00000000 0.00000000
Neuron 11 3 0.50000000 8 3.81805311 0.00000000 0.00000000 0.00000000
Neuron 14 3 0.50000000 6 3.56554023 0.00000000 0.00000000 0.00000000
Neuron 16 3 0.25000000 1 3.85227799 0.00000000 0.00000000 0.00000000
Neuron 17 3 0.50000000 1 5.01034854 0.00000000 0.00000000 0.00000000
Neuron 20 3 0.25000000 8 2.73773847 0.00000000 0.00000000 0.00000000
Link 2 7 2 0 0.13389289
Link 3 7 3 0 -0.64468134
Link 5 7 5 0 -0.04360521
Link 6 7 6 0 0.34206788
Link 1 8 7 0 -0.48887965
Link 4 8 10 0 0.30233267
Link 5 8 11 0 0.26028100
Link 6 8 12 0 0.15176365
Link 10 7 18 0 -0.24171893
Link 3 11 24 0 1.00462768
Link 11 8 25 0 0.33010417
Link 14 8 35 0 -0.27725785
Link 2 16 43 0 0.89727731
Link 16 14 44 0 0.79359606
Link 1 17 46 0 1.05234435
Link 17 7 47 0 -0.02089683
Link 4 20 63 0 1.07143403
Link 20 10 64 0 0.90458517
GenomeEnd

GenomeStart 1871
Genome Fitness: 156.000000 
Neuron 1 1 0.00000000 1 0.00000000 0.00000000 0.00000000 0.00000000
Neuron 2 1 0.00000000 1 0.00000000 0.00000000 0.00000000 0.00000000
Neuron 3 1 0.00000000 1 0.00000000 0.00000000 0.00000000 0.00000000
Neuron 4 1 0.00000000 1 0.00000000 0.00000000 0.00000000 0.00000000
Neuron 5 1 0.00000000 1 0.00000000 0.00000000 0.00000000 0.00000000
Neuron 6 2 0.00000000 1 0.00000000 0.00000000 0.00000000 0.00000000
Neuron 7 4 1.00000000 1 3.02500000 0.00000000 0.00000000 0.00000000
Neuron 8 4 1.00000000 1 3.02500000 0.00000000 0.00000000 0.00000000
Neuron 10 3 0.50000000 4 4.46394765 0.00000000 0.00000000 0.00000000
Neuron 11 3 0.50000000 8 3.81805311 0.00000000 0.00000000 0.00000000
Neuron 14 3 0.50000000 6 3.56554023 0.00000000 0.00000000 0.00000000
Neuron 16 3 0.25000000 1 3.85227799 0.00000000 0.00000000 0.00000000
Neuron 17 3 0.50000000 1 5.01034854 0.00000000 0.00000000 0.00000000
Neuron 20 3 0.25000000 8 2.73773847 0.00000000 0.00000000 0.00000000
Link 2 7 2 0 0.13389289
Link 3 7 3 0 -0.68921171
Link 5 7 5 0 0.03238479
Link 6 7 6 0 0.29153747
Link 1 8 7 0 -0.48887965
Link 4 8 10 0 0.30233267
Link 5 8 11 0 0.26028100
Link 6 8 12 0 0.15176365
Link 10 7 18 0 -0.24171893
Link 3 11 24 0 1.00462768
Link 11 8 25 0 0.43652772
Link 14 8 35 0 -0.32825712
Link 2 16 43 0 1.05105877
Link 16 14 44 0 0.88556580
Link 1 17 46 0 1.05234435
Link 17 7 47 0 -0.09725278
Link 4 20 63 0 1.00000000
Link 20 10 64 0 0.87164800
GenomeEnd

GenomeStart 1872
Genome Fitness: 147.000000 
Neuron 1 1 0.00000000 1 0.00000000 0.00000000 0.00000000 0.00000000
Neuron 2 1 0.00000000 1 0.00000000 0.00000000 0.00000000 0.00000000
Neuron 3 1 0.00000000 1 0.00000000 0.00000000 0.00000000 0.00000000
Neuron 4 1 0.00000000 1 0.00000000 0.00000000 0.00000000 0.00000000
Neuron 5 1 0.00000000 1 0.00000000 0.00000000 0.00000000 0.00000000
Neuron 6 2 0.00000000 1 0.00000000 0.00000000 0.00000000 0.00000000
Neuron 7 4 1.00000000 1 3.02500000 0.00000000 0.00000000 0.00000000
Neuron 8 4 1.00000000 1 3.02500000 0.00000000 0.00000000 0.00000000
Neuron 10 3 0.50000000 4 4.46394765 0.00000000 0.00000000 0.00000000
Neuron 11 3 0.50000000 8 3.81805311 0.00000000 0.00000000 0.00000000
Neuron 14 3 0.50000000 6 3.56554023 0.00000000 0.00000000 0.00000000
Neuron 16 3 0.25000000 1 3.85227799 0.00000000 0.00000000 0.00000000
Neuron 17 3 0.50000000 1 5.01034854 0.00000000 0.00000000 0.00000000
Neuron 20 3 0.25000000 8 2.73773847 0.00000000 0.00000000 0.00000000
Link 2 7 2 0 0.10484099
Link 3 7 3 0 -0.76697438
Link 5 7 5 0 -0.03858592
Link 6 7 6 0 0.27126965
Link 1 8 7 0 -0.54864854
Link 4 8 10 0 0.31391780
Link 5 8 11 0 0.36497942
Link 6 8 12 0 0.16227205
Link 10 7 18 0 -0.25623723
Link 3 11 24 0 1.04359213
Link 11 8 25 0 0.38072545
Link 14 8 35 0 -0.37403940
Link 2 16 43 0 1.08104277
Link 16 14 44 0 0.72794985
Link 1 17 46 0 1.10086289
Link 17 7 47 0 -0.06096426
Link 4 20 63 0 0.91753227
Link 20 10 64 0 1.01750572
GenomeEnd

GenomeStart 1873
Genome Fitness: 157.000000 
Neuron 1 1 0.00000000 1 0.00000000 0.00000000 0.00000000 0.00000000
Neuron 2 1 0.00000000 1 0.00000000 0.00000000 0.00000000 0.00000000
Neuron 3 1 0.00000000 1 0.00000000 0.00000000 0.00000000 0.00000000
Neuron 4 1 0.00000000 1 0.00000000 0.00000000 0.00000000 0.00000000
Neuron 5 1 0.00000000 1 0.00000000 0.00000000 0.00000000 0.00000000
Neuron 6 2 0.00000000 1 0.00000000 0.00000000 0.00000000 0.00000000
Neuron 7 4 1.00000000 1 3.02500000 0.00000000 0.00000000 0.00000000
Neuron 8 4 1.00000000 1 3.02500000 0.00000000 0.00000000 0.00000000
Neuron 10 3 0.50000000 4 4.46394765 0.00000000 0.00000000 0.00000000
Neuron 11 3 0.50000000 8 3.81805311 0.00000000 0.00000000 0.00000000
Neuron 14 3 0.50000000 6 3.56554023 0.00000000 0.00000000 0.00000000
Neuron 16 3 0.25000000 1 3.85227799 0.00000000 0.00000000 0.00000000
Neuron 17 3 0.50000000 1 5.01034854 0.00000000 0.00000000 0.00000000
Neuron 20 3 0.25000000 8 2.73773847 0.00000000 0.00000000 0.00000000
Link 2 7 2 0 0.11422191
Link 3 7 3 0 -0.91270774
Link 5 7 5 0 -0.08502903
Link 6 7 6 0 0.29202070
Link 1 8 7 0 -0.52411347
Link 4 8 10 0 0.23690480
Link 5 8 11 0 0.26787059
Link 6 8 12 0 0.17960170
Link 10 7 18 0 -0.43803585
Link 3 11 24 0 1.10192299
Link 11 8 25 0 0.35555181
Link 14 8 35 0 -0.35732325
Link 2 16 43 0 1.10909501
Link 16 14 44 0 1.01576702
Link 1 17 46 0 1.00873604
Link 17 7 47 0 -0.15750447
Link 4 20 63 0 1.19686148
Link 20 10 64 0 0.80505539
GenomeEnd

GenomeStart 1874
Genome Fitness: 142.000000 
Neuron 1 1 0.00000000 1 0.00000000 0.00000000 0.00000000 0.00000000
Neuron 2 1 0.00000000 1 0.00000000 0.00000000 0.00000000 0.00000000
Neuron 3 1 0.00000000 1 0.00000000 0.00000000 0.00000000 0.00000000
Neuron 4 1 0.00000000 1 0.00000000 0.00000000 0.00000000 0.00000000
Neuron 5 1 0.00000000 1 0.00000000 0.00000000 0.00000000 0.00000000
Neuron 6 2 0.00000000 1 0.00000000 0.00000000 0.00000000 0.00000000
Neuron 7 4 1.00000000 1 3.02500000 0.00000000 0.00000000 0.00000000
Neuron 8 4 1.00000000 1 3.02500000 0.00000000 0.00000000 0.00000000
Neuron 10 3 0.50000000 4 4.46394765 0.00000000 0.00000000 0.00000000
Neuron 11 3 0.50000000 8 3.81805311 0.00000000 0.00000000 0.00000000
Neuron 14 3 0.50000000 6 3.56554023 0.00000000 0.00000000 0.00000000
Neuron 16 3 0.25000000 1 3.85227799 0.00000000 0.00000000 0.00000000
Neuron 17 3 0.50000000 1 5.01034854 0.00000000 0.00000000 0.00000000
Neuron 20 3 0.25000000 8 2.73773847 0.00000000 0.00000000 0.00000000
Link 2 7 2 0 0.20357114
Link 3 7 3 0 -0.69949573
Link 5 7 5 0 0.03445806
Link 6 7 6 0 0.35947066
Link 1 8 7 0 -0.46092783
Link 4 8 10 0 0.35634782
Link 5 8 11 0 0.33426374
Link 6 8 12 0 0.04780481
Link 10 7 18 0 -0.29663018
Link 3 11 24 0 1.04272816
Link 11 8 25 0 0.46512108
Link 14 8 35 0 -0.31363595
Link 2 16 43 0 0.96298571
Link 16 14 44 0 0.75598943
Link 1 17 46 0 1.00465211
Link 17 7 47 0 -0.07445387
Link 4 20 63 0 1.09554592
Link 20 10 64 0 0.95275217
GenomeEnd

GenomeStart 1875
Genome Fitness: 143.000000 
Neuron 1 1 0.00000000 1 0.00000000 0.00000000 0.00000000 0.00000000
Neuron 2 1 0.00000000 1 0.00000000 0.00000000 0.00000000 0.00000000
Neuron 3 1 0.00000000 1 0.00000000 0.00000000 0.00000000 0.00000000
Neuron 4 1 0.00000000 1 0.00000000 0.00000000 0.00000000 0.00000000
Neuron 5 1 0.00000000 1 0.00000000 0.00000000 0.00000000 0.00000000
Neuron 6 2 0.00000000 1 0.00000000 0.00000000 0.00000000 0.00000000
Neuron 7 4 1.00000000 1 3.02500000 0.00000000 0.00000000 0.00000000
Neuron 8 4 1.00000000 1 3.02500000 0.00000000 0.00000000 0.00000000
Neuron 10 3 0.50000000 4 4.46394765 0.00000000 0.00000000 0.00000000
Neuron 11 3 0.50000000 8 3.81805311 0.00000000 0.00000000 0.00000000
Neuron 14 3 0.50000000 6 3.56554023 0.00000000 0.00000000 0.00000000
Neuron 16 3 0.25000000 1 3.85227799 0.00000000 0.00000000 0.00000000
Neuron 17 3 0.50000000 1 5.01034854 0.00000000 0.00000000 0.00000000
Neuron 20 3 0.25000000 8 2.73773847 0.00000000 0.00000000 0.00000000
Link 2 7 2 0 0.17420269
Link 3 7 3 0 -0.67687837
Link 5 7 5 0 0.03437634
Link 6 7 6 0 0.36184185
Link 1 8 7 0 -0.37791208
Link 4 8 10 0 0.30172411
Link 5 8 11 0 0.26401167
Link 6 8 12 0 0.19433171
Link 10 7 18 0 -0.29052960
Link 3 11 24 0 1.02053150
Link 11 8 25 0 0.30802364
Link 14 8 35 0 -0.34872280
Link 2 16 43 0 1.00109567
Link 16 14 44 0 0.83144050
Link 1 17 46 0 1.12684897
Link 17 7 47 0 -0.05701052
Link 4 20 63 0 1.17064678
Link 20 10 64 0 0.95517769
GenomeEnd

GenomeStart 1876
Genome Fitness: 157.000000 
Neuron 1 1 0.00000000 1 0.00000000 0.00000000 0.00000000 0.00000000
Neuron 2 1 0.00000000 1 0.00000000 0.00000000 0.00000000 0.00000000
Neuron 3 1 0.00000000 1 0.00000000 0.00000000 0.00000000 0.00000000
Neuron 4 1 0.00000000 1 0.00000000 0.00000000 0.00000000 0.00000000
Neuron 5 1 0.00000000 1 0.00000000 0.00000000 0.00000000 0.00000000
Neuron 6 2 0.00000000 1 0.00000000 0.00000000 0.00000000 0.00000000
Neuron 7 4 1.00000000 1 3.02500000 0.00000000 0.00000000 0.00000000
Neuron 8 4 1.00000000 1 3.02500000 0.00000000 0.00000000 0.00000000
Neuron 10 3 0.50000000 4 4.46394765 0.00000000 0.00000000 0.00000000
Neuron 11 3 0.50000000 2 0.34985824 0.00000000 0.00000000 0.00000000
Neuron 13 3 0.50000000 9 1.09020310 0.00000000 0.00000000 0.00000000
Link 1 7 1 0 0.07223056
Link 2 7 2 0 0.02889157
Link 5 7 5 0 0.09732184
Link 6 7 6 0 0.12543672
Link 1 8 7 0 -0.49471868
Link 2 8 8 0 -0.06748453
Link 4 8 10 0 0.72409577
Link 5 8 11 0 0.46718505
Link 6 8 12 0 0.05150514
Link 4 10 17 0 1.01472432
Link 10 7 18 0 -0.15477602
Link 3 11 24 0 0.93137408
Link 11 8 25 0 -0.39948687
Link 6 10 26 0 -0.02529034
Link 3 13 31 0 1.04114789
Link 13 7 32 0 -0.78441280
GenomeEnd

GenomeStart 1877
Genome Fitness: 157.000000 
Neuron 1 1 0.00000000 1 0.00000000 0.00000000 0.00000000 0.00000000
Neuron 2 1 0.00000000 1 0.00000000 0.00000000 0.00000000 0.00000000
Neuron 3 1 0.00000000 1 0.00000000 0.00000000 0.00000000 0.00000000
Neuron 4 1 0.00000000 1 0.00000000 0.00000000 0.00000000 0.00000000
Neuron 5 1 0.00000000 1 0.00000000 0.00000000 0.00000000 0.00000000
Neuron 6 2 0.00000000 1 0.00000000 0.00000000 0.00000000 0.00000000
Neuron 7 4 1.00000000 1 3.02500000 0.00000000 0.00000000 0.00000000
Neuron 8 4 1.00000000 1 3.02500000 0.00000000 0.00000000 0.00000000
Neuron 10 3 0.50000000 4 4.46394765 0.00000000 0.00000000 0.00000000
Neuron 11 3 0.50000000 2 0.34985824 0.00000000 0.00000000 0.00000000
Neuron 13 3 0.50000000 9 1.09020310 0.00000000 0.00000000 0.00000000
Link 1 7 1 0 0.07223056
Link 2 7 2 0 0.02889157
Link 5 7 5 0 0.09732184
Link 6 7 6 0 0.12543672
Link 1 8 7 0 -0.49471868
Link 2 8 8 0 -0.06748453
Link 4 8 10 0 0.72409577
Link 5 8 11 0 0.46718505
Link 6 8 12 0 0.05150514
Link 4 10 17 0 1.01472432
Link 10 7 18 0 -0.15477602
Link 3 11 24 0 0.93137408
Link 11 8 25 0 -0.39948687
Link 6 10 26 0 -0.02529034
Link 3 13 31 0 1.04114789
Link 13 7 32 0 -0.78441280
GenomeEnd

GenomeStart 1878
Genome Fitness: 157.000000 
Neuron 1 1 0.00000000 1 0.00000000 0.00000000 0.00000000 0.00000000
Neuron 2 1 0.00000000 1 0.00000000 0.00000000 0.00000000 0.00000000
Neuron 3 1 0.00000000 1 0.00000000 0.00000000 0.00000000 0.00000000
Neuron 4 1 0.00000000 1 0.00000000 0.00000000 0.00000000 0.00000000
Neuron 5 1 0.00000000 1 0.00000000 0.00000000 0.00000000 0.00000000
Neuron 6 2 0.00000000 1 0.00000000 0.00000000 0.00000000 0.00000000
Neuron 7 4 1.00000000 1 3.02500000 0.00000000 0.00000000 0.00000000
Neuron 8 4 1.00000000 1 3.02500000 0.00000000 0.00000000 0.00000000
Neuron 10 3 0.50000000 4 4.46394765 0.00000000 0.00000000 0.00000000
Neuron 11 3 0.50000000 2 0.34985824 0.00000000 0.00000000 0.00000000
Neuron 13 3 0.50000000 9 1.09020310 0.00000000 0.00000000 0.00000000
Link 1 7 1 0 0.07223056
Link 2 7 2 0 0.02889157
Link 5 7 5 0 0.09732184
Link 6 7 6 0 0.12543672
Link 1 8 7 0 -0.49471868
Link 2 8 8 0 -0.06748453
Link 4 8 10 0 0.72409577
Link 5 8 11 0 0.46718505
Link 6 8 12 0 0.05150514
Link 4 10 17 0 1.01472432
Link 10 7 18 0 -0.15477602
Link 3 11 24 0 0.93137408
Link 11 8 25 0 -0.39948687
Link 6 10 26 0 -0.02529034
Link 3 13 31 0 1.04114789
Link 13 7 32 0 -0.78441280
GenomeEnd

GenomeStart 1879
Genome Fitness: 157.000000 
Neuron 1 1 0.00000000 1 0.00000000 0.00000000 0.00000000 0.00000000
Neuron 2 1 0.00000000 1 0.00000000 0.00000000 0.00000000 0.00000000
Neuron 3 1 0.00000000 1 0.00000000 0.00000000 0.00000000 0.00000000
Neuron 4 1 0.00000000 1 0.00000000 0.00000000 0.00000000 0.00000000
Neuron 5 1 0.00000000 1 0.00000000 0.00000000 0.00000000 0.00000000
Neuron 6 2 0.00000000 1 0.00000000 0.00000000 0.00000000 0.00000000
Neuron 7 4 1.00000000 1 3.02500000 0.00000000 0.00000000 0.00000000
Neuron 8 4 1.00000000 1 3.02500000 0.00000000 0.00000000 0.00000000
Neuron 10 3 0.50000000 4 4.46394765 0.00000000 0.00000000 0.00000000
Neuron 11 3 0.50000000 2 0.34985824 0.00000000 0.00000000 0.00000000
Neuron 13 3 0.50000000 9 1.09020310 0.00000000 0.00000000 0.00000000
Link 1 7 1 0 0.07223056
Link 2 7 2 0 0.02889157
Link 5 7 5 0 0.09732184
Link 6 7 6 0 0.12543672
Link 1 8 7 0 -0.49471868
Link 2 8 8 0 -0.06748453
Link 4 8 10 0 0.72409577
Link 5 8 11 0 0.46718505
Link 6 8 12 0 0.05150514
Link 4 10 17 0 1.01472432
Link 10 7 18 0 -0.15477602
Link 3 11 24 0 0.93137408
Link 11 8 25 0 -0.39948687
Link 6 10 26 0 -0.02529034
Link 3 13 31 0 1.04114789
Link 13 7 32 0 -0.78441280
GenomeEnd

GenomeStart 1880
Genome Fitness: 156.000000 
Neuron 1 1 0.00000000 1 0.00000000 0.00000000 0.00000000 0.00000000
Neuron 2 1 0.00000000 1 0.00000000 0.00000000 0.00000000 0.00000000
Neuron 3 1 0.00000000 1 0.00000000 0.00000000 0.00000000 0.00000000
Neuron 4 1 0.00000000 1 0.00000000 0.00000000 0.00000000 0.00000000
Neuron 5 1 0.00000000 1 0.00000000 0.00000000 0.00000000 0.00000000
Neuron 6 2 0.00000000 1 0.00000000 0.00000000 0.00000000 0.00000000
Neuron 7 4 1.00000000 1 3.02500000 0.00000000 0.00000000 0.00000000
Neuron 8 4 1.00000000 1 3.02500000 0.00000000 0.00000000 0.00000000
Neuron 10 3 0.50000000 4 4.46394765 0.00000000 0.00000000 0.00000000
Neuron 11 3 0.50000000 2 0.34985824 0.00000000 0.00000000 0.00000000
Neuron 13 3 0.50000000 9 1.09020310 0.00000000 0.00000000 0.00000000
Link 1 7 1 0 0.07223056
Link 2 7 2 0 0.02889157
Link 5 7 5 0 0.09732184
Link 6 7 6 0 0.12543672
Link 1 8 7 0 -0.49471868
Link 2 8 8 0 -0.06748453
Link 4 8 10 0 0.72409577
Link 5 8 11 0 0.46718505
Link 6 8 12 0 0.05150514
Link 4 10 17 0 1.01472432
Link 10 7 18 0 -0.15477602
Link 3 11 24 0 0.93137408
Link 11 8 25 0 -0.39948687
Link 6 10 26 0 -0.02529034
Link 3 13 31 0 1.04114789
Link 13 7 32 0 -0.78441280
GenomeEnd

GenomeStart 1881
Genome Fitness: 157.000000 
Neuron 1 1 0.00000000 1 0.00000000 0.00000000 0.00000000 0.00000000
Neuron 2 1 0.00000000 1 0.00000000 0.00000000 0.00000000 0.00000000
Neuron 3 1 0.00000000 1 0.00000000 0.00000000 0.00000000 0.00000000
Neuron 4 1 0.00000000 1 0.00000000 0.00000000 0.00000000 0.00000000
Neuron 5 1 0.00000000 1 0.00000000 0.00000000 0.00000000 0.00000000
Neuron 6 2 0.00000000 1 0.00000000 0.00000000 0.00000000 0.00000000
Neuron 7 4 1.00000000 1 3.02500000 0.00000000 0.00000000 0.00000000
Neuron 8 4 1.00000000 1 3.02500000 0.00000000 0.00000000 0.00000000
Neuron 10 3 0.50000000 4 4.46394765 0.00000000 0.00000000 0.00000000
Neuron 14 3 0.50000000 6 3.56554023 0.00000000 0.00000000 0.00000000
Neuron 16 3 0.25000000 1 3.85227799 0.00000000 0.00000000 0.00000000
Neuron 17 3 0.50000000 1 5.01034854 0.00000000 0.00000000 0.00000000
Neuron 18 3 0.25000000 1 5.92086029 0.00000000 0.00000000 0.00000000
Link 2 7 2 0 0.18418565
Link 3 7 3 0 -0.15107603
Link 5 7 5 0 0.10707497
Link 6 7 6 0 -0.24375371
Link 1 8 7 0 -0.69427426
Link 3 8 9 0 0.39841155
Link 4 8 10 0 0.49600261
Link 5 8 11 0 0.33735074
Link 6 8 12 0 0.56914266
Link 4 10 17 0 0.71817211
Link 10 7 18 0 -0.33597526
Link 14 8 35 0 -0.27252165
Link 2 16 43 0 0.83280595
Link 16 14 44 0 0.96956149
Link 17 7 47 0 0.13637504
Link 1 18 50 0 1.03026207
Link 18 17 51 0 0.91689491
GenomeEnd

GenomeStart 1882
Genome Fitness: 157.000000 
Neuron 1 1 0.00000000 1 0.00000000 0.00000000 0.00000000 0.00000000
Neuron 2 1 0.00000000 1 0.00000000 0.00000000 0.00000000 0.00000000
Neuron 3 1 0.00000000 1 0.00000000 0.00000000 0.00000000 0.00000000
Neuron 4 1 0.00000000 1 0.00000000 0.00000000 0.00000000 0.00000000
Neuron 5 1 0.00000000 1 0.00000000 0.00000000 0.00000000 0.00000000
Neuron 6 2 0.00000000 1 0.00000000 0.00000000 0.00000000 0.00000000
Neuron 7 4 1.00000000 1 3.02500000 0.00000000 0.00000000 0.00000000
Neuron 8 4 1.00000000 1 3.02500000 0.00000000 0.00000000 0.00000000
Neuron 10 3 0.50000000 4 4.46394765 0.00000000 0.00000000 0.00000000
Neuron 14 3 0.50000000 6 3.56554023 0.00000000 0.00000000 0.00000000
Neuron 16 3 0.25000000 1 3.85227799 0.00000000 0.00000000 0.00000000
Neuron 17 3 0.50000000 1 5.01034854 0.00000000 0.00000000 0.00000000
Neuron 18 3 0.25000000 1 5.92086029 0.00000000 0.00000000 0.00000000
Link 2 7 2 0 0.03112220
Link 3 7 3 0 -0.04383915
Link 5 7 5 0 0.15757755
Link 6 7 6 0 -0.32785382
Link 1 8 7 0 -0.63485030
Link 3 8 9 0 0.41411790
Link 4 8 10 0 0.50018334
Link 5 8 11 0 0.20322975
Link 6 8 12 0 0.60848885
Link 4 10 17 0 0.86645788
Link 10 7 18 0 -0.45439346
Link 14 8 35 0 -0.27439964
Link 2 16 43 0 0.95109365
Link 16 14 44 0 0.89327512
Link 17 7 47 0 0.11129165
Link 1 18 50 0 1.10583091
Link 18 17 51 0 0.80025082
GenomeEnd

GenomeStart 1883
Genome Fitness: 147.000000 
Neuron 1 1 0.00000000 1 0.00000000 0.00000000 0.00000000 0.00000000
Neuron 2 1 0.00000000 1 0.00000000 0.00000000 0.00000000 0.00000000
Neuron 3 1 0.00000000 1 0.00000000 0.00000000 0.00000000 0.00000000
Neuron 4 1 0.00000000 1 0.00000000 0.00000000 0.00000000 0.00000000
Neuron 5 1 0.00000000 1 0.00000000 0.00000000 0.00000000 0.00000000
Neuron 6 2 0.00000000 1 0.00000000 0.00000000 0.00000000 0.00000000
Neuron 7 4 1.00000000 1 3.02500000 0.00000000 0.00000000 0.00000000
Neuron 8 4 1.00000000 1 3.02500000 0.00000000 0.00000000 0.00000000
Neuron 10 3 0.50000000 4 4.46394765 0.00000000 0.00000000 0.00000000
Neuron 14 3 0.50000000 6 3.56554023 0.00000000 0.00000000 0.00000000
Neuron 16 3 0.25000000 1 3.85227799 0.00000000 0.00000000 0.00000000
Neuron 17 3 0.50000000 1 5.01034854 0.00000000 0.00000000 0.00000000
Neuron 18 3 0.25000000 1 5.92086029 0.00000000 0.00000000 0.00000000
Link 2 7 2 0 0.28313483
Link 3 7 3 0 -0.32307815
Link 5 7 5 0 0.15816008
Link 6 7 6 0 -0.32746854
Link 1 8 7 0 -0.34800031
Link 3 8 9 0 0.33335530
Link 4 8 10 0 0.11834936
Link 5 8 11 0 0.41889184
Link 6 8 12 0 0.55592637
Link 4 10 17 0 0.68649240
Link 10 7 18 0 0.36701496
Link 14 8 35 0 -0.38710760
Link 2 16 43 0 1.01247873
Link 16 14 44 0 0.93957383
Link 17 7 47 0 -0.05464034
Link 1 18 50 0 0.85902422
Link 18 17 51 0 0.88595573
GenomeEnd

GenomeStart 1884
Genome Fitness: 157.000000 
Neuron 1 1 0.00000000 1 0.00000000 0.00000000 0.00000000 0.00000000
Neuron 2 1 0.00000000 1 0.00000000 0.00000000 0.00000000 0.00000000
Neuron 3 1 0.00000000 1 0.00000000 0.00000000 0.00000000 0.00000000
Neuron 4 1 0.00000000 1 0.00000000 0.00000000 0.00000000 0.00000000
Neuron 5 1 0.00000000 1 0.00000000 0.00000000 0.00000000 0.00000000
Neuron 6 2 0.00000000 1 0.00000000 0.00000000 0.00000000 0.00000000
Neuron 7 4 1.00000000 1 3.02500000 0.00000000 0.00000000 0.00000000
Neuron 8 4 1.00000000 1 3.02500000 0.00000000 0.00000000 0.00000000
Neuron 10 3 0.50000000 4 4.46394765 0.00000000 0.00000000 0.00000000
Neuron 14 3 0.50000000 6 3.56554023 0.00000000 0.00000000 0.00000000
Neuron 16 3 0.25000000 1 3.85227799 0.00000000 0.00000000 0.00000000
Neuron 17 3 0.50000000 1 5.01034854 0.00000000 0.00000000 0.00000000
Neuron 18 3 0.25000000 1 5.92086029 0.00000000 0.00000000 0.00000000
Link 2 7 2 0 0.03112220
Link 3 7 3 0 -0.04383915
Link 5 7 5 0 0.08725046
Link 6 7 6 0 -0.32785382
Link 1 8 7 0 -0.63485030
Link 3 8 9 0 0.41411790
Link 4 8 10 0 0.32092254
Link 5 8 11 0 0.20322975
Link 6 8 12 0 -0.04210734
Link 4 10 17 0 0.86645788
Link 10 7 18 0 -0.37493040
Link 14 8 35 0 -0.27439964
Link 2 16 43 0 1.09734226
Link 16 14 44 0 0.16816736
Link 17 7 47 0 0.01127237
Link 1 18 50 0 1.10583091
Link 18 17 51 0 -0.54812213
GenomeEnd

GenomeStart 1885
Genome Fitness: 111.000000 
Neuron 1 1 0.00000000 1 0.00000000 0.00000000 0.00000000 0.00000000
Neuron 2 1 0.00000000 1 0.00000000 0.00000000 0.00000000 0.00000000
Neuron 3 1 0.00000000 1 0.00000000 0.00000000 0.00000000 0.00000000
Neuron 4 1 0.00000000 1 0.00000000 0.00000000 0.00000000 0.00000000
Neuron 5 1 0.00000000 1 0.00000000 0.00000000 0.00000000 0.00000000
Neuron 6 2 0.00000000 1 0.00000000 0.00000000 0.00000000 0.00000000
Neuron 7 4 1.00000000 1 3.02500000 0.00000000 0.00000000 0.00000000
Neuron 8 4 1.00000000 1 3.02500000 0.00000000 0.00000000 0.00000000
Neuron 10 3 0.50000000 4 4.46394765 0.00000000 0.00000000 0.00000000
Neuron 14 3 0.50000000 6 3.56554023 0.00000000 0.00000000 0.00000000
Neuron 16 3 0.25000000 1 3.85227799 0.00000000 0.00000000 0.00000000
Neuron 17 3 0.50000000 1 5.01034854 0.00000000 0.00000000 0.00000000
Neuron 18 3 0.25000000 1 5.92086029 0.00000000 0.00000000 0.00000000
Link 2 7 2 0 0.03112220
Link 3 7 3 0 -0.71243333
Link 5 7 5 0 0.15757755
Link 6 7 6 0 0.21840325
Link 1 8 7 0 -0.58108594
Link 3 8 9 0 0.41411790
Link 4 8 10 0 0.52102657
Link 5 8 11 0 0.21250709
Link 6 8 12 0 0.60848885
Link 4 10 17 0 0.86645788
Link 10 7 18 0 -0.17424372
Link 14 8 35 0 -0.43364375
Link 2 16 43 0 0.97895299
Link 16 14 44 0 0.89327512
Link 17 7 47 0 0.14628810
Link 1 18 50 0 1.10583091
Link 18 17 51 0 0.80025082
GenomeEnd

GenomeStart 1886
Genome Fitness: 158.000000 
Neuron 1 1 0.00000000 1 0.00000000 0.00000000 0.00000000 0.00000000
Neuron 2 1 0.00000000 1 0.00000000 0.00000000 0.00000000 0.00000000
Neuron 3 1 0.00000000 1 0.00000000 0.00000000 0.00000000 0.00000000
Neuron 4 1 0.00000000 1 0.00000000 0.00000000 0.00000000 0.00000000
Neuron 5 1 0.00000000 1 0.00000000 0.00000000 0.00000000 0.00000000
Neuron 6 2 0.00000000 1 0.00000000 0.00000000 0.00000000 0.00000000
Neuron 7 4 1.00000000 1 3.02500000 0.00000000 0.00000000 0.00000000
Neuron 8 4 1.00000000 1 3.02500000 0.00000000 0.00000000 0.00000000
Neuron 10 3 0.50000000 4 4.46394765 0.00000000 0.00000000 0.00000000
Neuron 14 3 0.50000000 6 3.56554023 0.00000000 0.00000000 0.00000000
Neuron 16 3 0.25000000 1 3.85227799 0.00000000 0.00000000 0.00000000
Neuron 17 3 0.50000000 1 5.01034854 0.00000000 0.00000000 0.00000000
Neuron 18 3 0.25000000 1 5.92086029 0.00000000 0.00000000 0.00000000
Link 2 7 2 0 0.10765392
Link 3 7 3 0 -0.09745759
Link 5 7 5 0 0.13232626
Link 6 7 6 0 -0.28580376
Link 1 8 7 0 -0.66456228
Link 3 8 9 0 0.40626472
Link 4 8 10 0 0.49809297
Link 5 8 11 0 0.27029024
Link 6 8 12 0 0.58881575
Link 4 10 17 0 0.79231499
Link 10 7 18 0 -0.39518436
Link 14 8 35 0 -0.27346064
Link 2 16 43 0 0.89194980
Link 16 14 44 0 0.93141831
Link 17 7 47 0 0.12383335
Link 1 18 50 0 1.06804649
Link 18 17 51 0 0.85857287
GenomeEnd

GenomeStart 1887
Genome Fitness: 156.000000 
Neuron 1 1 0.00000000 1 0.00000000 0.00000000 0.00000000 0.00000000
Neuron 2 1 0.00000000 1 0.00000000 0.00000000 0.00000000 0.00000000
Neuron 3 1 0.00000000 1 0.00000000 0.00000000 0.00000000 0.00000000
Neuron 4 1 0.00000000 1 0.00000000 0.00000000 0.00000000 0.00000000
Neuron 5 1 0.00000000 1 0.00000000 0.00000000 0.00000000 0.00000000
Neuron 6 2 0.00000000 1 0.00000000 0.00000000 0.00000000 0.00000000
Neuron 7 4 1.00000000 1 3.02500000 0.00000000 0.00000000 0.00000000
Neuron 8 4 1.00000000 1 3.02500000 0.00000000 0.00000000 0.00000000
Neuron 10 3 0.50000000 4 4.46394765 0.00000000 0.00000000 0.00000000
Neuron 14 3 0.50000000 6 3.56554023 0.00000000 0.00000000 0.00000000
Neuron 16 3 0.25000000 1 3.85227799 0.00000000 0.00000000 0.00000000
Link 1 7 1 0 -0.19479572
Link 2 7 2 0 0.26934442
Link 3 7 3 0 -0.54516394
Link 5 7 5 0 0.15840544
Link 6 7 6 0 0.27863119
Link 1 8 7 0 -0.73646561
Link 3 8 9 0 0.50146592
Link 4 8 10 0 0.12361868
Link 5 8 11 0 0.55944821
Link 6 8 12 0 0.21163404
Link 4 10 17 0 0.91959700
Link 10 7 18 0 -0.29512071
Link 14 8 35 0 -0.15058501
Link 2 16 43 0 1.03425967
Link 16 14 44 0 1.10242627
GenomeEnd

GenomeStart 1888
Genome Fitness: 151.000000 
Neuron 1 1 0.00000000 1 0.00000000 0.00000000 0.00000000 0.00000000
Neuron 2 1 0.00000000 1 0.00000000 0.00000000 0.00000000 0.00000000
Neuron 3 1 0.00000000 1 0.00000000 0.00000000 0.00000000 0.00000000
Neuron 4 1 0.00000000 1 0.00000000 0.00000000 0.00000000 0.00000000
Neuron 5 1 0.00000000 1 0.00000000 0.00000000 0.00000000 0.00000000
Neuron 6 2 0.00000000 1 0.00000000 0.00000000 0.00000000 0.00000000
Neuron 7 4 1.00000000 1 3.02500000 0.00000000 0.00000000 0.00000000
Neuron 8 4 1.00000000 1 3.02500000 0.00000000 0.00000000 0.00000000
Neuron 10 3 0.50000000 4 4.46394765 0.00000000 0.00000000 0.00000000
Neuron 14 3 0.50000000 6 3.56554023 0.00000000 0.00000000 0.00000000
Neuron 16 3 0.25000000 1 3.85227799 0.00000000 0.00000000 0.00000000
Link 1 7 1 0 -0.20517496
Link 2 7 2 0 0.22530901
Link 3 7 3 0 -0.70082048
Link 5 7 5 0 0.18980116
Link 6 7 6 0 0.10105134
Link 1 8 7 0 -0.74248134
Link 3 8 9 0 0.48109757
Link 4 8 10 0 0.11633440
Link 5 8 11 0 0.48761821
Link 6 8 12 0 0.17453302
Link 4 10 17 0 0.92868980
Link 10 7 18 0 -0.24960644
Link 14 8 35 0 -0.15810897
Link 2 16 43 0 0.96648436
Link 16 14 44 0 1.06929772
GenomeEnd

GenomeStart 1889
Genome Fitness: 101.000000 
Neuron 1 1 0.00000000 1 0.00000000 0.00000000 0.00000000 0.00000000
Neuron 2 1 0.00000000 1 0.00000000 0.00000000 0.00000000 0.00000000
Neuron 3 1 0.00000000 1 0.00000000 0.00000000 0.00000000 0.00000000
Neuron 4 1 0.00000000 1 0.00000000 0.00000000 0.00000000 0.00000000
Neuron 5 1 0.00000000 1 0.00000000 0.00000000 0.00000000 0.00000000
Neuron 6 2 0.00000000 1 0.00000000 0.00000000 0.00000000 0.00000000
Neuron 7 4 1.00000000 1 3.02500000 0.00000000 0.00000000 0.00000000
Neuron 8 4 1.00000000 1 3.02500000 0.00000000 0.00000000 0.00000000
Neuron 10 3 0.50000000 4 4.46394765 0.00000000 0.00000000 0.00000000
Neuron 14 3 0.50000000 6 3.56554023 0.00000000 0.00000000 0.00000000
Neuron 16 3 0.25000000 1 3.85227799 0.00000000 0.00000000 0.00000000
Link 1 7 1 0 -0.20517496
