GenomeStart 29868
Genome Fitness: 401.000000 
Neuron 1 1 0.00000000 1 0.00000000 0.00000000 0.00000000 0.00000000
Neuron 2 1 0.00000000 1 0.00000000 0.00000000 0.00000000 0.00000000
Neuron 3 1 0.00000000 1 0.00000000 0.00000000 0.00000000 0.00000000
Neuron 4 1 0.00000000 1 0.00000000 0.00000000 0.00000000 0.00000000
Neuron 5 1 0.00000000 1 0.00000000 0.00000000 0.00000000 0.00000000
Neuron 6 2 0.00000000 1 0.00000000 0.00000000 0.00000000 0.00000000
Neuron 7 4 1.00000000 2 3.02500000 0.00000000 0.00000000 0.00000000
Neuron 8 4 1.00000000 2 3.02500000 0.00000000 0.00000000 0.00000000
Neuron 10 3 0.50000000 8 2.72517328 0.00000000 0.00000000 0.00000000
Neuron 14 3 0.50000000 10 0.58118957 0.00000000 0.00000000 0.00000000
Neuron 15 3 0.50000000 6 2.22387950 0.00000000 0.00000000 0.00000000
Neuron 22 3 0.25000000 5 3.64595544 0.00000000 0.00000000 0.00000000
Neuron 23 3 0.75000000 8 0.38227904 0.00000000 0.00000000 0.00000000
Neuron 27 3 0.25000000 3 3.37095439 0.00000000 0.00000000 0.00000000
Link 1 7 1 0 -0.64180978
Link 2 7 2 0 0.76390543
Link 4 7 4 0 0.22483962
Link 6 7 6 0 0.08232538
Link 1 8 7 0 0.96044009
Link 2 8 8 0 -0.20387675
Link 3 8 9 0 0.06566694
Link 4 8 10 0 -0.11425655
Link 5 8 11 0 -0.83613214
Link 6 8 12 0 -0.28337993
Link 14 7 33 0 -0.27897194
Link 5 15 43 0 1.01399454
Link 15 7 44 0 -0.38438787
Link 1 22 78 0 0.51251276
Link 22 14 79 0 -0.07069781
Link 10 23 82 0 1.24299285
Link 23 7 83 0 0.04505873
Link 3 27 101 0 0.95317677
Link 27 10 102 0 1.21354457
Link 22 10 378 0 -0.26518907
GenomeEnd

