GenomeStart 150026
Genome Fitness: 409.000000 
Neuron 1 1 0.00000000 1 0.00000000 0.00000000 0.00000000 0.00000000
Neuron 2 1 0.00000000 1 0.00000000 0.00000000 0.00000000 0.00000000
Neuron 3 1 0.00000000 1 0.00000000 0.00000000 0.00000000 0.00000000
Neuron 4 1 0.00000000 1 0.00000000 0.00000000 0.00000000 0.00000000
Neuron 5 1 0.00000000 1 0.00000000 0.00000000 0.00000000 0.00000000
Neuron 6 2 0.00000000 1 0.00000000 0.00000000 0.00000000 0.00000000
Neuron 7 4 1.00000000 4 3.02500000 0.00000000 0.00000000 0.00000000
Neuron 8 4 1.00000000 2 3.02500000 0.00000000 0.00000000 0.00000000
Neuron 10 3 0.50000000 4 2.72517328 0.00000000 0.00000000 0.00000000
Neuron 11 3 0.50000000 7 5.90580682 0.00000000 0.00000000 0.00000000
Neuron 14 3 0.50000000 1 0.58118957 0.00000000 0.00000000 0.00000000
Neuron 15 3 0.50000000 4 2.22387950 0.00000000 0.00000000 0.00000000
Neuron 17 3 0.25000000 11 1.17760746 0.00000000 0.00000000 0.00000000
Neuron 21 3 0.50000000 8 4.60603678 0.00000000 0.00000000 0.00000000
Neuron 22 3 0.25000000 5 3.64595544 0.00000000 0.00000000 0.00000000
Neuron 23 3 0.75000000 8 0.38227904 0.00000000 0.00000000 0.00000000
Neuron 25 3 0.25000000 9 2.50127880 0.00000000 0.00000000 0.00000000
Neuron 27 3 0.25000000 3 3.37095439 0.00000000 0.00000000 0.00000000
Neuron 46 3 0.12500000 11 4.31991655 0.00000000 0.00000000 0.00000000
Neuron 64 3 0.12500000 3 5.16534736 0.00000000 0.00000000 0.00000000
Neuron 118 3 0.06250000 4 1.29630354 0.00000000 0.00000000 0.00000000
Link 1 7 1 0 -0.58322329
Link 2 7 2 0 0.84290516
Link 4 7 4 0 0.20397822
Link 1 8 7 0 1.05966586
Link 2 8 8 0 -0.02393717
Link 4 8 10 0 -0.19849124
Link 6 8 12 0 -0.43898613
Link 11 8 21 0 -0.07537179
Link 14 7 33 0 -0.26262808
Link 5 17 56 0 1.00000000
Link 17 15 57 0 1.02138143
Link 5 21 73 0 1.29633594
Link 21 8 74 0 -1.03301193
Link 22 14 79 0 -0.22793670
Link 10 23 82 0 1.28030691
Link 23 7 83 0 -0.08418664
Link 3 25 88 0 1.00000000
Link 25 11 89 0 1.01320522
Link 27 10 102 0 1.16277845
Link 6 14 150 0 0.85477665
Link 3 46 235 0 0.98703912
Link 46 27 236 0 0.82848676
Link 27 23 308 0 -0.30448994
Link 64 22 356 0 0.39143452
Link 22 10 378 0 0.36263843
Link 5 27 426 0 -0.41860238
Link 1 118 744 0 1.00000000
Link 118 64 745 0 0.97825198
Link 15 11 1468 0 0.00345060
Link 2 118 1623 0 0.32090805
GenomeEnd

