GenomeStart 1442
Neuron 1 1 0.00000000 1 0.00000000 0.00000000 0.00000000 0.00000000
Neuron 2 1 0.00000000 1 0.00000000 0.00000000 0.00000000 0.00000000
Neuron 3 1 0.00000000 1 0.00000000 0.00000000 0.00000000 0.00000000
Neuron 4 1 0.00000000 1 0.00000000 0.00000000 0.00000000 0.00000000
Neuron 5 1 0.00000000 1 0.00000000 0.00000000 0.00000000 0.00000000
Neuron 6 2 0.00000000 1 0.00000000 0.00000000 0.00000000 0.00000000
Neuron 7 4 1.00000000 1 3.02500000 0.00000000 0.00000000 0.00000000
Neuron 8 4 1.00000000 1 3.02500000 0.00000000 0.00000000 0.00000000
Neuron 9 3 0.50000000 8 5.70742653 0.00000000 0.00000000 0.00000000
Neuron 11 3 0.50000000 6 3.85795973 0.00000000 0.00000000 0.00000000
Link 1 7 1 0 1.33984080
Link 3 7 3 0 0.46946310
Link 4 7 4 0 0.53191091
Link 5 7 5 0 -0.42850314
Link 6 7 6 0 0.92579527
Link 1 8 7 0 -0.51990698
Link 3 8 9 0 4.97767114
Link 4 8 10 0 -0.97673562
Link 5 8 11 0 0.74893613
Link 6 8 12 0 1.94388742
Link 2 9 14 0 1.80121465
Link 9 7 15 0 0.09950323
Link 9 8 19 0 -4.47592431
Link 2 11 21 0 1.00000000
Link 11 8 22 0 1.20240745
GenomeEnd

