GenomeStart 135340
Genome Fitness: 4783.000000 
Neuron 1 1 0.00000000 1 0.00000000 0.00000000 0.00000000 0.00000000
Neuron 2 1 0.00000000 1 0.00000000 0.00000000 0.00000000 0.00000000
Neuron 3 1 0.00000000 1 0.00000000 0.00000000 0.00000000 0.00000000
Neuron 4 1 0.00000000 1 0.00000000 0.00000000 0.00000000 0.00000000
Neuron 5 1 0.00000000 1 0.00000000 0.00000000 0.00000000 0.00000000
Neuron 6 2 0.00000000 1 0.00000000 0.00000000 0.00000000 0.00000000
Neuron 7 4 1.00000000 5 3.02500000 0.00000000 0.00000000 0.00000000
Neuron 8 4 1.00000000 2 3.02500000 0.00000000 0.00000000 0.00000000
Neuron 9 3 0.50000000 10 5.89185529 0.00000000 0.00000000 0.00000000
Neuron 15 3 0.50000000 6 4.65393479 0.00000000 0.00000000 0.00000000
Neuron 16 3 0.50000000 1 1.64230847 0.00000000 0.00000000 0.00000000
Neuron 17 3 0.50000000 2 1.83205852 0.00000000 0.00000000 0.00000000
Neuron 19 3 0.75000000 10 1.08091623 0.00000000 0.00000000 0.00000000
Neuron 21 3 0.50000000 1 5.31294719 0.00000000 0.00000000 0.00000000
Neuron 36 3 0.25000000 8 1.64457768 0.00000000 0.00000000 0.00000000
Neuron 41 3 0.75000000 3 1.90172505 0.00000000 0.00000000 0.00000000
Neuron 43 3 0.75000000 4 5.17762574 0.00000000 0.00000000 0.00000000
Neuron 52 3 0.87500000 2 3.70912939 0.00000000 0.00000000 0.00000000
Neuron 57 3 0.25000000 1 4.79162531 0.00000000 0.00000000 0.00000000
Neuron 60 3 0.62500000 3 1.97877834 0.00000000 0.00000000 0.00000000
Neuron 70 3 0.87500000 7 3.46290200 0.00000000 0.00000000 0.00000000
Neuron 77 3 0.25000000 6 1.90670922 0.00000000 0.00000000 0.00000000
Neuron 78 3 0.75000000 8 5.20705191 0.00000000 0.00000000 0.00000000
Neuron 85 3 0.62500000 9 0.73344150 0.00000000 0.00000000 0.00000000
Neuron 92 3 0.81250000 11 4.21909774 0.00000000 0.00000000 0.00000000
Neuron 93 3 0.93750000 11 2.29222356 0.00000000 0.00000000 0.00000000
Neuron 98 3 0.87500000 9 2.59078948 0.00000000 0.00000000 0.00000000
Neuron 99 3 0.37500000 3 0.10095464 0.00000000 0.00000000 0.00000000
Neuron 104 3 0.56250000 4 5.64273184 0.00000000 0.00000000 0.00000000
Neuron 106 3 0.37500000 2 1.92486332 0.00000000 0.00000000 0.00000000
Neuron 108 3 0.31250000 5 5.13582289 0.00000000 0.00000000 0.00000000
Neuron 110 3 0.37500000 5 1.48889529 0.00000000 0.00000000 0.00000000
Neuron 113 3 0.62500000 6 0.46675047 0.00000000 0.00000000 0.00000000
Neuron 114 3 0.50000000 4 4.84304610 0.00000000 0.00000000 0.00000000
Neuron 115 3 0.96875000 3 3.81490415 0.00000000 0.00000000 0.00000000
Neuron 120 3 0.37500000 7 0.64500076 0.00000000 0.00000000 0.00000000
Neuron 138 3 0.50000000 5 2.93750553 0.00000000 0.00000000 0.00000000
Link 1 7 1 0 -0.13310331
Link 2 7 2 0 0.19902642
Link 5 7 5 0 -0.36613924
Link 6 7 6 0 0.18528708
Link 3 8 9 0 0.23307548
Link 2 9 14 0 0.24428634
Link 4 15 36 0 -0.13735159
Link 15 7 37 0 -0.11243231
Link 17 7 46 0 0.74648178
Link 4 21 61 0 0.98312795
Link 1 36 176 0 1.02543573
Link 6 17 210 0 0.82103687
Link 19 52 278 0 1.15836777
Link 52 8 279 0 0.42868282
Link 5 57 301 0 -0.39030576
Link 60 19 321 0 -0.45956512
Link 16 41 342 0 0.52081070
Link 3 77 418 0 1.12716717
Link 78 8 433 0 -0.40077556
Link 9 85 477 0 1.04962309
Link 85 41 478 0 0.28261413
Link 6 43 526 0 0.71229762
Link 41 92 530 0 0.93145594
Link 92 70 531 0 1.04704761
Link 70 93 534 0 1.09580045
Link 43 98 567 0 1.16928631
Link 98 8 568 0 0.11015427
Link 36 99 583 0 0.60607424
Link 99 16 584 0 0.93681137
Link 36 78 585 0 0.48690554
Link 9 104 619 0 0.95005979
Link 104 60 620 0 1.20453203
Link 106 17 635 0 0.69711063
Link 77 108 645 0 1.18434964
Link 108 106 646 0 1.41791414
Link 57 110 661 0 0.79072386
Link 110 16 662 0 -0.02692836
Link 21 113 676 0 -0.27080128
Link 113 43 677 0 0.82013599
Link 114 21 686 0 0.40169616
Link 93 115 688 0 0.93135599
Link 115 7 689 0 -0.04744383
Link 5 120 720 0 0.48356488
Link 108 17 728 0 -0.16980746
Link 9 138 911 0 0.95339199
Link 138 114 912 0 -0.58991795
Link 2 52 953 0 -0.15665371
Link 120 110 1122 0 0.77035717
GenomeEnd

