GenomeStart 47435
Genome Fitness: 175.000000 
Neuron 1 1 0.00000000 1 0.00000000 0.00000000 0.00000000 0.00000000
Neuron 2 1 0.00000000 1 0.00000000 0.00000000 0.00000000 0.00000000
Neuron 3 1 0.00000000 1 0.00000000 0.00000000 0.00000000 0.00000000
Neuron 4 1 0.00000000 1 0.00000000 0.00000000 0.00000000 0.00000000
Neuron 5 1 0.00000000 1 0.00000000 0.00000000 0.00000000 0.00000000
Neuron 6 2 0.00000000 1 0.00000000 0.00000000 0.00000000 0.00000000
Neuron 7 4 1.00000000 2 3.02500000 0.00000000 0.00000000 0.00000000
Neuron 8 4 1.00000000 2 3.02500000 0.00000000 0.00000000 0.00000000
Neuron 12 3 0.50000000 8 5.63278532 0.00000000 0.00000000 0.00000000
Neuron 16 3 0.50000000 6 1.26100734 0.00000000 0.00000000 0.00000000
Link 1 7 1 0 -0.19910521
Link 2 7 2 0 0.51102559
Link 3 7 3 0 -0.35504797
Link 4 7 4 0 0.02377233
Link 5 7 5 0 -0.23382346
Link 6 7 6 0 -1.06080868
Link 2 8 8 0 -0.46371196
Link 3 8 9 0 -0.43711579
Link 5 8 11 0 -0.08234660
Link 6 8 12 0 1.05178653
Link 1 12 23 0 0.08889306
Link 12 8 24 0 0.11314184
Link 4 16 39 0 0.83816386
Link 16 8 40 0 -0.59775425
Link 6 12 42 0 0.10924364
GenomeEnd

