GenomeStart 136713
Genome Fitness: 10001.000000 
Neuron 1 1 0.00000000 1 0.00000000 0.00000000 0.00000000 0.00000000
Neuron 2 1 0.00000000 1 0.00000000 0.00000000 0.00000000 0.00000000
Neuron 3 1 0.00000000 1 0.00000000 0.00000000 0.00000000 0.00000000
Neuron 4 1 0.00000000 1 0.00000000 0.00000000 0.00000000 0.00000000
Neuron 5 1 0.00000000 1 0.00000000 0.00000000 0.00000000 0.00000000
Neuron 6 2 0.00000000 1 0.00000000 0.00000000 0.00000000 0.00000000
Neuron 7 4 1.00000000 5 3.02500000 0.00000000 0.00000000 0.00000000
Neuron 8 4 1.00000000 2 3.02500000 0.00000000 0.00000000 0.00000000
Neuron 9 3 0.50000000 10 5.89185529 0.00000000 0.00000000 0.00000000
Neuron 15 3 0.50000000 5 4.65393479 0.00000000 0.00000000 0.00000000
Neuron 16 3 0.50000000 1 1.64230847 0.00000000 0.00000000 0.00000000
Neuron 17 3 0.50000000 2 1.83205852 0.00000000 0.00000000 0.00000000
Neuron 19 3 0.75000000 10 1.08091623 0.00000000 0.00000000 0.00000000
Neuron 21 3 0.50000000 1 5.31294719 0.00000000 0.00000000 0.00000000
Neuron 36 3 0.25000000 8 1.64457768 0.00000000 0.00000000 0.00000000
Neuron 41 3 0.75000000 3 1.90172505 0.00000000 0.00000000 0.00000000
Neuron 43 3 0.75000000 4 5.17762574 0.00000000 0.00000000 0.00000000
Neuron 52 3 0.87500000 2 3.70912939 0.00000000 0.00000000 0.00000000
Neuron 57 3 0.25000000 1 4.79162531 0.00000000 0.00000000 0.00000000
Neuron 60 3 0.62500000 3 1.97877834 0.00000000 0.00000000 0.00000000
Neuron 70 3 0.87500000 7 3.46290200 0.00000000 0.00000000 0.00000000
Neuron 77 3 0.25000000 6 1.90670922 0.00000000 0.00000000 0.00000000
Neuron 78 3 0.75000000 8 5.20705191 0.00000000 0.00000000 0.00000000
Neuron 85 3 0.62500000 9 0.73344150 0.00000000 0.00000000 0.00000000
Neuron 92 3 0.81250000 11 4.21909774 0.00000000 0.00000000 0.00000000
Neuron 93 3 0.93750000 11 2.29222356 0.00000000 0.00000000 0.00000000
Neuron 98 3 0.87500000 9 2.59078948 0.00000000 0.00000000 0.00000000
Neuron 99 3 0.37500000 3 0.10095464 0.00000000 0.00000000 0.00000000
Neuron 104 3 0.56250000 4 5.64273184 0.00000000 0.00000000 0.00000000
Neuron 106 3 0.37500000 2 1.92486332 0.00000000 0.00000000 0.00000000
Neuron 108 3 0.31250000 5 5.13582289 0.00000000 0.00000000 0.00000000
Neuron 110 3 0.37500000 5 1.48889529 0.00000000 0.00000000 0.00000000
Neuron 113 3 0.62500000 6 0.46675047 0.00000000 0.00000000 0.00000000
Neuron 114 3 0.50000000 4 4.84304610 0.00000000 0.00000000 0.00000000
Neuron 115 3 0.96875000 3 3.81490415 0.00000000 0.00000000 0.00000000
Neuron 120 3 0.37500000 7 0.64500076 0.00000000 0.00000000 0.00000000
Neuron 138 3 0.50000000 5 2.93750553 0.00000000 0.00000000 0.00000000
Link 1 7 1 0 0.01081496
Link 2 7 2 0 0.16229210
Link 5 7 5 0 -0.39948963
Link 6 7 6 0 0.15416102
Link 3 8 9 0 0.23275074
Link 2 9 14 0 0.27471564
Link 4 15 36 0 -0.06245013
Link 15 7 37 0 -0.02284755
Link 17 7 46 0 0.65819372
Link 4 21 61 0 0.88886227
Link 1 36 176 0 1.09623483
Link 6 17 210 0 0.68418540
Link 19 52 278 0 1.18770346
Link 52 8 279 0 0.38740759
Link 5 57 301 0 -0.48926474
Link 60 19 321 0 -0.41470196
Link 16 41 342 0 0.58547198
Link 3 77 418 0 1.21122978
Link 78 8 433 0 -0.37398151
Link 9 85 477 0 1.16222041
Link 85 41 478 0 0.41956132
Link 6 43 526 0 0.77291308
Link 41 92 530 0 0.95273538
Link 92 70 531 0 1.03713695
Link 70 93 534 0 1.06749482
Link 43 98 567 0 1.12981251
Link 98 8 568 0 0.07767644
Link 36 99 583 0 0.57434048
Link 99 16 584 0 1.05362387
Link 36 78 585 0 0.53908857
Link 9 104 619 0 0.92391969
Link 104 60 620 0 1.35432743
Link 106 17 635 0 0.77860812
Link 77 108 645 0 1.14639216
Link 108 106 646 0 1.50244640
Link 57 110 661 0 0.78681153
Link 110 16 662 0 -0.12816308
Link 21 113 676 0 -0.17715980
Link 113 43 677 0 0.77859746
Link 114 21 686 0 0.44099070
Link 93 115 688 0 0.89018625
Link 115 7 689 0 -0.09051179
Link 5 120 720 0 0.52930627
Link 108 17 728 0 -0.33246286
Link 9 138 911 0 0.94292415
Link 138 114 912 0 -0.55717880
Link 2 52 953 0 -0.33895296
Link 120 110 1122 0 -0.09873052
GenomeEnd

