GenomeStart 29690
Genome Fitness: 180.000000 
Neuron 1 1 0.00000000 1 0.00000000 0.00000000 0.00000000 0.00000000
Neuron 2 1 0.00000000 1 0.00000000 0.00000000 0.00000000 0.00000000
Neuron 3 1 0.00000000 1 0.00000000 0.00000000 0.00000000 0.00000000
Neuron 4 1 0.00000000 1 0.00000000 0.00000000 0.00000000 0.00000000
Neuron 5 1 0.00000000 1 0.00000000 0.00000000 0.00000000 0.00000000
Neuron 6 2 0.00000000 1 0.00000000 0.00000000 0.00000000 0.00000000
Neuron 7 4 1.00000000 2 3.02500000 0.00000000 0.00000000 0.00000000
Neuron 8 4 1.00000000 2 3.02500000 0.00000000 0.00000000 0.00000000
Neuron 9 3 0.50000000 10 0.54702852 0.00000000 0.00000000 0.00000000
Neuron 14 3 0.50000000 7 2.16641314 0.00000000 0.00000000 0.00000000
Neuron 15 3 0.50000000 5 1.51753697 0.00000000 0.00000000 0.00000000
Link 3 7 3 0 -0.43530781
Link 4 7 4 0 0.78871678
Link 5 7 5 0 0.21018417
Link 6 7 6 0 0.56019505
Link 1 8 7 0 -0.45104726
Link 2 8 8 0 -0.24407085
Link 3 8 9 0 0.05723987
Link 5 8 11 0 0.45502222
Link 6 8 12 0 0.06940060
Link 1 9 14 0 1.11628096
Link 9 7 15 0 -0.43659906
Link 4 14 29 0 1.05071597
Link 14 8 30 0 0.31960741
Link 2 15 34 0 0.98290241
Link 15 7 35 0 0.53382525
GenomeEnd

