NEAT_ParametersStart
PopulationSize 300
DynamicCompatibility true
MinSpecies 25
MaxSpecies 50
InnovationsForever true
AllowClones true
YoungAgeTreshold 15
YoungAgeFitnessBoost 1.10000000000000008882
SpeciesDropoffAge 50
StagnationDelta 0.00000000000000000000
OldAgeTreshold 35
OldAgePenalty 1.00000000000000000000
DetectCompetetiveCoevolutionStagnation false
KillWorstSpeciesEach 15
KillWorstAge 10
SurvivalRate 0.20000000000000001110
CrossoverRate 0.69999999999999995559
OverallMutationRate 0.14999999999999999445
InterspeciesCrossoverRate 0.00010000000000000000
MultipointCrossoverRate 0.75000000000000000000
RouletteWheelSelection true
PhasedSearching false
DeltaCoding false
SimplifyingPhaseMPCTreshold 20
SimplifyingPhaseStagnationTreshold 30
ComplexityFloorGenerations 40
NoveltySearch_K 15
NoveltySearch_P_min 0.50000000000000000000
NoveltySearch_Dynamic_Pmin true
NoveltySearch_No_Archiving_Stagnation_Treshold 150
NoveltySearch_Pmin_lowering_multiplier 0.90000000000000002220
NoveltySearch_Pmin_min 0.05000000000000000278
NoveltySearch_Quick_Archiving_Min_Evaluations 8
NoveltySearch_Pmin_raising_multiplier 1.10000000000000008882
NoveltySearch_Recompute_Sparseness_Each 25
MutateAddNeuronProb 0.02999999999999999889
SplitRecurrent true
SplitLoopedRecurrent true
NeuronTries 32706
MutateAddLinkProb 0.08000000000000000167
MutateAddLinkFromBiasProb 0.00000000000000000000
MutateRemLinkProb 0.01000000000000000021
MutateRemSimpleNeuronProb 0.00000000000000000000
LinkTries 32
RecurrentProb 0.00000000000000000000
RecurrentLoopProb 0.25000000000000000000
MutateWeightsProb 0.90000000000000002220
MutateWeightsSevereProb 0.25000000000000000000
WeightMutationRate 1.00000000000000000000
WeightMutationMaxPower 0.20000000000000001110
WeightReplacementMaxPower 1.00000000000000000000
MaxWeight 8.00000000000000000000
MutateActivationAProb 0.00000000000000000000
MutateActivationBProb 0.00000000000000000000
ActivationAMutationMaxPower 0.50000000000000000000
ActivationBMutationMaxPower 0.00000000000000000000
TimeConstantMutationMaxPower 0.00000000000000000000
BiasMutationMaxPower 1.00000000000000000000
MinActivationA 0.05000000000000000278
MaxActivationA 6.00000000000000000000
MinActivationB 0.00000000000000000000
MaxActivationB 0.00000000000000000000
MutateNeuronActivationTypeProb 0.02000000000000000042
ActivationFunction_SignedSigmoid_Prob 0.00000000000000000000
ActivationFunction_UnsignedSigmoid_Prob 1.00000000000000000000
ActivationFunction_Tanh_Prob 1.00000000000000000000
ActivationFunction_TanhCubic_Prob 1.00000000000000000000
ActivationFunction_SignedStep_Prob 1.00000000000000000000
ActivationFunction_UnsignedStep_Prob 1.00000000000000000000
ActivationFunction_SignedGauss_Prob 1.00000000000000000000
ActivationFunction_UnsignedGauss_Prob 1.00000000000000000000
ActivationFunction_Abs_Prob 1.00000000000000000000
ActivationFunction_SignedSine_Prob 1.00000000000000000000
ActivationFunction_UnsignedSine_Prob 1.00000000000000000000
ActivationFunction_Linear_Prob 1.00000000000000000000
ActivationFunction_Relu_Prob 0.00000000000000000000
ActivationFunction_Softplus_Prob 0.00000000000000000000
MutateNeuronTimeConstantsProb 0.00000000000000000000
MutateNeuronBiasesProb 0.00000000000000000000
MinNeuronTimeConstant 0.00000000000000000000
MaxNeuronTimeConstant 0.00000000000000000000
MinNeuronBias 0.00000000000000000000
MaxNeuronBias 0.00000000000000000000
DisjointCoeff 1.00000000000000000000
ExcessCoeff 1.00000000000000000000
ActivationADiffCoeff 0.00000000000000000000
ActivationBDiffCoeff 0.00000000000000000000
WeightDiffCoeff 0.50000000000000000000
TimeConstantDiffCoeff 0.00000000000000000000
BiasDiffCoeff 0.00000000000000000000
ActivationFunctionDiffCoeff 0.00000000000000000000
CompatTreshold 4.39999999999999857891
MinCompatTreshold 0.20000000000000001110
CompatTresholdModifier 0.29999999999999998890
CompatTreshChangeInterval_Generations 1
CompatTreshChangeInterval_Evaluations 10
DivisionThreshold 0.02999999999999999889
VarianceThreshold 0.02999999999999999889
BandThreshold 0.29999999999999998890
InitialDepth 3
MaxDepth 3
IterationLevel 1
TournamentSize 2
CPPN_Bias -1.00000000000000000000
Width 2.00000000000000000000
Height 2.00000000000000000000
Qtree_X 0.00000000000000000000
Qtree_Y 0.00000000000000000000
Leo false
LeoThreshold 0.10000000000000000555
LeoSeed false
GeometrySeed false
Elitism 0.10000000000000000555
NEAT_ParametersEnd
InnovationDatabaseStart
NextInnovNum: 342
NextNeuronID: 63
Innovation 1 1 1 7 0 -1
Innovation 2 1 2 7 0 -1
Innovation 3 1 3 7 0 -1
Innovation 4 1 4 7 0 -1
Innovation 5 1 5 7 0 -1
Innovation 6 1 6 7 0 -1
Innovation 7 1 1 8 0 -1
Innovation 8 1 2 8 0 -1
Innovation 9 1 3 8 0 -1
Innovation 10 1 4 8 0 -1
Innovation 11 1 5 8 0 -1
Innovation 12 1 6 8 0 -1
Innovation 13 0 1 7 3 9
Innovation 14 1 1 9 0 -1
Innovation 15 1 9 7 0 -1
Innovation 16 0 1 8 3 10
Innovation 17 1 1 10 0 -1
Innovation 18 1 10 8 0 -1
Innovation 19 0 5 7 3 11
Innovation 20 1 5 11 0 -1
Innovation 21 1 11 7 0 -1
Innovation 22 0 3 7 3 12
Innovation 23 1 3 12 0 -1
Innovation 24 1 12 7 0 -1
Innovation 25 1 5 9 0 -1
Innovation 26 1 4 9 0 -1
Innovation 27 1 3 10 0 -1
Innovation 28 0 3 8 3 13
Innovation 29 1 3 13 0 -1
Innovation 30 1 13 8 0 -1
Innovation 31 1 2 10 0 -1
Innovation 32 0 4 8 3 14
Innovation 33 1 4 14 0 -1
Innovation 34 1 14 8 0 -1
Innovation 35 1 4 10 0 -1
Innovation 36 0 10 8 3 15
Innovation 37 1 10 15 0 -1
Innovation 38 1 15 8 0 -1
Innovation 39 0 2 7 3 16
Innovation 40 1 2 16 0 -1
Innovation 41 1 16 7 0 -1
Innovation 42 1 1 11 0 -1
Innovation 43 1 11 8 0 -1
Innovation 44 0 5 8 3 17
Innovation 45 1 5 17 0 -1
Innovation 46 1 17 8 0 -1
Innovation 47 0 4 7 3 18
Innovation 48 1 4 18 0 -1
Innovation 49 1 18 7 0 -1
Innovation 50 0 12 7 3 19
Innovation 51 1 12 19 0 -1
Innovation 52 1 19 7 0 -1
Innovation 53 1 1 12 0 -1
Innovation 54 1 2 12 0 -1
Innovation 55 1 4 12 0 -1
Innovation 56 0 3 12 3 20
Innovation 57 1 3 20 0 -1
Innovation 58 1 20 12 0 -1
Innovation 59 1 12 8 0 -1
Innovation 60 1 3 19 0 -1
Innovation 61 1 4 11 0 -1
Innovation 62 0 2 8 3 21
Innovation 63 1 2 21 0 -1
Innovation 64 1 21 8 0 -1
Innovation 65 1 17 11 0 -1
Innovation 66 1 11 17 0 -1
Innovation 67 1 6 16 0 -1
Innovation 68 1 6 12 0 -1
Innovation 69 0 10 15 3 22
Innovation 70 1 10 22 0 -1
Innovation 71 1 22 15 0 -1
Innovation 72 1 2 14 0 -1
Innovation 73 1 2 9 0 -1
Innovation 74 1 6 11 0 -1
Innovation 75 1 12 9 0 -1
Innovation 76 1 3 11 0 -1
Innovation 77 1 3 17 0 -1
Innovation 78 1 5 18 0 -1
Innovation 79 1 2 11 0 -1
Innovation 80 1 11 18 0 -1
Innovation 81 1 2 15 0 -1
Innovation 82 1 6 15 0 -1
Innovation 83 0 5 11 3 23
Innovation 84 1 5 23 0 -1
Innovation 85 1 23 11 0 -1
Innovation 86 0 4 10 3 24
Innovation 87 1 4 24 0 -1
Innovation 88 1 24 10 0 -1
Innovation 89 1 10 7 0 -1
Innovation 90 0 11 7 3 25
Innovation 91 1 11 25 0 -1
Innovation 92 1 25 7 0 -1
Innovation 93 1 17 12 0 -1
Innovation 94 0 15 8 3 26
Innovation 95 1 15 26 0 -1
Innovation 96 1 26 8 0 -1
Innovation 97 1 6 13 0 -1
Innovation 98 0 10 7 3 27
Innovation 99 1 10 27 0 -1
Innovation 100 1 27 7 0 -1
Innovation 101 1 6 10 0 -1
Innovation 102 1 5 12 0 -1
Innovation 103 0 1 10 3 28
Innovation 104 1 1 28 0 -1
Innovation 105 1 28 10 0 -1
Innovation 106 1 6 14 0 -1
Innovation 107 1 15 7 0 -1
Innovation 108 1 19 8 0 -1
Innovation 109 1 12 14 0 -1
Innovation 110 1 5 10 0 -1
Innovation 111 0 28 10 3 29
Innovation 112 1 28 29 0 -1
Innovation 113 1 29 10 0 -1
Innovation 114 0 13 8 3 30
Innovation 115 1 13 30 0 -1
Innovation 116 1 30 8 0 -1
Innovation 117 0 19 7 3 31
Innovation 118 1 19 31 0 -1
Innovation 119 1 31 7 0 -1
Innovation 120 0 5 23 3 32
Innovation 121 1 5 32 0 -1
Innovation 122 1 32 23 0 -1
Innovation 123 1 4 17 0 -1
Innovation 124 1 16 11 0 -1
Innovation 125 0 23 11 3 33
Innovation 126 1 23 33 0 -1
Innovation 127 1 33 11 0 -1
Innovation 128 1 6 23 0 -1
Innovation 129 1 13 12 0 -1
Innovation 130 1 1 31 0 -1
Innovation 131 0 15 26 3 34
Innovation 132 1 15 34 0 -1
Innovation 133 1 34 26 0 -1
Innovation 134 1 1 21 0 -1
Innovation 135 1 18 8 0 -1
Innovation 136 0 4 18 3 35
Innovation 137 1 4 35 0 -1
Innovation 138 1 35 18 0 -1
Innovation 139 1 2 19 0 -1
Innovation 140 1 6 17 0 -1
Innovation 141 0 9 7 3 36
Innovation 142 1 9 36 0 -1
Innovation 143 1 36 7 0 -1
Innovation 144 1 5 25 0 -1
Innovation 145 1 17 7 0 -1
Innovation 146 1 5 20 0 -1
Innovation 147 1 5 19 0 -1
Innovation 148 0 2 21 3 37
Innovation 149 1 2 37 0 -1
Innovation 150 1 37 21 0 -1
Innovation 151 1 2 30 0 -1
Innovation 152 1 3 31 0 -1
Innovation 153 1 4 21 0 -1
Innovation 154 1 2 28 0 -1
Innovation 155 0 12 19 3 38
Innovation 156 1 12 38 0 -1
Innovation 157 1 38 19 0 -1
Innovation 158 1 4 16 0 -1
Innovation 159 1 11 21 0 -1
Innovation 160 1 4 37 0 -1
Innovation 161 0 17 8 3 39
Innovation 162 1 17 39 0 -1
Innovation 163 1 39 8 0 -1
Innovation 164 1 16 8 0 -1
Innovation 165 1 2 18 0 -1
Innovation 166 1 11 13 0 -1
Innovation 167 1 12 13 0 -1
Innovation 168 1 23 7 0 -1
Innovation 169 1 4 19 0 -1
Innovation 170 1 16 10 0 -1
Innovation 171 1 1 19 0 -1
Innovation 172 1 20 7 0 -1
Innovation 173 1 23 12 0 -1
Innovation 174 1 5 21 0 -1
Innovation 175 1 1 17 0 -1
Innovation 176 1 11 12 0 -1
Innovation 177 1 14 10 0 -1
Innovation 178 1 9 8 0 -1
Innovation 179 1 2 13 0 -1
Innovation 180 0 18 7 3 40
Innovation 181 1 18 40 0 -1
Innovation 182 1 40 7 0 -1
Innovation 183 1 21 10 0 -1
Innovation 184 1 2 23 0 -1
Innovation 185 1 3 25 0 -1
Innovation 186 0 14 8 3 41
Innovation 187 1 14 41 0 -1
Innovation 188 1 41 8 0 -1
Innovation 189 1 10 17 0 -1
Innovation 190 1 13 7 0 -1
Innovation 191 0 5 12 3 42
Innovation 192 1 5 42 0 -1
Innovation 193 1 42 12 0 -1
Innovation 194 1 1 14 0 -1
Innovation 195 1 2 17 0 -1
Innovation 196 0 2 12 3 43
Innovation 197 1 2 43 0 -1
Innovation 198 1 43 12 0 -1
Innovation 199 1 9 11 0 -1
Innovation 200 1 3 34 0 -1
Innovation 201 1 6 20 0 -1
Innovation 202 1 4 13 0 -1
Innovation 203 1 2 20 0 -1
Innovation 204 1 4 26 0 -1
Innovation 205 1 32 7 0 -1
Innovation 206 0 5 17 3 44
Innovation 207 1 5 44 0 -1
Innovation 208 1 44 17 0 -1
Innovation 209 1 6 21 0 -1
Innovation 210 0 22 15 3 45
Innovation 211 1 22 45 0 -1
Innovation 212 1 45 15 0 -1
Innovation 213 0 2 18 3 46
Innovation 214 1 2 46 0 -1
Innovation 215 1 46 18 0 -1
Innovation 216 1 10 9 0 -1
Innovation 217 1 3 14 0 -1
Innovation 218 1 21 11 0 -1
Innovation 219 1 3 36 0 -1
Innovation 220 1 14 9 0 -1
Innovation 221 0 3 20 3 47
Innovation 222 1 3 47 0 -1
Innovation 223 1 47 20 0 -1
Innovation 224 1 6 9 0 -1
Innovation 225 0 4 12 3 48
Innovation 226 1 4 48 0 -1
Innovation 227 1 48 12 0 -1
Innovation 228 1 13 9 0 -1
Innovation 229 1 1 23 0 -1
Innovation 230 1 9 14 0 -1
Innovation 231 1 1 18 0 -1
Innovation 232 1 12 17 0 -1
Innovation 233 1 22 26 0 -1
Innovation 234 1 11 19 0 -1
Innovation 235 1 6 36 0 -1
Innovation 236 1 1 20 0 -1
Innovation 237 1 6 22 0 -1
Innovation 238 1 10 14 0 -1
Innovation 239 1 12 31 0 -1
Innovation 240 0 21 8 3 49
Innovation 241 1 21 49 0 -1
Innovation 242 1 49 8 0 -1
Innovation 243 1 3 21 0 -1
Innovation 244 1 23 19 0 -1
Innovation 245 1 6 18 0 -1
Innovation 246 1 2 35 0 -1
Innovation 247 1 14 19 0 -1
Innovation 248 1 6 19 0 -1
Innovation 249 0 3 13 3 50
Innovation 250 1 3 50 0 -1
Innovation 251 1 50 13 0 -1
Innovation 252 1 6 35 0 -1
Innovation 253 1 21 12 0 -1
Innovation 254 1 5 37 0 -1
Innovation 255 1 33 7 0 -1
Innovation 256 1 4 28 0 -1
Innovation 257 1 1 26 0 -1
Innovation 258 1 3 22 0 -1
Innovation 259 0 2 15 3 51
Innovation 260 1 2 51 0 -1
Innovation 261 1 51 15 0 -1
Innovation 262 1 18 11 0 -1
Innovation 263 1 4 20 0 -1
Innovation 264 1 1 13 0 -1
Innovation 265 1 21 7 0 -1
Innovation 266 1 3 18 0 -1
Innovation 267 1 5 22 0 -1
Innovation 268 1 2 32 0 -1
Innovation 269 1 23 21 0 -1
Innovation 270 1 12 16 0 -1
Innovation 271 1 34 7 0 -1
Innovation 272 1 28 8 0 -1
Innovation 273 1 3 9 0 -1
Innovation 274 1 4 23 0 -1
Innovation 275 0 2 11 3 52
Innovation 276 1 2 52 0 -1
Innovation 277 1 52 11 0 -1
Innovation 278 1 16 12 0 -1
Innovation 279 1 13 17 0 -1
Innovation 280 0 1 9 3 53
Innovation 281 1 1 53 0 -1
Innovation 282 1 53 9 0 -1
Innovation 283 1 4 32 0 -1
Innovation 284 1 12 39 0 -1
Innovation 285 1 6 31 0 -1
Innovation 286 0 12 8 3 54
Innovation 287 1 12 54 0 -1
Innovation 288 1 54 8 0 -1
Innovation 289 1 28 7 0 -1
Innovation 290 1 5 14 0 -1
Innovation 291 1 11 10 0 -1
Innovation 292 0 10 22 3 55
Innovation 293 1 10 55 0 -1
Innovation 294 1 55 22 0 -1
Innovation 295 1 4 22 0 -1
Innovation 296 1 2 22 0 -1
Innovation 297 1 10 11 0 -1
Innovation 298 1 32 12 0 -1
Innovation 299 1 10 12 0 -1
Innovation 300 1 5 28 0 -1
Innovation 301 1 20 8 0 -1
Innovation 302 1 6 28 0 -1
Innovation 303 1 10 26 0 -1
Innovation 304 1 4 25 0 -1
Innovation 305 0 13 12 3 56
Innovation 306 1 13 56 0 -1
Innovation 307 1 56 12 0 -1
Innovation 308 1 5 13 0 -1
Innovation 309 1 2 31 0 -1
Innovation 310 1 18 39 0 -1
Innovation 311 1 12 21 0 -1
Innovation 312 1 5 16 0 -1
Innovation 313 1 3 15 0 -1
Innovation 314 1 17 9 0 -1
Innovation 315 1 17 25 0 -1
Innovation 316 0 44 17 3 57
Innovation 317 1 44 57 0 -1
Innovation 318 1 57 17 0 -1
Innovation 319 0 1 28 3 58
Innovation 320 1 1 58 0 -1
Innovation 321 1 58 28 0 -1
Innovation 322 0 30 8 3 59
Innovation 323 1 30 59 0 -1
Innovation 324 1 59 8 0 -1
Innovation 325 1 17 18 0 -1
Innovation 326 1 18 21 0 -1
Innovation 327 0 3 8 3 60
Innovation 328 1 3 60 0 -1
Innovation 329 1 60 8 0 -1
Innovation 330 1 3 16 0 -1
Innovation 331 0 11 25 3 61
Innovation 332 1 11 61 0 -1
Innovation 333 1 61 25 0 -1
Innovation 334 1 4 30 0 -1
Innovation 335 1 14 7 0 -1
Innovation 336 1 58 8 0 -1
Innovation 337 0 16 7 3 62
Innovation 338 1 16 62 0 -1
Innovation 339 1 62 7 0 -1
Innovation 340 1 12 10 0 -1
Innovation 341 1 17 13 0 -1
InnovationDatabaseEnd

GenomeStart 27948
Genome Fitness: 179.000000 
Neuron 1 1 0.00000000 1 0.00000000 0.00000000 0.00000000 0.00000000
Neuron 2 1 0.00000000 1 0.00000000 0.00000000 0.00000000 0.00000000
Neuron 3 1 0.00000000 1 0.00000000 0.00000000 0.00000000 0.00000000
Neuron 4 1 0.00000000 1 0.00000000 0.00000000 0.00000000 0.00000000
Neuron 5 1 0.00000000 1 0.00000000 0.00000000 0.00000000 0.00000000
Neuron 6 2 0.00000000 1 0.00000000 0.00000000 0.00000000 0.00000000
Neuron 7 4 1.00000000 2 3.02500000 0.00000000 0.00000000 0.00000000
Neuron 8 4 1.00000000 2 3.02500000 0.00000000 0.00000000 0.00000000
Neuron 9 3 0.50000000 8 4.09045958 0.00000000 0.00000000 0.00000000
Neuron 13 3 0.50000000 9 2.57792895 0.00000000 0.00000000 0.00000000
Neuron 30 3 0.75000000 11 3.05374091 0.00000000 0.00000000 0.00000000
Link 2 7 2 0 0.10487664
Link 3 7 3 0 0.30116798
Link 4 7 4 0 -0.18072658
Link 5 7 5 0 0.26838481
Link 6 7 6 0 -0.16498681
Link 1 8 7 0 -0.38488144
Link 2 8 8 0 -0.21441388
Link 3 8 9 0 0.32247282
Link 4 8 10 0 -0.01922064
Link 5 8 11 0 0.41223198
Link 6 8 12 0 -0.25669057
Link 1 9 14 0 0.95349570
Link 9 7 15 0 -0.01761719
Link 3 13 29 0 -0.09031761
Link 13 30 115 0 1.00000000
Link 30 8 116 0 0.28264280
Link 3 9 273 0 0.34866222
GenomeEnd

GenomeStart 27949
Genome Fitness: 179.000000 
Neuron 1 1 0.00000000 1 0.00000000 0.00000000 0.00000000 0.00000000
Neuron 2 1 0.00000000 1 0.00000000 0.00000000 0.00000000 0.00000000
Neuron 3 1 0.00000000 1 0.00000000 0.00000000 0.00000000 0.00000000
Neuron 4 1 0.00000000 1 0.00000000 0.00000000 0.00000000 0.00000000
Neuron 5 1 0.00000000 1 0.00000000 0.00000000 0.00000000 0.00000000
Neuron 6 2 0.00000000 1 0.00000000 0.00000000 0.00000000 0.00000000
Neuron 7 4 1.00000000 2 3.02500000 0.00000000 0.00000000 0.00000000
Neuron 8 4 1.00000000 2 3.02500000 0.00000000 0.00000000 0.00000000
Neuron 9 3 0.50000000 8 4.09045958 0.00000000 0.00000000 0.00000000
Neuron 13 3 0.50000000 9 2.57792895 0.00000000 0.00000000 0.00000000
Neuron 30 3 0.75000000 11 3.05374091 0.00000000 0.00000000 0.00000000
Link 2 7 2 0 0.10487664
Link 3 7 3 0 0.30116798
Link 4 7 4 0 -0.18072658
Link 5 7 5 0 0.27602145
Link 6 7 6 0 -0.16498681
Link 1 8 7 0 -0.37072215
Link 2 8 8 0 -0.21441388
Link 3 8 9 0 0.32247282
Link 4 8 10 0 -0.01922064
Link 5 8 11 0 0.41223198
Link 6 8 12 0 -0.25669057
Link 1 9 14 0 0.95489597
Link 9 7 15 0 -0.02991878
Link 3 13 29 0 -0.09031761
Link 13 30 115 0 1.00000000
Link 30 8 116 0 0.28264280
Link 3 9 273 0 0.34866222
GenomeEnd

GenomeStart 27950
Genome Fitness: 136.000000 
Neuron 1 1 0.00000000 1 0.00000000 0.00000000 0.00000000 0.00000000
Neuron 2 1 0.00000000 1 0.00000000 0.00000000 0.00000000 0.00000000
Neuron 3 1 0.00000000 1 0.00000000 0.00000000 0.00000000 0.00000000
Neuron 4 1 0.00000000 1 0.00000000 0.00000000 0.00000000 0.00000000
Neuron 5 1 0.00000000 1 0.00000000 0.00000000 0.00000000 0.00000000
Neuron 6 2 0.00000000 1 0.00000000 0.00000000 0.00000000 0.00000000
Neuron 7 4 1.00000000 2 3.02500000 0.00000000 0.00000000 0.00000000
Neuron 8 4 1.00000000 2 3.02500000 0.00000000 0.00000000 0.00000000
Neuron 9 3 0.50000000 8 4.09045958 0.00000000 0.00000000 0.00000000
Neuron 13 3 0.50000000 9 2.57792895 0.00000000 0.00000000 0.00000000
Neuron 30 3 0.75000000 11 3.05374091 0.00000000 0.00000000 0.00000000
Link 2 7 2 0 0.10487664
Link 3 7 3 0 0.29667880
Link 4 7 4 0 -0.18072658
Link 5 7 5 0 0.27135573
Link 6 7 6 0 -0.16498681
Link 1 8 7 0 -0.47722203
Link 2 8 8 0 -0.06153687
Link 3 8 9 0 0.32247282
Link 4 8 10 0 -0.01922064
Link 5 8 11 0 0.41223198
Link 6 8 12 0 -0.25669057
Link 1 9 14 0 0.93703102
Link 9 7 15 0 -0.01761719
Link 3 13 29 0 -0.04619396
Link 13 30 115 0 0.91905960
Link 30 8 116 0 0.01859491
Link 3 9 273 0 0.26108091
GenomeEnd

GenomeStart 27951
Genome Fitness: 101.000000 
Neuron 1 1 0.00000000 1 0.00000000 0.00000000 0.00000000 0.00000000
Neuron 2 1 0.00000000 1 0.00000000 0.00000000 0.00000000 0.00000000
Neuron 3 1 0.00000000 1 0.00000000 0.00000000 0.00000000 0.00000000
Neuron 4 1 0.00000000 1 0.00000000 0.00000000 0.00000000 0.00000000
Neuron 5 1 0.00000000 1 0.00000000 0.00000000 0.00000000 0.00000000
Neuron 6 2 0.00000000 1 0.00000000 0.00000000 0.00000000 0.00000000
Neuron 7 4 1.00000000 2 3.02500000 0.00000000 0.00000000 0.00000000
Neuron 8 4 1.00000000 2 3.02500000 0.00000000 0.00000000 0.00000000
Neuron 9 3 0.50000000 8 4.09045958 0.00000000 0.00000000 0.00000000
Neuron 13 3 0.50000000 9 2.57792895 0.00000000 0.00000000 0.00000000
Neuron 30 3 0.75000000 11 3.05374091 0.00000000 0.00000000 0.00000000
Link 2 7 2 0 0.06914401
Link 3 7 3 0 0.29087938
Link 4 7 4 0 -0.26517276
Link 5 7 5 0 0.29762022
Link 6 7 6 0 -0.16015789
Link 1 8 7 0 -0.43814785
Link 2 8 8 0 -0.34266592
Link 3 8 9 0 0.35215876
Link 4 8 10 0 0.07872076
Link 5 8 11 0 0.49487883
Link 6 8 12 0 -0.28488442
Link 1 9 14 0 0.98672519
Link 9 7 15 0 -0.08644521
Link 3 13 29 0 -0.01028723
Link 13 30 115 0 1.10954652
Link 30 8 116 0 0.20088714
Link 3 9 273 0 0.21513255
GenomeEnd

GenomeStart 27952
Genome Fitness: 101.000000 
Neuron 1 1 0.00000000 1 0.00000000 0.00000000 0.00000000 0.00000000
Neuron 2 1 0.00000000 1 0.00000000 0.00000000 0.00000000 0.00000000
Neuron 3 1 0.00000000 1 0.00000000 0.00000000 0.00000000 0.00000000
Neuron 4 1 0.00000000 1 0.00000000 0.00000000 0.00000000 0.00000000
Neuron 5 1 0.00000000 1 0.00000000 0.00000000 0.00000000 0.00000000
Neuron 6 2 0.00000000 1 0.00000000 0.00000000 0.00000000 0.00000000
Neuron 7 4 1.00000000 2 3.02500000 0.00000000 0.00000000 0.00000000
Neuron 8 4 1.00000000 2 3.02500000 0.00000000 0.00000000 0.00000000
Neuron 9 3 0.50000000 8 4.09045958 0.00000000 0.00000000 0.00000000
Neuron 13 3 0.50000000 9 2.57792895 0.00000000 0.00000000 0.00000000
Neuron 30 3 0.75000000 11 3.05374091 0.00000000 0.00000000 0.00000000
Link 2 7 2 0 0.08499584
Link 3 7 3 0 0.29583472
Link 4 7 4 0 -0.16459972
Link 5 7 5 0 0.28031005
Link 6 7 6 0 -0.10944300
Link 1 8 7 0 -0.30189447
Link 2 8 8 0 -0.09091642
Link 3 8 9 0 0.41851266
Link 4 8 10 0 -0.05224499
Link 5 8 11 0 0.14610603
Link 6 8 12 0 -0.31698811
Link 1 9 14 0 0.13095922
Link 9 7 15 0 -0.12087549
Link 3 13 29 0 -0.06506758
Link 13 30 115 0 1.02733361
Link 30 8 116 0 -0.00724858
Link 3 9 273 0 0.14619588
GenomeEnd

GenomeStart 27953
Genome Fitness: 165.000000 
Neuron 1 1 0.00000000 1 0.00000000 0.00000000 0.00000000 0.00000000
Neuron 2 1 0.00000000 1 0.00000000 0.00000000 0.00000000 0.00000000
Neuron 3 1 0.00000000 1 0.00000000 0.00000000 0.00000000 0.00000000
Neuron 4 1 0.00000000 1 0.00000000 0.00000000 0.00000000 0.00000000
Neuron 5 1 0.00000000 1 0.00000000 0.00000000 0.00000000 0.00000000
Neuron 6 2 0.00000000 1 0.00000000 0.00000000 0.00000000 0.00000000
Neuron 7 4 1.00000000 2 3.02500000 0.00000000 0.00000000 0.00000000
Neuron 8 4 1.00000000 2 3.02500000 0.00000000 0.00000000 0.00000000
Neuron 9 3 0.50000000 8 4.09045958 0.00000000 0.00000000 0.00000000
Neuron 13 3 0.50000000 9 2.57792895 0.00000000 0.00000000 0.00000000
Neuron 30 3 0.75000000 11 3.05374091 0.00000000 0.00000000 0.00000000
Link 2 7 2 0 0.12896823
Link 3 7 3 0 0.30116798
Link 4 7 4 0 -0.18072658
Link 5 7 5 0 0.26838481
Link 6 7 6 0 -0.16498681
Link 1 8 7 0 -0.37036128
Link 2 8 8 0 -0.13797538
Link 3 8 9 0 0.32247282
Link 4 8 10 0 -0.01922064
Link 5 8 11 0 0.34678331
Link 6 8 12 0 -0.25669057
Link 1 9 14 0 0.95349570
Link 9 7 15 0 -0.00414142
Link 3 13 29 0 -0.09031761
Link 13 30 115 0 1.00000000
Link 30 8 116 0 0.28264280
Link 3 9 273 0 0.27232085
GenomeEnd

GenomeStart 27954
Genome Fitness: 100.000000 
Neuron 1 1 0.00000000 1 0.00000000 0.00000000 0.00000000 0.00000000
Neuron 2 1 0.00000000 1 0.00000000 0.00000000 0.00000000 0.00000000
Neuron 3 1 0.00000000 1 0.00000000 0.00000000 0.00000000 0.00000000
Neuron 4 1 0.00000000 1 0.00000000 0.00000000 0.00000000 0.00000000
Neuron 5 1 0.00000000 1 0.00000000 0.00000000 0.00000000 0.00000000
Neuron 6 2 0.00000000 1 0.00000000 0.00000000 0.00000000 0.00000000
Neuron 7 4 1.00000000 2 3.02500000 0.00000000 0.00000000 0.00000000
Neuron 8 4 1.00000000 2 3.02500000 0.00000000 0.00000000 0.00000000
Neuron 9 3 0.50000000 8 4.09045958 0.00000000 0.00000000 0.00000000
Neuron 13 3 0.50000000 9 2.57792895 0.00000000 0.00000000 0.00000000
Neuron 30 3 0.75000000 11 3.05374091 0.00000000 0.00000000 0.00000000
Link 2 7 2 0 0.15305982
Link 3 7 3 0 0.29312606
Link 4 7 4 0 -0.18157695
Link 5 7 5 0 0.27135573
Link 6 7 6 0 -0.15035814
Link 1 8 7 0 -0.36292077
Link 2 8 8 0 -0.06153687
Link 3 8 9 0 0.32264749
Link 4 8 10 0 -0.04214280
Link 5 8 11 0 0.40835119
Link 6 8 12 0 -0.27071051
Link 1 9 14 0 0.94429473
Link 9 7 15 0 -0.00794478
Link 3 13 29 0 -0.09388934
Link 13 30 115 0 0.99806350
Link 30 8 116 0 0.32981174
Link 3 9 273 0 0.27232085
GenomeEnd

GenomeStart 27955
Genome Fitness: 151.000000 
Neuron 1 1 0.00000000 1 0.00000000 0.00000000 0.00000000 0.00000000
Neuron 2 1 0.00000000 1 0.00000000 0.00000000 0.00000000 0.00000000
Neuron 3 1 0.00000000 1 0.00000000 0.00000000 0.00000000 0.00000000
Neuron 4 1 0.00000000 1 0.00000000 0.00000000 0.00000000 0.00000000
Neuron 5 1 0.00000000 1 0.00000000 0.00000000 0.00000000 0.00000000
Neuron 6 2 0.00000000 1 0.00000000 0.00000000 0.00000000 0.00000000
Neuron 7 4 1.00000000 2 3.02500000 0.00000000 0.00000000 0.00000000
Neuron 8 4 1.00000000 2 3.02500000 0.00000000 0.00000000 0.00000000
Neuron 9 3 0.50000000 8 4.09045958 0.00000000 0.00000000 0.00000000
Neuron 13 3 0.50000000 9 2.57792895 0.00000000 0.00000000 0.00000000
Neuron 30 3 0.75000000 11 3.05374091 0.00000000 0.00000000 0.00000000
Link 2 7 2 0 0.08122237
Link 3 7 3 0 0.34451017
Link 4 7 4 0 -0.26746988
Link 5 7 5 0 0.43217184
Link 6 7 6 0 -0.16413696
Link 1 8 7 0 -0.50087110
Link 2 8 8 0 -0.01277931
Link 3 8 9 0 0.41787903
Link 4 8 10 0 -0.02326808
Link 5 8 11 0 0.34720858
Link 6 8 12 0 -0.25640062
Link 1 9 14 0 0.95682165
Link 9 7 15 0 -0.12337794
Link 3 13 29 0 -0.02827723
Link 13 30 115 0 0.86446889
Link 30 8 116 0 -0.03734252
Link 3 9 273 0 0.30524184
GenomeEnd

GenomeStart 27956
Genome Fitness: 151.000000 
Neuron 1 1 0.00000000 1 0.00000000 0.00000000 0.00000000 0.00000000
Neuron 2 1 0.00000000 1 0.00000000 0.00000000 0.00000000 0.00000000
Neuron 3 1 0.00000000 1 0.00000000 0.00000000 0.00000000 0.00000000
Neuron 4 1 0.00000000 1 0.00000000 0.00000000 0.00000000 0.00000000
Neuron 5 1 0.00000000 1 0.00000000 0.00000000 0.00000000 0.00000000
Neuron 6 2 0.00000000 1 0.00000000 0.00000000 0.00000000 0.00000000
Neuron 7 4 1.00000000 2 3.02500000 0.00000000 0.00000000 0.00000000
Neuron 8 4 1.00000000 2 3.02500000 0.00000000 0.00000000 0.00000000
Neuron 9 3 0.50000000 8 4.09045958 0.00000000 0.00000000 0.00000000
Neuron 13 3 0.50000000 9 2.57792895 0.00000000 0.00000000 0.00000000
Neuron 30 3 0.75000000 11 3.05374091 0.00000000 0.00000000 0.00000000
Link 2 7 2 0 0.10487664
Link 3 7 3 0 0.30116798
Link 4 7 4 0 -0.18072658
Link 5 7 5 0 0.26838481
Link 6 7 6 0 -0.15035814
Link 1 8 7 0 -0.39292377
Link 2 8 8 0 -0.21441388
Link 3 8 9 0 0.32247282
Link 4 8 10 0 -0.07001242
Link 5 8 11 0 0.41223198
Link 6 8 12 0 -0.30319998
Link 1 9 14 0 0.57513726
Link 9 7 15 0 -0.00794478
Link 3 13 29 0 -0.09031761
Link 13 30 115 0 1.00000000
Link 30 8 116 0 0.26332455
Link 3 9 273 0 0.34866222
GenomeEnd

GenomeStart 27957
Genome Fitness: 139.000000 
Neuron 1 1 0.00000000 1 0.00000000 0.00000000 0.00000000 0.00000000
Neuron 2 1 0.00000000 1 0.00000000 0.00000000 0.00000000 0.00000000
Neuron 3 1 0.00000000 1 0.00000000 0.00000000 0.00000000 0.00000000
Neuron 4 1 0.00000000 1 0.00000000 0.00000000 0.00000000 0.00000000
Neuron 5 1 0.00000000 1 0.00000000 0.00000000 0.00000000 0.00000000
Neuron 6 2 0.00000000 1 0.00000000 0.00000000 0.00000000 0.00000000
Neuron 7 4 1.00000000 2 3.02500000 0.00000000 0.00000000 0.00000000
Neuron 8 4 1.00000000 2 3.02500000 0.00000000 0.00000000 0.00000000
Neuron 9 3 0.50000000 8 4.09045958 0.00000000 0.00000000 0.00000000
Neuron 13 3 0.50000000 9 2.57792895 0.00000000 0.00000000 0.00000000
Neuron 30 3 0.75000000 11 3.05374091 0.00000000 0.00000000 0.00000000
Link 2 7 2 0 0.06708052
Link 3 7 3 0 0.22338917
Link 4 7 4 0 -0.18369004
Link 5 7 5 0 0.27135573
Link 6 7 6 0 -0.17654547
Link 1 8 7 0 -0.36292077
Link 2 8 8 0 -0.06153687
Link 3 8 9 0 0.39698101
Link 4 8 10 0 -0.07001242
Link 5 8 11 0 0.28133464
Link 6 8 12 0 -0.31932269
Link 1 9 14 0 0.95153739
Link 9 7 15 0 -0.00794478
Link 3 13 29 0 -0.08646763
Link 13 30 115 0 1.01657496
Link 30 8 116 0 0.20823430
Link 3 9 273 0 0.27232085
GenomeEnd

GenomeStart 27958
Genome Fitness: 179.000000 
Neuron 1 1 0.00000000 1 0.00000000 0.00000000 0.00000000 0.00000000
Neuron 2 1 0.00000000 1 0.00000000 0.00000000 0.00000000 0.00000000
Neuron 3 1 0.00000000 1 0.00000000 0.00000000 0.00000000 0.00000000
Neuron 4 1 0.00000000 1 0.00000000 0.00000000 0.00000000 0.00000000
Neuron 5 1 0.00000000 1 0.00000000 0.00000000 0.00000000 0.00000000
Neuron 6 2 0.00000000 1 0.00000000 0.00000000 0.00000000 0.00000000
Neuron 7 4 1.00000000 2 3.02500000 0.00000000 0.00000000 0.00000000
Neuron 8 4 1.00000000 2 3.02500000 0.00000000 0.00000000 0.00000000
Neuron 9 3 0.50000000 8 4.09045958 0.00000000 0.00000000 0.00000000
Neuron 13 3 0.50000000 9 2.57792895 0.00000000 0.00000000 0.00000000
Neuron 30 3 0.75000000 11 3.05374091 0.00000000 0.00000000 0.00000000
Link 2 7 2 0 0.10487664
Link 3 7 3 0 0.30116798
Link 4 7 4 0 -0.18072658
Link 5 7 5 0 0.26838481
Link 6 7 6 0 -0.16498681
Link 1 8 7 0 -0.38488144
Link 2 8 8 0 -0.21441388
Link 3 8 9 0 0.32247282
Link 4 8 10 0 -0.01922064
Link 5 8 11 0 0.41223198
Link 6 8 12 0 -0.25669057
Link 1 9 14 0 0.95349570
Link 9 7 15 0 -0.01761719
Link 3 13 29 0 -0.09031761
Link 13 30 115 0 1.00000000
Link 30 8 116 0 0.28264280
Link 3 9 273 0 0.34866222
GenomeEnd

GenomeStart 27959
Genome Fitness: 101.000000 
Neuron 1 1 0.00000000 1 0.00000000 0.00000000 0.00000000 0.00000000
Neuron 2 1 0.00000000 1 0.00000000 0.00000000 0.00000000 0.00000000
Neuron 3 1 0.00000000 1 0.00000000 0.00000000 0.00000000 0.00000000
Neuron 4 1 0.00000000 1 0.00000000 0.00000000 0.00000000 0.00000000
Neuron 5 1 0.00000000 1 0.00000000 0.00000000 0.00000000 0.00000000
Neuron 6 2 0.00000000 1 0.00000000 0.00000000 0.00000000 0.00000000
Neuron 7 4 1.00000000 2 3.02500000 0.00000000 0.00000000 0.00000000
Neuron 8 4 1.00000000 2 3.02500000 0.00000000 0.00000000 0.00000000
Neuron 9 3 0.50000000 5 4.09045958 0.00000000 0.00000000 0.00000000
Neuron 13 3 0.50000000 9 2.57792895 0.00000000 0.00000000 0.00000000
Neuron 30 3 0.75000000 11 3.05374091 0.00000000 0.00000000 0.00000000
Link 2 7 2 0 0.14705210
Link 3 7 3 0 0.38091240
Link 4 7 4 0 -0.09911135
Link 5 7 5 0 0.24420424
Link 6 7 6 0 -0.19735109
Link 1 8 7 0 -0.43683923
Link 2 8 8 0 -0.37497760
Link 3 8 9 0 0.24331668
Link 4 8 10 0 0.04031109
Link 5 8 11 0 0.45437124
Link 6 8 12 0 -0.36365252
Link 1 9 14 0 0.83626836
Link 9 7 15 0 0.10163900
Link 3 13 29 0 -0.16085730
Link 13 30 115 0 1.02542311
Link 30 8 116 0 0.35233363
Link 3 9 273 0 0.34489046
GenomeEnd

GenomeStart 27960
Genome Fitness: 177.000000 
Neuron 1 1 0.00000000 1 0.00000000 0.00000000 0.00000000 0.00000000
Neuron 2 1 0.00000000 1 0.00000000 0.00000000 0.00000000 0.00000000
Neuron 3 1 0.00000000 1 0.00000000 0.00000000 0.00000000 0.00000000
Neuron 4 1 0.00000000 1 0.00000000 0.00000000 0.00000000 0.00000000
Neuron 5 1 0.00000000 1 0.00000000 0.00000000 0.00000000 0.00000000
Neuron 6 2 0.00000000 1 0.00000000 0.00000000 0.00000000 0.00000000
Neuron 7 4 1.00000000 2 3.02500000 0.00000000 0.00000000 0.00000000
Neuron 8 4 1.00000000 2 3.02500000 0.00000000 0.00000000 0.00000000
Neuron 9 3 0.50000000 8 4.09045958 0.00000000 0.00000000 0.00000000
Neuron 13 3 0.50000000 9 2.57792895 0.00000000 0.00000000 0.00000000
Neuron 30 3 0.75000000 11 3.05374091 0.00000000 0.00000000 0.00000000
Link 2 7 2 0 0.10487664
Link 3 7 3 0 0.30116798
Link 4 7 4 0 -0.18072658
Link 5 7 5 0 0.23182022
Link 6 7 6 0 -0.16498681
Link 1 8 7 0 -0.38488144
Link 2 8 8 0 -0.21441388
Link 3 8 9 0 0.36121604
Link 4 8 10 0 -0.01922064
Link 5 8 11 0 0.41223198
Link 6 8 12 0 -0.35290536
Link 1 9 14 0 0.95772561
Link 9 7 15 0 -0.01761719
Link 3 13 29 0 -0.05796371
Link 13 30 115 0 1.00000000
Link 30 8 116 0 0.24751875
Link 3 9 273 0 0.33909147
GenomeEnd

GenomeStart 27961
Genome Fitness: 179.000000 
Neuron 1 1 0.00000000 1 0.00000000 0.00000000 0.00000000 0.00000000
Neuron 2 1 0.00000000 1 0.00000000 0.00000000 0.00000000 0.00000000
Neuron 3 1 0.00000000 1 0.00000000 0.00000000 0.00000000 0.00000000
Neuron 4 1 0.00000000 1 0.00000000 0.00000000 0.00000000 0.00000000
Neuron 5 1 0.00000000 1 0.00000000 0.00000000 0.00000000 0.00000000
Neuron 6 2 0.00000000 1 0.00000000 0.00000000 0.00000000 0.00000000
Neuron 7 4 1.00000000 2 3.02500000 0.00000000 0.00000000 0.00000000
Neuron 8 4 1.00000000 2 3.02500000 0.00000000 0.00000000 0.00000000
Neuron 9 3 0.50000000 8 4.09045958 0.00000000 0.00000000 0.00000000
Neuron 14 3 0.50000000 11 4.98407401 0.00000000 0.00000000 0.00000000
Link 2 7 2 0 0.00773924
Link 3 7 3 0 0.00410273
Link 4 7 4 0 -0.77607832
Link 5 7 5 0 0.03179152
Link 6 7 6 0 -0.87004009
Link 1 8 7 0 -0.31679365
Link 2 8 8 0 0.06539248
Link 3 8 9 0 0.25405797
Link 5 8 11 0 0.17723527
Link 6 8 12 0 -0.80351833
Link 1 9 14 0 0.94977130
Link 9 7 15 0 0.48574521
Link 4 14 33 0 1.03366394
Link 14 8 34 0 -0.35109858
GenomeEnd

GenomeStart 27962
Genome Fitness: 175.000000 
Neuron 1 1 0.00000000 1 0.00000000 0.00000000 0.00000000 0.00000000
Neuron 2 1 0.00000000 1 0.00000000 0.00000000 0.00000000 0.00000000
Neuron 3 1 0.00000000 1 0.00000000 0.00000000 0.00000000 0.00000000
Neuron 4 1 0.00000000 1 0.00000000 0.00000000 0.00000000 0.00000000
Neuron 5 1 0.00000000 1 0.00000000 0.00000000 0.00000000 0.00000000
Neuron 6 2 0.00000000 1 0.00000000 0.00000000 0.00000000 0.00000000
Neuron 7 4 1.00000000 2 3.02500000 0.00000000 0.00000000 0.00000000
Neuron 8 4 1.00000000 2 3.02500000 0.00000000 0.00000000 0.00000000
Neuron 9 3 0.50000000 8 4.09045958 0.00000000 0.00000000 0.00000000
Neuron 14 3 0.50000000 11 4.98407401 0.00000000 0.00000000 0.00000000
Link 2 7 2 0 -0.06815543
Link 3 7 3 0 -0.02109783
Link 4 7 4 0 -0.62046425
Link 5 7 5 0 -0.06846990
Link 6 7 6 0 0.35518940
Link 1 8 7 0 -0.41854953
Link 2 8 8 0 -0.01709789
Link 3 8 9 0 0.32396897
Link 5 8 11 0 0.28264314
Link 6 8 12 0 -0.72769966
Link 1 9 14 0 0.96364155
Link 9 7 15 0 0.45302009
Link 4 14 33 0 0.91219738
Link 14 8 34 0 -0.34211802
GenomeEnd

GenomeStart 27963
Genome Fitness: 136.000000 
Neuron 1 1 0.00000000 1 0.00000000 0.00000000 0.00000000 0.00000000
Neuron 2 1 0.00000000 1 0.00000000 0.00000000 0.00000000 0.00000000
Neuron 3 1 0.00000000 1 0.00000000 0.00000000 0.00000000 0.00000000
Neuron 4 1 0.00000000 1 0.00000000 0.00000000 0.00000000 0.00000000
Neuron 5 1 0.00000000 1 0.00000000 0.00000000 0.00000000 0.00000000
Neuron 6 2 0.00000000 1 0.00000000 0.00000000 0.00000000 0.00000000
Neuron 7 4 1.00000000 2 3.02500000 0.00000000 0.00000000 0.00000000
Neuron 8 4 1.00000000 2 3.02500000 0.00000000 0.00000000 0.00000000
Neuron 9 3 0.50000000 8 4.09045958 0.00000000 0.00000000 0.00000000
Neuron 14 3 0.50000000 11 4.98407401 0.00000000 0.00000000 0.00000000
Link 2 7 2 0 -0.05685689
Link 3 7 3 0 -0.07867286
Link 4 7 4 0 -0.71508579
Link 5 7 5 0 0.03064081
Link 6 7 6 0 0.06785249
Link 1 8 7 0 -0.49054995
Link 2 8 8 0 -0.10743848
Link 3 8 9 0 0.37512877
Link 5 8 11 0 0.34676192
Link 6 8 12 0 -0.35943771
Link 1 9 14 0 0.24277672
Link 9 7 15 0 0.31154936
Link 4 14 33 0 1.07197070
Link 14 8 34 0 -0.46362306
GenomeEnd

GenomeStart 27964
Genome Fitness: 101.000000 
Neuron 1 1 0.00000000 1 0.00000000 0.00000000 0.00000000 0.00000000
Neuron 2 1 0.00000000 1 0.00000000 0.00000000 0.00000000 0.00000000
Neuron 3 1 0.00000000 1 0.00000000 0.00000000 0.00000000 0.00000000
Neuron 4 1 0.00000000 1 0.00000000 0.00000000 0.00000000 0.00000000
Neuron 5 1 0.00000000 1 0.00000000 0.00000000 0.00000000 0.00000000
Neuron 6 2 0.00000000 1 0.00000000 0.00000000 0.00000000 0.00000000
Neuron 7 4 1.00000000 2 3.02500000 0.00000000 0.00000000 0.00000000
Neuron 8 4 1.00000000 2 3.02500000 0.00000000 0.00000000 0.00000000
Neuron 9 3 0.50000000 8 4.09045958 0.00000000 0.00000000 0.00000000
Neuron 14 3 0.50000000 11 4.98407401 0.00000000 0.00000000 0.00000000
Link 2 7 2 0 -0.03020809
Link 3 7 3 0 -0.07867286
Link 4 7 4 0 0.17981201
Link 5 7 5 0 -0.01833919
Link 6 7 6 0 0.06785249
Link 1 8 7 0 -0.49054995
Link 2 8 8 0 -0.00456703
Link 3 8 9 0 0.30037452
Link 5 8 11 0 0.22993920
Link 6 8 12 0 -0.35943771
Link 1 9 14 0 0.95433113
Link 9 7 15 0 0.31154936
Link 4 14 33 0 0.87568965
Link 14 8 34 0 -0.34660830
GenomeEnd

GenomeStart 27965
Genome Fitness: 101.000000 
Neuron 1 1 0.00000000 1 0.00000000 0.00000000 0.00000000 0.00000000
Neuron 2 1 0.00000000 1 0.00000000 0.00000000 0.00000000 0.00000000
Neuron 3 1 0.00000000 1 0.00000000 0.00000000 0.00000000 0.00000000
Neuron 4 1 0.00000000 1 0.00000000 0.00000000 0.00000000 0.00000000
Neuron 5 1 0.00000000 1 0.00000000 0.00000000 0.00000000 0.00000000
Neuron 6 2 0.00000000 1 0.00000000 0.00000000 0.00000000 0.00000000
Neuron 7 4 1.00000000 2 3.02500000 0.00000000 0.00000000 0.00000000
Neuron 8 4 1.00000000 2 3.02500000 0.00000000 0.00000000 0.00000000
Neuron 9 3 0.50000000 8 4.09045958 0.00000000 0.00000000 0.00000000
Neuron 14 3 0.50000000 11 4.98407401 0.00000000 0.00000000 0.00000000
Link 2 7 2 0 -0.06815543
Link 3 7 3 0 -0.02109783
Link 4 7 4 0 -0.62046425
Link 5 7 5 0 0.01437443
Link 6 7 6 0 0.35518940
Link 1 8 7 0 -0.41854953
Link 2 8 8 0 0.01550076
Link 3 8 9 0 0.32396897
Link 5 8 11 0 -0.23596607
Link 6 8 12 0 -0.74370557
Link 1 9 14 0 0.96364155
Link 9 7 15 0 0.44914195
Link 4 14 33 0 0.91219738
Link 14 8 34 0 -0.31590722
GenomeEnd

GenomeStart 27966
Genome Fitness: 101.000000 
Neuron 1 1 0.00000000 1 0.00000000 0.00000000 0.00000000 0.00000000
Neuron 2 1 0.00000000 1 0.00000000 0.00000000 0.00000000 0.00000000
Neuron 3 1 0.00000000 1 0.00000000 0.00000000 0.00000000 0.00000000
Neuron 4 1 0.00000000 1 0.00000000 0.00000000 0.00000000 0.00000000
Neuron 5 1 0.00000000 1 0.00000000 0.00000000 0.00000000 0.00000000
Neuron 6 2 0.00000000 1 0.00000000 0.00000000 0.00000000 0.00000000
Neuron 7 4 1.00000000 2 3.02500000 0.00000000 0.00000000 0.00000000
Neuron 8 4 1.00000000 2 3.02500000 0.00000000 0.00000000 0.00000000
Neuron 9 3 0.50000000 8 4.09045958 0.00000000 0.00000000 0.00000000
Neuron 14 3 0.50000000 11 4.98407401 0.00000000 0.00000000 0.00000000
Link 2 7 2 0 -0.04351440
Link 3 7 3 0 -0.00457521
Link 4 7 4 0 -0.63993855
Link 5 7 5 0 -0.05853132
Link 6 7 6 0 0.20348306
Link 1 8 7 0 -0.41956802
Link 2 8 8 0 -0.00379258
Link 3 8 9 0 0.31988039
Link 5 8 11 0 0.23635768
Link 6 8 12 0 -0.70789715
Link 1 9 14 0 0.97802455
Link 9 7 15 0 0.46111557
Link 4 14 33 0 0.89341160
Link 14 8 34 0 -0.36603666
GenomeEnd

GenomeStart 27967
Genome Fitness: 158.000000 
Neuron 1 1 0.00000000 1 0.00000000 0.00000000 0.00000000 0.00000000
Neuron 2 1 0.00000000 1 0.00000000 0.00000000 0.00000000 0.00000000
Neuron 3 1 0.00000000 1 0.00000000 0.00000000 0.00000000 0.00000000
Neuron 4 1 0.00000000 1 0.00000000 0.00000000 0.00000000 0.00000000
Neuron 5 1 0.00000000 1 0.00000000 0.00000000 0.00000000 0.00000000
Neuron 6 2 0.00000000 1 0.00000000 0.00000000 0.00000000 0.00000000
Neuron 7 4 1.00000000 2 3.02500000 0.00000000 0.00000000 0.00000000
Neuron 8 4 1.00000000 2 3.02500000 0.00000000 0.00000000 0.00000000
Neuron 9 3 0.50000000 8 4.09045958 0.00000000 0.00000000 0.00000000
Neuron 14 3 0.50000000 11 4.98407401 0.00000000 0.00000000 0.00000000
Link 2 7 2 0 0.00010029
Link 3 7 3 0 0.01194741
Link 4 7 4 0 -0.77607832
Link 5 7 5 0 -0.00717058
Link 6 7 6 0 0.05177672
Link 1 8 7 0 -0.36970858
Link 2 8 8 0 0.06539248
Link 3 8 9 0 0.25405797
Link 5 8 11 0 0.17723527
Link 6 8 12 0 -0.80351833
Link 1 9 14 0 0.60335028
Link 9 7 15 0 0.48574521
Link 4 14 33 0 0.93535910
Link 14 8 34 0 -0.35109858
GenomeEnd

GenomeStart 27968
Genome Fitness: 133.000000 
Neuron 1 1 0.00000000 1 0.00000000 0.00000000 0.00000000 0.00000000
Neuron 2 1 0.00000000 1 0.00000000 0.00000000 0.00000000 0.00000000
Neuron 3 1 0.00000000 1 0.00000000 0.00000000 0.00000000 0.00000000
Neuron 4 1 0.00000000 1 0.00000000 0.00000000 0.00000000 0.00000000
Neuron 5 1 0.00000000 1 0.00000000 0.00000000 0.00000000 0.00000000
Neuron 6 2 0.00000000 1 0.00000000 0.00000000 0.00000000 0.00000000
Neuron 7 4 1.00000000 2 3.02500000 0.00000000 0.00000000 0.00000000
Neuron 8 4 1.00000000 2 3.02500000 0.00000000 0.00000000 0.00000000
Neuron 9 3 0.50000000 8 4.09045958 0.00000000 0.00000000 0.00000000
Neuron 14 3 0.50000000 11 4.98407401 0.00000000 0.00000000 0.00000000
Link 2 7 2 0 -0.03020809
Link 3 7 3 0 0.01194741
Link 4 7 4 0 -0.69831637
Link 5 7 5 0 -0.00198238
Link 6 7 6 0 0.04888203
Link 1 8 7 0 -0.35277662
Link 2 8 8 0 0.01982403
Link 3 8 9 0 0.28726621
Link 5 8 11 0 -0.00301343
Link 6 8 12 0 -0.75465728
Link 1 9 14 0 0.79961270
Link 9 7 15 0 0.45926230
Link 4 9 26 0 0.13009732
Link 4 14 33 0 0.89087297
Link 14 8 34 0 -0.33125776
GenomeEnd

GenomeStart 27969
Genome Fitness: 101.000000 
Neuron 1 1 0.00000000 1 0.00000000 0.00000000 0.00000000 0.00000000
Neuron 2 1 0.00000000 1 0.00000000 0.00000000 0.00000000 0.00000000
Neuron 3 1 0.00000000 1 0.00000000 0.00000000 0.00000000 0.00000000
Neuron 4 1 0.00000000 1 0.00000000 0.00000000 0.00000000 0.00000000
Neuron 5 1 0.00000000 1 0.00000000 0.00000000 0.00000000 0.00000000
Neuron 6 2 0.00000000 1 0.00000000 0.00000000 0.00000000 0.00000000
Neuron 7 4 1.00000000 2 3.02500000 0.00000000 0.00000000 0.00000000
Neuron 8 4 1.00000000 2 3.02500000 0.00000000 0.00000000 0.00000000
Neuron 9 3 0.50000000 8 4.09045958 0.00000000 0.00000000 0.00000000
Neuron 14 3 0.50000000 11 4.98407401 0.00000000 0.00000000 0.00000000
Link 2 7 2 0 -0.05685689
Link 3 7 3 0 -0.01187830
Link 4 7 4 0 -0.71508579
Link 5 7 5 0 0.03064081
Link 6 7 6 0 0.42312881
Link 1 8 7 0 -0.41854953
Link 2 8 8 0 -0.10743848
Link 3 8 9 0 0.32396897
Link 5 8 11 0 0.28264314
Link 6 8 12 0 -0.80789690
Link 1 9 14 0 0.96364155
Link 9 7 15 0 0.45302009
Link 4 14 33 0 0.91219738
Link 14 8 34 0 -0.46362306
GenomeEnd

GenomeStart 27970
Genome Fitness: 14.000000 
Neuron 1 1 0.00000000 1 0.00000000 0.00000000 0.00000000 0.00000000
Neuron 2 1 0.00000000 1 0.00000000 0.00000000 0.00000000 0.00000000
Neuron 3 1 0.00000000 1 0.00000000 0.00000000 0.00000000 0.00000000
Neuron 4 1 0.00000000 1 0.00000000 0.00000000 0.00000000 0.00000000
Neuron 5 1 0.00000000 1 0.00000000 0.00000000 0.00000000 0.00000000
Neuron 6 2 0.00000000 1 0.00000000 0.00000000 0.00000000 0.00000000
Neuron 7 4 1.00000000 7 3.02500000 0.00000000 0.00000000 0.00000000
Neuron 8 4 1.00000000 2 3.02500000 0.00000000 0.00000000 0.00000000
Neuron 9 3 0.50000000 8 4.09045958 0.00000000 0.00000000 0.00000000
Neuron 14 3 0.50000000 11 4.98407401 0.00000000 0.00000000 0.00000000
Link 2 7 2 0 -0.03020809
Link 3 7 3 0 0.04499264
Link 4 7 4 0 -0.69836146
Link 5 7 5 0 -0.01833919
Link 6 7 6 0 -0.25742535
Link 1 8 7 0 -0.34973248
Link 2 8 8 0 0.02414730
Link 3 8 9 0 0.30037452
Link 5 8 11 0 0.22993920
Link 6 8 12 0 -0.76560900
Link 1 9 14 0 1.02810869
Link 9 7 15 0 0.46938265
Link 4 14 33 0 0.87568965
Link 14 8 34 0 -0.34660830
GenomeEnd

GenomeStart 27971
Genome Fitness: 101.000000 
Neuron 1 1 0.00000000 1 0.00000000 0.00000000 0.00000000 0.00000000
Neuron 2 1 0.00000000 1 0.00000000 0.00000000 0.00000000 0.00000000
Neuron 3 1 0.00000000 1 0.00000000 0.00000000 0.00000000 0.00000000
Neuron 4 1 0.00000000 1 0.00000000 0.00000000 0.00000000 0.00000000
Neuron 5 1 0.00000000 1 0.00000000 0.00000000 0.00000000 0.00000000
Neuron 6 2 0.00000000 1 0.00000000 0.00000000 0.00000000 0.00000000
Neuron 7 4 1.00000000 2 3.02500000 0.00000000 0.00000000 0.00000000
Neuron 8 4 1.00000000 2 3.02500000 0.00000000 0.00000000 0.00000000
Neuron 9 3 0.50000000 8 4.09045958 0.00000000 0.00000000 0.00000000
Neuron 14 3 0.50000000 11 4.98407401 0.00000000 0.00000000 0.00000000
Link 2 7 2 0 -0.01887338
Link 3 7 3 0 -0.02469918
Link 4 7 4 0 -0.65941285
Link 5 7 5 0 -0.04859275
Link 6 7 6 0 0.05177672
Link 1 8 7 0 -0.38508521
Link 2 8 8 0 0.00951273
Link 3 8 9 0 0.31579182
Link 5 8 11 0 0.13919587
Link 6 8 12 0 -0.68809464
Link 1 9 14 0 0.57458427
Link 9 7 15 0 0.46921104
Link 4 14 33 0 0.90605629
Link 14 8 34 0 -0.38995531
GenomeEnd

GenomeStart 27972
Genome Fitness: 179.000000 
Neuron 1 1 0.00000000 1 0.00000000 0.00000000 0.00000000 0.00000000
Neuron 2 1 0.00000000 1 0.00000000 0.00000000 0.00000000 0.00000000
Neuron 3 1 0.00000000 1 0.00000000 0.00000000 0.00000000 0.00000000
Neuron 4 1 0.00000000 1 0.00000000 0.00000000 0.00000000 0.00000000
Neuron 5 1 0.00000000 1 0.00000000 0.00000000 0.00000000 0.00000000
Neuron 6 2 0.00000000 1 0.00000000 0.00000000 0.00000000 0.00000000
Neuron 7 4 1.00000000 2 3.02500000 0.00000000 0.00000000 0.00000000
Neuron 8 4 1.00000000 2 3.02500000 0.00000000 0.00000000 0.00000000
Neuron 10 3 0.50000000 5 5.39943080 0.00000000 0.00000000 0.00000000
Neuron 13 3 0.50000000 11 2.91253539 0.00000000 0.00000000 0.00000000
Neuron 17 3 0.50000000 8 0.99425967 0.00000000 0.00000000 0.00000000
Neuron 28 3 0.25000000 4 0.52496551 0.00000000 0.00000000 0.00000000
Link 1 7 1 0 -0.60545695
Link 2 7 2 0 -0.00238666
Link 3 7 3 0 0.20665949
Link 5 7 5 0 0.39115312
Link 6 7 6 0 0.05349946
Link 2 8 8 0 -0.07834728
Link 4 8 10 0 -0.18659564
Link 6 8 12 0 0.24233891
Link 10 8 18 0 -0.13918968
Link 3 13 29 0 1.12919797
Link 13 8 30 0 0.57458021
Link 5 17 45 0 -0.08178289
Link 17 8 46 0 0.75569141
Link 1 28 104 0 0.01770852
Link 28 10 105 0 0.44126354
GenomeEnd

GenomeStart 27973
Genome Fitness: 179.000000 
Neuron 1 1 0.00000000 1 0.00000000 0.00000000 0.00000000 0.00000000
Neuron 2 1 0.00000000 1 0.00000000 0.00000000 0.00000000 0.00000000
Neuron 3 1 0.00000000 1 0.00000000 0.00000000 0.00000000 0.00000000
Neuron 4 1 0.00000000 1 0.00000000 0.00000000 0.00000000 0.00000000
Neuron 5 1 0.00000000 1 0.00000000 0.00000000 0.00000000 0.00000000
Neuron 6 2 0.00000000 1 0.00000000 0.00000000 0.00000000 0.00000000
Neuron 7 4 1.00000000 2 3.02500000 0.00000000 0.00000000 0.00000000
Neuron 8 4 1.00000000 2 3.02500000 0.00000000 0.00000000 0.00000000
Neuron 10 3 0.50000000 5 5.39943080 0.00000000 0.00000000 0.00000000
Neuron 13 3 0.50000000 11 2.91253539 0.00000000 0.00000000 0.00000000
Neuron 17 3 0.50000000 8 0.99425967 0.00000000 0.00000000 0.00000000
Neuron 28 3 0.25000000 4 0.52496551 0.00000000 0.00000000 0.00000000
Neuron 50 3 0.25000000 8 1.54877978 0.00000000 0.00000000 0.00000000
Link 1 7 1 0 -0.60545695
Link 2 7 2 0 -0.00238666
Link 3 7 3 0 0.20665949
Link 5 7 5 0 0.39115312
Link 6 7 6 0 0.05349946
Link 2 8 8 0 -0.07834728
Link 4 8 10 0 -0.18659564
Link 6 8 12 0 0.24233891
Link 10 8 18 0 -0.13918968
Link 13 8 30 0 0.57458021
Link 5 17 45 0 -0.08178289
Link 17 8 46 0 0.75569141
Link 1 28 104 0 0.01770852
Link 28 10 105 0 0.44126354
Link 3 50 250 0 1.00000000
Link 50 13 251 0 1.12919797
GenomeEnd

GenomeStart 27974
Genome Fitness: 138.000000 
Neuron 1 1 0.00000000 1 0.00000000 0.00000000 0.00000000 0.00000000
Neuron 2 1 0.00000000 1 0.00000000 0.00000000 0.00000000 0.00000000
Neuron 3 1 0.00000000 1 0.00000000 0.00000000 0.00000000 0.00000000
Neuron 4 1 0.00000000 1 0.00000000 0.00000000 0.00000000 0.00000000
Neuron 5 1 0.00000000 1 0.00000000 0.00000000 0.00000000 0.00000000
Neuron 6 2 0.00000000 1 0.00000000 0.00000000 0.00000000 0.00000000
Neuron 7 4 1.00000000 2 3.02500000 0.00000000 0.00000000 0.00000000
Neuron 8 4 1.00000000 2 3.02500000 0.00000000 0.00000000 0.00000000
Neuron 10 3 0.50000000 5 5.39943080 0.00000000 0.00000000 0.00000000
Neuron 13 3 0.50000000 11 2.91253539 0.00000000 0.00000000 0.00000000
Neuron 17 3 0.50000000 8 0.99425967 0.00000000 0.00000000 0.00000000
Neuron 28 3 0.25000000 4 0.52496551 0.00000000 0.00000000 0.00000000
Link 1 7 1 0 -0.45127552
Link 2 7 2 0 0.28096010
Link 3 7 3 0 0.45328443
Link 5 7 5 0 0.37127935
Link 6 7 6 0 -0.15577835
Link 2 8 8 0 -0.08101969
Link 4 8 10 0 0.34749049
Link 6 8 12 0 0.14239412
Link 10 8 18 0 -0.09552859
Link 3 13 29 0 1.16880921
Link 13 8 30 0 0.60958192
Link 5 17 45 0 -0.28313839
Link 17 8 46 0 0.82357112
Link 1 28 104 0 0.10059046
Link 28 10 105 0 0.50826786
GenomeEnd

GenomeStart 27975
Genome Fitness: 101.000000 
Neuron 1 1 0.00000000 1 0.00000000 0.00000000 0.00000000 0.00000000
Neuron 2 1 0.00000000 1 0.00000000 0.00000000 0.00000000 0.00000000
Neuron 3 1 0.00000000 1 0.00000000 0.00000000 0.00000000 0.00000000
Neuron 4 1 0.00000000 1 0.00000000 0.00000000 0.00000000 0.00000000
Neuron 5 1 0.00000000 1 0.00000000 0.00000000 0.00000000 0.00000000
Neuron 6 2 0.00000000 1 0.00000000 0.00000000 0.00000000 0.00000000
Neuron 7 4 1.00000000 2 3.02500000 0.00000000 0.00000000 0.00000000
Neuron 8 4 1.00000000 2 3.02500000 0.00000000 0.00000000 0.00000000
Neuron 10 3 0.50000000 5 5.39943080 0.00000000 0.00000000 0.00000000
Neuron 13 3 0.50000000 11 2.91253539 0.00000000 0.00000000 0.00000000
Neuron 17 3 0.50000000 8 0.99425967 0.00000000 0.00000000 0.00000000
Neuron 28 3 0.25000000 4 0.52496551 0.00000000 0.00000000 0.00000000
Link 1 7 1 0 -0.51768402
Link 2 7 2 0 -0.00238666
Link 3 7 3 0 0.42573456
Link 5 7 5 0 0.04062809
Link 6 7 6 0 -0.15084681
Link 2 8 8 0 -0.07834728
Link 4 8 10 0 0.28680835
Link 6 8 12 0 0.24233891
Link 10 8 18 0 -0.25099624
Link 3 13 29 0 0.97909574
Link 13 8 30 0 0.65882082
Link 5 17 45 0 -0.09072046
Link 17 8 46 0 0.69755759
Link 1 28 104 0 0.14481113
Link 28 10 105 0 0.44126354
GenomeEnd

GenomeStart 27976
Genome Fitness: 153.000000 
Neuron 1 1 0.00000000 1 0.00000000 0.00000000 0.00000000 0.00000000
Neuron 2 1 0.00000000 1 0.00000000 0.00000000 0.00000000 0.00000000
Neuron 3 1 0.00000000 1 0.00000000 0.00000000 0.00000000 0.00000000
Neuron 4 1 0.00000000 1 0.00000000 0.00000000 0.00000000 0.00000000
Neuron 5 1 0.00000000 1 0.00000000 0.00000000 0.00000000 0.00000000
Neuron 6 2 0.00000000 1 0.00000000 0.00000000 0.00000000 0.00000000
Neuron 7 4 1.00000000 2 3.02500000 0.00000000 0.00000000 0.00000000
Neuron 8 4 1.00000000 2 3.02500000 0.00000000 0.00000000 0.00000000
Neuron 10 3 0.50000000 5 5.39943080 0.00000000 0.00000000 0.00000000
Neuron 13 3 0.50000000 11 2.91253539 0.00000000 0.00000000 0.00000000
Neuron 17 3 0.50000000 8 0.99425967 0.00000000 0.00000000 0.00000000
Neuron 28 3 0.25000000 4 0.52496551 0.00000000 0.00000000 0.00000000
Link 1 7 1 0 -0.31457148
Link 2 7 2 0 0.29384418
Link 3 7 3 0 0.42573456
Link 5 7 5 0 -0.14354497
Link 6 7 6 0 0.17152180
Link 2 8 8 0 -0.07834728
Link 4 8 10 0 0.28680835
Link 6 8 12 0 0.24233891
Link 10 8 18 0 -0.25099624
Link 3 13 29 0 0.97909574
Link 13 8 30 0 0.57458021
Link 5 17 45 0 -0.09072046
Link 17 8 46 0 0.69755759
Link 1 28 104 0 0.14481113
Link 28 10 105 0 0.42692359
GenomeEnd

GenomeStart 27977
Genome Fitness: 101.000000 
Neuron 1 1 0.00000000 1 0.00000000 0.00000000 0.00000000 0.00000000
Neuron 2 1 0.00000000 1 0.00000000 0.00000000 0.00000000 0.00000000
Neuron 3 1 0.00000000 1 0.00000000 0.00000000 0.00000000 0.00000000
Neuron 4 1 0.00000000 1 0.00000000 0.00000000 0.00000000 0.00000000
Neuron 5 1 0.00000000 1 0.00000000 0.00000000 0.00000000 0.00000000
Neuron 6 2 0.00000000 1 0.00000000 0.00000000 0.00000000 0.00000000
Neuron 7 4 1.00000000 2 3.02500000 0.00000000 0.00000000 0.00000000
Neuron 8 4 1.00000000 2 3.02500000 0.00000000 0.00000000 0.00000000
Neuron 10 3 0.50000000 5 5.39943080 0.00000000 0.00000000 0.00000000
Neuron 13 3 0.50000000 11 2.91253539 0.00000000 0.00000000 0.00000000
Neuron 17 3 0.50000000 8 0.99425967 0.00000000 0.00000000 0.00000000
Neuron 28 3 0.25000000 4 0.52496551 0.00000000 0.00000000 0.00000000
Neuron 50 3 0.25000000 8 1.54877978 0.00000000 0.00000000 0.00000000
Link 1 7 1 0 -0.51768402
Link 2 7 2 0 -0.00238666
Link 3 7 3 0 0.20665949
Link 5 7 5 0 0.39115312
Link 6 7 6 0 0.05349946
Link 2 8 8 0 -0.07834728
Link 4 8 10 0 0.28680835
Link 6 8 12 0 0.24233891
Link 10 8 18 0 -0.20702719
Link 13 8 30 0 0.57458021
Link 5 17 45 0 -0.08178289
Link 17 8 46 0 0.75569141
Link 1 28 104 0 0.01770852
Link 28 10 105 0 0.44126354
Link 3 50 250 0 1.00566680
Link 50 13 251 0 1.12919797
GenomeEnd

GenomeStart 27978
Genome Fitness: 101.000000 
Neuron 1 1 0.00000000 1 0.00000000 0.00000000 0.00000000 0.00000000
Neuron 2 1 0.00000000 1 0.00000000 0.00000000 0.00000000 0.00000000
Neuron 3 1 0.00000000 1 0.00000000 0.00000000 0.00000000 0.00000000
Neuron 4 1 0.00000000 1 0.00000000 0.00000000 0.00000000 0.00000000
Neuron 5 1 0.00000000 1 0.00000000 0.00000000 0.00000000 0.00000000
Neuron 6 2 0.00000000 1 0.00000000 0.00000000 0.00000000 0.00000000
Neuron 7 4 1.00000000 2 3.02500000 0.00000000 0.00000000 0.00000000
Neuron 8 4 1.00000000 2 3.02500000 0.00000000 0.00000000 0.00000000
Neuron 10 3 0.50000000 5 5.39943080 0.00000000 0.00000000 0.00000000
Neuron 13 3 0.50000000 11 2.91253539 0.00000000 0.00000000 0.00000000
Neuron 17 3 0.50000000 8 0.99425967 0.00000000 0.00000000 0.00000000
Neuron 28 3 0.25000000 4 0.52496551 0.00000000 0.00000000 0.00000000
Neuron 50 3 0.25000000 8 1.54877978 0.00000000 0.00000000 0.00000000
Link 1 7 1 0 -0.56262290
Link 2 7 2 0 0.01276421
Link 3 7 3 0 0.23940627
Link 5 7 5 0 0.44615995
Link 6 7 6 0 0.11573628
Link 2 8 8 0 -0.14578799
Link 4 8 10 0 -0.34031179
Link 6 8 12 0 0.33568942
Link 10 8 18 0 -0.21273686
Link 13 8 30 0 0.63639252
Link 5 17 45 0 0.00980629
Link 17 8 46 0 0.82666588
Link 1 28 104 0 0.01995154
Link 28 10 105 0 0.49756398
Link 3 50 250 0 0.91351037
Link 50 13 251 0 0.93661547
GenomeEnd

GenomeStart 27979
Genome Fitness: 101.000000 
Neuron 1 1 0.00000000 1 0.00000000 0.00000000 0.00000000 0.00000000
Neuron 2 1 0.00000000 1 0.00000000 0.00000000 0.00000000 0.00000000
Neuron 3 1 0.00000000 1 0.00000000 0.00000000 0.00000000 0.00000000
Neuron 4 1 0.00000000 1 0.00000000 0.00000000 0.00000000 0.00000000
Neuron 5 1 0.00000000 1 0.00000000 0.00000000 0.00000000 0.00000000
Neuron 6 2 0.00000000 1 0.00000000 0.00000000 0.00000000 0.00000000
Neuron 7 4 1.00000000 2 3.02500000 0.00000000 0.00000000 0.00000000
Neuron 8 4 1.00000000 2 3.02500000 0.00000000 0.00000000 0.00000000
Neuron 10 3 0.50000000 5 5.39943080 0.00000000 0.00000000 0.00000000
Neuron 13 3 0.50000000 11 2.91253539 0.00000000 0.00000000 0.00000000
Neuron 17 3 0.50000000 8 0.99425967 0.00000000 0.00000000 0.00000000
Neuron 28 3 0.25000000 4 0.52496551 0.00000000 0.00000000 0.00000000
Neuron 50 3 0.25000000 8 1.54877978 0.00000000 0.00000000 0.00000000
Link 1 7 1 0 -0.59574801
Link 2 7 2 0 -0.09789690
Link 3 7 3 0 0.07908336
Link 5 7 5 0 0.54548662
Link 6 7 6 0 -0.21536417
Link 2 8 8 0 0.06618756
Link 4 8 10 0 -0.24918010
Link 6 8 12 0 0.20630690
Link 10 8 18 0 -0.01481985
Link 13 8 30 0 0.39974160
Link 5 17 45 0 -0.35389866
Link 17 8 46 0 0.54372614
Link 1 28 104 0 0.04275418
Link 28 10 105 0 0.60555989
Link 3 50 250 0 0.98302582
Link 50 13 251 0 1.19337105
GenomeEnd

GenomeStart 27980
Genome Fitness: 144.000000 
Neuron 1 1 0.00000000 1 0.00000000 0.00000000 0.00000000 0.00000000
Neuron 2 1 0.00000000 1 0.00000000 0.00000000 0.00000000 0.00000000
Neuron 3 1 0.00000000 1 0.00000000 0.00000000 0.00000000 0.00000000
Neuron 4 1 0.00000000 1 0.00000000 0.00000000 0.00000000 0.00000000
Neuron 5 1 0.00000000 1 0.00000000 0.00000000 0.00000000 0.00000000
Neuron 6 2 0.00000000 1 0.00000000 0.00000000 0.00000000 0.00000000
Neuron 7 4 1.00000000 2 3.02500000 0.00000000 0.00000000 0.00000000
Neuron 8 4 1.00000000 2 3.02500000 0.00000000 0.00000000 0.00000000
Neuron 10 3 0.50000000 5 5.39943080 0.00000000 0.00000000 0.00000000
Neuron 13 3 0.50000000 11 2.91253539 0.00000000 0.00000000 0.00000000
Neuron 17 3 0.50000000 8 0.99425967 0.00000000 0.00000000 0.00000000
Neuron 28 3 0.25000000 4 0.52496551 0.00000000 0.00000000 0.00000000
Link 1 7 1 0 -0.36792252
Link 2 7 2 0 0.12714290
Link 3 7 3 0 0.44431529
Link 5 7 5 0 0.13640883
Link 6 7 6 0 -0.04628566
Link 2 8 8 0 -0.14283889
Link 4 8 10 0 0.38840714
Link 6 8 12 0 0.38644206
Link 10 8 18 0 -0.10788305
Link 3 13 29 0 1.04914828
Link 13 8 30 0 0.62282164
Link 5 17 45 0 -0.23674416
Link 17 8 46 0 0.55603359
Link 1 28 104 0 0.19411042
Link 28 10 105 0 0.62155683
GenomeEnd

GenomeStart 27981
Genome Fitness: 179.000000 
Neuron 1 1 0.00000000 1 0.00000000 0.00000000 0.00000000 0.00000000
Neuron 2 1 0.00000000 1 0.00000000 0.00000000 0.00000000 0.00000000
Neuron 3 1 0.00000000 1 0.00000000 0.00000000 0.00000000 0.00000000
Neuron 4 1 0.00000000 1 0.00000000 0.00000000 0.00000000 0.00000000
Neuron 5 1 0.00000000 1 0.00000000 0.00000000 0.00000000 0.00000000
Neuron 6 2 0.00000000 1 0.00000000 0.00000000 0.00000000 0.00000000
Neuron 7 4 1.00000000 2 3.02500000 0.00000000 0.00000000 0.00000000
Neuron 8 4 1.00000000 2 3.02500000 0.00000000 0.00000000 0.00000000
Neuron 10 3 0.50000000 5 5.39943080 0.00000000 0.00000000 0.00000000
Neuron 13 3 0.50000000 11 2.91253539 0.00000000 0.00000000 0.00000000
Neuron 17 3 0.50000000 8 0.99425967 0.00000000 0.00000000 0.00000000
Neuron 28 3 0.25000000 4 0.52496551 0.00000000 0.00000000 0.00000000
Link 1 7 1 0 -0.60545695
Link 2 7 2 0 -0.00238666
Link 3 7 3 0 0.20665949
Link 5 7 5 0 0.39115312
Link 6 7 6 0 0.05349946
Link 2 8 8 0 -0.07834728
Link 4 8 10 0 -0.18659564
Link 6 8 12 0 0.24233891
Link 10 8 18 0 -0.13918968
Link 3 13 29 0 1.12919797
Link 13 8 30 0 0.57458021
Link 5 17 45 0 -0.08178289
Link 17 8 46 0 0.75569141
Link 1 28 104 0 0.01770852
Link 28 10 105 0 0.44126354
GenomeEnd

GenomeStart 27982
Genome Fitness: 179.000000 
Neuron 1 1 0.00000000 1 0.00000000 0.00000000 0.00000000 0.00000000
Neuron 2 1 0.00000000 1 0.00000000 0.00000000 0.00000000 0.00000000
Neuron 3 1 0.00000000 1 0.00000000 0.00000000 0.00000000 0.00000000
Neuron 4 1 0.00000000 1 0.00000000 0.00000000 0.00000000 0.00000000
Neuron 5 1 0.00000000 1 0.00000000 0.00000000 0.00000000 0.00000000
Neuron 6 2 0.00000000 1 0.00000000 0.00000000 0.00000000 0.00000000
Neuron 7 4 1.00000000 2 3.02500000 0.00000000 0.00000000 0.00000000
Neuron 8 4 1.00000000 2 3.02500000 0.00000000 0.00000000 0.00000000
Neuron 11 3 0.50000000 10 1.37826869 0.00000000 0.00000000 0.00000000
Neuron 17 3 0.50000000 6 1.77006168 0.00000000 0.00000000 0.00000000
Neuron 25 3 0.75000000 3 4.36765468 0.00000000 0.00000000 0.00000000
Link 1 7 1 0 -0.86275695
Link 2 7 2 0 0.55396515
Link 3 7 3 0 0.43837349
Link 4 7 4 0 -0.48427602
Link 6 7 6 0 0.66937907
Link 1 8 7 0 0.28283531
Link 2 8 8 0 0.52995408
Link 3 8 9 0 -0.12355564
Link 4 8 10 0 0.20556945
Link 6 8 12 0 -0.59368909
Link 5 11 20 0 0.79407537
Link 5 17 45 0 1.05353114
Link 17 8 46 0 -1.04601701
Link 3 11 76 0 -0.05696097
Link 11 25 91 0 1.02046639
Link 25 7 92 0 0.03048413
GenomeEnd

GenomeStart 27983
Genome Fitness: 179.000000 
Neuron 1 1 0.00000000 1 0.00000000 0.00000000 0.00000000 0.00000000
Neuron 2 1 0.00000000 1 0.00000000 0.00000000 0.00000000 0.00000000
Neuron 3 1 0.00000000 1 0.00000000 0.00000000 0.00000000 0.00000000
Neuron 4 1 0.00000000 1 0.00000000 0.00000000 0.00000000 0.00000000
Neuron 5 1 0.00000000 1 0.00000000 0.00000000 0.00000000 0.00000000
Neuron 6 2 0.00000000 1 0.00000000 0.00000000 0.00000000 0.00000000
Neuron 7 4 1.00000000 2 3.02500000 0.00000000 0.00000000 0.00000000
Neuron 8 4 1.00000000 2 3.02500000 0.00000000 0.00000000 0.00000000
Neuron 11 3 0.50000000 10 1.37826869 0.00000000 0.00000000 0.00000000
Neuron 17 3 0.50000000 6 1.77006168 0.00000000 0.00000000 0.00000000
Neuron 25 3 0.75000000 3 4.36765468 0.00000000 0.00000000 0.00000000
Link 1 7 1 0 -0.86275695
Link 2 7 2 0 0.55396515
Link 3 7 3 0 0.43837349
Link 4 7 4 0 -0.48427602
Link 6 7 6 0 0.66937907
Link 1 8 7 0 0.28283531
Link 2 8 8 0 0.52995408
Link 3 8 9 0 -0.12355564
Link 4 8 10 0 0.20556945
Link 6 8 12 0 -0.59368909
Link 5 11 20 0 0.79407537
Link 5 17 45 0 1.05353114
Link 17 8 46 0 -1.04601701
Link 3 11 76 0 -0.05696097
Link 11 25 91 0 1.02046639
Link 25 7 92 0 0.03048413
GenomeEnd

GenomeStart 27984
Genome Fitness: 164.000000 
Neuron 1 1 0.00000000 1 0.00000000 0.00000000 0.00000000 0.00000000
Neuron 2 1 0.00000000 1 0.00000000 0.00000000 0.00000000 0.00000000
Neuron 3 1 0.00000000 1 0.00000000 0.00000000 0.00000000 0.00000000
Neuron 4 1 0.00000000 1 0.00000000 0.00000000 0.00000000 0.00000000
Neuron 5 1 0.00000000 1 0.00000000 0.00000000 0.00000000 0.00000000
Neuron 6 2 0.00000000 1 0.00000000 0.00000000 0.00000000 0.00000000
Neuron 7 4 1.00000000 2 3.02500000 0.00000000 0.00000000 0.00000000
Neuron 8 4 1.00000000 2 3.02500000 0.00000000 0.00000000 0.00000000
Neuron 11 3 0.50000000 10 1.37826869 0.00000000 0.00000000 0.00000000
Neuron 17 3 0.50000000 6 1.77006168 0.00000000 0.00000000 0.00000000
Neuron 25 3 0.75000000 4 4.36765468 0.00000000 0.00000000 0.00000000
Link 1 7 1 0 -0.85709578
Link 2 7 2 0 0.66959668
Link 3 7 3 0 0.48211749
Link 4 7 4 0 -0.50458312
Link 6 7 6 0 0.59719320
Link 1 8 7 0 0.44271762
Link 2 8 8 0 0.58104548
Link 3 8 9 0 0.18243199
Link 4 8 10 0 0.28514653
Link 6 8 12 0 -0.52515141
Link 5 11 20 0 0.71578084
Link 5 17 45 0 0.86719732
Link 17 8 46 0 -1.05268481
Link 3 11 76 0 -0.13245751
Link 11 25 91 0 1.04564128
Link 25 7 92 0 0.06540950
Link 17 7 145 0 0.18381759
GenomeEnd

GenomeStart 27985
Genome Fitness: 101.000000 
Neuron 1 1 0.00000000 1 0.00000000 0.00000000 0.00000000 0.00000000
Neuron 2 1 0.00000000 1 0.00000000 0.00000000 0.00000000 0.00000000
Neuron 3 1 0.00000000 1 0.00000000 0.00000000 0.00000000 0.00000000
Neuron 4 1 0.00000000 1 0.00000000 0.00000000 0.00000000 0.00000000
Neuron 5 1 0.00000000 1 0.00000000 0.00000000 0.00000000 0.00000000
Neuron 6 2 0.00000000 1 0.00000000 0.00000000 0.00000000 0.00000000
Neuron 7 4 1.00000000 2 3.02500000 0.00000000 0.00000000 0.00000000
Neuron 8 4 1.00000000 2 3.02500000 0.00000000 0.00000000 0.00000000
Neuron 11 3 0.50000000 10 1.37826869 0.00000000 0.00000000 0.00000000
Neuron 17 3 0.50000000 6 1.77006168 0.00000000 0.00000000 0.00000000
Neuron 25 3 0.75000000 3 4.36765468 0.00000000 0.00000000 0.00000000
Link 1 7 1 0 -0.87389044
Link 2 7 2 0 0.47407990
Link 3 7 3 0 0.42820011
Link 4 7 4 0 -0.46583670
Link 6 7 6 0 0.68884413
Link 1 8 7 0 0.21872545
Link 2 8 8 0 0.61344075
Link 3 8 9 0 -0.10081688
Link 4 8 10 0 0.34994696
Link 6 8 12 0 -0.45187506
Link 5 11 20 0 0.69223796
Link 5 17 45 0 1.09715150
Link 17 8 46 0 -0.94859906
Link 3 11 76 0 -0.01347938
Link 11 25 91 0 1.04328092
Link 25 7 92 0 0.13828446
GenomeEnd

GenomeStart 27986
Genome Fitness: 179.000000 
Neuron 1 1 0.00000000 1 0.00000000 0.00000000 0.00000000 0.00000000
Neuron 2 1 0.00000000 1 0.00000000 0.00000000 0.00000000 0.00000000
Neuron 3 1 0.00000000 1 0.00000000 0.00000000 0.00000000 0.00000000
Neuron 4 1 0.00000000 1 0.00000000 0.00000000 0.00000000 0.00000000
Neuron 5 1 0.00000000 1 0.00000000 0.00000000 0.00000000 0.00000000
Neuron 6 2 0.00000000 1 0.00000000 0.00000000 0.00000000 0.00000000
Neuron 7 4 1.00000000 2 3.02500000 0.00000000 0.00000000 0.00000000
Neuron 8 4 1.00000000 2 3.02500000 0.00000000 0.00000000 0.00000000
Neuron 11 3 0.50000000 10 1.37826869 0.00000000 0.00000000 0.00000000
Neuron 17 3 0.50000000 6 1.77006168 0.00000000 0.00000000 0.00000000
Neuron 25 3 0.75000000 3 4.36765468 0.00000000 0.00000000 0.00000000
Link 1 7 1 0 -0.86275695
Link 2 7 2 0 0.55396515
Link 3 7 3 0 0.43837349
Link 4 7 4 0 -0.48427602
Link 6 7 6 0 0.66937907
Link 1 8 7 0 0.28283531
Link 2 8 8 0 0.52995408
Link 3 8 9 0 -0.12355564
Link 4 8 10 0 0.20556945
Link 6 8 12 0 -0.59368909
Link 5 11 20 0 0.79407537
Link 5 17 45 0 1.05353114
Link 17 8 46 0 -1.04601701
Link 3 11 76 0 -0.05696097
Link 11 25 91 0 0.99863135
Link 25 7 92 0 0.03048413
GenomeEnd

GenomeStart 27987
Genome Fitness: 157.000000 
Neuron 1 1 0.00000000 1 0.00000000 0.00000000 0.00000000 0.00000000
Neuron 2 1 0.00000000 1 0.00000000 0.00000000 0.00000000 0.00000000
Neuron 3 1 0.00000000 1 0.00000000 0.00000000 0.00000000 0.00000000
Neuron 4 1 0.00000000 1 0.00000000 0.00000000 0.00000000 0.00000000
Neuron 5 1 0.00000000 1 0.00000000 0.00000000 0.00000000 0.00000000
Neuron 6 2 0.00000000 1 0.00000000 0.00000000 0.00000000 0.00000000
Neuron 7 4 1.00000000 2 3.02500000 0.00000000 0.00000000 0.00000000
Neuron 8 4 1.00000000 2 3.02500000 0.00000000 0.00000000 0.00000000
Neuron 11 3 0.50000000 10 1.37826869 0.00000000 0.00000000 0.00000000
Neuron 17 3 0.50000000 6 1.77006168 0.00000000 0.00000000 0.00000000
Neuron 25 3 0.75000000 3 4.36765468 0.00000000 0.00000000 0.00000000
Link 1 7 1 0 -0.86128446
Link 2 7 2 0 0.53937890
Link 3 7 3 0 0.56622311
Link 4 7 4 0 -0.69235157
Link 6 7 6 0 0.67476345
Link 1 8 7 0 0.28283531
Link 2 8 8 0 0.52995408
Link 3 8 9 0 -0.17888739
Link 4 8 10 0 0.14401787
Link 6 8 12 0 -0.66387927
Link 5 11 20 0 0.79407537
Link 5 17 45 0 1.05353114
Link 17 8 46 0 -1.02644462
Link 3 11 76 0 -0.05263620
Link 11 25 91 0 0.87889183
Link 25 7 92 0 0.08048444
GenomeEnd

GenomeStart 27988
Genome Fitness: 112.000000 
Neuron 1 1 0.00000000 1 0.00000000 0.00000000 0.00000000 0.00000000
Neuron 2 1 0.00000000 1 0.00000000 0.00000000 0.00000000 0.00000000
Neuron 3 1 0.00000000 1 0.00000000 0.00000000 0.00000000 0.00000000
Neuron 4 1 0.00000000 1 0.00000000 0.00000000 0.00000000 0.00000000
Neuron 5 1 0.00000000 1 0.00000000 0.00000000 0.00000000 0.00000000
Neuron 6 2 0.00000000 1 0.00000000 0.00000000 0.00000000 0.00000000
Neuron 7 4 1.00000000 2 3.02500000 0.00000000 0.00000000 0.00000000
Neuron 8 4 1.00000000 2 3.02500000 0.00000000 0.00000000 0.00000000
Neuron 11 3 0.50000000 10 1.37826869 0.00000000 0.00000000 0.00000000
Neuron 17 3 0.50000000 6 1.77006168 0.00000000 0.00000000 0.00000000
Neuron 25 3 0.75000000 4 4.36765468 0.00000000 0.00000000 0.00000000
Link 1 7 1 0 -0.86831426
Link 2 7 2 0 0.61747479
Link 3 7 3 0 0.42591625
Link 4 7 4 0 -0.59323974
Link 6 7 6 0 0.45028574
Link 1 8 7 0 0.41840537
Link 2 8 8 0 0.72151088
Link 3 8 9 0 -0.11452362
Link 4 8 10 0 0.10219654
Link 6 8 12 0 -0.47034187
Link 5 11 20 0 0.88860734
Link 5 17 45 0 1.07128738
Link 17 8 46 0 -1.04544188
Link 3 11 76 0 0.12078282
Link 11 25 91 0 1.00417650
Link 25 7 92 0 -0.02047387
GenomeEnd

GenomeStart 27989
Genome Fitness: 158.000000 
Neuron 1 1 0.00000000 1 0.00000000 0.00000000 0.00000000 0.00000000
Neuron 2 1 0.00000000 1 0.00000000 0.00000000 0.00000000 0.00000000
Neuron 3 1 0.00000000 1 0.00000000 0.00000000 0.00000000 0.00000000
Neuron 4 1 0.00000000 1 0.00000000 0.00000000 0.00000000 0.00000000
Neuron 5 1 0.00000000 1 0.00000000 0.00000000 0.00000000 0.00000000
Neuron 6 2 0.00000000 1 0.00000000 0.00000000 0.00000000 0.00000000
Neuron 7 4 1.00000000 2 3.02500000 0.00000000 0.00000000 0.00000000
Neuron 8 4 1.00000000 2 3.02500000 0.00000000 0.00000000 0.00000000
Neuron 11 3 0.50000000 10 1.37826869 0.00000000 0.00000000 0.00000000
Neuron 17 3 0.50000000 6 1.77006168 0.00000000 0.00000000 0.00000000
Neuron 25 3 0.75000000 3 4.36765468 0.00000000 0.00000000 0.00000000
Link 1 7 1 0 -0.86275695
Link 2 7 2 0 0.55396515
Link 3 7 3 0 0.43837349
Link 4 7 4 0 -0.53216193
Link 6 7 6 0 0.66937907
Link 1 8 7 0 0.28283531
Link 2 8 8 0 0.52995408
Link 3 8 9 0 -0.12355564
Link 4 8 10 0 0.19281676
Link 6 8 12 0 -0.59368909
Link 5 11 20 0 0.79407537
Link 5 17 45 0 1.05353114
Link 17 8 46 0 -1.01738828
Link 3 11 76 0 0.05978865
Link 11 25 91 0 0.97545846
Link 25 7 92 0 0.08048444
GenomeEnd

GenomeStart 27990
Genome Fitness: 101.000000 
Neuron 1 1 0.00000000 1 0.00000000 0.00000000 0.00000000 0.00000000
Neuron 2 1 0.00000000 1 0.00000000 0.00000000 0.00000000 0.00000000
Neuron 3 1 0.00000000 1 0.00000000 0.00000000 0.00000000 0.00000000
Neuron 4 1 0.00000000 1 0.00000000 0.00000000 0.00000000 0.00000000
Neuron 5 1 0.00000000 1 0.00000000 0.00000000 0.00000000 0.00000000
Neuron 6 2 0.00000000 1 0.00000000 0.00000000 0.00000000 0.00000000
Neuron 7 4 1.00000000 2 3.02500000 0.00000000 0.00000000 0.00000000
Neuron 8 4 1.00000000 2 3.02500000 0.00000000 0.00000000 0.00000000
Neuron 11 3 0.50000000 10 1.37826869 0.00000000 0.00000000 0.00000000
Neuron 17 3 0.50000000 6 1.77006168 0.00000000 0.00000000 0.00000000
Neuron 25 3 0.75000000 4 4.36765468 0.00000000 0.00000000 0.00000000
Link 1 7 1 0 -1.09546551
Link 2 7 2 0 0.48103652
Link 3 7 3 0 0.49897595
Link 4 7 4 0 -0.52319603
Link 6 7 6 0 0.47750917
Link 1 8 7 0 0.24831681
Link 2 8 8 0 0.61564375
Link 3 8 9 0 -0.04430146
Link 4 8 10 0 0.19014867
Link 6 8 12 0 -0.71041971
Link 5 11 20 0 0.18276384
Link 5 17 45 0 0.91877371
Link 17 8 46 0 -0.64088840
Link 3 11 76 0 -0.04099821
Link 11 25 91 0 1.07085449
Link 25 7 92 0 0.44726565
GenomeEnd

GenomeStart 27991
Genome Fitness: 101.000000 
Neuron 1 1 0.00000000 1 0.00000000 0.00000000 0.00000000 0.00000000
Neuron 2 1 0.00000000 1 0.00000000 0.00000000 0.00000000 0.00000000
Neuron 3 1 0.00000000 1 0.00000000 0.00000000 0.00000000 0.00000000
Neuron 4 1 0.00000000 1 0.00000000 0.00000000 0.00000000 0.00000000
Neuron 5 1 0.00000000 1 0.00000000 0.00000000 0.00000000 0.00000000
Neuron 6 2 0.00000000 1 0.00000000 0.00000000 0.00000000 0.00000000
Neuron 7 4 1.00000000 2 3.02500000 0.00000000 0.00000000 0.00000000
Neuron 8 4 1.00000000 2 3.02500000 0.00000000 0.00000000 0.00000000
Neuron 11 3 0.50000000 10 1.37826869 0.00000000 0.00000000 0.00000000
Neuron 17 3 0.50000000 6 1.77006168 0.00000000 0.00000000 0.00000000
Neuron 25 3 0.75000000 4 4.36765468 0.00000000 0.00000000 0.00000000
Link 1 7 1 0 -0.78877529
Link 2 7 2 0 0.39617912
Link 3 7 3 0 0.47477393
Link 4 7 4 0 -0.68001287
Link 6 7 6 0 0.58491977
Link 1 8 7 0 0.18950859
Link 2 8 8 0 0.50188199
Link 3 8 9 0 -0.17073191
Link 4 8 10 0 0.28680863
Link 6 8 12 0 -0.75729956
Link 5 11 20 0 0.84007878
Link 5 17 45 0 1.06186207
Link 17 8 46 0 -1.01716110
Link 3 11 76 0 -0.13744213
Link 11 25 91 0 0.84803832
Link 25 7 92 0 -0.04892983
GenomeEnd

GenomeStart 27992
Genome Fitness: 158.000000 
Neuron 1 1 0.00000000 1 0.00000000 0.00000000 0.00000000 0.00000000
Neuron 2 1 0.00000000 1 0.00000000 0.00000000 0.00000000 0.00000000
Neuron 3 1 0.00000000 1 0.00000000 0.00000000 0.00000000 0.00000000
Neuron 4 1 0.00000000 1 0.00000000 0.00000000 0.00000000 0.00000000
Neuron 5 1 0.00000000 1 0.00000000 0.00000000 0.00000000 0.00000000
Neuron 6 2 0.00000000 1 0.00000000 0.00000000 0.00000000 0.00000000
Neuron 7 4 1.00000000 2 3.02500000 0.00000000 0.00000000 0.00000000
Neuron 8 4 1.00000000 2 3.02500000 0.00000000 0.00000000 0.00000000
Neuron 11 3 0.50000000 10 1.37826869 0.00000000 0.00000000 0.00000000
Neuron 17 3 0.50000000 6 1.77006168 0.00000000 0.00000000 0.00000000
Neuron 25 3 0.75000000 3 4.36765468 0.00000000 0.00000000 0.00000000
Link 1 7 1 0 -0.86275695
Link 2 7 2 0 0.55396515
Link 3 7 3 0 0.44905269
Link 4 7 4 0 -0.45682611
Link 6 7 6 0 0.66937907
Link 1 8 7 0 0.28283531
Link 2 8 8 0 0.52995408
Link 3 8 9 0 -0.15122151
Link 4 8 10 0 0.17479366
Link 6 8 12 0 -0.59368909
Link 5 11 20 0 0.77989999
Link 5 17 45 0 1.05353114
Link 17 8 46 0 -1.03170264
Link 3 11 76 0 -0.05696097
Link 11 25 91 0 1.02046639
Link 25 7 92 0 0.05548428
GenomeEnd

GenomeStart 27993
Genome Fitness: 158.000000 
Neuron 1 1 0.00000000 1 0.00000000 0.00000000 0.00000000 0.00000000
Neuron 2 1 0.00000000 1 0.00000000 0.00000000 0.00000000 0.00000000
Neuron 3 1 0.00000000 1 0.00000000 0.00000000 0.00000000 0.00000000
Neuron 4 1 0.00000000 1 0.00000000 0.00000000 0.00000000 0.00000000
Neuron 5 1 0.00000000 1 0.00000000 0.00000000 0.00000000 0.00000000
Neuron 6 2 0.00000000 1 0.00000000 0.00000000 0.00000000 0.00000000
Neuron 7 4 1.00000000 2 3.02500000 0.00000000 0.00000000 0.00000000
Neuron 8 4 1.00000000 2 3.02500000 0.00000000 0.00000000 0.00000000
Neuron 11 3 0.50000000 10 1.37826869 0.00000000 0.00000000 0.00000000
Neuron 17 3 0.50000000 6 1.77006168 0.00000000 0.00000000 0.00000000
Neuron 25 3 0.75000000 3 4.36765468 0.00000000 0.00000000 0.00000000
Link 1 7 1 0 -0.87679743
Link 2 7 2 0 0.55396515
Link 3 7 3 0 0.39373707
Link 4 7 4 0 -0.51272366
Link 6 7 6 0 0.59752871
Link 1 8 7 0 0.26003915
Link 2 8 8 0 0.52995408
Link 3 8 9 0 -0.08925699
Link 4 8 10 0 0.14401787
Link 6 8 12 0 -0.65878509
Link 5 11 20 0 0.70075248
Link 5 17 45 0 1.05353114
Link 17 8 46 0 -0.96768590
Link 3 11 76 0 -0.20748680
Link 11 25 91 0 0.94914226
Link 25 7 92 0 0.12244278
GenomeEnd

GenomeStart 27994
Genome Fitness: 101.000000 
Neuron 1 1 0.00000000 1 0.00000000 0.00000000 0.00000000 0.00000000
Neuron 2 1 0.00000000 1 0.00000000 0.00000000 0.00000000 0.00000000
Neuron 3 1 0.00000000 1 0.00000000 0.00000000 0.00000000 0.00000000
Neuron 4 1 0.00000000 1 0.00000000 0.00000000 0.00000000 0.00000000
Neuron 5 1 0.00000000 1 0.00000000 0.00000000 0.00000000 0.00000000
Neuron 6 2 0.00000000 1 0.00000000 0.00000000 0.00000000 0.00000000
Neuron 7 4 1.00000000 2 3.02500000 0.00000000 0.00000000 0.00000000
Neuron 8 4 1.00000000 2 3.02500000 0.00000000 0.00000000 0.00000000
Neuron 11 3 0.50000000 10 1.37826869 0.00000000 0.00000000 0.00000000
Neuron 17 3 0.50000000 6 1.77006168 0.00000000 0.00000000 0.00000000
Neuron 25 3 0.75000000 4 4.36765468 0.00000000 0.00000000 0.00000000
Link 1 7 1 0 -0.86275695
Link 2 7 2 0 0.44031577
Link 3 7 3 0 0.55528234
Link 4 7 4 0 -0.51272366
Link 6 7 6 0 0.60291274
Link 1 8 7 0 0.42224134
Link 2 8 8 0 0.65091234
Link 3 8 9 0 0.44272059
Link 4 8 10 0 0.23522323
Link 6 8 12 0 -0.51373552
Link 5 11 20 0 0.79085907
Link 5 17 45 0 0.90759777
Link 17 8 46 0 -0.96768590
Link 3 11 76 0 -0.20748680
Link 11 25 91 0 0.99447577
Link 25 7 92 0 0.02078386
Link 17 7 145 0 0.18381759
GenomeEnd

GenomeStart 27995
Genome Fitness: 180.000000 
Neuron 1 1 0.00000000 1 0.00000000 0.00000000 0.00000000 0.00000000
Neuron 2 1 0.00000000 1 0.00000000 0.00000000 0.00000000 0.00000000
Neuron 3 1 0.00000000 1 0.00000000 0.00000000 0.00000000 0.00000000
Neuron 4 1 0.00000000 1 0.00000000 0.00000000 0.00000000 0.00000000
Neuron 5 1 0.00000000 1 0.00000000 0.00000000 0.00000000 0.00000000
Neuron 6 2 0.00000000 1 0.00000000 0.00000000 0.00000000 0.00000000
Neuron 7 4 1.00000000 2 3.02500000 0.00000000 0.00000000 0.00000000
Neuron 8 4 1.00000000 2 3.02500000 0.00000000 0.00000000 0.00000000
Neuron 11 3 0.50000000 10 1.37826869 0.00000000 0.00000000 0.00000000
Neuron 17 3 0.50000000 6 1.77006168 0.00000000 0.00000000 0.00000000
Neuron 18 3 0.50000000 1 5.90736614 0.00000000 0.00000000 0.00000000
Link 1 7 1 0 -0.61008628
Link 2 7 2 0 0.46034707
Link 3 7 3 0 0.29736657
Link 6 7 6 0 0.49994122
Link 1 8 7 0 0.55121922
Link 2 8 8 0 0.01400753
Link 3 8 9 0 0.21647879
Link 4 8 10 0 -0.23803974
Link 6 8 12 0 -0.57702179
Link 5 11 20 0 0.93428757
Link 11 7 21 0 -0.12592132
Link 5 17 45 0 0.97960797
Link 17 8 46 0 -1.09692273
Link 4 18 48 0 0.68241139
Link 18 7 49 0 0.19453982
Link 3 11 76 0 0.13176094
GenomeEnd

GenomeStart 27996
Genome Fitness: 177.000000 
Neuron 1 1 0.00000000 1 0.00000000 0.00000000 0.00000000 0.00000000
Neuron 2 1 0.00000000 1 0.00000000 0.00000000 0.00000000 0.00000000
Neuron 3 1 0.00000000 1 0.00000000 0.00000000 0.00000000 0.00000000
Neuron 4 1 0.00000000 1 0.00000000 0.00000000 0.00000000 0.00000000
Neuron 5 1 0.00000000 1 0.00000000 0.00000000 0.00000000 0.00000000
Neuron 6 2 0.00000000 1 0.00000000 0.00000000 0.00000000 0.00000000
Neuron 7 4 1.00000000 2 3.02500000 0.00000000 0.00000000 0.00000000
Neuron 8 4 1.00000000 2 3.02500000 0.00000000 0.00000000 0.00000000
Neuron 11 3 0.50000000 10 1.37826869 0.00000000 0.00000000 0.00000000
Neuron 17 3 0.50000000 6 1.77006168 0.00000000 0.00000000 0.00000000
Neuron 18 3 0.50000000 1 5.90736614 0.00000000 0.00000000 0.00000000
Link 1 7 1 0 -0.59632892
Link 2 7 2 0 0.46291821
Link 3 7 3 0 0.26445770
Link 6 7 6 0 0.53874590
Link 1 8 7 0 0.60010138
Link 2 8 8 0 0.01099513
Link 3 8 9 0 -0.06764734
Link 4 8 10 0 -0.28553710
Link 6 8 12 0 -0.53620307
Link 5 11 20 0 0.86502278
Link 11 7 21 0 -0.11974976
Link 5 17 45 0 1.13744144
Link 17 8 46 0 -1.11790449
Link 4 18 48 0 0.99540946
Link 18 7 49 0 0.18435804
Link 3 11 76 0 0.01437821
GenomeEnd

GenomeStart 27997
Genome Fitness: 136.000000 
Neuron 1 1 0.00000000 1 0.00000000 0.00000000 0.00000000 0.00000000
Neuron 2 1 0.00000000 1 0.00000000 0.00000000 0.00000000 0.00000000
Neuron 3 1 0.00000000 1 0.00000000 0.00000000 0.00000000 0.00000000
Neuron 4 1 0.00000000 1 0.00000000 0.00000000 0.00000000 0.00000000
Neuron 5 1 0.00000000 1 0.00000000 0.00000000 0.00000000 0.00000000
Neuron 6 2 0.00000000 1 0.00000000 0.00000000 0.00000000 0.00000000
Neuron 7 4 1.00000000 2 3.02500000 0.00000000 0.00000000 0.00000000
Neuron 8 4 1.00000000 2 3.02500000 0.00000000 0.00000000 0.00000000
Neuron 11 3 0.50000000 10 1.37826869 0.00000000 0.00000000 0.00000000
Neuron 17 3 0.50000000 6 1.77006168 0.00000000 0.00000000 0.00000000
Neuron 18 3 0.50000000 1 5.90736614 0.00000000 0.00000000 0.00000000
Link 1 7 1 0 -0.55394903
Link 2 7 2 0 0.46291821
Link 3 7 3 0 0.32721958
Link 6 7 6 0 0.07231019
Link 1 8 7 0 -0.15575739
Link 2 8 8 0 0.01099513
Link 3 8 9 0 -0.22477389
Link 4 8 10 0 -0.23919034
Link 6 8 12 0 -0.40897965
Link 5 11 20 0 0.97724416
Link 11 7 21 0 -0.09336082
Link 5 17 45 0 1.11227252
Link 17 8 46 0 -1.11790449
Link 4 18 48 0 0.98460104
Link 18 7 49 0 0.21695546
Link 3 11 76 0 0.06966900
GenomeEnd

GenomeStart 27998
Genome Fitness: 101.000000 
Neuron 1 1 0.00000000 1 0.00000000 0.00000000 0.00000000 0.00000000
Neuron 2 1 0.00000000 1 0.00000000 0.00000000 0.00000000 0.00000000
Neuron 3 1 0.00000000 1 0.00000000 0.00000000 0.00000000 0.00000000
Neuron 4 1 0.00000000 1 0.00000000 0.00000000 0.00000000 0.00000000
Neuron 5 1 0.00000000 1 0.00000000 0.00000000 0.00000000 0.00000000
Neuron 6 2 0.00000000 1 0.00000000 0.00000000 0.00000000 0.00000000
Neuron 7 4 1.00000000 2 3.02500000 0.00000000 0.00000000 0.00000000
Neuron 8 4 1.00000000 2 3.02500000 0.00000000 0.00000000 0.00000000
Neuron 11 3 0.50000000 10 1.37826869 0.00000000 0.00000000 0.00000000
Neuron 17 3 0.50000000 6 1.77006168 0.00000000 0.00000000 0.00000000
Neuron 18 3 0.50000000 1 5.90736614 0.00000000 0.00000000 0.00000000
Link 1 7 1 0 -0.56598845
Link 2 7 2 0 0.60020994
Link 3 7 3 0 0.22097402
Link 6 7 6 0 0.58015374
Link 1 8 7 0 0.55724802
Link 2 8 8 0 0.05704329
Link 3 8 9 0 -0.06621295
Link 4 8 10 0 -0.20655892
Link 6 8 12 0 -0.45826773
Link 5 11 20 0 0.79844047
Link 11 7 21 0 -0.03487812
Link 5 17 45 0 1.07434058
Link 17 8 46 0 -1.09746983
Link 4 18 48 0 0.69727843
Link 18 7 49 0 0.26786158
Link 3 11 76 0 0.03349707
GenomeEnd

GenomeStart 27999
Genome Fitness: 125.000000 
Neuron 1 1 0.00000000 1 0.00000000 0.00000000 0.00000000 0.00000000
Neuron 2 1 0.00000000 1 0.00000000 0.00000000 0.00000000 0.00000000
Neuron 3 1 0.00000000 1 0.00000000 0.00000000 0.00000000 0.00000000
Neuron 4 1 0.00000000 1 0.00000000 0.00000000 0.00000000 0.00000000
Neuron 5 1 0.00000000 1 0.00000000 0.00000000 0.00000000 0.00000000
Neuron 6 2 0.00000000 1 0.00000000 0.00000000 0.00000000 0.00000000
Neuron 7 4 1.00000000 2 3.02500000 0.00000000 0.00000000 0.00000000
Neuron 8 4 1.00000000 2 3.02500000 0.00000000 0.00000000 0.00000000
Neuron 11 3 0.50000000 10 1.37826869 0.00000000 0.00000000 0.00000000
Neuron 17 3 0.50000000 6 1.77006168 0.00000000 0.00000000 0.00000000
Neuron 18 3 0.50000000 1 5.90736614 0.00000000 0.00000000 0.00000000
Link 1 7 1 0 -0.45961463
Link 2 7 2 0 0.45158370
Link 3 7 3 0 0.31604203
Link 6 7 6 0 0.57050565
Link 1 8 7 0 0.57903659
Link 2 8 8 0 -0.04129731
Link 3 8 9 0 -0.06308461
Link 4 8 10 0 -0.27211360
Link 6 8 12 0 -0.50216258
Link 5 11 20 0 -0.20447842
Link 11 7 21 0 -0.25500160
Link 5 17 45 0 1.10241003
Link 17 8 46 0 -0.34194030
Link 4 18 48 0 0.74541972
Link 18 7 49 0 0.27388716
Link 3 11 76 0 0.05237463
GenomeEnd

GenomeStart 28000
Genome Fitness: 162.000000 
Neuron 1 1 0.00000000 1 0.00000000 0.00000000 0.00000000 0.00000000
Neuron 2 1 0.00000000 1 0.00000000 0.00000000 0.00000000 0.00000000
Neuron 3 1 0.00000000 1 0.00000000 0.00000000 0.00000000 0.00000000
Neuron 4 1 0.00000000 1 0.00000000 0.00000000 0.00000000 0.00000000
Neuron 5 1 0.00000000 1 0.00000000 0.00000000 0.00000000 0.00000000
Neuron 6 2 0.00000000 1 0.00000000 0.00000000 0.00000000 0.00000000
Neuron 7 4 1.00000000 2 3.02500000 0.00000000 0.00000000 0.00000000
Neuron 8 4 1.00000000 2 3.02500000 0.00000000 0.00000000 0.00000000
Neuron 11 3 0.50000000 10 1.37826869 0.00000000 0.00000000 0.00000000
Neuron 17 3 0.50000000 6 1.77006168 0.00000000 0.00000000 0.00000000
Neuron 18 3 0.50000000 1 5.90736614 0.00000000 0.00000000 0.00000000
Link 1 7 1 0 -0.60550049
Link 2 7 2 0 0.46120412
Link 3 7 3 0 0.26569323
Link 6 7 6 0 0.51287611
Link 1 8 7 0 0.59307978
Link 2 8 8 0 0.01581498
Link 3 8 9 0 -0.06308461
Link 4 8 10 0 -0.26653816
Link 6 8 12 0 -0.55253056
Link 5 11 20 0 0.87056779
Link 11 7 21 0 -0.12221838
Link 5 17 45 0 1.13744144
Link 17 8 46 0 -1.10111908
Link 4 18 48 0 0.82729255
Link 18 7 49 0 0.19250346
Link 3 11 76 0 -0.01873455
GenomeEnd

GenomeStart 28001
Genome Fitness: 157.000000 
Neuron 1 1 0.00000000 1 0.00000000 0.00000000 0.00000000 0.00000000
Neuron 2 1 0.00000000 1 0.00000000 0.00000000 0.00000000 0.00000000
Neuron 3 1 0.00000000 1 0.00000000 0.00000000 0.00000000 0.00000000
Neuron 4 1 0.00000000 1 0.00000000 0.00000000 0.00000000 0.00000000
Neuron 5 1 0.00000000 1 0.00000000 0.00000000 0.00000000 0.00000000
Neuron 6 2 0.00000000 1 0.00000000 0.00000000 0.00000000 0.00000000
Neuron 7 4 1.00000000 2 3.02500000 0.00000000 0.00000000 0.00000000
Neuron 8 4 1.00000000 2 3.02500000 0.00000000 0.00000000 0.00000000
Neuron 11 3 0.50000000 10 1.37826869 0.00000000 0.00000000 0.00000000
Neuron 17 3 0.50000000 6 1.77006168 0.00000000 0.00000000 0.00000000
Neuron 18 3 0.50000000 1 5.90736614 0.00000000 0.00000000 0.00000000
Link 1 7 1 0 -0.56518051
Link 2 7 2 0 0.39986730
Link 3 7 3 0 0.27318474
Link 6 7 6 0 0.39865568
Link 1 8 7 0 0.65484217
Link 2 8 8 0 0.16024795
Link 3 8 9 0 0.15863967
Link 4 8 10 0 -0.28369918
Link 6 8 12 0 -0.59393315
Link 5 11 20 0 0.83720867
Link 11 7 21 0 -0.22270760
Link 5 17 45 0 1.06826310
Link 17 8 46 0 -1.03067223
Link 4 18 48 0 0.91433631
Link 18 7 49 0 -0.23553874
Link 3 11 76 0 0.06216701
GenomeEnd

GenomeStart 28002
Genome Fitness: 180.000000 
Neuron 1 1 0.00000000 1 0.00000000 0.00000000 0.00000000 0.00000000
Neuron 2 1 0.00000000 1 0.00000000 0.00000000 0.00000000 0.00000000
Neuron 3 1 0.00000000 1 0.00000000 0.00000000 0.00000000 0.00000000
Neuron 4 1 0.00000000 1 0.00000000 0.00000000 0.00000000 0.00000000
Neuron 5 1 0.00000000 1 0.00000000 0.00000000 0.00000000 0.00000000
Neuron 6 2 0.00000000 1 0.00000000 0.00000000 0.00000000 0.00000000
Neuron 7 4 1.00000000 2 3.02500000 0.00000000 0.00000000 0.00000000
Neuron 8 4 1.00000000 2 3.02500000 0.00000000 0.00000000 0.00000000
Neuron 11 3 0.50000000 10 1.37826869 0.00000000 0.00000000 0.00000000
Neuron 17 3 0.50000000 6 1.77006168 0.00000000 0.00000000 0.00000000
Neuron 18 3 0.50000000 1 5.90736614 0.00000000 0.00000000 0.00000000
Link 1 7 1 0 -0.61008628
Link 2 7 2 0 0.46034707
Link 3 7 3 0 0.29736657
Link 6 7 6 0 0.49994122
Link 1 8 7 0 0.55121922
Link 2 8 8 0 0.01400753
Link 3 8 9 0 0.21647879
Link 4 8 10 0 -0.23803974
Link 6 8 12 0 -0.57702179
Link 5 11 20 0 0.93428757
Link 11 7 21 0 -0.12592132
Link 11 8 43 0 -0.04432848
Link 5 17 45 0 0.97960797
Link 17 8 46 0 -1.09692273
Link 4 18 48 0 0.68241139
Link 18 7 49 0 0.19453982
Link 3 11 76 0 0.13176094
GenomeEnd

GenomeStart 28003
Genome Fitness: 158.000000 
Neuron 1 1 0.00000000 1 0.00000000 0.00000000 0.00000000 0.00000000
Neuron 2 1 0.00000000 1 0.00000000 0.00000000 0.00000000 0.00000000
Neuron 3 1 0.00000000 1 0.00000000 0.00000000 0.00000000 0.00000000
Neuron 4 1 0.00000000 1 0.00000000 0.00000000 0.00000000 0.00000000
Neuron 5 1 0.00000000 1 0.00000000 0.00000000 0.00000000 0.00000000
Neuron 6 2 0.00000000 1 0.00000000 0.00000000 0.00000000 0.00000000
Neuron 7 4 1.00000000 2 3.02500000 0.00000000 0.00000000 0.00000000
Neuron 8 4 1.00000000 2 3.02500000 0.00000000 0.00000000 0.00000000
Neuron 11 3 0.50000000 10 1.37826869 0.00000000 0.00000000 0.00000000
Neuron 17 3 0.50000000 6 1.77006168 0.00000000 0.00000000 0.00000000
Neuron 18 3 0.50000000 1 5.90736614 0.00000000 0.00000000 0.00000000
Link 1 7 1 0 -0.60091471
Link 2 7 2 0 0.34842669
Link 3 7 3 0 0.20942497
Link 6 7 6 0 0.32326812
Link 1 8 7 0 0.53881178
Link 2 8 8 0 0.01280257
Link 3 8 9 0 -0.06536597
Link 4 8 10 0 -0.28518703
Link 6 8 12 0 -0.64040179
Link 5 11 20 0 0.86779528
Link 11 7 21 0 -0.12345270
Link 5 17 45 0 1.08483028
Link 17 8 46 0 -1.10531543
Link 4 18 48 0 0.74323409
Link 18 7 49 0 0.26641892
Link 3 11 76 0 -0.00217817
GenomeEnd

GenomeStart 28004
Genome Fitness: 155.000000 
Neuron 1 1 0.00000000 1 0.00000000 0.00000000 0.00000000 0.00000000
Neuron 2 1 0.00000000 1 0.00000000 0.00000000 0.00000000 0.00000000
Neuron 3 1 0.00000000 1 0.00000000 0.00000000 0.00000000 0.00000000
Neuron 4 1 0.00000000 1 0.00000000 0.00000000 0.00000000 0.00000000
Neuron 5 1 0.00000000 1 0.00000000 0.00000000 0.00000000 0.00000000
Neuron 6 2 0.00000000 1 0.00000000 0.00000000 0.00000000 0.00000000
Neuron 7 4 1.00000000 2 3.02500000 0.00000000 0.00000000 0.00000000
Neuron 8 4 1.00000000 2 3.02500000 0.00000000 0.00000000 0.00000000
Neuron 11 3 0.50000000 10 1.37826869 0.00000000 0.00000000 0.00000000
Neuron 17 3 0.50000000 6 1.77006168 0.00000000 0.00000000 0.00000000
Neuron 18 3 0.50000000 1 5.90736614 0.00000000 0.00000000 0.00000000
Link 1 7 1 0 -0.58908656
Link 2 7 2 0 0.46206117
Link 3 7 3 0 0.25710955
Link 6 7 6 0 0.52581100
Link 1 8 7 0 0.61026385
Link 2 8 8 0 0.09905123
Link 3 8 9 0 -0.06536597
Link 4 8 10 0 -0.25703869
Link 6 8 12 0 -0.47358033
Link 5 11 20 0 0.84396048
Link 11 7 21 0 -0.10949124
Link 5 17 45 0 1.08483028
Link 17 8 46 0 -1.10531543
Link 4 18 48 0 0.99636013
Link 18 7 49 0 0.26055815
Link 3 11 76 0 -0.00217817
GenomeEnd

GenomeStart 28005
Genome Fitness: 134.000000 
Neuron 1 1 0.00000000 1 0.00000000 0.00000000 0.00000000 0.00000000
Neuron 2 1 0.00000000 1 0.00000000 0.00000000 0.00000000 0.00000000
Neuron 3 1 0.00000000 1 0.00000000 0.00000000 0.00000000 0.00000000
Neuron 4 1 0.00000000 1 0.00000000 0.00000000 0.00000000 0.00000000
Neuron 5 1 0.00000000 1 0.00000000 0.00000000 0.00000000 0.00000000
Neuron 6 2 0.00000000 1 0.00000000 0.00000000 0.00000000 0.00000000
Neuron 7 4 1.00000000 2 3.02500000 0.00000000 0.00000000 0.00000000
Neuron 8 4 1.00000000 2 3.02500000 0.00000000 0.00000000 0.00000000
Neuron 11 3 0.50000000 10 1.37826869 0.00000000 0.00000000 0.00000000
Neuron 17 3 0.50000000 6 1.77006168 0.00000000 0.00000000 0.00000000
Neuron 18 3 0.50000000 1 5.90736614 0.00000000 0.00000000 0.00000000
Link 1 7 1 0 -0.45011301
Link 2 7 2 0 0.40745579
Link 3 7 3 0 0.43440509
Link 6 7 6 0 0.39855984
Link 1 8 7 0 0.67323338
Link 2 8 8 0 0.13084692
Link 3 8 9 0 0.02939066
Link 4 8 10 0 -0.27002313
Link 6 8 12 0 -0.59980790
Link 5 11 20 0 0.85197753
Link 11 7 21 0 -0.06093114
Link 5 17 45 0 1.09727525
Link 17 8 46 0 -1.02188418
Link 4 18 48 0 1.15515169
Link 18 7 49 0 0.21917686
Link 3 11 76 0 0.11243884
GenomeEnd

GenomeStart 28006
Genome Fitness: 139.000000 
Neuron 1 1 0.00000000 1 0.00000000 0.00000000 0.00000000 0.00000000
Neuron 2 1 0.00000000 1 0.00000000 0.00000000 0.00000000 0.00000000
Neuron 3 1 0.00000000 1 0.00000000 0.00000000 0.00000000 0.00000000
Neuron 4 1 0.00000000 1 0.00000000 0.00000000 0.00000000 0.00000000
Neuron 5 1 0.00000000 1 0.00000000 0.00000000 0.00000000 0.00000000
Neuron 6 2 0.00000000 1 0.00000000 0.00000000 0.00000000 0.00000000
Neuron 7 4 1.00000000 2 3.02500000 0.00000000 0.00000000 0.00000000
Neuron 8 4 1.00000000 2 3.02500000 0.00000000 0.00000000 0.00000000
Neuron 11 3 0.50000000 10 1.37826869 0.00000000 0.00000000 0.00000000
Neuron 17 3 0.50000000 6 1.77006168 0.00000000 0.00000000 0.00000000
Neuron 18 3 0.50000000 1 5.90736614 0.00000000 0.00000000 0.00000000
Link 1 7 1 0 -0.56518051
Link 2 7 2 0 0.46034707
Link 3 7 3 0 0.26646762
Link 6 7 6 0 0.49994122
Link 1 8 7 0 0.59941094
Link 2 8 8 0 0.02661732
Link 3 8 9 0 0.21647879
Link 4 8 10 0 -0.22713421
Link 6 8 12 0 -0.57702179
Link 5 11 20 0 0.85434338
Link 11 7 21 0 -0.12592132
Link 5 17 45 0 1.09728472
Link 17 8 46 0 -1.09692273
Link 4 18 48 0 0.83456812
Link 18 7 49 0 0.28142149
Link 3 11 76 0 0.03676800
GenomeEnd

GenomeStart 28007
Genome Fitness: 162.000000 
Neuron 1 1 0.00000000 1 0.00000000 0.00000000 0.00000000 0.00000000
Neuron 2 1 0.00000000 1 0.00000000 0.00000000 0.00000000 0.00000000
Neuron 3 1 0.00000000 1 0.00000000 0.00000000 0.00000000 0.00000000
Neuron 4 1 0.00000000 1 0.00000000 0.00000000 0.00000000 0.00000000
Neuron 5 1 0.00000000 1 0.00000000 0.00000000 0.00000000 0.00000000
Neuron 6 2 0.00000000 1 0.00000000 0.00000000 0.00000000 0.00000000
Neuron 7 4 1.00000000 2 3.02500000 0.00000000 0.00000000 0.00000000
Neuron 8 4 1.00000000 2 3.02500000 0.00000000 0.00000000 0.00000000
Neuron 11 3 0.50000000 10 1.37826869 0.00000000 0.00000000 0.00000000
Neuron 17 3 0.50000000 6 1.77006168 0.00000000 0.00000000 0.00000000
Neuron 18 3 0.50000000 1 5.90736614 0.00000000 0.00000000 0.00000000
Link 1 7 1 0 -0.59729353
Link 2 7 2 0 0.45557259
Link 3 7 3 0 0.26140139
Link 6 7 6 0 0.47000971
Link 1 8 7 0 0.60167182
Link 2 8 8 0 0.05622814
Link 3 8 9 0 -0.03772415
Link 4 8 10 0 -0.33043371
Link 6 8 12 0 -0.51305545
Link 5 11 20 0 0.85726413
Link 11 7 21 0 -0.11585481
Link 5 17 45 0 1.09005232
Link 17 8 46 0 -1.01453583
Link 4 18 48 0 0.91182634
Link 18 7 49 0 0.22653081
Link 3 11 76 0 0.01780382
GenomeEnd

GenomeStart 28008
Genome Fitness: 175.000000 
Neuron 1 1 0.00000000 1 0.00000000 0.00000000 0.00000000 0.00000000
Neuron 2 1 0.00000000 1 0.00000000 0.00000000 0.00000000 0.00000000
Neuron 3 1 0.00000000 1 0.00000000 0.00000000 0.00000000 0.00000000
Neuron 4 1 0.00000000 1 0.00000000 0.00000000 0.00000000 0.00000000
Neuron 5 1 0.00000000 1 0.00000000 0.00000000 0.00000000 0.00000000
Neuron 6 2 0.00000000 1 0.00000000 0.00000000 0.00000000 0.00000000
Neuron 7 4 1.00000000 2 3.02500000 0.00000000 0.00000000 0.00000000
Neuron 8 4 1.00000000 2 3.02500000 0.00000000 0.00000000 0.00000000
Neuron 10 3 0.50000000 5 3.43278803 0.00000000 0.00000000 0.00000000
Neuron 11 3 0.50000000 10 1.37826869 0.00000000 0.00000000 0.00000000
Neuron 12 3 0.50000000 8 0.97732097 0.00000000 0.00000000 0.00000000
Neuron 19 3 0.75000000 7 4.16682647 0.00000000 0.00000000 0.00000000
Neuron 21 3 0.50000000 7 5.91623317 0.00000000 0.00000000 0.00000000
Neuron 23 3 0.25000000 5 5.34383137 0.00000000 0.00000000 0.00000000
Link 1 7 1 0 -0.70611891
Link 2 7 2 0 0.71508594
Link 4 7 4 0 0.07747333
Link 6 7 6 0 0.55722543
Link 3 8 9 0 0.55463139
Link 4 8 10 0 0.29403075
Link 5 8 11 0 -1.07944763
Link 6 8 12 0 -0.78066930
Link 1 10 17 0 0.82683566
Link 10 8 18 0 -0.17726921
Link 11 7 21 0 0.05894319
Link 3 12 23 0 0.68350437
Link 12 19 51 0 0.97991931
Link 19 7 52 0 0.30373460
Link 2 21 63 0 0.61268849
Link 21 8 64 0 0.32484198
Link 5 23 84 0 1.09769066
Link 23 11 85 0 0.38960490
Link 2 19 139 0 0.64912125
Link 21 10 183 0 0.15271947
GenomeEnd

GenomeStart 28009
Genome Fitness: 175.000000 
Neuron 1 1 0.00000000 1 0.00000000 0.00000000 0.00000000 0.00000000
Neuron 2 1 0.00000000 1 0.00000000 0.00000000 0.00000000 0.00000000
Neuron 3 1 0.00000000 1 0.00000000 0.00000000 0.00000000 0.00000000
Neuron 4 1 0.00000000 1 0.00000000 0.00000000 0.00000000 0.00000000
Neuron 5 1 0.00000000 1 0.00000000 0.00000000 0.00000000 0.00000000
Neuron 6 2 0.00000000 1 0.00000000 0.00000000 0.00000000 0.00000000
Neuron 7 4 1.00000000 2 3.02500000 0.00000000 0.00000000 0.00000000
Neuron 8 4 1.00000000 2 3.02500000 0.00000000 0.00000000 0.00000000
Neuron 10 3 0.50000000 5 3.43278803 0.00000000 0.00000000 0.00000000
Neuron 11 3 0.50000000 10 1.37826869 0.00000000 0.00000000 0.00000000
Neuron 12 3 0.50000000 8 0.97732097 0.00000000 0.00000000 0.00000000
Neuron 19 3 0.75000000 7 4.16682647 0.00000000 0.00000000 0.00000000
Neuron 21 3 0.50000000 7 5.91623317 0.00000000 0.00000000 0.00000000
Neuron 23 3 0.25000000 5 5.34383137 0.00000000 0.00000000 0.00000000
Link 1 7 1 0 -0.70611891
Link 2 7 2 0 0.71508594
Link 4 7 4 0 0.07747333
Link 6 7 6 0 0.55722543
Link 3 8 9 0 0.55463139
Link 4 8 10 0 0.29403075
Link 5 8 11 0 -1.07944763
Link 6 8 12 0 -0.78066930
Link 1 10 17 0 0.82683566
Link 10 8 18 0 -0.17726921
Link 11 7 21 0 0.05894319
Link 3 12 23 0 0.68350437
Link 12 19 51 0 0.97991931
Link 19 7 52 0 0.30373460
Link 2 21 63 0 0.61268849
Link 21 8 64 0 0.32484198
Link 2 11 79 0 -0.19035544
Link 5 23 84 0 1.09769066
Link 23 11 85 0 0.38960490
Link 2 19 139 0 0.64912125
Link 21 10 183 0 0.15271947
GenomeEnd

GenomeStart 28010
Genome Fitness: 161.000000 
Neuron 1 1 0.00000000 1 0.00000000 0.00000000 0.00000000 0.00000000
Neuron 2 1 0.00000000 1 0.00000000 0.00000000 0.00000000 0.00000000
Neuron 3 1 0.00000000 1 0.00000000 0.00000000 0.00000000 0.00000000
Neuron 4 1 0.00000000 1 0.00000000 0.00000000 0.00000000 0.00000000
Neuron 5 1 0.00000000 1 0.00000000 0.00000000 0.00000000 0.00000000
Neuron 6 2 0.00000000 1 0.00000000 0.00000000 0.00000000 0.00000000
Neuron 7 4 1.00000000 2 3.02500000 0.00000000 0.00000000 0.00000000
Neuron 8 4 1.00000000 2 3.02500000 0.00000000 0.00000000 0.00000000
Neuron 10 3 0.50000000 5 3.43278803 0.00000000 0.00000000 0.00000000
Neuron 11 3 0.50000000 10 1.37826869 0.00000000 0.00000000 0.00000000
Neuron 12 3 0.50000000 8 0.97732097 0.00000000 0.00000000 0.00000000
Neuron 19 3 0.75000000 7 4.16682647 0.00000000 0.00000000 0.00000000
Neuron 21 3 0.50000000 7 5.91623317 0.00000000 0.00000000 0.00000000
Neuron 23 3 0.25000000 5 5.34383137 0.00000000 0.00000000 0.00000000
Link 1 7 1 0 -0.63509843
Link 2 7 2 0 0.76464024
Link 4 7 4 0 0.07363578
Link 6 7 6 0 0.55722543
Link 3 8 9 0 0.55950872
Link 4 8 10 0 0.37457052
Link 5 8 11 0 -1.08479014
Link 6 8 12 0 -0.81338649
Link 1 10 17 0 0.81401771
Link 10 8 18 0 -0.16737107
Link 11 7 21 0 0.05894319
Link 3 12 23 0 0.68350437
Link 12 19 51 0 0.97991931
Link 19 7 52 0 0.30373460
Link 2 21 63 0 0.59190169
Link 21 8 64 0 0.36170859
Link 5 23 84 0 0.68114149
Link 23 11 85 0 0.39117796
Link 2 19 139 0 0.64912125
Link 21 10 183 0 0.16941916
GenomeEnd

GenomeStart 28011
Genome Fitness: 157.000000 
Neuron 1 1 0.00000000 1 0.00000000 0.00000000 0.00000000 0.00000000
Neuron 2 1 0.00000000 1 0.00000000 0.00000000 0.00000000 0.00000000
Neuron 3 1 0.00000000 1 0.00000000 0.00000000 0.00000000 0.00000000
Neuron 4 1 0.00000000 1 0.00000000 0.00000000 0.00000000 0.00000000
Neuron 5 1 0.00000000 1 0.00000000 0.00000000 0.00000000 0.00000000
Neuron 6 2 0.00000000 1 0.00000000 0.00000000 0.00000000 0.00000000
Neuron 7 4 1.00000000 2 3.02500000 0.00000000 0.00000000 0.00000000
Neuron 8 4 1.00000000 2 3.02500000 0.00000000 0.00000000 0.00000000
Neuron 10 3 0.50000000 5 3.43278803 0.00000000 0.00000000 0.00000000
Neuron 11 3 0.50000000 10 1.37826869 0.00000000 0.00000000 0.00000000
Neuron 12 3 0.50000000 8 0.97732097 0.00000000 0.00000000 0.00000000
Neuron 19 3 0.75000000 7 4.16682647 0.00000000 0.00000000 0.00000000
Neuron 21 3 0.50000000 7 5.91623317 0.00000000 0.00000000 0.00000000
Neuron 23 3 0.25000000 5 5.34383137 0.00000000 0.00000000 0.00000000
Link 1 7 1 0 -0.70611891
Link 2 7 2 0 0.71508594
Link 4 7 4 0 0.14925738
Link 6 7 6 0 0.55722543
Link 3 8 9 0 0.53561248
Link 4 8 10 0 0.52144898
Link 5 8 11 0 -1.07944763
Link 6 8 12 0 -0.78066930
Link 1 10 17 0 0.82683566
Link 10 8 18 0 -0.17726921
Link 11 7 21 0 0.05894319
Link 3 12 23 0 0.90481362
Link 12 19 51 0 1.00821044
Link 19 7 52 0 0.30373460
Link 2 21 63 0 0.61268849
Link 21 8 64 0 0.27513291
Link 5 23 84 0 1.18396156
Link 23 11 85 0 0.44325965
Link 2 19 139 0 0.63483745
Link 21 10 183 0 0.24830450
GenomeEnd

GenomeStart 28012
Genome Fitness: 175.000000 
Neuron 1 1 0.00000000 1 0.00000000 0.00000000 0.00000000 0.00000000
Neuron 2 1 0.00000000 1 0.00000000 0.00000000 0.00000000 0.00000000
Neuron 3 1 0.00000000 1 0.00000000 0.00000000 0.00000000 0.00000000
Neuron 4 1 0.00000000 1 0.00000000 0.00000000 0.00000000 0.00000000
Neuron 5 1 0.00000000 1 0.00000000 0.00000000 0.00000000 0.00000000
Neuron 6 2 0.00000000 1 0.00000000 0.00000000 0.00000000 0.00000000
Neuron 7 4 1.00000000 2 3.02500000 0.00000000 0.00000000 0.00000000
Neuron 8 4 1.00000000 2 3.02500000 0.00000000 0.00000000 0.00000000
Neuron 10 3 0.50000000 5 3.43278803 0.00000000 0.00000000 0.00000000
Neuron 11 3 0.50000000 10 1.37826869 0.00000000 0.00000000 0.00000000
Neuron 12 3 0.50000000 8 0.97732097 0.00000000 0.00000000 0.00000000
Neuron 19 3 0.75000000 7 4.16682647 0.00000000 0.00000000 0.00000000
Neuron 21 3 0.50000000 7 5.91623317 0.00000000 0.00000000 0.00000000
Neuron 23 3 0.25000000 5 5.34383137 0.00000000 0.00000000 0.00000000
Link 1 7 1 0 -0.70611891
Link 2 7 2 0 0.71508594
Link 4 7 4 0 0.07747333
Link 6 7 6 0 0.55722543
Link 3 8 9 0 0.55463139
Link 4 8 10 0 0.29403075
Link 5 8 11 0 -1.07944763
Link 6 8 12 0 -0.78066930
Link 1 10 17 0 0.82683566
Link 10 8 18 0 -0.17726921
Link 11 7 21 0 0.05894319
Link 3 12 23 0 0.68350437
Link 12 19 51 0 0.97991931
Link 19 7 52 0 0.30373460
Link 2 21 63 0 0.61268849
Link 21 8 64 0 0.32484198
Link 5 23 84 0 1.09769066
Link 23 11 85 0 0.38960490
Link 2 19 139 0 0.64912125
Link 21 10 183 0 0.15271947
GenomeEnd

GenomeStart 28013
Genome Fitness: 101.000000 
Neuron 1 1 0.00000000 1 0.00000000 0.00000000 0.00000000 0.00000000
Neuron 2 1 0.00000000 1 0.00000000 0.00000000 0.00000000 0.00000000
Neuron 3 1 0.00000000 1 0.00000000 0.00000000 0.00000000 0.00000000
Neuron 4 1 0.00000000 1 0.00000000 0.00000000 0.00000000 0.00000000
Neuron 5 1 0.00000000 1 0.00000000 0.00000000 0.00000000 0.00000000
Neuron 6 2 0.00000000 1 0.00000000 0.00000000 0.00000000 0.00000000
Neuron 7 4 1.00000000 2 3.02500000 0.00000000 0.00000000 0.00000000
Neuron 8 4 1.00000000 2 3.02500000 0.00000000 0.00000000 0.00000000
Neuron 10 3 0.50000000 5 3.43278803 0.00000000 0.00000000 0.00000000
Neuron 11 3 0.50000000 10 1.37826869 0.00000000 0.00000000 0.00000000
Neuron 12 3 0.50000000 8 0.97732097 0.00000000 0.00000000 0.00000000
Neuron 19 3 0.75000000 7 4.16682647 0.00000000 0.00000000 0.00000000
Neuron 21 3 0.50000000 7 5.91623317 0.00000000 0.00000000 0.00000000
Neuron 23 3 0.25000000 5 5.34383137 0.00000000 0.00000000 0.00000000
Link 1 7 1 0 -0.68305700
Link 2 7 2 0 0.78980966
Link 4 7 4 0 0.02490171
Link 6 7 6 0 0.58922609
Link 3 8 9 0 0.48681373
Link 4 8 10 0 0.41098462
Link 5 8 11 0 -1.13023538
Link 6 8 12 0 -0.75938120
Link 1 10 17 0 0.81548071
Link 10 8 18 0 -0.24939997
Link 11 7 21 0 0.04586623
Link 3 12 23 0 0.63448225
Link 12 19 51 0 0.64387305
Link 19 7 52 0 0.28003115
Link 2 21 63 0 0.59003852
Link 21 8 64 0 0.32719699
Link 2 11 79 0 -0.19035544
Link 5 23 84 0 0.69712379
Link 23 11 85 0 0.40967418
Link 2 19 139 0 0.63508812
Link 21 10 183 0 0.19318185
GenomeEnd

GenomeStart 28014
Genome Fitness: 101.000000 
Neuron 1 1 0.00000000 1 0.00000000 0.00000000 0.00000000 0.00000000
Neuron 2 1 0.00000000 1 0.00000000 0.00000000 0.00000000 0.00000000
Neuron 3 1 0.00000000 1 0.00000000 0.00000000 0.00000000 0.00000000
Neuron 4 1 0.00000000 1 0.00000000 0.00000000 0.00000000 0.00000000
Neuron 5 1 0.00000000 1 0.00000000 0.00000000 0.00000000 0.00000000
Neuron 6 2 0.00000000 1 0.00000000 0.00000000 0.00000000 0.00000000
Neuron 7 4 1.00000000 2 3.02500000 0.00000000 0.00000000 0.00000000
Neuron 8 4 1.00000000 2 3.02500000 0.00000000 0.00000000 0.00000000
Neuron 10 3 0.50000000 5 3.43278803 0.00000000 0.00000000 0.00000000
Neuron 11 3 0.50000000 10 1.37826869 0.00000000 0.00000000 0.00000000
Neuron 12 3 0.50000000 8 0.97732097 0.00000000 0.00000000 0.00000000
Neuron 19 3 0.75000000 7 4.16682647 0.00000000 0.00000000 0.00000000
Neuron 21 3 0.50000000 7 5.91623317 0.00000000 0.00000000 0.00000000
Neuron 23 3 0.25000000 5 5.34383137 0.00000000 0.00000000 0.00000000
Link 1 7 1 0 -0.59160857
Link 2 7 2 0 0.80284037
Link 4 7 4 0 0.11414140
Link 6 7 6 0 0.51896733
Link 3 8 9 0 0.08708146
Link 4 8 10 0 0.34546764
Link 5 8 11 0 -1.10676880
Link 6 8 12 0 -0.83751957
Link 1 10 17 0 0.80793041
Link 10 8 18 0 -0.17112576
Link 11 7 21 0 0.01555905
Link 3 12 23 0 0.48374917
Link 12 19 51 0 0.88958457
Link 19 7 52 0 0.26900799
Link 2 21 63 0 0.57020616
Link 21 8 64 0 0.36170859
Link 5 23 84 0 0.68114149
Link 23 11 85 0 0.36059484
Link 2 19 139 0 0.67504296
Link 21 10 183 0 0.12260563
GenomeEnd

GenomeStart 28015
Genome Fitness: 157.000000 
Neuron 1 1 0.00000000 1 0.00000000 0.00000000 0.00000000 0.00000000
Neuron 2 1 0.00000000 1 0.00000000 0.00000000 0.00000000 0.00000000
Neuron 3 1 0.00000000 1 0.00000000 0.00000000 0.00000000 0.00000000
Neuron 4 1 0.00000000 1 0.00000000 0.00000000 0.00000000 0.00000000
Neuron 5 1 0.00000000 1 0.00000000 0.00000000 0.00000000 0.00000000
Neuron 6 2 0.00000000 1 0.00000000 0.00000000 0.00000000 0.00000000
Neuron 7 4 1.00000000 2 3.02500000 0.00000000 0.00000000 0.00000000
Neuron 8 4 1.00000000 2 3.02500000 0.00000000 0.00000000 0.00000000
Neuron 10 3 0.50000000 5 3.43278803 0.00000000 0.00000000 0.00000000
Neuron 11 3 0.50000000 10 1.37826869 0.00000000 0.00000000 0.00000000
Neuron 12 3 0.50000000 8 0.97732097 0.00000000 0.00000000 0.00000000
Neuron 19 3 0.75000000 7 4.16682647 0.00000000 0.00000000 0.00000000
Neuron 21 3 0.50000000 7 5.91623317 0.00000000 0.00000000 0.00000000
Neuron 23 3 0.25000000 5 5.34383137 0.00000000 0.00000000 0.00000000
Link 1 7 1 0 -0.70611891
Link 2 7 2 0 0.81419455
Link 4 7 4 0 0.07747333
Link 6 7 6 0 0.55722543
Link 3 8 9 0 0.55463139
Link 4 8 10 0 0.45511028
Link 5 8 11 0 -1.09013265
Link 6 8 12 0 -0.84610368
Link 1 10 17 0 0.80119975
Link 10 8 18 0 -0.15747293
Link 11 7 21 0 0.05894319
Link 3 12 23 0 0.68350437
Link 12 19 51 0 0.97991931
Link 19 7 52 0 0.30373460
Link 2 21 63 0 0.61268849
Link 21 8 64 0 0.39857519
Link 2 11 79 0 -0.19035544
Link 5 23 84 0 0.26459233
Link 23 11 85 0 0.39275102
Link 2 19 139 0 0.64912125
Link 21 10 183 0 0.18611884
GenomeEnd

GenomeStart 28016
Genome Fitness: 101.000000 
Neuron 1 1 0.00000000 1 0.00000000 0.00000000 0.00000000 0.00000000
Neuron 2 1 0.00000000 1 0.00000000 0.00000000 0.00000000 0.00000000
Neuron 3 1 0.00000000 1 0.00000000 0.00000000 0.00000000 0.00000000
Neuron 4 1 0.00000000 1 0.00000000 0.00000000 0.00000000 0.00000000
Neuron 5 1 0.00000000 1 0.00000000 0.00000000 0.00000000 0.00000000
Neuron 6 2 0.00000000 1 0.00000000 0.00000000 0.00000000 0.00000000
Neuron 7 4 1.00000000 2 3.02500000 0.00000000 0.00000000 0.00000000
Neuron 8 4 1.00000000 2 3.02500000 0.00000000 0.00000000 0.00000000
Neuron 10 3 0.50000000 5 3.43278803 0.00000000 0.00000000 0.00000000
Neuron 11 3 0.50000000 10 1.37826869 0.00000000 0.00000000 0.00000000
Neuron 12 3 0.50000000 8 0.97732097 0.00000000 0.00000000 0.00000000
Neuron 19 3 0.75000000 7 4.16682647 0.00000000 0.00000000 0.00000000
Neuron 21 3 0.50000000 7 5.91623317 0.00000000 0.00000000 0.00000000
Neuron 23 3 0.25000000 5 5.34383137 0.00000000 0.00000000 0.00000000
Link 1 7 1 0 -0.70611891
Link 2 7 2 0 0.71508594
Link 4 7 4 0 0.15848457
Link 6 7 6 0 0.55722543
Link 3 8 9 0 0.55463139
Link 4 8 10 0 0.23582500
Link 5 8 11 0 -1.07944763
Link 6 8 12 0 -0.82893547
