NEAT_ParametersStart
PopulationSize 150
DynamicCompatibility true
MinSpecies 5
MaxSpecies 25
InnovationsForever true
AllowClones false
YoungAgeTreshold 15
YoungAgeFitnessBoost 1.10000000000000008882
SpeciesDropoffAge 50
StagnationDelta 0.00000000000000000000
OldAgeTreshold 35
OldAgePenalty 1.00000000000000000000
DetectCompetetiveCoevolutionStagnation false
KillWorstSpeciesEach 15
KillWorstAge 10
SurvivalRate 0.20000000000000001110
CrossoverRate 0.80000000000000004441
OverallMutationRate 0.69999999999999995559
InterspeciesCrossoverRate 0.00010000000000000000
MultipointCrossoverRate 0.75000000000000000000
RouletteWheelSelection false
PhasedSearching false
DeltaCoding false
SimplifyingPhaseMPCTreshold 20
SimplifyingPhaseStagnationTreshold 30
ComplexityFloorGenerations 40
NoveltySearch_K 15
NoveltySearch_P_min 0.50000000000000000000
NoveltySearch_Dynamic_Pmin true
NoveltySearch_No_Archiving_Stagnation_Treshold 150
NoveltySearch_Pmin_lowering_multiplier 0.90000000000000002220
NoveltySearch_Pmin_min 0.05000000000000000278
NoveltySearch_Quick_Archiving_Min_Evaluations 8
NoveltySearch_Pmin_raising_multiplier 1.10000000000000008882
NoveltySearch_Recompute_Sparseness_Each 25
MutateAddNeuronProb 0.02000000000000000042
SplitRecurrent true
SplitLoopedRecurrent true
NeuronTries 32581
MutateAddLinkProb 0.05000000000000000278
MutateAddLinkFromBiasProb 0.00000000000000000000
MutateRemLinkProb 0.01000000000000000021
MutateRemSimpleNeuronProb 0.00000000000000000000
LinkTries 32
RecurrentProb 0.00000000000000000000
RecurrentLoopProb 0.25000000000000000000
MutateWeightsProb 0.90000000000000002220
MutateWeightsSevereProb 0.25000000000000000000
WeightMutationRate 1.00000000000000000000
WeightMutationMaxPower 0.20000000000000001110
WeightReplacementMaxPower 1.00000000000000000000
MaxWeight 8.00000000000000000000
MutateActivationAProb 0.00000000000000000000
MutateActivationBProb 0.00000000000000000000
ActivationAMutationMaxPower 0.50000000000000000000
ActivationBMutationMaxPower 0.00000000000000000000
TimeConstantMutationMaxPower 0.00000000000000000000
BiasMutationMaxPower 1.00000000000000000000
MinActivationA 0.05000000000000000278
MaxActivationA 6.00000000000000000000
MinActivationB 0.00000000000000000000
MaxActivationB 0.00000000000000000000
MutateNeuronActivationTypeProb 0.02000000000000000042
ActivationFunction_SignedSigmoid_Prob 0.00000000000000000000
ActivationFunction_UnsignedSigmoid_Prob 1.00000000000000000000
ActivationFunction_Tanh_Prob 1.00000000000000000000
ActivationFunction_TanhCubic_Prob 1.00000000000000000000
ActivationFunction_SignedStep_Prob 1.00000000000000000000
ActivationFunction_UnsignedStep_Prob 1.00000000000000000000
ActivationFunction_SignedGauss_Prob 1.00000000000000000000
ActivationFunction_UnsignedGauss_Prob 1.00000000000000000000
ActivationFunction_Abs_Prob 1.00000000000000000000
ActivationFunction_SignedSine_Prob 1.00000000000000000000
ActivationFunction_UnsignedSine_Prob 1.00000000000000000000
ActivationFunction_Linear_Prob 1.00000000000000000000
ActivationFunction_Relu_Prob 0.00000000000000000000
ActivationFunction_Softplus_Prob 0.00000000000000000000
MutateNeuronTimeConstantsProb 0.00000000000000000000
MutateNeuronBiasesProb 0.00000000000000000000
MinNeuronTimeConstant 0.00000000000000000000
MaxNeuronTimeConstant 0.00000000000000000000
MinNeuronBias 0.00000000000000000000
MaxNeuronBias 0.00000000000000000000
DisjointCoeff 1.00000000000000000000
ExcessCoeff 1.00000000000000000000
ActivationADiffCoeff 0.00000000000000000000
ActivationBDiffCoeff 0.00000000000000000000
WeightDiffCoeff 0.50000000000000000000
TimeConstantDiffCoeff 0.00000000000000000000
BiasDiffCoeff 0.00000000000000000000
ActivationFunctionDiffCoeff 0.00000000000000000000
CompatTreshold 4.09999999999999875655
MinCompatTreshold 0.20000000000000001110
CompatTresholdModifier 0.29999999999999998890
CompatTreshChangeInterval_Generations 1
CompatTreshChangeInterval_Evaluations 10
DivisionThreshold 0.02999999999999999889
VarianceThreshold 0.02999999999999999889
BandThreshold 0.29999999999999998890
InitialDepth 3
MaxDepth 3
IterationLevel 1
TournamentSize 2
CPPN_Bias -1.00000000000000000000
Width 2.00000000000000000000
Height 2.00000000000000000000
Qtree_X 0.00000000000000000000
Qtree_Y 0.00000000000000000000
Leo false
LeoThreshold 0.10000000000000000555
LeoSeed false
GeometrySeed false
Elitism 0.10000000000000000555
NEAT_ParametersEnd
InnovationDatabaseStart
NextInnovNum: 271
NextNeuronID: 53
Innovation 1 1 1 7 0 -1
Innovation 2 1 2 7 0 -1
Innovation 3 1 3 7 0 -1
Innovation 4 1 4 7 0 -1
Innovation 5 1 5 7 0 -1
Innovation 6 1 6 7 0 -1
Innovation 7 1 1 8 0 -1
Innovation 8 1 2 8 0 -1
Innovation 9 1 3 8 0 -1
Innovation 10 1 4 8 0 -1
Innovation 11 1 5 8 0 -1
Innovation 12 1 6 8 0 -1
Innovation 13 0 4 7 3 9
Innovation 14 1 4 9 0 -1
Innovation 15 1 9 7 0 -1
Innovation 16 0 1 7 3 10
Innovation 17 1 1 10 0 -1
Innovation 18 1 10 7 0 -1
Innovation 19 0 3 7 3 11
Innovation 20 1 3 11 0 -1
Innovation 21 1 11 7 0 -1
Innovation 22 0 5 8 3 12
Innovation 23 1 5 12 0 -1
Innovation 24 1 12 8 0 -1
Innovation 25 0 2 7 3 13
Innovation 26 1 2 13 0 -1
Innovation 27 1 13 7 0 -1
Innovation 28 0 5 7 3 14
Innovation 29 1 5 14 0 -1
Innovation 30 1 14 7 0 -1
Innovation 31 0 2 8 3 15
Innovation 32 1 2 15 0 -1
Innovation 33 1 15 8 0 -1
Innovation 34 0 3 8 3 16
Innovation 35 1 3 16 0 -1
Innovation 36 1 16 8 0 -1
Innovation 37 1 6 12 0 -1
Innovation 38 1 4 12 0 -1
Innovation 39 0 11 7 3 17
Innovation 40 1 11 17 0 -1
Innovation 41 1 17 7 0 -1
Innovation 42 1 4 11 0 -1
Innovation 43 1 1 11 0 -1
Innovation 44 0 4 8 3 18
Innovation 45 1 4 18 0 -1
Innovation 46 1 18 8 0 -1
Innovation 47 1 11 10 0 -1
Innovation 48 1 10 8 0 -1
Innovation 49 0 13 7 3 19
Innovation 50 1 13 19 0 -1
Innovation 51 1 19 7 0 -1
Innovation 52 1 5 16 0 -1
Innovation 53 0 3 16 3 20
Innovation 54 1 3 20 0 -1
Innovation 55 1 20 16 0 -1
Innovation 56 0 1 8 3 21
Innovation 57 1 1 21 0 -1
Innovation 58 1 21 8 0 -1
Innovation 59 1 3 10 0 -1
Innovation 60 0 1 10 3 22
Innovation 61 1 1 22 0 -1
Innovation 62 1 22 10 0 -1
Innovation 63 1 6 17 0 -1
Innovation 64 1 12 7 0 -1
Innovation 65 1 6 10 0 -1
Innovation 66 1 4 10 0 -1
Innovation 67 1 4 16 0 -1
Innovation 68 0 3 11 3 23
Innovation 69 1 3 23 0 -1
Innovation 70 1 23 11 0 -1
Innovation 71 1 11 8 0 -1
Innovation 72 1 4 13 0 -1
Innovation 73 1 3 9 0 -1
Innovation 74 1 21 7 0 -1
Innovation 75 1 2 10 0 -1
Innovation 76 1 22 8 0 -1
Innovation 77 1 5 18 0 -1
Innovation 78 1 13 11 0 -1
Innovation 79 1 4 23 0 -1
Innovation 80 1 9 16 0 -1
Innovation 81 1 4 20 0 -1
Innovation 82 0 15 8 3 24
Innovation 83 1 15 24 0 -1
Innovation 84 1 24 8 0 -1
Innovation 85 1 6 18 0 -1
Innovation 86 1 5 10 0 -1
Innovation 87 1 18 7 0 -1
Innovation 88 1 10 11 0 -1
Innovation 89 0 18 8 3 25
Innovation 90 1 18 25 0 -1
Innovation 91 1 25 8 0 -1
Innovation 92 1 18 10 0 -1
Innovation 93 0 4 18 3 26
Innovation 94 1 4 26 0 -1
Innovation 95 1 26 18 0 -1
Innovation 96 1 16 18 0 -1
Innovation 97 1 5 11 0 -1
Innovation 98 1 1 18 0 -1
Innovation 99 1 10 18 0 -1
Innovation 100 1 6 11 0 -1
Innovation 101 1 26 10 0 -1
Innovation 102 1 5 25 0 -1
Innovation 103 1 11 18 0 -1
Innovation 104 1 2 11 0 -1
Innovation 105 1 10 9 0 -1
Innovation 106 1 1 25 0 -1
Innovation 107 1 2 18 0 -1
Innovation 108 0 9 7 3 27
Innovation 109 1 9 27 0 -1
Innovation 110 1 27 7 0 -1
Innovation 111 0 16 8 3 28
Innovation 112 1 16 28 0 -1
Innovation 113 1 28 8 0 -1
Innovation 114 1 18 11 0 -1
Innovation 115 1 3 18 0 -1
Innovation 116 1 6 16 0 -1
Innovation 117 1 1 26 0 -1
Innovation 118 1 2 16 0 -1
Innovation 119 0 5 12 3 29
Innovation 120 1 5 29 0 -1
Innovation 121 1 29 12 0 -1
Innovation 122 1 12 18 0 -1
Innovation 123 0 18 25 3 30
Innovation 124 1 18 30 0 -1
Innovation 125 1 30 25 0 -1
Innovation 126 1 27 8 0 -1
Innovation 127 1 6 26 0 -1
Innovation 128 0 10 7 3 31
Innovation 129 1 10 31 0 -1
Innovation 130 1 31 7 0 -1
Innovation 131 1 1 9 0 -1
Innovation 132 1 4 27 0 -1
Innovation 133 0 9 27 3 32
Innovation 134 1 9 32 0 -1
Innovation 135 1 32 27 0 -1
Innovation 136 0 16 28 3 33
Innovation 137 1 16 33 0 -1
Innovation 138 1 33 28 0 -1
Innovation 139 1 26 9 0 -1
Innovation 140 0 25 8 3 34
Innovation 141 1 25 34 0 -1
Innovation 142 1 34 8 0 -1
Innovation 143 1 5 26 0 -1
Innovation 144 1 17 25 0 -1
Innovation 145 1 3 27 0 -1
Innovation 146 1 3 26 0 -1
Innovation 147 1 17 8 0 -1
Innovation 148 1 26 7 0 -1
Innovation 149 1 26 11 0 -1
Innovation 150 1 6 28 0 -1
Innovation 151 1 5 17 0 -1
Innovation 152 1 18 17 0 -1
Innovation 153 1 6 25 0 -1
Innovation 154 0 31 7 3 35
Innovation 155 1 31 35 0 -1
Innovation 156 1 35 7 0 -1
Innovation 157 1 4 22 0 -1
Innovation 158 0 5 29 3 36
Innovation 159 1 5 36 0 -1
Innovation 160 1 36 29 0 -1
Innovation 161 1 5 28 0 -1
Innovation 162 0 2 15 3 37
Innovation 163 1 2 37 0 -1
Innovation 164 1 37 15 0 -1
Innovation 165 0 11 18 3 38
Innovation 166 1 11 38 0 -1
Innovation 167 1 38 18 0 -1
Innovation 168 1 18 16 0 -1
Innovation 169 1 3 29 0 -1
Innovation 170 1 18 12 0 -1
Innovation 171 0 4 26 3 39
Innovation 172 1 4 39 0 -1
Innovation 173 1 39 26 0 -1
Innovation 174 1 2 33 0 -1
Innovation 175 1 2 9 0 -1
Innovation 176 1 32 8 0 -1
Innovation 177 1 26 8 0 -1
Innovation 178 1 2 12 0 -1
Innovation 179 1 4 31 0 -1
Innovation 180 0 17 7 3 40
Innovation 181 1 17 40 0 -1
Innovation 182 1 40 7 0 -1
Innovation 183 1 6 9 0 -1
Innovation 184 0 1 18 3 41
Innovation 185 1 1 41 0 -1
Innovation 186 1 41 18 0 -1
Innovation 187 1 6 15 0 -1
Innovation 188 1 4 35 0 -1
Innovation 189 1 6 31 0 -1
Innovation 190 0 10 8 3 42
Innovation 191 1 10 42 0 -1
Innovation 192 1 42 8 0 -1
Innovation 193 1 6 27 0 -1
Innovation 194 0 4 9 3 43
Innovation 195 1 4 43 0 -1
Innovation 196 1 43 9 0 -1
Innovation 197 1 9 18 0 -1
Innovation 198 1 12 10 0 -1
Innovation 199 1 29 7 0 -1
Innovation 200 0 12 8 3 44
Innovation 201 1 12 44 0 -1
Innovation 202 1 44 8 0 -1
Innovation 203 1 34 7 0 -1
Innovation 204 1 2 22 0 -1
Innovation 205 1 9 11 0 -1
Innovation 206 1 10 12 0 -1
Innovation 207 1 10 14 0 -1
Innovation 208 1 25 7 0 -1
Innovation 209 0 27 7 3 45
Innovation 210 1 27 45 0 -1
Innovation 211 1 45 7 0 -1
Innovation 212 1 26 31 0 -1
Innovation 213 0 10 42 3 46
Innovation 214 1 10 46 0 -1
Innovation 215 1 46 42 0 -1
Innovation 216 1 18 31 0 -1
Innovation 217 1 18 27 0 -1
Innovation 218 1 11 25 0 -1
Innovation 219 1 5 9 0 -1
Innovation 220 1 33 8 0 -1
Innovation 221 1 4 17 0 -1
Innovation 222 1 1 28 0 -1
Innovation 223 0 22 10 3 47
Innovation 224 1 22 47 0 -1
Innovation 225 1 47 10 0 -1
Innovation 226 1 11 34 0 -1
Innovation 227 1 11 28 0 -1
Innovation 228 1 29 26 0 -1
Innovation 229 1 3 31 0 -1
Innovation 230 1 14 18 0 -1
Innovation 231 1 16 10 0 -1
Innovation 232 1 11 16 0 -1
Innovation 233 1 14 33 0 -1
Innovation 234 1 10 33 0 -1
Innovation 235 1 10 27 0 -1
Innovation 236 1 1 27 0 -1
Innovation 237 0 26 18 3 48
Innovation 238 1 26 48 0 -1
Innovation 239 1 48 18 0 -1
Innovation 240 1 30 17 0 -1
Innovation 241 1 18 15 0 -1
Innovation 242 1 3 15 0 -1
Innovation 243 0 33 28 3 49
Innovation 244 1 33 49 0 -1
Innovation 245 1 49 28 0 -1
Innovation 246 1 4 25 0 -1
Innovation 247 1 11 35 0 -1
Innovation 248 0 35 7 3 50
Innovation 249 1 35 50 0 -1
Innovation 250 1 50 7 0 -1
Innovation 251 1 26 15 0 -1
Innovation 252 1 2 28 0 -1
Innovation 253 1 18 34 0 -1
Innovation 254 1 12 11 0 -1
Innovation 255 1 2 29 0 -1
Innovation 256 1 15 18 0 -1
Innovation 257 1 42 7 0 -1
Innovation 258 0 2 16 3 51
Innovation 259 1 2 51 0 -1
Innovation 260 1 51 16 0 -1
Innovation 261 1 9 10 0 -1
Innovation 262 1 28 7 0 -1
Innovation 263 1 2 17 0 -1
Innovation 264 1 15 11 0 -1
Innovation 265 1 5 34 0 -1
Innovation 266 1 1 15 0 -1
Innovation 267 1 6 42 0 -1
Innovation 268 0 25 34 3 52
Innovation 269 1 25 52 0 -1
Innovation 270 1 52 34 0 -1
InnovationDatabaseEnd

GenomeStart 14443
Genome Fitness: 0.000000 
Neuron 1 1 0.00000000 1 0.00000000 0.00000000 0.00000000 0.00000000
Neuron 2 1 0.00000000 1 0.00000000 0.00000000 0.00000000 0.00000000
Neuron 3 1 0.00000000 1 0.00000000 0.00000000 0.00000000 0.00000000
Neuron 4 1 0.00000000 1 0.00000000 0.00000000 0.00000000 0.00000000
Neuron 5 1 0.00000000 1 0.00000000 0.00000000 0.00000000 0.00000000
Neuron 6 2 0.00000000 1 0.00000000 0.00000000 0.00000000 0.00000000
Neuron 7 4 1.00000000 2 3.02500000 0.00000000 0.00000000 0.00000000
Neuron 8 4 1.00000000 2 3.02500000 0.00000000 0.00000000 0.00000000
Neuron 10 3 0.50000000 5 4.56721659 0.00000000 0.00000000 0.00000000
Neuron 11 3 0.50000000 2 5.92556491 0.00000000 0.00000000 0.00000000
Neuron 18 3 0.50000000 8 0.87846565 0.00000000 0.00000000 0.00000000
Link 2 7 2 0 0.54223158
Link 4 7 4 0 0.15998047
Link 5 7 5 0 -0.09282398
Link 6 7 6 0 -0.08611497
Link 1 8 7 0 0.74114240
Link 2 8 8 0 -0.28420470
Link 3 8 9 0 -0.00271505
Link 5 8 11 0 -0.37341408
Link 6 8 12 0 -0.16284557
Link 1 10 17 0 1.12720835
Link 10 7 18 0 0.12479608
Link 3 11 20 0 0.93058330
Link 11 7 21 0 0.06303716
Link 4 18 45 0 -0.17234315
Link 18 8 46 0 -0.31827824
GenomeEnd

GenomeStart 14444
Genome Fitness: -200.000000 
Neuron 1 1 0.00000000 1 0.00000000 0.00000000 0.00000000 0.00000000
Neuron 2 1 0.00000000 1 0.00000000 0.00000000 0.00000000 0.00000000
Neuron 3 1 0.00000000 1 0.00000000 0.00000000 0.00000000 0.00000000
Neuron 4 1 0.00000000 1 0.00000000 0.00000000 0.00000000 0.00000000
Neuron 5 1 0.00000000 1 0.00000000 0.00000000 0.00000000 0.00000000
Neuron 6 2 0.00000000 1 0.00000000 0.00000000 0.00000000 0.00000000
Neuron 7 4 1.00000000 2 3.02500000 0.00000000 0.00000000 0.00000000
Neuron 8 4 1.00000000 2 3.02500000 0.00000000 0.00000000 0.00000000
Neuron 10 3 0.50000000 5 4.56721659 0.00000000 0.00000000 0.00000000
Neuron 11 3 0.50000000 2 5.92556491 0.00000000 0.00000000 0.00000000
Neuron 18 3 0.50000000 8 0.87846565 0.00000000 0.00000000 0.00000000
Link 2 7 2 0 0.54798370
Link 4 7 4 0 0.12231368
Link 5 7 5 0 0.04862289
Link 6 7 6 0 -0.16906540
Link 1 8 7 0 0.75581342
Link 2 8 8 0 -0.24627628
Link 3 8 9 0 -0.11391905
Link 5 8 11 0 -0.37750953
Link 6 8 12 0 -0.15171101
Link 1 10 17 0 1.04378521
Link 10 7 18 0 0.18347127
Link 3 11 20 0 0.89806039
Link 11 7 21 0 0.01046119
Link 4 18 45 0 -0.14488359
Link 18 8 46 0 -0.19529490
GenomeEnd

GenomeStart 14445
Genome Fitness: -200.000000 
Neuron 1 1 0.00000000 1 0.00000000 0.00000000 0.00000000 0.00000000
Neuron 2 1 0.00000000 1 0.00000000 0.00000000 0.00000000 0.00000000
Neuron 3 1 0.00000000 1 0.00000000 0.00000000 0.00000000 0.00000000
Neuron 4 1 0.00000000 1 0.00000000 0.00000000 0.00000000 0.00000000
Neuron 5 1 0.00000000 1 0.00000000 0.00000000 0.00000000 0.00000000
Neuron 6 2 0.00000000 1 0.00000000 0.00000000 0.00000000 0.00000000
Neuron 7 4 1.00000000 2 3.02500000 0.00000000 0.00000000 0.00000000
Neuron 8 4 1.00000000 2 3.02500000 0.00000000 0.00000000 0.00000000
Neuron 10 3 0.50000000 5 4.56721659 0.00000000 0.00000000 0.00000000
Neuron 11 3 0.50000000 2 5.92556491 0.00000000 0.00000000 0.00000000
Neuron 18 3 0.50000000 8 0.87846565 0.00000000 0.00000000 0.00000000
Link 2 7 2 0 0.54223158
Link 4 7 4 0 0.15998047
Link 5 7 5 0 -0.09282398
Link 6 7 6 0 -0.08611497
Link 1 8 7 0 0.74114240
Link 2 8 8 0 -0.28420470
Link 3 8 9 0 -0.00271505
Link 5 8 11 0 -0.37341408
Link 6 8 12 0 -0.16284557
Link 1 10 17 0 1.12720835
Link 10 7 18 0 0.12479608
Link 3 11 20 0 0.93058330
Link 11 7 21 0 0.06303716
Link 4 18 45 0 -0.17234315
Link 18 8 46 0 -0.31827824
GenomeEnd

GenomeStart 14446
Genome Fitness: -200.000000 
Neuron 1 1 0.00000000 1 0.00000000 0.00000000 0.00000000 0.00000000
Neuron 2 1 0.00000000 1 0.00000000 0.00000000 0.00000000 0.00000000
Neuron 3 1 0.00000000 1 0.00000000 0.00000000 0.00000000 0.00000000
Neuron 4 1 0.00000000 1 0.00000000 0.00000000 0.00000000 0.00000000
Neuron 5 1 0.00000000 1 0.00000000 0.00000000 0.00000000 0.00000000
Neuron 6 2 0.00000000 1 0.00000000 0.00000000 0.00000000 0.00000000
Neuron 7 4 1.00000000 2 3.02500000 0.00000000 0.00000000 0.00000000
Neuron 8 4 1.00000000 2 3.02500000 0.00000000 0.00000000 0.00000000
Neuron 10 3 0.50000000 5 4.56721659 0.00000000 0.00000000 0.00000000
Neuron 11 3 0.50000000 2 5.92556491 0.00000000 0.00000000 0.00000000
Neuron 18 3 0.50000000 8 0.87846565 0.00000000 0.00000000 0.00000000
Link 2 7 2 0 0.54223158
Link 4 7 4 0 0.15998047
Link 5 7 5 0 -0.09282398
Link 6 7 6 0 -0.08611497
Link 1 8 7 0 0.74114240
Link 2 8 8 0 -0.27536913
Link 3 8 9 0 -0.03897197
Link 5 8 11 0 -0.37341408
Link 6 8 12 0 -0.20616308
Link 1 10 17 0 1.12720835
Link 10 7 18 0 0.14439715
Link 3 11 20 0 0.98103988
Link 11 7 21 0 0.06303716
Link 4 18 45 0 -0.17234315
Link 18 8 46 0 -0.31827824
GenomeEnd

GenomeStart 14447
Genome Fitness: -200.000000 
Neuron 1 1 0.00000000 1 0.00000000 0.00000000 0.00000000 0.00000000
Neuron 2 1 0.00000000 1 0.00000000 0.00000000 0.00000000 0.00000000
Neuron 3 1 0.00000000 1 0.00000000 0.00000000 0.00000000 0.00000000
Neuron 4 1 0.00000000 1 0.00000000 0.00000000 0.00000000 0.00000000
Neuron 5 1 0.00000000 1 0.00000000 0.00000000 0.00000000 0.00000000
Neuron 6 2 0.00000000 1 0.00000000 0.00000000 0.00000000 0.00000000
Neuron 7 4 1.00000000 2 3.02500000 0.00000000 0.00000000 0.00000000
Neuron 8 4 1.00000000 2 3.02500000 0.00000000 0.00000000 0.00000000
Neuron 10 3 0.50000000 5 4.56721659 0.00000000 0.00000000 0.00000000
Neuron 11 3 0.50000000 2 5.92556491 0.00000000 0.00000000 0.00000000
Neuron 18 3 0.50000000 8 0.87846565 0.00000000 0.00000000 0.00000000
Link 2 7 2 0 0.08405537
Link 4 7 4 0 0.08707385
Link 5 7 5 0 0.03197576
Link 6 7 6 0 -0.08611497
Link 1 8 7 0 0.79636165
Link 2 8 8 0 -0.26501569
Link 3 8 9 0 -0.15218701
Link 5 8 11 0 -0.37341408
Link 6 8 12 0 0.20009663
Link 1 10 17 0 1.12720835
Link 10 7 18 0 0.04920153
Link 3 11 20 0 0.06543241
Link 11 7 21 0 0.01634320
Link 4 18 45 0 -0.01713668
Link 18 8 46 0 -0.31746828
GenomeEnd

GenomeStart 14448
Genome Fitness: -400.000000 
Neuron 1 1 0.00000000 1 0.00000000 0.00000000 0.00000000 0.00000000
Neuron 2 1 0.00000000 1 0.00000000 0.00000000 0.00000000 0.00000000
Neuron 3 1 0.00000000 1 0.00000000 0.00000000 0.00000000 0.00000000
Neuron 4 1 0.00000000 1 0.00000000 0.00000000 0.00000000 0.00000000
Neuron 5 1 0.00000000 1 0.00000000 0.00000000 0.00000000 0.00000000
Neuron 6 2 0.00000000 1 0.00000000 0.00000000 0.00000000 0.00000000
Neuron 7 4 1.00000000 2 3.02500000 0.00000000 0.00000000 0.00000000
Neuron 8 4 1.00000000 2 3.02500000 0.00000000 0.00000000 0.00000000
Neuron 10 3 0.50000000 5 4.56721659 0.00000000 0.00000000 0.00000000
Neuron 11 3 0.50000000 2 5.92556491 0.00000000 0.00000000 0.00000000
Neuron 18 3 0.50000000 8 0.87846565 0.00000000 0.00000000 0.00000000
Link 2 7 2 0 0.54226932
Link 4 7 4 0 0.05056959
Link 5 7 5 0 -0.10287555
Link 6 7 6 0 0.82924902
Link 1 8 7 0 0.80102892
Link 2 8 8 0 -0.31229869
Link 3 8 9 0 -0.16413044
Link 5 8 11 0 -0.25464177
Link 6 8 12 0 0.61486630
Link 1 10 17 0 0.37668232
Link 10 7 18 0 -0.00423130
Link 3 11 20 0 0.99345543
Link 11 7 21 0 0.07245285
Link 4 18 45 0 -0.16280464
Link 18 8 46 0 -0.49710245
GenomeEnd

GenomeStart 14449
Genome Fitness: -200.000000 
Neuron 1 1 0.00000000 1 0.00000000 0.00000000 0.00000000 0.00000000
Neuron 2 1 0.00000000 1 0.00000000 0.00000000 0.00000000 0.00000000
Neuron 3 1 0.00000000 1 0.00000000 0.00000000 0.00000000 0.00000000
Neuron 4 1 0.00000000 1 0.00000000 0.00000000 0.00000000 0.00000000
Neuron 5 1 0.00000000 1 0.00000000 0.00000000 0.00000000 0.00000000
Neuron 6 2 0.00000000 1 0.00000000 0.00000000 0.00000000 0.00000000
Neuron 7 4 1.00000000 2 3.02500000 0.00000000 0.00000000 0.00000000
Neuron 8 4 1.00000000 2 3.02500000 0.00000000 0.00000000 0.00000000
Neuron 10 3 0.50000000 5 4.56721659 0.00000000 0.00000000 0.00000000
Neuron 11 3 0.50000000 2 5.92556491 0.00000000 0.00000000 0.00000000
Neuron 18 3 0.50000000 8 0.87846565 0.00000000 0.00000000 0.00000000
Link 2 7 2 0 0.54223158
Link 4 7 4 0 0.15998047
Link 5 7 5 0 -0.09282398
Link 6 7 6 0 -0.08611497
Link 1 8 7 0 0.74114240
Link 2 8 8 0 -0.28420470
Link 3 8 9 0 -0.00271505
Link 5 8 11 0 -0.37341408
Link 6 8 12 0 -0.16284557
Link 1 10 17 0 1.12720835
Link 10 7 18 0 0.12479608
Link 3 11 20 0 0.93058330
Link 11 7 21 0 0.06303716
Link 4 18 45 0 -0.17234315
Link 18 8 46 0 -0.31827824
GenomeEnd

GenomeStart 14450
Genome Fitness: -200.000000 
Neuron 1 1 0.00000000 1 0.00000000 0.00000000 0.00000000 0.00000000
Neuron 2 1 0.00000000 1 0.00000000 0.00000000 0.00000000 0.00000000
Neuron 3 1 0.00000000 1 0.00000000 0.00000000 0.00000000 0.00000000
Neuron 4 1 0.00000000 1 0.00000000 0.00000000 0.00000000 0.00000000
Neuron 5 1 0.00000000 1 0.00000000 0.00000000 0.00000000 0.00000000
Neuron 6 2 0.00000000 1 0.00000000 0.00000000 0.00000000 0.00000000
Neuron 7 4 1.00000000 2 3.02500000 0.00000000 0.00000000 0.00000000
Neuron 8 4 1.00000000 2 3.02500000 0.00000000 0.00000000 0.00000000
Neuron 10 3 0.50000000 5 4.56721659 0.00000000 0.00000000 0.00000000
Neuron 11 3 0.50000000 2 5.92556491 0.00000000 0.00000000 0.00000000
Neuron 18 3 0.50000000 8 0.87846565 0.00000000 0.00000000 0.00000000
Link 2 7 2 0 0.54223158
Link 4 7 4 0 0.15998047
Link 5 7 5 0 -0.09282398
Link 6 7 6 0 -0.08611497
Link 1 8 7 0 0.74114240
Link 2 8 8 0 -0.28420470
Link 3 8 9 0 -0.00271505
Link 5 8 11 0 -0.37341408
Link 6 8 12 0 -0.16284557
Link 1 10 17 0 1.12720835
Link 10 7 18 0 0.12479608
Link 3 11 20 0 0.93058330
Link 11 7 21 0 0.06303716
Link 4 18 45 0 -0.17234315
Link 18 8 46 0 -0.31827824
GenomeEnd

GenomeStart 14451
Genome Fitness: -400.000000 
Neuron 1 1 0.00000000 1 0.00000000 0.00000000 0.00000000 0.00000000
Neuron 2 1 0.00000000 1 0.00000000 0.00000000 0.00000000 0.00000000
Neuron 3 1 0.00000000 1 0.00000000 0.00000000 0.00000000 0.00000000
Neuron 4 1 0.00000000 1 0.00000000 0.00000000 0.00000000 0.00000000
Neuron 5 1 0.00000000 1 0.00000000 0.00000000 0.00000000 0.00000000
Neuron 6 2 0.00000000 1 0.00000000 0.00000000 0.00000000 0.00000000
Neuron 7 4 1.00000000 2 3.02500000 0.00000000 0.00000000 0.00000000
Neuron 8 4 1.00000000 2 3.02500000 0.00000000 0.00000000 0.00000000
Neuron 10 3 0.50000000 5 4.56721659 0.00000000 0.00000000 0.00000000
Neuron 11 3 0.50000000 2 5.92556491 0.00000000 0.00000000 0.00000000
Neuron 18 3 0.50000000 8 0.87846565 0.00000000 0.00000000 0.00000000
Link 2 7 2 0 0.51845069
Link 4 7 4 0 0.25457171
Link 5 7 5 0 -0.03695091
Link 6 7 6 0 -0.27563147
Link 1 8 7 0 0.66827309
Link 2 8 8 0 -0.38378669
Link 3 8 9 0 -0.06996643
Link 5 8 11 0 -0.48975547
Link 6 8 12 0 -0.04529001
Link 1 10 17 0 1.01421330
Link 10 7 18 0 0.13716521
Link 3 11 20 0 0.99356572
Link 11 7 21 0 0.05826964
Link 4 18 45 0 -0.24631546
Link 18 8 46 0 -0.22512932
GenomeEnd

GenomeStart 14452
Genome Fitness: -400.000000 
Neuron 1 1 0.00000000 1 0.00000000 0.00000000 0.00000000 0.00000000
Neuron 2 1 0.00000000 1 0.00000000 0.00000000 0.00000000 0.00000000
Neuron 3 1 0.00000000 1 0.00000000 0.00000000 0.00000000 0.00000000
Neuron 4 1 0.00000000 1 0.00000000 0.00000000 0.00000000 0.00000000
Neuron 5 1 0.00000000 1 0.00000000 0.00000000 0.00000000 0.00000000
Neuron 6 2 0.00000000 1 0.00000000 0.00000000 0.00000000 0.00000000
Neuron 7 4 1.00000000 2 3.02500000 0.00000000 0.00000000 0.00000000
Neuron 8 4 1.00000000 2 3.02500000 0.00000000 0.00000000 0.00000000
Neuron 10 3 0.50000000 5 4.56721659 0.00000000 0.00000000 0.00000000
Neuron 11 3 0.50000000 2 5.92556491 0.00000000 0.00000000 0.00000000
Neuron 18 3 0.50000000 8 0.87846565 0.00000000 0.00000000 0.00000000
Link 2 7 2 0 0.40584309
Link 4 7 4 0 0.08646120
Link 5 7 5 0 -0.10415605
Link 6 7 6 0 -0.09205012
Link 1 8 7 0 0.71136933
Link 2 8 8 0 -0.33287205
Link 3 8 9 0 -0.12009083
Link 5 8 11 0 -0.34142010
Link 6 8 12 0 -0.15569081
Link 1 10 17 0 1.06716801
Link 10 7 18 0 0.19936553
Link 3 11 20 0 0.98833099
Link 11 7 21 0 0.19896600
Link 4 18 45 0 -0.05726669
Link 18 8 46 0 -0.38194571
GenomeEnd

GenomeStart 14453
Genome Fitness: -400.000000 
Neuron 1 1 0.00000000 1 0.00000000 0.00000000 0.00000000 0.00000000
Neuron 2 1 0.00000000 1 0.00000000 0.00000000 0.00000000 0.00000000
Neuron 3 1 0.00000000 1 0.00000000 0.00000000 0.00000000 0.00000000
Neuron 4 1 0.00000000 1 0.00000000 0.00000000 0.00000000 0.00000000
Neuron 5 1 0.00000000 1 0.00000000 0.00000000 0.00000000 0.00000000
Neuron 6 2 0.00000000 1 0.00000000 0.00000000 0.00000000 0.00000000
Neuron 7 4 1.00000000 2 3.02500000 0.00000000 0.00000000 0.00000000
Neuron 8 4 1.00000000 2 3.02500000 0.00000000 0.00000000 0.00000000
Neuron 10 3 0.50000000 5 4.56721659 0.00000000 0.00000000 0.00000000
Neuron 11 3 0.50000000 2 5.92556491 0.00000000 0.00000000 0.00000000
Neuron 18 3 0.50000000 8 0.87846565 0.00000000 0.00000000 0.00000000
Link 2 7 2 0 0.38279867
Link 4 7 4 0 0.26003605
Link 5 7 5 0 -0.09011249
Link 6 7 6 0 -0.04771700
Link 1 8 7 0 0.72132666
Link 2 8 8 0 -0.16974971
Link 3 8 9 0 0.08633040
Link 5 8 11 0 -0.35728544
Link 6 8 12 0 -0.12291393
Link 1 10 17 0 1.12431300
Link 10 7 18 0 0.06483919
Link 3 11 20 0 0.84108570
Link 11 7 21 0 0.05138748
Link 4 18 45 0 -0.15481918
Link 18 8 46 0 -0.33132268
GenomeEnd

GenomeStart 14454
Genome Fitness: -200.000000 
Neuron 1 1 0.00000000 1 0.00000000 0.00000000 0.00000000 0.00000000
Neuron 2 1 0.00000000 1 0.00000000 0.00000000 0.00000000 0.00000000
Neuron 3 1 0.00000000 1 0.00000000 0.00000000 0.00000000 0.00000000
Neuron 4 1 0.00000000 1 0.00000000 0.00000000 0.00000000 0.00000000
Neuron 5 1 0.00000000 1 0.00000000 0.00000000 0.00000000 0.00000000
Neuron 6 2 0.00000000 1 0.00000000 0.00000000 0.00000000 0.00000000
Neuron 7 4 1.00000000 2 3.02500000 0.00000000 0.00000000 0.00000000
Neuron 8 4 1.00000000 2 3.02500000 0.00000000 0.00000000 0.00000000
Neuron 10 3 0.50000000 5 4.56721659 0.00000000 0.00000000 0.00000000
Neuron 11 3 0.50000000 2 5.92556491 0.00000000 0.00000000 0.00000000
Neuron 18 3 0.50000000 8 0.87846565 0.00000000 0.00000000 0.00000000
Link 2 7 2 0 0.54223158
Link 4 7 4 0 0.15998047
Link 5 7 5 0 -0.09282398
Link 6 7 6 0 -0.08611497
Link 1 8 7 0 0.74114240
Link 2 8 8 0 -0.28420470
Link 3 8 9 0 -0.00271505
Link 5 8 11 0 -0.37341408
Link 6 8 12 0 -0.16284557
Link 1 10 17 0 1.12720835
Link 10 7 18 0 0.12479608
Link 3 11 20 0 0.93058330
Link 11 7 21 0 0.06303716
Link 4 18 45 0 -0.17234315
Link 18 8 46 0 -0.31827824
GenomeEnd

GenomeStart 14455
Genome Fitness: -400.000000 
Neuron 1 1 0.00000000 1 0.00000000 0.00000000 0.00000000 0.00000000
Neuron 2 1 0.00000000 1 0.00000000 0.00000000 0.00000000 0.00000000
Neuron 3 1 0.00000000 1 0.00000000 0.00000000 0.00000000 0.00000000
Neuron 4 1 0.00000000 1 0.00000000 0.00000000 0.00000000 0.00000000
Neuron 5 1 0.00000000 1 0.00000000 0.00000000 0.00000000 0.00000000
Neuron 6 2 0.00000000 1 0.00000000 0.00000000 0.00000000 0.00000000
Neuron 7 4 1.00000000 2 3.02500000 0.00000000 0.00000000 0.00000000
Neuron 8 4 1.00000000 2 3.02500000 0.00000000 0.00000000 0.00000000
Neuron 10 3 0.50000000 5 4.56721659 0.00000000 0.00000000 0.00000000
Neuron 11 3 0.50000000 2 5.92556491 0.00000000 0.00000000 0.00000000
Neuron 18 3 0.50000000 8 0.87846565 0.00000000 0.00000000 0.00000000
Link 2 7 2 0 0.58359214
Link 4 7 4 0 0.14621311
Link 5 7 5 0 -0.12516752
Link 6 7 6 0 -0.17627601
Link 1 8 7 0 0.80438873
Link 2 8 8 0 -0.38326671
Link 3 8 9 0 -0.11437024
Link 5 8 11 0 -0.33239187
Link 6 8 12 0 -0.16864113
Link 1 10 17 0 1.19190959
Link 10 7 18 0 0.24857200
Link 3 11 20 0 0.98490063
Link 11 7 21 0 -0.06446236
Link 4 18 45 0 -0.17446331
Link 18 8 46 0 -0.39908769
GenomeEnd

GenomeStart 14456
Genome Fitness: -200.000000 
Neuron 1 1 0.00000000 1 0.00000000 0.00000000 0.00000000 0.00000000
Neuron 2 1 0.00000000 1 0.00000000 0.00000000 0.00000000 0.00000000
Neuron 3 1 0.00000000 1 0.00000000 0.00000000 0.00000000 0.00000000
Neuron 4 1 0.00000000 1 0.00000000 0.00000000 0.00000000 0.00000000
Neuron 5 1 0.00000000 1 0.00000000 0.00000000 0.00000000 0.00000000
Neuron 6 2 0.00000000 1 0.00000000 0.00000000 0.00000000 0.00000000
Neuron 7 4 1.00000000 2 3.02500000 0.00000000 0.00000000 0.00000000
Neuron 8 4 1.00000000 2 3.02500000 0.00000000 0.00000000 0.00000000
Neuron 9 3 0.50000000 3 5.10874456 0.00000000 0.00000000 0.00000000
Neuron 10 3 0.50000000 5 4.56721659 0.00000000 0.00000000 0.00000000
Neuron 11 3 0.50000000 2 5.92556491 0.00000000 0.00000000 0.00000000
Neuron 18 3 0.50000000 8 0.87846565 0.00000000 0.00000000 0.00000000
Link 2 7 2 0 0.54223158
Link 5 7 5 0 -0.09282398
Link 6 7 6 0 -0.08611497
Link 1 8 7 0 0.74114240
Link 2 8 8 0 -0.28420470
Link 3 8 9 0 -0.00271505
Link 5 8 11 0 -0.37341408
Link 6 8 12 0 -0.16284557
Link 4 9 14 0 1.00000000
Link 9 7 15 0 0.15998047
Link 1 10 17 0 1.12720835
Link 10 7 18 0 0.12479608
Link 3 11 20 0 0.93058330
Link 11 7 21 0 0.06303716
Link 4 18 45 0 -0.17234315
Link 18 8 46 0 -0.31827824
GenomeEnd

GenomeStart 14457
Genome Fitness: -400.000000 
Neuron 1 1 0.00000000 1 0.00000000 0.00000000 0.00000000 0.00000000
Neuron 2 1 0.00000000 1 0.00000000 0.00000000 0.00000000 0.00000000
Neuron 3 1 0.00000000 1 0.00000000 0.00000000 0.00000000 0.00000000
Neuron 4 1 0.00000000 1 0.00000000 0.00000000 0.00000000 0.00000000
Neuron 5 1 0.00000000 1 0.00000000 0.00000000 0.00000000 0.00000000
Neuron 6 2 0.00000000 1 0.00000000 0.00000000 0.00000000 0.00000000
Neuron 7 4 1.00000000 2 3.02500000 0.00000000 0.00000000 0.00000000
Neuron 8 4 1.00000000 2 3.02500000 0.00000000 0.00000000 0.00000000
Neuron 10 3 0.50000000 5 4.56721659 0.00000000 0.00000000 0.00000000
Neuron 11 3 0.50000000 2 5.92556491 0.00000000 0.00000000 0.00000000
Neuron 18 3 0.50000000 8 0.87846565 0.00000000 0.00000000 0.00000000
Link 2 7 2 0 0.68356973
Link 4 7 4 0 0.15998047
Link 5 7 5 0 -0.08880090
Link 6 7 6 0 0.02117831
Link 1 8 7 0 0.78644375
Link 2 8 8 0 -0.33384548
Link 3 8 9 0 0.01402334
Link 5 8 11 0 -0.49005986
Link 6 8 12 0 0.01042442
Link 1 10 17 0 1.05109019
Link 10 7 18 0 0.11812826
Link 3 11 20 0 0.57622261
Link 11 7 21 0 -0.88474620
Link 4 18 45 0 -0.15060849
Link 18 8 46 0 -0.43053805
GenomeEnd

GenomeStart 14458
Genome Fitness: -200.000000 
Neuron 1 1 0.00000000 1 0.00000000 0.00000000 0.00000000 0.00000000
Neuron 2 1 0.00000000 1 0.00000000 0.00000000 0.00000000 0.00000000
Neuron 3 1 0.00000000 1 0.00000000 0.00000000 0.00000000 0.00000000
Neuron 4 1 0.00000000 1 0.00000000 0.00000000 0.00000000 0.00000000
Neuron 5 1 0.00000000 1 0.00000000 0.00000000 0.00000000 0.00000000
Neuron 6 2 0.00000000 1 0.00000000 0.00000000 0.00000000 0.00000000
Neuron 7 4 1.00000000 2 3.02500000 0.00000000 0.00000000 0.00000000
Neuron 8 4 1.00000000 2 3.02500000 0.00000000 0.00000000 0.00000000
Neuron 10 3 0.50000000 5 4.56721659 0.00000000 0.00000000 0.00000000
Neuron 11 3 0.50000000 2 5.92556491 0.00000000 0.00000000 0.00000000
Neuron 18 3 0.50000000 8 0.87846565 0.00000000 0.00000000 0.00000000
Link 2 7 2 0 0.54112238
Link 4 7 4 0 0.13501485
Link 5 7 5 0 0.11864217
Link 6 7 6 0 -0.18897562
Link 1 8 7 0 0.78012979
Link 2 8 8 0 -0.37775188
Link 3 8 9 0 -0.03279871
Link 5 8 11 0 -0.29589691
Link 6 8 12 0 0.00994286
Link 1 10 17 0 0.41436748
Link 10 7 18 0 0.23425516
Link 3 11 20 0 0.91113203
Link 11 7 21 0 0.06804243
Link 4 18 45 0 -0.05570676
Link 18 8 46 0 -0.18275043
GenomeEnd

GenomeStart 14459
Genome Fitness: -300.000000 
Neuron 1 1 0.00000000 1 0.00000000 0.00000000 0.00000000 0.00000000
Neuron 2 1 0.00000000 1 0.00000000 0.00000000 0.00000000 0.00000000
Neuron 3 1 0.00000000 1 0.00000000 0.00000000 0.00000000 0.00000000
Neuron 4 1 0.00000000 1 0.00000000 0.00000000 0.00000000 0.00000000
Neuron 5 1 0.00000000 1 0.00000000 0.00000000 0.00000000 0.00000000
Neuron 6 2 0.00000000 1 0.00000000 0.00000000 0.00000000 0.00000000
Neuron 7 4 1.00000000 2 3.02500000 0.00000000 0.00000000 0.00000000
Neuron 8 4 1.00000000 2 3.02500000 0.00000000 0.00000000 0.00000000
Neuron 10 3 0.50000000 5 4.56721659 0.00000000 0.00000000 0.00000000
Neuron 11 3 0.50000000 2 5.92556491 0.00000000 0.00000000 0.00000000
Neuron 18 3 0.50000000 8 0.87846565 0.00000000 0.00000000 0.00000000
Link 2 7 2 0 0.45508284
Link 4 7 4 0 0.06036194
Link 5 7 5 0 -0.11602750
Link 6 7 6 0 -0.03398238
Link 1 8 7 0 0.62461625
Link 2 8 8 0 -0.24697450
Link 3 8 9 0 0.16871801
Link 5 8 11 0 -0.36758477
Link 6 8 12 0 -0.17458131
Link 1 10 17 0 1.15070154
Link 10 7 18 0 0.10282387
Link 3 11 20 0 0.93923669
Link 11 7 21 0 0.12728354
Link 4 18 45 0 -0.26273382
Link 18 8 46 0 -0.23352423
GenomeEnd

GenomeStart 14460
Genome Fitness: -200.000000 
Neuron 1 1 0.00000000 1 0.00000000 0.00000000 0.00000000 0.00000000
Neuron 2 1 0.00000000 1 0.00000000 0.00000000 0.00000000 0.00000000
Neuron 3 1 0.00000000 1 0.00000000 0.00000000 0.00000000 0.00000000
Neuron 4 1 0.00000000 1 0.00000000 0.00000000 0.00000000 0.00000000
Neuron 5 1 0.00000000 1 0.00000000 0.00000000 0.00000000 0.00000000
Neuron 6 2 0.00000000 1 0.00000000 0.00000000 0.00000000 0.00000000
Neuron 7 4 1.00000000 2 3.02500000 0.00000000 0.00000000 0.00000000
Neuron 8 4 1.00000000 2 3.02500000 0.00000000 0.00000000 0.00000000
Neuron 10 3 0.50000000 5 4.56721659 0.00000000 0.00000000 0.00000000
Neuron 11 3 0.50000000 2 5.92556491 0.00000000 0.00000000 0.00000000
Neuron 18 3 0.50000000 8 0.87846565 0.00000000 0.00000000 0.00000000
Link 2 7 2 0 0.54223158
Link 4 7 4 0 0.15998047
Link 5 7 5 0 -0.09282398
Link 6 7 6 0 -0.08611497
Link 1 8 7 0 0.74114240
Link 2 8 8 0 -0.27978691
Link 3 8 9 0 -0.02084351
Link 5 8 11 0 -0.37341408
Link 6 8 12 0 -0.18450432
Link 1 10 17 0 1.12720835
Link 10 7 18 0 0.13459662
Link 3 11 20 0 0.95581159
Link 11 7 21 0 0.06303716
Link 4 18 45 0 -0.17234315
Link 18 8 46 0 -0.31827824
GenomeEnd

GenomeStart 14461
Genome Fitness: -400.000000 
Neuron 1 1 0.00000000 1 0.00000000 0.00000000 0.00000000 0.00000000
Neuron 2 1 0.00000000 1 0.00000000 0.00000000 0.00000000 0.00000000
Neuron 3 1 0.00000000 1 0.00000000 0.00000000 0.00000000 0.00000000
Neuron 4 1 0.00000000 1 0.00000000 0.00000000 0.00000000 0.00000000
Neuron 5 1 0.00000000 1 0.00000000 0.00000000 0.00000000 0.00000000
Neuron 6 2 0.00000000 1 0.00000000 0.00000000 0.00000000 0.00000000
Neuron 7 4 1.00000000 2 3.02500000 0.00000000 0.00000000 0.00000000
Neuron 8 4 1.00000000 2 3.02500000 0.00000000 0.00000000 0.00000000
Neuron 10 3 0.50000000 5 4.56721659 0.00000000 0.00000000 0.00000000
Neuron 11 3 0.50000000 2 5.92556491 0.00000000 0.00000000 0.00000000
Neuron 18 3 0.50000000 8 0.87846565 0.00000000 0.00000000 0.00000000
Link 2 7 2 0 0.66691059
Link 4 7 4 0 0.25198000
Link 5 7 5 0 -0.15491846
Link 6 7 6 0 -0.03302746
Link 1 8 7 0 0.78859170
Link 2 8 8 0 -0.32273365
Link 3 8 9 0 -0.12780989
Link 5 8 11 0 -0.37341408
Link 6 8 12 0 0.69583153
Link 1 10 17 0 0.86328104
Link 10 7 18 0 0.04359711
Link 3 11 20 0 0.97115121
Link 11 7 21 0 0.06303716
Link 4 18 45 0 -0.21899260
Link 18 8 46 0 0.02788487
GenomeEnd

GenomeStart 14462
Genome Fitness: -200.000000 
Neuron 1 1 0.00000000 1 0.00000000 0.00000000 0.00000000 0.00000000
Neuron 2 1 0.00000000 1 0.00000000 0.00000000 0.00000000 0.00000000
Neuron 3 1 0.00000000 1 0.00000000 0.00000000 0.00000000 0.00000000
Neuron 4 1 0.00000000 1 0.00000000 0.00000000 0.00000000 0.00000000
Neuron 5 1 0.00000000 1 0.00000000 0.00000000 0.00000000 0.00000000
Neuron 6 2 0.00000000 1 0.00000000 0.00000000 0.00000000 0.00000000
Neuron 7 4 1.00000000 2 3.02500000 0.00000000 0.00000000 0.00000000
Neuron 8 4 1.00000000 2 3.02500000 0.00000000 0.00000000 0.00000000
Neuron 10 3 0.50000000 5 4.56721659 0.00000000 0.00000000 0.00000000
Neuron 11 3 0.50000000 2 5.92556491 0.00000000 0.00000000 0.00000000
Neuron 18 3 0.50000000 8 0.87846565 0.00000000 0.00000000 0.00000000
Link 2 7 2 0 0.54223158
Link 4 7 4 0 0.15998047
Link 5 7 5 0 -0.09282398
Link 6 7 6 0 -0.08611497
Link 1 8 7 0 0.74114240
Link 2 8 8 0 -0.28420470
Link 3 8 9 0 -0.00271505
Link 5 8 11 0 -0.37341408
Link 6 8 12 0 -0.16284557
Link 1 10 17 0 1.12720835
Link 10 7 18 0 0.12479608
Link 3 11 20 0 0.93058330
Link 11 7 21 0 0.06303716
Link 4 18 45 0 -0.17234315
Link 18 8 46 0 -0.31827824
Link 4 10 66 0 0.30080417
GenomeEnd

GenomeStart 14463
Genome Fitness: -300.000000 
Neuron 1 1 0.00000000 1 0.00000000 0.00000000 0.00000000 0.00000000
Neuron 2 1 0.00000000 1 0.00000000 0.00000000 0.00000000 0.00000000
Neuron 3 1 0.00000000 1 0.00000000 0.00000000 0.00000000 0.00000000
Neuron 4 1 0.00000000 1 0.00000000 0.00000000 0.00000000 0.00000000
Neuron 5 1 0.00000000 1 0.00000000 0.00000000 0.00000000 0.00000000
Neuron 6 2 0.00000000 1 0.00000000 0.00000000 0.00000000 0.00000000
Neuron 7 4 1.00000000 2 3.02500000 0.00000000 0.00000000 0.00000000
Neuron 8 4 1.00000000 2 3.02500000 0.00000000 0.00000000 0.00000000
Neuron 10 3 0.50000000 5 4.56721659 0.00000000 0.00000000 0.00000000
Neuron 11 3 0.50000000 2 5.92556491 0.00000000 0.00000000 0.00000000
Neuron 18 3 0.50000000 8 0.87846565 0.00000000 0.00000000 0.00000000
Link 2 7 2 0 0.64944744
Link 4 7 4 0 -0.58977984
Link 5 7 5 0 -0.09282398
Link 6 7 6 0 -0.12211177
Link 1 8 7 0 0.67070602
Link 2 8 8 0 -0.32326340
Link 3 8 9 0 -0.06423296
Link 5 8 11 0 -0.34403348
Link 6 8 12 0 -0.16033813
Link 1 10 17 0 1.04017910
Link 10 7 18 0 0.02488951
Link 3 11 20 0 0.84220896
Link 11 7 21 0 0.06303716
Link 4 18 45 0 -0.17234315
Link 18 8 46 0 0.01156447
GenomeEnd

GenomeStart 14464
Genome Fitness: -400.000000 
Neuron 1 1 0.00000000 1 0.00000000 0.00000000 0.00000000 0.00000000
Neuron 2 1 0.00000000 1 0.00000000 0.00000000 0.00000000 0.00000000
Neuron 3 1 0.00000000 1 0.00000000 0.00000000 0.00000000 0.00000000
Neuron 4 1 0.00000000 1 0.00000000 0.00000000 0.00000000 0.00000000
Neuron 5 1 0.00000000 1 0.00000000 0.00000000 0.00000000 0.00000000
Neuron 6 2 0.00000000 1 0.00000000 0.00000000 0.00000000 0.00000000
Neuron 7 4 1.00000000 2 3.02500000 0.00000000 0.00000000 0.00000000
Neuron 8 4 1.00000000 2 3.02500000 0.00000000 0.00000000 0.00000000
Neuron 10 3 0.50000000 5 4.56721659 0.00000000 0.00000000 0.00000000
Neuron 11 3 0.50000000 2 5.92556491 0.00000000 0.00000000 0.00000000
Neuron 18 3 0.50000000 8 0.87846565 0.00000000 0.00000000 0.00000000
Link 2 7 2 0 0.37722709
Link 4 7 4 0 0.15998047
Link 5 7 5 0 -0.14826586
Link 6 7 6 0 -0.05089965
Link 1 8 7 0 0.70610228
Link 2 8 8 0 -0.41831794
Link 3 8 9 0 -0.04560090
Link 5 8 11 0 -0.43787472
Link 6 8 12 0 -0.84267820
Link 1 10 17 0 0.97687508
Link 10 7 18 0 0.17045658
Link 3 11 20 0 0.79867941
Link 11 7 21 0 0.03592919
Link 4 18 45 0 0.53388194
Link 18 8 46 0 -0.19859026
GenomeEnd

GenomeStart 14465
Genome Fitness: -200.000000 
Neuron 1 1 0.00000000 1 0.00000000 0.00000000 0.00000000 0.00000000
Neuron 2 1 0.00000000 1 0.00000000 0.00000000 0.00000000 0.00000000
Neuron 3 1 0.00000000 1 0.00000000 0.00000000 0.00000000 0.00000000
Neuron 4 1 0.00000000 1 0.00000000 0.00000000 0.00000000 0.00000000
Neuron 5 1 0.00000000 1 0.00000000 0.00000000 0.00000000 0.00000000
Neuron 6 2 0.00000000 1 0.00000000 0.00000000 0.00000000 0.00000000
Neuron 7 4 1.00000000 2 3.02500000 0.00000000 0.00000000 0.00000000
Neuron 8 4 1.00000000 2 3.02500000 0.00000000 0.00000000 0.00000000
Neuron 10 3 0.50000000 5 4.56721659 0.00000000 0.00000000 0.00000000
Neuron 11 3 0.50000000 2 5.92556491 0.00000000 0.00000000 0.00000000
Neuron 18 3 0.50000000 8 0.87846565 0.00000000 0.00000000 0.00000000
Link 2 7 2 0 0.54223158
Link 3 7 3 0 -0.05178989
Link 4 7 4 0 0.15998047
Link 5 7 5 0 -0.09282398
Link 6 7 6 0 -0.08611497
Link 1 8 7 0 0.74114240
Link 2 8 8 0 -0.28420470
Link 3 8 9 0 -0.00271505
Link 5 8 11 0 -0.37341408
Link 6 8 12 0 -0.16284557
Link 1 10 17 0 1.12720835
Link 10 7 18 0 0.12479608
Link 3 11 20 0 0.93058330
Link 11 7 21 0 0.06303716
Link 4 18 45 0 -0.17234315
Link 18 8 46 0 -0.31827824
GenomeEnd

GenomeStart 14466
Genome Fitness: -400.000000 
Neuron 1 1 0.00000000 1 0.00000000 0.00000000 0.00000000 0.00000000
Neuron 2 1 0.00000000 1 0.00000000 0.00000000 0.00000000 0.00000000
Neuron 3 1 0.00000000 1 0.00000000 0.00000000 0.00000000 0.00000000
Neuron 4 1 0.00000000 1 0.00000000 0.00000000 0.00000000 0.00000000
Neuron 5 1 0.00000000 1 0.00000000 0.00000000 0.00000000 0.00000000
Neuron 6 2 0.00000000 1 0.00000000 0.00000000 0.00000000 0.00000000
Neuron 7 4 1.00000000 2 3.02500000 0.00000000 0.00000000 0.00000000
Neuron 8 4 1.00000000 2 3.02500000 0.00000000 0.00000000 0.00000000
Neuron 10 3 0.50000000 5 4.56721659 0.00000000 0.00000000 0.00000000
Neuron 11 3 0.50000000 2 5.92556491 0.00000000 0.00000000 0.00000000
Neuron 18 3 0.50000000 8 0.87846565 0.00000000 0.00000000 0.00000000
Link 2 7 2 0 0.71834518
Link 4 7 4 0 0.00057501
Link 5 7 5 0 -0.02238050
Link 6 7 6 0 -0.04615684
Link 1 8 7 0 0.86263666
Link 2 8 8 0 -0.26026921
Link 3 8 9 0 0.02668188
Link 5 8 11 0 -0.38195277
Link 6 8 12 0 -0.23551601
Link 1 10 17 0 1.17057301
Link 10 7 18 0 0.27231138
Link 3 11 20 0 0.90513643
Link 11 7 21 0 -0.03321845
Link 4 18 45 0 -0.19722589
Link 18 8 46 0 -0.17165375
GenomeEnd

GenomeStart 14467
Genome Fitness: -200.000000 
Neuron 1 1 0.00000000 1 0.00000000 0.00000000 0.00000000 0.00000000
Neuron 2 1 0.00000000 1 0.00000000 0.00000000 0.00000000 0.00000000
Neuron 3 1 0.00000000 1 0.00000000 0.00000000 0.00000000 0.00000000
Neuron 4 1 0.00000000 1 0.00000000 0.00000000 0.00000000 0.00000000
Neuron 5 1 0.00000000 1 0.00000000 0.00000000 0.00000000 0.00000000
Neuron 6 2 0.00000000 1 0.00000000 0.00000000 0.00000000 0.00000000
Neuron 7 4 1.00000000 2 3.02500000 0.00000000 0.00000000 0.00000000
Neuron 8 4 1.00000000 2 3.02500000 0.00000000 0.00000000 0.00000000
Neuron 10 3 0.50000000 5 4.56721659 0.00000000 0.00000000 0.00000000
Neuron 11 3 0.50000000 2 5.92556491 0.00000000 0.00000000 0.00000000
Neuron 18 3 0.50000000 8 0.87846565 0.00000000 0.00000000 0.00000000
Link 2 7 2 0 0.54223158
Link 4 7 4 0 0.15998047
Link 5 7 5 0 -0.09282398
Link 6 7 6 0 -0.08611497
Link 1 8 7 0 0.74114240
Link 2 8 8 0 -0.27978691
Link 3 8 9 0 -0.02084351
Link 5 8 11 0 -0.37341408
Link 6 8 12 0 -0.18450432
Link 1 10 17 0 1.12720835
Link 10 7 18 0 0.13459662
Link 3 11 20 0 0.95581159
Link 11 7 21 0 0.06303716
Link 4 18 45 0 -0.17234315
Link 18 8 46 0 -0.31827824
GenomeEnd

GenomeStart 14468
Genome Fitness: -200.000000 
Neuron 1 1 0.00000000 1 0.00000000 0.00000000 0.00000000 0.00000000
Neuron 2 1 0.00000000 1 0.00000000 0.00000000 0.00000000 0.00000000
Neuron 3 1 0.00000000 1 0.00000000 0.00000000 0.00000000 0.00000000
Neuron 4 1 0.00000000 1 0.00000000 0.00000000 0.00000000 0.00000000
Neuron 5 1 0.00000000 1 0.00000000 0.00000000 0.00000000 0.00000000
Neuron 6 2 0.00000000 1 0.00000000 0.00000000 0.00000000 0.00000000
Neuron 7 4 1.00000000 2 3.02500000 0.00000000 0.00000000 0.00000000
Neuron 8 4 1.00000000 2 3.02500000 0.00000000 0.00000000 0.00000000
Neuron 10 3 0.50000000 5 4.56721659 0.00000000 0.00000000 0.00000000
Neuron 11 3 0.50000000 2 5.92556491 0.00000000 0.00000000 0.00000000
Neuron 17 3 0.75000000 11 1.04069260 0.00000000 0.00000000 0.00000000
Neuron 18 3 0.50000000 8 0.87846565 0.00000000 0.00000000 0.00000000
Neuron 25 3 0.75000000 3 5.34772428 0.00000000 0.00000000 0.00000000
Link 2 7 2 0 0.10973934
Link 4 7 4 0 0.21381284
Link 5 7 5 0 0.50671673
Link 6 7 6 0 0.46597178
Link 1 8 7 0 0.58400104
Link 2 8 8 0 -0.40948801
Link 3 8 9 0 0.01872066
Link 5 8 11 0 -0.14357423
Link 6 8 12 0 0.82727735
Link 1 10 17 0 -0.03403423
Link 10 7 18 0 0.31028247
Link 3 11 20 0 0.79190254
Link 11 17 40 0 1.21426646
Link 17 7 41 0 0.45749759
Link 4 18 45 0 0.01891441
Link 18 25 90 0 0.92633258
Link 25 8 91 0 0.24882659
GenomeEnd

GenomeStart 14469
Genome Fitness: -200.000000 
Neuron 1 1 0.00000000 1 0.00000000 0.00000000 0.00000000 0.00000000
Neuron 2 1 0.00000000 1 0.00000000 0.00000000 0.00000000 0.00000000
Neuron 3 1 0.00000000 1 0.00000000 0.00000000 0.00000000 0.00000000
Neuron 4 1 0.00000000 1 0.00000000 0.00000000 0.00000000 0.00000000
Neuron 5 1 0.00000000 1 0.00000000 0.00000000 0.00000000 0.00000000
Neuron 6 2 0.00000000 1 0.00000000 0.00000000 0.00000000 0.00000000
Neuron 7 4 1.00000000 2 3.02500000 0.00000000 0.00000000 0.00000000
Neuron 8 4 1.00000000 2 3.02500000 0.00000000 0.00000000 0.00000000
Neuron 10 3 0.50000000 5 4.56721659 0.00000000 0.00000000 0.00000000
Neuron 11 3 0.50000000 2 5.92556491 0.00000000 0.00000000 0.00000000
Neuron 17 3 0.75000000 11 1.04069260 0.00000000 0.00000000 0.00000000
Neuron 18 3 0.50000000 8 0.87846565 0.00000000 0.00000000 0.00000000
Neuron 25 3 0.75000000 3 5.34772428 0.00000000 0.00000000 0.00000000
Link 2 7 2 0 0.16345878
Link 4 7 4 0 0.26290692
Link 5 7 5 0 0.51491594
Link 6 7 6 0 0.23184511
Link 1 8 7 0 0.59948623
Link 2 8 8 0 -0.41905361
Link 3 8 9 0 0.01872066
Link 5 8 11 0 -0.14357423
Link 6 8 12 0 0.79220566
Link 1 10 17 0 0.51977308
Link 10 7 18 0 0.29970871
Link 3 11 20 0 0.76569217
Link 11 17 40 0 1.23204750
Link 17 7 41 0 0.49100310
Link 4 18 45 0 -0.03936178
Link 18 25 90 0 0.94806497
Link 25 8 91 0 -0.04804765
GenomeEnd

GenomeStart 14470
Genome Fitness: -200.000000 
Neuron 1 1 0.00000000 1 0.00000000 0.00000000 0.00000000 0.00000000
Neuron 2 1 0.00000000 1 0.00000000 0.00000000 0.00000000 0.00000000
Neuron 3 1 0.00000000 1 0.00000000 0.00000000 0.00000000 0.00000000
Neuron 4 1 0.00000000 1 0.00000000 0.00000000 0.00000000 0.00000000
Neuron 5 1 0.00000000 1 0.00000000 0.00000000 0.00000000 0.00000000
Neuron 6 2 0.00000000 1 0.00000000 0.00000000 0.00000000 0.00000000
Neuron 7 4 1.00000000 2 3.02500000 0.00000000 0.00000000 0.00000000
Neuron 8 4 1.00000000 2 3.02500000 0.00000000 0.00000000 0.00000000
Neuron 10 3 0.50000000 5 4.56721659 0.00000000 0.00000000 0.00000000
Neuron 11 3 0.50000000 2 5.92556491 0.00000000 0.00000000 0.00000000
Neuron 17 3 0.75000000 11 1.04069260 0.00000000 0.00000000 0.00000000
Neuron 18 3 0.50000000 8 0.87846565 0.00000000 0.00000000 0.00000000
Neuron 25 3 0.75000000 3 5.34772428 0.00000000 0.00000000 0.00000000
Link 2 7 2 0 0.21717823
Link 4 7 4 0 0.31200099
Link 5 7 5 0 0.52311514
Link 6 7 6 0 -0.00228156
Link 1 8 7 0 0.61497142
Link 2 8 8 0 -0.42861922
Link 3 8 9 0 0.01872066
Link 5 8 11 0 -0.14357423
Link 6 8 12 0 0.75713396
Link 1 10 17 0 1.07358038
Link 10 7 18 0 0.28913494
Link 3 11 20 0 0.73948179
Link 11 17 40 0 1.24982854
Link 17 7 41 0 0.52450861
Link 4 18 45 0 -0.09763797
Link 18 25 90 0 0.96979735
Link 25 8 91 0 -0.34492188
GenomeEnd

GenomeStart 14471
Genome Fitness: -200.000000 
Neuron 1 1 0.00000000 1 0.00000000 0.00000000 0.00000000 0.00000000
Neuron 2 1 0.00000000 1 0.00000000 0.00000000 0.00000000 0.00000000
Neuron 3 1 0.00000000 1 0.00000000 0.00000000 0.00000000 0.00000000
Neuron 4 1 0.00000000 1 0.00000000 0.00000000 0.00000000 0.00000000
Neuron 5 1 0.00000000 1 0.00000000 0.00000000 0.00000000 0.00000000
Neuron 6 2 0.00000000 1 0.00000000 0.00000000 0.00000000 0.00000000
Neuron 7 4 1.00000000 2 3.02500000 0.00000000 0.00000000 0.00000000
Neuron 8 4 1.00000000 2 3.02500000 0.00000000 0.00000000 0.00000000
Neuron 10 3 0.50000000 5 4.56721659 0.00000000 0.00000000 0.00000000
Neuron 11 3 0.50000000 2 5.92556491 0.00000000 0.00000000 0.00000000
Neuron 17 3 0.75000000 11 1.04069260 0.00000000 0.00000000 0.00000000
Neuron 18 3 0.50000000 8 0.87846565 0.00000000 0.00000000 0.00000000
Neuron 25 3 0.75000000 3 5.34772428 0.00000000 0.00000000 0.00000000
Link 2 7 2 0 0.21717823
Link 4 7 4 0 0.31200099
Link 5 7 5 0 0.52311514
Link 6 7 6 0 -0.00228156
Link 1 8 7 0 0.61497142
Link 2 8 8 0 -0.42861922
Link 3 8 9 0 0.01872066
Link 5 8 11 0 -0.14357423
Link 6 8 12 0 0.75713396
Link 1 10 17 0 1.07358038
Link 10 7 18 0 0.28913494
Link 3 11 20 0 0.73948179
Link 11 17 40 0 1.24982854
Link 17 7 41 0 0.52450861
Link 4 18 45 0 -0.09763797
Link 18 25 90 0 0.96979735
Link 25 8 91 0 -0.34492188
Link 11 25 218 0 0.09670947
GenomeEnd

GenomeStart 14472
Genome Fitness: -400.000000 
Neuron 1 1 0.00000000 1 0.00000000 0.00000000 0.00000000 0.00000000
Neuron 2 1 0.00000000 1 0.00000000 0.00000000 0.00000000 0.00000000
Neuron 3 1 0.00000000 1 0.00000000 0.00000000 0.00000000 0.00000000
Neuron 4 1 0.00000000 1 0.00000000 0.00000000 0.00000000 0.00000000
Neuron 5 1 0.00000000 1 0.00000000 0.00000000 0.00000000 0.00000000
Neuron 6 2 0.00000000 1 0.00000000 0.00000000 0.00000000 0.00000000
Neuron 7 4 1.00000000 2 3.02500000 0.00000000 0.00000000 0.00000000
Neuron 8 4 1.00000000 2 3.02500000 0.00000000 0.00000000 0.00000000
Neuron 10 3 0.50000000 5 4.56721659 0.00000000 0.00000000 0.00000000
Neuron 11 3 0.50000000 2 5.92556491 0.00000000 0.00000000 0.00000000
Neuron 17 3 0.75000000 11 1.04069260 0.00000000 0.00000000 0.00000000
Neuron 18 3 0.50000000 8 0.87846565 0.00000000 0.00000000 0.00000000
Neuron 25 3 0.75000000 3 5.34772428 0.00000000 0.00000000 0.00000000
Link 2 7 2 0 0.29803841
Link 4 7 4 0 0.33971157
Link 5 7 5 0 0.70293381
Link 6 7 6 0 -0.14408177
Link 1 8 7 0 0.62102353
Link 2 8 8 0 -0.31568131
Link 3 8 9 0 0.08762825
Link 5 8 11 0 -0.20770834
Link 6 8 12 0 0.92742576
Link 1 10 17 0 1.16736166
Link 10 7 18 0 0.28954665
Link 3 11 20 0 0.55011096
Link 11 17 40 0 1.34179770
Link 17 7 41 0 0.57430582
Link 4 18 45 0 -0.05840727
Link 18 25 90 0 0.88070620
Link 25 8 91 0 -0.48399990
GenomeEnd

GenomeStart 14473
Genome Fitness: -200.000000 
Neuron 1 1 0.00000000 1 0.00000000 0.00000000 0.00000000 0.00000000
Neuron 2 1 0.00000000 1 0.00000000 0.00000000 0.00000000 0.00000000
Neuron 3 1 0.00000000 1 0.00000000 0.00000000 0.00000000 0.00000000
Neuron 4 1 0.00000000 1 0.00000000 0.00000000 0.00000000 0.00000000
Neuron 5 1 0.00000000 1 0.00000000 0.00000000 0.00000000 0.00000000
Neuron 6 2 0.00000000 1 0.00000000 0.00000000 0.00000000 0.00000000
Neuron 7 4 1.00000000 2 3.02500000 0.00000000 0.00000000 0.00000000
Neuron 8 4 1.00000000 2 3.02500000 0.00000000 0.00000000 0.00000000
Neuron 10 3 0.50000000 5 4.56721659 0.00000000 0.00000000 0.00000000
Neuron 11 3 0.50000000 2 5.92556491 0.00000000 0.00000000 0.00000000
Neuron 17 3 0.75000000 11 1.04069260 0.00000000 0.00000000 0.00000000
Neuron 18 3 0.50000000 8 0.87846565 0.00000000 0.00000000 0.00000000
Neuron 25 3 0.75000000 3 5.34772428 0.00000000 0.00000000 0.00000000
Link 2 7 2 0 0.22132316
Link 4 7 4 0 0.26290692
Link 5 7 5 0 0.52311514
Link 6 7 6 0 0.23184511
Link 1 8 7 0 0.59948623
Link 2 8 8 0 -0.41905361
Link 3 8 9 0 0.01872066
Link 5 8 11 0 -0.14357423
Link 6 8 12 0 0.62884675
Link 1 10 17 0 0.51977308
Link 10 7 18 0 0.29970871
Link 3 11 20 0 0.66101714
Link 11 17 40 0 1.23204750
Link 17 7 41 0 0.21609449
Link 4 18 45 0 -0.03936178
Link 18 25 90 0 0.96979735
Link 25 8 91 0 -0.04804765
GenomeEnd

GenomeStart 14474
Genome Fitness: -200.000000 
Neuron 1 1 0.00000000 1 0.00000000 0.00000000 0.00000000 0.00000000
Neuron 2 1 0.00000000 1 0.00000000 0.00000000 0.00000000 0.00000000
Neuron 3 1 0.00000000 1 0.00000000 0.00000000 0.00000000 0.00000000
Neuron 4 1 0.00000000 1 0.00000000 0.00000000 0.00000000 0.00000000
Neuron 5 1 0.00000000 1 0.00000000 0.00000000 0.00000000 0.00000000
Neuron 6 2 0.00000000 1 0.00000000 0.00000000 0.00000000 0.00000000
Neuron 7 4 1.00000000 2 3.02500000 0.00000000 0.00000000 0.00000000
Neuron 8 4 1.00000000 2 3.02500000 0.00000000 0.00000000 0.00000000
Neuron 10 3 0.50000000 5 4.56721659 0.00000000 0.00000000 0.00000000
Neuron 11 3 0.50000000 2 5.92556491 0.00000000 0.00000000 0.00000000
Neuron 17 3 0.75000000 11 1.04069260 0.00000000 0.00000000 0.00000000
Neuron 18 3 0.50000000 8 0.87846565 0.00000000 0.00000000 0.00000000
Neuron 25 3 0.75000000 3 5.34772428 0.00000000 0.00000000 0.00000000
Link 2 7 2 0 0.21717823
Link 4 7 4 0 0.31200099
Link 5 7 5 0 0.51491594
Link 6 7 6 0 0.23184511
Link 1 8 7 0 0.61497142
Link 2 8 8 0 -0.41905361
Link 3 8 9 0 0.01872066
Link 5 8 11 0 -0.14357423
Link 6 8 12 0 0.75713396
Link 1 10 17 0 0.51977308
Link 10 7 18 0 0.29970871
Link 3 11 20 0 0.76569217
Link 11 17 40 0 1.23204750
Link 17 7 41 0 0.49100310
Link 4 18 45 0 -0.03936178
Link 18 25 90 0 0.94806497
Link 25 8 91 0 -0.04804765
GenomeEnd

GenomeStart 14475
Genome Fitness: -400.000000 
Neuron 1 1 0.00000000 1 0.00000000 0.00000000 0.00000000 0.00000000
Neuron 2 1 0.00000000 1 0.00000000 0.00000000 0.00000000 0.00000000
Neuron 3 1 0.00000000 1 0.00000000 0.00000000 0.00000000 0.00000000
Neuron 4 1 0.00000000 1 0.00000000 0.00000000 0.00000000 0.00000000
Neuron 5 1 0.00000000 1 0.00000000 0.00000000 0.00000000 0.00000000
Neuron 6 2 0.00000000 1 0.00000000 0.00000000 0.00000000 0.00000000
Neuron 7 4 1.00000000 2 3.02500000 0.00000000 0.00000000 0.00000000
Neuron 8 4 1.00000000 2 3.02500000 0.00000000 0.00000000 0.00000000
Neuron 10 3 0.50000000 5 4.56721659 0.00000000 0.00000000 0.00000000
Neuron 11 3 0.50000000 2 5.92556491 0.00000000 0.00000000 0.00000000
Neuron 17 3 0.75000000 11 1.04069260 0.00000000 0.00000000 0.00000000
Neuron 18 3 0.50000000 8 0.87846565 0.00000000 0.00000000 0.00000000
Neuron 25 3 0.75000000 3 5.34772428 0.00000000 0.00000000 0.00000000
Link 2 7 2 0 0.26353516
Link 4 7 4 0 0.27265576
Link 5 7 5 0 0.34364928
Link 6 7 6 0 0.15295562
Link 1 8 7 0 0.57657757
Link 2 8 8 0 -0.46064605
Link 3 8 9 0 0.15540932
Link 5 8 11 0 0.03531940
Link 6 8 12 0 0.65687474
Link 1 10 17 0 0.67974532
Link 10 7 18 0 0.29970871
Link 3 11 20 0 0.59272398
Link 11 17 40 0 1.19818224
Link 17 7 41 0 0.52450861
Link 4 18 45 0 -0.02132675
Link 18 25 90 0 0.64644799
Link 25 8 91 0 -0.07747214
GenomeEnd

GenomeStart 14476
Genome Fitness: -400.000000 
Neuron 1 1 0.00000000 1 0.00000000 0.00000000 0.00000000 0.00000000
Neuron 2 1 0.00000000 1 0.00000000 0.00000000 0.00000000 0.00000000
Neuron 3 1 0.00000000 1 0.00000000 0.00000000 0.00000000 0.00000000
Neuron 4 1 0.00000000 1 0.00000000 0.00000000 0.00000000 0.00000000
Neuron 5 1 0.00000000 1 0.00000000 0.00000000 0.00000000 0.00000000
Neuron 6 2 0.00000000 1 0.00000000 0.00000000 0.00000000 0.00000000
Neuron 7 4 1.00000000 2 3.02500000 0.00000000 0.00000000 0.00000000
Neuron 8 4 1.00000000 2 3.02500000 0.00000000 0.00000000 0.00000000
Neuron 10 3 0.50000000 5 4.56721659 0.00000000 0.00000000 0.00000000
Neuron 11 3 0.50000000 2 5.92556491 0.00000000 0.00000000 0.00000000
Neuron 17 3 0.75000000 11 1.04069260 0.00000000 0.00000000 0.00000000
Neuron 18 3 0.50000000 8 0.87846565 0.00000000 0.00000000 0.00000000
Neuron 25 3 0.75000000 3 5.34772428 0.00000000 0.00000000 0.00000000
Link 2 7 2 0 0.13103024
Link 4 7 4 0 0.12407137
Link 5 7 5 0 0.46636055
Link 6 7 6 0 0.11008781
Link 1 8 7 0 0.59636967
Link 2 8 8 0 -0.28262935
Link 3 8 9 0 -0.09091467
Link 5 8 11 0 -0.15404082
Link 6 8 12 0 0.75207376
Link 1 10 17 0 1.01306894
Link 10 7 18 0 0.41453576
Link 3 11 20 0 0.80278726
Link 11 17 40 0 1.28237417
Link 17 7 41 0 0.35941604
Link 4 18 45 0 -0.08619341
Link 18 25 90 0 0.88987517
Link 25 8 91 0 -0.33178182
GenomeEnd

GenomeStart 14477
Genome Fitness: -300.000000 
Neuron 1 1 0.00000000 1 0.00000000 0.00000000 0.00000000 0.00000000
Neuron 2 1 0.00000000 1 0.00000000 0.00000000 0.00000000 0.00000000
Neuron 3 1 0.00000000 1 0.00000000 0.00000000 0.00000000 0.00000000
Neuron 4 1 0.00000000 1 0.00000000 0.00000000 0.00000000 0.00000000
Neuron 5 1 0.00000000 1 0.00000000 0.00000000 0.00000000 0.00000000
Neuron 6 2 0.00000000 1 0.00000000 0.00000000 0.00000000 0.00000000
Neuron 7 4 1.00000000 2 3.02500000 0.00000000 0.00000000 0.00000000
Neuron 8 4 1.00000000 2 3.02500000 0.00000000 0.00000000 0.00000000
Neuron 10 3 0.50000000 5 4.56721659 0.00000000 0.00000000 0.00000000
Neuron 11 3 0.50000000 2 5.92556491 0.00000000 0.00000000 0.00000000
Neuron 17 3 0.75000000 11 1.04069260 0.00000000 0.00000000 0.00000000
Neuron 18 3 0.50000000 8 0.87846565 0.00000000 0.00000000 0.00000000
Neuron 25 3 0.75000000 3 5.34772428 0.00000000 0.00000000 0.00000000
Link 2 7 2 0 0.22011501
Link 4 7 4 0 0.25889173
Link 5 7 5 0 0.58058800
Link 6 7 6 0 0.01093929
Link 1 8 7 0 0.63771032
Link 2 8 8 0 -0.50237022
Link 3 8 9 0 -0.14021185
Link 5 8 11 0 -0.15663939
Link 6 8 12 0 0.67798385
Link 1 10 17 0 1.13959946
Link 10 7 18 0 0.17134554
Link 3 11 20 0 0.74749603
Link 11 17 40 0 1.19603962
Link 17 7 41 0 0.60083334
Link 4 18 45 0 -0.18157886
Link 18 25 90 0 0.92008521
Link 25 8 91 0 -0.24056552
GenomeEnd

GenomeStart 14478
Genome Fitness: -400.000000 
Neuron 1 1 0.00000000 1 0.00000000 0.00000000 0.00000000 0.00000000
Neuron 2 1 0.00000000 1 0.00000000 0.00000000 0.00000000 0.00000000
Neuron 3 1 0.00000000 1 0.00000000 0.00000000 0.00000000 0.00000000
Neuron 4 1 0.00000000 1 0.00000000 0.00000000 0.00000000 0.00000000
Neuron 5 1 0.00000000 1 0.00000000 0.00000000 0.00000000 0.00000000
Neuron 6 2 0.00000000 1 0.00000000 0.00000000 0.00000000 0.00000000
Neuron 7 4 1.00000000 2 3.02500000 0.00000000 0.00000000 0.00000000
Neuron 8 4 1.00000000 2 3.02500000 0.00000000 0.00000000 0.00000000
Neuron 10 3 0.50000000 5 4.56721659 0.00000000 0.00000000 0.00000000
Neuron 11 3 0.50000000 2 5.92556491 0.00000000 0.00000000 0.00000000
Neuron 17 3 0.75000000 11 1.04069260 0.00000000 0.00000000 0.00000000
Neuron 18 3 0.50000000 8 0.87846565 0.00000000 0.00000000 0.00000000
Neuron 25 3 0.75000000 3 5.34772428 0.00000000 0.00000000 0.00000000
Link 2 7 2 0 0.25478987
Link 4 7 4 0 0.31200099
Link 5 7 5 0 -0.06656574
Link 6 7 6 0 0.02669176
Link 1 8 7 0 0.65335748
Link 2 8 8 0 -0.42759290
Link 3 8 9 0 -0.05133712
Link 5 8 11 0 -0.07630482
Link 6 8 12 0 -0.58965677
Link 1 10 17 0 1.13491538
Link 10 7 18 0 -0.53177394
Link 3 11 20 0 -0.13105871
Link 11 17 40 0 1.25528457
Link 17 7 41 0 0.62990226
Link 4 18 45 0 -0.09763797
Link 18 25 90 0 1.00373324
Link 25 8 91 0 -0.40706285
GenomeEnd

GenomeStart 14479
Genome Fitness: -300.000000 
Neuron 1 1 0.00000000 1 0.00000000 0.00000000 0.00000000 0.00000000
Neuron 2 1 0.00000000 1 0.00000000 0.00000000 0.00000000 0.00000000
Neuron 3 1 0.00000000 1 0.00000000 0.00000000 0.00000000 0.00000000
Neuron 4 1 0.00000000 1 0.00000000 0.00000000 0.00000000 0.00000000
Neuron 5 1 0.00000000 1 0.00000000 0.00000000 0.00000000 0.00000000
Neuron 6 2 0.00000000 1 0.00000000 0.00000000 0.00000000 0.00000000
Neuron 7 4 1.00000000 2 3.02500000 0.00000000 0.00000000 0.00000000
Neuron 8 4 1.00000000 2 3.02500000 0.00000000 0.00000000 0.00000000
Neuron 10 3 0.50000000 5 4.56721659 0.00000000 0.00000000 0.00000000
Neuron 11 3 0.50000000 2 5.92556491 0.00000000 0.00000000 0.00000000
Neuron 17 3 0.75000000 11 1.04069260 0.00000000 0.00000000 0.00000000
Neuron 18 3 0.50000000 8 0.87846565 0.00000000 0.00000000 0.00000000
Neuron 25 3 0.75000000 3 5.34772428 0.00000000 0.00000000 0.00000000
Link 2 7 2 0 0.16345878
Link 4 7 4 0 0.26290692
Link 5 7 5 0 0.51491594
Link 6 7 6 0 0.23184511
Link 1 8 7 0 0.58400104
Link 2 8 8 0 -0.41905361
Link 3 8 9 0 0.01872066
Link 5 8 11 0 -0.14357423
Link 6 8 12 0 0.79220566
Link 1 10 17 0 -0.03403423
Link 10 7 18 0 0.31028247
Link 3 11 20 0 0.79190254
Link 11 17 40 0 1.21426646
Link 17 7 41 0 0.45749759
Link 4 18 45 0 -0.03936178
Link 18 25 90 0 0.92633258
Link 25 8 91 0 -0.04804765
GenomeEnd

GenomeStart 14480
Genome Fitness: -200.000000 
Neuron 1 1 0.00000000 1 0.00000000 0.00000000 0.00000000 0.00000000
Neuron 2 1 0.00000000 1 0.00000000 0.00000000 0.00000000 0.00000000
Neuron 3 1 0.00000000 1 0.00000000 0.00000000 0.00000000 0.00000000
Neuron 4 1 0.00000000 1 0.00000000 0.00000000 0.00000000 0.00000000
Neuron 5 1 0.00000000 1 0.00000000 0.00000000 0.00000000 0.00000000
Neuron 6 2 0.00000000 1 0.00000000 0.00000000 0.00000000 0.00000000
Neuron 7 4 1.00000000 2 3.02500000 0.00000000 0.00000000 0.00000000
Neuron 8 4 1.00000000 2 3.02500000 0.00000000 0.00000000 0.00000000
Neuron 10 3 0.50000000 5 4.56721659 0.00000000 0.00000000 0.00000000
Neuron 11 3 0.50000000 2 5.92556491 0.00000000 0.00000000 0.00000000
Neuron 17 3 0.75000000 11 1.04069260 0.00000000 0.00000000 0.00000000
Neuron 18 3 0.50000000 8 0.87846565 0.00000000 0.00000000 0.00000000
Neuron 25 3 0.75000000 3 5.34772428 0.00000000 0.00000000 0.00000000
Link 2 7 2 0 0.21638892
Link 4 7 4 0 0.26083575
Link 5 7 5 0 0.56782474
Link 6 7 6 0 0.44268765
Link 1 8 7 0 0.61247739
Link 2 8 8 0 -0.31268716
Link 3 8 9 0 -0.10794136
Link 5 8 11 0 -0.19853016
Link 6 8 12 0 0.68571416
Link 1 10 17 0 0.39873445
Link 10 7 18 0 0.46041683
Link 3 11 20 0 0.74307503
Link 11 17 40 0 1.28726046
Link 17 7 41 0 0.50033499
Link 4 18 45 0 0.02650980
Link 18 25 90 0 0.90977366
Link 25 8 91 0 0.02832890
GenomeEnd

GenomeStart 14481
Genome Fitness: -400.000000 
Neuron 1 1 0.00000000 1 0.00000000 0.00000000 0.00000000 0.00000000
Neuron 2 1 0.00000000 1 0.00000000 0.00000000 0.00000000 0.00000000
Neuron 3 1 0.00000000 1 0.00000000 0.00000000 0.00000000 0.00000000
Neuron 4 1 0.00000000 1 0.00000000 0.00000000 0.00000000 0.00000000
Neuron 5 1 0.00000000 1 0.00000000 0.00000000 0.00000000 0.00000000
Neuron 6 2 0.00000000 1 0.00000000 0.00000000 0.00000000 0.00000000
Neuron 7 4 1.00000000 2 3.02500000 0.00000000 0.00000000 0.00000000
Neuron 8 4 1.00000000 2 3.02500000 0.00000000 0.00000000 0.00000000
Neuron 10 3 0.50000000 5 4.56721659 0.00000000 0.00000000 0.00000000
Neuron 11 3 0.50000000 2 5.92556491 0.00000000 0.00000000 0.00000000
Neuron 17 3 0.75000000 11 1.04069260 0.00000000 0.00000000 0.00000000
Neuron 18 3 0.50000000 8 0.87846565 0.00000000 0.00000000 0.00000000
Neuron 25 3 0.75000000 3 5.34772428 0.00000000 0.00000000 0.00000000
Link 2 7 2 0 0.04784721
Link 4 7 4 0 0.17079479
Link 5 7 5 0 0.42062066
Link 6 7 6 0 -0.12143733
Link 1 8 7 0 0.69271045
Link 2 8 8 0 -0.48647036
Link 3 8 9 0 0.17212030
Link 5 8 11 0 -0.13912940
Link 6 8 12 0 0.82457303
Link 1 10 17 0 0.07564711
Link 10 7 18 0 0.30729214
Link 3 11 20 0 0.80157717
Link 11 17 40 0 1.32763934
Link 17 7 41 0 0.39352155
Link 4 18 45 0 0.05372327
Link 18 25 90 0 0.87596275
Link 25 8 91 0 0.09911840
GenomeEnd

GenomeStart 14482
Genome Fitness: -300.000000 
Neuron 1 1 0.00000000 1 0.00000000 0.00000000 0.00000000 0.00000000
Neuron 2 1 0.00000000 1 0.00000000 0.00000000 0.00000000 0.00000000
Neuron 3 1 0.00000000 1 0.00000000 0.00000000 0.00000000 0.00000000
Neuron 4 1 0.00000000 1 0.00000000 0.00000000 0.00000000 0.00000000
Neuron 5 1 0.00000000 1 0.00000000 0.00000000 0.00000000 0.00000000
Neuron 6 2 0.00000000 1 0.00000000 0.00000000 0.00000000 0.00000000
Neuron 7 4 1.00000000 2 3.02500000 0.00000000 0.00000000 0.00000000
Neuron 8 4 1.00000000 2 3.02500000 0.00000000 0.00000000 0.00000000
Neuron 10 3 0.50000000 5 4.56721659 0.00000000 0.00000000 0.00000000
Neuron 11 3 0.50000000 2 5.92556491 0.00000000 0.00000000 0.00000000
Neuron 17 3 0.75000000 11 1.04069260 0.00000000 0.00000000 0.00000000
Neuron 18 3 0.50000000 8 0.87846565 0.00000000 0.00000000 0.00000000
Neuron 25 3 0.75000000 3 5.34772428 0.00000000 0.00000000 0.00000000
Link 2 7 2 0 0.17691933
Link 4 7 4 0 0.02229266
Link 5 7 5 0 0.46527673
Link 6 7 6 0 -0.10085034
Link 1 8 7 0 0.50963131
Link 2 8 8 0 -0.39788420
Link 3 8 9 0 0.06184454
Link 5 8 11 0 -0.13846093
Link 6 8 12 0 0.59032100
Link 1 10 17 0 -0.64353135
Link 10 7 18 0 0.31079187
Link 3 11 20 0 0.66050745
Link 11 17 40 0 1.19724166
Link 17 7 41 0 0.23049558
Link 4 18 45 0 -0.06230716
Link 18 25 90 0 0.98841569
Link 25 8 91 0 -0.62628788
GenomeEnd

GenomeStart 14483
Genome Fitness: -400.000000 
Neuron 1 1 0.00000000 1 0.00000000 0.00000000 0.00000000 0.00000000
Neuron 2 1 0.00000000 1 0.00000000 0.00000000 0.00000000 0.00000000
Neuron 3 1 0.00000000 1 0.00000000 0.00000000 0.00000000 0.00000000
Neuron 4 1 0.00000000 1 0.00000000 0.00000000 0.00000000 0.00000000
Neuron 5 1 0.00000000 1 0.00000000 0.00000000 0.00000000 0.00000000
Neuron 6 2 0.00000000 1 0.00000000 0.00000000 0.00000000 0.00000000
Neuron 7 4 1.00000000 2 3.02500000 0.00000000 0.00000000 0.00000000
Neuron 8 4 1.00000000 2 3.02500000 0.00000000 0.00000000 0.00000000
Neuron 10 3 0.50000000 5 4.56721659 0.00000000 0.00000000 0.00000000
Neuron 11 3 0.50000000 2 5.92556491 0.00000000 0.00000000 0.00000000
Neuron 17 3 0.75000000 11 1.04069260 0.00000000 0.00000000 0.00000000
Neuron 18 3 0.50000000 8 0.87846565 0.00000000 0.00000000 0.00000000
Neuron 25 3 0.75000000 3 5.34772428 0.00000000 0.00000000 0.00000000
Link 2 7 2 0 0.06036532
Link 4 7 4 0 0.39536953
Link 5 7 5 0 0.66023190
Link 6 7 6 0 0.26726044
Link 1 8 7 0 0.48978358
Link 2 8 8 0 -0.33408488
Link 3 8 9 0 0.01769162
Link 5 8 11 0 -0.26521411
Link 6 8 12 0 0.89732589
Link 1 10 17 0 0.53321236
Link 10 7 18 0 0.30245700
Link 3 11 20 0 0.67596972
Link 11 17 40 0 1.20361930
Link 17 7 41 0 0.48407768
Link 4 18 45 0 -0.06458676
Link 18 25 90 0 0.96735581
Link 25 8 91 0 -0.14234596
GenomeEnd

GenomeStart 14484
Genome Fitness: -300.000000 
Neuron 1 1 0.00000000 1 0.00000000 0.00000000 0.00000000 0.00000000
Neuron 2 1 0.00000000 1 0.00000000 0.00000000 0.00000000 0.00000000
Neuron 3 1 0.00000000 1 0.00000000 0.00000000 0.00000000 0.00000000
Neuron 4 1 0.00000000 1 0.00000000 0.00000000 0.00000000 0.00000000
Neuron 5 1 0.00000000 1 0.00000000 0.00000000 0.00000000 0.00000000
Neuron 6 2 0.00000000 1 0.00000000 0.00000000 0.00000000 0.00000000
Neuron 7 4 1.00000000 2 3.02500000 0.00000000 0.00000000 0.00000000
Neuron 8 4 1.00000000 2 3.02500000 0.00000000 0.00000000 0.00000000
Neuron 10 3 0.50000000 5 4.56721659 0.00000000 0.00000000 0.00000000
Neuron 11 3 0.50000000 2 5.92556491 0.00000000 0.00000000 0.00000000
Neuron 17 3 0.75000000 11 1.04069260 0.00000000 0.00000000 0.00000000
Neuron 18 3 0.50000000 8 0.87846565 0.00000000 0.00000000 0.00000000
Neuron 25 3 0.75000000 3 5.34772428 0.00000000 0.00000000 0.00000000
Link 2 7 2 0 0.22352243
Link 4 7 4 0 0.38186901
Link 5 7 5 0 0.51937438
Link 6 7 6 0 0.00864789
Link 1 8 7 0 0.62930468
Link 2 8 8 0 -0.41586706
Link 3 8 9 0 0.03407885
Link 5 8 11 0 -0.24619299
Link 6 8 12 0 0.68847866
Link 1 10 17 0 1.00737022
Link 10 7 18 0 0.22522749
Link 3 11 20 0 0.76648016
Link 11 17 40 0 1.37869377
Link 17 7 41 0 0.54702048
Link 4 18 45 0 -0.18445672
Link 18 25 90 0 0.97337327
Link 25 8 91 0 -0.26733171
GenomeEnd

GenomeStart 14485
Genome Fitness: -300.000000 
Neuron 1 1 0.00000000 1 0.00000000 0.00000000 0.00000000 0.00000000
Neuron 2 1 0.00000000 1 0.00000000 0.00000000 0.00000000 0.00000000
Neuron 3 1 0.00000000 1 0.00000000 0.00000000 0.00000000 0.00000000
Neuron 4 1 0.00000000 1 0.00000000 0.00000000 0.00000000 0.00000000
Neuron 5 1 0.00000000 1 0.00000000 0.00000000 0.00000000 0.00000000
Neuron 6 2 0.00000000 1 0.00000000 0.00000000 0.00000000 0.00000000
Neuron 7 4 1.00000000 2 3.02500000 0.00000000 0.00000000 0.00000000
Neuron 8 4 1.00000000 2 3.02500000 0.00000000 0.00000000 0.00000000
Neuron 10 3 0.50000000 5 4.56721659 0.00000000 0.00000000 0.00000000
Neuron 11 3 0.50000000 2 5.92556491 0.00000000 0.00000000 0.00000000
Neuron 17 3 0.75000000 11 1.04069260 0.00000000 0.00000000 0.00000000
Neuron 18 3 0.50000000 8 0.87846565 0.00000000 0.00000000 0.00000000
Neuron 25 3 0.75000000 3 5.34772428 0.00000000 0.00000000 0.00000000
Link 2 7 2 0 0.19055464
Link 4 7 4 0 0.30303818
Link 5 7 5 0 0.53807700
Link 6 7 6 0 0.57755942
Link 1 8 7 0 0.48945850
Link 2 8 8 0 -0.40470092
Link 3 8 9 0 -0.00789990
Link 5 8 11 0 -0.17334081
Link 6 8 12 0 0.65579687
Link 1 10 17 0 -0.16513996
Link 10 7 18 0 0.37618854
Link 3 11 20 0 0.76612171
Link 11 17 40 0 1.25522723
Link 17 7 41 0 0.51985063
Link 4 18 45 0 -0.05666752
Link 18 25 90 0 0.95737621
Link 25 8 91 0 -0.51541612
GenomeEnd

GenomeStart 14486
Genome Fitness: -200.000000 
Neuron 1 1 0.00000000 1 0.00000000 0.00000000 0.00000000 0.00000000
Neuron 2 1 0.00000000 1 0.00000000 0.00000000 0.00000000 0.00000000
Neuron 3 1 0.00000000 1 0.00000000 0.00000000 0.00000000 0.00000000
Neuron 4 1 0.00000000 1 0.00000000 0.00000000 0.00000000 0.00000000
Neuron 5 1 0.00000000 1 0.00000000 0.00000000 0.00000000 0.00000000
Neuron 6 2 0.00000000 1 0.00000000 0.00000000 0.00000000 0.00000000
Neuron 7 4 1.00000000 2 3.02500000 0.00000000 0.00000000 0.00000000
Neuron 8 4 1.00000000 2 3.02500000 0.00000000 0.00000000 0.00000000
Neuron 10 3 0.50000000 5 4.56721659 0.00000000 0.00000000 0.00000000
Neuron 11 3 0.50000000 2 5.92556491 0.00000000 0.00000000 0.00000000
Neuron 17 3 0.75000000 11 1.04069260 0.00000000 0.00000000 0.00000000
Neuron 18 3 0.50000000 8 0.87846565 0.00000000 0.00000000 0.00000000
Neuron 25 3 0.75000000 3 5.34772428 0.00000000 0.00000000 0.00000000
Link 2 7 2 0 0.08110873
Link 4 7 4 0 0.32725360
Link 5 7 5 0 0.64919061
Link 6 7 6 0 -0.02981748
Link 1 8 7 0 0.62098882
Link 2 8 8 0 -0.38989130
Link 3 8 9 0 -0.07531331
Link 5 8 11 0 -0.13656667
Link 6 8 12 0 0.77731455
Link 1 10 17 0 1.11472935
Link 10 7 18 0 0.34137317
Link 3 11 20 0 0.67210535
Link 11 17 40 0 1.33866138
Link 17 7 41 0 0.52864503
Link 4 18 45 0 -0.16450814
Link 18 25 90 0 0.84391532
Link 25 8 91 0 -0.21611270
Link 11 25 218 0 0.09202421
GenomeEnd

GenomeStart 14487
Genome Fitness: -400.000000 
Neuron 1 1 0.00000000 1 0.00000000 0.00000000 0.00000000 0.00000000
Neuron 2 1 0.00000000 1 0.00000000 0.00000000 0.00000000 0.00000000
Neuron 3 1 0.00000000 1 0.00000000 0.00000000 0.00000000 0.00000000
Neuron 4 1 0.00000000 1 0.00000000 0.00000000 0.00000000 0.00000000
Neuron 5 1 0.00000000 1 0.00000000 0.00000000 0.00000000 0.00000000
Neuron 6 2 0.00000000 1 0.00000000 0.00000000 0.00000000 0.00000000
Neuron 7 4 1.00000000 2 3.02500000 0.00000000 0.00000000 0.00000000
Neuron 8 4 1.00000000 2 3.02500000 0.00000000 0.00000000 0.00000000
Neuron 10 3 0.50000000 5 4.56721659 0.00000000 0.00000000 0.00000000
Neuron 11 3 0.50000000 2 5.92556491 0.00000000 0.00000000 0.00000000
Neuron 17 3 0.75000000 11 1.04069260 0.00000000 0.00000000 0.00000000
Neuron 18 3 0.50000000 8 0.87846565 0.00000000 0.00000000 0.00000000
Neuron 25 3 0.75000000 3 5.34772428 0.00000000 0.00000000 0.00000000
Link 2 7 2 0 0.24017511
Link 4 7 4 0 0.21381284
Link 5 7 5 0 0.50711419
Link 6 7 6 0 -0.07631778
Link 1 8 7 0 0.58400104
Link 2 8 8 0 -0.43349554
Link 3 8 9 0 0.01872066
Link 5 8 11 0 -0.07575274
Link 6 8 12 0 0.82727735
Link 1 10 17 0 0.07650016
Link 10 7 18 0 0.72165087
Link 3 11 20 0 0.82866087
Link 11 17 40 0 1.26052112
Link 17 7 41 0 0.63553999
Link 4 18 45 0 0.09274398
Link 18 25 90 0 0.88241426
Link 25 8 91 0 0.12088059
GenomeEnd

GenomeStart 14488
Genome Fitness: -200.000000 
Neuron 1 1 0.00000000 1 0.00000000 0.00000000 0.00000000 0.00000000
Neuron 2 1 0.00000000 1 0.00000000 0.00000000 0.00000000 0.00000000
Neuron 3 1 0.00000000 1 0.00000000 0.00000000 0.00000000 0.00000000
Neuron 4 1 0.00000000 1 0.00000000 0.00000000 0.00000000 0.00000000
Neuron 5 1 0.00000000 1 0.00000000 0.00000000 0.00000000 0.00000000
Neuron 6 2 0.00000000 1 0.00000000 0.00000000 0.00000000 0.00000000
Neuron 7 4 1.00000000 2 3.02500000 0.00000000 0.00000000 0.00000000
Neuron 8 4 1.00000000 2 3.02500000 0.00000000 0.00000000 0.00000000
Neuron 10 3 0.50000000 5 4.56721659 0.00000000 0.00000000 0.00000000
Neuron 11 3 0.50000000 2 5.92556491 0.00000000 0.00000000 0.00000000
Neuron 17 3 0.75000000 11 1.04069260 0.00000000 0.00000000 0.00000000
Neuron 18 3 0.50000000 8 0.87846565 0.00000000 0.00000000 0.00000000
Neuron 25 3 0.75000000 3 5.34772428 0.00000000 0.00000000 0.00000000
Link 2 7 2 0 0.21717823
Link 4 7 4 0 0.31200099
Link 5 7 5 0 0.52311514
Link 6 7 6 0 -0.00228156
Link 1 8 7 0 0.61497142
Link 2 8 8 0 -0.42861922
Link 3 8 9 0 0.01872066
Link 5 8 11 0 -0.14357423
Link 6 8 12 0 0.75713396
Link 1 10 17 0 1.07358038
Link 10 7 18 0 0.28913494
Link 3 11 20 0 0.73948179
Link 11 17 40 0 1.24982854
Link 17 7 41 0 0.52450861
Link 4 18 45 0 -0.09763797
Link 18 25 90 0 0.96979735
Link 25 8 91 0 -0.34492188
GenomeEnd

GenomeStart 14489
Genome Fitness: -200.000000 
Neuron 1 1 0.00000000 1 0.00000000 0.00000000 0.00000000 0.00000000
Neuron 2 1 0.00000000 1 0.00000000 0.00000000 0.00000000 0.00000000
Neuron 3 1 0.00000000 1 0.00000000 0.00000000 0.00000000 0.00000000
Neuron 4 1 0.00000000 1 0.00000000 0.00000000 0.00000000 0.00000000
Neuron 5 1 0.00000000 1 0.00000000 0.00000000 0.00000000 0.00000000
Neuron 6 2 0.00000000 1 0.00000000 0.00000000 0.00000000 0.00000000
Neuron 7 4 1.00000000 2 3.02500000 0.00000000 0.00000000 0.00000000
Neuron 8 4 1.00000000 2 3.02500000 0.00000000 0.00000000 0.00000000
Neuron 10 3 0.50000000 5 4.56721659 0.00000000 0.00000000 0.00000000
Neuron 11 3 0.50000000 2 5.92556491 0.00000000 0.00000000 0.00000000
Neuron 17 3 0.75000000 11 1.04069260 0.00000000 0.00000000 0.00000000
Neuron 18 3 0.50000000 8 0.87846565 0.00000000 0.00000000 0.00000000
Neuron 25 3 0.75000000 3 5.34772428 0.00000000 0.00000000 0.00000000
Link 2 7 2 0 0.19031850
Link 4 7 4 0 0.28745395
Link 5 7 5 0 0.51901554
Link 6 7 6 0 0.11478177
Link 1 8 7 0 0.60722882
Link 2 8 8 0 -0.42383641
Link 3 8 9 0 0.01872066
Link 5 8 11 0 -0.14357423
Link 6 8 12 0 0.77466981
Link 1 10 17 0 0.79667673
Link 10 7 18 0 0.29442183
Link 3 11 20 0 0.75258698
Link 11 17 40 0 1.24093802
Link 17 7 41 0 0.50775586
Link 4 18 45 0 -0.06849987
Link 18 25 90 0 0.95893116
Link 25 8 91 0 -0.19648476
GenomeEnd

GenomeStart 14490
Genome Fitness: -300.000000 
Neuron 1 1 0.00000000 1 0.00000000 0.00000000 0.00000000 0.00000000
Neuron 2 1 0.00000000 1 0.00000000 0.00000000 0.00000000 0.00000000
Neuron 3 1 0.00000000 1 0.00000000 0.00000000 0.00000000 0.00000000
Neuron 4 1 0.00000000 1 0.00000000 0.00000000 0.00000000 0.00000000
Neuron 5 1 0.00000000 1 0.00000000 0.00000000 0.00000000 0.00000000
Neuron 6 2 0.00000000 1 0.00000000 0.00000000 0.00000000 0.00000000
Neuron 7 4 1.00000000 2 3.02500000 0.00000000 0.00000000 0.00000000
Neuron 8 4 1.00000000 2 3.02500000 0.00000000 0.00000000 0.00000000
Neuron 10 3 0.50000000 5 4.56721659 0.00000000 0.00000000 0.00000000
Neuron 11 3 0.50000000 2 5.92556491 0.00000000 0.00000000 0.00000000
Neuron 17 3 0.75000000 11 1.04069260 0.00000000 0.00000000 0.00000000
Neuron 18 3 0.50000000 8 0.87846565 0.00000000 0.00000000 0.00000000
Neuron 25 3 0.75000000 3 5.34772428 0.00000000 0.00000000 0.00000000
Link 2 7 2 0 0.24506057
Link 4 7 4 0 0.25958972
Link 5 7 5 0 0.53102027
Link 6 7 6 0 0.04160316
Link 1 8 7 0 0.68010804
Link 2 8 8 0 -0.48226362
Link 3 8 9 0 -0.04588927
Link 5 8 11 0 -0.17240280
Link 6 8 12 0 0.76421497
Link 1 10 17 0 1.06712077
Link 10 7 18 0 0.31476806
Link 3 11 20 0 0.68193377
Link 11 17 40 0 1.17416028
Link 17 7 41 0 0.65768806
Link 4 18 45 0 -0.10251206
Link 18 25 90 0 1.03870969
Link 25 8 91 0 -0.39986838
GenomeEnd

GenomeStart 14491
Genome Fitness: -200.000000 
Neuron 1 1 0.00000000 1 0.00000000 0.00000000 0.00000000 0.00000000
Neuron 2 1 0.00000000 1 0.00000000 0.00000000 0.00000000 0.00000000
Neuron 3 1 0.00000000 1 0.00000000 0.00000000 0.00000000 0.00000000
Neuron 4 1 0.00000000 1 0.00000000 0.00000000 0.00000000 0.00000000
Neuron 5 1 0.00000000 1 0.00000000 0.00000000 0.00000000 0.00000000
Neuron 6 2 0.00000000 1 0.00000000 0.00000000 0.00000000 0.00000000
Neuron 7 4 1.00000000 2 3.02500000 0.00000000 0.00000000 0.00000000
Neuron 8 4 1.00000000 2 3.02500000 0.00000000 0.00000000 0.00000000
Neuron 10 3 0.50000000 5 4.56721659 0.00000000 0.00000000 0.00000000
Neuron 11 3 0.50000000 2 5.92556491 0.00000000 0.00000000 0.00000000
Neuron 17 3 0.75000000 11 1.04069260 0.00000000 0.00000000 0.00000000
Neuron 18 3 0.50000000 8 0.87846565 0.00000000 0.00000000 0.00000000
Neuron 25 3 0.75000000 3 5.34772428 0.00000000 0.00000000 0.00000000
Link 2 7 2 0 0.10973934
Link 4 7 4 0 0.21381284
Link 5 7 5 0 0.50671673
Link 6 7 6 0 -0.00228156
Link 1 8 7 0 0.61497142
Link 2 8 8 0 -0.40948801
Link 3 8 9 0 0.01872066
Link 5 8 11 0 -0.14357423
Link 6 8 12 0 0.75713396
Link 1 10 17 0 -0.03403423
Link 10 7 18 0 0.31028247
Link 3 11 20 0 0.73948179
Link 11 17 40 0 1.24982854
Link 17 7 41 0 0.45749759
Link 4 18 45 0 -0.09763797
Link 18 25 90 0 0.96979735
Link 25 8 91 0 -0.34492188
GenomeEnd

GenomeStart 14492
Genome Fitness: -400.000000 
Neuron 1 1 0.00000000 1 0.00000000 0.00000000 0.00000000 0.00000000
Neuron 2 1 0.00000000 1 0.00000000 0.00000000 0.00000000 0.00000000
Neuron 3 1 0.00000000 1 0.00000000 0.00000000 0.00000000 0.00000000
Neuron 4 1 0.00000000 1 0.00000000 0.00000000 0.00000000 0.00000000
Neuron 5 1 0.00000000 1 0.00000000 0.00000000 0.00000000 0.00000000
Neuron 6 2 0.00000000 1 0.00000000 0.00000000 0.00000000 0.00000000
Neuron 7 4 1.00000000 2 3.02500000 0.00000000 0.00000000 0.00000000
Neuron 8 4 1.00000000 2 3.02500000 0.00000000 0.00000000 0.00000000
Neuron 10 3 0.50000000 5 4.56721659 0.00000000 0.00000000 0.00000000
Neuron 11 3 0.50000000 2 5.92556491 0.00000000 0.00000000 0.00000000
Neuron 17 3 0.75000000 11 1.04069260 0.00000000 0.00000000 0.00000000
Neuron 18 3 0.50000000 8 0.87846565 0.00000000 0.00000000 0.00000000
Neuron 25 3 0.75000000 3 5.34772428 0.00000000 0.00000000 0.00000000
Link 2 7 2 0 0.27259059
Link 4 7 4 0 0.33577937
Link 5 7 5 0 0.42683547
Link 6 7 6 0 -0.04343621
Link 1 8 7 0 0.61607987
Link 2 8 8 0 -0.32899018
Link 3 8 9 0 0.12276626
Link 5 8 11 0 -0.02759382
Link 6 8 12 0 0.78913076
Link 1 10 17 0 0.94616197
Link 10 7 18 0 0.22655933
Link 3 11 20 0 0.80080573
Link 11 17 40 0 1.24508890
Link 17 7 41 0 0.57660999
Link 4 18 45 0 -0.13923216
Link 18 25 90 0 1.05907814
Link 25 8 91 0 -0.51402298
GenomeEnd

GenomeStart 14493
Genome Fitness: -200.000000 
Neuron 1 1 0.00000000 1 0.00000000 0.00000000 0.00000000 0.00000000
Neuron 2 1 0.00000000 1 0.00000000 0.00000000 0.00000000 0.00000000
Neuron 3 1 0.00000000 1 0.00000000 0.00000000 0.00000000 0.00000000
Neuron 4 1 0.00000000 1 0.00000000 0.00000000 0.00000000 0.00000000
Neuron 5 1 0.00000000 1 0.00000000 0.00000000 0.00000000 0.00000000
Neuron 6 2 0.00000000 1 0.00000000 0.00000000 0.00000000 0.00000000
Neuron 7 4 1.00000000 2 3.02500000 0.00000000 0.00000000 0.00000000
Neuron 8 4 1.00000000 2 3.02500000 0.00000000 0.00000000 0.00000000
Neuron 10 3 0.50000000 5 4.56721659 0.00000000 0.00000000 0.00000000
Neuron 11 3 0.50000000 2 5.92556491 0.00000000 0.00000000 0.00000000
Neuron 16 3 0.50000000 9 4.53928403 0.00000000 0.00000000 0.00000000
Neuron 18 3 0.50000000 8 0.87846565 0.00000000 0.00000000 0.00000000
Neuron 28 3 0.75000000 9 0.99435367 0.00000000 0.00000000 0.00000000
Link 5 7 5 0 0.01935598
Link 6 7 6 0 -0.15776843
Link 1 8 7 0 0.67232881
Link 2 8 8 0 -0.20791356
Link 5 8 11 0 -0.42928645
Link 6 8 12 0 -0.02318073
Link 10 7 18 0 0.29484502
Link 3 11 20 0 0.94362214
Link 11 7 21 0 0.09923734
Link 3 16 35 0 -0.23227413
Link 4 18 45 0 -0.22854109
Link 18 8 46 0 -0.32342925
Link 5 10 86 0 -0.37293801
Link 16 28 112 0 1.16334373
Link 28 8 113 0 -0.04652397
Link 2 16 118 0 -0.63379203
GenomeEnd

GenomeStart 14494
Genome Fitness: -200.000000 
Neuron 1 1 0.00000000 1 0.00000000 0.00000000 0.00000000 0.00000000
Neuron 2 1 0.00000000 1 0.00000000 0.00000000 0.00000000 0.00000000
Neuron 3 1 0.00000000 1 0.00000000 0.00000000 0.00000000 0.00000000
Neuron 4 1 0.00000000 1 0.00000000 0.00000000 0.00000000 0.00000000
Neuron 5 1 0.00000000 1 0.00000000 0.00000000 0.00000000 0.00000000
Neuron 6 2 0.00000000 1 0.00000000 0.00000000 0.00000000 0.00000000
Neuron 7 4 1.00000000 2 3.02500000 0.00000000 0.00000000 0.00000000
Neuron 8 4 1.00000000 2 3.02500000 0.00000000 0.00000000 0.00000000
Neuron 10 3 0.50000000 5 4.56721659 0.00000000 0.00000000 0.00000000
Neuron 11 3 0.50000000 2 5.92556491 0.00000000 0.00000000 0.00000000
Neuron 16 3 0.50000000 9 4.53928403 0.00000000 0.00000000 0.00000000
Neuron 18 3 0.50000000 8 0.87846565 0.00000000 0.00000000 0.00000000
Neuron 28 3 0.75000000 9 0.99435367 0.00000000 0.00000000 0.00000000
Link 5 7 5 0 0.03322918
Link 6 7 6 0 -0.15776843
Link 1 8 7 0 0.68340191
Link 2 8 8 0 -0.20791356
Link 5 8 11 0 -0.42928645
Link 6 8 12 0 -0.02318073
Link 1 10 17 0 0.36512106
Link 10 7 18 0 0.29484502
Link 3 11 20 0 0.94432716
Link 11 7 21 0 0.09923734
Link 3 16 35 0 -0.23227413
Link 4 18 45 0 -0.22854109
Link 18 8 46 0 -0.33811507
Link 5 10 86 0 -0.37293801
Link 16 28 112 0 0.95966336
Link 28 8 113 0 -0.04652397
Link 2 16 118 0 -0.60660304
GenomeEnd

GenomeStart 14495
Genome Fitness: -200.000000 
Neuron 1 1 0.00000000 1 0.00000000 0.00000000 0.00000000 0.00000000
Neuron 2 1 0.00000000 1 0.00000000 0.00000000 0.00000000 0.00000000
Neuron 3 1 0.00000000 1 0.00000000 0.00000000 0.00000000 0.00000000
Neuron 4 1 0.00000000 1 0.00000000 0.00000000 0.00000000 0.00000000
Neuron 5 1 0.00000000 1 0.00000000 0.00000000 0.00000000 0.00000000
Neuron 6 2 0.00000000 1 0.00000000 0.00000000 0.00000000 0.00000000
Neuron 7 4 1.00000000 2 3.02500000 0.00000000 0.00000000 0.00000000
Neuron 8 4 1.00000000 2 3.02500000 0.00000000 0.00000000 0.00000000
Neuron 10 3 0.50000000 5 4.56721659 0.00000000 0.00000000 0.00000000
Neuron 11 3 0.50000000 2 5.92556491 0.00000000 0.00000000 0.00000000
Neuron 16 3 0.50000000 9 4.53928403 0.00000000 0.00000000 0.00000000
Neuron 18 3 0.50000000 8 0.87846565 0.00000000 0.00000000 0.00000000
Neuron 28 3 0.75000000 9 0.99435367 0.00000000 0.00000000 0.00000000
Link 5 7 5 0 0.01702841
Link 6 7 6 0 -0.07347818
Link 1 8 7 0 0.72587326
Link 2 8 8 0 -0.18779472
Link 5 8 11 0 -0.48865828
Link 6 8 12 0 -0.14054981
Link 1 10 17 0 0.43060272
Link 10 7 18 0 0.26296950
Link 3 11 20 0 0.77012748
Link 11 7 21 0 0.24160150
Link 3 16 35 0 -0.23115692
Link 4 18 45 0 -0.35534199
Link 18 8 46 0 -0.41885592
Link 5 10 86 0 -0.41660492
Link 16 28 112 0 1.15804715
Link 28 8 113 0 0.07772515
Link 2 16 118 0 -0.61086324
GenomeEnd

GenomeStart 14496
Genome Fitness: -200.000000 
Neuron 1 1 0.00000000 1 0.00000000 0.00000000 0.00000000 0.00000000
Neuron 2 1 0.00000000 1 0.00000000 0.00000000 0.00000000 0.00000000
Neuron 3 1 0.00000000 1 0.00000000 0.00000000 0.00000000 0.00000000
Neuron 4 1 0.00000000 1 0.00000000 0.00000000 0.00000000 0.00000000
Neuron 5 1 0.00000000 1 0.00000000 0.00000000 0.00000000 0.00000000
Neuron 6 2 0.00000000 1 0.00000000 0.00000000 0.00000000 0.00000000
Neuron 7 4 1.00000000 2 3.02500000 0.00000000 0.00000000 0.00000000
Neuron 8 4 1.00000000 2 3.02500000 0.00000000 0.00000000 0.00000000
Neuron 10 3 0.50000000 5 4.56721659 0.00000000 0.00000000 0.00000000
Neuron 11 3 0.50000000 2 5.92556491 0.00000000 0.00000000 0.00000000
Neuron 16 3 0.50000000 9 4.53928403 0.00000000 0.00000000 0.00000000
Neuron 18 3 0.50000000 8 0.87846565 0.00000000 0.00000000 0.00000000
Neuron 28 3 0.75000000 9 0.99435367 0.00000000 0.00000000 0.00000000
Link 5 7 5 0 0.01935598
Link 6 7 6 0 -0.07347818
Link 1 8 7 0 0.72587326
Link 2 8 8 0 -0.18779472
Link 5 8 11 0 -0.42928645
Link 6 8 12 0 -0.14054981
Link 10 7 18 0 0.29484502
Link 3 11 20 0 0.77012748
Link 11 7 21 0 0.09923734
Link 3 16 35 0 -0.23115692
Link 4 18 45 0 -0.35534199
Link 18 8 46 0 -0.41885592
Link 5 10 86 0 -0.37293801
Link 16 28 112 0 1.15804715
Link 28 8 113 0 -0.04652397
Link 2 16 118 0 -0.61086324
GenomeEnd

GenomeStart 14497
Genome Fitness: -400.000000 
Neuron 1 1 0.00000000 1 0.00000000 0.00000000 0.00000000 0.00000000
Neuron 2 1 0.00000000 1 0.00000000 0.00000000 0.00000000 0.00000000
Neuron 3 1 0.00000000 1 0.00000000 0.00000000 0.00000000 0.00000000
Neuron 4 1 0.00000000 1 0.00000000 0.00000000 0.00000000 0.00000000
Neuron 5 1 0.00000000 1 0.00000000 0.00000000 0.00000000 0.00000000
Neuron 6 2 0.00000000 1 0.00000000 0.00000000 0.00000000 0.00000000
Neuron 7 4 1.00000000 2 3.02500000 0.00000000 0.00000000 0.00000000
Neuron 8 4 1.00000000 2 3.02500000 0.00000000 0.00000000 0.00000000
Neuron 10 3 0.50000000 5 4.56721659 0.00000000 0.00000000 0.00000000
Neuron 11 3 0.50000000 2 5.92556491 0.00000000 0.00000000 0.00000000
Neuron 16 3 0.50000000 9 4.53928403 0.00000000 0.00000000 0.00000000
Neuron 18 3 0.50000000 8 0.87846565 0.00000000 0.00000000 0.00000000
Neuron 28 3 0.75000000 9 0.99435367 0.00000000 0.00000000 0.00000000
Link 5 7 5 0 0.03434755
Link 6 7 6 0 -0.01673532
Link 1 8 7 0 0.60616600
Link 2 8 8 0 -0.23061329
Link 5 8 11 0 -0.47999976
Link 6 8 12 0 -0.20950840
Link 10 7 18 0 0.32696638
Link 3 11 20 0 0.97777598
Link 11 7 21 0 0.21214388
Link 3 16 35 0 -0.13475574
Link 4 18 45 0 -0.37581065
Link 18 8 46 0 -0.39909782
Link 5 10 86 0 -0.48879844
Link 16 28 112 0 1.28145077
Link 28 8 113 0 -0.00173186
Link 2 16 118 0 -0.73369840
GenomeEnd

GenomeStart 14498
Genome Fitness: -400.000000 
Neuron 1 1 0.00000000 1 0.00000000 0.00000000 0.00000000 0.00000000
Neuron 2 1 0.00000000 1 0.00000000 0.00000000 0.00000000 0.00000000
Neuron 3 1 0.00000000 1 0.00000000 0.00000000 0.00000000 0.00000000
Neuron 4 1 0.00000000 1 0.00000000 0.00000000 0.00000000 0.00000000
Neuron 5 1 0.00000000 1 0.00000000 0.00000000 0.00000000 0.00000000
Neuron 6 2 0.00000000 1 0.00000000 0.00000000 0.00000000 0.00000000
Neuron 7 4 1.00000000 2 3.02500000 0.00000000 0.00000000 0.00000000
Neuron 8 4 1.00000000 2 3.02500000 0.00000000 0.00000000 0.00000000
Neuron 10 3 0.50000000 5 4.56721659 0.00000000 0.00000000 0.00000000
Neuron 11 3 0.50000000 2 5.92556491 0.00000000 0.00000000 0.00000000
Neuron 16 3 0.50000000 9 4.53928403 0.00000000 0.00000000 0.00000000
Neuron 18 3 0.50000000 8 0.87846565 0.00000000 0.00000000 0.00000000
Neuron 28 3 0.75000000 9 0.99435367 0.00000000 0.00000000 0.00000000
Link 5 7 5 0 0.08840967
Link 6 7 6 0 -0.24667114
Link 1 8 7 0 0.63853732
Link 2 8 8 0 -0.34925183
Link 5 8 11 0 -0.34691797
Link 6 8 12 0 -0.12297014
Link 10 7 18 0 0.34201951
Link 3 11 20 0 1.03012503
Link 11 7 21 0 0.13620299
Link 3 16 35 0 -0.22884361
Link 4 18 45 0 -0.12047656
Link 18 8 46 0 -0.28640005
Link 5 10 86 0 -0.29904199
Link 16 28 112 0 1.22001860
Link 28 8 113 0 -0.02010449
Link 2 16 118 0 -0.57469531
GenomeEnd

GenomeStart 14499
Genome Fitness: -400.000000 
Neuron 1 1 0.00000000 1 0.00000000 0.00000000 0.00000000 0.00000000
Neuron 2 1 0.00000000 1 0.00000000 0.00000000 0.00000000 0.00000000
Neuron 3 1 0.00000000 1 0.00000000 0.00000000 0.00000000 0.00000000
Neuron 4 1 0.00000000 1 0.00000000 0.00000000 0.00000000 0.00000000
Neuron 5 1 0.00000000 1 0.00000000 0.00000000 0.00000000 0.00000000
Neuron 6 2 0.00000000 1 0.00000000 0.00000000 0.00000000 0.00000000
Neuron 7 4 1.00000000 2 3.02500000 0.00000000 0.00000000 0.00000000
Neuron 8 4 1.00000000 2 3.02500000 0.00000000 0.00000000 0.00000000
Neuron 10 3 0.50000000 5 4.56721659 0.00000000 0.00000000 0.00000000
Neuron 11 3 0.50000000 2 5.92556491 0.00000000 0.00000000 0.00000000
Neuron 16 3 0.50000000 9 4.53928403 0.00000000 0.00000000 0.00000000
Neuron 18 3 0.50000000 8 0.87846565 0.00000000 0.00000000 0.00000000
Neuron 28 3 0.75000000 9 0.99435367 0.00000000 0.00000000 0.00000000
Link 5 7 5 0 -0.03418274
Link 6 7 6 0 -0.09940166
Link 1 8 7 0 0.86701870
Link 2 8 8 0 -0.10554664
Link 5 8 11 0 -0.42653421
Link 6 8 12 0 -0.18647881
Link 10 7 18 0 0.29471903
Link 3 11 20 0 0.91037934
Link 11 7 21 0 0.19115323
Link 3 16 35 0 -0.21562846
Link 4 18 45 0 -0.32110358
Link 18 8 46 0 -0.22699589
Link 5 10 86 0 -0.45522955
Link 16 28 112 0 1.01230218
Link 28 8 113 0 -0.06551478
Link 2 16 118 0 -0.55425041
GenomeEnd

GenomeStart 14500
Genome Fitness: -200.000000 
Neuron 1 1 0.00000000 1 0.00000000 0.00000000 0.00000000 0.00000000
Neuron 2 1 0.00000000 1 0.00000000 0.00000000 0.00000000 0.00000000
Neuron 3 1 0.00000000 1 0.00000000 0.00000000 0.00000000 0.00000000
Neuron 4 1 0.00000000 1 0.00000000 0.00000000 0.00000000 0.00000000
Neuron 5 1 0.00000000 1 0.00000000 0.00000000 0.00000000 0.00000000
Neuron 6 2 0.00000000 1 0.00000000 0.00000000 0.00000000 0.00000000
Neuron 7 4 1.00000000 2 3.02500000 0.00000000 0.00000000 0.00000000
Neuron 8 4 1.00000000 2 3.02500000 0.00000000 0.00000000 0.00000000
Neuron 10 3 0.50000000 5 4.56721659 0.00000000 0.00000000 0.00000000
Neuron 11 3 0.50000000 2 5.92556491 0.00000000 0.00000000 0.00000000
Neuron 16 3 0.50000000 9 4.53928403 0.00000000 0.00000000 0.00000000
Neuron 18 3 0.50000000 8 0.87846565 0.00000000 0.00000000 0.00000000
Neuron 28 3 0.75000000 9 0.99435367 0.00000000 0.00000000 0.00000000
Link 5 7 5 0 0.01819219
Link 6 7 6 0 -0.07347818
Link 1 8 7 0 0.72587326
Link 2 8 8 0 -0.18779472
Link 5 8 11 0 -0.45897237
Link 6 8 12 0 -0.08186527
Link 10 7 18 0 0.26296950
Link 3 11 20 0 0.77012748
Link 11 7 21 0 0.17041942
Link 3 16 35 0 -0.23171553
Link 4 18 45 0 -0.35534199
Link 18 8 46 0 -0.37114259
Link 5 10 86 0 -0.39477147
Link 16 28 112 0 1.16069544
Link 28 8 113 0 0.01560059
Link 2 16 118 0 -0.62232764
GenomeEnd

GenomeStart 14501
Genome Fitness: -400.000000 
Neuron 1 1 0.00000000 1 0.00000000 0.00000000 0.00000000 0.00000000
Neuron 2 1 0.00000000 1 0.00000000 0.00000000 0.00000000 0.00000000
Neuron 3 1 0.00000000 1 0.00000000 0.00000000 0.00000000 0.00000000
Neuron 4 1 0.00000000 1 0.00000000 0.00000000 0.00000000 0.00000000
Neuron 5 1 0.00000000 1 0.00000000 0.00000000 0.00000000 0.00000000
Neuron 6 2 0.00000000 1 0.00000000 0.00000000 0.00000000 0.00000000
Neuron 7 4 1.00000000 2 3.02500000 0.00000000 0.00000000 0.00000000
Neuron 8 4 1.00000000 2 3.02500000 0.00000000 0.00000000 0.00000000
Neuron 10 3 0.50000000 5 4.56721659 0.00000000 0.00000000 0.00000000
Neuron 11 3 0.50000000 2 5.92556491 0.00000000 0.00000000 0.00000000
Neuron 16 3 0.50000000 9 4.53928403 0.00000000 0.00000000 0.00000000
Neuron 18 3 0.50000000 8 0.87846565 0.00000000 0.00000000 0.00000000
Neuron 28 3 0.75000000 9 0.99435367 0.00000000 0.00000000 0.00000000
Link 5 7 5 0 -0.11116091
Link 6 7 6 0 0.02603075
Link 1 8 7 0 0.77470176
Link 2 8 8 0 -0.16488751
Link 5 8 11 0 -0.32456280
Link 6 8 12 0 -0.18462800
Link 10 7 18 0 0.24388126
Link 3 11 20 0 0.84372262
Link 11 7 21 0 0.18848516
Link 3 16 35 0 -0.23151436
Link 4 18 45 0 -0.31832607
Link 18 8 46 0 -0.31828012
Link 5 10 86 0 -0.53197497
Link 16 28 112 0 1.04433164
Link 28 8 113 0 -0.11727625
Link 2 16 118 0 -0.82090648
GenomeEnd

GenomeStart 14502
Genome Fitness: -400.000000 
Neuron 1 1 0.00000000 1 0.00000000 0.00000000 0.00000000 0.00000000
Neuron 2 1 0.00000000 1 0.00000000 0.00000000 0.00000000 0.00000000
Neuron 3 1 0.00000000 1 0.00000000 0.00000000 0.00000000 0.00000000
Neuron 4 1 0.00000000 1 0.00000000 0.00000000 0.00000000 0.00000000
Neuron 5 1 0.00000000 1 0.00000000 0.00000000 0.00000000 0.00000000
Neuron 6 2 0.00000000 1 0.00000000 0.00000000 0.00000000 0.00000000
Neuron 7 4 1.00000000 2 3.02500000 0.00000000 0.00000000 0.00000000
Neuron 8 4 1.00000000 2 3.02500000 0.00000000 0.00000000 0.00000000
Neuron 10 3 0.50000000 5 4.56721659 0.00000000 0.00000000 0.00000000
Neuron 11 3 0.50000000 2 5.92556491 0.00000000 0.00000000 0.00000000
Neuron 16 3 0.50000000 9 4.53928403 0.00000000 0.00000000 0.00000000
Neuron 18 3 0.50000000 8 0.87846565 0.00000000 0.00000000 0.00000000
Neuron 28 3 0.75000000 9 0.99435367 0.00000000 0.00000000 0.00000000
Link 5 7 5 0 0.05471233
Link 6 7 6 0 -0.13776046
Link 1 8 7 0 0.72539214
Link 2 8 8 0 -0.13379134
Link 5 8 11 0 -0.57824566
Link 6 8 12 0 -0.16949553
Link 10 7 18 0 0.33926802
Link 3 11 20 0 1.03342622
Link 11 7 21 0 0.14978453
Link 3 16 35 0 -0.34321162
Link 4 18 45 0 -0.27911482
Link 18 8 46 0 -0.14873508
Link 5 10 86 0 -0.35776773
Link 16 28 112 0 1.30722143
Link 28 8 113 0 -0.01710948
Link 2 16 118 0 -0.53450122
GenomeEnd

GenomeStart 14503
Genome Fitness: -400.000000 
Neuron 1 1 0.00000000 1 0.00000000 0.00000000 0.00000000 0.00000000
Neuron 2 1 0.00000000 1 0.00000000 0.00000000 0.00000000 0.00000000
Neuron 3 1 0.00000000 1 0.00000000 0.00000000 0.00000000 0.00000000
Neuron 4 1 0.00000000 1 0.00000000 0.00000000 0.00000000 0.00000000
Neuron 5 1 0.00000000 1 0.00000000 0.00000000 0.00000000 0.00000000
Neuron 6 2 0.00000000 1 0.00000000 0.00000000 0.00000000 0.00000000
Neuron 7 4 1.00000000 2 3.02500000 0.00000000 0.00000000 0.00000000
Neuron 8 4 1.00000000 2 3.02500000 0.00000000 0.00000000 0.00000000
Neuron 10 3 0.50000000 5 4.56721659 0.00000000 0.00000000 0.00000000
Neuron 11 3 0.50000000 2 5.92556491 0.00000000 0.00000000 0.00000000
Neuron 16 3 0.50000000 9 4.53928403 0.00000000 0.00000000 0.00000000
Neuron 18 3 0.50000000 8 0.87846565 0.00000000 0.00000000 0.00000000
Neuron 28 3 0.75000000 9 0.99435367 0.00000000 0.00000000 0.00000000
Link 5 7 5 0 0.02887211
Link 6 7 6 0 -0.20750949
Link 1 8 7 0 0.73222581
Link 2 8 8 0 -0.25211855
Link 5 8 11 0 -0.51299550
Link 6 8 12 0 -0.03563111
Link 10 7 18 0 0.25107751
Link 3 11 20 0 0.69137815
Link 11 7 21 0 0.04985457
Link 3 16 35 0 -0.22016623
Link 4 18 45 0 -0.33868406
Link 18 8 46 0 -0.29155324
Link 5 10 86 0 -0.33658404
Link 16 28 112 0 0.98050446
Link 28 8 113 0 0.10531349
Link 2 16 118 0 -0.60513467
GenomeEnd

GenomeStart 14504
Genome Fitness: -200.000000 
Neuron 1 1 0.00000000 1 0.00000000 0.00000000 0.00000000 0.00000000
Neuron 2 1 0.00000000 1 0.00000000 0.00000000 0.00000000 0.00000000
Neuron 3 1 0.00000000 1 0.00000000 0.00000000 0.00000000 0.00000000
Neuron 4 1 0.00000000 1 0.00000000 0.00000000 0.00000000 0.00000000
Neuron 5 1 0.00000000 1 0.00000000 0.00000000 0.00000000 0.00000000
Neuron 6 2 0.00000000 1 0.00000000 0.00000000 0.00000000 0.00000000
Neuron 7 4 1.00000000 2 3.02500000 0.00000000 0.00000000 0.00000000
Neuron 8 4 1.00000000 2 3.02500000 0.00000000 0.00000000 0.00000000
Neuron 10 3 0.50000000 5 4.56721659 0.00000000 0.00000000 0.00000000
Neuron 11 3 0.50000000 2 5.92556491 0.00000000 0.00000000 0.00000000
Neuron 16 3 0.50000000 9 4.53928403 0.00000000 0.00000000 0.00000000
Neuron 18 3 0.50000000 8 0.87846565 0.00000000 0.00000000 0.00000000
Neuron 28 3 0.75000000 9 0.99435367 0.00000000 0.00000000 0.00000000
Link 5 7 5 0 0.01702841
Link 6 7 6 0 -0.07347818
Link 1 8 7 0 0.72587326
Link 2 8 8 0 -0.18779472
Link 5 8 11 0 -0.42928645
Link 6 8 12 0 -0.14054981
Link 10 7 18 0 0.26296950
Link 3 11 20 0 0.77012748
Link 11 7 21 0 0.24160150
Link 3 16 35 0 -0.23115692
Link 4 18 45 0 -0.35534199
Link 18 8 46 0 -0.41885592
Link 5 10 86 0 -0.37293801
Link 16 28 112 0 1.15804715
Link 28 8 113 0 0.07772515
Link 2 16 118 0 -0.61086324
GenomeEnd

GenomeStart 14505
Genome Fitness: -200.000000 
Neuron 1 1 0.00000000 1 0.00000000 0.00000000 0.00000000 0.00000000
Neuron 2 1 0.00000000 1 0.00000000 0.00000000 0.00000000 0.00000000
Neuron 3 1 0.00000000 1 0.00000000 0.00000000 0.00000000 0.00000000
Neuron 4 1 0.00000000 1 0.00000000 0.00000000 0.00000000 0.00000000
Neuron 5 1 0.00000000 1 0.00000000 0.00000000 0.00000000 0.00000000
Neuron 6 2 0.00000000 1 0.00000000 0.00000000 0.00000000 0.00000000
Neuron 7 4 1.00000000 2 3.02500000 0.00000000 0.00000000 0.00000000
Neuron 8 4 1.00000000 2 3.02500000 0.00000000 0.00000000 0.00000000
Neuron 10 3 0.50000000 5 4.56721659 0.00000000 0.00000000 0.00000000
Neuron 11 3 0.50000000 2 5.92556491 0.00000000 0.00000000 0.00000000
Neuron 16 3 0.50000000 9 4.53928403 0.00000000 0.00000000 0.00000000
Neuron 18 3 0.50000000 8 0.87846565 0.00000000 0.00000000 0.00000000
Neuron 28 3 0.75000000 9 0.99435367 0.00000000 0.00000000 0.00000000
Link 5 7 5 0 0.02042540
Link 6 7 6 0 -0.07347818
Link 1 8 7 0 0.59297365
Link 2 8 8 0 -0.13318844
Link 5 8 11 0 -0.42928645
Link 6 8 12 0 -0.14054981
Link 10 7 18 0 0.22479302
Link 3 11 20 0 0.93942863
Link 11 7 21 0 0.19496848
Link 3 16 35 0 -0.26535044
Link 4 18 45 0 -0.28131015
Link 18 8 46 0 -0.41885592
Link 5 10 86 0 -0.32592645
Link 16 28 112 0 1.15804715
Link 28 8 113 0 -0.07464604
Link 2 16 118 0 -0.72376821
GenomeEnd

GenomeStart 14506
Genome Fitness: -400.000000 
Neuron 1 1 0.00000000 1 0.00000000 0.00000000 0.00000000 0.00000000
Neuron 2 1 0.00000000 1 0.00000000 0.00000000 0.00000000 0.00000000
Neuron 3 1 0.00000000 1 0.00000000 0.00000000 0.00000000 0.00000000
Neuron 4 1 0.00000000 1 0.00000000 0.00000000 0.00000000 0.00000000
Neuron 5 1 0.00000000 1 0.00000000 0.00000000 0.00000000 0.00000000
Neuron 6 2 0.00000000 1 0.00000000 0.00000000 0.00000000 0.00000000
Neuron 7 4 1.00000000 2 3.02500000 0.00000000 0.00000000 0.00000000
Neuron 8 4 1.00000000 2 3.02500000 0.00000000 0.00000000 0.00000000
Neuron 10 3 0.50000000 5 4.56721659 0.00000000 0.00000000 0.00000000
Neuron 11 3 0.50000000 2 5.92556491 0.00000000 0.00000000 0.00000000
Neuron 16 3 0.50000000 9 4.53928403 0.00000000 0.00000000 0.00000000
Neuron 18 3 0.50000000 8 0.87846565 0.00000000 0.00000000 0.00000000
Neuron 28 3 0.75000000 9 0.99435367 0.00000000 0.00000000 0.00000000
Link 5 7 5 0 0.16205933
Link 6 7 6 0 -0.12415691
Link 1 8 7 0 0.56640783
Link 2 8 8 0 -0.25809943
Link 5 8 11 0 -0.49173741
Link 6 8 12 0 -0.22223127
Link 10 7 18 0 0.15761428
Link 3 11 20 0 0.81095050
Link 11 7 21 0 0.09655448
Link 3 16 35 0 -0.32643364
Link 4 18 45 0 -0.43704411
Link 18 8 46 0 -0.44661749
Link 5 10 86 0 -0.40772977
Link 16 28 112 0 1.18515295
Link 28 8 113 0 -0.18507722
Link 2 16 118 0 -0.48163431
GenomeEnd

GenomeStart 14507
Genome Fitness: -400.000000 
Neuron 1 1 0.00000000 1 0.00000000 0.00000000 0.00000000 0.00000000
Neuron 2 1 0.00000000 1 0.00000000 0.00000000 0.00000000 0.00000000
Neuron 3 1 0.00000000 1 0.00000000 0.00000000 0.00000000 0.00000000
Neuron 4 1 0.00000000 1 0.00000000 0.00000000 0.00000000 0.00000000
Neuron 5 1 0.00000000 1 0.00000000 0.00000000 0.00000000 0.00000000
Neuron 6 2 0.00000000 1 0.00000000 0.00000000 0.00000000 0.00000000
Neuron 7 4 1.00000000 2 3.02500000 0.00000000 0.00000000 0.00000000
Neuron 8 4 1.00000000 2 3.02500000 0.00000000 0.00000000 0.00000000
Neuron 10 3 0.50000000 5 4.56721659 0.00000000 0.00000000 0.00000000
Neuron 11 3 0.50000000 2 5.92556491 0.00000000 0.00000000 0.00000000
Neuron 16 3 0.50000000 9 4.53928403 0.00000000 0.00000000 0.00000000
Neuron 18 3 0.50000000 8 0.87846565 0.00000000 0.00000000 0.00000000
Neuron 28 3 0.75000000 9 0.99435367 0.00000000 0.00000000 0.00000000
Link 5 7 5 0 0.15845501
Link 6 7 6 0 -0.10698417
Link 1 8 7 0 0.72587326
Link 2 8 8 0 -0.17600069
Link 5 8 11 0 -0.50158042
Link 6 8 12 0 -0.14054981
Link 10 7 18 0 0.26800203
Link 3 11 20 0 0.77012748
Link 11 7 21 0 0.08249933
Link 3 16 35 0 -0.23115692
Link 4 18 45 0 -0.35534199
Link 18 8 46 0 -0.41885592
Link 5 10 86 0 -0.37293801
Link 10 18 99 0 -0.86761990
Link 16 28 112 0 0.99449116
Link 28 8 113 0 -0.04652397
Link 2 16 118 0 -0.61086324
GenomeEnd

GenomeStart 14508
Genome Fitness: -400.000000 
Neuron 1 1 0.00000000 1 0.00000000 0.00000000 0.00000000 0.00000000
Neuron 2 1 0.00000000 1 0.00000000 0.00000000 0.00000000 0.00000000
Neuron 3 1 0.00000000 1 0.00000000 0.00000000 0.00000000 0.00000000
Neuron 4 1 0.00000000 1 0.00000000 0.00000000 0.00000000 0.00000000
Neuron 5 1 0.00000000 1 0.00000000 0.00000000 0.00000000 0.00000000
Neuron 6 2 0.00000000 1 0.00000000 0.00000000 0.00000000 0.00000000
Neuron 7 4 1.00000000 2 3.02500000 0.00000000 0.00000000 0.00000000
Neuron 8 4 1.00000000 2 3.02500000 0.00000000 0.00000000 0.00000000
Neuron 10 3 0.50000000 5 4.56721659 0.00000000 0.00000000 0.00000000
Neuron 11 3 0.50000000 2 5.92556491 0.00000000 0.00000000 0.00000000
Neuron 16 3 0.50000000 9 4.53928403 0.00000000 0.00000000 0.00000000
Neuron 18 3 0.50000000 8 0.87846565 0.00000000 0.00000000 0.00000000
Neuron 28 3 0.75000000 9 0.99435367 0.00000000 0.00000000 0.00000000
Link 5 7 5 0 -0.06397007
Link 6 7 6 0 0.02561203
Link 1 8 7 0 0.60623648
Link 2 8 8 0 -0.06131779
Link 5 8 11 0 -0.47795387
Link 6 8 12 0 -0.17818023
Link 10 7 18 0 0.15093887
Link 3 11 20 0 1.01384395
Link 11 7 21 0 0.29281139
Link 3 16 35 0 -0.30464273
Link 4 18 45 0 -0.16339461
Link 18 8 46 0 -0.43483613
Link 5 10 86 0 -0.37269345
Link 16 28 112 0 1.10229236
Link 28 8 113 0 0.09606928
Link 2 16 118 0 -0.50675809
GenomeEnd

GenomeStart 14509
Genome Fitness: -200.000000 
Neuron 1 1 0.00000000 1 0.00000000 0.00000000 0.00000000 0.00000000
Neuron 2 1 0.00000000 1 0.00000000 0.00000000 0.00000000 0.00000000
Neuron 3 1 0.00000000 1 0.00000000 0.00000000 0.00000000 0.00000000
Neuron 4 1 0.00000000 1 0.00000000 0.00000000 0.00000000 0.00000000
Neuron 5 1 0.00000000 1 0.00000000 0.00000000 0.00000000 0.00000000
Neuron 6 2 0.00000000 1 0.00000000 0.00000000 0.00000000 0.00000000
Neuron 7 4 1.00000000 2 3.02500000 0.00000000 0.00000000 0.00000000
Neuron 8 4 1.00000000 2 3.02500000 0.00000000 0.00000000 0.00000000
Neuron 10 3 0.50000000 5 4.56721659 0.00000000 0.00000000 0.00000000
Neuron 11 3 0.50000000 2 5.92556491 0.00000000 0.00000000 0.00000000
Neuron 16 3 0.50000000 9 4.53928403 0.00000000 0.00000000 0.00000000
Neuron 18 3 0.50000000 8 0.87846565 0.00000000 0.00000000 0.00000000
Neuron 28 3 0.75000000 9 0.99435367 0.00000000 0.00000000 0.00000000
Link 5 7 5 0 0.01819219
Link 6 7 6 0 -0.10089141
Link 1 8 7 0 0.59297365
Link 2 8 8 0 -0.13318844
Link 5 8 11 0 -0.43198308
Link 6 8 12 0 -0.08186527
Link 10 7 18 0 0.22479302
Link 3 11 20 0 0.93942863
Link 11 7 21 0 0.17041942
Link 3 16 35 0 -0.23171553
Link 4 18 45 0 -0.29194154
Link 18 8 46 0 -0.37114259
Link 5 10 86 0 -0.39477147
Link 16 28 112 0 1.12001365
Link 28 8 113 0 0.01560059
Link 2 16 118 0 -0.72376821
GenomeEnd

GenomeStart 14510
Genome Fitness: -400.000000 
Neuron 1 1 0.00000000 1 0.00000000 0.00000000 0.00000000 0.00000000
Neuron 2 1 0.00000000 1 0.00000000 0.00000000 0.00000000 0.00000000
Neuron 3 1 0.00000000 1 0.00000000 0.00000000 0.00000000 0.00000000
Neuron 4 1 0.00000000 1 0.00000000 0.00000000 0.00000000 0.00000000
Neuron 5 1 0.00000000 1 0.00000000 0.00000000 0.00000000 0.00000000
Neuron 6 2 0.00000000 1 0.00000000 0.00000000 0.00000000 0.00000000
