NEAT_ParametersStart
PopulationSize 300
DynamicCompatibility true
MinSpecies 25
MaxSpecies 50
InnovationsForever true
AllowClones false
YoungAgeTreshold 15
YoungAgeFitnessBoost 1.10000000000000008882
SpeciesDropoffAge 50
StagnationDelta 0.00000000000000000000
OldAgeTreshold 35
OldAgePenalty 1.00000000000000000000
DetectCompetetiveCoevolutionStagnation false
KillWorstSpeciesEach 15
KillWorstAge 10
SurvivalRate 0.05000000000000000278
CrossoverRate 0.69999999999999995559
OverallMutationRate 0.14999999999999999445
InterspeciesCrossoverRate 0.00010000000000000000
MultipointCrossoverRate 0.75000000000000000000
RouletteWheelSelection true
PhasedSearching false
DeltaCoding false
SimplifyingPhaseMPCTreshold 20
SimplifyingPhaseStagnationTreshold 30
ComplexityFloorGenerations 40
NoveltySearch_K 15
NoveltySearch_P_min 0.50000000000000000000
NoveltySearch_Dynamic_Pmin true
NoveltySearch_No_Archiving_Stagnation_Treshold 150
NoveltySearch_Pmin_lowering_multiplier 0.90000000000000002220
NoveltySearch_Pmin_min 0.05000000000000000278
NoveltySearch_Quick_Archiving_Min_Evaluations 8
NoveltySearch_Pmin_raising_multiplier 1.10000000000000008882
NoveltySearch_Recompute_Sparseness_Each 25
MutateAddNeuronProb 0.04000000000000000083
SplitRecurrent true
SplitLoopedRecurrent true
NeuronTries 32681
MutateAddLinkProb 0.08000000000000000167
MutateAddLinkFromBiasProb 0.00000000000000000000
MutateRemLinkProb 0.01000000000000000021
MutateRemSimpleNeuronProb 0.00000000000000000000
LinkTries 32
RecurrentProb 0.00000000000000000000
RecurrentLoopProb 0.25000000000000000000
MutateWeightsProb 0.69999999999999995559
MutateWeightsSevereProb 0.25000000000000000000
WeightMutationRate 1.00000000000000000000
WeightMutationMaxPower 0.20000000000000001110
WeightReplacementMaxPower 1.00000000000000000000
MaxWeight 8.00000000000000000000
MutateActivationAProb 0.00000000000000000000
MutateActivationBProb 0.00000000000000000000
ActivationAMutationMaxPower 0.50000000000000000000
ActivationBMutationMaxPower 0.00000000000000000000
TimeConstantMutationMaxPower 0.00000000000000000000
BiasMutationMaxPower 1.00000000000000000000
MinActivationA 0.05000000000000000278
MaxActivationA 6.00000000000000000000
MinActivationB 0.00000000000000000000
MaxActivationB 0.00000000000000000000
MutateNeuronActivationTypeProb 0.02000000000000000042
ActivationFunction_SignedSigmoid_Prob 0.00000000000000000000
ActivationFunction_UnsignedSigmoid_Prob 1.00000000000000000000
ActivationFunction_Tanh_Prob 1.00000000000000000000
ActivationFunction_TanhCubic_Prob 1.00000000000000000000
ActivationFunction_SignedStep_Prob 1.00000000000000000000
ActivationFunction_UnsignedStep_Prob 1.00000000000000000000
ActivationFunction_SignedGauss_Prob 1.00000000000000000000
ActivationFunction_UnsignedGauss_Prob 1.00000000000000000000
ActivationFunction_Abs_Prob 1.00000000000000000000
ActivationFunction_SignedSine_Prob 1.00000000000000000000
ActivationFunction_UnsignedSine_Prob 1.00000000000000000000
ActivationFunction_Linear_Prob 1.00000000000000000000
ActivationFunction_Relu_Prob 0.00000000000000000000
ActivationFunction_Softplus_Prob 0.00000000000000000000
MutateNeuronTimeConstantsProb 0.00000000000000000000
MutateNeuronBiasesProb 0.00000000000000000000
MinNeuronTimeConstant 0.00000000000000000000
MaxNeuronTimeConstant 0.00000000000000000000
MinNeuronBias 0.00000000000000000000
MaxNeuronBias 0.00000000000000000000
DisjointCoeff 1.00000000000000000000
ExcessCoeff 1.00000000000000000000
ActivationADiffCoeff 0.00000000000000000000
ActivationBDiffCoeff 0.00000000000000000000
WeightDiffCoeff 0.50000000000000000000
TimeConstantDiffCoeff 0.00000000000000000000
BiasDiffCoeff 0.00000000000000000000
ActivationFunctionDiffCoeff 0.00000000000000000000
CompatTreshold 4.39999999999999857891
MinCompatTreshold 0.20000000000000001110
CompatTresholdModifier 0.29999999999999998890
CompatTreshChangeInterval_Generations 1
CompatTreshChangeInterval_Evaluations 10
DivisionThreshold 0.02999999999999999889
VarianceThreshold 0.02999999999999999889
BandThreshold 0.29999999999999998890
InitialDepth 3
MaxDepth 3
IterationLevel 1
TournamentSize 2
CPPN_Bias -1.00000000000000000000
Width 2.00000000000000000000
Height 2.00000000000000000000
Qtree_X 0.00000000000000000000
Qtree_Y 0.00000000000000000000
Leo false
LeoThreshold 0.10000000000000000555
LeoSeed false
GeometrySeed false
Elitism 0.05000000000000000278
NEAT_ParametersEnd
InnovationDatabaseStart
NextInnovNum: 244
NextNeuronID: 49
Innovation 1 1 1 7 0 -1
Innovation 2 1 2 7 0 -1
Innovation 3 1 3 7 0 -1
Innovation 4 1 4 7 0 -1
Innovation 5 1 5 7 0 -1
Innovation 6 1 6 7 0 -1
Innovation 7 1 1 8 0 -1
Innovation 8 1 2 8 0 -1
Innovation 9 1 3 8 0 -1
Innovation 10 1 4 8 0 -1
Innovation 11 1 5 8 0 -1
Innovation 12 1 6 8 0 -1
Innovation 13 0 3 8 3 9
Innovation 14 1 3 9 0 -1
Innovation 15 1 9 8 0 -1
Innovation 16 0 5 7 3 10
Innovation 17 1 5 10 0 -1
Innovation 18 1 10 7 0 -1
Innovation 19 0 2 7 3 11
Innovation 20 1 2 11 0 -1
Innovation 21 1 11 7 0 -1
Innovation 22 0 1 8 3 12
Innovation 23 1 1 12 0 -1
Innovation 24 1 12 8 0 -1
Innovation 25 0 1 7 3 13
Innovation 26 1 1 13 0 -1
Innovation 27 1 13 7 0 -1
Innovation 28 1 2 9 0 -1
Innovation 29 1 1 9 0 -1
Innovation 30 1 6 9 0 -1
Innovation 31 0 4 7 3 14
Innovation 32 1 4 14 0 -1
Innovation 33 1 14 7 0 -1
Innovation 34 1 4 9 0 -1
Innovation 35 0 5 8 3 15
Innovation 36 1 5 15 0 -1
Innovation 37 1 15 8 0 -1
Innovation 38 0 4 8 3 16
Innovation 39 1 4 16 0 -1
Innovation 40 1 16 8 0 -1
Innovation 41 1 3 11 0 -1
Innovation 42 1 6 12 0 -1
Innovation 43 1 4 12 0 -1
Innovation 44 1 5 12 0 -1
Innovation 45 1 12 7 0 -1
Innovation 46 1 13 8 0 -1
Innovation 47 1 14 8 0 -1
Innovation 48 0 14 7 3 17
Innovation 49 1 14 17 0 -1
Innovation 50 1 17 7 0 -1
Innovation 51 1 1 14 0 -1
Innovation 52 0 3 7 3 18
Innovation 53 1 3 18 0 -1
Innovation 54 1 18 7 0 -1
Innovation 55 0 4 14 3 19
Innovation 56 1 4 19 0 -1
Innovation 57 1 19 14 0 -1
Innovation 58 1 4 11 0 -1
Innovation 59 0 11 7 3 20
Innovation 60 1 11 20 0 -1
Innovation 61 1 20 7 0 -1
Innovation 62 1 1 11 0 -1
Innovation 63 0 9 8 3 21
Innovation 64 1 9 21 0 -1
Innovation 65 1 21 8 0 -1
Innovation 66 1 9 7 0 -1
Innovation 67 0 1 13 3 22
Innovation 68 1 1 22 0 -1
Innovation 69 1 22 13 0 -1
Innovation 70 1 2 15 0 -1
Innovation 71 1 4 15 0 -1
Innovation 72 1 9 12 0 -1
Innovation 73 1 9 15 0 -1
Innovation 74 0 15 8 3 23
Innovation 75 1 15 23 0 -1
Innovation 76 1 23 8 0 -1
Innovation 77 1 6 13 0 -1
Innovation 78 1 13 9 0 -1
Innovation 79 1 14 9 0 -1
Innovation 80 1 9 17 0 -1
Innovation 81 0 2 8 3 24
Innovation 82 1 2 24 0 -1
Innovation 83 1 24 8 0 -1
Innovation 84 1 6 16 0 -1
Innovation 85 1 9 20 0 -1
Innovation 86 1 9 24 0 -1
Innovation 87 1 6 14 0 -1
Innovation 88 0 3 9 3 25
Innovation 89 1 3 25 0 -1
Innovation 90 1 25 9 0 -1
Innovation 91 1 2 14 0 -1
Innovation 92 1 6 11 0 -1
Innovation 93 1 4 23 0 -1
Innovation 94 1 20 8 0 -1
Innovation 95 1 1 18 0 -1
Innovation 96 0 5 10 3 26
Innovation 97 1 5 26 0 -1
Innovation 98 1 26 10 0 -1
Innovation 99 1 2 13 0 -1
Innovation 100 1 9 13 0 -1
Innovation 101 1 14 11 0 -1
Innovation 102 1 6 24 0 -1
Innovation 103 0 1 9 3 27
Innovation 104 1 1 27 0 -1
Innovation 105 1 27 9 0 -1
Innovation 106 1 3 22 0 -1
Innovation 107 1 9 14 0 -1
Innovation 108 1 27 25 0 -1
Innovation 109 1 25 17 0 -1
Innovation 110 1 5 9 0 -1
Innovation 111 1 3 15 0 -1
Innovation 112 1 15 9 0 -1
Innovation 113 0 2 9 3 28
Innovation 114 1 2 28 0 -1
Innovation 115 1 28 9 0 -1
Innovation 116 0 2 11 3 29
Innovation 117 1 2 29 0 -1
Innovation 118 1 29 11 0 -1
Innovation 119 1 5 11 0 -1
Innovation 120 0 1 12 3 30
Innovation 121 1 1 30 0 -1
Innovation 122 1 30 12 0 -1
Innovation 123 1 3 12 0 -1
Innovation 124 1 3 14 0 -1
Innovation 125 1 15 7 0 -1
Innovation 126 1 5 13 0 -1
Innovation 127 0 5 15 3 31
Innovation 128 1 5 31 0 -1
Innovation 129 1 31 15 0 -1
Innovation 130 1 30 7 0 -1
Innovation 131 0 24 8 3 32
Innovation 132 1 24 32 0 -1
Innovation 133 1 32 8 0 -1
Innovation 134 1 4 24 0 -1
Innovation 135 1 5 16 0 -1
Innovation 136 1 11 14 0 -1
Innovation 137 1 11 9 0 -1
Innovation 138 0 9 7 3 33
Innovation 139 1 9 33 0 -1
Innovation 140 1 33 7 0 -1
Innovation 141 1 15 16 0 -1
Innovation 142 1 24 9 0 -1
Innovation 143 1 2 12 0 -1
Innovation 144 1 4 20 0 -1
Innovation 145 1 13 18 0 -1
Innovation 146 1 9 18 0 -1
Innovation 147 1 2 33 0 -1
Innovation 148 1 6 21 0 -1
Innovation 149 1 1 20 0 -1
Innovation 150 0 13 7 3 34
Innovation 151 1 13 34 0 -1
Innovation 152 1 34 7 0 -1
Innovation 153 1 1 15 0 -1
Innovation 154 1 1 16 0 -1
Innovation 155 1 3 24 0 -1
Innovation 156 1 18 9 0 -1
Innovation 157 0 2 13 3 35
Innovation 158 1 2 35 0 -1
Innovation 159 1 35 13 0 -1
Innovation 160 1 24 7 0 -1
Innovation 161 1 19 7 0 -1
Innovation 162 1 11 8 0 -1
Innovation 163 1 4 21 0 -1
Innovation 164 1 4 27 0 -1
Innovation 165 1 6 10 0 -1
Innovation 166 1 24 15 0 -1
Innovation 167 0 9 17 3 36
Innovation 168 1 9 36 0 -1
Innovation 169 1 36 17 0 -1
Innovation 170 0 2 24 3 37
Innovation 171 1 2 37 0 -1
Innovation 172 1 37 24 0 -1
Innovation 173 0 3 8 3 38
Innovation 174 1 3 38 0 -1
Innovation 175 1 38 8 0 -1
Innovation 176 1 12 18 0 -1
Innovation 177 1 6 15 0 -1
Innovation 178 1 3 21 0 -1
Innovation 179 1 11 21 0 -1
Innovation 180 1 5 24 0 -1
Innovation 181 1 32 7 0 -1
Innovation 182 1 5 30 0 -1
Innovation 183 0 13 9 3 39
Innovation 184 1 13 39 0 -1
Innovation 185 1 39 9 0 -1
Innovation 186 1 16 7 0 -1
Innovation 187 0 20 7 3 40
Innovation 188 1 20 40 0 -1
Innovation 189 1 40 7 0 -1
Innovation 190 1 6 18 0 -1
Innovation 191 0 2 29 3 41
Innovation 192 1 2 41 0 -1
Innovation 193 1 41 29 0 -1
Innovation 194 1 4 32 0 -1
Innovation 195 1 2 27 0 -1
Innovation 196 1 6 20 0 -1
Innovation 197 1 5 18 0 -1
Innovation 198 1 10 8 0 -1
Innovation 199 1 14 18 0 -1
Innovation 200 0 5 26 3 42
Innovation 201 1 5 42 0 -1
Innovation 202 1 42 26 0 -1
Innovation 203 1 14 16 0 -1
Innovation 204 1 5 20 0 -1
Innovation 205 1 9 11 0 -1
Innovation 206 1 5 14 0 -1
Innovation 207 1 10 20 0 -1
Innovation 208 1 3 16 0 -1
Innovation 209 1 9 23 0 -1
Innovation 210 1 11 16 0 -1
Innovation 211 0 5 20 3 43
Innovation 212 1 5 43 0 -1
Innovation 213 1 43 20 0 -1
Innovation 214 1 2 21 0 -1
Innovation 215 0 12 8 3 44
Innovation 216 1 12 44 0 -1
Innovation 217 1 44 8 0 -1
Innovation 218 1 18 15 0 -1
Innovation 219 0 18 7 3 45
Innovation 220 1 18 45 0 -1
Innovation 221 1 45 7 0 -1
Innovation 222 1 16 15 0 -1
Innovation 223 1 5 21 0 -1
Innovation 224 0 3 25 3 46
Innovation 225 1 3 46 0 -1
Innovation 226 1 46 25 0 -1
Innovation 227 1 2 30 0 -1
Innovation 228 1 3 23 0 -1
Innovation 229 1 9 10 0 -1
Innovation 230 1 3 13 0 -1
Innovation 231 1 3 31 0 -1
Innovation 232 0 16 8 3 47
Innovation 233 1 16 47 0 -1
Innovation 234 1 47 8 0 -1
Innovation 235 0 3 18 3 48
Innovation 236 1 3 48 0 -1
Innovation 237 1 48 18 0 -1
Innovation 238 1 13 11 0 -1
Innovation 239 1 24 11 0 -1
Innovation 240 1 25 13 0 -1
Innovation 241 1 3 20 0 -1
Innovation 242 1 4 30 0 -1
Innovation 243 1 5 23 0 -1
InnovationDatabaseEnd

GenomeStart 9638
Genome Fitness: 160.000000 
Neuron 1 1 0.00000000 1 0.00000000 0.00000000 0.00000000 0.00000000
Neuron 2 1 0.00000000 1 0.00000000 0.00000000 0.00000000 0.00000000
Neuron 3 1 0.00000000 1 0.00000000 0.00000000 0.00000000 0.00000000
Neuron 4 1 0.00000000 1 0.00000000 0.00000000 0.00000000 0.00000000
Neuron 5 1 0.00000000 1 0.00000000 0.00000000 0.00000000 0.00000000
Neuron 6 2 0.00000000 1 0.00000000 0.00000000 0.00000000 0.00000000
Neuron 7 4 1.00000000 2 3.02500000 0.00000000 0.00000000 0.00000000
Neuron 8 4 1.00000000 2 3.02500000 0.00000000 0.00000000 0.00000000
Neuron 9 3 0.50000000 8 5.54664794 0.00000000 0.00000000 0.00000000
Neuron 12 3 0.50000000 7 2.76770128 0.00000000 0.00000000 0.00000000
Neuron 15 3 0.50000000 4 2.57055910 0.00000000 0.00000000 0.00000000
Neuron 28 3 0.25000000 7 2.76697368 0.00000000 0.00000000 0.00000000
Neuron 30 3 0.25000000 4 2.95437646 0.00000000 0.00000000 0.00000000
Link 1 7 1 0 0.52169552
Link 2 7 2 0 -0.68672055
Link 3 7 3 0 -0.38642886
Link 4 7 4 0 0.55477621
Link 5 7 5 0 0.22030139
Link 6 7 6 0 -0.43061738
Link 2 8 8 0 -0.46732943
Link 4 8 10 0 -0.98156501
Link 6 8 12 0 0.21269450
Link 3 9 14 0 1.10580997
Link 9 8 15 0 -0.34777001
Link 12 8 24 0 0.17298932
Link 5 15 36 0 0.86001878
Link 15 8 37 0 0.22652272
Link 2 28 114 0 0.90248296
Link 28 9 115 0 0.07107168
Link 1 30 121 0 0.99316253
Link 30 12 122 0 0.07872576
GenomeEnd

GenomeStart 9639
Genome Fitness: 101.000000 
Neuron 1 1 0.00000000 1 0.00000000 0.00000000 0.00000000 0.00000000
Neuron 2 1 0.00000000 1 0.00000000 0.00000000 0.00000000 0.00000000
Neuron 3 1 0.00000000 1 0.00000000 0.00000000 0.00000000 0.00000000
Neuron 4 1 0.00000000 1 0.00000000 0.00000000 0.00000000 0.00000000
Neuron 5 1 0.00000000 1 0.00000000 0.00000000 0.00000000 0.00000000
Neuron 6 2 0.00000000 1 0.00000000 0.00000000 0.00000000 0.00000000
Neuron 7 4 1.00000000 2 3.02500000 0.00000000 0.00000000 0.00000000
Neuron 8 4 1.00000000 2 3.02500000 0.00000000 0.00000000 0.00000000
Neuron 9 3 0.50000000 8 5.54664794 0.00000000 0.00000000 0.00000000
Neuron 12 3 0.50000000 7 2.76770128 0.00000000 0.00000000 0.00000000
Neuron 15 3 0.50000000 4 2.57055910 0.00000000 0.00000000 0.00000000
Neuron 28 3 0.25000000 7 2.76697368 0.00000000 0.00000000 0.00000000
Neuron 30 3 0.25000000 4 2.95437646 0.00000000 0.00000000 0.00000000
Link 1 7 1 0 0.51044208
Link 2 7 2 0 -0.60190446
Link 3 7 3 0 -0.38005894
Link 4 7 4 0 0.50143644
Link 5 7 5 0 0.17999373
Link 6 7 6 0 -0.49917895
Link 2 8 8 0 -0.68076686
Link 4 8 10 0 -1.05600314
Link 6 8 12 0 0.20644777
Link 3 9 14 0 0.88351023
Link 9 8 15 0 -0.29219423
Link 12 8 24 0 0.28731770
Link 5 15 36 0 0.83216431
Link 15 8 37 0 0.21294590
Link 2 28 114 0 0.95432693
Link 28 9 115 0 0.07107168
Link 1 30 121 0 1.03586374
Link 30 12 122 0 0.17324235
GenomeEnd

GenomeStart 9640
Genome Fitness: 125.000000 
Neuron 1 1 0.00000000 1 0.00000000 0.00000000 0.00000000 0.00000000
Neuron 2 1 0.00000000 1 0.00000000 0.00000000 0.00000000 0.00000000
Neuron 3 1 0.00000000 1 0.00000000 0.00000000 0.00000000 0.00000000
Neuron 4 1 0.00000000 1 0.00000000 0.00000000 0.00000000 0.00000000
Neuron 5 1 0.00000000 1 0.00000000 0.00000000 0.00000000 0.00000000
Neuron 6 2 0.00000000 1 0.00000000 0.00000000 0.00000000 0.00000000
Neuron 7 4 1.00000000 2 3.02500000 0.00000000 0.00000000 0.00000000
Neuron 8 4 1.00000000 2 3.02500000 0.00000000 0.00000000 0.00000000
Neuron 9 3 0.50000000 8 5.54664794 0.00000000 0.00000000 0.00000000
Neuron 12 3 0.50000000 7 2.76770128 0.00000000 0.00000000 0.00000000
Neuron 15 3 0.50000000 4 2.57055910 0.00000000 0.00000000 0.00000000
Neuron 28 3 0.25000000 7 2.76697368 0.00000000 0.00000000 0.00000000
Neuron 30 3 0.25000000 4 2.95437646 0.00000000 0.00000000 0.00000000
Link 1 7 1 0 0.54664997
Link 2 7 2 0 -0.63699158
Link 3 7 3 0 -0.49117108
Link 4 7 4 0 0.20206231
Link 5 7 5 0 0.08140699
Link 6 7 6 0 -0.44871006
Link 2 8 8 0 -0.93952359
Link 4 8 10 0 -1.09150196
Link 6 8 12 0 0.17122307
Link 3 9 14 0 1.06390471
Link 9 8 15 0 -0.25178529
Link 12 8 24 0 0.35128905
Link 5 15 36 0 0.78368221
Link 15 8 37 0 0.07223555
Link 2 28 114 0 0.97310281
Link 28 9 115 0 0.09273040
Link 1 30 121 0 1.02143205
Link 30 12 122 0 0.04055784
GenomeEnd

GenomeStart 9641
Genome Fitness: 101.000000 
Neuron 1 1 0.00000000 1 0.00000000 0.00000000 0.00000000 0.00000000
Neuron 2 1 0.00000000 1 0.00000000 0.00000000 0.00000000 0.00000000
Neuron 3 1 0.00000000 1 0.00000000 0.00000000 0.00000000 0.00000000
Neuron 4 1 0.00000000 1 0.00000000 0.00000000 0.00000000 0.00000000
Neuron 5 1 0.00000000 1 0.00000000 0.00000000 0.00000000 0.00000000
Neuron 6 2 0.00000000 1 0.00000000 0.00000000 0.00000000 0.00000000
Neuron 7 4 1.00000000 2 3.02500000 0.00000000 0.00000000 0.00000000
Neuron 8 4 1.00000000 2 3.02500000 0.00000000 0.00000000 0.00000000
Neuron 9 3 0.50000000 8 5.54664794 0.00000000 0.00000000 0.00000000
Neuron 12 3 0.50000000 7 2.76770128 0.00000000 0.00000000 0.00000000
Neuron 15 3 0.50000000 4 2.57055910 0.00000000 0.00000000 0.00000000
Neuron 28 3 0.25000000 7 2.76697368 0.00000000 0.00000000 0.00000000
Neuron 30 3 0.25000000 4 2.95437646 0.00000000 0.00000000 0.00000000
Link 1 7 1 0 0.46889754
Link 2 7 2 0 -0.56882521
Link 3 7 3 0 -0.42154193
Link 4 7 4 0 -0.07686097
Link 5 7 5 0 0.27174311
Link 6 7 6 0 -0.49917895
Link 2 8 8 0 -0.73276543
Link 4 8 10 0 -1.21186108
Link 6 8 12 0 0.09293861
Link 3 9 14 0 0.90702086
Link 9 8 15 0 -0.15520038
Link 12 8 24 0 0.28731770
Link 5 15 36 0 0.81845627
Link 15 8 37 0 0.21395662
Link 2 28 114 0 0.91775483
Link 28 9 115 0 0.07913735
Link 1 30 121 0 1.06572519
Link 30 12 122 0 0.27040011
GenomeEnd

GenomeStart 9642
Genome Fitness: 101.000000 
Neuron 1 1 0.00000000 1 0.00000000 0.00000000 0.00000000 0.00000000
Neuron 2 1 0.00000000 1 0.00000000 0.00000000 0.00000000 0.00000000
Neuron 3 1 0.00000000 1 0.00000000 0.00000000 0.00000000 0.00000000
Neuron 4 1 0.00000000 1 0.00000000 0.00000000 0.00000000 0.00000000
Neuron 5 1 0.00000000 1 0.00000000 0.00000000 0.00000000 0.00000000
Neuron 6 2 0.00000000 1 0.00000000 0.00000000 0.00000000 0.00000000
Neuron 7 4 1.00000000 2 3.02500000 0.00000000 0.00000000 0.00000000
Neuron 8 4 1.00000000 2 3.02500000 0.00000000 0.00000000 0.00000000
Neuron 9 3 0.50000000 8 5.54664794 0.00000000 0.00000000 0.00000000
Neuron 12 3 0.50000000 7 2.76770128 0.00000000 0.00000000 0.00000000
Neuron 15 3 0.50000000 4 2.57055910 0.00000000 0.00000000 0.00000000
Neuron 28 3 0.25000000 7 2.76697368 0.00000000 0.00000000 0.00000000
Neuron 30 3 0.25000000 4 2.95437646 0.00000000 0.00000000 0.00000000
Link 1 7 1 0 0.61159404
Link 2 7 2 0 -0.56605656
Link 3 7 3 0 -0.48509033
Link 4 7 4 0 0.15988176
Link 5 7 5 0 0.11467082
Link 6 7 6 0 -0.46338087
Link 2 8 8 0 -0.82217387
Link 4 8 10 0 -1.07922716
Link 6 8 12 0 0.21729135
Link 3 9 14 0 1.12955884
Link 9 8 15 0 -0.26216215
Link 12 8 24 0 0.26062288
Link 5 15 36 0 0.90551161
Link 15 8 37 0 0.13882512
Link 2 28 114 0 0.96524183
Link 28 9 115 0 0.04521646
Link 1 30 121 0 1.06014704
Link 30 12 122 0 0.09599088
GenomeEnd

GenomeStart 9643
Genome Fitness: 101.000000 
Neuron 1 1 0.00000000 1 0.00000000 0.00000000 0.00000000 0.00000000
Neuron 2 1 0.00000000 1 0.00000000 0.00000000 0.00000000 0.00000000
Neuron 3 1 0.00000000 1 0.00000000 0.00000000 0.00000000 0.00000000
Neuron 4 1 0.00000000 1 0.00000000 0.00000000 0.00000000 0.00000000
Neuron 5 1 0.00000000 1 0.00000000 0.00000000 0.00000000 0.00000000
Neuron 6 2 0.00000000 1 0.00000000 0.00000000 0.00000000 0.00000000
Neuron 7 4 1.00000000 2 3.02500000 0.00000000 0.00000000 0.00000000
Neuron 8 4 1.00000000 2 3.02500000 0.00000000 0.00000000 0.00000000
Neuron 9 3 0.50000000 8 5.54664794 0.00000000 0.00000000 0.00000000
Neuron 12 3 0.50000000 7 2.76770128 0.00000000 0.00000000 0.00000000
Neuron 15 3 0.50000000 4 2.57055910 0.00000000 0.00000000 0.00000000
Neuron 28 3 0.25000000 7 2.76697368 0.00000000 0.00000000 0.00000000
Neuron 30 3 0.25000000 4 2.95437646 0.00000000 0.00000000 0.00000000
Link 1 7 1 0 0.67160495
Link 2 7 2 0 -0.49612247
Link 3 7 3 0 -0.56327911
Link 4 7 4 0 0.54840342
Link 5 7 5 0 0.11980380
Link 6 7 6 0 -0.48608437
Link 2 8 8 0 -0.46028429
Link 4 8 10 0 -1.02841494
Link 6 8 12 0 0.26125683
Link 3 9 14 0 1.01490747
Link 9 8 15 0 -0.49908356
Link 12 8 24 0 0.22944178
Link 5 15 36 0 0.87780100
Link 15 8 37 0 0.02417724
Link 2 28 114 0 1.05802966
Link 28 9 115 0 0.07193206
Link 1 30 121 0 1.05010369
Link 30 12 122 0 0.15345382
GenomeEnd

GenomeStart 9644
Genome Fitness: 142.000000 
Neuron 1 1 0.00000000 1 0.00000000 0.00000000 0.00000000 0.00000000
Neuron 2 1 0.00000000 1 0.00000000 0.00000000 0.00000000 0.00000000
Neuron 3 1 0.00000000 1 0.00000000 0.00000000 0.00000000 0.00000000
Neuron 4 1 0.00000000 1 0.00000000 0.00000000 0.00000000 0.00000000
Neuron 5 1 0.00000000 1 0.00000000 0.00000000 0.00000000 0.00000000
Neuron 6 2 0.00000000 1 0.00000000 0.00000000 0.00000000 0.00000000
Neuron 7 4 1.00000000 2 3.02500000 0.00000000 0.00000000 0.00000000
Neuron 8 4 1.00000000 2 3.02500000 0.00000000 0.00000000 0.00000000
Neuron 15 3 0.50000000 3 3.86222876 0.00000000 0.00000000 0.00000000
Neuron 16 3 0.50000000 6 3.22154787 0.00000000 0.00000000 0.00000000
Link 1 7 1 0 0.64167911
Link 2 7 2 0 0.17132114
Link 3 7 3 0 0.05005034
Link 4 7 4 0 -0.73837542
Link 5 7 5 0 -0.66330561
Link 6 7 6 0 0.16531410
Link 1 8 7 0 0.64240059
Link 2 8 8 0 -0.35571832
Link 3 8 9 0 0.22804862
Link 6 8 12 0 0.12291830
Link 5 15 36 0 0.87957552
Link 15 8 37 0 -0.68837792
Link 4 16 39 0 0.96058185
Link 16 8 40 0 -0.66890723
GenomeEnd

GenomeStart 9645
Genome Fitness: 101.000000 
Neuron 1 1 0.00000000 1 0.00000000 0.00000000 0.00000000 0.00000000
Neuron 2 1 0.00000000 1 0.00000000 0.00000000 0.00000000 0.00000000
Neuron 3 1 0.00000000 1 0.00000000 0.00000000 0.00000000 0.00000000
Neuron 4 1 0.00000000 1 0.00000000 0.00000000 0.00000000 0.00000000
Neuron 5 1 0.00000000 1 0.00000000 0.00000000 0.00000000 0.00000000
Neuron 6 2 0.00000000 1 0.00000000 0.00000000 0.00000000 0.00000000
Neuron 7 4 1.00000000 2 3.02500000 0.00000000 0.00000000 0.00000000
Neuron 8 4 1.00000000 2 3.02500000 0.00000000 0.00000000 0.00000000
Neuron 15 3 0.50000000 3 3.86222876 0.00000000 0.00000000 0.00000000
Neuron 16 3 0.50000000 6 3.22154787 0.00000000 0.00000000 0.00000000
Link 1 7 1 0 0.71752329
Link 2 7 2 0 0.42959024
Link 3 7 3 0 0.06970746
Link 4 7 4 0 -0.66294495
Link 5 7 5 0 -0.77376378
Link 6 7 6 0 0.15905733
Link 1 8 7 0 0.67891196
Link 2 8 8 0 -0.36090325
Link 3 8 9 0 0.21165399
Link 6 8 12 0 0.08684586
Link 5 15 36 0 0.74211893
Link 15 8 37 0 -0.77427261
Link 4 16 39 0 0.85853527
Link 16 8 40 0 -0.63444909
GenomeEnd

GenomeStart 9646
Genome Fitness: 136.000000 
Neuron 1 1 0.00000000 1 0.00000000 0.00000000 0.00000000 0.00000000
Neuron 2 1 0.00000000 1 0.00000000 0.00000000 0.00000000 0.00000000
Neuron 3 1 0.00000000 1 0.00000000 0.00000000 0.00000000 0.00000000
Neuron 4 1 0.00000000 1 0.00000000 0.00000000 0.00000000 0.00000000
Neuron 5 1 0.00000000 1 0.00000000 0.00000000 0.00000000 0.00000000
Neuron 6 2 0.00000000 1 0.00000000 0.00000000 0.00000000 0.00000000
Neuron 7 4 1.00000000 2 3.02500000 0.00000000 0.00000000 0.00000000
Neuron 8 4 1.00000000 2 3.02500000 0.00000000 0.00000000 0.00000000
Neuron 15 3 0.50000000 3 3.86222876 0.00000000 0.00000000 0.00000000
Neuron 16 3 0.50000000 6 3.22154787 0.00000000 0.00000000 0.00000000
Link 1 7 1 0 0.58617246
Link 2 7 2 0 0.27080677
Link 3 7 3 0 0.05005034
Link 4 7 4 0 -0.73837542
Link 5 7 5 0 -0.70307503
Link 6 7 6 0 0.33550843
Link 1 8 7 0 0.58275032
Link 2 8 8 0 -0.35571832
Link 3 8 9 0 0.22804862
Link 6 8 12 0 0.09465579
Link 5 15 36 0 0.87957552
Link 15 8 37 0 -0.79138499
Link 4 16 39 0 1.08044685
Link 16 8 40 0 -0.66890723
GenomeEnd

GenomeStart 9647
Genome Fitness: 136.000000 
Neuron 1 1 0.00000000 1 0.00000000 0.00000000 0.00000000 0.00000000
Neuron 2 1 0.00000000 1 0.00000000 0.00000000 0.00000000 0.00000000
Neuron 3 1 0.00000000 1 0.00000000 0.00000000 0.00000000 0.00000000
Neuron 4 1 0.00000000 1 0.00000000 0.00000000 0.00000000 0.00000000
Neuron 5 1 0.00000000 1 0.00000000 0.00000000 0.00000000 0.00000000
Neuron 6 2 0.00000000 1 0.00000000 0.00000000 0.00000000 0.00000000
Neuron 7 4 1.00000000 2 3.02500000 0.00000000 0.00000000 0.00000000
Neuron 8 4 1.00000000 2 3.02500000 0.00000000 0.00000000 0.00000000
Neuron 15 3 0.50000000 3 3.86222876 0.00000000 0.00000000 0.00000000
Neuron 16 3 0.50000000 6 3.22154787 0.00000000 0.00000000 0.00000000
Link 1 7 1 0 0.58617246
Link 2 7 2 0 0.27080677
Link 3 7 3 0 0.05005034
Link 4 7 4 0 -0.73837542
Link 5 7 5 0 -0.64156016
Link 6 7 6 0 0.16531410
Link 1 8 7 0 0.70246537
Link 2 8 8 0 -0.42195450
Link 3 8 9 0 0.22804862
Link 6 8 12 0 0.12291830
Link 5 15 36 0 0.87957552
Link 15 8 37 0 -0.79138499
Link 4 16 39 0 0.96208746
Link 16 8 40 0 -0.66890723
GenomeEnd

GenomeStart 9648
Genome Fitness: 28.000000 
Neuron 1 1 0.00000000 1 0.00000000 0.00000000 0.00000000 0.00000000
Neuron 2 1 0.00000000 1 0.00000000 0.00000000 0.00000000 0.00000000
Neuron 3 1 0.00000000 1 0.00000000 0.00000000 0.00000000 0.00000000
Neuron 4 1 0.00000000 1 0.00000000 0.00000000 0.00000000 0.00000000
Neuron 5 1 0.00000000 1 0.00000000 0.00000000 0.00000000 0.00000000
Neuron 6 2 0.00000000 1 0.00000000 0.00000000 0.00000000 0.00000000
Neuron 7 4 1.00000000 2 3.02500000 0.00000000 0.00000000 0.00000000
Neuron 8 4 1.00000000 2 3.02500000 0.00000000 0.00000000 0.00000000
Neuron 15 3 0.50000000 3 3.86222876 0.00000000 0.00000000 0.00000000
Neuron 16 3 0.50000000 6 3.22154787 0.00000000 0.00000000 0.00000000
Link 1 7 1 0 0.67895945
Link 2 7 2 0 0.44080040
Link 3 7 3 0 0.07435773
Link 4 7 4 0 -0.61966689
Link 5 7 5 0 -0.61823396
Link 6 7 6 0 0.24472393
Link 1 8 7 0 0.72492276
Link 2 8 8 0 -0.33247635
Link 3 8 9 0 0.21525096
Link 6 8 12 0 0.05286726
Link 5 15 36 0 0.96419355
Link 15 8 37 0 -0.55659650
Link 4 16 39 0 0.97081198
Link 16 8 40 0 -0.40713944
GenomeEnd

GenomeStart 9649
Genome Fitness: 136.000000 
Neuron 1 1 0.00000000 1 0.00000000 0.00000000 0.00000000 0.00000000
Neuron 2 1 0.00000000 1 0.00000000 0.00000000 0.00000000 0.00000000
Neuron 3 1 0.00000000 1 0.00000000 0.00000000 0.00000000 0.00000000
Neuron 4 1 0.00000000 1 0.00000000 0.00000000 0.00000000 0.00000000
Neuron 5 1 0.00000000 1 0.00000000 0.00000000 0.00000000 0.00000000
Neuron 6 2 0.00000000 1 0.00000000 0.00000000 0.00000000 0.00000000
Neuron 7 4 1.00000000 2 3.02500000 0.00000000 0.00000000 0.00000000
Neuron 8 4 1.00000000 2 3.02500000 0.00000000 0.00000000 0.00000000
Neuron 15 3 0.50000000 3 3.86222876 0.00000000 0.00000000 0.00000000
Neuron 16 3 0.50000000 6 3.22154787 0.00000000 0.00000000 0.00000000
Link 1 7 1 0 0.60964987
Link 2 7 2 0 0.07183552
Link 3 7 3 0 0.05005034
Link 4 7 4 0 -0.66294495
Link 5 7 5 0 -0.74630113
Link 6 7 6 0 0.15905733
Link 1 8 7 0 0.67823174
Link 2 8 8 0 -0.36090325
Link 3 8 9 0 0.21165399
Link 6 8 12 0 0.12291830
Link 5 15 36 0 0.74211893
Link 15 8 37 0 -0.76682014
Link 4 16 39 0 1.02792077
Link 16 8 40 0 -0.66890723
GenomeEnd

GenomeStart 9650
Genome Fitness: 136.000000 
Neuron 1 1 0.00000000 1 0.00000000 0.00000000 0.00000000 0.00000000
Neuron 2 1 0.00000000 1 0.00000000 0.00000000 0.00000000 0.00000000
Neuron 3 1 0.00000000 1 0.00000000 0.00000000 0.00000000 0.00000000
Neuron 4 1 0.00000000 1 0.00000000 0.00000000 0.00000000 0.00000000
Neuron 5 1 0.00000000 1 0.00000000 0.00000000 0.00000000 0.00000000
Neuron 6 2 0.00000000 1 0.00000000 0.00000000 0.00000000 0.00000000
Neuron 7 4 1.00000000 2 3.02500000 0.00000000 0.00000000 0.00000000
Neuron 8 4 1.00000000 2 3.02500000 0.00000000 0.00000000 0.00000000
Neuron 15 3 0.50000000 3 3.86222876 0.00000000 0.00000000 0.00000000
Neuron 16 3 0.50000000 6 3.22154787 0.00000000 0.00000000 0.00000000
Link 1 7 1 0 0.72031477
Link 2 7 2 0 0.12334161
Link 3 7 3 0 0.10167283
Link 4 7 4 0 -0.71018600
Link 5 7 5 0 -0.70773814
Link 6 7 6 0 0.06884897
Link 1 8 7 0 0.60141741
Link 2 8 8 0 -0.33467251
Link 3 8 9 0 0.00113320
Link 6 8 12 0 0.14814104
Link 5 15 36 0 0.97154702
Link 15 8 37 0 -0.61451603
Link 4 16 39 0 0.98101482
Link 16 8 40 0 -0.51182691
GenomeEnd

GenomeStart 9651
Genome Fitness: 136.000000 
Neuron 1 1 0.00000000 1 0.00000000 0.00000000 0.00000000 0.00000000
Neuron 2 1 0.00000000 1 0.00000000 0.00000000 0.00000000 0.00000000
Neuron 3 1 0.00000000 1 0.00000000 0.00000000 0.00000000 0.00000000
Neuron 4 1 0.00000000 1 0.00000000 0.00000000 0.00000000 0.00000000
Neuron 5 1 0.00000000 1 0.00000000 0.00000000 0.00000000 0.00000000
Neuron 6 2 0.00000000 1 0.00000000 0.00000000 0.00000000 0.00000000
Neuron 7 4 1.00000000 2 3.02500000 0.00000000 0.00000000 0.00000000
Neuron 8 4 1.00000000 2 3.02500000 0.00000000 0.00000000 0.00000000
Neuron 15 3 0.50000000 3 3.86222876 0.00000000 0.00000000 0.00000000
Neuron 16 3 0.50000000 6 3.22154787 0.00000000 0.00000000 0.00000000
Link 1 7 1 0 0.58617246
Link 2 7 2 0 0.27080677
Link 3 7 3 0 0.05005034
Link 4 7 4 0 -0.73837542
Link 5 7 5 0 -0.74630113
Link 6 7 6 0 0.16531410
Link 1 8 7 0 0.58275032
Link 2 8 8 0 -0.39167295
Link 3 8 9 0 0.10639482
Link 6 8 12 0 0.12291830
Link 5 15 36 0 0.87957552
Link 15 8 37 0 -0.68837792
Link 4 16 39 0 0.96208746
Link 16 8 40 0 -0.66890723
GenomeEnd

GenomeStart 9652
Genome Fitness: 158.000000 
Neuron 1 1 0.00000000 1 0.00000000 0.00000000 0.00000000 0.00000000
Neuron 2 1 0.00000000 1 0.00000000 0.00000000 0.00000000 0.00000000
Neuron 3 1 0.00000000 1 0.00000000 0.00000000 0.00000000 0.00000000
Neuron 4 1 0.00000000 1 0.00000000 0.00000000 0.00000000 0.00000000
Neuron 5 1 0.00000000 1 0.00000000 0.00000000 0.00000000 0.00000000
Neuron 6 2 0.00000000 1 0.00000000 0.00000000 0.00000000 0.00000000
Neuron 7 4 1.00000000 2 3.02500000 0.00000000 0.00000000 0.00000000
Neuron 8 4 1.00000000 2 3.02500000 0.00000000 0.00000000 0.00000000
Neuron 9 3 0.50000000 9 5.68303320 0.00000000 0.00000000 0.00000000
Neuron 14 3 0.50000000 6 0.33150232 0.00000000 0.00000000 0.00000000
Neuron 17 3 0.75000000 7 2.54174950 0.00000000 0.00000000 0.00000000
Link 1 7 1 0 0.20652781
Link 2 7 2 0 0.33181523
Link 3 7 3 0 0.04578668
Link 5 7 5 0 0.51550495
Link 6 7 6 0 -0.43556631
Link 1 8 7 0 0.49262230
Link 2 8 8 0 -0.49132534
Link 4 8 10 0 0.07031954
Link 5 8 11 0 0.02255509
Link 6 8 12 0 0.11716606
Link 3 9 14 0 0.82276706
Link 9 8 15 0 -0.23945469
Link 4 14 32 0 1.16784430
Link 14 17 49 0 0.87672555
Link 17 7 50 0 0.30382212
Link 9 17 80 0 0.57541122
GenomeEnd

GenomeStart 9653
Genome Fitness: 101.000000 
Neuron 1 1 0.00000000 1 0.00000000 0.00000000 0.00000000 0.00000000
Neuron 2 1 0.00000000 1 0.00000000 0.00000000 0.00000000 0.00000000
Neuron 3 1 0.00000000 1 0.00000000 0.00000000 0.00000000 0.00000000
Neuron 4 1 0.00000000 1 0.00000000 0.00000000 0.00000000 0.00000000
Neuron 5 1 0.00000000 1 0.00000000 0.00000000 0.00000000 0.00000000
Neuron 6 2 0.00000000 1 0.00000000 0.00000000 0.00000000 0.00000000
Neuron 7 4 1.00000000 2 3.02500000 0.00000000 0.00000000 0.00000000
Neuron 8 4 1.00000000 2 3.02500000 0.00000000 0.00000000 0.00000000
Neuron 9 3 0.50000000 9 5.68303320 0.00000000 0.00000000 0.00000000
Neuron 14 3 0.50000000 6 0.33150232 0.00000000 0.00000000 0.00000000
Neuron 17 3 0.75000000 7 2.54174950 0.00000000 0.00000000 0.00000000
Link 1 7 1 0 0.11600156
Link 2 7 2 0 0.43810104
Link 3 7 3 0 0.08068682
Link 5 7 5 0 0.57616166
Link 6 7 6 0 -0.49226914
Link 1 8 7 0 0.50881958
Link 2 8 8 0 -0.39578418
Link 4 8 10 0 0.13391270
Link 5 8 11 0 0.04461629
Link 6 8 12 0 -0.03348040
Link 3 9 14 0 0.74803491
Link 9 8 15 0 -0.27077378
Link 4 14 32 0 1.21177436
Link 14 17 49 0 0.91807751
Link 17 7 50 0 0.28003154
Link 9 17 80 0 0.45516950
GenomeEnd

GenomeStart 9654
Genome Fitness: 155.000000 
Neuron 1 1 0.00000000 1 0.00000000 0.00000000 0.00000000 0.00000000
Neuron 2 1 0.00000000 1 0.00000000 0.00000000 0.00000000 0.00000000
Neuron 3 1 0.00000000 1 0.00000000 0.00000000 0.00000000 0.00000000
Neuron 4 1 0.00000000 1 0.00000000 0.00000000 0.00000000 0.00000000
Neuron 5 1 0.00000000 1 0.00000000 0.00000000 0.00000000 0.00000000
Neuron 6 2 0.00000000 1 0.00000000 0.00000000 0.00000000 0.00000000
Neuron 7 4 1.00000000 2 3.02500000 0.00000000 0.00000000 0.00000000
Neuron 8 4 1.00000000 2 3.02500000 0.00000000 0.00000000 0.00000000
Neuron 9 3 0.50000000 9 5.68303320 0.00000000 0.00000000 0.00000000
Neuron 14 3 0.50000000 6 0.33150232 0.00000000 0.00000000 0.00000000
Neuron 17 3 0.75000000 7 2.54174950 0.00000000 0.00000000 0.00000000
Link 1 7 1 0 0.21152625
Link 2 7 2 0 0.36428392
Link 3 7 3 0 0.16211804
Link 5 7 5 0 0.51550495
Link 6 7 6 0 -0.43556631
Link 1 8 7 0 0.49262230
Link 2 8 8 0 -0.49132534
Link 4 8 10 0 0.07031954
Link 5 8 11 0 0.00340708
Link 6 8 12 0 0.11716606
Link 3 9 14 0 0.82276706
Link 9 8 15 0 -0.24839855
Link 4 14 32 0 1.16784430
Link 14 17 49 0 0.99673243
Link 17 7 50 0 0.30382212
Link 9 17 80 0 0.57541122
GenomeEnd

GenomeStart 9655
Genome Fitness: 136.000000 
Neuron 1 1 0.00000000 1 0.00000000 0.00000000 0.00000000 0.00000000
Neuron 2 1 0.00000000 1 0.00000000 0.00000000 0.00000000 0.00000000
Neuron 3 1 0.00000000 1 0.00000000 0.00000000 0.00000000 0.00000000
Neuron 4 1 0.00000000 1 0.00000000 0.00000000 0.00000000 0.00000000
Neuron 5 1 0.00000000 1 0.00000000 0.00000000 0.00000000 0.00000000
Neuron 6 2 0.00000000 1 0.00000000 0.00000000 0.00000000 0.00000000
Neuron 7 4 1.00000000 2 3.02500000 0.00000000 0.00000000 0.00000000
Neuron 8 4 1.00000000 2 3.02500000 0.00000000 0.00000000 0.00000000
Neuron 9 3 0.50000000 9 5.68303320 0.00000000 0.00000000 0.00000000
Neuron 14 3 0.50000000 6 0.33150232 0.00000000 0.00000000 0.00000000
Neuron 17 3 0.75000000 7 2.54174950 0.00000000 0.00000000 0.00000000
Link 1 7 1 0 0.20560724
Link 2 7 2 0 0.28412813
Link 3 7 3 0 0.12157971
Link 5 7 5 0 0.44467054
Link 6 7 6 0 -0.58856000
Link 1 8 7 0 0.65517951
Link 2 8 8 0 -0.51727533
Link 4 8 10 0 0.01485541
Link 5 8 11 0 0.07558756
Link 6 8 12 0 0.01987434
Link 3 9 14 0 0.80823093
Link 9 8 15 0 -0.16835324
Link 4 14 32 0 1.19223987
Link 14 17 49 0 0.77682973
Link 17 7 50 0 0.27929827
Link 9 17 80 0 0.69371579
GenomeEnd

GenomeStart 9656
Genome Fitness: 145.000000 
Neuron 1 1 0.00000000 1 0.00000000 0.00000000 0.00000000 0.00000000
Neuron 2 1 0.00000000 1 0.00000000 0.00000000 0.00000000 0.00000000
Neuron 3 1 0.00000000 1 0.00000000 0.00000000 0.00000000 0.00000000
Neuron 4 1 0.00000000 1 0.00000000 0.00000000 0.00000000 0.00000000
Neuron 5 1 0.00000000 1 0.00000000 0.00000000 0.00000000 0.00000000
Neuron 6 2 0.00000000 1 0.00000000 0.00000000 0.00000000 0.00000000
Neuron 7 4 1.00000000 2 3.02500000 0.00000000 0.00000000 0.00000000
Neuron 8 4 1.00000000 2 3.02500000 0.00000000 0.00000000 0.00000000
Neuron 9 3 0.50000000 9 5.68303320 0.00000000 0.00000000 0.00000000
Neuron 14 3 0.50000000 6 0.33150232 0.00000000 0.00000000 0.00000000
Neuron 17 3 0.75000000 7 2.54174950 0.00000000 0.00000000 0.00000000
Link 1 7 1 0 0.35277942
Link 2 7 2 0 0.44312588
Link 3 7 3 0 -0.04073675
Link 5 7 5 0 0.65690620
Link 6 7 6 0 -0.60504180
Link 1 8 7 0 0.53150377
Link 2 8 8 0 -0.59593355
Link 4 8 10 0 0.05401579
Link 5 8 11 0 -0.05750658
Link 6 8 12 0 0.29025320
Link 3 9 14 0 0.76100366
Link 9 8 15 0 -0.15805599
Link 4 14 32 0 1.01956497
Link 14 17 49 0 0.91111030
Link 17 7 50 0 0.28494457
Link 9 17 80 0 0.71813574
Link 5 14 206 0 0.20262751
GenomeEnd

GenomeStart 9657
Genome Fitness: 136.000000 
Neuron 1 1 0.00000000 1 0.00000000 0.00000000 0.00000000 0.00000000
Neuron 2 1 0.00000000 1 0.00000000 0.00000000 0.00000000 0.00000000
Neuron 3 1 0.00000000 1 0.00000000 0.00000000 0.00000000 0.00000000
Neuron 4 1 0.00000000 1 0.00000000 0.00000000 0.00000000 0.00000000
Neuron 5 1 0.00000000 1 0.00000000 0.00000000 0.00000000 0.00000000
Neuron 6 2 0.00000000 1 0.00000000 0.00000000 0.00000000 0.00000000
Neuron 7 4 1.00000000 2 3.02500000 0.00000000 0.00000000 0.00000000
Neuron 8 4 1.00000000 2 3.02500000 0.00000000 0.00000000 0.00000000
Neuron 9 3 0.50000000 9 5.68303320 0.00000000 0.00000000 0.00000000
Neuron 14 3 0.50000000 6 0.33150232 0.00000000 0.00000000 0.00000000
Neuron 17 3 0.75000000 7 2.54174950 0.00000000 0.00000000 0.00000000
Link 1 7 1 0 0.21718101
Link 2 7 2 0 0.36089139
Link 3 7 3 0 0.10395236
Link 5 7 5 0 0.53664703
Link 6 7 6 0 -0.55839996
Link 1 8 7 0 0.49262230
Link 2 8 8 0 -0.53105208
Link 4 8 10 0 -0.04617796
Link 5 8 11 0 0.00819408
Link 6 8 12 0 0.15339168
Link 3 9 14 0 0.82834481
Link 9 8 15 0 -0.25688172
Link 4 14 32 0 1.15018528
Link 14 17 49 0 0.93927629
Link 17 7 50 0 0.30592376
Link 9 17 80 0 0.54381536
GenomeEnd

GenomeStart 9658
Genome Fitness: 101.000000 
Neuron 1 1 0.00000000 1 0.00000000 0.00000000 0.00000000 0.00000000
Neuron 2 1 0.00000000 1 0.00000000 0.00000000 0.00000000 0.00000000
Neuron 3 1 0.00000000 1 0.00000000 0.00000000 0.00000000 0.00000000
Neuron 4 1 0.00000000 1 0.00000000 0.00000000 0.00000000 0.00000000
Neuron 5 1 0.00000000 1 0.00000000 0.00000000 0.00000000 0.00000000
Neuron 6 2 0.00000000 1 0.00000000 0.00000000 0.00000000 0.00000000
Neuron 7 4 1.00000000 2 3.02500000 0.00000000 0.00000000 0.00000000
Neuron 8 4 1.00000000 2 3.02500000 0.00000000 0.00000000 0.00000000
Neuron 9 3 0.50000000 9 5.68303320 0.00000000 0.00000000 0.00000000
Neuron 14 3 0.50000000 6 0.33150232 0.00000000 0.00000000 0.00000000
Neuron 17 3 0.75000000 7 2.54174950 0.00000000 0.00000000 0.00000000
Link 1 7 1 0 0.20652781
Link 2 7 2 0 0.38328296
Link 3 7 3 0 0.12641267
Link 5 7 5 0 0.51550495
Link 6 7 6 0 -0.56736316
Link 1 8 7 0 0.54193593
Link 2 8 8 0 -0.49805668
Link 4 8 10 0 0.07031954
Link 5 8 11 0 0.02255509
Link 6 8 12 0 0.11716606
Link 3 9 14 0 0.82276706
Link 9 8 15 0 -0.23175668
Link 4 14 32 0 1.07652461
Link 14 17 49 0 0.87672555
Link 17 7 50 0 0.37243531
Link 9 17 80 0 0.57541122
GenomeEnd

GenomeStart 9659
Genome Fitness: 43.000000 
Neuron 1 1 0.00000000 1 0.00000000 0.00000000 0.00000000 0.00000000
Neuron 2 1 0.00000000 1 0.00000000 0.00000000 0.00000000 0.00000000
Neuron 3 1 0.00000000 1 0.00000000 0.00000000 0.00000000 0.00000000
Neuron 4 1 0.00000000 1 0.00000000 0.00000000 0.00000000 0.00000000
Neuron 5 1 0.00000000 1 0.00000000 0.00000000 0.00000000 0.00000000
Neuron 6 2 0.00000000 1 0.00000000 0.00000000 0.00000000 0.00000000
Neuron 7 4 1.00000000 2 3.02500000 0.00000000 0.00000000 0.00000000
Neuron 8 4 1.00000000 2 3.02500000 0.00000000 0.00000000 0.00000000
Neuron 9 3 0.50000000 9 5.68303320 0.00000000 0.00000000 0.00000000
Neuron 14 3 0.50000000 6 0.33150232 0.00000000 0.00000000 0.00000000
Neuron 17 3 0.75000000 7 2.54174950 0.00000000 0.00000000 0.00000000
Link 1 7 1 0 0.24691213
Link 2 7 2 0 0.30376733
Link 3 7 3 0 0.03727845
Link 5 7 5 0 0.59226931
Link 6 7 6 0 -0.51090411
Link 1 8 7 0 0.54961086
Link 2 8 8 0 -0.57558115
Link 4 8 10 0 0.02588908
Link 5 8 11 0 0.05761903
Link 6 8 12 0 0.23331964
Link 3 9 14 0 0.77133296
Link 9 8 15 0 -0.14074563
Link 4 14 32 0 1.18862846
Link 14 17 49 0 0.92334945
Link 17 7 50 0 0.34119927
Link 9 17 80 0 0.63305600
GenomeEnd

GenomeStart 9660
Genome Fitness: 131.000000 
Neuron 1 1 0.00000000 1 0.00000000 0.00000000 0.00000000 0.00000000
Neuron 2 1 0.00000000 1 0.00000000 0.00000000 0.00000000 0.00000000
Neuron 3 1 0.00000000 1 0.00000000 0.00000000 0.00000000 0.00000000
Neuron 4 1 0.00000000 1 0.00000000 0.00000000 0.00000000 0.00000000
Neuron 5 1 0.00000000 1 0.00000000 0.00000000 0.00000000 0.00000000
Neuron 6 2 0.00000000 1 0.00000000 0.00000000 0.00000000 0.00000000
Neuron 7 4 1.00000000 2 3.02500000 0.00000000 0.00000000 0.00000000
Neuron 8 4 1.00000000 2 3.02500000 0.00000000 0.00000000 0.00000000
Neuron 9 3 0.50000000 9 5.68303320 0.00000000 0.00000000 0.00000000
Neuron 14 3 0.50000000 6 0.33150232 0.00000000 0.00000000 0.00000000
Neuron 17 3 0.75000000 7 2.54174950 0.00000000 0.00000000 0.00000000
Link 1 7 1 0 0.20581456
Link 2 7 2 0 0.31080514
Link 3 7 3 0 0.02845134
Link 5 7 5 0 0.50303884
Link 6 7 6 0 -0.44140411
Link 1 8 7 0 0.55934993
Link 2 8 8 0 -0.50290676
Link 4 8 10 0 0.07177533
Link 5 8 11 0 0.06918570
Link 6 8 12 0 0.15049553
Link 3 9 14 0 0.76382720
Link 9 8 15 0 -0.17597350
Link 4 14 32 0 1.17167433
Link 14 17 49 0 0.89225150
Link 17 7 50 0 0.31452385
Link 9 17 80 0 0.57997834
GenomeEnd

GenomeStart 9661
Genome Fitness: 158.000000 
Neuron 1 1 0.00000000 1 0.00000000 0.00000000 0.00000000 0.00000000
Neuron 2 1 0.00000000 1 0.00000000 0.00000000 0.00000000 0.00000000
Neuron 3 1 0.00000000 1 0.00000000 0.00000000 0.00000000 0.00000000
Neuron 4 1 0.00000000 1 0.00000000 0.00000000 0.00000000 0.00000000
Neuron 5 1 0.00000000 1 0.00000000 0.00000000 0.00000000 0.00000000
Neuron 6 2 0.00000000 1 0.00000000 0.00000000 0.00000000 0.00000000
Neuron 7 4 1.00000000 2 3.02500000 0.00000000 0.00000000 0.00000000
Neuron 8 4 1.00000000 2 3.02500000 0.00000000 0.00000000 0.00000000
Link 1 7 1 0 0.49283362
Link 2 7 2 0 0.24719222
Link 3 7 3 0 0.03910391
Link 4 7 4 0 -0.63443241
Link 5 7 5 0 -0.65714661
Link 6 7 6 0 0.19243522
Link 1 8 7 0 0.51575646
Link 2 8 8 0 -0.40980855
Link 3 8 9 0 0.22510056
Link 4 8 10 0 -0.73368637
Link 5 8 11 0 -0.70723104
Link 6 8 12 0 0.26269263
GenomeEnd

GenomeStart 9662
Genome Fitness: 157.000000 
Neuron 1 1 0.00000000 1 0.00000000 0.00000000 0.00000000 0.00000000
Neuron 2 1 0.00000000 1 0.00000000 0.00000000 0.00000000 0.00000000
Neuron 3 1 0.00000000 1 0.00000000 0.00000000 0.00000000 0.00000000
Neuron 4 1 0.00000000 1 0.00000000 0.00000000 0.00000000 0.00000000
Neuron 5 1 0.00000000 1 0.00000000 0.00000000 0.00000000 0.00000000
Neuron 6 2 0.00000000 1 0.00000000 0.00000000 0.00000000 0.00000000
Neuron 7 4 1.00000000 2 3.02500000 0.00000000 0.00000000 0.00000000
Neuron 8 4 1.00000000 2 3.02500000 0.00000000 0.00000000 0.00000000
Link 1 7 1 0 0.49283362
Link 2 7 2 0 0.24719222
Link 3 7 3 0 0.03910391
Link 4 7 4 0 -0.63443241
Link 5 7 5 0 -0.65714661
Link 6 7 6 0 0.19243522
Link 1 8 7 0 0.26168607
Link 2 8 8 0 -0.40980855
Link 3 8 9 0 0.22510056
Link 4 8 10 0 -0.73368637
Link 5 8 11 0 -0.70723104
Link 6 8 12 0 0.29003479
GenomeEnd

GenomeStart 9663
Genome Fitness: 157.000000 
Neuron 1 1 0.00000000 1 0.00000000 0.00000000 0.00000000 0.00000000
Neuron 2 1 0.00000000 1 0.00000000 0.00000000 0.00000000 0.00000000
Neuron 3 1 0.00000000 1 0.00000000 0.00000000 0.00000000 0.00000000
Neuron 4 1 0.00000000 1 0.00000000 0.00000000 0.00000000 0.00000000
Neuron 5 1 0.00000000 1 0.00000000 0.00000000 0.00000000 0.00000000
Neuron 6 2 0.00000000 1 0.00000000 0.00000000 0.00000000 0.00000000
Neuron 7 4 1.00000000 2 3.02500000 0.00000000 0.00000000 0.00000000
Neuron 8 4 1.00000000 2 3.02500000 0.00000000 0.00000000 0.00000000
Link 1 7 1 0 0.57901517
Link 2 7 2 0 0.25688021
Link 3 7 3 0 0.02823678
Link 4 7 4 0 -0.66878481
Link 5 7 5 0 -0.71455415
Link 6 7 6 0 0.27181284
Link 1 8 7 0 0.28286426
Link 2 8 8 0 -0.36862544
Link 3 8 9 0 0.16887553
Link 4 8 10 0 -0.83032627
Link 5 8 11 0 -0.65437408
Link 6 8 12 0 0.26084624
GenomeEnd

GenomeStart 9664
Genome Fitness: 101.000000 
Neuron 1 1 0.00000000 1 0.00000000 0.00000000 0.00000000 0.00000000
Neuron 2 1 0.00000000 1 0.00000000 0.00000000 0.00000000 0.00000000
Neuron 3 1 0.00000000 1 0.00000000 0.00000000 0.00000000 0.00000000
Neuron 4 1 0.00000000 1 0.00000000 0.00000000 0.00000000 0.00000000
Neuron 5 1 0.00000000 1 0.00000000 0.00000000 0.00000000 0.00000000
Neuron 6 2 0.00000000 1 0.00000000 0.00000000 0.00000000 0.00000000
Neuron 7 4 1.00000000 2 3.02500000 0.00000000 0.00000000 0.00000000
Neuron 8 4 1.00000000 2 3.02500000 0.00000000 0.00000000 0.00000000
Link 1 7 1 0 0.57579431
Link 2 7 2 0 0.10575013
Link 3 7 3 0 -0.08736472
Link 4 7 4 0 -0.48665158
Link 5 7 5 0 -0.67563169
Link 6 7 6 0 0.18962140
Link 1 8 7 0 0.60724372
Link 2 8 8 0 -0.37538142
Link 3 8 9 0 0.18421033
Link 4 8 10 0 -0.78032828
Link 5 8 11 0 -0.76606046
Link 6 8 12 0 0.28593375
GenomeEnd

GenomeStart 9665
Genome Fitness: 157.000000 
Neuron 1 1 0.00000000 1 0.00000000 0.00000000 0.00000000 0.00000000
Neuron 2 1 0.00000000 1 0.00000000 0.00000000 0.00000000 0.00000000
Neuron 3 1 0.00000000 1 0.00000000 0.00000000 0.00000000 0.00000000
Neuron 4 1 0.00000000 1 0.00000000 0.00000000 0.00000000 0.00000000
Neuron 5 1 0.00000000 1 0.00000000 0.00000000 0.00000000 0.00000000
Neuron 6 2 0.00000000 1 0.00000000 0.00000000 0.00000000 0.00000000
Neuron 7 4 1.00000000 2 3.02500000 0.00000000 0.00000000 0.00000000
Neuron 8 4 1.00000000 2 3.02500000 0.00000000 0.00000000 0.00000000
Link 1 7 1 0 0.57540379
Link 2 7 2 0 0.21657951
Link 3 7 3 0 0.05220498
Link 4 7 4 0 -0.66625932
Link 5 7 5 0 -0.78396533
Link 6 7 6 0 0.26207797
Link 1 8 7 0 0.65974380
Link 2 8 8 0 -0.52226300
Link 3 8 9 0 0.11090646
Link 4 8 10 0 -0.84083714
Link 5 8 11 0 -0.67933432
Link 6 8 12 0 0.36802258
GenomeEnd

GenomeStart 9666
Genome Fitness: 136.000000 
Neuron 1 1 0.00000000 1 0.00000000 0.00000000 0.00000000 0.00000000
Neuron 2 1 0.00000000 1 0.00000000 0.00000000 0.00000000 0.00000000
Neuron 3 1 0.00000000 1 0.00000000 0.00000000 0.00000000 0.00000000
Neuron 4 1 0.00000000 1 0.00000000 0.00000000 0.00000000 0.00000000
Neuron 5 1 0.00000000 1 0.00000000 0.00000000 0.00000000 0.00000000
Neuron 6 2 0.00000000 1 0.00000000 0.00000000 0.00000000 0.00000000
Neuron 7 4 1.00000000 2 3.02500000 0.00000000 0.00000000 0.00000000
Neuron 8 4 1.00000000 2 3.02500000 0.00000000 0.00000000 0.00000000
Link 1 7 1 0 0.40329224
Link 2 7 2 0 0.16640990
Link 3 7 3 0 0.05864267
Link 4 7 4 0 -0.63443241
Link 5 7 5 0 -0.65714661
Link 6 7 6 0 0.19243522
Link 1 8 7 0 0.26168607
Link 2 8 8 0 -0.41307996
Link 3 8 9 0 0.30731846
Link 4 8 10 0 -0.73368637
Link 5 8 11 0 -0.56457454
Link 6 8 12 0 0.26269263
GenomeEnd

GenomeStart 9667
Genome Fitness: 148.000000 
Neuron 1 1 0.00000000 1 0.00000000 0.00000000 0.00000000 0.00000000
Neuron 2 1 0.00000000 1 0.00000000 0.00000000 0.00000000 0.00000000
Neuron 3 1 0.00000000 1 0.00000000 0.00000000 0.00000000 0.00000000
Neuron 4 1 0.00000000 1 0.00000000 0.00000000 0.00000000 0.00000000
Neuron 5 1 0.00000000 1 0.00000000 0.00000000 0.00000000 0.00000000
Neuron 6 2 0.00000000 1 0.00000000 0.00000000 0.00000000 0.00000000
Neuron 7 4 1.00000000 2 3.02500000 0.00000000 0.00000000 0.00000000
Neuron 8 4 1.00000000 2 3.02500000 0.00000000 0.00000000 0.00000000
Link 1 7 1 0 0.49283362
Link 2 7 2 0 0.16640990
Link 3 7 3 0 -0.06159097
Link 4 7 4 0 -0.63443241
Link 5 7 5 0 -0.65714661
Link 6 7 6 0 0.19243522
Link 1 8 7 0 0.51575646
Link 2 8 8 0 -0.36595265
Link 3 8 9 0 0.22510056
Link 4 8 10 0 -0.73368637
Link 5 8 11 0 -0.70723104
Link 6 8 12 0 0.26269263
GenomeEnd

GenomeStart 9668
Genome Fitness: 101.000000 
Neuron 1 1 0.00000000 1 0.00000000 0.00000000 0.00000000 0.00000000
Neuron 2 1 0.00000000 1 0.00000000 0.00000000 0.00000000 0.00000000
Neuron 3 1 0.00000000 1 0.00000000 0.00000000 0.00000000 0.00000000
Neuron 4 1 0.00000000 1 0.00000000 0.00000000 0.00000000 0.00000000
Neuron 5 1 0.00000000 1 0.00000000 0.00000000 0.00000000 0.00000000
Neuron 6 2 0.00000000 1 0.00000000 0.00000000 0.00000000 0.00000000
Neuron 7 4 1.00000000 1 3.02500000 0.00000000 0.00000000 0.00000000
Neuron 8 4 1.00000000 2 3.02500000 0.00000000 0.00000000 0.00000000
Link 1 7 1 0 0.49283362
Link 2 7 2 0 0.24719222
Link 3 7 3 0 0.03910391
Link 4 7 4 0 -0.63443241
Link 5 7 5 0 -0.65714661
Link 6 7 6 0 0.19243522
Link 1 8 7 0 0.38872127
Link 2 8 8 0 -0.40980855
Link 3 8 9 0 0.25654920
Link 4 8 10 0 -0.74900613
Link 5 8 11 0 -0.70723104
Link 6 8 12 0 0.27636371
GenomeEnd

GenomeStart 9669
Genome Fitness: 158.000000 
Neuron 1 1 0.00000000 1 0.00000000 0.00000000 0.00000000 0.00000000
Neuron 2 1 0.00000000 1 0.00000000 0.00000000 0.00000000 0.00000000
Neuron 3 1 0.00000000 1 0.00000000 0.00000000 0.00000000 0.00000000
Neuron 4 1 0.00000000 1 0.00000000 0.00000000 0.00000000 0.00000000
Neuron 5 1 0.00000000 1 0.00000000 0.00000000 0.00000000 0.00000000
Neuron 6 2 0.00000000 1 0.00000000 0.00000000 0.00000000 0.00000000
Neuron 7 4 1.00000000 2 3.02500000 0.00000000 0.00000000 0.00000000
Neuron 8 4 1.00000000 2 3.02500000 0.00000000 0.00000000 0.00000000
Neuron 9 3 0.50000000 9 5.68303320 0.00000000 0.00000000 0.00000000
Neuron 14 3 0.50000000 6 0.33150232 0.00000000 0.00000000 0.00000000
Neuron 18 3 0.50000000 11 0.25714816 0.00000000 0.00000000 0.00000000
Neuron 25 3 0.25000000 5 2.34758267 0.00000000 0.00000000 0.00000000
Neuron 27 3 0.25000000 4 3.74668369 0.00000000 0.00000000 0.00000000
Link 1 7 1 0 0.50034977
Link 2 7 2 0 -0.76930824
Link 5 7 5 0 0.23410075
Link 6 7 6 0 -0.41233344
Link 1 8 7 0 0.10619814
Link 2 8 8 0 -0.02562961
Link 4 8 10 0 0.02180609
Link 5 8 11 0 0.74528348
Link 6 8 12 0 0.23836203
Link 9 8 15 0 0.11623041
Link 4 14 32 0 0.01777947
Link 14 7 33 0 0.33648844
Link 3 18 53 0 0.58048376
Link 18 7 54 0 0.91905313
Link 3 25 89 0 0.48026903
Link 25 9 90 0 0.03815978
Link 1 18 95 0 -0.08367292
Link 1 27 104 0 0.46122180
Link 27 9 105 0 0.10751456
GenomeEnd

GenomeStart 9670
Genome Fitness: 101.000000 
Neuron 1 1 0.00000000 1 0.00000000 0.00000000 0.00000000 0.00000000
Neuron 2 1 0.00000000 1 0.00000000 0.00000000 0.00000000 0.00000000
Neuron 3 1 0.00000000 1 0.00000000 0.00000000 0.00000000 0.00000000
Neuron 4 1 0.00000000 1 0.00000000 0.00000000 0.00000000 0.00000000
Neuron 5 1 0.00000000 1 0.00000000 0.00000000 0.00000000 0.00000000
Neuron 6 2 0.00000000 1 0.00000000 0.00000000 0.00000000 0.00000000
Neuron 7 4 1.00000000 2 3.02500000 0.00000000 0.00000000 0.00000000
Neuron 8 4 1.00000000 2 3.02500000 0.00000000 0.00000000 0.00000000
Neuron 9 3 0.50000000 9 5.68303320 0.00000000 0.00000000 0.00000000
Neuron 14 3 0.50000000 6 0.33150232 0.00000000 0.00000000 0.00000000
Neuron 18 3 0.50000000 11 0.25714816 0.00000000 0.00000000 0.00000000
Neuron 25 3 0.25000000 5 2.34758267 0.00000000 0.00000000 0.00000000
Neuron 27 3 0.25000000 4 3.74668369 0.00000000 0.00000000 0.00000000
Link 1 7 1 0 0.34493011
Link 2 7 2 0 -0.64062391
Link 5 7 5 0 0.32586434
Link 6 7 6 0 -0.40735618
Link 1 8 7 0 0.30990434
Link 2 8 8 0 -0.04385847
Link 4 8 10 0 -0.10982965
Link 5 8 11 0 0.59418992
Link 6 8 12 0 0.25071736
Link 9 8 15 0 0.31928921
Link 4 14 32 0 0.09867990
Link 14 7 33 0 0.60227110
Link 3 18 53 0 0.57361137
Link 18 7 54 0 1.06293944
Link 3 25 89 0 0.66776665
Link 25 9 90 0 -0.00709176
Link 1 18 95 0 0.11375506
Link 1 27 104 0 0.40576673
Link 27 9 105 0 0.13565938
GenomeEnd

GenomeStart 9671
Genome Fitness: 101.000000 
Neuron 1 1 0.00000000 1 0.00000000 0.00000000 0.00000000 0.00000000
Neuron 2 1 0.00000000 1 0.00000000 0.00000000 0.00000000 0.00000000
Neuron 3 1 0.00000000 1 0.00000000 0.00000000 0.00000000 0.00000000
Neuron 4 1 0.00000000 1 0.00000000 0.00000000 0.00000000 0.00000000
Neuron 5 1 0.00000000 1 0.00000000 0.00000000 0.00000000 0.00000000
Neuron 6 2 0.00000000 1 0.00000000 0.00000000 0.00000000 0.00000000
Neuron 7 4 1.00000000 2 3.02500000 0.00000000 0.00000000 0.00000000
Neuron 8 4 1.00000000 2 3.02500000 0.00000000 0.00000000 0.00000000
Neuron 9 3 0.50000000 9 5.68303320 0.00000000 0.00000000 0.00000000
Neuron 14 3 0.50000000 6 0.33150232 0.00000000 0.00000000 0.00000000
Neuron 18 3 0.50000000 11 0.25714816 0.00000000 0.00000000 0.00000000
Neuron 25 3 0.25000000 5 2.34758267 0.00000000 0.00000000 0.00000000
Neuron 27 3 0.25000000 4 3.74668369 0.00000000 0.00000000 0.00000000
Link 1 7 1 0 0.42379493
Link 2 7 2 0 -0.59723188
Link 5 7 5 0 0.10377588
Link 6 7 6 0 -0.41123089
Link 1 8 7 0 0.22351324
Link 2 8 8 0 0.00867950
Link 4 8 10 0 -0.07586060
Link 5 8 11 0 0.73407290
Link 6 8 12 0 0.33019043
Link 9 8 15 0 0.15269486
Link 4 14 32 0 0.00198850
Link 14 7 33 0 0.53535809
Link 3 18 53 0 0.64193942
Link 18 7 54 0 1.04909987
Link 3 25 89 0 0.40606675
Link 25 9 90 0 0.22341351
Link 1 18 95 0 -0.12971501
Link 1 27 104 0 0.35617432
Link 27 9 105 0 0.06213016
GenomeEnd

GenomeStart 9672
Genome Fitness: 101.000000 
Neuron 1 1 0.00000000 1 0.00000000 0.00000000 0.00000000 0.00000000
Neuron 2 1 0.00000000 1 0.00000000 0.00000000 0.00000000 0.00000000
Neuron 3 1 0.00000000 1 0.00000000 0.00000000 0.00000000 0.00000000
Neuron 4 1 0.00000000 1 0.00000000 0.00000000 0.00000000 0.00000000
Neuron 5 1 0.00000000 1 0.00000000 0.00000000 0.00000000 0.00000000
Neuron 6 2 0.00000000 1 0.00000000 0.00000000 0.00000000 0.00000000
Neuron 7 4 1.00000000 2 3.02500000 0.00000000 0.00000000 0.00000000
Neuron 8 4 1.00000000 2 3.02500000 0.00000000 0.00000000 0.00000000
Neuron 9 3 0.50000000 9 5.68303320 0.00000000 0.00000000 0.00000000
Neuron 14 3 0.50000000 6 0.33150232 0.00000000 0.00000000 0.00000000
Neuron 18 3 0.50000000 11 0.25714816 0.00000000 0.00000000 0.00000000
Neuron 25 3 0.25000000 5 2.34758267 0.00000000 0.00000000 0.00000000
Neuron 27 3 0.25000000 4 3.74668369 0.00000000 0.00000000 0.00000000
Link 1 7 1 0 0.50034977
Link 2 7 2 0 -0.66327121
Link 5 7 5 0 0.24863122
Link 6 7 6 0 -0.43184432
Link 1 8 7 0 0.11742080
Link 2 8 8 0 -0.02562961
Link 4 8 10 0 0.01688599
Link 5 8 11 0 0.74528348
Link 6 8 12 0 0.25700869
Link 9 8 15 0 0.10258394
Link 4 14 32 0 0.01777947
Link 14 7 33 0 0.33006813
Link 3 18 53 0 0.58048376
Link 18 7 54 0 1.08769963
Link 3 25 89 0 0.56201890
Link 25 9 90 0 0.07785666
Link 1 18 95 0 -0.08367292
Link 1 27 104 0 0.48915590
Link 27 9 105 0 0.09076720
GenomeEnd

GenomeStart 9673
Genome Fitness: 101.000000 
Neuron 1 1 0.00000000 1 0.00000000 0.00000000 0.00000000 0.00000000
Neuron 2 1 0.00000000 1 0.00000000 0.00000000 0.00000000 0.00000000
Neuron 3 1 0.00000000 1 0.00000000 0.00000000 0.00000000 0.00000000
Neuron 4 1 0.00000000 1 0.00000000 0.00000000 0.00000000 0.00000000
Neuron 5 1 0.00000000 1 0.00000000 0.00000000 0.00000000 0.00000000
Neuron 6 2 0.00000000 1 0.00000000 0.00000000 0.00000000 0.00000000
Neuron 7 4 1.00000000 2 3.02500000 0.00000000 0.00000000 0.00000000
Neuron 8 4 1.00000000 2 3.02500000 0.00000000 0.00000000 0.00000000
Neuron 9 3 0.50000000 9 5.68303320 0.00000000 0.00000000 0.00000000
Neuron 14 3 0.50000000 6 0.33150232 0.00000000 0.00000000 0.00000000
Neuron 18 3 0.50000000 11 0.25714816 0.00000000 0.00000000 0.00000000
Neuron 25 3 0.25000000 5 2.34758267 0.00000000 0.00000000 0.00000000
Neuron 27 3 0.25000000 4 3.74668369 0.00000000 0.00000000 0.00000000
Link 1 7 1 0 0.46471869
Link 2 7 2 0 -0.63821175
Link 5 7 5 0 0.05127054
Link 6 7 6 0 -0.32034362
Link 1 8 7 0 0.18798917
Link 2 8 8 0 0.14941029
Link 4 8 10 0 0.01918417
Link 5 8 11 0 0.66142998
Link 6 8 12 0 0.08004465
Link 9 8 15 0 -0.09873034
Link 4 14 32 0 0.12070085
Link 14 7 33 0 0.25078136
Link 3 18 53 0 0.73124267
Link 18 7 54 0 1.05367906
Link 3 25 89 0 0.38563097
Link 25 9 90 0 0.11595688
Link 1 18 95 0 -0.17193202
Link 1 27 104 0 0.60982397
Link 27 9 105 0 0.26421552
GenomeEnd

GenomeStart 9674
Genome Fitness: 101.000000 
Neuron 1 1 0.00000000 1 0.00000000 0.00000000 0.00000000 0.00000000
Neuron 2 1 0.00000000 1 0.00000000 0.00000000 0.00000000 0.00000000
Neuron 3 1 0.00000000 1 0.00000000 0.00000000 0.00000000 0.00000000
Neuron 4 1 0.00000000 1 0.00000000 0.00000000 0.00000000 0.00000000
Neuron 5 1 0.00000000 1 0.00000000 0.00000000 0.00000000 0.00000000
Neuron 6 2 0.00000000 1 0.00000000 0.00000000 0.00000000 0.00000000
Neuron 7 4 1.00000000 2 3.02500000 0.00000000 0.00000000 0.00000000
Neuron 8 4 1.00000000 2 3.02500000 0.00000000 0.00000000 0.00000000
Neuron 9 3 0.50000000 9 5.68303320 0.00000000 0.00000000 0.00000000
Neuron 14 3 0.50000000 6 0.33150232 0.00000000 0.00000000 0.00000000
Neuron 18 3 0.50000000 11 0.25714816 0.00000000 0.00000000 0.00000000
Neuron 25 3 0.25000000 5 2.34758267 0.00000000 0.00000000 0.00000000
Neuron 27 3 0.25000000 4 3.74668369 0.00000000 0.00000000 0.00000000
Link 1 7 1 0 0.50034977
Link 2 7 2 0 -0.55723419
Link 5 7 5 0 0.23410075
Link 6 7 6 0 -0.41233344
Link 1 8 7 0 0.10619814
Link 2 8 8 0 -0.02562961
Link 4 8 10 0 0.02180609
Link 5 8 11 0 0.74528348
Link 6 8 12 0 0.23836203
Link 9 8 15 0 0.11623041
Link 4 14 32 0 0.01777947
Link 14 7 33 0 0.33648844
Link 3 18 53 0 0.58048376
Link 18 7 54 0 1.11236584
Link 3 25 89 0 0.48026903
Link 25 9 90 0 0.11755355
Link 1 18 95 0 -0.08367292
Link 1 27 104 0 0.46122180
Link 27 9 105 0 0.10751456
GenomeEnd

GenomeStart 9675
Genome Fitness: 101.000000 
Neuron 1 1 0.00000000 1 0.00000000 0.00000000 0.00000000 0.00000000
Neuron 2 1 0.00000000 1 0.00000000 0.00000000 0.00000000 0.00000000
Neuron 3 1 0.00000000 1 0.00000000 0.00000000 0.00000000 0.00000000
Neuron 4 1 0.00000000 1 0.00000000 0.00000000 0.00000000 0.00000000
Neuron 5 1 0.00000000 1 0.00000000 0.00000000 0.00000000 0.00000000
Neuron 6 2 0.00000000 1 0.00000000 0.00000000 0.00000000 0.00000000
Neuron 7 4 1.00000000 2 3.02500000 0.00000000 0.00000000 0.00000000
Neuron 8 4 1.00000000 2 3.02500000 0.00000000 0.00000000 0.00000000
Neuron 9 3 0.50000000 9 5.68303320 0.00000000 0.00000000 0.00000000
Neuron 14 3 0.50000000 6 0.33150232 0.00000000 0.00000000 0.00000000
Neuron 18 3 0.50000000 11 0.25714816 0.00000000 0.00000000 0.00000000
Neuron 25 3 0.25000000 5 2.34758267 0.00000000 0.00000000 0.00000000
Neuron 27 3 0.25000000 4 3.74668369 0.00000000 0.00000000 0.00000000
Link 1 7 1 0 0.51416800
Link 2 7 2 0 -0.56320765
Link 5 7 5 0 0.30363896
Link 6 7 6 0 -0.50008170
Link 1 8 7 0 0.02999825
Link 2 8 8 0 0.52934084
Link 4 8 10 0 0.06406580
Link 5 8 11 0 0.81282283
Link 6 8 12 0 0.22134593
Link 9 8 15 0 0.09986445
Link 4 14 32 0 0.02107325
Link 14 7 33 0 0.56308435
Link 3 18 53 0 0.50903356
Link 18 7 54 0 0.99695165
Link 3 25 89 0 0.55162213
Link 25 9 90 0 0.10435178
Link 1 18 95 0 -0.05163947
Link 1 27 104 0 0.46122180
Link 27 9 105 0 0.08083522
GenomeEnd

GenomeStart 9676
Genome Fitness: 158.000000 
Neuron 1 1 0.00000000 1 0.00000000 0.00000000 0.00000000 0.00000000
Neuron 2 1 0.00000000 1 0.00000000 0.00000000 0.00000000 0.00000000
Neuron 3 1 0.00000000 1 0.00000000 0.00000000 0.00000000 0.00000000
Neuron 4 1 0.00000000 1 0.00000000 0.00000000 0.00000000 0.00000000
Neuron 5 1 0.00000000 1 0.00000000 0.00000000 0.00000000 0.00000000
Neuron 6 2 0.00000000 1 0.00000000 0.00000000 0.00000000 0.00000000
Neuron 7 4 1.00000000 2 3.02500000 0.00000000 0.00000000 0.00000000
Neuron 8 4 1.00000000 2 3.02500000 0.00000000 0.00000000 0.00000000
Neuron 9 3 0.50000000 8 5.54664794 0.00000000 0.00000000 0.00000000
Neuron 12 3 0.50000000 11 1.30377008 0.00000000 0.00000000 0.00000000
Neuron 15 3 0.50000000 4 2.57055910 0.00000000 0.00000000 0.00000000
Link 1 7 1 0 -0.86708241
Link 2 7 2 0 0.92476539
Link 3 7 3 0 -0.20605644
Link 4 7 4 0 -0.51152278
Link 5 7 5 0 0.05137308
Link 6 7 6 0 -0.83705940
Link 2 8 8 0 -0.67500836
Link 4 8 10 0 -0.82406546
Link 6 8 12 0 0.18533919
Link 3 9 14 0 1.05233960
Link 9 8 15 0 -0.23685180
Link 1 12 23 0 0.92082557
Link 12 8 24 0 0.54307058
Link 5 15 36 0 0.81259028
Link 15 8 37 0 0.52001388
Link 9 15 73 0 -0.04859292
GenomeEnd

GenomeStart 9677
Genome Fitness: 148.000000 
Neuron 1 1 0.00000000 1 0.00000000 0.00000000 0.00000000 0.00000000
Neuron 2 1 0.00000000 1 0.00000000 0.00000000 0.00000000 0.00000000
Neuron 3 1 0.00000000 1 0.00000000 0.00000000 0.00000000 0.00000000
Neuron 4 1 0.00000000 1 0.00000000 0.00000000 0.00000000 0.00000000
Neuron 5 1 0.00000000 1 0.00000000 0.00000000 0.00000000 0.00000000
Neuron 6 2 0.00000000 1 0.00000000 0.00000000 0.00000000 0.00000000
Neuron 7 4 1.00000000 2 3.02500000 0.00000000 0.00000000 0.00000000
Neuron 8 4 1.00000000 2 3.02500000 0.00000000 0.00000000 0.00000000
Neuron 9 3 0.50000000 8 5.54664794 0.00000000 0.00000000 0.00000000
Neuron 12 3 0.50000000 11 1.30377008 0.00000000 0.00000000 0.00000000
Neuron 15 3 0.50000000 4 2.57055910 0.00000000 0.00000000 0.00000000
Link 1 7 1 0 -0.86708241
Link 2 7 2 0 0.97290164
Link 3 7 3 0 -0.38143513
Link 4 7 4 0 -0.05517590
Link 5 7 5 0 0.05137308
Link 6 7 6 0 -0.83705940
Link 2 8 8 0 -0.67500836
Link 4 8 10 0 -0.82406546
Link 6 8 12 0 0.10122667
Link 3 9 14 0 1.17411029
Link 9 8 15 0 -0.23685180
Link 1 12 23 0 0.92082557
Link 12 8 24 0 -0.13320797
Link 5 15 36 0 0.91198884
Link 15 8 37 0 0.46654879
Link 9 15 73 0 -0.39502871
GenomeEnd

GenomeStart 9678
Genome Fitness: 152.000000 
Neuron 1 1 0.00000000 1 0.00000000 0.00000000 0.00000000 0.00000000
Neuron 2 1 0.00000000 1 0.00000000 0.00000000 0.00000000 0.00000000
Neuron 3 1 0.00000000 1 0.00000000 0.00000000 0.00000000 0.00000000
Neuron 4 1 0.00000000 1 0.00000000 0.00000000 0.00000000 0.00000000
Neuron 5 1 0.00000000 1 0.00000000 0.00000000 0.00000000 0.00000000
Neuron 6 2 0.00000000 1 0.00000000 0.00000000 0.00000000 0.00000000
Neuron 7 4 1.00000000 2 3.02500000 0.00000000 0.00000000 0.00000000
Neuron 8 4 1.00000000 2 3.02500000 0.00000000 0.00000000 0.00000000
Neuron 9 3 0.50000000 8 5.54664794 0.00000000 0.00000000 0.00000000
Neuron 12 3 0.50000000 11 1.30377008 0.00000000 0.00000000 0.00000000
Neuron 15 3 0.50000000 4 2.57055910 0.00000000 0.00000000 0.00000000
Link 1 7 1 0 -0.93606623
Link 2 7 2 0 0.96874304
Link 3 7 3 0 -0.20605644
Link 4 7 4 0 -0.08722650
Link 5 7 5 0 0.05137308
Link 6 7 6 0 -0.83705940
Link 2 8 8 0 -0.67500836
Link 4 8 10 0 -0.01628252
Link 6 8 12 0 0.10122667
Link 3 9 14 0 1.05233960
Link 9 8 15 0 -0.27600759
Link 1 12 23 0 0.92082557
Link 12 8 24 0 -0.13320797
Link 5 15 36 0 0.91198884
Link 15 8 37 0 0.52001388
Link 9 15 73 0 -0.39502871
GenomeEnd

GenomeStart 9679
Genome Fitness: 158.000000 
Neuron 1 1 0.00000000 1 0.00000000 0.00000000 0.00000000 0.00000000
Neuron 2 1 0.00000000 1 0.00000000 0.00000000 0.00000000 0.00000000
Neuron 3 1 0.00000000 1 0.00000000 0.00000000 0.00000000 0.00000000
Neuron 4 1 0.00000000 1 0.00000000 0.00000000 0.00000000 0.00000000
Neuron 5 1 0.00000000 1 0.00000000 0.00000000 0.00000000 0.00000000
Neuron 6 2 0.00000000 1 0.00000000 0.00000000 0.00000000 0.00000000
Neuron 7 4 1.00000000 2 3.02500000 0.00000000 0.00000000 0.00000000
Neuron 8 4 1.00000000 2 3.02500000 0.00000000 0.00000000 0.00000000
Neuron 9 3 0.50000000 8 5.54664794 0.00000000 0.00000000 0.00000000
Neuron 12 3 0.50000000 11 1.30377008 0.00000000 0.00000000 0.00000000
Neuron 15 3 0.50000000 4 2.57055910 0.00000000 0.00000000 0.00000000
Link 1 7 1 0 -0.81333844
Link 2 7 2 0 0.79105616
Link 3 7 3 0 -0.34907902
Link 4 7 4 0 -0.05517590
Link 5 7 5 0 0.05137308
Link 6 7 6 0 -0.83705940
Link 2 8 8 0 -0.67500836
Link 4 8 10 0 -0.01628252
Link 6 8 12 0 0.18533919
Link 3 9 14 0 1.02931353
Link 9 8 15 0 -0.23685180
Link 1 12 23 0 0.92082557
Link 12 8 24 0 0.54307058
Link 5 15 36 0 0.81259028
Link 15 8 37 0 0.36379834
Link 9 15 73 0 0.01229261
GenomeEnd

GenomeStart 9680
Genome Fitness: 148.000000 
Neuron 1 1 0.00000000 1 0.00000000 0.00000000 0.00000000 0.00000000
Neuron 2 1 0.00000000 1 0.00000000 0.00000000 0.00000000 0.00000000
Neuron 3 1 0.00000000 1 0.00000000 0.00000000 0.00000000 0.00000000
Neuron 4 1 0.00000000 1 0.00000000 0.00000000 0.00000000 0.00000000
Neuron 5 1 0.00000000 1 0.00000000 0.00000000 0.00000000 0.00000000
Neuron 6 2 0.00000000 1 0.00000000 0.00000000 0.00000000 0.00000000
Neuron 7 4 1.00000000 2 3.02500000 0.00000000 0.00000000 0.00000000
Neuron 8 4 1.00000000 2 3.02500000 0.00000000 0.00000000 0.00000000
Neuron 9 3 0.50000000 8 5.54664794 0.00000000 0.00000000 0.00000000
Neuron 12 3 0.50000000 11 1.30377008 0.00000000 0.00000000 0.00000000
Neuron 15 3 0.50000000 4 2.57055910 0.00000000 0.00000000 0.00000000
Link 1 7 1 0 -0.89320497
Link 2 7 2 0 0.92432132
Link 3 7 3 0 -0.30602785
Link 4 7 4 0 -0.31290431
Link 5 7 5 0 0.09065717
Link 6 7 6 0 -0.80708718
Link 2 8 8 0 -0.67025055
Link 4 8 10 0 -0.22407720
Link 6 8 12 0 0.11265437
Link 3 9 14 0 1.03985888
Link 9 8 15 0 -0.22827157
Link 1 12 23 0 0.78935601
Link 12 8 24 0 0.53853533
Link 5 15 36 0 0.80800031
Link 15 8 37 0 0.46123922
Link 9 15 73 0 -0.02446302
GenomeEnd

GenomeStart 9681
Genome Fitness: 114.000000 
Neuron 1 1 0.00000000 1 0.00000000 0.00000000 0.00000000 0.00000000
Neuron 2 1 0.00000000 1 0.00000000 0.00000000 0.00000000 0.00000000
Neuron 3 1 0.00000000 1 0.00000000 0.00000000 0.00000000 0.00000000
Neuron 4 1 0.00000000 1 0.00000000 0.00000000 0.00000000 0.00000000
Neuron 5 1 0.00000000 1 0.00000000 0.00000000 0.00000000 0.00000000
Neuron 6 2 0.00000000 1 0.00000000 0.00000000 0.00000000 0.00000000
Neuron 7 4 1.00000000 2 3.02500000 0.00000000 0.00000000 0.00000000
Neuron 8 4 1.00000000 2 3.02500000 0.00000000 0.00000000 0.00000000
Neuron 9 3 0.50000000 8 5.54664794 0.00000000 0.00000000 0.00000000
Neuron 12 3 0.50000000 11 1.30377008 0.00000000 0.00000000 0.00000000
Neuron 15 3 0.50000000 4 2.57055910 0.00000000 0.00000000 0.00000000
Link 1 7 1 0 -0.70096117
Link 2 7 2 0 0.92053880
Link 3 7 3 0 -0.25358540
Link 4 7 4 0 -0.43904594
Link 5 7 5 0 0.17468815
Link 6 7 6 0 -0.88522627
Link 2 8 8 0 -0.73421986
Link 4 8 10 0 0.04552856
Link 6 8 12 0 0.15667364
Link 3 9 14 0 1.10119130
Link 9 8 15 0 -0.15737567
Link 1 12 23 0 0.78721745
Link 12 8 24 0 0.56403550
Link 5 15 36 0 0.94751510
Link 15 8 37 0 0.46211289
Link 9 15 73 0 -0.06880677
GenomeEnd

GenomeStart 9682
Genome Fitness: 148.000000 
Neuron 1 1 0.00000000 1 0.00000000 0.00000000 0.00000000 0.00000000
Neuron 2 1 0.00000000 1 0.00000000 0.00000000 0.00000000 0.00000000
Neuron 3 1 0.00000000 1 0.00000000 0.00000000 0.00000000 0.00000000
Neuron 4 1 0.00000000 1 0.00000000 0.00000000 0.00000000 0.00000000
Neuron 5 1 0.00000000 1 0.00000000 0.00000000 0.00000000 0.00000000
Neuron 6 2 0.00000000 1 0.00000000 0.00000000 0.00000000 0.00000000
Neuron 7 4 1.00000000 2 3.02500000 0.00000000 0.00000000 0.00000000
Neuron 8 4 1.00000000 2 3.02500000 0.00000000 0.00000000 0.00000000
Neuron 9 3 0.50000000 8 5.54664794 0.00000000 0.00000000 0.00000000
Neuron 12 3 0.50000000 11 1.30377008 0.00000000 0.00000000 0.00000000
Neuron 15 3 0.50000000 4 2.57055910 0.00000000 0.00000000 0.00000000
Link 1 7 1 0 -0.81878690
Link 2 7 2 0 1.02482154
Link 3 7 3 0 -0.46457809
Link 4 7 4 0 -0.45248204
Link 5 7 5 0 0.05690465
Link 6 7 6 0 -0.89474185
Link 2 8 8 0 -0.74170353
Link 4 8 10 0 -0.77531884
Link 6 8 12 0 -0.09268614
Link 3 9 14 0 1.02427912
Link 9 8 15 0 -0.16025880
Link 1 12 23 0 0.99297758
Link 12 8 24 0 0.43190230
Link 5 15 36 0 0.95334195
Link 15 8 37 0 0.35992222
Link 9 15 73 0 -0.19166945
GenomeEnd

GenomeStart 9683
Genome Fitness: 158.000000 
Neuron 1 1 0.00000000 1 0.00000000 0.00000000 0.00000000 0.00000000
Neuron 2 1 0.00000000 1 0.00000000 0.00000000 0.00000000 0.00000000
Neuron 3 1 0.00000000 1 0.00000000 0.00000000 0.00000000 0.00000000
Neuron 4 1 0.00000000 1 0.00000000 0.00000000 0.00000000 0.00000000
Neuron 5 1 0.00000000 1 0.00000000 0.00000000 0.00000000 0.00000000
Neuron 6 2 0.00000000 1 0.00000000 0.00000000 0.00000000 0.00000000
Neuron 7 4 1.00000000 2 3.02500000 0.00000000 0.00000000 0.00000000
Neuron 8 4 1.00000000 2 3.02500000 0.00000000 0.00000000 0.00000000
Neuron 9 3 0.50000000 8 5.54664794 0.00000000 0.00000000 0.00000000
Neuron 12 3 0.50000000 11 1.30377008 0.00000000 0.00000000 0.00000000
Neuron 15 3 0.50000000 4 2.57055910 0.00000000 0.00000000 0.00000000
Link 1 7 1 0 -0.86708241
Link 2 7 2 0 0.92476539
Link 3 7 3 0 -0.20605644
Link 4 7 4 0 -0.51152278
Link 5 7 5 0 0.05137308
Link 6 7 6 0 -0.83705940
Link 2 8 8 0 -0.67500836
Link 4 8 10 0 -0.01628252
Link 6 8 12 0 0.10122667
Link 3 9 14 0 1.17411029
Link 9 8 15 0 -0.27600759
Link 1 12 23 0 0.92082557
Link 12 8 24 0 -0.13320797
Link 5 15 36 0 0.91198884
Link 15 8 37 0 0.46654879
Link 9 15 73 0 -0.39502871
GenomeEnd

GenomeStart 9684
Genome Fitness: 158.000000 
Neuron 1 1 0.00000000 1 0.00000000 0.00000000 0.00000000 0.00000000
Neuron 2 1 0.00000000 1 0.00000000 0.00000000 0.00000000 0.00000000
Neuron 3 1 0.00000000 1 0.00000000 0.00000000 0.00000000 0.00000000
Neuron 4 1 0.00000000 1 0.00000000 0.00000000 0.00000000 0.00000000
Neuron 5 1 0.00000000 1 0.00000000 0.00000000 0.00000000 0.00000000
Neuron 6 2 0.00000000 1 0.00000000 0.00000000 0.00000000 0.00000000
Neuron 7 4 1.00000000 2 3.02500000 0.00000000 0.00000000 0.00000000
Neuron 8 4 1.00000000 2 3.02500000 0.00000000 0.00000000 0.00000000
Neuron 9 3 0.50000000 9 5.68303320 0.00000000 0.00000000 0.00000000
Neuron 12 3 0.50000000 7 1.18583685 0.00000000 0.00000000 0.00000000
Neuron 24 3 0.50000000 8 3.54077243 0.00000000 0.00000000 0.00000000
Link 1 7 1 0 0.02242661
Link 2 7 2 0 0.38031624
Link 3 7 3 0 0.11725912
Link 4 7 4 0 0.12486571
Link 5 7 5 0 -0.86280019
Link 6 7 6 0 -0.40301363
Link 3 8 9 0 -0.20055063
Link 4 8 10 0 0.10303066
Link 5 8 11 0 0.02226797
Link 6 8 12 0 0.50088302
Link 3 9 14 0 1.10028492
Link 9 8 15 0 -0.51035314
Link 1 12 23 0 0.97649686
Link 12 8 24 0 0.51793644
Link 2 24 82 0 1.04946214
Link 24 8 83 0 0.12918994
GenomeEnd

GenomeStart 9685
Genome Fitness: 101.000000 
Neuron 1 1 0.00000000 1 0.00000000 0.00000000 0.00000000 0.00000000
Neuron 2 1 0.00000000 1 0.00000000 0.00000000 0.00000000 0.00000000
Neuron 3 1 0.00000000 1 0.00000000 0.00000000 0.00000000 0.00000000
Neuron 4 1 0.00000000 1 0.00000000 0.00000000 0.00000000 0.00000000
Neuron 5 1 0.00000000 1 0.00000000 0.00000000 0.00000000 0.00000000
Neuron 6 2 0.00000000 1 0.00000000 0.00000000 0.00000000 0.00000000
Neuron 7 4 1.00000000 2 3.02500000 0.00000000 0.00000000 0.00000000
Neuron 8 4 1.00000000 2 3.02500000 0.00000000 0.00000000 0.00000000
Neuron 9 3 0.50000000 9 5.68303320 0.00000000 0.00000000 0.00000000
Neuron 12 3 0.50000000 7 1.18583685 0.00000000 0.00000000 0.00000000
Neuron 24 3 0.50000000 8 3.54077243 0.00000000 0.00000000 0.00000000
Link 1 7 1 0 -0.12935520
Link 2 7 2 0 -0.43265771
Link 3 7 3 0 0.10791584
Link 4 7 4 0 0.17990309
Link 5 7 5 0 -0.86280019
Link 6 7 6 0 -0.39008711
Link 3 8 9 0 -0.20272911
Link 4 8 10 0 0.00717226
Link 5 8 11 0 0.19597500
Link 6 8 12 0 0.50088302
Link 3 9 14 0 1.16978205
Link 9 8 15 0 -0.41272519
Link 1 12 23 0 0.97227060
Link 12 8 24 0 0.51793644
Link 2 24 82 0 0.96738090
Link 24 8 83 0 0.15321098
GenomeEnd

GenomeStart 9686
Genome Fitness: 101.000000 
Neuron 1 1 0.00000000 1 0.00000000 0.00000000 0.00000000 0.00000000
Neuron 2 1 0.00000000 1 0.00000000 0.00000000 0.00000000 0.00000000
Neuron 3 1 0.00000000 1 0.00000000 0.00000000 0.00000000 0.00000000
Neuron 4 1 0.00000000 1 0.00000000 0.00000000 0.00000000 0.00000000
Neuron 5 1 0.00000000 1 0.00000000 0.00000000 0.00000000 0.00000000
Neuron 6 2 0.00000000 1 0.00000000 0.00000000 0.00000000 0.00000000
Neuron 7 4 1.00000000 2 3.02500000 0.00000000 0.00000000 0.00000000
Neuron 8 4 1.00000000 2 3.02500000 0.00000000 0.00000000 0.00000000
Neuron 9 3 0.50000000 9 5.68303320 0.00000000 0.00000000 0.00000000
Neuron 12 3 0.50000000 7 1.18583685 0.00000000 0.00000000 0.00000000
Neuron 24 3 0.50000000 8 3.54077243 0.00000000 0.00000000 0.00000000
Link 1 7 1 0 -0.05142864
Link 2 7 2 0 -0.37205363
Link 3 7 3 0 0.22345880
Link 4 7 4 0 0.07499413
Link 5 7 5 0 -0.81951182
Link 6 7 6 0 -0.36510665
Link 3 8 9 0 -0.26885678
Link 4 8 10 0 0.05765784
Link 5 8 11 0 0.27870928
Link 6 8 12 0 0.43628820
Link 3 9 14 0 0.27197240
Link 9 8 15 0 -0.50425064
Link 1 12 23 0 0.98329241
Link 12 8 24 0 0.58237357
Link 2 24 82 0 1.03131179
Link 24 8 83 0 -0.02274759
GenomeEnd

GenomeStart 9687
Genome Fitness: 136.000000 
Neuron 1 1 0.00000000 1 0.00000000 0.00000000 0.00000000 0.00000000
Neuron 2 1 0.00000000 1 0.00000000 0.00000000 0.00000000 0.00000000
Neuron 3 1 0.00000000 1 0.00000000 0.00000000 0.00000000 0.00000000
Neuron 4 1 0.00000000 1 0.00000000 0.00000000 0.00000000 0.00000000
Neuron 5 1 0.00000000 1 0.00000000 0.00000000 0.00000000 0.00000000
Neuron 6 2 0.00000000 1 0.00000000 0.00000000 0.00000000 0.00000000
Neuron 7 4 1.00000000 2 3.02500000 0.00000000 0.00000000 0.00000000
Neuron 8 4 1.00000000 2 3.02500000 0.00000000 0.00000000 0.00000000
Neuron 9 3 0.50000000 9 5.68303320 0.00000000 0.00000000 0.00000000
Neuron 12 3 0.50000000 7 1.18583685 0.00000000 0.00000000 0.00000000
Neuron 24 3 0.50000000 8 3.54077243 0.00000000 0.00000000 0.00000000
Link 1 7 1 0 -0.01551884
Link 2 7 2 0 0.38031624
Link 3 7 3 0 0.11025166
Link 4 7 4 0 0.16614374
Link 5 7 5 0 -0.85902220
Link 6 7 6 0 -0.39126637
Link 3 8 9 0 -0.25731814
Link 4 8 10 0 0.10270227
Link 5 8 11 0 0.13273164
Link 6 8 12 0 0.50088302
Link 3 9 14 0 0.38383930
Link 9 8 15 0 -0.47733851
Link 1 12 23 0 0.95983576
Link 12 8 24 0 0.51793644
Link 2 24 82 0 0.90824251
Link 24 8 83 0 0.05308472
GenomeEnd

GenomeStart 9688
Genome Fitness: 101.000000 
Neuron 1 1 0.00000000 1 0.00000000 0.00000000 0.00000000 0.00000000
Neuron 2 1 0.00000000 1 0.00000000 0.00000000 0.00000000 0.00000000
Neuron 3 1 0.00000000 1 0.00000000 0.00000000 0.00000000 0.00000000
Neuron 4 1 0.00000000 1 0.00000000 0.00000000 0.00000000 0.00000000
Neuron 5 1 0.00000000 1 0.00000000 0.00000000 0.00000000 0.00000000
Neuron 6 2 0.00000000 1 0.00000000 0.00000000 0.00000000 0.00000000
Neuron 7 4 1.00000000 2 3.02500000 0.00000000 0.00000000 0.00000000
Neuron 8 4 1.00000000 2 3.02500000 0.00000000 0.00000000 0.00000000
Neuron 9 3 0.50000000 9 5.68303320 0.00000000 0.00000000 0.00000000
Neuron 12 3 0.50000000 7 1.18583685 0.00000000 0.00000000 0.00000000
Neuron 24 3 0.50000000 8 3.54077243 0.00000000 0.00000000 0.00000000
Link 1 7 1 0 -0.09746280
Link 2 7 2 0 -0.43265771
Link 3 7 3 0 0.11725912
Link 4 7 4 0 0.13048729
Link 5 7 5 0 -0.86280019
Link 6 7 6 0 -0.40114087
Link 3 8 9 0 -0.27624064
Link 4 8 10 0 0.10171710
Link 5 8 11 0 0.19597500
Link 6 8 12 0 0.54087046
Link 3 9 14 0 0.38383930
Link 9 8 15 0 -0.51035314
Link 1 12 23 0 0.95428206
Link 12 8 24 0 0.49533009
Link 2 24 82 0 1.04946214
Link 24 8 83 0 0.12918994
Link 24 7 160 0 -0.68464419
GenomeEnd

GenomeStart 9689
Genome Fitness: 136.000000 
Neuron 1 1 0.00000000 1 0.00000000 0.00000000 0.00000000 0.00000000
Neuron 2 1 0.00000000 1 0.00000000 0.00000000 0.00000000 0.00000000
Neuron 3 1 0.00000000 1 0.00000000 0.00000000 0.00000000 0.00000000
Neuron 4 1 0.00000000 1 0.00000000 0.00000000 0.00000000 0.00000000
Neuron 5 1 0.00000000 1 0.00000000 0.00000000 0.00000000 0.00000000
Neuron 6 2 0.00000000 1 0.00000000 0.00000000 0.00000000 0.00000000
Neuron 7 4 1.00000000 2 3.02500000 0.00000000 0.00000000 0.00000000
Neuron 8 4 1.00000000 2 3.02500000 0.00000000 0.00000000 0.00000000
Neuron 9 3 0.50000000 9 5.68303320 0.00000000 0.00000000 0.00000000
Neuron 12 3 0.50000000 7 1.18583685 0.00000000 0.00000000 0.00000000
Neuron 24 3 0.50000000 8 3.54077243 0.00000000 0.00000000 0.00000000
Link 1 7 1 0 -0.05346429
Link 2 7 2 0 -0.02617074
Link 3 7 3 0 0.10791584
Link 4 7 4 0 0.15238440
Link 5 7 5 0 -0.85902220
Link 6 7 6 0 -0.38803474
Link 3 8 9 0 -0.23948488
Link 4 8 10 0 0.05510146
Link 5 8 11 0 0.16435332
Link 6 8 12 0 0.50088302
Link 3 9 14 0 0.77681067
Link 9 8 15 0 -0.46153916
Link 1 12 23 0 0.96327633
Link 12 8 24 0 0.50663327
Link 2 24 82 0 0.91427510
Link 24 8 83 0 0.09046364
GenomeEnd

GenomeStart 9690
Genome Fitness: 136.000000 
Neuron 1 1 0.00000000 1 0.00000000 0.00000000 0.00000000 0.00000000
Neuron 2 1 0.00000000 1 0.00000000 0.00000000 0.00000000 0.00000000
Neuron 3 1 0.00000000 1 0.00000000 0.00000000 0.00000000 0.00000000
Neuron 4 1 0.00000000 1 0.00000000 0.00000000 0.00000000 0.00000000
Neuron 5 1 0.00000000 1 0.00000000 0.00000000 0.00000000 0.00000000
Neuron 6 2 0.00000000 1 0.00000000 0.00000000 0.00000000 0.00000000
Neuron 7 4 1.00000000 2 3.02500000 0.00000000 0.00000000 0.00000000
Neuron 8 4 1.00000000 2 3.02500000 0.00000000 0.00000000 0.00000000
Neuron 9 3 0.50000000 9 5.68303320 0.00000000 0.00000000 0.00000000
Neuron 12 3 0.50000000 7 1.18583685 0.00000000 0.00000000 0.00000000
Neuron 24 3 0.50000000 8 3.54077243 0.00000000 0.00000000 0.00000000
Link 1 7 1 0 0.02242661
Link 2 7 2 0 0.38031624
Link 3 7 3 0 0.06360139
Link 4 7 4 0 0.17990309
Link 5 7 5 0 -0.85524422
Link 6 7 6 0 -0.38901683
Link 3 8 9 0 -0.21928948
Link 4 8 10 0 0.10168937
Link 5 8 11 0 0.13273164
Link 6 8 12 0 0.42710086
Link 3 9 14 0 0.72109261
Link 9 8 15 0 -0.50226734
Link 1 12 23 0 0.95428206
Link 12 8 24 0 0.58520574
Link 2 24 82 0 0.86116930
Link 24 8 83 0 0.02771631
GenomeEnd

GenomeStart 9780
Genome Fitness: 101.000000 
Neuron 1 1 0.00000000 1 0.00000000 0.00000000 0.00000000 0.00000000
Neuron 2 1 0.00000000 1 0.00000000 0.00000000 0.00000000 0.00000000
Neuron 3 1 0.00000000 1 0.00000000 0.00000000 0.00000000 0.00000000
Neuron 4 1 0.00000000 1 0.00000000 0.00000000 0.00000000 0.00000000
Neuron 5 1 0.00000000 1 0.00000000 0.00000000 0.00000000 0.00000000
Neuron 6 2 0.00000000 1 0.00000000 0.00000000 0.00000000 0.00000000
Neuron 7 4 1.00000000 2 3.02500000 0.00000000 0.00000000 0.00000000
Neuron 8 4 1.00000000 2 3.02500000 0.00000000 0.00000000 0.00000000
Neuron 9 3 0.50000000 9 5.68303320 0.00000000 0.00000000 0.00000000
Neuron 10 3 0.50000000 4 4.99977672 0.00000000 0.00000000 0.00000000
Neuron 12 3 0.50000000 7 1.18583685 0.00000000 0.00000000 0.00000000
Neuron 24 3 0.50000000 4 1.48218126 0.00000000 0.00000000 0.00000000
Link 2 7 2 0 0.27910988
Link 3 7 3 0 0.17978883
Link 4 7 4 0 -0.03895068
Link 6 7 6 0 -0.38294388
Link 3 8 9 0 -0.04222835
Link 4 8 10 0 0.06150737
Link 5 8 11 0 0.00879866
Link 6 8 12 0 0.03630232
Link 3 9 14 0 1.00219202
Link 9 8 15 0 -0.20093643
Link 5 10 17 0 0.74783425
Link 10 7 18 0 -0.59717255
Link 1 12 23 0 0.83479789
Link 12 8 24 0 0.52016826
Link 2 24 82 0 1.00000000
Link 24 8 83 0 0.21324758
GenomeEnd

GenomeStart 9691
Genome Fitness: 157.000000 
Neuron 1 1 0.00000000 1 0.00000000 0.00000000 0.00000000 0.00000000
Neuron 2 1 0.00000000 1 0.00000000 0.00000000 0.00000000 0.00000000
Neuron 3 1 0.00000000 1 0.00000000 0.00000000 0.00000000 0.00000000
Neuron 4 1 0.00000000 1 0.00000000 0.00000000 0.00000000 0.00000000
Neuron 5 1 0.00000000 1 0.00000000 0.00000000 0.00000000 0.00000000
Neuron 6 2 0.00000000 1 0.00000000 0.00000000 0.00000000 0.00000000
Neuron 7 4 1.00000000 2 3.02500000 0.00000000 0.00000000 0.00000000
Neuron 8 4 1.00000000 2 3.02500000 0.00000000 0.00000000 0.00000000
Neuron 9 3 0.50000000 8 5.54664794 0.00000000 0.00000000 0.00000000
Neuron 15 3 0.50000000 4 2.57055910 0.00000000 0.00000000 0.00000000
Link 1 7 1 0 -0.06063252
Link 2 7 2 0 -0.34489223
Link 3 7 3 0 0.92602832
Link 4 7 4 0 -0.78525101
Link 5 7 5 0 0.18717200
Link 6 7 6 0 -0.63156397
Link 1 8 7 0 0.19737223
Link 2 8 8 0 -0.82645623
Link 4 8 10 0 -0.80695052
Link 6 8 12 0 -0.43809858
Link 3 9 14 0 1.00000000
Link 9 8 15 0 -0.11415807
Link 1 9 29 0 -0.64427610
Link 4 9 34 0 -0.86610217
Link 5 15 36 0 1.00000000
Link 15 8 37 0 0.59975108
GenomeEnd

GenomeStart 9692
Genome Fitness: 101.000000 
Neuron 1 1 0.00000000 1 0.00000000 0.00000000 0.00000000 0.00000000
Neuron 2 1 0.00000000 1 0.00000000 0.00000000 0.00000000 0.00000000
Neuron 3 1 0.00000000 1 0.00000000 0.00000000 0.00000000 0.00000000
Neuron 4 1 0.00000000 1 0.00000000 0.00000000 0.00000000 0.00000000
Neuron 5 1 0.00000000 1 0.00000000 0.00000000 0.00000000 0.00000000
Neuron 6 2 0.00000000 1 0.00000000 0.00000000 0.00000000 0.00000000
Neuron 7 4 1.00000000 2 3.02500000 0.00000000 0.00000000 0.00000000
Neuron 8 4 1.00000000 2 3.02500000 0.00000000 0.00000000 0.00000000
Neuron 9 3 0.50000000 8 5.54664794 0.00000000 0.00000000 0.00000000
Neuron 15 3 0.50000000 4 2.57055910 0.00000000 0.00000000 0.00000000
Link 1 7 1 0 -0.09723127
Link 2 7 2 0 -0.38154554
Link 3 7 3 0 0.85711019
Link 4 7 4 0 -0.77117958
Link 5 7 5 0 0.11098799
Link 6 7 6 0 -0.71475516
Link 1 8 7 0 0.19533686
Link 2 8 8 0 -0.69430395
Link 4 8 10 0 -0.24168628
Link 6 8 12 0 -0.36909194
Link 3 9 14 0 1.03381149
Link 9 8 15 0 -0.09331836
Link 1 9 29 0 -0.77311552
Link 4 9 34 0 -0.91181869
Link 5 15 36 0 0.73941091
Link 15 8 37 0 0.66806964
GenomeEnd

GenomeStart 9693
Genome Fitness: 101.000000 
Neuron 1 1 0.00000000 1 0.00000000 0.00000000 0.00000000 0.00000000
Neuron 2 1 0.00000000 1 0.00000000 0.00000000 0.00000000 0.00000000
Neuron 3 1 0.00000000 1 0.00000000 0.00000000 0.00000000 0.00000000
Neuron 4 1 0.00000000 1 0.00000000 0.00000000 0.00000000 0.00000000
Neuron 5 1 0.00000000 1 0.00000000 0.00000000 0.00000000 0.00000000
Neuron 6 2 0.00000000 1 0.00000000 0.00000000 0.00000000 0.00000000
Neuron 7 4 1.00000000 2 3.02500000 0.00000000 0.00000000 0.00000000
Neuron 8 4 1.00000000 2 3.02500000 0.00000000 0.00000000 0.00000000
Neuron 9 3 0.50000000 8 5.54664794 0.00000000 0.00000000 0.00000000
Neuron 15 3 0.50000000 4 2.57055910 0.00000000 0.00000000 0.00000000
Link 1 7 1 0 0.05149757
Link 2 7 2 0 -0.43856677
Link 3 7 3 0 0.94689348
Link 4 7 4 0 -0.86918839
Link 5 7 5 0 0.10140230
Link 6 7 6 0 -0.52118066
Link 1 8 7 0 0.13160857
Link 2 8 8 0 -0.80479698
Link 4 8 10 0 -0.83646058
Link 6 8 12 0 -0.53345696
Link 3 9 14 0 0.95622897
Link 9 8 15 0 -0.26058521
Link 1 9 29 0 -0.68138868
Link 4 9 34 0 -0.77825100
Link 5 15 36 0 1.00338423
Link 15 8 37 0 0.61459096
GenomeEnd

GenomeStart 9694
Genome Fitness: 101.000000 
Neuron 1 1 0.00000000 1 0.00000000 0.00000000 0.00000000 0.00000000
Neuron 2 1 0.00000000 1 0.00000000 0.00000000 0.00000000 0.00000000
Neuron 3 1 0.00000000 1 0.00000000 0.00000000 0.00000000 0.00000000
Neuron 4 1 0.00000000 1 0.00000000 0.00000000 0.00000000 0.00000000
Neuron 5 1 0.00000000 1 0.00000000 0.00000000 0.00000000 0.00000000
Neuron 6 2 0.00000000 1 0.00000000 0.00000000 0.00000000 0.00000000
Neuron 7 4 1.00000000 2 3.02500000 0.00000000 0.00000000 0.00000000
Neuron 8 4 1.00000000 2 3.02500000 0.00000000 0.00000000 0.00000000
Neuron 9 3 0.50000000 8 5.54664794 0.00000000 0.00000000 0.00000000
Neuron 15 3 0.50000000 4 2.57055910 0.00000000 0.00000000 0.00000000
Link 1 7 1 0 -0.06063252
Link 2 7 2 0 -0.34489223
Link 3 7 3 0 0.92602832
Link 4 7 4 0 -0.78525101
Link 5 7 5 0 0.18717200
Link 6 7 6 0 -0.72860488
Link 1 8 7 0 0.19737223
Link 2 8 8 0 -0.82645623
Link 4 8 10 0 -0.80695052
Link 6 8 12 0 -0.43809858
Link 3 9 14 0 1.00000000
Link 9 8 15 0 -0.11415807
Link 1 9 29 0 -0.64427610
Link 4 9 34 0 -0.86610217
Link 5 15 36 0 1.00000000
Link 15 8 37 0 0.59975108
GenomeEnd

GenomeStart 9695
Genome Fitness: 136.000000 
Neuron 1 1 0.00000000 1 0.00000000 0.00000000 0.00000000 0.00000000
Neuron 2 1 0.00000000 1 0.00000000 0.00000000 0.00000000 0.00000000
Neuron 3 1 0.00000000 1 0.00000000 0.00000000 0.00000000 0.00000000
Neuron 4 1 0.00000000 1 0.00000000 0.00000000 0.00000000 0.00000000
Neuron 5 1 0.00000000 1 0.00000000 0.00000000 0.00000000 0.00000000
Neuron 6 2 0.00000000 1 0.00000000 0.00000000 0.00000000 0.00000000
Neuron 7 4 1.00000000 2 3.02500000 0.00000000 0.00000000 0.00000000
Neuron 8 4 1.00000000 2 3.02500000 0.00000000 0.00000000 0.00000000
Neuron 9 3 0.50000000 8 5.54664794 0.00000000 0.00000000 0.00000000
Neuron 15 3 0.50000000 4 2.57055910 0.00000000 0.00000000 0.00000000
Link 1 7 1 0 -0.06063252
Link 2 7 2 0 -0.34489223
Link 3 7 3 0 0.92602832
Link 4 7 4 0 -0.78525101
Link 5 7 5 0 0.18717200
Link 6 7 6 0 -0.72860488
Link 1 8 7 0 0.19737223
Link 2 8 8 0 -0.82645623
Link 4 8 10 0 0.43474809
Link 6 8 12 0 -0.43809858
Link 3 9 14 0 1.00000000
Link 9 8 15 0 -0.11415807
Link 1 9 29 0 -0.64427610
Link 4 9 34 0 -0.86610217
Link 5 15 36 0 1.00000000
Link 15 8 37 0 0.59975108
GenomeEnd

GenomeStart 9696
Genome Fitness: 101.000000 
Neuron 1 1 0.00000000 1 0.00000000 0.00000000 0.00000000 0.00000000
Neuron 2 1 0.00000000 1 0.00000000 0.00000000 0.00000000 0.00000000
Neuron 3 1 0.00000000 1 0.00000000 0.00000000 0.00000000 0.00000000
Neuron 4 1 0.00000000 1 0.00000000 0.00000000 0.00000000 0.00000000
Neuron 5 1 0.00000000 1 0.00000000 0.00000000 0.00000000 0.00000000
Neuron 6 2 0.00000000 1 0.00000000 0.00000000 0.00000000 0.00000000
Neuron 7 4 1.00000000 2 3.02500000 0.00000000 0.00000000 0.00000000
Neuron 8 4 1.00000000 2 3.02500000 0.00000000 0.00000000 0.00000000
Neuron 9 3 0.50000000 8 5.54664794 0.00000000 0.00000000 0.00000000
Neuron 15 3 0.50000000 4 2.57055910 0.00000000 0.00000000 0.00000000
Link 1 7 1 0 -0.13383001
Link 2 7 2 0 -0.34489223
Link 3 7 3 0 0.78819205
Link 4 7 4 0 -0.76349179
Link 5 7 5 0 0.18717200
Link 6 7 6 0 -0.79794634
Link 1 8 7 0 0.28037993
Link 2 8 8 0 -0.56215166
Link 4 8 10 0 -0.83230843
Link 6 8 12 0 -0.30008529
Link 3 9 14 0 1.06762297
Link 9 8 15 0 -0.07247865
Link 1 9 29 0 -0.72812211
Link 4 9 34 0 -0.86610217
Link 5 15 36 0 1.00000000
Link 15 8 37 0 0.73638820
GenomeEnd

GenomeStart 9697
Genome Fitness: 101.000000 
Neuron 1 1 0.00000000 1 0.00000000 0.00000000 0.00000000 0.00000000
Neuron 2 1 0.00000000 1 0.00000000 0.00000000 0.00000000 0.00000000
Neuron 3 1 0.00000000 1 0.00000000 0.00000000 0.00000000 0.00000000
Neuron 4 1 0.00000000 1 0.00000000 0.00000000 0.00000000 0.00000000
Neuron 5 1 0.00000000 1 0.00000000 0.00000000 0.00000000 0.00000000
Neuron 6 2 0.00000000 1 0.00000000 0.00000000 0.00000000 0.00000000
Neuron 7 4 1.00000000 2 3.02500000 0.00000000 0.00000000 0.00000000
Neuron 8 4 1.00000000 2 3.02500000 0.00000000 0.00000000 0.00000000
Neuron 9 3 0.50000000 8 5.54664794 0.00000000 0.00000000 0.00000000
Neuron 15 3 0.50000000 4 2.57055910 0.00000000 0.00000000 0.00000000
Link 1 7 1 0 -0.06063252
Link 2 7 2 0 -0.34489223
Link 3 7 3 0 0.92602832
Link 4 7 4 0 -0.78205919
Link 5 7 5 0 0.18717200
Link 6 7 6 0 -0.63156397
Link 1 8 7 0 0.19737223
Link 2 8 8 0 -0.82645623
Link 4 8 10 0 -0.83230843
Link 6 8 12 0 -0.43809858
Link 3 9 14 0 1.00000000
Link 9 8 15 0 -0.11415807
Link 1 9 29 0 -0.72812211
Link 4 9 34 0 -0.86610217
Link 5 15 36 0 1.00000000
Link 15 8 37 0 0.59975108
GenomeEnd

GenomeStart 9698
Genome Fitness: 142.000000 
Neuron 1 1 0.00000000 1 0.00000000 0.00000000 0.00000000 0.00000000
Neuron 2 1 0.00000000 1 0.00000000 0.00000000 0.00000000 0.00000000
Neuron 3 1 0.00000000 1 0.00000000 0.00000000 0.00000000 0.00000000
Neuron 4 1 0.00000000 1 0.00000000 0.00000000 0.00000000 0.00000000
Neuron 5 1 0.00000000 1 0.00000000 0.00000000 0.00000000 0.00000000
Neuron 6 2 0.00000000 1 0.00000000 0.00000000 0.00000000 0.00000000
Neuron 7 4 1.00000000 2 3.02500000 0.00000000 0.00000000 0.00000000
Neuron 8 4 1.00000000 2 3.02500000 0.00000000 0.00000000 0.00000000
Neuron 9 3 0.50000000 8 5.54664794 0.00000000 0.00000000 0.00000000
Neuron 15 3 0.50000000 4 2.57055910 0.00000000 0.00000000 0.00000000
Neuron 24 3 0.50000000 11 5.20155500 0.00000000 0.00000000 0.00000000
Link 1 7 1 0 0.12995500
Link 2 7 2 0 -0.45246246
Link 3 7 3 0 -0.64553676
Link 5 7 5 0 0.04743978
Link 6 7 6 0 0.47436392
Link 1 8 7 0 0.07999561
Link 3 8 9 0 -0.69967759
Link 4 8 10 0 0.76053750
Link 6 8 12 0 -0.63219403
Link 3 9 14 0 0.64596337
Link 9 8 15 0 -0.53971694
Link 5 15 36 0 1.09326446
Link 15 8 37 0 0.29600022
Link 2 24 82 0 0.40047584
Link 24 8 83 0 -0.50494590
GenomeEnd

GenomeStart 9699
Genome Fitness: 101.000000 
Neuron 1 1 0.00000000 1 0.00000000 0.00000000 0.00000000 0.00000000
Neuron 2 1 0.00000000 1 0.00000000 0.00000000 0.00000000 0.00000000
Neuron 3 1 0.00000000 1 0.00000000 0.00000000 0.00000000 0.00000000
Neuron 4 1 0.00000000 1 0.00000000 0.00000000 0.00000000 0.00000000
Neuron 5 1 0.00000000 1 0.00000000 0.00000000 0.00000000 0.00000000
Neuron 6 2 0.00000000 1 0.00000000 0.00000000 0.00000000 0.00000000
Neuron 7 4 1.00000000 2 3.02500000 0.00000000 0.00000000 0.00000000
Neuron 8 4 1.00000000 2 3.02500000 0.00000000 0.00000000 0.00000000
Neuron 9 3 0.50000000 8 5.54664794 0.00000000 0.00000000 0.00000000
Neuron 15 3 0.50000000 4 2.57055910 0.00000000 0.00000000 0.00000000
Neuron 24 3 0.50000000 11 5.20155500 0.00000000 0.00000000 0.00000000
Link 1 7 1 0 0.07267126
Link 2 7 2 0 -0.46754424
Link 3 7 3 0 -0.67262408
Link 5 7 5 0 -0.04059527
Link 6 7 6 0 0.46962573
Link 1 8 7 0 0.11189340
Link 3 8 9 0 -0.64606705
Link 4 8 10 0 0.66259974
Link 6 8 12 0 -0.60242689
Link 3 9 14 0 0.60044746
Link 9 8 15 0 -0.53164211
Link 5 15 36 0 0.87715635
Link 15 8 37 0 0.20265100
Link 2 24 82 0 0.42037576
Link 24 8 83 0 -0.50424777
GenomeEnd

GenomeStart 9700
Genome Fitness: 101.000000 
Neuron 1 1 0.00000000 1 0.00000000 0.00000000 0.00000000 0.00000000
Neuron 2 1 0.00000000 1 0.00000000 0.00000000 0.00000000 0.00000000
Neuron 3 1 0.00000000 1 0.00000000 0.00000000 0.00000000 0.00000000
Neuron 4 1 0.00000000 1 0.00000000 0.00000000 0.00000000 0.00000000
Neuron 5 1 0.00000000 1 0.00000000 0.00000000 0.00000000 0.00000000
Neuron 6 2 0.00000000 1 0.00000000 0.00000000 0.00000000 0.00000000
Neuron 7 4 1.00000000 2 3.02500000 0.00000000 0.00000000 0.00000000
Neuron 8 4 1.00000000 2 3.02500000 0.00000000 0.00000000 0.00000000
Neuron 9 3 0.50000000 8 5.54664794 0.00000000 0.00000000 0.00000000
Neuron 15 3 0.50000000 4 2.57055910 0.00000000 0.00000000 0.00000000
Neuron 24 3 0.50000000 11 5.20155500 0.00000000 0.00000000 0.00000000
Link 1 7 1 0 0.12539928
Link 2 7 2 0 -0.51225311
Link 3 7 3 0 -0.68852847
Link 5 7 5 0 -0.27437360
Link 6 7 6 0 0.34232805
Link 1 8 7 0 0.26131358
Link 3 8 9 0 -0.46087301
Link 4 8 10 0 0.58256091
Link 6 8 12 0 -0.63090738
Link 3 9 14 0 0.41256393
Link 9 8 15 0 -0.59928655
Link 5 15 36 0 0.62931243
Link 15 8 37 0 0.15750505
Link 2 24 82 0 0.43327277
Link 24 8 83 0 -0.63206885
GenomeEnd

GenomeStart 9701
Genome Fitness: 136.000000 
Neuron 1 1 0.00000000 1 0.00000000 0.00000000 0.00000000 0.00000000
Neuron 2 1 0.00000000 1 0.00000000 0.00000000 0.00000000 0.00000000
Neuron 3 1 0.00000000 1 0.00000000 0.00000000 0.00000000 0.00000000
Neuron 4 1 0.00000000 1 0.00000000 0.00000000 0.00000000 0.00000000
Neuron 5 1 0.00000000 1 0.00000000 0.00000000 0.00000000 0.00000000
Neuron 6 2 0.00000000 1 0.00000000 0.00000000 0.00000000 0.00000000
Neuron 7 4 1.00000000 2 3.02500000 0.00000000 0.00000000 0.00000000
Neuron 8 4 1.00000000 2 3.02500000 0.00000000 0.00000000 0.00000000
Neuron 9 3 0.50000000 8 5.54664794 0.00000000 0.00000000 0.00000000
Neuron 15 3 0.50000000 4 2.57055910 0.00000000 0.00000000 0.00000000
Neuron 24 3 0.50000000 11 5.20155500 0.00000000 0.00000000 0.00000000
Link 1 7 1 0 0.19835433
Link 2 7 2 0 -0.71129588
Link 3 7 3 0 -0.62270679
Link 5 7 5 0 0.02855382
Link 6 7 6 0 0.45217927
Link 1 8 7 0 -0.09923315
Link 3 8 9 0 -0.59766247
Link 4 8 10 0 0.92676101
Link 6 8 12 0 -0.67647838
Link 3 9 14 0 0.52116232
Link 9 8 15 0 -0.57212782
Link 5 15 36 0 1.09160241
Link 15 8 37 0 0.28203508
Link 2 24 82 0 0.42018801
Link 24 8 83 0 -0.49204646
GenomeEnd

GenomeStart 9702
Genome Fitness: 136.000000 
Neuron 1 1 0.00000000 1 0.00000000 0.00000000 0.00000000 0.00000000
Neuron 2 1 0.00000000 1 0.00000000 0.00000000 0.00000000 0.00000000
Neuron 3 1 0.00000000 1 0.00000000 0.00000000 0.00000000 0.00000000
Neuron 4 1 0.00000000 1 0.00000000 0.00000000 0.00000000 0.00000000
Neuron 5 1 0.00000000 1 0.00000000 0.00000000 0.00000000 0.00000000
Neuron 6 2 0.00000000 1 0.00000000 0.00000000 0.00000000 0.00000000
Neuron 7 4 1.00000000 2 3.02500000 0.00000000 0.00000000 0.00000000
Neuron 8 4 1.00000000 2 3.02500000 0.00000000 0.00000000 0.00000000
Neuron 9 3 0.50000000 8 5.54664794 0.00000000 0.00000000 0.00000000
Neuron 15 3 0.50000000 4 2.57055910 0.00000000 0.00000000 0.00000000
Neuron 24 3 0.50000000 11 5.20155500 0.00000000 0.00000000 0.00000000
Link 1 7 1 0 0.06382586
Link 2 7 2 0 -0.69090063
Link 3 7 3 0 -0.52348985
Link 5 7 5 0 0.25954527
Link 6 7 6 0 0.63566785
Link 1 8 7 0 -0.07704831
Link 3 8 9 0 -0.78434723
Link 4 8 10 0 0.90750740
Link 6 8 12 0 -0.37112995
Link 3 9 14 0 0.50165427
Link 9 8 15 0 -0.54133226
Link 5 15 36 0 1.00168947
Link 15 8 37 0 0.11533191
Link 2 24 82 0 0.54389992
Link 24 8 83 0 -0.37345282
GenomeEnd

GenomeStart 9703
Genome Fitness: 134.000000 
Neuron 1 1 0.00000000 1 0.00000000 0.00000000 0.00000000 0.00000000
Neuron 2 1 0.00000000 1 0.00000000 0.00000000 0.00000000 0.00000000
Neuron 3 1 0.00000000 1 0.00000000 0.00000000 0.00000000 0.00000000
Neuron 4 1 0.00000000 1 0.00000000 0.00000000 0.00000000 0.00000000
Neuron 5 1 0.00000000 1 0.00000000 0.00000000 0.00000000 0.00000000
Neuron 6 2 0.00000000 1 0.00000000 0.00000000 0.00000000 0.00000000
Neuron 7 4 1.00000000 2 3.02500000 0.00000000 0.00000000 0.00000000
Neuron 8 4 1.00000000 2 3.02500000 0.00000000 0.00000000 0.00000000
Neuron 9 3 0.50000000 8 5.54664794 0.00000000 0.00000000 0.00000000
Neuron 15 3 0.50000000 4 2.57055910 0.00000000 0.00000000 0.00000000
Neuron 24 3 0.50000000 11 5.20155500 0.00000000 0.00000000 0.00000000
Link 1 7 1 0 0.07517245
Link 2 7 2 0 -0.59237852
Link 3 7 3 0 -0.65294747
Link 5 7 5 0 0.34373305
Link 6 7 6 0 0.36602167
Link 1 8 7 0 0.01603822
Link 3 8 9 0 -0.47390460
Link 4 8 10 0 0.83674662
Link 6 8 12 0 0.33762913
Link 3 9 14 0 0.50753240
Link 9 8 15 0 -0.56191070
Link 5 15 36 0 1.03172089
Link 15 8 37 0 0.17707706
Link 2 24 82 0 0.44877309
Link 24 8 83 0 -0.54251567
GenomeEnd

GenomeStart 9704
Genome Fitness: 136.000000 
Neuron 1 1 0.00000000 1 0.00000000 0.00000000 0.00000000 0.00000000
Neuron 2 1 0.00000000 1 0.00000000 0.00000000 0.00000000 0.00000000
Neuron 3 1 0.00000000 1 0.00000000 0.00000000 0.00000000 0.00000000
Neuron 4 1 0.00000000 1 0.00000000 0.00000000 0.00000000 0.00000000
Neuron 5 1 0.00000000 1 0.00000000 0.00000000 0.00000000 0.00000000
Neuron 6 2 0.00000000 1 0.00000000 0.00000000 0.00000000 0.00000000
Neuron 7 4 1.00000000 2 3.02500000 0.00000000 0.00000000 0.00000000
Neuron 8 4 1.00000000 2 3.02500000 0.00000000 0.00000000 0.00000000
Neuron 9 3 0.50000000 8 5.54664794 0.00000000 0.00000000 0.00000000
Neuron 15 3 0.50000000 4 2.57055910 0.00000000 0.00000000 0.00000000
Neuron 24 3 0.50000000 11 5.20155500 0.00000000 0.00000000 0.00000000
Link 1 7 1 0 0.12098194
Link 2 7 2 0 -0.45246246
Link 3 7 3 0 -0.64553676
Link 5 7 5 0 0.13912798
Link 6 7 6 0 0.47436392
Link 1 8 7 0 -0.02969995
Link 3 8 9 0 -0.64557550
Link 4 8 10 0 0.81643009
Link 6 8 12 0 -0.63219403
Link 3 9 14 0 0.73968559
Link 9 8 15 0 -0.51822526
Link 5 15 36 0 1.09454168
Link 15 8 37 0 0.41115176
Link 2 24 82 0 0.47227881
Link 24 8 83 0 -0.50494590
GenomeEnd

GenomeStart 9705
Genome Fitness: 157.000000 
Neuron 1 1 0.00000000 1 0.00000000 0.00000000 0.00000000 0.00000000
Neuron 2 1 0.00000000 1 0.00000000 0.00000000 0.00000000 0.00000000
Neuron 3 1 0.00000000 1 0.00000000 0.00000000 0.00000000 0.00000000
Neuron 4 1 0.00000000 1 0.00000000 0.00000000 0.00000000 0.00000000
Neuron 5 1 0.00000000 1 0.00000000 0.00000000 0.00000000 0.00000000
Neuron 6 2 0.00000000 1 0.00000000 0.00000000 0.00000000 0.00000000
Neuron 7 4 1.00000000 2 3.02500000 0.00000000 0.00000000 0.00000000
Neuron 8 4 1.00000000 2 3.02500000 0.00000000 0.00000000 0.00000000
Neuron 11 3 0.50000000 10 2.37918771 0.00000000 0.00000000 0.00000000
Neuron 14 3 0.50000000 10 2.44431887 0.00000000 0.00000000 0.00000000
Neuron 16 3 0.50000000 1 3.45477467 0.00000000 0.00000000 0.00000000
Link 1 7 1 0 -0.07369350
Link 3 7 3 0 0.22688438
Link 5 7 5 0 -0.42034549
Link 6 7 6 0 -0.11798329
Link 1 8 7 0 -0.37424093
Link 2 8 8 0 0.56144845
Link 3 8 9 0 -0.07348485
Link 5 8 11 0 0.10897606
Link 6 8 12 0 -0.64838819
Link 2 11 20 0 0.96758771
Link 11 7 21 0 0.07458760
Link 4 14 32 0 0.67398290
Link 14 7 33 0 0.30684862
Link 4 16 39 0 1.14026797
Link 16 8 40 0 0.53442356
Link 14 11 101 0 -0.47841705
GenomeEnd

GenomeStart 9706
Genome Fitness: 136.000000 
Neuron 1 1 0.00000000 1 0.00000000 0.00000000 0.00000000 0.00000000
Neuron 2 1 0.00000000 1 0.00000000 0.00000000 0.00000000 0.00000000
Neuron 3 1 0.00000000 1 0.00000000 0.00000000 0.00000000 0.00000000
Neuron 4 1 0.00000000 1 0.00000000 0.00000000 0.00000000 0.00000000
Neuron 5 1 0.00000000 1 0.00000000 0.00000000 0.00000000 0.00000000
Neuron 6 2 0.00000000 1 0.00000000 0.00000000 0.00000000 0.00000000
Neuron 7 4 1.00000000 2 3.02500000 0.00000000 0.00000000 0.00000000
Neuron 8 4 1.00000000 3 3.02500000 0.00000000 0.00000000 0.00000000
Neuron 11 3 0.50000000 10 2.37918771 0.00000000 0.00000000 0.00000000
Neuron 14 3 0.50000000 10 2.44431887 0.00000000 0.00000000 0.00000000
Neuron 16 3 0.50000000 1 3.45477467 0.00000000 0.00000000 0.00000000
Neuron 24 3 0.50000000 8 1.74435231 0.00000000 0.00000000 0.00000000
Link 1 7 1 0 -0.25589456
Link 3 7 3 0 0.28675613
Link 5 7 5 0 -0.41789910
Link 6 7 6 0 -0.01841894
Link 1 8 7 0 -0.63578196
Link 3 8 9 0 -0.25137742
Link 5 8 11 0 0.09267971
Link 6 8 12 0 0.19733975
Link 2 11 20 0 1.15551426
Link 11 7 21 0 -0.30807476
Link 4 14 32 0 0.66131708
Link 14 7 33 0 0.25417427
Link 4 16 39 0 1.09074714
Link 16 8 40 0 0.53939146
Link 2 24 82 0 1.00000000
Link 24 8 83 0 0.68617670
Link 14 11 101 0 -0.51837740
GenomeEnd

GenomeStart 9707
Genome Fitness: 101.000000 
Neuron 1 1 0.00000000 1 0.00000000 0.00000000 0.00000000 0.00000000
Neuron 2 1 0.00000000 1 0.00000000 0.00000000 0.00000000 0.00000000
Neuron 3 1 0.00000000 1 0.00000000 0.00000000 0.00000000 0.00000000
Neuron 4 1 0.00000000 1 0.00000000 0.00000000 0.00000000 0.00000000
Neuron 5 1 0.00000000 1 0.00000000 0.00000000 0.00000000 0.00000000
Neuron 6 2 0.00000000 1 0.00000000 0.00000000 0.00000000 0.00000000
Neuron 7 4 1.00000000 2 3.02500000 0.00000000 0.00000000 0.00000000
Neuron 8 4 1.00000000 2 3.02500000 0.00000000 0.00000000 0.00000000
Neuron 11 3 0.50000000 10 2.37918771 0.00000000 0.00000000 0.00000000
Neuron 14 3 0.50000000 10 2.44431887 0.00000000 0.00000000 0.00000000
Neuron 16 3 0.50000000 1 3.45477467 0.00000000 0.00000000 0.00000000
Link 1 7 1 0 -0.16960903
Link 3 7 3 0 0.13917075
Link 5 7 5 0 -0.34293080
Link 6 7 6 0 -0.12785941
Link 1 8 7 0 -0.39690981
Link 2 8 8 0 0.54875875
Link 3 8 9 0 -0.05052223
Link 5 8 11 0 0.14100578
Link 6 8 12 0 -0.47096603
Link 2 11 20 0 1.04465596
Link 11 7 21 0 0.15318260
Link 4 14 32 0 0.64667442
Link 14 7 33 0 0.23921978
Link 4 16 39 0 1.08343510
Link 16 8 40 0 0.56947893
Link 14 11 101 0 -0.48984714
GenomeEnd

GenomeStart 9708
Genome Fitness: 101.000000 
Neuron 1 1 0.00000000 1 0.00000000 0.00000000 0.00000000 0.00000000
Neuron 2 1 0.00000000 1 0.00000000 0.00000000 0.00000000 0.00000000
Neuron 3 1 0.00000000 1 0.00000000 0.00000000 0.00000000 0.00000000
Neuron 4 1 0.00000000 1 0.00000000 0.00000000 0.00000000 0.00000000
Neuron 5 1 0.00000000 1 0.00000000 0.00000000 0.00000000 0.00000000
Neuron 6 2 0.00000000 1 0.00000000 0.00000000 0.00000000 0.00000000
Neuron 7 4 1.00000000 2 3.02500000 0.00000000 0.00000000 0.00000000
Neuron 8 4 1.00000000 3 3.02500000 0.00000000 0.00000000 0.00000000
Neuron 11 3 0.50000000 10 2.37918771 0.00000000 0.00000000 0.00000000
Neuron 14 3 0.50000000 10 2.44431887 0.00000000 0.00000000 0.00000000
Neuron 16 3 0.50000000 1 3.45477467 0.00000000 0.00000000 0.00000000
Link 1 7 1 0 -0.26201712
Link 3 7 3 0 0.15006035
Link 5 7 5 0 -0.25169785
Link 6 7 6 0 0.06972115
Link 1 8 7 0 -0.64378064
Link 2 8 8 0 0.59631884
Link 3 8 9 0 -0.33054529
Link 5 8 11 0 -0.05763357
Link 6 8 12 0 0.40590036
Link 2 11 20 0 1.21089093
Link 11 7 21 0 -0.25397856
Link 4 14 32 0 0.63283040
Link 14 7 33 0 0.25907529
Link 4 16 39 0 1.07862121
Link 16 8 40 0 0.60357011
Link 14 11 101 0 -0.52494424
GenomeEnd

GenomeStart 9709
Genome Fitness: 136.000000 
Neuron 1 1 0.00000000 1 0.00000000 0.00000000 0.00000000 0.00000000
Neuron 2 1 0.00000000 1 0.00000000 0.00000000 0.00000000 0.00000000
Neuron 3 1 0.00000000 1 0.00000000 0.00000000 0.00000000 0.00000000
Neuron 4 1 0.00000000 1 0.00000000 0.00000000 0.00000000 0.00000000
Neuron 5 1 0.00000000 1 0.00000000 0.00000000 0.00000000 0.00000000
Neuron 6 2 0.00000000 1 0.00000000 0.00000000 0.00000000 0.00000000
Neuron 7 4 1.00000000 2 3.02500000 0.00000000 0.00000000 0.00000000
Neuron 8 4 1.00000000 2 3.02500000 0.00000000 0.00000000 0.00000000
Neuron 11 3 0.50000000 10 2.37918771 0.00000000 0.00000000 0.00000000
Neuron 14 3 0.50000000 10 2.44431887 0.00000000 0.00000000 0.00000000
Neuron 16 3 0.50000000 1 3.45477467 0.00000000 0.00000000 0.00000000
Link 1 7 1 0 -0.11413049
Link 3 7 3 0 0.13160628
Link 5 7 5 0 -0.42074595
Link 6 7 6 0 -0.15149701
Link 1 8 7 0 -0.37424093
Link 2 8 8 0 0.57454982
Link 3 8 9 0 -0.09121589
Link 5 8 11 0 0.04046123
Link 6 8 12 0 -0.52840703
Link 2 11 20 0 1.08272135
Link 11 7 21 0 0.37990448
Link 4 14 32 0 0.73850943
Link 14 7 33 0 0.28776291
Link 4 16 39 0 1.20969191
Link 16 8 40 0 0.43835547
Link 14 11 101 0 -0.64619371
GenomeEnd

GenomeStart 9710
Genome Fitness: 101.000000 
Neuron 1 1 0.00000000 1 0.00000000 0.00000000 0.00000000 0.00000000
Neuron 2 1 0.00000000 1 0.00000000 0.00000000 0.00000000 0.00000000
Neuron 3 1 0.00000000 1 0.00000000 0.00000000 0.00000000 0.00000000
Neuron 4 1 0.00000000 1 0.00000000 0.00000000 0.00000000 0.00000000
Neuron 5 1 0.00000000 1 0.00000000 0.00000000 0.00000000 0.00000000
Neuron 6 2 0.00000000 1 0.00000000 0.00000000 0.00000000 0.00000000
Neuron 7 4 1.00000000 2 3.02500000 0.00000000 0.00000000 0.00000000
Neuron 8 4 1.00000000 2 3.02500000 0.00000000 0.00000000 0.00000000
Neuron 11 3 0.50000000 10 2.37918771 0.00000000 0.00000000 0.00000000
Neuron 14 3 0.50000000 10 2.44431887 0.00000000 0.00000000 0.00000000
Neuron 16 3 0.50000000 1 3.45477467 0.00000000 0.00000000 0.00000000
Link 1 7 1 0 -0.22415454
Link 3 7 3 0 0.17321692
Link 5 7 5 0 -0.24295053
Link 6 7 6 0 -0.29879551
Link 1 8 7 0 -0.80398475
Link 2 8 8 0 0.61584305
Link 3 8 9 0 -0.27838439
Link 5 8 11 0 0.13935578
Link 6 8 12 0 -0.21437904
Link 2 11 20 0 1.20194615
Link 11 7 21 0 -0.09710328
Link 4 14 32 0 0.66178760
Link 14 7 33 0 0.37260183
Link 4 16 39 0 1.14743939
Link 16 8 40 0 0.55556856
Link 14 11 101 0 -0.41106252
GenomeEnd

GenomeStart 9711
Genome Fitness: 157.000000 
Neuron 1 1 0.00000000 1 0.00000000 0.00000000 0.00000000 0.00000000
Neuron 2 1 0.00000000 1 0.00000000 0.00000000 0.00000000 0.00000000
Neuron 3 1 0.00000000 1 0.00000000 0.00000000 0.00000000 0.00000000
Neuron 4 1 0.00000000 1 0.00000000 0.00000000 0.00000000 0.00000000
Neuron 5 1 0.00000000 1 0.00000000 0.00000000 0.00000000 0.00000000
Neuron 6 2 0.00000000 1 0.00000000 0.00000000 0.00000000 0.00000000
Neuron 7 4 1.00000000 2 3.02500000 0.00000000 0.00000000 0.00000000
Neuron 8 4 1.00000000 2 3.02500000 0.00000000 0.00000000 0.00000000
Neuron 11 3 0.50000000 10 2.37918771 0.00000000 0.00000000 0.00000000
