NEAT_ParametersStart
PopulationSize 150
DynamicCompatibility true
MinSpecies 5
MaxSpecies 25
InnovationsForever true
AllowClones false
YoungAgeTreshold 15
YoungAgeFitnessBoost 1.10000000000000008882
SpeciesDropoffAge 50
StagnationDelta 0.00000000000000000000
OldAgeTreshold 35
OldAgePenalty 1.00000000000000000000
DetectCompetetiveCoevolutionStagnation false
KillWorstSpeciesEach 15
KillWorstAge 10
SurvivalRate 0.20000000000000001110
CrossoverRate 0.80000000000000004441
OverallMutationRate 0.69999999999999995559
InterspeciesCrossoverRate 0.00010000000000000000
MultipointCrossoverRate 0.75000000000000000000
RouletteWheelSelection false
PhasedSearching false
DeltaCoding false
SimplifyingPhaseMPCTreshold 20
SimplifyingPhaseStagnationTreshold 30
ComplexityFloorGenerations 40
NoveltySearch_K 15
NoveltySearch_P_min 0.50000000000000000000
NoveltySearch_Dynamic_Pmin true
NoveltySearch_No_Archiving_Stagnation_Treshold 150
NoveltySearch_Pmin_lowering_multiplier 0.90000000000000002220
NoveltySearch_Pmin_min 0.05000000000000000278
NoveltySearch_Quick_Archiving_Min_Evaluations 8
NoveltySearch_Pmin_raising_multiplier 1.10000000000000008882
NoveltySearch_Recompute_Sparseness_Each 25
MutateAddNeuronProb 0.02000000000000000042
SplitRecurrent true
SplitLoopedRecurrent true
NeuronTries 32580
MutateAddLinkProb 0.05000000000000000278
MutateAddLinkFromBiasProb 0.00000000000000000000
MutateRemLinkProb 0.01000000000000000021
MutateRemSimpleNeuronProb 0.00000000000000000000
LinkTries 32
RecurrentProb 0.00000000000000000000
RecurrentLoopProb 0.25000000000000000000
MutateWeightsProb 0.90000000000000002220
MutateWeightsSevereProb 0.25000000000000000000
WeightMutationRate 1.00000000000000000000
WeightMutationMaxPower 0.20000000000000001110
WeightReplacementMaxPower 1.00000000000000000000
MaxWeight 8.00000000000000000000
MutateActivationAProb 0.00000000000000000000
MutateActivationBProb 0.00000000000000000000
ActivationAMutationMaxPower 0.50000000000000000000
ActivationBMutationMaxPower 0.00000000000000000000
TimeConstantMutationMaxPower 0.00000000000000000000
BiasMutationMaxPower 1.00000000000000000000
MinActivationA 0.05000000000000000278
MaxActivationA 6.00000000000000000000
MinActivationB 0.00000000000000000000
MaxActivationB 0.00000000000000000000
MutateNeuronActivationTypeProb 0.02000000000000000042
ActivationFunction_SignedSigmoid_Prob 0.00000000000000000000
ActivationFunction_UnsignedSigmoid_Prob 1.00000000000000000000
ActivationFunction_Tanh_Prob 1.00000000000000000000
ActivationFunction_TanhCubic_Prob 1.00000000000000000000
ActivationFunction_SignedStep_Prob 1.00000000000000000000
ActivationFunction_UnsignedStep_Prob 1.00000000000000000000
ActivationFunction_SignedGauss_Prob 1.00000000000000000000
ActivationFunction_UnsignedGauss_Prob 1.00000000000000000000
ActivationFunction_Abs_Prob 1.00000000000000000000
ActivationFunction_SignedSine_Prob 1.00000000000000000000
ActivationFunction_UnsignedSine_Prob 1.00000000000000000000
ActivationFunction_Linear_Prob 1.00000000000000000000
ActivationFunction_Relu_Prob 0.00000000000000000000
ActivationFunction_Softplus_Prob 0.00000000000000000000
MutateNeuronTimeConstantsProb 0.00000000000000000000
MutateNeuronBiasesProb 0.00000000000000000000
MinNeuronTimeConstant 0.00000000000000000000
MaxNeuronTimeConstant 0.00000000000000000000
MinNeuronBias 0.00000000000000000000
MaxNeuronBias 0.00000000000000000000
DisjointCoeff 1.00000000000000000000
ExcessCoeff 1.00000000000000000000
ActivationADiffCoeff 0.00000000000000000000
ActivationBDiffCoeff 0.00000000000000000000
WeightDiffCoeff 0.50000000000000000000
TimeConstantDiffCoeff 0.00000000000000000000
BiasDiffCoeff 0.00000000000000000000
ActivationFunctionDiffCoeff 0.00000000000000000000
CompatTreshold 3.19999999999999928946
MinCompatTreshold 0.20000000000000001110
CompatTresholdModifier 0.29999999999999998890
CompatTreshChangeInterval_Generations 1
CompatTreshChangeInterval_Evaluations 10
DivisionThreshold 0.02999999999999999889
VarianceThreshold 0.02999999999999999889
BandThreshold 0.29999999999999998890
InitialDepth 3
MaxDepth 3
IterationLevel 1
TournamentSize 2
CPPN_Bias -1.00000000000000000000
Width 2.00000000000000000000
Height 2.00000000000000000000
Qtree_X 0.00000000000000000000
Qtree_Y 0.00000000000000000000
Leo false
LeoThreshold 0.10000000000000000555
LeoSeed false
GeometrySeed false
Elitism 0.10000000000000000555
NEAT_ParametersEnd
InnovationDatabaseStart
NextInnovNum: 153
NextNeuronID: 32
Innovation 1 1 1 7 0 -1
Innovation 2 1 2 7 0 -1
Innovation 3 1 3 7 0 -1
Innovation 4 1 4 7 0 -1
Innovation 5 1 5 7 0 -1
Innovation 6 1 6 7 0 -1
Innovation 7 1 1 8 0 -1
Innovation 8 1 2 8 0 -1
Innovation 9 1 3 8 0 -1
Innovation 10 1 4 8 0 -1
Innovation 11 1 5 8 0 -1
Innovation 12 1 6 8 0 -1
Innovation 13 0 2 8 3 9
Innovation 14 1 2 9 0 -1
Innovation 15 1 9 8 0 -1
Innovation 16 0 2 7 3 10
Innovation 17 1 2 10 0 -1
Innovation 18 1 10 7 0 -1
Innovation 19 0 3 8 3 11
Innovation 20 1 3 11 0 -1
Innovation 21 1 11 8 0 -1
Innovation 22 0 5 7 3 12
Innovation 23 1 5 12 0 -1
Innovation 24 1 12 7 0 -1
Innovation 25 0 9 8 3 13
Innovation 26 1 9 13 0 -1
Innovation 27 1 13 8 0 -1
Innovation 28 1 1 9 0 -1
Innovation 29 0 11 8 3 14
Innovation 30 1 11 14 0 -1
Innovation 31 1 14 8 0 -1
Innovation 32 1 11 7 0 -1
Innovation 33 1 4 11 0 -1
Innovation 34 1 5 9 0 -1
Innovation 35 0 4 7 3 15
Innovation 36 1 4 15 0 -1
Innovation 37 1 15 7 0 -1
Innovation 38 1 2 13 0 -1
Innovation 39 0 1 8 3 16
Innovation 40 1 1 16 0 -1
Innovation 41 1 16 8 0 -1
Innovation 42 1 6 10 0 -1
Innovation 43 1 4 14 0 -1
Innovation 44 0 3 7 3 17
Innovation 45 1 3 17 0 -1
Innovation 46 1 17 7 0 -1
Innovation 47 1 3 9 0 -1
Innovation 48 0 1 7 3 18
Innovation 49 1 1 18 0 -1
Innovation 50 1 18 7 0 -1
Innovation 51 0 16 8 3 19
Innovation 52 1 16 19 0 -1
Innovation 53 1 19 8 0 -1
Innovation 54 1 2 11 0 -1
Innovation 55 1 1 15 0 -1
Innovation 56 1 15 14 0 -1
Innovation 57 0 2 9 3 20
Innovation 58 1 2 20 0 -1
Innovation 59 1 20 9 0 -1
Innovation 60 0 4 8 3 21
Innovation 61 1 4 21 0 -1
Innovation 62 1 21 8 0 -1
Innovation 63 1 5 11 0 -1
Innovation 64 0 15 7 3 22
Innovation 65 1 15 22 0 -1
Innovation 66 1 22 7 0 -1
Innovation 67 1 6 14 0 -1
Innovation 68 1 1 14 0 -1
Innovation 69 1 10 8 0 -1
Innovation 70 1 4 12 0 -1
Innovation 71 1 12 18 0 -1
Innovation 72 1 16 7 0 -1
Innovation 73 1 3 18 0 -1
Innovation 74 1 6 12 0 -1
Innovation 75 1 6 19 0 -1
Innovation 76 1 14 7 0 -1
Innovation 77 1 17 8 0 -1
Innovation 78 0 12 7 3 23
Innovation 79 1 12 23 0 -1
Innovation 80 1 23 7 0 -1
Innovation 81 1 9 7 0 -1
Innovation 82 1 2 18 0 -1
Innovation 83 0 5 8 3 24
Innovation 84 1 5 24 0 -1
Innovation 85 1 24 8 0 -1
Innovation 86 1 5 15 0 -1
Innovation 87 1 6 9 0 -1
Innovation 88 1 11 24 0 -1
Innovation 89 1 2 16 0 -1
Innovation 90 1 6 11 0 -1
Innovation 91 1 10 15 0 -1
Innovation 92 1 11 17 0 -1
Innovation 93 1 3 10 0 -1
Innovation 94 1 18 21 0 -1
Innovation 95 1 2 14 0 -1
Innovation 96 1 20 7 0 -1
Innovation 97 1 9 12 0 -1
Innovation 98 1 6 18 0 -1
Innovation 99 1 3 15 0 -1
Innovation 100 1 2 15 0 -1
Innovation 101 1 16 21 0 -1
Innovation 102 1 15 11 0 -1
Innovation 103 1 5 14 0 -1
Innovation 104 1 1 11 0 -1
Innovation 105 1 5 21 0 -1
Innovation 106 1 4 10 0 -1
Innovation 107 1 3 16 0 -1
Innovation 108 0 4 14 3 25
Innovation 109 1 4 25 0 -1
Innovation 110 1 25 14 0 -1
Innovation 111 1 9 15 0 -1
Innovation 112 1 11 15 0 -1
Innovation 113 1 1 17 0 -1
Innovation 114 1 3 12 0 -1
Innovation 115 1 5 10 0 -1
Innovation 116 1 2 12 0 -1
Innovation 117 1 24 11 0 -1
Innovation 118 1 5 18 0 -1
Innovation 119 0 14 8 3 26
Innovation 120 1 14 26 0 -1
Innovation 121 1 26 8 0 -1
Innovation 122 1 5 22 0 -1
Innovation 123 1 18 12 0 -1
Innovation 124 0 17 7 3 27
Innovation 125 1 17 27 0 -1
Innovation 126 1 27 7 0 -1
Innovation 127 0 5 22 3 28
Innovation 128 1 5 28 0 -1
Innovation 129 1 28 22 0 -1
Innovation 130 1 2 21 0 -1
Innovation 131 1 3 14 0 -1
Innovation 132 0 4 15 3 29
Innovation 133 1 4 29 0 -1
Innovation 134 1 29 15 0 -1
Innovation 135 0 2 10 3 30
Innovation 136 1 2 30 0 -1
Innovation 137 1 30 10 0 -1
Innovation 138 1 12 8 0 -1
Innovation 139 1 6 15 0 -1
Innovation 140 1 4 9 0 -1
Innovation 141 1 3 13 0 -1
Innovation 142 1 4 23 0 -1
Innovation 143 1 5 19 0 -1
Innovation 144 1 9 10 0 -1
Innovation 145 1 24 14 0 -1
Innovation 146 1 4 13 0 -1
Innovation 147 1 21 7 0 -1
Innovation 148 1 18 8 0 -1
Innovation 149 0 20 9 3 31
Innovation 150 1 20 31 0 -1
Innovation 151 1 31 9 0 -1
Innovation 152 1 5 13 0 -1
InnovationDatabaseEnd

GenomeStart 6746
Genome Fitness: 537.000000 
Neuron 1 1 0.00000000 1 0.00000000 0.00000000 0.00000000 0.00000000
Neuron 2 1 0.00000000 1 0.00000000 0.00000000 0.00000000 0.00000000
Neuron 3 1 0.00000000 1 0.00000000 0.00000000 0.00000000 0.00000000
Neuron 4 1 0.00000000 1 0.00000000 0.00000000 0.00000000 0.00000000
Neuron 5 1 0.00000000 1 0.00000000 0.00000000 0.00000000 0.00000000
Neuron 6 2 0.00000000 1 0.00000000 0.00000000 0.00000000 0.00000000
Neuron 7 4 1.00000000 2 3.02500000 0.00000000 0.00000000 0.00000000
Neuron 8 4 1.00000000 2 3.02500000 0.00000000 0.00000000 0.00000000
Neuron 9 3 0.50000000 10 5.89185529 0.00000000 0.00000000 0.00000000
Neuron 16 3 0.50000000 10 1.64230847 0.00000000 0.00000000 0.00000000
Link 1 7 1 0 0.26963024
Link 2 7 2 0 0.12951324
Link 3 7 3 0 0.12705390
Link 4 7 4 0 0.09305443
Link 5 7 5 0 -0.56130124
Link 6 7 6 0 0.19640737
Link 3 8 9 0 0.59291445
Link 4 8 10 0 0.25082834
Link 5 8 11 0 -0.14043335
Link 6 8 12 0 0.00160219
Link 2 9 14 0 1.09065239
Link 9 8 15 0 -0.61758188
Link 1 16 40 0 1.04826245
Link 16 8 41 0 -0.00579390
GenomeEnd

GenomeStart 6747
Genome Fitness: 537.000000 
Neuron 1 1 0.00000000 1 0.00000000 0.00000000 0.00000000 0.00000000
Neuron 2 1 0.00000000 1 0.00000000 0.00000000 0.00000000 0.00000000
Neuron 3 1 0.00000000 1 0.00000000 0.00000000 0.00000000 0.00000000
Neuron 4 1 0.00000000 1 0.00000000 0.00000000 0.00000000 0.00000000
Neuron 5 1 0.00000000 1 0.00000000 0.00000000 0.00000000 0.00000000
Neuron 6 2 0.00000000 1 0.00000000 0.00000000 0.00000000 0.00000000
Neuron 7 4 1.00000000 2 3.02500000 0.00000000 0.00000000 0.00000000
Neuron 8 4 1.00000000 2 3.02500000 0.00000000 0.00000000 0.00000000
Neuron 9 3 0.50000000 10 5.89185529 0.00000000 0.00000000 0.00000000
Neuron 16 3 0.50000000 10 1.64230847 0.00000000 0.00000000 0.00000000
Link 1 7 1 0 0.26963024
Link 2 7 2 0 0.12951324
Link 3 7 3 0 0.12705390
Link 4 7 4 0 0.09305443
Link 5 7 5 0 -0.56130124
Link 6 7 6 0 0.19640737
Link 3 8 9 0 0.59291445
Link 4 8 10 0 0.22461515
Link 5 8 11 0 -0.14043335
Link 6 8 12 0 0.00160219
Link 2 9 14 0 1.08455841
Link 9 8 15 0 -0.61758188
Link 1 16 40 0 1.04826245
Link 16 8 41 0 -0.00579390
GenomeEnd

GenomeStart 6748
Genome Fitness: 537.000000 
Neuron 1 1 0.00000000 1 0.00000000 0.00000000 0.00000000 0.00000000
Neuron 2 1 0.00000000 1 0.00000000 0.00000000 0.00000000 0.00000000
Neuron 3 1 0.00000000 1 0.00000000 0.00000000 0.00000000 0.00000000
Neuron 4 1 0.00000000 1 0.00000000 0.00000000 0.00000000 0.00000000
Neuron 5 1 0.00000000 1 0.00000000 0.00000000 0.00000000 0.00000000
Neuron 6 2 0.00000000 1 0.00000000 0.00000000 0.00000000 0.00000000
Neuron 7 4 1.00000000 2 3.02500000 0.00000000 0.00000000 0.00000000
Neuron 8 4 1.00000000 2 3.02500000 0.00000000 0.00000000 0.00000000
Neuron 9 3 0.50000000 10 5.89185529 0.00000000 0.00000000 0.00000000
Neuron 16 3 0.50000000 10 1.64230847 0.00000000 0.00000000 0.00000000
Link 1 7 1 0 0.26963024
Link 2 7 2 0 0.12951324
Link 3 7 3 0 0.12705390
Link 4 7 4 0 0.09305443
Link 5 7 5 0 -0.56130124
Link 6 7 6 0 0.19640737
Link 3 8 9 0 0.59291445
Link 4 8 10 0 0.25082834
Link 5 8 11 0 -0.14043335
Link 6 8 12 0 0.00160219
Link 2 9 14 0 1.08455841
Link 9 8 15 0 -0.61758188
Link 1 16 40 0 1.04826245
Link 16 8 41 0 -0.00579390
GenomeEnd

GenomeStart 6749
Genome Fitness: 537.000000 
Neuron 1 1 0.00000000 1 0.00000000 0.00000000 0.00000000 0.00000000
Neuron 2 1 0.00000000 1 0.00000000 0.00000000 0.00000000 0.00000000
Neuron 3 1 0.00000000 1 0.00000000 0.00000000 0.00000000 0.00000000
Neuron 4 1 0.00000000 1 0.00000000 0.00000000 0.00000000 0.00000000
Neuron 5 1 0.00000000 1 0.00000000 0.00000000 0.00000000 0.00000000
Neuron 6 2 0.00000000 1 0.00000000 0.00000000 0.00000000 0.00000000
Neuron 7 4 1.00000000 2 3.02500000 0.00000000 0.00000000 0.00000000
Neuron 8 4 1.00000000 2 3.02500000 0.00000000 0.00000000 0.00000000
Neuron 9 3 0.50000000 10 5.89185529 0.00000000 0.00000000 0.00000000
Neuron 16 3 0.50000000 10 1.64230847 0.00000000 0.00000000 0.00000000
Link 1 7 1 0 0.26963024
Link 2 7 2 0 0.12951324
Link 3 7 3 0 0.12705390
Link 4 7 4 0 0.09305443
Link 5 7 5 0 -0.56130124
Link 6 7 6 0 0.19640737
Link 3 8 9 0 0.59291445
Link 4 8 10 0 0.25082834
Link 5 8 11 0 -0.14043335
Link 6 8 12 0 0.00160219
Link 2 9 14 0 1.09065239
Link 9 8 15 0 -0.61758188
Link 1 16 40 0 1.04826245
Link 16 8 41 0 -0.00579390
GenomeEnd

GenomeStart 6750
Genome Fitness: 195.000000 
Neuron 1 1 0.00000000 1 0.00000000 0.00000000 0.00000000 0.00000000
Neuron 2 1 0.00000000 1 0.00000000 0.00000000 0.00000000 0.00000000
Neuron 3 1 0.00000000 1 0.00000000 0.00000000 0.00000000 0.00000000
Neuron 4 1 0.00000000 1 0.00000000 0.00000000 0.00000000 0.00000000
Neuron 5 1 0.00000000 1 0.00000000 0.00000000 0.00000000 0.00000000
Neuron 6 2 0.00000000 1 0.00000000 0.00000000 0.00000000 0.00000000
Neuron 7 4 1.00000000 2 3.02500000 0.00000000 0.00000000 0.00000000
Neuron 8 4 1.00000000 2 3.02500000 0.00000000 0.00000000 0.00000000
Neuron 9 3 0.50000000 10 5.89185529 0.00000000 0.00000000 0.00000000
Neuron 16 3 0.50000000 10 1.64230847 0.00000000 0.00000000 0.00000000
Link 1 7 1 0 0.30793743
Link 2 7 2 0 -0.09203312
Link 3 7 3 0 0.10231782
Link 4 7 4 0 0.09305443
Link 5 7 5 0 -0.62517623
Link 6 7 6 0 0.19361083
Link 3 8 9 0 0.53651333
Link 4 8 10 0 0.27977395
Link 5 8 11 0 -0.30543865
Link 6 8 12 0 -0.04276279
Link 2 9 14 0 1.06425539
Link 9 8 15 0 -0.58498954
Link 1 16 40 0 1.14616543
Link 16 8 41 0 -0.14858260
GenomeEnd

GenomeStart 6751
Genome Fitness: 256.000000 
Neuron 1 1 0.00000000 1 0.00000000 0.00000000 0.00000000 0.00000000
Neuron 2 1 0.00000000 1 0.00000000 0.00000000 0.00000000 0.00000000
Neuron 3 1 0.00000000 1 0.00000000 0.00000000 0.00000000 0.00000000
Neuron 4 1 0.00000000 1 0.00000000 0.00000000 0.00000000 0.00000000
Neuron 5 1 0.00000000 1 0.00000000 0.00000000 0.00000000 0.00000000
Neuron 6 2 0.00000000 1 0.00000000 0.00000000 0.00000000 0.00000000
Neuron 7 4 1.00000000 2 3.02500000 0.00000000 0.00000000 0.00000000
Neuron 8 4 1.00000000 2 3.02500000 0.00000000 0.00000000 0.00000000
Neuron 9 3 0.50000000 10 5.89185529 0.00000000 0.00000000 0.00000000
Neuron 16 3 0.50000000 10 1.64230847 0.00000000 0.00000000 0.00000000
Link 1 7 1 0 0.35572603
Link 2 7 2 0 0.05126357
Link 3 7 3 0 0.04052862
Link 4 7 4 0 0.13365684
Link 5 7 5 0 -0.55656524
Link 6 7 6 0 0.17826684
Link 3 8 9 0 0.62514080
Link 4 8 10 0 0.22487209
Link 5 8 11 0 -0.12915468
Link 6 8 12 0 0.05897830
Link 2 9 14 0 1.11059529
Link 9 8 15 0 -0.61775253
Link 1 16 40 0 1.05950849
Link 16 8 41 0 -0.05866423
GenomeEnd

GenomeStart 6752
Genome Fitness: 537.000000 
Neuron 1 1 0.00000000 1 0.00000000 0.00000000 0.00000000 0.00000000
Neuron 2 1 0.00000000 1 0.00000000 0.00000000 0.00000000 0.00000000
Neuron 3 1 0.00000000 1 0.00000000 0.00000000 0.00000000 0.00000000
Neuron 4 1 0.00000000 1 0.00000000 0.00000000 0.00000000 0.00000000
Neuron 5 1 0.00000000 1 0.00000000 0.00000000 0.00000000 0.00000000
Neuron 6 2 0.00000000 1 0.00000000 0.00000000 0.00000000 0.00000000
Neuron 7 4 1.00000000 2 3.02500000 0.00000000 0.00000000 0.00000000
Neuron 8 4 1.00000000 2 3.02500000 0.00000000 0.00000000 0.00000000
Neuron 9 3 0.50000000 10 5.89185529 0.00000000 0.00000000 0.00000000
Neuron 16 3 0.50000000 10 1.64230847 0.00000000 0.00000000 0.00000000
Link 1 7 1 0 0.26963024
Link 2 7 2 0 0.12951324
Link 3 7 3 0 0.12705390
Link 4 7 4 0 0.09305443
Link 5 7 5 0 -0.56130124
Link 6 7 6 0 0.19640737
Link 3 8 9 0 0.59291445
Link 4 8 10 0 0.22461515
Link 5 8 11 0 -0.14043335
Link 6 8 12 0 0.00160219
Link 2 9 14 0 1.09065239
Link 9 8 15 0 -0.61758188
Link 1 16 40 0 1.04826245
Link 16 8 41 0 -0.00579390
GenomeEnd

GenomeStart 6753
Genome Fitness: 199.000000 
Neuron 1 1 0.00000000 1 0.00000000 0.00000000 0.00000000 0.00000000
Neuron 2 1 0.00000000 1 0.00000000 0.00000000 0.00000000 0.00000000
Neuron 3 1 0.00000000 1 0.00000000 0.00000000 0.00000000 0.00000000
Neuron 4 1 0.00000000 1 0.00000000 0.00000000 0.00000000 0.00000000
Neuron 5 1 0.00000000 1 0.00000000 0.00000000 0.00000000 0.00000000
Neuron 6 2 0.00000000 1 0.00000000 0.00000000 0.00000000 0.00000000
Neuron 7 4 1.00000000 2 3.02500000 0.00000000 0.00000000 0.00000000
Neuron 8 4 1.00000000 2 3.02500000 0.00000000 0.00000000 0.00000000
Neuron 9 3 0.50000000 10 5.89185529 0.00000000 0.00000000 0.00000000
Neuron 16 3 0.50000000 10 1.64230847 0.00000000 0.00000000 0.00000000
Link 1 7 1 0 0.31133818
Link 2 7 2 0 0.13302147
Link 3 7 3 0 0.07939864
Link 4 7 4 0 0.16359598
Link 5 7 5 0 -0.61249629
Link 6 7 6 0 0.22185564
Link 3 8 9 0 0.65339549
Link 4 8 10 0 0.25298132
Link 5 8 11 0 -0.06469627
Link 6 8 12 0 0.00693000
Link 2 9 14 0 1.09339031
Link 9 8 15 0 -0.47590359
Link 1 16 40 0 0.97405456
Link 16 8 41 0 0.10632393
GenomeEnd

GenomeStart 6754
Genome Fitness: 262.000000 
Neuron 1 1 0.00000000 1 0.00000000 0.00000000 0.00000000 0.00000000
Neuron 2 1 0.00000000 1 0.00000000 0.00000000 0.00000000 0.00000000
Neuron 3 1 0.00000000 1 0.00000000 0.00000000 0.00000000 0.00000000
Neuron 4 1 0.00000000 1 0.00000000 0.00000000 0.00000000 0.00000000
Neuron 5 1 0.00000000 1 0.00000000 0.00000000 0.00000000 0.00000000
Neuron 6 2 0.00000000 1 0.00000000 0.00000000 0.00000000 0.00000000
Neuron 7 4 1.00000000 2 3.02500000 0.00000000 0.00000000 0.00000000
Neuron 8 4 1.00000000 2 3.02500000 0.00000000 0.00000000 0.00000000
Neuron 9 3 0.50000000 10 5.89185529 0.00000000 0.00000000 0.00000000
Neuron 16 3 0.50000000 10 1.64230847 0.00000000 0.00000000 0.00000000
Link 1 7 1 0 0.17088175
Link 2 7 2 0 0.09015920
Link 3 7 3 0 0.11496082
Link 4 7 4 0 -0.01192487
Link 5 7 5 0 -0.56703554
Link 6 7 6 0 0.29896123
Link 3 8 9 0 0.60298416
Link 4 8 10 0 0.19702397
Link 5 8 11 0 -0.26825237
Link 6 8 12 0 -0.08866522
Link 2 9 14 0 1.02374217
Link 9 8 15 0 -0.62060222
Link 1 16 40 0 1.11304836
Link 16 8 41 0 0.03758719
GenomeEnd

GenomeStart 6755
Genome Fitness: 511.000000 
Neuron 1 1 0.00000000 1 0.00000000 0.00000000 0.00000000 0.00000000
Neuron 2 1 0.00000000 1 0.00000000 0.00000000 0.00000000 0.00000000
Neuron 3 1 0.00000000 1 0.00000000 0.00000000 0.00000000 0.00000000
Neuron 4 1 0.00000000 1 0.00000000 0.00000000 0.00000000 0.00000000
Neuron 5 1 0.00000000 1 0.00000000 0.00000000 0.00000000 0.00000000
Neuron 6 2 0.00000000 1 0.00000000 0.00000000 0.00000000 0.00000000
Neuron 7 4 1.00000000 2 3.02500000 0.00000000 0.00000000 0.00000000
Neuron 8 4 1.00000000 2 3.02500000 0.00000000 0.00000000 0.00000000
Neuron 11 3 0.50000000 4 3.75850292 0.00000000 0.00000000 0.00000000
Neuron 14 3 0.75000000 6 1.39090960 0.00000000 0.00000000 0.00000000
Neuron 15 3 0.50000000 10 2.83943178 0.00000000 0.00000000 0.00000000
Neuron 24 3 0.50000000 11 4.49289530 0.00000000 0.00000000 0.00000000
Link 1 7 1 0 0.29167387
Link 2 7 2 0 0.03581164
Link 5 7 5 0 0.15977087
Link 6 7 6 0 0.71714841
Link 1 8 7 0 0.31676078
Link 2 8 8 0 0.29336566
Link 4 8 10 0 0.36624997
Link 6 8 12 0 0.14807727
Link 3 11 20 0 0.83710765
Link 11 14 30 0 1.15013530
Link 14 8 31 0 0.19760658
Link 4 15 36 0 1.07635506
Link 15 7 37 0 0.05706914
Link 15 14 56 0 0.09816609
Link 5 24 84 0 1.13389003
Link 24 8 85 0 -1.00836878
GenomeEnd

GenomeStart 6756
Genome Fitness: 511.000000 
Neuron 1 1 0.00000000 1 0.00000000 0.00000000 0.00000000 0.00000000
Neuron 2 1 0.00000000 1 0.00000000 0.00000000 0.00000000 0.00000000
Neuron 3 1 0.00000000 1 0.00000000 0.00000000 0.00000000 0.00000000
Neuron 4 1 0.00000000 1 0.00000000 0.00000000 0.00000000 0.00000000
Neuron 5 1 0.00000000 1 0.00000000 0.00000000 0.00000000 0.00000000
Neuron 6 2 0.00000000 1 0.00000000 0.00000000 0.00000000 0.00000000
Neuron 7 4 1.00000000 2 3.02500000 0.00000000 0.00000000 0.00000000
Neuron 8 4 1.00000000 2 3.02500000 0.00000000 0.00000000 0.00000000
Neuron 11 3 0.50000000 10 3.75850292 0.00000000 0.00000000 0.00000000
Neuron 14 3 0.75000000 6 1.39090960 0.00000000 0.00000000 0.00000000
Neuron 15 3 0.50000000 10 2.83943178 0.00000000 0.00000000 0.00000000
Neuron 24 3 0.50000000 11 4.49289530 0.00000000 0.00000000 0.00000000
Link 1 7 1 0 0.29167387
Link 2 7 2 0 0.03581164
Link 5 7 5 0 0.25736854
Link 6 7 6 0 0.70151981
Link 1 8 7 0 0.31676078
Link 2 8 8 0 0.29336566
Link 4 8 10 0 0.36624997
Link 6 8 12 0 0.14807727
Link 3 11 20 0 0.83710765
Link 11 14 30 0 1.15013530
Link 14 8 31 0 0.19760658
Link 4 15 36 0 1.07635506
Link 15 7 37 0 0.00318915
Link 15 14 56 0 0.09816609
Link 5 24 84 0 1.13389003
Link 24 8 85 0 -1.00836878
GenomeEnd

GenomeStart 6757
Genome Fitness: 258.000000 
Neuron 1 1 0.00000000 1 0.00000000 0.00000000 0.00000000 0.00000000
Neuron 2 1 0.00000000 1 0.00000000 0.00000000 0.00000000 0.00000000
Neuron 3 1 0.00000000 1 0.00000000 0.00000000 0.00000000 0.00000000
Neuron 4 1 0.00000000 1 0.00000000 0.00000000 0.00000000 0.00000000
Neuron 5 1 0.00000000 1 0.00000000 0.00000000 0.00000000 0.00000000
Neuron 6 2 0.00000000 1 0.00000000 0.00000000 0.00000000 0.00000000
Neuron 7 4 1.00000000 2 3.02500000 0.00000000 0.00000000 0.00000000
Neuron 8 4 1.00000000 2 3.02500000 0.00000000 0.00000000 0.00000000
Neuron 11 3 0.50000000 10 3.75850292 0.00000000 0.00000000 0.00000000
Neuron 14 3 0.75000000 6 1.39090960 0.00000000 0.00000000 0.00000000
Neuron 15 3 0.50000000 10 2.83943178 0.00000000 0.00000000 0.00000000
Neuron 24 3 0.50000000 11 4.49289530 0.00000000 0.00000000 0.00000000
Link 1 7 1 0 0.22316675
Link 2 7 2 0 0.07176763
Link 5 7 5 0 0.34045312
Link 6 7 6 0 0.81220057
Link 1 8 7 0 0.18991177
Link 2 8 8 0 0.45171499
Link 4 8 10 0 0.35549834
Link 6 8 12 0 0.21414892
Link 3 11 20 0 0.86655806
Link 11 14 30 0 1.09131489
Link 14 8 31 0 0.18792430
Link 4 15 36 0 0.98214899
Link 15 7 37 0 0.06585165
Link 15 14 56 0 0.21151996
Link 5 24 84 0 1.15021058
Link 24 8 85 0 -1.01026165
GenomeEnd

GenomeStart 6758
Genome Fitness: 328.000000 
Neuron 1 1 0.00000000 1 0.00000000 0.00000000 0.00000000 0.00000000
Neuron 2 1 0.00000000 1 0.00000000 0.00000000 0.00000000 0.00000000
Neuron 3 1 0.00000000 1 0.00000000 0.00000000 0.00000000 0.00000000
Neuron 4 1 0.00000000 1 0.00000000 0.00000000 0.00000000 0.00000000
Neuron 5 1 0.00000000 1 0.00000000 0.00000000 0.00000000 0.00000000
Neuron 6 2 0.00000000 1 0.00000000 0.00000000 0.00000000 0.00000000
Neuron 7 4 1.00000000 2 3.02500000 0.00000000 0.00000000 0.00000000
Neuron 8 4 1.00000000 2 3.02500000 0.00000000 0.00000000 0.00000000
Neuron 11 3 0.50000000 10 3.75850292 0.00000000 0.00000000 0.00000000
Neuron 14 3 0.75000000 6 1.39090960 0.00000000 0.00000000 0.00000000
Neuron 15 3 0.50000000 10 2.83943178 0.00000000 0.00000000 0.00000000
Neuron 24 3 0.50000000 11 4.49289530 0.00000000 0.00000000 0.00000000
Link 1 7 1 0 0.14910294
Link 2 7 2 0 0.12245628
Link 5 7 5 0 0.10417177
Link 6 7 6 0 0.63120585
Link 1 8 7 0 0.35094468
Link 2 8 8 0 0.31809384
Link 4 8 10 0 0.23299622
Link 6 8 12 0 0.13630810
Link 3 11 20 0 0.75878846
Link 11 14 30 0 1.14275102
Link 14 8 31 0 0.10634025
Link 4 15 36 0 1.14009211
Link 15 7 37 0 -0.03054595
Link 15 14 56 0 0.13915934
Link 5 24 84 0 1.15954683
Link 24 8 85 0 -0.94565913
GenomeEnd

GenomeStart 6759
Genome Fitness: 162.000000 
Neuron 1 1 0.00000000 1 0.00000000 0.00000000 0.00000000 0.00000000
Neuron 2 1 0.00000000 1 0.00000000 0.00000000 0.00000000 0.00000000
Neuron 3 1 0.00000000 1 0.00000000 0.00000000 0.00000000 0.00000000
Neuron 4 1 0.00000000 1 0.00000000 0.00000000 0.00000000 0.00000000
Neuron 5 1 0.00000000 1 0.00000000 0.00000000 0.00000000 0.00000000
Neuron 6 2 0.00000000 1 0.00000000 0.00000000 0.00000000 0.00000000
Neuron 7 4 1.00000000 2 3.02500000 0.00000000 0.00000000 0.00000000
Neuron 8 4 1.00000000 2 3.02500000 0.00000000 0.00000000 0.00000000
Neuron 11 3 0.50000000 4 3.75850292 0.00000000 0.00000000 0.00000000
Neuron 14 3 0.75000000 6 1.39090960 0.00000000 0.00000000 0.00000000
Neuron 15 3 0.50000000 10 2.83943178 0.00000000 0.00000000 0.00000000
Neuron 24 3 0.50000000 11 4.49289530 0.00000000 0.00000000 0.00000000
Link 1 7 1 0 0.37955497
Link 2 7 2 0 0.08221436
Link 5 7 5 0 0.25736854
Link 6 7 6 0 0.70151981
Link 1 8 7 0 0.37515207
Link 2 8 8 0 0.37875665
Link 4 8 10 0 0.13960387
Link 6 8 12 0 0.01712913
Link 3 11 20 0 0.91746729
Link 11 14 30 0 1.16031573
Link 14 8 31 0 0.19863448
Link 4 15 36 0 1.07526161
Link 15 7 37 0 -0.69019059
Link 15 14 56 0 0.22877980
Link 5 24 84 0 1.18629920
Link 24 8 85 0 -0.19163939
GenomeEnd

GenomeStart 6760
Genome Fitness: 377.000000 
Neuron 1 1 0.00000000 1 0.00000000 0.00000000 0.00000000 0.00000000
Neuron 2 1 0.00000000 1 0.00000000 0.00000000 0.00000000 0.00000000
Neuron 3 1 0.00000000 1 0.00000000 0.00000000 0.00000000 0.00000000
Neuron 4 1 0.00000000 1 0.00000000 0.00000000 0.00000000 0.00000000
Neuron 5 1 0.00000000 1 0.00000000 0.00000000 0.00000000 0.00000000
Neuron 6 2 0.00000000 1 0.00000000 0.00000000 0.00000000 0.00000000
Neuron 7 4 1.00000000 2 3.02500000 0.00000000 0.00000000 0.00000000
Neuron 8 4 1.00000000 2 3.02500000 0.00000000 0.00000000 0.00000000
Neuron 11 3 0.50000000 4 3.75850292 0.00000000 0.00000000 0.00000000
Neuron 14 3 0.75000000 6 1.39090960 0.00000000 0.00000000 0.00000000
Neuron 15 3 0.50000000 10 2.83943178 0.00000000 0.00000000 0.00000000
Neuron 24 3 0.50000000 11 4.49289530 0.00000000 0.00000000 0.00000000
Link 1 7 1 0 0.22417160
Link 2 7 2 0 0.00917005
Link 5 7 5 0 0.06747955
Link 6 7 6 0 0.72440762
Link 1 8 7 0 0.31143736
Link 2 8 8 0 0.41112113
Link 4 8 10 0 0.21516573
Link 6 8 12 0 0.21254843
Link 3 11 20 0 0.94702226
Link 11 14 30 0 1.01944873
Link 14 8 31 0 0.12265767
Link 4 15 36 0 0.96563113
Link 15 7 37 0 0.04201065
Link 15 14 56 0 0.13836004
Link 5 24 84 0 1.21694710
Link 24 8 85 0 -1.15647946
GenomeEnd

GenomeStart 6761
Genome Fitness: 511.000000 
Neuron 1 1 0.00000000 1 0.00000000 0.00000000 0.00000000 0.00000000
Neuron 2 1 0.00000000 1 0.00000000 0.00000000 0.00000000 0.00000000
Neuron 3 1 0.00000000 1 0.00000000 0.00000000 0.00000000 0.00000000
Neuron 4 1 0.00000000 1 0.00000000 0.00000000 0.00000000 0.00000000
Neuron 5 1 0.00000000 1 0.00000000 0.00000000 0.00000000 0.00000000
Neuron 6 2 0.00000000 1 0.00000000 0.00000000 0.00000000 0.00000000
Neuron 7 4 1.00000000 2 3.02500000 0.00000000 0.00000000 0.00000000
Neuron 8 4 1.00000000 2 3.02500000 0.00000000 0.00000000 0.00000000
Neuron 11 3 0.50000000 10 3.75850292 0.00000000 0.00000000 0.00000000
Neuron 14 3 0.75000000 6 1.39090960 0.00000000 0.00000000 0.00000000
Neuron 15 3 0.50000000 10 2.83943178 0.00000000 0.00000000 0.00000000
Neuron 24 3 0.50000000 11 4.49289530 0.00000000 0.00000000 0.00000000
Link 1 7 1 0 0.29167387
Link 2 7 2 0 0.03581164
Link 5 7 5 0 0.15977087
Link 6 7 6 0 0.71714841
Link 1 8 7 0 0.31676078
Link 2 8 8 0 0.29336566
Link 4 8 10 0 0.36624997
Link 6 8 12 0 0.14807727
Link 3 11 20 0 0.83710765
Link 11 14 30 0 1.15013530
Link 14 8 31 0 0.19760658
Link 4 15 36 0 1.07635506
Link 15 7 37 0 0.00318915
Link 5 24 84 0 1.13389003
Link 24 8 85 0 -1.00836878
GenomeEnd

GenomeStart 6762
Genome Fitness: 367.000000 
Neuron 1 1 0.00000000 1 0.00000000 0.00000000 0.00000000 0.00000000
Neuron 2 1 0.00000000 1 0.00000000 0.00000000 0.00000000 0.00000000
Neuron 3 1 0.00000000 1 0.00000000 0.00000000 0.00000000 0.00000000
Neuron 4 1 0.00000000 1 0.00000000 0.00000000 0.00000000 0.00000000
Neuron 5 1 0.00000000 1 0.00000000 0.00000000 0.00000000 0.00000000
Neuron 6 2 0.00000000 1 0.00000000 0.00000000 0.00000000 0.00000000
Neuron 7 4 1.00000000 2 3.02500000 0.00000000 0.00000000 0.00000000
Neuron 8 4 1.00000000 1 3.02500000 0.00000000 0.00000000 0.00000000
Neuron 11 3 0.50000000 10 3.75850292 0.00000000 0.00000000 0.00000000
Neuron 14 3 0.75000000 6 1.39090960 0.00000000 0.00000000 0.00000000
Neuron 15 3 0.50000000 10 2.83943178 0.00000000 0.00000000 0.00000000
Neuron 24 3 0.50000000 11 4.49289530 0.00000000 0.00000000 0.00000000
Link 1 7 1 0 0.29167387
Link 2 7 2 0 0.03581164
Link 5 7 5 0 0.25736854
Link 6 7 6 0 0.70151981
Link 1 8 7 0 0.31676078
Link 2 8 8 0 0.29336566
Link 4 8 10 0 0.36624997
Link 6 8 12 0 0.14807727
Link 3 11 20 0 0.83710765
Link 11 14 30 0 1.15013530
Link 14 8 31 0 0.19760658
Link 4 15 36 0 1.07635506
Link 15 7 37 0 0.00318915
Link 15 14 56 0 0.09816609
Link 5 24 84 0 1.13389003
Link 24 8 85 0 -1.00836878
GenomeEnd

GenomeStart 6763
Genome Fitness: 162.000000 
Neuron 1 1 0.00000000 1 0.00000000 0.00000000 0.00000000 0.00000000
Neuron 2 1 0.00000000 1 0.00000000 0.00000000 0.00000000 0.00000000
Neuron 3 1 0.00000000 1 0.00000000 0.00000000 0.00000000 0.00000000
Neuron 4 1 0.00000000 1 0.00000000 0.00000000 0.00000000 0.00000000
Neuron 5 1 0.00000000 1 0.00000000 0.00000000 0.00000000 0.00000000
Neuron 6 2 0.00000000 1 0.00000000 0.00000000 0.00000000 0.00000000
Neuron 7 4 1.00000000 2 3.02500000 0.00000000 0.00000000 0.00000000
Neuron 8 4 1.00000000 2 3.02500000 0.00000000 0.00000000 0.00000000
Neuron 11 3 0.50000000 4 3.75850292 0.00000000 0.00000000 0.00000000
Neuron 14 3 0.75000000 6 1.39090960 0.00000000 0.00000000 0.00000000
Neuron 15 3 0.50000000 10 2.83943178 0.00000000 0.00000000 0.00000000
Neuron 24 3 0.50000000 11 4.49289530 0.00000000 0.00000000 0.00000000
Link 1 7 1 0 0.18035314
Link 2 7 2 0 0.28664617
Link 5 7 5 0 0.27907570
Link 6 7 6 0 0.81077305
Link 1 8 7 0 0.13096653
Link 2 8 8 0 0.25928845
Link 4 8 10 0 0.40396159
Link 6 8 12 0 0.19643399
Link 3 11 20 0 0.83031180
Link 11 14 30 0 1.19428842
Link 14 8 31 0 0.21323786
Link 4 15 36 0 0.17727122
Link 15 7 37 0 0.06175382
Link 15 14 56 0 0.19112842
Link 5 24 84 0 0.47577003
Link 24 8 85 0 -1.04213007
GenomeEnd

GenomeStart 6764
Genome Fitness: 437.000000 
Neuron 1 1 0.00000000 1 0.00000000 0.00000000 0.00000000 0.00000000
Neuron 2 1 0.00000000 1 0.00000000 0.00000000 0.00000000 0.00000000
Neuron 3 1 0.00000000 1 0.00000000 0.00000000 0.00000000 0.00000000
Neuron 4 1 0.00000000 1 0.00000000 0.00000000 0.00000000 0.00000000
Neuron 5 1 0.00000000 1 0.00000000 0.00000000 0.00000000 0.00000000
Neuron 6 2 0.00000000 1 0.00000000 0.00000000 0.00000000 0.00000000
Neuron 7 4 1.00000000 2 3.02500000 0.00000000 0.00000000 0.00000000
Neuron 8 4 1.00000000 2 3.02500000 0.00000000 0.00000000 0.00000000
Neuron 11 3 0.50000000 4 3.75850292 0.00000000 0.00000000 0.00000000
Neuron 14 3 0.75000000 6 1.39090960 0.00000000 0.00000000 0.00000000
Neuron 15 3 0.50000000 10 2.83943178 0.00000000 0.00000000 0.00000000
Neuron 24 3 0.50000000 11 4.49289530 0.00000000 0.00000000 0.00000000
Link 1 7 1 0 0.30613195
Link 2 7 2 0 0.18104001
Link 5 7 5 0 0.15303241
Link 6 7 6 0 0.61051189
Link 1 8 7 0 0.27921945
Link 2 8 8 0 0.36799201
Link 4 8 10 0 0.22806254
Link 6 8 12 0 0.06739217
Link 3 11 20 0 0.90380386
Link 11 14 30 0 1.24115593
Link 14 8 31 0 0.16170887
Link 4 15 36 0 0.95974338
Link 15 7 37 0 0.04881690
Link 15 14 56 0 0.25001340
Link 5 24 84 0 1.21078995
Link 24 8 85 0 -1.09075608
GenomeEnd

GenomeStart 6765
Genome Fitness: 471.000000 
Neuron 1 1 0.00000000 1 0.00000000 0.00000000 0.00000000 0.00000000
Neuron 2 1 0.00000000 1 0.00000000 0.00000000 0.00000000 0.00000000
Neuron 3 1 0.00000000 1 0.00000000 0.00000000 0.00000000 0.00000000
Neuron 4 1 0.00000000 1 0.00000000 0.00000000 0.00000000 0.00000000
Neuron 5 1 0.00000000 1 0.00000000 0.00000000 0.00000000 0.00000000
Neuron 6 2 0.00000000 1 0.00000000 0.00000000 0.00000000 0.00000000
Neuron 7 4 1.00000000 2 3.02500000 0.00000000 0.00000000 0.00000000
Neuron 8 4 1.00000000 2 3.02500000 0.00000000 0.00000000 0.00000000
Link 1 7 1 0 0.11554233
Link 2 7 2 0 0.34950124
Link 3 7 3 0 -0.00626154
Link 4 7 4 0 0.00399734
Link 5 7 5 0 0.03011354
Link 6 7 6 0 0.67882786
Link 1 8 7 0 -0.57044885
Link 2 8 8 0 0.22644514
Link 3 8 9 0 0.06178399
Link 4 8 10 0 0.15064299
Link 5 8 11 0 -0.70634770
Link 6 8 12 0 0.08724744
GenomeEnd

GenomeStart 6766
Genome Fitness: 471.000000 
Neuron 1 1 0.00000000 1 0.00000000 0.00000000 0.00000000 0.00000000
Neuron 2 1 0.00000000 1 0.00000000 0.00000000 0.00000000 0.00000000
Neuron 3 1 0.00000000 1 0.00000000 0.00000000 0.00000000 0.00000000
Neuron 4 1 0.00000000 1 0.00000000 0.00000000 0.00000000 0.00000000
Neuron 5 1 0.00000000 1 0.00000000 0.00000000 0.00000000 0.00000000
Neuron 6 2 0.00000000 1 0.00000000 0.00000000 0.00000000 0.00000000
Neuron 7 4 1.00000000 2 3.02500000 0.00000000 0.00000000 0.00000000
Neuron 8 4 1.00000000 2 3.02500000 0.00000000 0.00000000 0.00000000
Link 1 7 1 0 0.15573865
Link 2 7 2 0 0.34950124
Link 3 7 3 0 -0.04611911
Link 4 7 4 0 0.00399734
Link 5 7 5 0 0.03011354
Link 6 7 6 0 0.67882786
Link 1 8 7 0 -0.57044885
Link 2 8 8 0 0.22644514
Link 3 8 9 0 0.06178399
Link 4 8 10 0 0.15064299
Link 5 8 11 0 -0.70634770
Link 6 8 12 0 0.08724744
GenomeEnd

GenomeStart 6767
Genome Fitness: 173.000000 
Neuron 1 1 0.00000000 1 0.00000000 0.00000000 0.00000000 0.00000000
Neuron 2 1 0.00000000 1 0.00000000 0.00000000 0.00000000 0.00000000
Neuron 3 1 0.00000000 1 0.00000000 0.00000000 0.00000000 0.00000000
Neuron 4 1 0.00000000 1 0.00000000 0.00000000 0.00000000 0.00000000
Neuron 5 1 0.00000000 1 0.00000000 0.00000000 0.00000000 0.00000000
Neuron 6 2 0.00000000 1 0.00000000 0.00000000 0.00000000 0.00000000
Neuron 7 4 1.00000000 2 3.02500000 0.00000000 0.00000000 0.00000000
Neuron 8 4 1.00000000 2 3.02500000 0.00000000 0.00000000 0.00000000
Link 1 7 1 0 0.16560401
Link 2 7 2 0 0.39159424
Link 3 7 3 0 -0.08742969
Link 4 7 4 0 0.01585030
Link 5 7 5 0 0.02531275
Link 6 7 6 0 0.57817678
Link 1 8 7 0 -0.50544638
Link 2 8 8 0 0.18786834
Link 3 8 9 0 0.11711911
Link 4 8 10 0 0.26226359
Link 5 8 11 0 -0.78769154
Link 6 8 12 0 -0.03232100
GenomeEnd

GenomeStart 6768
Genome Fitness: 471.000000 
Neuron 1 1 0.00000000 1 0.00000000 0.00000000 0.00000000 0.00000000
Neuron 2 1 0.00000000 1 0.00000000 0.00000000 0.00000000 0.00000000
Neuron 3 1 0.00000000 1 0.00000000 0.00000000 0.00000000 0.00000000
Neuron 4 1 0.00000000 1 0.00000000 0.00000000 0.00000000 0.00000000
Neuron 5 1 0.00000000 1 0.00000000 0.00000000 0.00000000 0.00000000
Neuron 6 2 0.00000000 1 0.00000000 0.00000000 0.00000000 0.00000000
Neuron 7 4 1.00000000 2 3.02500000 0.00000000 0.00000000 0.00000000
Neuron 8 4 1.00000000 2 3.02500000 0.00000000 0.00000000 0.00000000
Link 1 7 1 0 0.13564049
Link 2 7 2 0 0.34950124
Link 3 7 3 0 -0.02619033
Link 4 7 4 0 0.00399734
Link 5 7 5 0 0.03011354
Link 6 7 6 0 0.67882786
Link 1 8 7 0 -0.57044885
Link 2 8 8 0 0.22644514
Link 3 8 9 0 0.06178399
Link 4 8 10 0 0.15064299
Link 5 8 11 0 -0.70634770
Link 6 8 12 0 0.08724744
GenomeEnd

GenomeStart 6769
Genome Fitness: 179.000000 
Neuron 1 1 0.00000000 1 0.00000000 0.00000000 0.00000000 0.00000000
Neuron 2 1 0.00000000 1 0.00000000 0.00000000 0.00000000 0.00000000
Neuron 3 1 0.00000000 1 0.00000000 0.00000000 0.00000000 0.00000000
Neuron 4 1 0.00000000 1 0.00000000 0.00000000 0.00000000 0.00000000
Neuron 5 1 0.00000000 1 0.00000000 0.00000000 0.00000000 0.00000000
Neuron 6 2 0.00000000 1 0.00000000 0.00000000 0.00000000 0.00000000
Neuron 7 4 1.00000000 2 3.02500000 0.00000000 0.00000000 0.00000000
Neuron 8 4 1.00000000 2 3.02500000 0.00000000 0.00000000 0.00000000
Link 1 7 1 0 0.15514771
Link 2 7 2 0 0.33336353
Link 3 7 3 0 0.08868563
Link 4 7 4 0 0.00399734
Link 5 7 5 0 -0.13845834
Link 6 7 6 0 0.62570204
Link 1 8 7 0 -0.52534684
Link 2 8 8 0 0.24108833
Link 3 8 9 0 0.10145517
Link 4 8 10 0 0.01658857
Link 5 8 11 0 -0.71296665
Link 6 8 12 0 0.08393840
GenomeEnd

GenomeStart 6770
Genome Fitness: 471.000000 
Neuron 1 1 0.00000000 1 0.00000000 0.00000000 0.00000000 0.00000000
Neuron 2 1 0.00000000 1 0.00000000 0.00000000 0.00000000 0.00000000
Neuron 3 1 0.00000000 1 0.00000000 0.00000000 0.00000000 0.00000000
Neuron 4 1 0.00000000 1 0.00000000 0.00000000 0.00000000 0.00000000
Neuron 5 1 0.00000000 1 0.00000000 0.00000000 0.00000000 0.00000000
Neuron 6 2 0.00000000 1 0.00000000 0.00000000 0.00000000 0.00000000
Neuron 7 4 1.00000000 2 3.02500000 0.00000000 0.00000000 0.00000000
Neuron 8 4 1.00000000 2 3.02500000 0.00000000 0.00000000 0.00000000
Link 1 7 1 0 0.15573865
Link 2 7 2 0 0.34950124
Link 3 7 3 0 -0.00626154
Link 4 7 4 0 0.00399734
Link 5 7 5 0 0.03011354
Link 6 7 6 0 0.67882786
Link 1 8 7 0 -0.57044885
Link 2 8 8 0 0.22644514
Link 3 8 9 0 0.06178399
Link 4 8 10 0 0.15064299
Link 5 8 11 0 -0.70634770
Link 6 8 12 0 0.08724744
GenomeEnd

GenomeStart 6771
Genome Fitness: 448.000000 
Neuron 1 1 0.00000000 1 0.00000000 0.00000000 0.00000000 0.00000000
Neuron 2 1 0.00000000 1 0.00000000 0.00000000 0.00000000 0.00000000
Neuron 3 1 0.00000000 1 0.00000000 0.00000000 0.00000000 0.00000000
Neuron 4 1 0.00000000 1 0.00000000 0.00000000 0.00000000 0.00000000
Neuron 5 1 0.00000000 1 0.00000000 0.00000000 0.00000000 0.00000000
Neuron 6 2 0.00000000 1 0.00000000 0.00000000 0.00000000 0.00000000
Neuron 7 4 1.00000000 2 3.02500000 0.00000000 0.00000000 0.00000000
Neuron 8 4 1.00000000 2 3.02500000 0.00000000 0.00000000 0.00000000
Neuron 9 3 0.50000000 11 5.89185529 0.00000000 0.00000000 0.00000000
Neuron 11 3 0.50000000 10 4.25892257 0.00000000 0.00000000 0.00000000
Neuron 13 3 0.75000000 1 3.85227799 0.00000000 0.00000000 0.00000000
Neuron 17 3 0.50000000 9 4.72245187 0.00000000 0.00000000 0.00000000
Link 1 7 1 0 0.26541794
Link 2 7 2 0 0.39215826
Link 4 7 4 0 -0.12312051
Link 5 7 5 0 -0.23272296
Link 6 7 6 0 -0.19264943
Link 1 8 7 0 -0.07856900
Link 4 8 10 0 0.16236336
Link 5 8 11 0 -0.22981888
Link 6 8 12 0 0.21510108
Link 2 9 14 0 0.97659379
Link 3 11 20 0 1.00000000
Link 11 8 21 0 0.82119688
Link 9 13 26 0 1.13997249
Link 13 8 27 0 -0.43992156
Link 3 17 45 0 1.00318704
Link 17 7 46 0 -0.05530094
GenomeEnd

GenomeStart 6772
Genome Fitness: 448.000000 
Neuron 1 1 0.00000000 1 0.00000000 0.00000000 0.00000000 0.00000000
Neuron 2 1 0.00000000 1 0.00000000 0.00000000 0.00000000 0.00000000
Neuron 3 1 0.00000000 1 0.00000000 0.00000000 0.00000000 0.00000000
Neuron 4 1 0.00000000 1 0.00000000 0.00000000 0.00000000 0.00000000
Neuron 5 1 0.00000000 1 0.00000000 0.00000000 0.00000000 0.00000000
Neuron 6 2 0.00000000 1 0.00000000 0.00000000 0.00000000 0.00000000
Neuron 7 4 1.00000000 2 3.02500000 0.00000000 0.00000000 0.00000000
Neuron 8 4 1.00000000 2 3.02500000 0.00000000 0.00000000 0.00000000
Neuron 9 3 0.50000000 11 5.89185529 0.00000000 0.00000000 0.00000000
Neuron 11 3 0.50000000 10 4.25892257 0.00000000 0.00000000 0.00000000
Neuron 13 3 0.75000000 1 3.85227799 0.00000000 0.00000000 0.00000000
Neuron 17 3 0.50000000 9 4.72245187 0.00000000 0.00000000 0.00000000
Link 1 7 1 0 0.26541794
Link 2 7 2 0 0.39215826
Link 4 7 4 0 -0.12312051
Link 5 7 5 0 -0.23272296
Link 6 7 6 0 -0.19264943
Link 1 8 7 0 -0.07856900
Link 4 8 10 0 0.16236336
Link 5 8 11 0 -0.22981888
Link 6 8 12 0 0.21510108
Link 2 9 14 0 0.97659379
Link 3 11 20 0 1.00000000
Link 11 8 21 0 0.82119688
Link 9 13 26 0 1.13997249
Link 13 8 27 0 -0.43992156
Link 3 17 45 0 1.00318704
Link 17 7 46 0 -0.05530094
GenomeEnd

GenomeStart 6773
Genome Fitness: 250.000000 
Neuron 1 1 0.00000000 1 0.00000000 0.00000000 0.00000000 0.00000000
Neuron 2 1 0.00000000 1 0.00000000 0.00000000 0.00000000 0.00000000
Neuron 3 1 0.00000000 1 0.00000000 0.00000000 0.00000000 0.00000000
Neuron 4 1 0.00000000 1 0.00000000 0.00000000 0.00000000 0.00000000
Neuron 5 1 0.00000000 1 0.00000000 0.00000000 0.00000000 0.00000000
Neuron 6 2 0.00000000 1 0.00000000 0.00000000 0.00000000 0.00000000
Neuron 7 4 1.00000000 2 3.02500000 0.00000000 0.00000000 0.00000000
Neuron 8 4 1.00000000 2 3.02500000 0.00000000 0.00000000 0.00000000
Neuron 9 3 0.50000000 11 5.89185529 0.00000000 0.00000000 0.00000000
Neuron 11 3 0.50000000 10 4.25892257 0.00000000 0.00000000 0.00000000
Neuron 13 3 0.75000000 1 3.85227799 0.00000000 0.00000000 0.00000000
Neuron 17 3 0.50000000 9 4.72245187 0.00000000 0.00000000 0.00000000
Link 1 7 1 0 0.30484695
Link 2 7 2 0 0.26686686
Link 4 7 4 0 -0.21429120
Link 5 7 5 0 -0.32411596
Link 6 7 6 0 -0.21528757
Link 1 8 7 0 -0.08068703
Link 4 8 10 0 0.23271900
Link 5 8 11 0 -0.24762579
Link 6 8 12 0 0.29214927
Link 2 9 14 0 1.01926374
Link 3 11 20 0 0.97420211
Link 11 8 21 0 0.94784768
Link 9 13 26 0 1.15450172
Link 13 8 27 0 -0.41764211
Link 3 17 45 0 0.91323882
Link 17 7 46 0 -0.16379825
GenomeEnd

GenomeStart 6774
Genome Fitness: 201.000000 
Neuron 1 1 0.00000000 1 0.00000000 0.00000000 0.00000000 0.00000000
Neuron 2 1 0.00000000 1 0.00000000 0.00000000 0.00000000 0.00000000
Neuron 3 1 0.00000000 1 0.00000000 0.00000000 0.00000000 0.00000000
Neuron 4 1 0.00000000 1 0.00000000 0.00000000 0.00000000 0.00000000
Neuron 5 1 0.00000000 1 0.00000000 0.00000000 0.00000000 0.00000000
Neuron 6 2 0.00000000 1 0.00000000 0.00000000 0.00000000 0.00000000
Neuron 7 4 1.00000000 2 3.02500000 0.00000000 0.00000000 0.00000000
Neuron 8 4 1.00000000 2 3.02500000 0.00000000 0.00000000 0.00000000
Neuron 9 3 0.50000000 11 5.89185529 0.00000000 0.00000000 0.00000000
Neuron 11 3 0.50000000 10 4.25892257 0.00000000 0.00000000 0.00000000
Neuron 13 3 0.75000000 1 3.85227799 0.00000000 0.00000000 0.00000000
Neuron 17 3 0.50000000 9 4.72245187 0.00000000 0.00000000 0.00000000
Link 1 7 1 0 0.43966851
Link 2 7 2 0 0.39689354
Link 4 7 4 0 0.01985051
Link 5 7 5 0 -0.25619670
Link 6 7 6 0 -0.22934559
Link 1 8 7 0 -0.27313741
Link 4 8 10 0 0.05097433
Link 5 8 11 0 -0.28522449
Link 6 8 12 0 0.35928626
Link 2 9 14 0 0.85884609
Link 3 11 20 0 0.90708397
Link 11 8 21 0 0.99471707
Link 9 13 26 0 1.27965847
Link 13 8 27 0 -0.33902320
Link 3 17 45 0 1.05508553
Link 17 7 46 0 -0.08842297
GenomeEnd

GenomeStart 6775
Genome Fitness: 156.000000 
Neuron 1 1 0.00000000 1 0.00000000 0.00000000 0.00000000 0.00000000
Neuron 2 1 0.00000000 1 0.00000000 0.00000000 0.00000000 0.00000000
Neuron 3 1 0.00000000 1 0.00000000 0.00000000 0.00000000 0.00000000
Neuron 4 1 0.00000000 1 0.00000000 0.00000000 0.00000000 0.00000000
Neuron 5 1 0.00000000 1 0.00000000 0.00000000 0.00000000 0.00000000
Neuron 6 2 0.00000000 1 0.00000000 0.00000000 0.00000000 0.00000000
Neuron 7 4 1.00000000 2 3.02500000 0.00000000 0.00000000 0.00000000
Neuron 8 4 1.00000000 2 3.02500000 0.00000000 0.00000000 0.00000000
Neuron 9 3 0.50000000 11 5.89185529 0.00000000 0.00000000 0.00000000
Neuron 11 3 0.50000000 10 4.25892257 0.00000000 0.00000000 0.00000000
Neuron 13 3 0.75000000 1 3.85227799 0.00000000 0.00000000 0.00000000
Neuron 17 3 0.50000000 9 4.72245187 0.00000000 0.00000000 0.00000000
Link 1 7 1 0 0.33338030
Link 2 7 2 0 0.53908835
Link 4 7 4 0 -0.23522424
Link 5 7 5 0 -0.13234965
Link 6 7 6 0 -0.21854467
Link 1 8 7 0 -0.04709964
Link 4 8 10 0 0.09528216
Link 5 8 11 0 -0.28841702
Link 6 8 12 0 0.14500209
Link 2 9 14 0 0.99529917
Link 3 11 20 0 1.02698337
Link 11 8 21 0 0.94234135
Link 9 13 26 0 1.22628521
Link 13 8 27 0 -0.45134497
Link 3 17 45 0 0.88448275
Link 17 7 46 0 -0.05794713
GenomeEnd

GenomeStart 6776
Genome Fitness: 448.000000 
Neuron 1 1 0.00000000 1 0.00000000 0.00000000 0.00000000 0.00000000
Neuron 2 1 0.00000000 1 0.00000000 0.00000000 0.00000000 0.00000000
Neuron 3 1 0.00000000 1 0.00000000 0.00000000 0.00000000 0.00000000
Neuron 4 1 0.00000000 1 0.00000000 0.00000000 0.00000000 0.00000000
Neuron 5 1 0.00000000 1 0.00000000 0.00000000 0.00000000 0.00000000
Neuron 6 2 0.00000000 1 0.00000000 0.00000000 0.00000000 0.00000000
Neuron 7 4 1.00000000 2 3.02500000 0.00000000 0.00000000 0.00000000
Neuron 8 4 1.00000000 2 3.02500000 0.00000000 0.00000000 0.00000000
Neuron 9 3 0.50000000 11 5.89185529 0.00000000 0.00000000 0.00000000
Neuron 11 3 0.50000000 10 4.25892257 0.00000000 0.00000000 0.00000000
Neuron 13 3 0.75000000 1 3.85227799 0.00000000 0.00000000 0.00000000
Neuron 17 3 0.50000000 9 4.72245187 0.00000000 0.00000000 0.00000000
Link 1 7 1 0 0.26541794
Link 2 7 2 0 0.39215826
Link 4 7 4 0 -0.12312051
Link 5 7 5 0 -0.23272296
Link 6 7 6 0 -0.19264943
Link 1 8 7 0 -0.07856900
Link 4 8 10 0 0.16236336
Link 5 8 11 0 -0.22981888
Link 6 8 12 0 0.21510108
Link 2 9 14 0 0.97659379
Link 3 11 20 0 1.00000000
Link 11 8 21 0 0.82119688
Link 9 13 26 0 1.13997249
Link 13 8 27 0 -0.43992156
Link 3 17 45 0 1.00318704
Link 17 7 46 0 -0.05530094
GenomeEnd

GenomeStart 6777
Genome Fitness: 448.000000 
Neuron 1 1 0.00000000 1 0.00000000 0.00000000 0.00000000 0.00000000
Neuron 2 1 0.00000000 1 0.00000000 0.00000000 0.00000000 0.00000000
Neuron 3 1 0.00000000 1 0.00000000 0.00000000 0.00000000 0.00000000
Neuron 4 1 0.00000000 1 0.00000000 0.00000000 0.00000000 0.00000000
Neuron 5 1 0.00000000 1 0.00000000 0.00000000 0.00000000 0.00000000
Neuron 6 2 0.00000000 1 0.00000000 0.00000000 0.00000000 0.00000000
Neuron 7 4 1.00000000 2 3.02500000 0.00000000 0.00000000 0.00000000
Neuron 8 4 1.00000000 2 3.02500000 0.00000000 0.00000000 0.00000000
Neuron 9 3 0.50000000 11 5.89185529 0.00000000 0.00000000 0.00000000
Neuron 11 3 0.50000000 10 4.25892257 0.00000000 0.00000000 0.00000000
Neuron 13 3 0.75000000 1 3.85227799 0.00000000 0.00000000 0.00000000
Neuron 17 3 0.50000000 9 4.72245187 0.00000000 0.00000000 0.00000000
Link 1 7 1 0 0.26541794
Link 2 7 2 0 0.39215826
Link 4 7 4 0 -0.12312051
Link 5 7 5 0 -0.23272296
Link 6 7 6 0 -0.19264943
Link 1 8 7 0 -0.07856900
Link 4 8 10 0 0.16236336
Link 5 8 11 0 -0.22981888
Link 6 8 12 0 0.21510108
Link 2 9 14 0 0.97659379
Link 3 11 20 0 1.00000000
Link 11 8 21 0 0.82119688
Link 9 13 26 0 1.13997249
Link 13 8 27 0 -0.43992156
Link 3 17 45 0 1.00318704
Link 17 7 46 0 -0.05530094
GenomeEnd

GenomeStart 6778
Genome Fitness: 448.000000 
Neuron 1 1 0.00000000 1 0.00000000 0.00000000 0.00000000 0.00000000
Neuron 2 1 0.00000000 1 0.00000000 0.00000000 0.00000000 0.00000000
Neuron 3 1 0.00000000 1 0.00000000 0.00000000 0.00000000 0.00000000
Neuron 4 1 0.00000000 1 0.00000000 0.00000000 0.00000000 0.00000000
Neuron 5 1 0.00000000 1 0.00000000 0.00000000 0.00000000 0.00000000
Neuron 6 2 0.00000000 1 0.00000000 0.00000000 0.00000000 0.00000000
Neuron 7 4 1.00000000 2 3.02500000 0.00000000 0.00000000 0.00000000
Neuron 8 4 1.00000000 2 3.02500000 0.00000000 0.00000000 0.00000000
Neuron 9 3 0.50000000 11 5.89185529 0.00000000 0.00000000 0.00000000
Neuron 11 3 0.50000000 10 4.25892257 0.00000000 0.00000000 0.00000000
Neuron 13 3 0.75000000 1 3.85227799 0.00000000 0.00000000 0.00000000
Neuron 17 3 0.50000000 9 4.72245187 0.00000000 0.00000000 0.00000000
Link 1 7 1 0 0.26541794
Link 2 7 2 0 0.39215826
Link 4 7 4 0 -0.12312051
Link 5 7 5 0 -0.23272296
Link 6 7 6 0 -0.19264943
Link 1 8 7 0 -0.07856900
Link 4 8 10 0 0.16236336
Link 5 8 11 0 -0.22981888
Link 6 8 12 0 0.21510108
Link 2 9 14 0 0.97659379
Link 3 11 20 0 1.00000000
Link 11 8 21 0 0.82119688
Link 9 13 26 0 1.13997249
Link 13 8 27 0 -0.43992156
Link 3 17 45 0 1.00318704
Link 17 7 46 0 -0.05530094
GenomeEnd

GenomeStart 6779
Genome Fitness: 448.000000 
Neuron 1 1 0.00000000 1 0.00000000 0.00000000 0.00000000 0.00000000
Neuron 2 1 0.00000000 1 0.00000000 0.00000000 0.00000000 0.00000000
Neuron 3 1 0.00000000 1 0.00000000 0.00000000 0.00000000 0.00000000
Neuron 4 1 0.00000000 1 0.00000000 0.00000000 0.00000000 0.00000000
Neuron 5 1 0.00000000 1 0.00000000 0.00000000 0.00000000 0.00000000
Neuron 6 2 0.00000000 1 0.00000000 0.00000000 0.00000000 0.00000000
Neuron 7 4 1.00000000 2 3.02500000 0.00000000 0.00000000 0.00000000
Neuron 8 4 1.00000000 2 3.02500000 0.00000000 0.00000000 0.00000000
Neuron 9 3 0.50000000 11 5.89185529 0.00000000 0.00000000 0.00000000
Neuron 11 3 0.50000000 10 4.25892257 0.00000000 0.00000000 0.00000000
Neuron 13 3 0.75000000 1 3.85227799 0.00000000 0.00000000 0.00000000
Neuron 17 3 0.50000000 9 4.72245187 0.00000000 0.00000000 0.00000000
Link 1 7 1 0 0.26541794
Link 2 7 2 0 0.39215826
Link 4 7 4 0 -0.12312051
Link 5 7 5 0 -0.23272296
Link 6 7 6 0 -0.19264943
Link 1 8 7 0 -0.07856900
Link 4 8 10 0 0.16236336
Link 5 8 11 0 -0.22981888
Link 6 8 12 0 0.21510108
Link 2 9 14 0 0.97659379
Link 3 11 20 0 1.00000000
Link 11 8 21 0 0.82119688
Link 9 13 26 0 1.13997249
Link 13 8 27 0 -0.43992156
Link 3 17 45 0 1.00318704
Link 17 7 46 0 -0.05530094
Link 5 13 152 0 0.24157721
GenomeEnd

GenomeStart 6780
Genome Fitness: 440.000000 
Neuron 1 1 0.00000000 1 0.00000000 0.00000000 0.00000000 0.00000000
Neuron 2 1 0.00000000 1 0.00000000 0.00000000 0.00000000 0.00000000
Neuron 3 1 0.00000000 1 0.00000000 0.00000000 0.00000000 0.00000000
Neuron 4 1 0.00000000 1 0.00000000 0.00000000 0.00000000 0.00000000
Neuron 5 1 0.00000000 1 0.00000000 0.00000000 0.00000000 0.00000000
Neuron 6 2 0.00000000 1 0.00000000 0.00000000 0.00000000 0.00000000
Neuron 7 4 1.00000000 2 3.02500000 0.00000000 0.00000000 0.00000000
Neuron 8 4 1.00000000 2 3.02500000 0.00000000 0.00000000 0.00000000
Neuron 11 3 0.50000000 4 3.75850292 0.00000000 0.00000000 0.00000000
Neuron 14 3 0.75000000 6 1.39090960 0.00000000 0.00000000 0.00000000
Link 1 7 1 0 0.25486164
Link 2 7 2 0 0.08495006
Link 3 7 3 0 -0.06496323
Link 4 7 4 0 0.04532324
Link 5 7 5 0 0.35007697
Link 6 7 6 0 0.54854243
Link 1 8 7 0 0.13682900
Link 2 8 8 0 0.39960327
Link 4 8 10 0 0.30227038
Link 5 8 11 0 -1.03469721
Link 6 8 12 0 0.48135452
Link 3 11 20 0 1.13877403
Link 11 14 30 0 1.02413256
Link 14 8 31 0 0.51923488
GenomeEnd

GenomeStart 6781
Genome Fitness: 440.000000 
Neuron 1 1 0.00000000 1 0.00000000 0.00000000 0.00000000 0.00000000
Neuron 2 1 0.00000000 1 0.00000000 0.00000000 0.00000000 0.00000000
Neuron 3 1 0.00000000 1 0.00000000 0.00000000 0.00000000 0.00000000
Neuron 4 1 0.00000000 1 0.00000000 0.00000000 0.00000000 0.00000000
Neuron 5 1 0.00000000 1 0.00000000 0.00000000 0.00000000 0.00000000
Neuron 6 2 0.00000000 1 0.00000000 0.00000000 0.00000000 0.00000000
Neuron 7 4 1.00000000 2 3.02500000 0.00000000 0.00000000 0.00000000
Neuron 8 4 1.00000000 2 3.02500000 0.00000000 0.00000000 0.00000000
Neuron 11 3 0.50000000 4 3.75850292 0.00000000 0.00000000 0.00000000
Neuron 14 3 0.75000000 6 1.39090960 0.00000000 0.00000000 0.00000000
Link 1 7 1 0 0.25486164
Link 2 7 2 0 0.08495006
Link 3 7 3 0 -0.06496323
Link 4 7 4 0 0.04532324
Link 5 7 5 0 0.35007697
Link 6 7 6 0 0.54854243
Link 1 8 7 0 0.13682900
Link 2 8 8 0 0.39960327
Link 4 8 10 0 0.30227038
Link 5 8 11 0 -1.03469721
Link 6 8 12 0 0.48135452
Link 3 11 20 0 1.13877403
Link 11 14 30 0 1.02413256
Link 14 8 31 0 0.51923488
GenomeEnd

GenomeStart 6782
Genome Fitness: 200.000000 
Neuron 1 1 0.00000000 1 0.00000000 0.00000000 0.00000000 0.00000000
Neuron 2 1 0.00000000 1 0.00000000 0.00000000 0.00000000 0.00000000
Neuron 3 1 0.00000000 1 0.00000000 0.00000000 0.00000000 0.00000000
Neuron 4 1 0.00000000 1 0.00000000 0.00000000 0.00000000 0.00000000
Neuron 5 1 0.00000000 1 0.00000000 0.00000000 0.00000000 0.00000000
Neuron 6 2 0.00000000 1 0.00000000 0.00000000 0.00000000 0.00000000
Neuron 7 4 1.00000000 2 3.02500000 0.00000000 0.00000000 0.00000000
Neuron 8 4 1.00000000 2 3.02500000 0.00000000 0.00000000 0.00000000
Neuron 11 3 0.50000000 4 3.75850292 0.00000000 0.00000000 0.00000000
Neuron 14 3 0.75000000 6 1.39090960 0.00000000 0.00000000 0.00000000
Link 1 7 1 0 0.33550344
Link 2 7 2 0 0.22268698
Link 3 7 3 0 0.03031391
Link 4 7 4 0 0.08512794
Link 5 7 5 0 0.44589961
Link 6 7 6 0 0.56811699
Link 1 8 7 0 0.02991578
Link 2 8 8 0 0.46990483
Link 4 8 10 0 0.18272443
Link 5 8 11 0 -0.99314434
Link 6 8 12 0 0.63086533
Link 3 11 20 0 1.16418096
Link 11 14 30 0 1.06006960
Link 14 8 31 0 0.52348040
GenomeEnd

GenomeStart 6783
Genome Fitness: 271.000000 
Neuron 1 1 0.00000000 1 0.00000000 0.00000000 0.00000000 0.00000000
Neuron 2 1 0.00000000 1 0.00000000 0.00000000 0.00000000 0.00000000
Neuron 3 1 0.00000000 1 0.00000000 0.00000000 0.00000000 0.00000000
Neuron 4 1 0.00000000 1 0.00000000 0.00000000 0.00000000 0.00000000
Neuron 5 1 0.00000000 1 0.00000000 0.00000000 0.00000000 0.00000000
Neuron 6 2 0.00000000 1 0.00000000 0.00000000 0.00000000 0.00000000
Neuron 7 4 1.00000000 2 3.02500000 0.00000000 0.00000000 0.00000000
Neuron 8 4 1.00000000 2 3.02500000 0.00000000 0.00000000 0.00000000
Neuron 11 3 0.50000000 4 3.75850292 0.00000000 0.00000000 0.00000000
Neuron 14 3 0.75000000 6 1.39090960 0.00000000 0.00000000 0.00000000
Link 1 7 1 0 0.17681875
Link 2 7 2 0 0.00841998
Link 3 7 3 0 -0.00416128
Link 4 7 4 0 0.11235475
Link 5 7 5 0 0.38727696
Link 6 7 6 0 0.36726981
Link 1 8 7 0 0.21424113
Link 2 8 8 0 0.35302210
Link 4 8 10 0 0.37810347
Link 5 8 11 0 -0.96260861
Link 6 8 12 0 0.62802130
Link 3 11 20 0 1.06301905
Link 11 14 30 0 0.90956509
Link 14 8 31 0 0.56009934
GenomeEnd

GenomeStart 6784
Genome Fitness: 200.000000 
Neuron 1 1 0.00000000 1 0.00000000 0.00000000 0.00000000 0.00000000
Neuron 2 1 0.00000000 1 0.00000000 0.00000000 0.00000000 0.00000000
Neuron 3 1 0.00000000 1 0.00000000 0.00000000 0.00000000 0.00000000
Neuron 4 1 0.00000000 1 0.00000000 0.00000000 0.00000000 0.00000000
Neuron 5 1 0.00000000 1 0.00000000 0.00000000 0.00000000 0.00000000
Neuron 6 2 0.00000000 1 0.00000000 0.00000000 0.00000000 0.00000000
Neuron 7 4 1.00000000 2 3.02500000 0.00000000 0.00000000 0.00000000
Neuron 8 4 1.00000000 2 3.02500000 0.00000000 0.00000000 0.00000000
Neuron 11 3 0.50000000 4 3.75850292 0.00000000 0.00000000 0.00000000
Neuron 14 3 0.75000000 6 1.39090960 0.00000000 0.00000000 0.00000000
Link 1 7 1 0 0.36943649
Link 2 7 2 0 0.03459828
Link 3 7 3 0 -0.08244145
Link 4 7 4 0 -0.01309722
Link 5 7 5 0 0.40864228
Link 6 7 6 0 0.64463244
Link 1 8 7 0 0.12136210
Link 2 8 8 0 0.37153400
Link 4 8 10 0 0.37465747
Link 5 8 11 0 -0.95860212
Link 6 8 12 0 0.43129408
Link 3 11 20 0 1.18513567
Link 11 14 30 0 1.09582877
Link 14 8 31 0 0.53912996
GenomeEnd

GenomeStart 6785
Genome Fitness: 201.000000 
Neuron 1 1 0.00000000 1 0.00000000 0.00000000 0.00000000 0.00000000
Neuron 2 1 0.00000000 1 0.00000000 0.00000000 0.00000000 0.00000000
Neuron 3 1 0.00000000 1 0.00000000 0.00000000 0.00000000 0.00000000
Neuron 4 1 0.00000000 1 0.00000000 0.00000000 0.00000000 0.00000000
Neuron 5 1 0.00000000 1 0.00000000 0.00000000 0.00000000 0.00000000
Neuron 6 2 0.00000000 1 0.00000000 0.00000000 0.00000000 0.00000000
Neuron 7 4 1.00000000 2 3.02500000 0.00000000 0.00000000 0.00000000
Neuron 8 4 1.00000000 2 3.02500000 0.00000000 0.00000000 0.00000000
Neuron 11 3 0.50000000 4 3.75850292 0.00000000 0.00000000 0.00000000
Neuron 14 3 0.75000000 6 1.39090960 0.00000000 0.00000000 0.00000000
Link 1 7 1 0 0.40443878
Link 2 7 2 0 0.16129033
Link 3 7 3 0 -0.13239280
Link 4 7 4 0 0.06951379
Link 5 7 5 0 0.39135253
Link 6 7 6 0 0.53885187
Link 1 8 7 0 0.21681623
Link 2 8 8 0 0.40983093
Link 4 8 10 0 0.33648139
Link 5 8 11 0 -0.88128786
Link 6 8 12 0 0.52559012
Link 3 11 20 0 1.09341862
Link 11 14 30 0 1.00322333
Link 14 8 31 0 0.61322461
GenomeEnd

GenomeStart 6786
Genome Fitness: 200.000000 
Neuron 1 1 0.00000000 1 0.00000000 0.00000000 0.00000000 0.00000000
Neuron 2 1 0.00000000 1 0.00000000 0.00000000 0.00000000 0.00000000
Neuron 3 1 0.00000000 1 0.00000000 0.00000000 0.00000000 0.00000000
Neuron 4 1 0.00000000 1 0.00000000 0.00000000 0.00000000 0.00000000
Neuron 5 1 0.00000000 1 0.00000000 0.00000000 0.00000000 0.00000000
Neuron 6 2 0.00000000 1 0.00000000 0.00000000 0.00000000 0.00000000
Neuron 7 4 1.00000000 2 3.02500000 0.00000000 0.00000000 0.00000000
Neuron 8 4 1.00000000 2 3.02500000 0.00000000 0.00000000 0.00000000
Neuron 11 3 0.50000000 4 3.75850292 0.00000000 0.00000000 0.00000000
Neuron 14 3 0.75000000 6 1.39090960 0.00000000 0.00000000 0.00000000
Link 1 7 1 0 0.39770599
Link 2 7 2 0 -0.05865914
Link 3 7 3 0 -0.14264599
Link 4 7 4 0 0.09034101
Link 5 7 5 0 0.43387726
Link 6 7 6 0 0.46846144
Link 1 8 7 0 0.08826237
Link 2 8 8 0 0.24048005
Link 4 8 10 0 0.30813101
Link 5 8 11 0 -0.99712989
Link 6 8 12 0 0.37574694
Link 3 11 20 0 1.20234205
Link 11 14 30 0 1.04115428
Link 14 8 31 0 0.68379200
GenomeEnd

GenomeStart 6787
Genome Fitness: 428.000000 
Neuron 1 1 0.00000000 1 0.00000000 0.00000000 0.00000000 0.00000000
Neuron 2 1 0.00000000 1 0.00000000 0.00000000 0.00000000 0.00000000
Neuron 3 1 0.00000000 1 0.00000000 0.00000000 0.00000000 0.00000000
Neuron 4 1 0.00000000 1 0.00000000 0.00000000 0.00000000 0.00000000
Neuron 5 1 0.00000000 1 0.00000000 0.00000000 0.00000000 0.00000000
Neuron 6 2 0.00000000 1 0.00000000 0.00000000 0.00000000 0.00000000
Neuron 7 4 1.00000000 2 3.02500000 0.00000000 0.00000000 0.00000000
Neuron 8 4 1.00000000 2 3.02500000 0.00000000 0.00000000 0.00000000
Neuron 11 3 0.50000000 4 3.75850292 0.00000000 0.00000000 0.00000000
Neuron 14 3 0.75000000 6 1.39090960 0.00000000 0.00000000 0.00000000
Link 1 7 1 0 -0.02847350
Link 2 7 2 0 0.05455461
Link 3 7 3 0 0.10851591
Link 4 7 4 0 0.21546251
Link 5 7 5 0 0.24788039
Link 6 7 6 0 0.68692685
Link 1 8 7 0 0.18643434
Link 2 8 8 0 0.36142881
Link 4 8 10 0 0.45850759
Link 5 8 11 0 -1.06125745
Link 6 8 12 0 -0.08780519
Link 3 11 20 0 1.17315168
Link 11 14 30 0 0.85261749
Link 14 8 31 0 0.07796195
Link 4 11 33 0 0.58415463
Link 4 14 43 0 0.27617206
Link 5 11 63 0 0.75825297
Link 6 14 67 0 0.31566375
GenomeEnd

GenomeStart 6788
Genome Fitness: 346.000000 
Neuron 1 1 0.00000000 1 0.00000000 0.00000000 0.00000000 0.00000000
Neuron 2 1 0.00000000 1 0.00000000 0.00000000 0.00000000 0.00000000
Neuron 3 1 0.00000000 1 0.00000000 0.00000000 0.00000000 0.00000000
Neuron 4 1 0.00000000 1 0.00000000 0.00000000 0.00000000 0.00000000
Neuron 5 1 0.00000000 1 0.00000000 0.00000000 0.00000000 0.00000000
Neuron 6 2 0.00000000 1 0.00000000 0.00000000 0.00000000 0.00000000
Neuron 7 4 1.00000000 2 3.02500000 0.00000000 0.00000000 0.00000000
Neuron 8 4 1.00000000 2 3.02500000 0.00000000 0.00000000 0.00000000
Neuron 11 3 0.50000000 4 3.75850292 0.00000000 0.00000000 0.00000000
Neuron 14 3 0.75000000 6 1.39090960 0.00000000 0.00000000 0.00000000
Link 1 7 1 0 -0.06603007
Link 2 7 2 0 0.21888212
Link 3 7 3 0 0.10851591
Link 4 7 4 0 0.21546251
Link 5 7 5 0 -0.55099609
Link 6 7 6 0 0.42192359
Link 1 8 7 0 -0.39403083
Link 2 8 8 0 0.47286832
Link 4 8 10 0 0.45960466
Link 5 8 11 0 -1.06125745
Link 6 8 12 0 -0.08780519
Link 3 11 20 0 1.17315168
Link 11 14 30 0 0.85261749
Link 14 8 31 0 0.07796195
Link 4 11 33 0 0.58415463
Link 4 14 43 0 0.27617206
Link 5 11 63 0 0.75825297
Link 6 14 67 0 0.31566375
GenomeEnd

GenomeStart 6789
Genome Fitness: 206.000000 
Neuron 1 1 0.00000000 1 0.00000000 0.00000000 0.00000000 0.00000000
Neuron 2 1 0.00000000 1 0.00000000 0.00000000 0.00000000 0.00000000
Neuron 3 1 0.00000000 1 0.00000000 0.00000000 0.00000000 0.00000000
Neuron 4 1 0.00000000 1 0.00000000 0.00000000 0.00000000 0.00000000
Neuron 5 1 0.00000000 1 0.00000000 0.00000000 0.00000000 0.00000000
Neuron 6 2 0.00000000 1 0.00000000 0.00000000 0.00000000 0.00000000
Neuron 7 4 1.00000000 2 3.02500000 0.00000000 0.00000000 0.00000000
Neuron 8 4 1.00000000 2 3.02500000 0.00000000 0.00000000 0.00000000
Neuron 11 3 0.50000000 4 3.75850292 0.00000000 0.00000000 0.00000000
Neuron 14 3 0.75000000 6 1.39090960 0.00000000 0.00000000 0.00000000
Link 1 7 1 0 -0.06311447
Link 2 7 2 0 0.01407592
Link 3 7 3 0 0.12379814
Link 4 7 4 0 0.30929969
Link 5 7 5 0 -0.55738536
Link 6 7 6 0 0.82547204
Link 1 8 7 0 -0.35078838
Link 2 8 8 0 0.47453417
Link 4 8 10 0 0.53206927
Link 5 8 11 0 -1.06017731
Link 6 8 12 0 -0.06570850
Link 3 11 20 0 1.11263239
Link 11 14 30 0 0.87008182
Link 14 8 31 0 0.03561981
Link 4 11 33 0 0.62710842
Link 4 14 43 0 0.16156405
Link 5 11 63 0 0.81051335
Link 6 14 67 0 0.32109481
GenomeEnd

GenomeStart 6790
Genome Fitness: 273.000000 
Neuron 1 1 0.00000000 1 0.00000000 0.00000000 0.00000000 0.00000000
Neuron 2 1 0.00000000 1 0.00000000 0.00000000 0.00000000 0.00000000
Neuron 3 1 0.00000000 1 0.00000000 0.00000000 0.00000000 0.00000000
Neuron 4 1 0.00000000 1 0.00000000 0.00000000 0.00000000 0.00000000
Neuron 5 1 0.00000000 1 0.00000000 0.00000000 0.00000000 0.00000000
Neuron 6 2 0.00000000 1 0.00000000 0.00000000 0.00000000 0.00000000
Neuron 7 4 1.00000000 2 3.02500000 0.00000000 0.00000000 0.00000000
Neuron 8 4 1.00000000 2 3.02500000 0.00000000 0.00000000 0.00000000
Neuron 11 3 0.50000000 4 3.75850292 0.00000000 0.00000000 0.00000000
Neuron 14 3 0.75000000 6 1.39090960 0.00000000 0.00000000 0.00000000
Link 1 7 1 0 -0.21119970
Link 2 7 2 0 0.14853101
Link 3 7 3 0 0.14729668
Link 4 7 4 0 0.24079463
Link 5 7 5 0 -0.03703558
Link 6 7 6 0 0.50220250
Link 1 8 7 0 0.28288668
Link 2 8 8 0 0.26493505
Link 4 8 10 0 0.45839704
Link 5 8 11 0 -1.03193874
Link 6 8 12 0 -0.03643602
Link 3 11 20 0 1.36572560
Link 11 14 30 0 1.09457185
Link 14 8 31 0 -0.11579476
Link 4 11 33 0 0.48444367
Link 4 14 43 0 0.19296701
Link 5 11 63 0 0.59944418
Link 6 14 67 0 0.21941353
GenomeEnd

GenomeStart 6791
Genome Fitness: 346.000000 
Neuron 1 1 0.00000000 1 0.00000000 0.00000000 0.00000000 0.00000000
Neuron 2 1 0.00000000 1 0.00000000 0.00000000 0.00000000 0.00000000
Neuron 3 1 0.00000000 1 0.00000000 0.00000000 0.00000000 0.00000000
Neuron 4 1 0.00000000 1 0.00000000 0.00000000 0.00000000 0.00000000
Neuron 5 1 0.00000000 1 0.00000000 0.00000000 0.00000000 0.00000000
Neuron 6 2 0.00000000 1 0.00000000 0.00000000 0.00000000 0.00000000
Neuron 7 4 1.00000000 2 3.02500000 0.00000000 0.00000000 0.00000000
Neuron 8 4 1.00000000 2 3.02500000 0.00000000 0.00000000 0.00000000
Neuron 11 3 0.50000000 4 3.75850292 0.00000000 0.00000000 0.00000000
Neuron 14 3 0.75000000 6 1.39090960 0.00000000 0.00000000 0.00000000
Link 1 7 1 0 -0.16115621
Link 2 7 2 0 0.10308361
Link 3 7 3 0 0.19615355
Link 4 7 4 0 0.23255017
Link 5 7 5 0 -0.08629793
Link 6 7 6 0 0.63336036
Link 1 8 7 0 0.00647710
Link 2 8 8 0 0.37718043
Link 4 8 10 0 0.47630659
Link 5 8 11 0 -1.08922184
Link 6 8 12 0 -0.11688351
Link 3 11 20 0 1.13366580
Link 11 14 30 0 0.82940913
Link 14 8 31 0 -0.05437659
Link 4 11 33 0 0.61554033
Link 4 14 43 0 0.18986574
Link 5 11 63 0 0.65972217
Link 6 14 67 0 0.32498690
GenomeEnd

GenomeStart 6792
Genome Fitness: 428.000000 
Neuron 1 1 0.00000000 1 0.00000000 0.00000000 0.00000000 0.00000000
Neuron 2 1 0.00000000 1 0.00000000 0.00000000 0.00000000 0.00000000
Neuron 3 1 0.00000000 1 0.00000000 0.00000000 0.00000000 0.00000000
Neuron 4 1 0.00000000 1 0.00000000 0.00000000 0.00000000 0.00000000
Neuron 5 1 0.00000000 1 0.00000000 0.00000000 0.00000000 0.00000000
Neuron 6 2 0.00000000 1 0.00000000 0.00000000 0.00000000 0.00000000
Neuron 7 4 1.00000000 2 3.02500000 0.00000000 0.00000000 0.00000000
Neuron 8 4 1.00000000 2 3.02500000 0.00000000 0.00000000 0.00000000
Neuron 11 3 0.50000000 4 3.75850292 0.00000000 0.00000000 0.00000000
Neuron 14 3 0.75000000 6 1.39090960 0.00000000 0.00000000 0.00000000
Link 1 7 1 0 -0.02847350
Link 2 7 2 0 0.05455461
Link 3 7 3 0 0.10851591
Link 4 7 4 0 0.21546251
Link 5 7 5 0 0.24788039
Link 6 7 6 0 0.68692685
Link 1 8 7 0 0.18643434
Link 2 8 8 0 0.36142881
Link 4 8 10 0 0.45850759
Link 5 8 11 0 -1.06125745
Link 6 8 12 0 -0.08780519
Link 3 11 20 0 1.17315168
Link 11 14 30 0 0.85261749
Link 14 8 31 0 0.07796195
Link 4 11 33 0 0.58415463
Link 4 14 43 0 0.27617206
Link 5 11 63 0 0.75825297
Link 6 14 67 0 0.31566375
Link 3 14 131 0 0.14476420
GenomeEnd

GenomeStart 6793
Genome Fitness: 427.000000 
Neuron 1 1 0.00000000 1 0.00000000 0.00000000 0.00000000 0.00000000
Neuron 2 1 0.00000000 1 0.00000000 0.00000000 0.00000000 0.00000000
Neuron 3 1 0.00000000 1 0.00000000 0.00000000 0.00000000 0.00000000
Neuron 4 1 0.00000000 1 0.00000000 0.00000000 0.00000000 0.00000000
Neuron 5 1 0.00000000 1 0.00000000 0.00000000 0.00000000 0.00000000
Neuron 6 2 0.00000000 1 0.00000000 0.00000000 0.00000000 0.00000000
Neuron 7 4 1.00000000 2 3.02500000 0.00000000 0.00000000 0.00000000
Neuron 8 4 1.00000000 2 3.02500000 0.00000000 0.00000000 0.00000000
Neuron 11 3 0.50000000 4 3.75850292 0.00000000 0.00000000 0.00000000
Neuron 14 3 0.75000000 6 1.39090960 0.00000000 0.00000000 0.00000000
Neuron 18 3 0.50000000 1 3.35266199 0.00000000 0.00000000 0.00000000
Link 2 7 2 0 0.06442024
Link 3 7 3 0 0.10519192
Link 4 7 4 0 0.02775500
Link 5 7 5 0 0.21021877
Link 6 7 6 0 0.78015270
Link 1 8 7 0 0.11414575
Link 2 8 8 0 0.33510362
Link 4 8 10 0 0.50583297
Link 5 8 11 0 -1.10760300
Link 6 8 12 0 0.34065911
Link 3 11 20 0 1.10695434
Link 11 14 30 0 0.73388920
Link 14 8 31 0 0.24866025
Link 4 11 33 0 0.36190203
Link 4 14 43 0 0.12774227
Link 1 18 49 0 1.26170331
Link 18 7 50 0 -0.17762498
GenomeEnd

GenomeStart 6794
Genome Fitness: 427.000000 
Neuron 1 1 0.00000000 1 0.00000000 0.00000000 0.00000000 0.00000000
Neuron 2 1 0.00000000 1 0.00000000 0.00000000 0.00000000 0.00000000
Neuron 3 1 0.00000000 1 0.00000000 0.00000000 0.00000000 0.00000000
Neuron 4 1 0.00000000 1 0.00000000 0.00000000 0.00000000 0.00000000
Neuron 5 1 0.00000000 1 0.00000000 0.00000000 0.00000000 0.00000000
Neuron 6 2 0.00000000 1 0.00000000 0.00000000 0.00000000 0.00000000
Neuron 7 4 1.00000000 2 3.02500000 0.00000000 0.00000000 0.00000000
Neuron 8 4 1.00000000 2 3.02500000 0.00000000 0.00000000 0.00000000
Neuron 11 3 0.50000000 4 3.75850292 0.00000000 0.00000000 0.00000000
Neuron 14 3 0.75000000 6 1.39090960 0.00000000 0.00000000 0.00000000
Neuron 18 3 0.50000000 1 3.35266199 0.00000000 0.00000000 0.00000000
Link 2 7 2 0 0.06442024
Link 3 7 3 0 0.20412118
Link 4 7 4 0 0.10788033
Link 5 7 5 0 0.21021877
Link 6 7 6 0 0.70554049
Link 1 8 7 0 0.11414575
Link 2 8 8 0 0.33510362
Link 4 8 10 0 0.50583297
Link 5 8 11 0 -1.10760300
Link 6 8 12 0 0.34065911
Link 3 11 20 0 1.10695434
Link 11 14 30 0 0.85147745
Link 14 8 31 0 0.24866025
Link 4 11 33 0 0.36190203
Link 4 14 43 0 0.10395915
Link 1 18 49 0 1.26170331
Link 18 7 50 0 -0.14883856
GenomeEnd

GenomeStart 6795
Genome Fitness: 431.000000 
Neuron 1 1 0.00000000 1 0.00000000 0.00000000 0.00000000 0.00000000
Neuron 2 1 0.00000000 1 0.00000000 0.00000000 0.00000000 0.00000000
Neuron 3 1 0.00000000 1 0.00000000 0.00000000 0.00000000 0.00000000
Neuron 4 1 0.00000000 1 0.00000000 0.00000000 0.00000000 0.00000000
Neuron 5 1 0.00000000 1 0.00000000 0.00000000 0.00000000 0.00000000
Neuron 6 2 0.00000000 1 0.00000000 0.00000000 0.00000000 0.00000000
Neuron 7 4 1.00000000 2 3.02500000 0.00000000 0.00000000 0.00000000
Neuron 8 4 1.00000000 2 3.02500000 0.00000000 0.00000000 0.00000000
Neuron 11 3 0.50000000 4 3.75850292 0.00000000 0.00000000 0.00000000
Neuron 14 3 0.75000000 6 1.39090960 0.00000000 0.00000000 0.00000000
Neuron 18 3 0.50000000 1 3.35266199 0.00000000 0.00000000 0.00000000
Link 2 7 2 0 0.15555663
Link 3 7 3 0 0.14142050
Link 4 7 4 0 0.00052080
Link 5 7 5 0 0.26291106
Link 6 7 6 0 0.65896567
Link 1 8 7 0 0.09126164
Link 2 8 8 0 0.38933022
Link 4 8 10 0 0.48131706
Link 5 8 11 0 -1.01431383
Link 6 8 12 0 0.29521629
Link 3 11 20 0 1.09909088
Link 11 14 30 0 0.96973564
Link 14 8 31 0 0.11302644
Link 4 11 33 0 0.33816899
Link 4 14 43 0 0.15596797
Link 1 18 49 0 1.27580333
Link 18 7 50 0 -0.19604807
GenomeEnd

GenomeStart 6796
Genome Fitness: 427.000000 
Neuron 1 1 0.00000000 1 0.00000000 0.00000000 0.00000000 0.00000000
Neuron 2 1 0.00000000 1 0.00000000 0.00000000 0.00000000 0.00000000
Neuron 3 1 0.00000000 1 0.00000000 0.00000000 0.00000000 0.00000000
Neuron 4 1 0.00000000 1 0.00000000 0.00000000 0.00000000 0.00000000
Neuron 5 1 0.00000000 1 0.00000000 0.00000000 0.00000000 0.00000000
Neuron 6 2 0.00000000 1 0.00000000 0.00000000 0.00000000 0.00000000
Neuron 7 4 1.00000000 2 3.02500000 0.00000000 0.00000000 0.00000000
Neuron 8 4 1.00000000 2 3.02500000 0.00000000 0.00000000 0.00000000
Neuron 11 3 0.50000000 4 3.75850292 0.00000000 0.00000000 0.00000000
Neuron 14 3 0.75000000 6 1.39090960 0.00000000 0.00000000 0.00000000
Neuron 18 3 0.50000000 1 3.35266199 0.00000000 0.00000000 0.00000000
Link 2 7 2 0 0.06442024
Link 3 7 3 0 0.15465655
Link 4 7 4 0 0.10788033
Link 5 7 5 0 0.21021877
Link 6 7 6 0 0.70554049
Link 1 8 7 0 0.11414575
Link 2 8 8 0 0.33510362
Link 4 8 10 0 0.50583297
Link 5 8 11 0 -1.10760300
Link 6 8 12 0 0.34065911
Link 3 11 20 0 1.10695434
Link 11 14 30 0 0.85147745
Link 14 8 31 0 0.24866025
Link 4 11 33 0 0.36190203
Link 4 14 43 0 0.10395915
Link 1 18 49 0 1.26170331
Link 18 7 50 0 -0.14883856
GenomeEnd

GenomeStart 6797
Genome Fitness: 427.000000 
Neuron 1 1 0.00000000 1 0.00000000 0.00000000 0.00000000 0.00000000
Neuron 2 1 0.00000000 1 0.00000000 0.00000000 0.00000000 0.00000000
Neuron 3 1 0.00000000 1 0.00000000 0.00000000 0.00000000 0.00000000
Neuron 4 1 0.00000000 1 0.00000000 0.00000000 0.00000000 0.00000000
Neuron 5 1 0.00000000 1 0.00000000 0.00000000 0.00000000 0.00000000
Neuron 6 2 0.00000000 1 0.00000000 0.00000000 0.00000000 0.00000000
Neuron 7 4 1.00000000 2 3.02500000 0.00000000 0.00000000 0.00000000
Neuron 8 4 1.00000000 2 3.02500000 0.00000000 0.00000000 0.00000000
Neuron 11 3 0.50000000 4 3.75850292 0.00000000 0.00000000 0.00000000
Neuron 14 3 0.75000000 6 1.39090960 0.00000000 0.00000000 0.00000000
Neuron 18 3 0.50000000 1 3.35266199 0.00000000 0.00000000 0.00000000
Link 2 7 2 0 0.06442024
Link 3 7 3 0 0.20412118
Link 4 7 4 0 0.10788033
Link 5 7 5 0 0.21021877
Link 6 7 6 0 0.70554049
Link 1 8 7 0 0.11414575
Link 2 8 8 0 0.33510362
Link 4 8 10 0 0.50583297
Link 5 8 11 0 -1.10760300
Link 6 8 12 0 0.34065911
Link 3 11 20 0 1.10695434
Link 11 14 30 0 0.85147745
Link 14 8 31 0 0.24866025
Link 4 11 33 0 0.36190203
Link 4 14 43 0 0.11585071
Link 1 18 49 0 1.26170331
Link 18 7 50 0 -0.16323177
GenomeEnd

GenomeStart 6798
Genome Fitness: 270.000000 
Neuron 1 1 0.00000000 1 0.00000000 0.00000000 0.00000000 0.00000000
Neuron 2 1 0.00000000 1 0.00000000 0.00000000 0.00000000 0.00000000
Neuron 3 1 0.00000000 1 0.00000000 0.00000000 0.00000000 0.00000000
Neuron 4 1 0.00000000 1 0.00000000 0.00000000 0.00000000 0.00000000
Neuron 5 1 0.00000000 1 0.00000000 0.00000000 0.00000000 0.00000000
Neuron 6 2 0.00000000 1 0.00000000 0.00000000 0.00000000 0.00000000
Neuron 7 4 1.00000000 2 3.02500000 0.00000000 0.00000000 0.00000000
Neuron 8 4 1.00000000 2 3.02500000 0.00000000 0.00000000 0.00000000
Neuron 11 3 0.50000000 4 3.75850292 0.00000000 0.00000000 0.00000000
Neuron 14 3 0.75000000 6 1.39090960 0.00000000 0.00000000 0.00000000
Neuron 18 3 0.50000000 1 3.35266199 0.00000000 0.00000000 0.00000000
Link 2 7 2 0 0.15905440
Link 3 7 3 0 0.03967736
Link 4 7 4 0 0.08063228
Link 5 7 5 0 0.23744942
Link 6 7 6 0 0.71026705
Link 1 8 7 0 0.16791678
Link 2 8 8 0 0.26952107
Link 4 8 10 0 0.54037021
Link 5 8 11 0 -1.10564315
Link 6 8 12 0 0.26167068
Link 3 11 20 0 0.94118249
Link 11 14 30 0 0.98074959
Link 14 8 31 0 0.18015162
Link 4 11 33 0 0.39119760
Link 4 14 43 0 0.01026705
Link 1 18 49 0 1.30730011
Link 18 7 50 0 -0.20784146
GenomeEnd

GenomeStart 6799
Genome Fitness: 200.000000 
Neuron 1 1 0.00000000 1 0.00000000 0.00000000 0.00000000 0.00000000
Neuron 2 1 0.00000000 1 0.00000000 0.00000000 0.00000000 0.00000000
Neuron 3 1 0.00000000 1 0.00000000 0.00000000 0.00000000 0.00000000
Neuron 4 1 0.00000000 1 0.00000000 0.00000000 0.00000000 0.00000000
Neuron 5 1 0.00000000 1 0.00000000 0.00000000 0.00000000 0.00000000
Neuron 6 2 0.00000000 1 0.00000000 0.00000000 0.00000000 0.00000000
Neuron 7 4 1.00000000 2 3.02500000 0.00000000 0.00000000 0.00000000
Neuron 8 4 1.00000000 2 3.02500000 0.00000000 0.00000000 0.00000000
Neuron 11 3 0.50000000 4 3.75850292 0.00000000 0.00000000 0.00000000
Neuron 14 3 0.75000000 6 1.39090960 0.00000000 0.00000000 0.00000000
Neuron 18 3 0.50000000 1 3.35266199 0.00000000 0.00000000 0.00000000
Link 2 7 2 0 0.06442024
Link 3 7 3 0 0.25154853
Link 4 7 4 0 -0.00585890
Link 5 7 5 0 0.13727488
Link 6 7 6 0 0.24092849
Link 1 8 7 0 0.04706932
Link 2 8 8 0 0.44703220
Link 4 8 10 0 0.50583297
Link 5 8 11 0 -1.11345058
Link 6 8 12 0 0.25712041
Link 3 11 20 0 1.12697922
Link 11 14 30 0 0.54108219
Link 14 8 31 0 0.24866025
Link 4 11 33 0 0.36190203
Link 4 14 43 0 0.18051291
Link 1 18 49 0 1.39082731
Link 18 7 50 0 -0.07095615
GenomeEnd

GenomeStart 6800
Genome Fitness: 209.000000 
Neuron 1 1 0.00000000 1 0.00000000 0.00000000 0.00000000 0.00000000
Neuron 2 1 0.00000000 1 0.00000000 0.00000000 0.00000000 0.00000000
Neuron 3 1 0.00000000 1 0.00000000 0.00000000 0.00000000 0.00000000
Neuron 4 1 0.00000000 1 0.00000000 0.00000000 0.00000000 0.00000000
Neuron 5 1 0.00000000 1 0.00000000 0.00000000 0.00000000 0.00000000
Neuron 6 2 0.00000000 1 0.00000000 0.00000000 0.00000000 0.00000000
Neuron 7 4 1.00000000 2 3.02500000 0.00000000 0.00000000 0.00000000
Neuron 8 4 1.00000000 2 3.02500000 0.00000000 0.00000000 0.00000000
Neuron 11 3 0.50000000 4 3.75850292 0.00000000 0.00000000 0.00000000
Neuron 14 3 0.75000000 6 1.39090960 0.00000000 0.00000000 0.00000000
Neuron 18 3 0.50000000 1 3.35266199 0.00000000 0.00000000 0.00000000
Link 2 7 2 0 0.22333599
Link 3 7 3 0 0.00860349
Link 4 7 4 0 0.21277398
Link 5 7 5 0 0.29937656
Link 6 7 6 0 0.86978902
Link 1 8 7 0 0.25782916
Link 2 8 8 0 0.26464882
Link 4 8 10 0 0.52782103
Link 5 8 11 0 -1.22268315
Link 6 8 12 0 0.38500117
Link 3 11 20 0 1.24211639
Link 11 14 30 0 0.86467788
Link 14 8 31 0 0.39799988
Link 4 11 33 0 0.27392218
Link 4 14 43 0 0.09410136
Link 1 18 49 0 1.30955677
Link 18 7 50 0 -0.16549817
GenomeEnd

GenomeStart 6801
Genome Fitness: 465.000000 
Neuron 1 1 0.00000000 1 0.00000000 0.00000000 0.00000000 0.00000000
Neuron 2 1 0.00000000 1 0.00000000 0.00000000 0.00000000 0.00000000
Neuron 3 1 0.00000000 1 0.00000000 0.00000000 0.00000000 0.00000000
Neuron 4 1 0.00000000 1 0.00000000 0.00000000 0.00000000 0.00000000
Neuron 5 1 0.00000000 1 0.00000000 0.00000000 0.00000000 0.00000000
Neuron 6 2 0.00000000 1 0.00000000 0.00000000 0.00000000 0.00000000
Neuron 7 4 1.00000000 2 3.02500000 0.00000000 0.00000000 0.00000000
Neuron 8 4 1.00000000 2 3.02500000 0.00000000 0.00000000 0.00000000
Neuron 11 3 0.50000000 4 3.75850292 0.00000000 0.00000000 0.00000000
Neuron 14 3 0.75000000 6 1.39090960 0.00000000 0.00000000 0.00000000
Neuron 15 3 0.50000000 9 3.34016685 0.00000000 0.00000000 0.00000000
Neuron 16 3 0.50000000 4 2.73773847 0.00000000 0.00000000 0.00000000
Link 1 7 1 0 0.55660587
Link 2 7 2 0 0.02083954
Link 3 7 3 0 0.13045707
Link 5 7 5 0 0.07778242
Link 6 7 6 0 0.43402658
Link 2 8 8 0 0.07823181
Link 5 8 11 0 -1.06292774
Link 6 8 12 0 -0.05980275
Link 3 11 20 0 0.96905626
Link 11 14 30 0 1.14487474
Link 14 8 31 0 0.44759159
Link 4 15 36 0 1.01581344
Link 15 7 37 0 -0.03385917
Link 1 16 40 0 1.34513651
Link 16 8 41 0 0.18290886
GenomeEnd

GenomeStart 6802
Genome Fitness: 411.000000 
Neuron 1 1 0.00000000 1 0.00000000 0.00000000 0.00000000 0.00000000
Neuron 2 1 0.00000000 1 0.00000000 0.00000000 0.00000000 0.00000000
Neuron 3 1 0.00000000 1 0.00000000 0.00000000 0.00000000 0.00000000
Neuron 4 1 0.00000000 1 0.00000000 0.00000000 0.00000000 0.00000000
Neuron 5 1 0.00000000 1 0.00000000 0.00000000 0.00000000 0.00000000
Neuron 6 2 0.00000000 1 0.00000000 0.00000000 0.00000000 0.00000000
Neuron 7 4 1.00000000 2 3.02500000 0.00000000 0.00000000 0.00000000
Neuron 8 4 1.00000000 2 3.02500000 0.00000000 0.00000000 0.00000000
Neuron 11 3 0.50000000 4 3.75850292 0.00000000 0.00000000 0.00000000
Neuron 14 3 0.75000000 6 1.39090960 0.00000000 0.00000000 0.00000000
Neuron 15 3 0.50000000 9 3.34016685 0.00000000 0.00000000 0.00000000
Neuron 16 3 0.50000000 4 2.73773847 0.00000000 0.00000000 0.00000000
Link 1 7 1 0 0.55660587
Link 2 7 2 0 0.02083954
Link 3 7 3 0 0.13045707
Link 5 7 5 0 0.07778242
Link 6 7 6 0 0.43402658
Link 2 8 8 0 0.07823181
Link 4 8 10 0 0.43221334
Link 5 8 11 0 -1.06292774
Link 6 8 12 0 -0.05980275
Link 3 11 20 0 0.96905626
Link 11 14 30 0 1.14487474
Link 14 8 31 0 0.44759159
Link 4 15 36 0 1.01581344
Link 15 7 37 0 -0.03385917
Link 1 16 40 0 1.34513651
Link 16 8 41 0 0.18290886
GenomeEnd

GenomeStart 6804
Genome Fitness: 121.000000 
Neuron 1 1 0.00000000 1 0.00000000 0.00000000 0.00000000 0.00000000
Neuron 2 1 0.00000000 1 0.00000000 0.00000000 0.00000000 0.00000000
Neuron 3 1 0.00000000 1 0.00000000 0.00000000 0.00000000 0.00000000
Neuron 4 1 0.00000000 1 0.00000000 0.00000000 0.00000000 0.00000000
Neuron 5 1 0.00000000 1 0.00000000 0.00000000 0.00000000 0.00000000
Neuron 6 2 0.00000000 1 0.00000000 0.00000000 0.00000000 0.00000000
Neuron 7 4 1.00000000 2 3.02500000 0.00000000 0.00000000 0.00000000
Neuron 8 4 1.00000000 2 3.02500000 0.00000000 0.00000000 0.00000000
Neuron 11 3 0.50000000 4 3.75850292 0.00000000 0.00000000 0.00000000
Neuron 14 3 0.75000000 6 1.39090960 0.00000000 0.00000000 0.00000000
Neuron 15 3 0.50000000 9 3.34016685 0.00000000 0.00000000 0.00000000
Neuron 16 3 0.50000000 4 2.73773847 0.00000000 0.00000000 0.00000000
Link 1 7 1 0 0.60247121
Link 2 7 2 0 -0.10370518
Link 3 7 3 0 0.07092793
Link 5 7 5 0 -0.05162151
Link 6 7 6 0 0.32051917
Link 2 8 8 0 0.06940018
Link 5 8 11 0 -1.05915678
Link 6 8 12 0 -0.19965186
Link 3 11 20 0 1.11717758
Link 11 14 30 0 1.21571611
Link 14 8 31 0 0.52552620
Link 4 15 36 0 1.07658728
Link 15 7 37 0 0.06428396
Link 1 16 40 0 1.21678860
Link 16 8 41 0 0.18922037
GenomeEnd

GenomeStart 6805
Genome Fitness: 465.000000 
Neuron 1 1 0.00000000 1 0.00000000 0.00000000 0.00000000 0.00000000
Neuron 2 1 0.00000000 1 0.00000000 0.00000000 0.00000000 0.00000000
Neuron 3 1 0.00000000 1 0.00000000 0.00000000 0.00000000 0.00000000
Neuron 4 1 0.00000000 1 0.00000000 0.00000000 0.00000000 0.00000000
Neuron 5 1 0.00000000 1 0.00000000 0.00000000 0.00000000 0.00000000
Neuron 6 2 0.00000000 1 0.00000000 0.00000000 0.00000000 0.00000000
Neuron 7 4 1.00000000 2 3.02500000 0.00000000 0.00000000 0.00000000
Neuron 8 4 1.00000000 2 3.02500000 0.00000000 0.00000000 0.00000000
Neuron 11 3 0.50000000 4 3.75850292 0.00000000 0.00000000 0.00000000
Neuron 14 3 0.75000000 6 1.39090960 0.00000000 0.00000000 0.00000000
Neuron 15 3 0.50000000 9 3.34016685 0.00000000 0.00000000 0.00000000
Neuron 16 3 0.50000000 4 2.73773847 0.00000000 0.00000000 0.00000000
Link 1 7 1 0 0.55660587
Link 2 7 2 0 0.02083954
Link 3 7 3 0 0.13045707
Link 5 7 5 0 0.07778242
Link 6 7 6 0 0.43402658
Link 2 8 8 0 0.07823181
Link 5 8 11 0 -1.06292774
Link 6 8 12 0 -0.05980275
Link 3 11 20 0 0.96905626
Link 11 14 30 0 1.14487474
Link 14 8 31 0 0.44759159
Link 4 15 36 0 1.01581344
Link 15 7 37 0 -0.03385917
Link 1 16 40 0 1.34513651
Link 16 8 41 0 0.18290886
GenomeEnd

GenomeStart 6806
Genome Fitness: 265.000000 
Neuron 1 1 0.00000000 1 0.00000000 0.00000000 0.00000000 0.00000000
Neuron 2 1 0.00000000 1 0.00000000 0.00000000 0.00000000 0.00000000
Neuron 3 1 0.00000000 1 0.00000000 0.00000000 0.00000000 0.00000000
Neuron 4 1 0.00000000 1 0.00000000 0.00000000 0.00000000 0.00000000
Neuron 5 1 0.00000000 1 0.00000000 0.00000000 0.00000000 0.00000000
Neuron 6 2 0.00000000 1 0.00000000 0.00000000 0.00000000 0.00000000
Neuron 7 4 1.00000000 2 3.02500000 0.00000000 0.00000000 0.00000000
Neuron 8 4 1.00000000 2 3.02500000 0.00000000 0.00000000 0.00000000
Neuron 11 3 0.50000000 4 3.75850292 0.00000000 0.00000000 0.00000000
Neuron 14 3 0.75000000 6 1.39090960 0.00000000 0.00000000 0.00000000
Neuron 15 3 0.50000000 9 3.34016685 0.00000000 0.00000000 0.00000000
Neuron 16 3 0.50000000 4 2.73773847 0.00000000 0.00000000 0.00000000
Link 1 7 1 0 0.55073636
Link 2 7 2 0 0.06158061
Link 3 7 3 0 0.02864489
Link 5 7 5 0 -0.02507837
Link 6 7 6 0 0.39412834
Link 2 8 8 0 0.16983231
Link 4 8 10 0 0.43498055
Link 5 8 11 0 -1.12144895
Link 6 8 12 0 -0.08743830
Link 3 11 20 0 1.03243346
Link 11 14 30 0 1.03344320
Link 14 8 31 0 0.44508789
Link 4 15 36 0 0.84330129
Link 15 7 37 0 0.15227432
Link 1 16 40 0 1.18936227
Link 16 8 41 0 0.22137873
GenomeEnd

GenomeStart 6807
Genome Fitness: 254.000000 
Neuron 1 1 0.00000000 1 0.00000000 0.00000000 0.00000000 0.00000000
Neuron 2 1 0.00000000 1 0.00000000 0.00000000 0.00000000 0.00000000
Neuron 3 1 0.00000000 1 0.00000000 0.00000000 0.00000000 0.00000000
Neuron 4 1 0.00000000 1 0.00000000 0.00000000 0.00000000 0.00000000
Neuron 5 1 0.00000000 1 0.00000000 0.00000000 0.00000000 0.00000000
Neuron 6 2 0.00000000 1 0.00000000 0.00000000 0.00000000 0.00000000
Neuron 7 4 1.00000000 2 3.02500000 0.00000000 0.00000000 0.00000000
Neuron 8 4 1.00000000 2 3.02500000 0.00000000 0.00000000 0.00000000
Neuron 11 3 0.50000000 4 3.75850292 0.00000000 0.00000000 0.00000000
Neuron 14 3 0.75000000 6 1.39090960 0.00000000 0.00000000 0.00000000
Neuron 15 3 0.50000000 9 3.34016685 0.00000000 0.00000000 0.00000000
Neuron 16 3 0.50000000 4 2.73773847 0.00000000 0.00000000 0.00000000
Link 1 7 1 0 0.62925361
Link 2 7 2 0 -0.04934323
Link 3 7 3 0 0.07689851
Link 5 7 5 0 0.07574886
Link 6 7 6 0 0.41992568
Link 2 8 8 0 0.18581961
Link 5 8 11 0 -0.93456341
Link 6 8 12 0 -0.24808166
Link 3 11 20 0 0.87101109
Link 11 14 30 0 1.00145205
Link 14 8 31 0 0.43304127
Link 4 15 36 0 1.00443414
Link 15 7 37 0 -0.03356477
Link 1 16 40 0 1.26602279
Link 16 8 41 0 0.30722201
GenomeEnd

GenomeStart 6808
Genome Fitness: 146.000000 
Neuron 1 1 0.00000000 1 0.00000000 0.00000000 0.00000000 0.00000000
Neuron 2 1 0.00000000 1 0.00000000 0.00000000 0.00000000 0.00000000
Neuron 3 1 0.00000000 1 0.00000000 0.00000000 0.00000000 0.00000000
Neuron 4 1 0.00000000 1 0.00000000 0.00000000 0.00000000 0.00000000
Neuron 5 1 0.00000000 1 0.00000000 0.00000000 0.00000000 0.00000000
Neuron 6 2 0.00000000 1 0.00000000 0.00000000 0.00000000 0.00000000
Neuron 7 4 1.00000000 2 3.02500000 0.00000000 0.00000000 0.00000000
Neuron 8 4 1.00000000 2 3.02500000 0.00000000 0.00000000 0.00000000
Neuron 11 3 0.50000000 4 3.75850292 0.00000000 0.00000000 0.00000000
Neuron 14 3 0.75000000 6 1.39090960 0.00000000 0.00000000 0.00000000
Neuron 15 3 0.50000000 9 3.34016685 0.00000000 0.00000000 0.00000000
Neuron 16 3 0.50000000 4 2.73773847 0.00000000 0.00000000 0.00000000
Link 1 7 1 0 0.50783885
Link 2 7 2 0 -0.08061160
Link 3 7 3 0 0.36936071
Link 5 7 5 0 -0.06241418
Link 6 7 6 0 0.46561676
Link 2 8 8 0 0.07823181
Link 5 8 11 0 -1.14857330
Link 6 8 12 0 -0.16950994
Link 3 11 20 0 0.44378803
Link 11 14 30 0 1.07302915
Link 14 8 31 0 -0.38510676
Link 4 15 36 0 1.04380913
Link 15 7 37 0 -0.08072747
Link 1 16 40 0 1.34296962
Link 16 8 41 0 0.27391564
GenomeEnd

GenomeStart 6809
Genome Fitness: 245.000000 
Neuron 1 1 0.00000000 1 0.00000000 0.00000000 0.00000000 0.00000000
Neuron 2 1 0.00000000 1 0.00000000 0.00000000 0.00000000 0.00000000
Neuron 3 1 0.00000000 1 0.00000000 0.00000000 0.00000000 0.00000000
Neuron 4 1 0.00000000 1 0.00000000 0.00000000 0.00000000 0.00000000
Neuron 5 1 0.00000000 1 0.00000000 0.00000000 0.00000000 0.00000000
Neuron 6 2 0.00000000 1 0.00000000 0.00000000 0.00000000 0.00000000
Neuron 7 4 1.00000000 2 3.02500000 0.00000000 0.00000000 0.00000000
Neuron 8 4 1.00000000 2 3.02500000 0.00000000 0.00000000 0.00000000
Neuron 11 3 0.50000000 4 3.75850292 0.00000000 0.00000000 0.00000000
Neuron 14 3 0.75000000 6 1.39090960 0.00000000 0.00000000 0.00000000
Neuron 15 3 0.50000000 9 3.34016685 0.00000000 0.00000000 0.00000000
Neuron 16 3 0.50000000 4 2.73773847 0.00000000 0.00000000 0.00000000
Link 1 7 1 0 0.60202090
Link 2 7 2 0 -0.00956288
Link 3 7 3 0 0.30498276
Link 5 7 5 0 0.08656512
Link 6 7 6 0 0.47233988
Link 2 8 8 0 0.06630749
Link 5 8 11 0 -0.98323029
Link 6 8 12 0 -0.00526879
Link 3 11 20 0 0.99569861
Link 11 14 30 0 1.23643996
Link 14 8 31 0 0.39037433
Link 4 15 36 0 1.07767508
Link 15 7 37 0 0.00669044
Link 1 16 40 0 1.34903697
Link 16 8 41 0 0.30287029
GenomeEnd

GenomeStart 6810
Genome Fitness: 346.000000 
Neuron 1 1 0.00000000 1 0.00000000 0.00000000 0.00000000 0.00000000
Neuron 2 1 0.00000000 1 0.00000000 0.00000000 0.00000000 0.00000000
Neuron 3 1 0.00000000 1 0.00000000 0.00000000 0.00000000 0.00000000
Neuron 4 1 0.00000000 1 0.00000000 0.00000000 0.00000000 0.00000000
Neuron 5 1 0.00000000 1 0.00000000 0.00000000 0.00000000 0.00000000
Neuron 6 2 0.00000000 1 0.00000000 0.00000000 0.00000000 0.00000000
Neuron 7 4 1.00000000 2 3.02500000 0.00000000 0.00000000 0.00000000
Neuron 8 4 1.00000000 2 3.02500000 0.00000000 0.00000000 0.00000000
Neuron 11 3 0.50000000 5 3.75850292 0.00000000 0.00000000 0.00000000
Neuron 14 3 0.75000000 6 1.39090960 0.00000000 0.00000000 0.00000000
Neuron 17 3 0.50000000 2 0.51776827 0.00000000 0.00000000 0.00000000
Link 1 7 1 0 -0.29476670
Link 2 7 2 0 0.40207536
Link 4 7 4 0 0.07099610
Link 5 7 5 0 0.16150322
Link 6 7 6 0 0.53140741
Link 2 8 8 0 0.32571542
Link 4 8 10 0 0.43294432
Link 5 8 11 0 -0.97344393
Link 6 8 12 0 0.53329526
Link 3 11 20 0 1.04785308
Link 11 14 30 0 1.30634746
Link 14 8 31 0 0.04844802
Link 3 17 45 0 0.51697326
Link 17 7 46 0 0.09024784
GenomeEnd

GenomeStart 6811
Genome Fitness: 346.000000 
Neuron 1 1 0.00000000 1 0.00000000 0.00000000 0.00000000 0.00000000
Neuron 2 1 0.00000000 1 0.00000000 0.00000000 0.00000000 0.00000000
Neuron 3 1 0.00000000 1 0.00000000 0.00000000 0.00000000 0.00000000
Neuron 4 1 0.00000000 1 0.00000000 0.00000000 0.00000000 0.00000000
Neuron 5 1 0.00000000 1 0.00000000 0.00000000 0.00000000 0.00000000
Neuron 6 2 0.00000000 1 0.00000000 0.00000000 0.00000000 0.00000000
Neuron 7 4 1.00000000 2 3.02500000 0.00000000 0.00000000 0.00000000
Neuron 8 4 1.00000000 2 3.02500000 0.00000000 0.00000000 0.00000000
Neuron 11 3 0.50000000 5 3.75850292 0.00000000 0.00000000 0.00000000
Neuron 14 3 0.75000000 6 1.39090960 0.00000000 0.00000000 0.00000000
Neuron 17 3 0.50000000 2 0.51776827 0.00000000 0.00000000 0.00000000
Link 1 7 1 0 -0.29118353
Link 2 7 2 0 0.35027653
Link 4 7 4 0 0.07099610
Link 5 7 5 0 0.16150322
Link 6 7 6 0 0.53140741
Link 2 8 8 0 0.32571542
Link 4 8 10 0 0.43294432
Link 5 8 11 0 -0.97344393
Link 6 8 12 0 0.46055803
Link 3 11 20 0 1.05552492
Link 11 14 30 0 1.30634746
Link 14 8 31 0 0.04844802
Link 3 17 45 0 0.47299434
Link 17 7 46 0 0.11438926
GenomeEnd

GenomeStart 6812
Genome Fitness: 346.000000 
Neuron 1 1 0.00000000 1 0.00000000 0.00000000 0.00000000 0.00000000
Neuron 2 1 0.00000000 1 0.00000000 0.00000000 0.00000000 0.00000000
Neuron 3 1 0.00000000 1 0.00000000 0.00000000 0.00000000 0.00000000
Neuron 4 1 0.00000000 1 0.00000000 0.00000000 0.00000000 0.00000000
Neuron 5 1 0.00000000 1 0.00000000 0.00000000 0.00000000 0.00000000
Neuron 6 2 0.00000000 1 0.00000000 0.00000000 0.00000000 0.00000000
Neuron 7 4 1.00000000 2 3.02500000 0.00000000 0.00000000 0.00000000
Neuron 8 4 1.00000000 2 3.02500000 0.00000000 0.00000000 0.00000000
Neuron 11 3 0.50000000 5 3.75850292 0.00000000 0.00000000 0.00000000
Neuron 14 3 0.75000000 6 1.39090960 0.00000000 0.00000000 0.00000000
Neuron 17 3 0.50000000 2 0.51776827 0.00000000 0.00000000 0.00000000
Link 1 7 1 0 -0.29118353
Link 2 7 2 0 0.35027653
Link 4 7 4 0 0.07099610
Link 5 7 5 0 0.16150322
Link 6 7 6 0 0.53140741
Link 2 8 8 0 0.32571542
Link 4 8 10 0 0.43294432
Link 5 8 11 0 -0.97344393
Link 6 8 12 0 0.53329526
Link 3 11 20 0 1.04785308
Link 11 14 30 0 1.30634746
Link 14 8 31 0 0.04844802
Link 3 17 45 0 0.47299434
Link 17 7 46 0 0.09024784
GenomeEnd

GenomeStart 6813
Genome Fitness: 260.000000 
Neuron 1 1 0.00000000 1 0.00000000 0.00000000 0.00000000 0.00000000
Neuron 2 1 0.00000000 1 0.00000000 0.00000000 0.00000000 0.00000000
Neuron 3 1 0.00000000 1 0.00000000 0.00000000 0.00000000 0.00000000
Neuron 4 1 0.00000000 1 0.00000000 0.00000000 0.00000000 0.00000000
Neuron 5 1 0.00000000 1 0.00000000 0.00000000 0.00000000 0.00000000
Neuron 6 2 0.00000000 1 0.00000000 0.00000000 0.00000000 0.00000000
Neuron 7 4 1.00000000 2 3.02500000 0.00000000 0.00000000 0.00000000
Neuron 8 4 1.00000000 2 3.02500000 0.00000000 0.00000000 0.00000000
Neuron 11 3 0.50000000 5 3.75850292 0.00000000 0.00000000 0.00000000
Neuron 14 3 0.75000000 6 1.39090960 0.00000000 0.00000000 0.00000000
Neuron 17 3 0.50000000 2 0.51776827 0.00000000 0.00000000 0.00000000
Link 1 7 1 0 -0.11199458
Link 2 7 2 0 0.37842352
Link 4 7 4 0 0.06075569
Link 5 7 5 0 0.15409941
Link 6 7 6 0 0.48545622
Link 2 8 8 0 0.24960667
Link 4 8 10 0 0.41913771
Link 5 8 11 0 -1.04528581
Link 6 8 12 0 0.39814785
Link 3 11 20 0 1.07506655
Link 11 14 30 0 1.27070720
Link 14 8 31 0 0.02976488
Link 3 17 45 0 0.46838890
Link 17 7 46 0 0.22401934
GenomeEnd

GenomeStart 6814
Genome Fitness: 201.000000 
Neuron 1 1 0.00000000 1 0.00000000 0.00000000 0.00000000 0.00000000
Neuron 2 1 0.00000000 1 0.00000000 0.00000000 0.00000000 0.00000000
Neuron 3 1 0.00000000 1 0.00000000 0.00000000 0.00000000 0.00000000
Neuron 4 1 0.00000000 1 0.00000000 0.00000000 0.00000000 0.00000000
Neuron 5 1 0.00000000 1 0.00000000 0.00000000 0.00000000 0.00000000
Neuron 6 2 0.00000000 1 0.00000000 0.00000000 0.00000000 0.00000000
Neuron 7 4 1.00000000 2 3.02500000 0.00000000 0.00000000 0.00000000
Neuron 8 4 1.00000000 2 3.02500000 0.00000000 0.00000000 0.00000000
Neuron 11 3 0.50000000 5 3.75850292 0.00000000 0.00000000 0.00000000
Neuron 14 3 0.75000000 6 1.39090960 0.00000000 0.00000000 0.00000000
Neuron 17 3 0.50000000 2 0.51776827 0.00000000 0.00000000 0.00000000
Link 1 7 1 0 -0.16828826
Link 2 7 2 0 0.39070775
Link 4 7 4 0 0.15485391
Link 5 7 5 0 0.14198429
Link 6 7 6 0 0.53775968
Link 2 8 8 0 0.28943420
Link 4 8 10 0 0.37565446
Link 5 8 11 0 -0.95128928
Link 6 8 12 0 0.39925995
Link 3 11 20 0 1.13899709
Link 11 14 30 0 1.34456224
Link 14 8 31 0 -0.05554345
Link 3 17 45 0 0.59109647
Link 17 7 46 0 0.19990348
GenomeEnd

GenomeStart 6815
Genome Fitness: 275.000000 
Neuron 1 1 0.00000000 1 0.00000000 0.00000000 0.00000000 0.00000000
Neuron 2 1 0.00000000 1 0.00000000 0.00000000 0.00000000 0.00000000
Neuron 3 1 0.00000000 1 0.00000000 0.00000000 0.00000000 0.00000000
Neuron 4 1 0.00000000 1 0.00000000 0.00000000 0.00000000 0.00000000
Neuron 5 1 0.00000000 1 0.00000000 0.00000000 0.00000000 0.00000000
Neuron 6 2 0.00000000 1 0.00000000 0.00000000 0.00000000 0.00000000
Neuron 7 4 1.00000000 2 3.02500000 0.00000000 0.00000000 0.00000000
Neuron 8 4 1.00000000 2 3.02500000 0.00000000 0.00000000 0.00000000
Neuron 11 3 0.50000000 5 3.75850292 0.00000000 0.00000000 0.00000000
Neuron 14 3 0.75000000 6 1.39090960 0.00000000 0.00000000 0.00000000
Neuron 17 3 0.50000000 2 0.51776827 0.00000000 0.00000000 0.00000000
Link 1 7 1 0 -0.43065978
Link 2 7 2 0 0.44724552
Link 4 7 4 0 0.16725118
Link 5 7 5 0 0.22778753
Link 6 7 6 0 0.68953707
Link 2 8 8 0 0.35206725
Link 4 8 10 0 0.41969047
Link 5 8 11 0 -0.85617941
Link 6 8 12 0 0.50604210
Link 3 11 20 0 1.17085217
Link 11 14 30 0 1.24633546
Link 14 8 31 0 -0.00517259
Link 3 17 45 0 0.55370480
Link 17 7 46 0 0.20383261
GenomeEnd

GenomeStart 6816
Genome Fitness: 128.000000 
Neuron 1 1 0.00000000 1 0.00000000 0.00000000 0.00000000 0.00000000
Neuron 2 1 0.00000000 1 0.00000000 0.00000000 0.00000000 0.00000000
Neuron 3 1 0.00000000 1 0.00000000 0.00000000 0.00000000 0.00000000
Neuron 4 1 0.00000000 1 0.00000000 0.00000000 0.00000000 0.00000000
Neuron 5 1 0.00000000 1 0.00000000 0.00000000 0.00000000 0.00000000
Neuron 6 2 0.00000000 1 0.00000000 0.00000000 0.00000000 0.00000000
Neuron 7 4 1.00000000 2 3.02500000 0.00000000 0.00000000 0.00000000
Neuron 8 4 1.00000000 6 3.02500000 0.00000000 0.00000000 0.00000000
Neuron 11 3 0.50000000 5 3.75850292 0.00000000 0.00000000 0.00000000
Neuron 14 3 0.75000000 6 1.39090960 0.00000000 0.00000000 0.00000000
Neuron 17 3 0.50000000 2 0.51776827 0.00000000 0.00000000 0.00000000
Link 1 7 1 0 -0.29118353
Link 2 7 2 0 0.40207536
Link 4 7 4 0 0.07099610
Link 5 7 5 0 0.16150322
Link 6 7 6 0 0.53140741
Link 2 8 8 0 0.32571542
Link 4 8 10 0 0.43294432
Link 5 8 11 0 -0.97344393
Link 6 8 12 0 0.53329526
Link 3 11 20 0 1.05552492
Link 11 14 30 0 1.30634746
Link 14 8 31 0 0.04844802
Link 3 17 45 0 0.51697326
Link 17 7 46 0 0.11438926
GenomeEnd

GenomeStart 6817
Genome Fitness: 404.000000 
Neuron 1 1 0.00000000 1 0.00000000 0.00000000 0.00000000 0.00000000
Neuron 2 1 0.00000000 1 0.00000000 0.00000000 0.00000000 0.00000000
Neuron 3 1 0.00000000 1 0.00000000 0.00000000 0.00000000 0.00000000
Neuron 4 1 0.00000000 1 0.00000000 0.00000000 0.00000000 0.00000000
Neuron 5 1 0.00000000 1 0.00000000 0.00000000 0.00000000 0.00000000
Neuron 6 2 0.00000000 1 0.00000000 0.00000000 0.00000000 0.00000000
Neuron 7 4 1.00000000 2 3.02500000 0.00000000 0.00000000 0.00000000
Neuron 8 4 1.00000000 2 3.02500000 0.00000000 0.00000000 0.00000000
Neuron 9 3 0.50000000 11 5.89185529 0.00000000 0.00000000 0.00000000
Neuron 12 3 0.50000000 11 2.96516409 0.00000000 0.00000000 0.00000000
Neuron 15 3 0.50000000 4 5.33516744 0.00000000 0.00000000 0.00000000
Neuron 18 3 0.50000000 4 3.95161310 0.00000000 0.00000000 0.00000000
Link 2 7 2 0 0.05866524
Link 3 7 3 0 0.18258561
Link 6 7 6 0 -0.21776994
Link 1 8 7 0 0.10872288
Link 3 8 9 0 0.17712621
Link 4 8 10 0 -0.03506910
Link 5 8 11 0 -0.48639074
Link 6 8 12 0 0.17358187
Link 2 9 14 0 -1.01809510
Link 9 8 15 0 -0.12473556
Link 5 12 23 0 -0.90709135
Link 12 7 24 0 -0.76359697
Link 4 15 36 0 1.22399519
Link 15 7 37 0 -0.02188451
Link 1 18 49 0 0.93721952
Link 18 7 50 0 0.31512704
GenomeEnd

GenomeStart 6818
Genome Fitness: 401.000000 
Neuron 1 1 0.00000000 1 0.00000000 0.00000000 0.00000000 0.00000000
Neuron 2 1 0.00000000 1 0.00000000 0.00000000 0.00000000 0.00000000
Neuron 3 1 0.00000000 1 0.00000000 0.00000000 0.00000000 0.00000000
Neuron 4 1 0.00000000 1 0.00000000 0.00000000 0.00000000 0.00000000
Neuron 5 1 0.00000000 1 0.00000000 0.00000000 0.00000000 0.00000000
Neuron 6 2 0.00000000 1 0.00000000 0.00000000 0.00000000 0.00000000
Neuron 7 4 1.00000000 2 3.02500000 0.00000000 0.00000000 0.00000000
Neuron 8 4 1.00000000 2 3.02500000 0.00000000 0.00000000 0.00000000
Neuron 9 3 0.50000000 11 5.89185529 0.00000000 0.00000000 0.00000000
Neuron 12 3 0.50000000 11 2.96516409 0.00000000 0.00000000 0.00000000
Neuron 15 3 0.50000000 4 5.33516744 0.00000000 0.00000000 0.00000000
Neuron 18 3 0.50000000 4 3.95161310 0.00000000 0.00000000 0.00000000
Link 2 7 2 0 0.01644488
Link 3 7 3 0 0.27821175
Link 6 7 6 0 -0.26213922
Link 1 8 7 0 0.25625788
Link 3 8 9 0 0.25388771
Link 4 8 10 0 -0.04766478
Link 5 8 11 0 -0.41628637
Link 6 8 12 0 0.14402154
Link 2 9 14 0 -0.89832874
Link 9 8 15 0 -0.03762676
Link 5 12 23 0 -0.90846220
Link 12 7 24 0 -0.63054049
Link 4 15 36 0 1.10695668
Link 15 7 37 0 -0.01838762
Link 1 18 49 0 1.00229160
Link 18 7 50 0 0.29863328
GenomeEnd

GenomeStart 6819
Genome Fitness: 236.000000 
Neuron 1 1 0.00000000 1 0.00000000 0.00000000 0.00000000 0.00000000
Neuron 2 1 0.00000000 1 0.00000000 0.00000000 0.00000000 0.00000000
Neuron 3 1 0.00000000 1 0.00000000 0.00000000 0.00000000 0.00000000
Neuron 4 1 0.00000000 1 0.00000000 0.00000000 0.00000000 0.00000000
Neuron 5 1 0.00000000 1 0.00000000 0.00000000 0.00000000 0.00000000
Neuron 6 2 0.00000000 1 0.00000000 0.00000000 0.00000000 0.00000000
Neuron 7 4 1.00000000 2 3.02500000 0.00000000 0.00000000 0.00000000
Neuron 8 4 1.00000000 2 3.02500000 0.00000000 0.00000000 0.00000000
Neuron 9 3 0.50000000 11 5.89185529 0.00000000 0.00000000 0.00000000
Neuron 12 3 0.50000000 11 2.96516409 0.00000000 0.00000000 0.00000000
Neuron 15 3 0.50000000 4 5.33516744 0.00000000 0.00000000 0.00000000
Neuron 18 3 0.50000000 4 3.95161310 0.00000000 0.00000000 0.00000000
Link 2 7 2 0 0.14808576
Link 3 7 3 0 0.32369103
Link 6 7 6 0 -0.23048136
Link 1 8 7 0 0.22366989
Link 3 8 9 0 0.21073631
Link 4 8 10 0 -0.12869045
Link 5 8 11 0 -0.57667608
Link 6 8 12 0 0.17969112
Link 2 9 14 0 -0.73481381
Link 9 8 15 0 -0.07032899
Link 5 12 23 0 -0.90709135
Link 12 7 24 0 -0.77975175
Link 4 15 36 0 0.56829215
Link 15 7 37 0 0.06105727
Link 1 18 49 0 0.96528712
Link 18 7 50 0 0.22555757
GenomeEnd

GenomeStart 6820
Genome Fitness: 218.000000 
Neuron 1 1 0.00000000 1 0.00000000 0.00000000 0.00000000 0.00000000
Neuron 2 1 0.00000000 1 0.00000000 0.00000000 0.00000000 0.00000000
Neuron 3 1 0.00000000 1 0.00000000 0.00000000 0.00000000 0.00000000
Neuron 4 1 0.00000000 1 0.00000000 0.00000000 0.00000000 0.00000000
Neuron 5 1 0.00000000 1 0.00000000 0.00000000 0.00000000 0.00000000
Neuron 6 2 0.00000000 1 0.00000000 0.00000000 0.00000000 0.00000000
Neuron 7 4 1.00000000 2 3.02500000 0.00000000 0.00000000 0.00000000
Neuron 8 4 1.00000000 2 3.02500000 0.00000000 0.00000000 0.00000000
Neuron 9 3 0.50000000 11 5.89185529 0.00000000 0.00000000 0.00000000
Neuron 12 3 0.50000000 11 2.96516409 0.00000000 0.00000000 0.00000000
Neuron 15 3 0.50000000 4 5.33516744 0.00000000 0.00000000 0.00000000
Neuron 18 3 0.50000000 4 3.95161310 0.00000000 0.00000000 0.00000000
Link 2 7 2 0 0.16813691
Link 3 7 3 0 0.21861676
Link 6 7 6 0 -0.34843233
Link 1 8 7 0 0.16668583
Link 3 8 9 0 0.31276735
Link 4 8 10 0 -0.01349848
Link 5 8 11 0 -0.42594972
Link 6 8 12 0 0.27087668
Link 2 9 14 0 -0.95574957
Link 9 8 15 0 -0.15184512
Link 5 12 23 0 -0.87536011
Link 12 7 24 0 -0.92608741
Link 4 15 36 0 0.97332752
Link 15 7 37 0 -0.08307219
Link 1 18 49 0 0.99884893
Link 18 7 50 0 0.30210874
GenomeEnd

GenomeStart 6821
Genome Fitness: 258.000000 
Neuron 1 1 0.00000000 1 0.00000000 0.00000000 0.00000000 0.00000000
Neuron 2 1 0.00000000 1 0.00000000 0.00000000 0.00000000 0.00000000
Neuron 3 1 0.00000000 1 0.00000000 0.00000000 0.00000000 0.00000000
Neuron 4 1 0.00000000 1 0.00000000 0.00000000 0.00000000 0.00000000
Neuron 5 1 0.00000000 1 0.00000000 0.00000000 0.00000000 0.00000000
Neuron 6 2 0.00000000 1 0.00000000 0.00000000 0.00000000 0.00000000
Neuron 7 4 1.00000000 2 3.02500000 0.00000000 0.00000000 0.00000000
Neuron 8 4 1.00000000 2 3.02500000 0.00000000 0.00000000 0.00000000
Neuron 9 3 0.50000000 11 5.89185529 0.00000000 0.00000000 0.00000000
Neuron 12 3 0.50000000 11 2.96516409 0.00000000 0.00000000 0.00000000
Neuron 15 3 0.50000000 4 5.33516744 0.00000000 0.00000000 0.00000000
Neuron 18 3 0.50000000 4 3.95161310 0.00000000 0.00000000 0.00000000
Link 2 7 2 0 0.12533489
Link 3 7 3 0 0.26631124
Link 6 7 6 0 -0.26213922
Link 1 8 7 0 -0.71284256
Link 3 8 9 0 -0.49941518
Link 4 8 10 0 0.90833212
Link 5 8 11 0 -0.40658413
Link 6 8 12 0 0.18898498
Link 2 9 14 0 -1.18441733
Link 9 8 15 0 -0.61324315
Link 5 12 23 0 -0.99916924
Link 12 7 24 0 -0.43799344
Link 4 15 36 0 1.12198625
Link 15 7 37 0 -0.06327460
Link 1 18 49 0 1.15976793
Link 18 7 50 0 0.32139151
GenomeEnd

GenomeStart 6822
Genome Fitness: 192.000000 
Neuron 1 1 0.00000000 1 0.00000000 0.00000000 0.00000000 0.00000000
Neuron 2 1 0.00000000 1 0.00000000 0.00000000 0.00000000 0.00000000
Neuron 3 1 0.00000000 1 0.00000000 0.00000000 0.00000000 0.00000000
Neuron 4 1 0.00000000 1 0.00000000 0.00000000 0.00000000 0.00000000
Neuron 5 1 0.00000000 1 0.00000000 0.00000000 0.00000000 0.00000000
Neuron 6 2 0.00000000 1 0.00000000 0.00000000 0.00000000 0.00000000
Neuron 7 4 1.00000000 2 3.02500000 0.00000000 0.00000000 0.00000000
Neuron 8 4 1.00000000 2 3.02500000 0.00000000 0.00000000 0.00000000
Neuron 9 3 0.50000000 11 5.89185529 0.00000000 0.00000000 0.00000000
Neuron 12 3 0.50000000 11 2.96516409 0.00000000 0.00000000 0.00000000
Neuron 15 3 0.50000000 4 5.33516744 0.00000000 0.00000000 0.00000000
Neuron 18 3 0.50000000 4 3.95161310 0.00000000 0.00000000 0.00000000
Link 2 7 2 0 0.07787102
Link 3 7 3 0 0.11768957
Link 6 7 6 0 -0.19592634
Link 1 8 7 0 0.18772810
Link 3 8 9 0 0.10606875
Link 4 8 10 0 -0.05278810
Link 5 8 11 0 -0.32077603
Link 6 8 12 0 0.22826847
Link 2 9 14 0 -0.87193178
Link 9 8 15 0 -0.09368133
Link 5 12 23 0 -0.90709135
Link 12 7 24 0 -0.76359697
Link 4 15 36 0 1.30024603
Link 15 7 37 0 0.78229053
Link 1 18 49 0 0.93721952
Link 18 7 50 0 0.32731862
GenomeEnd

GenomeStart 6823
Genome Fitness: 225.000000 
Neuron 1 1 0.00000000 1 0.00000000 0.00000000 0.00000000 0.00000000
Neuron 2 1 0.00000000 1 0.00000000 0.00000000 0.00000000 0.00000000
Neuron 3 1 0.00000000 1 0.00000000 0.00000000 0.00000000 0.00000000
Neuron 4 1 0.00000000 1 0.00000000 0.00000000 0.00000000 0.00000000
Neuron 5 1 0.00000000 1 0.00000000 0.00000000 0.00000000 0.00000000
Neuron 6 2 0.00000000 1 0.00000000 0.00000000 0.00000000 0.00000000
Neuron 7 4 1.00000000 2 3.02500000 0.00000000 0.00000000 0.00000000
Neuron 8 4 1.00000000 2 3.02500000 0.00000000 0.00000000 0.00000000
Neuron 9 3 0.50000000 11 5.89185529 0.00000000 0.00000000 0.00000000
Neuron 12 3 0.50000000 11 2.96516409 0.00000000 0.00000000 0.00000000
Neuron 15 3 0.50000000 4 5.33516744 0.00000000 0.00000000 0.00000000
Neuron 18 3 0.50000000 4 3.95161310 0.00000000 0.00000000 0.00000000
Link 2 7 2 0 0.03054761
Link 3 7 3 0 0.17156057
Link 6 7 6 0 -0.39564937
Link 1 8 7 0 0.05047064
Link 3 8 9 0 0.15598598
Link 4 8 10 0 -0.16726104
Link 5 8 11 0 -0.41037447
Link 6 8 12 0 0.15041345
Link 2 9 14 0 -0.93052891
Link 9 8 15 0 -0.05153143
Link 5 12 23 0 -0.93182277
Link 12 7 24 0 -0.68662626
Link 4 15 36 0 1.37849911
Link 15 7 37 0 0.02502490
Link 1 18 49 0 0.85763489
Link 18 7 50 0 0.43207022
GenomeEnd

GenomeStart 6824
Genome Fitness: 384.000000 
Neuron 1 1 0.00000000 1 0.00000000 0.00000000 0.00000000 0.00000000
