NEAT_ParametersStart
PopulationSize 150
DynamicCompatibility true
MinSpecies 5
MaxSpecies 25
InnovationsForever true
AllowClones false
YoungAgeTreshold 15
YoungAgeFitnessBoost 1.10000000000000008882
SpeciesDropoffAge 50
StagnationDelta 0.00000000000000000000
OldAgeTreshold 35
OldAgePenalty 1.00000000000000000000
DetectCompetetiveCoevolutionStagnation false
KillWorstSpeciesEach 15
KillWorstAge 10
SurvivalRate 0.20000000000000001110
CrossoverRate 0.80000000000000004441
OverallMutationRate 0.69999999999999995559
InterspeciesCrossoverRate 0.00010000000000000000
MultipointCrossoverRate 0.75000000000000000000
RouletteWheelSelection false
PhasedSearching false
DeltaCoding false
SimplifyingPhaseMPCTreshold 20
SimplifyingPhaseStagnationTreshold 30
ComplexityFloorGenerations 40
NoveltySearch_K 15
NoveltySearch_P_min 0.50000000000000000000
NoveltySearch_Dynamic_Pmin true
NoveltySearch_No_Archiving_Stagnation_Treshold 150
NoveltySearch_Pmin_lowering_multiplier 0.90000000000000002220
NoveltySearch_Pmin_min 0.05000000000000000278
NoveltySearch_Quick_Archiving_Min_Evaluations 8
NoveltySearch_Pmin_raising_multiplier 1.10000000000000008882
NoveltySearch_Recompute_Sparseness_Each 25
MutateAddNeuronProb 0.02000000000000000042
SplitRecurrent true
SplitLoopedRecurrent true
NeuronTries 32580
MutateAddLinkProb 0.05000000000000000278
MutateAddLinkFromBiasProb 0.00000000000000000000
MutateRemLinkProb 0.01000000000000000021
MutateRemSimpleNeuronProb 0.00000000000000000000
LinkTries 32
RecurrentProb 0.00000000000000000000
RecurrentLoopProb 0.25000000000000000000
MutateWeightsProb 0.90000000000000002220
MutateWeightsSevereProb 0.25000000000000000000
WeightMutationRate 1.00000000000000000000
WeightMutationMaxPower 0.20000000000000001110
WeightReplacementMaxPower 1.00000000000000000000
MaxWeight 8.00000000000000000000
MutateActivationAProb 0.00000000000000000000
MutateActivationBProb 0.00000000000000000000
ActivationAMutationMaxPower 0.50000000000000000000
ActivationBMutationMaxPower 0.00000000000000000000
TimeConstantMutationMaxPower 0.00000000000000000000
BiasMutationMaxPower 1.00000000000000000000
MinActivationA 0.05000000000000000278
MaxActivationA 6.00000000000000000000
MinActivationB 0.00000000000000000000
MaxActivationB 0.00000000000000000000
MutateNeuronActivationTypeProb 0.02000000000000000042
ActivationFunction_SignedSigmoid_Prob 0.00000000000000000000
ActivationFunction_UnsignedSigmoid_Prob 1.00000000000000000000
ActivationFunction_Tanh_Prob 1.00000000000000000000
ActivationFunction_TanhCubic_Prob 1.00000000000000000000
ActivationFunction_SignedStep_Prob 1.00000000000000000000
ActivationFunction_UnsignedStep_Prob 1.00000000000000000000
ActivationFunction_SignedGauss_Prob 1.00000000000000000000
ActivationFunction_UnsignedGauss_Prob 1.00000000000000000000
ActivationFunction_Abs_Prob 1.00000000000000000000
ActivationFunction_SignedSine_Prob 1.00000000000000000000
ActivationFunction_UnsignedSine_Prob 1.00000000000000000000
ActivationFunction_Linear_Prob 1.00000000000000000000
ActivationFunction_Relu_Prob 0.00000000000000000000
ActivationFunction_Softplus_Prob 0.00000000000000000000
MutateNeuronTimeConstantsProb 0.00000000000000000000
MutateNeuronBiasesProb 0.00000000000000000000
MinNeuronTimeConstant 0.00000000000000000000
MaxNeuronTimeConstant 0.00000000000000000000
MinNeuronBias 0.00000000000000000000
MaxNeuronBias 0.00000000000000000000
DisjointCoeff 1.00000000000000000000
ExcessCoeff 1.00000000000000000000
ActivationADiffCoeff 0.00000000000000000000
ActivationBDiffCoeff 0.00000000000000000000
WeightDiffCoeff 0.50000000000000000000
TimeConstantDiffCoeff 0.00000000000000000000
BiasDiffCoeff 0.00000000000000000000
ActivationFunctionDiffCoeff 0.00000000000000000000
CompatTreshold 3.19999999999999928946
MinCompatTreshold 0.20000000000000001110
CompatTresholdModifier 0.29999999999999998890
CompatTreshChangeInterval_Generations 1
CompatTreshChangeInterval_Evaluations 10
DivisionThreshold 0.02999999999999999889
VarianceThreshold 0.02999999999999999889
BandThreshold 0.29999999999999998890
InitialDepth 3
MaxDepth 3
IterationLevel 1
TournamentSize 2
CPPN_Bias -1.00000000000000000000
Width 2.00000000000000000000
Height 2.00000000000000000000
Qtree_X 0.00000000000000000000
Qtree_Y 0.00000000000000000000
Leo false
LeoThreshold 0.10000000000000000555
LeoSeed false
GeometrySeed false
Elitism 0.10000000000000000555
NEAT_ParametersEnd
InnovationDatabaseStart
NextInnovNum: 300
NextNeuronID: 57
Innovation 1 1 1 7 0 -1
Innovation 2 1 2 7 0 -1
Innovation 3 1 3 7 0 -1
Innovation 4 1 4 7 0 -1
Innovation 5 1 5 7 0 -1
Innovation 6 1 6 7 0 -1
Innovation 7 1 1 8 0 -1
Innovation 8 1 2 8 0 -1
Innovation 9 1 3 8 0 -1
Innovation 10 1 4 8 0 -1
Innovation 11 1 5 8 0 -1
Innovation 12 1 6 8 0 -1
Innovation 13 0 2 8 3 9
Innovation 14 1 2 9 0 -1
Innovation 15 1 9 8 0 -1
Innovation 16 0 2 7 3 10
Innovation 17 1 2 10 0 -1
Innovation 18 1 10 7 0 -1
Innovation 19 0 3 8 3 11
Innovation 20 1 3 11 0 -1
Innovation 21 1 11 8 0 -1
Innovation 22 0 5 7 3 12
Innovation 23 1 5 12 0 -1
Innovation 24 1 12 7 0 -1
Innovation 25 0 9 8 3 13
Innovation 26 1 9 13 0 -1
Innovation 27 1 13 8 0 -1
Innovation 28 1 1 9 0 -1
Innovation 29 0 11 8 3 14
Innovation 30 1 11 14 0 -1
Innovation 31 1 14 8 0 -1
Innovation 32 1 11 7 0 -1
Innovation 33 1 4 11 0 -1
Innovation 34 1 5 9 0 -1
Innovation 35 0 4 7 3 15
Innovation 36 1 4 15 0 -1
Innovation 37 1 15 7 0 -1
Innovation 38 1 2 13 0 -1
Innovation 39 0 1 8 3 16
Innovation 40 1 1 16 0 -1
Innovation 41 1 16 8 0 -1
Innovation 42 1 6 10 0 -1
Innovation 43 1 4 14 0 -1
Innovation 44 0 3 7 3 17
Innovation 45 1 3 17 0 -1
Innovation 46 1 17 7 0 -1
Innovation 47 1 3 9 0 -1
Innovation 48 0 1 7 3 18
Innovation 49 1 1 18 0 -1
Innovation 50 1 18 7 0 -1
Innovation 51 0 16 8 3 19
Innovation 52 1 16 19 0 -1
Innovation 53 1 19 8 0 -1
Innovation 54 1 2 11 0 -1
Innovation 55 1 1 15 0 -1
Innovation 56 1 15 14 0 -1
Innovation 57 0 2 9 3 20
Innovation 58 1 2 20 0 -1
Innovation 59 1 20 9 0 -1
Innovation 60 0 4 8 3 21
Innovation 61 1 4 21 0 -1
Innovation 62 1 21 8 0 -1
Innovation 63 1 5 11 0 -1
Innovation 64 0 15 7 3 22
Innovation 65 1 15 22 0 -1
Innovation 66 1 22 7 0 -1
Innovation 67 1 6 14 0 -1
Innovation 68 1 1 14 0 -1
Innovation 69 1 10 8 0 -1
Innovation 70 1 4 12 0 -1
Innovation 71 1 12 18 0 -1
Innovation 72 1 16 7 0 -1
Innovation 73 1 3 18 0 -1
Innovation 74 1 6 12 0 -1
Innovation 75 1 6 19 0 -1
Innovation 76 1 14 7 0 -1
Innovation 77 1 17 8 0 -1
Innovation 78 0 12 7 3 23
Innovation 79 1 12 23 0 -1
Innovation 80 1 23 7 0 -1
Innovation 81 1 9 7 0 -1
Innovation 82 1 2 18 0 -1
Innovation 83 0 5 8 3 24
Innovation 84 1 5 24 0 -1
Innovation 85 1 24 8 0 -1
Innovation 86 1 5 15 0 -1
Innovation 87 1 6 9 0 -1
Innovation 88 1 11 24 0 -1
Innovation 89 1 2 16 0 -1
Innovation 90 1 6 11 0 -1
Innovation 91 1 10 15 0 -1
Innovation 92 1 11 17 0 -1
Innovation 93 1 3 10 0 -1
Innovation 94 1 18 21 0 -1
Innovation 95 1 2 14 0 -1
Innovation 96 1 20 7 0 -1
Innovation 97 1 9 12 0 -1
Innovation 98 1 6 18 0 -1
Innovation 99 1 3 15 0 -1
Innovation 100 1 2 15 0 -1
Innovation 101 1 16 21 0 -1
Innovation 102 1 15 11 0 -1
Innovation 103 1 5 14 0 -1
Innovation 104 1 1 11 0 -1
Innovation 105 1 5 21 0 -1
Innovation 106 1 4 10 0 -1
Innovation 107 1 3 16 0 -1
Innovation 108 0 4 14 3 25
Innovation 109 1 4 25 0 -1
Innovation 110 1 25 14 0 -1
Innovation 111 1 9 15 0 -1
Innovation 112 1 11 15 0 -1
Innovation 113 1 1 17 0 -1
Innovation 114 1 3 12 0 -1
Innovation 115 1 5 10 0 -1
Innovation 116 1 2 12 0 -1
Innovation 117 1 24 11 0 -1
Innovation 118 1 5 18 0 -1
Innovation 119 0 14 8 3 26
Innovation 120 1 14 26 0 -1
Innovation 121 1 26 8 0 -1
Innovation 122 1 5 22 0 -1
Innovation 123 1 18 12 0 -1
Innovation 124 0 17 7 3 27
Innovation 125 1 17 27 0 -1
Innovation 126 1 27 7 0 -1
Innovation 127 0 5 22 3 28
Innovation 128 1 5 28 0 -1
Innovation 129 1 28 22 0 -1
Innovation 130 1 2 21 0 -1
Innovation 131 1 3 14 0 -1
Innovation 132 0 4 15 3 29
Innovation 133 1 4 29 0 -1
Innovation 134 1 29 15 0 -1
Innovation 135 0 2 10 3 30
Innovation 136 1 2 30 0 -1
Innovation 137 1 30 10 0 -1
Innovation 138 1 12 8 0 -1
Innovation 139 1 6 15 0 -1
Innovation 140 1 4 9 0 -1
Innovation 141 1 3 13 0 -1
Innovation 142 1 4 23 0 -1
Innovation 143 1 5 19 0 -1
Innovation 144 1 9 10 0 -1
Innovation 145 1 24 14 0 -1
Innovation 146 1 4 13 0 -1
Innovation 147 1 21 7 0 -1
Innovation 148 1 18 8 0 -1
Innovation 149 0 20 9 3 31
Innovation 150 1 20 31 0 -1
Innovation 151 1 31 9 0 -1
Innovation 152 1 5 13 0 -1
Innovation 153 1 4 24 0 -1
Innovation 154 1 1 12 0 -1
Innovation 155 1 15 18 0 -1
Innovation 156 1 16 14 0 -1
Innovation 157 0 15 22 3 32
Innovation 158 1 15 32 0 -1
Innovation 159 1 32 22 0 -1
Innovation 160 1 4 20 0 -1
Innovation 161 1 20 15 0 -1
Innovation 162 0 18 7 3 33
Innovation 163 1 18 33 0 -1
Innovation 164 1 33 7 0 -1
Innovation 165 1 10 9 0 -1
Innovation 166 0 16 19 3 34
Innovation 167 1 16 34 0 -1
Innovation 168 1 34 19 0 -1
Innovation 169 1 12 9 0 -1
Innovation 170 1 10 12 0 -1
Innovation 171 1 4 16 0 -1
Innovation 172 0 5 24 3 35
Innovation 173 1 5 35 0 -1
Innovation 174 1 35 24 0 -1
Innovation 175 0 1 16 3 36
Innovation 176 1 1 36 0 -1
Innovation 177 1 36 16 0 -1
Innovation 178 1 11 18 0 -1
Innovation 179 1 18 14 0 -1
Innovation 180 0 5 12 3 37
Innovation 181 1 5 37 0 -1
Innovation 182 1 37 12 0 -1
Innovation 183 1 15 8 0 -1
Innovation 184 0 10 7 3 38
Innovation 185 1 10 38 0 -1
Innovation 186 1 38 7 0 -1
Innovation 187 0 4 20 3 39
Innovation 188 1 4 39 0 -1
Innovation 189 1 39 20 0 -1
Innovation 190 1 21 12 0 -1
Innovation 191 1 9 16 0 -1
Innovation 192 1 16 11 0 -1
Innovation 193 0 5 11 3 40
Innovation 194 1 5 40 0 -1
Innovation 195 1 40 11 0 -1
Innovation 196 1 17 11 0 -1
Innovation 197 1 17 14 0 -1
Innovation 198 1 23 8 0 -1
Innovation 199 0 9 7 3 41
Innovation 200 1 9 41 0 -1
Innovation 201 1 41 7 0 -1
Innovation 202 1 5 16 0 -1
Innovation 203 0 11 14 3 42
Innovation 204 1 11 42 0 -1
Innovation 205 1 42 14 0 -1
Innovation 206 1 6 16 0 -1
Innovation 207 1 9 19 0 -1
Innovation 208 1 12 16 0 -1
Innovation 209 1 15 12 0 -1
Innovation 210 1 6 17 0 -1
Innovation 211 1 11 12 0 -1
Innovation 212 1 3 19 0 -1
Innovation 213 0 21 8 3 43
Innovation 214 1 21 43 0 -1
Innovation 215 1 43 8 0 -1
Innovation 216 1 16 9 0 -1
Innovation 217 1 11 16 0 -1
Innovation 218 1 3 23 0 -1
Innovation 219 1 1 21 0 -1
Innovation 220 1 1 26 0 -1
Innovation 221 1 9 23 0 -1
Innovation 222 0 4 11 3 44
Innovation 223 1 4 44 0 -1
Innovation 224 1 44 11 0 -1
Innovation 225 1 4 18 0 -1
Innovation 226 1 5 17 0 -1
Innovation 227 1 6 26 0 -1
Innovation 228 1 3 21 0 -1
Innovation 229 1 2 44 0 -1
Innovation 230 1 11 26 0 -1
Innovation 231 1 6 20 0 -1
Innovation 232 0 1 18 3 45
Innovation 233 1 1 45 0 -1
Innovation 234 1 45 18 0 -1
Innovation 235 1 2 26 0 -1
Innovation 236 1 18 11 0 -1
Innovation 237 1 15 16 0 -1
Innovation 238 1 1 23 0 -1
Innovation 239 1 44 7 0 -1
Innovation 240 1 12 14 0 -1
Innovation 241 1 12 21 0 -1
Innovation 242 0 1 11 3 46
Innovation 243 1 1 46 0 -1
Innovation 244 1 46 11 0 -1
Innovation 245 1 9 21 0 -1
Innovation 246 0 11 7 3 47
Innovation 247 1 11 47 0 -1
Innovation 248 1 47 7 0 -1
Innovation 249 0 23 7 3 48
Innovation 250 1 23 48 0 -1
Innovation 251 1 48 7 0 -1
Innovation 252 0 3 11 3 49
Innovation 253 1 3 49 0 -1
Innovation 254 1 49 11 0 -1
Innovation 255 1 5 44 0 -1
Innovation 256 1 26 7 0 -1
Innovation 257 1 2 19 0 -1
Innovation 258 1 6 44 0 -1
Innovation 259 1 3 44 0 -1
Innovation 260 1 18 26 0 -1
Innovation 261 1 6 23 0 -1
Innovation 262 0 9 12 3 50
Innovation 263 1 9 50 0 -1
Innovation 264 1 50 12 0 -1
Innovation 265 1 5 26 0 -1
Innovation 266 1 19 7 0 -1
Innovation 267 1 5 33 0 -1
Innovation 268 1 44 8 0 -1
Innovation 269 1 2 46 0 -1
Innovation 270 0 4 44 3 51
Innovation 271 1 4 51 0 -1
Innovation 272 1 51 44 0 -1
Innovation 273 1 4 19 0 -1
Innovation 274 1 33 14 0 -1
Innovation 275 1 49 8 0 -1
Innovation 276 1 10 18 0 -1
Innovation 277 0 19 8 3 52
Innovation 278 1 19 52 0 -1
Innovation 279 1 52 8 0 -1
Innovation 280 0 26 8 3 53
Innovation 281 1 26 53 0 -1
Innovation 282 1 53 8 0 -1
Innovation 283 0 4 21 3 54
Innovation 284 1 4 54 0 -1
Innovation 285 1 54 21 0 -1
Innovation 286 1 5 46 0 -1
Innovation 287 1 44 15 0 -1
Innovation 288 1 11 33 0 -1
Innovation 289 0 47 7 3 55
Innovation 290 1 47 55 0 -1
Innovation 291 1 55 7 0 -1
Innovation 292 1 12 19 0 -1
Innovation 293 0 44 11 3 56
Innovation 294 1 44 56 0 -1
Innovation 295 1 56 11 0 -1
Innovation 296 1 44 18 0 -1
Innovation 297 1 46 14 0 -1
Innovation 298 1 33 8 0 -1
Innovation 299 1 47 33 0 -1
InnovationDatabaseEnd

GenomeStart 22537
Genome Fitness: 537.000000 
Neuron 1 1 0.00000000 1 0.00000000 0.00000000 0.00000000 0.00000000
Neuron 2 1 0.00000000 1 0.00000000 0.00000000 0.00000000 0.00000000
Neuron 3 1 0.00000000 1 0.00000000 0.00000000 0.00000000 0.00000000
Neuron 4 1 0.00000000 1 0.00000000 0.00000000 0.00000000 0.00000000
Neuron 5 1 0.00000000 1 0.00000000 0.00000000 0.00000000 0.00000000
Neuron 6 2 0.00000000 1 0.00000000 0.00000000 0.00000000 0.00000000
Neuron 7 4 1.00000000 2 3.02500000 0.00000000 0.00000000 0.00000000
Neuron 8 4 1.00000000 2 3.02500000 0.00000000 0.00000000 0.00000000
Neuron 9 3 0.50000000 10 5.89185529 0.00000000 0.00000000 0.00000000
Neuron 16 3 0.50000000 10 1.64230847 0.00000000 0.00000000 0.00000000
Link 1 7 1 0 0.26963024
Link 2 7 2 0 0.12951324
Link 3 7 3 0 0.12705390
Link 4 7 4 0 0.09305443
Link 5 7 5 0 -0.56130124
Link 6 7 6 0 0.19640737
Link 3 8 9 0 0.59291445
Link 4 8 10 0 0.25082834
Link 5 8 11 0 -0.14043335
Link 6 8 12 0 0.00160219
Link 2 9 14 0 1.09065239
Link 9 8 15 0 -0.61758188
Link 1 16 40 0 1.04826245
Link 16 8 41 0 -0.00579390
GenomeEnd

GenomeStart 22538
Genome Fitness: 537.000000 
Neuron 1 1 0.00000000 1 0.00000000 0.00000000 0.00000000 0.00000000
Neuron 2 1 0.00000000 1 0.00000000 0.00000000 0.00000000 0.00000000
Neuron 3 1 0.00000000 1 0.00000000 0.00000000 0.00000000 0.00000000
Neuron 4 1 0.00000000 1 0.00000000 0.00000000 0.00000000 0.00000000
Neuron 5 1 0.00000000 1 0.00000000 0.00000000 0.00000000 0.00000000
Neuron 6 2 0.00000000 1 0.00000000 0.00000000 0.00000000 0.00000000
Neuron 7 4 1.00000000 2 3.02500000 0.00000000 0.00000000 0.00000000
Neuron 8 4 1.00000000 2 3.02500000 0.00000000 0.00000000 0.00000000
Neuron 9 3 0.50000000 10 5.89185529 0.00000000 0.00000000 0.00000000
Neuron 16 3 0.50000000 10 1.64230847 0.00000000 0.00000000 0.00000000
Link 1 7 1 0 0.26963024
Link 2 7 2 0 0.12951324
Link 3 7 3 0 0.12705390
Link 4 7 4 0 0.09305443
Link 5 7 5 0 -0.56130124
Link 6 7 6 0 0.19640737
Link 3 8 9 0 0.59291445
Link 4 8 10 0 0.22461515
Link 5 8 11 0 -0.14043335
Link 6 8 12 0 0.00160219
Link 2 9 14 0 1.08455841
Link 9 8 15 0 -0.61758188
Link 1 16 40 0 1.04826245
Link 16 8 41 0 -0.00579390
GenomeEnd

GenomeStart 22539
Genome Fitness: 115.000000 
Neuron 1 1 0.00000000 1 0.00000000 0.00000000 0.00000000 0.00000000
Neuron 2 1 0.00000000 1 0.00000000 0.00000000 0.00000000 0.00000000
Neuron 3 1 0.00000000 1 0.00000000 0.00000000 0.00000000 0.00000000
Neuron 4 1 0.00000000 1 0.00000000 0.00000000 0.00000000 0.00000000
Neuron 5 1 0.00000000 1 0.00000000 0.00000000 0.00000000 0.00000000
Neuron 6 2 0.00000000 1 0.00000000 0.00000000 0.00000000 0.00000000
Neuron 7 4 1.00000000 2 3.02500000 0.00000000 0.00000000 0.00000000
Neuron 8 4 1.00000000 2 3.02500000 0.00000000 0.00000000 0.00000000
Neuron 9 3 0.50000000 10 5.89185529 0.00000000 0.00000000 0.00000000
Neuron 16 3 0.50000000 10 1.64230847 0.00000000 0.00000000 0.00000000
Link 1 7 1 0 0.29311089
Link 2 7 2 0 0.15453962
Link 3 7 3 0 0.14972294
Link 4 7 4 0 -0.06865310
Link 5 7 5 0 -0.62890304
Link 6 7 6 0 0.23131581
Link 3 8 9 0 0.66732938
Link 4 8 10 0 0.15262629
Link 5 8 11 0 -0.07576377
Link 6 8 12 0 -0.06463282
Link 2 9 14 0 1.02987984
Link 9 8 15 0 -0.70094814
Link 1 16 40 0 0.92445537
Link 16 8 41 0 0.07804548
GenomeEnd

GenomeStart 22540
Genome Fitness: 537.000000 
Neuron 1 1 0.00000000 1 0.00000000 0.00000000 0.00000000 0.00000000
Neuron 2 1 0.00000000 1 0.00000000 0.00000000 0.00000000 0.00000000
Neuron 3 1 0.00000000 1 0.00000000 0.00000000 0.00000000 0.00000000
Neuron 4 1 0.00000000 1 0.00000000 0.00000000 0.00000000 0.00000000
Neuron 5 1 0.00000000 1 0.00000000 0.00000000 0.00000000 0.00000000
Neuron 6 2 0.00000000 1 0.00000000 0.00000000 0.00000000 0.00000000
Neuron 7 4 1.00000000 2 3.02500000 0.00000000 0.00000000 0.00000000
Neuron 8 4 1.00000000 2 3.02500000 0.00000000 0.00000000 0.00000000
Neuron 9 3 0.50000000 10 5.89185529 0.00000000 0.00000000 0.00000000
Neuron 16 3 0.50000000 10 1.64230847 0.00000000 0.00000000 0.00000000
Link 1 7 1 0 0.26963024
Link 2 7 2 0 0.12951324
Link 3 7 3 0 0.12705390
Link 4 7 4 0 0.09305443
Link 5 7 5 0 -0.56130124
Link 6 7 6 0 0.19640737
Link 3 8 9 0 0.59291445
Link 4 8 10 0 0.23772174
Link 5 8 11 0 -0.14043335
Link 6 8 12 0 0.00160219
Link 2 9 14 0 1.08760540
Link 9 8 15 0 -0.61758188
Link 1 16 40 0 1.04826245
Link 16 8 41 0 -0.00579390
GenomeEnd

GenomeStart 22541
Genome Fitness: 218.000000 
Neuron 1 1 0.00000000 1 0.00000000 0.00000000 0.00000000 0.00000000
Neuron 2 1 0.00000000 1 0.00000000 0.00000000 0.00000000 0.00000000
Neuron 3 1 0.00000000 1 0.00000000 0.00000000 0.00000000 0.00000000
Neuron 4 1 0.00000000 1 0.00000000 0.00000000 0.00000000 0.00000000
Neuron 5 1 0.00000000 1 0.00000000 0.00000000 0.00000000 0.00000000
Neuron 6 2 0.00000000 1 0.00000000 0.00000000 0.00000000 0.00000000
Neuron 7 4 1.00000000 2 3.02500000 0.00000000 0.00000000 0.00000000
Neuron 8 4 1.00000000 2 3.02500000 0.00000000 0.00000000 0.00000000
Neuron 9 3 0.50000000 10 5.89185529 0.00000000 0.00000000 0.00000000
Neuron 16 3 0.50000000 10 1.64230847 0.00000000 0.00000000 0.00000000
Link 1 7 1 0 0.29895509
Link 2 7 2 0 0.10939264
Link 3 7 3 0 0.17822996
Link 4 7 4 0 0.10398760
Link 5 7 5 0 -0.60930272
Link 6 7 6 0 0.15386964
Link 3 8 9 0 0.72860159
Link 4 8 10 0 0.24288354
Link 5 8 11 0 -0.01606061
Link 6 8 12 0 0.01941411
Link 2 9 14 0 1.16085969
Link 9 8 15 0 -0.56046332
Link 1 16 40 0 1.02421643
Link 16 8 41 0 -0.03650125
GenomeEnd

GenomeStart 22542
Genome Fitness: 193.000000 
Neuron 1 1 0.00000000 1 0.00000000 0.00000000 0.00000000 0.00000000
Neuron 2 1 0.00000000 1 0.00000000 0.00000000 0.00000000 0.00000000
Neuron 3 1 0.00000000 1 0.00000000 0.00000000 0.00000000 0.00000000
Neuron 4 1 0.00000000 1 0.00000000 0.00000000 0.00000000 0.00000000
Neuron 5 1 0.00000000 1 0.00000000 0.00000000 0.00000000 0.00000000
Neuron 6 2 0.00000000 1 0.00000000 0.00000000 0.00000000 0.00000000
Neuron 7 4 1.00000000 2 3.02500000 0.00000000 0.00000000 0.00000000
Neuron 8 4 1.00000000 2 3.02500000 0.00000000 0.00000000 0.00000000
Neuron 9 3 0.50000000 10 5.89185529 0.00000000 0.00000000 0.00000000
Neuron 16 3 0.50000000 10 1.64230847 0.00000000 0.00000000 0.00000000
Link 1 7 1 0 0.70220606
Link 2 7 2 0 0.05118293
Link 3 7 3 0 0.05133265
Link 4 7 4 0 0.17115945
Link 5 7 5 0 -0.54185905
Link 6 7 6 0 0.08333320
Link 3 8 9 0 0.62592076
Link 4 8 10 0 0.36050636
Link 5 8 11 0 -0.14043335
Link 6 8 12 0 -0.25456198
Link 2 9 14 0 0.95189115
Link 9 8 15 0 -0.64306820
Link 1 16 40 0 1.05020484
Link 16 8 41 0 -0.11926834
GenomeEnd

GenomeStart 22543
Genome Fitness: 537.000000 
Neuron 1 1 0.00000000 1 0.00000000 0.00000000 0.00000000 0.00000000
Neuron 2 1 0.00000000 1 0.00000000 0.00000000 0.00000000 0.00000000
Neuron 3 1 0.00000000 1 0.00000000 0.00000000 0.00000000 0.00000000
Neuron 4 1 0.00000000 1 0.00000000 0.00000000 0.00000000 0.00000000
Neuron 5 1 0.00000000 1 0.00000000 0.00000000 0.00000000 0.00000000
Neuron 6 2 0.00000000 1 0.00000000 0.00000000 0.00000000 0.00000000
Neuron 7 4 1.00000000 2 3.02500000 0.00000000 0.00000000 0.00000000
Neuron 8 4 1.00000000 2 3.02500000 0.00000000 0.00000000 0.00000000
Neuron 9 3 0.50000000 10 5.89185529 0.00000000 0.00000000 0.00000000
Neuron 16 3 0.50000000 10 1.64230847 0.00000000 0.00000000 0.00000000
Link 1 7 1 0 0.26963024
Link 2 7 2 0 0.12951324
Link 3 7 3 0 0.12705390
Link 4 7 4 0 0.09305443
Link 5 7 5 0 -0.56130124
Link 6 7 6 0 0.19640737
Link 3 8 9 0 0.59291445
Link 4 8 10 0 0.22461515
Link 5 8 11 0 -0.14043335
Link 6 8 12 0 0.00160219
Link 2 9 14 0 1.09065239
Link 9 8 15 0 -0.61758188
Link 1 16 40 0 1.04826245
Link 16 8 41 0 -0.00579390
GenomeEnd

GenomeStart 22544
Genome Fitness: 537.000000 
Neuron 1 1 0.00000000 1 0.00000000 0.00000000 0.00000000 0.00000000
Neuron 2 1 0.00000000 1 0.00000000 0.00000000 0.00000000 0.00000000
Neuron 3 1 0.00000000 1 0.00000000 0.00000000 0.00000000 0.00000000
Neuron 4 1 0.00000000 1 0.00000000 0.00000000 0.00000000 0.00000000
Neuron 5 1 0.00000000 1 0.00000000 0.00000000 0.00000000 0.00000000
Neuron 6 2 0.00000000 1 0.00000000 0.00000000 0.00000000 0.00000000
Neuron 7 4 1.00000000 2 3.02500000 0.00000000 0.00000000 0.00000000
Neuron 8 4 1.00000000 2 3.02500000 0.00000000 0.00000000 0.00000000
Neuron 9 3 0.50000000 10 5.89185529 0.00000000 0.00000000 0.00000000
Neuron 16 3 0.50000000 10 1.64230847 0.00000000 0.00000000 0.00000000
Link 1 7 1 0 0.26963024
Link 2 7 2 0 0.12951324
Link 3 7 3 0 0.12705390
Link 4 7 4 0 0.09305443
Link 5 7 5 0 -0.56130124
Link 6 7 6 0 0.19640737
Link 3 8 9 0 0.59291445
Link 4 8 10 0 0.25082834
Link 5 8 11 0 -0.14043335
Link 6 8 12 0 0.00160219
Link 2 9 14 0 1.09065239
Link 9 8 15 0 -0.61758188
Link 1 16 40 0 1.04826245
Link 16 8 41 0 -0.00579390
GenomeEnd

GenomeStart 22545
Genome Fitness: 218.000000 
Neuron 1 1 0.00000000 1 0.00000000 0.00000000 0.00000000 0.00000000
Neuron 2 1 0.00000000 1 0.00000000 0.00000000 0.00000000 0.00000000
Neuron 3 1 0.00000000 1 0.00000000 0.00000000 0.00000000 0.00000000
Neuron 4 1 0.00000000 1 0.00000000 0.00000000 0.00000000 0.00000000
Neuron 5 1 0.00000000 1 0.00000000 0.00000000 0.00000000 0.00000000
Neuron 6 2 0.00000000 1 0.00000000 0.00000000 0.00000000 0.00000000
Neuron 7 4 1.00000000 2 3.02500000 0.00000000 0.00000000 0.00000000
Neuron 8 4 1.00000000 2 3.02500000 0.00000000 0.00000000 0.00000000
Neuron 9 3 0.50000000 10 5.89185529 0.00000000 0.00000000 0.00000000
Neuron 16 3 0.50000000 10 1.64230847 0.00000000 0.00000000 0.00000000
Link 1 7 1 0 0.31255283
Link 2 7 2 0 0.12493273
Link 3 7 3 0 0.16080840
Link 4 7 4 0 0.16323947
Link 5 7 5 0 -0.65115536
Link 6 7 6 0 0.17283485
Link 3 8 9 0 0.73450846
Link 4 8 10 0 0.38941084
Link 5 8 11 0 -0.17075860
Link 6 8 12 0 -0.01500563
Link 2 9 14 0 1.11523023
Link 9 8 15 0 -0.71266296
Link 1 16 40 0 0.99582955
Link 16 8 41 0 -0.17800684
GenomeEnd

GenomeStart 22546
Genome Fitness: 180.000000 
Neuron 1 1 0.00000000 1 0.00000000 0.00000000 0.00000000 0.00000000
Neuron 2 1 0.00000000 1 0.00000000 0.00000000 0.00000000 0.00000000
Neuron 3 1 0.00000000 1 0.00000000 0.00000000 0.00000000 0.00000000
Neuron 4 1 0.00000000 1 0.00000000 0.00000000 0.00000000 0.00000000
Neuron 5 1 0.00000000 1 0.00000000 0.00000000 0.00000000 0.00000000
Neuron 6 2 0.00000000 1 0.00000000 0.00000000 0.00000000 0.00000000
Neuron 7 4 1.00000000 2 3.02500000 0.00000000 0.00000000 0.00000000
Neuron 8 4 1.00000000 2 3.02500000 0.00000000 0.00000000 0.00000000
Neuron 9 3 0.50000000 10 5.89185529 0.00000000 0.00000000 0.00000000
Neuron 16 3 0.50000000 10 1.64230847 0.00000000 0.00000000 0.00000000
Link 1 7 1 0 0.41576743
Link 2 7 2 0 0.12063388
Link 3 7 3 0 0.06978883
Link 4 7 4 0 0.14730614
Link 5 7 5 0 -0.62955866
Link 6 7 6 0 0.20326757
Link 3 8 9 0 0.64597509
Link 4 8 10 0 0.29452607
Link 5 8 11 0 -0.01920631
Link 6 8 12 0 0.02889413
Link 2 9 14 0 1.08980674
Link 9 8 15 0 -0.59469043
Link 1 16 40 0 1.04427496
Link 16 8 41 0 -0.06119081
GenomeEnd

GenomeStart 22547
Genome Fitness: 529.000000 
Neuron 1 1 0.00000000 1 0.00000000 0.00000000 0.00000000 0.00000000
Neuron 2 1 0.00000000 1 0.00000000 0.00000000 0.00000000 0.00000000
Neuron 3 1 0.00000000 1 0.00000000 0.00000000 0.00000000 0.00000000
Neuron 4 1 0.00000000 1 0.00000000 0.00000000 0.00000000 0.00000000
Neuron 5 1 0.00000000 1 0.00000000 0.00000000 0.00000000 0.00000000
Neuron 6 2 0.00000000 1 0.00000000 0.00000000 0.00000000 0.00000000
Neuron 7 4 1.00000000 2 3.02500000 0.00000000 0.00000000 0.00000000
Neuron 8 4 1.00000000 2 3.02500000 0.00000000 0.00000000 0.00000000
Neuron 9 3 0.50000000 10 5.89185529 0.00000000 0.00000000 0.00000000
Neuron 12 3 0.50000000 8 3.32732936 0.00000000 0.00000000 0.00000000
Neuron 16 3 0.50000000 10 1.64230847 0.00000000 0.00000000 0.00000000
Neuron 19 3 0.75000000 10 1.08091623 0.00000000 0.00000000 0.00000000
Link 1 7 1 0 -0.71210676
Link 2 7 2 0 0.20498430
Link 3 7 3 0 0.22005220
Link 4 7 4 0 -0.08046488
Link 6 7 6 0 0.09360001
Link 3 8 9 0 0.43385880
Link 4 8 10 0 -0.10196670
Link 5 8 11 0 0.17077832
Link 6 8 12 0 -0.13874518
Link 2 9 14 0 0.38213511
Link 9 8 15 0 0.12837386
Link 5 12 23 0 0.98562959
Link 12 7 24 0 -0.73253117
Link 1 16 40 0 1.04258259
Link 3 9 47 0 -0.04058594
Link 16 19 52 0 1.31303614
Link 19 8 53 0 0.12500848
Link 9 7 81 0 -0.64100474
GenomeEnd

GenomeStart 22548
Genome Fitness: 529.000000 
Neuron 1 1 0.00000000 1 0.00000000 0.00000000 0.00000000 0.00000000
Neuron 2 1 0.00000000 1 0.00000000 0.00000000 0.00000000 0.00000000
Neuron 3 1 0.00000000 1 0.00000000 0.00000000 0.00000000 0.00000000
Neuron 4 1 0.00000000 1 0.00000000 0.00000000 0.00000000 0.00000000
Neuron 5 1 0.00000000 1 0.00000000 0.00000000 0.00000000 0.00000000
Neuron 6 2 0.00000000 1 0.00000000 0.00000000 0.00000000 0.00000000
Neuron 7 4 1.00000000 2 3.02500000 0.00000000 0.00000000 0.00000000
Neuron 8 4 1.00000000 2 3.02500000 0.00000000 0.00000000 0.00000000
Neuron 9 3 0.50000000 10 5.89185529 0.00000000 0.00000000 0.00000000
Neuron 12 3 0.50000000 8 3.32732936 0.00000000 0.00000000 0.00000000
Neuron 16 3 0.50000000 10 1.64230847 0.00000000 0.00000000 0.00000000
Neuron 19 3 0.75000000 10 1.08091623 0.00000000 0.00000000 0.00000000
Link 1 7 1 0 -0.71210676
Link 2 7 2 0 0.20498430
Link 3 7 3 0 0.22005220
Link 4 7 4 0 -0.08046488
Link 6 7 6 0 0.09885650
Link 3 8 9 0 0.43385880
Link 4 8 10 0 -0.09996090
Link 5 8 11 0 0.17077832
Link 6 8 12 0 -0.09222287
Link 2 9 14 0 0.38213511
Link 9 8 15 0 0.12837386
Link 5 12 23 0 0.98562959
Link 12 7 24 0 -0.73253117
Link 1 16 40 0 1.10759583
Link 3 9 47 0 -0.04058594
Link 16 19 52 0 1.31303614
Link 19 8 53 0 0.12500848
Link 9 7 81 0 -0.64100474
GenomeEnd

GenomeStart 22549
Genome Fitness: 162.000000 
Neuron 1 1 0.00000000 1 0.00000000 0.00000000 0.00000000 0.00000000
Neuron 2 1 0.00000000 1 0.00000000 0.00000000 0.00000000 0.00000000
Neuron 3 1 0.00000000 1 0.00000000 0.00000000 0.00000000 0.00000000
Neuron 4 1 0.00000000 1 0.00000000 0.00000000 0.00000000 0.00000000
Neuron 5 1 0.00000000 1 0.00000000 0.00000000 0.00000000 0.00000000
Neuron 6 2 0.00000000 1 0.00000000 0.00000000 0.00000000 0.00000000
Neuron 7 4 1.00000000 2 3.02500000 0.00000000 0.00000000 0.00000000
Neuron 8 4 1.00000000 2 3.02500000 0.00000000 0.00000000 0.00000000
Neuron 9 3 0.50000000 10 5.89185529 0.00000000 0.00000000 0.00000000
Neuron 12 3 0.50000000 8 3.32732936 0.00000000 0.00000000 0.00000000
Neuron 16 3 0.50000000 10 1.64230847 0.00000000 0.00000000 0.00000000
Neuron 19 3 0.75000000 10 1.08091623 0.00000000 0.00000000 0.00000000
Link 1 7 1 0 -0.42662602
Link 2 7 2 0 0.28653197
Link 3 7 3 0 0.12644979
Link 4 7 4 0 0.08252320
Link 6 7 6 0 0.23647071
Link 3 8 9 0 0.43049167
Link 4 8 10 0 0.02809691
Link 5 8 11 0 0.10493085
Link 6 8 12 0 0.02462143
Link 2 9 14 0 0.45650188
Link 9 8 15 0 0.13792802
Link 5 12 23 0 0.87170880
Link 12 7 24 0 0.42423052
Link 1 16 40 0 1.12974477
Link 3 9 47 0 0.15184679
Link 16 19 52 0 1.36576468
Link 19 8 53 0 0.00439855
Link 9 7 81 0 -0.64100474
GenomeEnd

GenomeStart 22550
Genome Fitness: 162.000000 
Neuron 1 1 0.00000000 1 0.00000000 0.00000000 0.00000000 0.00000000
Neuron 2 1 0.00000000 1 0.00000000 0.00000000 0.00000000 0.00000000
Neuron 3 1 0.00000000 1 0.00000000 0.00000000 0.00000000 0.00000000
Neuron 4 1 0.00000000 1 0.00000000 0.00000000 0.00000000 0.00000000
Neuron 5 1 0.00000000 1 0.00000000 0.00000000 0.00000000 0.00000000
Neuron 6 2 0.00000000 1 0.00000000 0.00000000 0.00000000 0.00000000
Neuron 7 4 1.00000000 2 3.02500000 0.00000000 0.00000000 0.00000000
Neuron 8 4 1.00000000 2 3.02500000 0.00000000 0.00000000 0.00000000
Neuron 9 3 0.50000000 10 5.89185529 0.00000000 0.00000000 0.00000000
Neuron 12 3 0.50000000 8 3.32732936 0.00000000 0.00000000 0.00000000
Neuron 16 3 0.50000000 10 1.64230847 0.00000000 0.00000000 0.00000000
Neuron 19 3 0.75000000 10 1.08091623 0.00000000 0.00000000 0.00000000
Link 1 7 1 0 -0.70413451
Link 2 7 2 0 0.15648433
Link 3 7 3 0 0.08735965
Link 4 7 4 0 -0.26730044
Link 6 7 6 0 0.08690837
Link 3 8 9 0 0.37781955
Link 4 8 10 0 -0.20704427
Link 5 8 11 0 0.11655368
Link 6 8 12 0 -0.16902120
Link 2 9 14 0 0.38330494
Link 9 8 15 0 0.10449950
Link 5 12 23 0 0.96553122
Link 12 7 24 0 -0.68369036
Link 1 16 40 0 1.21659471
Link 3 9 47 0 -0.01981728
Link 16 19 52 0 1.34170923
Link 19 8 53 0 0.10066575
Link 9 7 81 0 -0.70114772
GenomeEnd

GenomeStart 22551
Genome Fitness: 177.000000 
Neuron 1 1 0.00000000 1 0.00000000 0.00000000 0.00000000 0.00000000
Neuron 2 1 0.00000000 1 0.00000000 0.00000000 0.00000000 0.00000000
Neuron 3 1 0.00000000 1 0.00000000 0.00000000 0.00000000 0.00000000
Neuron 4 1 0.00000000 1 0.00000000 0.00000000 0.00000000 0.00000000
Neuron 5 1 0.00000000 1 0.00000000 0.00000000 0.00000000 0.00000000
Neuron 6 2 0.00000000 1 0.00000000 0.00000000 0.00000000 0.00000000
Neuron 7 4 1.00000000 2 3.02500000 0.00000000 0.00000000 0.00000000
Neuron 8 4 1.00000000 2 3.02500000 0.00000000 0.00000000 0.00000000
Neuron 9 3 0.50000000 10 5.89185529 0.00000000 0.00000000 0.00000000
Neuron 12 3 0.50000000 8 3.32732936 0.00000000 0.00000000 0.00000000
Neuron 16 3 0.50000000 10 1.64230847 0.00000000 0.00000000 0.00000000
Neuron 19 3 0.75000000 10 1.08091623 0.00000000 0.00000000 0.00000000
Link 1 7 1 0 -0.70066938
Link 2 7 2 0 0.23540084
Link 3 7 3 0 0.35781235
Link 4 7 4 0 -0.08498863
Link 6 7 6 0 -0.06510528
Link 3 8 9 0 0.29612372
Link 4 8 10 0 -0.07642061
Link 5 8 11 0 0.21567557
Link 6 8 12 0 -0.08864817
Link 2 9 14 0 0.47605621
Link 9 8 15 0 0.25758910
Link 5 12 23 0 1.02323882
Link 12 7 24 0 -0.55209482
Link 1 16 40 0 1.07571093
Link 3 9 47 0 -0.17099628
Link 16 19 52 0 1.39594237
Link 19 8 53 0 0.09253822
Link 9 7 81 0 -0.63155477
GenomeEnd

GenomeStart 22552
Genome Fitness: 162.000000 
Neuron 1 1 0.00000000 1 0.00000000 0.00000000 0.00000000 0.00000000
Neuron 2 1 0.00000000 1 0.00000000 0.00000000 0.00000000 0.00000000
Neuron 3 1 0.00000000 1 0.00000000 0.00000000 0.00000000 0.00000000
Neuron 4 1 0.00000000 1 0.00000000 0.00000000 0.00000000 0.00000000
Neuron 5 1 0.00000000 1 0.00000000 0.00000000 0.00000000 0.00000000
Neuron 6 2 0.00000000 1 0.00000000 0.00000000 0.00000000 0.00000000
Neuron 7 4 1.00000000 2 3.02500000 0.00000000 0.00000000 0.00000000
Neuron 8 4 1.00000000 2 3.02500000 0.00000000 0.00000000 0.00000000
Neuron 9 3 0.50000000 10 5.89185529 0.00000000 0.00000000 0.00000000
Neuron 12 3 0.50000000 8 3.32732936 0.00000000 0.00000000 0.00000000
Neuron 16 3 0.50000000 10 1.64230847 0.00000000 0.00000000 0.00000000
Neuron 19 3 0.75000000 10 1.08091623 0.00000000 0.00000000 0.00000000
Link 1 7 1 0 -0.66779694
Link 2 7 2 0 0.05087547
Link 3 7 3 0 0.15087642
Link 4 7 4 0 -0.13421919
Link 6 7 6 0 0.03609034
Link 3 8 9 0 0.43385880
Link 4 8 10 0 -0.19681662
Link 5 8 11 0 0.17077832
Link 6 8 12 0 -0.16204676
Link 2 9 14 0 0.30203495
Link 9 8 15 0 0.20252665
Link 5 12 23 0 0.35823934
Link 12 7 24 0 -0.67218609
Link 1 16 40 0 1.01867435
Link 3 9 47 0 -0.04096642
Link 16 19 52 0 -0.95109679
Link 19 8 53 0 0.21695675
Link 9 7 81 0 0.11433282
GenomeEnd

GenomeStart 22553
Genome Fitness: 162.000000 
Neuron 1 1 0.00000000 1 0.00000000 0.00000000 0.00000000 0.00000000
Neuron 2 1 0.00000000 1 0.00000000 0.00000000 0.00000000 0.00000000
Neuron 3 1 0.00000000 1 0.00000000 0.00000000 0.00000000 0.00000000
Neuron 4 1 0.00000000 1 0.00000000 0.00000000 0.00000000 0.00000000
Neuron 5 1 0.00000000 1 0.00000000 0.00000000 0.00000000 0.00000000
Neuron 6 2 0.00000000 1 0.00000000 0.00000000 0.00000000 0.00000000
Neuron 7 4 1.00000000 2 3.02500000 0.00000000 0.00000000 0.00000000
Neuron 8 4 1.00000000 2 3.02500000 0.00000000 0.00000000 0.00000000
Neuron 9 3 0.50000000 10 5.89185529 0.00000000 0.00000000 0.00000000
Neuron 12 3 0.50000000 8 3.32732936 0.00000000 0.00000000 0.00000000
Neuron 16 3 0.50000000 10 1.64230847 0.00000000 0.00000000 0.00000000
Neuron 19 3 0.75000000 10 1.08091623 0.00000000 0.00000000 0.00000000
Link 1 7 1 0 -0.75650610
Link 2 7 2 0 0.22830568
Link 3 7 3 0 0.04952649
Link 4 7 4 0 -0.11985125
Link 6 7 6 0 0.14036481
Link 3 8 9 0 0.61336655
Link 4 8 10 0 -0.14207644
Link 5 8 11 0 0.07560455
Link 6 8 12 0 -0.08630105
Link 2 9 14 0 0.32647560
Link 9 8 15 0 0.18877153
Link 5 12 23 0 0.87113907
Link 12 7 24 0 -0.75414167
Link 1 16 40 0 0.33960901
Link 3 9 47 0 -0.06172485
Link 16 19 52 0 0.55783384
Link 19 8 53 0 0.07237917
Link 9 7 81 0 -0.73057982
GenomeEnd

GenomeStart 22554
Genome Fitness: 146.000000 
Neuron 1 1 0.00000000 1 0.00000000 0.00000000 0.00000000 0.00000000
Neuron 2 1 0.00000000 1 0.00000000 0.00000000 0.00000000 0.00000000
Neuron 3 1 0.00000000 1 0.00000000 0.00000000 0.00000000 0.00000000
Neuron 4 1 0.00000000 1 0.00000000 0.00000000 0.00000000 0.00000000
Neuron 5 1 0.00000000 1 0.00000000 0.00000000 0.00000000 0.00000000
Neuron 6 2 0.00000000 1 0.00000000 0.00000000 0.00000000 0.00000000
Neuron 7 4 1.00000000 2 3.02500000 0.00000000 0.00000000 0.00000000
Neuron 8 4 1.00000000 2 3.02500000 0.00000000 0.00000000 0.00000000
Neuron 9 3 0.50000000 10 5.89185529 0.00000000 0.00000000 0.00000000
Neuron 12 3 0.50000000 8 3.32732936 0.00000000 0.00000000 0.00000000
Neuron 16 3 0.50000000 10 1.64230847 0.00000000 0.00000000 0.00000000
Neuron 19 3 0.75000000 10 1.08091623 0.00000000 0.00000000 0.00000000
Link 1 7 1 0 -0.67039609
Link 2 7 2 0 0.28706883
Link 3 7 3 0 0.28051121
Link 4 7 4 0 0.03243407
Link 6 7 6 0 0.22348393
Link 3 8 9 0 0.43385880
Link 4 8 10 0 -0.47458910
Link 5 8 11 0 0.16191136
Link 6 8 12 0 -0.27705456
Link 2 9 14 0 0.37268552
Link 9 8 15 0 0.09418330
Link 5 12 23 0 0.93479590
Link 12 7 24 0 -0.73253117
Link 1 16 40 0 0.92460792
Link 3 9 47 0 0.02567800
Link 16 19 52 0 1.31271995
Link 19 8 53 0 0.39997081
Link 9 7 81 0 -0.13632219
GenomeEnd

GenomeStart 22555
Genome Fitness: 162.000000 
Neuron 1 1 0.00000000 1 0.00000000 0.00000000 0.00000000 0.00000000
Neuron 2 1 0.00000000 1 0.00000000 0.00000000 0.00000000 0.00000000
Neuron 3 1 0.00000000 1 0.00000000 0.00000000 0.00000000 0.00000000
Neuron 4 1 0.00000000 1 0.00000000 0.00000000 0.00000000 0.00000000
Neuron 5 1 0.00000000 1 0.00000000 0.00000000 0.00000000 0.00000000
Neuron 6 2 0.00000000 1 0.00000000 0.00000000 0.00000000 0.00000000
Neuron 7 4 1.00000000 2 3.02500000 0.00000000 0.00000000 0.00000000
Neuron 8 4 1.00000000 2 3.02500000 0.00000000 0.00000000 0.00000000
Neuron 9 3 0.50000000 10 5.89185529 0.00000000 0.00000000 0.00000000
Neuron 12 3 0.50000000 8 3.32732936 0.00000000 0.00000000 0.00000000
Neuron 16 3 0.50000000 10 1.64230847 0.00000000 0.00000000 0.00000000
Neuron 19 3 0.75000000 10 1.08091623 0.00000000 0.00000000 0.00000000
Link 1 7 1 0 -0.57550615
Link 2 7 2 0 0.07306435
Link 3 7 3 0 0.24131226
Link 4 7 4 0 -0.22443665
Link 6 7 6 0 0.22781736
Link 3 8 9 0 0.36542738
Link 4 8 10 0 0.01441973
Link 5 8 11 0 0.25818204
Link 6 8 12 0 -0.21166078
Link 2 9 14 0 0.33213355
Link 9 8 15 0 0.08702440
Link 5 12 23 0 1.08154326
Link 12 7 24 0 -0.73489123
Link 1 16 40 0 0.95865118
Link 3 9 47 0 0.05026430
Link 16 19 52 0 1.29334169
Link 19 8 53 0 0.12780229
Link 9 7 81 0 -0.59032265
GenomeEnd

GenomeStart 22556
Genome Fitness: 162.000000 
Neuron 1 1 0.00000000 1 0.00000000 0.00000000 0.00000000 0.00000000
Neuron 2 1 0.00000000 1 0.00000000 0.00000000 0.00000000 0.00000000
Neuron 3 1 0.00000000 1 0.00000000 0.00000000 0.00000000 0.00000000
Neuron 4 1 0.00000000 1 0.00000000 0.00000000 0.00000000 0.00000000
Neuron 5 1 0.00000000 1 0.00000000 0.00000000 0.00000000 0.00000000
Neuron 6 2 0.00000000 1 0.00000000 0.00000000 0.00000000 0.00000000
Neuron 7 4 1.00000000 2 3.02500000 0.00000000 0.00000000 0.00000000
Neuron 8 4 1.00000000 2 3.02500000 0.00000000 0.00000000 0.00000000
Neuron 9 3 0.50000000 10 5.89185529 0.00000000 0.00000000 0.00000000
Neuron 12 3 0.50000000 8 3.32732936 0.00000000 0.00000000 0.00000000
Neuron 16 3 0.50000000 10 1.64230847 0.00000000 0.00000000 0.00000000
Neuron 19 3 0.75000000 10 1.08091623 0.00000000 0.00000000 0.00000000
Link 1 7 1 0 -0.54017943
Link 2 7 2 0 0.12212341
Link 3 7 3 0 0.12199449
Link 4 7 4 0 -0.04154508
Link 6 7 6 0 0.27127653
Link 3 8 9 0 0.56433986
Link 4 8 10 0 -0.15192434
Link 5 8 11 0 0.09790434
Link 6 8 12 0 -0.16171733
Link 2 9 14 0 0.33532119
Link 9 8 15 0 0.06217913
Link 5 12 23 0 1.03873693
Link 12 7 24 0 -0.64697449
Link 1 16 40 0 1.18206758
Link 3 9 47 0 -0.01818121
Link 16 19 52 0 1.31357275
Link 19 8 53 0 0.02195067
Link 9 7 81 0 -0.64955432
GenomeEnd

GenomeStart 22557
Genome Fitness: 480.000000 
Neuron 1 1 0.00000000 1 0.00000000 0.00000000 0.00000000 0.00000000
Neuron 2 1 0.00000000 1 0.00000000 0.00000000 0.00000000 0.00000000
Neuron 3 1 0.00000000 1 0.00000000 0.00000000 0.00000000 0.00000000
Neuron 4 1 0.00000000 1 0.00000000 0.00000000 0.00000000 0.00000000
Neuron 5 1 0.00000000 1 0.00000000 0.00000000 0.00000000 0.00000000
Neuron 6 2 0.00000000 1 0.00000000 0.00000000 0.00000000 0.00000000
Neuron 7 4 1.00000000 2 3.02500000 0.00000000 0.00000000 0.00000000
Neuron 8 4 1.00000000 2 3.02500000 0.00000000 0.00000000 0.00000000
Neuron 11 3 0.50000000 4 3.75850292 0.00000000 0.00000000 0.00000000
Neuron 14 3 0.75000000 6 1.39090960 0.00000000 0.00000000 0.00000000
Neuron 18 3 0.50000000 1 3.35266199 0.00000000 0.00000000 0.00000000
Neuron 33 3 0.75000000 10 0.84435021 0.00000000 0.00000000 0.00000000
Neuron 44 3 0.25000000 11 2.74716398 0.00000000 0.00000000 0.00000000
Link 2 7 2 0 0.17033099
Link 3 7 3 0 0.34055028
Link 4 7 4 0 -0.07615743
Link 5 7 5 0 0.27916387
Link 6 7 6 0 0.77570317
Link 1 8 7 0 0.15570151
Link 2 8 8 0 0.40641527
Link 4 8 10 0 0.43629951
Link 5 8 11 0 -1.07602522
Link 6 8 12 0 0.31667741
Link 3 11 20 0 1.12832257
Link 11 14 30 0 0.92259109
Link 14 8 31 0 0.20535443
Link 11 7 32 0 -0.32457171
Link 4 14 43 0 0.25827559
Link 1 18 49 0 1.38116174
Link 1 11 104 0 0.74299335
Link 18 33 163 0 1.00000000
Link 33 7 164 0 -0.03032440
Link 4 44 223 0 1.00000000
Link 44 11 224 0 0.32072432
GenomeEnd

GenomeStart 22558
Genome Fitness: 480.000000 
Neuron 1 1 0.00000000 1 0.00000000 0.00000000 0.00000000 0.00000000
Neuron 2 1 0.00000000 1 0.00000000 0.00000000 0.00000000 0.00000000
Neuron 3 1 0.00000000 1 0.00000000 0.00000000 0.00000000 0.00000000
Neuron 4 1 0.00000000 1 0.00000000 0.00000000 0.00000000 0.00000000
Neuron 5 1 0.00000000 1 0.00000000 0.00000000 0.00000000 0.00000000
Neuron 6 2 0.00000000 1 0.00000000 0.00000000 0.00000000 0.00000000
Neuron 7 4 1.00000000 2 3.02500000 0.00000000 0.00000000 0.00000000
Neuron 8 4 1.00000000 2 3.02500000 0.00000000 0.00000000 0.00000000
Neuron 11 3 0.50000000 4 3.75850292 0.00000000 0.00000000 0.00000000
Neuron 14 3 0.75000000 6 1.39090960 0.00000000 0.00000000 0.00000000
Neuron 15 3 0.50000000 2 4.97046888 0.00000000 0.00000000 0.00000000
Neuron 18 3 0.50000000 1 3.35266199 0.00000000 0.00000000 0.00000000
Neuron 33 3 0.75000000 10 0.84435021 0.00000000 0.00000000 0.00000000
Neuron 44 3 0.25000000 11 2.74716398 0.00000000 0.00000000 0.00000000
Link 2 7 2 0 0.17033099
Link 3 7 3 0 0.34055028
Link 5 7 5 0 0.27916387
Link 6 7 6 0 0.77570317
Link 1 8 7 0 0.15570151
Link 2 8 8 0 0.40641527
Link 4 8 10 0 0.43629951
Link 5 8 11 0 -1.07602522
Link 6 8 12 0 0.31667741
Link 3 11 20 0 1.12832257
Link 11 14 30 0 0.92259109
Link 14 8 31 0 0.20535443
Link 11 7 32 0 -0.32457171
Link 4 15 36 0 1.00000000
Link 15 7 37 0 -0.07615743
Link 4 14 43 0 0.25827559
Link 1 18 49 0 1.38116174
Link 1 11 104 0 0.74299335
Link 18 33 163 0 1.00000000
Link 33 7 164 0 -0.03032440
Link 4 44 223 0 1.00000000
Link 44 11 224 0 0.32072432
GenomeEnd

GenomeStart 22559
Genome Fitness: 216.000000 
Neuron 1 1 0.00000000 1 0.00000000 0.00000000 0.00000000 0.00000000
Neuron 2 1 0.00000000 1 0.00000000 0.00000000 0.00000000 0.00000000
Neuron 3 1 0.00000000 1 0.00000000 0.00000000 0.00000000 0.00000000
Neuron 4 1 0.00000000 1 0.00000000 0.00000000 0.00000000 0.00000000
Neuron 5 1 0.00000000 1 0.00000000 0.00000000 0.00000000 0.00000000
Neuron 6 2 0.00000000 1 0.00000000 0.00000000 0.00000000 0.00000000
Neuron 7 4 1.00000000 2 3.02500000 0.00000000 0.00000000 0.00000000
Neuron 8 4 1.00000000 2 3.02500000 0.00000000 0.00000000 0.00000000
Neuron 11 3 0.50000000 4 3.75850292 0.00000000 0.00000000 0.00000000
Neuron 14 3 0.75000000 6 1.39090960 0.00000000 0.00000000 0.00000000
Neuron 18 3 0.50000000 1 3.35266199 0.00000000 0.00000000 0.00000000
Neuron 33 3 0.75000000 10 0.84435021 0.00000000 0.00000000 0.00000000
Neuron 44 3 0.25000000 11 2.74716398 0.00000000 0.00000000 0.00000000
Link 2 7 2 0 0.17509457
Link 3 7 3 0 -0.01169427
Link 4 7 4 0 -0.21778504
Link 5 7 5 0 0.28717067
Link 6 7 6 0 -0.06082656
Link 1 8 7 0 0.23907934
Link 2 8 8 0 0.35323862
Link 4 8 10 0 -0.32260986
Link 5 8 11 0 -1.13223767
Link 6 8 12 0 0.47105083
Link 3 11 20 0 1.15063914
Link 11 14 30 0 0.91301806
Link 14 8 31 0 0.06872465
Link 11 7 32 0 -0.35574959
Link 4 14 43 0 0.12541161
Link 1 18 49 0 0.08284691
Link 1 11 104 0 0.71170822
Link 18 33 163 0 0.98763401
Link 33 7 164 0 -0.03032440
Link 4 44 223 0 0.48014421
Link 44 11 224 0 0.31866981
GenomeEnd

GenomeStart 22560
Genome Fitness: 246.000000 
Neuron 1 1 0.00000000 1 0.00000000 0.00000000 0.00000000 0.00000000
Neuron 2 1 0.00000000 1 0.00000000 0.00000000 0.00000000 0.00000000
Neuron 3 1 0.00000000 1 0.00000000 0.00000000 0.00000000 0.00000000
Neuron 4 1 0.00000000 1 0.00000000 0.00000000 0.00000000 0.00000000
Neuron 5 1 0.00000000 1 0.00000000 0.00000000 0.00000000 0.00000000
Neuron 6 2 0.00000000 1 0.00000000 0.00000000 0.00000000 0.00000000
Neuron 7 4 1.00000000 2 3.02500000 0.00000000 0.00000000 0.00000000
Neuron 8 4 1.00000000 2 3.02500000 0.00000000 0.00000000 0.00000000
Neuron 11 3 0.50000000 4 3.75850292 0.00000000 0.00000000 0.00000000
Neuron 14 3 0.75000000 6 1.39090960 0.00000000 0.00000000 0.00000000
Neuron 18 3 0.50000000 1 3.35266199 0.00000000 0.00000000 0.00000000
Neuron 33 3 0.75000000 10 0.84435021 0.00000000 0.00000000 0.00000000
Neuron 44 3 0.25000000 11 2.74716398 0.00000000 0.00000000 0.00000000
Link 2 7 2 0 0.22063760
Link 3 7 3 0 0.21213431
Link 4 7 4 0 0.02715896
Link 5 7 5 0 0.12650646
Link 6 7 6 0 0.93010191
Link 1 8 7 0 0.23389497
Link 2 8 8 0 0.22023578
Link 4 8 10 0 0.47760670
Link 5 8 11 0 -1.09291345
Link 6 8 12 0 0.20043264
Link 3 11 20 0 1.11987037
Link 11 14 30 0 1.06545836
Link 14 8 31 0 0.12054487
Link 11 7 32 0 -0.37189074
Link 4 14 43 0 0.28308655
Link 1 18 49 0 1.41120809
Link 1 11 104 0 0.75117733
Link 18 33 163 0 0.91003589
Link 33 7 164 0 -0.06667197
Link 4 44 223 0 1.12613793
Link 44 11 224 0 0.17505530
GenomeEnd

GenomeStart 22561
Genome Fitness: 219.000000 
Neuron 1 1 0.00000000 1 0.00000000 0.00000000 0.00000000 0.00000000
Neuron 2 1 0.00000000 1 0.00000000 0.00000000 0.00000000 0.00000000
Neuron 3 1 0.00000000 1 0.00000000 0.00000000 0.00000000 0.00000000
Neuron 4 1 0.00000000 1 0.00000000 0.00000000 0.00000000 0.00000000
Neuron 5 1 0.00000000 1 0.00000000 0.00000000 0.00000000 0.00000000
Neuron 6 2 0.00000000 1 0.00000000 0.00000000 0.00000000 0.00000000
Neuron 7 4 1.00000000 2 3.02500000 0.00000000 0.00000000 0.00000000
Neuron 8 4 1.00000000 2 3.02500000 0.00000000 0.00000000 0.00000000
Neuron 11 3 0.50000000 4 3.75850292 0.00000000 0.00000000 0.00000000
Neuron 14 3 0.75000000 6 1.39090960 0.00000000 0.00000000 0.00000000
Neuron 18 3 0.50000000 1 3.35266199 0.00000000 0.00000000 0.00000000
Neuron 33 3 0.75000000 10 0.84435021 0.00000000 0.00000000 0.00000000
Neuron 44 3 0.25000000 11 2.74716398 0.00000000 0.00000000 0.00000000
Link 2 7 2 0 0.17033099
Link 3 7 3 0 0.34055028
Link 4 7 4 0 -0.07615743
Link 5 7 5 0 0.27916387
Link 6 7 6 0 0.77570317
Link 1 8 7 0 0.15570151
Link 2 8 8 0 0.40641527
Link 5 8 11 0 -1.07602522
Link 6 8 12 0 0.31667741
Link 3 11 20 0 1.12832257
Link 11 14 30 0 0.92259109
Link 14 8 31 0 0.20535443
Link 11 7 32 0 -0.32457171
Link 4 14 43 0 0.25827559
Link 1 18 49 0 1.38116174
Link 1 11 104 0 0.74299335
Link 18 33 163 0 1.00000000
Link 33 7 164 0 -0.03032440
Link 4 44 223 0 1.00000000
Link 44 11 224 0 0.32072432
GenomeEnd

GenomeStart 22562
Genome Fitness: 270.000000 
Neuron 1 1 0.00000000 1 0.00000000 0.00000000 0.00000000 0.00000000
Neuron 2 1 0.00000000 1 0.00000000 0.00000000 0.00000000 0.00000000
Neuron 3 1 0.00000000 1 0.00000000 0.00000000 0.00000000 0.00000000
Neuron 4 1 0.00000000 1 0.00000000 0.00000000 0.00000000 0.00000000
Neuron 5 1 0.00000000 1 0.00000000 0.00000000 0.00000000 0.00000000
Neuron 6 2 0.00000000 1 0.00000000 0.00000000 0.00000000 0.00000000
Neuron 7 4 1.00000000 2 3.02500000 0.00000000 0.00000000 0.00000000
Neuron 8 4 1.00000000 2 3.02500000 0.00000000 0.00000000 0.00000000
Neuron 11 3 0.50000000 4 3.75850292 0.00000000 0.00000000 0.00000000
Neuron 14 3 0.75000000 6 1.39090960 0.00000000 0.00000000 0.00000000
Neuron 18 3 0.50000000 1 3.35266199 0.00000000 0.00000000 0.00000000
Neuron 33 3 0.75000000 10 0.84435021 0.00000000 0.00000000 0.00000000
Neuron 44 3 0.25000000 11 2.74716398 0.00000000 0.00000000 0.00000000
Link 2 7 2 0 0.07010286
Link 3 7 3 0 0.26531915
Link 4 7 4 0 0.01548504
Link 5 7 5 0 0.22903357
Link 6 7 6 0 0.67849437
Link 1 8 7 0 0.19018285
Link 2 8 8 0 0.40175802
Link 4 8 10 0 0.38577311
Link 5 8 11 0 -1.02454472
Link 6 8 12 0 0.29444133
Link 3 11 20 0 1.11001941
Link 11 14 30 0 0.87820049
Link 14 8 31 0 0.26563988
Link 11 7 32 0 -0.37276246
Link 4 14 43 0 0.32130849
Link 1 18 49 0 1.39038586
Link 1 11 104 0 0.74563477
Link 18 33 163 0 0.95386841
Link 33 7 164 0 -0.00475880
Link 4 44 223 0 0.97857727
Link 44 11 224 0 -0.23439149
GenomeEnd

GenomeStart 22563
Genome Fitness: 262.000000 
Neuron 1 1 0.00000000 1 0.00000000 0.00000000 0.00000000 0.00000000
Neuron 2 1 0.00000000 1 0.00000000 0.00000000 0.00000000 0.00000000
Neuron 3 1 0.00000000 1 0.00000000 0.00000000 0.00000000 0.00000000
Neuron 4 1 0.00000000 1 0.00000000 0.00000000 0.00000000 0.00000000
Neuron 5 1 0.00000000 1 0.00000000 0.00000000 0.00000000 0.00000000
Neuron 6 2 0.00000000 1 0.00000000 0.00000000 0.00000000 0.00000000
Neuron 7 4 1.00000000 2 3.02500000 0.00000000 0.00000000 0.00000000
Neuron 8 4 1.00000000 2 3.02500000 0.00000000 0.00000000 0.00000000
Neuron 11 3 0.50000000 4 3.75850292 0.00000000 0.00000000 0.00000000
Neuron 14 3 0.75000000 6 1.39090960 0.00000000 0.00000000 0.00000000
Neuron 18 3 0.50000000 1 3.35266199 0.00000000 0.00000000 0.00000000
Neuron 33 3 0.75000000 10 0.84435021 0.00000000 0.00000000 0.00000000
Neuron 44 3 0.25000000 11 2.74716398 0.00000000 0.00000000 0.00000000
Link 2 7 2 0 0.20254441
Link 3 7 3 0 0.33660752
Link 4 7 4 0 -0.13032143
Link 5 7 5 0 0.35562754
Link 6 7 6 0 0.82218024
Link 1 8 7 0 0.13606996
Link 2 8 8 0 0.37163279
Link 4 8 10 0 0.36641059
Link 5 8 11 0 -1.15649101
Link 6 8 12 0 0.27298457
Link 3 11 20 0 1.10680788
Link 11 14 30 0 0.88332589
Link 14 8 31 0 0.30714847
Link 11 7 32 0 -0.14030526
Link 4 14 43 0 0.31968225
Link 1 18 49 0 1.31991340
Link 1 11 104 0 0.65791887
Link 18 33 163 0 0.89851136
Link 33 7 164 0 -0.01733465
Link 4 44 223 0 1.04207402
Link 44 11 224 0 -0.27508423
GenomeEnd

GenomeStart 22564
Genome Fitness: 201.000000 
Neuron 1 1 0.00000000 1 0.00000000 0.00000000 0.00000000 0.00000000
Neuron 2 1 0.00000000 1 0.00000000 0.00000000 0.00000000 0.00000000
Neuron 3 1 0.00000000 1 0.00000000 0.00000000 0.00000000 0.00000000
Neuron 4 1 0.00000000 1 0.00000000 0.00000000 0.00000000 0.00000000
Neuron 5 1 0.00000000 1 0.00000000 0.00000000 0.00000000 0.00000000
Neuron 6 2 0.00000000 1 0.00000000 0.00000000 0.00000000 0.00000000
Neuron 7 4 1.00000000 2 3.02500000 0.00000000 0.00000000 0.00000000
Neuron 8 4 1.00000000 2 3.02500000 0.00000000 0.00000000 0.00000000
Neuron 11 3 0.50000000 4 3.75850292 0.00000000 0.00000000 0.00000000
Neuron 14 3 0.75000000 6 1.39090960 0.00000000 0.00000000 0.00000000
Neuron 18 3 0.50000000 1 3.35266199 0.00000000 0.00000000 0.00000000
Neuron 33 3 0.75000000 10 0.84435021 0.00000000 0.00000000 0.00000000
Neuron 44 3 0.25000000 11 2.74716398 0.00000000 0.00000000 0.00000000
Link 2 7 2 0 0.13915773
Link 3 7 3 0 0.40535960
Link 4 7 4 0 -0.05632275
Link 5 7 5 0 0.25377355
Link 6 7 6 0 0.84446770
Link 1 8 7 0 0.15461816
Link 2 8 8 0 0.41135497
Link 4 8 10 0 0.44642222
Link 5 8 11 0 -1.06471868
Link 6 8 12 0 0.29380292
Link 3 11 20 0 1.14729416
Link 11 14 30 0 1.00145865
Link 14 8 31 0 0.36103931
Link 11 7 32 0 -0.24783099
Link 4 14 43 0 0.26756707
Link 1 18 49 0 1.37019153
Link 1 11 104 0 0.73823438
Link 18 33 163 0 0.98268507
Link 33 7 164 0 0.10677606
Link 4 44 223 0 1.02124588
Link 44 11 224 0 0.33623195
GenomeEnd

GenomeStart 22565
Genome Fitness: 480.000000 
Neuron 1 1 0.00000000 1 0.00000000 0.00000000 0.00000000 0.00000000
Neuron 2 1 0.00000000 1 0.00000000 0.00000000 0.00000000 0.00000000
Neuron 3 1 0.00000000 1 0.00000000 0.00000000 0.00000000 0.00000000
Neuron 4 1 0.00000000 1 0.00000000 0.00000000 0.00000000 0.00000000
Neuron 5 1 0.00000000 1 0.00000000 0.00000000 0.00000000 0.00000000
Neuron 6 2 0.00000000 1 0.00000000 0.00000000 0.00000000 0.00000000
Neuron 7 4 1.00000000 2 3.02500000 0.00000000 0.00000000 0.00000000
Neuron 8 4 1.00000000 2 3.02500000 0.00000000 0.00000000 0.00000000
Neuron 11 3 0.50000000 4 3.75850292 0.00000000 0.00000000 0.00000000
Neuron 14 3 0.75000000 6 1.39090960 0.00000000 0.00000000 0.00000000
Neuron 18 3 0.50000000 1 3.35266199 0.00000000 0.00000000 0.00000000
Neuron 33 3 0.75000000 10 0.84435021 0.00000000 0.00000000 0.00000000
Neuron 44 3 0.25000000 11 2.74716398 0.00000000 0.00000000 0.00000000
Link 2 7 2 0 0.17033099
Link 3 7 3 0 0.34055028
Link 4 7 4 0 -0.07615743
Link 5 7 5 0 0.27916387
Link 6 7 6 0 0.77570317
Link 1 8 7 0 0.15570151
Link 2 8 8 0 0.40641527
Link 4 8 10 0 0.43629951
Link 5 8 11 0 -1.07602522
Link 6 8 12 0 0.31667741
Link 3 11 20 0 1.12832257
Link 11 14 30 0 0.92259109
Link 14 8 31 0 0.20535443
Link 11 7 32 0 -0.32457171
Link 4 14 43 0 0.25827559
Link 1 18 49 0 1.38116174
Link 1 11 104 0 0.74299335
Link 18 33 163 0 1.00000000
Link 33 7 164 0 -0.03032440
Link 4 44 223 0 1.00000000
Link 44 11 224 0 0.32072432
GenomeEnd

GenomeStart 22566
Genome Fitness: 480.000000 
Neuron 1 1 0.00000000 1 0.00000000 0.00000000 0.00000000 0.00000000
Neuron 2 1 0.00000000 1 0.00000000 0.00000000 0.00000000 0.00000000
Neuron 3 1 0.00000000 1 0.00000000 0.00000000 0.00000000 0.00000000
Neuron 4 1 0.00000000 1 0.00000000 0.00000000 0.00000000 0.00000000
Neuron 5 1 0.00000000 1 0.00000000 0.00000000 0.00000000 0.00000000
Neuron 6 2 0.00000000 1 0.00000000 0.00000000 0.00000000 0.00000000
Neuron 7 4 1.00000000 2 3.02500000 0.00000000 0.00000000 0.00000000
Neuron 8 4 1.00000000 2 3.02500000 0.00000000 0.00000000 0.00000000
Neuron 11 3 0.50000000 4 3.75850292 0.00000000 0.00000000 0.00000000
Neuron 14 3 0.75000000 6 1.39090960 0.00000000 0.00000000 0.00000000
Neuron 18 3 0.50000000 1 3.35266199 0.00000000 0.00000000 0.00000000
Neuron 26 3 0.87500000 4 5.51085499 0.00000000 0.00000000 0.00000000
Neuron 49 3 0.25000000 9 0.50607227 0.00000000 0.00000000 0.00000000
Link 2 7 2 0 0.17033099
Link 3 7 3 0 0.34055028
Link 4 7 4 0 -0.01310904
Link 5 7 5 0 0.27916387
Link 6 7 6 0 0.72552292
Link 1 8 7 0 0.15570151
Link 2 8 8 0 0.40641527
Link 4 8 10 0 0.43629951
Link 5 8 11 0 -1.07602522
Link 6 8 12 0 0.31667741
Link 11 14 30 0 0.92259109
Link 4 11 33 0 0.37790921
Link 4 14 43 0 0.25827559
Link 1 18 49 0 1.38116174
Link 18 7 50 0 -0.03032440
Link 2 18 82 0 -0.16100810
Link 14 26 120 0 1.00000000
Link 26 8 121 0 0.20535443
Link 3 49 253 0 1.00000000
Link 49 11 254 0 1.12832257
Link 26 7 256 0 -0.27485115
GenomeEnd

GenomeStart 22567
Genome Fitness: 480.000000 
Neuron 1 1 0.00000000 1 0.00000000 0.00000000 0.00000000 0.00000000
Neuron 2 1 0.00000000 1 0.00000000 0.00000000 0.00000000 0.00000000
Neuron 3 1 0.00000000 1 0.00000000 0.00000000 0.00000000 0.00000000
Neuron 4 1 0.00000000 1 0.00000000 0.00000000 0.00000000 0.00000000
Neuron 5 1 0.00000000 1 0.00000000 0.00000000 0.00000000 0.00000000
Neuron 6 2 0.00000000 1 0.00000000 0.00000000 0.00000000 0.00000000
Neuron 7 4 1.00000000 2 3.02500000 0.00000000 0.00000000 0.00000000
Neuron 8 4 1.00000000 2 3.02500000 0.00000000 0.00000000 0.00000000
Neuron 11 3 0.50000000 4 3.75850292 0.00000000 0.00000000 0.00000000
Neuron 14 3 0.75000000 6 1.39090960 0.00000000 0.00000000 0.00000000
Neuron 18 3 0.50000000 1 3.35266199 0.00000000 0.00000000 0.00000000
Neuron 26 3 0.87500000 4 5.51085499 0.00000000 0.00000000 0.00000000
Neuron 49 3 0.25000000 9 0.50607227 0.00000000 0.00000000 0.00000000
Link 2 7 2 0 0.17033099
Link 3 7 3 0 0.34055028
Link 4 7 4 0 -0.01310904
Link 5 7 5 0 0.27916387
Link 6 7 6 0 0.72552292
Link 1 8 7 0 0.15570151
Link 2 8 8 0 0.40641527
Link 4 8 10 0 0.43629951
Link 5 8 11 0 -1.07602522
Link 6 8 12 0 0.31667741
Link 11 14 30 0 0.92259109
Link 4 11 33 0 0.37790921
Link 4 14 43 0 0.25827559
Link 1 18 49 0 1.38116174
Link 18 7 50 0 -0.03032440
Link 2 18 82 0 -0.16100810
Link 14 26 120 0 1.00000000
Link 26 8 121 0 0.20535443
Link 3 49 253 0 1.00000000
Link 49 11 254 0 1.12832257
Link 26 7 256 0 -0.27485115
Link 49 8 275 0 0.03209958
GenomeEnd

GenomeStart 22568
Genome Fitness: 282.000000 
Neuron 1 1 0.00000000 1 0.00000000 0.00000000 0.00000000 0.00000000
Neuron 2 1 0.00000000 1 0.00000000 0.00000000 0.00000000 0.00000000
Neuron 3 1 0.00000000 1 0.00000000 0.00000000 0.00000000 0.00000000
Neuron 4 1 0.00000000 1 0.00000000 0.00000000 0.00000000 0.00000000
Neuron 5 1 0.00000000 1 0.00000000 0.00000000 0.00000000 0.00000000
Neuron 6 2 0.00000000 1 0.00000000 0.00000000 0.00000000 0.00000000
Neuron 7 4 1.00000000 2 3.02500000 0.00000000 0.00000000 0.00000000
Neuron 8 4 1.00000000 2 3.02500000 0.00000000 0.00000000 0.00000000
Neuron 11 3 0.50000000 4 3.75850292 0.00000000 0.00000000 0.00000000
Neuron 14 3 0.75000000 6 1.39090960 0.00000000 0.00000000 0.00000000
Neuron 18 3 0.50000000 1 3.35266199 0.00000000 0.00000000 0.00000000
Neuron 26 3 0.87500000 4 5.51085499 0.00000000 0.00000000 0.00000000
Neuron 49 3 0.25000000 9 0.50607227 0.00000000 0.00000000 0.00000000
Link 2 7 2 0 0.33043594
Link 3 7 3 0 0.18694229
Link 4 7 4 0 -0.08710188
Link 5 7 5 0 0.31445959
Link 6 7 6 0 0.77950678
Link 1 8 7 0 0.12060833
Link 2 8 8 0 0.35001523
Link 4 8 10 0 0.40590310
Link 5 8 11 0 -1.06519870
Link 6 8 12 0 0.19037139
Link 11 14 30 0 0.90222063
Link 4 11 33 0 0.40944379
Link 4 14 43 0 0.14271993
Link 1 18 49 0 1.32780482
Link 18 7 50 0 -0.01063214
Link 2 18 82 0 -0.27925223
Link 14 26 120 0 1.06290558
Link 26 8 121 0 0.19628513
Link 3 49 253 0 0.95504473
Link 49 11 254 0 1.04307773
Link 26 7 256 0 -0.40841967
GenomeEnd

GenomeStart 22569
Genome Fitness: 358.000000 
Neuron 1 1 0.00000000 1 0.00000000 0.00000000 0.00000000 0.00000000
Neuron 2 1 0.00000000 1 0.00000000 0.00000000 0.00000000 0.00000000
Neuron 3 1 0.00000000 1 0.00000000 0.00000000 0.00000000 0.00000000
Neuron 4 1 0.00000000 1 0.00000000 0.00000000 0.00000000 0.00000000
Neuron 5 1 0.00000000 1 0.00000000 0.00000000 0.00000000 0.00000000
Neuron 6 2 0.00000000 1 0.00000000 0.00000000 0.00000000 0.00000000
Neuron 7 4 1.00000000 2 3.02500000 0.00000000 0.00000000 0.00000000
Neuron 8 4 1.00000000 2 3.02500000 0.00000000 0.00000000 0.00000000
Neuron 11 3 0.50000000 4 3.75850292 0.00000000 0.00000000 0.00000000
Neuron 14 3 0.75000000 6 1.39090960 0.00000000 0.00000000 0.00000000
Neuron 18 3 0.50000000 1 3.35266199 0.00000000 0.00000000 0.00000000
Neuron 26 3 0.87500000 4 5.51085499 0.00000000 0.00000000 0.00000000
Neuron 49 3 0.25000000 9 0.50607227 0.00000000 0.00000000 0.00000000
Link 2 7 2 0 0.12743685
Link 3 7 3 0 0.39233165
Link 4 7 4 0 0.10429634
Link 5 7 5 0 0.43479953
Link 6 7 6 0 0.59003541
Link 1 8 7 0 0.16981869
Link 2 8 8 0 0.32412152
Link 4 8 10 0 0.30976067
Link 5 8 11 0 -1.04437637
Link 6 8 12 0 0.27362629
Link 11 14 30 0 0.98467677
Link 4 11 33 0 0.29218901
Link 4 14 43 0 0.12973822
Link 1 18 49 0 1.42765421
Link 18 7 50 0 -0.16381306
Link 2 18 82 0 -0.12703658
Link 14 26 120 0 0.94624476
Link 26 8 121 0 0.14441656
Link 3 49 253 0 1.04997680
Link 49 11 254 0 1.12083244
Link 26 7 256 0 0.04486287
GenomeEnd

GenomeStart 22570
Genome Fitness: 275.000000 
Neuron 1 1 0.00000000 1 0.00000000 0.00000000 0.00000000 0.00000000
Neuron 2 1 0.00000000 1 0.00000000 0.00000000 0.00000000 0.00000000
Neuron 3 1 0.00000000 1 0.00000000 0.00000000 0.00000000 0.00000000
Neuron 4 1 0.00000000 1 0.00000000 0.00000000 0.00000000 0.00000000
Neuron 5 1 0.00000000 1 0.00000000 0.00000000 0.00000000 0.00000000
Neuron 6 2 0.00000000 1 0.00000000 0.00000000 0.00000000 0.00000000
Neuron 7 4 1.00000000 2 3.02500000 0.00000000 0.00000000 0.00000000
Neuron 8 4 1.00000000 2 3.02500000 0.00000000 0.00000000 0.00000000
Neuron 11 3 0.50000000 4 3.75850292 0.00000000 0.00000000 0.00000000
Neuron 14 3 0.75000000 6 1.39090960 0.00000000 0.00000000 0.00000000
Neuron 18 3 0.50000000 1 3.35266199 0.00000000 0.00000000 0.00000000
Neuron 26 3 0.87500000 4 5.51085499 0.00000000 0.00000000 0.00000000
Neuron 49 3 0.25000000 9 0.50607227 0.00000000 0.00000000 0.00000000
Link 2 7 2 0 0.15329313
Link 3 7 3 0 0.33879217
Link 4 7 4 0 -0.19444163
Link 5 7 5 0 0.14703180
Link 6 7 6 0 0.63911767
Link 1 8 7 0 0.15489696
Link 2 8 8 0 0.44905395
Link 4 8 10 0 0.37712118
Link 5 8 11 0 -0.97562971
Link 6 8 12 0 0.51024734
Link 11 14 30 0 0.91793532
Link 4 11 33 0 0.38375098
Link 4 14 43 0 0.27019082
Link 1 18 49 0 1.42061254
Link 18 7 50 0 -0.18921964
Link 2 18 82 0 -0.20641358
Link 14 26 120 0 1.10124624
Link 26 8 121 0 0.09855236
Link 3 49 253 0 0.93047402
Link 49 11 254 0 1.15962009
Link 26 7 256 0 -0.76542979
GenomeEnd

GenomeStart 22571
Genome Fitness: 480.000000 
Neuron 1 1 0.00000000 1 0.00000000 0.00000000 0.00000000 0.00000000
Neuron 2 1 0.00000000 1 0.00000000 0.00000000 0.00000000 0.00000000
Neuron 3 1 0.00000000 1 0.00000000 0.00000000 0.00000000 0.00000000
Neuron 4 1 0.00000000 1 0.00000000 0.00000000 0.00000000 0.00000000
Neuron 5 1 0.00000000 1 0.00000000 0.00000000 0.00000000 0.00000000
Neuron 6 2 0.00000000 1 0.00000000 0.00000000 0.00000000 0.00000000
Neuron 7 4 1.00000000 2 3.02500000 0.00000000 0.00000000 0.00000000
Neuron 8 4 1.00000000 2 3.02500000 0.00000000 0.00000000 0.00000000
Neuron 11 3 0.50000000 4 3.75850292 0.00000000 0.00000000 0.00000000
Neuron 14 3 0.75000000 6 1.39090960 0.00000000 0.00000000 0.00000000
Neuron 18 3 0.50000000 1 3.35266199 0.00000000 0.00000000 0.00000000
Neuron 26 3 0.87500000 4 5.51085499 0.00000000 0.00000000 0.00000000
Neuron 49 3 0.25000000 9 0.50607227 0.00000000 0.00000000 0.00000000
Link 2 7 2 0 0.17033099
Link 3 7 3 0 0.34055028
Link 4 7 4 0 -0.01310904
Link 5 7 5 0 0.27916387
Link 6 7 6 0 0.72552292
Link 1 8 7 0 0.15570151
Link 2 8 8 0 0.40641527
Link 4 8 10 0 0.43629951
Link 5 8 11 0 -1.07602522
Link 6 8 12 0 0.31667741
Link 11 14 30 0 0.92259109
Link 4 11 33 0 0.37790921
Link 4 14 43 0 0.25827559
Link 1 18 49 0 1.38116174
Link 18 7 50 0 -0.03032440
Link 2 18 82 0 -0.16100810
Link 14 26 120 0 1.00000000
Link 26 8 121 0 0.20535443
Link 6 26 227 0 -0.25472801
Link 3 49 253 0 1.00000000
Link 49 11 254 0 1.12832257
Link 26 7 256 0 -0.27485115
GenomeEnd

GenomeStart 22572
Genome Fitness: 255.000000 
Neuron 1 1 0.00000000 1 0.00000000 0.00000000 0.00000000 0.00000000
Neuron 2 1 0.00000000 1 0.00000000 0.00000000 0.00000000 0.00000000
Neuron 3 1 0.00000000 1 0.00000000 0.00000000 0.00000000 0.00000000
Neuron 4 1 0.00000000 1 0.00000000 0.00000000 0.00000000 0.00000000
Neuron 5 1 0.00000000 1 0.00000000 0.00000000 0.00000000 0.00000000
Neuron 6 2 0.00000000 1 0.00000000 0.00000000 0.00000000 0.00000000
Neuron 7 4 1.00000000 2 3.02500000 0.00000000 0.00000000 0.00000000
Neuron 8 4 1.00000000 2 3.02500000 0.00000000 0.00000000 0.00000000
Neuron 11 3 0.50000000 4 3.75850292 0.00000000 0.00000000 0.00000000
Neuron 14 3 0.75000000 6 1.39090960 0.00000000 0.00000000 0.00000000
Neuron 18 3 0.50000000 1 3.35266199 0.00000000 0.00000000 0.00000000
Neuron 26 3 0.87500000 4 5.51085499 0.00000000 0.00000000 0.00000000
Neuron 49 3 0.25000000 9 0.50607227 0.00000000 0.00000000 0.00000000
Link 2 7 2 0 0.28643477
Link 3 7 3 0 0.36955929
Link 4 7 4 0 0.62169451
Link 5 7 5 0 -0.30560590
Link 6 7 6 0 0.69217804
Link 1 8 7 0 0.29032028
Link 2 8 8 0 0.40641527
Link 4 8 10 0 0.25967263
Link 5 8 11 0 -1.03040597
Link 6 8 12 0 0.40522445
Link 11 14 30 0 0.18995750
Link 4 11 33 0 -0.24942892
Link 4 14 43 0 0.37712936
Link 1 18 49 0 -0.68474734
Link 18 7 50 0 -0.00733648
Link 2 18 82 0 -0.27240761
Link 14 26 120 0 0.96525521
Link 26 8 121 0 0.28779605
Link 3 49 253 0 0.69872041
Link 49 11 254 0 0.13806169
Link 26 7 256 0 -0.17761641
GenomeEnd

GenomeStart 22573
Genome Fitness: 308.000000 
Neuron 1 1 0.00000000 1 0.00000000 0.00000000 0.00000000 0.00000000
Neuron 2 1 0.00000000 1 0.00000000 0.00000000 0.00000000 0.00000000
Neuron 3 1 0.00000000 1 0.00000000 0.00000000 0.00000000 0.00000000
Neuron 4 1 0.00000000 1 0.00000000 0.00000000 0.00000000 0.00000000
Neuron 5 1 0.00000000 1 0.00000000 0.00000000 0.00000000 0.00000000
Neuron 6 2 0.00000000 1 0.00000000 0.00000000 0.00000000 0.00000000
Neuron 7 4 1.00000000 2 3.02500000 0.00000000 0.00000000 0.00000000
Neuron 8 4 1.00000000 2 3.02500000 0.00000000 0.00000000 0.00000000
Neuron 11 3 0.50000000 4 3.75850292 0.00000000 0.00000000 0.00000000
Neuron 14 3 0.75000000 6 1.39090960 0.00000000 0.00000000 0.00000000
Neuron 18 3 0.50000000 1 3.35266199 0.00000000 0.00000000 0.00000000
Neuron 26 3 0.87500000 4 5.51085499 0.00000000 0.00000000 0.00000000
Neuron 49 3 0.25000000 9 0.50607227 0.00000000 0.00000000 0.00000000
Link 2 7 2 0 0.21306596
Link 3 7 3 0 0.42838410
Link 4 7 4 0 0.00332736
Link 5 7 5 0 0.28259060
Link 6 7 6 0 0.82706085
Link 1 8 7 0 0.16612655
Link 2 8 8 0 0.39172965
Link 4 8 10 0 0.47485483
Link 5 8 11 0 -1.19367231
Link 6 8 12 0 0.30190079
Link 11 14 30 0 0.80250575
Link 4 11 33 0 0.25794874
Link 4 14 43 0 0.32894695
Link 1 18 49 0 1.37468203
Link 18 7 50 0 0.12457290
Link 2 18 82 0 -0.25120163
Link 14 26 120 0 1.07814694
Link 26 8 121 0 0.14025931
Link 3 49 253 0 1.00435602
Link 49 11 254 0 1.21353370
Link 26 7 256 0 -0.53302750
GenomeEnd

GenomeStart 22574
Genome Fitness: 200.000000 
Neuron 1 1 0.00000000 1 0.00000000 0.00000000 0.00000000 0.00000000
Neuron 2 1 0.00000000 1 0.00000000 0.00000000 0.00000000 0.00000000
Neuron 3 1 0.00000000 1 0.00000000 0.00000000 0.00000000 0.00000000
Neuron 4 1 0.00000000 1 0.00000000 0.00000000 0.00000000 0.00000000
Neuron 5 1 0.00000000 1 0.00000000 0.00000000 0.00000000 0.00000000
Neuron 6 2 0.00000000 1 0.00000000 0.00000000 0.00000000 0.00000000
Neuron 7 4 1.00000000 2 3.02500000 0.00000000 0.00000000 0.00000000
Neuron 8 4 1.00000000 2 3.02500000 0.00000000 0.00000000 0.00000000
Neuron 11 3 0.50000000 4 3.75850292 0.00000000 0.00000000 0.00000000
Neuron 14 3 0.75000000 6 1.39090960 0.00000000 0.00000000 0.00000000
Neuron 18 3 0.50000000 1 3.35266199 0.00000000 0.00000000 0.00000000
Neuron 26 3 0.87500000 4 5.51085499 0.00000000 0.00000000 0.00000000
Neuron 49 3 0.25000000 9 0.50607227 0.00000000 0.00000000 0.00000000
Link 2 7 2 0 0.23382454
Link 3 7 3 0 0.42131020
Link 4 7 4 0 0.03160786
Link 5 7 5 0 0.35974354
Link 6 7 6 0 0.69664744
Link 1 8 7 0 0.05871092
Link 2 8 8 0 0.41209574
Link 4 8 10 0 0.29333087
Link 5 8 11 0 -1.02060469
Link 6 8 12 0 0.25106665
Link 11 14 30 0 0.96656070
Link 4 11 33 0 0.35041666
Link 4 14 43 0 0.31145609
Link 1 18 49 0 1.31598361
Link 18 7 50 0 -0.04263436
Link 2 18 82 0 -0.18692189
Link 14 26 120 0 1.07640948
Link 26 8 121 0 0.22621877
Link 3 49 253 0 1.10776282
Link 49 11 254 0 1.06734941
Link 26 7 256 0 0.30552234
GenomeEnd

GenomeStart 22575
Genome Fitness: 480.000000 
Neuron 1 1 0.00000000 1 0.00000000 0.00000000 0.00000000 0.00000000
Neuron 2 1 0.00000000 1 0.00000000 0.00000000 0.00000000 0.00000000
Neuron 3 1 0.00000000 1 0.00000000 0.00000000 0.00000000 0.00000000
Neuron 4 1 0.00000000 1 0.00000000 0.00000000 0.00000000 0.00000000
Neuron 5 1 0.00000000 1 0.00000000 0.00000000 0.00000000 0.00000000
Neuron 6 2 0.00000000 1 0.00000000 0.00000000 0.00000000 0.00000000
Neuron 7 4 1.00000000 2 3.02500000 0.00000000 0.00000000 0.00000000
Neuron 8 4 1.00000000 2 3.02500000 0.00000000 0.00000000 0.00000000
Neuron 10 3 0.50000000 9 2.09878299 0.00000000 0.00000000 0.00000000
Neuron 11 3 0.50000000 4 3.75850292 0.00000000 0.00000000 0.00000000
Neuron 14 3 0.75000000 6 1.39090960 0.00000000 0.00000000 0.00000000
Neuron 18 3 0.50000000 1 3.35266199 0.00000000 0.00000000 0.00000000
Neuron 44 3 0.25000000 11 2.74716398 0.00000000 0.00000000 0.00000000
Link 3 7 3 0 0.34055028
Link 4 7 4 0 -0.07615743
Link 5 7 5 0 0.27916387
Link 6 7 6 0 0.77570317
Link 1 8 7 0 0.15570151
Link 2 8 8 0 0.40641527
Link 4 8 10 0 0.43629951
Link 5 8 11 0 -1.07602522
Link 6 8 12 0 0.31667741
Link 2 10 17 0 1.00000000
Link 10 7 18 0 0.17033099
Link 3 11 20 0 1.12832257
Link 11 14 30 0 0.92259109
Link 14 8 31 0 0.20535443
Link 4 14 43 0 0.25827559
Link 1 18 49 0 1.38116174
Link 18 7 50 0 -0.03032440
Link 1 11 104 0 0.74299335
Link 18 8 148 0 0.63733203
Link 4 44 223 0 1.00000000
Link 44 11 224 0 0.32072432
GenomeEnd

GenomeStart 22576
Genome Fitness: 480.000000 
Neuron 1 1 0.00000000 1 0.00000000 0.00000000 0.00000000 0.00000000
Neuron 2 1 0.00000000 1 0.00000000 0.00000000 0.00000000 0.00000000
Neuron 3 1 0.00000000 1 0.00000000 0.00000000 0.00000000 0.00000000
Neuron 4 1 0.00000000 1 0.00000000 0.00000000 0.00000000 0.00000000
Neuron 5 1 0.00000000 1 0.00000000 0.00000000 0.00000000 0.00000000
Neuron 6 2 0.00000000 1 0.00000000 0.00000000 0.00000000 0.00000000
Neuron 7 4 1.00000000 2 3.02500000 0.00000000 0.00000000 0.00000000
Neuron 8 4 1.00000000 2 3.02500000 0.00000000 0.00000000 0.00000000
Neuron 10 3 0.50000000 9 2.09878299 0.00000000 0.00000000 0.00000000
Neuron 11 3 0.50000000 4 3.75850292 0.00000000 0.00000000 0.00000000
Neuron 14 3 0.75000000 6 1.39090960 0.00000000 0.00000000 0.00000000
Neuron 18 3 0.50000000 1 3.35266199 0.00000000 0.00000000 0.00000000
Neuron 44 3 0.25000000 11 2.74716398 0.00000000 0.00000000 0.00000000
Link 3 7 3 0 0.34055028
Link 4 7 4 0 -0.07615743
Link 5 7 5 0 0.27916387
Link 6 7 6 0 0.77570317
Link 1 8 7 0 0.15570151
Link 2 8 8 0 0.40641527
Link 4 8 10 0 0.43629951
Link 5 8 11 0 -1.07602522
Link 6 8 12 0 0.31667741
Link 2 10 17 0 1.00000000
Link 10 7 18 0 0.17033099
Link 3 11 20 0 1.12832257
Link 11 14 30 0 0.92259109
Link 14 8 31 0 0.20535443
Link 4 14 43 0 0.25827559
Link 1 18 49 0 1.38116174
Link 18 7 50 0 -0.03032440
Link 1 11 104 0 0.74299335
Link 18 8 148 0 0.63733203
Link 4 44 223 0 1.00000000
Link 44 11 224 0 0.32072432
Link 3 44 259 0 -0.36828160
GenomeEnd

GenomeStart 22577
Genome Fitness: 436.000000 
Neuron 1 1 0.00000000 1 0.00000000 0.00000000 0.00000000 0.00000000
Neuron 2 1 0.00000000 1 0.00000000 0.00000000 0.00000000 0.00000000
Neuron 3 1 0.00000000 1 0.00000000 0.00000000 0.00000000 0.00000000
Neuron 4 1 0.00000000 1 0.00000000 0.00000000 0.00000000 0.00000000
Neuron 5 1 0.00000000 1 0.00000000 0.00000000 0.00000000 0.00000000
Neuron 6 2 0.00000000 1 0.00000000 0.00000000 0.00000000 0.00000000
Neuron 7 4 1.00000000 2 3.02500000 0.00000000 0.00000000 0.00000000
Neuron 8 4 1.00000000 2 3.02500000 0.00000000 0.00000000 0.00000000
Neuron 10 3 0.50000000 9 2.09878299 0.00000000 0.00000000 0.00000000
Neuron 11 3 0.50000000 4 3.75850292 0.00000000 0.00000000 0.00000000
Neuron 14 3 0.75000000 6 1.39090960 0.00000000 0.00000000 0.00000000
Neuron 18 3 0.50000000 1 3.35266199 0.00000000 0.00000000 0.00000000
Neuron 44 3 0.25000000 11 2.74716398 0.00000000 0.00000000 0.00000000
Link 3 7 3 0 0.43969746
Link 4 7 4 0 -0.05341430
Link 5 7 5 0 0.30422557
Link 6 7 6 0 0.78623848
Link 1 8 7 0 0.13644937
Link 2 8 8 0 0.27650980
Link 4 8 10 0 0.46847993
Link 5 8 11 0 -1.20375282
Link 6 8 12 0 0.27949696
Link 2 10 17 0 0.85802941
Link 10 7 18 0 0.04514053
Link 3 11 20 0 1.18514287
Link 11 14 30 0 0.88691358
Link 14 8 31 0 0.20385765
Link 4 14 43 0 0.20876133
Link 1 18 49 0 1.38319512
Link 18 7 50 0 0.08273058
Link 1 11 104 0 0.80049293
Link 18 8 148 0 0.70046235
Link 4 44 223 0 0.89726603
Link 44 11 224 0 -0.15299011
GenomeEnd

GenomeStart 22578
Genome Fitness: 200.000000 
Neuron 1 1 0.00000000 1 0.00000000 0.00000000 0.00000000 0.00000000
Neuron 2 1 0.00000000 1 0.00000000 0.00000000 0.00000000 0.00000000
Neuron 3 1 0.00000000 1 0.00000000 0.00000000 0.00000000 0.00000000
Neuron 4 1 0.00000000 1 0.00000000 0.00000000 0.00000000 0.00000000
Neuron 5 1 0.00000000 1 0.00000000 0.00000000 0.00000000 0.00000000
Neuron 6 2 0.00000000 1 0.00000000 0.00000000 0.00000000 0.00000000
Neuron 7 4 1.00000000 2 3.02500000 0.00000000 0.00000000 0.00000000
Neuron 8 4 1.00000000 2 3.02500000 0.00000000 0.00000000 0.00000000
Neuron 10 3 0.50000000 9 2.09878299 0.00000000 0.00000000 0.00000000
Neuron 11 3 0.50000000 4 3.75850292 0.00000000 0.00000000 0.00000000
Neuron 14 3 0.75000000 6 1.39090960 0.00000000 0.00000000 0.00000000
Neuron 18 3 0.50000000 1 3.35266199 0.00000000 0.00000000 0.00000000
Neuron 44 3 0.25000000 11 2.74716398 0.00000000 0.00000000 0.00000000
Link 3 7 3 0 0.27435072
Link 4 7 4 0 -0.10953193
Link 5 7 5 0 0.24233126
Link 6 7 6 0 0.73401630
Link 1 8 7 0 0.03463417
Link 2 8 8 0 0.47266336
Link 4 8 10 0 0.43692640
Link 5 8 11 0 -1.18427028
Link 6 8 12 0 0.38024179
Link 2 10 17 0 0.90154607
Link 10 7 18 0 0.13144773
Link 3 11 20 0 1.10501945
Link 11 14 30 0 0.81608662
Link 14 8 31 0 0.18166802
Link 4 14 43 0 0.23401760
Link 1 18 49 0 1.25888669
Link 18 7 50 0 0.06010993
Link 1 11 104 0 0.60943939
Link 18 8 148 0 0.67882494
Link 4 44 223 0 0.86946339
Link 44 11 224 0 0.60938940
GenomeEnd

GenomeStart 22579
Genome Fitness: 201.000000 
Neuron 1 1 0.00000000 1 0.00000000 0.00000000 0.00000000 0.00000000
Neuron 2 1 0.00000000 1 0.00000000 0.00000000 0.00000000 0.00000000
Neuron 3 1 0.00000000 1 0.00000000 0.00000000 0.00000000 0.00000000
Neuron 4 1 0.00000000 1 0.00000000 0.00000000 0.00000000 0.00000000
Neuron 5 1 0.00000000 1 0.00000000 0.00000000 0.00000000 0.00000000
Neuron 6 2 0.00000000 1 0.00000000 0.00000000 0.00000000 0.00000000
Neuron 7 4 1.00000000 2 3.02500000 0.00000000 0.00000000 0.00000000
Neuron 8 4 1.00000000 2 3.02500000 0.00000000 0.00000000 0.00000000
Neuron 10 3 0.50000000 9 2.09878299 0.00000000 0.00000000 0.00000000
Neuron 11 3 0.50000000 4 3.75850292 0.00000000 0.00000000 0.00000000
Neuron 14 3 0.75000000 6 1.39090960 0.00000000 0.00000000 0.00000000
Neuron 18 3 0.50000000 1 3.35266199 0.00000000 0.00000000 0.00000000
Neuron 44 3 0.25000000 11 2.74716398 0.00000000 0.00000000 0.00000000
Link 3 7 3 0 0.46529502
Link 4 7 4 0 0.08993539
Link 5 7 5 0 0.33663067
Link 6 7 6 0 0.72363218
Link 1 8 7 0 0.14618553
Link 2 8 8 0 0.50843876
Link 4 8 10 0 0.33982038
Link 5 8 11 0 -1.02335338
Link 6 8 12 0 0.30235757
Link 2 10 17 0 1.05380481
Link 10 7 18 0 0.02346340
Link 3 11 20 0 1.01550854
Link 11 14 30 0 0.87812015
Link 14 8 31 0 0.20700504
Link 4 14 43 0 0.35923086
Link 1 18 49 0 1.50218282
Link 18 7 50 0 -0.05045688
Link 1 11 104 0 0.76912922
Link 18 8 148 0 0.74237309
Link 4 44 223 0 0.95064069
Link 44 11 224 0 -0.71264927
GenomeEnd

GenomeStart 22580
Genome Fitness: 480.000000 
Neuron 1 1 0.00000000 1 0.00000000 0.00000000 0.00000000 0.00000000
Neuron 2 1 0.00000000 1 0.00000000 0.00000000 0.00000000 0.00000000
Neuron 3 1 0.00000000 1 0.00000000 0.00000000 0.00000000 0.00000000
Neuron 4 1 0.00000000 1 0.00000000 0.00000000 0.00000000 0.00000000
Neuron 5 1 0.00000000 1 0.00000000 0.00000000 0.00000000 0.00000000
Neuron 6 2 0.00000000 1 0.00000000 0.00000000 0.00000000 0.00000000
Neuron 7 4 1.00000000 2 3.02500000 0.00000000 0.00000000 0.00000000
Neuron 8 4 1.00000000 2 3.02500000 0.00000000 0.00000000 0.00000000
Neuron 10 3 0.50000000 9 2.09878299 0.00000000 0.00000000 0.00000000
Neuron 11 3 0.50000000 4 3.75850292 0.00000000 0.00000000 0.00000000
Neuron 14 3 0.75000000 6 1.39090960 0.00000000 0.00000000 0.00000000
Neuron 18 3 0.50000000 1 3.35266199 0.00000000 0.00000000 0.00000000
Neuron 44 3 0.25000000 11 2.74716398 0.00000000 0.00000000 0.00000000
Link 3 7 3 0 0.34055028
Link 4 7 4 0 -0.07615743
Link 5 7 5 0 0.27916387
Link 6 7 6 0 0.77570317
Link 1 8 7 0 0.15570151
Link 2 8 8 0 0.40641527
Link 4 8 10 0 0.43629951
Link 5 8 11 0 -1.07602522
Link 6 8 12 0 0.31667741
Link 2 10 17 0 1.00000000
Link 10 7 18 0 0.17033099
Link 3 11 20 0 1.12832257
Link 11 14 30 0 0.92259109
Link 14 8 31 0 0.20535443
Link 4 14 43 0 0.25827559
Link 1 18 49 0 1.38116174
Link 18 7 50 0 -0.03032440
Link 1 11 104 0 0.74299335
Link 18 8 148 0 0.63733203
Link 4 44 223 0 1.00000000
Link 44 11 224 0 0.32072432
GenomeEnd

GenomeStart 22581
Genome Fitness: 200.000000 
Neuron 1 1 0.00000000 1 0.00000000 0.00000000 0.00000000 0.00000000
Neuron 2 1 0.00000000 1 0.00000000 0.00000000 0.00000000 0.00000000
Neuron 3 1 0.00000000 1 0.00000000 0.00000000 0.00000000 0.00000000
Neuron 4 1 0.00000000 1 0.00000000 0.00000000 0.00000000 0.00000000
Neuron 5 1 0.00000000 1 0.00000000 0.00000000 0.00000000 0.00000000
Neuron 6 2 0.00000000 1 0.00000000 0.00000000 0.00000000 0.00000000
Neuron 7 4 1.00000000 2 3.02500000 0.00000000 0.00000000 0.00000000
Neuron 8 4 1.00000000 2 3.02500000 0.00000000 0.00000000 0.00000000
Neuron 10 3 0.50000000 9 2.09878299 0.00000000 0.00000000 0.00000000
Neuron 11 3 0.50000000 4 3.75850292 0.00000000 0.00000000 0.00000000
Neuron 14 3 0.75000000 6 1.39090960 0.00000000 0.00000000 0.00000000
Neuron 18 3 0.50000000 1 3.35266199 0.00000000 0.00000000 0.00000000
Neuron 44 3 0.25000000 11 2.74716398 0.00000000 0.00000000 0.00000000
Link 3 7 3 0 0.26925826
Link 4 7 4 0 -0.06940510
Link 5 7 5 0 0.30312985
Link 6 7 6 0 0.88578122
Link 1 8 7 0 0.19801925
Link 2 8 8 0 0.44641847
Link 4 8 10 0 0.40013683
Link 5 8 11 0 -1.01281463
Link 6 8 12 0 0.27215652
Link 2 10 17 0 0.89885647
Link 10 7 18 0 0.18365101
Link 3 11 20 0 1.24248099
Link 11 14 30 0 0.98111577
Link 14 8 31 0 0.30515791
Link 4 14 43 0 0.20633628
Link 1 18 49 0 1.33416554
Link 18 7 50 0 -0.02894665
Link 1 11 104 0 0.72306527
Link 18 8 148 0 0.72568325
Link 4 44 223 0 0.93956872
Link 44 11 224 0 0.38548435
Link 3 44 259 0 -0.20549945
GenomeEnd

GenomeStart 22582
Genome Fitness: 480.000000 
Neuron 1 1 0.00000000 1 0.00000000 0.00000000 0.00000000 0.00000000
Neuron 2 1 0.00000000 1 0.00000000 0.00000000 0.00000000 0.00000000
Neuron 3 1 0.00000000 1 0.00000000 0.00000000 0.00000000 0.00000000
Neuron 4 1 0.00000000 1 0.00000000 0.00000000 0.00000000 0.00000000
Neuron 5 1 0.00000000 1 0.00000000 0.00000000 0.00000000 0.00000000
Neuron 6 2 0.00000000 1 0.00000000 0.00000000 0.00000000 0.00000000
Neuron 7 4 1.00000000 2 3.02500000 0.00000000 0.00000000 0.00000000
Neuron 8 4 1.00000000 2 3.02500000 0.00000000 0.00000000 0.00000000
Neuron 10 3 0.50000000 9 2.09878299 0.00000000 0.00000000 0.00000000
Neuron 11 3 0.50000000 4 3.75850292 0.00000000 0.00000000 0.00000000
Neuron 14 3 0.75000000 6 1.39090960 0.00000000 0.00000000 0.00000000
Neuron 18 3 0.50000000 1 3.35266199 0.00000000 0.00000000 0.00000000
Neuron 38 3 0.75000000 5 1.12860058 0.00000000 0.00000000 0.00000000
Neuron 44 3 0.25000000 11 2.74716398 0.00000000 0.00000000 0.00000000
Link 3 7 3 0 0.34055028
Link 4 7 4 0 -0.07615743
Link 5 7 5 0 0.27916387
Link 6 7 6 0 0.77570317
Link 1 8 7 0 0.15570151
Link 2 8 8 0 0.40641527
Link 4 8 10 0 0.43629951
Link 5 8 11 0 -1.07602522
Link 6 8 12 0 0.31667741
Link 2 10 17 0 1.00000000
Link 3 11 20 0 1.12832257
Link 11 14 30 0 0.92259109
Link 14 8 31 0 0.20535443
Link 4 14 43 0 0.25827559
Link 1 18 49 0 1.38116174
Link 18 7 50 0 -0.03032440
Link 1 11 104 0 0.74299335
Link 18 8 148 0 0.63733203
Link 10 38 185 0 1.00000000
Link 38 7 186 0 0.17033099
Link 4 44 223 0 1.00000000
Link 44 11 224 0 0.32072432
GenomeEnd

GenomeStart 22583
Genome Fitness: 199.000000 
Neuron 1 1 0.00000000 1 0.00000000 0.00000000 0.00000000 0.00000000
Neuron 2 1 0.00000000 1 0.00000000 0.00000000 0.00000000 0.00000000
Neuron 3 1 0.00000000 1 0.00000000 0.00000000 0.00000000 0.00000000
Neuron 4 1 0.00000000 1 0.00000000 0.00000000 0.00000000 0.00000000
Neuron 5 1 0.00000000 1 0.00000000 0.00000000 0.00000000 0.00000000
Neuron 6 2 0.00000000 1 0.00000000 0.00000000 0.00000000 0.00000000
Neuron 7 4 1.00000000 2 3.02500000 0.00000000 0.00000000 0.00000000
Neuron 8 4 1.00000000 2 3.02500000 0.00000000 0.00000000 0.00000000
Neuron 10 3 0.50000000 9 2.09878299 0.00000000 0.00000000 0.00000000
Neuron 11 3 0.50000000 4 3.75850292 0.00000000 0.00000000 0.00000000
Neuron 14 3 0.75000000 6 1.39090960 0.00000000 0.00000000 0.00000000
Neuron 18 3 0.50000000 1 3.35266199 0.00000000 0.00000000 0.00000000
Neuron 44 3 0.25000000 11 2.74716398 0.00000000 0.00000000 0.00000000
Link 3 7 3 0 0.30829140
Link 4 7 4 0 -0.16204550
Link 5 7 5 0 0.28027891
Link 6 7 6 0 0.84525623
Link 1 8 7 0 -0.03456217
Link 2 8 8 0 0.48406809
Link 4 8 10 0 0.38344526
Link 5 8 11 0 -1.03451623
Link 6 8 12 0 0.28402948
Link 2 10 17 0 0.95644192
Link 10 7 18 0 0.13237978
Link 3 11 20 0 0.99367074
Link 11 14 30 0 0.94877049
Link 14 8 31 0 0.27672847
Link 4 14 43 0 0.23501396
Link 1 18 49 0 1.46599700
Link 18 7 50 0 0.04607477
Link 1 11 104 0 0.90939926
Link 18 8 148 0 0.55464767
Link 4 44 223 0 0.87376023
Link 44 11 224 0 0.25003659
GenomeEnd

GenomeStart 22584
Genome Fitness: 441.000000 
Neuron 1 1 0.00000000 1 0.00000000 0.00000000 0.00000000 0.00000000
Neuron 2 1 0.00000000 1 0.00000000 0.00000000 0.00000000 0.00000000
Neuron 3 1 0.00000000 1 0.00000000 0.00000000 0.00000000 0.00000000
Neuron 4 1 0.00000000 1 0.00000000 0.00000000 0.00000000 0.00000000
Neuron 5 1 0.00000000 1 0.00000000 0.00000000 0.00000000 0.00000000
Neuron 6 2 0.00000000 1 0.00000000 0.00000000 0.00000000 0.00000000
Neuron 7 4 1.00000000 2 3.02500000 0.00000000 0.00000000 0.00000000
Neuron 8 4 1.00000000 2 3.02500000 0.00000000 0.00000000 0.00000000
Neuron 10 3 0.50000000 9 2.09878299 0.00000000 0.00000000 0.00000000
Neuron 11 3 0.50000000 4 3.75850292 0.00000000 0.00000000 0.00000000
Neuron 14 3 0.75000000 6 1.39090960 0.00000000 0.00000000 0.00000000
Neuron 18 3 0.50000000 1 3.35266199 0.00000000 0.00000000 0.00000000
Neuron 44 3 0.25000000 11 2.74716398 0.00000000 0.00000000 0.00000000
Link 3 7 3 0 0.43556394
Link 4 7 4 0 -0.06604603
Link 5 7 5 0 0.16567974
Link 6 7 6 0 0.68359851
Link 1 8 7 0 0.15730332
Link 2 8 8 0 0.38385152
Link 4 8 10 0 0.46640108
Link 5 8 11 0 -1.09374472
Link 6 8 12 0 0.29678885
Link 2 10 17 0 1.01229367
Link 10 7 18 0 0.17656288
Link 3 11 20 0 1.20069460
Link 11 14 30 0 0.95464784
Link 14 8 31 0 0.30943353
Link 4 14 43 0 0.15457694
Link 1 18 49 0 1.41869027
Link 18 7 50 0 -0.14819985
Link 1 11 104 0 0.69871103
Link 18 8 148 0 0.64646870
Link 4 44 223 0 0.98948386
Link 44 11 224 0 0.17794059
Link 3 44 259 0 -0.38561768
GenomeEnd

GenomeStart 22585
Genome Fitness: 480.000000 
Neuron 1 1 0.00000000 1 0.00000000 0.00000000 0.00000000 0.00000000
Neuron 2 1 0.00000000 1 0.00000000 0.00000000 0.00000000 0.00000000
Neuron 3 1 0.00000000 1 0.00000000 0.00000000 0.00000000 0.00000000
Neuron 4 1 0.00000000 1 0.00000000 0.00000000 0.00000000 0.00000000
Neuron 5 1 0.00000000 1 0.00000000 0.00000000 0.00000000 0.00000000
Neuron 6 2 0.00000000 1 0.00000000 0.00000000 0.00000000 0.00000000
Neuron 7 4 1.00000000 2 3.02500000 0.00000000 0.00000000 0.00000000
Neuron 8 4 1.00000000 2 3.02500000 0.00000000 0.00000000 0.00000000
Neuron 11 3 0.50000000 4 3.75850292 0.00000000 0.00000000 0.00000000
Neuron 14 3 0.75000000 6 1.39090960 0.00000000 0.00000000 0.00000000
Neuron 18 3 0.50000000 1 3.35266199 0.00000000 0.00000000 0.00000000
Neuron 33 3 0.75000000 10 0.84435021 0.00000000 0.00000000 0.00000000
Neuron 44 3 0.25000000 11 2.74716398 0.00000000 0.00000000 0.00000000
Neuron 47 3 0.75000000 4 5.77071015 0.00000000 0.00000000 0.00000000
Link 2 7 2 0 0.17033099
Link 3 7 3 0 0.34055028
Link 4 7 4 0 -0.07615743
Link 5 7 5 0 0.27916387
Link 6 7 6 0 0.77570317
Link 1 8 7 0 0.15570151
Link 2 8 8 0 0.40641527
Link 4 8 10 0 0.43629951
Link 5 8 11 0 -1.07602522
Link 6 8 12 0 0.31667741
Link 11 14 30 0 0.92259109
Link 14 8 31 0 0.20535443
Link 4 14 43 0 0.25827559
Link 1 18 49 0 1.38116174
Link 1 11 104 0 0.74299335
Link 18 33 163 0 1.00000000
Link 33 7 164 0 -0.03032440
Link 4 44 223 0 1.00000000
Link 44 11 224 0 0.32072432
Link 11 47 247 0 1.00000000
Link 47 7 248 0 -0.32457171
GenomeEnd

GenomeStart 22586
Genome Fitness: 480.000000 
Neuron 1 1 0.00000000 1 0.00000000 0.00000000 0.00000000 0.00000000
Neuron 2 1 0.00000000 1 0.00000000 0.00000000 0.00000000 0.00000000
Neuron 3 1 0.00000000 1 0.00000000 0.00000000 0.00000000 0.00000000
Neuron 4 1 0.00000000 1 0.00000000 0.00000000 0.00000000 0.00000000
Neuron 5 1 0.00000000 1 0.00000000 0.00000000 0.00000000 0.00000000
Neuron 6 2 0.00000000 1 0.00000000 0.00000000 0.00000000 0.00000000
Neuron 7 4 1.00000000 2 3.02500000 0.00000000 0.00000000 0.00000000
Neuron 8 4 1.00000000 2 3.02500000 0.00000000 0.00000000 0.00000000
Neuron 11 3 0.50000000 4 3.75850292 0.00000000 0.00000000 0.00000000
Neuron 14 3 0.75000000 6 1.39090960 0.00000000 0.00000000 0.00000000
Neuron 18 3 0.50000000 1 3.35266199 0.00000000 0.00000000 0.00000000
Neuron 33 3 0.75000000 10 0.84435021 0.00000000 0.00000000 0.00000000
Neuron 44 3 0.25000000 11 2.74716398 0.00000000 0.00000000 0.00000000
Neuron 47 3 0.75000000 4 5.77071015 0.00000000 0.00000000 0.00000000
Link 2 7 2 0 0.17033099
Link 3 7 3 0 0.34055028
Link 4 7 4 0 -0.07615743
Link 5 7 5 0 0.27916387
Link 6 7 6 0 0.77570317
Link 1 8 7 0 0.15570151
Link 2 8 8 0 0.40641527
Link 4 8 10 0 0.43629951
Link 5 8 11 0 -1.07602522
Link 6 8 12 0 0.31667741
Link 11 14 30 0 0.92259109
Link 14 8 31 0 0.20535443
Link 4 14 43 0 0.25827559
Link 1 18 49 0 1.38116174
Link 1 11 104 0 0.74299335
Link 18 33 163 0 1.00000000
Link 33 7 164 0 -0.03032440
Link 4 44 223 0 1.00000000
Link 44 11 224 0 0.32072432
Link 11 47 247 0 1.00000000
Link 47 7 248 0 -0.32457171
Link 5 44 255 0 -0.21988022
GenomeEnd

GenomeStart 22587
Genome Fitness: 283.000000 
Neuron 1 1 0.00000000 1 0.00000000 0.00000000 0.00000000 0.00000000
Neuron 2 1 0.00000000 1 0.00000000 0.00000000 0.00000000 0.00000000
Neuron 3 1 0.00000000 1 0.00000000 0.00000000 0.00000000 0.00000000
Neuron 4 1 0.00000000 1 0.00000000 0.00000000 0.00000000 0.00000000
Neuron 5 1 0.00000000 1 0.00000000 0.00000000 0.00000000 0.00000000
Neuron 6 2 0.00000000 1 0.00000000 0.00000000 0.00000000 0.00000000
Neuron 7 4 1.00000000 2 3.02500000 0.00000000 0.00000000 0.00000000
Neuron 8 4 1.00000000 2 3.02500000 0.00000000 0.00000000 0.00000000
Neuron 11 3 0.50000000 4 3.75850292 0.00000000 0.00000000 0.00000000
Neuron 14 3 0.75000000 6 1.39090960 0.00000000 0.00000000 0.00000000
Neuron 18 3 0.50000000 1 3.35266199 0.00000000 0.00000000 0.00000000
Neuron 33 3 0.75000000 10 0.84435021 0.00000000 0.00000000 0.00000000
Neuron 44 3 0.25000000 11 2.74716398 0.00000000 0.00000000 0.00000000
Neuron 47 3 0.75000000 4 5.77071015 0.00000000 0.00000000 0.00000000
Link 2 7 2 0 0.11344157
Link 3 7 3 0 0.32071357
Link 4 7 4 0 -0.58613435
Link 5 7 5 0 0.74549901
Link 6 7 6 0 0.84535122
Link 1 8 7 0 0.24853421
Link 2 8 8 0 -0.64061345
Link 4 8 10 0 0.39165020
Link 5 8 11 0 -1.15954507
Link 6 8 12 0 0.28973885
Link 11 14 30 0 1.00240375
Link 14 8 31 0 0.64686755
Link 4 14 43 0 0.42334361
Link 1 18 49 0 1.44365717
Link 1 11 104 0 0.66307657
Link 18 33 163 0 1.12832410
Link 33 7 164 0 -0.22192043
Link 4 44 223 0 1.13814192
Link 44 11 224 0 0.14987829
Link 11 47 247 0 0.92539171
Link 47 7 248 0 -0.37984302
GenomeEnd

GenomeStart 22588
Genome Fitness: 200.000000 
Neuron 1 1 0.00000000 1 0.00000000 0.00000000 0.00000000 0.00000000
Neuron 2 1 0.00000000 1 0.00000000 0.00000000 0.00000000 0.00000000
Neuron 3 1 0.00000000 1 0.00000000 0.00000000 0.00000000 0.00000000
Neuron 4 1 0.00000000 1 0.00000000 0.00000000 0.00000000 0.00000000
Neuron 5 1 0.00000000 1 0.00000000 0.00000000 0.00000000 0.00000000
Neuron 6 2 0.00000000 1 0.00000000 0.00000000 0.00000000 0.00000000
Neuron 7 4 1.00000000 2 3.02500000 0.00000000 0.00000000 0.00000000
Neuron 8 4 1.00000000 2 3.02500000 0.00000000 0.00000000 0.00000000
Neuron 11 3 0.50000000 4 3.75850292 0.00000000 0.00000000 0.00000000
Neuron 14 3 0.75000000 6 1.39090960 0.00000000 0.00000000 0.00000000
Neuron 18 3 0.50000000 1 3.35266199 0.00000000 0.00000000 0.00000000
Neuron 33 3 0.75000000 10 0.84435021 0.00000000 0.00000000 0.00000000
Neuron 44 3 0.25000000 11 2.74716398 0.00000000 0.00000000 0.00000000
Neuron 47 3 0.75000000 4 5.77071015 0.00000000 0.00000000 0.00000000
Link 2 7 2 0 0.04421395
Link 3 7 3 0 0.32758545
Link 4 7 4 0 -0.07491839
Link 5 7 5 0 0.26453301
Link 6 7 6 0 0.79490427
Link 1 8 7 0 0.06288695
Link 2 8 8 0 0.40956689
Link 4 8 10 0 0.47341177
Link 5 8 11 0 -1.04438091
Link 6 8 12 0 0.43126703
Link 11 14 30 0 0.87143058
Link 14 8 31 0 0.17025328
Link 4 14 43 0 0.30253860
Link 1 18 49 0 1.31891031
Link 1 11 104 0 0.81161441
Link 18 33 163 0 1.12989607
Link 33 7 164 0 0.03305192
Link 4 44 223 0 0.96125240
Link 44 11 224 0 0.42813719
Link 11 47 247 0 0.86597828
Link 47 7 248 0 0.02138827
GenomeEnd

GenomeStart 22589
Genome Fitness: 480.000000 
Neuron 1 1 0.00000000 1 0.00000000 0.00000000 0.00000000 0.00000000
Neuron 2 1 0.00000000 1 0.00000000 0.00000000 0.00000000 0.00000000
Neuron 3 1 0.00000000 1 0.00000000 0.00000000 0.00000000 0.00000000
Neuron 4 1 0.00000000 1 0.00000000 0.00000000 0.00000000 0.00000000
Neuron 5 1 0.00000000 1 0.00000000 0.00000000 0.00000000 0.00000000
Neuron 6 2 0.00000000 1 0.00000000 0.00000000 0.00000000 0.00000000
Neuron 7 4 1.00000000 2 3.02500000 0.00000000 0.00000000 0.00000000
Neuron 8 4 1.00000000 2 3.02500000 0.00000000 0.00000000 0.00000000
Neuron 11 3 0.50000000 4 3.75850292 0.00000000 0.00000000 0.00000000
Neuron 14 3 0.75000000 6 1.39090960 0.00000000 0.00000000 0.00000000
Neuron 18 3 0.50000000 1 3.35266199 0.00000000 0.00000000 0.00000000
Neuron 33 3 0.75000000 10 0.84435021 0.00000000 0.00000000 0.00000000
Neuron 44 3 0.25000000 11 2.74716398 0.00000000 0.00000000 0.00000000
Neuron 47 3 0.75000000 4 5.77071015 0.00000000 0.00000000 0.00000000
Link 2 7 2 0 0.17033099
Link 3 7 3 0 0.34055028
Link 4 7 4 0 -0.07615743
Link 5 7 5 0 0.27916387
Link 6 7 6 0 0.77570317
Link 1 8 7 0 0.15570151
Link 2 8 8 0 0.40641527
Link 4 8 10 0 0.43629951
Link 5 8 11 0 -1.07602522
Link 6 8 12 0 0.31667741
Link 11 14 30 0 0.92259109
Link 14 8 31 0 0.20535443
Link 4 14 43 0 0.25827559
Link 1 18 49 0 1.38116174
Link 1 11 104 0 0.74299335
Link 18 33 163 0 1.00000000
Link 33 7 164 0 -0.03032440
Link 4 44 223 0 1.00000000
Link 44 11 224 0 0.32072432
Link 11 47 247 0 1.00000000
Link 47 7 248 0 -0.32457171
GenomeEnd

GenomeStart 22590
Genome Fitness: 275.000000 
Neuron 1 1 0.00000000 1 0.00000000 0.00000000 0.00000000 0.00000000
Neuron 2 1 0.00000000 1 0.00000000 0.00000000 0.00000000 0.00000000
Neuron 3 1 0.00000000 1 0.00000000 0.00000000 0.00000000 0.00000000
Neuron 4 1 0.00000000 1 0.00000000 0.00000000 0.00000000 0.00000000
Neuron 5 1 0.00000000 1 0.00000000 0.00000000 0.00000000 0.00000000
Neuron 6 2 0.00000000 1 0.00000000 0.00000000 0.00000000 0.00000000
Neuron 7 4 1.00000000 2 3.02500000 0.00000000 0.00000000 0.00000000
Neuron 8 4 1.00000000 2 3.02500000 0.00000000 0.00000000 0.00000000
Neuron 11 3 0.50000000 4 3.75850292 0.00000000 0.00000000 0.00000000
Neuron 14 3 0.75000000 6 1.39090960 0.00000000 0.00000000 0.00000000
Neuron 18 3 0.50000000 1 3.35266199 0.00000000 0.00000000 0.00000000
Neuron 33 3 0.75000000 10 0.84435021 0.00000000 0.00000000 0.00000000
Neuron 44 3 0.25000000 11 2.74716398 0.00000000 0.00000000 0.00000000
Neuron 47 3 0.75000000 4 5.77071015 0.00000000 0.00000000 0.00000000
Link 2 7 2 0 0.14500992
Link 3 7 3 0 0.30015011
Link 4 7 4 0 -0.04567338
Link 5 7 5 0 0.13844403
Link 6 7 6 0 0.88961482
Link 1 8 7 0 0.02425056
Link 2 8 8 0 0.46215456
Link 4 8 10 0 0.59459462
Link 5 8 11 0 -1.18075072
Link 6 8 12 0 0.19348678
Link 11 14 30 0 0.91093558
Link 14 8 31 0 0.37428546
Link 4 14 43 0 0.20857240
Link 1 18 49 0 1.31597086
Link 1 11 104 0 0.79793932
Link 18 33 163 0 1.02449512
Link 33 7 164 0 0.02397552
Link 4 44 223 0 1.12077851
Link 44 11 224 0 0.44589640
Link 11 47 247 0 1.07709566
Link 47 7 248 0 0.20865122
GenomeEnd

GenomeStart 22591
Genome Fitness: 162.000000 
Neuron 1 1 0.00000000 1 0.00000000 0.00000000 0.00000000 0.00000000
Neuron 2 1 0.00000000 1 0.00000000 0.00000000 0.00000000 0.00000000
Neuron 3 1 0.00000000 1 0.00000000 0.00000000 0.00000000 0.00000000
Neuron 4 1 0.00000000 1 0.00000000 0.00000000 0.00000000 0.00000000
Neuron 5 1 0.00000000 1 0.00000000 0.00000000 0.00000000 0.00000000
Neuron 6 2 0.00000000 1 0.00000000 0.00000000 0.00000000 0.00000000
Neuron 7 4 1.00000000 2 3.02500000 0.00000000 0.00000000 0.00000000
Neuron 8 4 1.00000000 2 3.02500000 0.00000000 0.00000000 0.00000000
Neuron 11 3 0.50000000 4 3.75850292 0.00000000 0.00000000 0.00000000
Neuron 14 3 0.75000000 6 1.39090960 0.00000000 0.00000000 0.00000000
Neuron 18 3 0.50000000 1 3.35266199 0.00000000 0.00000000 0.00000000
Neuron 33 3 0.75000000 10 0.84435021 0.00000000 0.00000000 0.00000000
Neuron 44 3 0.25000000 11 2.74716398 0.00000000 0.00000000 0.00000000
Neuron 47 3 0.75000000 4 5.77071015 0.00000000 0.00000000 0.00000000
Link 2 7 2 0 0.22402145
Link 3 7 3 0 0.36859821
Link 4 7 4 0 -0.02786553
Link 5 7 5 0 0.27916387
Link 6 7 6 0 -0.33009525
Link 1 8 7 0 0.16085639
Link 2 8 8 0 0.50093963
Link 4 8 10 0 0.43629951
Link 5 8 11 0 0.16788154
Link 6 8 12 0 0.31993724
Link 11 14 30 0 0.88227972
Link 14 8 31 0 0.28060348
Link 4 14 43 0 0.30297951
Link 1 18 49 0 0.26158756
Link 1 11 104 0 -0.11889978
Link 18 33 163 0 0.99717673
Link 33 7 164 0 -0.00887110
Link 4 44 223 0 0.84962053
Link 44 11 224 0 0.22432646
Link 11 47 247 0 1.00000000
Link 47 7 248 0 -0.38429990
GenomeEnd

GenomeStart 22592
Genome Fitness: 480.000000 
Neuron 1 1 0.00000000 1 0.00000000 0.00000000 0.00000000 0.00000000
Neuron 2 1 0.00000000 1 0.00000000 0.00000000 0.00000000 0.00000000
Neuron 3 1 0.00000000 1 0.00000000 0.00000000 0.00000000 0.00000000
Neuron 4 1 0.00000000 1 0.00000000 0.00000000 0.00000000 0.00000000
Neuron 5 1 0.00000000 1 0.00000000 0.00000000 0.00000000 0.00000000
Neuron 6 2 0.00000000 1 0.00000000 0.00000000 0.00000000 0.00000000
Neuron 7 4 1.00000000 2 3.02500000 0.00000000 0.00000000 0.00000000
Neuron 8 4 1.00000000 2 3.02500000 0.00000000 0.00000000 0.00000000
Neuron 11 3 0.50000000 4 3.75850292 0.00000000 0.00000000 0.00000000
Neuron 14 3 0.75000000 6 1.39090960 0.00000000 0.00000000 0.00000000
Neuron 18 3 0.50000000 1 3.35266199 0.00000000 0.00000000 0.00000000
Neuron 33 3 0.75000000 10 0.84435021 0.00000000 0.00000000 0.00000000
Neuron 44 3 0.25000000 11 2.74716398 0.00000000 0.00000000 0.00000000
Neuron 47 3 0.75000000 4 5.77071015 0.00000000 0.00000000 0.00000000
Link 2 7 2 0 0.17033099
Link 3 7 3 0 0.34055028
Link 4 7 4 0 -0.07615743
Link 5 7 5 0 0.27916387
Link 6 7 6 0 0.77570317
Link 1 8 7 0 0.15570151
Link 2 8 8 0 0.40641527
Link 4 8 10 0 0.43629951
Link 5 8 11 0 -1.07602522
Link 6 8 12 0 0.31667741
Link 11 14 30 0 0.92259109
Link 14 8 31 0 0.20535443
Link 4 14 43 0 0.25827559
Link 1 18 49 0 1.38116174
Link 1 11 104 0 0.74299335
Link 18 33 163 0 1.00000000
Link 33 7 164 0 -0.03032440
Link 4 44 223 0 1.00000000
Link 44 11 224 0 0.32072432
Link 11 47 247 0 1.00000000
Link 47 7 248 0 -0.32457171
Link 47 33 299 0 -0.01297106
GenomeEnd

GenomeStart 22593
Genome Fitness: 201.000000 
Neuron 1 1 0.00000000 1 0.00000000 0.00000000 0.00000000 0.00000000
Neuron 2 1 0.00000000 1 0.00000000 0.00000000 0.00000000 0.00000000
Neuron 3 1 0.00000000 1 0.00000000 0.00000000 0.00000000 0.00000000
Neuron 4 1 0.00000000 1 0.00000000 0.00000000 0.00000000 0.00000000
Neuron 5 1 0.00000000 1 0.00000000 0.00000000 0.00000000 0.00000000
Neuron 6 2 0.00000000 1 0.00000000 0.00000000 0.00000000 0.00000000
Neuron 7 4 1.00000000 2 3.02500000 0.00000000 0.00000000 0.00000000
Neuron 8 4 1.00000000 2 3.02500000 0.00000000 0.00000000 0.00000000
Neuron 11 3 0.50000000 4 3.75850292 0.00000000 0.00000000 0.00000000
Neuron 14 3 0.75000000 6 1.39090960 0.00000000 0.00000000 0.00000000
Neuron 18 3 0.50000000 1 3.35266199 0.00000000 0.00000000 0.00000000
Neuron 33 3 0.75000000 10 0.84435021 0.00000000 0.00000000 0.00000000
Neuron 44 3 0.25000000 11 2.74716398 0.00000000 0.00000000 0.00000000
Neuron 47 3 0.75000000 4 5.77071015 0.00000000 0.00000000 0.00000000
Link 2 7 2 0 0.10357048
Link 3 7 3 0 0.45988460
Link 4 7 4 0 -0.18100328
Link 5 7 5 0 0.08922008
Link 6 7 6 0 0.90364085
Link 1 8 7 0 0.14873812
Link 2 8 8 0 0.53382579
Link 4 8 10 0 0.40225994
Link 5 8 11 0 -1.13046082
Link 6 8 12 0 0.16698759
Link 11 14 30 0 0.95753471
Link 14 8 31 0 0.18432078
Link 4 14 43 0 0.16403024
Link 1 18 49 0 1.43769748
Link 1 11 104 0 0.84752979
Link 18 33 163 0 1.07924543
Link 33 7 164 0 -0.22356854
Link 4 44 223 0 0.93412947
Link 44 11 224 0 0.33388271
Link 11 47 247 0 1.14374746
Link 47 7 248 0 0.24630440
GenomeEnd

GenomeStart 22594
Genome Fitness: 201.000000 
Neuron 1 1 0.00000000 1 0.00000000 0.00000000 0.00000000 0.00000000
Neuron 2 1 0.00000000 1 0.00000000 0.00000000 0.00000000 0.00000000
Neuron 3 1 0.00000000 1 0.00000000 0.00000000 0.00000000 0.00000000
Neuron 4 1 0.00000000 1 0.00000000 0.00000000 0.00000000 0.00000000
Neuron 5 1 0.00000000 1 0.00000000 0.00000000 0.00000000 0.00000000
Neuron 6 2 0.00000000 1 0.00000000 0.00000000 0.00000000 0.00000000
Neuron 7 4 1.00000000 2 3.02500000 0.00000000 0.00000000 0.00000000
Neuron 8 4 1.00000000 2 3.02500000 0.00000000 0.00000000 0.00000000
Neuron 11 3 0.50000000 4 3.75850292 0.00000000 0.00000000 0.00000000
Neuron 14 3 0.75000000 6 1.39090960 0.00000000 0.00000000 0.00000000
Neuron 18 3 0.50000000 1 3.35266199 0.00000000 0.00000000 0.00000000
Neuron 33 3 0.75000000 10 0.84435021 0.00000000 0.00000000 0.00000000
Neuron 44 3 0.25000000 11 2.74716398 0.00000000 0.00000000 0.00000000
Neuron 47 3 0.75000000 4 5.77071015 0.00000000 0.00000000 0.00000000
Link 2 7 2 0 0.34087264
Link 3 7 3 0 0.40340377
Link 4 7 4 0 -0.01082718
Link 5 7 5 0 0.29390690
Link 6 7 6 0 0.78249442
Link 1 8 7 0 0.22483786
Link 2 8 8 0 0.49586726
Link 4 8 10 0 0.45578499
Link 5 8 11 0 -1.04252843
Link 6 8 12 0 0.34672763
Link 11 14 30 0 -0.48418588
Link 14 8 31 0 -0.48926586
Link 4 14 43 0 0.24572574
Link 1 18 49 0 0.65037944
Link 1 11 104 0 0.59373240
Link 18 33 163 0 -0.46670727
Link 33 7 164 0 0.07882020
Link 4 44 223 0 1.00000000
Link 44 11 224 0 0.06108497
Link 11 47 247 0 1.04327259
Link 47 7 248 0 -0.30078761
GenomeEnd

GenomeStart 22595
Genome Fitness: 480.000000 
Neuron 1 1 0.00000000 1 0.00000000 0.00000000 0.00000000 0.00000000
Neuron 2 1 0.00000000 1 0.00000000 0.00000000 0.00000000 0.00000000
Neuron 3 1 0.00000000 1 0.00000000 0.00000000 0.00000000 0.00000000
Neuron 4 1 0.00000000 1 0.00000000 0.00000000 0.00000000 0.00000000
Neuron 5 1 0.00000000 1 0.00000000 0.00000000 0.00000000 0.00000000
Neuron 6 2 0.00000000 1 0.00000000 0.00000000 0.00000000 0.00000000
Neuron 7 4 1.00000000 2 3.02500000 0.00000000 0.00000000 0.00000000
Neuron 8 4 1.00000000 2 3.02500000 0.00000000 0.00000000 0.00000000
Neuron 11 3 0.50000000 4 3.75850292 0.00000000 0.00000000 0.00000000
Neuron 14 3 0.75000000 6 1.39090960 0.00000000 0.00000000 0.00000000
Neuron 18 3 0.50000000 1 3.35266199 0.00000000 0.00000000 0.00000000
Neuron 26 3 0.87500000 4 5.51085499 0.00000000 0.00000000 0.00000000
Link 2 7 2 0 0.17033099
Link 3 7 3 0 0.34055028
Link 4 7 4 0 -0.01310904
Link 5 7 5 0 0.27916387
Link 6 7 6 0 0.72552292
Link 1 8 7 0 0.15570151
Link 2 8 8 0 0.40641527
Link 4 8 10 0 0.43629951
Link 5 8 11 0 -1.07602522
Link 6 8 12 0 0.31667741
Link 3 11 20 0 1.12832257
Link 11 14 30 0 0.92259109
Link 4 11 33 0 0.37790921
Link 4 14 43 0 0.25827559
Link 1 18 49 0 1.38116174
Link 18 7 50 0 -0.03032440
Link 2 18 82 0 -0.16100810
Link 14 26 120 0 1.00000000
Link 26 8 121 0 0.20535443
GenomeEnd

GenomeStart 22596
Genome Fitness: 434.000000 
Neuron 1 1 0.00000000 1 0.00000000 0.00000000 0.00000000 0.00000000
Neuron 2 1 0.00000000 1 0.00000000 0.00000000 0.00000000 0.00000000
Neuron 3 1 0.00000000 1 0.00000000 0.00000000 0.00000000 0.00000000
Neuron 4 1 0.00000000 1 0.00000000 0.00000000 0.00000000 0.00000000
Neuron 5 1 0.00000000 1 0.00000000 0.00000000 0.00000000 0.00000000
Neuron 6 2 0.00000000 1 0.00000000 0.00000000 0.00000000 0.00000000
Neuron 7 4 1.00000000 2 3.02500000 0.00000000 0.00000000 0.00000000
Neuron 8 4 1.00000000 2 3.02500000 0.00000000 0.00000000 0.00000000
Neuron 11 3 0.50000000 4 3.75850292 0.00000000 0.00000000 0.00000000
Neuron 14 3 0.75000000 6 1.39090960 0.00000000 0.00000000 0.00000000
Neuron 18 3 0.50000000 1 3.35266199 0.00000000 0.00000000 0.00000000
Neuron 26 3 0.87500000 4 5.51085499 0.00000000 0.00000000 0.00000000
Link 2 7 2 0 0.08051141
Link 3 7 3 0 0.25321302
Link 4 7 4 0 0.00745940
Link 5 7 5 0 0.25905576
Link 6 7 6 0 0.32265224
Link 1 8 7 0 0.06427496
Link 2 8 8 0 0.38593762
Link 4 8 10 0 0.38550191
Link 5 8 11 0 -1.17892778
Link 6 8 12 0 0.33684404
Link 3 11 20 0 1.25816820
Link 11 14 30 0 0.77953035
Link 4 11 33 0 0.49289487
Link 4 14 43 0 0.13386224
Link 1 18 49 0 1.41920070
Link 18 7 50 0 -0.16351052
Link 2 18 82 0 -0.43144309
Link 14 26 120 0 1.19995100
Link 26 8 121 0 0.06365559
GenomeEnd

GenomeStart 22597
Genome Fitness: 346.000000 
Neuron 1 1 0.00000000 1 0.00000000 0.00000000 0.00000000 0.00000000
Neuron 2 1 0.00000000 1 0.00000000 0.00000000 0.00000000 0.00000000
Neuron 3 1 0.00000000 1 0.00000000 0.00000000 0.00000000 0.00000000
Neuron 4 1 0.00000000 1 0.00000000 0.00000000 0.00000000 0.00000000
Neuron 5 1 0.00000000 1 0.00000000 0.00000000 0.00000000 0.00000000
Neuron 6 2 0.00000000 1 0.00000000 0.00000000 0.00000000 0.00000000
Neuron 7 4 1.00000000 2 3.02500000 0.00000000 0.00000000 0.00000000
Neuron 8 4 1.00000000 2 3.02500000 0.00000000 0.00000000 0.00000000
Neuron 11 3 0.50000000 4 3.75850292 0.00000000 0.00000000 0.00000000
Neuron 14 3 0.75000000 6 1.39090960 0.00000000 0.00000000 0.00000000
Neuron 18 3 0.50000000 1 3.35266199 0.00000000 0.00000000 0.00000000
Neuron 26 3 0.87500000 4 5.51085499 0.00000000 0.00000000 0.00000000
Link 2 7 2 0 0.29036260
Link 3 7 3 0 0.42298253
Link 4 7 4 0 0.05166313
Link 5 7 5 0 0.23360791
Link 6 7 6 0 0.75388762
Link 1 8 7 0 0.11574483
Link 2 8 8 0 0.44011204
Link 4 8 10 0 0.49017555
Link 5 8 11 0 -1.06041966
Link 6 8 12 0 0.42848993
Link 3 11 20 0 1.19140312
Link 11 14 30 0 0.96632409
Link 4 11 33 0 0.35219152
Link 4 14 43 0 0.35094338
Link 1 18 49 0 1.40285492
Link 18 7 50 0 0.04881725
Link 2 18 82 0 -0.15514077
Link 14 26 120 0 0.98099771
Link 26 8 121 0 0.33473437
GenomeEnd

GenomeStart 22598
Genome Fitness: 200.000000 
Neuron 1 1 0.00000000 1 0.00000000 0.00000000 0.00000000 0.00000000
Neuron 2 1 0.00000000 1 0.00000000 0.00000000 0.00000000 0.00000000
Neuron 3 1 0.00000000 1 0.00000000 0.00000000 0.00000000 0.00000000
Neuron 4 1 0.00000000 1 0.00000000 0.00000000 0.00000000 0.00000000
Neuron 5 1 0.00000000 1 0.00000000 0.00000000 0.00000000 0.00000000
Neuron 6 2 0.00000000 1 0.00000000 0.00000000 0.00000000 0.00000000
Neuron 7 4 1.00000000 2 3.02500000 0.00000000 0.00000000 0.00000000
Neuron 8 4 1.00000000 2 3.02500000 0.00000000 0.00000000 0.00000000
Neuron 11 3 0.50000000 4 3.75850292 0.00000000 0.00000000 0.00000000
Neuron 14 3 0.75000000 6 1.39090960 0.00000000 0.00000000 0.00000000
Neuron 18 3 0.50000000 1 3.35266199 0.00000000 0.00000000 0.00000000
Neuron 26 3 0.87500000 4 5.51085499 0.00000000 0.00000000 0.00000000
Link 2 7 2 0 0.17033099
Link 3 7 3 0 0.25321302
Link 4 7 4 0 -0.01310904
Link 5 7 5 0 0.27916387
Link 6 7 6 0 0.72552292
Link 1 8 7 0 0.06427496
Link 2 8 8 0 0.38593762
Link 4 8 10 0 0.43629951
Link 5 8 11 0 -1.17892778
Link 6 8 12 0 0.31667741
Link 3 11 20 0 1.12832257
Link 11 14 30 0 0.77953035
Link 4 11 33 0 0.49289487
Link 4 14 43 0 0.25827559
Link 1 18 49 0 1.38116174
Link 18 7 50 0 -0.16351052
Link 2 18 82 0 -0.16100810
Link 14 26 120 0 1.19995100
Link 26 8 121 0 0.20535443
GenomeEnd

GenomeStart 22599
Genome Fitness: 200.000000 
Neuron 1 1 0.00000000 1 0.00000000 0.00000000 0.00000000 0.00000000
Neuron 2 1 0.00000000 1 0.00000000 0.00000000 0.00000000 0.00000000
