NEAT_ParametersStart
PopulationSize 150
DynamicCompatibility true
MinSpecies 5
MaxSpecies 25
InnovationsForever true
AllowClones false
YoungAgeTreshold 15
YoungAgeFitnessBoost 1.10000000000000008882
SpeciesDropoffAge 50
StagnationDelta 0.00000000000000000000
OldAgeTreshold 35
OldAgePenalty 1.00000000000000000000
DetectCompetetiveCoevolutionStagnation false
KillWorstSpeciesEach 15
KillWorstAge 10
SurvivalRate 0.20000000000000001110
CrossoverRate 0.80000000000000004441
OverallMutationRate 0.69999999999999995559
InterspeciesCrossoverRate 0.00010000000000000000
MultipointCrossoverRate 0.75000000000000000000
RouletteWheelSelection false
PhasedSearching false
DeltaCoding false
SimplifyingPhaseMPCTreshold 20
SimplifyingPhaseStagnationTreshold 30
ComplexityFloorGenerations 40
NoveltySearch_K 15
NoveltySearch_P_min 0.50000000000000000000
NoveltySearch_Dynamic_Pmin true
NoveltySearch_No_Archiving_Stagnation_Treshold 150
NoveltySearch_Pmin_lowering_multiplier 0.90000000000000002220
NoveltySearch_Pmin_min 0.05000000000000000278
NoveltySearch_Quick_Archiving_Min_Evaluations 8
NoveltySearch_Pmin_raising_multiplier 1.10000000000000008882
NoveltySearch_Recompute_Sparseness_Each 25
MutateAddNeuronProb 0.02000000000000000042
SplitRecurrent true
SplitLoopedRecurrent true
NeuronTries 32580
MutateAddLinkProb 0.05000000000000000278
MutateAddLinkFromBiasProb 0.00000000000000000000
MutateRemLinkProb 0.01000000000000000021
MutateRemSimpleNeuronProb 0.00000000000000000000
LinkTries 32
RecurrentProb 0.00000000000000000000
RecurrentLoopProb 0.25000000000000000000
MutateWeightsProb 0.90000000000000002220
MutateWeightsSevereProb 0.25000000000000000000
WeightMutationRate 1.00000000000000000000
WeightMutationMaxPower 0.20000000000000001110
WeightReplacementMaxPower 1.00000000000000000000
MaxWeight 8.00000000000000000000
MutateActivationAProb 0.00000000000000000000
MutateActivationBProb 0.00000000000000000000
ActivationAMutationMaxPower 0.50000000000000000000
ActivationBMutationMaxPower 0.00000000000000000000
TimeConstantMutationMaxPower 0.00000000000000000000
BiasMutationMaxPower 1.00000000000000000000
MinActivationA 0.05000000000000000278
MaxActivationA 6.00000000000000000000
MinActivationB 0.00000000000000000000
MaxActivationB 0.00000000000000000000
MutateNeuronActivationTypeProb 0.02000000000000000042
ActivationFunction_SignedSigmoid_Prob 0.00000000000000000000
ActivationFunction_UnsignedSigmoid_Prob 1.00000000000000000000
ActivationFunction_Tanh_Prob 1.00000000000000000000
ActivationFunction_TanhCubic_Prob 1.00000000000000000000
ActivationFunction_SignedStep_Prob 1.00000000000000000000
ActivationFunction_UnsignedStep_Prob 1.00000000000000000000
ActivationFunction_SignedGauss_Prob 1.00000000000000000000
ActivationFunction_UnsignedGauss_Prob 1.00000000000000000000
ActivationFunction_Abs_Prob 1.00000000000000000000
ActivationFunction_SignedSine_Prob 1.00000000000000000000
ActivationFunction_UnsignedSine_Prob 1.00000000000000000000
ActivationFunction_Linear_Prob 1.00000000000000000000
ActivationFunction_Relu_Prob 0.00000000000000000000
ActivationFunction_Softplus_Prob 0.00000000000000000000
MutateNeuronTimeConstantsProb 0.00000000000000000000
MutateNeuronBiasesProb 0.00000000000000000000
MinNeuronTimeConstant 0.00000000000000000000
MaxNeuronTimeConstant 0.00000000000000000000
MinNeuronBias 0.00000000000000000000
MaxNeuronBias 0.00000000000000000000
DisjointCoeff 1.00000000000000000000
ExcessCoeff 1.00000000000000000000
ActivationADiffCoeff 0.00000000000000000000
ActivationBDiffCoeff 0.00000000000000000000
WeightDiffCoeff 0.50000000000000000000
TimeConstantDiffCoeff 0.00000000000000000000
BiasDiffCoeff 0.00000000000000000000
ActivationFunctionDiffCoeff 0.00000000000000000000
CompatTreshold 3.19999999999999928946
MinCompatTreshold 0.20000000000000001110
CompatTresholdModifier 0.29999999999999998890
CompatTreshChangeInterval_Generations 1
CompatTreshChangeInterval_Evaluations 10
DivisionThreshold 0.02999999999999999889
VarianceThreshold 0.02999999999999999889
BandThreshold 0.29999999999999998890
InitialDepth 3
MaxDepth 3
IterationLevel 1
TournamentSize 2
CPPN_Bias -1.00000000000000000000
Width 2.00000000000000000000
Height 2.00000000000000000000
Qtree_X 0.00000000000000000000
Qtree_Y 0.00000000000000000000
Leo false
LeoThreshold 0.10000000000000000555
LeoSeed false
GeometrySeed false
Elitism 0.10000000000000000555
NEAT_ParametersEnd
InnovationDatabaseStart
NextInnovNum: 287
NextNeuronID: 55
Innovation 1 1 1 7 0 -1
Innovation 2 1 2 7 0 -1
Innovation 3 1 3 7 0 -1
Innovation 4 1 4 7 0 -1
Innovation 5 1 5 7 0 -1
Innovation 6 1 6 7 0 -1
Innovation 7 1 1 8 0 -1
Innovation 8 1 2 8 0 -1
Innovation 9 1 3 8 0 -1
Innovation 10 1 4 8 0 -1
Innovation 11 1 5 8 0 -1
Innovation 12 1 6 8 0 -1
Innovation 13 0 2 8 3 9
Innovation 14 1 2 9 0 -1
Innovation 15 1 9 8 0 -1
Innovation 16 0 2 7 3 10
Innovation 17 1 2 10 0 -1
Innovation 18 1 10 7 0 -1
Innovation 19 0 3 8 3 11
Innovation 20 1 3 11 0 -1
Innovation 21 1 11 8 0 -1
Innovation 22 0 5 7 3 12
Innovation 23 1 5 12 0 -1
Innovation 24 1 12 7 0 -1
Innovation 25 0 9 8 3 13
Innovation 26 1 9 13 0 -1
Innovation 27 1 13 8 0 -1
Innovation 28 1 1 9 0 -1
Innovation 29 0 11 8 3 14
Innovation 30 1 11 14 0 -1
Innovation 31 1 14 8 0 -1
Innovation 32 1 11 7 0 -1
Innovation 33 1 4 11 0 -1
Innovation 34 1 5 9 0 -1
Innovation 35 0 4 7 3 15
Innovation 36 1 4 15 0 -1
Innovation 37 1 15 7 0 -1
Innovation 38 1 2 13 0 -1
Innovation 39 0 1 8 3 16
Innovation 40 1 1 16 0 -1
Innovation 41 1 16 8 0 -1
Innovation 42 1 6 10 0 -1
Innovation 43 1 4 14 0 -1
Innovation 44 0 3 7 3 17
Innovation 45 1 3 17 0 -1
Innovation 46 1 17 7 0 -1
Innovation 47 1 3 9 0 -1
Innovation 48 0 1 7 3 18
Innovation 49 1 1 18 0 -1
Innovation 50 1 18 7 0 -1
Innovation 51 0 16 8 3 19
Innovation 52 1 16 19 0 -1
Innovation 53 1 19 8 0 -1
Innovation 54 1 2 11 0 -1
Innovation 55 1 1 15 0 -1
Innovation 56 1 15 14 0 -1
Innovation 57 0 2 9 3 20
Innovation 58 1 2 20 0 -1
Innovation 59 1 20 9 0 -1
Innovation 60 0 4 8 3 21
Innovation 61 1 4 21 0 -1
Innovation 62 1 21 8 0 -1
Innovation 63 1 5 11 0 -1
Innovation 64 0 15 7 3 22
Innovation 65 1 15 22 0 -1
Innovation 66 1 22 7 0 -1
Innovation 67 1 6 14 0 -1
Innovation 68 1 1 14 0 -1
Innovation 69 1 10 8 0 -1
Innovation 70 1 4 12 0 -1
Innovation 71 1 12 18 0 -1
Innovation 72 1 16 7 0 -1
Innovation 73 1 3 18 0 -1
Innovation 74 1 6 12 0 -1
Innovation 75 1 6 19 0 -1
Innovation 76 1 14 7 0 -1
Innovation 77 1 17 8 0 -1
Innovation 78 0 12 7 3 23
Innovation 79 1 12 23 0 -1
Innovation 80 1 23 7 0 -1
Innovation 81 1 9 7 0 -1
Innovation 82 1 2 18 0 -1
Innovation 83 0 5 8 3 24
Innovation 84 1 5 24 0 -1
Innovation 85 1 24 8 0 -1
Innovation 86 1 5 15 0 -1
Innovation 87 1 6 9 0 -1
Innovation 88 1 11 24 0 -1
Innovation 89 1 2 16 0 -1
Innovation 90 1 6 11 0 -1
Innovation 91 1 10 15 0 -1
Innovation 92 1 11 17 0 -1
Innovation 93 1 3 10 0 -1
Innovation 94 1 18 21 0 -1
Innovation 95 1 2 14 0 -1
Innovation 96 1 20 7 0 -1
Innovation 97 1 9 12 0 -1
Innovation 98 1 6 18 0 -1
Innovation 99 1 3 15 0 -1
Innovation 100 1 2 15 0 -1
Innovation 101 1 16 21 0 -1
Innovation 102 1 15 11 0 -1
Innovation 103 1 5 14 0 -1
Innovation 104 1 1 11 0 -1
Innovation 105 1 5 21 0 -1
Innovation 106 1 4 10 0 -1
Innovation 107 1 3 16 0 -1
Innovation 108 0 4 14 3 25
Innovation 109 1 4 25 0 -1
Innovation 110 1 25 14 0 -1
Innovation 111 1 9 15 0 -1
Innovation 112 1 11 15 0 -1
Innovation 113 1 1 17 0 -1
Innovation 114 1 3 12 0 -1
Innovation 115 1 5 10 0 -1
Innovation 116 1 2 12 0 -1
Innovation 117 1 24 11 0 -1
Innovation 118 1 5 18 0 -1
Innovation 119 0 14 8 3 26
Innovation 120 1 14 26 0 -1
Innovation 121 1 26 8 0 -1
Innovation 122 1 5 22 0 -1
Innovation 123 1 18 12 0 -1
Innovation 124 0 17 7 3 27
Innovation 125 1 17 27 0 -1
Innovation 126 1 27 7 0 -1
Innovation 127 0 5 22 3 28
Innovation 128 1 5 28 0 -1
Innovation 129 1 28 22 0 -1
Innovation 130 1 2 21 0 -1
Innovation 131 1 3 14 0 -1
Innovation 132 0 4 15 3 29
Innovation 133 1 4 29 0 -1
Innovation 134 1 29 15 0 -1
Innovation 135 0 2 10 3 30
Innovation 136 1 2 30 0 -1
Innovation 137 1 30 10 0 -1
Innovation 138 1 12 8 0 -1
Innovation 139 1 6 15 0 -1
Innovation 140 1 4 9 0 -1
Innovation 141 1 3 13 0 -1
Innovation 142 1 4 23 0 -1
Innovation 143 1 5 19 0 -1
Innovation 144 1 9 10 0 -1
Innovation 145 1 24 14 0 -1
Innovation 146 1 4 13 0 -1
Innovation 147 1 21 7 0 -1
Innovation 148 1 18 8 0 -1
Innovation 149 0 20 9 3 31
Innovation 150 1 20 31 0 -1
Innovation 151 1 31 9 0 -1
Innovation 152 1 5 13 0 -1
Innovation 153 1 4 24 0 -1
Innovation 154 1 1 12 0 -1
Innovation 155 1 15 18 0 -1
Innovation 156 1 16 14 0 -1
Innovation 157 0 15 22 3 32
Innovation 158 1 15 32 0 -1
Innovation 159 1 32 22 0 -1
Innovation 160 1 4 20 0 -1
Innovation 161 1 20 15 0 -1
Innovation 162 0 18 7 3 33
Innovation 163 1 18 33 0 -1
Innovation 164 1 33 7 0 -1
Innovation 165 1 10 9 0 -1
Innovation 166 0 16 19 3 34
Innovation 167 1 16 34 0 -1
Innovation 168 1 34 19 0 -1
Innovation 169 1 12 9 0 -1
Innovation 170 1 10 12 0 -1
Innovation 171 1 4 16 0 -1
Innovation 172 0 5 24 3 35
Innovation 173 1 5 35 0 -1
Innovation 174 1 35 24 0 -1
Innovation 175 0 1 16 3 36
Innovation 176 1 1 36 0 -1
Innovation 177 1 36 16 0 -1
Innovation 178 1 11 18 0 -1
Innovation 179 1 18 14 0 -1
Innovation 180 0 5 12 3 37
Innovation 181 1 5 37 0 -1
Innovation 182 1 37 12 0 -1
Innovation 183 1 15 8 0 -1
Innovation 184 0 10 7 3 38
Innovation 185 1 10 38 0 -1
Innovation 186 1 38 7 0 -1
Innovation 187 0 4 20 3 39
Innovation 188 1 4 39 0 -1
Innovation 189 1 39 20 0 -1
Innovation 190 1 21 12 0 -1
Innovation 191 1 9 16 0 -1
Innovation 192 1 16 11 0 -1
Innovation 193 0 5 11 3 40
Innovation 194 1 5 40 0 -1
Innovation 195 1 40 11 0 -1
Innovation 196 1 17 11 0 -1
Innovation 197 1 17 14 0 -1
Innovation 198 1 23 8 0 -1
Innovation 199 0 9 7 3 41
Innovation 200 1 9 41 0 -1
Innovation 201 1 41 7 0 -1
Innovation 202 1 5 16 0 -1
Innovation 203 0 11 14 3 42
Innovation 204 1 11 42 0 -1
Innovation 205 1 42 14 0 -1
Innovation 206 1 6 16 0 -1
Innovation 207 1 9 19 0 -1
Innovation 208 1 12 16 0 -1
Innovation 209 1 15 12 0 -1
Innovation 210 1 6 17 0 -1
Innovation 211 1 11 12 0 -1
Innovation 212 1 3 19 0 -1
Innovation 213 0 21 8 3 43
Innovation 214 1 21 43 0 -1
Innovation 215 1 43 8 0 -1
Innovation 216 1 16 9 0 -1
Innovation 217 1 11 16 0 -1
Innovation 218 1 3 23 0 -1
Innovation 219 1 1 21 0 -1
Innovation 220 1 1 26 0 -1
Innovation 221 1 9 23 0 -1
Innovation 222 0 4 11 3 44
Innovation 223 1 4 44 0 -1
Innovation 224 1 44 11 0 -1
Innovation 225 1 4 18 0 -1
Innovation 226 1 5 17 0 -1
Innovation 227 1 6 26 0 -1
Innovation 228 1 3 21 0 -1
Innovation 229 1 2 44 0 -1
Innovation 230 1 11 26 0 -1
Innovation 231 1 6 20 0 -1
Innovation 232 0 1 18 3 45
Innovation 233 1 1 45 0 -1
Innovation 234 1 45 18 0 -1
Innovation 235 1 2 26 0 -1
Innovation 236 1 18 11 0 -1
Innovation 237 1 15 16 0 -1
Innovation 238 1 1 23 0 -1
Innovation 239 1 44 7 0 -1
Innovation 240 1 12 14 0 -1
Innovation 241 1 12 21 0 -1
Innovation 242 0 1 11 3 46
Innovation 243 1 1 46 0 -1
Innovation 244 1 46 11 0 -1
Innovation 245 1 9 21 0 -1
Innovation 246 0 11 7 3 47
Innovation 247 1 11 47 0 -1
Innovation 248 1 47 7 0 -1
Innovation 249 0 23 7 3 48
Innovation 250 1 23 48 0 -1
Innovation 251 1 48 7 0 -1
Innovation 252 0 3 11 3 49
Innovation 253 1 3 49 0 -1
Innovation 254 1 49 11 0 -1
Innovation 255 1 5 44 0 -1
Innovation 256 1 26 7 0 -1
Innovation 257 1 2 19 0 -1
Innovation 258 1 6 44 0 -1
Innovation 259 1 3 44 0 -1
Innovation 260 1 18 26 0 -1
Innovation 261 1 6 23 0 -1
Innovation 262 0 9 12 3 50
Innovation 263 1 9 50 0 -1
Innovation 264 1 50 12 0 -1
Innovation 265 1 5 26 0 -1
Innovation 266 1 19 7 0 -1
Innovation 267 1 5 33 0 -1
Innovation 268 1 44 8 0 -1
Innovation 269 1 2 46 0 -1
Innovation 270 0 4 44 3 51
Innovation 271 1 4 51 0 -1
Innovation 272 1 51 44 0 -1
Innovation 273 1 4 19 0 -1
Innovation 274 1 33 14 0 -1
Innovation 275 1 49 8 0 -1
Innovation 276 1 10 18 0 -1
Innovation 277 0 19 8 3 52
Innovation 278 1 19 52 0 -1
Innovation 279 1 52 8 0 -1
Innovation 280 0 26 8 3 53
Innovation 281 1 26 53 0 -1
Innovation 282 1 53 8 0 -1
Innovation 283 0 4 21 3 54
Innovation 284 1 4 54 0 -1
Innovation 285 1 54 21 0 -1
Innovation 286 1 5 46 0 -1
InnovationDatabaseEnd

GenomeStart 21634
Genome Fitness: 537.000000 
Neuron 1 1 0.00000000 1 0.00000000 0.00000000 0.00000000 0.00000000
Neuron 2 1 0.00000000 1 0.00000000 0.00000000 0.00000000 0.00000000
Neuron 3 1 0.00000000 1 0.00000000 0.00000000 0.00000000 0.00000000
Neuron 4 1 0.00000000 1 0.00000000 0.00000000 0.00000000 0.00000000
Neuron 5 1 0.00000000 1 0.00000000 0.00000000 0.00000000 0.00000000
Neuron 6 2 0.00000000 1 0.00000000 0.00000000 0.00000000 0.00000000
Neuron 7 4 1.00000000 2 3.02500000 0.00000000 0.00000000 0.00000000
Neuron 8 4 1.00000000 2 3.02500000 0.00000000 0.00000000 0.00000000
Neuron 9 3 0.50000000 10 5.89185529 0.00000000 0.00000000 0.00000000
Neuron 16 3 0.50000000 10 1.64230847 0.00000000 0.00000000 0.00000000
Link 1 7 1 0 0.26963024
Link 2 7 2 0 0.12951324
Link 3 7 3 0 0.12705390
Link 4 7 4 0 0.09305443
Link 5 7 5 0 -0.56130124
Link 6 7 6 0 0.19640737
Link 3 8 9 0 0.59291445
Link 4 8 10 0 0.25082834
Link 5 8 11 0 -0.14043335
Link 6 8 12 0 0.00160219
Link 2 9 14 0 1.09065239
Link 9 8 15 0 -0.61758188
Link 1 16 40 0 1.04826245
Link 16 8 41 0 -0.00579390
GenomeEnd

GenomeStart 21635
Genome Fitness: 537.000000 
Neuron 1 1 0.00000000 1 0.00000000 0.00000000 0.00000000 0.00000000
Neuron 2 1 0.00000000 1 0.00000000 0.00000000 0.00000000 0.00000000
Neuron 3 1 0.00000000 1 0.00000000 0.00000000 0.00000000 0.00000000
Neuron 4 1 0.00000000 1 0.00000000 0.00000000 0.00000000 0.00000000
Neuron 5 1 0.00000000 1 0.00000000 0.00000000 0.00000000 0.00000000
Neuron 6 2 0.00000000 1 0.00000000 0.00000000 0.00000000 0.00000000
Neuron 7 4 1.00000000 2 3.02500000 0.00000000 0.00000000 0.00000000
Neuron 8 4 1.00000000 2 3.02500000 0.00000000 0.00000000 0.00000000
Neuron 9 3 0.50000000 10 5.89185529 0.00000000 0.00000000 0.00000000
Neuron 16 3 0.50000000 10 1.64230847 0.00000000 0.00000000 0.00000000
Link 1 7 1 0 0.26963024
Link 2 7 2 0 0.12951324
Link 3 7 3 0 0.12705390
Link 4 7 4 0 0.09305443
Link 5 7 5 0 -0.56130124
Link 6 7 6 0 0.19640737
Link 3 8 9 0 0.59291445
Link 4 8 10 0 0.22461515
Link 5 8 11 0 -0.14043335
Link 6 8 12 0 0.00160219
Link 2 9 14 0 1.08455841
Link 9 8 15 0 -0.61758188
Link 1 16 40 0 1.04826245
Link 16 8 41 0 -0.00579390
GenomeEnd

GenomeStart 21636
Genome Fitness: 537.000000 
Neuron 1 1 0.00000000 1 0.00000000 0.00000000 0.00000000 0.00000000
Neuron 2 1 0.00000000 1 0.00000000 0.00000000 0.00000000 0.00000000
Neuron 3 1 0.00000000 1 0.00000000 0.00000000 0.00000000 0.00000000
Neuron 4 1 0.00000000 1 0.00000000 0.00000000 0.00000000 0.00000000
Neuron 5 1 0.00000000 1 0.00000000 0.00000000 0.00000000 0.00000000
Neuron 6 2 0.00000000 1 0.00000000 0.00000000 0.00000000 0.00000000
Neuron 7 4 1.00000000 2 3.02500000 0.00000000 0.00000000 0.00000000
Neuron 8 4 1.00000000 2 3.02500000 0.00000000 0.00000000 0.00000000
Neuron 9 3 0.50000000 10 5.89185529 0.00000000 0.00000000 0.00000000
Neuron 16 3 0.50000000 10 1.64230847 0.00000000 0.00000000 0.00000000
Link 1 7 1 0 0.26963024
Link 2 7 2 0 0.12951324
Link 3 7 3 0 0.12705390
Link 4 7 4 0 0.09305443
Link 5 7 5 0 -0.56130124
Link 6 7 6 0 0.19640737
Link 3 8 9 0 0.59291445
Link 4 8 10 0 0.22461515
Link 5 8 11 0 -0.14043335
Link 6 8 12 0 0.00160219
Link 2 9 14 0 1.09065239
Link 9 8 15 0 -0.61758188
Link 1 16 40 0 1.04826245
Link 16 8 41 0 -0.00579390
GenomeEnd

GenomeStart 21637
Genome Fitness: 279.000000 
Neuron 1 1 0.00000000 1 0.00000000 0.00000000 0.00000000 0.00000000
Neuron 2 1 0.00000000 1 0.00000000 0.00000000 0.00000000 0.00000000
Neuron 3 1 0.00000000 1 0.00000000 0.00000000 0.00000000 0.00000000
Neuron 4 1 0.00000000 1 0.00000000 0.00000000 0.00000000 0.00000000
Neuron 5 1 0.00000000 1 0.00000000 0.00000000 0.00000000 0.00000000
Neuron 6 2 0.00000000 1 0.00000000 0.00000000 0.00000000 0.00000000
Neuron 7 4 1.00000000 2 3.02500000 0.00000000 0.00000000 0.00000000
Neuron 8 4 1.00000000 2 3.02500000 0.00000000 0.00000000 0.00000000
Neuron 9 3 0.50000000 10 5.89185529 0.00000000 0.00000000 0.00000000
Neuron 16 3 0.50000000 10 1.64230847 0.00000000 0.00000000 0.00000000
Link 1 7 1 0 0.33061150
Link 2 7 2 0 0.04562650
Link 3 7 3 0 0.14122016
Link 4 7 4 0 0.09989306
Link 5 7 5 0 -0.57618401
Link 6 7 6 0 0.23503863
Link 3 8 9 0 0.74726326
Link 4 8 10 0 0.35872979
Link 5 8 11 0 -0.04577654
Link 6 8 12 0 0.02305168
Link 2 9 14 0 1.14112581
Link 9 8 15 0 -0.50808345
Link 1 16 40 0 1.04434639
Link 16 8 41 0 -0.15647531
GenomeEnd

GenomeStart 21638
Genome Fitness: 200.000000 
Neuron 1 1 0.00000000 1 0.00000000 0.00000000 0.00000000 0.00000000
Neuron 2 1 0.00000000 1 0.00000000 0.00000000 0.00000000 0.00000000
Neuron 3 1 0.00000000 1 0.00000000 0.00000000 0.00000000 0.00000000
Neuron 4 1 0.00000000 1 0.00000000 0.00000000 0.00000000 0.00000000
Neuron 5 1 0.00000000 1 0.00000000 0.00000000 0.00000000 0.00000000
Neuron 6 2 0.00000000 1 0.00000000 0.00000000 0.00000000 0.00000000
Neuron 7 4 1.00000000 2 3.02500000 0.00000000 0.00000000 0.00000000
Neuron 8 4 1.00000000 2 3.02500000 0.00000000 0.00000000 0.00000000
Neuron 9 3 0.50000000 10 5.89185529 0.00000000 0.00000000 0.00000000
Neuron 16 3 0.50000000 10 1.64230847 0.00000000 0.00000000 0.00000000
Link 1 7 1 0 0.32316715
Link 2 7 2 0 0.15541749
Link 3 7 3 0 0.02275355
Link 4 7 4 0 0.25729102
Link 5 7 5 0 -0.57277367
Link 6 7 6 0 0.18233715
Link 3 8 9 0 0.52430287
Link 4 8 10 0 0.21769126
Link 5 8 11 0 -0.19170732
Link 6 8 12 0 -0.14725858
Link 2 9 14 0 1.18381372
Link 9 8 15 0 -0.56576503
Link 1 16 40 0 0.95808763
Link 16 8 41 0 0.00308152
GenomeEnd

GenomeStart 21639
Genome Fitness: 188.000000 
Neuron 1 1 0.00000000 1 0.00000000 0.00000000 0.00000000 0.00000000
Neuron 2 1 0.00000000 1 0.00000000 0.00000000 0.00000000 0.00000000
Neuron 3 1 0.00000000 1 0.00000000 0.00000000 0.00000000 0.00000000
Neuron 4 1 0.00000000 1 0.00000000 0.00000000 0.00000000 0.00000000
Neuron 5 1 0.00000000 1 0.00000000 0.00000000 0.00000000 0.00000000
Neuron 6 2 0.00000000 1 0.00000000 0.00000000 0.00000000 0.00000000
Neuron 7 4 1.00000000 2 3.02500000 0.00000000 0.00000000 0.00000000
Neuron 8 4 1.00000000 2 3.02500000 0.00000000 0.00000000 0.00000000
Neuron 9 3 0.50000000 10 5.89185529 0.00000000 0.00000000 0.00000000
Neuron 16 3 0.50000000 10 1.64230847 0.00000000 0.00000000 0.00000000
Link 1 7 1 0 0.25331479
Link 2 7 2 0 0.03427682
Link 3 7 3 0 0.27057821
Link 4 7 4 0 0.00519092
Link 5 7 5 0 -0.60283058
Link 6 7 6 0 0.32209313
Link 3 8 9 0 0.74602277
Link 4 8 10 0 0.21452036
Link 5 8 11 0 -0.16097574
Link 6 8 12 0 -0.02899772
Link 2 9 14 0 1.23447003
Link 9 8 15 0 -0.70131241
Link 1 16 40 0 1.13804285
Link 16 8 41 0 -0.02660864
GenomeEnd

GenomeStart 21640
Genome Fitness: 537.000000 
Neuron 1 1 0.00000000 1 0.00000000 0.00000000 0.00000000 0.00000000
Neuron 2 1 0.00000000 1 0.00000000 0.00000000 0.00000000 0.00000000
Neuron 3 1 0.00000000 1 0.00000000 0.00000000 0.00000000 0.00000000
Neuron 4 1 0.00000000 1 0.00000000 0.00000000 0.00000000 0.00000000
Neuron 5 1 0.00000000 1 0.00000000 0.00000000 0.00000000 0.00000000
Neuron 6 2 0.00000000 1 0.00000000 0.00000000 0.00000000 0.00000000
Neuron 7 4 1.00000000 2 3.02500000 0.00000000 0.00000000 0.00000000
Neuron 8 4 1.00000000 2 3.02500000 0.00000000 0.00000000 0.00000000
Neuron 9 3 0.50000000 10 5.89185529 0.00000000 0.00000000 0.00000000
Neuron 16 3 0.50000000 10 1.64230847 0.00000000 0.00000000 0.00000000
Link 1 7 1 0 0.26963024
Link 2 7 2 0 0.12951324
Link 3 7 3 0 0.12705390
Link 4 7 4 0 0.09305443
Link 5 7 5 0 -0.56130124
Link 6 7 6 0 0.19640737
Link 3 8 9 0 0.59291445
Link 4 8 10 0 0.23772174
Link 5 8 11 0 -0.14043335
Link 6 8 12 0 0.00160219
Link 2 9 14 0 1.09065239
Link 9 8 15 0 -0.61758188
Link 1 16 40 0 1.04826245
Link 16 8 41 0 -0.00579390
GenomeEnd

GenomeStart 21641
Genome Fitness: 204.000000 
Neuron 1 1 0.00000000 1 0.00000000 0.00000000 0.00000000 0.00000000
Neuron 2 1 0.00000000 1 0.00000000 0.00000000 0.00000000 0.00000000
Neuron 3 1 0.00000000 1 0.00000000 0.00000000 0.00000000 0.00000000
Neuron 4 1 0.00000000 1 0.00000000 0.00000000 0.00000000 0.00000000
Neuron 5 1 0.00000000 1 0.00000000 0.00000000 0.00000000 0.00000000
Neuron 6 2 0.00000000 1 0.00000000 0.00000000 0.00000000 0.00000000
Neuron 7 4 1.00000000 2 3.02500000 0.00000000 0.00000000 0.00000000
Neuron 8 4 1.00000000 2 3.02500000 0.00000000 0.00000000 0.00000000
Neuron 9 3 0.50000000 10 5.89185529 0.00000000 0.00000000 0.00000000
Neuron 16 3 0.50000000 10 1.64230847 0.00000000 0.00000000 0.00000000
Link 1 7 1 0 0.29315727
Link 2 7 2 0 0.05920378
Link 3 7 3 0 0.11326414
Link 4 7 4 0 -0.02320246
Link 5 7 5 0 -0.59827775
Link 6 7 6 0 0.06589613
Link 3 8 9 0 0.75370426
Link 4 8 10 0 0.39548404
Link 5 8 11 0 -0.27813661
Link 6 8 12 0 -0.04072051
Link 2 9 14 0 1.20814889
Link 9 8 15 0 -0.62281023
Link 1 16 40 0 1.00882885
Link 16 8 41 0 -0.11355041
GenomeEnd

GenomeStart 21642
Genome Fitness: 259.000000 
Neuron 1 1 0.00000000 1 0.00000000 0.00000000 0.00000000 0.00000000
Neuron 2 1 0.00000000 1 0.00000000 0.00000000 0.00000000 0.00000000
Neuron 3 1 0.00000000 1 0.00000000 0.00000000 0.00000000 0.00000000
Neuron 4 1 0.00000000 1 0.00000000 0.00000000 0.00000000 0.00000000
Neuron 5 1 0.00000000 1 0.00000000 0.00000000 0.00000000 0.00000000
Neuron 6 2 0.00000000 1 0.00000000 0.00000000 0.00000000 0.00000000
Neuron 7 4 1.00000000 2 3.02500000 0.00000000 0.00000000 0.00000000
Neuron 8 4 1.00000000 2 3.02500000 0.00000000 0.00000000 0.00000000
Neuron 9 3 0.50000000 10 5.89185529 0.00000000 0.00000000 0.00000000
Neuron 16 3 0.50000000 10 1.64230847 0.00000000 0.00000000 0.00000000
Link 1 7 1 0 0.44827785
Link 2 7 2 0 0.16960425
Link 3 7 3 0 0.16700209
Link 4 7 4 0 0.09305443
Link 5 7 5 0 -0.56130124
Link 6 7 6 0 0.39600312
Link 3 8 9 0 0.72391837
Link 4 8 10 0 0.30703770
Link 5 8 11 0 0.27098660
Link 6 8 12 0 -0.04411358
Link 2 9 14 0 1.06209711
Link 9 8 15 0 0.19135088
Link 1 16 40 0 0.89610741
Link 16 8 41 0 -0.03277981
GenomeEnd

GenomeStart 21643
Genome Fitness: 255.000000 
Neuron 1 1 0.00000000 1 0.00000000 0.00000000 0.00000000 0.00000000
Neuron 2 1 0.00000000 1 0.00000000 0.00000000 0.00000000 0.00000000
Neuron 3 1 0.00000000 1 0.00000000 0.00000000 0.00000000 0.00000000
Neuron 4 1 0.00000000 1 0.00000000 0.00000000 0.00000000 0.00000000
Neuron 5 1 0.00000000 1 0.00000000 0.00000000 0.00000000 0.00000000
Neuron 6 2 0.00000000 1 0.00000000 0.00000000 0.00000000 0.00000000
Neuron 7 4 1.00000000 2 3.02500000 0.00000000 0.00000000 0.00000000
Neuron 8 4 1.00000000 2 3.02500000 0.00000000 0.00000000 0.00000000
Neuron 9 3 0.50000000 10 5.89185529 0.00000000 0.00000000 0.00000000
Neuron 16 3 0.50000000 10 1.64230847 0.00000000 0.00000000 0.00000000
Link 1 7 1 0 0.20546477
Link 2 7 2 0 0.29996405
Link 3 7 3 0 0.07711401
Link 4 7 4 0 0.27502175
Link 5 7 5 0 -0.62402438
Link 6 7 6 0 0.30708885
Link 3 8 9 0 0.51408581
Link 4 8 10 0 0.21156313
Link 5 8 11 0 -0.16866066
Link 6 8 12 0 -0.10472277
Link 2 9 14 0 1.05933078
Link 9 8 15 0 -0.70943542
Link 1 16 40 0 1.03638562
Link 16 8 41 0 -0.00748769
GenomeEnd

GenomeStart 21634
Genome Fitness: 537.000000 
Neuron 1 1 0.00000000 1 0.00000000 0.00000000 0.00000000 0.00000000
Neuron 2 1 0.00000000 1 0.00000000 0.00000000 0.00000000 0.00000000
Neuron 3 1 0.00000000 1 0.00000000 0.00000000 0.00000000 0.00000000
Neuron 4 1 0.00000000 1 0.00000000 0.00000000 0.00000000 0.00000000
Neuron 5 1 0.00000000 1 0.00000000 0.00000000 0.00000000 0.00000000
Neuron 6 2 0.00000000 1 0.00000000 0.00000000 0.00000000 0.00000000
Neuron 7 4 1.00000000 2 3.02500000 0.00000000 0.00000000 0.00000000
Neuron 8 4 1.00000000 2 3.02500000 0.00000000 0.00000000 0.00000000
Neuron 9 3 0.50000000 10 5.89185529 0.00000000 0.00000000 0.00000000
Neuron 16 3 0.50000000 10 1.64230847 0.00000000 0.00000000 0.00000000
Link 1 7 1 0 0.26963024
Link 2 7 2 0 0.12951324
Link 3 7 3 0 0.12705390
Link 4 7 4 0 0.09305443
Link 5 7 5 0 -0.56130124
Link 6 7 6 0 0.19640737
Link 3 8 9 0 0.59291445
Link 4 8 10 0 0.25082834
Link 5 8 11 0 -0.14043335
Link 6 8 12 0 0.00160219
Link 2 9 14 0 1.09065239
Link 9 8 15 0 -0.61758188
Link 1 16 40 0 1.04826245
Link 16 8 41 0 -0.00579390
GenomeEnd

GenomeStart 21644
Genome Fitness: 534.000000 
Neuron 1 1 0.00000000 1 0.00000000 0.00000000 0.00000000 0.00000000
Neuron 2 1 0.00000000 1 0.00000000 0.00000000 0.00000000 0.00000000
Neuron 3 1 0.00000000 1 0.00000000 0.00000000 0.00000000 0.00000000
Neuron 4 1 0.00000000 1 0.00000000 0.00000000 0.00000000 0.00000000
Neuron 5 1 0.00000000 1 0.00000000 0.00000000 0.00000000 0.00000000
Neuron 6 2 0.00000000 1 0.00000000 0.00000000 0.00000000 0.00000000
Neuron 7 4 1.00000000 2 3.02500000 0.00000000 0.00000000 0.00000000
Neuron 8 4 1.00000000 2 3.02500000 0.00000000 0.00000000 0.00000000
Neuron 9 3 0.50000000 11 5.89185529 0.00000000 0.00000000 0.00000000
Neuron 12 3 0.50000000 1 2.96516409 0.00000000 0.00000000 0.00000000
Neuron 21 3 0.50000000 8 4.53661780 0.00000000 0.00000000 0.00000000
Link 1 7 1 0 0.75941834
Link 2 7 2 0 -0.19900958
Link 3 7 3 0 -0.17361785
Link 4 7 4 0 0.04030855
Link 6 7 6 0 0.17568791
Link 1 8 7 0 -0.29899571
Link 3 8 9 0 0.50993043
Link 5 8 11 0 -0.34396926
Link 6 8 12 0 -0.26144819
Link 2 9 14 0 0.27164522
Link 9 8 15 0 -0.35283820
Link 5 12 23 0 0.45672769
Link 12 7 24 0 -0.34918378
Link 4 21 61 0 0.83250755
Link 21 8 62 0 0.38606136
Link 9 12 97 0 0.13983038
Link 5 21 105 0 1.03622954
GenomeEnd

GenomeStart 21645
Genome Fitness: 534.000000 
Neuron 1 1 0.00000000 1 0.00000000 0.00000000 0.00000000 0.00000000
Neuron 2 1 0.00000000 1 0.00000000 0.00000000 0.00000000 0.00000000
Neuron 3 1 0.00000000 1 0.00000000 0.00000000 0.00000000 0.00000000
Neuron 4 1 0.00000000 1 0.00000000 0.00000000 0.00000000 0.00000000
Neuron 5 1 0.00000000 1 0.00000000 0.00000000 0.00000000 0.00000000
Neuron 6 2 0.00000000 1 0.00000000 0.00000000 0.00000000 0.00000000
Neuron 7 4 1.00000000 2 3.02500000 0.00000000 0.00000000 0.00000000
Neuron 8 4 1.00000000 2 3.02500000 0.00000000 0.00000000 0.00000000
Neuron 9 3 0.50000000 11 5.89185529 0.00000000 0.00000000 0.00000000
Neuron 12 3 0.50000000 1 2.96516409 0.00000000 0.00000000 0.00000000
Neuron 21 3 0.50000000 8 4.53661780 0.00000000 0.00000000 0.00000000
Link 1 7 1 0 0.75941834
Link 2 7 2 0 -0.19900958
Link 3 7 3 0 -0.17361785
Link 4 7 4 0 0.04030855
Link 6 7 6 0 0.17568791
Link 1 8 7 0 -0.29899571
Link 3 8 9 0 0.50993043
Link 5 8 11 0 -0.34396926
Link 6 8 12 0 -0.26144819
Link 2 9 14 0 0.27164522
Link 9 8 15 0 -0.35283820
Link 5 12 23 0 0.45672769
Link 12 7 24 0 -0.34918378
Link 4 21 61 0 0.83250755
Link 21 8 62 0 0.38606136
Link 9 12 97 0 0.13983038
Link 5 21 105 0 1.03622954
GenomeEnd

GenomeStart 21646
Genome Fitness: 534.000000 
Neuron 1 1 0.00000000 1 0.00000000 0.00000000 0.00000000 0.00000000
Neuron 2 1 0.00000000 1 0.00000000 0.00000000 0.00000000 0.00000000
Neuron 3 1 0.00000000 1 0.00000000 0.00000000 0.00000000 0.00000000
Neuron 4 1 0.00000000 1 0.00000000 0.00000000 0.00000000 0.00000000
Neuron 5 1 0.00000000 1 0.00000000 0.00000000 0.00000000 0.00000000
Neuron 6 2 0.00000000 1 0.00000000 0.00000000 0.00000000 0.00000000
Neuron 7 4 1.00000000 2 3.02500000 0.00000000 0.00000000 0.00000000
Neuron 8 4 1.00000000 2 3.02500000 0.00000000 0.00000000 0.00000000
Neuron 9 3 0.50000000 11 5.89185529 0.00000000 0.00000000 0.00000000
Neuron 12 3 0.50000000 1 2.96516409 0.00000000 0.00000000 0.00000000
Neuron 21 3 0.50000000 8 4.53661780 0.00000000 0.00000000 0.00000000
Link 1 7 1 0 0.75941834
Link 2 7 2 0 -0.19900958
Link 3 7 3 0 -0.17361785
Link 4 7 4 0 0.04030855
Link 6 7 6 0 0.17568791
Link 1 8 7 0 -0.29899571
Link 3 8 9 0 0.50993043
Link 5 8 11 0 -0.34396926
Link 6 8 12 0 -0.26144819
Link 2 9 14 0 0.27164522
Link 9 8 15 0 -0.35283820
Link 5 12 23 0 0.45672769
Link 12 7 24 0 -0.34918378
Link 4 21 61 0 0.83250755
Link 21 8 62 0 0.38606136
Link 9 12 97 0 0.13983038
Link 5 21 105 0 1.03622954
GenomeEnd

GenomeStart 21647
Genome Fitness: 534.000000 
Neuron 1 1 0.00000000 1 0.00000000 0.00000000 0.00000000 0.00000000
Neuron 2 1 0.00000000 1 0.00000000 0.00000000 0.00000000 0.00000000
Neuron 3 1 0.00000000 1 0.00000000 0.00000000 0.00000000 0.00000000
Neuron 4 1 0.00000000 1 0.00000000 0.00000000 0.00000000 0.00000000
Neuron 5 1 0.00000000 1 0.00000000 0.00000000 0.00000000 0.00000000
Neuron 6 2 0.00000000 1 0.00000000 0.00000000 0.00000000 0.00000000
Neuron 7 4 1.00000000 2 3.02500000 0.00000000 0.00000000 0.00000000
Neuron 8 4 1.00000000 2 3.02500000 0.00000000 0.00000000 0.00000000
Neuron 9 3 0.50000000 11 5.89185529 0.00000000 0.00000000 0.00000000
Neuron 12 3 0.50000000 1 2.96516409 0.00000000 0.00000000 0.00000000
Neuron 21 3 0.50000000 8 4.53661780 0.00000000 0.00000000 0.00000000
Link 1 7 1 0 0.75941834
Link 2 7 2 0 -0.19900958
Link 3 7 3 0 -0.17361785
Link 4 7 4 0 0.04030855
Link 6 7 6 0 0.17568791
Link 1 8 7 0 -0.29899571
Link 3 8 9 0 0.50993043
Link 5 8 11 0 -0.34396926
Link 6 8 12 0 -0.26144819
Link 2 9 14 0 0.27164522
Link 9 8 15 0 -0.35283820
Link 5 12 23 0 0.45672769
Link 12 7 24 0 -0.34918378
Link 4 21 61 0 0.83250755
Link 21 8 62 0 0.38606136
Link 9 12 97 0 0.13983038
Link 5 21 105 0 1.03622954
GenomeEnd

GenomeStart 21648
Genome Fitness: 328.000000 
Neuron 1 1 0.00000000 1 0.00000000 0.00000000 0.00000000 0.00000000
Neuron 2 1 0.00000000 1 0.00000000 0.00000000 0.00000000 0.00000000
Neuron 3 1 0.00000000 1 0.00000000 0.00000000 0.00000000 0.00000000
Neuron 4 1 0.00000000 1 0.00000000 0.00000000 0.00000000 0.00000000
Neuron 5 1 0.00000000 1 0.00000000 0.00000000 0.00000000 0.00000000
Neuron 6 2 0.00000000 1 0.00000000 0.00000000 0.00000000 0.00000000
Neuron 7 4 1.00000000 2 3.02500000 0.00000000 0.00000000 0.00000000
Neuron 8 4 1.00000000 2 3.02500000 0.00000000 0.00000000 0.00000000
Neuron 9 3 0.50000000 11 5.89185529 0.00000000 0.00000000 0.00000000
Neuron 12 3 0.50000000 1 2.96516409 0.00000000 0.00000000 0.00000000
Neuron 21 3 0.50000000 8 4.53661780 0.00000000 0.00000000 0.00000000
Link 1 7 1 0 0.75485024
Link 2 7 2 0 -0.27010944
Link 3 7 3 0 -0.24692357
Link 4 7 4 0 0.14029229
Link 6 7 6 0 0.29035898
Link 1 8 7 0 -0.26091191
Link 3 8 9 0 0.62021026
Link 5 8 11 0 -0.41827710
Link 6 8 12 0 -0.09862220
Link 2 9 14 0 0.34080985
Link 9 8 15 0 -0.39119232
Link 5 12 23 0 0.37738074
Link 12 7 24 0 -0.46642817
Link 4 21 61 0 0.82701652
Link 21 8 62 0 0.48365902
Link 9 12 97 0 0.09690914
Link 5 21 105 0 1.01737415
GenomeEnd

GenomeStart 21649
Genome Fitness: 534.000000 
Neuron 1 1 0.00000000 1 0.00000000 0.00000000 0.00000000 0.00000000
Neuron 2 1 0.00000000 1 0.00000000 0.00000000 0.00000000 0.00000000
Neuron 3 1 0.00000000 1 0.00000000 0.00000000 0.00000000 0.00000000
Neuron 4 1 0.00000000 1 0.00000000 0.00000000 0.00000000 0.00000000
Neuron 5 1 0.00000000 1 0.00000000 0.00000000 0.00000000 0.00000000
Neuron 6 2 0.00000000 1 0.00000000 0.00000000 0.00000000 0.00000000
Neuron 7 4 1.00000000 2 3.02500000 0.00000000 0.00000000 0.00000000
Neuron 8 4 1.00000000 2 3.02500000 0.00000000 0.00000000 0.00000000
Neuron 9 3 0.50000000 11 5.89185529 0.00000000 0.00000000 0.00000000
Neuron 12 3 0.50000000 1 2.96516409 0.00000000 0.00000000 0.00000000
Neuron 21 3 0.50000000 8 4.53661780 0.00000000 0.00000000 0.00000000
Link 1 7 1 0 0.75941834
Link 2 7 2 0 -0.19900958
Link 3 7 3 0 -0.17361785
Link 4 7 4 0 0.04030855
Link 6 7 6 0 0.17568791
Link 1 8 7 0 -0.29899571
Link 3 8 9 0 0.50993043
Link 5 8 11 0 -0.34396926
Link 6 8 12 0 -0.26144819
Link 2 9 14 0 0.27164522
Link 9 8 15 0 -0.35283820
Link 5 12 23 0 0.45672769
Link 12 7 24 0 -0.34918378
Link 4 21 61 0 0.83250755
Link 21 8 62 0 0.38606136
Link 9 12 97 0 0.13983038
Link 5 21 105 0 1.03622954
GenomeEnd

GenomeStart 21650
Genome Fitness: 149.000000 
Neuron 1 1 0.00000000 1 0.00000000 0.00000000 0.00000000 0.00000000
Neuron 2 1 0.00000000 1 0.00000000 0.00000000 0.00000000 0.00000000
Neuron 3 1 0.00000000 1 0.00000000 0.00000000 0.00000000 0.00000000
Neuron 4 1 0.00000000 1 0.00000000 0.00000000 0.00000000 0.00000000
Neuron 5 1 0.00000000 1 0.00000000 0.00000000 0.00000000 0.00000000
Neuron 6 2 0.00000000 1 0.00000000 0.00000000 0.00000000 0.00000000
Neuron 7 4 1.00000000 2 3.02500000 0.00000000 0.00000000 0.00000000
Neuron 8 4 1.00000000 2 3.02500000 0.00000000 0.00000000 0.00000000
Neuron 9 3 0.50000000 11 5.89185529 0.00000000 0.00000000 0.00000000
Neuron 12 3 0.50000000 1 2.96516409 0.00000000 0.00000000 0.00000000
Neuron 21 3 0.50000000 8 4.53661780 0.00000000 0.00000000 0.00000000
Link 1 7 1 0 0.68616130
Link 2 7 2 0 -0.17359266
Link 3 7 3 0 -0.14500149
Link 4 7 4 0 0.03263797
Link 6 7 6 0 0.18131156
Link 1 8 7 0 -0.21223794
Link 3 8 9 0 0.61884567
Link 5 8 11 0 -0.21907601
Link 6 8 12 0 -0.20428110
Link 2 9 14 0 0.32330919
Link 9 8 15 0 -0.38143571
Link 5 12 23 0 0.53095641
Link 12 7 24 0 -0.48120159
Link 4 21 61 0 0.75727920
Link 21 8 62 0 0.54867641
Link 9 12 97 0 0.06137939
Link 5 21 105 0 0.97390548
GenomeEnd

GenomeStart 21651
Genome Fitness: 171.000000 
Neuron 1 1 0.00000000 1 0.00000000 0.00000000 0.00000000 0.00000000
Neuron 2 1 0.00000000 1 0.00000000 0.00000000 0.00000000 0.00000000
Neuron 3 1 0.00000000 1 0.00000000 0.00000000 0.00000000 0.00000000
Neuron 4 1 0.00000000 1 0.00000000 0.00000000 0.00000000 0.00000000
Neuron 5 1 0.00000000 1 0.00000000 0.00000000 0.00000000 0.00000000
Neuron 6 2 0.00000000 1 0.00000000 0.00000000 0.00000000 0.00000000
Neuron 7 4 1.00000000 2 3.02500000 0.00000000 0.00000000 0.00000000
Neuron 8 4 1.00000000 2 3.02500000 0.00000000 0.00000000 0.00000000
Neuron 9 3 0.50000000 11 5.89185529 0.00000000 0.00000000 0.00000000
Neuron 12 3 0.50000000 1 2.96516409 0.00000000 0.00000000 0.00000000
Neuron 21 3 0.50000000 8 4.53661780 0.00000000 0.00000000 0.00000000
Link 1 7 1 0 0.82339052
Link 2 7 2 0 -0.12980233
Link 3 7 3 0 -0.09498868
Link 4 7 4 0 0.11326322
Link 6 7 6 0 0.04212774
Link 1 8 7 0 -0.25959890
Link 3 8 9 0 0.40973785
Link 5 8 11 0 -0.45969551
Link 6 8 12 0 -0.08952276
Link 2 9 14 0 0.25924243
Link 9 8 15 0 -0.32808515
Link 5 12 23 0 0.52459586
Link 12 7 24 0 -0.33700706
Link 4 21 61 0 0.80278730
Link 21 8 62 0 0.47954216
Link 9 12 97 0 0.24180643
Link 5 21 105 0 1.01634605
GenomeEnd

GenomeStart 21652
Genome Fitness: 242.000000 
Neuron 1 1 0.00000000 1 0.00000000 0.00000000 0.00000000 0.00000000
Neuron 2 1 0.00000000 1 0.00000000 0.00000000 0.00000000 0.00000000
Neuron 3 1 0.00000000 1 0.00000000 0.00000000 0.00000000 0.00000000
Neuron 4 1 0.00000000 1 0.00000000 0.00000000 0.00000000 0.00000000
Neuron 5 1 0.00000000 1 0.00000000 0.00000000 0.00000000 0.00000000
Neuron 6 2 0.00000000 1 0.00000000 0.00000000 0.00000000 0.00000000
Neuron 7 4 1.00000000 2 3.02500000 0.00000000 0.00000000 0.00000000
Neuron 8 4 1.00000000 2 3.02500000 0.00000000 0.00000000 0.00000000
Neuron 9 3 0.50000000 11 5.89185529 0.00000000 0.00000000 0.00000000
Neuron 12 3 0.50000000 1 2.96516409 0.00000000 0.00000000 0.00000000
Neuron 21 3 0.50000000 8 4.53661780 0.00000000 0.00000000 0.00000000
Link 1 7 1 0 0.77658432
Link 2 7 2 0 -0.00546960
Link 3 7 3 0 -0.20237348
Link 4 7 4 0 0.07342345
Link 6 7 6 0 0.29182274
Link 1 8 7 0 -0.32899587
Link 3 8 9 0 0.59507029
Link 5 8 11 0 -0.48974934
Link 6 8 12 0 -0.27107035
Link 2 9 14 0 0.30605478
Link 9 8 15 0 -0.36311352
Link 5 12 23 0 0.42542617
Link 12 7 24 0 -0.30060091
Link 4 21 61 0 0.92640002
Link 21 8 62 0 0.41661718
Link 9 12 97 0 0.12476374
Link 5 21 105 0 0.99710937
GenomeEnd

GenomeStart 21653
Genome Fitness: 529.000000 
Neuron 1 1 0.00000000 1 0.00000000 0.00000000 0.00000000 0.00000000
Neuron 2 1 0.00000000 1 0.00000000 0.00000000 0.00000000 0.00000000
Neuron 3 1 0.00000000 1 0.00000000 0.00000000 0.00000000 0.00000000
Neuron 4 1 0.00000000 1 0.00000000 0.00000000 0.00000000 0.00000000
Neuron 5 1 0.00000000 1 0.00000000 0.00000000 0.00000000 0.00000000
Neuron 6 2 0.00000000 1 0.00000000 0.00000000 0.00000000 0.00000000
Neuron 7 4 1.00000000 2 3.02500000 0.00000000 0.00000000 0.00000000
Neuron 8 4 1.00000000 2 3.02500000 0.00000000 0.00000000 0.00000000
Neuron 9 3 0.50000000 10 5.89185529 0.00000000 0.00000000 0.00000000
Neuron 12 3 0.50000000 8 3.32732936 0.00000000 0.00000000 0.00000000
Neuron 16 3 0.50000000 10 1.64230847 0.00000000 0.00000000 0.00000000
Neuron 19 3 0.75000000 10 1.08091623 0.00000000 0.00000000 0.00000000
Link 1 7 1 0 -0.71210676
Link 2 7 2 0 0.20498430
Link 3 7 3 0 0.22005220
Link 4 7 4 0 -0.08046488
Link 6 7 6 0 0.09360001
Link 3 8 9 0 0.43385880
Link 4 8 10 0 -0.10196670
Link 5 8 11 0 0.17077832
Link 6 8 12 0 -0.13874518
Link 2 9 14 0 0.38213511
Link 9 8 15 0 0.12837386
Link 5 12 23 0 0.98562959
Link 12 7 24 0 -0.73253117
Link 1 16 40 0 1.04258259
Link 3 9 47 0 -0.04058594
Link 16 19 52 0 1.31303614
Link 19 8 53 0 0.12500848
Link 9 7 81 0 -0.64100474
GenomeEnd

GenomeStart 21654
Genome Fitness: 529.000000 
Neuron 1 1 0.00000000 1 0.00000000 0.00000000 0.00000000 0.00000000
Neuron 2 1 0.00000000 1 0.00000000 0.00000000 0.00000000 0.00000000
Neuron 3 1 0.00000000 1 0.00000000 0.00000000 0.00000000 0.00000000
Neuron 4 1 0.00000000 1 0.00000000 0.00000000 0.00000000 0.00000000
Neuron 5 1 0.00000000 1 0.00000000 0.00000000 0.00000000 0.00000000
Neuron 6 2 0.00000000 1 0.00000000 0.00000000 0.00000000 0.00000000
Neuron 7 4 1.00000000 2 3.02500000 0.00000000 0.00000000 0.00000000
Neuron 8 4 1.00000000 2 3.02500000 0.00000000 0.00000000 0.00000000
Neuron 9 3 0.50000000 10 5.89185529 0.00000000 0.00000000 0.00000000
Neuron 12 3 0.50000000 8 3.32732936 0.00000000 0.00000000 0.00000000
Neuron 16 3 0.50000000 10 1.64230847 0.00000000 0.00000000 0.00000000
Neuron 19 3 0.75000000 10 1.08091623 0.00000000 0.00000000 0.00000000
Link 1 7 1 0 -0.71210676
Link 2 7 2 0 0.20498430
Link 3 7 3 0 0.22005220
Link 4 7 4 0 -0.08046488
Link 6 7 6 0 0.09885650
Link 3 8 9 0 0.43385880
Link 4 8 10 0 -0.09996090
Link 5 8 11 0 0.17077832
Link 6 8 12 0 -0.09222287
Link 2 9 14 0 0.38213511
Link 9 8 15 0 0.12837386
Link 5 12 23 0 0.98562959
Link 12 7 24 0 -0.73253117
Link 1 16 40 0 1.10759583
Link 3 9 47 0 -0.04058594
Link 16 19 52 0 1.31303614
Link 19 8 53 0 0.12500848
Link 9 7 81 0 -0.64100474
GenomeEnd

GenomeStart 21655
Genome Fitness: 162.000000 
Neuron 1 1 0.00000000 1 0.00000000 0.00000000 0.00000000 0.00000000
Neuron 2 1 0.00000000 1 0.00000000 0.00000000 0.00000000 0.00000000
Neuron 3 1 0.00000000 1 0.00000000 0.00000000 0.00000000 0.00000000
Neuron 4 1 0.00000000 1 0.00000000 0.00000000 0.00000000 0.00000000
Neuron 5 1 0.00000000 1 0.00000000 0.00000000 0.00000000 0.00000000
Neuron 6 2 0.00000000 1 0.00000000 0.00000000 0.00000000 0.00000000
Neuron 7 4 1.00000000 2 3.02500000 0.00000000 0.00000000 0.00000000
Neuron 8 4 1.00000000 2 3.02500000 0.00000000 0.00000000 0.00000000
Neuron 9 3 0.50000000 10 5.89185529 0.00000000 0.00000000 0.00000000
Neuron 12 3 0.50000000 8 3.32732936 0.00000000 0.00000000 0.00000000
Neuron 16 3 0.50000000 10 1.64230847 0.00000000 0.00000000 0.00000000
Neuron 19 3 0.75000000 10 1.08091623 0.00000000 0.00000000 0.00000000
Link 1 7 1 0 -0.71210676
Link 2 7 2 0 0.20498430
Link 3 7 3 0 0.22005220
Link 4 7 4 0 -0.08046488
Link 6 7 6 0 0.09622825
Link 4 8 10 0 -0.10096380
Link 5 8 11 0 0.17077832
Link 6 8 12 0 -0.11548403
Link 2 9 14 0 0.38213511
Link 9 8 15 0 0.12837386
Link 5 12 23 0 0.98562959
Link 12 7 24 0 -0.73253117
Link 1 16 40 0 1.07508921
Link 3 9 47 0 -0.04058594
Link 16 19 52 0 1.31303614
Link 19 8 53 0 0.12500848
Link 9 7 81 0 -0.64100474
GenomeEnd

GenomeStart 21656
Genome Fitness: 529.000000 
Neuron 1 1 0.00000000 1 0.00000000 0.00000000 0.00000000 0.00000000
Neuron 2 1 0.00000000 1 0.00000000 0.00000000 0.00000000 0.00000000
Neuron 3 1 0.00000000 1 0.00000000 0.00000000 0.00000000 0.00000000
Neuron 4 1 0.00000000 1 0.00000000 0.00000000 0.00000000 0.00000000
Neuron 5 1 0.00000000 1 0.00000000 0.00000000 0.00000000 0.00000000
Neuron 6 2 0.00000000 1 0.00000000 0.00000000 0.00000000 0.00000000
Neuron 7 4 1.00000000 2 3.02500000 0.00000000 0.00000000 0.00000000
Neuron 8 4 1.00000000 2 3.02500000 0.00000000 0.00000000 0.00000000
Neuron 9 3 0.50000000 10 5.89185529 0.00000000 0.00000000 0.00000000
Neuron 12 3 0.50000000 8 3.32732936 0.00000000 0.00000000 0.00000000
Neuron 16 3 0.50000000 10 1.64230847 0.00000000 0.00000000 0.00000000
Neuron 19 3 0.75000000 10 1.08091623 0.00000000 0.00000000 0.00000000
Link 1 7 1 0 -0.71210676
Link 2 7 2 0 0.20498430
Link 3 7 3 0 0.22005220
Link 4 7 4 0 -0.08046488
Link 6 7 6 0 0.09360001
Link 3 8 9 0 0.43385880
Link 4 8 10 0 -0.10196670
Link 5 8 11 0 0.17077832
Link 6 8 12 0 -0.09222287
Link 2 9 14 0 0.38213511
Link 9 8 15 0 0.12837386
Link 5 12 23 0 0.98562959
Link 12 7 24 0 -0.73253117
Link 1 16 40 0 1.04258259
Link 3 9 47 0 -0.04058594
Link 16 19 52 0 1.31303614
Link 19 8 53 0 0.12500848
Link 9 7 81 0 -0.64100474
GenomeEnd

GenomeStart 21657
Genome Fitness: 529.000000 
Neuron 1 1 0.00000000 1 0.00000000 0.00000000 0.00000000 0.00000000
Neuron 2 1 0.00000000 1 0.00000000 0.00000000 0.00000000 0.00000000
Neuron 3 1 0.00000000 1 0.00000000 0.00000000 0.00000000 0.00000000
Neuron 4 1 0.00000000 1 0.00000000 0.00000000 0.00000000 0.00000000
Neuron 5 1 0.00000000 1 0.00000000 0.00000000 0.00000000 0.00000000
Neuron 6 2 0.00000000 1 0.00000000 0.00000000 0.00000000 0.00000000
Neuron 7 4 1.00000000 2 3.02500000 0.00000000 0.00000000 0.00000000
Neuron 8 4 1.00000000 2 3.02500000 0.00000000 0.00000000 0.00000000
Neuron 9 3 0.50000000 10 5.89185529 0.00000000 0.00000000 0.00000000
Neuron 12 3 0.50000000 8 3.32732936 0.00000000 0.00000000 0.00000000
Neuron 16 3 0.50000000 10 1.64230847 0.00000000 0.00000000 0.00000000
Neuron 19 3 0.75000000 10 1.08091623 0.00000000 0.00000000 0.00000000
Link 1 7 1 0 -0.71210676
Link 2 7 2 0 0.20498430
Link 3 7 3 0 0.22005220
Link 4 7 4 0 -0.08046488
Link 6 7 6 0 0.09885650
Link 3 8 9 0 0.43385880
Link 4 8 10 0 -0.09996090
Link 5 8 11 0 0.17077832
Link 6 8 12 0 -0.13874518
Link 2 9 14 0 0.38213511
Link 9 8 15 0 0.12837386
Link 5 12 23 0 0.98562959
Link 12 7 24 0 -0.73253117
Link 1 16 40 0 1.04258259
Link 3 9 47 0 -0.04058594
Link 16 19 52 0 1.31303614
Link 19 8 53 0 0.12500848
Link 9 7 81 0 -0.64100474
GenomeEnd

GenomeStart 21658
Genome Fitness: 183.000000 
Neuron 1 1 0.00000000 1 0.00000000 0.00000000 0.00000000 0.00000000
Neuron 2 1 0.00000000 1 0.00000000 0.00000000 0.00000000 0.00000000
Neuron 3 1 0.00000000 1 0.00000000 0.00000000 0.00000000 0.00000000
Neuron 4 1 0.00000000 1 0.00000000 0.00000000 0.00000000 0.00000000
Neuron 5 1 0.00000000 1 0.00000000 0.00000000 0.00000000 0.00000000
Neuron 6 2 0.00000000 1 0.00000000 0.00000000 0.00000000 0.00000000
Neuron 7 4 1.00000000 2 3.02500000 0.00000000 0.00000000 0.00000000
Neuron 8 4 1.00000000 2 3.02500000 0.00000000 0.00000000 0.00000000
Neuron 9 3 0.50000000 10 5.89185529 0.00000000 0.00000000 0.00000000
Neuron 12 3 0.50000000 8 3.32732936 0.00000000 0.00000000 0.00000000
Neuron 16 3 0.50000000 10 1.64230847 0.00000000 0.00000000 0.00000000
Neuron 19 3 0.75000000 10 1.08091623 0.00000000 0.00000000 0.00000000
Link 1 7 1 0 -0.77494554
Link 2 7 2 0 0.30672335
Link 3 7 3 0 0.18709336
Link 4 7 4 0 0.07948253
Link 6 7 6 0 0.14923326
Link 3 8 9 0 0.37015303
Link 4 8 10 0 -0.02400382
Link 5 8 11 0 0.13962076
Link 6 8 12 0 -0.27087815
Link 2 9 14 0 0.39431465
Link 9 8 15 0 0.14125378
Link 5 12 23 0 1.06645291
Link 12 7 24 0 -0.78178995
Link 1 16 40 0 1.11919834
Link 3 9 47 0 -0.11358920
Link 16 19 52 0 1.31043768
Link 19 8 53 0 0.13806050
Link 9 7 81 0 -0.44728213
GenomeEnd

GenomeStart 21659
Genome Fitness: 179.000000 
Neuron 1 1 0.00000000 1 0.00000000 0.00000000 0.00000000 0.00000000
Neuron 2 1 0.00000000 1 0.00000000 0.00000000 0.00000000 0.00000000
Neuron 3 1 0.00000000 1 0.00000000 0.00000000 0.00000000 0.00000000
Neuron 4 1 0.00000000 1 0.00000000 0.00000000 0.00000000 0.00000000
Neuron 5 1 0.00000000 1 0.00000000 0.00000000 0.00000000 0.00000000
Neuron 6 2 0.00000000 1 0.00000000 0.00000000 0.00000000 0.00000000
Neuron 7 4 1.00000000 2 3.02500000 0.00000000 0.00000000 0.00000000
Neuron 8 4 1.00000000 2 3.02500000 0.00000000 0.00000000 0.00000000
Neuron 9 3 0.50000000 10 5.89185529 0.00000000 0.00000000 0.00000000
Neuron 12 3 0.50000000 8 3.32732936 0.00000000 0.00000000 0.00000000
Neuron 16 3 0.50000000 10 1.64230847 0.00000000 0.00000000 0.00000000
Neuron 19 3 0.75000000 10 1.08091623 0.00000000 0.00000000 0.00000000
Link 1 7 1 0 -0.73575988
Link 2 7 2 0 0.35526605
Link 3 7 3 0 0.22761228
Link 4 7 4 0 -0.11881593
Link 6 7 6 0 0.06743870
Link 3 8 9 0 0.49772084
Link 4 8 10 0 -0.19787364
Link 5 8 11 0 0.12101891
Link 6 8 12 0 -0.15534991
Link 2 9 14 0 0.26655026
Link 9 8 15 0 0.05436544
Link 5 12 23 0 1.06921955
Link 12 7 24 0 -0.71514253
Link 1 16 40 0 1.03466515
Link 3 9 47 0 -0.14515134
Link 16 19 52 0 1.47345305
Link 19 8 53 0 0.11075902
Link 9 7 81 0 -0.72400987
GenomeEnd

GenomeStart 21660
Genome Fitness: 162.000000 
Neuron 1 1 0.00000000 1 0.00000000 0.00000000 0.00000000 0.00000000
Neuron 2 1 0.00000000 1 0.00000000 0.00000000 0.00000000 0.00000000
Neuron 3 1 0.00000000 1 0.00000000 0.00000000 0.00000000 0.00000000
Neuron 4 1 0.00000000 1 0.00000000 0.00000000 0.00000000 0.00000000
Neuron 5 1 0.00000000 1 0.00000000 0.00000000 0.00000000 0.00000000
Neuron 6 2 0.00000000 1 0.00000000 0.00000000 0.00000000 0.00000000
Neuron 7 4 1.00000000 2 3.02500000 0.00000000 0.00000000 0.00000000
Neuron 8 4 1.00000000 2 3.02500000 0.00000000 0.00000000 0.00000000
Neuron 9 3 0.50000000 10 5.89185529 0.00000000 0.00000000 0.00000000
Neuron 12 3 0.50000000 8 3.32732936 0.00000000 0.00000000 0.00000000
Neuron 16 3 0.50000000 10 1.64230847 0.00000000 0.00000000 0.00000000
Neuron 19 3 0.75000000 10 1.08091623 0.00000000 0.00000000 0.00000000
Link 1 7 1 0 -0.77179271
Link 2 7 2 0 0.22218092
Link 3 7 3 0 0.20364547
Link 4 7 4 0 -0.15202348
Link 6 7 6 0 0.07791133
Link 3 8 9 0 0.49287210
Link 4 8 10 0 -0.24041116
Link 5 8 11 0 0.22455417
Link 6 8 12 0 0.07731345
Link 2 9 14 0 0.34783625
Link 9 8 15 0 0.12346199
Link 5 12 23 0 0.98968235
Link 12 7 24 0 -0.81216172
Link 1 16 40 0 1.05796495
Link 3 9 47 0 0.11381159
Link 16 19 52 0 1.37736574
Link 19 8 53 0 0.19888805
Link 9 7 81 0 -0.63215951
GenomeEnd

GenomeStart 21661
Genome Fitness: 206.000000 
Neuron 1 1 0.00000000 1 0.00000000 0.00000000 0.00000000 0.00000000
Neuron 2 1 0.00000000 1 0.00000000 0.00000000 0.00000000 0.00000000
Neuron 3 1 0.00000000 1 0.00000000 0.00000000 0.00000000 0.00000000
Neuron 4 1 0.00000000 1 0.00000000 0.00000000 0.00000000 0.00000000
Neuron 5 1 0.00000000 1 0.00000000 0.00000000 0.00000000 0.00000000
Neuron 6 2 0.00000000 1 0.00000000 0.00000000 0.00000000 0.00000000
Neuron 7 4 1.00000000 2 3.02500000 0.00000000 0.00000000 0.00000000
Neuron 8 4 1.00000000 2 3.02500000 0.00000000 0.00000000 0.00000000
Neuron 9 3 0.50000000 10 5.89185529 0.00000000 0.00000000 0.00000000
Neuron 12 3 0.50000000 8 3.32732936 0.00000000 0.00000000 0.00000000
Neuron 16 3 0.50000000 10 1.64230847 0.00000000 0.00000000 0.00000000
Neuron 19 3 0.75000000 10 1.08091623 0.00000000 0.00000000 0.00000000
Link 1 7 1 0 -0.73928399
Link 2 7 2 0 0.17866513
Link 3 7 3 0 0.37437836
Link 4 7 4 0 0.04120087
Link 6 7 6 0 0.06653482
Link 3 8 9 0 0.49345799
Link 4 8 10 0 -0.12150261
Link 5 8 11 0 0.17954075
Link 6 8 12 0 -0.12523379
Link 2 9 14 0 0.46517391
Link 9 8 15 0 0.01111549
Link 5 12 23 0 0.89183148
Link 12 7 24 0 -0.86057738
Link 1 16 40 0 1.14649928
Link 3 9 47 0 -0.13089147
Link 16 19 52 0 1.32946253
Link 19 8 53 0 0.04798318
Link 9 7 81 0 -0.73701205
GenomeEnd

GenomeStart 21662
Genome Fitness: 480.000000 
Neuron 1 1 0.00000000 1 0.00000000 0.00000000 0.00000000 0.00000000
Neuron 2 1 0.00000000 1 0.00000000 0.00000000 0.00000000 0.00000000
Neuron 3 1 0.00000000 1 0.00000000 0.00000000 0.00000000 0.00000000
Neuron 4 1 0.00000000 1 0.00000000 0.00000000 0.00000000 0.00000000
Neuron 5 1 0.00000000 1 0.00000000 0.00000000 0.00000000 0.00000000
Neuron 6 2 0.00000000 1 0.00000000 0.00000000 0.00000000 0.00000000
Neuron 7 4 1.00000000 2 3.02500000 0.00000000 0.00000000 0.00000000
Neuron 8 4 1.00000000 2 3.02500000 0.00000000 0.00000000 0.00000000
Neuron 11 3 0.50000000 4 3.75850292 0.00000000 0.00000000 0.00000000
Neuron 14 3 0.75000000 6 1.39090960 0.00000000 0.00000000 0.00000000
Neuron 18 3 0.50000000 1 3.35266199 0.00000000 0.00000000 0.00000000
Neuron 26 3 0.87500000 4 5.51085499 0.00000000 0.00000000 0.00000000
Neuron 49 3 0.25000000 9 0.50607227 0.00000000 0.00000000 0.00000000
Link 2 7 2 0 0.17033099
Link 3 7 3 0 0.34055028
Link 4 7 4 0 -0.01310904
Link 5 7 5 0 0.27916387
Link 6 7 6 0 0.72552292
Link 1 8 7 0 0.15570151
Link 2 8 8 0 0.40641527
Link 4 8 10 0 0.43629951
Link 5 8 11 0 -1.07602522
Link 6 8 12 0 0.31667741
Link 11 14 30 0 0.92259109
Link 4 11 33 0 0.37790921
Link 4 14 43 0 0.25827559
Link 1 18 49 0 1.38116174
Link 18 7 50 0 -0.03032440
Link 2 18 82 0 -0.16100810
Link 14 26 120 0 1.00000000
Link 26 8 121 0 0.20535443
Link 3 49 253 0 1.00000000
Link 49 11 254 0 1.12832257
Link 26 7 256 0 -0.27485115
GenomeEnd

GenomeStart 21663
Genome Fitness: 480.000000 
Neuron 1 1 0.00000000 1 0.00000000 0.00000000 0.00000000 0.00000000
Neuron 2 1 0.00000000 1 0.00000000 0.00000000 0.00000000 0.00000000
Neuron 3 1 0.00000000 1 0.00000000 0.00000000 0.00000000 0.00000000
Neuron 4 1 0.00000000 1 0.00000000 0.00000000 0.00000000 0.00000000
Neuron 5 1 0.00000000 1 0.00000000 0.00000000 0.00000000 0.00000000
Neuron 6 2 0.00000000 1 0.00000000 0.00000000 0.00000000 0.00000000
Neuron 7 4 1.00000000 2 3.02500000 0.00000000 0.00000000 0.00000000
Neuron 8 4 1.00000000 2 3.02500000 0.00000000 0.00000000 0.00000000
Neuron 11 3 0.50000000 4 3.75850292 0.00000000 0.00000000 0.00000000
Neuron 14 3 0.75000000 6 1.39090960 0.00000000 0.00000000 0.00000000
Neuron 18 3 0.50000000 1 3.35266199 0.00000000 0.00000000 0.00000000
Neuron 26 3 0.87500000 4 5.51085499 0.00000000 0.00000000 0.00000000
Neuron 49 3 0.25000000 9 0.50607227 0.00000000 0.00000000 0.00000000
Link 2 7 2 0 0.17033099
Link 3 7 3 0 0.34055028
Link 4 7 4 0 -0.01310904
Link 5 7 5 0 0.27916387
Link 6 7 6 0 0.72552292
Link 1 8 7 0 0.15570151
Link 2 8 8 0 0.40641527
Link 4 8 10 0 0.43629951
Link 5 8 11 0 -1.07602522
Link 6 8 12 0 0.31667741
Link 11 14 30 0 0.92259109
Link 4 11 33 0 0.37790921
Link 4 14 43 0 0.25827559
Link 1 18 49 0 1.38116174
Link 18 7 50 0 -0.03032440
Link 2 18 82 0 -0.16100810
Link 14 26 120 0 1.00000000
Link 26 8 121 0 0.20535443
Link 3 49 253 0 1.00000000
Link 49 11 254 0 1.12832257
Link 26 7 256 0 -0.27485115
Link 49 8 275 0 0.03209958
GenomeEnd

GenomeStart 21664
Genome Fitness: 200.000000 
Neuron 1 1 0.00000000 1 0.00000000 0.00000000 0.00000000 0.00000000
Neuron 2 1 0.00000000 1 0.00000000 0.00000000 0.00000000 0.00000000
Neuron 3 1 0.00000000 1 0.00000000 0.00000000 0.00000000 0.00000000
Neuron 4 1 0.00000000 1 0.00000000 0.00000000 0.00000000 0.00000000
Neuron 5 1 0.00000000 1 0.00000000 0.00000000 0.00000000 0.00000000
Neuron 6 2 0.00000000 1 0.00000000 0.00000000 0.00000000 0.00000000
Neuron 7 4 1.00000000 2 3.02500000 0.00000000 0.00000000 0.00000000
Neuron 8 4 1.00000000 2 3.02500000 0.00000000 0.00000000 0.00000000
Neuron 11 3 0.50000000 4 3.75850292 0.00000000 0.00000000 0.00000000
Neuron 14 3 0.75000000 6 1.39090960 0.00000000 0.00000000 0.00000000
Neuron 18 3 0.50000000 1 3.35266199 0.00000000 0.00000000 0.00000000
Neuron 26 3 0.87500000 4 5.51085499 0.00000000 0.00000000 0.00000000
Neuron 49 3 0.25000000 9 0.50607227 0.00000000 0.00000000 0.00000000
Link 2 7 2 0 0.30151138
Link 3 7 3 0 0.40542402
Link 4 7 4 0 -0.01983920
Link 5 7 5 0 0.15427389
Link 6 7 6 0 0.75907841
Link 1 8 7 0 0.13516034
Link 2 8 8 0 0.56712403
Link 4 8 10 0 0.52437340
Link 5 8 11 0 -1.06840039
Link 6 8 12 0 0.24384400
Link 11 14 30 0 1.04073802
Link 4 11 33 0 0.21368365
Link 4 14 43 0 0.34906730
Link 1 18 49 0 1.31176243
Link 18 7 50 0 -0.03266189
Link 2 18 82 0 -0.02807518
Link 14 26 120 0 1.12396997
Link 26 8 121 0 0.15443243
Link 3 49 253 0 1.17669813
Link 49 11 254 0 1.16101973
Link 26 7 256 0 -0.32309745
GenomeEnd

GenomeStart 21665
Genome Fitness: 121.000000 
Neuron 1 1 0.00000000 1 0.00000000 0.00000000 0.00000000 0.00000000
Neuron 2 1 0.00000000 1 0.00000000 0.00000000 0.00000000 0.00000000
Neuron 3 1 0.00000000 1 0.00000000 0.00000000 0.00000000 0.00000000
Neuron 4 1 0.00000000 1 0.00000000 0.00000000 0.00000000 0.00000000
Neuron 5 1 0.00000000 1 0.00000000 0.00000000 0.00000000 0.00000000
Neuron 6 2 0.00000000 1 0.00000000 0.00000000 0.00000000 0.00000000
Neuron 7 4 1.00000000 2 3.02500000 0.00000000 0.00000000 0.00000000
Neuron 8 4 1.00000000 2 3.02500000 0.00000000 0.00000000 0.00000000
Neuron 11 3 0.50000000 4 3.75850292 0.00000000 0.00000000 0.00000000
Neuron 14 3 0.75000000 6 1.39090960 0.00000000 0.00000000 0.00000000
Neuron 18 3 0.50000000 1 3.35266199 0.00000000 0.00000000 0.00000000
Neuron 26 3 0.87500000 4 5.51085499 0.00000000 0.00000000 0.00000000
Neuron 49 3 0.25000000 9 0.50607227 0.00000000 0.00000000 0.00000000
Link 2 7 2 0 0.09645008
Link 3 7 3 0 0.58580930
Link 4 7 4 0 -0.03850056
Link 5 7 5 0 0.34001132
Link 6 7 6 0 0.13447771
Link 1 8 7 0 0.15570151
Link 2 8 8 0 0.39285387
Link 4 8 10 0 -0.49316101
Link 5 8 11 0 -1.07602522
Link 6 8 12 0 0.31667741
Link 11 14 30 0 1.01047882
Link 4 11 33 0 0.31954753
Link 4 14 43 0 0.24204457
Link 1 18 49 0 1.33600651
Link 18 7 50 0 -0.02460425
Link 2 18 82 0 -0.22762871
Link 14 26 120 0 1.12394454
Link 26 8 121 0 -0.58338738
Link 3 49 253 0 0.97096565
Link 49 11 254 0 -0.45118116
Link 26 7 256 0 -0.51107113
GenomeEnd

GenomeStart 21666
Genome Fitness: 201.000000 
Neuron 1 1 0.00000000 1 0.00000000 0.00000000 0.00000000 0.00000000
Neuron 2 1 0.00000000 1 0.00000000 0.00000000 0.00000000 0.00000000
Neuron 3 1 0.00000000 1 0.00000000 0.00000000 0.00000000 0.00000000
Neuron 4 1 0.00000000 1 0.00000000 0.00000000 0.00000000 0.00000000
Neuron 5 1 0.00000000 1 0.00000000 0.00000000 0.00000000 0.00000000
Neuron 6 2 0.00000000 1 0.00000000 0.00000000 0.00000000 0.00000000
Neuron 7 4 1.00000000 2 3.02500000 0.00000000 0.00000000 0.00000000
Neuron 8 4 1.00000000 2 3.02500000 0.00000000 0.00000000 0.00000000
Neuron 11 3 0.50000000 4 3.75850292 0.00000000 0.00000000 0.00000000
Neuron 14 3 0.75000000 6 1.39090960 0.00000000 0.00000000 0.00000000
Neuron 18 3 0.50000000 1 3.35266199 0.00000000 0.00000000 0.00000000
Neuron 26 3 0.87500000 4 5.51085499 0.00000000 0.00000000 0.00000000
Neuron 49 3 0.25000000 9 0.50607227 0.00000000 0.00000000 0.00000000
Link 2 7 2 0 0.34838054
Link 3 7 3 0 -0.10542692
Link 4 7 4 0 0.04331814
Link 5 7 5 0 0.11750492
Link 6 7 6 0 -0.37090968
Link 1 8 7 0 0.16833946
Link 2 8 8 0 0.48055914
Link 4 8 10 0 0.44216839
Link 5 8 11 0 -0.91957440
Link 6 8 12 0 0.23521741
Link 11 14 30 0 0.82853267
Link 4 11 33 0 -0.47206976
Link 4 14 43 0 0.12634115
Link 1 18 49 0 -0.83293966
Link 18 7 50 0 -0.12202709
Link 2 18 82 0 0.84969681
Link 14 26 120 0 0.95191876
Link 26 8 121 0 0.06690149
Link 3 49 253 0 1.13888763
Link 49 11 254 0 1.08891110
Link 26 7 256 0 -0.08979339
Link 49 8 275 0 -0.08500416
GenomeEnd

GenomeStart 21667
Genome Fitness: 201.000000 
Neuron 1 1 0.00000000 1 0.00000000 0.00000000 0.00000000 0.00000000
Neuron 2 1 0.00000000 1 0.00000000 0.00000000 0.00000000 0.00000000
Neuron 3 1 0.00000000 1 0.00000000 0.00000000 0.00000000 0.00000000
Neuron 4 1 0.00000000 1 0.00000000 0.00000000 0.00000000 0.00000000
Neuron 5 1 0.00000000 1 0.00000000 0.00000000 0.00000000 0.00000000
Neuron 6 2 0.00000000 1 0.00000000 0.00000000 0.00000000 0.00000000
Neuron 7 4 1.00000000 2 3.02500000 0.00000000 0.00000000 0.00000000
Neuron 8 4 1.00000000 2 3.02500000 0.00000000 0.00000000 0.00000000
Neuron 11 3 0.50000000 4 3.75850292 0.00000000 0.00000000 0.00000000
Neuron 14 3 0.75000000 6 1.39090960 0.00000000 0.00000000 0.00000000
Neuron 18 3 0.50000000 1 3.35266199 0.00000000 0.00000000 0.00000000
Neuron 26 3 0.87500000 4 5.51085499 0.00000000 0.00000000 0.00000000
Neuron 49 3 0.25000000 9 0.50607227 0.00000000 0.00000000 0.00000000
Link 2 7 2 0 0.29557218
Link 3 7 3 0 0.37250536
Link 4 7 4 0 -0.07977858
Link 5 7 5 0 0.22664487
Link 6 7 6 0 0.62668886
Link 1 8 7 0 0.09675143
Link 2 8 8 0 0.49643090
Link 4 8 10 0 0.38145458
Link 5 8 11 0 -1.04257156
Link 6 8 12 0 0.24132832
Link 11 14 30 0 0.95635052
Link 4 11 33 0 0.47264965
Link 4 14 43 0 0.30900457
Link 1 18 49 0 1.30869191
Link 18 7 50 0 0.01537274
Link 2 18 82 0 -0.17303800
Link 14 26 120 0 0.97052874
Link 26 8 121 0 0.15364864
Link 3 49 253 0 0.99517855
Link 49 11 254 0 1.10946978
Link 26 7 256 0 -0.26533139
GenomeEnd

GenomeStart 21668
Genome Fitness: 422.000000 
Neuron 1 1 0.00000000 1 0.00000000 0.00000000 0.00000000 0.00000000
Neuron 2 1 0.00000000 1 0.00000000 0.00000000 0.00000000 0.00000000
Neuron 3 1 0.00000000 1 0.00000000 0.00000000 0.00000000 0.00000000
Neuron 4 1 0.00000000 1 0.00000000 0.00000000 0.00000000 0.00000000
Neuron 5 1 0.00000000 1 0.00000000 0.00000000 0.00000000 0.00000000
Neuron 6 2 0.00000000 1 0.00000000 0.00000000 0.00000000 0.00000000
Neuron 7 4 1.00000000 2 3.02500000 0.00000000 0.00000000 0.00000000
Neuron 8 4 1.00000000 2 3.02500000 0.00000000 0.00000000 0.00000000
Neuron 11 3 0.50000000 4 3.75850292 0.00000000 0.00000000 0.00000000
Neuron 14 3 0.75000000 6 1.39090960 0.00000000 0.00000000 0.00000000
Neuron 18 3 0.50000000 1 3.35266199 0.00000000 0.00000000 0.00000000
Neuron 26 3 0.87500000 4 5.51085499 0.00000000 0.00000000 0.00000000
Neuron 49 3 0.25000000 9 0.50607227 0.00000000 0.00000000 0.00000000
Link 2 7 2 0 0.23683289
Link 3 7 3 0 0.28184146
Link 4 7 4 0 -0.08523414
Link 5 7 5 0 0.40449263
Link 6 7 6 0 0.65875735
Link 1 8 7 0 0.16900801
Link 2 8 8 0 0.40390336
Link 4 8 10 0 0.51220743
Link 5 8 11 0 -1.19053498
Link 6 8 12 0 0.18466736
Link 11 14 30 0 1.02385727
Link 4 11 33 0 0.42602496
Link 4 14 43 0 0.14278144
Link 1 18 49 0 1.43993954
Link 18 7 50 0 -0.04896540
Link 2 18 82 0 -0.20725512
Link 14 26 120 0 1.04852524
Link 26 8 121 0 0.19285722
Link 3 49 253 0 0.99760245
Link 49 11 254 0 1.29588299
Link 26 7 256 0 0.10685887
GenomeEnd

GenomeStart 21669
Genome Fitness: 480.000000 
Neuron 1 1 0.00000000 1 0.00000000 0.00000000 0.00000000 0.00000000
Neuron 2 1 0.00000000 1 0.00000000 0.00000000 0.00000000 0.00000000
Neuron 3 1 0.00000000 1 0.00000000 0.00000000 0.00000000 0.00000000
Neuron 4 1 0.00000000 1 0.00000000 0.00000000 0.00000000 0.00000000
Neuron 5 1 0.00000000 1 0.00000000 0.00000000 0.00000000 0.00000000
Neuron 6 2 0.00000000 1 0.00000000 0.00000000 0.00000000 0.00000000
Neuron 7 4 1.00000000 2 3.02500000 0.00000000 0.00000000 0.00000000
Neuron 8 4 1.00000000 2 3.02500000 0.00000000 0.00000000 0.00000000
Neuron 11 3 0.50000000 4 3.75850292 0.00000000 0.00000000 0.00000000
Neuron 14 3 0.75000000 6 1.39090960 0.00000000 0.00000000 0.00000000
Neuron 18 3 0.50000000 1 3.35266199 0.00000000 0.00000000 0.00000000
Neuron 26 3 0.87500000 4 5.51085499 0.00000000 0.00000000 0.00000000
Neuron 49 3 0.25000000 9 0.50607227 0.00000000 0.00000000 0.00000000
Link 2 7 2 0 0.17033099
Link 3 7 3 0 0.34055028
Link 4 7 4 0 -0.01310904
Link 5 7 5 0 0.27916387
Link 6 7 6 0 0.72552292
Link 1 8 7 0 0.15570151
Link 2 8 8 0 0.40641527
Link 4 8 10 0 0.43629951
Link 5 8 11 0 -1.07602522
Link 6 8 12 0 0.31667741
Link 11 14 30 0 0.92259109
Link 4 11 33 0 0.37790921
Link 4 14 43 0 0.25827559
Link 1 18 49 0 1.38116174
Link 18 7 50 0 -0.03032440
Link 2 18 82 0 -0.16100810
Link 14 26 120 0 1.00000000
Link 26 8 121 0 0.20535443
Link 3 49 253 0 1.00000000
Link 49 11 254 0 1.12832257
Link 26 7 256 0 -0.27485115
GenomeEnd

GenomeStart 21670
Genome Fitness: 303.000000 
Neuron 1 1 0.00000000 1 0.00000000 0.00000000 0.00000000 0.00000000
Neuron 2 1 0.00000000 1 0.00000000 0.00000000 0.00000000 0.00000000
Neuron 3 1 0.00000000 1 0.00000000 0.00000000 0.00000000 0.00000000
Neuron 4 1 0.00000000 1 0.00000000 0.00000000 0.00000000 0.00000000
Neuron 5 1 0.00000000 1 0.00000000 0.00000000 0.00000000 0.00000000
Neuron 6 2 0.00000000 1 0.00000000 0.00000000 0.00000000 0.00000000
Neuron 7 4 1.00000000 2 3.02500000 0.00000000 0.00000000 0.00000000
Neuron 8 4 1.00000000 2 3.02500000 0.00000000 0.00000000 0.00000000
Neuron 11 3 0.50000000 4 3.75850292 0.00000000 0.00000000 0.00000000
Neuron 14 3 0.75000000 6 1.39090960 0.00000000 0.00000000 0.00000000
Neuron 18 3 0.50000000 1 3.35266199 0.00000000 0.00000000 0.00000000
Neuron 26 3 0.87500000 4 5.51085499 0.00000000 0.00000000 0.00000000
Neuron 49 3 0.25000000 9 0.50607227 0.00000000 0.00000000 0.00000000
Link 2 7 2 0 0.14019036
Link 3 7 3 0 0.29124594
Link 4 7 4 0 -0.05333647
Link 5 7 5 0 0.11815988
Link 6 7 6 0 0.74634077
Link 1 8 7 0 0.06692688
Link 2 8 8 0 0.42213082
Link 4 8 10 0 0.41006973
Link 5 8 11 0 -1.12390968
Link 6 8 12 0 0.27836834
Link 11 14 30 0 1.01548498
Link 4 11 33 0 0.40799762
Link 4 14 43 0 0.40394490
Link 1 18 49 0 1.27159564
Link 18 7 50 0 -0.16437414
Link 2 18 82 0 -0.28151936
Link 14 26 120 0 1.01403668
Link 26 8 121 0 0.13450447
Link 3 49 253 0 0.90839667
Link 49 11 254 0 1.28691453
Link 26 7 256 0 -0.32484409
GenomeEnd

GenomeStart 21671
Genome Fitness: 480.000000 
Neuron 1 1 0.00000000 1 0.00000000 0.00000000 0.00000000 0.00000000
Neuron 2 1 0.00000000 1 0.00000000 0.00000000 0.00000000 0.00000000
Neuron 3 1 0.00000000 1 0.00000000 0.00000000 0.00000000 0.00000000
Neuron 4 1 0.00000000 1 0.00000000 0.00000000 0.00000000 0.00000000
Neuron 5 1 0.00000000 1 0.00000000 0.00000000 0.00000000 0.00000000
Neuron 6 2 0.00000000 1 0.00000000 0.00000000 0.00000000 0.00000000
Neuron 7 4 1.00000000 2 3.02500000 0.00000000 0.00000000 0.00000000
Neuron 8 4 1.00000000 2 3.02500000 0.00000000 0.00000000 0.00000000
Neuron 11 3 0.50000000 4 3.75850292 0.00000000 0.00000000 0.00000000
Neuron 14 3 0.75000000 6 1.39090960 0.00000000 0.00000000 0.00000000
Neuron 18 3 0.50000000 1 3.35266199 0.00000000 0.00000000 0.00000000
Neuron 26 3 0.87500000 4 5.51085499 0.00000000 0.00000000 0.00000000
Neuron 49 3 0.25000000 9 0.50607227 0.00000000 0.00000000 0.00000000
Link 2 7 2 0 0.17033099
Link 3 7 3 0 0.34055028
Link 4 7 4 0 -0.01310904
Link 5 7 5 0 0.27916387
Link 6 7 6 0 0.72552292
Link 1 8 7 0 0.15570151
Link 2 8 8 0 0.40641527
Link 4 8 10 0 0.43629951
Link 5 8 11 0 -1.07602522
Link 6 8 12 0 0.31667741
Link 11 14 30 0 0.92259109
Link 4 11 33 0 0.37790921
Link 4 14 43 0 0.25827559
Link 1 18 49 0 1.38116174
Link 18 7 50 0 -0.03032440
Link 2 18 82 0 -0.16100810
Link 14 26 120 0 1.00000000
Link 26 8 121 0 0.20535443
Link 3 49 253 0 1.00000000
Link 49 11 254 0 1.12832257
Link 26 7 256 0 -0.27485115
GenomeEnd

GenomeStart 21672
Genome Fitness: 480.000000 
Neuron 1 1 0.00000000 1 0.00000000 0.00000000 0.00000000 0.00000000
Neuron 2 1 0.00000000 1 0.00000000 0.00000000 0.00000000 0.00000000
Neuron 3 1 0.00000000 1 0.00000000 0.00000000 0.00000000 0.00000000
Neuron 4 1 0.00000000 1 0.00000000 0.00000000 0.00000000 0.00000000
Neuron 5 1 0.00000000 1 0.00000000 0.00000000 0.00000000 0.00000000
Neuron 6 2 0.00000000 1 0.00000000 0.00000000 0.00000000 0.00000000
Neuron 7 4 1.00000000 2 3.02500000 0.00000000 0.00000000 0.00000000
Neuron 8 4 1.00000000 2 3.02500000 0.00000000 0.00000000 0.00000000
Neuron 11 3 0.50000000 4 3.75850292 0.00000000 0.00000000 0.00000000
Neuron 14 3 0.75000000 6 1.39090960 0.00000000 0.00000000 0.00000000
Neuron 18 3 0.50000000 1 3.35266199 0.00000000 0.00000000 0.00000000
Neuron 33 3 0.75000000 10 0.84435021 0.00000000 0.00000000 0.00000000
Neuron 44 3 0.25000000 11 2.74716398 0.00000000 0.00000000 0.00000000
Link 2 7 2 0 0.17033099
Link 3 7 3 0 0.34055028
Link 4 7 4 0 -0.07615743
Link 5 7 5 0 0.27916387
Link 6 7 6 0 0.77570317
Link 1 8 7 0 0.15570151
Link 2 8 8 0 0.40641527
Link 4 8 10 0 0.43629951
Link 5 8 11 0 -1.07602522
Link 6 8 12 0 0.31667741
Link 3 11 20 0 1.12832257
Link 11 14 30 0 0.92259109
Link 14 8 31 0 0.20535443
Link 11 7 32 0 -0.32457171
Link 4 14 43 0 0.25827559
Link 1 18 49 0 1.38116174
Link 1 11 104 0 0.74299335
Link 18 33 163 0 1.00000000
Link 33 7 164 0 -0.03032440
Link 4 44 223 0 1.00000000
Link 44 11 224 0 0.32072432
GenomeEnd

GenomeStart 21673
Genome Fitness: 480.000000 
Neuron 1 1 0.00000000 1 0.00000000 0.00000000 0.00000000 0.00000000
Neuron 2 1 0.00000000 1 0.00000000 0.00000000 0.00000000 0.00000000
Neuron 3 1 0.00000000 1 0.00000000 0.00000000 0.00000000 0.00000000
Neuron 4 1 0.00000000 1 0.00000000 0.00000000 0.00000000 0.00000000
Neuron 5 1 0.00000000 1 0.00000000 0.00000000 0.00000000 0.00000000
Neuron 6 2 0.00000000 1 0.00000000 0.00000000 0.00000000 0.00000000
Neuron 7 4 1.00000000 2 3.02500000 0.00000000 0.00000000 0.00000000
Neuron 8 4 1.00000000 2 3.02500000 0.00000000 0.00000000 0.00000000
Neuron 11 3 0.50000000 4 3.75850292 0.00000000 0.00000000 0.00000000
Neuron 14 3 0.75000000 6 1.39090960 0.00000000 0.00000000 0.00000000
Neuron 15 3 0.50000000 2 4.97046888 0.00000000 0.00000000 0.00000000
Neuron 18 3 0.50000000 1 3.35266199 0.00000000 0.00000000 0.00000000
Neuron 33 3 0.75000000 10 0.84435021 0.00000000 0.00000000 0.00000000
Neuron 44 3 0.25000000 11 2.74716398 0.00000000 0.00000000 0.00000000
Link 2 7 2 0 0.17033099
Link 3 7 3 0 0.34055028
Link 5 7 5 0 0.27916387
Link 6 7 6 0 0.77570317
Link 1 8 7 0 0.15570151
Link 2 8 8 0 0.40641527
Link 4 8 10 0 0.43629951
Link 5 8 11 0 -1.07602522
Link 6 8 12 0 0.31667741
Link 3 11 20 0 1.12832257
Link 11 14 30 0 0.92259109
Link 14 8 31 0 0.20535443
Link 11 7 32 0 -0.32457171
Link 4 15 36 0 1.00000000
Link 15 7 37 0 -0.07615743
Link 4 14 43 0 0.25827559
Link 1 18 49 0 1.38116174
Link 1 11 104 0 0.74299335
Link 18 33 163 0 1.00000000
Link 33 7 164 0 -0.03032440
Link 4 44 223 0 1.00000000
Link 44 11 224 0 0.32072432
GenomeEnd

GenomeStart 21674
Genome Fitness: 264.000000 
Neuron 1 1 0.00000000 1 0.00000000 0.00000000 0.00000000 0.00000000
Neuron 2 1 0.00000000 1 0.00000000 0.00000000 0.00000000 0.00000000
Neuron 3 1 0.00000000 1 0.00000000 0.00000000 0.00000000 0.00000000
Neuron 4 1 0.00000000 1 0.00000000 0.00000000 0.00000000 0.00000000
Neuron 5 1 0.00000000 1 0.00000000 0.00000000 0.00000000 0.00000000
Neuron 6 2 0.00000000 1 0.00000000 0.00000000 0.00000000 0.00000000
Neuron 7 4 1.00000000 2 3.02500000 0.00000000 0.00000000 0.00000000
Neuron 8 4 1.00000000 2 3.02500000 0.00000000 0.00000000 0.00000000
Neuron 11 3 0.50000000 4 3.75850292 0.00000000 0.00000000 0.00000000
Neuron 14 3 0.75000000 6 1.39090960 0.00000000 0.00000000 0.00000000
Neuron 15 3 0.50000000 2 4.97046888 0.00000000 0.00000000 0.00000000
Neuron 18 3 0.50000000 1 3.35266199 0.00000000 0.00000000 0.00000000
Neuron 33 3 0.75000000 10 0.84435021 0.00000000 0.00000000 0.00000000
Neuron 44 3 0.25000000 11 2.74716398 0.00000000 0.00000000 0.00000000
Link 2 7 2 0 0.11921034
Link 3 7 3 0 0.38985642
Link 5 7 5 0 0.17360948
Link 6 7 6 0 0.87959555
Link 1 8 7 0 0.10732578
Link 2 8 8 0 0.49159016
Link 4 8 10 0 0.50175697
Link 5 8 11 0 -1.02810878
Link 6 8 12 0 0.31965253
Link 3 11 20 0 1.15117650
Link 11 14 30 0 0.92685270
Link 14 8 31 0 0.28952228
Link 11 7 32 0 -0.48274896
Link 4 15 36 0 0.96113442
Link 15 7 37 0 0.06488912
Link 4 14 43 0 0.17208870
Link 1 18 49 0 1.23991890
Link 1 11 104 0 0.81476711
Link 18 33 163 0 1.05360661
Link 33 7 164 0 0.04364105
Link 4 44 223 0 0.96113628
Link 44 11 224 0 -0.25236841
GenomeEnd

GenomeStart 21675
Genome Fitness: 200.000000 
Neuron 1 1 0.00000000 1 0.00000000 0.00000000 0.00000000 0.00000000
Neuron 2 1 0.00000000 1 0.00000000 0.00000000 0.00000000 0.00000000
Neuron 3 1 0.00000000 1 0.00000000 0.00000000 0.00000000 0.00000000
Neuron 4 1 0.00000000 1 0.00000000 0.00000000 0.00000000 0.00000000
Neuron 5 1 0.00000000 1 0.00000000 0.00000000 0.00000000 0.00000000
Neuron 6 2 0.00000000 1 0.00000000 0.00000000 0.00000000 0.00000000
Neuron 7 4 1.00000000 2 3.02500000 0.00000000 0.00000000 0.00000000
Neuron 8 4 1.00000000 2 3.02500000 0.00000000 0.00000000 0.00000000
Neuron 11 3 0.50000000 4 3.75850292 0.00000000 0.00000000 0.00000000
Neuron 14 3 0.75000000 6 1.39090960 0.00000000 0.00000000 0.00000000
Neuron 18 3 0.50000000 1 3.35266199 0.00000000 0.00000000 0.00000000
Neuron 33 3 0.75000000 10 0.84435021 0.00000000 0.00000000 0.00000000
Neuron 44 3 0.25000000 11 2.74716398 0.00000000 0.00000000 0.00000000
Link 2 7 2 0 0.17033099
Link 3 7 3 0 0.23654416
Link 4 7 4 0 -0.09952748
Link 5 7 5 0 0.22791337
Link 6 7 6 0 -0.08143620
Link 1 8 7 0 0.20227142
Link 2 8 8 0 0.50930805
Link 4 8 10 0 0.20017712
Link 5 8 11 0 -1.05363425
Link 6 8 12 0 0.25333993
Link 3 11 20 0 1.02823933
Link 11 14 30 0 0.79098019
Link 14 8 31 0 0.33992739
Link 11 7 32 0 0.59365612
Link 4 14 43 0 0.20497949
Link 1 18 49 0 1.49930154
Link 1 11 104 0 0.67024905
Link 18 33 163 0 0.88267785
Link 33 7 164 0 0.04326211
Link 4 44 223 0 1.01154142
Link 44 11 224 0 0.39520404
GenomeEnd

GenomeStart 21676
Genome Fitness: 165.000000 
Neuron 1 1 0.00000000 1 0.00000000 0.00000000 0.00000000 0.00000000
Neuron 2 1 0.00000000 1 0.00000000 0.00000000 0.00000000 0.00000000
Neuron 3 1 0.00000000 1 0.00000000 0.00000000 0.00000000 0.00000000
Neuron 4 1 0.00000000 1 0.00000000 0.00000000 0.00000000 0.00000000
Neuron 5 1 0.00000000 1 0.00000000 0.00000000 0.00000000 0.00000000
Neuron 6 2 0.00000000 1 0.00000000 0.00000000 0.00000000 0.00000000
Neuron 7 4 1.00000000 2 3.02500000 0.00000000 0.00000000 0.00000000
Neuron 8 4 1.00000000 2 3.02500000 0.00000000 0.00000000 0.00000000
Neuron 11 3 0.50000000 4 3.75850292 0.00000000 0.00000000 0.00000000
Neuron 14 3 0.75000000 6 1.39090960 0.00000000 0.00000000 0.00000000
Neuron 18 3 0.50000000 1 3.35266199 0.00000000 0.00000000 0.00000000
Neuron 33 3 0.75000000 10 0.84435021 0.00000000 0.00000000 0.00000000
Neuron 44 3 0.25000000 11 2.74716398 0.00000000 0.00000000 0.00000000
Link 2 7 2 0 0.13977064
Link 3 7 3 0 0.28021736
Link 4 7 4 0 -0.22172856
Link 5 7 5 0 -0.02465323
Link 6 7 6 0 0.69299388
Link 1 8 7 0 -0.66360343
Link 2 8 8 0 0.49105670
Link 4 8 10 0 0.43609507
Link 5 8 11 0 -1.07602522
Link 6 8 12 0 0.29901728
Link 3 11 20 0 1.15485952
Link 11 14 30 0 0.72222836
Link 14 8 31 0 0.23147113
Link 11 7 32 0 -0.27043631
Link 4 14 43 0 0.33795634
Link 1 18 49 0 1.24768337
Link 1 11 104 0 0.74299335
Link 18 33 163 0 0.85303501
Link 33 7 164 0 -0.09976105
Link 4 44 223 0 0.17354434
Link 44 11 224 0 0.38486980
GenomeEnd

GenomeStart 21677
Genome Fitness: 245.000000 
Neuron 1 1 0.00000000 1 0.00000000 0.00000000 0.00000000 0.00000000
Neuron 2 1 0.00000000 1 0.00000000 0.00000000 0.00000000 0.00000000
Neuron 3 1 0.00000000 1 0.00000000 0.00000000 0.00000000 0.00000000
Neuron 4 1 0.00000000 1 0.00000000 0.00000000 0.00000000 0.00000000
Neuron 5 1 0.00000000 1 0.00000000 0.00000000 0.00000000 0.00000000
Neuron 6 2 0.00000000 1 0.00000000 0.00000000 0.00000000 0.00000000
Neuron 7 4 1.00000000 2 3.02500000 0.00000000 0.00000000 0.00000000
Neuron 8 4 1.00000000 2 3.02500000 0.00000000 0.00000000 0.00000000
Neuron 11 3 0.50000000 4 3.75850292 0.00000000 0.00000000 0.00000000
Neuron 14 3 0.75000000 6 1.39090960 0.00000000 0.00000000 0.00000000
Neuron 18 3 0.50000000 1 3.35266199 0.00000000 0.00000000 0.00000000
Neuron 33 3 0.75000000 10 0.84435021 0.00000000 0.00000000 0.00000000
Neuron 44 3 0.25000000 11 2.74716398 0.00000000 0.00000000 0.00000000
Link 2 7 2 0 0.30040434
Link 3 7 3 0 0.51401938
Link 4 7 4 0 -0.03666564
Link 5 7 5 0 0.15588734
Link 6 7 6 0 0.69154359
Link 1 8 7 0 0.16400643
Link 2 8 8 0 0.51757473
Link 4 8 10 0 -0.05598824
Link 5 8 11 0 -1.19425974
Link 6 8 12 0 -0.47642228
Link 3 11 20 0 1.24129581
Link 11 14 30 0 0.93541859
Link 14 8 31 0 0.16809015
Link 11 7 32 0 -0.34939450
Link 4 14 43 0 0.23458117
Link 1 18 49 0 1.34875007
Link 1 11 104 0 0.47962908
Link 18 33 163 0 0.87631702
Link 33 7 164 0 0.14872099
Link 4 44 223 0 -0.39102986
Link 44 11 224 0 0.26399451
GenomeEnd

GenomeStart 21678
Genome Fitness: 273.000000 
Neuron 1 1 0.00000000 1 0.00000000 0.00000000 0.00000000 0.00000000
Neuron 2 1 0.00000000 1 0.00000000 0.00000000 0.00000000 0.00000000
Neuron 3 1 0.00000000 1 0.00000000 0.00000000 0.00000000 0.00000000
Neuron 4 1 0.00000000 1 0.00000000 0.00000000 0.00000000 0.00000000
Neuron 5 1 0.00000000 1 0.00000000 0.00000000 0.00000000 0.00000000
Neuron 6 2 0.00000000 1 0.00000000 0.00000000 0.00000000 0.00000000
Neuron 7 4 1.00000000 2 3.02500000 0.00000000 0.00000000 0.00000000
Neuron 8 4 1.00000000 2 3.02500000 0.00000000 0.00000000 0.00000000
Neuron 11 3 0.50000000 4 3.75850292 0.00000000 0.00000000 0.00000000
Neuron 14 3 0.75000000 6 1.39090960 0.00000000 0.00000000 0.00000000
Neuron 18 3 0.50000000 1 3.35266199 0.00000000 0.00000000 0.00000000
Neuron 33 3 0.75000000 10 0.84435021 0.00000000 0.00000000 0.00000000
Neuron 44 3 0.25000000 11 2.74716398 0.00000000 0.00000000 0.00000000
Link 2 7 2 0 0.05813775
Link 3 7 3 0 0.25372394
Link 4 7 4 0 -0.09453516
Link 5 7 5 0 0.26603480
Link 6 7 6 0 0.84833307
Link 1 8 7 0 0.06287625
Link 2 8 8 0 0.26542875
Link 4 8 10 0 0.50855185
Link 5 8 11 0 -1.06501749
Link 6 8 12 0 0.48263869
Link 3 11 20 0 1.03407516
Link 11 14 30 0 0.88657903
Link 14 8 31 0 0.16925620
Link 11 7 32 0 -0.17746074
Link 4 14 43 0 0.18521058
Link 1 18 49 0 1.29003758
Link 1 11 104 0 0.66084438
Link 18 33 163 0 0.90022361
Link 33 7 164 0 0.09920412
Link 4 44 223 0 0.96805450
Link 44 11 224 0 0.84636171
GenomeEnd

GenomeStart 21679
Genome Fitness: 201.000000 
Neuron 1 1 0.00000000 1 0.00000000 0.00000000 0.00000000 0.00000000
Neuron 2 1 0.00000000 1 0.00000000 0.00000000 0.00000000 0.00000000
Neuron 3 1 0.00000000 1 0.00000000 0.00000000 0.00000000 0.00000000
Neuron 4 1 0.00000000 1 0.00000000 0.00000000 0.00000000 0.00000000
Neuron 5 1 0.00000000 1 0.00000000 0.00000000 0.00000000 0.00000000
Neuron 6 2 0.00000000 1 0.00000000 0.00000000 0.00000000 0.00000000
Neuron 7 4 1.00000000 2 3.02500000 0.00000000 0.00000000 0.00000000
Neuron 8 4 1.00000000 2 3.02500000 0.00000000 0.00000000 0.00000000
Neuron 11 3 0.50000000 4 3.75850292 0.00000000 0.00000000 0.00000000
Neuron 14 3 0.75000000 6 1.39090960 0.00000000 0.00000000 0.00000000
Neuron 18 3 0.50000000 1 3.35266199 0.00000000 0.00000000 0.00000000
Neuron 33 3 0.75000000 10 0.84435021 0.00000000 0.00000000 0.00000000
Neuron 44 3 0.25000000 11 2.74716398 0.00000000 0.00000000 0.00000000
Link 2 7 2 0 0.03193074
Link 3 7 3 0 0.41645821
Link 4 7 4 0 -0.04233637
Link 5 7 5 0 0.30312752
Link 6 7 6 0 0.75971513
Link 1 8 7 0 0.16475213
Link 2 8 8 0 0.55018610
Link 4 8 10 0 0.35947909
Link 5 8 11 0 -0.97722977
Link 6 8 12 0 0.44201681
Link 3 11 20 0 1.14612679
Link 11 14 30 0 0.96651473
Link 14 8 31 0 0.13196688
Link 11 7 32 0 -0.20287900
Link 4 14 43 0 0.20425219
Link 1 18 49 0 1.40679632
Link 1 11 104 0 0.83740576
Link 18 33 163 0 1.11524900
Link 33 7 164 0 -0.05575597
Link 4 44 223 0 1.01492505
Link 44 11 224 0 -0.40990769
GenomeEnd

GenomeStart 21680
Genome Fitness: 480.000000 
Neuron 1 1 0.00000000 1 0.00000000 0.00000000 0.00000000 0.00000000
Neuron 2 1 0.00000000 1 0.00000000 0.00000000 0.00000000 0.00000000
Neuron 3 1 0.00000000 1 0.00000000 0.00000000 0.00000000 0.00000000
Neuron 4 1 0.00000000 1 0.00000000 0.00000000 0.00000000 0.00000000
Neuron 5 1 0.00000000 1 0.00000000 0.00000000 0.00000000 0.00000000
Neuron 6 2 0.00000000 1 0.00000000 0.00000000 0.00000000 0.00000000
Neuron 7 4 1.00000000 2 3.02500000 0.00000000 0.00000000 0.00000000
Neuron 8 4 1.00000000 2 3.02500000 0.00000000 0.00000000 0.00000000
Neuron 11 3 0.50000000 4 3.75850292 0.00000000 0.00000000 0.00000000
Neuron 14 3 0.75000000 6 1.39090960 0.00000000 0.00000000 0.00000000
Neuron 18 3 0.50000000 1 3.35266199 0.00000000 0.00000000 0.00000000
Neuron 33 3 0.75000000 10 0.84435021 0.00000000 0.00000000 0.00000000
Neuron 44 3 0.25000000 11 2.74716398 0.00000000 0.00000000 0.00000000
Link 2 7 2 0 0.17033099
Link 3 7 3 0 0.34055028
Link 4 7 4 0 -0.07615743
Link 5 7 5 0 0.27916387
Link 6 7 6 0 0.77570317
Link 1 8 7 0 0.15570151
Link 2 8 8 0 0.40641527
Link 4 8 10 0 0.43629951
Link 5 8 11 0 -1.07602522
Link 6 8 12 0 0.31667741
Link 3 11 20 0 1.12832257
Link 11 14 30 0 0.92259109
Link 14 8 31 0 0.20535443
Link 11 7 32 0 -0.32457171
Link 4 14 43 0 0.25827559
Link 1 18 49 0 1.38116174
Link 1 11 104 0 0.74299335
Link 18 8 148 0 0.27550135
Link 18 33 163 0 1.00000000
Link 33 7 164 0 -0.03032440
Link 4 44 223 0 1.00000000
Link 44 11 224 0 0.32072432
GenomeEnd

GenomeStart 21681
Genome Fitness: 176.000000 
Neuron 1 1 0.00000000 1 0.00000000 0.00000000 0.00000000 0.00000000
Neuron 2 1 0.00000000 1 0.00000000 0.00000000 0.00000000 0.00000000
Neuron 3 1 0.00000000 1 0.00000000 0.00000000 0.00000000 0.00000000
Neuron 4 1 0.00000000 1 0.00000000 0.00000000 0.00000000 0.00000000
Neuron 5 1 0.00000000 1 0.00000000 0.00000000 0.00000000 0.00000000
Neuron 6 2 0.00000000 1 0.00000000 0.00000000 0.00000000 0.00000000
Neuron 7 4 1.00000000 2 3.02500000 0.00000000 0.00000000 0.00000000
Neuron 8 4 1.00000000 2 3.02500000 0.00000000 0.00000000 0.00000000
Neuron 11 3 0.50000000 4 3.75850292 0.00000000 0.00000000 0.00000000
Neuron 14 3 0.75000000 6 1.39090960 0.00000000 0.00000000 0.00000000
Neuron 18 3 0.50000000 1 3.35266199 0.00000000 0.00000000 0.00000000
Neuron 33 3 0.75000000 10 0.84435021 0.00000000 0.00000000 0.00000000
Neuron 44 3 0.25000000 11 2.74716398 0.00000000 0.00000000 0.00000000
Link 2 7 2 0 0.17414262
Link 3 7 3 0 -0.18520844
Link 4 7 4 0 -0.07615743
Link 5 7 5 0 0.26626167
Link 6 7 6 0 0.69775371
Link 1 8 7 0 0.14141052
Link 2 8 8 0 0.29686277
Link 4 8 10 0 0.39322360
Link 5 8 11 0 -1.04060561
Link 6 8 12 0 0.09296750
Link 3 11 20 0 1.11335980
Link 11 14 30 0 -0.79634873
Link 14 8 31 0 0.24609477
Link 11 7 32 0 -0.32926390
Link 4 14 43 0 0.25827559
Link 1 18 49 0 0.00766543
Link 1 11 104 0 0.74299335
Link 18 33 163 0 0.83568683
Link 33 7 164 0 -0.04613957
Link 4 44 223 0 0.92094941
Link 44 11 224 0 0.29196247
GenomeEnd

GenomeStart 21682
Genome Fitness: 480.000000 
Neuron 1 1 0.00000000 1 0.00000000 0.00000000 0.00000000 0.00000000
Neuron 2 1 0.00000000 1 0.00000000 0.00000000 0.00000000 0.00000000
Neuron 3 1 0.00000000 1 0.00000000 0.00000000 0.00000000 0.00000000
Neuron 4 1 0.00000000 1 0.00000000 0.00000000 0.00000000 0.00000000
Neuron 5 1 0.00000000 1 0.00000000 0.00000000 0.00000000 0.00000000
Neuron 6 2 0.00000000 1 0.00000000 0.00000000 0.00000000 0.00000000
Neuron 7 4 1.00000000 2 3.02500000 0.00000000 0.00000000 0.00000000
Neuron 8 4 1.00000000 2 3.02500000 0.00000000 0.00000000 0.00000000
Neuron 10 3 0.50000000 9 2.09878299 0.00000000 0.00000000 0.00000000
Neuron 11 3 0.50000000 4 3.75850292 0.00000000 0.00000000 0.00000000
Neuron 14 3 0.75000000 6 1.39090960 0.00000000 0.00000000 0.00000000
Neuron 18 3 0.50000000 1 3.35266199 0.00000000 0.00000000 0.00000000
Neuron 44 3 0.25000000 11 2.74716398 0.00000000 0.00000000 0.00000000
Link 3 7 3 0 0.34055028
Link 4 7 4 0 -0.07615743
Link 5 7 5 0 0.27916387
Link 6 7 6 0 0.77570317
Link 1 8 7 0 0.15570151
Link 2 8 8 0 0.40641527
Link 4 8 10 0 0.43629951
Link 5 8 11 0 -1.07602522
Link 6 8 12 0 0.31667741
Link 2 10 17 0 1.00000000
Link 10 7 18 0 0.17033099
Link 3 11 20 0 1.12832257
Link 11 14 30 0 0.92259109
Link 14 8 31 0 0.20535443
Link 4 14 43 0 0.25827559
Link 1 18 49 0 1.38116174
Link 18 7 50 0 -0.03032440
Link 1 11 104 0 0.74299335
Link 18 8 148 0 0.63733203
Link 4 44 223 0 1.00000000
Link 44 11 224 0 0.32072432
GenomeEnd

GenomeStart 21683
Genome Fitness: 480.000000 
Neuron 1 1 0.00000000 1 0.00000000 0.00000000 0.00000000 0.00000000
Neuron 2 1 0.00000000 1 0.00000000 0.00000000 0.00000000 0.00000000
Neuron 3 1 0.00000000 1 0.00000000 0.00000000 0.00000000 0.00000000
Neuron 4 1 0.00000000 1 0.00000000 0.00000000 0.00000000 0.00000000
Neuron 5 1 0.00000000 1 0.00000000 0.00000000 0.00000000 0.00000000
Neuron 6 2 0.00000000 1 0.00000000 0.00000000 0.00000000 0.00000000
Neuron 7 4 1.00000000 2 3.02500000 0.00000000 0.00000000 0.00000000
Neuron 8 4 1.00000000 2 3.02500000 0.00000000 0.00000000 0.00000000
Neuron 10 3 0.50000000 9 2.09878299 0.00000000 0.00000000 0.00000000
Neuron 11 3 0.50000000 4 3.75850292 0.00000000 0.00000000 0.00000000
Neuron 14 3 0.75000000 6 1.39090960 0.00000000 0.00000000 0.00000000
Neuron 18 3 0.50000000 1 3.35266199 0.00000000 0.00000000 0.00000000
Neuron 44 3 0.25000000 11 2.74716398 0.00000000 0.00000000 0.00000000
Link 3 7 3 0 0.34055028
Link 4 7 4 0 -0.07615743
Link 5 7 5 0 0.27916387
Link 6 7 6 0 0.77570317
Link 1 8 7 0 0.15570151
Link 2 8 8 0 0.40641527
Link 4 8 10 0 0.43629951
Link 5 8 11 0 -1.07602522
Link 6 8 12 0 0.31667741
Link 2 10 17 0 1.00000000
Link 10 7 18 0 0.17033099
Link 3 11 20 0 1.12832257
Link 11 14 30 0 0.92259109
Link 14 8 31 0 0.20535443
Link 4 14 43 0 0.25827559
Link 1 18 49 0 1.38116174
Link 18 7 50 0 -0.03032440
Link 1 11 104 0 0.74299335
Link 18 8 148 0 0.63733203
Link 4 44 223 0 1.00000000
Link 44 11 224 0 0.32072432
Link 3 44 259 0 -0.36828160
GenomeEnd

GenomeStart 21684
Genome Fitness: 271.000000 
Neuron 1 1 0.00000000 1 0.00000000 0.00000000 0.00000000 0.00000000
Neuron 2 1 0.00000000 1 0.00000000 0.00000000 0.00000000 0.00000000
Neuron 3 1 0.00000000 1 0.00000000 0.00000000 0.00000000 0.00000000
Neuron 4 1 0.00000000 1 0.00000000 0.00000000 0.00000000 0.00000000
Neuron 5 1 0.00000000 1 0.00000000 0.00000000 0.00000000 0.00000000
Neuron 6 2 0.00000000 1 0.00000000 0.00000000 0.00000000 0.00000000
Neuron 7 4 1.00000000 2 3.02500000 0.00000000 0.00000000 0.00000000
Neuron 8 4 1.00000000 2 3.02500000 0.00000000 0.00000000 0.00000000
Neuron 10 3 0.50000000 9 2.09878299 0.00000000 0.00000000 0.00000000
Neuron 11 3 0.50000000 4 3.75850292 0.00000000 0.00000000 0.00000000
Neuron 14 3 0.75000000 6 1.39090960 0.00000000 0.00000000 0.00000000
Neuron 18 3 0.50000000 1 3.35266199 0.00000000 0.00000000 0.00000000
Neuron 44 3 0.25000000 11 2.74716398 0.00000000 0.00000000 0.00000000
Link 3 7 3 0 0.41318011
Link 4 7 4 0 -0.10824698
Link 5 7 5 0 0.33232722
Link 6 7 6 0 0.83876971
Link 1 8 7 0 0.00522203
Link 2 8 8 0 0.23846339
Link 4 8 10 0 0.45175071
Link 5 8 11 0 -1.17174911
Link 6 8 12 0 0.15032845
Link 2 10 17 0 1.09342786
Link 10 7 18 0 0.06610219
Link 3 11 20 0 1.06299211
Link 11 14 30 0 0.93409234
Link 14 8 31 0 0.07892563
Link 4 14 43 0 0.32168643
Link 1 18 49 0 1.32349678
Link 18 7 50 0 -0.07228120
Link 1 11 104 0 0.85526810
Link 18 8 148 0 0.74167653
Link 4 44 223 0 1.05945867
Link 44 11 224 0 0.06752939
GenomeEnd

GenomeStart 21685
Genome Fitness: 270.000000 
Neuron 1 1 0.00000000 1 0.00000000 0.00000000 0.00000000 0.00000000
Neuron 2 1 0.00000000 1 0.00000000 0.00000000 0.00000000 0.00000000
Neuron 3 1 0.00000000 1 0.00000000 0.00000000 0.00000000 0.00000000
Neuron 4 1 0.00000000 1 0.00000000 0.00000000 0.00000000 0.00000000
Neuron 5 1 0.00000000 1 0.00000000 0.00000000 0.00000000 0.00000000
Neuron 6 2 0.00000000 1 0.00000000 0.00000000 0.00000000 0.00000000
Neuron 7 4 1.00000000 2 3.02500000 0.00000000 0.00000000 0.00000000
Neuron 8 4 1.00000000 2 3.02500000 0.00000000 0.00000000 0.00000000
Neuron 10 3 0.50000000 9 2.09878299 0.00000000 0.00000000 0.00000000
Neuron 11 3 0.50000000 4 3.75850292 0.00000000 0.00000000 0.00000000
Neuron 14 3 0.75000000 6 1.39090960 0.00000000 0.00000000 0.00000000
Neuron 18 3 0.50000000 1 3.35266199 0.00000000 0.00000000 0.00000000
Neuron 44 3 0.25000000 11 2.74716398 0.00000000 0.00000000 0.00000000
Link 3 7 3 0 0.22039627
Link 4 7 4 0 -0.09518673
Link 5 7 5 0 0.42421425
Link 6 7 6 0 0.86521043
Link 1 8 7 0 0.14406215
Link 2 8 8 0 0.31860618
Link 4 8 10 0 0.47591349
Link 5 8 11 0 -0.91767300
Link 6 8 12 0 0.44111677
Link 2 10 17 0 1.15061855
Link 10 7 18 0 0.14106097
Link 3 11 20 0 1.16163435
Link 11 14 30 0 0.95894468
Link 14 8 31 0 0.05950521
Link 4 14 43 0 0.36457889
Link 1 18 49 0 1.33076096
Link 18 7 50 0 -0.11026111
Link 1 11 104 0 0.65718237
Link 18 8 148 0 0.56062362
Link 4 44 223 0 0.99610555
Link 44 11 224 0 0.37488975
GenomeEnd

GenomeStart 21686
Genome Fitness: 480.000000 
Neuron 1 1 0.00000000 1 0.00000000 0.00000000 0.00000000 0.00000000
Neuron 2 1 0.00000000 1 0.00000000 0.00000000 0.00000000 0.00000000
Neuron 3 1 0.00000000 1 0.00000000 0.00000000 0.00000000 0.00000000
Neuron 4 1 0.00000000 1 0.00000000 0.00000000 0.00000000 0.00000000
Neuron 5 1 0.00000000 1 0.00000000 0.00000000 0.00000000 0.00000000
Neuron 6 2 0.00000000 1 0.00000000 0.00000000 0.00000000 0.00000000
Neuron 7 4 1.00000000 2 3.02500000 0.00000000 0.00000000 0.00000000
Neuron 8 4 1.00000000 2 3.02500000 0.00000000 0.00000000 0.00000000
Neuron 10 3 0.50000000 9 2.09878299 0.00000000 0.00000000 0.00000000
Neuron 11 3 0.50000000 4 3.75850292 0.00000000 0.00000000 0.00000000
Neuron 14 3 0.75000000 6 1.39090960 0.00000000 0.00000000 0.00000000
Neuron 18 3 0.50000000 1 3.35266199 0.00000000 0.00000000 0.00000000
Neuron 44 3 0.25000000 11 2.74716398 0.00000000 0.00000000 0.00000000
Link 3 7 3 0 0.34055028
Link 4 7 4 0 -0.07615743
Link 5 7 5 0 0.27916387
Link 6 7 6 0 0.77570317
Link 1 8 7 0 0.15570151
Link 2 8 8 0 0.40641527
Link 4 8 10 0 0.43629951
Link 5 8 11 0 -1.07602522
Link 6 8 12 0 0.31667741
Link 2 10 17 0 1.00000000
Link 10 7 18 0 0.17033099
Link 3 11 20 0 1.12832257
Link 11 14 30 0 0.92259109
Link 14 8 31 0 0.20535443
Link 4 14 43 0 0.25827559
Link 1 18 49 0 1.38116174
Link 18 7 50 0 -0.03032440
Link 1 11 104 0 0.74299335
Link 18 8 148 0 0.63733203
Link 4 44 223 0 1.00000000
Link 44 11 224 0 0.32072432
GenomeEnd

GenomeStart 21687
Genome Fitness: 230.000000 
Neuron 1 1 0.00000000 1 0.00000000 0.00000000 0.00000000 0.00000000
Neuron 2 1 0.00000000 1 0.00000000 0.00000000 0.00000000 0.00000000
Neuron 3 1 0.00000000 1 0.00000000 0.00000000 0.00000000 0.00000000
Neuron 4 1 0.00000000 1 0.00000000 0.00000000 0.00000000 0.00000000
Neuron 5 1 0.00000000 1 0.00000000 0.00000000 0.00000000 0.00000000
Neuron 6 2 0.00000000 1 0.00000000 0.00000000 0.00000000 0.00000000
Neuron 7 4 1.00000000 2 3.02500000 0.00000000 0.00000000 0.00000000
Neuron 8 4 1.00000000 2 3.02500000 0.00000000 0.00000000 0.00000000
Neuron 10 3 0.50000000 9 2.09878299 0.00000000 0.00000000 0.00000000
Neuron 11 3 0.50000000 4 3.75850292 0.00000000 0.00000000 0.00000000
Neuron 14 3 0.75000000 6 1.39090960 0.00000000 0.00000000 0.00000000
Neuron 18 3 0.50000000 1 3.35266199 0.00000000 0.00000000 0.00000000
Neuron 44 3 0.25000000 11 2.74716398 0.00000000 0.00000000 0.00000000
Link 3 7 3 0 0.40181125
Link 4 7 4 0 -0.13856534
Link 5 7 5 0 0.23084277
Link 6 7 6 0 0.70519870
Link 1 8 7 0 0.18354561
Link 2 8 8 0 0.41121899
Link 4 8 10 0 0.28948118
Link 5 8 11 0 -1.03473216
Link 6 8 12 0 0.35394957
Link 2 10 17 0 0.86600491
Link 10 7 18 0 0.17254679
Link 3 11 20 0 1.13518387
Link 11 14 30 0 0.82701205
Link 14 8 31 0 0.09616263
Link 4 14 43 0 0.32470676
Link 1 18 49 0 1.42343330
Link 18 7 50 0 -0.22154777
Link 1 11 104 0 0.78440574
Link 18 8 148 0 0.67413691
Link 4 44 223 0 1.06484327
Link 44 11 224 0 0.35749199
GenomeEnd

GenomeStart 21688
Genome Fitness: 162.000000 
Neuron 1 1 0.00000000 1 0.00000000 0.00000000 0.00000000 0.00000000
Neuron 2 1 0.00000000 1 0.00000000 0.00000000 0.00000000 0.00000000
Neuron 3 1 0.00000000 1 0.00000000 0.00000000 0.00000000 0.00000000
Neuron 4 1 0.00000000 1 0.00000000 0.00000000 0.00000000 0.00000000
Neuron 5 1 0.00000000 1 0.00000000 0.00000000 0.00000000 0.00000000
Neuron 6 2 0.00000000 1 0.00000000 0.00000000 0.00000000 0.00000000
Neuron 7 4 1.00000000 2 3.02500000 0.00000000 0.00000000 0.00000000
Neuron 8 4 1.00000000 2 3.02500000 0.00000000 0.00000000 0.00000000
Neuron 10 3 0.50000000 9 2.09878299 0.00000000 0.00000000 0.00000000
Neuron 11 3 0.50000000 4 3.75850292 0.00000000 0.00000000 0.00000000
Neuron 14 3 0.75000000 6 1.39090960 0.00000000 0.00000000 0.00000000
Neuron 18 3 0.50000000 1 3.35266199 0.00000000 0.00000000 0.00000000
Neuron 44 3 0.25000000 11 2.74716398 0.00000000 0.00000000 0.00000000
Link 3 7 3 0 0.36130562
Link 4 7 4 0 0.66983382
Link 5 7 5 0 0.05944784
Link 6 7 6 0 0.79624783
Link 1 8 7 0 -0.00880536
Link 2 8 8 0 0.33815752
Link 4 8 10 0 0.09454718
Link 5 8 11 0 0.15083243
Link 6 8 12 0 0.35820530
Link 2 10 17 0 1.02798339
Link 10 7 18 0 0.19640419
Link 3 11 20 0 1.22415795
Link 11 14 30 0 0.91877683
Link 14 8 31 0 -0.43307308
Link 4 14 43 0 0.15071222
Link 1 18 49 0 1.55896192
Link 18 7 50 0 -0.38057116
Link 1 11 104 0 0.77832400
Link 18 8 148 0 0.63733203
Link 4 44 223 0 1.05644319
Link 44 11 224 0 0.34801821
Link 3 44 259 0 -0.32245939
GenomeEnd

GenomeStart 21689
Genome Fitness: 201.000000 
Neuron 1 1 0.00000000 1 0.00000000 0.00000000 0.00000000 0.00000000
Neuron 2 1 0.00000000 1 0.00000000 0.00000000 0.00000000 0.00000000
Neuron 3 1 0.00000000 1 0.00000000 0.00000000 0.00000000 0.00000000
Neuron 4 1 0.00000000 1 0.00000000 0.00000000 0.00000000 0.00000000
Neuron 5 1 0.00000000 1 0.00000000 0.00000000 0.00000000 0.00000000
Neuron 6 2 0.00000000 1 0.00000000 0.00000000 0.00000000 0.00000000
Neuron 7 4 1.00000000 2 3.02500000 0.00000000 0.00000000 0.00000000
Neuron 8 4 1.00000000 2 3.02500000 0.00000000 0.00000000 0.00000000
Neuron 10 3 0.50000000 9 2.09878299 0.00000000 0.00000000 0.00000000
Neuron 11 3 0.50000000 4 3.75850292 0.00000000 0.00000000 0.00000000
Neuron 14 3 0.75000000 6 1.39090960 0.00000000 0.00000000 0.00000000
Neuron 18 3 0.50000000 1 3.35266199 0.00000000 0.00000000 0.00000000
Neuron 44 3 0.25000000 11 2.74716398 0.00000000 0.00000000 0.00000000
Link 3 7 3 0 0.35012567
Link 4 7 4 0 0.03124674
Link 5 7 5 0 0.17262622
Link 6 7 6 0 0.79115137
Link 1 8 7 0 0.11817085
Link 2 8 8 0 0.36753322
Link 4 8 10 0 0.45553540
Link 5 8 11 0 -0.90709354
Link 6 8 12 0 0.33011571
Link 2 10 17 0 1.08380879
Link 10 7 18 0 0.14740596
Link 3 11 20 0 1.07300688
Link 11 14 30 0 1.05473362
Link 14 8 31 0 0.15189168
Link 4 14 43 0 0.25373126
Link 1 18 49 0 1.29671943
Link 18 7 50 0 -0.03608892
Link 1 11 104 0 0.79984871
Link 18 8 148 0 0.70534363
Link 4 44 223 0 1.13095203
Link 44 11 224 0 0.05366849
GenomeEnd

GenomeStart 21690
Genome Fitness: 480.000000 
Neuron 1 1 0.00000000 1 0.00000000 0.00000000 0.00000000 0.00000000
Neuron 2 1 0.00000000 1 0.00000000 0.00000000 0.00000000 0.00000000
Neuron 3 1 0.00000000 1 0.00000000 0.00000000 0.00000000 0.00000000
Neuron 4 1 0.00000000 1 0.00000000 0.00000000 0.00000000 0.00000000
Neuron 5 1 0.00000000 1 0.00000000 0.00000000 0.00000000 0.00000000
Neuron 6 2 0.00000000 1 0.00000000 0.00000000 0.00000000 0.00000000
Neuron 7 4 1.00000000 2 3.02500000 0.00000000 0.00000000 0.00000000
Neuron 8 4 1.00000000 2 3.02500000 0.00000000 0.00000000 0.00000000
Neuron 11 3 0.50000000 4 3.75850292 0.00000000 0.00000000 0.00000000
Neuron 14 3 0.75000000 6 1.39090960 0.00000000 0.00000000 0.00000000
Neuron 18 3 0.50000000 1 3.35266199 0.00000000 0.00000000 0.00000000
Neuron 33 3 0.75000000 10 0.84435021 0.00000000 0.00000000 0.00000000
Neuron 44 3 0.25000000 11 2.74716398 0.00000000 0.00000000 0.00000000
Neuron 47 3 0.75000000 4 5.77071015 0.00000000 0.00000000 0.00000000
Link 2 7 2 0 0.17033099
Link 3 7 3 0 0.34055028
Link 4 7 4 0 -0.07615743
Link 5 7 5 0 0.27916387
Link 6 7 6 0 0.77570317
Link 1 8 7 0 0.15570151
Link 2 8 8 0 0.40641527
Link 4 8 10 0 0.43629951
Link 5 8 11 0 -1.07602522
Link 6 8 12 0 0.31667741
Link 11 14 30 0 0.92259109
Link 14 8 31 0 0.20535443
Link 4 14 43 0 0.25827559
Link 1 18 49 0 1.38116174
Link 1 11 104 0 0.74299335
Link 18 33 163 0 1.00000000
Link 33 7 164 0 -0.03032440
Link 4 44 223 0 1.00000000
Link 44 11 224 0 0.32072432
Link 11 47 247 0 1.00000000
Link 47 7 248 0 -0.32457171
GenomeEnd

GenomeStart 21691
Genome Fitness: 480.000000 
Neuron 1 1 0.00000000 1 0.00000000 0.00000000 0.00000000 0.00000000
Neuron 2 1 0.00000000 1 0.00000000 0.00000000 0.00000000 0.00000000
Neuron 3 1 0.00000000 1 0.00000000 0.00000000 0.00000000 0.00000000
Neuron 4 1 0.00000000 1 0.00000000 0.00000000 0.00000000 0.00000000
Neuron 5 1 0.00000000 1 0.00000000 0.00000000 0.00000000 0.00000000
Neuron 6 2 0.00000000 1 0.00000000 0.00000000 0.00000000 0.00000000
Neuron 7 4 1.00000000 2 3.02500000 0.00000000 0.00000000 0.00000000
Neuron 8 4 1.00000000 2 3.02500000 0.00000000 0.00000000 0.00000000
Neuron 11 3 0.50000000 4 3.75850292 0.00000000 0.00000000 0.00000000
Neuron 14 3 0.75000000 6 1.39090960 0.00000000 0.00000000 0.00000000
Neuron 18 3 0.50000000 1 3.35266199 0.00000000 0.00000000 0.00000000
Neuron 33 3 0.75000000 10 0.84435021 0.00000000 0.00000000 0.00000000
Neuron 44 3 0.25000000 11 2.74716398 0.00000000 0.00000000 0.00000000
Neuron 47 3 0.75000000 4 5.77071015 0.00000000 0.00000000 0.00000000
Link 2 7 2 0 0.17033099
Link 3 7 3 0 0.34055028
Link 4 7 4 0 -0.07615743
Link 5 7 5 0 0.27916387
Link 6 7 6 0 0.77570317
Link 1 8 7 0 0.15570151
Link 2 8 8 0 0.40641527
Link 4 8 10 0 0.43629951
Link 5 8 11 0 -1.07602522
Link 6 8 12 0 0.31667741
Link 11 14 30 0 0.92259109
Link 14 8 31 0 0.20535443
Link 4 14 43 0 0.25827559
Link 1 18 49 0 1.38116174
Link 1 11 104 0 0.74299335
Link 18 33 163 0 1.00000000
Link 33 7 164 0 -0.03032440
Link 4 44 223 0 1.00000000
Link 44 11 224 0 0.32072432
Link 11 47 247 0 1.00000000
Link 47 7 248 0 -0.32457171
Link 5 44 255 0 -0.21988022
GenomeEnd

GenomeStart 21692
Genome Fitness: 270.000000 
Neuron 1 1 0.00000000 1 0.00000000 0.00000000 0.00000000 0.00000000
Neuron 2 1 0.00000000 1 0.00000000 0.00000000 0.00000000 0.00000000
Neuron 3 1 0.00000000 1 0.00000000 0.00000000 0.00000000 0.00000000
Neuron 4 1 0.00000000 1 0.00000000 0.00000000 0.00000000 0.00000000
Neuron 5 1 0.00000000 1 0.00000000 0.00000000 0.00000000 0.00000000
Neuron 6 2 0.00000000 1 0.00000000 0.00000000 0.00000000 0.00000000
Neuron 7 4 1.00000000 2 3.02500000 0.00000000 0.00000000 0.00000000
Neuron 8 4 1.00000000 2 3.02500000 0.00000000 0.00000000 0.00000000
Neuron 11 3 0.50000000 4 3.75850292 0.00000000 0.00000000 0.00000000
Neuron 14 3 0.75000000 6 1.39090960 0.00000000 0.00000000 0.00000000
Neuron 18 3 0.50000000 1 3.35266199 0.00000000 0.00000000 0.00000000
Neuron 33 3 0.75000000 10 0.84435021 0.00000000 0.00000000 0.00000000
Neuron 44 3 0.25000000 11 2.74716398 0.00000000 0.00000000 0.00000000
Neuron 47 3 0.75000000 4 5.77071015 0.00000000 0.00000000 0.00000000
Link 2 7 2 0 0.05148006
Link 3 7 3 0 0.33259745
Link 4 7 4 0 -0.11109661
Link 5 7 5 0 0.23795926
Link 6 7 6 0 0.76911362
Link 1 8 7 0 0.13441846
Link 2 8 8 0 0.41261525
Link 4 8 10 0 0.55117552
Link 5 8 11 0 -1.09934725
Link 6 8 12 0 0.41523270
Link 11 14 30 0 0.97025474
Link 14 8 31 0 0.26902643
Link 4 14 43 0 0.11335726
Link 1 18 49 0 1.45788278
Link 1 11 104 0 0.71185044
Link 18 33 163 0 1.10874924
Link 33 7 164 0 0.03727092
Link 4 44 223 0 1.08379508
Link 44 11 224 0 0.41212681
Link 11 47 247 0 0.96453626
Link 47 7 248 0 -0.25755485
GenomeEnd

GenomeStart 21693
Genome Fitness: 201.000000 
Neuron 1 1 0.00000000 1 0.00000000 0.00000000 0.00000000 0.00000000
Neuron 2 1 0.00000000 1 0.00000000 0.00000000 0.00000000 0.00000000
Neuron 3 1 0.00000000 1 0.00000000 0.00000000 0.00000000 0.00000000
Neuron 4 1 0.00000000 1 0.00000000 0.00000000 0.00000000 0.00000000
Neuron 5 1 0.00000000 1 0.00000000 0.00000000 0.00000000 0.00000000
Neuron 6 2 0.00000000 1 0.00000000 0.00000000 0.00000000 0.00000000
Neuron 7 4 1.00000000 2 3.02500000 0.00000000 0.00000000 0.00000000
Neuron 8 4 1.00000000 2 3.02500000 0.00000000 0.00000000 0.00000000
Neuron 11 3 0.50000000 4 3.75850292 0.00000000 0.00000000 0.00000000
Neuron 14 3 0.75000000 6 1.39090960 0.00000000 0.00000000 0.00000000
Neuron 18 3 0.50000000 1 3.35266199 0.00000000 0.00000000 0.00000000
Neuron 33 3 0.75000000 10 0.84435021 0.00000000 0.00000000 0.00000000
Neuron 44 3 0.25000000 11 2.74716398 0.00000000 0.00000000 0.00000000
Neuron 47 3 0.75000000 4 5.77071015 0.00000000 0.00000000 0.00000000
Link 2 7 2 0 0.07038958
Link 3 7 3 0 0.15621028
Link 4 7 4 0 -0.14637069
Link 5 7 5 0 0.35613687
Link 6 7 6 0 0.78868796
Link 1 8 7 0 0.03958090
Link 2 8 8 0 0.53501391
Link 4 8 10 0 0.43133567
Link 5 8 11 0 -1.05035409
Link 6 8 12 0 0.43124796
Link 11 14 30 0 0.93265503
Link 14 8 31 0 0.11140991
Link 4 14 43 0 0.41734202
Link 1 18 49 0 1.36766359
Link 1 11 104 0 0.79293234
Link 18 33 163 0 0.98025176
Link 33 7 164 0 -0.18327432
Link 4 44 223 0 0.98590808
Link 44 11 224 0 0.20605971
Link 11 47 247 0 0.88422332
Link 47 7 248 0 -0.08988779
GenomeEnd

GenomeStart 21694
Genome Fitness: 273.000000 
Neuron 1 1 0.00000000 1 0.00000000 0.00000000 0.00000000 0.00000000
Neuron 2 1 0.00000000 1 0.00000000 0.00000000 0.00000000 0.00000000
Neuron 3 1 0.00000000 1 0.00000000 0.00000000 0.00000000 0.00000000
Neuron 4 1 0.00000000 1 0.00000000 0.00000000 0.00000000 0.00000000
Neuron 5 1 0.00000000 1 0.00000000 0.00000000 0.00000000 0.00000000
Neuron 6 2 0.00000000 1 0.00000000 0.00000000 0.00000000 0.00000000
Neuron 7 4 1.00000000 2 3.02500000 0.00000000 0.00000000 0.00000000
Neuron 8 4 1.00000000 2 3.02500000 0.00000000 0.00000000 0.00000000
Neuron 11 3 0.50000000 4 3.75850292 0.00000000 0.00000000 0.00000000
Neuron 14 3 0.75000000 6 1.39090960 0.00000000 0.00000000 0.00000000
Neuron 18 3 0.50000000 1 3.35266199 0.00000000 0.00000000 0.00000000
Neuron 33 3 0.75000000 10 0.84435021 0.00000000 0.00000000 0.00000000
Neuron 44 3 0.25000000 11 2.74716398 0.00000000 0.00000000 0.00000000
Neuron 47 3 0.75000000 4 5.77071015 0.00000000 0.00000000 0.00000000
Link 2 7 2 0 0.17076268
Link 3 7 3 0 0.43238377
Link 4 7 4 0 0.09347350
Link 5 7 5 0 0.30284428
Link 6 7 6 0 0.77541313
Link 1 8 7 0 0.20239671
Link 2 8 8 0 0.24626330
Link 4 8 10 0 0.43136743
Link 5 8 11 0 -0.89734227
Link 6 8 12 0 0.21784149
Link 11 14 30 0 0.96175269
Link 14 8 31 0 0.13519444
Link 4 14 43 0 0.26163637
Link 1 18 49 0 1.32386765
Link 1 11 104 0 0.78096080
Link 18 33 163 0 1.02393933
Link 33 7 164 0 -0.06738756
Link 4 44 223 0 0.96062713
Link 44 11 224 0 0.33691784
Link 11 47 247 0 1.02341842
Link 47 7 248 0 -0.43581254
GenomeEnd

GenomeStart 21695
Genome Fitness: 270.000000 
Neuron 1 1 0.00000000 1 0.00000000 0.00000000 0.00000000 0.00000000
Neuron 2 1 0.00000000 1 0.00000000 0.00000000 0.00000000 0.00000000
Neuron 3 1 0.00000000 1 0.00000000 0.00000000 0.00000000 0.00000000
Neuron 4 1 0.00000000 1 0.00000000 0.00000000 0.00000000 0.00000000
Neuron 5 1 0.00000000 1 0.00000000 0.00000000 0.00000000 0.00000000
Neuron 6 2 0.00000000 1 0.00000000 0.00000000 0.00000000 0.00000000
Neuron 7 4 1.00000000 2 3.02500000 0.00000000 0.00000000 0.00000000
Neuron 8 4 1.00000000 2 3.02500000 0.00000000 0.00000000 0.00000000
Neuron 11 3 0.50000000 4 3.75850292 0.00000000 0.00000000 0.00000000
Neuron 14 3 0.75000000 6 1.39090960 0.00000000 0.00000000 0.00000000
Neuron 18 3 0.50000000 1 3.35266199 0.00000000 0.00000000 0.00000000
Neuron 33 3 0.75000000 10 0.84435021 0.00000000 0.00000000 0.00000000
Neuron 44 3 0.25000000 11 2.74716398 0.00000000 0.00000000 0.00000000
Neuron 47 3 0.75000000 4 5.77071015 0.00000000 0.00000000 0.00000000
Link 2 7 2 0 0.16294546
Link 3 7 3 0 0.36682614
Link 4 7 4 0 -0.21533180
Link 5 7 5 0 0.35580200
Link 6 7 6 0 0.67486047
Link 1 8 7 0 0.19496637
Link 2 8 8 0 0.28832431
Link 4 8 10 0 0.43702359
Link 5 8 11 0 -0.98314599
Link 6 8 12 0 0.31598209
Link 11 14 30 0 0.91804791
Link 14 8 31 0 0.23436259
Link 4 14 43 0 0.32954296
Link 1 18 49 0 1.24667459
Link 1 11 104 0 0.79574998
Link 18 33 163 0 1.05898566
Link 33 7 164 0 0.01566045
Link 4 44 223 0 0.83119590
Link 44 11 224 0 0.32324473
Link 11 47 247 0 0.95980487
Link 47 7 248 0 0.43195295
GenomeEnd

GenomeStart 21696
Genome Fitness: 200.000000 
Neuron 1 1 0.00000000 1 0.00000000 0.00000000 0.00000000 0.00000000
Neuron 2 1 0.00000000 1 0.00000000 0.00000000 0.00000000 0.00000000
Neuron 3 1 0.00000000 1 0.00000000 0.00000000 0.00000000 0.00000000
Neuron 4 1 0.00000000 1 0.00000000 0.00000000 0.00000000 0.00000000
Neuron 5 1 0.00000000 1 0.00000000 0.00000000 0.00000000 0.00000000
Neuron 6 2 0.00000000 1 0.00000000 0.00000000 0.00000000 0.00000000
Neuron 7 4 1.00000000 2 3.02500000 0.00000000 0.00000000 0.00000000
Neuron 8 4 1.00000000 2 3.02500000 0.00000000 0.00000000 0.00000000
Neuron 11 3 0.50000000 4 3.75850292 0.00000000 0.00000000 0.00000000
Neuron 14 3 0.75000000 6 1.39090960 0.00000000 0.00000000 0.00000000
Neuron 18 3 0.50000000 1 3.35266199 0.00000000 0.00000000 0.00000000
Neuron 33 3 0.75000000 10 0.84435021 0.00000000 0.00000000 0.00000000
Neuron 44 3 0.25000000 11 2.74716398 0.00000000 0.00000000 0.00000000
Neuron 47 3 0.75000000 4 5.77071015 0.00000000 0.00000000 0.00000000
Link 2 7 2 0 0.20115408
Link 3 7 3 0 0.42416928
Link 4 7 4 0 0.08126247
Link 5 7 5 0 0.28821307
Link 6 7 6 0 0.77570317
Link 1 8 7 0 0.72870820
Link 2 8 8 0 0.37368997
Link 4 8 10 0 0.10220051
Link 5 8 11 0 -1.13047956
Link 6 8 12 0 0.39766968
Link 11 14 30 0 -0.45057939
Link 14 8 31 0 -0.15698940
Link 4 14 43 0 0.35656072
