GenomeStart 10508
Neuron 1 1 0.00000000 1 0.00000000 0.00000000 0.00000000 0.00000000
Neuron 2 1 0.00000000 1 0.00000000 0.00000000 0.00000000 0.00000000
Neuron 3 1 0.00000000 1 0.00000000 0.00000000 0.00000000 0.00000000
Neuron 4 1 0.00000000 1 0.00000000 0.00000000 0.00000000 0.00000000
Neuron 5 2 0.00000000 1 0.00000000 0.00000000 0.00000000 0.00000000
Neuron 6 4 1.00000000 1 3.02500000 0.00000000 0.00000000 0.00000000
Neuron 7 4 1.00000000 1 3.02500000 0.00000000 0.00000000 0.00000000
Neuron 8 3 0.50000000 6 5.53755917 0.00000000 0.00000000 0.00000000
Neuron 9 3 0.50000000 11 5.88186454 0.00000000 0.00000000 0.00000000
Neuron 10 3 0.50000000 4 1.17667909 0.00000000 0.00000000 0.00000000
Link 1 6 1 0 -0.27399501
Link 2 6 2 0 -0.60056064
Link 3 6 3 0 0.50958856
Link 5 6 5 0 -0.19858549
Link 1 7 6 0 0.70515743
Link 5 7 10 0 -0.42070077
Link 4 8 12 0 1.07785729
Link 8 7 13 0 0.32234593
Link 4 9 16 0 0.95712990
Link 9 6 17 0 -0.18254084
Link 2 10 23 0 1.12801137
Link 10 7 24 0 0.55761324
Link 2 8 33 0 0.44039496
GenomeEnd

