GenomeStart 7000
Neuron 1 1 0.00000000 1 0.00000000 0.00000000 0.00000000 0.00000000
Neuron 2 1 0.00000000 1 0.00000000 0.00000000 0.00000000 0.00000000
Neuron 3 1 0.00000000 1 0.00000000 0.00000000 0.00000000 0.00000000
Neuron 4 1 0.00000000 1 0.00000000 0.00000000 0.00000000 0.00000000
Neuron 5 1 0.00000000 1 0.00000000 0.00000000 0.00000000 0.00000000
Neuron 6 2 0.00000000 1 0.00000000 0.00000000 0.00000000 0.00000000
Neuron 7 4 1.00000000 1 3.02500000 0.00000000 0.00000000 0.00000000
Neuron 8 4 1.00000000 1 3.02500000 0.00000000 0.00000000 0.00000000
Neuron 9 4 1.00000000 5 3.02500000 0.00000000 0.00000000 0.00000000
Neuron 14 3 0.50000000 2 5.42175555 0.00000000 0.00000000 0.00000000
Neuron 15 3 0.50000000 11 1.64473542 0.00000000 0.00000000 0.00000000
Neuron 16 3 0.50000000 1 0.20480735 0.00000000 0.00000000 0.00000000
Link 2 7 2 0 2.04510219
Link 3 7 3 0 -5.17405576
Link 5 7 5 0 1.48662626
Link 6 7 6 0 -2.69305343
Link 1 8 7 0 -1.30816193
Link 2 8 8 0 0.37372913
Link 3 8 9 0 -2.13102638
Link 4 8 10 0 0.36331116
Link 5 8 11 0 2.97565593
Link 6 8 12 0 -0.23532136
Link 1 9 13 0 -0.34650843
Link 3 9 15 0 3.23802143
Link 4 9 16 0 -0.90182169
Link 5 9 17 0 3.12204870
Link 6 9 18 0 -0.16119340
Link 2 14 34 0 0.82900070
Link 14 9 35 0 2.71402196
Link 4 15 39 0 2.64005725
Link 15 7 40 0 -0.62001663
Link 1 16 44 0 -2.55197089
Link 16 7 45 0 0.98453651
GenomeEnd

