GenomeStart 8800
Neuron 1 1 0.00000000 1 0.00000000 0.00000000 0.00000000 0.00000000
Neuron 2 1 0.00000000 1 0.00000000 0.00000000 0.00000000 0.00000000
Neuron 3 1 0.00000000 1 0.00000000 0.00000000 0.00000000 0.00000000
Neuron 4 1 0.00000000 1 0.00000000 0.00000000 0.00000000 0.00000000
Neuron 5 1 0.00000000 1 0.00000000 0.00000000 0.00000000 0.00000000
Neuron 6 2 0.00000000 1 0.00000000 0.00000000 0.00000000 0.00000000
Neuron 7 4 1.00000000 1 3.02500000 0.00000000 0.00000000 0.00000000
Neuron 8 4 1.00000000 1 3.02500000 0.00000000 0.00000000 0.00000000
Neuron 9 4 1.00000000 5 3.02500000 0.00000000 0.00000000 0.00000000
Neuron 10 3 0.50000000 1 3.19454225 0.00000000 0.00000000 0.00000000
Neuron 15 3 0.50000000 6 2.99090618 0.00000000 0.00000000 0.00000000
Link 1 7 1 0 -1.12143784
Link 3 7 3 0 -0.75193767
Link 5 7 5 0 -1.09663885
Link 6 7 6 0 -0.26888234
Link 1 8 7 0 2.95438652
Link 2 8 8 0 -0.79085245
Link 3 8 9 0 -3.13336852
Link 4 8 10 0 -0.60872087
Link 5 8 11 0 0.97279910
Link 6 8 12 0 -1.71781030
Link 1 9 13 0 -0.11277410
Link 2 9 14 0 1.06155585
Link 3 9 15 0 -2.46548533
Link 4 9 16 0 -0.66838827
Link 5 9 17 0 -0.48820977
Link 6 9 18 0 -0.91003538
Link 2 10 20 0 0.52997748
Link 10 7 21 0 1.44994354
Link 4 15 39 0 1.45759495
Link 15 7 40 0 1.68194214
GenomeEnd

