GenomeStart 14250
Neuron 1 1 0.00000000 1 0.00000000 0.00000000 0.00000000 0.00000000
Neuron 2 1 0.00000000 1 0.00000000 0.00000000 0.00000000 0.00000000
Neuron 3 1 0.00000000 1 0.00000000 0.00000000 0.00000000 0.00000000
Neuron 4 1 0.00000000 1 0.00000000 0.00000000 0.00000000 0.00000000
Neuron 5 1 0.00000000 1 0.00000000 0.00000000 0.00000000 0.00000000
Neuron 6 2 0.00000000 1 0.00000000 0.00000000 0.00000000 0.00000000
Neuron 7 4 1.00000000 1 3.02500000 0.00000000 0.00000000 0.00000000
Neuron 8 4 1.00000000 1 3.02500000 0.00000000 0.00000000 0.00000000
Neuron 9 4 1.00000000 9 3.02500000 0.00000000 0.00000000 0.00000000
Neuron 13 3 0.50000000 4 4.21256114 0.00000000 0.00000000 0.00000000
Neuron 16 3 0.50000000 1 2.37820679 0.00000000 0.00000000 0.00000000
Link 2 7 2 0 -2.29830423
Link 3 7 3 0 -0.84622970
Link 4 7 4 0 1.87359890
Link 5 7 5 0 -3.30148731
Link 6 7 6 0 3.23655539
Link 1 8 7 0 4.13586864
Link 3 8 9 0 0.80462070
Link 4 8 10 0 0.18885906
Link 5 8 11 0 0.69134448
Link 6 8 12 0 1.90170523
Link 1 9 13 0 0.08555887
Link 2 9 14 0 0.33537662
Link 3 9 15 0 2.59961989
Link 4 9 16 0 0.19571463
Link 5 9 17 0 -0.21358705
Link 6 9 18 0 -2.16874951
Link 2 13 29 0 -3.65497707
Link 13 8 30 0 0.68078720
Link 1 16 44 0 1.36041249
Link 16 7 45 0 0.06071931
GenomeEnd

