GenomeStart 7625
Neuron 1 1 0.00000000 1 0.00000000 0.00000000 0.00000000 0.00000000
Neuron 2 1 0.00000000 1 0.00000000 0.00000000 0.00000000 0.00000000
Neuron 3 1 0.00000000 1 0.00000000 0.00000000 0.00000000 0.00000000
Neuron 4 1 0.00000000 1 0.00000000 0.00000000 0.00000000 0.00000000
Neuron 5 1 0.00000000 1 0.00000000 0.00000000 0.00000000 0.00000000
Neuron 6 2 0.00000000 1 0.00000000 0.00000000 0.00000000 0.00000000
Neuron 7 4 1.00000000 1 3.02500000 0.00000000 0.00000000 0.00000000
Neuron 8 4 1.00000000 1 3.02500000 0.00000000 0.00000000 0.00000000
Neuron 9 4 1.00000000 5 3.02500000 0.00000000 0.00000000 0.00000000
Neuron 10 3 0.50000000 1 3.19454225 0.00000000 0.00000000 0.00000000
Neuron 15 3 0.50000000 6 2.99090618 0.00000000 0.00000000 0.00000000
Link 1 7 1 0 0.61065523
Link 3 7 3 0 0.61579077
Link 5 7 5 0 -0.39400055
Link 6 7 6 0 1.37981528
Link 1 8 7 0 2.33804114
Link 2 8 8 0 -1.47100069
Link 3 8 9 0 -1.18359261
Link 4 8 10 0 -0.65777421
Link 5 8 11 0 1.68350201
Link 6 8 12 0 -1.08048856
Link 1 9 13 0 -0.95422573
Link 2 9 14 0 1.65600116
Link 3 9 15 0 -3.32533400
Link 4 9 16 0 1.05181732
Link 5 9 17 0 -0.03336157
Link 6 9 18 0 2.29923271
Link 2 10 20 0 2.35961740
Link 10 7 21 0 2.05348334
Link 4 15 39 0 1.64474889
Link 15 7 40 0 2.78339215
GenomeEnd

