GenomeStart 13591
Neuron 1 1 0.00000000 1 0.00000000 0.00000000 0.00000000 0.00000000
Neuron 2 1 0.00000000 1 0.00000000 0.00000000 0.00000000 0.00000000
Neuron 3 1 0.00000000 1 0.00000000 0.00000000 0.00000000 0.00000000
Neuron 4 1 0.00000000 1 0.00000000 0.00000000 0.00000000 0.00000000
Neuron 5 1 0.00000000 1 0.00000000 0.00000000 0.00000000 0.00000000
Neuron 6 2 0.00000000 1 0.00000000 0.00000000 0.00000000 0.00000000
Neuron 7 4 1.00000000 1 3.02500000 0.00000000 0.00000000 0.00000000
Neuron 8 4 1.00000000 2 3.02500000 0.00000000 0.00000000 0.00000000
Neuron 9 4 1.00000000 9 3.02500000 0.00000000 0.00000000 0.00000000
Neuron 13 3 0.50000000 4 4.21256114 0.00000000 0.00000000 0.00000000
Neuron 14 3 0.50000000 6 5.57568764 0.00000000 0.00000000 0.00000000
Neuron 20 3 0.50000000 4 1.76846404 0.00000000 0.00000000 0.00000000
Neuron 26 3 0.50000000 6 5.03953990 0.00000000 0.00000000 0.00000000
Neuron 30 3 0.25000000 4 1.49749014 0.00000000 0.00000000 0.00000000
Link 1 7 1 0 0.83541306
Link 2 7 2 0 1.98392909
Link 3 7 3 0 0.01266712
Link 4 7 4 0 1.82886329
Link 6 7 6 0 3.74397757
Link 1 8 7 0 2.89990520
Link 3 8 9 0 3.31344103
Link 4 8 10 0 1.62213779
Link 5 8 11 0 -0.69808383
Link 6 8 12 0 5.61949220
Link 3 9 15 0 3.83330459
Link 4 9 16 0 -0.28858864
Link 5 9 17 0 -0.46005620
Link 6 9 18 0 -2.85433022
Link 2 13 29 0 3.53868945
Link 13 8 30 0 -0.42334430
Link 2 14 34 0 0.96945854
Link 14 9 35 0 -4.23034380
Link 20 9 59 0 -0.94316382
Link 5 26 109 0 1.30477770
Link 26 7 110 0 1.50326844
Link 1 30 139 0 1.00000000
Link 30 20 140 0 1.82368182
GenomeEnd

