GenomeStart 450
Neuron 1 1 0.00000000 1 0.00000000 0.00000000 0.00000000 0.00000000
Neuron 2 1 0.00000000 1 0.00000000 0.00000000 0.00000000 0.00000000
Neuron 3 1 0.00000000 1 0.00000000 0.00000000 0.00000000 0.00000000
Neuron 4 1 0.00000000 1 0.00000000 0.00000000 0.00000000 0.00000000
Neuron 5 1 0.00000000 1 0.00000000 0.00000000 0.00000000 0.00000000
Neuron 6 2 0.00000000 1 0.00000000 0.00000000 0.00000000 0.00000000
Neuron 7 4 1.00000000 1 3.02500000 0.00000000 0.00000000 0.00000000
Neuron 8 4 1.00000000 1 3.02500000 0.00000000 0.00000000 0.00000000
Neuron 9 4 1.00000000 5 3.02500000 0.00000000 0.00000000 0.00000000
Link 1 7 1 0 1.06065477
Link 2 7 2 0 -1.14725508
Link 3 7 3 0 3.87650019
Link 4 7 4 0 -0.29357783
Link 5 7 5 0 -0.66629885
Link 6 7 6 0 -1.95954058
Link 1 8 7 0 0.01191475
Link 2 8 8 0 -0.26787688
Link 3 8 9 0 -0.89403064
Link 4 8 10 0 1.01612254
Link 5 8 11 0 -1.01064390
Link 6 8 12 0 -1.10860142
Link 1 9 13 0 0.75713913
Link 2 9 14 0 3.43738338
Link 3 9 15 0 2.04216842
Link 4 9 16 0 0.64346464
Link 5 9 17 0 0.47217676
Link 6 9 18 0 0.18571742
GenomeEnd

