GenomeStart 6498
Neuron 1 1 0.00000000 1 0.00000000 0.00000000 0.00000000 0.00000000
Neuron 2 1 0.00000000 1 0.00000000 0.00000000 0.00000000 0.00000000
Neuron 3 1 0.00000000 1 0.00000000 0.00000000 0.00000000 0.00000000
Neuron 4 1 0.00000000 1 0.00000000 0.00000000 0.00000000 0.00000000
Neuron 5 1 0.00000000 1 0.00000000 0.00000000 0.00000000 0.00000000
Neuron 6 2 0.00000000 1 0.00000000 0.00000000 0.00000000 0.00000000
Neuron 7 4 1.00000000 1 3.02500000 0.00000000 0.00000000 0.00000000
Neuron 8 4 1.00000000 1 3.02500000 0.00000000 0.00000000 0.00000000
Neuron 9 4 1.00000000 5 3.02500000 0.00000000 0.00000000 0.00000000
Neuron 14 3 0.50000000 2 5.42175555 0.00000000 0.00000000 0.00000000
Neuron 15 3 0.50000000 11 1.64473542 0.00000000 0.00000000 0.00000000
Neuron 16 3 0.50000000 1 0.20480735 0.00000000 0.00000000 0.00000000
Link 2 7 2 0 2.43660581
Link 3 7 3 0 -4.70626905
Link 5 7 5 0 1.29399318
Link 6 7 6 0 -2.71597725
Link 1 8 7 0 -1.46095927
Link 2 8 8 0 0.46670852
Link 3 8 9 0 -1.49663786
Link 4 8 10 0 0.13503348
Link 5 8 11 0 0.95144033
Link 6 8 12 0 0.28510988
Link 1 9 13 0 -0.30105316
Link 3 9 15 0 -1.78053172
Link 4 9 16 0 -1.29741146
Link 5 9 17 0 2.90327930
Link 6 9 18 0 -0.79212493
Link 2 14 34 0 1.00000000
Link 14 9 35 0 2.34170744
Link 4 15 39 0 2.05777239
Link 15 7 40 0 -0.50654343
Link 1 16 44 0 0.21395483
Link 16 7 45 0 1.44846245
GenomeEnd

