GenomeStart 12688
Neuron 1 1 0.00000000 1 0.00000000 0.00000000 0.00000000 0.00000000
Neuron 2 1 0.00000000 1 0.00000000 0.00000000 0.00000000 0.00000000
Neuron 3 1 0.00000000 1 0.00000000 0.00000000 0.00000000 0.00000000
Neuron 4 1 0.00000000 1 0.00000000 0.00000000 0.00000000 0.00000000
Neuron 5 1 0.00000000 1 0.00000000 0.00000000 0.00000000 0.00000000
Neuron 6 2 0.00000000 1 0.00000000 0.00000000 0.00000000 0.00000000
Neuron 7 4 1.00000000 1 3.02500000 0.00000000 0.00000000 0.00000000
Neuron 8 4 1.00000000 1 3.02500000 0.00000000 0.00000000 0.00000000
Neuron 9 4 1.00000000 9 3.02500000 0.00000000 0.00000000 0.00000000
Neuron 13 3 0.50000000 4 4.21256114 0.00000000 0.00000000 0.00000000
Neuron 14 3 0.50000000 6 5.57568764 0.00000000 0.00000000 0.00000000
Neuron 20 3 0.50000000 4 1.76846404 0.00000000 0.00000000 0.00000000
Neuron 26 3 0.50000000 6 5.03953990 0.00000000 0.00000000 0.00000000
Link 1 7 1 0 1.70718243
Link 2 7 2 0 1.75006507
Link 3 7 3 0 0.10375719
Link 4 7 4 0 2.81086081
Link 6 7 6 0 4.50977834
Link 1 8 7 0 3.54610970
Link 3 8 9 0 2.82037986
Link 4 8 10 0 1.27890538
Link 5 8 11 0 -0.48840635
Link 6 8 12 0 1.30610286
Link 3 9 15 0 3.10582407
Link 4 9 16 0 0.55375365
Link 5 9 17 0 -2.93333840
Link 6 9 18 0 -2.21958304
Link 2 13 29 0 3.28819358
Link 13 8 30 0 1.05959378
Link 2 14 34 0 0.43308889
Link 14 9 35 0 -4.07690608
Link 1 20 58 0 1.18082426
Link 20 9 59 0 -0.32465046
Link 5 26 109 0 1.20551820
Link 26 7 110 0 1.99147950
GenomeEnd

