GenomeStart 9132
Neuron 1 1 0.00000000 1 0.00000000 0.00000000 0.00000000 0.00000000
Neuron 2 1 0.00000000 1 0.00000000 0.00000000 0.00000000 0.00000000
Neuron 3 1 0.00000000 1 0.00000000 0.00000000 0.00000000 0.00000000
Neuron 4 1 0.00000000 1 0.00000000 0.00000000 0.00000000 0.00000000
Neuron 5 1 0.00000000 1 0.00000000 0.00000000 0.00000000 0.00000000
Neuron 6 2 0.00000000 1 0.00000000 0.00000000 0.00000000 0.00000000
Neuron 7 4 1.00000000 1 3.02500000 0.00000000 0.00000000 0.00000000
Neuron 8 4 1.00000000 1 3.02500000 0.00000000 0.00000000 0.00000000
Neuron 9 4 1.00000000 9 3.02500000 0.00000000 0.00000000 0.00000000
Neuron 13 3 0.50000000 4 4.21256114 0.00000000 0.00000000 0.00000000
Neuron 26 3 0.50000000 2 3.76132214 0.00000000 0.00000000 0.00000000
Link 1 7 1 0 0.18524371
Link 2 7 2 0 -3.69737309
Link 3 7 3 0 1.37566377
Link 4 7 4 0 3.09620501
Link 6 7 6 0 2.85460780
Link 1 8 7 0 0.21904247
Link 3 8 9 0 0.50691505
Link 4 8 10 0 -0.31015471
Link 5 8 11 0 -3.58093389
Link 6 8 12 0 5.94644888
Link 1 9 13 0 -0.62286712
Link 2 9 14 0 2.44022705
Link 3 9 15 0 2.33969262
Link 4 9 16 0 -3.86313600
Link 5 9 17 0 2.58802319
Link 6 9 18 0 -4.57979796
Link 2 13 29 0 2.74164722
Link 13 8 30 0 0.10434536
Link 5 26 109 0 1.00000000
Link 26 7 110 0 -0.36912827
GenomeEnd

