GenomeStart 10351
Neuron 1 1 0.00000000 1 0.00000000 0.00000000 0.00000000 0.00000000
Neuron 2 1 0.00000000 1 0.00000000 0.00000000 0.00000000 0.00000000
Neuron 3 1 0.00000000 1 0.00000000 0.00000000 0.00000000 0.00000000
Neuron 4 1 0.00000000 1 0.00000000 0.00000000 0.00000000 0.00000000
Neuron 5 1 0.00000000 1 0.00000000 0.00000000 0.00000000 0.00000000
Neuron 6 2 0.00000000 1 0.00000000 0.00000000 0.00000000 0.00000000
Neuron 7 4 1.00000000 1 3.02500000 0.00000000 0.00000000 0.00000000
Neuron 8 4 1.00000000 1 3.02500000 0.00000000 0.00000000 0.00000000
Neuron 9 4 1.00000000 9 3.02500000 0.00000000 0.00000000 0.00000000
Neuron 13 3 0.50000000 4 4.21256114 0.00000000 0.00000000 0.00000000
Neuron 17 3 0.50000000 2 0.69606431 0.00000000 0.00000000 0.00000000
Link 1 7 1 0 0.89339256
Link 2 7 2 0 -4.34600371
Link 4 7 4 0 1.74081433
Link 5 7 5 0 1.33077215
Link 6 7 6 0 4.01996157
Link 1 8 7 0 0.60069002
Link 3 8 9 0 0.02623837
Link 4 8 10 0 0.33813757
Link 5 8 11 0 -1.15557269
Link 6 8 12 0 5.27771673
Link 1 9 13 0 -0.92863551
Link 2 9 14 0 -3.26949419
Link 3 9 15 0 2.75591195
Link 4 9 16 0 -0.70384063
Link 5 9 17 0 1.93915148
Link 6 9 18 0 -3.62625579
Link 2 13 29 0 3.15160855
Link 13 8 30 0 0.51969711
Link 3 17 47 0 1.00000000
Link 17 7 48 0 0.97622188
GenomeEnd

