GenomeStart 8950
Neuron 1 1 0.00000000 1 0.00000000 0.00000000 0.00000000 0.00000000
Neuron 2 1 0.00000000 1 0.00000000 0.00000000 0.00000000 0.00000000
Neuron 3 1 0.00000000 1 0.00000000 0.00000000 0.00000000 0.00000000
Neuron 4 1 0.00000000 1 0.00000000 0.00000000 0.00000000 0.00000000
Neuron 5 1 0.00000000 1 0.00000000 0.00000000 0.00000000 0.00000000
Neuron 6 2 0.00000000 1 0.00000000 0.00000000 0.00000000 0.00000000
Neuron 7 4 1.00000000 1 3.02500000 0.00000000 0.00000000 0.00000000
Neuron 8 4 1.00000000 1 3.02500000 0.00000000 0.00000000 0.00000000
Neuron 9 4 1.00000000 5 3.02500000 0.00000000 0.00000000 0.00000000
Neuron 10 3 0.50000000 1 3.19454225 0.00000000 0.00000000 0.00000000
Neuron 15 3 0.50000000 6 2.99090618 0.00000000 0.00000000 0.00000000
Link 1 7 1 0 -0.73053157
Link 3 7 3 0 0.39458899
Link 5 7 5 0 -1.19462020
Link 6 7 6 0 -1.01598850
Link 1 8 7 0 2.92819703
Link 2 8 8 0 0.44746179
Link 3 8 9 0 -2.76223205
Link 4 8 10 0 -0.45283179
Link 5 8 11 0 0.75629923
Link 6 8 12 0 -2.20331183
Link 1 9 13 0 -1.17617400
Link 2 9 14 0 1.53326717
Link 3 9 15 0 -2.43998783
Link 4 9 16 0 0.06126209
Link 5 9 17 0 -1.83554334
Link 6 9 18 0 -0.53150776
Link 2 10 20 0 0.87970996
Link 10 7 21 0 1.04761570
Link 4 15 39 0 1.56840879
Link 15 7 40 0 2.61069118
GenomeEnd

