GenomeStart 3071
Neuron 1 1 0.00000000 1 0.00000000 0.00000000 0.00000000 0.00000000
Neuron 2 1 0.00000000 1 0.00000000 0.00000000 0.00000000 0.00000000
Neuron 3 1 0.00000000 1 0.00000000 0.00000000 0.00000000 0.00000000
Neuron 4 1 0.00000000 1 0.00000000 0.00000000 0.00000000 0.00000000
Neuron 5 1 0.00000000 1 0.00000000 0.00000000 0.00000000 0.00000000
Neuron 6 2 0.00000000 1 0.00000000 0.00000000 0.00000000 0.00000000
Neuron 7 4 1.00000000 1 3.02500000 0.00000000 0.00000000 0.00000000
Neuron 8 4 1.00000000 1 3.02500000 0.00000000 0.00000000 0.00000000
Neuron 9 4 1.00000000 5 3.02500000 0.00000000 0.00000000 0.00000000
Neuron 11 3 0.50000000 4 4.57749742 0.00000000 0.00000000 0.00000000
Neuron 15 3 0.50000000 11 1.64473542 0.00000000 0.00000000 0.00000000
Neuron 16 3 0.50000000 1 0.20480735 0.00000000 0.00000000 0.00000000
Link 2 7 2 0 1.64423356
Link 3 7 3 0 -5.40899774
Link 5 7 5 0 1.34317507
Link 6 7 6 0 -2.87391759
Link 1 8 7 0 -0.49681882
Link 2 8 8 0 0.51553787
Link 3 8 9 0 -1.74021167
Link 4 8 10 0 0.01654963
Link 5 8 11 0 -0.73572266
Link 6 8 12 0 -0.99477896
Link 1 9 13 0 -0.42999691
Link 2 9 14 0 0.45514970
Link 4 9 16 0 5.51481387
Link 5 9 17 0 -2.53596518
Link 6 9 18 0 -0.66012289
Link 3 11 23 0 0.25614547
Link 11 9 24 0 -0.42474807
Link 4 15 39 0 0.91083628
Link 15 7 40 0 0.98272463
Link 1 16 44 0 0.66167015
Link 16 7 45 0 -2.87635322
GenomeEnd

