GenomeStart 8507
Neuron 1 1 0.00000000 1 0.00000000 0.00000000 0.00000000 0.00000000
Neuron 2 1 0.00000000 1 0.00000000 0.00000000 0.00000000 0.00000000
Neuron 3 1 0.00000000 1 0.00000000 0.00000000 0.00000000 0.00000000
Neuron 4 1 0.00000000 1 0.00000000 0.00000000 0.00000000 0.00000000
Neuron 5 1 0.00000000 1 0.00000000 0.00000000 0.00000000 0.00000000
Neuron 6 2 0.00000000 1 0.00000000 0.00000000 0.00000000 0.00000000
Neuron 7 4 1.00000000 1 3.02500000 0.00000000 0.00000000 0.00000000
Neuron 8 4 1.00000000 1 3.02500000 0.00000000 0.00000000 0.00000000
Neuron 9 4 1.00000000 5 3.02500000 0.00000000 0.00000000 0.00000000
Neuron 10 3 0.50000000 1 3.19454225 0.00000000 0.00000000 0.00000000
Neuron 15 3 0.50000000 6 2.99090618 0.00000000 0.00000000 0.00000000
Link 1 7 1 0 0.23701056
Link 3 7 3 0 0.77188083
Link 5 7 5 0 -0.21207873
Link 6 7 6 0 0.26601065
Link 1 8 7 0 3.57939454
Link 2 8 8 0 -1.57252373
Link 3 8 9 0 -1.31797737
Link 4 8 10 0 -0.53579339
Link 5 8 11 0 0.76444955
Link 6 8 12 0 -1.61180128
Link 1 9 13 0 -1.34590924
Link 2 9 14 0 1.45162373
Link 3 9 15 0 -3.38346481
Link 4 9 16 0 0.79154436
Link 5 9 17 0 0.22211974
Link 6 9 18 0 4.26570707
Link 2 10 20 0 1.85092537
Link 10 7 21 0 1.26658866
Link 4 15 39 0 1.84535619
Link 15 7 40 0 2.66680071
GenomeEnd

