GenomeStart 4455
Neuron 1 1 0.00000000 1 0.00000000 0.00000000 0.00000000 0.00000000
Neuron 2 1 0.00000000 1 0.00000000 0.00000000 0.00000000 0.00000000
Neuron 3 1 0.00000000 1 0.00000000 0.00000000 0.00000000 0.00000000
Neuron 4 1 0.00000000 1 0.00000000 0.00000000 0.00000000 0.00000000
Neuron 5 1 0.00000000 1 0.00000000 0.00000000 0.00000000 0.00000000
Neuron 6 2 0.00000000 1 0.00000000 0.00000000 0.00000000 0.00000000
Neuron 7 4 1.00000000 1 3.02500000 0.00000000 0.00000000 0.00000000
Neuron 8 4 1.00000000 1 3.02500000 0.00000000 0.00000000 0.00000000
Neuron 9 4 1.00000000 5 3.02500000 0.00000000 0.00000000 0.00000000
Neuron 12 3 0.50000000 4 0.59996514 0.00000000 0.00000000 0.00000000
Link 1 7 1 0 -0.97821508
Link 2 7 2 0 -0.96522644
Link 3 7 3 0 -1.37646419
Link 4 7 4 0 1.36821031
Link 5 7 5 0 -1.56217433
Link 6 7 6 0 0.08587923
Link 1 8 7 0 0.67719597
Link 2 8 8 0 1.21467273
Link 4 8 10 0 -1.80935367
Link 5 8 11 0 3.28780104
Link 6 8 12 0 -1.10933979
Link 1 9 13 0 -3.18995277
Link 2 9 14 0 0.00014531
Link 3 9 15 0 3.33082811
Link 4 9 16 0 -2.50617594
Link 5 9 17 0 -1.04422597
Link 6 9 18 0 -0.12627968
Link 3 12 26 0 1.09595213
Link 12 8 27 0 1.63864756
GenomeEnd

