GenomeStart 2687
Neuron 1 1 0.00000000 1 0.00000000 0.00000000 0.00000000 0.00000000
Neuron 2 1 0.00000000 1 0.00000000 0.00000000 0.00000000 0.00000000
Neuron 3 1 0.00000000 1 0.00000000 0.00000000 0.00000000 0.00000000
Neuron 4 1 0.00000000 1 0.00000000 0.00000000 0.00000000 0.00000000
Neuron 5 1 0.00000000 1 0.00000000 0.00000000 0.00000000 0.00000000
Neuron 6 2 0.00000000 1 0.00000000 0.00000000 0.00000000 0.00000000
Neuron 7 4 1.00000000 1 3.02500000 0.00000000 0.00000000 0.00000000
Neuron 8 4 1.00000000 1 3.02500000 0.00000000 0.00000000 0.00000000
Neuron 9 4 1.00000000 5 3.02500000 0.00000000 0.00000000 0.00000000
Neuron 15 3 0.50000000 11 1.64473542 0.00000000 0.00000000 0.00000000
Neuron 17 3 0.50000000 2 5.53871739 0.00000000 0.00000000 0.00000000
Neuron 19 3 0.75000000 2 0.53464144 0.00000000 0.00000000 0.00000000
Neuron 20 3 0.50000000 11 3.24233374 0.00000000 0.00000000 0.00000000
Link 1 7 1 0 -0.15310168
Link 2 7 2 0 2.06670186
Link 5 7 5 0 1.27541155
Link 6 7 6 0 2.18351981
Link 1 8 7 0 -1.31702758
Link 2 8 8 0 4.16889268
Link 3 8 9 0 -0.82491743
Link 4 8 10 0 0.23778584
Link 5 8 11 0 -0.82907319
Link 6 8 12 0 -0.81698878
Link 2 9 14 0 1.45977924
Link 3 9 15 0 -1.27091455
Link 4 9 16 0 5.21488962
Link 5 9 17 0 -2.91868455
Link 6 9 18 0 -1.42780771
Link 4 15 39 0 1.95116968
Link 15 7 40 0 0.43455509
Link 3 17 47 0 0.85679809
Link 17 19 55 0 0.86657649
Link 19 7 56 0 3.94274031
Link 1 20 58 0 1.00000000
Link 20 9 59 0 -0.12134302
GenomeEnd

