GenomeStart 4559
Neuron 1 1 0.00000000 1 0.00000000 0.00000000 0.00000000 0.00000000
Neuron 2 1 0.00000000 1 0.00000000 0.00000000 0.00000000 0.00000000
Neuron 3 1 0.00000000 1 0.00000000 0.00000000 0.00000000 0.00000000
Neuron 4 1 0.00000000 1 0.00000000 0.00000000 0.00000000 0.00000000
Neuron 5 1 0.00000000 1 0.00000000 0.00000000 0.00000000 0.00000000
Neuron 6 2 0.00000000 1 0.00000000 0.00000000 0.00000000 0.00000000
Neuron 7 4 1.00000000 1 3.02500000 0.00000000 0.00000000 0.00000000
Neuron 8 4 1.00000000 1 3.02500000 0.00000000 0.00000000 0.00000000
Neuron 9 4 1.00000000 5 3.02500000 0.00000000 0.00000000 0.00000000
Neuron 15 3 0.50000000 11 1.64473542 0.00000000 0.00000000 0.00000000
Neuron 17 3 0.50000000 2 5.53871739 0.00000000 0.00000000 0.00000000
Neuron 19 3 0.75000000 2 0.53464144 0.00000000 0.00000000 0.00000000
Link 1 7 1 0 1.26847356
Link 2 7 2 0 0.81831293
Link 5 7 5 0 0.13034006
Link 6 7 6 0 -3.00279111
Link 1 8 7 0 -1.07299790
Link 2 8 8 0 3.33267260
Link 3 8 9 0 -4.57760714
Link 4 8 10 0 -2.13826885
Link 5 8 11 0 -0.02861607
Link 6 8 12 0 -1.09241708
Link 1 9 13 0 -0.25681627
Link 2 9 14 0 1.63412583
Link 3 9 15 0 0.46632109
Link 4 9 16 0 -2.48260312
Link 5 9 17 0 -4.21439708
Link 6 9 18 0 -4.14256113
Link 4 15 39 0 -2.72139928
Link 15 7 40 0 -2.09236829
Link 3 17 47 0 -0.30989248
Link 17 19 55 0 -3.17525114
Link 19 7 56 0 0.08454139
GenomeEnd

