GenomeStart 1435
Neuron 1 1 0.00000000 1 0.00000000 0.00000000 0.00000000 0.00000000
Neuron 2 1 0.00000000 1 0.00000000 0.00000000 0.00000000 0.00000000
Neuron 3 1 0.00000000 1 0.00000000 0.00000000 0.00000000 0.00000000
Neuron 4 1 0.00000000 1 0.00000000 0.00000000 0.00000000 0.00000000
Neuron 5 1 0.00000000 1 0.00000000 0.00000000 0.00000000 0.00000000
Neuron 6 2 0.00000000 1 0.00000000 0.00000000 0.00000000 0.00000000
Neuron 7 4 1.00000000 1 3.02500000 0.00000000 0.00000000 0.00000000
Neuron 8 4 1.00000000 1 3.02500000 0.00000000 0.00000000 0.00000000
Neuron 9 4 1.00000000 5 3.02500000 0.00000000 0.00000000 0.00000000
Neuron 12 3 0.50000000 2 0.59996514 0.00000000 0.00000000 0.00000000
Neuron 14 3 0.50000000 6 2.62223523 0.00000000 0.00000000 0.00000000
Link 1 7 1 0 -1.80698999
Link 2 7 2 0 -0.79354616
Link 3 7 3 0 -0.38133810
Link 4 7 4 0 -0.21583337
Link 5 7 5 0 -1.93795620
Link 6 7 6 0 0.91402406
Link 1 8 7 0 0.15438484
Link 2 8 8 0 1.45510290
Link 4 8 10 0 -1.67823299
Link 5 8 11 0 -1.14175157
Link 6 8 12 0 -1.09985142
Link 1 9 13 0 -0.61137195
Link 3 9 15 0 1.21060485
Link 4 9 16 0 -0.14678200
Link 5 9 17 0 -1.62659264
Link 6 9 18 0 0.59425581
Link 3 12 26 0 2.06016151
Link 12 8 27 0 -0.54632479
Link 2 14 34 0 1.00000000
Link 14 9 35 0 2.28727053
GenomeEnd

