GenomeStart 13740
Neuron 1 1 0.00000000 1 0.00000000 0.00000000 0.00000000 0.00000000
Neuron 2 1 0.00000000 1 0.00000000 0.00000000 0.00000000 0.00000000
Neuron 3 1 0.00000000 1 0.00000000 0.00000000 0.00000000 0.00000000
Neuron 4 1 0.00000000 1 0.00000000 0.00000000 0.00000000 0.00000000
Neuron 5 1 0.00000000 1 0.00000000 0.00000000 0.00000000 0.00000000
Neuron 6 2 0.00000000 1 0.00000000 0.00000000 0.00000000 0.00000000
Neuron 7 4 1.00000000 1 3.02500000 0.00000000 0.00000000 0.00000000
Neuron 8 4 1.00000000 2 3.02500000 0.00000000 0.00000000 0.00000000
Neuron 9 4 1.00000000 9 3.02500000 0.00000000 0.00000000 0.00000000
Neuron 13 3 0.50000000 4 4.21256114 0.00000000 0.00000000 0.00000000
Neuron 14 3 0.50000000 6 5.57568764 0.00000000 0.00000000 0.00000000
Neuron 20 3 0.50000000 4 1.76846404 0.00000000 0.00000000 0.00000000
Neuron 26 3 0.50000000 6 5.03953990 0.00000000 0.00000000 0.00000000
Link 1 7 1 0 1.62081110
Link 2 7 2 0 1.98392909
Link 3 7 3 0 -1.08824745
Link 4 7 4 0 0.60284815
Link 6 7 6 0 3.74397757
Link 1 8 7 0 3.04850248
Link 3 8 9 0 3.56351544
Link 4 8 10 0 0.40561625
Link 5 8 11 0 -0.69808383
Link 6 8 12 0 5.61949220
Link 3 9 15 0 3.05142487
Link 4 9 16 0 -0.48361215
Link 5 9 17 0 -0.46005620
Link 6 9 18 0 -2.12600631
Link 2 13 29 0 3.72827224
Link 13 8 30 0 -0.42334430
Link 2 14 34 0 0.96945854
Link 14 9 35 0 -4.23034380
Link 1 20 58 0 0.63075620
Link 20 9 59 0 -0.94316382
Link 5 26 109 0 0.35102655
Link 26 7 110 0 1.50326844
GenomeEnd

