GenomeStart 9375
Neuron 1 1 0.00000000 1 0.00000000 0.00000000 0.00000000 0.00000000
Neuron 2 1 0.00000000 1 0.00000000 0.00000000 0.00000000 0.00000000
Neuron 3 1 0.00000000 1 0.00000000 0.00000000 0.00000000 0.00000000
Neuron 4 1 0.00000000 1 0.00000000 0.00000000 0.00000000 0.00000000
Neuron 5 1 0.00000000 1 0.00000000 0.00000000 0.00000000 0.00000000
Neuron 6 2 0.00000000 1 0.00000000 0.00000000 0.00000000 0.00000000
Neuron 7 4 1.00000000 1 3.02500000 0.00000000 0.00000000 0.00000000
Neuron 8 4 1.00000000 1 3.02500000 0.00000000 0.00000000 0.00000000
Neuron 9 4 1.00000000 5 3.02500000 0.00000000 0.00000000 0.00000000
Neuron 10 3 0.50000000 1 3.19454225 0.00000000 0.00000000 0.00000000
Neuron 15 3 0.50000000 6 2.99090618 0.00000000 0.00000000 0.00000000
Link 1 7 1 0 -0.39461866
Link 3 7 3 0 -0.55945167
Link 5 7 5 0 -2.72525493
Link 6 7 6 0 -0.26198537
Link 1 8 7 0 3.28765442
Link 2 8 8 0 -0.56397663
Link 3 8 9 0 -3.70250185
Link 4 8 10 0 1.22558259
Link 5 8 11 0 0.96534908
Link 6 8 12 0 -1.95499137
Link 1 9 13 0 0.31548298
Link 2 9 14 0 -0.13498150
Link 3 9 15 0 -1.22887477
Link 4 9 16 0 0.37363355
Link 5 9 17 0 -0.38283360
Link 6 9 18 0 -1.38623303
Link 2 10 20 0 0.99319399
Link 10 7 21 0 1.70236376
Link 4 15 39 0 1.84854864
Link 15 7 40 0 2.12416033
GenomeEnd

