GenomeStart 13889
Neuron 1 1 0.00000000 1 0.00000000 0.00000000 0.00000000 0.00000000
Neuron 2 1 0.00000000 1 0.00000000 0.00000000 0.00000000 0.00000000
Neuron 3 1 0.00000000 1 0.00000000 0.00000000 0.00000000 0.00000000
Neuron 4 1 0.00000000 1 0.00000000 0.00000000 0.00000000 0.00000000
Neuron 5 1 0.00000000 1 0.00000000 0.00000000 0.00000000 0.00000000
Neuron 6 2 0.00000000 1 0.00000000 0.00000000 0.00000000 0.00000000
Neuron 7 4 1.00000000 1 3.02500000 0.00000000 0.00000000 0.00000000
Neuron 8 4 1.00000000 1 3.02500000 0.00000000 0.00000000 0.00000000
Neuron 9 4 1.00000000 9 3.02500000 0.00000000 0.00000000 0.00000000
Neuron 13 3 0.50000000 4 4.21256114 0.00000000 0.00000000 0.00000000
Neuron 14 3 0.50000000 6 5.57568764 0.00000000 0.00000000 0.00000000
Neuron 20 3 0.50000000 1 1.76846404 0.00000000 0.00000000 0.00000000
Neuron 26 3 0.50000000 6 5.03953990 0.00000000 0.00000000 0.00000000
Link 1 7 1 0 1.04674898
Link 2 7 2 0 -1.18967153
Link 3 7 3 0 -2.16336184
Link 4 7 4 0 1.77872667
Link 6 7 6 0 2.22921202
Link 1 8 7 0 3.73323028
Link 3 8 9 0 3.34797687
Link 4 8 10 0 0.59555853
Link 5 8 11 0 -1.10993741
Link 6 8 12 0 -2.12416678
Link 3 9 15 0 4.22272303
Link 4 9 16 0 -1.84087689
Link 5 9 17 0 0.56125464
Link 6 9 18 0 -3.13167252
Link 2 13 29 0 -1.15006326
Link 13 8 30 0 0.60869390
Link 2 14 34 0 0.01225523
Link 14 9 35 0 2.16813377
Link 1 20 58 0 0.16523898
Link 20 9 59 0 4.81815056
Link 5 26 109 0 -0.31711517
Link 26 7 110 0 0.48694967
GenomeEnd

