GenomeStart 14038
Neuron 1 1 0.00000000 1 0.00000000 0.00000000 0.00000000 0.00000000
Neuron 2 1 0.00000000 1 0.00000000 0.00000000 0.00000000 0.00000000
Neuron 3 1 0.00000000 1 0.00000000 0.00000000 0.00000000 0.00000000
Neuron 4 1 0.00000000 1 0.00000000 0.00000000 0.00000000 0.00000000
Neuron 5 1 0.00000000 1 0.00000000 0.00000000 0.00000000 0.00000000
Neuron 6 2 0.00000000 1 0.00000000 0.00000000 0.00000000 0.00000000
Neuron 7 4 1.00000000 1 3.02500000 0.00000000 0.00000000 0.00000000
Neuron 8 4 1.00000000 1 3.02500000 0.00000000 0.00000000 0.00000000
Neuron 9 4 1.00000000 9 3.02500000 0.00000000 0.00000000 0.00000000
Neuron 13 3 0.50000000 4 4.21256114 0.00000000 0.00000000 0.00000000
Neuron 14 3 0.50000000 6 5.57568764 0.00000000 0.00000000 0.00000000
Neuron 20 3 0.50000000 1 1.76846404 0.00000000 0.00000000 0.00000000
Neuron 26 3 0.50000000 6 5.03953990 0.00000000 0.00000000 0.00000000
Link 1 7 1 0 0.83726370
Link 2 7 2 0 2.41856467
Link 3 7 3 0 -1.08441475
Link 4 7 4 0 -0.11096843
Link 6 7 6 0 3.41514780
Link 1 8 7 0 -1.19585491
Link 3 8 9 0 2.91511560
Link 4 8 10 0 0.78146568
Link 5 8 11 0 -0.07203280
Link 6 8 12 0 6.01268182
Link 3 9 15 0 3.75474996
Link 4 9 16 0 -1.07826233
Link 5 9 17 0 0.13460714
Link 6 9 18 0 -3.24788124
Link 2 13 29 0 2.89688754
Link 13 8 30 0 0.41012619
Link 2 14 34 0 3.62894460
Link 14 9 35 0 -5.95436829
Link 1 20 58 0 0.62252374
Link 20 9 59 0 -0.81501088
Link 5 26 109 0 0.80901513
Link 26 7 110 0 2.12770863
GenomeEnd

