GenomeStart 150
Neuron 1 1 0.00000000 1 0.00000000 0.00000000 0.00000000 0.00000000
Neuron 2 1 0.00000000 1 0.00000000 0.00000000 0.00000000 0.00000000
Neuron 3 1 0.00000000 1 0.00000000 0.00000000 0.00000000 0.00000000
Neuron 4 1 0.00000000 1 0.00000000 0.00000000 0.00000000 0.00000000
Neuron 5 1 0.00000000 1 0.00000000 0.00000000 0.00000000 0.00000000
Neuron 6 2 0.00000000 1 0.00000000 0.00000000 0.00000000 0.00000000
Neuron 7 4 1.00000000 1 3.02500000 0.00000000 0.00000000 0.00000000
Neuron 8 4 1.00000000 1 3.02500000 0.00000000 0.00000000 0.00000000
Neuron 9 4 1.00000000 5 3.02500000 0.00000000 0.00000000 0.00000000
Link 1 7 1 0 -0.60296605
Link 2 7 2 0 -0.05207227
Link 3 7 3 0 -0.80087887
Link 4 7 4 0 0.86695214
Link 5 7 5 0 0.99003342
Link 6 7 6 0 -0.12795825
Link 1 8 7 0 -0.09766469
Link 2 8 8 0 0.17301405
Link 3 8 9 0 1.14272719
Link 4 8 10 0 0.75623530
Link 5 8 11 0 0.55854939
Link 6 8 12 0 0.40133304
Link 1 9 13 0 -0.21433137
Link 2 9 14 0 0.09213061
Link 3 9 15 0 0.36823943
Link 4 9 16 0 0.08811822
Link 5 9 17 0 -0.42543224
Link 6 9 18 0 1.24111077
GenomeEnd

