GenomeStart 11260
Neuron 1 1 0.00000000 1 0.00000000 0.00000000 0.00000000 0.00000000
Neuron 2 1 0.00000000 1 0.00000000 0.00000000 0.00000000 0.00000000
Neuron 3 1 0.00000000 1 0.00000000 0.00000000 0.00000000 0.00000000
Neuron 4 1 0.00000000 1 0.00000000 0.00000000 0.00000000 0.00000000
Neuron 5 1 0.00000000 1 0.00000000 0.00000000 0.00000000 0.00000000
Neuron 6 2 0.00000000 1 0.00000000 0.00000000 0.00000000 0.00000000
Neuron 7 4 1.00000000 1 3.02500000 0.00000000 0.00000000 0.00000000
Neuron 8 4 1.00000000 1 3.02500000 0.00000000 0.00000000 0.00000000
Neuron 9 4 1.00000000 5 3.02500000 0.00000000 0.00000000 0.00000000
Neuron 10 3 0.50000000 1 3.19454225 0.00000000 0.00000000 0.00000000
Neuron 15 3 0.50000000 9 2.99090618 0.00000000 0.00000000 0.00000000
Link 1 7 1 0 -3.23325309
Link 3 7 3 0 -2.00986886
Link 5 7 5 0 -0.01497499
Link 6 7 6 0 0.69196004
Link 1 8 7 0 0.32308496
Link 2 8 8 0 -2.09832333
Link 3 8 9 0 -3.58765461
Link 4 8 10 0 -4.01032328
Link 5 8 11 0 1.67694266
Link 6 8 12 0 -0.82867212
Link 1 9 13 0 -0.61261378
Link 2 9 14 0 0.70066540
Link 3 9 15 0 -2.87475448
Link 4 9 16 0 0.32937080
Link 5 9 17 0 1.50891866
Link 6 9 18 0 3.47412588
Link 2 10 20 0 -0.74176588
Link 10 7 21 0 -1.67113209
Link 4 15 39 0 3.27847658
Link 15 7 40 0 3.27256913
GenomeEnd

