GenomeStart 9834
Neuron 1 1 0.00000000 1 0.00000000 0.00000000 0.00000000 0.00000000
Neuron 2 1 0.00000000 1 0.00000000 0.00000000 0.00000000 0.00000000
Neuron 3 1 0.00000000 1 0.00000000 0.00000000 0.00000000 0.00000000
Neuron 4 1 0.00000000 1 0.00000000 0.00000000 0.00000000 0.00000000
Neuron 5 1 0.00000000 1 0.00000000 0.00000000 0.00000000 0.00000000
Neuron 6 2 0.00000000 1 0.00000000 0.00000000 0.00000000 0.00000000
Neuron 7 4 1.00000000 1 3.02500000 0.00000000 0.00000000 0.00000000
Neuron 8 4 1.00000000 1 3.02500000 0.00000000 0.00000000 0.00000000
Neuron 9 4 1.00000000 5 3.02500000 0.00000000 0.00000000 0.00000000
Neuron 10 3 0.50000000 1 3.19454225 0.00000000 0.00000000 0.00000000
Neuron 15 3 0.50000000 6 2.99090618 0.00000000 0.00000000 0.00000000
Link 1 7 1 0 1.22872597
Link 3 7 3 0 -0.48592575
Link 5 7 5 0 -1.57730856
Link 6 7 6 0 -2.64419613
Link 1 8 7 0 2.89751229
Link 2 8 8 0 -0.20818658
Link 3 8 9 0 -1.19703532
Link 4 8 10 0 2.58863838
Link 5 8 11 0 -4.07465578
Link 6 8 12 0 -0.45538444
Link 1 9 13 0 -1.76879173
Link 2 9 14 0 -2.25163936
Link 3 9 15 0 -1.67670028
Link 4 9 16 0 -1.06134942
Link 5 9 17 0 -0.54957942
Link 6 9 18 0 -0.91527660
Link 2 10 20 0 -0.32125802
Link 10 7 21 0 3.15182409
Link 4 15 39 0 2.16680428
Link 15 7 40 0 2.77834600
GenomeEnd

