GenomeStart 12276
Neuron 1 1 0.00000000 1 0.00000000 0.00000000 0.00000000 0.00000000
Neuron 2 1 0.00000000 1 0.00000000 0.00000000 0.00000000 0.00000000
Neuron 3 1 0.00000000 1 0.00000000 0.00000000 0.00000000 0.00000000
Neuron 4 1 0.00000000 1 0.00000000 0.00000000 0.00000000 0.00000000
Neuron 5 1 0.00000000 1 0.00000000 0.00000000 0.00000000 0.00000000
Neuron 6 2 0.00000000 1 0.00000000 0.00000000 0.00000000 0.00000000
Neuron 7 4 1.00000000 1 3.02500000 0.00000000 0.00000000 0.00000000
Neuron 8 4 1.00000000 1 3.02500000 0.00000000 0.00000000 0.00000000
Neuron 9 4 1.00000000 9 3.02500000 0.00000000 0.00000000 0.00000000
Neuron 13 3 0.50000000 4 4.21256114 0.00000000 0.00000000 0.00000000
Neuron 14 3 0.50000000 6 5.57568764 0.00000000 0.00000000 0.00000000
Neuron 15 3 0.50000000 1 3.25471029 0.00000000 0.00000000 0.00000000
Link 1 7 1 0 1.48446280
Link 2 7 2 0 -3.10083604
Link 3 7 3 0 -0.19440765
Link 5 7 5 0 1.54066450
Link 6 7 6 0 3.15535742
Link 1 8 7 0 2.39226866
Link 3 8 9 0 2.05323969
Link 4 8 10 0 1.21389106
Link 5 8 11 0 -1.02293019
Link 6 8 12 0 6.08889571
Link 1 9 13 0 -1.07319494
Link 3 9 15 0 3.36553581
Link 4 9 16 0 -0.32133407
Link 5 9 17 0 0.57715994
Link 6 9 18 0 -2.69402908
Link 2 13 29 0 3.55908625
Link 13 8 30 0 0.42537363
Link 2 14 34 0 0.92479675
Link 14 9 35 0 -5.02877103
Link 4 15 39 0 1.12432211
Link 15 7 40 0 0.98079556
GenomeEnd

