GenomeStart 11716
Neuron 1 1 0.00000000 1 0.00000000 0.00000000 0.00000000 0.00000000
Neuron 2 1 0.00000000 1 0.00000000 0.00000000 0.00000000 0.00000000
Neuron 3 1 0.00000000 1 0.00000000 0.00000000 0.00000000 0.00000000
Neuron 4 1 0.00000000 1 0.00000000 0.00000000 0.00000000 0.00000000
Neuron 5 1 0.00000000 1 0.00000000 0.00000000 0.00000000 0.00000000
Neuron 6 2 0.00000000 1 0.00000000 0.00000000 0.00000000 0.00000000
Neuron 7 4 1.00000000 1 3.02500000 0.00000000 0.00000000 0.00000000
Neuron 8 4 1.00000000 1 3.02500000 0.00000000 0.00000000 0.00000000
Neuron 9 4 1.00000000 9 3.02500000 0.00000000 0.00000000 0.00000000
Neuron 13 3 0.50000000 4 4.21256114 0.00000000 0.00000000 0.00000000
Neuron 14 3 0.50000000 6 5.57568764 0.00000000 0.00000000 0.00000000
Link 1 7 1 0 1.00588328
Link 2 7 2 0 -3.10083604
Link 3 7 3 0 0.34275003
Link 4 7 4 0 1.72171203
Link 5 7 5 0 1.00449238
Link 6 7 6 0 3.15535742
Link 1 8 7 0 2.83594810
Link 3 8 9 0 1.30641207
Link 4 8 10 0 1.21389106
Link 5 8 11 0 -0.99640659
Link 6 8 12 0 6.14607109
Link 1 9 13 0 -0.74771720
Link 3 9 15 0 3.37816273
Link 4 9 16 0 -0.32133407
Link 5 9 17 0 0.57715994
Link 6 9 18 0 -3.35772849
Link 2 13 29 0 3.53868945
Link 13 8 30 0 0.42537363
Link 2 14 34 0 1.00000000
Link 14 9 35 0 -4.50218341
GenomeEnd

