GenomeStart 4111
Neuron 1 1 0.00000000 1 0.00000000 0.00000000 0.00000000 0.00000000
Neuron 2 1 0.00000000 1 0.00000000 0.00000000 0.00000000 0.00000000
Neuron 3 1 0.00000000 1 0.00000000 0.00000000 0.00000000 0.00000000
Neuron 4 1 0.00000000 1 0.00000000 0.00000000 0.00000000 0.00000000
Neuron 5 1 0.00000000 1 0.00000000 0.00000000 0.00000000 0.00000000
Neuron 6 2 0.00000000 1 0.00000000 0.00000000 0.00000000 0.00000000
Neuron 7 4 1.00000000 1 3.02500000 0.00000000 0.00000000 0.00000000
Neuron 8 4 1.00000000 1 3.02500000 0.00000000 0.00000000 0.00000000
Neuron 9 4 1.00000000 5 3.02500000 0.00000000 0.00000000 0.00000000
Neuron 15 3 0.50000000 11 1.64473542 0.00000000 0.00000000 0.00000000
Neuron 17 3 0.50000000 2 5.53871739 0.00000000 0.00000000 0.00000000
Neuron 19 3 0.75000000 2 0.53464144 0.00000000 0.00000000 0.00000000
Neuron 20 3 0.50000000 11 3.24233374 0.00000000 0.00000000 0.00000000
Link 1 7 1 0 1.18500024
Link 2 7 2 0 2.04024533
Link 5 7 5 0 3.15028546
Link 6 7 6 0 -0.13463335
Link 1 8 7 0 -2.41323484
Link 2 8 8 0 -3.35220861
Link 3 8 9 0 0.29780522
Link 4 8 10 0 -0.00608957
Link 5 8 11 0 -2.18688453
Link 6 8 12 0 -1.24672378
Link 2 9 14 0 -0.95881499
Link 3 9 15 0 -1.19147916
Link 4 9 16 0 3.14614205
Link 5 9 17 0 2.47804933
Link 6 9 18 0 -1.25531908
Link 4 15 39 0 -1.97336095
Link 15 7 40 0 1.49316150
Link 3 17 47 0 0.46664453
Link 17 19 55 0 1.40988245
Link 19 7 56 0 3.58846340
Link 1 20 58 0 -0.10081274
Link 20 9 59 0 2.47432447
GenomeEnd

