GenomeStart 10749
Neuron 1 1 0.00000000 1 0.00000000 0.00000000 0.00000000 0.00000000
Neuron 2 1 0.00000000 1 0.00000000 0.00000000 0.00000000 0.00000000
Neuron 3 1 0.00000000 1 0.00000000 0.00000000 0.00000000 0.00000000
Neuron 4 1 0.00000000 1 0.00000000 0.00000000 0.00000000 0.00000000
Neuron 5 1 0.00000000 1 0.00000000 0.00000000 0.00000000 0.00000000
Neuron 6 2 0.00000000 1 0.00000000 0.00000000 0.00000000 0.00000000
Neuron 7 4 1.00000000 1 3.02500000 0.00000000 0.00000000 0.00000000
Neuron 8 4 1.00000000 1 3.02500000 0.00000000 0.00000000 0.00000000
Neuron 9 4 1.00000000 9 3.02500000 0.00000000 0.00000000 0.00000000
Neuron 13 3 0.50000000 4 4.21256114 0.00000000 0.00000000 0.00000000
Neuron 17 3 0.50000000 2 0.69606431 0.00000000 0.00000000 0.00000000
Neuron 22 3 0.50000000 11 2.69264160 0.00000000 0.00000000 0.00000000
Link 1 7 1 0 1.16959337
Link 2 7 2 0 -5.17667483
Link 4 7 4 0 1.81934459
Link 5 7 5 0 1.12295734
Link 6 7 6 0 3.72205296
Link 1 8 7 0 0.59787588
Link 3 8 9 0 0.19348015
Link 4 8 10 0 0.64149081
Link 6 8 12 0 4.86731247
Link 1 9 13 0 -0.92863551
Link 2 9 14 0 -3.26949419
Link 3 9 15 0 2.63916382
Link 4 9 16 0 -0.79824767
Link 5 9 17 0 2.73526508
Link 6 9 18 0 -2.20360450
Link 2 13 29 0 3.24155211
Link 13 8 30 0 1.00865130
Link 3 17 47 0 0.25502774
Link 17 7 48 0 0.97622188
Link 5 22 70 0 1.00000000
Link 22 8 71 0 -1.15557269
GenomeEnd

