GenomeStart 10960
Neuron 1 1 0.00000000 1 0.00000000 0.00000000 0.00000000 0.00000000
Neuron 2 1 0.00000000 1 0.00000000 0.00000000 0.00000000 0.00000000
Neuron 3 1 0.00000000 1 0.00000000 0.00000000 0.00000000 0.00000000
Neuron 4 1 0.00000000 1 0.00000000 0.00000000 0.00000000 0.00000000
Neuron 5 1 0.00000000 1 0.00000000 0.00000000 0.00000000 0.00000000
Neuron 6 2 0.00000000 1 0.00000000 0.00000000 0.00000000 0.00000000
Neuron 7 4 1.00000000 1 3.02500000 0.00000000 0.00000000 0.00000000
Neuron 8 4 1.00000000 1 3.02500000 0.00000000 0.00000000 0.00000000
Neuron 9 4 1.00000000 11 3.02500000 0.00000000 0.00000000 0.00000000
Neuron 10 3 0.50000000 1 3.19454225 0.00000000 0.00000000 0.00000000
Neuron 15 3 0.50000000 6 2.99090618 0.00000000 0.00000000 0.00000000
Link 1 7 1 0 -1.45110672
Link 3 7 3 0 -1.08836939
Link 5 7 5 0 -0.66814580
Link 6 7 6 0 0.06873877
Link 1 8 7 0 4.06078914
Link 2 8 8 0 0.68923234
Link 3 8 9 0 0.68740248
Link 4 8 10 0 1.84685657
Link 5 8 11 0 1.09303269
Link 6 8 12 0 -0.84747914
Link 1 9 13 0 0.25612327
Link 2 9 14 0 -1.96922265
Link 3 9 15 0 -1.77586506
Link 4 9 16 0 -0.55821720
Link 5 9 17 0 0.24382902
Link 6 9 18 0 -0.97630612
Link 2 10 20 0 1.41061507
Link 10 7 21 0 -0.86095467
Link 4 15 39 0 2.54965067
Link 15 7 40 0 3.35482099
GenomeEnd

