GenomeStart 9686
Neuron 1 1 0.00000000 1 0.00000000 0.00000000 0.00000000 0.00000000
Neuron 2 1 0.00000000 1 0.00000000 0.00000000 0.00000000 0.00000000
Neuron 3 1 0.00000000 1 0.00000000 0.00000000 0.00000000 0.00000000
Neuron 4 1 0.00000000 1 0.00000000 0.00000000 0.00000000 0.00000000
Neuron 5 1 0.00000000 1 0.00000000 0.00000000 0.00000000 0.00000000
Neuron 6 2 0.00000000 1 0.00000000 0.00000000 0.00000000 0.00000000
Neuron 7 4 1.00000000 1 3.02500000 0.00000000 0.00000000 0.00000000
Neuron 8 4 1.00000000 1 3.02500000 0.00000000 0.00000000 0.00000000
Neuron 9 4 1.00000000 5 3.02500000 0.00000000 0.00000000 0.00000000
Neuron 10 3 0.50000000 1 3.19454225 0.00000000 0.00000000 0.00000000
Neuron 15 3 0.50000000 6 2.99090618 0.00000000 0.00000000 0.00000000
Link 1 7 1 0 -1.49611280
Link 3 7 3 0 0.39368434
Link 5 7 5 0 0.20604286
Link 6 7 6 0 0.46686876
Link 1 8 7 0 2.25163521
Link 2 8 8 0 0.14744882
Link 3 8 9 0 -4.15953629
Link 4 8 10 0 -0.68189212
Link 5 8 11 0 3.49131341
Link 6 8 12 0 -0.77865357
Link 1 9 13 0 0.44382827
Link 2 9 14 0 0.95452967
Link 3 9 15 0 -3.36382963
Link 4 9 16 0 0.21939465
Link 5 9 17 0 0.33403667
Link 6 9 18 0 -0.27230025
Link 2 10 20 0 0.44468258
Link 10 7 21 0 1.61649295
Link 4 15 39 0 1.78640549
Link 15 7 40 0 -1.18546368
GenomeEnd

