GenomeStart 11826
Neuron 1 1 0.00000000 1 0.00000000 0.00000000 0.00000000 0.00000000
Neuron 2 1 0.00000000 1 0.00000000 0.00000000 0.00000000 0.00000000
Neuron 3 1 0.00000000 1 0.00000000 0.00000000 0.00000000 0.00000000
Neuron 4 1 0.00000000 1 0.00000000 0.00000000 0.00000000 0.00000000
Neuron 5 1 0.00000000 1 0.00000000 0.00000000 0.00000000 0.00000000
Neuron 6 2 0.00000000 1 0.00000000 0.00000000 0.00000000 0.00000000
Neuron 7 4 1.00000000 1 3.02500000 0.00000000 0.00000000 0.00000000
Neuron 8 4 1.00000000 1 3.02500000 0.00000000 0.00000000 0.00000000
Neuron 9 4 1.00000000 9 3.02500000 0.00000000 0.00000000 0.00000000
Neuron 13 3 0.50000000 4 4.21256114 0.00000000 0.00000000 0.00000000
Neuron 17 3 0.50000000 2 0.69606431 0.00000000 0.00000000 0.00000000
Neuron 22 3 0.50000000 11 2.69264160 0.00000000 0.00000000 0.00000000
Link 1 7 1 0 1.10680243
Link 2 7 2 0 -3.74884492
Link 4 7 4 0 0.98161858
Link 5 7 5 0 0.94544600
Link 6 7 6 0 1.86698044
Link 1 8 7 0 0.64475395
Link 3 8 9 0 0.02063282
Link 4 8 10 0 1.37769518
Link 6 8 12 0 5.47891528
Link 1 9 13 0 -0.77189050
Link 2 9 14 0 -3.38643376
Link 3 9 15 0 2.09151971
Link 4 9 16 0 -0.96436336
Link 5 9 17 0 3.47044229
Link 6 9 18 0 -0.60532854
Link 2 13 29 0 3.49389323
Link 13 8 30 0 0.73427661
Link 3 17 47 0 -0.47062229
Link 17 7 48 0 0.84294101
Link 5 22 70 0 0.26883462
Link 22 8 71 0 3.20321435
GenomeEnd

