GenomeStart 10271
Neuron 1 1 0.00000000 1 0.00000000 0.00000000 0.00000000 0.00000000
Neuron 2 1 0.00000000 1 0.00000000 0.00000000 0.00000000 0.00000000
Neuron 3 1 0.00000000 1 0.00000000 0.00000000 0.00000000 0.00000000
Neuron 4 1 0.00000000 1 0.00000000 0.00000000 0.00000000 0.00000000
Neuron 5 1 0.00000000 1 0.00000000 0.00000000 0.00000000 0.00000000
Neuron 6 2 0.00000000 1 0.00000000 0.00000000 0.00000000 0.00000000
Neuron 7 4 1.00000000 1 3.02500000 0.00000000 0.00000000 0.00000000
Neuron 8 4 1.00000000 1 3.02500000 0.00000000 0.00000000 0.00000000
Neuron 9 4 1.00000000 11 3.02500000 0.00000000 0.00000000 0.00000000
Neuron 10 3 0.50000000 1 3.19454225 0.00000000 0.00000000 0.00000000
Neuron 15 3 0.50000000 6 2.99090618 0.00000000 0.00000000 0.00000000
Link 1 7 1 0 0.52959388
Link 3 7 3 0 0.54162583
Link 5 7 5 0 0.65797218
Link 6 7 6 0 -0.08049535
Link 1 8 7 0 1.93917791
Link 2 8 8 0 -0.62072285
Link 3 8 9 0 -1.86877603
Link 4 8 10 0 -3.46871058
Link 5 8 11 0 0.95121020
Link 6 8 12 0 -1.32357669
Link 1 9 13 0 -1.14789297
Link 2 9 14 0 1.14805853
Link 3 9 15 0 -4.48919367
Link 4 9 16 0 0.22608819
Link 5 9 17 0 0.08461500
Link 6 9 18 0 -1.49059509
Link 2 10 20 0 -2.03165291
Link 10 7 21 0 2.38115424
Link 4 15 39 0 3.39042879
Link 15 7 40 0 2.26693673
GenomeEnd

