GenomeStart 12515
Neuron 1 1 0.00000000 1 0.00000000 0.00000000 0.00000000 0.00000000
Neuron 2 1 0.00000000 1 0.00000000 0.00000000 0.00000000 0.00000000
Neuron 3 1 0.00000000 1 0.00000000 0.00000000 0.00000000 0.00000000
Neuron 4 1 0.00000000 1 0.00000000 0.00000000 0.00000000 0.00000000
Neuron 5 1 0.00000000 1 0.00000000 0.00000000 0.00000000 0.00000000
Neuron 6 2 0.00000000 1 0.00000000 0.00000000 0.00000000 0.00000000
Neuron 7 4 1.00000000 1 3.02500000 0.00000000 0.00000000 0.00000000
Neuron 8 4 1.00000000 1 3.02500000 0.00000000 0.00000000 0.00000000
Neuron 9 4 1.00000000 9 3.02500000 0.00000000 0.00000000 0.00000000
Neuron 13 3 0.50000000 4 4.21256114 0.00000000 0.00000000 0.00000000
Neuron 14 3 0.50000000 6 5.57568764 0.00000000 0.00000000 0.00000000
Neuron 20 3 0.50000000 4 1.76846404 0.00000000 0.00000000 0.00000000
Neuron 26 3 0.50000000 6 5.03953990 0.00000000 0.00000000 0.00000000
Link 1 7 1 0 1.80614356
Link 2 7 2 0 1.36650787
Link 3 7 3 0 -0.09472338
Link 4 7 4 0 1.61214731
Link 6 7 6 0 3.15475720
Link 1 8 7 0 3.12542744
Link 3 8 9 0 3.40479718
Link 4 8 10 0 1.51864549
Link 5 8 11 0 -0.97642538
Link 6 8 12 0 5.89038226
Link 3 9 15 0 3.17407641
Link 4 9 16 0 -0.34395979
Link 5 9 17 0 0.32964452
Link 6 9 18 0 -3.12777172
Link 2 13 29 0 3.56579260
Link 13 8 30 0 0.29643807
Link 2 14 34 0 1.06881927
Link 14 9 35 0 -3.20659560
Link 1 20 58 0 0.32848916
Link 20 9 59 0 -0.43900928
Link 5 26 109 0 1.49219998
Link 26 7 110 0 3.35235450
GenomeEnd

