GenomeStart 9100
Neuron 1 1 0.00000000 1 0.00000000 0.00000000 0.00000000 0.00000000
Neuron 2 1 0.00000000 1 0.00000000 0.00000000 0.00000000 0.00000000
Neuron 3 1 0.00000000 1 0.00000000 0.00000000 0.00000000 0.00000000
Neuron 4 1 0.00000000 1 0.00000000 0.00000000 0.00000000 0.00000000
Neuron 5 1 0.00000000 1 0.00000000 0.00000000 0.00000000 0.00000000
Neuron 6 2 0.00000000 1 0.00000000 0.00000000 0.00000000 0.00000000
Neuron 7 4 1.00000000 1 3.02500000 0.00000000 0.00000000 0.00000000
Neuron 8 4 1.00000000 8 3.02500000 0.00000000 0.00000000 0.00000000
Neuron 9 4 1.00000000 5 3.02500000 0.00000000 0.00000000 0.00000000
Neuron 10 3 0.50000000 1 3.19454225 0.00000000 0.00000000 0.00000000
Neuron 15 3 0.50000000 6 2.99090618 0.00000000 0.00000000 0.00000000
Link 1 7 1 0 -0.51386880
Link 3 7 3 0 0.42760725
Link 5 7 5 0 -0.60159325
Link 6 7 6 0 0.32072641
Link 1 8 7 0 3.21025887
Link 2 8 8 0 0.01478070
Link 3 8 9 0 -3.36890250
Link 4 8 10 0 0.21115551
Link 5 8 11 0 1.82188819
Link 6 8 12 0 -1.25209504
Link 1 9 13 0 -1.75979689
Link 2 9 14 0 2.12432918
Link 3 9 15 0 -1.97045822
Link 4 9 16 0 -0.19495533
Link 5 9 17 0 0.33403667
Link 6 9 18 0 -0.67256680
Link 2 10 20 0 0.44468258
Link 10 7 21 0 1.69377364
Link 4 15 39 0 1.79570244
Link 15 7 40 0 2.42273593
GenomeEnd

