GenomeStart 11375
Neuron 1 1 0.00000000 1 0.00000000 0.00000000 0.00000000 0.00000000
Neuron 2 1 0.00000000 1 0.00000000 0.00000000 0.00000000 0.00000000
Neuron 3 1 0.00000000 1 0.00000000 0.00000000 0.00000000 0.00000000
Neuron 4 1 0.00000000 1 0.00000000 0.00000000 0.00000000 0.00000000
Neuron 5 1 0.00000000 1 0.00000000 0.00000000 0.00000000 0.00000000
Neuron 6 2 0.00000000 1 0.00000000 0.00000000 0.00000000 0.00000000
Neuron 7 4 1.00000000 1 3.02500000 0.00000000 0.00000000 0.00000000
Neuron 8 4 1.00000000 1 3.02500000 0.00000000 0.00000000 0.00000000
Neuron 9 4 1.00000000 9 3.02500000 0.00000000 0.00000000 0.00000000
Neuron 13 3 0.50000000 4 4.21256114 0.00000000 0.00000000 0.00000000
Neuron 17 3 0.50000000 2 0.69606431 0.00000000 0.00000000 0.00000000
Neuron 24 3 0.50000000 4 3.13692736 0.00000000 0.00000000 0.00000000
Link 1 7 1 0 1.32147321
Link 2 7 2 0 -4.95588938
Link 4 7 4 0 1.77094508
Link 5 7 5 0 0.94588131
Link 6 7 6 0 3.74414398
Link 1 8 7 0 0.75000690
Link 3 8 9 0 0.02873250
Link 4 8 10 0 0.84522859
Link 5 8 11 0 -0.09923262
Link 6 8 12 0 4.81342833
Link 1 9 13 0 -0.66914738
Link 2 9 14 0 -3.80838714
Link 3 9 15 0 3.19397692
Link 4 9 16 0 -0.57945271
Link 6 9 18 0 -2.54483836
Link 2 13 29 0 3.41097813
Link 13 8 30 0 0.66112192
Link 3 17 47 0 -2.55997669
Link 17 7 48 0 1.19311517
Link 5 24 89 0 0.48273399
Link 24 9 90 0 1.56732741
GenomeEnd

