GenomeStart 14790
Neuron 1 1 0.00000000 1 0.00000000 0.00000000 0.00000000 0.00000000
Neuron 2 1 0.00000000 1 0.00000000 0.00000000 0.00000000 0.00000000
Neuron 3 1 0.00000000 1 0.00000000 0.00000000 0.00000000 0.00000000
Neuron 4 1 0.00000000 1 0.00000000 0.00000000 0.00000000 0.00000000
Neuron 5 1 0.00000000 1 0.00000000 0.00000000 0.00000000 0.00000000
Neuron 6 2 0.00000000 1 0.00000000 0.00000000 0.00000000 0.00000000
Neuron 7 4 1.00000000 1 3.02500000 0.00000000 0.00000000 0.00000000
Neuron 8 4 1.00000000 1 3.02500000 0.00000000 0.00000000 0.00000000
Neuron 9 4 1.00000000 9 3.02500000 0.00000000 0.00000000 0.00000000
Neuron 13 3 0.50000000 4 4.21256114 0.00000000 0.00000000 0.00000000
Neuron 14 3 0.50000000 6 5.57568764 0.00000000 0.00000000 0.00000000
Neuron 20 3 0.50000000 4 1.76846404 0.00000000 0.00000000 0.00000000
Neuron 26 3 0.50000000 6 5.03953990 0.00000000 0.00000000 0.00000000
Link 1 7 1 0 1.78563665
Link 2 7 2 0 -0.37079043
Link 3 7 3 0 -1.11858190
Link 4 7 4 0 0.61521435
Link 6 7 6 0 2.70458384
Link 1 8 7 0 5.01450393
Link 3 8 9 0 0.16186999
Link 4 8 10 0 1.05598464
Link 5 8 11 0 -0.98156229
Link 6 8 12 0 1.00684112
Link 3 9 15 0 4.05937118
Link 4 9 16 0 0.46361566
Link 5 9 17 0 1.90534423
Link 6 9 18 0 -0.26826457
Link 2 13 29 0 3.69912891
Link 13 8 30 0 -0.18736522
Link 2 14 34 0 -1.76382046
Link 14 9 35 0 -4.47389461
Link 1 20 58 0 0.22326418
Link 20 9 59 0 -0.41529126
Link 5 26 109 0 2.24784037
Link 26 7 110 0 1.59463030
GenomeEnd

