GenomeStart 7115
Neuron 1 1 0.00000000 1 0.00000000 0.00000000 0.00000000 0.00000000
Neuron 2 1 0.00000000 1 0.00000000 0.00000000 0.00000000 0.00000000
Neuron 3 1 0.00000000 1 0.00000000 0.00000000 0.00000000 0.00000000
Neuron 4 1 0.00000000 1 0.00000000 0.00000000 0.00000000 0.00000000
Neuron 5 1 0.00000000 1 0.00000000 0.00000000 0.00000000 0.00000000
Neuron 6 2 0.00000000 1 0.00000000 0.00000000 0.00000000 0.00000000
Neuron 7 4 1.00000000 1 3.02500000 0.00000000 0.00000000 0.00000000
Neuron 8 4 1.00000000 1 3.02500000 0.00000000 0.00000000 0.00000000
Neuron 9 4 1.00000000 5 3.02500000 0.00000000 0.00000000 0.00000000
Neuron 15 3 0.50000000 11 1.64473542 0.00000000 0.00000000 0.00000000
Neuron 17 3 0.50000000 2 5.53871739 0.00000000 0.00000000 0.00000000
Neuron 19 3 0.75000000 2 0.53464144 0.00000000 0.00000000 0.00000000
Link 1 7 1 0 0.01805735
Link 2 7 2 0 2.55773751
Link 3 7 3 0 -2.12462600
Link 5 7 5 0 0.42127451
Link 6 7 6 0 0.84011702
Link 1 8 7 0 0.04586945
Link 2 8 8 0 5.49020451
Link 3 8 9 0 2.47622380
Link 4 8 10 0 -1.47089762
Link 5 8 11 0 -1.50208965
Link 6 8 12 0 -2.33611457
Link 1 9 13 0 0.44745203
Link 2 9 14 0 3.76932749
Link 3 9 15 0 -0.23454967
Link 4 9 16 0 3.19523908
Link 5 9 17 0 -3.79073193
Link 6 9 18 0 0.18946238
Link 4 15 39 0 -3.49511937
Link 15 7 40 0 -1.33518327
Link 3 17 47 0 0.91986179
Link 17 19 55 0 0.58137068
Link 19 7 56 0 -2.68976720
GenomeEnd

