GenomeStart 13442
Neuron 1 1 0.00000000 1 0.00000000 0.00000000 0.00000000 0.00000000
Neuron 2 1 0.00000000 1 0.00000000 0.00000000 0.00000000 0.00000000
Neuron 3 1 0.00000000 1 0.00000000 0.00000000 0.00000000 0.00000000
Neuron 4 1 0.00000000 1 0.00000000 0.00000000 0.00000000 0.00000000
Neuron 5 1 0.00000000 1 0.00000000 0.00000000 0.00000000 0.00000000
Neuron 6 2 0.00000000 1 0.00000000 0.00000000 0.00000000 0.00000000
Neuron 7 4 1.00000000 1 3.02500000 0.00000000 0.00000000 0.00000000
Neuron 8 4 1.00000000 1 3.02500000 0.00000000 0.00000000 0.00000000
Neuron 9 4 1.00000000 9 3.02500000 0.00000000 0.00000000 0.00000000
Neuron 13 3 0.50000000 4 4.21256114 0.00000000 0.00000000 0.00000000
Neuron 14 3 0.50000000 6 5.57568764 0.00000000 0.00000000 0.00000000
Neuron 20 3 0.50000000 1 1.76846404 0.00000000 0.00000000 0.00000000
Neuron 26 3 0.50000000 6 5.03953990 0.00000000 0.00000000 0.00000000
Link 1 7 1 0 0.01960217
Link 2 7 2 0 1.88373450
Link 3 7 3 0 -0.11328383
Link 4 7 4 0 1.10114957
Link 6 7 6 0 4.45777084
Link 1 8 7 0 2.67621503
Link 3 8 9 0 2.58489448
Link 4 8 10 0 0.67044905
Link 5 8 11 0 -0.58337299
Link 6 8 12 0 5.83588555
Link 3 9 15 0 3.64985590
Link 4 9 16 0 0.40318721
Link 5 9 17 0 -1.09577251
Link 6 9 18 0 -2.83309463
Link 2 13 29 0 3.83713121
Link 13 8 30 0 -0.18698248
Link 2 14 34 0 0.33182736
Link 14 9 35 0 -5.13203893
Link 1 20 58 0 -3.43862732
Link 20 9 59 0 0.06979521
Link 5 26 109 0 0.53549138
Link 26 7 110 0 -3.27426888
GenomeEnd

