GenomeStart 600
Neuron 1 1 0.00000000 1 0.00000000 0.00000000 0.00000000 0.00000000
Neuron 2 1 0.00000000 1 0.00000000 0.00000000 0.00000000 0.00000000
Neuron 3 1 0.00000000 1 0.00000000 0.00000000 0.00000000 0.00000000
Neuron 4 1 0.00000000 1 0.00000000 0.00000000 0.00000000 0.00000000
Neuron 5 1 0.00000000 1 0.00000000 0.00000000 0.00000000 0.00000000
Neuron 6 2 0.00000000 1 0.00000000 0.00000000 0.00000000 0.00000000
Neuron 7 4 1.00000000 1 3.02500000 0.00000000 0.00000000 0.00000000
Neuron 8 4 1.00000000 1 3.02500000 0.00000000 0.00000000 0.00000000
Neuron 9 4 1.00000000 5 3.02500000 0.00000000 0.00000000 0.00000000
Link 1 7 1 0 -0.27183132
Link 2 7 2 0 -0.76365011
Link 3 7 3 0 0.02029963
Link 4 7 4 0 -0.09174449
Link 5 7 5 0 0.51426914
Link 6 7 6 0 -0.02056695
Link 1 8 7 0 0.31228927
Link 2 8 8 0 -0.08248743
Link 3 8 9 0 0.33024749
Link 4 8 10 0 0.62346106
Link 5 8 11 0 0.37166821
Link 6 8 12 0 0.72641813
Link 1 9 13 0 -0.44917364
Link 2 9 14 0 -1.45223525
Link 3 9 15 0 0.83312205
Link 4 9 16 0 -0.17571041
Link 5 9 17 0 0.15971057
Link 6 9 18 0 0.75346434
GenomeEnd

