GenomeStart 13269
Neuron 1 1 0.00000000 1 0.00000000 0.00000000 0.00000000 0.00000000
Neuron 2 1 0.00000000 1 0.00000000 0.00000000 0.00000000 0.00000000
Neuron 3 1 0.00000000 1 0.00000000 0.00000000 0.00000000 0.00000000
Neuron 4 1 0.00000000 1 0.00000000 0.00000000 0.00000000 0.00000000
Neuron 5 1 0.00000000 1 0.00000000 0.00000000 0.00000000 0.00000000
Neuron 6 2 0.00000000 1 0.00000000 0.00000000 0.00000000 0.00000000
Neuron 7 4 1.00000000 1 3.02500000 0.00000000 0.00000000 0.00000000
Neuron 8 4 1.00000000 1 3.02500000 0.00000000 0.00000000 0.00000000
Neuron 9 4 1.00000000 9 3.02500000 0.00000000 0.00000000 0.00000000
Neuron 13 3 0.50000000 4 4.21256114 0.00000000 0.00000000 0.00000000
Neuron 14 3 0.50000000 6 5.57568764 0.00000000 0.00000000 0.00000000
Neuron 20 3 0.50000000 4 1.76846404 0.00000000 0.00000000 0.00000000
Neuron 26 3 0.50000000 6 5.03953990 0.00000000 0.00000000 0.00000000
Link 1 7 1 0 0.73140792
Link 2 7 2 0 0.28273352
Link 3 7 3 0 -0.92402199
Link 4 7 4 0 1.10815148
Link 6 7 6 0 3.47475944
Link 1 8 7 0 2.21470748
Link 3 8 9 0 -0.01994261
Link 4 8 10 0 0.64573051
Link 5 8 11 0 -0.40561854
Link 6 8 12 0 3.76433165
Link 3 9 15 0 3.03948575
Link 4 9 16 0 -0.07038466
Link 5 9 17 0 0.34600443
Link 6 9 18 0 -2.58679905
Link 2 13 29 0 3.70695773
Link 13 8 30 0 0.24522413
Link 2 14 34 0 0.98888690
Link 14 9 35 0 -4.12111524
Link 1 20 58 0 0.94331381
Link 20 9 59 0 -0.69309018
Link 5 26 109 0 1.03077174
Link 26 7 110 0 2.78868940
GenomeEnd

