GenomeStart 8654
Neuron 1 1 0.00000000 1 0.00000000 0.00000000 0.00000000 0.00000000
Neuron 2 1 0.00000000 1 0.00000000 0.00000000 0.00000000 0.00000000
Neuron 3 1 0.00000000 1 0.00000000 0.00000000 0.00000000 0.00000000
Neuron 4 1 0.00000000 1 0.00000000 0.00000000 0.00000000 0.00000000
Neuron 5 1 0.00000000 1 0.00000000 0.00000000 0.00000000 0.00000000
Neuron 6 2 0.00000000 1 0.00000000 0.00000000 0.00000000 0.00000000
Neuron 7 4 1.00000000 1 3.02500000 0.00000000 0.00000000 0.00000000
Neuron 8 4 1.00000000 1 3.02500000 0.00000000 0.00000000 0.00000000
Neuron 9 4 1.00000000 5 3.02500000 0.00000000 0.00000000 0.00000000
Neuron 10 3 0.50000000 1 3.19454225 0.00000000 0.00000000 0.00000000
Neuron 15 3 0.50000000 6 2.99090618 0.00000000 0.00000000 0.00000000
Link 1 7 1 0 1.33402683
Link 3 7 3 0 0.32106016
Link 5 7 5 0 0.19343986
Link 6 7 6 0 0.54505818
Link 1 8 7 0 3.39324223
Link 2 8 8 0 -2.33019764
Link 3 8 9 0 -3.35331761
Link 4 8 10 0 -0.99095621
Link 5 8 11 0 4.15242432
Link 6 8 12 0 -0.33679432
Link 1 9 13 0 -1.19606126
Link 2 9 14 0 0.89638734
Link 3 9 15 0 -3.42631674
Link 4 9 16 0 -0.56001302
Link 5 9 17 0 0.70421286
Link 6 9 18 0 4.24436029
Link 2 10 20 0 0.69895186
Link 10 7 21 0 1.17146124
Link 4 15 39 0 0.78104342
Link 15 7 40 0 2.90444079
GenomeEnd

