GenomeStart 13148
Neuron 1 1 0.00000000 1 0.00000000 0.00000000 0.00000000 0.00000000
Neuron 2 1 0.00000000 1 0.00000000 0.00000000 0.00000000 0.00000000
Neuron 3 1 0.00000000 1 0.00000000 0.00000000 0.00000000 0.00000000
Neuron 4 1 0.00000000 1 0.00000000 0.00000000 0.00000000 0.00000000
Neuron 5 1 0.00000000 1 0.00000000 0.00000000 0.00000000 0.00000000
Neuron 6 2 0.00000000 1 0.00000000 0.00000000 0.00000000 0.00000000
Neuron 7 4 1.00000000 1 3.02500000 0.00000000 0.00000000 0.00000000
Neuron 8 4 1.00000000 1 3.02500000 0.00000000 0.00000000 0.00000000
Neuron 9 4 1.00000000 9 3.02500000 0.00000000 0.00000000 0.00000000
Neuron 13 3 0.50000000 4 4.21256114 0.00000000 0.00000000 0.00000000
Link 1 7 1 0 0.36132358
Link 2 7 2 0 -3.10083604
Link 3 7 3 0 0.54715299
Link 4 7 4 0 1.11562184
Link 5 7 5 0 1.78520039
Link 6 7 6 0 1.90896441
Link 1 8 7 0 2.39226866
Link 3 8 9 0 1.37520461
Link 4 8 10 0 1.36406808
Link 5 8 11 0 -1.02047414
Link 6 8 12 0 6.16008856
Link 1 9 13 0 -0.83332537
Link 2 9 14 0 -1.48595747
Link 3 9 15 0 2.36383722
Link 4 9 16 0 -0.96067425
Link 5 9 17 0 0.35418127
Link 6 9 18 0 -4.20509318
Link 2 13 29 0 3.55908625
Link 13 8 30 0 0.47875566
GenomeEnd

