GenomeStart 12996
Neuron 1 1 0.00000000 1 0.00000000 0.00000000 0.00000000 0.00000000
Neuron 2 1 0.00000000 1 0.00000000 0.00000000 0.00000000 0.00000000
Neuron 3 1 0.00000000 1 0.00000000 0.00000000 0.00000000 0.00000000
Neuron 4 1 0.00000000 1 0.00000000 0.00000000 0.00000000 0.00000000
Neuron 5 1 0.00000000 1 0.00000000 0.00000000 0.00000000 0.00000000
Neuron 6 2 0.00000000 1 0.00000000 0.00000000 0.00000000 0.00000000
Neuron 7 4 1.00000000 1 3.02500000 0.00000000 0.00000000 0.00000000
Neuron 8 4 1.00000000 1 3.02500000 0.00000000 0.00000000 0.00000000
Neuron 9 4 1.00000000 9 3.02500000 0.00000000 0.00000000 0.00000000
Neuron 13 3 0.50000000 4 4.21256114 0.00000000 0.00000000 0.00000000
Link 1 7 1 0 1.00588328
Link 2 7 2 0 -3.64389036
Link 3 7 3 0 0.50127500
Link 4 7 4 0 1.00259082
Link 5 7 5 0 1.17051394
Link 6 7 6 0 3.34391443
Link 1 8 7 0 2.87193344
Link 3 8 9 0 1.03986301
Link 4 8 10 0 0.76220935
Link 5 8 11 0 -1.66202747
Link 6 8 12 0 6.34210794
Link 1 9 13 0 -0.90254618
Link 2 9 14 0 -2.26400932
Link 3 9 15 0 3.27754574
Link 4 9 16 0 -0.36976912
Link 5 9 17 0 0.94026564
Link 6 9 18 0 -1.88177506
Link 2 13 29 0 2.47541951
Link 13 8 30 0 0.14612788
GenomeEnd

