GenomeStart 14942
Neuron 1 1 0.00000000 1 0.00000000 0.00000000 0.00000000 0.00000000
Neuron 2 1 0.00000000 1 0.00000000 0.00000000 0.00000000 0.00000000
Neuron 3 1 0.00000000 1 0.00000000 0.00000000 0.00000000 0.00000000
Neuron 4 1 0.00000000 1 0.00000000 0.00000000 0.00000000 0.00000000
Neuron 5 1 0.00000000 1 0.00000000 0.00000000 0.00000000 0.00000000
Neuron 6 2 0.00000000 1 0.00000000 0.00000000 0.00000000 0.00000000
Neuron 7 4 1.00000000 1 3.02500000 0.00000000 0.00000000 0.00000000
Neuron 8 4 1.00000000 1 3.02500000 0.00000000 0.00000000 0.00000000
Neuron 9 4 1.00000000 9 3.02500000 0.00000000 0.00000000 0.00000000
Neuron 13 3 0.50000000 4 4.21256114 0.00000000 0.00000000 0.00000000
Neuron 14 3 0.50000000 6 5.57568764 0.00000000 0.00000000 0.00000000
Neuron 20 3 0.50000000 4 1.76846404 0.00000000 0.00000000 0.00000000
Neuron 26 3 0.50000000 6 5.03953990 0.00000000 0.00000000 0.00000000
Link 1 7 1 0 0.42104508
Link 2 7 2 0 1.81214045
Link 3 7 3 0 -0.32489866
Link 4 7 4 0 -0.31394432
Link 6 7 6 0 0.88936826
Link 1 8 7 0 -4.55950919
Link 3 8 9 0 -0.03997360
Link 4 8 10 0 1.81106088
Link 5 8 11 0 -2.79387698
Link 6 8 12 0 5.83480319
Link 3 9 15 0 0.98090116
Link 4 9 16 0 -1.14687956
Link 5 9 17 0 -0.28865180
Link 6 9 18 0 -3.01459283
Link 2 13 29 0 4.01954309
Link 13 8 30 0 0.31389371
Link 2 14 34 0 -0.01416380
Link 14 9 35 0 -5.88582674
Link 1 20 58 0 -0.96040513
Link 20 9 59 0 -2.46299742
Link 5 26 109 0 -0.30393805
Link 26 7 110 0 -2.00722832
GenomeEnd

