GenomeStart 2035
Neuron 1 1 0.00000000 1 0.00000000 0.00000000 0.00000000 0.00000000
Neuron 2 1 0.00000000 1 0.00000000 0.00000000 0.00000000 0.00000000
Neuron 3 1 0.00000000 1 0.00000000 0.00000000 0.00000000 0.00000000
Neuron 4 1 0.00000000 1 0.00000000 0.00000000 0.00000000 0.00000000
Neuron 5 1 0.00000000 1 0.00000000 0.00000000 0.00000000 0.00000000
Neuron 6 2 0.00000000 1 0.00000000 0.00000000 0.00000000 0.00000000
Neuron 7 4 1.00000000 1 3.02500000 0.00000000 0.00000000 0.00000000
Neuron 8 4 1.00000000 1 3.02500000 0.00000000 0.00000000 0.00000000
Neuron 9 4 1.00000000 5 3.02500000 0.00000000 0.00000000 0.00000000
Neuron 12 3 0.50000000 2 0.59996514 0.00000000 0.00000000 0.00000000
Neuron 13 3 0.50000000 2 4.52189984 0.00000000 0.00000000 0.00000000
Neuron 14 3 0.50000000 6 2.62223523 0.00000000 0.00000000 0.00000000
Link 1 7 1 0 -2.20764367
Link 2 7 2 0 -0.43881996
Link 3 7 3 0 -0.11717810
Link 4 7 4 0 -0.43498469
Link 5 7 5 0 -2.17643144
Link 6 7 6 0 0.95385093
Link 1 8 7 0 0.43251360
Link 4 8 10 0 -1.71968046
Link 5 8 11 0 -0.80027423
Link 6 8 12 0 -0.91896715
Link 1 9 13 0 -0.73283716
Link 3 9 15 0 1.79332176
Link 4 9 16 0 -0.43117881
Link 5 9 17 0 -0.56008444
Link 6 9 18 0 0.48468722
Link 3 12 26 0 2.00100113
Link 12 8 27 0 -0.48079733
Link 2 13 29 0 1.00000000
Link 13 8 30 0 0.41954668
Link 2 14 34 0 1.11656794
Link 14 9 35 0 2.40049932
GenomeEnd

