GenomeStart 7772
Neuron 1 1 0.00000000 1 0.00000000 0.00000000 0.00000000 0.00000000
Neuron 2 1 0.00000000 1 0.00000000 0.00000000 0.00000000 0.00000000
Neuron 3 1 0.00000000 1 0.00000000 0.00000000 0.00000000 0.00000000
Neuron 4 1 0.00000000 1 0.00000000 0.00000000 0.00000000 0.00000000
Neuron 5 1 0.00000000 1 0.00000000 0.00000000 0.00000000 0.00000000
Neuron 6 2 0.00000000 1 0.00000000 0.00000000 0.00000000 0.00000000
Neuron 7 4 1.00000000 1 3.02500000 0.00000000 0.00000000 0.00000000
Neuron 8 4 1.00000000 1 3.02500000 0.00000000 0.00000000 0.00000000
Neuron 9 4 1.00000000 5 3.02500000 0.00000000 0.00000000 0.00000000
Neuron 10 3 0.50000000 1 3.19454225 0.00000000 0.00000000 0.00000000
Neuron 15 3 0.50000000 6 2.99090618 0.00000000 0.00000000 0.00000000
Link 1 7 1 0 2.53614595
Link 3 7 3 0 -0.67848218
Link 5 7 5 0 0.99287987
Link 6 7 6 0 1.87308881
Link 1 8 7 0 2.77604822
Link 2 8 8 0 -1.01352738
Link 3 8 9 0 -2.19131157
Link 4 8 10 0 0.44730470
Link 5 8 11 0 3.38562230
Link 6 8 12 0 -0.56269627
Link 1 9 13 0 -2.21297391
Link 2 9 14 0 1.33193652
Link 3 9 15 0 -0.34140621
Link 4 9 16 0 -3.10090180
Link 5 9 17 0 0.67241954
Link 6 9 18 0 -0.48774616
Link 2 10 20 0 1.50467798
Link 10 7 21 0 1.54795326
Link 4 15 39 0 1.86955966
Link 15 7 40 0 2.49000670
GenomeEnd

