GenomeStart 14187
Neuron 1 1 0.00000000 1 0.00000000 0.00000000 0.00000000 0.00000000
Neuron 2 1 0.00000000 1 0.00000000 0.00000000 0.00000000 0.00000000
Neuron 3 1 0.00000000 1 0.00000000 0.00000000 0.00000000 0.00000000
Neuron 4 1 0.00000000 1 0.00000000 0.00000000 0.00000000 0.00000000
Neuron 5 1 0.00000000 1 0.00000000 0.00000000 0.00000000 0.00000000
Neuron 6 2 0.00000000 1 0.00000000 0.00000000 0.00000000 0.00000000
Neuron 7 4 1.00000000 1 3.02500000 0.00000000 0.00000000 0.00000000
Neuron 8 4 1.00000000 1 3.02500000 0.00000000 0.00000000 0.00000000
Neuron 9 4 1.00000000 9 3.02500000 0.00000000 0.00000000 0.00000000
Neuron 13 3 0.50000000 4 4.21256114 0.00000000 0.00000000 0.00000000
Neuron 14 3 0.50000000 6 5.57568764 0.00000000 0.00000000 0.00000000
Neuron 20 3 0.50000000 1 1.76846404 0.00000000 0.00000000 0.00000000
Neuron 26 3 0.50000000 6 5.03953990 0.00000000 0.00000000 0.00000000
Link 1 7 1 0 0.60849473
Link 2 7 2 0 -1.35546095
Link 3 7 3 0 -0.82867667
Link 4 7 4 0 -1.59472449
Link 6 7 6 0 2.17910073
Link 1 8 7 0 4.33669478
Link 3 8 9 0 3.43003086
Link 4 8 10 0 -0.97044099
Link 5 8 11 0 -1.14951388
Link 6 8 12 0 -1.41926648
Link 3 9 15 0 4.37030038
Link 4 9 16 0 0.26756848
Link 5 9 17 0 -1.52855642
Link 6 9 18 0 -3.02452092
Link 2 13 29 0 2.97238452
Link 13 8 30 0 0.38613894
Link 2 14 34 0 -0.03728139
Link 14 9 35 0 -3.14842002
Link 1 20 58 0 -0.78674583
Link 20 9 59 0 4.24951535
Link 13 9 107 0 3.43973222
Link 5 26 109 0 -0.11833906
Link 26 7 110 0 -0.71270841
GenomeEnd

