GenomeStart 11075
Neuron 1 1 0.00000000 1 0.00000000 0.00000000 0.00000000 0.00000000
Neuron 2 1 0.00000000 1 0.00000000 0.00000000 0.00000000 0.00000000
Neuron 3 1 0.00000000 1 0.00000000 0.00000000 0.00000000 0.00000000
Neuron 4 1 0.00000000 1 0.00000000 0.00000000 0.00000000 0.00000000
Neuron 5 1 0.00000000 1 0.00000000 0.00000000 0.00000000 0.00000000
Neuron 6 2 0.00000000 1 0.00000000 0.00000000 0.00000000 0.00000000
Neuron 7 4 1.00000000 1 3.02500000 0.00000000 0.00000000 0.00000000
Neuron 8 4 1.00000000 1 3.02500000 0.00000000 0.00000000 0.00000000
Neuron 9 4 1.00000000 9 3.02500000 0.00000000 0.00000000 0.00000000
Neuron 13 3 0.50000000 4 4.21256114 0.00000000 0.00000000 0.00000000
Neuron 17 3 0.50000000 2 0.69606431 0.00000000 0.00000000 0.00000000
Neuron 24 3 0.50000000 4 3.13692736 0.00000000 0.00000000 0.00000000
Link 1 7 1 0 1.16959337
Link 2 7 2 0 -4.30226312
Link 4 7 4 0 1.54985560
Link 5 7 5 0 0.99491041
Link 6 7 6 0 3.72205296
Link 1 8 7 0 0.66037997
Link 3 8 9 0 0.19348015
Link 4 8 10 0 1.21975496
Link 5 8 11 0 -1.13575780
Link 6 8 12 0 4.86731247
Link 1 9 13 0 -0.92863551
Link 2 9 14 0 -3.96917570
Link 3 9 15 0 3.37816273
Link 4 9 16 0 0.25402415
Link 6 9 18 0 -3.62625579
Link 2 13 29 0 2.83727330
Link 13 8 30 0 0.48788075
Link 3 17 47 0 0.25502774
Link 17 7 48 0 0.69777121
Link 5 24 89 0 -0.65707815
Link 24 9 90 0 1.82633394
GenomeEnd

