GenomeStart 11635
Neuron 1 1 0.00000000 1 0.00000000 0.00000000 0.00000000 0.00000000
Neuron 2 1 0.00000000 1 0.00000000 0.00000000 0.00000000 0.00000000
Neuron 3 1 0.00000000 1 0.00000000 0.00000000 0.00000000 0.00000000
Neuron 4 1 0.00000000 1 0.00000000 0.00000000 0.00000000 0.00000000
Neuron 5 1 0.00000000 1 0.00000000 0.00000000 0.00000000 0.00000000
Neuron 6 2 0.00000000 1 0.00000000 0.00000000 0.00000000 0.00000000
Neuron 7 4 1.00000000 1 3.02500000 0.00000000 0.00000000 0.00000000
Neuron 8 4 1.00000000 1 3.02500000 0.00000000 0.00000000 0.00000000
Neuron 9 4 1.00000000 9 3.02500000 0.00000000 0.00000000 0.00000000
Neuron 13 3 0.50000000 4 4.21256114 0.00000000 0.00000000 0.00000000
Neuron 17 3 0.50000000 2 0.69606431 0.00000000 0.00000000 0.00000000
Neuron 24 3 0.50000000 4 3.13692736 0.00000000 0.00000000 0.00000000
Link 1 7 1 0 -0.06903259
Link 2 7 2 0 -3.01793157
Link 4 7 4 0 1.11209454
Link 5 7 5 0 1.99267500
Link 6 7 6 0 4.46943404
Link 1 8 7 0 -0.18861211
Link 3 8 9 0 0.35501358
Link 4 8 10 0 1.78759743
Link 5 8 11 0 2.10778074
Link 6 8 12 0 0.33895709
Link 1 9 13 0 -0.90214291
Link 2 9 14 0 -3.86136192
Link 3 9 15 0 2.13439670
Link 4 9 16 0 -1.02536974
Link 6 9 18 0 -4.28268216
Link 2 13 29 0 2.86886487
Link 13 8 30 0 0.27959986
Link 3 17 47 0 3.87712755
Link 17 7 48 0 1.72564223
Link 5 24 89 0 1.18264223
Link 24 9 90 0 -4.16472702
GenomeEnd

