GenomeStart 3424
Neuron 1 1 0.00000000 1 0.00000000 0.00000000 0.00000000 0.00000000
Neuron 2 1 0.00000000 1 0.00000000 0.00000000 0.00000000 0.00000000
Neuron 3 1 0.00000000 1 0.00000000 0.00000000 0.00000000 0.00000000
Neuron 4 1 0.00000000 1 0.00000000 0.00000000 0.00000000 0.00000000
Neuron 5 1 0.00000000 1 0.00000000 0.00000000 0.00000000 0.00000000
Neuron 6 2 0.00000000 1 0.00000000 0.00000000 0.00000000 0.00000000
Neuron 7 4 1.00000000 1 3.02500000 0.00000000 0.00000000 0.00000000
Neuron 8 4 1.00000000 1 3.02500000 0.00000000 0.00000000 0.00000000
Neuron 9 4 1.00000000 5 3.02500000 0.00000000 0.00000000 0.00000000
Neuron 15 3 0.50000000 11 1.64473542 0.00000000 0.00000000 0.00000000
Neuron 17 3 0.50000000 2 5.53871739 0.00000000 0.00000000 0.00000000
Neuron 19 3 0.75000000 2 0.53464144 0.00000000 0.00000000 0.00000000
Neuron 20 3 0.50000000 11 3.24233374 0.00000000 0.00000000 0.00000000
Link 1 7 1 0 0.55897891
Link 2 7 2 0 1.94967537
Link 5 7 5 0 2.63676294
Link 6 7 6 0 -1.46334241
Link 1 8 7 0 -2.20574126
Link 2 8 8 0 -4.15235310
Link 3 8 9 0 -1.04499164
Link 4 8 10 0 0.72524793
Link 5 8 11 0 -2.37304282
Link 6 8 12 0 -0.75409997
Link 2 9 14 0 0.03596875
Link 3 9 15 0 -1.78668270
Link 4 9 16 0 3.97180470
Link 5 9 17 0 -2.86823965
Link 6 9 18 0 -2.59952670
Link 4 15 39 0 1.57626945
Link 15 7 40 0 1.11826200
Link 3 17 47 0 0.37288519
Link 17 19 55 0 0.56982581
Link 19 7 56 0 3.59638482
Link 1 20 58 0 1.41007658
Link 20 9 59 0 0.73243612
GenomeEnd

