GenomeStart 3770
Neuron 1 1 0.00000000 1 0.00000000 0.00000000 0.00000000 0.00000000
Neuron 2 1 0.00000000 1 0.00000000 0.00000000 0.00000000 0.00000000
Neuron 3 1 0.00000000 1 0.00000000 0.00000000 0.00000000 0.00000000
Neuron 4 1 0.00000000 1 0.00000000 0.00000000 0.00000000 0.00000000
Neuron 5 1 0.00000000 1 0.00000000 0.00000000 0.00000000 0.00000000
Neuron 6 2 0.00000000 1 0.00000000 0.00000000 0.00000000 0.00000000
Neuron 7 4 1.00000000 1 3.02500000 0.00000000 0.00000000 0.00000000
Neuron 8 4 1.00000000 1 3.02500000 0.00000000 0.00000000 0.00000000
Neuron 9 4 1.00000000 9 3.02500000 0.00000000 0.00000000 0.00000000
Neuron 13 3 0.50000000 4 4.21256114 0.00000000 0.00000000 0.00000000
Link 1 7 1 0 -0.74797564
Link 2 7 2 0 -1.17695804
Link 3 7 3 0 -1.06197350
Link 4 7 4 0 2.63515502
Link 5 7 5 0 0.84712129
Link 6 7 6 0 1.28448525
Link 1 8 7 0 0.58797883
Link 3 8 9 0 0.13083379
Link 4 8 10 0 0.49696384
Link 5 8 11 0 -3.64685166
Link 6 8 12 0 4.35050259
Link 1 9 13 0 -1.51324029
Link 2 9 14 0 1.17683494
Link 3 9 15 0 2.36756135
Link 4 9 16 0 0.87886011
Link 5 9 17 0 1.20835529
Link 6 9 18 0 -3.88174464
Link 2 13 29 0 2.22184450
Link 13 8 30 0 -0.83732957
GenomeEnd

