GenomeStart 3626
Neuron 1 1 0.00000000 1 0.00000000 0.00000000 0.00000000 0.00000000
Neuron 2 1 0.00000000 1 0.00000000 0.00000000 0.00000000 0.00000000
Neuron 3 1 0.00000000 1 0.00000000 0.00000000 0.00000000 0.00000000
Neuron 4 1 0.00000000 1 0.00000000 0.00000000 0.00000000 0.00000000
Neuron 5 1 0.00000000 1 0.00000000 0.00000000 0.00000000 0.00000000
Neuron 6 2 0.00000000 1 0.00000000 0.00000000 0.00000000 0.00000000
Neuron 7 4 1.00000000 1 3.02500000 0.00000000 0.00000000 0.00000000
Neuron 8 4 1.00000000 1 3.02500000 0.00000000 0.00000000 0.00000000
Neuron 9 4 1.00000000 5 3.02500000 0.00000000 0.00000000 0.00000000
Neuron 12 3 0.50000000 2 0.59996514 0.00000000 0.00000000 0.00000000
Neuron 13 3 0.50000000 2 4.52189984 0.00000000 0.00000000 0.00000000
Neuron 14 3 0.50000000 6 2.62223523 0.00000000 0.00000000 0.00000000
Link 1 7 1 0 -1.68630275
Link 2 7 2 0 0.34377256
Link 3 7 3 0 0.21033891
Link 4 7 4 0 0.04411219
Link 5 7 5 0 2.32744964
Link 6 7 6 0 4.85980800
Link 1 8 7 0 1.79755242
Link 4 8 10 0 3.92260461
Link 5 8 11 0 -1.01414823
Link 6 8 12 0 -2.94404972
Link 1 9 13 0 0.22190370
Link 3 9 15 0 3.22426091
Link 4 9 16 0 -0.15360566
Link 5 9 17 0 -1.60284267
Link 6 9 18 0 -0.83288994
Link 3 12 26 0 1.45433593
Link 12 8 27 0 -0.30383768
Link 2 13 29 0 1.12617120
Link 13 8 30 0 -0.25147240
Link 2 14 34 0 -1.06509061
Link 14 9 35 0 -1.48535943
GenomeEnd

