GenomeStart 5003
Neuron 1 1 0.00000000 1 0.00000000 0.00000000 0.00000000 0.00000000
Neuron 2 1 0.00000000 1 0.00000000 0.00000000 0.00000000 0.00000000
Neuron 3 1 0.00000000 1 0.00000000 0.00000000 0.00000000 0.00000000
Neuron 4 1 0.00000000 1 0.00000000 0.00000000 0.00000000 0.00000000
Neuron 5 1 0.00000000 1 0.00000000 0.00000000 0.00000000 0.00000000
Neuron 6 2 0.00000000 1 0.00000000 0.00000000 0.00000000 0.00000000
Neuron 7 4 1.00000000 1 3.02500000 0.00000000 0.00000000 0.00000000
Neuron 8 4 1.00000000 1 3.02500000 0.00000000 0.00000000 0.00000000
Neuron 9 4 1.00000000 6 3.02500000 0.00000000 0.00000000 0.00000000
Neuron 15 3 0.50000000 11 1.64473542 0.00000000 0.00000000 0.00000000
Neuron 16 3 0.50000000 1 0.20480735 0.00000000 0.00000000 0.00000000
Link 2 7 2 0 2.11599897
Link 3 7 3 0 -4.79490425
Link 5 7 5 0 1.78904443
Link 6 7 6 0 -3.53378938
Link 1 8 7 0 0.19095303
Link 2 8 8 0 -1.12801173
Link 3 8 9 0 -0.59785445
Link 4 8 10 0 0.85352516
Link 5 8 11 0 0.95737389
Link 6 8 12 0 -1.41944195
Link 1 9 13 0 -0.58899640
Link 2 9 14 0 1.61303891
Link 3 9 15 0 -2.47478845
Link 4 9 16 0 -2.19294696
Link 5 9 17 0 -2.19297119
Link 6 9 18 0 -0.17182023
Link 4 15 39 0 -1.89028695
Link 15 7 40 0 3.61428857
Link 1 16 44 0 0.62167106
Link 16 7 45 0 1.41030794
Link 5 15 60 0 1.60862886
GenomeEnd

