GenomeStart 7316
Neuron 1 1 0.00000000 1 0.00000000 0.00000000 0.00000000 0.00000000
Neuron 2 1 0.00000000 1 0.00000000 0.00000000 0.00000000 0.00000000
Neuron 3 1 0.00000000 1 0.00000000 0.00000000 0.00000000 0.00000000
Neuron 4 1 0.00000000 1 0.00000000 0.00000000 0.00000000 0.00000000
Neuron 5 1 0.00000000 1 0.00000000 0.00000000 0.00000000 0.00000000
Neuron 6 2 0.00000000 1 0.00000000 0.00000000 0.00000000 0.00000000
Neuron 7 4 1.00000000 1 3.02500000 0.00000000 0.00000000 0.00000000
Neuron 8 4 1.00000000 1 3.02500000 0.00000000 0.00000000 0.00000000
Neuron 9 4 1.00000000 5 3.02500000 0.00000000 0.00000000 0.00000000
Neuron 14 3 0.50000000 2 5.42175555 0.00000000 0.00000000 0.00000000
Neuron 15 3 0.50000000 11 1.64473542 0.00000000 0.00000000 0.00000000
Neuron 16 3 0.50000000 1 0.20480735 0.00000000 0.00000000 0.00000000
Link 2 7 2 0 2.38086743
Link 3 7 3 0 -4.70321324
Link 5 7 5 0 1.61475357
Link 6 7 6 0 -2.94794883
Link 1 8 7 0 -1.46095927
Link 2 8 8 0 0.46670852
Link 3 8 9 0 -1.57739720
Link 4 8 10 0 0.23800529
Link 5 8 11 0 0.50245576
Link 6 8 12 0 0.68072527
Link 1 9 13 0 0.25040583
Link 3 9 15 0 -1.34490354
Link 4 9 16 0 -0.83640291
Link 5 9 17 0 2.88370510
Link 6 9 18 0 -0.34781884
Link 2 14 34 0 1.00000000
Link 14 9 35 0 2.54099153
Link 4 15 39 0 1.69664366
Link 15 7 40 0 -0.50253336
Link 1 16 44 0 0.21395483
Link 16 7 45 0 1.62855807
Link 15 16 102 0 -2.01702015
GenomeEnd

