GenomeStart 9971
Neuron 1 1 0.00000000 1 0.00000000 0.00000000 0.00000000 0.00000000
Neuron 2 1 0.00000000 1 0.00000000 0.00000000 0.00000000 0.00000000
Neuron 3 1 0.00000000 1 0.00000000 0.00000000 0.00000000 0.00000000
Neuron 4 1 0.00000000 1 0.00000000 0.00000000 0.00000000 0.00000000
Neuron 5 1 0.00000000 1 0.00000000 0.00000000 0.00000000 0.00000000
Neuron 6 2 0.00000000 1 0.00000000 0.00000000 0.00000000 0.00000000
Neuron 7 4 1.00000000 1 3.02500000 0.00000000 0.00000000 0.00000000
Neuron 8 4 1.00000000 1 3.02500000 0.00000000 0.00000000 0.00000000
Neuron 9 4 1.00000000 5 3.02500000 0.00000000 0.00000000 0.00000000
Neuron 10 3 0.50000000 1 3.19454225 0.00000000 0.00000000 0.00000000
Neuron 15 3 0.50000000 6 2.99090618 0.00000000 0.00000000 0.00000000
Link 1 7 1 0 -1.06293371
Link 3 7 3 0 0.46480722
Link 5 7 5 0 -1.23066452
Link 6 7 6 0 -0.04969026
Link 1 8 7 0 2.25125311
Link 2 8 8 0 -0.46501594
Link 3 8 9 0 -2.88518644
Link 4 8 10 0 -0.40326937
Link 5 8 11 0 1.18324701
Link 6 8 12 0 -0.87093641
Link 1 9 13 0 -0.46688319
Link 2 9 14 0 1.25901858
Link 3 9 15 0 -1.76216157
Link 4 9 16 0 -0.13347067
Link 5 9 17 0 -0.04328197
Link 6 9 18 0 1.70226334
Link 2 10 20 0 1.24813976
Link 10 7 21 0 1.22951507
Link 4 15 39 0 2.25813530
Link 15 7 40 0 3.54222786
GenomeEnd

