GenomeStart 14638
Neuron 1 1 0.00000000 1 0.00000000 0.00000000 0.00000000 0.00000000
Neuron 2 1 0.00000000 1 0.00000000 0.00000000 0.00000000 0.00000000
Neuron 3 1 0.00000000 1 0.00000000 0.00000000 0.00000000 0.00000000
Neuron 4 1 0.00000000 1 0.00000000 0.00000000 0.00000000 0.00000000
Neuron 5 1 0.00000000 1 0.00000000 0.00000000 0.00000000 0.00000000
Neuron 6 2 0.00000000 1 0.00000000 0.00000000 0.00000000 0.00000000
Neuron 7 4 1.00000000 1 3.02500000 0.00000000 0.00000000 0.00000000
Neuron 8 4 1.00000000 1 3.02500000 0.00000000 0.00000000 0.00000000
Neuron 9 4 1.00000000 9 3.02500000 0.00000000 0.00000000 0.00000000
Neuron 13 3 0.50000000 4 4.21256114 0.00000000 0.00000000 0.00000000
Neuron 14 3 0.50000000 6 5.57568764 0.00000000 0.00000000 0.00000000
Neuron 20 3 0.50000000 4 1.76846404 0.00000000 0.00000000 0.00000000
Neuron 26 3 0.50000000 6 5.03953990 0.00000000 0.00000000 0.00000000
Link 1 7 1 0 0.71049184
Link 2 7 2 0 -0.14296360
Link 3 7 3 0 -1.24233015
Link 4 7 4 0 0.86296608
Link 6 7 6 0 3.14925738
Link 1 8 7 0 2.73428947
Link 3 8 9 0 -1.57344026
Link 4 8 10 0 0.15928226
Link 5 8 11 0 -0.82525796
Link 6 8 12 0 5.99444303
Link 3 9 15 0 -4.20760494
Link 4 9 16 0 -0.53070643
Link 5 9 17 0 -0.81443104
Link 6 9 18 0 -2.77449294
Link 2 13 29 0 0.45658079
Link 13 8 30 0 -2.91645275
Link 2 14 34 0 1.26905943
Link 14 9 35 0 -4.59200321
Link 1 20 58 0 1.20737093
Link 20 9 59 0 -1.26289179
Link 5 26 109 0 -0.12818924
Link 26 7 110 0 1.95168920
GenomeEnd

