GenomeStart 8360
Neuron 1 1 0.00000000 1 0.00000000 0.00000000 0.00000000 0.00000000
Neuron 2 1 0.00000000 1 0.00000000 0.00000000 0.00000000 0.00000000
Neuron 3 1 0.00000000 1 0.00000000 0.00000000 0.00000000 0.00000000
Neuron 4 1 0.00000000 1 0.00000000 0.00000000 0.00000000 0.00000000
Neuron 5 1 0.00000000 1 0.00000000 0.00000000 0.00000000 0.00000000
Neuron 6 2 0.00000000 1 0.00000000 0.00000000 0.00000000 0.00000000
Neuron 7 4 1.00000000 1 3.02500000 0.00000000 0.00000000 0.00000000
Neuron 8 4 1.00000000 1 3.02500000 0.00000000 0.00000000 0.00000000
Neuron 9 4 1.00000000 5 3.02500000 0.00000000 0.00000000 0.00000000
Neuron 10 3 0.50000000 1 3.19454225 0.00000000 0.00000000 0.00000000
Neuron 15 3 0.50000000 6 2.99090618 0.00000000 0.00000000 0.00000000
Link 1 7 1 0 -2.93595550
Link 3 7 3 0 -0.55145166
Link 5 7 5 0 1.18781958
Link 6 7 6 0 0.56771099
Link 1 8 7 0 2.76112971
Link 2 8 8 0 -1.13656392
Link 3 8 9 0 -2.52762271
Link 4 8 10 0 0.11069858
Link 5 8 11 0 1.62362190
Link 6 8 12 0 -1.44033205
Link 1 9 13 0 -1.37996263
Link 2 9 14 0 2.09650270
Link 3 9 15 0 -3.73688768
Link 4 9 16 0 0.06147322
Link 5 9 17 0 -1.79739805
Link 6 9 18 0 -3.03956853
Link 2 10 20 0 1.91609574
Link 10 7 21 0 0.05851404
Link 4 15 39 0 1.84557787
Link 15 7 40 0 2.35382657
GenomeEnd

