GenomeStart 7919
Neuron 1 1 0.00000000 1 0.00000000 0.00000000 0.00000000 0.00000000
Neuron 2 1 0.00000000 1 0.00000000 0.00000000 0.00000000 0.00000000
Neuron 3 1 0.00000000 1 0.00000000 0.00000000 0.00000000 0.00000000
Neuron 4 1 0.00000000 1 0.00000000 0.00000000 0.00000000 0.00000000
Neuron 5 1 0.00000000 1 0.00000000 0.00000000 0.00000000 0.00000000
Neuron 6 2 0.00000000 1 0.00000000 0.00000000 0.00000000 0.00000000
Neuron 7 4 1.00000000 1 3.02500000 0.00000000 0.00000000 0.00000000
Neuron 8 4 1.00000000 1 3.02500000 0.00000000 0.00000000 0.00000000
Neuron 9 4 1.00000000 5 3.02500000 0.00000000 0.00000000 0.00000000
Neuron 10 3 0.50000000 1 3.19454225 0.00000000 0.00000000 0.00000000
Neuron 15 3 0.50000000 6 2.99090618 0.00000000 0.00000000 0.00000000
Link 1 7 1 0 2.85546204
Link 3 7 3 0 -1.21068651
Link 5 7 5 0 -0.21207873
Link 6 7 6 0 2.25645390
Link 1 8 7 0 3.46051550
Link 2 8 8 0 -2.67592678
Link 3 8 9 0 -1.31797737
Link 4 8 10 0 0.16200134
Link 5 8 11 0 1.74415839
Link 6 8 12 0 -1.61180128
Link 1 9 13 0 -2.51236904
Link 2 9 14 0 1.56289307
Link 3 9 15 0 0.27271442
Link 4 9 16 0 -2.89456478
Link 5 9 17 0 0.01254530
Link 6 9 18 0 3.80372104
Link 2 10 20 0 1.62029071
Link 10 7 21 0 0.88620511
Link 4 15 39 0 0.92792394
Link 15 7 40 0 2.21828842
GenomeEnd

