GenomeStart 1658
Neuron 1 1 0.00000000 1 0.00000000 0.00000000 0.00000000 0.00000000
Neuron 2 1 0.00000000 1 0.00000000 0.00000000 0.00000000 0.00000000
Neuron 3 1 0.00000000 1 0.00000000 0.00000000 0.00000000 0.00000000
Neuron 4 1 0.00000000 1 0.00000000 0.00000000 0.00000000 0.00000000
Neuron 5 1 0.00000000 1 0.00000000 0.00000000 0.00000000 0.00000000
Neuron 6 2 0.00000000 1 0.00000000 0.00000000 0.00000000 0.00000000
Neuron 7 4 1.00000000 1 3.02500000 0.00000000 0.00000000 0.00000000
Neuron 8 4 1.00000000 1 3.02500000 0.00000000 0.00000000 0.00000000
Neuron 9 4 1.00000000 5 3.02500000 0.00000000 0.00000000 0.00000000
Neuron 15 3 0.50000000 11 1.64473542 0.00000000 0.00000000 0.00000000
Link 1 7 1 0 -0.43810099
Link 2 7 2 0 1.86277627
Link 3 7 3 0 -4.45939204
Link 5 7 5 0 1.10809373
Link 6 7 6 0 2.16398773
Link 1 8 7 0 -1.95574053
Link 2 8 8 0 0.23960891
Link 3 8 9 0 -0.27015215
Link 4 8 10 0 0.44741409
Link 5 8 11 0 -0.72955811
Link 6 8 12 0 -0.26433405
Link 1 9 13 0 -0.28184479
Link 2 9 14 0 1.27238600
Link 3 9 15 0 -0.03520492
Link 4 9 16 0 4.38554950
Link 5 9 17 0 -2.64240379
Link 6 9 18 0 -1.25702166
Link 4 15 39 0 1.00000000
Link 15 7 40 0 0.80126063
GenomeEnd

