GenomeStart 3276
Neuron 1 1 0.00000000 1 0.00000000 0.00000000 0.00000000 0.00000000
Neuron 2 1 0.00000000 1 0.00000000 0.00000000 0.00000000 0.00000000
Neuron 3 1 0.00000000 1 0.00000000 0.00000000 0.00000000 0.00000000
Neuron 4 1 0.00000000 1 0.00000000 0.00000000 0.00000000 0.00000000
Neuron 5 1 0.00000000 1 0.00000000 0.00000000 0.00000000 0.00000000
Neuron 6 2 0.00000000 1 0.00000000 0.00000000 0.00000000 0.00000000
Neuron 7 4 1.00000000 1 3.02500000 0.00000000 0.00000000 0.00000000
Neuron 8 4 1.00000000 1 3.02500000 0.00000000 0.00000000 0.00000000
Neuron 9 4 1.00000000 5 3.02500000 0.00000000 0.00000000 0.00000000
Neuron 15 3 0.50000000 11 1.64473542 0.00000000 0.00000000 0.00000000
Neuron 17 3 0.50000000 2 5.53871739 0.00000000 0.00000000 0.00000000
Neuron 21 3 0.25000000 6 3.92559929 0.00000000 0.00000000 0.00000000
Link 1 7 1 0 0.64278410
Link 2 7 2 0 2.11410005
Link 5 7 5 0 -3.86202707
Link 6 7 6 0 1.93314268
Link 1 8 7 0 -1.31702758
Link 2 8 8 0 0.51416180
Link 3 8 9 0 -0.65279585
Link 4 8 10 0 0.13008248
Link 5 8 11 0 -1.52971460
Link 6 8 12 0 -1.15829298
Link 1 9 13 0 -0.02940676
Link 2 9 14 0 1.90946872
Link 3 9 15 0 1.05339840
Link 4 9 16 0 5.48007022
Link 5 9 17 0 -2.85602417
Link 6 9 18 0 -0.86177631
Link 15 7 40 0 0.14367770
Link 3 17 47 0 1.20037222
Link 17 7 48 0 -4.49791317
Link 4 21 64 0 1.00000000
Link 21 15 65 0 0.84740614
GenomeEnd

