GenomeStart 18871
Genome Fitness: 246.000000 
Neuron 1 1 0.00000000 1 0.00000000 0.00000000 0.00000000 0.00000000
Neuron 2 1 0.00000000 1 0.00000000 0.00000000 0.00000000 0.00000000
Neuron 3 1 0.00000000 1 0.00000000 0.00000000 0.00000000 0.00000000
Neuron 4 1 0.00000000 1 0.00000000 0.00000000 0.00000000 0.00000000
Neuron 5 1 0.00000000 1 0.00000000 0.00000000 0.00000000 0.00000000
Neuron 6 1 0.00000000 1 0.00000000 0.00000000 0.00000000 0.00000000
Neuron 7 1 0.00000000 1 0.00000000 0.00000000 0.00000000 0.00000000
Neuron 8 1 0.00000000 1 0.00000000 0.00000000 0.00000000 0.00000000
Neuron 9 1 0.00000000 1 0.00000000 0.00000000 0.00000000 0.00000000
Neuron 10 1 0.00000000 1 0.00000000 0.00000000 0.00000000 0.00000000
Neuron 11 1 0.00000000 1 0.00000000 0.00000000 0.00000000 0.00000000
Neuron 12 1 0.00000000 1 0.00000000 0.00000000 0.00000000 0.00000000
Neuron 13 1 0.00000000 1 0.00000000 0.00000000 0.00000000 0.00000000
Neuron 14 2 0.00000000 1 0.00000000 0.00000000 0.00000000 0.00000000
Neuron 15 4 1.00000000 1 4.90000000 0.00000000 0.00000000 0.00000000
Neuron 16 4 1.00000000 1 4.90000000 0.00000000 0.00000000 0.00000000
Neuron 17 4 1.00000000 1 4.90000000 0.00000000 0.00000000 0.00000000
Neuron 19 3 0.50000000 1 4.90000000 0.00000000 0.00000000 0.00000000
Neuron 26 3 0.50000000 1 4.90000000 0.00000000 0.00000000 0.00000000
Neuron 31 3 0.50000000 1 4.90000000 0.00000000 0.00000000 0.00000000
Neuron 32 3 0.50000000 1 4.90000000 0.00000000 0.00000000 0.00000000
Link 1 15 1 0 3.26439024
Link 2 15 2 0 -0.50145437
Link 3 15 3 0 -4.04867543
Link 4 15 4 0 -1.78471992
Link 5 15 5 0 0.18848315
Link 6 15 6 0 -1.20946374
Link 7 15 7 0 1.09877678
Link 8 15 8 0 4.78173339
Link 9 15 9 0 -0.31546271
Link 10 15 10 0 2.70166447
Link 11 15 11 0 1.70163484
Link 12 15 12 0 -4.37917350
Link 14 15 14 0 0.73711699
Link 1 16 15 0 -3.72230535
Link 2 16 16 0 5.92496852
Link 3 16 17 0 -2.50514658
Link 4 16 18 0 -0.92094801
Link 5 16 19 0 -0.44326348
Link 7 16 21 0 0.50924379
Link 8 16 22 0 1.16904223
Link 9 16 23 0 -2.79581180
Link 11 16 25 0 1.83132782
Link 13 16 27 0 -0.69097191
Link 14 16 28 0 0.43529203
Link 1 17 29 0 0.73713593
Link 2 17 30 0 -0.82089244
Link 3 17 31 0 1.08686776
Link 4 17 32 0 2.14499903
Link 5 17 33 0 0.67629915
Link 6 17 34 0 0.10022901
Link 7 17 35 0 -0.05882455
Link 8 17 36 0 -3.16209924
Link 9 17 37 0 -0.43419070
Link 10 17 38 0 -1.69500466
Link 11 17 39 0 -2.53424174
Link 12 17 40 0 -0.62511695
Link 13 17 41 0 0.59172994
Link 14 17 42 0 1.45717695
Link 6 19 47 0 0.99417290
Link 19 16 48 0 5.29991649
Link 12 26 68 0 0.14394659
Link 26 16 69 0 1.68140445
Link 13 31 87 0 0.44889507
Link 31 15 88 0 -0.38115742
Link 10 32 90 0 1.35072817
Link 32 16 91 0 -0.93889753
GenomeEnd

