GenomeStart 11529
Genome Fitness: 234.000000 
Neuron 1 1 0.00000000 1 0.00000000 0.00000000 0.00000000 0.00000000
Neuron 2 1 0.00000000 1 0.00000000 0.00000000 0.00000000 0.00000000
Neuron 3 1 0.00000000 1 0.00000000 0.00000000 0.00000000 0.00000000
Neuron 4 1 0.00000000 1 0.00000000 0.00000000 0.00000000 0.00000000
Neuron 5 1 0.00000000 1 0.00000000 0.00000000 0.00000000 0.00000000
Neuron 6 1 0.00000000 1 0.00000000 0.00000000 0.00000000 0.00000000
Neuron 7 1 0.00000000 1 0.00000000 0.00000000 0.00000000 0.00000000
Neuron 8 1 0.00000000 1 0.00000000 0.00000000 0.00000000 0.00000000
Neuron 9 1 0.00000000 1 0.00000000 0.00000000 0.00000000 0.00000000
Neuron 10 1 0.00000000 1 0.00000000 0.00000000 0.00000000 0.00000000
Neuron 11 1 0.00000000 1 0.00000000 0.00000000 0.00000000 0.00000000
Neuron 12 1 0.00000000 1 0.00000000 0.00000000 0.00000000 0.00000000
Neuron 13 1 0.00000000 1 0.00000000 0.00000000 0.00000000 0.00000000
Neuron 14 2 0.00000000 1 0.00000000 0.00000000 0.00000000 0.00000000
Neuron 15 4 1.00000000 1 4.90000000 0.00000000 0.00000000 0.00000000
Neuron 16 4 1.00000000 1 4.90000000 0.00000000 0.00000000 0.00000000
Neuron 17 4 1.00000000 1 4.90000000 0.00000000 0.00000000 0.00000000
Neuron 27 3 0.50000000 1 4.90000000 0.00000000 0.00000000 0.00000000
Link 1 15 1 0 2.14552241
Link 2 15 2 0 -2.16127842
Link 3 15 3 0 -1.56385600
Link 4 15 4 0 -1.64116577
Link 5 15 5 0 -1.57149451
Link 6 15 6 0 -0.61671337
Link 7 15 7 0 2.09218705
Link 8 15 8 0 2.06598778
Link 9 15 9 0 0.26493986
Link 10 15 10 0 -1.60960503
Link 11 15 11 0 -0.02650307
Link 12 15 12 0 3.47161541
Link 13 15 13 0 1.39177414
Link 14 15 14 0 -1.63858178
Link 1 16 15 0 -3.15049814
Link 2 16 16 0 2.33351763
Link 3 16 17 0 -2.64528619
Link 4 16 18 0 -0.31901302
Link 5 16 19 0 0.77401418
Link 6 16 20 0 -1.30850238
Link 7 16 21 0 -1.18728286
Link 8 16 22 0 1.70316212
Link 9 16 23 0 -1.66163930
Link 10 16 24 0 0.74513223
Link 11 16 25 0 3.36424097
Link 12 16 26 0 2.05047013
Link 13 16 27 0 1.41165989
Link 14 16 28 0 -3.26990581
Link 1 17 29 0 0.24875789
Link 2 17 30 0 -3.16948336
Link 3 17 31 0 -2.70249441
Link 4 17 32 0 -0.94742838
Link 5 17 33 0 -1.94625764
Link 6 17 34 0 2.20724676
Link 7 17 35 0 -2.46742617
Link 8 17 36 0 -0.30388184
Link 9 17 37 0 1.46049126
Link 10 17 38 0 -3.35121200
Link 11 17 39 0 -6.42051223
Link 12 17 40 0 -0.84782527
Link 13 17 41 0 -1.95951760
Link 14 17 42 0 0.04767249
Link 11 27 72 0 2.32868739
Link 27 15 73 0 -1.94582102
Link 13 27 167 0 2.03011772
GenomeEnd

