GenomeStart 76204
Genome Fitness: 597.000000 
Neuron 1 1 0.00000000 1 0.00000000 0.00000000 0.00000000 0.00000000
Neuron 2 1 0.00000000 1 0.00000000 0.00000000 0.00000000 0.00000000
Neuron 3 1 0.00000000 1 0.00000000 0.00000000 0.00000000 0.00000000
Neuron 4 1 0.00000000 1 0.00000000 0.00000000 0.00000000 0.00000000
Neuron 5 1 0.00000000 1 0.00000000 0.00000000 0.00000000 0.00000000
Neuron 6 1 0.00000000 1 0.00000000 0.00000000 0.00000000 0.00000000
Neuron 7 1 0.00000000 1 0.00000000 0.00000000 0.00000000 0.00000000
Neuron 8 1 0.00000000 1 0.00000000 0.00000000 0.00000000 0.00000000
Neuron 9 1 0.00000000 1 0.00000000 0.00000000 0.00000000 0.00000000
Neuron 10 1 0.00000000 1 0.00000000 0.00000000 0.00000000 0.00000000
Neuron 11 1 0.00000000 1 0.00000000 0.00000000 0.00000000 0.00000000
Neuron 12 1 0.00000000 1 0.00000000 0.00000000 0.00000000 0.00000000
Neuron 13 1 0.00000000 1 0.00000000 0.00000000 0.00000000 0.00000000
Neuron 14 2 0.00000000 1 0.00000000 0.00000000 0.00000000 0.00000000
Neuron 15 4 1.00000000 1 4.90000000 0.00000000 0.00000000 0.00000000
Neuron 16 4 1.00000000 1 4.90000000 0.00000000 0.00000000 0.00000000
Neuron 17 4 1.00000000 1 4.90000000 0.00000000 0.00000000 0.00000000
Neuron 19 3 0.50000000 1 4.90000000 0.00000000 0.00000000 0.00000000
Neuron 26 3 0.50000000 1 4.90000000 0.00000000 0.00000000 0.00000000
Neuron 31 3 0.50000000 1 4.90000000 0.00000000 0.00000000 0.00000000
Neuron 32 3 0.50000000 1 4.90000000 0.00000000 0.00000000 0.00000000
Neuron 38 3 0.50000000 1 4.90000000 0.00000000 0.00000000 0.00000000
Neuron 41 3 0.50000000 1 4.90000000 0.00000000 0.00000000 0.00000000
Neuron 65 3 0.75000000 1 4.90000000 0.00000000 0.00000000 0.00000000
Link 1 15 1 0 -0.00476186
Link 2 15 2 0 1.03233764
Link 4 15 4 0 -1.03307461
Link 5 15 5 0 -0.83555537
Link 6 15 6 0 4.74192117
Link 7 15 7 0 -0.59763452
Link 8 15 8 0 5.19273751
Link 9 15 9 0 -1.92288133
Link 11 15 11 0 -4.72810183
Link 12 15 12 0 -3.70845871
Link 14 15 14 0 0.22573213
Link 1 16 15 0 -1.52665099
Link 2 16 16 0 8.00000000
Link 3 16 17 0 -0.09630819
Link 4 16 18 0 0.25841608
Link 5 16 19 0 -0.78844117
Link 7 16 21 0 -1.42760080
Link 8 16 22 0 -1.83543558
Link 9 16 23 0 -2.05208503
Link 11 16 25 0 -1.09683543
Link 13 16 27 0 1.56700377
Link 14 16 28 0 2.37289153
Link 1 17 29 0 -2.23559201
Link 2 17 30 0 1.28855385
Link 3 17 31 0 0.00564630
Link 4 17 32 0 -0.77375980
Link 5 17 33 0 1.40263894
Link 6 17 34 0 1.66055106
Link 7 17 35 0 -0.82020209
Link 8 17 36 0 1.14003357
Link 9 17 37 0 0.65597258
Link 10 17 38 0 -5.59545332
Link 11 17 39 0 -4.30507295
Link 12 17 40 0 4.35336860
Link 13 17 41 0 1.70554501
Link 14 17 42 0 -0.93923749
Link 6 19 47 0 5.23092657
Link 12 26 68 0 -3.27204059
Link 26 16 69 0 -1.61280490
Link 13 31 87 0 -0.48457090
Link 31 15 88 0 0.11473566
Link 10 32 90 0 2.58500409
Link 32 16 91 0 -2.64161100
Link 10 38 110 0 0.68325544
Link 38 15 111 0 0.57320649
Link 3 41 123 0 -2.10039237
Link 41 15 124 0 1.76051613
Link 8 31 183 0 0.63811722
Link 26 17 249 0 2.41207747
Link 19 65 300 0 0.00509315
Link 65 16 301 0 -0.32120937
Link 19 17 381 0 3.30749361
Link 13 19 438 0 -0.17059783
Link 4 32 457 0 1.20042760
Link 5 32 603 0 -1.33976379
Link 41 19 931 0 -0.51753940
Link 38 26 1008 0 -0.60260281
Link 12 65 1052 0 1.55658175
GenomeEnd

