GenomeStart 15575
Genome Fitness: 246.000000 
Neuron 1 1 0.00000000 1 0.00000000 0.00000000 0.00000000 0.00000000
Neuron 2 1 0.00000000 1 0.00000000 0.00000000 0.00000000 0.00000000
Neuron 3 1 0.00000000 1 0.00000000 0.00000000 0.00000000 0.00000000
Neuron 4 1 0.00000000 1 0.00000000 0.00000000 0.00000000 0.00000000
Neuron 5 1 0.00000000 1 0.00000000 0.00000000 0.00000000 0.00000000
Neuron 6 1 0.00000000 1 0.00000000 0.00000000 0.00000000 0.00000000
Neuron 7 1 0.00000000 1 0.00000000 0.00000000 0.00000000 0.00000000
Neuron 8 1 0.00000000 1 0.00000000 0.00000000 0.00000000 0.00000000
Neuron 9 1 0.00000000 1 0.00000000 0.00000000 0.00000000 0.00000000
Neuron 10 1 0.00000000 1 0.00000000 0.00000000 0.00000000 0.00000000
Neuron 11 1 0.00000000 1 0.00000000 0.00000000 0.00000000 0.00000000
Neuron 12 1 0.00000000 1 0.00000000 0.00000000 0.00000000 0.00000000
Neuron 13 1 0.00000000 1 0.00000000 0.00000000 0.00000000 0.00000000
Neuron 14 2 0.00000000 1 0.00000000 0.00000000 0.00000000 0.00000000
Neuron 15 4 1.00000000 1 4.90000000 0.00000000 0.00000000 0.00000000
Neuron 16 4 1.00000000 1 4.90000000 0.00000000 0.00000000 0.00000000
Neuron 17 4 1.00000000 1 4.90000000 0.00000000 0.00000000 0.00000000
Neuron 19 3 0.50000000 1 4.90000000 0.00000000 0.00000000 0.00000000
Neuron 26 3 0.50000000 1 4.90000000 0.00000000 0.00000000 0.00000000
Neuron 31 3 0.50000000 1 4.90000000 0.00000000 0.00000000 0.00000000
Neuron 32 3 0.50000000 1 4.90000000 0.00000000 0.00000000 0.00000000
Link 1 15 1 0 3.26439024
Link 2 15 2 0 -0.00424148
Link 3 15 3 0 -4.04919331
Link 4 15 4 0 -1.50878485
Link 5 15 5 0 3.32378177
Link 6 15 6 0 -1.20533315
Link 7 15 7 0 1.09426862
Link 8 15 8 0 6.98017141
Link 9 15 9 0 1.67289660
Link 10 15 10 0 2.67465053
Link 11 15 11 0 1.70240945
Link 12 15 12 0 -4.05231910
Link 14 15 14 0 0.73433759
Link 1 16 15 0 -4.88084986
Link 2 16 16 0 4.78576258
Link 3 16 17 0 -0.57656902
Link 4 16 18 0 0.31813173
Link 5 16 19 0 0.12888749
Link 7 16 21 0 0.69284463
Link 8 16 22 0 0.42388841
Link 9 16 23 0 -2.97697571
Link 11 16 25 0 1.83120649
Link 13 16 27 0 -0.25283350
Link 14 16 28 0 0.43712351
Link 1 17 29 0 0.73515499
Link 2 17 30 0 -0.82052093
Link 3 17 31 0 1.08769063
Link 4 17 32 0 2.14661206
Link 5 17 33 0 0.68162604
Link 6 17 34 0 0.09639791
Link 7 17 35 0 -0.05792732
Link 8 17 36 0 -3.16143468
Link 9 17 37 0 -0.43292533
Link 10 17 38 0 -1.69627280
Link 11 17 39 0 -2.53524023
Link 12 17 40 0 -0.31784560
Link 13 17 41 0 0.99230580
Link 14 17 42 0 1.45088477
Link 6 19 47 0 0.57268012
Link 19 16 48 0 5.18176624
Link 12 26 68 0 0.14379748
Link 26 16 69 0 1.84824446
Link 13 31 87 0 -0.48560763
Link 31 15 88 0 -1.59292670
Link 10 32 90 0 2.37090911
Link 32 16 91 0 0.85729257
GenomeEnd

