GenomeStart 64802
Genome Fitness: 453.000000 
Neuron 1 1 0.00000000 1 0.00000000 0.00000000 0.00000000 0.00000000
Neuron 2 1 0.00000000 1 0.00000000 0.00000000 0.00000000 0.00000000
Neuron 3 1 0.00000000 1 0.00000000 0.00000000 0.00000000 0.00000000
Neuron 4 1 0.00000000 1 0.00000000 0.00000000 0.00000000 0.00000000
Neuron 5 1 0.00000000 1 0.00000000 0.00000000 0.00000000 0.00000000
Neuron 6 1 0.00000000 1 0.00000000 0.00000000 0.00000000 0.00000000
Neuron 7 1 0.00000000 1 0.00000000 0.00000000 0.00000000 0.00000000
Neuron 8 1 0.00000000 1 0.00000000 0.00000000 0.00000000 0.00000000
Neuron 9 1 0.00000000 1 0.00000000 0.00000000 0.00000000 0.00000000
Neuron 10 1 0.00000000 1 0.00000000 0.00000000 0.00000000 0.00000000
Neuron 11 1 0.00000000 1 0.00000000 0.00000000 0.00000000 0.00000000
Neuron 12 1 0.00000000 1 0.00000000 0.00000000 0.00000000 0.00000000
Neuron 13 1 0.00000000 1 0.00000000 0.00000000 0.00000000 0.00000000
Neuron 14 2 0.00000000 1 0.00000000 0.00000000 0.00000000 0.00000000
Neuron 15 4 1.00000000 1 4.90000000 0.00000000 0.00000000 0.00000000
Neuron 16 4 1.00000000 1 4.90000000 0.00000000 0.00000000 0.00000000
Neuron 17 4 1.00000000 1 4.90000000 0.00000000 0.00000000 0.00000000
Neuron 19 3 0.50000000 1 4.90000000 0.00000000 0.00000000 0.00000000
Neuron 26 3 0.50000000 1 4.90000000 0.00000000 0.00000000 0.00000000
Neuron 31 3 0.50000000 1 4.90000000 0.00000000 0.00000000 0.00000000
Neuron 32 3 0.50000000 1 4.90000000 0.00000000 0.00000000 0.00000000
Neuron 38 3 0.50000000 1 4.90000000 0.00000000 0.00000000 0.00000000
Neuron 41 3 0.50000000 1 4.90000000 0.00000000 0.00000000 0.00000000
Neuron 65 3 0.75000000 1 4.90000000 0.00000000 0.00000000 0.00000000
Link 1 15 1 0 -0.54000493
Link 2 15 2 0 1.03233764
Link 4 15 4 0 -1.03307461
Link 5 15 5 0 -0.28160305
Link 6 15 6 0 4.47727079
Link 7 15 7 0 -0.06667408
Link 8 15 8 0 5.31933820
Link 9 15 9 0 -1.92288133
Link 11 15 11 0 -4.72810183
Link 12 15 12 0 -1.71095467
Link 14 15 14 0 -0.86588034
Link 1 16 15 0 -2.70098581
Link 2 16 16 0 8.00000000
Link 3 16 17 0 0.22273228
Link 4 16 18 0 0.19813881
Link 5 16 19 0 -0.37177665
Link 7 16 21 0 -1.42760080
Link 8 16 22 0 -1.83543558
Link 9 16 23 0 -1.00919423
Link 11 16 25 0 -0.17371801
Link 13 16 27 0 0.79295406
Link 14 16 28 0 -2.38390374
Link 1 17 29 0 -2.71432159
Link 2 17 30 0 1.28855385
Link 3 17 31 0 1.30264700
Link 4 17 32 0 4.33673148
Link 5 17 33 0 0.78290587
Link 6 17 34 0 1.34624066
Link 7 17 35 0 -1.22829166
Link 8 17 36 0 -7.10810006
Link 9 17 37 0 -1.27731631
Link 10 17 38 0 -5.71827550
Link 11 17 39 0 -1.48560094
Link 12 17 40 0 4.12779254
Link 13 17 41 0 1.70554501
Link 14 17 42 0 -1.02215693
Link 6 19 47 0 4.29284370
Link 12 26 68 0 -2.90836074
Link 26 16 69 0 -1.02480611
Link 13 31 87 0 0.43170523
Link 31 15 88 0 -0.08621855
Link 10 32 90 0 1.18040954
Link 32 16 91 0 -2.45523987
Link 10 38 110 0 1.00000000
Link 38 15 111 0 0.04534967
Link 3 41 123 0 -1.90131432
Link 41 15 124 0 -2.52226440
Link 8 31 183 0 0.63811722
Link 19 65 300 0 1.00000000
Link 65 16 301 0 1.47406017
Link 19 17 381 0 3.30749361
Link 13 19 438 0 -0.17059783
Link 4 32 457 0 1.24455136
Link 5 32 603 0 1.66256859
Link 31 65 903 0 -1.85142040
GenomeEnd

