GenomeStart 16621
Genome Fitness: 246.000000 
Neuron 1 1 0.00000000 1 0.00000000 0.00000000 0.00000000 0.00000000
Neuron 2 1 0.00000000 1 0.00000000 0.00000000 0.00000000 0.00000000
Neuron 3 1 0.00000000 1 0.00000000 0.00000000 0.00000000 0.00000000
Neuron 4 1 0.00000000 1 0.00000000 0.00000000 0.00000000 0.00000000
Neuron 5 1 0.00000000 1 0.00000000 0.00000000 0.00000000 0.00000000
Neuron 6 1 0.00000000 1 0.00000000 0.00000000 0.00000000 0.00000000
Neuron 7 1 0.00000000 1 0.00000000 0.00000000 0.00000000 0.00000000
Neuron 8 1 0.00000000 1 0.00000000 0.00000000 0.00000000 0.00000000
Neuron 9 1 0.00000000 1 0.00000000 0.00000000 0.00000000 0.00000000
Neuron 10 1 0.00000000 1 0.00000000 0.00000000 0.00000000 0.00000000
Neuron 11 1 0.00000000 1 0.00000000 0.00000000 0.00000000 0.00000000
Neuron 12 1 0.00000000 1 0.00000000 0.00000000 0.00000000 0.00000000
Neuron 13 1 0.00000000 1 0.00000000 0.00000000 0.00000000 0.00000000
Neuron 14 2 0.00000000 1 0.00000000 0.00000000 0.00000000 0.00000000
Neuron 15 4 1.00000000 1 4.90000000 0.00000000 0.00000000 0.00000000
Neuron 16 4 1.00000000 1 4.90000000 0.00000000 0.00000000 0.00000000
Neuron 17 4 1.00000000 1 4.90000000 0.00000000 0.00000000 0.00000000
Neuron 19 3 0.50000000 1 4.90000000 0.00000000 0.00000000 0.00000000
Neuron 26 3 0.50000000 1 4.90000000 0.00000000 0.00000000 0.00000000
Neuron 31 3 0.50000000 1 4.90000000 0.00000000 0.00000000 0.00000000
Neuron 32 3 0.50000000 1 4.90000000 0.00000000 0.00000000 0.00000000
Link 1 15 1 0 3.26439024
Link 2 15 2 0 0.07625605
Link 3 15 3 0 -4.04873928
Link 4 15 4 0 -1.69725704
Link 5 15 5 0 1.10410133
Link 6 15 6 0 -1.20791477
Link 7 15 7 0 1.09713663
Link 8 15 8 0 5.60211036
Link 9 15 9 0 -0.08235892
Link 10 15 10 0 2.67525338
Link 11 15 11 0 1.70185554
Link 12 15 12 0 -4.27274778
Link 14 15 14 0 0.73658074
Link 1 16 15 0 -3.95337724
Link 2 16 16 0 5.68476603
Link 3 16 17 0 -1.78193000
Link 4 16 18 0 -0.45629311
Link 5 16 19 0 -0.22870687
Link 7 16 21 0 0.60753737
Link 8 16 22 0 0.98923090
Link 9 16 23 0 -2.84010030
Link 11 16 25 0 1.83128654
Link 13 16 27 0 -0.36208818
Link 14 16 28 0 0.43567820
Link 1 17 29 0 0.73677208
Link 2 17 30 0 -0.82075312
Link 3 17 31 0 1.08710023
Link 4 17 32 0 2.14535770
Link 5 17 33 0 0.67822703
Link 6 17 34 0 0.09916530
Link 7 17 35 0 -0.05860288
Link 8 17 36 0 -3.16205558
Link 9 17 37 0 -0.43392390
Link 10 17 38 0 -1.69516101
Link 11 17 39 0 -2.53461617
Link 12 17 40 0 -0.57713895
Link 13 17 41 0 0.65246502
Link 14 17 42 0 1.45481738
Link 6 19 47 0 0.56882001
Link 19 16 48 0 5.10322752
Link 12 26 68 0 0.14391515
Link 26 16 69 0 1.84879058
Link 13 31 87 0 -0.01609827
Link 31 15 88 0 -0.63665995
Link 10 32 90 0 1.73329602
Link 32 16 91 0 -0.13969482
GenomeEnd

