GenomeStart 19918
Genome Fitness: 246.000000 
Neuron 1 1 0.00000000 1 0.00000000 0.00000000 0.00000000 0.00000000
Neuron 2 1 0.00000000 1 0.00000000 0.00000000 0.00000000 0.00000000
Neuron 3 1 0.00000000 1 0.00000000 0.00000000 0.00000000 0.00000000
Neuron 4 1 0.00000000 1 0.00000000 0.00000000 0.00000000 0.00000000
Neuron 5 1 0.00000000 1 0.00000000 0.00000000 0.00000000 0.00000000
Neuron 6 1 0.00000000 1 0.00000000 0.00000000 0.00000000 0.00000000
Neuron 7 1 0.00000000 1 0.00000000 0.00000000 0.00000000 0.00000000
Neuron 8 1 0.00000000 1 0.00000000 0.00000000 0.00000000 0.00000000
Neuron 9 1 0.00000000 1 0.00000000 0.00000000 0.00000000 0.00000000
Neuron 10 1 0.00000000 1 0.00000000 0.00000000 0.00000000 0.00000000
Neuron 11 1 0.00000000 1 0.00000000 0.00000000 0.00000000 0.00000000
Neuron 12 1 0.00000000 1 0.00000000 0.00000000 0.00000000 0.00000000
Neuron 13 1 0.00000000 1 0.00000000 0.00000000 0.00000000 0.00000000
Neuron 14 2 0.00000000 1 0.00000000 0.00000000 0.00000000 0.00000000
Neuron 15 4 1.00000000 1 4.90000000 0.00000000 0.00000000 0.00000000
Neuron 16 4 1.00000000 1 4.90000000 0.00000000 0.00000000 0.00000000
Neuron 17 4 1.00000000 1 4.90000000 0.00000000 0.00000000 0.00000000
Neuron 19 3 0.50000000 1 4.90000000 0.00000000 0.00000000 0.00000000
Neuron 26 3 0.50000000 1 4.90000000 0.00000000 0.00000000 0.00000000
Neuron 31 3 0.50000000 1 4.90000000 0.00000000 0.00000000 0.00000000
Neuron 32 3 0.50000000 1 4.90000000 0.00000000 0.00000000 0.00000000
Link 1 15 1 0 3.26439024
Link 2 15 2 0 -0.74412858
Link 3 15 3 0 -4.04872997
Link 4 15 4 0 -1.78339472
Link 5 15 5 0 0.39816949
Link 6 15 6 0 -1.20946374
Link 7 15 7 0 1.12506156
Link 8 15 8 0 4.77608119
Link 9 15 9 0 -0.31032072
Link 10 15 10 0 2.67525338
Link 11 15 11 0 1.70168937
Link 12 15 12 0 -4.38464655
Link 14 15 14 0 0.84334973
Link 1 16 15 0 -3.89504779
Link 2 16 16 0 6.12893229
Link 3 16 17 0 -2.50514658
Link 4 16 18 0 -1.21249093
Link 5 16 19 0 -0.44326348
Link 7 16 21 0 0.30699402
Link 8 16 22 0 1.17125302
Link 9 16 23 0 -2.95081888
Link 11 16 25 0 1.83133373
Link 13 16 27 0 -1.30547432
Link 14 16 28 0 0.40029487
Link 1 17 29 0 0.73695401
Link 2 17 30 0 -0.82089244
Link 3 17 31 0 1.08677989
Link 4 17 32 0 2.14498801
Link 5 17 33 0 0.67640670
Link 6 17 34 0 0.10012686
Link 7 17 35 0 -0.05881268
Link 8 17 36 0 -3.16205558
Link 9 17 37 0 -0.43435351
Link 10 17 38 0 -1.69505189
Link 11 17 39 0 -2.53424174
Link 12 17 40 0 -0.61230333
Link 13 17 41 0 0.52340297
Link 14 17 42 0 1.45717695
Link 6 19 47 0 1.06799210
Link 19 16 48 0 5.43906083
Link 12 26 68 0 0.14394432
Link 26 16 69 0 1.78602078
Link 13 31 87 0 0.67970374
Link 31 15 88 0 -0.29918447
Link 10 32 90 0 1.35072817
Link 32 16 91 0 -0.90322299
Link 13 19 438 0 -0.36784648
GenomeEnd

