GenomeStart 66002
Genome Fitness: 453.000000 
Neuron 1 1 0.00000000 1 0.00000000 0.00000000 0.00000000 0.00000000
Neuron 2 1 0.00000000 1 0.00000000 0.00000000 0.00000000 0.00000000
Neuron 3 1 0.00000000 1 0.00000000 0.00000000 0.00000000 0.00000000
Neuron 4 1 0.00000000 1 0.00000000 0.00000000 0.00000000 0.00000000
Neuron 5 1 0.00000000 1 0.00000000 0.00000000 0.00000000 0.00000000
Neuron 6 1 0.00000000 1 0.00000000 0.00000000 0.00000000 0.00000000
Neuron 7 1 0.00000000 1 0.00000000 0.00000000 0.00000000 0.00000000
Neuron 8 1 0.00000000 1 0.00000000 0.00000000 0.00000000 0.00000000
Neuron 9 1 0.00000000 1 0.00000000 0.00000000 0.00000000 0.00000000
Neuron 10 1 0.00000000 1 0.00000000 0.00000000 0.00000000 0.00000000
Neuron 11 1 0.00000000 1 0.00000000 0.00000000 0.00000000 0.00000000
Neuron 12 1 0.00000000 1 0.00000000 0.00000000 0.00000000 0.00000000
Neuron 13 1 0.00000000 1 0.00000000 0.00000000 0.00000000 0.00000000
Neuron 14 2 0.00000000 1 0.00000000 0.00000000 0.00000000 0.00000000
Neuron 15 4 1.00000000 1 4.90000000 0.00000000 0.00000000 0.00000000
Neuron 16 4 1.00000000 1 4.90000000 0.00000000 0.00000000 0.00000000
Neuron 17 4 1.00000000 1 4.90000000 0.00000000 0.00000000 0.00000000
Neuron 19 3 0.50000000 1 4.90000000 0.00000000 0.00000000 0.00000000
Neuron 26 3 0.50000000 1 4.90000000 0.00000000 0.00000000 0.00000000
Neuron 31 3 0.50000000 1 4.90000000 0.00000000 0.00000000 0.00000000
Neuron 32 3 0.50000000 1 4.90000000 0.00000000 0.00000000 0.00000000
Neuron 38 3 0.50000000 1 4.90000000 0.00000000 0.00000000 0.00000000
Neuron 41 3 0.50000000 1 4.90000000 0.00000000 0.00000000 0.00000000
Neuron 65 3 0.75000000 1 4.90000000 0.00000000 0.00000000 0.00000000
Link 1 15 1 0 -0.54000493
Link 2 15 2 0 1.03233764
Link 4 15 4 0 -1.03307461
Link 5 15 5 0 -0.28160305
Link 6 15 6 0 4.47727079
Link 7 15 7 0 -0.06667408
Link 8 15 8 0 5.31933820
Link 9 15 9 0 -1.92288133
Link 11 15 11 0 -4.72810183
Link 12 15 12 0 -2.64639432
Link 14 15 14 0 -1.31688799
Link 1 16 15 0 -2.70098581
Link 2 16 16 0 8.00000000
Link 3 16 17 0 0.71593808
Link 4 16 18 0 0.99606993
Link 5 16 19 0 -0.37177665
Link 7 16 21 0 -1.42760080
Link 8 16 22 0 -1.83543558
Link 9 16 23 0 -1.00919423
Link 11 16 25 0 -2.01995286
Link 13 16 27 0 0.79295406
Link 14 16 28 0 -2.38390374
Link 1 17 29 0 -1.75686243
Link 2 17 30 0 1.28855385
Link 3 17 31 0 1.16368026
Link 4 17 32 0 4.14879799
Link 5 17 33 0 -1.74357760
Link 6 17 34 0 1.34624066
Link 7 17 35 0 -1.22829166
Link 8 17 36 0 -1.46434105
Link 9 17 37 0 -1.30728939
Link 10 17 38 0 -4.98378237
Link 11 17 39 0 -1.48560094
Link 12 17 40 0 4.12779254
Link 13 17 41 0 1.70554501
Link 14 17 42 0 -1.19993768
Link 6 19 47 0 4.29284370
Link 12 26 68 0 -3.63572043
Link 26 16 69 0 -0.99713163
Link 13 31 87 0 -0.35624881
Link 31 15 88 0 0.71759829
Link 10 32 90 0 1.83999788
Link 32 16 91 0 -2.82798212
Link 10 38 110 0 -0.52276214
Link 38 15 111 0 -0.24674012
Link 3 41 123 0 -2.06996027
Link 41 15 124 0 -2.52226440
Link 8 31 183 0 0.63811722
Link 19 65 300 0 1.00000000
Link 65 16 301 0 -2.56442172
Link 19 17 381 0 3.30749361
Link 13 19 438 0 -0.17059783
Link 4 32 457 0 2.43593453
Link 5 32 603 0 2.60686675
GenomeEnd

