GenomeStart 17070
Genome Fitness: 246.000000 
Neuron 1 1 0.00000000 1 0.00000000 0.00000000 0.00000000 0.00000000
Neuron 2 1 0.00000000 1 0.00000000 0.00000000 0.00000000 0.00000000
Neuron 3 1 0.00000000 1 0.00000000 0.00000000 0.00000000 0.00000000
Neuron 4 1 0.00000000 1 0.00000000 0.00000000 0.00000000 0.00000000
Neuron 5 1 0.00000000 1 0.00000000 0.00000000 0.00000000 0.00000000
Neuron 6 1 0.00000000 1 0.00000000 0.00000000 0.00000000 0.00000000
Neuron 7 1 0.00000000 1 0.00000000 0.00000000 0.00000000 0.00000000
Neuron 8 1 0.00000000 1 0.00000000 0.00000000 0.00000000 0.00000000
Neuron 9 1 0.00000000 1 0.00000000 0.00000000 0.00000000 0.00000000
Neuron 10 1 0.00000000 1 0.00000000 0.00000000 0.00000000 0.00000000
Neuron 11 1 0.00000000 1 0.00000000 0.00000000 0.00000000 0.00000000
Neuron 12 1 0.00000000 1 0.00000000 0.00000000 0.00000000 0.00000000
Neuron 13 1 0.00000000 1 0.00000000 0.00000000 0.00000000 0.00000000
Neuron 14 2 0.00000000 1 0.00000000 0.00000000 0.00000000 0.00000000
Neuron 15 4 1.00000000 1 4.90000000 0.00000000 0.00000000 0.00000000
Neuron 16 4 1.00000000 1 4.90000000 0.00000000 0.00000000 0.00000000
Neuron 17 4 1.00000000 1 4.90000000 0.00000000 0.00000000 0.00000000
Neuron 19 3 0.50000000 1 4.90000000 0.00000000 0.00000000 0.00000000
Neuron 26 3 0.50000000 1 4.90000000 0.00000000 0.00000000 0.00000000
Neuron 31 3 0.50000000 1 4.90000000 0.00000000 0.00000000 0.00000000
Neuron 32 3 0.50000000 1 4.90000000 0.00000000 0.00000000 0.00000000
Link 1 15 1 0 3.26439024
Link 2 15 2 0 0.08949103
Link 3 15 3 0 -4.04860307
Link 4 15 4 0 -1.75379870
Link 5 15 5 0 0.43819720
Link 6 15 6 0 -1.20868925
Link 7 15 7 0 1.09799704
Link 8 15 8 0 5.18869205
Link 9 15 9 0 -0.66740374
Link 10 15 10 0 2.67543424
Link 11 15 11 0 1.70168937
Link 12 15 12 0 -4.33887638
Link 14 15 14 0 0.73725368
Link 1 16 15 0 -3.67513546
Link 2 16 16 0 5.95446707
Link 3 16 17 0 -2.14353829
Link 4 16 18 0 -0.92094801
Link 5 16 19 0 -0.44326348
Link 7 16 21 0 0.65095164
Link 8 16 22 0 1.08355815
Link 9 16 23 0 -2.79474888
Link 11 16 25 0 1.83131056
Link 13 16 27 0 -0.30743048
Link 14 16 28 0 0.43524460
Link 1 17 29 0 0.73774234
Link 2 17 30 0 -0.82082278
Link 3 17 31 0 1.08674598
Link 4 17 32 0 2.14498140
Link 5 17 33 0 0.67720733
Link 6 17 34 0 0.09999551
Link 7 17 35 0 -0.05880555
Link 8 17 36 0 -3.16242812
Link 9 17 37 0 -0.43422347
Link 10 17 38 0 -1.69482747
Link 11 17 39 0 -2.53442896
Link 12 17 40 0 -0.66363450
Link 13 17 41 0 0.65246502
Link 14 17 42 0 1.45717695
Link 6 19 47 0 0.56650395
Link 19 16 48 0 5.06371192
Link 12 26 68 0 0.14398576
Link 26 16 69 0 1.84895442
Link 13 31 87 0 0.06257490
Link 31 15 88 0 -0.06289990
Link 10 32 90 0 1.54201210
Link 32 16 91 0 -0.65433966
GenomeEnd

