GenomeStart 149728
Genome Fitness: 1254.000000 
Neuron 1 1 0.00000000 1 0.00000000 0.00000000 0.00000000 0.00000000
Neuron 2 1 0.00000000 1 0.00000000 0.00000000 0.00000000 0.00000000
Neuron 3 1 0.00000000 1 0.00000000 0.00000000 0.00000000 0.00000000
Neuron 4 1 0.00000000 1 0.00000000 0.00000000 0.00000000 0.00000000
Neuron 5 1 0.00000000 1 0.00000000 0.00000000 0.00000000 0.00000000
Neuron 6 1 0.00000000 1 0.00000000 0.00000000 0.00000000 0.00000000
Neuron 7 1 0.00000000 1 0.00000000 0.00000000 0.00000000 0.00000000
Neuron 8 1 0.00000000 1 0.00000000 0.00000000 0.00000000 0.00000000
Neuron 9 1 0.00000000 1 0.00000000 0.00000000 0.00000000 0.00000000
Neuron 10 1 0.00000000 1 0.00000000 0.00000000 0.00000000 0.00000000
Neuron 11 1 0.00000000 1 0.00000000 0.00000000 0.00000000 0.00000000
Neuron 12 1 0.00000000 1 0.00000000 0.00000000 0.00000000 0.00000000
Neuron 13 1 0.00000000 1 0.00000000 0.00000000 0.00000000 0.00000000
Neuron 14 2 0.00000000 1 0.00000000 0.00000000 0.00000000 0.00000000
Neuron 15 4 1.00000000 1 4.90000000 0.00000000 0.00000000 0.00000000
Neuron 16 4 1.00000000 1 4.90000000 0.00000000 0.00000000 0.00000000
Neuron 17 4 1.00000000 1 4.90000000 0.00000000 0.00000000 0.00000000
Neuron 19 3 0.50000000 1 4.90000000 0.00000000 0.00000000 0.00000000
Neuron 26 3 0.50000000 1 4.90000000 0.00000000 0.00000000 0.00000000
Neuron 31 3 0.50000000 1 4.90000000 0.00000000 0.00000000 0.00000000
Neuron 32 3 0.50000000 1 4.90000000 0.00000000 0.00000000 0.00000000
Neuron 38 3 0.50000000 1 4.90000000 0.00000000 0.00000000 0.00000000
Neuron 41 3 0.50000000 1 4.90000000 0.00000000 0.00000000 0.00000000
Neuron 61 3 0.25000000 1 4.90000000 0.00000000 0.00000000 0.00000000
Neuron 65 3 0.75000000 1 4.90000000 0.00000000 0.00000000 0.00000000
Neuron 152 3 0.37500000 1 4.90000000 0.00000000 0.00000000 0.00000000
Link 1 15 1 0 0.84952119
Link 2 15 2 0 1.02306485
Link 4 15 4 0 -1.19519524
Link 5 15 5 0 -0.35849932
Link 6 15 6 0 4.74192117
Link 7 15 7 0 -0.44123279
Link 8 15 8 0 3.91822501
Link 9 15 9 0 -2.22978616
Link 11 15 11 0 -5.40234853
Link 12 15 12 0 -4.47657537
Link 14 15 14 0 -3.59742659
Link 1 16 15 0 -2.31945707
Link 2 16 16 0 6.10919725
Link 3 16 17 0 -0.13510836
Link 4 16 18 0 1.07867329
Link 5 16 19 0 -1.23426295
Link 7 16 21 0 -1.02667205
Link 8 16 22 0 -2.56005494
Link 9 16 23 0 0.47368965
Link 11 16 25 0 -0.35099823
Link 13 16 27 0 1.81416652
Link 14 16 28 0 0.06110791
Link 1 17 29 0 -1.40578681
Link 2 17 30 0 2.08825175
Link 3 17 31 0 0.12670745
Link 4 17 32 0 -0.79166562
Link 5 17 33 0 0.35788857
Link 6 17 34 0 -1.85348584
Link 7 17 35 0 -0.72985780
Link 8 17 36 0 0.73441395
Link 9 17 37 0 2.08377860
Link 10 17 38 0 -6.57558604
Link 11 17 39 0 2.74224536
Link 12 17 40 0 -4.24376775
Link 13 17 41 0 2.21707934
Link 14 17 42 0 1.88233200
Link 6 19 47 0 6.46619907
Link 12 26 68 0 -1.34140823
Link 26 16 69 0 1.04667909
Link 31 15 88 0 -3.00062383
Link 10 32 90 0 2.58500409
Link 32 16 91 0 -3.39051846
Link 10 38 110 0 0.31351672
Link 38 15 111 0 0.03275231
Link 3 41 123 0 -2.03252790
Link 41 15 124 0 1.17494552
Link 8 31 183 0 0.03305780
Link 2 19 192 0 -2.66532147
Link 13 61 253 0 1.00000000
Link 61 31 254 0 -0.19088521
Link 19 65 300 0 -1.79989262
Link 65 16 301 0 -1.60265337
Link 11 31 304 0 0.10953351
Link 19 17 381 0 4.18752290
Link 5 31 412 0 -0.28247606
Link 13 19 438 0 1.14193762
Link 4 32 457 0 -0.39473746
Link 5 32 603 0 -1.46131421
Link 41 16 797 0 0.34869873
Link 41 19 931 0 -1.89112706
Link 8 65 933 0 2.23892265
Link 38 26 1008 0 -0.19452253
Link 6 38 1066 0 0.56256983
Link 12 152 1071 0 1.00000000
Link 152 65 1072 0 -1.59603794
GenomeEnd

