GenomeStart 46637
Genome Fitness: 412.000000 
Neuron 1 1 0.00000000 1 0.00000000 0.00000000 0.00000000 0.00000000
Neuron 2 1 0.00000000 1 0.00000000 0.00000000 0.00000000 0.00000000
Neuron 3 1 0.00000000 1 0.00000000 0.00000000 0.00000000 0.00000000
Neuron 4 1 0.00000000 1 0.00000000 0.00000000 0.00000000 0.00000000
Neuron 5 1 0.00000000 1 0.00000000 0.00000000 0.00000000 0.00000000
Neuron 6 1 0.00000000 1 0.00000000 0.00000000 0.00000000 0.00000000
Neuron 7 1 0.00000000 1 0.00000000 0.00000000 0.00000000 0.00000000
Neuron 8 1 0.00000000 1 0.00000000 0.00000000 0.00000000 0.00000000
Neuron 9 1 0.00000000 1 0.00000000 0.00000000 0.00000000 0.00000000
Neuron 10 1 0.00000000 1 0.00000000 0.00000000 0.00000000 0.00000000
Neuron 11 1 0.00000000 1 0.00000000 0.00000000 0.00000000 0.00000000
Neuron 12 1 0.00000000 1 0.00000000 0.00000000 0.00000000 0.00000000
Neuron 13 1 0.00000000 1 0.00000000 0.00000000 0.00000000 0.00000000
Neuron 14 2 0.00000000 1 0.00000000 0.00000000 0.00000000 0.00000000
Neuron 15 4 1.00000000 1 4.90000000 0.00000000 0.00000000 0.00000000
Neuron 16 4 1.00000000 1 4.90000000 0.00000000 0.00000000 0.00000000
Neuron 17 4 1.00000000 1 4.90000000 0.00000000 0.00000000 0.00000000
Neuron 19 3 0.50000000 1 4.90000000 0.00000000 0.00000000 0.00000000
Neuron 26 3 0.50000000 1 4.90000000 0.00000000 0.00000000 0.00000000
Neuron 31 3 0.50000000 1 4.90000000 0.00000000 0.00000000 0.00000000
Neuron 32 3 0.50000000 1 4.90000000 0.00000000 0.00000000 0.00000000
Neuron 55 3 0.75000000 1 4.90000000 0.00000000 0.00000000 0.00000000
Link 1 15 1 0 2.76239151
Link 2 15 2 0 -0.72984676
Link 3 15 3 0 0.35631087
Link 4 15 4 0 -2.24125300
Link 5 15 5 0 0.14673157
Link 6 15 6 0 -1.20946374
Link 7 15 7 0 1.29622664
Link 8 15 8 0 4.47656551
Link 9 15 9 0 -0.31032072
Link 10 15 10 0 2.67525338
Link 11 15 11 0 -0.14056620
Link 12 15 12 0 -4.21571313
Link 14 15 14 0 -0.79225159
Link 1 16 15 0 -4.69076946
Link 2 16 16 0 7.15328484
Link 3 16 17 0 1.41600854
Link 4 16 18 0 -0.36039388
Link 5 16 19 0 -1.00045511
Link 7 16 21 0 0.30001990
Link 8 16 22 0 -1.03760230
Link 9 16 23 0 -3.25487021
Link 11 16 25 0 0.62447074
Link 13 16 27 0 -3.09698172
Link 14 16 28 0 1.93446806
Link 1 17 29 0 0.28172628
Link 2 17 30 0 -0.78558524
Link 3 17 31 0 2.56361790
Link 4 17 32 0 2.24821593
Link 5 17 33 0 1.74059707
Link 6 17 34 0 0.10012270
Link 7 17 35 0 -0.05881208
Link 8 17 36 0 -3.16205558
Link 9 17 37 0 -3.47444200
Link 10 17 38 0 -1.69503723
Link 11 17 39 0 -2.53424174
Link 12 17 40 0 -1.85543683
Link 13 17 41 0 0.52332792
Link 14 17 42 0 2.02814336
Link 6 19 47 0 1.06491630
Link 19 16 48 0 5.50255331
Link 12 26 68 0 -1.26599366
Link 26 16 69 0 1.76509752
Link 13 31 87 0 -0.33683324
Link 10 32 90 0 0.98280364
Link 32 16 91 0 1.49088748
Link 8 31 183 0 0.21775277
Link 31 55 201 0 1.00000000
Link 55 15 202 0 -1.72876935
Link 19 17 381 0 4.24716126
Link 13 19 438 0 2.13759750
Link 4 32 457 0 0.83565219
GenomeEnd

