GenomeStart 131143
Genome Fitness: 1254.000000 
Neuron 1 1 0.00000000 1 0.00000000 0.00000000 0.00000000 0.00000000
Neuron 2 1 0.00000000 1 0.00000000 0.00000000 0.00000000 0.00000000
Neuron 3 1 0.00000000 1 0.00000000 0.00000000 0.00000000 0.00000000
Neuron 4 1 0.00000000 1 0.00000000 0.00000000 0.00000000 0.00000000
Neuron 5 1 0.00000000 1 0.00000000 0.00000000 0.00000000 0.00000000
Neuron 6 1 0.00000000 1 0.00000000 0.00000000 0.00000000 0.00000000
Neuron 7 1 0.00000000 1 0.00000000 0.00000000 0.00000000 0.00000000
Neuron 8 1 0.00000000 1 0.00000000 0.00000000 0.00000000 0.00000000
Neuron 9 1 0.00000000 1 0.00000000 0.00000000 0.00000000 0.00000000
Neuron 10 1 0.00000000 1 0.00000000 0.00000000 0.00000000 0.00000000
Neuron 11 1 0.00000000 1 0.00000000 0.00000000 0.00000000 0.00000000
Neuron 12 1 0.00000000 1 0.00000000 0.00000000 0.00000000 0.00000000
Neuron 13 1 0.00000000 1 0.00000000 0.00000000 0.00000000 0.00000000
Neuron 14 2 0.00000000 1 0.00000000 0.00000000 0.00000000 0.00000000
Neuron 15 4 1.00000000 1 4.90000000 0.00000000 0.00000000 0.00000000
Neuron 16 4 1.00000000 1 4.90000000 0.00000000 0.00000000 0.00000000
Neuron 17 4 1.00000000 1 4.90000000 0.00000000 0.00000000 0.00000000
Neuron 19 3 0.50000000 1 4.90000000 0.00000000 0.00000000 0.00000000
Neuron 26 3 0.50000000 1 4.90000000 0.00000000 0.00000000 0.00000000
Neuron 31 3 0.50000000 1 4.90000000 0.00000000 0.00000000 0.00000000
Neuron 32 3 0.50000000 1 4.90000000 0.00000000 0.00000000 0.00000000
Neuron 38 3 0.50000000 1 4.90000000 0.00000000 0.00000000 0.00000000
Neuron 41 3 0.50000000 1 4.90000000 0.00000000 0.00000000 0.00000000
Neuron 53 3 0.25000000 1 4.90000000 0.00000000 0.00000000 0.00000000
Neuron 65 3 0.75000000 1 4.90000000 0.00000000 0.00000000 0.00000000
Link 1 15 1 0 0.84952119
Link 2 15 2 0 1.02306485
Link 4 15 4 0 -1.19519524
Link 5 15 5 0 -0.35849932
Link 6 15 6 0 4.74192117
Link 7 15 7 0 -0.44123279
Link 8 15 8 0 3.91822501
Link 9 15 9 0 -2.22978616
Link 11 15 11 0 -5.40234853
Link 12 15 12 0 -3.90354824
Link 14 15 14 0 -4.05282244
Link 1 16 15 0 -2.31945707
Link 2 16 16 0 6.07747443
Link 3 16 17 0 0.11934828
Link 4 16 18 0 1.15704912
Link 5 16 19 0 -1.23426295
Link 7 16 21 0 -1.02667205
Link 8 16 22 0 -2.75266962
Link 9 16 23 0 0.46425448
Link 11 16 25 0 -0.35099823
Link 13 16 27 0 1.81416652
Link 14 16 28 0 0.06110791
Link 1 17 29 0 -1.40578681
Link 2 17 30 0 -0.63959267
Link 3 17 31 0 0.14138695
Link 4 17 32 0 -0.79166562
Link 5 17 33 0 0.35788857
Link 6 17 34 0 -1.33903285
Link 7 17 35 0 -1.56500049
Link 8 17 36 0 0.61126983
Link 9 17 37 0 2.08377860
Link 10 17 38 0 -6.13917708
Link 11 17 39 0 2.74224536
Link 12 17 40 0 -4.24376775
Link 13 17 41 0 2.21707934
Link 14 17 42 0 1.96004824
Link 12 26 68 0 -1.28058004
Link 26 16 69 0 1.04667909
Link 13 31 87 0 -0.19088521
Link 31 15 88 0 -4.62643948
Link 10 32 90 0 2.36005580
Link 32 16 91 0 -3.39051846
Link 10 38 110 0 0.31351672
Link 38 15 111 0 0.03275231
Link 3 41 123 0 -2.03252790
Link 41 15 124 0 1.17494552
Link 8 31 183 0 0.04023959
Link 6 53 190 0 1.00000000
Link 53 19 191 0 6.43277239
Link 19 65 300 0 -1.50686101
Link 65 16 301 0 -1.52883709
Link 19 17 381 0 5.18459935
Link 5 31 412 0 -0.28247606
Link 13 19 438 0 1.14193762
Link 4 32 457 0 -1.01294008
Link 5 32 603 0 -1.35517226
Link 41 16 797 0 0.34869873
Link 41 19 931 0 -1.89112706
Link 8 65 933 0 2.23892265
Link 38 26 1008 0 -0.06624939
Link 12 65 1052 0 -0.18703450
Link 6 38 1066 0 4.14033274
GenomeEnd

