GenomeStart 108950
Genome Fitness: 1141.000000 
Neuron 1 1 0.00000000 1 0.00000000 0.00000000 0.00000000 0.00000000
Neuron 2 1 0.00000000 1 0.00000000 0.00000000 0.00000000 0.00000000
Neuron 3 1 0.00000000 1 0.00000000 0.00000000 0.00000000 0.00000000
Neuron 4 1 0.00000000 1 0.00000000 0.00000000 0.00000000 0.00000000
Neuron 5 1 0.00000000 1 0.00000000 0.00000000 0.00000000 0.00000000
Neuron 6 1 0.00000000 1 0.00000000 0.00000000 0.00000000 0.00000000
Neuron 7 1 0.00000000 1 0.00000000 0.00000000 0.00000000 0.00000000
Neuron 8 1 0.00000000 1 0.00000000 0.00000000 0.00000000 0.00000000
Neuron 9 1 0.00000000 1 0.00000000 0.00000000 0.00000000 0.00000000
Neuron 10 1 0.00000000 1 0.00000000 0.00000000 0.00000000 0.00000000
Neuron 11 1 0.00000000 1 0.00000000 0.00000000 0.00000000 0.00000000
Neuron 12 1 0.00000000 1 0.00000000 0.00000000 0.00000000 0.00000000
Neuron 13 1 0.00000000 1 0.00000000 0.00000000 0.00000000 0.00000000
Neuron 14 2 0.00000000 1 0.00000000 0.00000000 0.00000000 0.00000000
Neuron 15 4 1.00000000 1 4.90000000 0.00000000 0.00000000 0.00000000
Neuron 16 4 1.00000000 1 4.90000000 0.00000000 0.00000000 0.00000000
Neuron 17 4 1.00000000 1 4.90000000 0.00000000 0.00000000 0.00000000
Neuron 19 3 0.50000000 1 4.90000000 0.00000000 0.00000000 0.00000000
Neuron 26 3 0.50000000 1 4.90000000 0.00000000 0.00000000 0.00000000
Neuron 31 3 0.50000000 1 4.90000000 0.00000000 0.00000000 0.00000000
Neuron 32 3 0.50000000 1 4.90000000 0.00000000 0.00000000 0.00000000
Neuron 38 3 0.50000000 1 4.90000000 0.00000000 0.00000000 0.00000000
Neuron 41 3 0.50000000 1 4.90000000 0.00000000 0.00000000 0.00000000
Neuron 65 3 0.75000000 1 4.90000000 0.00000000 0.00000000 0.00000000
Link 1 15 1 0 0.84952119
Link 2 15 2 0 1.02306485
Link 4 15 4 0 -1.19519524
Link 5 15 5 0 -0.35849932
Link 6 15 6 0 4.74192117
Link 7 15 7 0 -0.44123279
Link 8 15 8 0 3.91822501
Link 9 15 9 0 -2.22978616
Link 11 15 11 0 -5.40234853
Link 12 15 12 0 -4.47657537
Link 14 15 14 0 -1.34759749
Link 1 16 15 0 -2.06948387
Link 2 16 16 0 6.07747443
Link 3 16 17 0 -0.12960602
Link 4 16 18 0 1.06335252
Link 5 16 19 0 -1.23426295
Link 7 16 21 0 -1.02667205
Link 8 16 22 0 -2.75266962
Link 9 16 23 0 0.29134021
Link 11 16 25 0 -0.51045986
Link 13 16 27 0 1.36878050
Link 14 16 28 0 -0.03141664
Link 1 17 29 0 -2.05393011
Link 2 17 30 0 0.99954128
Link 3 17 31 0 0.04284464
Link 4 17 32 0 -0.77375980
Link 5 17 33 0 0.14777493
Link 6 17 34 0 -1.78296671
Link 7 17 35 0 -1.00722461
Link 8 17 36 0 0.67605503
Link 9 17 37 0 1.31198498
Link 10 17 38 0 -6.71202625
Link 11 17 39 0 3.26464691
Link 12 17 40 0 -4.04068926
Link 13 17 41 0 2.21708456
Link 14 17 42 0 0.45197464
Link 6 19 47 0 6.47124101
Link 12 26 68 0 -1.28058004
Link 26 16 69 0 0.85613289
Link 13 31 87 0 -0.19089020
Link 31 15 88 0 -3.05960472
Link 10 32 90 0 2.58500409
Link 32 16 91 0 -3.39051899
Link 10 38 110 0 0.49362138
Link 38 15 111 0 0.16977763
Link 3 41 123 0 -1.65114367
Link 41 15 124 0 1.17494552
Link 8 31 183 0 0.41576417
Link 19 65 300 0 -1.40957670
Link 65 16 301 0 0.26552062
Link 19 17 381 0 2.93611103
Link 5 31 412 0 -1.52459083
Link 13 19 438 0 -0.17059783
Link 4 32 457 0 1.00891012
Link 12 19 572 0 0.58977735
Link 5 32 603 0 -1.35522952
Link 41 16 797 0 0.79000509
Link 41 19 931 0 -1.16234726
Link 8 65 933 0 2.22116948
Link 38 26 1008 0 -1.62072118
Link 12 65 1052 0 -0.99731330
GenomeEnd

