GenomeStart 5686
Neuron 1 1 0.00000000 1 0.00000000 0.00000000 0.00000000 0.00000000
Neuron 2 1 0.00000000 1 0.00000000 0.00000000 0.00000000 0.00000000
Neuron 3 1 0.00000000 1 0.00000000 0.00000000 0.00000000 0.00000000
Neuron 4 1 0.00000000 1 0.00000000 0.00000000 0.00000000 0.00000000
Neuron 5 1 0.00000000 1 0.00000000 0.00000000 0.00000000 0.00000000
Neuron 6 2 0.00000000 1 0.00000000 0.00000000 0.00000000 0.00000000
Neuron 7 4 1.00000000 1 3.02500000 0.00000000 0.00000000 0.00000000
Neuron 8 4 1.00000000 1 3.02500000 0.00000000 0.00000000 0.00000000
Neuron 9 4 1.00000000 5 3.02500000 0.00000000 0.00000000 0.00000000
Neuron 15 3 0.50000000 11 1.64473542 0.00000000 0.00000000 0.00000000
Neuron 17 3 0.50000000 2 5.53871739 0.00000000 0.00000000 0.00000000
Neuron 19 3 0.75000000 2 0.53464144 0.00000000 0.00000000 0.00000000
Link 1 7 1 0 -0.46105586
Link 2 7 2 0 1.58143788
Link 3 7 3 0 -1.72028266
Link 5 7 5 0 0.06976670
Link 6 7 6 0 2.20380328
Link 1 8 7 0 -0.53661917
Link 2 8 8 0 4.74265048
Link 3 8 9 0 1.70667367
Link 4 8 10 0 -1.75539048
Link 5 8 11 0 -1.92963222
Link 6 8 12 0 -2.09553571
Link 1 9 13 0 -0.28223891
Link 2 9 14 0 3.43917448
Link 3 9 15 0 -0.43063782
Link 4 9 16 0 3.33182531
Link 5 9 17 0 -3.63595065
Link 6 9 18 0 -0.54163637
Link 4 15 39 0 2.69267236
Link 15 7 40 0 -2.57943823
Link 3 17 47 0 1.86133285
Link 17 19 55 0 1.08139045
Link 19 7 56 0 1.75913777
GenomeEnd

