GenomeStart 1433
Neuron 1 1 0.00000000 1 0.00000000 0.00000000 0.00000000 0.00000000
Neuron 2 1 0.00000000 1 0.00000000 0.00000000 0.00000000 0.00000000
Neuron 3 1 0.00000000 1 0.00000000 0.00000000 0.00000000 0.00000000
Neuron 4 1 0.00000000 1 0.00000000 0.00000000 0.00000000 0.00000000
Neuron 5 1 0.00000000 1 0.00000000 0.00000000 0.00000000 0.00000000
Neuron 6 2 0.00000000 1 0.00000000 0.00000000 0.00000000 0.00000000
Neuron 7 4 1.00000000 1 3.02500000 0.00000000 0.00000000 0.00000000
Neuron 8 4 1.00000000 1 3.02500000 0.00000000 0.00000000 0.00000000
Neuron 9 3 0.50000000 6 2.25200100 0.00000000 0.00000000 0.00000000
Neuron 10 3 0.50000000 1 5.01034854 0.00000000 0.00000000 0.00000000
Neuron 12 3 0.75000000 6 4.13001360 0.00000000 0.00000000 0.00000000
Neuron 19 3 0.50000000 4 2.75738185 0.00000000 0.00000000 0.00000000
Link 3 7 3 0 -0.45313704
Link 4 7 4 0 0.30081168
Link 5 7 5 0 -0.62657702
Link 6 7 6 0 -0.61218499
Link 1 8 7 0 0.09570969
Link 2 8 8 0 -0.57098885
Link 3 8 9 0 0.51915949
Link 5 8 11 0 0.33235202
Link 6 8 12 0 0.72387468
Link 4 9 14 0 1.14084294
Link 1 10 17 0 1.19465512
Link 10 7 18 0 0.70470731
Link 9 12 23 0 1.11777564
Link 12 8 24 0 -0.14016310
Link 2 19 49 0 1.03228342
Link 19 7 50 0 -0.25921766
GenomeEnd

