GenomeStart 1187
Neuron 1 1 0.00000000 1 0.00000000 0.00000000 0.00000000 0.00000000
Neuron 2 1 0.00000000 1 0.00000000 0.00000000 0.00000000 0.00000000
Neuron 3 1 0.00000000 1 0.00000000 0.00000000 0.00000000 0.00000000
Neuron 4 1 0.00000000 1 0.00000000 0.00000000 0.00000000 0.00000000
Neuron 5 1 0.00000000 1 0.00000000 0.00000000 0.00000000 0.00000000
Neuron 6 2 0.00000000 1 0.00000000 0.00000000 0.00000000 0.00000000
Neuron 7 4 1.00000000 1 3.02500000 0.00000000 0.00000000 0.00000000
Neuron 8 4 1.00000000 1 3.02500000 0.00000000 0.00000000 0.00000000
Neuron 9 3 0.50000000 6 2.25200100 0.00000000 0.00000000 0.00000000
Neuron 13 3 0.50000000 8 2.57055910 0.00000000 0.00000000 0.00000000
Link 1 7 1 0 1.01471418
Link 2 7 2 0 -0.23768974
Link 3 7 3 0 0.06754801
Link 4 7 4 0 0.54821482
Link 5 7 5 0 -0.78784329
Link 6 7 6 0 -0.60942022
Link 1 8 7 0 0.46009490
Link 2 8 8 0 -0.71322282
Link 3 8 9 0 0.67026016
Link 6 8 12 0 0.61262481
Link 4 9 14 0 1.14067353
Link 9 8 15 0 -0.17059084
Link 5 13 28 0 1.09061524
Link 13 8 29 0 0.11382678
GenomeEnd

