GenomeStart 2994
Neuron 1 1 0.00000000 1 0.00000000 0.00000000 0.00000000 0.00000000
Neuron 2 1 0.00000000 1 0.00000000 0.00000000 0.00000000 0.00000000
Neuron 3 1 0.00000000 1 0.00000000 0.00000000 0.00000000 0.00000000
Neuron 4 1 0.00000000 1 0.00000000 0.00000000 0.00000000 0.00000000
Neuron 5 1 0.00000000 1 0.00000000 0.00000000 0.00000000 0.00000000
Neuron 6 2 0.00000000 1 0.00000000 0.00000000 0.00000000 0.00000000
Neuron 7 4 1.00000000 1 3.02500000 0.00000000 0.00000000 0.00000000
Neuron 8 4 1.00000000 1 3.02500000 0.00000000 0.00000000 0.00000000
Neuron 9 4 1.00000000 5 3.02500000 0.00000000 0.00000000 0.00000000
Neuron 11 3 0.50000000 4 4.57749742 0.00000000 0.00000000 0.00000000
Neuron 15 3 0.50000000 11 1.64473542 0.00000000 0.00000000 0.00000000
Neuron 16 3 0.50000000 1 0.20480735 0.00000000 0.00000000 0.00000000
Link 2 7 2 0 1.75599576
Link 3 7 3 0 -4.65748703
Link 5 7 5 0 0.50703982
Link 6 7 6 0 -2.83394764
Link 1 8 7 0 -2.21560171
Link 2 8 8 0 -0.00439041
Link 3 8 9 0 -1.74470193
Link 4 8 10 0 0.45385801
Link 5 8 11 0 0.48723060
Link 6 8 12 0 -0.70239430
Link 1 9 13 0 -0.42999691
Link 2 9 14 0 0.82042648
Link 4 9 16 0 4.70058169
Link 5 9 17 0 -1.17988971
Link 6 9 18 0 0.00402842
Link 3 11 23 0 0.89686349
Link 11 9 24 0 -0.86593731
Link 4 15 39 0 0.58800027
Link 15 7 40 0 1.05179959
Link 1 16 44 0 0.40711478
Link 16 7 45 0 1.26875560
GenomeEnd

