GenomeStart 4709
Neuron 1 1 0.00000000 1 0.00000000 0.00000000 0.00000000 0.00000000
Neuron 2 1 0.00000000 1 0.00000000 0.00000000 0.00000000 0.00000000
Neuron 3 1 0.00000000 1 0.00000000 0.00000000 0.00000000 0.00000000
Neuron 4 1 0.00000000 1 0.00000000 0.00000000 0.00000000 0.00000000
Neuron 5 1 0.00000000 1 0.00000000 0.00000000 0.00000000 0.00000000
Neuron 6 2 0.00000000 1 0.00000000 0.00000000 0.00000000 0.00000000
Neuron 7 4 1.00000000 1 3.02500000 0.00000000 0.00000000 0.00000000
Neuron 8 4 1.00000000 1 3.02500000 0.00000000 0.00000000 0.00000000
Neuron 9 4 1.00000000 5 3.02500000 0.00000000 0.00000000 0.00000000
Neuron 15 3 0.50000000 8 1.64473542 0.00000000 0.00000000 0.00000000
Neuron 17 3 0.50000000 2 5.53871739 0.00000000 0.00000000 0.00000000
Neuron 19 3 0.75000000 2 0.53464144 0.00000000 0.00000000 0.00000000
Neuron 20 3 0.50000000 11 3.24233374 0.00000000 0.00000000 0.00000000
Link 1 7 1 0 -1.01368988
Link 2 7 2 0 -2.19199494
Link 5 7 5 0 1.57281389
Link 6 7 6 0 2.39809923
Link 1 8 7 0 -2.05574280
Link 2 8 8 0 -4.70610643
Link 3 8 9 0 -1.08660671
Link 4 8 10 0 -2.81102099
Link 5 8 11 0 -2.97265554
Link 6 8 12 0 1.17277824
Link 2 9 14 0 -0.75960334
Link 3 9 15 0 -2.49065530
Link 4 9 16 0 -2.67621641
Link 5 9 17 0 -4.64519922
Link 6 9 18 0 1.35362307
Link 4 15 39 0 2.42644721
Link 15 7 40 0 1.60624512
Link 3 17 47 0 0.40901423
Link 17 19 55 0 0.46730041
Link 19 7 56 0 5.46836326
Link 1 20 58 0 0.97313281
Link 20 9 59 0 -0.37610825
GenomeEnd

