GenomeStart 1237
Neuron 1 1 0.00000000 1 0.00000000 0.00000000 0.00000000 0.00000000
Neuron 2 1 0.00000000 1 0.00000000 0.00000000 0.00000000 0.00000000
Neuron 3 1 0.00000000 1 0.00000000 0.00000000 0.00000000 0.00000000
Neuron 4 1 0.00000000 1 0.00000000 0.00000000 0.00000000 0.00000000
Neuron 5 1 0.00000000 1 0.00000000 0.00000000 0.00000000 0.00000000
Neuron 6 2 0.00000000 1 0.00000000 0.00000000 0.00000000 0.00000000
Neuron 7 4 1.00000000 1 3.02500000 0.00000000 0.00000000 0.00000000
Neuron 8 4 1.00000000 1 3.02500000 0.00000000 0.00000000 0.00000000
Neuron 9 3 0.50000000 6 2.25200100 0.00000000 0.00000000 0.00000000
Neuron 10 3 0.50000000 6 0.94814741 0.00000000 0.00000000 0.00000000
Neuron 17 3 0.25000000 6 5.33932180 0.00000000 0.00000000 0.00000000
Link 2 7 2 0 0.04034485
Link 3 7 3 0 -0.22106120
Link 4 7 4 0 0.35866965
Link 5 7 5 0 -0.69956980
Link 6 7 6 0 -0.61427061
Link 1 8 7 0 0.32683457
Link 2 8 8 0 -0.57057226
Link 3 8 9 0 0.50287460
Link 5 8 11 0 0.16315056
Link 6 8 12 0 0.56774488
Link 4 9 14 0 0.98522121
Link 9 8 15 0 -0.39448037
Link 10 7 18 0 0.73136525
Link 1 17 42 0 1.00466594
Link 17 10 43 0 0.94665470
Link 17 8 63 0 -0.24984269
GenomeEnd

