GenomeStart 1125
Neuron 1 1 0.00000000 1 0.00000000 0.00000000 0.00000000 0.00000000
Neuron 2 1 0.00000000 1 0.00000000 0.00000000 0.00000000 0.00000000
Neuron 3 1 0.00000000 1 0.00000000 0.00000000 0.00000000 0.00000000
Neuron 4 1 0.00000000 1 0.00000000 0.00000000 0.00000000 0.00000000
Neuron 5 1 0.00000000 1 0.00000000 0.00000000 0.00000000 0.00000000
Neuron 6 2 0.00000000 1 0.00000000 0.00000000 0.00000000 0.00000000
Neuron 7 4 1.00000000 1 3.02500000 0.00000000 0.00000000 0.00000000
Neuron 8 4 1.00000000 1 3.02500000 0.00000000 0.00000000 0.00000000
Neuron 9 3 0.50000000 8 5.70742653 0.00000000 0.00000000 0.00000000
Neuron 11 3 0.50000000 6 3.85795973 0.00000000 0.00000000 0.00000000
Link 1 7 1 0 1.02898385
Link 3 7 3 0 -0.03396429
Link 4 7 4 0 -0.05751947
Link 5 7 5 0 -0.72909074
Link 6 7 6 0 -0.12829981
Link 1 8 7 0 -0.23359998
Link 3 8 9 0 3.27948379
Link 4 8 10 0 -0.49799804
Link 5 8 11 0 0.75856170
Link 6 8 12 0 0.99232920
Link 2 9 14 0 0.94653485
Link 9 7 15 0 -0.02813325
Link 9 8 19 0 -2.99453070
Link 2 11 21 0 1.26017601
Link 11 8 22 0 0.93048009
GenomeEnd

