GenomeStart 300
Neuron 1 1 0.00000000 1 0.00000000 0.00000000 0.00000000 0.00000000
Neuron 2 1 0.00000000 1 0.00000000 0.00000000 0.00000000 0.00000000
Neuron 3 1 0.00000000 1 0.00000000 0.00000000 0.00000000 0.00000000
Neuron 4 1 0.00000000 1 0.00000000 0.00000000 0.00000000 0.00000000
Neuron 5 1 0.00000000 1 0.00000000 0.00000000 0.00000000 0.00000000
Neuron 6 2 0.00000000 1 0.00000000 0.00000000 0.00000000 0.00000000
Neuron 7 4 1.00000000 1 3.02500000 0.00000000 0.00000000 0.00000000
Neuron 8 4 1.00000000 1 3.02500000 0.00000000 0.00000000 0.00000000
Neuron 9 4 1.00000000 5 3.02500000 0.00000000 0.00000000 0.00000000
Link 1 7 1 0 0.20336777
Link 2 7 2 0 -0.65277327
Link 3 7 3 0 -0.11362326
Link 4 7 4 0 0.31169612
Link 5 7 5 0 1.33487410
Link 6 7 6 0 -0.89776725
Link 1 8 7 0 0.84639989
Link 2 8 8 0 -0.67664071
Link 3 8 9 0 -0.25222642
Link 4 8 10 0 1.04705452
Link 5 8 11 0 -0.75551446
Link 6 8 12 0 0.04544204
Link 1 9 13 0 -0.51697537
Link 2 9 14 0 0.46292927
Link 3 9 15 0 -0.10604171
Link 4 9 16 0 0.11464540
Link 5 9 17 0 0.99918947
Link 6 9 18 0 2.03153854
GenomeEnd

