GenomeStart 2195
Neuron 1 1 0.00000000 1 0.00000000 0.00000000 0.00000000 0.00000000
Neuron 2 1 0.00000000 1 0.00000000 0.00000000 0.00000000 0.00000000
Neuron 3 1 0.00000000 1 0.00000000 0.00000000 0.00000000 0.00000000
Neuron 4 1 0.00000000 1 0.00000000 0.00000000 0.00000000 0.00000000
Neuron 5 1 0.00000000 1 0.00000000 0.00000000 0.00000000 0.00000000
Neuron 6 2 0.00000000 1 0.00000000 0.00000000 0.00000000 0.00000000
Neuron 7 4 1.00000000 1 3.02500000 0.00000000 0.00000000 0.00000000
Neuron 8 4 1.00000000 1 3.02500000 0.00000000 0.00000000 0.00000000
Neuron 9 4 1.00000000 5 3.02500000 0.00000000 0.00000000 0.00000000
Neuron 15 3 0.50000000 11 1.64473542 0.00000000 0.00000000 0.00000000
Neuron 17 3 0.50000000 2 5.53871739 0.00000000 0.00000000 0.00000000
Link 1 7 1 0 -0.49471529
Link 2 7 2 0 2.06670186
Link 5 7 5 0 1.10809373
Link 6 7 6 0 2.14586114
Link 1 8 7 0 -1.31702758
Link 2 8 8 0 3.97775013
Link 3 8 9 0 -0.95027678
Link 4 8 10 0 0.44741409
Link 5 8 11 0 -0.82907319
Link 6 8 12 0 -0.58463897
Link 1 9 13 0 -0.02940676
Link 2 9 14 0 2.06393814
Link 3 9 15 0 -0.94744754
Link 4 9 16 0 5.22073668
Link 5 9 17 0 -2.95053473
Link 6 9 18 0 -1.25702166
Link 4 15 39 0 1.56536925
Link 15 7 40 0 0.80126063
Link 3 17 47 0 1.00000000
Link 17 7 48 0 -4.47820024
GenomeEnd

