GenomeStart 46
Neuron 1 1 0.00000000 1 0.00000000 0.00000000 0.00000000 0.00000000
Neuron 2 1 0.00000000 1 0.00000000 0.00000000 0.00000000 0.00000000
Neuron 3 1 0.00000000 1 0.00000000 0.00000000 0.00000000 0.00000000
Neuron 4 1 0.00000000 1 0.00000000 0.00000000 0.00000000 0.00000000
Neuron 5 1 0.00000000 1 0.00000000 0.00000000 0.00000000 0.00000000
Neuron 6 2 0.00000000 1 0.00000000 0.00000000 0.00000000 0.00000000
Neuron 7 4 1.00000000 1 3.02500000 0.00000000 0.00000000 0.00000000
Neuron 8 4 1.00000000 1 3.02500000 0.00000000 0.00000000 0.00000000
Neuron 9 4 1.00000000 5 3.02500000 0.00000000 0.00000000 0.00000000
Link 1 7 1 0 0.47483643
Link 2 7 2 0 0.31870017
Link 3 7 3 0 0.11093199
Link 4 7 4 0 0.48268018
Link 5 7 5 0 -0.38699693
Link 6 7 6 0 -0.66100015
Link 1 8 7 0 0.37782993
Link 2 8 8 0 0.09998076
Link 3 8 9 0 -0.79829552
Link 4 8 10 0 -0.47970583
Link 5 8 11 0 0.08970167
Link 6 8 12 0 -0.19579790
Link 1 9 13 0 -0.50065121
Link 2 9 14 0 -0.48553698
Link 3 9 15 0 -0.58461596
Link 4 9 16 0 0.28948128
Link 5 9 17 0 0.12708600
Link 6 9 18 0 -0.07194350
GenomeEnd

