GenomeStart 3510
Neuron 1 1 0.00000000 1 0.00000000 0.00000000 0.00000000 0.00000000
Neuron 2 1 0.00000000 1 0.00000000 0.00000000 0.00000000 0.00000000
Neuron 3 1 0.00000000 1 0.00000000 0.00000000 0.00000000 0.00000000
Neuron 4 1 0.00000000 1 0.00000000 0.00000000 0.00000000 0.00000000
Neuron 5 1 0.00000000 1 0.00000000 0.00000000 0.00000000 0.00000000
Neuron 6 2 0.00000000 1 0.00000000 0.00000000 0.00000000 0.00000000
Neuron 7 4 1.00000000 1 3.02500000 0.00000000 0.00000000 0.00000000
Neuron 8 4 1.00000000 1 3.02500000 0.00000000 0.00000000 0.00000000
Neuron 9 4 1.00000000 5 3.02500000 0.00000000 0.00000000 0.00000000
Neuron 15 3 0.50000000 11 1.64473542 0.00000000 0.00000000 0.00000000
Neuron 16 3 0.50000000 1 0.20480735 0.00000000 0.00000000 0.00000000
Link 2 7 2 0 0.50991757
Link 3 7 3 0 -3.60785532
Link 5 7 5 0 2.10682975
Link 6 7 6 0 1.08284132
Link 1 8 7 0 -2.88615948
Link 2 8 8 0 0.12366810
Link 3 8 9 0 0.24699688
Link 4 8 10 0 -0.62858719
Link 5 8 11 0 0.07306525
Link 6 8 12 0 1.04840458
Link 1 9 13 0 0.04703863
Link 2 9 14 0 1.95614327
Link 3 9 15 0 -2.12318921
Link 4 9 16 0 5.25234533
Link 5 9 17 0 -1.23771756
Link 6 9 18 0 -0.98976327
Link 4 15 39 0 -2.81285328
Link 15 7 40 0 3.24969493
Link 1 16 44 0 1.86237437
Link 16 7 45 0 -0.80886785
Link 5 15 60 0 -0.45891610
GenomeEnd

