GenomeStart 750
Neuron 1 1 0.00000000 1 0.00000000 0.00000000 0.00000000 0.00000000
Neuron 2 1 0.00000000 1 0.00000000 0.00000000 0.00000000 0.00000000
Neuron 3 1 0.00000000 1 0.00000000 0.00000000 0.00000000 0.00000000
Neuron 4 1 0.00000000 1 0.00000000 0.00000000 0.00000000 0.00000000
Neuron 5 1 0.00000000 1 0.00000000 0.00000000 0.00000000 0.00000000
Neuron 6 2 0.00000000 1 0.00000000 0.00000000 0.00000000 0.00000000
Neuron 7 4 1.00000000 1 3.02500000 0.00000000 0.00000000 0.00000000
Neuron 8 4 1.00000000 1 3.02500000 0.00000000 0.00000000 0.00000000
Neuron 9 4 1.00000000 5 3.02500000 0.00000000 0.00000000 0.00000000
Link 1 7 1 0 0.50069979
Link 2 7 2 0 -0.23171546
Link 3 7 3 0 -0.15682680
Link 4 7 4 0 0.19511910
Link 5 7 5 0 1.87269804
Link 6 7 6 0 0.32062586
Link 1 8 7 0 -0.11316789
Link 2 8 8 0 -0.73718509
Link 3 8 9 0 0.26198766
Link 4 8 10 0 -1.06894702
Link 5 8 11 0 -0.17418284
Link 6 8 12 0 0.07538564
Link 1 9 13 0 0.02821675
Link 2 9 14 0 -0.40616442
Link 3 9 15 0 0.54126993
Link 4 9 16 0 -0.47493497
Link 5 9 17 0 -0.25872607
Link 6 9 18 0 -1.00075360
GenomeEnd

