NEAT_ParametersStart
PopulationSize 150
DynamicCompatibility true
MinSpecies 5
MaxSpecies 25
InnovationsForever true
AllowClones false
YoungAgeTreshold 15
YoungAgeFitnessBoost 1.10000000000000008882
SpeciesDropoffAge 50
StagnationDelta 0.00000000000000000000
OldAgeTreshold 35
OldAgePenalty 1.00000000000000000000
DetectCompetetiveCoevolutionStagnation false
KillWorstSpeciesEach 15
KillWorstAge 10
SurvivalRate 0.20000000000000001110
CrossoverRate 0.80000000000000004441
OverallMutationRate 0.69999999999999995559
InterspeciesCrossoverRate 0.00010000000000000000
MultipointCrossoverRate 0.75000000000000000000
RouletteWheelSelection false
PhasedSearching false
DeltaCoding false
SimplifyingPhaseMPCTreshold 20
SimplifyingPhaseStagnationTreshold 30
ComplexityFloorGenerations 40
NoveltySearch_K 15
NoveltySearch_P_min 0.50000000000000000000
NoveltySearch_Dynamic_Pmin true
NoveltySearch_No_Archiving_Stagnation_Treshold 150
NoveltySearch_Pmin_lowering_multiplier 0.90000000000000002220
NoveltySearch_Pmin_min 0.05000000000000000278
NoveltySearch_Quick_Archiving_Min_Evaluations 8
NoveltySearch_Pmin_raising_multiplier 1.10000000000000008882
NoveltySearch_Recompute_Sparseness_Each 25
MutateAddNeuronProb 0.02000000000000000042
SplitRecurrent true
SplitLoopedRecurrent true
NeuronTries 32580
MutateAddLinkProb 0.05000000000000000278
MutateAddLinkFromBiasProb 0.00000000000000000000
MutateRemLinkProb 0.01000000000000000021
MutateRemSimpleNeuronProb 0.00000000000000000000
LinkTries 32
RecurrentProb 0.00000000000000000000
RecurrentLoopProb 0.25000000000000000000
MutateWeightsProb 0.90000000000000002220
MutateWeightsSevereProb 0.25000000000000000000
WeightMutationRate 1.00000000000000000000
WeightMutationMaxPower 0.20000000000000001110
WeightReplacementMaxPower 1.00000000000000000000
MaxWeight 8.00000000000000000000
MutateActivationAProb 0.00000000000000000000
MutateActivationBProb 0.00000000000000000000
ActivationAMutationMaxPower 0.50000000000000000000
ActivationBMutationMaxPower 0.00000000000000000000
TimeConstantMutationMaxPower 0.00000000000000000000
BiasMutationMaxPower 1.00000000000000000000
MinActivationA 0.05000000000000000278
MaxActivationA 6.00000000000000000000
MinActivationB 0.00000000000000000000
MaxActivationB 0.00000000000000000000
MutateNeuronActivationTypeProb 0.02000000000000000042
ActivationFunction_SignedSigmoid_Prob 0.00000000000000000000
ActivationFunction_UnsignedSigmoid_Prob 1.00000000000000000000
ActivationFunction_Tanh_Prob 1.00000000000000000000
ActivationFunction_TanhCubic_Prob 1.00000000000000000000
ActivationFunction_SignedStep_Prob 1.00000000000000000000
ActivationFunction_UnsignedStep_Prob 1.00000000000000000000
ActivationFunction_SignedGauss_Prob 1.00000000000000000000
ActivationFunction_UnsignedGauss_Prob 1.00000000000000000000
ActivationFunction_Abs_Prob 1.00000000000000000000
ActivationFunction_SignedSine_Prob 1.00000000000000000000
ActivationFunction_UnsignedSine_Prob 1.00000000000000000000
ActivationFunction_Linear_Prob 1.00000000000000000000
ActivationFunction_Relu_Prob 0.00000000000000000000
ActivationFunction_Softplus_Prob 0.00000000000000000000
MutateNeuronTimeConstantsProb 0.00000000000000000000
MutateNeuronBiasesProb 0.00000000000000000000
MinNeuronTimeConstant 0.00000000000000000000
MaxNeuronTimeConstant 0.00000000000000000000
MinNeuronBias 0.00000000000000000000
MaxNeuronBias 0.00000000000000000000
DisjointCoeff 1.00000000000000000000
ExcessCoeff 1.00000000000000000000
ActivationADiffCoeff 0.00000000000000000000
ActivationBDiffCoeff 0.00000000000000000000
WeightDiffCoeff 0.50000000000000000000
TimeConstantDiffCoeff 0.00000000000000000000
BiasDiffCoeff 0.00000000000000000000
ActivationFunctionDiffCoeff 0.00000000000000000000
CompatTreshold 3.19999999999999928946
MinCompatTreshold 0.20000000000000001110
CompatTresholdModifier 0.29999999999999998890
CompatTreshChangeInterval_Generations 1
CompatTreshChangeInterval_Evaluations 10
DivisionThreshold 0.02999999999999999889
VarianceThreshold 0.02999999999999999889
BandThreshold 0.29999999999999998890
InitialDepth 3
MaxDepth 3
IterationLevel 1
TournamentSize 2
CPPN_Bias -1.00000000000000000000
Width 2.00000000000000000000
Height 2.00000000000000000000
Qtree_X 0.00000000000000000000
Qtree_Y 0.00000000000000000000
Leo false
LeoThreshold 0.10000000000000000555
LeoSeed false
GeometrySeed false
Elitism 0.10000000000000000555
NEAT_ParametersEnd
InnovationDatabaseStart
NextInnovNum: 283
NextNeuronID: 54
Innovation 1 1 1 7 0 -1
Innovation 2 1 2 7 0 -1
Innovation 3 1 3 7 0 -1
Innovation 4 1 4 7 0 -1
Innovation 5 1 5 7 0 -1
Innovation 6 1 6 7 0 -1
Innovation 7 1 1 8 0 -1
Innovation 8 1 2 8 0 -1
Innovation 9 1 3 8 0 -1
Innovation 10 1 4 8 0 -1
Innovation 11 1 5 8 0 -1
Innovation 12 1 6 8 0 -1
Innovation 13 0 2 8 3 9
Innovation 14 1 2 9 0 -1
Innovation 15 1 9 8 0 -1
Innovation 16 0 2 7 3 10
Innovation 17 1 2 10 0 -1
Innovation 18 1 10 7 0 -1
Innovation 19 0 3 8 3 11
Innovation 20 1 3 11 0 -1
Innovation 21 1 11 8 0 -1
Innovation 22 0 5 7 3 12
Innovation 23 1 5 12 0 -1
Innovation 24 1 12 7 0 -1
Innovation 25 0 9 8 3 13
Innovation 26 1 9 13 0 -1
Innovation 27 1 13 8 0 -1
Innovation 28 1 1 9 0 -1
Innovation 29 0 11 8 3 14
Innovation 30 1 11 14 0 -1
Innovation 31 1 14 8 0 -1
Innovation 32 1 11 7 0 -1
Innovation 33 1 4 11 0 -1
Innovation 34 1 5 9 0 -1
Innovation 35 0 4 7 3 15
Innovation 36 1 4 15 0 -1
Innovation 37 1 15 7 0 -1
Innovation 38 1 2 13 0 -1
Innovation 39 0 1 8 3 16
Innovation 40 1 1 16 0 -1
Innovation 41 1 16 8 0 -1
Innovation 42 1 6 10 0 -1
Innovation 43 1 4 14 0 -1
Innovation 44 0 3 7 3 17
Innovation 45 1 3 17 0 -1
Innovation 46 1 17 7 0 -1
Innovation 47 1 3 9 0 -1
Innovation 48 0 1 7 3 18
Innovation 49 1 1 18 0 -1
Innovation 50 1 18 7 0 -1
Innovation 51 0 16 8 3 19
Innovation 52 1 16 19 0 -1
Innovation 53 1 19 8 0 -1
Innovation 54 1 2 11 0 -1
Innovation 55 1 1 15 0 -1
Innovation 56 1 15 14 0 -1
Innovation 57 0 2 9 3 20
Innovation 58 1 2 20 0 -1
Innovation 59 1 20 9 0 -1
Innovation 60 0 4 8 3 21
Innovation 61 1 4 21 0 -1
Innovation 62 1 21 8 0 -1
Innovation 63 1 5 11 0 -1
Innovation 64 0 15 7 3 22
Innovation 65 1 15 22 0 -1
Innovation 66 1 22 7 0 -1
Innovation 67 1 6 14 0 -1
Innovation 68 1 1 14 0 -1
Innovation 69 1 10 8 0 -1
Innovation 70 1 4 12 0 -1
Innovation 71 1 12 18 0 -1
Innovation 72 1 16 7 0 -1
Innovation 73 1 3 18 0 -1
Innovation 74 1 6 12 0 -1
Innovation 75 1 6 19 0 -1
Innovation 76 1 14 7 0 -1
Innovation 77 1 17 8 0 -1
Innovation 78 0 12 7 3 23
Innovation 79 1 12 23 0 -1
Innovation 80 1 23 7 0 -1
Innovation 81 1 9 7 0 -1
Innovation 82 1 2 18 0 -1
Innovation 83 0 5 8 3 24
Innovation 84 1 5 24 0 -1
Innovation 85 1 24 8 0 -1
Innovation 86 1 5 15 0 -1
Innovation 87 1 6 9 0 -1
Innovation 88 1 11 24 0 -1
Innovation 89 1 2 16 0 -1
Innovation 90 1 6 11 0 -1
Innovation 91 1 10 15 0 -1
Innovation 92 1 11 17 0 -1
Innovation 93 1 3 10 0 -1
Innovation 94 1 18 21 0 -1
Innovation 95 1 2 14 0 -1
Innovation 96 1 20 7 0 -1
Innovation 97 1 9 12 0 -1
Innovation 98 1 6 18 0 -1
Innovation 99 1 3 15 0 -1
Innovation 100 1 2 15 0 -1
Innovation 101 1 16 21 0 -1
Innovation 102 1 15 11 0 -1
Innovation 103 1 5 14 0 -1
Innovation 104 1 1 11 0 -1
Innovation 105 1 5 21 0 -1
Innovation 106 1 4 10 0 -1
Innovation 107 1 3 16 0 -1
Innovation 108 0 4 14 3 25
Innovation 109 1 4 25 0 -1
Innovation 110 1 25 14 0 -1
Innovation 111 1 9 15 0 -1
Innovation 112 1 11 15 0 -1
Innovation 113 1 1 17 0 -1
Innovation 114 1 3 12 0 -1
Innovation 115 1 5 10 0 -1
Innovation 116 1 2 12 0 -1
Innovation 117 1 24 11 0 -1
Innovation 118 1 5 18 0 -1
Innovation 119 0 14 8 3 26
Innovation 120 1 14 26 0 -1
Innovation 121 1 26 8 0 -1
Innovation 122 1 5 22 0 -1
Innovation 123 1 18 12 0 -1
Innovation 124 0 17 7 3 27
Innovation 125 1 17 27 0 -1
Innovation 126 1 27 7 0 -1
Innovation 127 0 5 22 3 28
Innovation 128 1 5 28 0 -1
Innovation 129 1 28 22 0 -1
Innovation 130 1 2 21 0 -1
Innovation 131 1 3 14 0 -1
Innovation 132 0 4 15 3 29
Innovation 133 1 4 29 0 -1
Innovation 134 1 29 15 0 -1
Innovation 135 0 2 10 3 30
Innovation 136 1 2 30 0 -1
Innovation 137 1 30 10 0 -1
Innovation 138 1 12 8 0 -1
Innovation 139 1 6 15 0 -1
Innovation 140 1 4 9 0 -1
Innovation 141 1 3 13 0 -1
Innovation 142 1 4 23 0 -1
Innovation 143 1 5 19 0 -1
Innovation 144 1 9 10 0 -1
Innovation 145 1 24 14 0 -1
Innovation 146 1 4 13 0 -1
Innovation 147 1 21 7 0 -1
Innovation 148 1 18 8 0 -1
Innovation 149 0 20 9 3 31
Innovation 150 1 20 31 0 -1
Innovation 151 1 31 9 0 -1
Innovation 152 1 5 13 0 -1
Innovation 153 1 4 24 0 -1
Innovation 154 1 1 12 0 -1
Innovation 155 1 15 18 0 -1
Innovation 156 1 16 14 0 -1
Innovation 157 0 15 22 3 32
Innovation 158 1 15 32 0 -1
Innovation 159 1 32 22 0 -1
Innovation 160 1 4 20 0 -1
Innovation 161 1 20 15 0 -1
Innovation 162 0 18 7 3 33
Innovation 163 1 18 33 0 -1
Innovation 164 1 33 7 0 -1
Innovation 165 1 10 9 0 -1
Innovation 166 0 16 19 3 34
Innovation 167 1 16 34 0 -1
Innovation 168 1 34 19 0 -1
Innovation 169 1 12 9 0 -1
Innovation 170 1 10 12 0 -1
Innovation 171 1 4 16 0 -1
Innovation 172 0 5 24 3 35
Innovation 173 1 5 35 0 -1
Innovation 174 1 35 24 0 -1
Innovation 175 0 1 16 3 36
Innovation 176 1 1 36 0 -1
Innovation 177 1 36 16 0 -1
Innovation 178 1 11 18 0 -1
Innovation 179 1 18 14 0 -1
Innovation 180 0 5 12 3 37
Innovation 181 1 5 37 0 -1
Innovation 182 1 37 12 0 -1
Innovation 183 1 15 8 0 -1
Innovation 184 0 10 7 3 38
Innovation 185 1 10 38 0 -1
Innovation 186 1 38 7 0 -1
Innovation 187 0 4 20 3 39
Innovation 188 1 4 39 0 -1
Innovation 189 1 39 20 0 -1
Innovation 190 1 21 12 0 -1
Innovation 191 1 9 16 0 -1
Innovation 192 1 16 11 0 -1
Innovation 193 0 5 11 3 40
Innovation 194 1 5 40 0 -1
Innovation 195 1 40 11 0 -1
Innovation 196 1 17 11 0 -1
Innovation 197 1 17 14 0 -1
Innovation 198 1 23 8 0 -1
Innovation 199 0 9 7 3 41
Innovation 200 1 9 41 0 -1
Innovation 201 1 41 7 0 -1
Innovation 202 1 5 16 0 -1
Innovation 203 0 11 14 3 42
Innovation 204 1 11 42 0 -1
Innovation 205 1 42 14 0 -1
Innovation 206 1 6 16 0 -1
Innovation 207 1 9 19 0 -1
Innovation 208 1 12 16 0 -1
Innovation 209 1 15 12 0 -1
Innovation 210 1 6 17 0 -1
Innovation 211 1 11 12 0 -1
Innovation 212 1 3 19 0 -1
Innovation 213 0 21 8 3 43
Innovation 214 1 21 43 0 -1
Innovation 215 1 43 8 0 -1
Innovation 216 1 16 9 0 -1
Innovation 217 1 11 16 0 -1
Innovation 218 1 3 23 0 -1
Innovation 219 1 1 21 0 -1
Innovation 220 1 1 26 0 -1
Innovation 221 1 9 23 0 -1
Innovation 222 0 4 11 3 44
Innovation 223 1 4 44 0 -1
Innovation 224 1 44 11 0 -1
Innovation 225 1 4 18 0 -1
Innovation 226 1 5 17 0 -1
Innovation 227 1 6 26 0 -1
Innovation 228 1 3 21 0 -1
Innovation 229 1 2 44 0 -1
Innovation 230 1 11 26 0 -1
Innovation 231 1 6 20 0 -1
Innovation 232 0 1 18 3 45
Innovation 233 1 1 45 0 -1
Innovation 234 1 45 18 0 -1
Innovation 235 1 2 26 0 -1
Innovation 236 1 18 11 0 -1
Innovation 237 1 15 16 0 -1
Innovation 238 1 1 23 0 -1
Innovation 239 1 44 7 0 -1
Innovation 240 1 12 14 0 -1
Innovation 241 1 12 21 0 -1
Innovation 242 0 1 11 3 46
Innovation 243 1 1 46 0 -1
Innovation 244 1 46 11 0 -1
Innovation 245 1 9 21 0 -1
Innovation 246 0 11 7 3 47
Innovation 247 1 11 47 0 -1
Innovation 248 1 47 7 0 -1
Innovation 249 0 23 7 3 48
Innovation 250 1 23 48 0 -1
Innovation 251 1 48 7 0 -1
Innovation 252 0 3 11 3 49
Innovation 253 1 3 49 0 -1
Innovation 254 1 49 11 0 -1
Innovation 255 1 5 44 0 -1
Innovation 256 1 26 7 0 -1
Innovation 257 1 2 19 0 -1
Innovation 258 1 6 44 0 -1
Innovation 259 1 3 44 0 -1
Innovation 260 1 18 26 0 -1
Innovation 261 1 6 23 0 -1
Innovation 262 0 9 12 3 50
Innovation 263 1 9 50 0 -1
Innovation 264 1 50 12 0 -1
Innovation 265 1 5 26 0 -1
Innovation 266 1 19 7 0 -1
Innovation 267 1 5 33 0 -1
Innovation 268 1 44 8 0 -1
Innovation 269 1 2 46 0 -1
Innovation 270 0 4 44 3 51
Innovation 271 1 4 51 0 -1
Innovation 272 1 51 44 0 -1
Innovation 273 1 4 19 0 -1
Innovation 274 1 33 14 0 -1
Innovation 275 1 49 8 0 -1
Innovation 276 1 10 18 0 -1
Innovation 277 0 19 8 3 52
Innovation 278 1 19 52 0 -1
Innovation 279 1 52 8 0 -1
Innovation 280 0 26 8 3 53
Innovation 281 1 26 53 0 -1
Innovation 282 1 53 8 0 -1
InnovationDatabaseEnd

GenomeStart 21331
Genome Fitness: 537.000000 
Neuron 1 1 0.00000000 1 0.00000000 0.00000000 0.00000000 0.00000000
Neuron 2 1 0.00000000 1 0.00000000 0.00000000 0.00000000 0.00000000
Neuron 3 1 0.00000000 1 0.00000000 0.00000000 0.00000000 0.00000000
Neuron 4 1 0.00000000 1 0.00000000 0.00000000 0.00000000 0.00000000
Neuron 5 1 0.00000000 1 0.00000000 0.00000000 0.00000000 0.00000000
Neuron 6 2 0.00000000 1 0.00000000 0.00000000 0.00000000 0.00000000
Neuron 7 4 1.00000000 2 3.02500000 0.00000000 0.00000000 0.00000000
Neuron 8 4 1.00000000 2 3.02500000 0.00000000 0.00000000 0.00000000
Neuron 9 3 0.50000000 10 5.89185529 0.00000000 0.00000000 0.00000000
Neuron 16 3 0.50000000 10 1.64230847 0.00000000 0.00000000 0.00000000
Link 1 7 1 0 0.26963024
Link 2 7 2 0 0.12951324
Link 3 7 3 0 0.12705390
Link 4 7 4 0 0.09305443
Link 5 7 5 0 -0.56130124
Link 6 7 6 0 0.19640737
Link 3 8 9 0 0.59291445
Link 4 8 10 0 0.25082834
Link 5 8 11 0 -0.14043335
Link 6 8 12 0 0.00160219
Link 2 9 14 0 1.09065239
Link 9 8 15 0 -0.61758188
Link 1 16 40 0 1.04826245
Link 16 8 41 0 -0.00579390
GenomeEnd

GenomeStart 21332
Genome Fitness: 537.000000 
Neuron 1 1 0.00000000 1 0.00000000 0.00000000 0.00000000 0.00000000
Neuron 2 1 0.00000000 1 0.00000000 0.00000000 0.00000000 0.00000000
Neuron 3 1 0.00000000 1 0.00000000 0.00000000 0.00000000 0.00000000
Neuron 4 1 0.00000000 1 0.00000000 0.00000000 0.00000000 0.00000000
Neuron 5 1 0.00000000 1 0.00000000 0.00000000 0.00000000 0.00000000
Neuron 6 2 0.00000000 1 0.00000000 0.00000000 0.00000000 0.00000000
Neuron 7 4 1.00000000 2 3.02500000 0.00000000 0.00000000 0.00000000
Neuron 8 4 1.00000000 2 3.02500000 0.00000000 0.00000000 0.00000000
Neuron 9 3 0.50000000 10 5.89185529 0.00000000 0.00000000 0.00000000
Neuron 16 3 0.50000000 10 1.64230847 0.00000000 0.00000000 0.00000000
Link 1 7 1 0 0.26963024
Link 2 7 2 0 0.12951324
Link 3 7 3 0 0.12705390
Link 4 7 4 0 0.09305443
Link 5 7 5 0 -0.56130124
Link 6 7 6 0 0.19640737
Link 3 8 9 0 0.59291445
Link 4 8 10 0 0.22461515
Link 5 8 11 0 -0.14043335
Link 6 8 12 0 0.00160219
Link 2 9 14 0 1.08455841
Link 9 8 15 0 -0.61758188
Link 1 16 40 0 1.04826245
Link 16 8 41 0 -0.00579390
GenomeEnd

GenomeStart 21333
Genome Fitness: 537.000000 
Neuron 1 1 0.00000000 1 0.00000000 0.00000000 0.00000000 0.00000000
Neuron 2 1 0.00000000 1 0.00000000 0.00000000 0.00000000 0.00000000
Neuron 3 1 0.00000000 1 0.00000000 0.00000000 0.00000000 0.00000000
Neuron 4 1 0.00000000 1 0.00000000 0.00000000 0.00000000 0.00000000
Neuron 5 1 0.00000000 1 0.00000000 0.00000000 0.00000000 0.00000000
Neuron 6 2 0.00000000 1 0.00000000 0.00000000 0.00000000 0.00000000
Neuron 7 4 1.00000000 2 3.02500000 0.00000000 0.00000000 0.00000000
Neuron 8 4 1.00000000 2 3.02500000 0.00000000 0.00000000 0.00000000
Neuron 9 3 0.50000000 10 5.89185529 0.00000000 0.00000000 0.00000000
Neuron 16 3 0.50000000 10 1.64230847 0.00000000 0.00000000 0.00000000
Link 1 7 1 0 0.26963024
Link 2 7 2 0 0.12951324
Link 3 7 3 0 0.12705390
Link 4 7 4 0 0.09305443
Link 5 7 5 0 -0.56130124
Link 6 7 6 0 0.19640737
Link 3 8 9 0 0.59291445
Link 4 8 10 0 0.22461515
Link 5 8 11 0 -0.14043335
Link 6 8 12 0 0.00160219
Link 2 9 14 0 1.08455841
Link 9 8 15 0 -0.61758188
Link 1 16 40 0 1.04826245
Link 16 8 41 0 -0.00579390
GenomeEnd

GenomeStart 21334
Genome Fitness: 218.000000 
Neuron 1 1 0.00000000 1 0.00000000 0.00000000 0.00000000 0.00000000
Neuron 2 1 0.00000000 1 0.00000000 0.00000000 0.00000000 0.00000000
Neuron 3 1 0.00000000 1 0.00000000 0.00000000 0.00000000 0.00000000
Neuron 4 1 0.00000000 1 0.00000000 0.00000000 0.00000000 0.00000000
Neuron 5 1 0.00000000 1 0.00000000 0.00000000 0.00000000 0.00000000
Neuron 6 2 0.00000000 1 0.00000000 0.00000000 0.00000000 0.00000000
Neuron 7 4 1.00000000 2 3.02500000 0.00000000 0.00000000 0.00000000
Neuron 8 4 1.00000000 2 3.02500000 0.00000000 0.00000000 0.00000000
Neuron 9 3 0.50000000 10 5.89185529 0.00000000 0.00000000 0.00000000
Neuron 16 3 0.50000000 10 1.64230847 0.00000000 0.00000000 0.00000000
Link 1 7 1 0 0.28622291
Link 2 7 2 0 0.22675121
Link 3 7 3 0 0.05031180
Link 4 7 4 0 0.06142917
Link 5 7 5 0 -0.56439023
Link 6 7 6 0 0.16298291
Link 3 8 9 0 0.71724457
Link 4 8 10 0 0.20284097
Link 5 8 11 0 -0.07923623
Link 6 8 12 0 -0.11373368
Link 2 9 14 0 1.13134972
Link 9 8 15 0 -0.73223824
Link 1 16 40 0 1.01089314
Link 16 8 41 0 0.06220058
GenomeEnd

GenomeStart 21335
Genome Fitness: 216.000000 
Neuron 1 1 0.00000000 1 0.00000000 0.00000000 0.00000000 0.00000000
Neuron 2 1 0.00000000 1 0.00000000 0.00000000 0.00000000 0.00000000
Neuron 3 1 0.00000000 1 0.00000000 0.00000000 0.00000000 0.00000000
Neuron 4 1 0.00000000 1 0.00000000 0.00000000 0.00000000 0.00000000
Neuron 5 1 0.00000000 1 0.00000000 0.00000000 0.00000000 0.00000000
Neuron 6 2 0.00000000 1 0.00000000 0.00000000 0.00000000 0.00000000
Neuron 7 4 1.00000000 2 3.02500000 0.00000000 0.00000000 0.00000000
Neuron 8 4 1.00000000 2 3.02500000 0.00000000 0.00000000 0.00000000
Neuron 9 3 0.50000000 10 5.89185529 0.00000000 0.00000000 0.00000000
Neuron 16 3 0.50000000 10 1.64230847 0.00000000 0.00000000 0.00000000
Link 1 7 1 0 0.19608215
Link 2 7 2 0 -0.03491092
Link 3 7 3 0 0.00727105
Link 4 7 4 0 0.21232015
Link 5 7 5 0 -0.63152961
Link 6 7 6 0 0.11902782
Link 3 8 9 0 0.67226248
Link 4 8 10 0 0.41051440
Link 5 8 11 0 -0.16243518
Link 6 8 12 0 0.00843475
Link 2 9 14 0 0.97503169
Link 9 8 15 0 -0.55278649
Link 1 16 40 0 1.05569619
Link 16 8 41 0 -0.03439151
GenomeEnd

GenomeStart 21336
Genome Fitness: 242.000000 
Neuron 1 1 0.00000000 1 0.00000000 0.00000000 0.00000000 0.00000000
Neuron 2 1 0.00000000 1 0.00000000 0.00000000 0.00000000 0.00000000
Neuron 3 1 0.00000000 1 0.00000000 0.00000000 0.00000000 0.00000000
Neuron 4 1 0.00000000 1 0.00000000 0.00000000 0.00000000 0.00000000
Neuron 5 1 0.00000000 1 0.00000000 0.00000000 0.00000000 0.00000000
Neuron 6 2 0.00000000 1 0.00000000 0.00000000 0.00000000 0.00000000
Neuron 7 4 1.00000000 2 3.02500000 0.00000000 0.00000000 0.00000000
Neuron 8 4 1.00000000 2 3.02500000 0.00000000 0.00000000 0.00000000
Neuron 9 3 0.50000000 10 5.89185529 0.00000000 0.00000000 0.00000000
Neuron 16 3 0.50000000 10 1.64230847 0.00000000 0.00000000 0.00000000
Link 1 7 1 0 0.35985533
Link 2 7 2 0 0.14866057
Link 3 7 3 0 0.18439018
Link 4 7 4 0 -0.00435466
Link 5 7 5 0 -0.44692669
Link 6 7 6 0 0.16553965
Link 3 8 9 0 0.49728535
Link 4 8 10 0 0.09233621
Link 5 8 11 0 -0.05107771
Link 6 8 12 0 -0.10255219
Link 2 9 14 0 1.05709214
Link 9 8 15 0 -0.46175698
Link 1 16 40 0 1.04143912
Link 16 8 41 0 -0.05343191
GenomeEnd

GenomeStart 21337
Genome Fitness: 537.000000 
Neuron 1 1 0.00000000 1 0.00000000 0.00000000 0.00000000 0.00000000
Neuron 2 1 0.00000000 1 0.00000000 0.00000000 0.00000000 0.00000000
Neuron 3 1 0.00000000 1 0.00000000 0.00000000 0.00000000 0.00000000
Neuron 4 1 0.00000000 1 0.00000000 0.00000000 0.00000000 0.00000000
Neuron 5 1 0.00000000 1 0.00000000 0.00000000 0.00000000 0.00000000
Neuron 6 2 0.00000000 1 0.00000000 0.00000000 0.00000000 0.00000000
Neuron 7 4 1.00000000 2 3.02500000 0.00000000 0.00000000 0.00000000
Neuron 8 4 1.00000000 2 3.02500000 0.00000000 0.00000000 0.00000000
Neuron 9 3 0.50000000 10 5.89185529 0.00000000 0.00000000 0.00000000
Neuron 16 3 0.50000000 10 1.64230847 0.00000000 0.00000000 0.00000000
Link 1 7 1 0 0.26963024
Link 2 7 2 0 0.12951324
Link 3 7 3 0 0.12705390
Link 4 7 4 0 0.09305443
Link 5 7 5 0 -0.56130124
Link 6 7 6 0 0.19640737
Link 3 8 9 0 0.59291445
Link 4 8 10 0 0.22461515
Link 5 8 11 0 -0.14043335
Link 6 8 12 0 0.00160219
Link 2 9 14 0 1.09065239
Link 9 8 15 0 -0.61758188
Link 1 16 40 0 1.04826245
Link 16 8 41 0 -0.00579390
GenomeEnd

GenomeStart 21338
Genome Fitness: 199.000000 
Neuron 1 1 0.00000000 1 0.00000000 0.00000000 0.00000000 0.00000000
Neuron 2 1 0.00000000 1 0.00000000 0.00000000 0.00000000 0.00000000
Neuron 3 1 0.00000000 1 0.00000000 0.00000000 0.00000000 0.00000000
Neuron 4 1 0.00000000 1 0.00000000 0.00000000 0.00000000 0.00000000
Neuron 5 1 0.00000000 1 0.00000000 0.00000000 0.00000000 0.00000000
Neuron 6 2 0.00000000 1 0.00000000 0.00000000 0.00000000 0.00000000
Neuron 7 4 1.00000000 2 3.02500000 0.00000000 0.00000000 0.00000000
Neuron 8 4 1.00000000 2 3.02500000 0.00000000 0.00000000 0.00000000
Neuron 9 3 0.50000000 10 5.89185529 0.00000000 0.00000000 0.00000000
Neuron 16 3 0.50000000 10 1.64230847 0.00000000 0.00000000 0.00000000
Link 1 7 1 0 0.40914889
Link 2 7 2 0 0.15835247
Link 3 7 3 0 0.11620437
Link 4 7 4 0 0.09759637
Link 5 7 5 0 -0.48329714
Link 6 7 6 0 0.24271876
Link 3 8 9 0 0.69592301
Link 4 8 10 0 0.14356462
Link 5 8 11 0 -0.06673461
Link 6 8 12 0 0.03311323
Link 2 9 14 0 0.97716706
Link 9 8 15 0 -0.57380025
Link 1 16 40 0 1.03113270
Link 16 8 41 0 -0.08723282
GenomeEnd

GenomeStart 21339
Genome Fitness: 199.000000 
Neuron 1 1 0.00000000 1 0.00000000 0.00000000 0.00000000 0.00000000
Neuron 2 1 0.00000000 1 0.00000000 0.00000000 0.00000000 0.00000000
Neuron 3 1 0.00000000 1 0.00000000 0.00000000 0.00000000 0.00000000
Neuron 4 1 0.00000000 1 0.00000000 0.00000000 0.00000000 0.00000000
Neuron 5 1 0.00000000 1 0.00000000 0.00000000 0.00000000 0.00000000
Neuron 6 2 0.00000000 1 0.00000000 0.00000000 0.00000000 0.00000000
Neuron 7 4 1.00000000 2 3.02500000 0.00000000 0.00000000 0.00000000
Neuron 8 4 1.00000000 2 3.02500000 0.00000000 0.00000000 0.00000000
Neuron 9 3 0.50000000 10 5.89185529 0.00000000 0.00000000 0.00000000
Neuron 16 3 0.50000000 10 1.64230847 0.00000000 0.00000000 0.00000000
Link 1 7 1 0 0.43196812
Link 2 7 2 0 0.20543301
Link 3 7 3 0 0.12705390
Link 4 7 4 0 0.16351399
Link 5 7 5 0 -0.59212873
Link 6 7 6 0 -0.82454218
Link 3 8 9 0 0.60197690
Link 4 8 10 0 0.20618885
Link 5 8 11 0 -0.13573578
Link 6 8 12 0 0.07982180
Link 2 9 14 0 -0.00979613
Link 9 8 15 0 -0.54694348
Link 1 16 40 0 1.03873047
Link 16 8 41 0 -0.00579390
GenomeEnd

GenomeStart 21340
Genome Fitness: 218.000000 
Neuron 1 1 0.00000000 1 0.00000000 0.00000000 0.00000000 0.00000000
Neuron 2 1 0.00000000 1 0.00000000 0.00000000 0.00000000 0.00000000
Neuron 3 1 0.00000000 1 0.00000000 0.00000000 0.00000000 0.00000000
Neuron 4 1 0.00000000 1 0.00000000 0.00000000 0.00000000 0.00000000
Neuron 5 1 0.00000000 1 0.00000000 0.00000000 0.00000000 0.00000000
Neuron 6 2 0.00000000 1 0.00000000 0.00000000 0.00000000 0.00000000
Neuron 7 4 1.00000000 2 3.02500000 0.00000000 0.00000000 0.00000000
Neuron 8 4 1.00000000 2 3.02500000 0.00000000 0.00000000 0.00000000
Neuron 9 3 0.50000000 10 5.89185529 0.00000000 0.00000000 0.00000000
Neuron 16 3 0.50000000 10 1.64230847 0.00000000 0.00000000 0.00000000
Link 1 7 1 0 0.15036251
Link 2 7 2 0 0.07831408
Link 3 7 3 0 0.27494300
Link 4 7 4 0 0.15763590
Link 5 7 5 0 -0.52762369
Link 6 7 6 0 0.26642327
Link 3 8 9 0 0.58760356
Link 4 8 10 0 0.13142105
Link 5 8 11 0 -0.01729333
Link 6 8 12 0 -0.14527386
Link 2 9 14 0 1.12082329
Link 9 8 15 0 -0.72171507
Link 1 16 40 0 0.98771037
Link 16 8 41 0 0.08615479
GenomeEnd

GenomeStart 21341
Genome Fitness: 199.000000 
Neuron 1 1 0.00000000 1 0.00000000 0.00000000 0.00000000 0.00000000
Neuron 2 1 0.00000000 1 0.00000000 0.00000000 0.00000000 0.00000000
Neuron 3 1 0.00000000 1 0.00000000 0.00000000 0.00000000 0.00000000
Neuron 4 1 0.00000000 1 0.00000000 0.00000000 0.00000000 0.00000000
Neuron 5 1 0.00000000 1 0.00000000 0.00000000 0.00000000 0.00000000
Neuron 6 2 0.00000000 1 0.00000000 0.00000000 0.00000000 0.00000000
Neuron 7 4 1.00000000 2 3.02500000 0.00000000 0.00000000 0.00000000
Neuron 8 4 1.00000000 2 3.02500000 0.00000000 0.00000000 0.00000000
Neuron 9 3 0.50000000 10 5.89185529 0.00000000 0.00000000 0.00000000
Neuron 16 3 0.50000000 10 1.64230847 0.00000000 0.00000000 0.00000000
Link 1 7 1 0 0.40571620
Link 2 7 2 0 0.05272068
Link 3 7 3 0 0.13231607
Link 4 7 4 0 0.11308932
Link 5 7 5 0 -0.51701987
Link 6 7 6 0 0.20312593
Link 3 8 9 0 0.57693985
Link 4 8 10 0 0.18682347
Link 5 8 11 0 -0.26047332
Link 6 8 12 0 -0.00293444
Link 2 9 14 0 1.09177630
Link 9 8 15 0 -0.61570732
Link 1 16 40 0 0.90973301
Link 16 8 41 0 0.04228033
GenomeEnd

GenomeStart 21342
Genome Fitness: 163.000000 
Neuron 1 1 0.00000000 1 0.00000000 0.00000000 0.00000000 0.00000000
Neuron 2 1 0.00000000 1 0.00000000 0.00000000 0.00000000 0.00000000
Neuron 3 1 0.00000000 1 0.00000000 0.00000000 0.00000000 0.00000000
Neuron 4 1 0.00000000 1 0.00000000 0.00000000 0.00000000 0.00000000
Neuron 5 1 0.00000000 1 0.00000000 0.00000000 0.00000000 0.00000000
Neuron 6 2 0.00000000 1 0.00000000 0.00000000 0.00000000 0.00000000
Neuron 7 4 1.00000000 2 3.02500000 0.00000000 0.00000000 0.00000000
Neuron 8 4 1.00000000 2 3.02500000 0.00000000 0.00000000 0.00000000
Neuron 9 3 0.50000000 10 5.89185529 0.00000000 0.00000000 0.00000000
Neuron 16 3 0.50000000 10 1.64230847 0.00000000 0.00000000 0.00000000
Link 1 7 1 0 0.41284258
Link 2 7 2 0 0.03004187
Link 3 7 3 0 0.24511800
Link 4 7 4 0 0.23452912
Link 5 7 5 0 -0.55399759
Link 6 7 6 0 0.14328927
Link 3 8 9 0 0.45468896
Link 4 8 10 0 0.32030951
Link 5 8 11 0 -0.09991602
Link 6 8 12 0 -0.01869960
Link 2 9 14 0 1.14294895
Link 9 8 15 0 -0.55105579
Link 1 16 40 0 0.96733315
Link 16 8 41 0 0.00089264
GenomeEnd

GenomeStart 21343
Genome Fitness: 534.000000 
Neuron 1 1 0.00000000 1 0.00000000 0.00000000 0.00000000 0.00000000
Neuron 2 1 0.00000000 1 0.00000000 0.00000000 0.00000000 0.00000000
Neuron 3 1 0.00000000 1 0.00000000 0.00000000 0.00000000 0.00000000
Neuron 4 1 0.00000000 1 0.00000000 0.00000000 0.00000000 0.00000000
Neuron 5 1 0.00000000 1 0.00000000 0.00000000 0.00000000 0.00000000
Neuron 6 2 0.00000000 1 0.00000000 0.00000000 0.00000000 0.00000000
Neuron 7 4 1.00000000 2 3.02500000 0.00000000 0.00000000 0.00000000
Neuron 8 4 1.00000000 2 3.02500000 0.00000000 0.00000000 0.00000000
Neuron 9 3 0.50000000 11 5.89185529 0.00000000 0.00000000 0.00000000
Neuron 12 3 0.50000000 1 2.96516409 0.00000000 0.00000000 0.00000000
Neuron 21 3 0.50000000 8 4.53661780 0.00000000 0.00000000 0.00000000
Link 1 7 1 0 0.75941834
Link 2 7 2 0 -0.19900958
Link 3 7 3 0 -0.17361785
Link 4 7 4 0 0.04030855
Link 6 7 6 0 0.17568791
Link 1 8 7 0 -0.29899571
Link 3 8 9 0 0.50993043
Link 5 8 11 0 -0.34396926
Link 6 8 12 0 -0.26144819
Link 2 9 14 0 0.27164522
Link 9 8 15 0 -0.35283820
Link 5 12 23 0 0.45672769
Link 12 7 24 0 -0.34918378
Link 4 21 61 0 0.83250755
Link 21 8 62 0 0.38606136
Link 9 12 97 0 0.13983038
Link 5 21 105 0 1.03622954
GenomeEnd

GenomeStart 21344
Genome Fitness: 534.000000 
Neuron 1 1 0.00000000 1 0.00000000 0.00000000 0.00000000 0.00000000
Neuron 2 1 0.00000000 1 0.00000000 0.00000000 0.00000000 0.00000000
Neuron 3 1 0.00000000 1 0.00000000 0.00000000 0.00000000 0.00000000
Neuron 4 1 0.00000000 1 0.00000000 0.00000000 0.00000000 0.00000000
Neuron 5 1 0.00000000 1 0.00000000 0.00000000 0.00000000 0.00000000
Neuron 6 2 0.00000000 1 0.00000000 0.00000000 0.00000000 0.00000000
Neuron 7 4 1.00000000 2 3.02500000 0.00000000 0.00000000 0.00000000
Neuron 8 4 1.00000000 2 3.02500000 0.00000000 0.00000000 0.00000000
Neuron 9 3 0.50000000 11 5.89185529 0.00000000 0.00000000 0.00000000
Neuron 12 3 0.50000000 1 2.96516409 0.00000000 0.00000000 0.00000000
Neuron 21 3 0.50000000 8 4.53661780 0.00000000 0.00000000 0.00000000
Link 1 7 1 0 0.75941834
Link 2 7 2 0 -0.19900958
Link 3 7 3 0 -0.17361785
Link 4 7 4 0 0.04030855
Link 6 7 6 0 0.17568791
Link 1 8 7 0 -0.29899571
Link 3 8 9 0 0.50993043
Link 5 8 11 0 -0.34396926
Link 6 8 12 0 -0.26144819
Link 2 9 14 0 0.27164522
Link 9 8 15 0 -0.35283820
Link 5 12 23 0 0.45672769
Link 12 7 24 0 -0.34918378
Link 4 21 61 0 0.83250755
Link 21 8 62 0 0.38606136
Link 9 12 97 0 0.13983038
Link 5 21 105 0 1.03622954
GenomeEnd

GenomeStart 21345
Genome Fitness: 349.000000 
Neuron 1 1 0.00000000 1 0.00000000 0.00000000 0.00000000 0.00000000
Neuron 2 1 0.00000000 1 0.00000000 0.00000000 0.00000000 0.00000000
Neuron 3 1 0.00000000 1 0.00000000 0.00000000 0.00000000 0.00000000
Neuron 4 1 0.00000000 1 0.00000000 0.00000000 0.00000000 0.00000000
Neuron 5 1 0.00000000 1 0.00000000 0.00000000 0.00000000 0.00000000
Neuron 6 2 0.00000000 1 0.00000000 0.00000000 0.00000000 0.00000000
Neuron 7 4 1.00000000 2 3.02500000 0.00000000 0.00000000 0.00000000
Neuron 8 4 1.00000000 2 3.02500000 0.00000000 0.00000000 0.00000000
Neuron 9 3 0.50000000 11 5.89185529 0.00000000 0.00000000 0.00000000
Neuron 12 3 0.50000000 1 2.96516409 0.00000000 0.00000000 0.00000000
Neuron 21 3 0.50000000 8 4.53661780 0.00000000 0.00000000 0.00000000
Link 1 7 1 0 0.86007217
Link 2 7 2 0 -0.24309299
Link 3 7 3 0 -0.21401832
Link 4 7 4 0 0.11697617
Link 6 7 6 0 0.14586121
Link 1 8 7 0 -0.29285703
Link 3 8 9 0 0.62895946
Link 5 8 11 0 -0.39134028
Link 6 8 12 0 -0.17587359
Link 2 9 14 0 0.29649580
Link 9 8 15 0 -0.46136689
Link 5 12 23 0 0.51354474
Link 12 7 24 0 -0.35735288
Link 4 21 61 0 0.91761303
Link 21 8 62 0 0.38042263
Link 9 12 97 0 0.11365063
Link 5 21 105 0 1.01489515
GenomeEnd

GenomeStart 21346
Genome Fitness: 179.000000 
Neuron 1 1 0.00000000 1 0.00000000 0.00000000 0.00000000 0.00000000
Neuron 2 1 0.00000000 1 0.00000000 0.00000000 0.00000000 0.00000000
Neuron 3 1 0.00000000 1 0.00000000 0.00000000 0.00000000 0.00000000
Neuron 4 1 0.00000000 1 0.00000000 0.00000000 0.00000000 0.00000000
Neuron 5 1 0.00000000 1 0.00000000 0.00000000 0.00000000 0.00000000
Neuron 6 2 0.00000000 1 0.00000000 0.00000000 0.00000000 0.00000000
Neuron 7 4 1.00000000 2 3.02500000 0.00000000 0.00000000 0.00000000
Neuron 8 4 1.00000000 2 3.02500000 0.00000000 0.00000000 0.00000000
Neuron 9 3 0.50000000 11 5.89185529 0.00000000 0.00000000 0.00000000
Neuron 12 3 0.50000000 1 2.96516409 0.00000000 0.00000000 0.00000000
Neuron 21 3 0.50000000 8 4.53661780 0.00000000 0.00000000 0.00000000
Link 1 7 1 0 0.60953786
Link 2 7 2 0 -0.21527571
Link 3 7 3 0 -0.16531666
Link 4 7 4 0 0.16400063
Link 6 7 6 0 0.15274639
Link 1 8 7 0 -0.23834407
Link 3 8 9 0 0.42862723
Link 5 8 11 0 -0.42087464
Link 6 8 12 0 -0.09944752
Link 2 9 14 0 0.32821772
Link 9 8 15 0 -0.26579992
Link 5 12 23 0 0.60826574
Link 12 7 24 0 -0.22989977
Link 4 21 61 0 0.79342404
Link 21 8 62 0 0.42580485
Link 9 12 97 0 0.16461536
Link 5 21 105 0 1.13430362
GenomeEnd

GenomeStart 21347
Genome Fitness: 534.000000 
Neuron 1 1 0.00000000 1 0.00000000 0.00000000 0.00000000 0.00000000
Neuron 2 1 0.00000000 1 0.00000000 0.00000000 0.00000000 0.00000000
Neuron 3 1 0.00000000 1 0.00000000 0.00000000 0.00000000 0.00000000
Neuron 4 1 0.00000000 1 0.00000000 0.00000000 0.00000000 0.00000000
Neuron 5 1 0.00000000 1 0.00000000 0.00000000 0.00000000 0.00000000
Neuron 6 2 0.00000000 1 0.00000000 0.00000000 0.00000000 0.00000000
Neuron 7 4 1.00000000 2 3.02500000 0.00000000 0.00000000 0.00000000
Neuron 8 4 1.00000000 2 3.02500000 0.00000000 0.00000000 0.00000000
Neuron 9 3 0.50000000 11 5.89185529 0.00000000 0.00000000 0.00000000
Neuron 12 3 0.50000000 1 2.96516409 0.00000000 0.00000000 0.00000000
Neuron 21 3 0.50000000 8 4.53661780 0.00000000 0.00000000 0.00000000
Link 1 7 1 0 0.75941834
Link 2 7 2 0 -0.19900958
Link 3 7 3 0 -0.17361785
Link 4 7 4 0 0.04030855
Link 6 7 6 0 0.17568791
Link 1 8 7 0 -0.29899571
Link 3 8 9 0 0.50993043
Link 5 8 11 0 -0.34396926
Link 6 8 12 0 -0.26144819
Link 2 9 14 0 0.27164522
Link 9 8 15 0 -0.35283820
Link 5 12 23 0 0.45672769
Link 12 7 24 0 -0.34918378
Link 4 21 61 0 0.83250755
Link 21 8 62 0 0.38606136
Link 9 12 97 0 0.13983038
Link 5 21 105 0 1.03622954
GenomeEnd

GenomeStart 21348
Genome Fitness: 171.000000 
Neuron 1 1 0.00000000 1 0.00000000 0.00000000 0.00000000 0.00000000
Neuron 2 1 0.00000000 1 0.00000000 0.00000000 0.00000000 0.00000000
Neuron 3 1 0.00000000 1 0.00000000 0.00000000 0.00000000 0.00000000
Neuron 4 1 0.00000000 1 0.00000000 0.00000000 0.00000000 0.00000000
Neuron 5 1 0.00000000 1 0.00000000 0.00000000 0.00000000 0.00000000
Neuron 6 2 0.00000000 1 0.00000000 0.00000000 0.00000000 0.00000000
Neuron 7 4 1.00000000 2 3.02500000 0.00000000 0.00000000 0.00000000
Neuron 8 4 1.00000000 2 3.02500000 0.00000000 0.00000000 0.00000000
Neuron 9 3 0.50000000 11 5.89185529 0.00000000 0.00000000 0.00000000
Neuron 12 3 0.50000000 1 2.96516409 0.00000000 0.00000000 0.00000000
Neuron 21 3 0.50000000 8 4.53661780 0.00000000 0.00000000 0.00000000
Link 1 7 1 0 0.77627064
Link 2 7 2 0 -0.11934083
Link 3 7 3 0 -0.20460384
Link 4 7 4 0 -0.02007593
Link 6 7 6 0 0.09363742
Link 1 8 7 0 -0.31067777
Link 3 8 9 0 0.47367539
Link 5 8 11 0 -0.38359680
Link 6 8 12 0 -0.13549312
Link 2 9 14 0 0.25294731
Link 9 8 15 0 -0.49818713
Link 5 12 23 0 0.36044540
Link 12 7 24 0 -0.31509977
Link 4 21 61 0 0.65729472
Link 21 8 62 0 0.25725164
Link 9 12 97 0 0.09047056
Link 5 21 105 0 1.03406164
GenomeEnd

GenomeStart 21349
Genome Fitness: 37.000000 
Neuron 1 1 0.00000000 1 0.00000000 0.00000000 0.00000000 0.00000000
Neuron 2 1 0.00000000 1 0.00000000 0.00000000 0.00000000 0.00000000
Neuron 3 1 0.00000000 1 0.00000000 0.00000000 0.00000000 0.00000000
Neuron 4 1 0.00000000 1 0.00000000 0.00000000 0.00000000 0.00000000
Neuron 5 1 0.00000000 1 0.00000000 0.00000000 0.00000000 0.00000000
Neuron 6 2 0.00000000 1 0.00000000 0.00000000 0.00000000 0.00000000
Neuron 7 4 1.00000000 2 3.02500000 0.00000000 0.00000000 0.00000000
Neuron 8 4 1.00000000 2 3.02500000 0.00000000 0.00000000 0.00000000
Neuron 9 3 0.50000000 11 5.89185529 0.00000000 0.00000000 0.00000000
Neuron 12 3 0.50000000 1 2.96516409 0.00000000 0.00000000 0.00000000
Neuron 21 3 0.50000000 8 4.53661780 0.00000000 0.00000000 0.00000000
Link 1 7 1 0 0.90569389
Link 2 7 2 0 -0.20634359
Link 3 7 3 0 -0.27641249
Link 4 7 4 0 -0.01126281
Link 6 7 6 0 0.20013536
Link 1 8 7 0 -0.31384846
Link 3 8 9 0 0.63641384
Link 5 8 11 0 -0.32124219
Link 6 8 12 0 -0.17346694
Link 2 9 14 0 0.27057899
Link 9 8 15 0 -0.25033565
Link 5 12 23 0 0.55443961
Link 12 7 24 0 -0.28522544
Link 4 21 61 0 0.75293472
Link 21 8 62 0 0.38272936
Link 9 12 97 0 0.19747265
Link 5 21 105 0 1.05766896
GenomeEnd

GenomeStart 21350
Genome Fitness: 243.000000 
Neuron 1 1 0.00000000 1 0.00000000 0.00000000 0.00000000 0.00000000
Neuron 2 1 0.00000000 1 0.00000000 0.00000000 0.00000000 0.00000000
Neuron 3 1 0.00000000 1 0.00000000 0.00000000 0.00000000 0.00000000
Neuron 4 1 0.00000000 1 0.00000000 0.00000000 0.00000000 0.00000000
Neuron 5 1 0.00000000 1 0.00000000 0.00000000 0.00000000 0.00000000
Neuron 6 2 0.00000000 1 0.00000000 0.00000000 0.00000000 0.00000000
Neuron 7 4 1.00000000 2 3.02500000 0.00000000 0.00000000 0.00000000
Neuron 8 4 1.00000000 2 3.02500000 0.00000000 0.00000000 0.00000000
Neuron 9 3 0.50000000 11 5.89185529 0.00000000 0.00000000 0.00000000
Neuron 12 3 0.50000000 1 2.96516409 0.00000000 0.00000000 0.00000000
Neuron 21 3 0.50000000 8 4.53661780 0.00000000 0.00000000 0.00000000
Link 1 7 1 0 0.68712927
Link 2 7 2 0 -0.24750948
Link 3 7 3 0 -0.03929839
Link 4 7 4 0 0.10605173
Link 6 7 6 0 0.29967078
Link 1 8 7 0 -0.30055240
Link 3 8 9 0 0.59544709
Link 5 8 11 0 -0.42735913
Link 6 8 12 0 -0.26372531
Link 2 9 14 0 0.21592085
Link 9 8 15 0 -0.33575570
Link 5 12 23 0 0.40657944
Link 12 7 24 0 -0.33420947
Link 4 21 61 0 0.90441307
Link 21 8 62 0 0.41328758
Link 9 12 97 0 0.23418030
Link 5 21 105 0 1.01478082
GenomeEnd

GenomeStart 21351
Genome Fitness: 191.000000 
Neuron 1 1 0.00000000 1 0.00000000 0.00000000 0.00000000 0.00000000
Neuron 2 1 0.00000000 1 0.00000000 0.00000000 0.00000000 0.00000000
Neuron 3 1 0.00000000 1 0.00000000 0.00000000 0.00000000 0.00000000
Neuron 4 1 0.00000000 1 0.00000000 0.00000000 0.00000000 0.00000000
Neuron 5 1 0.00000000 1 0.00000000 0.00000000 0.00000000 0.00000000
Neuron 6 2 0.00000000 1 0.00000000 0.00000000 0.00000000 0.00000000
Neuron 7 4 1.00000000 2 3.02500000 0.00000000 0.00000000 0.00000000
Neuron 8 4 1.00000000 2 3.02500000 0.00000000 0.00000000 0.00000000
Neuron 9 3 0.50000000 11 5.89185529 0.00000000 0.00000000 0.00000000
Neuron 12 3 0.50000000 1 2.96516409 0.00000000 0.00000000 0.00000000
Neuron 21 3 0.50000000 8 4.53661780 0.00000000 0.00000000 0.00000000
Link 1 7 1 0 0.80273174
Link 2 7 2 0 -0.17998034
Link 3 7 3 0 -0.29605053
Link 4 7 4 0 0.16843800
Link 6 7 6 0 0.12647729
Link 1 8 7 0 -0.34452452
Link 3 8 9 0 0.50216137
Link 5 8 11 0 -0.35162256
Link 6 8 12 0 -0.17412828
Link 2 9 14 0 0.12212701
Link 9 8 15 0 -0.33412043
Link 5 12 23 0 0.64407914
Link 12 7 24 0 -0.39902523
Link 4 21 61 0 0.91747982
Link 21 8 62 0 0.46120269
Link 9 12 97 0 0.15570633
Link 5 21 105 0 1.10523880
GenomeEnd

GenomeStart 21352
Genome Fitness: 529.000000 
Neuron 1 1 0.00000000 1 0.00000000 0.00000000 0.00000000 0.00000000
Neuron 2 1 0.00000000 1 0.00000000 0.00000000 0.00000000 0.00000000
Neuron 3 1 0.00000000 1 0.00000000 0.00000000 0.00000000 0.00000000
Neuron 4 1 0.00000000 1 0.00000000 0.00000000 0.00000000 0.00000000
Neuron 5 1 0.00000000 1 0.00000000 0.00000000 0.00000000 0.00000000
Neuron 6 2 0.00000000 1 0.00000000 0.00000000 0.00000000 0.00000000
Neuron 7 4 1.00000000 2 3.02500000 0.00000000 0.00000000 0.00000000
Neuron 8 4 1.00000000 2 3.02500000 0.00000000 0.00000000 0.00000000
Neuron 9 3 0.50000000 10 5.89185529 0.00000000 0.00000000 0.00000000
Neuron 12 3 0.50000000 8 3.32732936 0.00000000 0.00000000 0.00000000
Neuron 16 3 0.50000000 10 1.64230847 0.00000000 0.00000000 0.00000000
Neuron 19 3 0.75000000 10 1.08091623 0.00000000 0.00000000 0.00000000
Link 1 7 1 0 -0.71210676
Link 2 7 2 0 0.20498430
Link 3 7 3 0 0.22005220
Link 4 7 4 0 -0.08046488
Link 6 7 6 0 0.09360001
Link 3 8 9 0 0.43385880
Link 4 8 10 0 -0.10196670
Link 5 8 11 0 0.17077832
Link 6 8 12 0 -0.13874518
Link 2 9 14 0 0.38213511
Link 9 8 15 0 0.12837386
Link 5 12 23 0 0.98562959
Link 12 7 24 0 -0.73253117
Link 1 16 40 0 1.04258259
Link 3 9 47 0 -0.04058594
Link 16 19 52 0 1.31303614
Link 19 8 53 0 0.12500848
Link 9 7 81 0 -0.64100474
GenomeEnd

GenomeStart 21353
Genome Fitness: 529.000000 
Neuron 1 1 0.00000000 1 0.00000000 0.00000000 0.00000000 0.00000000
Neuron 2 1 0.00000000 1 0.00000000 0.00000000 0.00000000 0.00000000
Neuron 3 1 0.00000000 1 0.00000000 0.00000000 0.00000000 0.00000000
Neuron 4 1 0.00000000 1 0.00000000 0.00000000 0.00000000 0.00000000
Neuron 5 1 0.00000000 1 0.00000000 0.00000000 0.00000000 0.00000000
Neuron 6 2 0.00000000 1 0.00000000 0.00000000 0.00000000 0.00000000
Neuron 7 4 1.00000000 2 3.02500000 0.00000000 0.00000000 0.00000000
Neuron 8 4 1.00000000 2 3.02500000 0.00000000 0.00000000 0.00000000
Neuron 9 3 0.50000000 10 5.89185529 0.00000000 0.00000000 0.00000000
Neuron 12 3 0.50000000 8 3.32732936 0.00000000 0.00000000 0.00000000
Neuron 16 3 0.50000000 10 1.64230847 0.00000000 0.00000000 0.00000000
Neuron 19 3 0.75000000 10 1.08091623 0.00000000 0.00000000 0.00000000
Link 1 7 1 0 -0.71210676
Link 2 7 2 0 0.20498430
Link 3 7 3 0 0.22005220
Link 4 7 4 0 -0.08046488
Link 6 7 6 0 0.09885650
Link 3 8 9 0 0.43385880
Link 4 8 10 0 -0.09996090
Link 5 8 11 0 0.17077832
Link 6 8 12 0 -0.09222287
Link 2 9 14 0 0.38213511
Link 9 8 15 0 0.12837386
Link 5 12 23 0 0.98562959
Link 12 7 24 0 -0.73253117
Link 1 16 40 0 1.10759583
Link 3 9 47 0 -0.04058594
Link 16 19 52 0 1.31303614
Link 19 8 53 0 0.12500848
Link 9 7 81 0 -0.64100474
GenomeEnd

GenomeStart 21354
Genome Fitness: 154.000000 
Neuron 1 1 0.00000000 1 0.00000000 0.00000000 0.00000000 0.00000000
Neuron 2 1 0.00000000 1 0.00000000 0.00000000 0.00000000 0.00000000
Neuron 3 1 0.00000000 1 0.00000000 0.00000000 0.00000000 0.00000000
Neuron 4 1 0.00000000 1 0.00000000 0.00000000 0.00000000 0.00000000
Neuron 5 1 0.00000000 1 0.00000000 0.00000000 0.00000000 0.00000000
Neuron 6 2 0.00000000 1 0.00000000 0.00000000 0.00000000 0.00000000
Neuron 7 4 1.00000000 2 3.02500000 0.00000000 0.00000000 0.00000000
Neuron 8 4 1.00000000 2 3.02500000 0.00000000 0.00000000 0.00000000
Neuron 9 3 0.50000000 10 5.89185529 0.00000000 0.00000000 0.00000000
Neuron 12 3 0.50000000 8 3.32732936 0.00000000 0.00000000 0.00000000
Neuron 16 3 0.50000000 10 1.64230847 0.00000000 0.00000000 0.00000000
Neuron 19 3 0.75000000 10 1.08091623 0.00000000 0.00000000 0.00000000
Link 1 7 1 0 -0.60805932
Link 2 7 2 0 0.27801797
Link 3 7 3 0 0.16947128
Link 4 7 4 0 0.07457772
Link 6 7 6 0 0.20388849
Link 3 8 9 0 0.50596078
Link 4 8 10 0 0.03581939
Link 5 8 11 0 0.09525183
Link 6 8 12 0 -0.05290069
Link 2 9 14 0 0.39123814
Link 9 8 15 0 0.24087025
Link 5 12 23 0 0.93545052
Link 12 7 24 0 -0.61797213
Link 1 16 40 0 1.16920055
Link 3 9 47 0 0.02818799
Link 16 19 52 0 1.42816383
Link 19 8 53 0 0.15185234
Link 9 7 81 0 -0.62247864
GenomeEnd

GenomeStart 21355
Genome Fitness: 170.000000 
Neuron 1 1 0.00000000 1 0.00000000 0.00000000 0.00000000 0.00000000
Neuron 2 1 0.00000000 1 0.00000000 0.00000000 0.00000000 0.00000000
Neuron 3 1 0.00000000 1 0.00000000 0.00000000 0.00000000 0.00000000
Neuron 4 1 0.00000000 1 0.00000000 0.00000000 0.00000000 0.00000000
Neuron 5 1 0.00000000 1 0.00000000 0.00000000 0.00000000 0.00000000
Neuron 6 2 0.00000000 1 0.00000000 0.00000000 0.00000000 0.00000000
Neuron 7 4 1.00000000 2 3.02500000 0.00000000 0.00000000 0.00000000
Neuron 8 4 1.00000000 2 3.02500000 0.00000000 0.00000000 0.00000000
Neuron 9 3 0.50000000 10 5.89185529 0.00000000 0.00000000 0.00000000
Neuron 12 3 0.50000000 8 3.32732936 0.00000000 0.00000000 0.00000000
Neuron 16 3 0.50000000 10 1.64230847 0.00000000 0.00000000 0.00000000
Neuron 19 3 0.75000000 10 1.08091623 0.00000000 0.00000000 0.00000000
Link 1 7 1 0 -0.78574438
Link 2 7 2 0 0.21180455
Link 3 7 3 0 0.31372630
Link 4 7 4 0 -0.07234136
Link 6 7 6 0 -0.63860556
Link 3 8 9 0 0.37288480
Link 4 8 10 0 0.08465885
Link 5 8 11 0 0.16926520
Link 6 8 12 0 -0.09222287
Link 2 9 14 0 0.38213511
Link 9 8 15 0 0.21866313
Link 5 12 23 0 0.98562959
Link 12 7 24 0 -0.71442675
Link 1 16 40 0 -0.67649947
Link 3 9 47 0 0.00293504
Link 16 19 52 0 0.18793218
Link 19 8 53 0 -0.01656894
Link 9 7 81 0 -0.55764540
GenomeEnd

GenomeStart 21356
Genome Fitness: 204.000000 
Neuron 1 1 0.00000000 1 0.00000000 0.00000000 0.00000000 0.00000000
Neuron 2 1 0.00000000 1 0.00000000 0.00000000 0.00000000 0.00000000
Neuron 3 1 0.00000000 1 0.00000000 0.00000000 0.00000000 0.00000000
Neuron 4 1 0.00000000 1 0.00000000 0.00000000 0.00000000 0.00000000
Neuron 5 1 0.00000000 1 0.00000000 0.00000000 0.00000000 0.00000000
Neuron 6 2 0.00000000 1 0.00000000 0.00000000 0.00000000 0.00000000
Neuron 7 4 1.00000000 2 3.02500000 0.00000000 0.00000000 0.00000000
Neuron 8 4 1.00000000 2 3.02500000 0.00000000 0.00000000 0.00000000
Neuron 9 3 0.50000000 10 5.89185529 0.00000000 0.00000000 0.00000000
Neuron 12 3 0.50000000 8 3.32732936 0.00000000 0.00000000 0.00000000
Neuron 16 3 0.50000000 10 1.64230847 0.00000000 0.00000000 0.00000000
Neuron 19 3 0.75000000 10 1.08091623 0.00000000 0.00000000 0.00000000
Link 1 7 1 0 0.06720782
Link 2 7 2 0 0.14693735
Link 3 7 3 0 0.06064005
Link 4 7 4 0 0.05676367
Link 6 7 6 0 0.18202076
Link 3 8 9 0 0.58844956
Link 4 8 10 0 0.00893480
Link 5 8 11 0 0.30204704
Link 6 8 12 0 -0.15407801
Link 2 9 14 0 0.36728829
Link 9 8 15 0 0.13387307
Link 5 12 23 0 0.88998394
Link 12 7 24 0 -0.61707471
Link 1 16 40 0 1.01370538
Link 3 9 47 0 -0.04058594
Link 16 19 52 0 1.29873917
Link 19 8 53 0 0.61851241
Link 9 7 81 0 -0.61078587
GenomeEnd

GenomeStart 21357
Genome Fitness: 529.000000 
Neuron 1 1 0.00000000 1 0.00000000 0.00000000 0.00000000 0.00000000
Neuron 2 1 0.00000000 1 0.00000000 0.00000000 0.00000000 0.00000000
Neuron 3 1 0.00000000 1 0.00000000 0.00000000 0.00000000 0.00000000
Neuron 4 1 0.00000000 1 0.00000000 0.00000000 0.00000000 0.00000000
Neuron 5 1 0.00000000 1 0.00000000 0.00000000 0.00000000 0.00000000
Neuron 6 2 0.00000000 1 0.00000000 0.00000000 0.00000000 0.00000000
Neuron 7 4 1.00000000 2 3.02500000 0.00000000 0.00000000 0.00000000
Neuron 8 4 1.00000000 2 3.02500000 0.00000000 0.00000000 0.00000000
Neuron 9 3 0.50000000 10 5.89185529 0.00000000 0.00000000 0.00000000
Neuron 12 3 0.50000000 8 3.32732936 0.00000000 0.00000000 0.00000000
Neuron 16 3 0.50000000 10 1.64230847 0.00000000 0.00000000 0.00000000
Neuron 19 3 0.75000000 10 1.08091623 0.00000000 0.00000000 0.00000000
Link 1 7 1 0 -0.71210676
Link 2 7 2 0 0.20498430
Link 3 7 3 0 0.22005220
Link 4 7 4 0 -0.08046488
Link 6 7 6 0 0.09360001
Link 3 8 9 0 0.43385880
Link 4 8 10 0 -0.09996090
Link 5 8 11 0 0.17077832
Link 6 8 12 0 -0.13874518
Link 2 9 14 0 0.38213511
Link 9 8 15 0 0.12837386
Link 5 12 23 0 0.98562959
Link 12 7 24 0 -0.73253117
Link 1 16 40 0 1.04258259
Link 3 9 47 0 -0.04058594
Link 16 19 52 0 1.31303614
Link 19 8 53 0 0.12500848
Link 9 7 81 0 -0.64100474
GenomeEnd

GenomeStart 21358
Genome Fitness: 162.000000 
Neuron 1 1 0.00000000 1 0.00000000 0.00000000 0.00000000 0.00000000
Neuron 2 1 0.00000000 1 0.00000000 0.00000000 0.00000000 0.00000000
Neuron 3 1 0.00000000 1 0.00000000 0.00000000 0.00000000 0.00000000
Neuron 4 1 0.00000000 1 0.00000000 0.00000000 0.00000000 0.00000000
Neuron 5 1 0.00000000 1 0.00000000 0.00000000 0.00000000 0.00000000
Neuron 6 2 0.00000000 1 0.00000000 0.00000000 0.00000000 0.00000000
Neuron 7 4 1.00000000 2 3.02500000 0.00000000 0.00000000 0.00000000
Neuron 8 4 1.00000000 2 3.02500000 0.00000000 0.00000000 0.00000000
Neuron 9 3 0.50000000 10 5.89185529 0.00000000 0.00000000 0.00000000
Neuron 12 3 0.50000000 8 3.32732936 0.00000000 0.00000000 0.00000000
Neuron 16 3 0.50000000 10 1.64230847 0.00000000 0.00000000 0.00000000
Neuron 19 3 0.75000000 10 1.08091623 0.00000000 0.00000000 0.00000000
Link 1 7 1 0 -0.76034857
Link 2 7 2 0 0.29216481
Link 3 7 3 0 0.14011184
Link 4 7 4 0 -0.11104904
Link 6 7 6 0 0.18328889
Link 3 8 9 0 0.52477426
Link 4 8 10 0 -0.29689904
Link 5 8 11 0 0.10869287
Link 6 8 12 0 -0.14748537
Link 2 9 14 0 0.46929546
Link 9 8 15 0 0.26754183
Link 5 12 23 0 0.99428829
Link 12 7 24 0 -0.80483977
Link 1 16 40 0 1.15711163
Link 3 9 47 0 -0.09998547
Link 16 19 52 0 1.35828182
Link 19 8 53 0 0.12489751
Link 9 7 81 0 -0.48027731
GenomeEnd

GenomeStart 21359
Genome Fitness: 264.000000 
Neuron 1 1 0.00000000 1 0.00000000 0.00000000 0.00000000 0.00000000
Neuron 2 1 0.00000000 1 0.00000000 0.00000000 0.00000000 0.00000000
Neuron 3 1 0.00000000 1 0.00000000 0.00000000 0.00000000 0.00000000
Neuron 4 1 0.00000000 1 0.00000000 0.00000000 0.00000000 0.00000000
Neuron 5 1 0.00000000 1 0.00000000 0.00000000 0.00000000 0.00000000
Neuron 6 2 0.00000000 1 0.00000000 0.00000000 0.00000000 0.00000000
Neuron 7 4 1.00000000 2 3.02500000 0.00000000 0.00000000 0.00000000
Neuron 8 4 1.00000000 2 3.02500000 0.00000000 0.00000000 0.00000000
Neuron 9 3 0.50000000 10 5.89185529 0.00000000 0.00000000 0.00000000
Neuron 12 3 0.50000000 8 3.32732936 0.00000000 0.00000000 0.00000000
Neuron 16 3 0.50000000 10 1.64230847 0.00000000 0.00000000 0.00000000
Neuron 19 3 0.75000000 10 1.08091623 0.00000000 0.00000000 0.00000000
Link 1 7 1 0 -0.70093840
Link 2 7 2 0 0.12936210
Link 3 7 3 0 0.23007573
Link 4 7 4 0 0.02074113
Link 6 7 6 0 0.19686026
Link 3 8 9 0 0.40034865
Link 4 8 10 0 -0.01721048
Link 5 8 11 0 0.23510781
Link 6 8 12 0 -0.11986797
Link 2 9 14 0 0.33059459
Link 9 8 15 0 0.16412566
Link 5 12 23 0 1.11858542
Link 12 7 24 0 -0.63989944
Link 1 16 40 0 0.92799596
Link 3 9 47 0 0.10935668
Link 16 19 52 0 1.27468463
Link 19 8 53 0 0.01462727
Link 9 7 81 0 -0.72950178
GenomeEnd

GenomeStart 21360
Genome Fitness: 529.000000 
Neuron 1 1 0.00000000 1 0.00000000 0.00000000 0.00000000 0.00000000
Neuron 2 1 0.00000000 1 0.00000000 0.00000000 0.00000000 0.00000000
Neuron 3 1 0.00000000 1 0.00000000 0.00000000 0.00000000 0.00000000
Neuron 4 1 0.00000000 1 0.00000000 0.00000000 0.00000000 0.00000000
Neuron 5 1 0.00000000 1 0.00000000 0.00000000 0.00000000 0.00000000
Neuron 6 2 0.00000000 1 0.00000000 0.00000000 0.00000000 0.00000000
Neuron 7 4 1.00000000 2 3.02500000 0.00000000 0.00000000 0.00000000
Neuron 8 4 1.00000000 2 3.02500000 0.00000000 0.00000000 0.00000000
Neuron 9 3 0.50000000 10 5.89185529 0.00000000 0.00000000 0.00000000
Neuron 12 3 0.50000000 8 3.32732936 0.00000000 0.00000000 0.00000000
Neuron 16 3 0.50000000 10 1.64230847 0.00000000 0.00000000 0.00000000
Neuron 19 3 0.75000000 7 1.08091623 0.00000000 0.00000000 0.00000000
Link 1 7 1 0 -0.71210676
Link 2 7 2 0 0.20498430
Link 3 7 3 0 0.22005220
Link 4 7 4 0 -0.08046488
Link 6 7 6 0 0.09885650
Link 3 8 9 0 0.43385880
Link 4 8 10 0 -0.10196670
Link 5 8 11 0 0.17077832
Link 6 8 12 0 -0.13874518
Link 2 9 14 0 0.38213511
Link 9 8 15 0 0.12837386
Link 5 12 23 0 0.98562959
Link 12 7 24 0 -0.73253117
Link 1 16 40 0 1.04258259
Link 3 9 47 0 -0.04058594
Link 16 19 52 0 1.31303614
Link 19 8 53 0 0.12500848
Link 9 7 81 0 -0.64100474
GenomeEnd

GenomeStart 21361
Genome Fitness: 480.000000 
Neuron 1 1 0.00000000 1 0.00000000 0.00000000 0.00000000 0.00000000
Neuron 2 1 0.00000000 1 0.00000000 0.00000000 0.00000000 0.00000000
Neuron 3 1 0.00000000 1 0.00000000 0.00000000 0.00000000 0.00000000
Neuron 4 1 0.00000000 1 0.00000000 0.00000000 0.00000000 0.00000000
Neuron 5 1 0.00000000 1 0.00000000 0.00000000 0.00000000 0.00000000
Neuron 6 2 0.00000000 1 0.00000000 0.00000000 0.00000000 0.00000000
Neuron 7 4 1.00000000 2 3.02500000 0.00000000 0.00000000 0.00000000
Neuron 8 4 1.00000000 2 3.02500000 0.00000000 0.00000000 0.00000000
Neuron 11 3 0.50000000 4 3.75850292 0.00000000 0.00000000 0.00000000
Neuron 14 3 0.75000000 6 1.39090960 0.00000000 0.00000000 0.00000000
Neuron 18 3 0.50000000 1 3.35266199 0.00000000 0.00000000 0.00000000
Neuron 33 3 0.75000000 10 0.84435021 0.00000000 0.00000000 0.00000000
Neuron 44 3 0.25000000 11 2.74716398 0.00000000 0.00000000 0.00000000
Link 2 7 2 0 0.17033099
Link 3 7 3 0 0.34055028
Link 4 7 4 0 -0.07615743
Link 5 7 5 0 0.27916387
Link 6 7 6 0 0.77570317
Link 1 8 7 0 0.15570151
Link 2 8 8 0 0.40641527
Link 4 8 10 0 0.43629951
Link 5 8 11 0 -1.07602522
Link 6 8 12 0 0.31667741
Link 3 11 20 0 1.12832257
Link 11 14 30 0 0.92259109
Link 14 8 31 0 0.20535443
Link 11 7 32 0 -0.32457171
Link 4 14 43 0 0.25827559
Link 1 18 49 0 1.38116174
Link 1 11 104 0 0.74299335
Link 18 33 163 0 1.00000000
Link 33 7 164 0 -0.03032440
Link 4 44 223 0 1.00000000
Link 44 11 224 0 0.32072432
GenomeEnd

GenomeStart 21362
Genome Fitness: 480.000000 
Neuron 1 1 0.00000000 1 0.00000000 0.00000000 0.00000000 0.00000000
Neuron 2 1 0.00000000 1 0.00000000 0.00000000 0.00000000 0.00000000
Neuron 3 1 0.00000000 1 0.00000000 0.00000000 0.00000000 0.00000000
Neuron 4 1 0.00000000 1 0.00000000 0.00000000 0.00000000 0.00000000
Neuron 5 1 0.00000000 1 0.00000000 0.00000000 0.00000000 0.00000000
Neuron 6 2 0.00000000 1 0.00000000 0.00000000 0.00000000 0.00000000
Neuron 7 4 1.00000000 2 3.02500000 0.00000000 0.00000000 0.00000000
Neuron 8 4 1.00000000 2 3.02500000 0.00000000 0.00000000 0.00000000
Neuron 11 3 0.50000000 4 3.75850292 0.00000000 0.00000000 0.00000000
Neuron 14 3 0.75000000 6 1.39090960 0.00000000 0.00000000 0.00000000
Neuron 15 3 0.50000000 2 4.97046888 0.00000000 0.00000000 0.00000000
Neuron 18 3 0.50000000 1 3.35266199 0.00000000 0.00000000 0.00000000
Neuron 33 3 0.75000000 10 0.84435021 0.00000000 0.00000000 0.00000000
Neuron 44 3 0.25000000 11 2.74716398 0.00000000 0.00000000 0.00000000
Link 2 7 2 0 0.17033099
Link 3 7 3 0 0.34055028
Link 5 7 5 0 0.27916387
Link 6 7 6 0 0.77570317
Link 1 8 7 0 0.15570151
Link 2 8 8 0 0.40641527
Link 4 8 10 0 0.43629951
Link 5 8 11 0 -1.07602522
Link 6 8 12 0 0.31667741
Link 3 11 20 0 1.12832257
Link 11 14 30 0 0.92259109
Link 14 8 31 0 0.20535443
Link 11 7 32 0 -0.32457171
Link 4 15 36 0 1.00000000
Link 15 7 37 0 -0.07615743
Link 4 14 43 0 0.25827559
Link 1 18 49 0 1.38116174
Link 1 11 104 0 0.74299335
Link 18 33 163 0 1.00000000
Link 33 7 164 0 -0.03032440
Link 4 44 223 0 1.00000000
Link 44 11 224 0 0.32072432
GenomeEnd

GenomeStart 21363
Genome Fitness: 480.000000 
Neuron 1 1 0.00000000 1 0.00000000 0.00000000 0.00000000 0.00000000
Neuron 2 1 0.00000000 1 0.00000000 0.00000000 0.00000000 0.00000000
Neuron 3 1 0.00000000 1 0.00000000 0.00000000 0.00000000 0.00000000
Neuron 4 1 0.00000000 1 0.00000000 0.00000000 0.00000000 0.00000000
Neuron 5 1 0.00000000 1 0.00000000 0.00000000 0.00000000 0.00000000
Neuron 6 2 0.00000000 1 0.00000000 0.00000000 0.00000000 0.00000000
Neuron 7 4 1.00000000 2 3.02500000 0.00000000 0.00000000 0.00000000
Neuron 8 4 1.00000000 2 3.02500000 0.00000000 0.00000000 0.00000000
Neuron 11 3 0.50000000 4 3.75850292 0.00000000 0.00000000 0.00000000
Neuron 14 3 0.75000000 6 1.39090960 0.00000000 0.00000000 0.00000000
Neuron 18 3 0.50000000 1 3.35266199 0.00000000 0.00000000 0.00000000
Neuron 33 3 0.75000000 10 0.84435021 0.00000000 0.00000000 0.00000000
Neuron 44 3 0.25000000 11 2.74716398 0.00000000 0.00000000 0.00000000
Link 2 7 2 0 0.17033099
Link 3 7 3 0 0.34055028
Link 4 7 4 0 -0.07615743
Link 5 7 5 0 0.27916387
Link 6 7 6 0 0.77570317
Link 1 8 7 0 0.15570151
Link 2 8 8 0 0.40641527
Link 4 8 10 0 0.43629951
Link 5 8 11 0 -1.07602522
Link 6 8 12 0 0.31667741
Link 3 11 20 0 1.12832257
Link 11 14 30 0 0.92259109
Link 14 8 31 0 0.20535443
Link 11 7 32 0 -0.32457171
Link 4 14 43 0 0.25827559
Link 1 18 49 0 1.38116174
Link 1 11 104 0 0.74299335
Link 18 33 163 0 1.00000000
Link 33 7 164 0 -0.03032440
Link 4 44 223 0 1.00000000
Link 44 11 224 0 0.32072432
GenomeEnd

GenomeStart 21364
Genome Fitness: 200.000000 
Neuron 1 1 0.00000000 1 0.00000000 0.00000000 0.00000000 0.00000000
Neuron 2 1 0.00000000 1 0.00000000 0.00000000 0.00000000 0.00000000
Neuron 3 1 0.00000000 1 0.00000000 0.00000000 0.00000000 0.00000000
Neuron 4 1 0.00000000 1 0.00000000 0.00000000 0.00000000 0.00000000
Neuron 5 1 0.00000000 1 0.00000000 0.00000000 0.00000000 0.00000000
Neuron 6 2 0.00000000 1 0.00000000 0.00000000 0.00000000 0.00000000
Neuron 7 4 1.00000000 2 3.02500000 0.00000000 0.00000000 0.00000000
Neuron 8 4 1.00000000 2 3.02500000 0.00000000 0.00000000 0.00000000
Neuron 11 3 0.50000000 4 3.75850292 0.00000000 0.00000000 0.00000000
Neuron 14 3 0.75000000 6 1.39090960 0.00000000 0.00000000 0.00000000
Neuron 18 3 0.50000000 1 3.35266199 0.00000000 0.00000000 0.00000000
Neuron 33 3 0.75000000 10 0.84435021 0.00000000 0.00000000 0.00000000
Neuron 44 3 0.25000000 11 2.74716398 0.00000000 0.00000000 0.00000000
Link 2 7 2 0 0.27355029
Link 3 7 3 0 0.24497189
Link 4 7 4 0 -0.05898052
Link 5 7 5 0 0.35538282
Link 6 7 6 0 0.76082749
Link 1 8 7 0 0.16776187
Link 2 8 8 0 0.52550401
Link 4 8 10 0 0.40516477
Link 5 8 11 0 -1.06788376
Link 6 8 12 0 0.40568735
Link 3 11 20 0 1.16739828
Link 11 14 30 0 1.02311570
Link 14 8 31 0 0.30433563
Link 11 7 32 0 -0.29739029
Link 4 14 43 0 0.33640273
Link 1 18 49 0 1.51589990
Link 1 11 104 0 0.61043062
Link 18 33 163 0 1.05441211
Link 33 7 164 0 -0.14385572
Link 4 44 223 0 0.87758874
Link 44 11 224 0 -0.30942018
GenomeEnd

GenomeStart 21365
Genome Fitness: 480.000000 
Neuron 1 1 0.00000000 1 0.00000000 0.00000000 0.00000000 0.00000000
Neuron 2 1 0.00000000 1 0.00000000 0.00000000 0.00000000 0.00000000
Neuron 3 1 0.00000000 1 0.00000000 0.00000000 0.00000000 0.00000000
Neuron 4 1 0.00000000 1 0.00000000 0.00000000 0.00000000 0.00000000
Neuron 5 1 0.00000000 1 0.00000000 0.00000000 0.00000000 0.00000000
Neuron 6 2 0.00000000 1 0.00000000 0.00000000 0.00000000 0.00000000
Neuron 7 4 1.00000000 2 3.02500000 0.00000000 0.00000000 0.00000000
Neuron 8 4 1.00000000 2 3.02500000 0.00000000 0.00000000 0.00000000
Neuron 11 3 0.50000000 4 3.75850292 0.00000000 0.00000000 0.00000000
Neuron 14 3 0.75000000 6 1.39090960 0.00000000 0.00000000 0.00000000
Neuron 18 3 0.50000000 1 3.35266199 0.00000000 0.00000000 0.00000000
Neuron 33 3 0.75000000 10 0.84435021 0.00000000 0.00000000 0.00000000
Neuron 44 3 0.25000000 11 2.74716398 0.00000000 0.00000000 0.00000000
Link 2 7 2 0 0.17033099
Link 3 7 3 0 0.34055028
Link 4 7 4 0 -0.07615743
Link 5 7 5 0 0.27916387
Link 6 7 6 0 0.77570317
Link 1 8 7 0 0.15570151
Link 2 8 8 0 0.40641527
Link 4 8 10 0 0.43629951
Link 5 8 11 0 -1.07602522
Link 6 8 12 0 0.31667741
Link 3 11 20 0 1.12832257
Link 11 14 30 0 0.92259109
Link 14 8 31 0 0.20535443
Link 11 7 32 0 -0.32457171
Link 4 14 43 0 0.25827559
Link 1 18 49 0 1.38116174
Link 1 11 104 0 0.74299335
Link 18 33 163 0 1.00000000
Link 33 7 164 0 -0.03032440
Link 4 44 223 0 1.00000000
Link 44 11 224 0 0.32072432
Link 6 44 258 0 0.24015629
GenomeEnd

GenomeStart 21366
Genome Fitness: 480.000000 
Neuron 1 1 0.00000000 1 0.00000000 0.00000000 0.00000000 0.00000000
Neuron 2 1 0.00000000 1 0.00000000 0.00000000 0.00000000 0.00000000
Neuron 3 1 0.00000000 1 0.00000000 0.00000000 0.00000000 0.00000000
Neuron 4 1 0.00000000 1 0.00000000 0.00000000 0.00000000 0.00000000
Neuron 5 1 0.00000000 1 0.00000000 0.00000000 0.00000000 0.00000000
Neuron 6 2 0.00000000 1 0.00000000 0.00000000 0.00000000 0.00000000
Neuron 7 4 1.00000000 2 3.02500000 0.00000000 0.00000000 0.00000000
Neuron 8 4 1.00000000 2 3.02500000 0.00000000 0.00000000 0.00000000
Neuron 11 3 0.50000000 4 3.75850292 0.00000000 0.00000000 0.00000000
Neuron 14 3 0.75000000 6 1.39090960 0.00000000 0.00000000 0.00000000
Neuron 18 3 0.50000000 1 3.35266199 0.00000000 0.00000000 0.00000000
Neuron 33 3 0.75000000 10 0.84435021 0.00000000 0.00000000 0.00000000
Neuron 44 3 0.25000000 11 2.74716398 0.00000000 0.00000000 0.00000000
Link 2 7 2 0 0.17033099
Link 3 7 3 0 0.34055028
Link 4 7 4 0 -0.07615743
Link 5 7 5 0 0.27916387
Link 6 7 6 0 0.77570317
Link 1 8 7 0 0.15570151
Link 2 8 8 0 0.40641527
Link 4 8 10 0 0.43629951
Link 5 8 11 0 -1.07602522
Link 6 8 12 0 0.31667741
Link 3 11 20 0 1.12832257
Link 11 14 30 0 0.92259109
Link 14 8 31 0 0.20535443
Link 11 7 32 0 -0.32457171
Link 4 14 43 0 0.25827559
Link 1 18 49 0 1.38116174
Link 1 11 104 0 0.74299335
Link 18 33 163 0 1.00000000
Link 33 7 164 0 -0.03032440
Link 4 44 223 0 1.00000000
Link 44 11 224 0 0.32072432
GenomeEnd

GenomeStart 21367
Genome Fitness: 271.000000 
Neuron 1 1 0.00000000 1 0.00000000 0.00000000 0.00000000 0.00000000
Neuron 2 1 0.00000000 1 0.00000000 0.00000000 0.00000000 0.00000000
Neuron 3 1 0.00000000 1 0.00000000 0.00000000 0.00000000 0.00000000
Neuron 4 1 0.00000000 1 0.00000000 0.00000000 0.00000000 0.00000000
Neuron 5 1 0.00000000 1 0.00000000 0.00000000 0.00000000 0.00000000
Neuron 6 2 0.00000000 1 0.00000000 0.00000000 0.00000000 0.00000000
Neuron 7 4 1.00000000 2 3.02500000 0.00000000 0.00000000 0.00000000
Neuron 8 4 1.00000000 2 3.02500000 0.00000000 0.00000000 0.00000000
Neuron 11 3 0.50000000 4 3.75850292 0.00000000 0.00000000 0.00000000
Neuron 14 3 0.75000000 6 1.39090960 0.00000000 0.00000000 0.00000000
Neuron 15 3 0.50000000 2 4.97046888 0.00000000 0.00000000 0.00000000
Neuron 18 3 0.50000000 1 3.35266199 0.00000000 0.00000000 0.00000000
Neuron 33 3 0.75000000 10 0.84435021 0.00000000 0.00000000 0.00000000
Neuron 44 3 0.25000000 11 2.74716398 0.00000000 0.00000000 0.00000000
Link 2 7 2 0 0.03188839
Link 3 7 3 0 0.35145384
Link 5 7 5 0 0.37574931
Link 6 7 6 0 0.65968317
Link 1 8 7 0 0.21346985
Link 2 8 8 0 0.44955167
Link 4 8 10 0 0.25023742
Link 5 8 11 0 -1.12286126
Link 6 8 12 0 0.23489349
Link 3 11 20 0 0.94561935
Link 11 14 30 0 0.85088303
Link 14 8 31 0 0.31292336
Link 11 7 32 0 -0.36373972
Link 4 15 36 0 1.03177305
Link 15 7 37 0 -0.14030795
Link 4 14 43 0 0.28993831
Link 1 18 49 0 1.32245785
Link 1 11 104 0 0.74536993
Link 18 33 163 0 1.09930645
Link 33 7 164 0 -0.08695941
Link 4 44 223 0 0.83623528
Link 44 11 224 0 0.34429036
GenomeEnd

GenomeStart 21368
Genome Fitness: 270.000000 
Neuron 1 1 0.00000000 1 0.00000000 0.00000000 0.00000000 0.00000000
Neuron 2 1 0.00000000 1 0.00000000 0.00000000 0.00000000 0.00000000
Neuron 3 1 0.00000000 1 0.00000000 0.00000000 0.00000000 0.00000000
Neuron 4 1 0.00000000 1 0.00000000 0.00000000 0.00000000 0.00000000
Neuron 5 1 0.00000000 1 0.00000000 0.00000000 0.00000000 0.00000000
Neuron 6 2 0.00000000 1 0.00000000 0.00000000 0.00000000 0.00000000
Neuron 7 4 1.00000000 2 3.02500000 0.00000000 0.00000000 0.00000000
Neuron 8 4 1.00000000 2 3.02500000 0.00000000 0.00000000 0.00000000
Neuron 11 3 0.50000000 4 3.75850292 0.00000000 0.00000000 0.00000000
Neuron 14 3 0.75000000 6 1.39090960 0.00000000 0.00000000 0.00000000
Neuron 18 3 0.50000000 1 3.35266199 0.00000000 0.00000000 0.00000000
Neuron 33 3 0.75000000 10 0.84435021 0.00000000 0.00000000 0.00000000
Neuron 44 3 0.25000000 11 2.74716398 0.00000000 0.00000000 0.00000000
Link 2 7 2 0 0.09334278
Link 3 7 3 0 0.15236915
Link 4 7 4 0 -0.00884385
Link 5 7 5 0 0.28310445
Link 6 7 6 0 0.79827481
Link 1 8 7 0 0.22471862
Link 2 8 8 0 0.39428384
Link 4 8 10 0 0.44792805
Link 5 8 11 0 -1.11343436
Link 6 8 12 0 0.34450348
Link 3 11 20 0 0.95762569
Link 11 14 30 0 0.87984101
Link 14 8 31 0 0.39561081
Link 11 7 32 0 -0.35806840
Link 4 14 43 0 0.30339641
Link 1 18 49 0 1.40101578
Link 1 11 104 0 0.87751008
Link 18 33 163 0 1.09019860
Link 33 7 164 0 -0.04237926
Link 4 44 223 0 0.96116462
Link 44 11 224 0 -0.69291992
GenomeEnd

GenomeStart 21369
Genome Fitness: 480.000000 
Neuron 1 1 0.00000000 1 0.00000000 0.00000000 0.00000000 0.00000000
Neuron 2 1 0.00000000 1 0.00000000 0.00000000 0.00000000 0.00000000
Neuron 3 1 0.00000000 1 0.00000000 0.00000000 0.00000000 0.00000000
Neuron 4 1 0.00000000 1 0.00000000 0.00000000 0.00000000 0.00000000
Neuron 5 1 0.00000000 1 0.00000000 0.00000000 0.00000000 0.00000000
Neuron 6 2 0.00000000 1 0.00000000 0.00000000 0.00000000 0.00000000
Neuron 7 4 1.00000000 2 3.02500000 0.00000000 0.00000000 0.00000000
Neuron 8 4 1.00000000 2 3.02500000 0.00000000 0.00000000 0.00000000
Neuron 11 3 0.50000000 4 3.75850292 0.00000000 0.00000000 0.00000000
Neuron 14 3 0.75000000 6 1.39090960 0.00000000 0.00000000 0.00000000
Neuron 18 3 0.50000000 1 3.35266199 0.00000000 0.00000000 0.00000000
Neuron 33 3 0.75000000 10 0.84435021 0.00000000 0.00000000 0.00000000
Neuron 44 3 0.25000000 11 2.74716398 0.00000000 0.00000000 0.00000000
Link 2 7 2 0 0.17033099
Link 3 7 3 0 0.34055028
Link 4 7 4 0 -0.07615743
Link 5 7 5 0 0.27916387
Link 6 7 6 0 0.77570317
Link 1 8 7 0 0.15570151
Link 2 8 8 0 0.40641527
Link 4 8 10 0 0.43629951
Link 5 8 11 0 -1.07602522
Link 6 8 12 0 0.31667741
Link 3 11 20 0 1.12832257
Link 11 14 30 0 0.92259109
Link 14 8 31 0 0.20535443
Link 11 7 32 0 -0.32457171
Link 4 14 43 0 0.25827559
Link 1 18 49 0 1.38116174
Link 1 11 104 0 0.74299335
Link 18 33 163 0 1.00000000
Link 33 7 164 0 -0.03032440
Link 4 44 223 0 1.00000000
Link 44 11 224 0 0.32072432
GenomeEnd

GenomeStart 21370
Genome Fitness: 201.000000 
Neuron 1 1 0.00000000 1 0.00000000 0.00000000 0.00000000 0.00000000
Neuron 2 1 0.00000000 1 0.00000000 0.00000000 0.00000000 0.00000000
Neuron 3 1 0.00000000 1 0.00000000 0.00000000 0.00000000 0.00000000
Neuron 4 1 0.00000000 1 0.00000000 0.00000000 0.00000000 0.00000000
Neuron 5 1 0.00000000 1 0.00000000 0.00000000 0.00000000 0.00000000
Neuron 6 2 0.00000000 1 0.00000000 0.00000000 0.00000000 0.00000000
Neuron 7 4 1.00000000 2 3.02500000 0.00000000 0.00000000 0.00000000
Neuron 8 4 1.00000000 2 3.02500000 0.00000000 0.00000000 0.00000000
Neuron 11 3 0.50000000 4 3.75850292 0.00000000 0.00000000 0.00000000
Neuron 14 3 0.75000000 6 1.39090960 0.00000000 0.00000000 0.00000000
Neuron 18 3 0.50000000 1 3.35266199 0.00000000 0.00000000 0.00000000
Neuron 33 3 0.75000000 10 0.84435021 0.00000000 0.00000000 0.00000000
Neuron 44 3 0.25000000 11 2.74716398 0.00000000 0.00000000 0.00000000
Link 2 7 2 0 0.29428859
Link 3 7 3 0 0.39780569
Link 4 7 4 0 -0.08169978
Link 5 7 5 0 0.28511009
Link 6 7 6 0 0.79969728
Link 1 8 7 0 0.14576569
Link 2 8 8 0 0.54799236
Link 4 8 10 0 0.41052389
Link 5 8 11 0 -1.17311559
Link 6 8 12 0 0.35500076
Link 3 11 20 0 1.09328869
Link 11 14 30 0 0.82622978
Link 14 8 31 0 0.32260397
Link 11 7 32 0 -0.42724720
Link 4 14 43 0 0.18533063
Link 1 18 49 0 1.39864738
Link 1 11 104 0 0.69159567
Link 18 33 163 0 0.89635035
Link 33 7 164 0 -0.08274724
Link 4 44 223 0 1.05615671
Link 44 11 224 0 0.28889745
GenomeEnd

GenomeStart 21371
Genome Fitness: 480.000000 
Neuron 1 1 0.00000000 1 0.00000000 0.00000000 0.00000000 0.00000000
Neuron 2 1 0.00000000 1 0.00000000 0.00000000 0.00000000 0.00000000
Neuron 3 1 0.00000000 1 0.00000000 0.00000000 0.00000000 0.00000000
Neuron 4 1 0.00000000 1 0.00000000 0.00000000 0.00000000 0.00000000
Neuron 5 1 0.00000000 1 0.00000000 0.00000000 0.00000000 0.00000000
Neuron 6 2 0.00000000 1 0.00000000 0.00000000 0.00000000 0.00000000
Neuron 7 4 1.00000000 2 3.02500000 0.00000000 0.00000000 0.00000000
Neuron 8 4 1.00000000 2 3.02500000 0.00000000 0.00000000 0.00000000
Neuron 11 3 0.50000000 4 3.75850292 0.00000000 0.00000000 0.00000000
Neuron 14 3 0.75000000 6 1.39090960 0.00000000 0.00000000 0.00000000
Neuron 18 3 0.50000000 1 3.35266199 0.00000000 0.00000000 0.00000000
Neuron 26 3 0.87500000 4 5.51085499 0.00000000 0.00000000 0.00000000
Neuron 49 3 0.25000000 9 0.50607227 0.00000000 0.00000000 0.00000000
Link 2 7 2 0 0.17033099
Link 3 7 3 0 0.34055028
Link 4 7 4 0 -0.01310904
Link 5 7 5 0 0.27916387
Link 6 7 6 0 0.72552292
Link 1 8 7 0 0.15570151
Link 2 8 8 0 0.40641527
Link 4 8 10 0 0.43629951
Link 5 8 11 0 -1.07602522
Link 6 8 12 0 0.31667741
Link 11 14 30 0 0.92259109
Link 4 11 33 0 0.37790921
Link 4 14 43 0 0.25827559
Link 1 18 49 0 1.38116174
Link 18 7 50 0 -0.03032440
Link 2 18 82 0 -0.16100810
Link 14 26 120 0 1.00000000
Link 26 8 121 0 0.20535443
Link 3 49 253 0 1.00000000
Link 49 11 254 0 1.12832257
Link 26 7 256 0 -0.27485115
GenomeEnd

GenomeStart 21372
Genome Fitness: 480.000000 
Neuron 1 1 0.00000000 1 0.00000000 0.00000000 0.00000000 0.00000000
Neuron 2 1 0.00000000 1 0.00000000 0.00000000 0.00000000 0.00000000
Neuron 3 1 0.00000000 1 0.00000000 0.00000000 0.00000000 0.00000000
Neuron 4 1 0.00000000 1 0.00000000 0.00000000 0.00000000 0.00000000
Neuron 5 1 0.00000000 1 0.00000000 0.00000000 0.00000000 0.00000000
Neuron 6 2 0.00000000 1 0.00000000 0.00000000 0.00000000 0.00000000
Neuron 7 4 1.00000000 2 3.02500000 0.00000000 0.00000000 0.00000000
Neuron 8 4 1.00000000 2 3.02500000 0.00000000 0.00000000 0.00000000
Neuron 11 3 0.50000000 4 3.75850292 0.00000000 0.00000000 0.00000000
Neuron 14 3 0.75000000 6 1.39090960 0.00000000 0.00000000 0.00000000
Neuron 18 3 0.50000000 1 3.35266199 0.00000000 0.00000000 0.00000000
Neuron 26 3 0.87500000 4 5.51085499 0.00000000 0.00000000 0.00000000
Neuron 49 3 0.25000000 9 0.50607227 0.00000000 0.00000000 0.00000000
Link 2 7 2 0 0.17033099
Link 3 7 3 0 0.34055028
Link 4 7 4 0 -0.01310904
Link 5 7 5 0 0.27916387
Link 6 7 6 0 0.72552292
Link 1 8 7 0 0.15570151
Link 2 8 8 0 0.40641527
Link 4 8 10 0 0.43629951
Link 5 8 11 0 -1.07602522
Link 6 8 12 0 0.31667741
Link 11 14 30 0 0.92259109
Link 4 11 33 0 0.37790921
Link 4 14 43 0 0.25827559
Link 1 18 49 0 1.38116174
Link 18 7 50 0 -0.03032440
Link 2 18 82 0 -0.16100810
Link 14 26 120 0 1.00000000
Link 26 8 121 0 0.20535443
Link 3 49 253 0 1.00000000
Link 49 11 254 0 1.12832257
Link 26 7 256 0 -0.27485115
Link 49 8 275 0 0.03209958
GenomeEnd

GenomeStart 21373
Genome Fitness: 480.000000 
Neuron 1 1 0.00000000 1 0.00000000 0.00000000 0.00000000 0.00000000
Neuron 2 1 0.00000000 1 0.00000000 0.00000000 0.00000000 0.00000000
Neuron 3 1 0.00000000 1 0.00000000 0.00000000 0.00000000 0.00000000
Neuron 4 1 0.00000000 1 0.00000000 0.00000000 0.00000000 0.00000000
Neuron 5 1 0.00000000 1 0.00000000 0.00000000 0.00000000 0.00000000
Neuron 6 2 0.00000000 1 0.00000000 0.00000000 0.00000000 0.00000000
Neuron 7 4 1.00000000 2 3.02500000 0.00000000 0.00000000 0.00000000
Neuron 8 4 1.00000000 2 3.02500000 0.00000000 0.00000000 0.00000000
Neuron 11 3 0.50000000 4 3.75850292 0.00000000 0.00000000 0.00000000
Neuron 14 3 0.75000000 6 1.39090960 0.00000000 0.00000000 0.00000000
Neuron 18 3 0.50000000 1 3.35266199 0.00000000 0.00000000 0.00000000
Neuron 26 3 0.87500000 4 5.51085499 0.00000000 0.00000000 0.00000000
Neuron 49 3 0.25000000 9 0.50607227 0.00000000 0.00000000 0.00000000
Link 2 7 2 0 0.17033099
Link 3 7 3 0 0.34055028
Link 4 7 4 0 -0.01310904
Link 5 7 5 0 0.27916387
Link 6 7 6 0 0.72552292
Link 1 8 7 0 0.15570151
Link 2 8 8 0 0.40641527
Link 4 8 10 0 0.43629951
Link 5 8 11 0 -1.07602522
Link 6 8 12 0 0.31667741
Link 11 14 30 0 0.92259109
Link 4 11 33 0 0.37790921
Link 4 14 43 0 0.25827559
Link 1 18 49 0 1.38116174
Link 18 7 50 0 -0.03032440
Link 2 18 82 0 -0.16100810
Link 14 26 120 0 1.00000000
Link 26 8 121 0 0.20535443
Link 3 49 253 0 1.00000000
Link 49 11 254 0 1.12832257
Link 26 7 256 0 -0.27485115
GenomeEnd

GenomeStart 21374
Genome Fitness: 197.000000 
Neuron 1 1 0.00000000 1 0.00000000 0.00000000 0.00000000 0.00000000
Neuron 2 1 0.00000000 1 0.00000000 0.00000000 0.00000000 0.00000000
Neuron 3 1 0.00000000 1 0.00000000 0.00000000 0.00000000 0.00000000
Neuron 4 1 0.00000000 1 0.00000000 0.00000000 0.00000000 0.00000000
Neuron 5 1 0.00000000 1 0.00000000 0.00000000 0.00000000 0.00000000
Neuron 6 2 0.00000000 1 0.00000000 0.00000000 0.00000000 0.00000000
Neuron 7 4 1.00000000 2 3.02500000 0.00000000 0.00000000 0.00000000
Neuron 8 4 1.00000000 2 3.02500000 0.00000000 0.00000000 0.00000000
Neuron 11 3 0.50000000 4 3.75850292 0.00000000 0.00000000 0.00000000
Neuron 14 3 0.75000000 6 1.39090960 0.00000000 0.00000000 0.00000000
Neuron 18 3 0.50000000 1 3.35266199 0.00000000 0.00000000 0.00000000
Neuron 26 3 0.87500000 4 5.51085499 0.00000000 0.00000000 0.00000000
Neuron 49 3 0.25000000 9 0.50607227 0.00000000 0.00000000 0.00000000
Link 2 7 2 0 0.14899761
Link 3 7 3 0 -0.34241172
Link 4 7 4 0 0.00848016
Link 5 7 5 0 0.12912721
Link 6 7 6 0 0.57509240
Link 1 8 7 0 0.33571530
Link 2 8 8 0 0.53306857
Link 4 8 10 0 0.45353730
Link 5 8 11 0 -1.07602522
Link 6 8 12 0 0.31667741
Link 11 14 30 0 -0.48799939
Link 4 11 33 0 0.53677181
Link 4 14 43 0 0.19175489
Link 1 18 49 0 1.32694865
Link 18 7 50 0 -0.82927567
Link 2 18 82 0 -0.14790949
Link 14 26 120 0 -0.43522987
Link 26 8 121 0 0.24411393
Link 3 49 253 0 0.98866163
Link 49 11 254 0 1.13465057
Link 26 7 256 0 0.13923134
GenomeEnd

GenomeStart 21375
Genome Fitness: 480.000000 
Neuron 1 1 0.00000000 1 0.00000000 0.00000000 0.00000000 0.00000000
Neuron 2 1 0.00000000 1 0.00000000 0.00000000 0.00000000 0.00000000
Neuron 3 1 0.00000000 1 0.00000000 0.00000000 0.00000000 0.00000000
Neuron 4 1 0.00000000 1 0.00000000 0.00000000 0.00000000 0.00000000
Neuron 5 1 0.00000000 1 0.00000000 0.00000000 0.00000000 0.00000000
Neuron 6 2 0.00000000 1 0.00000000 0.00000000 0.00000000 0.00000000
Neuron 7 4 1.00000000 2 3.02500000 0.00000000 0.00000000 0.00000000
Neuron 8 4 1.00000000 2 3.02500000 0.00000000 0.00000000 0.00000000
Neuron 11 3 0.50000000 4 3.75850292 0.00000000 0.00000000 0.00000000
Neuron 14 3 0.75000000 6 1.39090960 0.00000000 0.00000000 0.00000000
Neuron 18 3 0.50000000 1 3.35266199 0.00000000 0.00000000 0.00000000
Neuron 26 3 0.87500000 4 5.51085499 0.00000000 0.00000000 0.00000000
Neuron 49 3 0.25000000 9 0.50607227 0.00000000 0.00000000 0.00000000
Link 2 7 2 0 0.17033099
Link 3 7 3 0 0.34055028
Link 4 7 4 0 -0.01310904
Link 5 7 5 0 0.27916387
Link 6 7 6 0 0.72552292
Link 1 8 7 0 0.15570151
Link 2 8 8 0 0.40641527
Link 4 8 10 0 0.43629951
Link 5 8 11 0 -1.07602522
Link 6 8 12 0 0.31667741
Link 11 14 30 0 0.92259109
Link 4 11 33 0 0.37790921
Link 4 14 43 0 0.25827559
Link 1 18 49 0 1.38116174
Link 18 7 50 0 -0.03032440
Link 2 18 82 0 -0.16100810
Link 1 11 104 0 -0.95287787
Link 14 26 120 0 1.00000000
Link 26 8 121 0 0.20535443
Link 3 49 253 0 1.00000000
Link 49 11 254 0 1.12832257
Link 26 7 256 0 -0.27485115
GenomeEnd

GenomeStart 21376
Genome Fitness: 262.000000 
Neuron 1 1 0.00000000 1 0.00000000 0.00000000 0.00000000 0.00000000
Neuron 2 1 0.00000000 1 0.00000000 0.00000000 0.00000000 0.00000000
Neuron 3 1 0.00000000 1 0.00000000 0.00000000 0.00000000 0.00000000
Neuron 4 1 0.00000000 1 0.00000000 0.00000000 0.00000000 0.00000000
Neuron 5 1 0.00000000 1 0.00000000 0.00000000 0.00000000 0.00000000
Neuron 6 2 0.00000000 1 0.00000000 0.00000000 0.00000000 0.00000000
Neuron 7 4 1.00000000 2 3.02500000 0.00000000 0.00000000 0.00000000
Neuron 8 4 1.00000000 2 3.02500000 0.00000000 0.00000000 0.00000000
Neuron 11 3 0.50000000 4 3.75850292 0.00000000 0.00000000 0.00000000
Neuron 14 3 0.75000000 6 1.39090960 0.00000000 0.00000000 0.00000000
Neuron 18 3 0.50000000 1 3.35266199 0.00000000 0.00000000 0.00000000
Neuron 26 3 0.87500000 4 5.51085499 0.00000000 0.00000000 0.00000000
Neuron 49 3 0.25000000 9 0.50607227 0.00000000 0.00000000 0.00000000
Link 2 7 2 0 -0.00458434
Link 3 7 3 0 0.31498181
Link 4 7 4 0 0.08639599
Link 5 7 5 0 0.29945274
Link 6 7 6 0 0.75364609
Link 1 8 7 0 0.08912014
Link 2 8 8 0 0.30033931
Link 4 8 10 0 0.55494731
Link 5 8 11 0 -0.92569901
Link 6 8 12 0 0.44557412
Link 11 14 30 0 0.93408563
Link 4 11 33 0 0.25116196
Link 4 14 43 0 0.35955461
Link 1 18 49 0 1.38466567
Link 18 7 50 0 0.03433183
Link 2 18 82 0 -0.06771219
Link 14 26 120 0 0.80994877
Link 26 8 121 0 0.17554451
Link 3 49 253 0 0.92591708
Link 49 11 254 0 1.17146574
Link 26 7 256 0 -0.42585961
Link 49 8 275 0 0.01421820
GenomeEnd

GenomeStart 21377
Genome Fitness: 275.000000 
Neuron 1 1 0.00000000 1 0.00000000 0.00000000 0.00000000 0.00000000
Neuron 2 1 0.00000000 1 0.00000000 0.00000000 0.00000000 0.00000000
Neuron 3 1 0.00000000 1 0.00000000 0.00000000 0.00000000 0.00000000
Neuron 4 1 0.00000000 1 0.00000000 0.00000000 0.00000000 0.00000000
Neuron 5 1 0.00000000 1 0.00000000 0.00000000 0.00000000 0.00000000
Neuron 6 2 0.00000000 1 0.00000000 0.00000000 0.00000000 0.00000000
Neuron 7 4 1.00000000 2 3.02500000 0.00000000 0.00000000 0.00000000
Neuron 8 4 1.00000000 2 3.02500000 0.00000000 0.00000000 0.00000000
Neuron 11 3 0.50000000 4 3.75850292 0.00000000 0.00000000 0.00000000
Neuron 14 3 0.75000000 6 1.39090960 0.00000000 0.00000000 0.00000000
Neuron 18 3 0.50000000 1 3.35266199 0.00000000 0.00000000 0.00000000
Neuron 26 3 0.87500000 4 5.51085499 0.00000000 0.00000000 0.00000000
Neuron 49 3 0.25000000 9 0.50607227 0.00000000 0.00000000 0.00000000
Link 2 7 2 0 0.22074247
Link 3 7 3 0 0.32503924
Link 4 7 4 0 -0.08813000
Link 5 7 5 0 0.20336264
Link 6 7 6 0 0.85318039
Link 1 8 7 0 0.22647822
Link 2 8 8 0 -0.23644297
Link 4 8 10 0 0.32343525
Link 5 8 11 0 -1.07602522
Link 6 8 12 0 0.36162225
Link 11 14 30 0 0.77282213
Link 4 11 33 0 0.23138085
Link 4 14 43 0 0.12669710
Link 1 18 49 0 1.49508837
Link 18 7 50 0 0.11038187
Link 2 18 82 0 -0.16100810
Link 14 26 120 0 1.00890023
Link 26 8 121 0 -0.10670290
Link 3 49 253 0 0.13044396
Link 49 11 254 0 1.04930609
Link 26 7 256 0 -0.35598982
GenomeEnd

GenomeStart 21378
Genome Fitness: 209.000000 
Neuron 1 1 0.00000000 1 0.00000000 0.00000000 0.00000000 0.00000000
Neuron 2 1 0.00000000 1 0.00000000 0.00000000 0.00000000 0.00000000
Neuron 3 1 0.00000000 1 0.00000000 0.00000000 0.00000000 0.00000000
Neuron 4 1 0.00000000 1 0.00000000 0.00000000 0.00000000 0.00000000
Neuron 5 1 0.00000000 1 0.00000000 0.00000000 0.00000000 0.00000000
Neuron 6 2 0.00000000 1 0.00000000 0.00000000 0.00000000 0.00000000
Neuron 7 4 1.00000000 2 3.02500000 0.00000000 0.00000000 0.00000000
Neuron 8 4 1.00000000 2 3.02500000 0.00000000 0.00000000 0.00000000
Neuron 11 3 0.50000000 4 3.75850292 0.00000000 0.00000000 0.00000000
Neuron 14 3 0.75000000 6 1.39090960 0.00000000 0.00000000 0.00000000
Neuron 18 3 0.50000000 1 3.35266199 0.00000000 0.00000000 0.00000000
Neuron 26 3 0.87500000 4 5.51085499 0.00000000 0.00000000 0.00000000
Neuron 49 3 0.25000000 9 0.50607227 0.00000000 0.00000000 0.00000000
Link 2 7 2 0 0.20722177
Link 3 7 3 0 0.28763954
Link 4 7 4 0 -0.06849635
Link 5 7 5 0 0.17533135
Link 6 7 6 0 0.83962287
Link 1 8 7 0 0.22757835
Link 2 8 8 0 0.40161078
Link 4 8 10 0 0.33548519
Link 5 8 11 0 -1.09427258
Link 6 8 12 0 0.23028173
Link 11 14 30 0 0.83532606
Link 4 11 33 0 0.47449289
Link 4 14 43 0 0.23546379
Link 1 18 49 0 1.44238834
Link 18 7 50 0 0.06661660
Link 2 18 82 0 -0.19190874
Link 14 26 120 0 0.89423540
Link 26 8 121 0 0.16289529
Link 3 49 253 0 1.01904987
Link 49 11 254 0 1.05773240
Link 26 7 256 0 -0.25577995
Link 49 8 275 0 0.45700905
GenomeEnd

GenomeStart 21379
Genome Fitness: 480.000000 
Neuron 1 1 0.00000000 1 0.00000000 0.00000000 0.00000000 0.00000000
Neuron 2 1 0.00000000 1 0.00000000 0.00000000 0.00000000 0.00000000
Neuron 3 1 0.00000000 1 0.00000000 0.00000000 0.00000000 0.00000000
Neuron 4 1 0.00000000 1 0.00000000 0.00000000 0.00000000 0.00000000
Neuron 5 1 0.00000000 1 0.00000000 0.00000000 0.00000000 0.00000000
Neuron 6 2 0.00000000 1 0.00000000 0.00000000 0.00000000 0.00000000
Neuron 7 4 1.00000000 2 3.02500000 0.00000000 0.00000000 0.00000000
Neuron 8 4 1.00000000 2 3.02500000 0.00000000 0.00000000 0.00000000
Neuron 11 3 0.50000000 4 3.75850292 0.00000000 0.00000000 0.00000000
Neuron 14 3 0.75000000 6 1.39090960 0.00000000 0.00000000 0.00000000
Neuron 18 3 0.50000000 1 3.35266199 0.00000000 0.00000000 0.00000000
Neuron 26 3 0.87500000 4 5.51085499 0.00000000 0.00000000 0.00000000
Neuron 49 3 0.25000000 9 0.50607227 0.00000000 0.00000000 0.00000000
Link 2 7 2 0 0.17033099
Link 3 7 3 0 0.34055028
Link 4 7 4 0 -0.01310904
Link 5 7 5 0 0.27916387
Link 6 7 6 0 0.72552292
Link 1 8 7 0 0.15570151
Link 2 8 8 0 0.40641527
Link 4 8 10 0 0.43629951
Link 5 8 11 0 -1.07602522
Link 6 8 12 0 0.31667741
Link 11 14 30 0 0.92259109
Link 4 11 33 0 0.37790921
Link 4 14 43 0 0.25827559
Link 1 18 49 0 1.38116174
Link 18 7 50 0 -0.03032440
Link 2 18 82 0 -0.16100810
Link 14 26 120 0 1.00000000
Link 26 8 121 0 0.20535443
Link 3 49 253 0 1.00000000
Link 49 11 254 0 1.12832257
Link 26 7 256 0 -0.27485115
GenomeEnd

GenomeStart 21380
Genome Fitness: 480.000000 
Neuron 1 1 0.00000000 1 0.00000000 0.00000000 0.00000000 0.00000000
Neuron 2 1 0.00000000 1 0.00000000 0.00000000 0.00000000 0.00000000
Neuron 3 1 0.00000000 1 0.00000000 0.00000000 0.00000000 0.00000000
Neuron 4 1 0.00000000 1 0.00000000 0.00000000 0.00000000 0.00000000
Neuron 5 1 0.00000000 1 0.00000000 0.00000000 0.00000000 0.00000000
Neuron 6 2 0.00000000 1 0.00000000 0.00000000 0.00000000 0.00000000
Neuron 7 4 1.00000000 2 3.02500000 0.00000000 0.00000000 0.00000000
Neuron 8 4 1.00000000 2 3.02500000 0.00000000 0.00000000 0.00000000
Neuron 10 3 0.50000000 9 2.09878299 0.00000000 0.00000000 0.00000000
Neuron 11 3 0.50000000 4 3.75850292 0.00000000 0.00000000 0.00000000
Neuron 14 3 0.75000000 6 1.39090960 0.00000000 0.00000000 0.00000000
Neuron 18 3 0.50000000 1 3.35266199 0.00000000 0.00000000 0.00000000
Neuron 44 3 0.25000000 11 2.74716398 0.00000000 0.00000000 0.00000000
Link 3 7 3 0 0.34055028
Link 4 7 4 0 -0.07615743
Link 5 7 5 0 0.27916387
Link 6 7 6 0 0.77570317
Link 1 8 7 0 0.15570151
Link 2 8 8 0 0.40641527
Link 4 8 10 0 0.43629951
Link 5 8 11 0 -1.07602522
Link 6 8 12 0 0.31667741
Link 2 10 17 0 1.00000000
Link 10 7 18 0 0.17033099
Link 3 11 20 0 1.12832257
Link 11 14 30 0 0.92259109
Link 14 8 31 0 0.20535443
Link 4 14 43 0 0.25827559
Link 1 18 49 0 1.38116174
Link 18 7 50 0 -0.03032440
Link 1 11 104 0 0.74299335
Link 18 8 148 0 0.63733203
Link 4 44 223 0 1.00000000
Link 44 11 224 0 0.32072432
GenomeEnd

GenomeStart 21381
Genome Fitness: 480.000000 
Neuron 1 1 0.00000000 1 0.00000000 0.00000000 0.00000000 0.00000000
Neuron 2 1 0.00000000 1 0.00000000 0.00000000 0.00000000 0.00000000
Neuron 3 1 0.00000000 1 0.00000000 0.00000000 0.00000000 0.00000000
Neuron 4 1 0.00000000 1 0.00000000 0.00000000 0.00000000 0.00000000
Neuron 5 1 0.00000000 1 0.00000000 0.00000000 0.00000000 0.00000000
Neuron 6 2 0.00000000 1 0.00000000 0.00000000 0.00000000 0.00000000
Neuron 7 4 1.00000000 2 3.02500000 0.00000000 0.00000000 0.00000000
Neuron 8 4 1.00000000 2 3.02500000 0.00000000 0.00000000 0.00000000
Neuron 10 3 0.50000000 9 2.09878299 0.00000000 0.00000000 0.00000000
Neuron 11 3 0.50000000 4 3.75850292 0.00000000 0.00000000 0.00000000
Neuron 14 3 0.75000000 6 1.39090960 0.00000000 0.00000000 0.00000000
Neuron 18 3 0.50000000 1 3.35266199 0.00000000 0.00000000 0.00000000
Neuron 44 3 0.25000000 11 2.74716398 0.00000000 0.00000000 0.00000000
Link 3 7 3 0 0.34055028
Link 4 7 4 0 -0.07615743
Link 5 7 5 0 0.27916387
Link 6 7 6 0 0.77570317
Link 1 8 7 0 0.15570151
Link 2 8 8 0 0.40641527
Link 4 8 10 0 0.43629951
Link 5 8 11 0 -1.07602522
Link 6 8 12 0 0.31667741
Link 2 10 17 0 1.00000000
Link 10 7 18 0 0.17033099
Link 3 11 20 0 1.12832257
Link 11 14 30 0 0.92259109
Link 14 8 31 0 0.20535443
Link 4 14 43 0 0.25827559
Link 1 18 49 0 1.38116174
Link 18 7 50 0 -0.03032440
Link 1 11 104 0 0.74299335
Link 18 8 148 0 0.63733203
Link 4 44 223 0 1.00000000
Link 44 11 224 0 0.32072432
Link 3 44 259 0 -0.36828160
GenomeEnd

GenomeStart 21382
Genome Fitness: 201.000000 
Neuron 1 1 0.00000000 1 0.00000000 0.00000000 0.00000000 0.00000000
Neuron 2 1 0.00000000 1 0.00000000 0.00000000 0.00000000 0.00000000
Neuron 3 1 0.00000000 1 0.00000000 0.00000000 0.00000000 0.00000000
Neuron 4 1 0.00000000 1 0.00000000 0.00000000 0.00000000 0.00000000
Neuron 5 1 0.00000000 1 0.00000000 0.00000000 0.00000000 0.00000000
Neuron 6 2 0.00000000 1 0.00000000 0.00000000 0.00000000 0.00000000
Neuron 7 4 1.00000000 2 3.02500000 0.00000000 0.00000000 0.00000000
Neuron 8 4 1.00000000 2 3.02500000 0.00000000 0.00000000 0.00000000
Neuron 10 3 0.50000000 9 2.09878299 0.00000000 0.00000000 0.00000000
Neuron 11 3 0.50000000 4 3.75850292 0.00000000 0.00000000 0.00000000
Neuron 14 3 0.75000000 6 1.39090960 0.00000000 0.00000000 0.00000000
Neuron 18 3 0.50000000 1 3.35266199 0.00000000 0.00000000 0.00000000
Neuron 44 3 0.25000000 11 2.74716398 0.00000000 0.00000000 0.00000000
Link 3 7 3 0 0.37524579
Link 4 7 4 0 -0.07724169
Link 5 7 5 0 0.39618255
Link 6 7 6 0 0.79939716
Link 1 8 7 0 0.13128049
Link 2 8 8 0 0.50768568
Link 4 8 10 0 0.46994827
Link 5 8 11 0 -1.10339086
Link 6 8 12 0 0.37440570
Link 2 10 17 0 1.12919791
Link 10 7 18 0 0.16111826
Link 3 11 20 0 1.20804664
Link 11 14 30 0 0.82765240
Link 14 8 31 0 0.19137212
Link 4 14 43 0 0.10914711
Link 1 18 49 0 1.40851145
Link 18 7 50 0 0.06379455
Link 1 11 104 0 0.81983313
Link 18 8 148 0 0.61355603
Link 4 44 223 0 0.97965095
Link 44 11 224 0 -0.70234894
GenomeEnd

GenomeStart 21383
Genome Fitness: 171.000000 
Neuron 1 1 0.00000000 1 0.00000000 0.00000000 0.00000000 0.00000000
Neuron 2 1 0.00000000 1 0.00000000 0.00000000 0.00000000 0.00000000
Neuron 3 1 0.00000000 1 0.00000000 0.00000000 0.00000000 0.00000000
Neuron 4 1 0.00000000 1 0.00000000 0.00000000 0.00000000 0.00000000
Neuron 5 1 0.00000000 1 0.00000000 0.00000000 0.00000000 0.00000000
Neuron 6 2 0.00000000 1 0.00000000 0.00000000 0.00000000 0.00000000
Neuron 7 4 1.00000000 2 3.02500000 0.00000000 0.00000000 0.00000000
Neuron 8 4 1.00000000 2 3.02500000 0.00000000 0.00000000 0.00000000
Neuron 10 3 0.50000000 9 2.09878299 0.00000000 0.00000000 0.00000000
Neuron 11 3 0.50000000 4 3.75850292 0.00000000 0.00000000 0.00000000
Neuron 14 3 0.75000000 6 1.39090960 0.00000000 0.00000000 0.00000000
Neuron 18 3 0.50000000 1 3.35266199 0.00000000 0.00000000 0.00000000
Neuron 44 3 0.25000000 11 2.74716398 0.00000000 0.00000000 0.00000000
Link 3 7 3 0 0.45734422
Link 4 7 4 0 0.11426816
Link 5 7 5 0 0.24395449
Link 6 7 6 0 0.65961567
Link 1 8 7 0 0.30893204
Link 2 8 8 0 0.43822236
Link 4 8 10 0 0.47211145
Link 5 8 11 0 -1.02177456
Link 6 8 12 0 0.31803227
Link 2 10 17 0 0.96622010
Link 10 7 18 0 0.17457719
Link 3 11 20 0 1.11958003
Link 11 14 30 0 0.91805398
Link 14 8 31 0 0.24800779
Link 4 14 43 0 0.17259804
Link 1 18 49 0 1.25896740
Link 18 7 50 0 -0.14746976
Link 1 11 104 0 0.63369917
Link 18 8 148 0 0.74678495
Link 4 44 223 0 0.95238341
Link 44 11 224 0 0.03826296
GenomeEnd

GenomeStart 21384
Genome Fitness: 201.000000 
Neuron 1 1 0.00000000 1 0.00000000 0.00000000 0.00000000 0.00000000
Neuron 2 1 0.00000000 1 0.00000000 0.00000000 0.00000000 0.00000000
Neuron 3 1 0.00000000 1 0.00000000 0.00000000 0.00000000 0.00000000
Neuron 4 1 0.00000000 1 0.00000000 0.00000000 0.00000000 0.00000000
Neuron 5 1 0.00000000 1 0.00000000 0.00000000 0.00000000 0.00000000
Neuron 6 2 0.00000000 1 0.00000000 0.00000000 0.00000000 0.00000000
Neuron 7 4 1.00000000 2 3.02500000 0.00000000 0.00000000 0.00000000
Neuron 8 4 1.00000000 2 3.02500000 0.00000000 0.00000000 0.00000000
Neuron 10 3 0.50000000 9 2.09878299 0.00000000 0.00000000 0.00000000
Neuron 11 3 0.50000000 4 3.75850292 0.00000000 0.00000000 0.00000000
Neuron 14 3 0.75000000 6 1.39090960 0.00000000 0.00000000 0.00000000
Neuron 18 3 0.50000000 1 3.35266199 0.00000000 0.00000000 0.00000000
Neuron 44 3 0.25000000 11 2.74716398 0.00000000 0.00000000 0.00000000
Link 3 7 3 0 0.33840670
Link 4 7 4 0 -0.07129777
Link 5 7 5 0 0.36360095
Link 6 7 6 0 0.77851772
Link 1 8 7 0 0.00596314
Link 2 8 8 0 0.46427281
Link 4 8 10 0 0.44710770
Link 5 8 11 0 -1.03299521
Link 6 8 12 0 0.23811277
Link 2 10 17 0 1.05131481
Link 10 7 18 0 0.09313675
Link 3 11 20 0 1.15568103
Link 11 14 30 0 0.92774762
Link 14 8 31 0 0.07791832
Link 4 14 43 0 0.30858887
Link 1 18 49 0 -0.01832340
Link 18 7 50 0 0.02813666
Link 1 11 104 0 0.65741849
Link 18 8 148 0 0.64788923
Link 4 44 223 0 1.15998946
Link 44 11 224 0 0.32072432
GenomeEnd

GenomeStart 21385
Genome Fitness: 480.000000 
Neuron 1 1 0.00000000 1 0.00000000 0.00000000 0.00000000 0.00000000
Neuron 2 1 0.00000000 1 0.00000000 0.00000000 0.00000000 0.00000000
Neuron 3 1 0.00000000 1 0.00000000 0.00000000 0.00000000 0.00000000
Neuron 4 1 0.00000000 1 0.00000000 0.00000000 0.00000000 0.00000000
Neuron 5 1 0.00000000 1 0.00000000 0.00000000 0.00000000 0.00000000
Neuron 6 2 0.00000000 1 0.00000000 0.00000000 0.00000000 0.00000000
Neuron 7 4 1.00000000 2 3.02500000 0.00000000 0.00000000 0.00000000
Neuron 8 4 1.00000000 2 3.02500000 0.00000000 0.00000000 0.00000000
Neuron 10 3 0.50000000 9 2.09878299 0.00000000 0.00000000 0.00000000
Neuron 11 3 0.50000000 4 3.75850292 0.00000000 0.00000000 0.00000000
Neuron 14 3 0.75000000 6 1.39090960 0.00000000 0.00000000 0.00000000
Neuron 18 3 0.50000000 1 3.35266199 0.00000000 0.00000000 0.00000000
Neuron 44 3 0.25000000 11 2.74716398 0.00000000 0.00000000 0.00000000
Link 3 7 3 0 0.34055028
Link 4 7 4 0 -0.07615743
Link 5 7 5 0 0.27916387
Link 6 7 6 0 0.77570317
Link 1 8 7 0 0.15570151
Link 2 8 8 0 0.40641527
Link 4 8 10 0 0.43629951
Link 5 8 11 0 -1.07602522
Link 6 8 12 0 0.31667741
Link 2 10 17 0 1.00000000
Link 10 7 18 0 0.17033099
Link 3 11 20 0 1.12832257
Link 11 14 30 0 0.92259109
Link 14 8 31 0 0.20535443
Link 4 14 43 0 0.25827559
Link 1 18 49 0 1.38116174
Link 18 7 50 0 -0.03032440
Link 1 11 104 0 0.74299335
Link 18 8 148 0 0.63733203
Link 4 44 223 0 1.00000000
Link 44 11 224 0 0.32072432
GenomeEnd

GenomeStart 21386
Genome Fitness: 252.000000 
Neuron 1 1 0.00000000 1 0.00000000 0.00000000 0.00000000 0.00000000
Neuron 2 1 0.00000000 1 0.00000000 0.00000000 0.00000000 0.00000000
Neuron 3 1 0.00000000 1 0.00000000 0.00000000 0.00000000 0.00000000
Neuron 4 1 0.00000000 1 0.00000000 0.00000000 0.00000000 0.00000000
Neuron 5 1 0.00000000 1 0.00000000 0.00000000 0.00000000 0.00000000
Neuron 6 2 0.00000000 1 0.00000000 0.00000000 0.00000000 0.00000000
Neuron 7 4 1.00000000 2 3.02500000 0.00000000 0.00000000 0.00000000
Neuron 8 4 1.00000000 2 3.02500000 0.00000000 0.00000000 0.00000000
Neuron 10 3 0.50000000 9 2.09878299 0.00000000 0.00000000 0.00000000
Neuron 11 3 0.50000000 4 3.75850292 0.00000000 0.00000000 0.00000000
Neuron 14 3 0.75000000 6 1.39090960 0.00000000 0.00000000 0.00000000
Neuron 18 3 0.50000000 1 3.35266199 0.00000000 0.00000000 0.00000000
Neuron 44 3 0.25000000 11 2.74716398 0.00000000 0.00000000 0.00000000
Link 3 7 3 0 0.46398796
Link 4 7 4 0 -0.14894632
Link 5 7 5 0 0.31960982
Link 6 7 6 0 0.67646335
Link 1 8 7 0 0.02838426
Link 2 8 8 0 0.27980916
Link 4 8 10 0 0.47460049
Link 5 8 11 0 -1.12698414
Link 6 8 12 0 0.41912070
Link 2 10 17 0 1.18851103
Link 10 7 18 0 0.20357083
Link 3 11 20 0 1.20485620
Link 11 14 30 0 0.95113925
Link 14 8 31 0 0.22292631
Link 4 14 43 0 0.43065497
Link 1 18 49 0 1.40702708
Link 18 7 50 0 -0.04543746
Link 1 11 104 0 0.88700625
Link 18 8 148 0 0.78829728
Link 4 44 223 0 0.95505785
Link 44 11 224 0 0.46086220
GenomeEnd

GenomeStart 21387
Genome Fitness: 480.000000 
Neuron 1 1 0.00000000 1 0.00000000 0.00000000 0.00000000 0.00000000
Neuron 2 1 0.00000000 1 0.00000000 0.00000000 0.00000000 0.00000000
Neuron 3 1 0.00000000 1 0.00000000 0.00000000 0.00000000 0.00000000
Neuron 4 1 0.00000000 1 0.00000000 0.00000000 0.00000000 0.00000000
Neuron 5 1 0.00000000 1 0.00000000 0.00000000 0.00000000 0.00000000
Neuron 6 2 0.00000000 1 0.00000000 0.00000000 0.00000000 0.00000000
Neuron 7 4 1.00000000 2 3.02500000 0.00000000 0.00000000 0.00000000
Neuron 8 4 1.00000000 2 3.02500000 0.00000000 0.00000000 0.00000000
Neuron 10 3 0.50000000 9 2.09878299 0.00000000 0.00000000 0.00000000
Neuron 11 3 0.50000000 4 3.75850292 0.00000000 0.00000000 0.00000000
Neuron 14 3 0.75000000 6 1.39090960 0.00000000 0.00000000 0.00000000
Neuron 18 3 0.50000000 1 3.35266199 0.00000000 0.00000000 0.00000000
Neuron 44 3 0.25000000 11 2.74716398 0.00000000 0.00000000 0.00000000
Link 3 7 3 0 0.34055028
Link 4 7 4 0 -0.07615743
Link 5 7 5 0 0.27916387
Link 6 7 6 0 0.77570317
Link 1 8 7 0 0.15570151
Link 2 8 8 0 0.40641527
Link 4 8 10 0 0.43629951
Link 5 8 11 0 -1.07602522
Link 6 8 12 0 0.31667741
Link 2 10 17 0 1.00000000
Link 10 7 18 0 0.17033099
Link 3 11 20 0 1.12832257
Link 11 14 30 0 0.92259109
Link 14 8 31 0 0.20535443
Link 4 14 43 0 0.25827559
Link 1 18 49 0 1.38116174
Link 18 7 50 0 -0.03032440
Link 1 11 104 0 0.74299335
Link 18 8 148 0 0.63733203
Link 4 44 223 0 1.00000000
Link 44 11 224 0 0.32072432
GenomeEnd

GenomeStart 21388
Genome Fitness: 270.000000 
Neuron 1 1 0.00000000 1 0.00000000 0.00000000 0.00000000 0.00000000
Neuron 2 1 0.00000000 1 0.00000000 0.00000000 0.00000000 0.00000000
Neuron 3 1 0.00000000 1 0.00000000 0.00000000 0.00000000 0.00000000
Neuron 4 1 0.00000000 1 0.00000000 0.00000000 0.00000000 0.00000000
Neuron 5 1 0.00000000 1 0.00000000 0.00000000 0.00000000 0.00000000
Neuron 6 2 0.00000000 1 0.00000000 0.00000000 0.00000000 0.00000000
Neuron 7 4 1.00000000 2 3.02500000 0.00000000 0.00000000 0.00000000
Neuron 8 4 1.00000000 2 3.02500000 0.00000000 0.00000000 0.00000000
Neuron 10 3 0.50000000 9 2.09878299 0.00000000 0.00000000 0.00000000
Neuron 11 3 0.50000000 4 3.75850292 0.00000000 0.00000000 0.00000000
Neuron 14 3 0.75000000 6 1.39090960 0.00000000 0.00000000 0.00000000
Neuron 18 3 0.50000000 1 3.35266199 0.00000000 0.00000000 0.00000000
Neuron 44 3 0.25000000 11 2.74716398 0.00000000 0.00000000 0.00000000
Link 3 7 3 0 0.38595469
Link 4 7 4 0 -0.10092238
Link 5 7 5 0 0.15218412
Link 6 7 6 0 0.72532254
Link 1 8 7 0 0.11843020
Link 2 8 8 0 0.41493680
Link 4 8 10 0 0.52471925
Link 5 8 11 0 -1.06320051
Link 6 8 12 0 0.20711440
Link 2 10 17 0 0.93654833
Link 10 7 18 0 0.22958309
Link 3 11 20 0 1.17810795
Link 11 14 30 0 0.89060174
Link 14 8 31 0 0.19754563
Link 4 14 43 0 0.28081720
Link 1 18 49 0 1.39191014
Link 18 7 50 0 -0.01185108
Link 1 11 104 0 0.72216694
Link 18 8 148 0 0.70390054
Link 4 44 223 0 0.98275257
Link 44 11 224 0 -0.08189165
GenomeEnd

GenomeStart 21389
Genome Fitness: 480.000000 
Neuron 1 1 0.00000000 1 0.00000000 0.00000000 0.00000000 0.00000000
Neuron 2 1 0.00000000 1 0.00000000 0.00000000 0.00000000 0.00000000
Neuron 3 1 0.00000000 1 0.00000000 0.00000000 0.00000000 0.00000000
Neuron 4 1 0.00000000 1 0.00000000 0.00000000 0.00000000 0.00000000
Neuron 5 1 0.00000000 1 0.00000000 0.00000000 0.00000000 0.00000000
Neuron 6 2 0.00000000 1 0.00000000 0.00000000 0.00000000 0.00000000
Neuron 7 4 1.00000000 2 3.02500000 0.00000000 0.00000000 0.00000000
Neuron 8 4 1.00000000 2 3.02500000 0.00000000 0.00000000 0.00000000
Neuron 11 3 0.50000000 4 3.75850292 0.00000000 0.00000000 0.00000000
Neuron 14 3 0.75000000 6 1.39090960 0.00000000 0.00000000 0.00000000
Neuron 18 3 0.50000000 1 3.35266199 0.00000000 0.00000000 0.00000000
Neuron 33 3 0.75000000 10 0.84435021 0.00000000 0.00000000 0.00000000
Neuron 44 3 0.25000000 11 2.74716398 0.00000000 0.00000000 0.00000000
Neuron 47 3 0.75000000 4 5.77071015 0.00000000 0.00000000 0.00000000
Link 2 7 2 0 0.17033099
Link 3 7 3 0 0.34055028
Link 4 7 4 0 -0.07615743
Link 5 7 5 0 0.27916387
Link 6 7 6 0 0.77570317
Link 1 8 7 0 0.15570151
Link 2 8 8 0 0.40641527
Link 4 8 10 0 0.43629951
Link 5 8 11 0 -1.07602522
Link 6 8 12 0 0.31667741
Link 11 14 30 0 0.92259109
Link 14 8 31 0 0.20535443
Link 4 14 43 0 0.25827559
Link 1 18 49 0 1.38116174
Link 1 11 104 0 0.74299335
Link 18 33 163 0 1.00000000
Link 33 7 164 0 -0.03032440
Link 4 44 223 0 1.00000000
Link 44 11 224 0 0.32072432
Link 11 47 247 0 1.00000000
Link 47 7 248 0 -0.32457171
GenomeEnd

GenomeStart 21390
Genome Fitness: 480.000000 
Neuron 1 1 0.00000000 1 0.00000000 0.00000000 0.00000000 0.00000000
Neuron 2 1 0.00000000 1 0.00000000 0.00000000 0.00000000 0.00000000
Neuron 3 1 0.00000000 1 0.00000000 0.00000000 0.00000000 0.00000000
Neuron 4 1 0.00000000 1 0.00000000 0.00000000 0.00000000 0.00000000
Neuron 5 1 0.00000000 1 0.00000000 0.00000000 0.00000000 0.00000000
Neuron 6 2 0.00000000 1 0.00000000 0.00000000 0.00000000 0.00000000
Neuron 7 4 1.00000000 2 3.02500000 0.00000000 0.00000000 0.00000000
Neuron 8 4 1.00000000 2 3.02500000 0.00000000 0.00000000 0.00000000
Neuron 11 3 0.50000000 4 3.75850292 0.00000000 0.00000000 0.00000000
Neuron 14 3 0.75000000 6 1.39090960 0.00000000 0.00000000 0.00000000
Neuron 18 3 0.50000000 1 3.35266199 0.00000000 0.00000000 0.00000000
Neuron 33 3 0.75000000 10 0.84435021 0.00000000 0.00000000 0.00000000
Neuron 44 3 0.25000000 11 2.74716398 0.00000000 0.00000000 0.00000000
Neuron 47 3 0.75000000 4 5.77071015 0.00000000 0.00000000 0.00000000
Link 2 7 2 0 0.17033099
Link 3 7 3 0 0.34055028
Link 4 7 4 0 -0.07615743
Link 5 7 5 0 0.27916387
Link 6 7 6 0 0.77570317
Link 1 8 7 0 0.15570151
Link 2 8 8 0 0.40641527
Link 4 8 10 0 0.43629951
Link 5 8 11 0 -1.07602522
Link 6 8 12 0 0.31667741
Link 11 14 30 0 0.92259109
Link 14 8 31 0 0.20535443
Link 4 14 43 0 0.25827559
Link 1 18 49 0 1.38116174
Link 1 11 104 0 0.74299335
Link 18 33 163 0 1.00000000
Link 33 7 164 0 -0.03032440
Link 4 44 223 0 1.00000000
Link 44 11 224 0 0.32072432
Link 11 47 247 0 1.00000000
Link 47 7 248 0 -0.32457171
Link 5 44 255 0 -0.21988022
GenomeEnd

GenomeStart 21391
Genome Fitness: 343.000000 
Neuron 1 1 0.00000000 1 0.00000000 0.00000000 0.00000000 0.00000000
Neuron 2 1 0.00000000 1 0.00000000 0.00000000 0.00000000 0.00000000
Neuron 3 1 0.00000000 1 0.00000000 0.00000000 0.00000000 0.00000000
Neuron 4 1 0.00000000 1 0.00000000 0.00000000 0.00000000 0.00000000
Neuron 5 1 0.00000000 1 0.00000000 0.00000000 0.00000000 0.00000000
Neuron 6 2 0.00000000 1 0.00000000 0.00000000 0.00000000 0.00000000
Neuron 7 4 1.00000000 2 3.02500000 0.00000000 0.00000000 0.00000000
Neuron 8 4 1.00000000 2 3.02500000 0.00000000 0.00000000 0.00000000
Neuron 11 3 0.50000000 4 3.75850292 0.00000000 0.00000000 0.00000000
Neuron 14 3 0.75000000 6 1.39090960 0.00000000 0.00000000 0.00000000
Neuron 18 3 0.50000000 1 3.35266199 0.00000000 0.00000000 0.00000000
Neuron 33 3 0.75000000 10 0.84435021 0.00000000 0.00000000 0.00000000
Neuron 44 3 0.25000000 11 2.74716398 0.00000000 0.00000000 0.00000000
Neuron 47 3 0.75000000 4 5.77071015 0.00000000 0.00000000 0.00000000
Link 2 7 2 0 0.12321489
Link 3 7 3 0 0.37226092
Link 4 7 4 0 -0.04809929
Link 5 7 5 0 0.25934164
Link 6 7 6 0 0.71083991
Link 1 8 7 0 0.18960935
Link 2 8 8 0 0.32046716
Link 4 8 10 0 0.38517537
Link 5 8 11 0 -1.10992527
Link 6 8 12 0 0.19129539
Link 11 14 30 0 0.89596018
Link 14 8 31 0 0.21071623
Link 4 14 43 0 0.25967704
Link 1 18 49 0 1.45106377
Link 1 11 104 0 0.72623778
Link 18 33 163 0 0.96032271
Link 33 7 164 0 -0.00356541
Link 4 44 223 0 1.13433303
Link 44 11 224 0 0.43103159
Link 11 47 247 0 1.10047312
Link 47 7 248 0 -0.25763084
GenomeEnd

GenomeStart 21392
Genome Fitness: 480.000000 
Neuron 1 1 0.00000000 1 0.00000000 0.00000000 0.00000000 0.00000000
Neuron 2 1 0.00000000 1 0.00000000 0.00000000 0.00000000 0.00000000
Neuron 3 1 0.00000000 1 0.00000000 0.00000000 0.00000000 0.00000000
Neuron 4 1 0.00000000 1 0.00000000 0.00000000 0.00000000 0.00000000
Neuron 5 1 0.00000000 1 0.00000000 0.00000000 0.00000000 0.00000000
Neuron 6 2 0.00000000 1 0.00000000 0.00000000 0.00000000 0.00000000
Neuron 7 4 1.00000000 2 3.02500000 0.00000000 0.00000000 0.00000000
Neuron 8 4 1.00000000 2 3.02500000 0.00000000 0.00000000 0.00000000
Neuron 11 3 0.50000000 4 3.75850292 0.00000000 0.00000000 0.00000000
Neuron 14 3 0.75000000 6 1.39090960 0.00000000 0.00000000 0.00000000
Neuron 18 3 0.50000000 1 3.35266199 0.00000000 0.00000000 0.00000000
Neuron 33 3 0.75000000 10 0.84435021 0.00000000 0.00000000 0.00000000
Neuron 44 3 0.25000000 11 2.74716398 0.00000000 0.00000000 0.00000000
Neuron 47 3 0.75000000 4 5.77071015 0.00000000 0.00000000 0.00000000
Link 2 7 2 0 0.17033099
Link 3 7 3 0 0.34055028
Link 4 7 4 0 -0.07615743
Link 5 7 5 0 0.27916387
Link 6 7 6 0 0.77570317
Link 1 8 7 0 0.15570151
Link 2 8 8 0 0.40641527
Link 4 8 10 0 0.43629951
Link 5 8 11 0 -1.07602522
Link 6 8 12 0 0.31667741
Link 11 14 30 0 0.92259109
Link 14 8 31 0 0.20535443
Link 4 14 43 0 0.25827559
Link 1 18 49 0 1.38116174
Link 1 11 104 0 0.74299335
Link 18 33 163 0 1.00000000
Link 33 7 164 0 -0.03032440
Link 4 44 223 0 1.00000000
Link 44 11 224 0 0.32072432
Link 11 47 247 0 1.00000000
Link 47 7 248 0 -0.32457171
GenomeEnd

GenomeStart 21393
Genome Fitness: 264.000000 
Neuron 1 1 0.00000000 1 0.00000000 0.00000000 0.00000000 0.00000000
Neuron 2 1 0.00000000 1 0.00000000 0.00000000 0.00000000 0.00000000
Neuron 3 1 0.00000000 1 0.00000000 0.00000000 0.00000000 0.00000000
Neuron 4 1 0.00000000 1 0.00000000 0.00000000 0.00000000 0.00000000
Neuron 5 1 0.00000000 1 0.00000000 0.00000000 0.00000000 0.00000000
Neuron 6 2 0.00000000 1 0.00000000 0.00000000 0.00000000 0.00000000
Neuron 7 4 1.00000000 2 3.02500000 0.00000000 0.00000000 0.00000000
Neuron 8 4 1.00000000 2 3.02500000 0.00000000 0.00000000 0.00000000
Neuron 11 3 0.50000000 4 3.75850292 0.00000000 0.00000000 0.00000000
Neuron 14 3 0.75000000 6 1.39090960 0.00000000 0.00000000 0.00000000
Neuron 18 3 0.50000000 1 3.35266199 0.00000000 0.00000000 0.00000000
Neuron 33 3 0.75000000 10 0.84435021 0.00000000 0.00000000 0.00000000
Neuron 44 3 0.25000000 11 2.74716398 0.00000000 0.00000000 0.00000000
Neuron 47 3 0.75000000 4 5.77071015 0.00000000 0.00000000 0.00000000
Link 2 7 2 0 0.08711121
Link 3 7 3 0 0.15414035
Link 4 7 4 0 -0.03291839
Link 5 7 5 0 0.19186391
Link 6 7 6 0 0.75899085
Link 1 8 7 0 0.22880680
Link 2 8 8 0 0.29888823
Link 4 8 10 0 0.63042328
Link 5 8 11 0 -1.19612734
Link 6 8 12 0 0.42749337
Link 11 14 30 0 0.98067888
Link 14 8 31 0 0.21438134
Link 4 14 43 0 0.24112819
Link 1 18 49 0 1.50569615
Link 1 11 104 0 0.67560756
Link 18 33 163 0 1.11433994
Link 33 7 164 0 -0.15956537
Link 4 44 223 0 1.00639063
Link 44 11 224 0 0.48563109
Link 11 47 247 0 1.14772869
Link 47 7 248 0 -0.41114677
GenomeEnd

GenomeStart 21394
Genome Fitness: 200.000000 
Neuron 1 1 0.00000000 1 0.00000000 0.00000000 0.00000000 0.00000000
Neuron 2 1 0.00000000 1 0.00000000 0.00000000 0.00000000 0.00000000
Neuron 3 1 0.00000000 1 0.00000000 0.00000000 0.00000000 0.00000000
Neuron 4 1 0.00000000 1 0.00000000 0.00000000 0.00000000 0.00000000
Neuron 5 1 0.00000000 1 0.00000000 0.00000000 0.00000000 0.00000000
Neuron 6 2 0.00000000 1 0.00000000 0.00000000 0.00000000 0.00000000
Neuron 7 4 1.00000000 2 3.02500000 0.00000000 0.00000000 0.00000000
Neuron 8 4 1.00000000 2 3.02500000 0.00000000 0.00000000 0.00000000
Neuron 11 3 0.50000000 4 3.75850292 0.00000000 0.00000000 0.00000000
Neuron 14 3 0.75000000 6 1.39090960 0.00000000 0.00000000 0.00000000
Neuron 18 3 0.50000000 1 3.35266199 0.00000000 0.00000000 0.00000000
Neuron 33 3 0.75000000 10 0.84435021 0.00000000 0.00000000 0.00000000
Neuron 44 3 0.25000000 11 2.74716398 0.00000000 0.00000000 0.00000000
Neuron 47 3 0.75000000 4 5.77071015 0.00000000 0.00000000 0.00000000
Link 2 7 2 0 0.34526217
Link 3 7 3 0 0.40496098
Link 4 7 4 0 -0.13242419
Link 5 7 5 0 0.29015022
Link 6 7 6 0 0.80070587
Link 1 8 7 0 0.17790560
Link 2 8 8 0 0.42506405
Link 4 8 10 0 0.46855229
Link 5 8 11 0 -1.18599524
Link 6 8 12 0 0.43818711
Link 11 14 30 0 -0.06670623
Link 14 8 31 0 0.01683881
Link 4 14 43 0 0.25413297
Link 1 18 49 0 -0.04507179
Link 1 11 104 0 0.83532937
Link 18 33 163 0 0.93485787
Link 33 7 164 0 0.09571193
Link 4 44 223 0 0.91308708
Link 44 11 224 0 0.28186902
Link 11 47 247 0 1.08134021
Link 47 7 248 0 -0.35376413
GenomeEnd

GenomeStart 21395
Genome Fitness: 200.000000 
Neuron 1 1 0.00000000 1 0.00000000 0.00000000 0.00000000 0.00000000
Neuron 2 1 0.00000000 1 0.00000000 0.00000000 0.00000000 0.00000000
Neuron 3 1 0.00000000 1 0.00000000 0.00000000 0.00000000 0.00000000
Neuron 4 1 0.00000000 1 0.00000000 0.00000000 0.00000000 0.00000000
